svm_type one_class
kernel_type rbf
gamma 0.00029999999999999997
nr_class 2
total_sv 304
rho 0.024313517504079923
SV
0.020649786727054517 0:0 1:0 2:1 3:0 4:1 5:0 6:0 7:1 8:102 9:102 10:1 11:0 12:0 13:0 14:1 15:1 16:0 17:0 18:0 19:0 20:1 21:0 22:0 23:7 24:1 25:0.14 26:0.29 27:0.14 28:0 29:0 30:0 31:0 32:0 
0.014086465678320042 0:0 1:1 2:0 3:0 4:1 5:0 6:0 7:1 8:5891 9:0 10:1 11:0 12:0 13:0 14:13 15:1 16:0 17:0 18:0 19:0 20:0.08 21:0.31 22:0 23:83 24:1 25:0.01 26:0.08 27:0.23 28:0 29:0 30:0 31:0 32:0 
0.0048841669189923446 0:0 1:1 2:0 3:0 4:1 5:0 6:0 7:1 8:6601 9:0 10:1 11:0 12:0 13:0 14:21 15:1 16:0.05 17:0 18:0 19:0 20:0.05 21:0.38 22:0 23:173 24:1 25:0.01 26:0.06 27:0.32 28:0 29:0.01 30:0 31:0 32:0 
0.015468710666504768 0:0 1:1 2:0 3:0 4:1 5:0 6:0 7:1 8:8325 9:0 10:1 11:0 12:0 13:0 14:19 15:1 16:0.16 17:0 18:0 19:0 20:0.05 21:0.63 22:0 23:128 24:1 25:0.01 26:0.22 27:0.32 28:0 29:0.05 30:0 31:0 32:0 
0.024390325153503385 0:0 1:1 2:0 3:0 4:1 5:0 6:0 7:1 8:14189 9:0 10:1 11:0 12:0 13:0 14:2 15:1 16:0 17:0 18:0 19:0 20:0.5 21:1 22:0 23:177 24:1 25:0.01 26:0.08 27:0.08 28:0 29:0.02 30:0 31:0 32:0 
0.018910087896647752 0:7 1:1 2:0 3:0 4:1 5:0 6:0 7:1 8:1766 9:0 10:1 11:0 12:0 13:0 14:1 15:1 16:0 17:0 18:0 19:0 20:1 21:0 22:0 23:211 24:1 25:0 26:0.04 27:0.37 28:0 29:0 30:0 31:0 32:0 
0.012875245639116788 0:20 1:1 2:0 3:0 4:1 5:0 6:0 7:1 8:102 9:1341 10:1 11:0 12:0 13:0 14:1 15:1 16:0 17:0 18:0 19:0 20:1 21:0 22:0 23:108 24:1 25:0.01 26:0.07 27:0.01 28:0 29:0.01 30:0 31:0 32:0 
0.014775659352260393 0:7 1:1 2:0 3:0 4:1 5:0 6:0 7:1 8:103 9:999 10:1 11:0 12:0 13:0 14:1 15:1 16:0 17:0 18:0 19:0 20:1 21:0 22:0 23:171 24:2 25:0.01 26:0.03 27:0.01 28:1 29:0 30:0 31:0 32:0 
0.0065956107303573475 0:0 1:1 2:0 3:0 4:1 5:0 6:0 7:1 8:59 9:0 10:1 11:0 12:0 13:0 14:21 15:1 16:0.05 17:0 18:0 19:0 20:0.05 21:0.38 22:0 23:58 24:1 25:0.02 26:0.19 27:0.57 28:0 29:0.02 30:0 31:0 32:0 
0.012965703877648369 0:11 1:1 2:0 3:0 4:1 5:0 6:0 7:1 8:105 9:1071 10:1 11:0 12:0 13:0 14:1 15:1 16:0 17:0 18:0 19:0 20:1 21:0 22:0 23:194 24:1 25:0.01 26:0.04 27:0.01 28:0 29:0 30:0 31:0 32:0 
0.020106291660279427 0:0 1:1 2:0 3:0 4:1 5:0 6:0 7:1 8:3909 9:0 10:1 11:0 12:0 13:0 14:5 15:1 16:0.2 17:0 18:0 19:0 20:0.2 21:0.6 22:0 23:99 24:1 25:0.01 26:0.06 27:0.41 28:0 29:0.01 30:0 31:0.01 32:0 
0.014856659907386325 0:0 1:1 2:0 3:0 4:1 5:0 6:0 7:1 8:94 9:7466 10:1 11:0 12:0 13:0 14:1 15:1 16:0 17:0 18:0 19:0 20:1 21:0 22:0 23:78 24:1 25:0.01 26:0.06 27:0.01 28:0 29:0 30:0 31:0 32:0 
0.0055693365336384332 0:0 1:1 2:0 3:0 4:1 5:0 6:0 7:1 8:3775 9:0 10:1 11:0 12:0 13:0 14:23 15:1 16:0.04 17:0 18:0 19:0 20:0.04 21:0.43 22:0 23:175 24:1 25:0.01 26:0.07 27:0.33 28:0 29:0.01 30:0 31:0 32:0 
0.023623829130832046 0:3 1:1 2:0 3:0 4:1 5:0 6:0 7:1 8:106 9:3079 10:1 11:0 12:0 13:0 14:1 15:1 16:0 17:0 18:0 19:0 20:1 21:0 22:0 23:81 24:1 25:0.01 26:0.07 27:0.01 28:0 29:0 30:0 31:0 32:0 
0.012297764075145119 0:0 1:1 2:0 3:0 4:1 5:0 6:0 7:1 8:10261 9:0 10:1 11:0 12:0 13:0 14:12 15:1 16:0 17:0 18:0 19:0 20:0.08 21:0.67 22:0 23:135 24:1 25:0.01 26:0.07 27:0.44 28:0 29:0 30:0 31:0 32:0 
0.021549445768848451 0:0 1:1 2:0 3:0 4:1 5:0 6:0 7:1 8:35195 9:0 10:1 11:0 12:0 13:0 14:21 15:1 16:0.05 17:0 18:0 19:0 20:0.05 21:0.76 22:0 23:255 24:1 25:0 26:0.07 27:0.46 28:0 29:0 30:0 31:0 32:0 
0.019348029328301437 0:8 1:1 2:0 3:0 4:1 5:0 6:0 7:1 8:58 9:222 10:1 11:0 12:0 13:0 14:1 15:1 16:0 17:0 18:0 19:0 20:1 21:0 22:0 23:128 24:1 25:0.01 26:0.05 27:0.01 28:0 29:0.01 30:0 31:0.02 32:0 
0.024215455461634353 0:6 1:1 2:0 3:0 4:1 5:0 6:0 7:1 8:116 9:1193 10:1 11:0 12:0 13:0 14:1 15:1 16:0 17:0 18:0 19:0 20:1 21:0 22:0 23:255 24:1 25:0 26:0.07 27:0 28:0 29:0.94 30:0 31:0 32:0 
0.018273336045004692 0:0 1:1 2:0 3:0 4:1 5:0 6:0 7:1 8:4539 9:0 10:1 11:0 12:0 13:0 14:21 15:1 16:0.05 17:0 18:0 19:0 20:0.05 21:0.29 22:0 23:255 24:1 25:0 26:0.04 27:0.22 28:0 29:0 30:0 31:0 32:0 
0.024257319964865992 0:0 1:1 2:0 3:0 4:1 5:0 6:0 7:1 8:63 9:0 10:1 11:0 12:0 13:0 14:152 15:2 16:0.99 17:0 18:0 19:0 20:0.01 21:0.07 22:0 23:255 24:2 25:0.01 26:0.06 27:0.01 28:0 29:0.99 30:0 31:0 32:0 
0.021262244662700158 0:10 1:1 2:0 3:0 4:1 5:0 6:0 7:1 8:106 9:1580 10:1 11:0 12:0 13:0 14:1 15:1 16:0 17:0 18:0 19:0 20:1 21:0 22:0 23:159 24:1 25:0.01 26:0.03 27:0.01 28:0 29:0 30:0 31:0 32:0 
0.01532970420783723 0:0 1:1 2:0 3:0 4:1 5:0 6:0 7:1 8:3468 9:0 10:1 11:0 12:0 13:0 14:15 15:1 16:0.07 17:0 18:0 19:0 20:0.07 21:0.13 22:0 23:56 24:1 25:0.02 26:0.11 27:0.38 28:0 29:0.02 30:0 31:0 32:0 
0.02326862891449314 0:27 1:1 2:0 3:0 4:1 5:0 6:0 7:1 8:1004 9:3081 10:1 11:0 12:0 13:0 14:1 15:1 16:0 17:0 18:0 19:0 20:1 21:0 22:0 23:19 24:2 25:0.11 26:0.32 27:0.05 28:0 29:0 30:0 31:0 32:0 
0.01315683070466496 0:0 1:1 2:0 3:0 4:1 5:0 6:0 7:1 8:16787 9:0 10:1 11:0 12:0 13:0 14:9 15:1 16:0.11 17:0 18:0 19:0 20:0.11 21:0.33 22:0 23:75 24:1 25:0.01 26:0.11 27:0.31 28:0 29:0.01 30:0 31:0.01 32:0 
0.01492944474931511 0:0 1:1 2:0 3:0 4:1 5:0 6:0 7:1 8:567 9:0 10:1 11:0 12:0 13:0 14:1 15:1 16:0 17:0 18:0 19:0 20:1 21:0 22:0 23:6 24:1 25:0.17 26:0.33 27:0.17 28:0 29:0 30:0 31:0 32:0 
0.0093825646250377572 0:2 1:1 2:0 3:0 4:1 5:0 6:0 7:1 8:104 9:1410 10:1 11:0 12:0 13:0 14:1 15:1 16:0 17:0 18:0 19:0 20:1 21:0 22:0 23:121 24:2 25:0.01 26:0.04 27:0.01 28:1 29:0 30:0 31:0 32:0 
0.023790582995347406 0:0 1:1 2:0 3:0 4:1 5:0 6:0 7:1 8:10389 9:0 10:1 11:0 12:0 13:0 14:4 15:1 16:0 17:0 18:0 19:0 20:0.25 21:1 22:0 23:218 24:1 25:0 26:0.07 27:0.39 28:0 29:0 30:0 31:0 32:0 
0.024336343384244181 0:0 1:1 2:0 3:0 4:1 5:0 6:0 7:1 8:1247 9:365 10:1 11:0 12:0 13:0 14:1 15:2 16:0 17:0 18:0 19:0 20:1 21:0 22:1 23:20 24:1 25:0.05 26:0.15 27:0.05 28:0 29:0 30:0 31:0 32:0 
0.015623203694885932 0:0 1:1 2:0 3:0 4:1 5:0 6:0 7:1 8:248 9:376 10:1 11:0 12:0 13:0 14:2 15:2 16:0 17:0 18:0 19:0 20:1 21:0 22:0 23:81 24:2 25:0.02 26:0.07 27:0.01 28:0 29:0 30:0 31:0 32:0 
0.015195472582167278 0:0 1:1 2:0 3:0 4:1 5:0 6:0 7:1 8:3468 9:0 10:1 11:0 12:0 13:0 14:19 15:1 16:0.05 17:0 18:0 19:0 20:0.05 21:0.32 22:0 23:144 24:1 25:0.01 26:0.08 27:0.35 28:0 29:0.02 30:0 31:0 32:0 
0.012700206712900985 0:11 1:1 2:0 3:0 4:1 5:0 6:0 7:1 8:104 9:1413 10:1 11:0 12:0 13:0 14:1 15:1 16:0 17:0 18:0 19:0 20:1 21:0 22:0 23:64 24:1 25:0.02 26:0.08 27:0.02 28:0 29:0 30:0 31:0 32:0 
0.010557128816011225 0:0 1:1 2:0 3:0 4:1 5:0 6:0 7:1 8:59 9:0 10:1 11:0 12:0 13:0 14:22 15:1 16:0.05 17:0 18:0 19:0 20:0.05 21:0.77 22:0 23:255 24:1 25:0 26:0.07 27:0.46 28:0 29:0 30:0 31:0 32:0 
0.0053338540990397199 0:0 1:1 2:0 3:0 4:1 5:0 6:1 7:0 8:8325 9:0 10:1 11:0 12:0 13:0 14:1 15:1 16:1 17:1 18:0 19:0 20:1 21:0 22:0 23:229 24:1 25:0 26:0.12 27:0.42 28:0 29:0.01 30:1 31:0 32:0 
0.005218143988453397 0:7 1:1 2:0 3:0 4:1 5:0 6:0 7:1 8:105 9:2138 10:1 11:0 12:0 13:0 14:1 15:1 16:0 17:0 18:0 19:0 20:1 21:0 22:0 23:44 24:1 25:0.02 26:0.11 27:0.02 28:0 29:0 30:0 31:0 32:0 
0.0012337250472553903 0:0 1:1 2:0 3:0 4:1 5:0 6:0 7:1 8:63 9:0 10:1 11:0 12:0 13:0 14:1 15:1 16:0 17:0 18:0 19:0 20:1 21:0 22:0 23:255 24:2 25:0.01 26:0.07 27:0.01 28:0 29:0.93 30:0 31:0 32:0 
0.024446854624258815 0:13 1:1 2:0 3:0 4:1 5:0 6:0 7:1 8:105 9:1395 10:1 11:0 12:0 13:0 14:1 15:1 16:0 17:0 18:0 19:0 20:1 21:0 22:0 23:253 24:2 25:0.01 26:0.03 27:0 28:0 29:0 30:0 31:0 32:0 
0.022401516923465203 0:6 1:1 2:0 3:0 4:1 5:0 6:0 7:1 8:68 9:219 10:1 11:0 12:0 13:0 14:1 15:1 16:0 17:0 18:0 19:0 20:1 21:0 22:0 23:39 24:1 25:0.03 26:0.1 27:0.03 28:0 29:0 30:0 31:0 32:0 
0.024587162306383234 0:0 1:1 2:0 3:0 4:1 5:0 6:0 7:1 8:108 9:13614 10:1 11:0 12:0 13:0 14:1 15:1 16:0 17:0 18:0 19:0 20:1 21:0 22:0 23:212 24:2 25:0.01 26:0.07 27:0 28:0 29:0 30:0 31:0 32:0 
0.00088952169119098107 0:0 1:1 2:0 3:0 4:1 5:0 6:0 7:1 8:4539 9:0 10:1 11:0 12:0 13:0 14:20 15:1 16:0.05 17:0 18:0 19:0 20:0.05 21:0.3 22:0 23:202 24:1 25:0 26:0.1 27:0.4 28:0 29:0.02 30:0 31:0 32:0 
0.013226735673860778 0:0 1:1 2:0 3:0 4:1 5:0 6:0 7:1 8:10272 9:0 10:1 11:0 12:0 13:0 14:9 15:1 16:0.11 17:0 18:0 19:0 20:0.11 21:0.78 22:0 23:185 24:1 25:0.01 26:0.07 27:0.35 28:0 29:0.01 30:0 31:0 32:0 
0.014100796842878554 0:0 1:1 2:0 3:0 4:1 5:0 6:0 7:1 8:26408 9:0 10:1 11:0 12:0 13:0 14:8 15:1 16:0.12 17:0 18:0 19:0 20:0.12 21:0.75 22:0 23:102 24:1 25:0.01 26:0.09 27:0.43 28:0 29:0.01 30:0 31:0.01 32:0 
0.012013225854782258 0:0 1:1 2:0 3:0 4:1 5:0 6:0 7:1 8:16787 9:0 10:1 11:0 12:0 13:0 14:12 15:1 16:0.08 17:0 18:0 19:0 20:0.08 21:0.5 22:0 23:60 24:1 25:0.02 26:0.17 27:0.7 28:0 29:0.02 30:0 31:0 32:0 
0.0029211769151207662 0:0 1:1 2:0 3:0 4:1 5:0 6:0 7:1 8:190 9:0 10:1 11:0 12:0 13:0 14:2 15:2 16:0 17:0 18:0 19:0 20:1 21:0 22:0 23:56 24:2 25:0.04 26:0.07 27:0.04 28:0 29:0 30:0 31:0 32:0 
0.012591229513075782 0:0 1:1 2:0 3:0 4:1 5:0 6:0 7:1 8:1363 9:0 10:1 11:0 12:0 13:0 14:16 15:1 16:0.06 17:0 18:0 19:0 20:0.06 21:0.69 22:0 23:255 24:1 25:0 26:0.05 27:0.44 28:0 29:0 30:0 31:0 32:0 
0.024101222977096805 0:19 1:1 2:0 3:0 4:1 5:0 6:0 7:1 8:149 9:7976 10:1 11:0 12:0 13:0 14:1 15:1 16:0 17:0 18:0 19:0 20:1 21:0 22:0 23:95 24:2 25:0.01 26:0.04 27:0.01 28:1 29:0.03 30:0 31:0 32:0 
0.0072318297263762391 0:0 1:1 2:0 3:0 4:1 5:0 6:0 7:1 8:3775 9:0 10:1 11:0 12:0 13:0 14:22 15:1 16:0 17:0 18:0 19:0 20:0.05 21:0.23 22:0 23:100 24:1 25:0.01 26:0.07 27:0.43 28:0 29:0 30:0 31:0 32:0 
0.023256148031650527 0:10 1:1 2:0 3:0 4:1 5:0 6:0 7:1 8:141 9:1310 10:1 11:0 12:0 13:0 14:1 15:1 16:0 17:0 18:0 19:0 20:1 21:0 22:0 23:16 24:1 25:0.06 26:0.12 27:0.06 28:0 29:0 30:0 31:0 32:0 
0.024262013029754385 0:20 1:1 2:0 3:0 4:1 5:0 6:0 7:1 8:117 9:8172 10:1 11:0 12:0 13:0 14:1 15:1 16:0 17:0 18:0 19:0 20:1 21:0 22:0 23:255 24:1 25:0 26:0.03 27:0 28:0 29:0 30:0 31:0 32:0 
0.020027495790073936 0:0 1:1 2:0 3:0 4:1 5:0 6:0 7:1 8:7077 9:0 10:1 11:0 12:0 13:0 14:4 15:1 16:0.25 17:0 18:0 19:0 20:0.25 21:0.5 22:0 23:98 24:1 25:0.01 26:0.05 27:0.41 28:0 29:0.01 30:0 31:0.01 32:0 
0.023121406514686006 0:2 1:1 2:0 3:0 4:1 5:0 6:0 7:1 8:102 9:3741 10:1 11:0 12:0 13:0 14:1 15:1 16:0 17:0 18:0 19:0 20:1 21:0 22:0 23:14 24:1 25:0.07 26:0.21 27:0.07 28:0 29:0 30:0 31:0 32:0 
0.023405631313933195 0:28 1:1 2:0 3:0 4:1 5:0 6:0 7:1 8:1051 9:3081 10:1 11:0 12:0 13:0 14:1 15:2 16:0 17:0 18:0 19:0 20:1 21:0 22:1 23:114 24:2 25:0.02 26:0.04 27:0.01 28:0 29:0 30:0 31:0 32:0 
0.023890388546199601 0:0 1:1 2:0 3:0 4:1 5:0 6:1 7:0 8:5386 9:391074 10:1 11:0 12:0 13:0 14:1 15:1 16:1 17:1 18:0 19:0 20:1 21:0 22:0 23:255 24:2 25:0.01 26:0.07 27:0 28:0 29:0.93 30:0.5 31:0 32:0 
0.014488283747574073 0:0 1:1 2:0 3:0 4:1 5:0 6:0 7:1 8:5558 9:0 10:1 11:0 12:0 13:0 14:14 15:1 16:0.07 17:0 18:0 19:0 20:0.07 21:0.29 22:0 23:127 24:1 25:0.01 26:0.06 27:0.16 28:0 29:0.03 30:0 31:0 32:0 
0.019454051588966126 0:0 1:1 2:0 3:0 4:1 5:0 6:0 7:1 8:7940 9:0 10:1 11:0 12:0 13:0 14:9 15:1 16:0.11 17:0 18:0 19:0 20:0.11 21:0.22 22:0 23:255 24:1 25:0 26:0.07 27:0.37 28:0 29:0.02 30:0 31:0 32:0 
0.020130670896808835 0:0 1:1 2:0 3:0 4:1 5:0 6:0 7:1 8:10272 9:0 10:1 11:0 12:0 13:0 14:11 15:1 16:0.09 17:0 18:0 19:0 20:0.09 21:0.45 22:0 23:59 24:1 25:0.02 26:0.15 27:0.69 28:0 29:0.02 30:0 31:0 32:0 
0.013492980881917669 0:21 1:1 2:0 3:0 4:1 5:0 6:0 7:1 8:238 9:773 10:1 11:0 12:0 13:0 14:1 15:1 16:0 17:0 18:0 19:0 20:1 21:0 22:0 23:15 24:1 25:0.07 26:0.2 27:0.07 28:0 29:0 30:0 31:0 32:0 
0.024359176439378599 0:30 1:1 2:0 3:0 4:1 5:0 6:0 7:1 8:120 9:12935 10:1 11:0 12:0 13:0 14:1 15:1 16:0 17:0 18:0 19:0 20:1 21:0 22:0 23:212 24:2 25:0.01 26:0.15 27:0 28:0 29:0.03 30:0 31:0 32:0 
0.023366356830211113 0:0 1:1 2:0 3:0 4:1 5:0 6:0 7:1 8:3676 9:0 10:1 11:0 12:0 13:0 14:3 15:1 16:0 17:0 18:0 19:0 20:0.33 21:1 22:0 23:40 24:1 25:0.03 26:0.38 27:0.3 28:0 29:0.03 30:0 31:0 32:0 
0.013730990688916481 0:0 1:1 2:0 3:0 4:1 5:0 6:0 7:1 8:10044 9:0 10:1 11:0 12:0 13:0 14:11 15:1 16:0.09 17:0 18:0 19:0 20:0.09 21:0.45 22:0 23:255 24:1 25:0 26:0.07 27:0.37 28:0 29:0.02 30:0 31:0 32:0 
0.015792996249839167 0:0 1:1 2:0 3:0 4:1 5:0 6:0 7:1 8:637 9:0 10:1 11:0 12:0 13:0 14:11 15:1 16:0 17:0 18:0 19:0 20:0.09 21:0.91 22:0 23:120 24:1 25:0.01 26:0.1 27:0.19 28:0 29:0 30:0 31:0 32:0 
0.0026745007523649462 0:27 1:1 2:0 3:0 4:1 5:0 6:0 7:1 8:940 9:2720 10:1 11:0 12:0 13:0 14:2 15:1 16:0 17:0 18:0 19:0 20:0.5 21:1 22:0 23:25 24:2 25:0.08 26:0.16 27:0.04 28:0 29:0 30:0 31:0 32:0 
0.016003601648601807 0:6 1:1 2:0 3:0 4:1 5:0 6:0 7:1 8:103 9:2132 10:1 11:0 12:0 13:0 14:1 15:1 16:0 17:0 18:0 19:0 20:1 21:0 22:0 23:240 24:1 25:0 26:0.03 27:0 28:0 29:0 30:0 31:0 32:0 
0.011052975069539853 0:0 1:1 2:0 3:0 4:1 5:0 6:0 7:1 8:245 9:0 10:1 11:0 12:0 13:0 14:2 15:2 16:0 17:0 18:0 19:0 20:1 21:0 22:0 23:11 24:2 25:0.18 26:0.27 27:0.18 28:0 29:0 30:0 31:0 32:0 
0.024287663030132741 0:15 1:1 2:0 3:0 4:1 5:0 6:0 7:1 8:111 9:6390 10:1 11:0 12:0 13:0 14:2 15:1 16:0 17:0 18:0 19:0 20:0.5 21:1 22:0 23:23 24:2 25:0.04 26:0.26 27:0.04 28:1 29:0 30:0 31:0 32:0 
0.0077494596945705263 0:0 1:1 2:0 3:0 4:1 5:0 6:0 7:1 8:554 9:0 10:1 11:0 12:0 13:0 14:2 15:2 16:0 17:0 18:0 19:0 20:1 21:0 22:0 23:35 24:2 25:0.06 26:0.09 27:0.06 28:0 29:0 30:0 31:0 32:0 
0.019405079448973076 0:0 1:1 2:0 3:0 4:1 5:0 6:0 7:1 8:8737 9:0 10:1 11:0 12:0 13:0 14:4 15:1 16:0 17:0 18:0 19:0 20:0.25 21:0.5 22:0 23:116 24:1 25:0.01 26:0.09 27:0.28 28:0 29:0.01 30:0 31:0 32:0 
0.020797520392255228 0:21 1:1 2:0 3:0 4:1 5:0 6:0 7:1 8:114 9:9527 10:1 11:0 12:0 13:0 14:1 15:1 16:0 17:0 18:0 19:0 20:1 21:0 22:0 23:50 24:1 25:0.02 26:0.74 27:0.02 28:0 29:0 30:0 31:0 32:0 
0.023927268159176028 0:0 1:1 2:0 3:0 4:1 5:0 6:1 7:0 8:2895 9:14208 10:1 11:0 12:0 13:0 14:1 15:1 16:1 17:1 18:0 19:0 20:1 21:0 22:0 23:21 24:2 25:0.1 26:0.1 27:0.05 28:0 29:0.05 30:0.5 31:0 32:0 
0.024341917498737022 0:27 1:1 2:0 3:0 4:1 5:0 6:0 7:1 8:12983 9:0 10:1 11:0 12:0 13:0 14:1 15:1 16:0 17:0 18:0 19:0 20:1 21:0 22:0 23:39 24:1 25:0.03 26:0.1 27:0.23 28:0 29:0 30:0 31:0 32:0 
0.024364516235567422 0:14 1:1 2:0 3:0 4:1 5:0 6:0 7:1 8:108 9:4949 10:1 11:0 12:0 13:0 14:1 15:1 16:0 17:0 18:0 19:0 20:1 21:0 22:0 23:174 24:1 25:0.01 26:0.03 27:0.01 28:0 29:0.01 30:0 31:0 32:0 
0.024258128022157967 0:15 1:1 2:0 3:0 4:1 5:0 6:0 7:1 8:105 9:1851 10:1 11:0 12:0 13:0 14:1 15:1 16:0 17:0 18:0 19:0 20:1 21:0 22:0 23:56 24:1 25:0.02 26:0.07 27:0.02 28:0 29:0 30:0 31:0 32:0 
0.0244544898982316 0:18 1:1 2:0 3:0 4:1 5:0 6:0 7:1 8:115 9:9236 10:1 11:0 12:0 13:0 14:1 15:1 16:0 17:0 18:0 19:0 20:1 21:0 22:0 23:36 24:1 25:0.03 26:0.11 27:0.03 28:0 29:0 30:0 31:0 32:0 
0.024047191435953887 0:0 1:1 2:0 3:0 4:1 5:0 6:0 7:1 8:9311 9:0 10:1 11:0 12:0 13:0 14:5 15:1 16:0.2 17:0 18:0 19:0 20:0.2 21:0.6 22:0 23:164 24:1 25:0.01 26:0.04 27:0.29 28:0 29:0.01 30:0 31:0 32:0 
0.024106475957684659 0:3 1:1 2:0 3:0 4:1 5:0 6:0 7:1 8:140 9:1672 10:1 11:0 12:0 13:0 14:1 15:1 16:0 17:0 18:0 19:0 20:1 21:0 22:0 23:75 24:2 25:0.01 26:0.05 27:0.01 28:1 29:0 30:0 31:0 32:0 
0.013467759694014069 0:23 1:1 2:0 3:0 4:1 5:0 6:0 7:1 8:342 9:1069 10:1 11:0 12:0 13:0 14:1 15:1 16:0 17:0 18:0 19:0 20:1 21:0 22:0 23:21 24:2 25:0.1 26:0.19 27:0.05 28:0 29:0 30:0 31:0 32:0 
0.01369246916941696 0:0 1:1 2:0 3:0 4:1 5:0 6:0 7:1 8:259 9:0 10:1 11:0 12:0 13:0 14:2 15:2 16:0 17:0 18:0 19:0 20:1 21:0 22:0 23:101 24:2 25:0.02 26:0.04 27:0.02 28:0 29:0 30:0 31:0 32:0 
0.0085385486452614241 0:0 1:1 2:0 3:0 4:1 5:0 6:0 7:1 8:190 9:0 10:1 11:0 12:0 13:0 14:2 15:2 16:0 17:0 18:0 19:0 20:1 21:0 22:0 23:25 24:2 25:0.08 26:0.12 27:0.08 28:0 29:0 30:0 31:0 32:0 
0.01795037791124518 0:1 1:1 2:0 3:0 4:1 5:0 6:0 7:1 8:105 9:2135 10:1 11:0 12:0 13:0 14:1 15:1 16:0 17:0 18:0 19:0 20:1 21:0 22:0 23:14 24:1 25:0.07 26:0.21 27:0.07 28:0 29:0 30:0 31:0 32:0 
0.020041088290716678 0:4 1:1 2:0 3:0 4:1 5:0 6:0 7:1 8:100 9:2678 10:1 11:0 12:0 13:0 14:1 15:1 16:0 17:0 18:0 19:0 20:1 21:0 22:0 23:7 24:1 25:0.14 26:0.29 27:0.14 28:0 29:0 30:0 31:0 32:0 
0.018976843640834573 0:0 1:1 2:0 3:0 4:1 5:0 6:0 7:1 8:49 9:1460 10:1 11:0 12:0 13:0 14:1 15:1 16:0 17:0 18:0 19:0 20:1 21:0 22:0 23:23 24:2 25:0.04 26:0.17 27:0.04 28:1 29:0 30:0 31:0 32:0 
0.023724153184947163 0:11 1:1 2:0 3:0 4:1 5:0 6:0 7:1 8:110 9:2978 10:1 11:0 12:0 13:0 14:1 15:1 16:0 17:0 18:0 19:0 20:1 21:0 22:0 23:20 24:1 25:0.05 26:0.15 27:0.05 28:0 29:0 30:0 31:0 32:0 
0.016081580109002368 0:26 1:1 2:0 3:0 4:1 5:0 6:0 7:1 8:116 9:9589 10:1 11:0 12:0 13:0 14:1 15:1 16:0 17:0 18:0 19:0 20:1 21:0 22:0 23:90 24:1 25:0.01 26:0.06 27:0.01 28:0 29:0.01 30:0 31:0 32:0 
0.019582068615874578 0:0 1:1 2:0 3:0 4:1 5:0 6:0 7:1 8:491 9:0 10:1 11:0 12:0 13:0 14:2 15:2 16:0 17:0 18:0 19:0 20:1 21:0 22:0 23:14 24:2 25:0.14 26:0.14 27:0.14 28:0 29:0 30:0 31:0 32:0 
0.024282503891818158 0:0 1:1 2:0 3:0 4:1 5:0 6:0 7:1 8:164 9:12617 10:1 11:0 12:0 13:0 14:1 15:1 16:0 17:0 18:0 19:0 20:1 21:0 22:0 23:196 24:2 25:0.01 26:0.04 27:0.01 28:1 29:0.02 30:0 31:0.01 32:0 
0.0031384190173702649 0:0 1:1 2:0 3:0 4:1 5:0 6:0 7:1 8:10261 9:0 10:1 11:0 12:0 13:0 14:7 15:1 16:0.14 17:0 18:0 19:0 20:0.14 21:0.71 22:0 23:101 24:1 25:0.01 26:0.08 27:0.43 28:0 29:0.01 30:0 31:0.01 32:0 
0.0089770731342314752 0:2 1:1 2:0 3:0 4:1 5:0 6:0 7:1 8:651 9:9615 10:1 11:0 12:0 13:0 14:1 15:1 16:0 17:0 18:0 19:0 20:1 21:0 22:0 23:61 24:1 25:0.02 26:0.05 27:0.02 28:0 29:0 30:0 31:0 32:0 
0.019734696875845774 0:8 1:1 2:0 3:0 4:1 5:0 6:0 7:1 8:106 9:3211 10:1 11:0 12:0 13:0 14:1 15:1 16:0 17:0 18:0 19:0 20:1 21:0 22:0 23:232 24:2 25:0.01 26:0.03 27:0 28:0 29:0 30:0 31:0 32:0 
0.0030769892737900137 0:0 1:1 2:0 3:0 4:1 5:0 6:0 7:1 8:59 9:0 10:1 11:0 12:0 13:0 14:1 15:1 16:0 17:0 18:0 19:0 20:1 21:0 22:0 23:44 24:1 25:0.02 26:0.43 27:0.36 28:0 29:0.02 30:0 31:0 32:0 
0.01952222295865725 0:0 1:1 2:0 3:0 4:1 5:0 6:0 7:1 8:7940 9:0 10:1 11:0 12:0 13:0 14:10 15:1 16:0.1 17:0 18:0 19:0 20:0.1 21:0.8 22:0 23:186 24:1 25:0.01 26:0.08 27:0.35 28:0 29:0.01 30:0 31:0 32:0 
0.02057483700273717 0:0 1:1 2:0 3:0 4:1 5:0 6:0 7:1 8:7280 9:0 10:1 11:0 12:0 13:0 14:11 15:1 16:0.09 17:0 18:0 19:0 20:0.09 21:0.55 22:0 23:250 24:1 25:0 26:0.04 27:0.43 28:0 29:0 30:0 31:0 32:0 
0.015764958699341101 0:0 1:1 2:0 3:0 4:1 5:0 6:0 7:1 8:9178 9:0 10:1 11:0 12:0 13:0 14:3 15:1 16:0 17:0 18:0 19:0 20:0.33 21:1 22:0 23:217 24:1 25:0 26:0.07 27:0.39 28:0 29:0 30:0 31:0 32:0 
0.00015060453250269508 0:27 1:1 2:0 3:0 4:1 5:0 6:0 7:1 8:290 9:903 10:1 11:0 12:0 13:0 14:2 15:1 16:0 17:0 18:0 19:0 20:0.5 21:1 22:0 23:19 24:1 25:0.05 26:0.26 27:0.05 28:0 29:0 30:0 31:0 32:0 
0.01126262153830499 0:0 1:1 2:0 3:0 4:1 5:0 6:0 7:1 8:3909 9:0 10:1 11:0 12:0 13:0 14:5 15:1 16:0.2 17:0 18:0 19:0 20:0.2 21:0.6 22:0 23:177 24:1 25:0.01 26:0.03 27:0.06 28:0 29:0.01 30:0 31:0 32:0 
0.018208626537620093 0:0 1:1 2:0 3:0 4:1 5:0 6:0 7:1 8:6062 9:0 10:1 11:0 12:0 13:0 14:14 15:1 16:0.07 17:0 18:0 19:0 20:0.07 21:0.64 22:0 23:186 24:1 25:0.01 26:0.06 27:0.39 28:0 29:0.01 30:0 31:0 32:0 
0.020704358129448451 0:0 1:1 2:0 3:0 4:1 5:0 6:0 7:1 8:1189 9:331 10:1 11:0 12:0 13:0 14:1 15:1 16:0 17:0 18:0 19:0 20:1 21:0 22:0 23:255 24:2 25:0.01 26:0.91 27:0 28:0 29:0 30:0 31:0 32:0 
0.024238158492954989 0:0 1:1 2:0 3:0 4:1 5:0 6:0 7:1 8:4316 9:0 10:1 11:0 12:0 13:0 14:12 15:1 16:0 17:0 18:0 19:0 20:0.08 21:0.92 22:0 23:121 24:1 25:0.01 26:0.11 27:0.2 28:0 29:0 30:0 31:0 32:0 
0.0023960551053101445 0:0 1:1 2:0 3:0 4:1 5:0 6:0 7:1 8:15876 9:0 10:1 11:0 12:0 13:0 14:16 15:1 16:0.06 17:0 18:0 19:0 20:0.06 21:0.12 22:0 23:198 24:1 25:0.01 26:0.09 27:0.39 28:0 29:0.02 30:0 31:0 32:0 
0.024174055590175707 0:0 1:1 2:0 3:0 4:1 5:0 6:0 7:1 8:15377 9:0 10:1 11:0 12:0 13:0 14:3 15:1 16:0 17:0 18:0 19:0 20:0.33 21:1 22:0 23:214 24:1 25:0 26:0.06 27:0.38 28:0 29:0 30:0 31:0 32:0 
0.00943131742762633 0:0 1:1 2:0 3:0 4:1 5:0 6:0 7:1 8:10073 9:0 10:1 11:0 12:0 13:0 14:16 15:1 16:0.19 17:0 18:0 19:0 20:0.06 21:0.56 22:0 23:125 24:1 25:0.01 26:0.2 27:0.3 28:0 29:0.05 30:0 31:0 32:0 
0.019597511142439662 0:0 1:1 2:0 3:0 4:1 5:0 6:0 7:1 8:965 9:0 10:1 11:0 12:0 13:0 14:12 15:1 16:0.08 17:0 18:0 19:0 20:0.08 21:0.42 22:0 23:121 24:1 25:0.01 26:0.17 27:0.28 28:0 29:0.03 30:0 31:0 32:0 
0.002915981215163834 0:0 1:1 2:0 3:0 4:1 5:0 6:0 7:1 8:607 9:0 10:1 11:0 12:0 13:0 14:1 15:1 16:0 17:0 18:0 19:0 20:1 21:0 22:0 23:145 24:1 25:0.01 26:0.06 27:0.23 28:0 29:0.01 30:0 31:0 32:0 
0.014196280811182228 0:4 1:1 2:0 3:0 4:1 5:0 6:0 7:1 8:70 9:663 10:1 11:0 12:0 13:0 14:1 15:1 16:0 17:0 18:0 19:0 20:1 21:0 22:0 23:12 24:1 25:0.08 26:0.25 27:0.08 28:0 29:0 30:0 31:0 32:0 
0.023543975979508643 0:6 1:1 2:0 3:0 4:1 5:0 6:0 7:1 8:105 9:2860 10:1 11:0 12:0 13:0 14:1 15:1 16:0 17:0 18:0 19:0 20:1 21:0 22:0 23:8 24:2 25:0.12 26:0.25 27:0.12 28:1 29:0 30:0 31:0 32:0 
0.015628206488255771 0:0 1:1 2:0 3:0 4:1 5:0 6:0 7:1 8:248 9:368 10:1 11:0 12:0 13:0 14:2 15:2 16:0 17:0 18:0 19:0 20:1 21:0 22:0 23:38 24:2 25:0.05 26:0.16 27:0.03 28:0 29:0 30:0 31:0 32:0 
0.014738287807233855 0:0 1:1 2:0 3:0 4:1 5:0 6:0 7:1 8:3690 9:0 10:1 11:0 12:0 13:0 14:4 15:1 16:0 17:0 18:0 19:0 20:0.25 21:1 22:0 23:215 24:1 25:0 26:0.06 27:0.39 28:0 29:0 30:0 31:0 32:0 
0.010129673400793907 0:25 1:1 2:0 3:0 4:1 5:0 6:0 7:1 8:35195 9:0 10:1 11:0 12:0 13:0 14:1 15:1 16:0 17:0 18:0 19:0 20:1 21:0 22:0 23:73 24:1 25:0.01 26:0.38 27:0.53 28:0 29:0 30:0 31:0 32:0 
0.014841880487359545 0:0 1:1 2:0 3:0 4:1 5:0 6:0 7:1 8:5336 9:0 10:1 11:0 12:0 13:0 14:12 15:1 16:0 17:0 18:0 19:0 20:0.08 21:0.25 22:0 23:82 24:1 25:0.01 26:0.07 27:0.22 28:0 29:0 30:0 31:0 32:0 
0.023896664463179978 0:9 1:1 2:0 3:0 4:1 5:0 6:0 7:1 8:113 9:4078 10:1 11:0 12:0 13:0 14:1 15:1 16:0 17:0 18:0 19:0 20:1 21:0 22:0 23:11 24:2 25:0.09 26:0.27 27:0.09 28:1 29:0 30:0 31:0 32:0 
0.01476123107707761 0:0 1:1 2:0 3:0 4:1 5:0 6:0 7:1 8:2056 9:0 10:1 11:0 12:0 13:0 14:6 15:1 16:0.17 17:0 18:0 19:0 20:0.17 21:0.5 22:0 23:130 24:1 25:0.01 26:0.06 27:0.12 28:0 29:0.01 30:0 31:0 32:0 
0.015647831756317974 0:27 1:1 2:0 3:0 4:1 5:0 6:0 7:1 8:950 9:2720 10:1 11:0 12:0 13:0 14:1 15:1 16:0 17:0 18:0 19:0 20:1 21:0 22:0 23:33 24:1 25:0.03 26:0.09 27:0.03 28:0 29:0 30:0 31:0 32:0 
0.02009246237501839 0:0 1:1 2:0 3:0 4:1 5:0 6:0 7:1 8:4763 9:0 10:1 11:0 12:0 13:0 14:10 15:1 16:0.1 17:0 18:0 19:0 20:0.1 21:0.4 22:0 23:255 24:1 25:0 26:0.07 27:0.36 28:0 29:0.02 30:0 31:0 32:0 
0.0054463053444918121 0:0 1:1 2:0 3:0 4:1 5:0 6:0 7:1 8:3775 9:0 10:1 11:0 12:0 13:0 14:20 15:1 16:0.05 17:0 18:0 19:0 20:0.05 21:0.1 22:0 23:185 24:1 25:0.01 26:0.04 27:0.25 28:0 29:0.01 30:0 31:0 32:0 
0.0095676938450173915 0:0 1:1 2:0 3:0 4:1 5:0 6:0 7:1 8:10073 9:0 10:1 11:0 12:0 13:0 14:14 15:1 16:0.07 17:0 18:0 19:0 20:0.07 21:0.64 22:0 23:253 24:1 25:0 26:0.05 27:0.43 28:0 29:0 30:0 31:0 32:0 
0.020233582476679772 0:4 1:1 2:0 3:0 4:1 5:0 6:0 7:1 8:106 9:2687 10:1 11:0 12:0 13:0 14:1 15:1 16:0 17:0 18:0 19:0 20:1 21:0 22:0 23:78 24:2 25:0.03 26:0.06 27:0.01 28:0 29:0 30:0 31:0 32:0 
0.015624877718045205 0:0 1:1 2:0 3:0 4:1 5:0 6:0 7:1 8:5319 9:0 10:1 11:0 12:0 13:0 14:10 15:1 16:0 17:0 18:0 19:0 20:0.1 21:0.9 22:0 23:119 24:1 25:0.01 26:0.09 27:0.18 28:0 29:0 30:0 31:0 32:0 
0.024348411927850845 0:0 1:1 2:0 3:0 4:1 5:0 6:0 7:1 8:66 9:4367 10:1 11:0 12:0 13:0 14:1 15:1 16:0 17:0 18:0 19:0 20:1 21:0 22:0 23:65 24:2 25:0.02 26:0.08 27:0.02 28:1 29:0 30:0 31:0 32:0 
0.019238721301611458 0:4 1:1 2:0 3:0 4:1 5:0 6:0 7:1 8:104 9:959 10:1 11:0 12:0 13:0 14:1 15:1 16:0 17:0 18:0 19:0 20:1 21:0 22:0 23:62 24:2 25:0.02 26:0.1 27:0.02 28:1 29:0 30:0 31:0 32:0 
0.0028101795771728194 0:0 1:1 2:0 3:0 4:1 5:0 6:0 7:1 8:3888 9:0 10:1 11:0 12:0 13:0 14:11 15:1 16:0.09 17:0 18:0 19:0 20:0.09 21:0.36 22:0 23:120 24:1 25:0.01 26:0.17 27:0.28 28:0 29:0.03 30:0 31:0 32:0 
0.021577030609229067 0:0 1:1 2:0 3:0 4:1 5:0 6:0 7:1 8:6601 9:0 10:1 11:0 12:0 13:0 14:18 15:1 16:0.06 17:0 18:0 19:0 20:0.06 21:0.28 22:0 23:55 24:1 25:0.02 26:0.15 27:0.55 28:0 29:0.02 30:0 31:0 32:0 
0.022687641880526473 0:6 1:1 2:0 3:0 4:1 5:0 6:0 7:1 8:7012 9:0 10:1 11:0 12:0 13:0 14:2 15:1 16:0 17:0 18:0 19:0 20:0.5 21:1 22:0 23:34 24:1 25:0.03 26:0.26 27:0.18 28:0 29:0.03 30:0 31:0 32:0 
0.0053406250948482056 0:0 1:1 2:0 3:0 4:1 5:0 6:0 7:1 8:190 9:0 10:1 11:0 12:0 13:0 14:2 15:2 16:0 17:0 18:0 19:0 20:1 21:0 22:0 23:255 24:2 25:0.01 26:0.62 27:0.01 28:0 29:0 30:0 31:0 32:0 
0.012373652700250688 0:0 1:1 2:0 3:0 4:1 5:0 6:0 7:1 8:10044 9:0 10:1 11:0 12:0 13:0 14:11 15:1 16:0.09 17:0 18:0 19:0 20:0.09 21:0.82 22:0 23:105 24:1 25:0.01 26:0.11 27:0.45 28:0 29:0.01 30:0 31:0.01 32:0 
0.024152511384702084 0:2 1:1 2:0 3:0 4:1 5:0 6:0 7:1 8:383 9:0 10:1 11:0 12:0 13:0 14:1 15:1 16:0 17:0 18:0 19:0 20:1 21:0 22:0 23:208 24:1 25:0 26:0.03 27:0.37 28:0 29:0 30:0 31:0 32:0 
0.024343029270036984 0:0 1:1 2:0 3:0 4:1 5:0 6:0 7:1 8:1377 9:278 10:1 11:0 12:0 13:0 14:1 15:1 16:0 17:0 18:0 19:0 20:1 21:0 22:0 23:36 24:2 25:0.06 26:0.14 27:0.03 28:0 29:0 30:0 31:0 32:0 
0.021513629640847347 0:0 1:1 2:0 3:0 4:1 5:0 6:0 7:1 8:15876 9:0 10:1 11:0 12:0 13:0 14:22 15:1 16:0.05 17:0 18:0 19:0 20:0.05 21:0.41 22:0 23:59 24:1 25:0.02 26:0.2 27:0.58 28:0 29:0.02 30:0 31:0 32:0 
0.019105047294717181 0:0 1:1 2:0 3:0 4:1 5:0 6:1 7:0 8:8760 9:0 10:1 11:0 12:0 13:0 14:7 15:1 16:0.43 17:1 18:0 19:0 20:0.14 21:0.71 22:0 23:179 24:1 25:0.01 26:0.04 27:0.07 28:0 29:0.02 30:1 31:0 32:0 
0.024234945433262725 0:23 1:1 2:0 3:0 4:1 5:0 6:0 7:1 8:123 9:10204 10:1 11:0 12:0 13:0 14:2 15:1 16:0 17:0 18:0 19:0 20:0.5 21:1 22:0 23:107 24:1 25:0.01 26:0.06 27:0.01 28:0 29:0 30:0 31:0 32:0 
0.024262600027773466 0:5 1:1 2:0 3:0 4:1 5:0 6:0 7:1 8:108 9:2708 10:1 11:0 12:0 13:0 14:2 15:1 16:0 17:0 18:0 19:0 20:0.5 21:1 22:0 23:255 24:2 25:0.01 26:0.04 27:0 28:0 29:0 30:0 31:0 32:0 
0.013867202115874314 0:0 1:1 2:0 3:0 4:1 5:0 6:0 7:1 8:567 9:0 10:1 11:0 12:0 13:0 14:1 15:1 16:0 17:0 18:0 19:0 20:1 21:0 22:0 23:197 24:1 25:0.01 26:0.04 27:0.01 28:0 29:0 30:0 31:0 32:0 
0.012713905808792239 0:0 1:1 2:0 3:0 4:1 5:0 6:0 7:1 8:641 9:0 10:1 11:0 12:0 13:0 14:1 15:1 16:0 17:0 18:0 19:0 20:1 21:0 22:0 23:171 24:1 25:0.01 26:0.06 27:0.05 28:0 29:0.01 30:0 31:0 32:0 
0.013708639223329969 0:0 1:1 2:0 3:0 4:1 5:0 6:0 7:1 8:2056 9:0 10:1 11:0 12:0 13:0 14:4 15:1 16:0.25 17:0 18:0 19:0 20:0.25 21:0.5 22:0 23:163 24:1 25:0.01 26:0.04 27:0.28 28:0 29:0.01 30:0 31:0 32:0 
0.024343027762855188 0:0 1:1 2:0 3:0 4:1 5:0 6:1 7:0 8:218 9:83028 10:1 11:0 12:0 13:0 14:1 15:1 16:1 17:1 18:0 19:0 20:1 21:0 22:0 23:16 24:2 25:0.12 26:0.25 27:0.06 28:0 29:0.12 30:0.5 31:0 32:0 
0.0016384371244974189 0:0 1:1 2:0 3:0 4:1 5:0 6:1 7:0 8:1460 9:0 10:1 11:0 12:0 13:0 14:5 15:1 16:0.2 17:1 18:0 19:0 20:0.2 21:1 22:0 23:78 24:1 25:0.01 26:0.19 27:0.13 28:0 29:0.03 30:1 31:0 32:0 
0.02423591315488309 0:12 1:1 2:0 3:0 4:1 5:0 6:0 7:1 8:116 9:10788 10:1 11:0 12:0 13:0 14:1 15:1 16:0 17:0 18:0 19:0 20:1 21:0 22:0 23:15 24:2 25:0.07 26:0.27 27:0.07 28:1 29:0 30:0 31:0 32:0 
0.013003333081764547 0:4 1:1 2:0 3:0 4:1 5:0 6:0 7:1 8:102 9:1512 10:1 11:0 12:0 13:0 14:1 15:1 16:0 17:0 18:0 19:0 20:1 21:0 22:0 23:141 24:1 25:0.01 26:0.04 27:0.01 28:0 29:0 30:0 31:0 32:0 
0.018828511416148538 0:0 1:1 2:0 3:0 4:1 5:0 6:0 7:1 8:567 9:0 10:1 11:0 12:0 13:0 14:1 15:1 16:0 17:0 18:0 19:0 20:1 21:0 22:0 23:255 24:1 25:0 26:0.58 27:0 28:0 29:0 30:0 31:0 32:0 
0.0025044453619643249 0:1 1:1 2:0 3:0 4:1 5:0 6:0 7:1 8:101 9:1493 10:1 11:0 12:0 13:0 14:1 15:1 16:0 17:0 18:0 19:0 20:1 21:0 22:0 23:18 24:1 25:0.06 26:0.28 27:0.06 28:0 29:0 30:0 31:0 32:0 
0.010647040614416058 0:6 1:1 2:0 3:0 4:1 5:0 6:0 7:1 8:104 9:1025 10:1 11:0 12:0 13:0 14:1 15:1 16:0 17:0 18:0 19:0 20:1 21:0 22:0 23:140 24:2 25:0.01 26:0.04 27:0.01 28:0 29:0.01 30:0.5 31:0 32:0 
0.024123303304206874 0:9 1:1 2:0 3:0 4:1 5:0 6:0 7:1 8:6062 9:0 10:1 11:0 12:0 13:0 14:3 15:1 16:0 17:0 18:0 19:0 20:0.33 21:1 22:0 23:63 24:1 25:0.02 26:0.3 27:0.48 28:0 29:0 30:0 31:0 32:0 
0.017497683453954953 0:27 1:1 2:0 3:0 4:1 5:0 6:0 7:1 8:897 9:2720 10:1 11:0 12:0 13:0 14:1 15:1 16:0 17:0 18:0 19:0 20:1 21:0 22:0 23:61 24:2 25:0.03 26:0.07 27:0.02 28:0 29:0 30:0 31:0 32:0 
0.024331935148463532 0:16 1:1 2:0 3:0 4:1 5:0 6:0 7:1 8:118 9:6182 10:1 11:0 12:0 13:0 14:1 15:1 16:0 17:0 18:0 19:0 20:1 21:0 22:0 23:88 24:2 25:0.01 26:0.08 27:0.01 28:1 29:0 30:0 31:0 32:0 
0.013114645276444212 0:0 1:1 2:0 3:0 4:1 5:0 6:0 7:1 8:35195 9:0 10:1 11:0 12:0 13:0 14:19 15:1 16:0.05 17:0 18:0 19:0 20:0.05 21:0.32 22:0 23:56 24:1 25:0.02 26:0.16 27:0.55 28:0 29:0.02 30:0 31:0 32:0 
0.024659960063258109 0:13 1:1 2:0 3:0 4:1 5:0 6:0 7:1 8:246 9:11938 10:1 11:0 12:0 13:0 14:1 15:1 16:0 17:0 18:0 19:0 20:1 21:0 22:0 23:89 24:2 25:0.02 26:0.04 27:0.01 28:0 29:0 30:0 31:0 32:0 
0.023863658343589098 0:0 1:1 2:0 3:0 4:1 5:0 6:0 7:1 8:80 9:5046 10:1 11:0 12:0 13:0 14:1 15:1 16:0 17:0 18:0 19:0 20:1 21:0 22:0 23:40 24:1 25:0.03 26:0.12 27:0.03 28:0 29:0 30:0 31:0 32:0 
0.024222693148938622 0:17 1:1 2:0 3:0 4:1 5:0 6:0 7:1 8:115 9:8173 10:1 11:0 12:0 13:0 14:1 15:1 16:0 17:0 18:0 19:0 20:1 21:0 22:0 23:83 24:1 25:0.01 26:0.08 27:0.01 28:0 29:0 30:0 31:0 32:0 
0.019734256688954947 0:0 1:1 2:0 3:0 4:1 5:0 6:0 7:1 8:3888 9:0 10:1 11:0 12:0 13:0 14:9 15:1 16:0.11 17:0 18:0 19:0 20:0.11 21:0.44 22:0 23:248 24:1 25:0 26:0.03 27:0.42 28:0 29:0 30:0 31:0 32:0 
0.01866942730265414 0:0 1:1 2:0 3:0 4:1 5:0 6:0 7:1 8:7233 9:0 10:1 11:0 12:0 13:0 14:5 15:1 16:0 17:0 18:0 19:0 20:0.2 21:1 22:0 23:38 24:1 25:0.03 26:0.34 27:0.26 28:0 29:0.03 30:0 31:0 32:0 
0.020296253739604125 0:0 1:1 2:0 3:0 4:1 5:0 6:0 7:1 8:3775 9:0 10:1 11:0 12:0 13:0 14:22 15:1 16:0.05 17:0 18:0 19:0 20:0.05 21:0.32 22:0 23:255 24:1 25:0 26:0.04 27:0.22 28:0 29:0 30:0 31:0 32:0 
0.024205943122077793 0:0 1:1 2:0 3:0 4:1 5:0 6:0 7:1 8:26408 9:0 10:1 11:0 12:0 13:0 14:8 15:1 16:0.12 17:0 18:0 19:0 20:0.12 21:0.25 22:0 23:255 24:1 25:0 26:0.06 27:0.36 28:0 29:0.02 30:0 31:0 32:0 
0.024696509466107179 0:13 1:1 2:0 3:0 4:1 5:0 6:0 7:1 8:114 9:8762 10:1 11:0 12:0 13:0 14:1 15:1 16:0 17:0 18:0 19:0 20:1 21:0 22:0 23:149 24:1 25:0.01 26:0.04 27:0.01 28:0 29:0 30:0 31:0 32:0 
0.012771873424660584 0:4 1:1 2:0 3:0 4:1 5:0 6:0 7:1 8:1470 9:0 10:1 11:0 12:0 13:0 14:2 15:1 16:0 17:0 18:0 19:0 20:0.5 21:1 22:0 23:54 24:1 25:0.02 26:0.2 27:0.41 28:0 29:0 30:0 31:0 32:0 
0.024268154073415323 0:19 1:1 2:0 3:0 4:1 5:0 6:0 7:1 8:122 9:14426 10:1 11:0 12:0 13:0 14:1 15:1 16:0 17:0 18:0 19:0 20:1 21:0 22:0 23:71 24:2 25:0.01 26:0.08 27:0.01 28:1 29:0 30:0 31:0 32:0 
0.019457012505863163 0:0 1:1 2:0 3:0 4:1 5:0 6:0 7:1 8:965 9:0 10:1 11:0 12:0 13:0 14:10 15:1 16:0.1 17:0 18:0 19:0 20:0.1 21:0.5 22:0 23:249 24:1 25:0 26:0.03 27:0.43 28:0 29:0 30:0 31:0 32:0 
0.0066607725848519869 0:0 1:1 2:0 3:0 4:1 5:0 6:0 7:1 8:6601 9:0 10:1 11:0 12:0 13:0 14:20 15:1 16:0.05 17:0 18:0 19:0 20:0.05 21:0.25 22:0 23:255 24:1 25:0 26:0.03 27:0.21 28:0 29:0 30:0 31:0 32:0 
0.023958795062360767 0:3 1:1 2:0 3:0 4:1 5:0 6:0 7:1 8:80 9:5505 10:1 11:0 12:0 13:0 14:2 15:1 16:0 17:0 18:0 19:0 20:0.5 21:1 22:0 23:16 24:2 25:0.06 26:0.31 27:0.06 28:1 29:0 30:0 31:0 32:0 
0.0052001934066095339 0:0 1:1 2:0 3:0 4:1 5:0 6:0 7:1 8:190 9:0 10:1 11:0 12:0 13:0 14:2 15:3 16:0 17:0 18:0 19:0 20:1 21:0 22:0.67 23:173 24:2 25:0.01 26:0.03 27:0.01 28:0 29:0 30:0 31:0 32:0 
0.015653782606315746 0:0 1:1 2:0 3:0 4:1 5:0 6:0 7:1 8:245 9:0 10:1 11:0 12:0 13:0 14:2 15:2 16:0 17:0 18:0 19:0 20:1 21:0 22:0 23:255 24:2 25:0.01 26:0.84 27:0.01 28:0 29:0 30:0 31:0 32:0 
0.019324182911191971 0:0 1:1 2:0 3:0 4:1 5:0 6:0 7:1 8:80 9:3971 10:1 11:0 12:0 13:0 14:1 15:1 16:0 17:0 18:0 19:0 20:1 21:0 22:0 23:56 24:2 25:0.02 26:0.09 27:0.02 28:1 29:0.02 30:0 31:0.02 32:0 
0.013707299657684453 0:28 1:1 2:0 3:0 4:1 5:0 6:0 7:1 8:112 9:7476 10:1 11:0 12:0 13:0 14:2 15:1 16:0 17:0 18:0 19:0 20:0.5 21:1 22:0 23:82 24:1 25:0.01 26:0.07 27:0.01 28:0 29:0 30:0 31:0 32:0 
0.010818637452174625 0:0 1:1 2:0 3:0 4:1 5:0 6:0 7:1 8:4539 9:0 10:1 11:0 12:0 13:0 14:8 15:1 16:0.12 17:0 18:0 19:0 20:0.12 21:0.38 22:0 23:180 24:1 25:0.01 26:0.03 27:0.37 28:0 29:0.01 30:0 31:0 32:0 
0.013851444615393251 0:0 1:1 2:0 3:0 4:1 5:0 6:0 7:1 8:10261 9:0 10:1 11:0 12:0 13:0 14:13 15:1 16:0.08 17:0 18:0 19:0 20:0.08 21:0.54 22:0 23:255 24:1 25:0 26:0.08 27:0.38 28:0 29:0.02 30:0 31:0 32:0 
0.0088064454772088813 0:7 1:1 2:0 3:0 4:1 5:0 6:0 7:1 8:105 9:2138 10:1 11:0 12:0 13:0 14:1 15:1 16:0 17:0 18:0 19:0 20:1 21:0 22:0 23:189 24:2 25:0.01 26:0.03 27:0.01 28:0 29:0 30:0 31:0 32:0 
0.011213578572725171 0:0 1:1 2:0 3:0 4:1 5:0 6:0 7:1 8:4539 9:0 10:1 11:0 12:0 13:0 14:23 15:1 16:0.04 17:0 18:0 19:0 20:0.04 21:0.43 22:0 23:148 24:1 25:0.01 26:0.1 27:0.37 28:0 29:0.02 30:0 31:0 32:0 
0.012284443431021964 0:0 1:1 2:0 3:0 4:1 5:0 6:0 7:1 8:6601 9:0 10:1 11:0 12:0 13:0 14:18 15:1 16:0.17 17:0 18:0 19:0 20:0.06 21:0.61 22:0 23:127 24:1 25:0.01 26:0.21 27:0.31 28:0 29:0.05 30:0 31:0 32:0 
0.017096316888072664 0:23 1:1 2:0 3:0 4:1 5:0 6:0 7:1 8:272 9:903 10:1 11:0 12:0 13:0 14:1 15:1 16:0 17:0 18:0 19:0 20:1 21:0 22:0 23:60 24:2 25:0.03 26:0.33 27:0.02 28:0 29:0.02 30:0 31:0 32:0 
0.012832905274128949 0:4 1:1 2:0 3:0 4:1 5:0 6:0 7:1 8:99 9:2068 10:1 11:0 12:0 13:0 14:1 15:1 16:0 17:0 18:0 19:0 20:1 21:0 22:0 23:241 24:2 25:0.01 26:0.03 27:0 28:0 29:0.01 30:0 31:0 32:0 
0.011298330086080405 0:0 1:1 2:0 3:0 4:1 5:0 6:0 7:1 8:245 9:0 10:1 11:0 12:0 13:0 14:1 15:2 16:0 17:0 18:0 19:0 20:1 21:0 22:1 23:206 24:2 25:0.01 26:0.53 27:0.01 28:0 29:0 30:0 31:0 32:0 
0.015626201636950204 0:18 1:1 2:0 3:0 4:1 5:0 6:0 7:1 8:108 9:5783 10:1 11:0 12:0 13:0 14:1 15:1 16:0 17:0 18:0 19:0 20:1 21:0 22:0 23:64 24:2 25:0.03 26:0.08 27:0.02 28:0 29:0 30:0 31:0 32:0 
0.016433385325248403 0:0 1:1 2:0 3:0 4:1 5:0 6:0 7:1 8:879 9:0 10:1 11:0 12:0 13:0 14:3 15:1 16:0 17:0 18:0 19:0 20:0.33 21:1 22:0 23:219 24:1 25:0 26:0.08 27:0.4 28:0 29:0 30:0 31:0 32:0 
0.013416302226381347 0:0 1:0 2:1 3:0 4:1 5:0 6:0 7:1 8:147 9:0 10:1 11:0 12:0 13:0 14:7 15:1 16:0.14 17:0 18:0 19:0 20:0.14 21:0.57 22:0 23:255 24:1 25:0 26:0.08 27:0.1 28:0 29:0 30:0 31:0 32:0 
0.011687109041483654 0:0 1:1 2:0 3:0 4:1 5:0 6:0 7:1 8:1363 9:0 10:1 11:0 12:0 13:0 14:8 15:1 16:0 17:0 18:0 19:0 20:0.12 21:0.38 22:0 23:117 24:1 25:0.01 26:0.16 27:0.26 28:0 29:0.03 30:0 31:0 32:0 
0.015725537462221995 0:2 1:1 2:0 3:0 4:1 5:0 6:0 7:1 8:651 9:9615 10:1 11:0 12:0 13:0 14:1 15:1 16:0 17:0 18:0 19:0 20:1 21:0 22:0 23:43 24:1 25:0.02 26:0.09 27:0.02 28:0 29:0 30:0 31:0 32:0 
0.014496217791539236 0:0 1:1 2:0 3:0 4:1 5:0 6:0 7:1 8:9198 9:0 10:1 11:0 12:0 13:0 14:4 15:1 16:0 17:0 18:0 19:0 20:0.25 21:0.75 22:0 23:180 24:1 25:0.01 26:0.05 27:0.33 28:0 29:0 30:0 31:0 32:0 
0.022073599168289802 0:0 1:1 2:0 3:0 4:1 5:0 6:0 7:1 8:15876 9:0 10:1 11:0 12:0 13:0 14:15 15:1 16:0.07 17:0 18:0 19:0 20:0.07 21:0.67 22:0 23:254 24:1 25:0 26:0.05 27:0.44 28:0 29:0 30:0 31:0 32:0 
0.012788931011906798 0:22 1:1 2:0 3:0 4:1 5:0 6:0 7:1 8:333 9:1054 10:1 11:0 12:0 13:0 14:1 15:1 16:0 17:0 18:0 19:0 20:1 21:0 22:0 23:6 24:1 25:0.17 26:0.33 27:0.17 28:0 29:0 30:0 31:0 32:0 
0.010674350427614457 0:0 1:1 2:0 3:0 4:1 5:0 6:0 7:1 8:965 9:0 10:1 11:0 12:0 13:0 14:12 15:1 16:0.08 17:0 18:0 19:0 20:0.08 21:0.58 22:0 23:184 24:1 25:0.01 26:0.05 27:0.38 28:0 29:0.01 30:0 31:0 32:0 
0.024467211483086407 0:27 1:1 2:0 3:0 4:1 5:0 6:0 7:1 8:116 9:15814 10:1 11:0 12:0 13:0 14:1 15:1 16:0 17:0 18:0 19:0 20:1 21:0 22:0 23:7 24:1 25:0.14 26:0.29 27:0.14 28:0 29:0 30:0 31:0 32:0 
0.019192805950430335 0:3 1:1 2:0 3:0 4:1 5:0 6:0 7:1 8:91 9:5810 10:1 11:0 12:0 13:0 14:6 15:1 16:0 17:0 18:0 19:0 20:0.17 21:0.5 22:0 23:14 24:2 25:0.07 26:0.43 27:0.07 28:1 29:0 30:0 31:0 32:0 
0.024318620380716437 0:0 1:1 2:0 3:0 4:1 5:0 6:0 7:1 8:8173 9:0 10:1 11:0 12:0 13:0 14:12 15:1 16:0.08 17:0 18:0 19:0 20:0.08 21:0.83 22:0 23:171 24:1 25:0.01 26:0.08 27:0.32 28:0 29:0.01 30:0 31:0 32:0 
0.013498239388251889 0:9 1:1 2:0 3:0 4:1 5:0 6:0 7:1 8:104 9:2123 10:1 11:0 12:0 13:0 14:1 15:1 16:0 17:0 18:0 19:0 20:1 21:0 22:0 23:141 24:1 25:0.01 26:0.05 27:0.01 28:0 29:0 30:0 31:0 32:0 
0.010654668777891629 0:0 1:1 2:0 3:0 4:1 5:0 6:0 7:1 8:15876 9:0 10:1 11:0 12:0 13:0 14:17 15:1 16:0.18 17:0 18:0 19:0 20:0.06 21:0.59 22:0 23:126 24:1 25:0.01 26:0.21 27:0.31 28:0 29:0.05 30:0 31:0 32:0 
0.019486177886713023 0:0 1:1 2:0 3:0 4:1 5:0 6:0 7:1 8:35195 9:0 10:1 11:0 12:0 13:0 14:16 15:1 16:0.06 17:0 18:0 19:0 20:0.06 21:0.38 22:0 23:175 24:1 25:0.01 26:0.05 27:0.21 28:0 29:0.01 30:0 31:0 32:0 
0.02429290837529556 0:0 1:1 2:0 3:0 4:1 5:0 6:1 7:0 8:11680 9:0 10:1 11:0 12:0 13:0 14:6 15:1 16:0.33 17:1 18:0 19:0 20:0.17 21:0.67 22:0 23:178 24:1 25:0.01 26:0.03 27:0.07 28:0 29:0.01 30:1 31:0 32:0 
0.015391362838132519 0:0 1:1 2:0 3:0 4:1 5:0 6:0 7:1 8:4763 9:0 10:1 11:0 12:0 13:0 14:11 15:1 16:0.09 17:0 18:0 19:0 20:0.09 21:0.27 22:0 23:166 24:1 25:0.01 26:0.05 27:0.2 28:0 29:0.01 30:0 31:0 32:0 
0.0029417535628010923 0:0 1:1 2:0 3:0 4:1 5:0 6:0 7:1 8:3468 9:0 10:1 11:0 12:0 13:0 14:23 15:1 16:0.04 17:0 18:0 19:0 20:0.04 21:0.09 22:0 23:127 24:1 25:0.01 26:0.04 27:0.43 28:0 29:0.01 30:0 31:0 32:0 
0.024186616465088552 0:13 1:1 2:0 3:0 4:1 5:0 6:0 7:1 8:118 9:7178 10:1 11:0 12:0 13:0 14:1 15:1 16:0 17:0 18:0 19:0 20:1 21:0 22:0 23:197 24:1 25:0.01 26:0.04 27:0.01 28:0 29:0 30:0 31:0 32:0 
0.011177652396528329 0:21 1:1 2:0 3:0 4:1 5:0 6:0 7:1 8:105 9:1482 10:1 11:0 12:0 13:0 14:1 15:1 16:0 17:0 18:0 19:0 20:1 21:0 22:0 23:104 24:2 25:0.01 26:0.05 27:0.01 28:1 29:0.01 30:0 31:0 32:0 
0.0089095272504695205 0:0 1:1 2:0 3:0 4:1 5:0 6:0 7:1 8:10044 9:0 10:1 11:0 12:0 13:0 14:9 15:1 16:0.33 17:0 18:0 19:0 20:0.11 21:0.78 22:0 23:181 24:1 25:0.01 26:0.05 27:0.08 28:0 29:0.02 30:0 31:0 32:0 
0.024339674894179361 0:3 1:1 2:0 3:0 4:1 5:0 6:0 7:1 8:92 9:6380 10:1 11:0 12:0 13:0 14:1 15:1 16:0 17:0 18:0 19:0 20:1 21:0 22:0 23:169 24:2 25:0.01 26:0.03 27:0.01 28:0 29:0.01 30:0.5 31:0 32:0 
0.019924091780357422 0:0 1:1 2:0 3:0 4:1 5:0 6:0 7:1 8:4539 9:0 10:1 11:0 12:0 13:0 14:15 15:1 16:0.07 17:0 18:0 19:0 20:0.07 21:0.13 22:0 23:52 24:1 25:0.02 26:0.1 27:0.52 28:0 29:0.02 30:0 31:0 32:0 
0.020776149069667994 0:23 1:1 2:0 3:0 4:1 5:0 6:0 7:1 8:118 9:9630 10:1 11:0 12:0 13:0 14:1 15:1 16:0 17:0 18:0 19:0 20:1 21:0 22:0 23:149 24:1 25:0.01 26:0.11 27:0.01 28:0 29:0.02 30:0 31:0 32:0 
0.013207323317615344 0:0 1:0 2:1 3:0 4:1 5:0 6:0 7:1 8:146 9:0 10:1 11:0 12:0 13:0 14:1 15:1 16:0 17:0 18:0 19:0 20:1 21:0 22:0 23:114 24:1 25:0.01 26:0.56 27:0.79 28:0 29:0 30:0 31:0 32:0 
0.024231882198731295 0:0 1:1 2:0 3:0 4:1 5:0 6:0 7:1 8:2061 9:388 10:1 11:0 12:0 13:0 14:151 15:2 16:0.99 17:0 18:0 19:0 20:0.01 21:0.06 22:1 23:255 24:1 25:0 26:0.07 27:0 28:0 29:0.94 30:0 31:0 32:0 
0.0073213155943128473 0:0 1:1 2:0 3:0 4:1 5:0 6:0 7:1 8:4539 9:0 10:1 11:0 12:0 13:0 14:23 15:1 16:0 17:0 18:0 19:0 20:0.04 21:0.26 22:0 23:101 24:1 25:0.01 26:0.08 27:0.44 28:0 29:0 30:0 31:0 32:0 
0.019241699068373655 0:0 1:1 2:0 3:0 4:1 5:0 6:0 7:1 8:6062 9:0 10:1 11:0 12:0 13:0 14:12 15:1 16:0.08 17:0 18:0 19:0 20:0.08 21:0.58 22:0 23:251 24:1 25:0 26:0.04 27:0.43 28:0 29:0 30:0 31:0 32:0 
0.024303646844687346 0:0 1:1 2:0 3:0 4:1 5:0 6:0 7:1 8:122 9:11243 10:1 11:0 12:0 13:0 14:1 15:1 16:0 17:0 18:0 19:0 20:1 21:0 22:0 23:39 24:2 25:0.03 26:0.1 27:0.03 28:1 29:0 30:0 31:0 32:0 
0.010613733541533483 0:0 1:1 2:0 3:0 4:1 5:0 6:1 7:0 8:1376 9:0 10:1 11:0 12:0 13:0 14:1 15:1 16:1 17:1 18:0 19:0 20:1 21:0 22:0 23:249 24:1 25:0 26:0.04 27:0.47 28:0 29:0 30:1 31:0 32:0 
0.0056743278976991492 0:0 1:1 2:0 3:0 4:1 5:0 6:0 7:1 8:59 9:0 10:1 11:0 12:0 13:0 14:6 15:1 16:0 17:0 18:0 19:0 20:0.17 21:0.83 22:0 23:182 24:1 25:0.01 26:0.06 27:0.34 28:0 29:0 30:0 31:0 32:0 
0.015311009953252774 0:0 1:1 2:0 3:0 4:1 5:0 6:0 7:1 8:6601 9:0 10:1 11:0 12:0 13:0 14:18 15:1 16:0.06 17:0 18:0 19:0 20:0.06 21:0.72 22:0 23:255 24:1 25:0 26:0.06 27:0.45 28:0 29:0 30:0 31:0 32:0 
0.015864228806299525 0:0 1:1 2:0 3:0 4:1 5:0 6:0 7:1 8:4892 9:0 10:1 11:0 12:0 13:0 14:12 15:1 16:0 17:0 18:0 19:0 20:0.08 21:0.33 22:0 23:81 24:1 25:0.01 26:0.07 27:0.22 28:0 29:0 30:0 31:0 32:0 
0.018774878862162087 0:0 1:1 2:0 3:0 4:1 5:0 6:0 7:1 8:7280 9:0 10:1 11:0 12:0 13:0 14:13 15:1 16:0.08 17:0 18:0 19:0 20:0.08 21:0.46 22:0 23:122 24:1 25:0.01 26:0.18 27:0.29 28:0 29:0.03 30:0 31:0 32:0 
0.02109707812861477 0:0 1:1 2:0 3:0 4:1 5:0 6:0 7:1 8:8325 9:0 10:1 11:0 12:0 13:0 14:17 15:1 16:0.06 17:0 18:0 19:0 20:0.06 21:0.24 22:0 23:54 24:1 25:0.02 26:0.13 27:0.54 28:0 29:0.02 30:0 31:0 32:0 
0.02434703250911795 0:0 1:1 2:0 3:0 4:1 5:0 6:0 7:1 8:11376 9:0 10:1 11:0 12:0 13:0 14:9 15:1 16:0 17:0 18:0 19:0 20:0.11 21:0.89 22:0 23:118 24:1 25:0.01 26:0.08 27:0.18 28:0 29:0 30:0 31:0 32:0 
0.018943430804736837 0:0 1:1 2:0 3:0 4:1 5:0 6:0 7:1 8:5929 9:0 10:1 11:0 12:0 13:0 14:14 15:1 16:0.07 17:0 18:0 19:0 20:0.07 21:0.79 22:0 23:138 24:1 25:0.01 26:0.12 27:0.17 28:0 29:0.01 30:0 31:0 32:0 
0.01516319058633241 0:12 1:1 2:0 3:0 4:1 5:0 6:0 7:1 8:52 9:1379 10:1 11:0 12:0 13:0 14:2 15:1 16:0 17:0 18:0 19:0 20:0.5 21:1 22:0 23:124 24:2 25:0.02 26:0.05 27:0.01 28:0 29:0.01 30:0 31:0.01 32:0 
0.024005909850162342 0:3 1:1 2:0 3:0 4:1 5:0 6:0 7:1 8:651 9:9615 10:1 11:0 12:0 13:0 14:1 15:1 16:0 17:0 18:0 19:0 20:1 21:0 22:0 23:171 24:1 25:0.01 26:0.03 27:0.01 28:0 29:0 30:0 31:0 32:0 
0.021123791421542009 0:7 1:1 2:0 3:0 4:1 5:0 6:0 7:1 8:109 9:3801 10:1 11:0 12:0 13:0 14:2 15:1 16:0 17:0 18:0 19:0 20:0.5 21:1 22:0 23:92 24:2 25:0.01 26:0.08 27:0.01 28:1 29:0 30:0 31:0 32:0 
0.020362192688623833 0:12 1:1 2:0 3:0 4:1 5:0 6:0 7:1 8:52 9:2026 10:1 11:0 12:0 13:0 14:2 15:1 16:0 17:0 18:0 19:0 20:0.5 21:1 22:0 23:255 24:1 25:0 26:0.65 27:0 28:0 29:0 30:0 31:0 32:0 
0.024357288339869124 0:28 1:1 2:0 3:0 4:1 5:0 6:0 7:1 8:663 9:2077 10:1 11:0 12:0 13:0 14:1 15:2 16:0 17:0 18:0 19:0 20:1 21:0 22:1 23:90 24:1 25:0.01 26:0.03 27:0.01 28:0 29:0 30:0 31:0 32:0 
0.02415981046192487 0:0 1:1 2:0 3:0 4:1 5:0 6:0 7:1 8:559 9:389 10:1 11:0 12:0 13:0 14:1 15:1 16:0 17:0 18:0 19:0 20:1 21:0 22:0 23:255 24:2 25:0.01 26:0.07 27:0 28:0 29:0.99 30:0 31:0 32:0 
0.0075227638191226933 0:1 1:1 2:0 3:0 4:1 5:0 6:0 7:1 8:76 9:17 10:1 11:0 12:0 13:0 14:1 15:1 16:0 17:0 18:0 19:0 20:1 21:0 22:0 23:10 24:1 25:0.1 26:0.2 27:0.1 28:0 29:0 30:0 31:0 32:0 
0.015624996699460145 0:0 1:1 2:0 3:0 4:1 5:0 6:0 7:1 8:5558 9:0 10:1 11:0 12:0 13:0 14:18 15:1 16:0.06 17:0 18:0 19:0 20:0.06 21:0.44 22:0 23:88 24:1 25:0.01 26:0.12 27:0.27 28:0 29:0.01 30:0 31:0 32:0 
0.011540210413217778 0:0 1:1 2:0 3:0 4:1 5:0 6:0 7:1 8:8325 9:0 10:1 11:0 12:0 13:0 14:23 15:1 16:0.04 17:0 18:0 19:0 20:0.04 21:0.43 22:0 23:182 24:1 25:0.01 26:0.07 27:0.24 28:0 29:0.01 30:0 31:0 32:0 
0.019305233356872217 0:0 1:1 2:0 3:0 4:1 5:0 6:0 7:1 8:7196 9:0 10:1 11:0 12:0 13:0 14:10 15:1 16:0.1 17:0 18:0 19:0 20:0.1 21:0.5 22:0 23:182 24:1 25:0.01 26:0.04 27:0.37 28:0 29:0.01 30:0 31:0 32:0 
0.024346075689282026 0:10 1:1 2:0 3:0 4:1 5:0 6:0 7:1 8:107 9:6230 10:1 11:0 12:0 13:0 14:1 15:1 16:0 17:0 18:0 19:0 20:1 21:0 22:0 23:239 24:2 25:0.01 26:0.03 27:0 28:0 29:0 30:0 31:0 32:0 
0.022153116333290632 0:0 1:1 2:0 3:0 4:1 5:0 6:0 7:1 8:52 9:3844 10:1 11:0 12:0 13:0 14:1 15:1 16:0 17:0 18:0 19:0 20:1 21:0 22:0 23:35 24:1 25:0.03 26:0.17 27:0.03 28:0 29:0 30:0 31:0 32:0 
0.01551355075731525 0:0 1:1 2:0 3:0 4:1 5:0 6:0 7:1 8:852 9:0 10:1 11:0 12:0 13:0 14:13 15:1 16:0 17:0 18:0 19:0 20:0.08 21:0.92 22:0 23:122 24:1 25:0.01 26:0.11 27:0.2 28:0 29:0 30:0 31:0 32:0 
0.013053740461797581 0:0 1:1 2:0 3:0 4:1 5:0 6:0 7:1 8:26408 9:0 10:1 11:0 12:0 13:0 14:10 15:1 16:0 17:0 18:0 19:0 20:0.1 21:0.6 22:0 23:133 24:1 25:0.01 26:0.06 27:0.43 28:0 29:0 30:0 31:0 32:0 
0.0069704341576081611 0:0 1:1 2:0 3:0 4:1 5:0 6:0 7:1 8:35195 9:0 10:1 11:0 12:0 13:0 14:18 15:1 16:0 17:0 18:0 19:0 20:0.06 21:0.11 22:0 23:96 24:1 25:0.01 26:0.04 27:0.41 28:0 29:0 30:0 31:0 32:0 
0.020120267826084212 0:5 1:1 2:0 3:0 4:1 5:0 6:0 7:1 8:879 9:0 10:1 11:0 12:0 13:0 14:4 15:1 16:0 17:0 18:0 19:0 20:0.25 21:1 22:0 23:58 24:1 25:0.02 26:0.24 27:0.43 28:0 29:0 30:0 31:0 32:0 
0.024231029104260601 0:0 1:1 2:0 3:0 4:1 5:0 6:0 7:1 8:16787 9:0 10:1 11:0 12:0 13:0 14:11 15:1 16:0.09 17:0 18:0 19:0 20:0.09 21:0.36 22:0 23:255 24:1 25:0 26:0.07 27:0.38 28:0 29:0.02 30:0 31:0 32:0 
0.024343047401584782 0:0 1:1 2:0 3:0 4:1 5:0 6:0 7:1 8:2890 9:0 10:1 11:0 12:0 13:0 14:9 15:1 16:0.11 17:0 18:0 19:0 20:0.11 21:0.33 22:0 23:255 24:1 25:0 26:0.06 27:0.36 28:0 29:0.02 30:0 31:0 32:0 
0.023392835733994942 0:0 1:1 2:0 3:0 4:1 5:0 6:0 7:1 8:1690 9:0 10:1 11:0 12:0 13:0 14:10 15:1 16:0.1 17:0 18:0 19:0 20:0.1 21:0.8 22:0 23:133 24:1 25:0.01 26:0.08 27:0.12 28:0 29:0.01 30:0 31:0 32:0 
0.0241914228423976 0:0 1:1 2:0 3:0 4:1 5:0 6:0 7:1 8:4316 9:0 10:1 11:0 12:0 13:0 14:6 15:1 16:0.17 17:0 18:0 19:0 20:0.17 21:0.67 22:0 23:255 24:1 25:0 26:0.03 27:0.22 28:0 29:0 30:0 31:0 32:0 
0.019327984668965546 0:21 1:1 2:0 3:0 4:1 5:0 6:0 7:1 8:110 9:3923 10:1 11:0 12:0 13:0 14:1 15:1 16:0 17:0 18:0 19:0 20:1 21:0 22:0 23:92 24:2 25:0.01 26:0.07 27:0.01 28:1 29:0 30:0 31:0 32:0 
0.012928067165812757 0:19 1:1 2:0 3:0 4:1 5:0 6:0 7:1 8:69 9:673 10:1 11:0 12:0 13:0 14:1 15:1 16:0 17:0 18:0 19:0 20:1 21:0 22:0 23:34 24:2 25:0.03 26:0.15 27:0.03 28:1 29:0.03 30:0 31:0 32:0 
0.018189318437846255 0:0 1:1 2:0 3:0 4:1 5:0 6:0 7:1 8:3775 9:0 10:1 11:0 12:0 13:0 14:20 15:1 16:0.05 17:0 18:0 19:0 20:0.05 21:0.35 22:0 23:57 24:1 25:0.02 26:0.18 27:0.56 28:0 29:0.02 30:0 31:0 32:0 
0.024092011400749395 0:22 1:1 2:0 3:0 4:1 5:0 6:0 7:1 8:124 9:12143 10:1 11:0 12:0 13:0 14:1 15:1 16:0 17:0 18:0 19:0 20:1 21:0 22:0 23:77 24:1 25:0.01 26:0.06 27:0.01 28:0 29:0 30:0 31:0 32:0 
0.015307021621548785 0:0 1:1 2:0 3:0 4:1 5:0 6:0 7:1 8:1363 9:0 10:1 11:0 12:0 13:0 14:19 15:1 16:0.05 17:0 18:0 19:0 20:0.05 21:0.32 22:0 23:171 24:1 25:0.01 26:0.05 27:0.31 28:0 29:0.01 30:0 31:0 32:0 
0.015386501335079969 0:22 1:1 2:0 3:0 4:1 5:0 6:0 7:1 8:214 9:750 10:1 11:0 12:0 13:0 14:1 15:2 16:0 17:0 18:0 19:0 20:1 21:0 22:1 23:27 24:1 25:0.04 26:0.11 27:0.04 28:0 29:0 30:0 31:0 32:0 
0.017472969698315709 0:0 1:1 2:0 3:0 4:1 5:0 6:0 7:1 8:8325 9:0 10:1 11:0 12:0 13:0 14:17 15:1 16:0.06 17:0 18:0 19:0 20:0.06 21:0.71 22:0 23:255 24:1 25:0 26:0.05 27:0.44 28:0 29:0 30:0 31:0 32:0 
0.015447617970886991 0:0 1:1 2:0 3:0 4:1 5:0 6:1 7:0 8:128 9:2223 10:1 11:0 12:0 13:0 14:1 15:1 16:1 17:1 18:0 19:0 20:1 21:0 22:0 23:60 24:2 25:0.03 26:0.08 27:0.02 28:0 29:0.03 30:0.5 31:0.7 32:0 
0.010473101684686082 0:0 1:1 2:0 3:0 4:1 5:0 6:0 7:1 8:6601 9:0 10:1 11:0 12:0 13:0 14:6 15:1 16:0 17:0 18:0 19:0 20:0.17 21:0.33 22:0 23:178 24:1 25:0.01 26:0.03 27:0.36 28:0 29:0 30:0 31:0 32:0 
0.0014093488590233329 0:0 1:1 2:0 3:0 4:1 5:0 6:0 7:1 8:1363 9:0 10:1 11:0 12:0 13:0 14:22 15:1 16:0.09 17:0 18:0 19:0 20:0.05 21:0.41 22:0 23:198 24:1 25:0.01 26:0.1 27:0.26 28:0 29:0.02 30:0 31:0 32:0 
0.0086723026412352314 0:0 1:1 2:0 3:0 4:1 5:0 6:0 7:1 8:748 9:0 10:1 11:0 12:0 13:0 14:1 15:1 16:0 17:0 18:0 19:0 20:1 21:0 22:0 23:9 24:1 25:0.11 26:0.22 27:0.11 28:0 29:0 30:0 31:0 32:0 
0.017799485830583352 0:11 1:1 2:0 3:0 4:1 5:0 6:0 7:1 8:102 9:2253 10:1 11:0 12:0 13:0 14:1 15:1 16:0 17:0 18:0 19:0 20:1 21:0 22:0 23:94 24:2 25:0.01 26:0.06 27:0.01 28:1 29:0 30:0 31:0 32:0 
0.02417405422377808 0:4 1:1 2:0 3:0 4:1 5:0 6:0 7:1 8:3233 9:0 10:1 11:0 12:0 13:0 14:1 15:1 16:0 17:0 18:0 19:0 20:1 21:0 22:0 23:41 24:1 25:0.02 26:0.12 27:0.24 28:0 29:0 30:0 31:0 32:0 
0.023601432218583969 0:0 1:1 2:0 3:0 4:1 5:0 6:0 7:1 8:52 9:1061 10:1 11:0 12:0 13:0 14:1 15:1 16:0 17:0 18:0 19:0 20:1 21:0 22:0 23:44 24:2 25:0.05 26:0.09 27:0.02 28:0 29:0 30:0 31:0 32:0 
0.015789997393788835 0:0 1:1 2:0 3:0 4:1 5:0 6:0 7:1 8:7162 9:0 10:1 11:0 12:0 13:0 14:4 15:1 16:0 17:0 18:0 19:0 20:0.25 21:0.5 22:0 23:111 24:1 25:0.01 26:0.06 27:0.14 28:0 29:0.02 30:0 31:0 32:0 
0.019545751521269545 0:0 1:1 2:0 3:0 4:1 5:0 6:0 7:1 8:748 9:0 10:1 11:0 12:0 13:0 14:1 15:1 16:0 17:0 18:0 19:0 20:1 21:0 22:0 23:111 24:1 25:0.01 26:0.04 27:0.01 28:0 29:0.01 30:0 31:0.01 32:0 
0.016365817044311472 0:23 1:1 2:0 3:0 4:1 5:0 6:0 7:1 8:276 9:903 10:1 11:0 12:0 13:0 14:3 15:2 16:0 17:0 18:0 19:0 20:0.33 21:0.67 22:1 23:9 24:1 25:0.11 26:0.22 27:0.11 28:0 29:0 30:0 31:0 32:0 
0.018950165893842075 0:0 1:1 2:0 3:0 4:1 5:0 6:0 7:1 8:4763 9:0 10:1 11:0 12:0 13:0 14:10 15:1 16:0.1 17:0 18:0 19:0 20:0.1 21:0.8 22:0 23:104 24:1 25:0.01 26:0.11 27:0.44 28:0 29:0.01 30:0 31:0.01 32:0 
0.022685086195508866 0:13 1:1 2:0 3:0 4:1 5:0 6:0 7:1 8:114 9:5824 10:1 11:0 12:0 13:0 14:1 15:1 16:0 17:0 18:0 19:0 20:1 21:0 22:0 23:141 24:2 25:0.01 26:0.06 27:0.01 28:0 29:0 30:0 31:0 32:0 
0.019722680393346313 0:2 1:1 2:0 3:0 4:1 5:0 6:0 7:1 8:99 9:1077 10:1 11:0 12:0 13:0 14:1 15:1 16:0 17:0 18:0 19:0 20:1 21:0 22:0 23:255 24:1 25:0 26:0.03 27:0 28:0 29:0 30:0 31:0 32:0 
0.019949483996454576 0:3 1:1 2:0 3:0 4:1 5:0 6:0 7:1 8:108 9:3279 10:1 11:0 12:0 13:0 14:1 15:1 16:0 17:0 18:0 19:0 20:1 21:0 22:0 23:217 24:1 25:0 26:0.03 27:0 28:0 29:0 30:0 31:0 32:0 
0.0078132969860158913 0:0 1:1 2:0 3:0 4:1 5:0 6:0 7:1 8:10073 9:0 10:1 11:0 12:0 13:0 14:16 15:1 16:0.06 17:0 18:0 19:0 20:0.06 21:0.69 22:0 23:188 24:1 25:0.01 26:0.07 27:0.39 28:0 29:0.01 30:0 31:0 32:0 
0.016155611097476943 0:0 1:1 2:0 3:0 4:1 5:0 6:0 7:1 8:3676 9:0 10:1 11:0 12:0 13:0 14:6 15:1 16:0.17 17:0 18:0 19:0 20:0.17 21:0.67 22:0 23:165 24:1 25:0.01 26:0.05 27:0.29 28:0 29:0.01 30:0 31:0 32:0 
0.024191791942425617 0:0 1:1 2:0 3:0 4:1 5:0 6:1 7:0 8:35040 9:0 10:1 11:0 12:0 13:0 14:20 15:1 16:0.1 17:1 18:0 19:0 20:0.05 21:0.35 22:0 23:196 24:1 25:0.01 26:0.09 27:0.25 28:0 29:0.02 30:1 31:0 32:0 
0.0053832695403685776 0:0 1:1 2:0 3:0 4:1 5:0 6:0 7:1 8:259 9:0 10:1 11:0 12:0 13:0 14:2 15:2 16:0 17:0 18:0 19:0 20:1 21:0 22:0 23:13 24:2 25:0.15 26:0.15 27:0.15 28:0 29:0 30:0 31:0 32:0 
0.013085295344952015 0:23 1:1 2:0 3:0 4:1 5:0 6:0 7:1 8:1470 9:0 10:1 11:0 12:0 13:0 14:2 15:1 16:0 17:0 18:0 19:0 20:0.5 21:1 22:0 23:79 24:1 25:0.01 26:0.1 27:0.41 28:0 29:0 30:0 31:0 32:0 
0.024374800179299549 0:29 1:1 2:0 3:0 4:1 5:0 6:0 7:1 8:1179 9:3380 10:1 11:0 12:0 13:0 14:3 15:1 16:0 17:0 18:0 19:0 20:0.33 21:0.67 22:0 23:61 24:2 25:0.03 26:0.05 27:0.02 28:0 29:0 30:0 31:0 32:0 
0.016664507112513625 0:6 1:1 2:0 3:0 4:1 5:0 6:0 7:1 8:1199 9:0 10:1 11:0 12:0 13:0 14:1 15:1 16:0 17:0 18:0 19:0 20:1 21:0 22:0 23:175 24:1 25:0.01 26:0.07 27:0.07 28:0 29:0.02 30:0 31:0 32:0 
0.007365205298966197 0:0 1:1 2:0 3:0 4:1 5:0 6:0 7:1 8:59 9:0 10:1 11:0 12:0 13:0 14:3 15:1 16:0 17:0 18:0 19:0 20:0.33 21:0.67 22:0 23:126 24:1 25:0.01 26:0.04 27:0.07 28:0 29:0 30:0 31:0 32:0 
0.024225320546225663 0:0 1:1 2:0 3:0 4:1 5:0 6:0 7:1 8:5150 9:0 10:1 11:0 12:0 13:0 14:1 15:1 16:0 17:0 18:0 19:0 20:1 21:0 22:0 23:29 24:1 25:0.03 26:0.1 27:0.21 28:0 29:0.03 30:0 31:0 32:0 
0.024066290421970067 0:0 1:1 2:0 3:0 4:1 5:0 6:0 7:1 8:77 9:5159 10:1 11:0 12:0 13:0 14:1 15:1 16:0 17:0 18:0 19:0 20:1 21:0 22:0 23:255 24:1 25:0 26:0.03 27:0 28:0 29:0 30:0 31:0 32:0 
0.010835602547090964 0:0 1:1 2:0 3:0 4:1 5:0 6:0 7:1 8:7280 9:0 10:1 11:0 12:0 13:0 14:13 15:1 16:0.08 17:0 18:0 19:0 20:0.08 21:0.62 22:0 23:185 24:1 25:0.01 26:0.06 27:0.38 28:0 29:0.01 30:0 31:0 32:0 
0.0072879360954402062 0:0 1:1 2:0 3:0 4:1 5:0 6:0 7:1 8:879 9:0 10:1 11:0 12:0 13:0 14:9 15:1 16:0.11 17:0 18:0 19:0 20:0.11 21:0.44 22:0 23:181 24:1 25:0.01 26:0.04 27:0.37 28:0 29:0.01 30:0 31:0 32:0 
0.0093959328456800217 0:0 1:1 2:0 3:0 4:1 5:0 6:0 7:1 8:3468 9:0 10:1 11:0 12:0 13:0 14:21 15:1 16:0.1 17:0 18:0 19:0 20:0.05 21:0.38 22:0 23:197 24:1 25:0.01 26:0.1 27:0.25 28:0 29:0.02 30:0 31:0 32:0 
0.01925356405739214 0:11 1:1 2:0 3:0 4:1 5:0 6:0 7:1 8:103 9:2069 10:1 11:0 12:0 13:0 14:1 15:1 16:0 17:0 18:0 19:0 20:1 21:0 22:0 23:83 24:1 25:0.01 26:0.06 27:0.01 28:0 29:0 30:0 31:0 32:0 
0.024451682498530344 0:0 1:1 2:0 3:0 4:1 5:0 6:0 7:1 8:7940 9:0 10:1 11:0 12:0 13:0 14:10 15:1 16:0.1 17:0 18:0 19:0 20:0.1 21:0.4 22:0 23:58 24:1 25:0.02 26:0.14 27:0.69 28:0 29:0.02 30:0 31:0 32:0 
0.0072712428092773021 0:0 1:1 2:0 3:0 4:1 5:0 6:0 7:1 8:3468 9:0 10:1 11:0 12:0 13:0 14:2 15:1 16:0 17:0 18:0 19:0 20:0.5 21:1 22:0 23:60 24:1 25:0.02 26:0.08 27:0.2 28:0 29:0 30:0 31:0 32:0 
0.011940699515082616 0:0 1:1 2:0 3:0 4:1 5:0 6:0 7:1 8:768 9:0 10:1 11:0 12:0 13:0 14:4 15:1 16:0 17:0 18:0 19:0 20:0.25 21:1 22:0 23:39 24:1 25:0.03 26:0.36 27:0.28 28:0 29:0.03 30:0 31:0 32:0 
0.0089168886195891087 0:0 1:1 2:0 3:0 4:1 5:0 6:0 7:1 8:63 9:0 10:1 11:0 12:0 13:0 14:1 15:1 16:0 17:0 18:0 19:0 20:1 21:0 22:0 23:255 24:1 25:0 26:0.07 27:0.06 28:0 29:0.92 30:0 31:0.01 32:0 
0.020130205503506547 0:0 1:1 2:0 3:0 4:1 5:0 6:0 7:1 8:1363 9:0 10:1 11:0 12:0 13:0 14:16 15:1 16:0.06 17:0 18:0 19:0 20:0.06 21:0.19 22:0 23:53 24:1 25:0.02 26:0.11 27:0.53 28:0 29:0.02 30:0 31:0 32:0 
0.0081476793731837128 0:0 1:0 2:1 3:0 4:1 5:0 6:0 7:1 8:146 9:0 10:1 11:0 12:0 13:0 14:1 15:1 16:0 17:0 18:0 19:0 20:1 21:0 22:0 23:206 24:1 25:0 26:0.15 27:0.22 28:0 29:0 30:0 31:0 32:0 
0.019995728333657078 0:0 1:1 2:0 3:0 4:1 5:0 6:0 7:1 8:1830 9:0 10:1 11:0 12:0 13:0 14:8 15:1 16:0.12 17:0 18:0 19:0 20:0.12 21:0.75 22:0 23:184 24:1 25:0.01 26:0.07 27:0.34 28:0 29:0.01 30:0 31:0 32:0 
0.023877436787474539 0:0 1:1 2:0 3:0 4:1 5:0 6:0 7:1 8:12241 9:0 10:1 11:0 12:0 13:0 14:6 15:1 16:0.17 17:0 18:0 19:0 20:0.17 21:0.67 22:0 23:100 24:1 25:0.01 26:0.07 27:0.42 28:0 29:0.01 30:0 31:0.01 32:0 
0.024238846183744389 0:13 1:1 2:0 3:0 4:1 5:0 6:0 7:1 8:112 9:5362 10:1 11:0 12:0 13:0 14:1 15:1 16:0 17:0 18:0 19:0 20:1 21:0 22:0 23:184 24:1 25:0.01 26:0.04 27:0.01 28:0 29:0 30:0 31:0.01 32:0 
0.003578140272897521 0:0 1:1 2:0 3:0 4:1 5:0 6:0 7:1 8:4539 9:0 10:1 11:0 12:0 13:0 14:19 15:1 16:0.05 17:0 18:0 19:0 20:0.05 21:0.74 22:0 23:255 24:1 25:0 26:0.06 27:0.45 28:0 29:0 30:0 31:0 32:0 
0.0087472640638752014 0:3 1:1 2:0 3:0 4:1 5:0 6:1 7:0 8:192 9:0 10:1 11:0 12:0 13:0 14:1 15:1 16:1 17:1 18:0 19:0 20:1 21:0 22:0 23:143 24:1 25:0.01 26:0.05 27:0.22 28:0 29:0.01 30:1 31:0 32:0 
0.0087744888728384148 0:0 1:1 2:0 3:0 4:1 5:0 6:0 7:1 8:3775 9:0 10:1 11:0 12:0 13:0 14:22 15:1 16:0.05 17:0 18:0 19:0 20:0.05 21:0.41 22:0 23:147 24:1 25:0.01 26:0.1 27:0.37 28:0 29:0.02 30:0 31:0 32:0 
0.00028611639625884941 0:0 1:0 2:1 3:0 4:1 5:0 6:0 7:1 8:146 9:0 10:1 11:0 12:0 13:0 14:1 15:1 16:0 17:0 18:0 19:0 20:1 21:0 22:0 23:66 24:1 25:0.02 26:0.47 27:0.58 28:0 29:0 30:0 31:0 32:0 
0.015713388683774972 0:0 1:1 2:0 3:0 4:1 5:0 6:0 7:1 8:1214 9:0 10:1 11:0 12:0 13:0 14:17 15:1 16:0.06 17:0 18:0 19:0 20:0.06 21:0.41 22:0 23:130 24:1 25:0.01 26:0.08 27:0.18 28:0 29:0.03 30:0 31:0 32:0 
0.007552627721439286 0:0 1:1 2:0 3:0 4:1 5:0 6:0 7:1 8:10272 9:0 10:1 11:0 12:0 13:0 14:10 15:1 16:0.1 17:0 18:0 19:0 20:0.1 21:0.3 22:0 23:255 24:1 25:0 26:0.07 27:0.38 28:0 29:0.02 30:0 31:0 32:0 
0.0056979753484470951 0:0 1:1 2:0 3:0 4:1 5:0 6:0 7:1 8:3888 9:0 10:1 11:0 12:0 13:0 14:11 15:1 16:0.09 17:0 18:0 19:0 20:0.09 21:0.55 22:0 23:183 24:1 25:0.01 26:0.05 27:0.38 28:0 29:0.01 30:0 31:0 32:0 
0.012556575557327018 0:0 1:0 2:1 3:0 4:1 5:0 6:0 7:1 8:48 9:48 10:1 11:0 12:0 13:0 14:1 15:1 16:0 17:0 18:0 19:0 20:1 21:0 22:0 23:16 24:2 25:0.12 26:0.12 27:0.12 28:0 29:0 30:0 31:0 32:0 
0.022153557574859959 0:7 1:1 2:0 3:0 4:1 5:0 6:0 7:1 8:99 9:1286 10:1 11:0 12:0 13:0 14:1 15:1 16:0 17:0 18:0 19:0 20:1 21:0 22:0 23:170 24:1 25:0.01 26:0.04 27:0.01 28:0 29:0 30:0 31:0 32:0 
0.0026358408915397049 0:12 1:1 2:0 3:0 4:1 5:0 6:0 7:1 8:99 9:2113 10:1 11:0 12:0 13:0 14:1 15:1 16:0 17:0 18:0 19:0 20:1 21:0 22:0 23:114 24:2 25:0.02 26:0.04 27:0.01 28:0 29:0 30:0 31:0 32:0 
0.014858978041406103 0:0 1:1 2:0 3:0 4:1 5:0 6:0 7:1 8:4892 9:0 10:1 11:0 12:0 13:0 14:12 15:1 16:0.08 17:0 18:0 19:0 20:0.08 21:0.17 22:0 23:125 24:1 25:0.01 26:0.05 27:0.14 28:0 29:0.03 30:0 31:0 32:0 
0.0086604376386018121 0:0 1:1 2:0 3:0 4:1 5:0 6:0 7:1 8:59 9:0 10:1 11:0 12:0 13:0 14:20 15:1 16:0 17:0 18:0 19:0 20:0.05 21:0.2 22:0 23:98 24:1 25:0.01 26:0.06 27:0.42 28:0 29:0 30:0 31:0 32:0 
0.01159809353572196 0:0 1:0 2:1 3:0 4:1 5:0 6:0 7:1 8:146 9:0 10:1 11:0 12:0 13:0 14:1 15:1 16:0 17:0 18:0 19:0 20:1 21:0 22:0 23:36 24:1 25:0.03 26:0.44 27:0.64 28:0 29:0 30:0 31:0 32:0 
0.017521860529897831 0:1 1:1 2:0 3:0 4:1 5:0 6:0 7:1 8:102 9:1518 10:1 11:0 12:0 13:0 14:1 15:1 16:0 17:0 18:0 19:0 20:1 21:0 22:0 23:29 24:2 25:0.07 26:0.17 27:0.03 28:0 29:0 30:0 31:0 32:0 
0.020831536376019436 0:0 1:1 2:0 3:0 4:1 5:0 6:0 7:1 8:3468 9:0 10:1 11:0 12:0 13:0 14:19 15:1 16:0.05 17:0 18:0 19:0 20:0.05 21:0.21 22:0 23:255 24:1 25:0 26:0.03 27:0.21 28:0 29:0 30:0 31:0 32:0 
0.010846134146326727 0:0 1:1 2:0 3:0 4:1 5:0 6:0 7:1 8:59 9:0 10:1 11:0 12:0 13:0 14:25 15:1 16:0.04 17:0 18:0 19:0 20:0.04 21:0.48 22:0 23:177 24:1 25:0.01 26:0.08 27:0.33 28:0 29:0.01 30:0 31:0 32:0 
0.0010619556595621816 0:0 1:1 2:0 3:0 4:1 5:0 6:0 7:1 8:768 9:0 10:1 11:0 12:0 13:0 14:8 15:1 16:0.12 17:0 18:0 19:0 20:0.12 21:0.75 22:0 23:89 24:1 25:0.01 26:0.09 27:0.16 28:0 29:0.01 30:0 31:0 32:0 
0.01873014979861614 0:0 1:1 2:0 3:0 4:1 5:0 6:1 7:0 8:5840 9:0 10:1 11:0 12:0 13:0 14:14 15:1 16:0.14 17:1 18:0 19:0 20:0.07 21:0.5 22:0 23:123 24:1 25:0.01 26:0.19 27:0.29 28:0 29:0.04 30:1 31:0 32:0 
0.01355134165584948 0:0 1:1 2:0 3:0 4:1 5:0 6:0 7:1 8:15876 9:0 10:1 11:0 12:0 13:0 14:12 15:1 16:0.08 17:0 18:0 19:0 20:0.08 21:0.17 22:0 23:171 24:1 25:0.01 26:0.03 27:0.19 28:0 29:0.01 30:0 31:0 32:0 
0.0030559171945117509 0:0 1:1 2:0 3:0 4:1 5:0 6:0 7:1 8:4763 9:0 10:1 11:0 12:0 13:0 14:10 15:1 16:0.1 17:0 18:0 19:0 20:0.1 21:0.2 22:0 23:226 24:1 25:0 26:0.04 27:0.4 28:0 29:0.02 30:0 31:0 32:0 
0.024145438832634765 0:0 1:1 2:0 3:0 4:1 5:0 6:0 7:1 8:80 9:5248 10:1 11:0 12:0 13:0 14:1 15:1 16:0 17:0 18:0 19:0 20:1 21:0 22:0 23:48 24:2 25:0.02 26:0.08 27:0.02 28:1 29:0 30:0 31:0 32:0 
0.02098933443221393 0:6 1:1 2:0 3:0 4:1 5:0 6:0 7:1 8:102 9:893 10:1 11:0 12:0 13:0 14:1 15:1 16:0 17:0 18:0 19:0 20:1 21:0 22:0 23:24 24:1 25:0.04 26:0.21 27:0.04 28:0 29:0 30:0 31:0 32:0 
0.02395169053252405 0:27 1:1 2:0 3:0 4:1 5:0 6:0 7:1 8:1424 9:4152 10:1 11:0 12:0 13:0 14:1 15:1 16:0 17:0 18:0 19:0 20:1 21:0 22:0 23:7 24:1 25:0.14 26:0.43 27:0.14 28:0 29:0 30:0 31:0 32:0 
0.022423775010384388 0:0 1:1 2:0 3:0 4:1 5:0 6:0 7:1 8:10073 9:0 10:1 11:0 12:0 13:0 14:11 15:1 16:0 17:0 18:0 19:0 20:0.09 21:1 22:0 23:30 24:1 25:0.03 26:0.43 27:0.7 28:0 29:0 30:0 31:0 32:0 
0.013802712944144932 0:0 1:1 2:0 3:0 4:1 5:0 6:0 7:1 8:319 9:0 10:1 11:0 12:0 13:0 14:2 15:1 16:0 17:0 18:0 19:0 20:0.5 21:1 22:0 23:101 24:1 25:0.01 26:0.08 27:0.2 28:0 29:0 30:0 31:0 32:0 
0.024711945766275022 0:23 1:1 2:0 3:0 4:1 5:0 6:0 7:1 8:152 9:6514 10:1 11:0 12:0 13:0 14:1 15:1 16:0 17:0 18:0 19:0 20:1 21:0 22:0 23:85 24:1 25:0.01 26:0.05 27:0.01 28:0 29:0 30:0 31:0 32:0 
0.019676807228575524 0:0 1:1 2:0 3:0 4:1 5:0 6:0 7:1 8:687 9:0 10:1 11:0 12:0 13:0 14:1 15:1 16:0 17:0 18:0 19:0 20:1 21:0 22:0 23:6 24:1 25:0.17 26:0.5 27:0.17 28:0 29:0 30:0 31:0 32:0 
0.023929432582503681 0:0 1:1 2:0 3:0 4:1 5:0 6:0 7:1 8:10389 9:0 10:1 11:0 12:0 13:0 14:19 15:1 16:0 17:0 18:0 19:0 20:0.05 21:1 22:0 23:38 24:1 25:0.03 26:0.55 27:0.76 28:0 29:0 30:0 31:0 32:0 
0.018038434302668341 0:0 1:1 2:0 3:0 4:1 5:0 6:0 7:1 8:7162 9:0 10:1 11:0 12:0 13:0 14:7 15:1 16:0.14 17:0 18:0 19:0 20:0.14 21:0.71 22:0 23:28 24:1 25:0.04 26:0.21 27:0.43 28:0 29:0.04 30:0 31:0 32:0 
0.023938443272923295 0:15 1:1 2:0 3:0 4:1 5:0 6:0 7:1 8:110 9:6992 10:1 11:0 12:0 13:0 14:1 15:1 16:0 17:0 18:0 19:0 20:1 21:0 22:0 23:53 24:2 25:0.02 26:0.09 27:0.02 28:1 29:0 30:0 31:0 32:0 
0.023780351652564233 0:0 1:1 2:0 3:0 4:1 5:0 6:0 7:1 8:1214 9:0 10:1 11:0 12:0 13:0 14:9 15:1 16:0 17:0 18:0 19:0 20:0.11 21:0.56 22:0 23:25 24:1 25:0.04 26:0.4 27:0.76 28:0 29:0 30:0 31:0 32:0 
0.02416065395661306 0:23 1:1 2:0 3:0 4:1 5:0 6:0 7:1 8:119 9:11936 10:1 11:0 12:0 13:0 14:1 15:1 16:0 17:0 18:0 19:0 20:1 21:0 22:0 23:83 24:2 25:0.01 26:0.08 27:0.01 28:1 29:0 30:0 31:0 32:0 
0.020704358439299502 0:0 1:1 2:0 3:0 4:1 5:0 6:0 7:1 8:1167 9:404 10:1 11:0 12:0 13:0 14:1 15:1 16:0 17:0 18:0 19:0 20:1 21:0 22:0 23:255 24:1 25:0 26:0.07 27:0 28:0 29:0.99 30:0 31:0 32:0 
0.015354961768150203 0:0 1:1 2:0 3:0 4:1 5:0 6:0 7:1 8:319 9:0 10:1 11:0 12:0 13:0 14:3 15:2 16:0 17:0 18:0 19:0 20:0.67 21:0.67 22:0 23:39 24:2 25:0.05 26:0.13 27:0.05 28:0 29:0 30:0 31:0 32:0 
0.022041421370857621 0:0 1:1 2:0 3:0 4:1 5:0 6:0 7:1 8:103 9:292 10:1 11:0 12:0 13:0 14:1 15:1 16:0 17:0 18:0 19:0 20:1 21:0 22:0 23:117 24:2 25:0.02 26:0.11 27:0.01 28:0 29:0 30:0 31:0.03 32:0 
0.024255520754067051 0:25 1:1 2:0 3:0 4:1 5:0 6:0 7:1 8:269 9:2333 10:1 11:0 12:0 13:0 14:1 15:1 16:0 17:0 18:0 19:0 20:1 21:0 22:0 23:69 24:2 25:0.03 26:0.06 27:0.01 28:0 29:0 30:0 31:0 32:0 
