svm_type one_class
kernel_type rbf
gamma 0.00029999999999999997
nr_class 2
total_sv 2
rho 0.025000000101227583
SV
0.025000000000000001 0:0 1:1 2:0 3:0 4:1 5:0 6:0 7:1 8:13 9:39 10:1 11:0 12:0 13:0 14:1 15:1 16:0 17:0 18:0 19:0 20:1 21:0 22:0 23:255 24:1 25:0 26:0.8 27:0 28:0 29:0 30:0 31:0 32:0 
0.025000000000000001 0:0 1:1 2:0 3:0 4:1 5:0 6:0 7:1 8:14 9:39 10:1 11:0 12:0 13:0 14:1 15:21 16:0 17:0.95 18:0 19:0 20:1 21:0 22:0.1 23:2 24:3 25:0.5 26:1 27:0.5 28:0.67 29:0 30:0 31:0 32:0 
