svm_type one_class
kernel_type rbf
gamma 0.00029999999999999997
nr_class 2
total_sv 1
rho 0.02
SV
0.02 0:0 1:1 2:0 3:0 4:1 5:0 6:0 7:1 8:32 9:4993 10:1 11:0 12:0 13:0 14:5 15:1 16:0 17:0 18:0 19:0 20:0.2 21:0.4 22:0 23:255 24:1 25:0 26:0.01 27:0 28:0 29:0 30:0 31:0 32:0 
