svm_type one_class
kernel_type rbf
gamma 0.00029999999999999997
nr_class 2
total_sv 809
rho 0.02011310612142134
SV
0.011248319057259603 0:0 1:1 2:0 3:0 4:0 5:1 6:0 7:1 8:232 9:8153 10:1 11:0 12:0 13:0 14:5 15:5 16:0.2 17:0.2 18:0 19:0 20:1 21:0 22:0 23:30 24:255 25:1 26:0 27:0.03 28:0.04 29:0.03 30:0.01 31:0 32:0.01 
0.011386177331596274 0:0 1:1 2:0 3:0 4:1 5:0 6:0 7:1 8:2089 9:335 10:1 11:0 12:0 13:0 14:2 15:2 16:0 17:0 18:0 19:0 20:0.5 21:1 22:1 23:255 24:152 25:0.6 26:0.03 27:0 28:0 29:0.01 30:0.02 31:0 32:0.01 
0.011902246655328446 0:0 1:1 2:0 3:0 4:0 5:1 6:0 7:1 8:302 9:1380 10:1 11:0 12:0 13:0 14:5 15:5 16:0 17:0 18:0 19:0 20:1 21:0 22:0 23:212 24:187 25:0.88 26:0.02 27:0 28:0 29:0 30:0.01 31:0 32:0.01 
0.01072438574628843 0:0 1:1 2:0 3:0 4:0 5:1 6:0 7:1 8:198 9:6924 10:1 11:0 12:0 13:0 14:12 15:12 16:0 17:0 18:0 19:0 20:1 21:0 22:0 23:230 24:255 25:1 26:0 27:0 28:0.01 29:0 30:0 31:0.01 32:0.01 
0.012304888896797053 0:0 1:1 2:0 3:0 4:0 5:1 6:0 7:1 8:230 9:6880 10:1 11:0 12:0 13:0 14:1 15:17 16:0 17:0 18:0 19:0 20:1 21:0 22:0.29 23:24 24:255 25:1 26:0 27:0.04 28:0.04 29:0 30:0 31:0 32:0.01 
0.017841544335640034 0:0 1:1 2:0 3:0 4:0 5:1 6:0 7:1 8:256 9:4486 10:1 11:0 12:0 13:0 14:1 15:1 16:0 17:0 18:0 19:0 20:1 21:0 22:0 23:255 24:250 25:0.98 26:0.01 27:0 28:0 29:0 30:0 31:0.01 32:0.01 
0.019635213275544121 0:0 1:1 2:0 3:0 4:0 5:1 6:0 7:1 8:318 9:9696 10:1 11:0 12:0 13:0 14:40 15:40 16:0 17:0 18:0 19:0 20:1 21:0 22:0 23:255 24:255 25:1 26:0 27:0 28:0 29:0 30:0 31:0.01 32:0.01 
0.011233261823843295 0:0 1:1 2:0 3:0 4:0 5:1 6:0 7:1 8:296 9:943 10:1 11:0 12:0 13:0 14:16 15:16 16:0 17:0 18:0 19:0 20:1 21:0 22:0 23:68 24:255 25:1 26:0 27:0.01 28:0.02 29:0.04 30:0.01 31:0 32:0.01 
0.020082287255618149 0:0 1:1 2:0 3:0 4:0 5:1 6:0 7:1 8:172 9:15119 10:1 11:0 12:0 13:0 14:1 15:1 16:0 17:0 18:0 19:0 20:1 21:0 22:0 23:159 24:255 25:1 26:0 27:0.01 28:0.02 29:0 30:0 31:0.02 32:0.01 
0.0049142594380791223 0:0 1:1 2:0 3:0 4:0 5:1 6:0 7:1 8:293 9:732 10:1 11:0 12:0 13:0 14:20 15:32 16:0 17:0 18:0.05 19:0.03 20:1 21:0 22:0.12 23:50 24:255 25:1 26:0 27:0.02 28:0.01 29:0 30:0 31:0.02 32:0.01 
0.0046966727610972103 0:0 1:1 2:0 3:0 4:0 5:1 6:0 7:1 8:326 9:1511 10:1 11:0 12:0 13:0 14:6 15:6 16:0 17:0 18:0 19:0 20:1 21:0 22:0 23:251 24:255 25:1 26:0 27:0 28:0.01 29:0 30:0 31:0.01 32:0.01 
0.014889731728800933 0:0 1:1 2:0 3:0 4:0 5:1 6:0 7:1 8:173 9:438 10:1 11:0 12:0 13:0 14:1 15:1 16:0 17:0 18:0 19:0 20:1 21:0 22:0 23:120 24:255 25:1 26:0 27:0.01 28:0.01 29:0 30:0 31:0.02 32:0.01 
0.010519349553373488 0:0 1:1 2:0 3:0 4:0 5:1 6:0 7:1 8:334 9:2840 10:1 11:0 12:0 13:0 14:8 15:8 16:0 17:0 18:0 19:0 20:1 21:0 22:0 23:8 24:255 25:1 26:0 27:0.12 28:0.02 29:0 30:0 31:0 32:0.01 
0.020091281823014319 0:0 1:1 2:0 3:0 4:0 5:1 6:0 7:1 8:302 9:11440 10:1 11:0 12:0 13:0 14:12 15:23 16:0 17:0 18:0.08 19:0.09 20:1 21:0 22:0.17 23:23 24:255 25:1 26:0 27:0.04 28:0.01 29:0 30:0 31:0.04 32:0.01 
0.013272370581961793 0:0 1:1 2:0 3:0 4:0 5:1 6:0 7:1 8:167 9:12937 10:1 11:0 12:0 13:0 14:9 15:11 16:0 17:0 18:0 19:0 20:1 21:0 22:0.18 23:9 24:255 25:1 26:0 27:0.11 28:0.04 29:0 30:0 31:0 32:0.01 
0.019205868733567055 0:0 1:1 2:0 3:0 4:0 5:1 6:0 7:1 8:273 9:8193 10:1 11:0 12:0 13:0 14:1 15:1 16:0 17:0 18:0 19:0 20:1 21:0 22:0 23:182 24:255 25:1 26:0 27:0.01 28:0.03 29:0 30:0 31:0.01 32:0.01 
0.0065100396611462094 0:0 1:1 2:0 3:0 4:0 5:1 6:0 7:1 8:303 9:1337 10:1 11:0 12:0 13:0 14:19 15:24 16:0 17:0 18:0 19:0 20:1 21:0 22:0.08 23:19 24:255 25:1 26:0 27:0.05 28:0.03 29:0 30:0 31:0 32:0.01 
0.020140740389070898 0:0 1:1 2:0 3:0 4:0 5:1 6:0 7:1 8:145 9:4788 10:1 11:0 12:0 13:0 14:17 15:17 16:0 17:0 18:0 19:0 20:1 21:0 22:0 23:77 24:91 25:1 26:0 27:0.01 28:0.02 29:0 30:0 31:0 32:0.01 
0.016933678664875433 0:0 1:1 2:0 3:0 4:0 5:1 6:0 7:1 8:309 9:1949 10:1 11:0 12:0 13:0 14:7 15:13 16:0 17:0.08 18:0 19:0.08 20:1 21:0 22:0.23 23:163 24:255 25:1 26:0 27:0.01 28:0.02 29:0 30:0.01 31:0.01 32:0.01 
0.016804345660625289 0:0 1:1 2:0 3:0 4:0 5:1 6:0 7:1 8:189 9:5360 10:1 11:0 12:0 13:0 14:5 15:6 16:0 17:0 18:0 19:0 20:1 21:0 22:0.33 23:40 24:255 25:1 26:0 27:0.03 28:0.01 29:0 30:0 31:0.03 32:0.01 
0.016536067003198575 0:0 1:1 2:0 3:0 4:1 5:0 6:0 7:1 8:2140 9:326 10:1 11:0 12:0 13:0 14:1 15:2 16:0 17:0 18:0 19:0 20:1 21:0 22:1 23:87 24:170 25:0.71 26:0.03 27:0.01 28:0.02 29:0 30:0.03 31:0 32:0.01 
0.007777718812579491 0:0 1:1 2:0 3:0 4:0 5:1 6:0 7:1 8:279 9:8936 10:1 11:0 12:0 13:0 14:9 15:9 16:0 17:0 18:0 19:0 20:1 21:0 22:0 23:61 24:255 25:1 26:0 27:0.02 28:0.05 29:0 30:0 31:0.02 32:0.01 
0.0080813410115445003 0:0 1:1 2:0 3:0 4:0 5:1 6:0 7:1 8:314 9:2193 10:1 11:0 12:0 13:0 14:2 15:2 16:0 17:0 18:0 19:0 20:1 21:0 22:0 23:104 24:255 25:1 26:0 27:0.01 28:0.05 29:0.01 30:0.01 31:0.01 32:0.01 
0.011465600564545878 0:0 1:1 2:0 3:0 4:1 5:0 6:0 7:1 8:1129 9:327 10:1 11:0 12:0 13:0 14:1 15:1 16:0 17:0 18:0 19:0 20:1 21:0 22:0 23:7 24:138 25:1 26:0 27:0.14 28:0.02 29:0 30:0.04 31:0 32:0.01 
0.0037374955243396285 0:0 1:1 2:0 3:0 4:0 5:1 6:0 7:1 8:190 9:244 10:1 11:0 12:0 13:0 14:27 15:28 16:0 17:0 18:0 19:0 20:1 21:0 22:0.07 23:255 24:255 25:1 26:0 27:0 28:0 29:0 30:0 31:0.01 32:0.01 
0.020088637086994942 0:0 1:1 2:0 3:0 4:0 5:1 6:0 7:1 8:285 9:9091 10:1 11:0 12:0 13:0 14:1 15:1 16:0 17:0 18:0 19:0 20:1 21:0 22:0 23:23 24:100 25:1 26:0 27:0.04 28:0.06 29:0 30:0 31:0 32:0.01 
0.014451943065495611 0:0 1:1 2:0 3:0 4:0 5:1 6:0 7:1 8:236 9:2731 10:1 11:0 12:0 13:0 14:3 15:3 16:0 17:0 18:0 19:0 20:1 21:0 22:0 23:6 24:255 25:1 26:0 27:0.17 28:0.05 29:0 30:0 31:0 32:0.01 
0.0091053044272161893 0:0 1:1 2:0 3:0 4:0 5:1 6:0 7:1 8:260 9:9541 10:1 11:0 12:0 13:0 14:1 15:2 16:0 17:0 18:0 19:0 20:1 21:0 22:1 23:79 24:255 25:1 26:0 27:0.01 28:0.01 29:0.03 30:0.01 31:0.04 32:0.01 
0.0092164969389934796 0:0 1:1 2:0 3:0 4:0 5:1 6:0 7:1 8:206 9:658 10:1 11:0 12:0 13:0 14:8 15:10 16:0 17:0 18:0 19:0 20:1 21:0 22:0.2 23:9 24:255 25:1 26:0 27:0.11 28:0.03 29:0 30:0 31:0 32:0.01 
0.020127863613705763 0:0 1:1 2:0 3:0 4:0 5:1 6:0 7:1 8:213 9:33514 10:1 11:0 12:0 13:0 14:1 15:6 16:0 17:0 18:0 19:0 20:1 21:0 22:0.5 23:3 24:251 25:1 26:0 27:0.33 28:0.04 29:0 30:0 31:0 32:0.01 
0.020112915571358855 0:0 1:1 2:0 3:0 4:0 5:1 6:0 7:1 8:313 9:25519 10:1 11:0 12:0 13:0 14:2 15:2 16:0 17:0 18:0 19:0 20:1 21:0 22:0 23:255 24:255 25:1 26:0 27:0 28:0 29:0 30:0 31:0.01 32:0.01 
0.018785208930260755 0:0 1:1 2:0 3:0 4:0 5:1 6:0 7:1 8:262 9:4165 10:1 11:0 12:0 13:0 14:5 15:5 16:0 17:0 18:0 19:0 20:1 21:0 22:0 23:5 24:255 25:1 26:0 27:0.2 28:0.05 29:0 30:0 31:0 32:0.01 
0.010367002054984031 0:0 1:1 2:0 3:0 4:0 5:1 6:0 7:1 8:227 9:6822 10:1 11:0 12:0 13:0 14:6 15:6 16:0 17:0 18:0 19:0 20:1 21:0 22:0 23:58 24:255 25:1 26:0 27:0.02 28:0.02 29:0 30:0 31:0 32:0.01 
0.0013750509569289142 0:0 1:1 2:0 3:0 4:0 5:1 6:0 7:1 8:230 9:302 10:1 11:0 12:0 13:0 14:7 15:25 16:0 17:0 18:0 19:0 20:1 21:0 22:0.08 23:114 24:255 25:1 26:0 27:0.01 28:0.04 29:0 30:0 31:0 32:0.01 
0.0084685915231302554 0:0 1:1 2:0 3:0 4:0 5:1 6:0 7:1 8:211 9:356 10:1 11:0 12:0 13:0 14:8 15:8 16:0 17:0 18:0 19:0 20:1 21:0 22:0 23:255 24:255 25:1 26:0 27:0 28:0 29:0 30:0 31:0.01 32:0.01 
0.020054123971898014 0:0 1:1 2:0 3:0 4:0 5:1 6:0 7:1 8:217 9:6763 10:1 11:0 12:0 13:0 14:3 15:3 16:0 17:0 18:0 19:0 20:1 21:0 22:0 23:255 24:255 25:1 26:0 27:0 28:0 29:0 30:0 31:0.01 32:0.01 
0.010341291443728685 0:0 1:1 2:0 3:0 4:0 5:1 6:0 7:1 8:143 9:9578 10:1 11:0 12:0 13:0 14:1 15:2 16:0 17:0 18:0 19:0 20:1 21:0 22:1 23:59 24:255 25:1 26:0 27:0.02 28:0.06 29:0.03 30:0.01 31:0.02 32:0.01 
0.0035775056168708625 0:0 1:1 2:0 3:0 4:0 5:1 6:0 7:1 8:325 9:277 10:1 11:0 12:0 13:0 14:2 15:2 16:0 17:0 18:0 19:0 20:1 21:0 22:0 23:255 24:248 25:0.97 26:0.01 27:0 28:0 29:0 30:0 31:0.01 32:0.01 
0.020009056095753229 0:0 1:1 2:0 3:0 4:0 5:1 6:0 7:1 8:294 9:9833 10:1 11:0 12:0 13:0 14:28 15:42 16:0 17:0 18:0.04 19:0.02 20:1 21:0 22:0.1 23:58 24:255 25:1 26:0 27:0.02 28:0.01 29:0 30:0 31:0.02 32:0.01 
0.011882276316708754 0:0 1:1 2:0 3:0 4:0 5:1 6:0 7:1 8:186 9:4841 10:1 11:0 12:0 13:0 14:3 15:4 16:0 17:0 18:0 19:0 20:1 21:0 22:0.5 23:53 24:255 25:1 26:0 27:0.02 28:0.03 29:0 30:0 31:0 32:0.01 
0.020149217406828755 0:0 1:1 2:0 3:0 4:0 5:1 6:0 7:1 8:240 9:31639 10:1 11:0 12:0 13:0 14:2 15:6 16:0 17:0 18:0 19:0 20:1 21:0 22:0.33 23:52 24:255 25:1 26:0 27:0.02 28:0.03 29:0 30:0 31:0.02 32:0.01 
0.0035399713161143988 0:0 1:1 2:0 3:0 4:0 5:1 6:0 7:1 8:227 9:1478 10:1 11:0 12:0 13:0 14:9 15:12 16:0 17:0 18:0 19:0 20:1 21:0 22:0.25 23:148 24:255 25:1 26:0 27:0.01 28:0.04 29:0 30:0 31:0 32:0.01 
0.018766093219931241 0:0 1:1 2:0 3:0 4:0 5:1 6:0 7:1 8:309 9:7263 10:1 11:0 12:0 13:0 14:11 15:11 16:0 17:0 18:0 19:0 20:1 21:0 22:0 23:133 24:255 25:1 26:0 27:0.01 28:0.01 29:0 30:0 31:0.02 32:0.01 
0.0078002458971516671 0:0 1:1 2:0 3:0 4:0 5:1 6:0 7:1 8:237 9:597 10:1 11:0 12:0 13:0 14:1 15:1 16:0 17:0 18:0 19:0 20:1 21:0 22:0 23:8 24:255 25:1 26:0 27:0.12 28:0.03 29:0 30:0 31:0 32:0.01 
0.015174032556021101 0:0 1:1 2:0 3:0 4:0 5:1 6:0 7:1 8:356 9:2431 10:1 11:0 12:0 13:0 14:2 15:2 16:0 17:0 18:0 19:0 20:1 21:0 22:0 23:255 24:255 25:1 26:0 27:0 28:0 29:0 30:0 31:0.01 32:0.01 
0.0094436407224100863 0:0 1:1 2:0 3:0 4:0 5:1 6:0 7:1 8:237 9:2912 10:1 11:0 12:0 13:0 14:2 15:47 16:0 17:0 18:0 19:0 20:1 21:0 22:0.15 23:53 24:255 25:1 26:0 27:0.02 28:0.01 29:0 30:0 31:0 32:0.01 
0.0053756492824548049 0:0 1:1 2:0 3:0 4:0 5:1 6:0 7:1 8:223 9:4739 10:1 11:0 12:0 13:0 14:14 15:14 16:0 17:0 18:0 19:0 20:1 21:0 22:0 23:39 24:255 25:1 26:0 27:0.03 28:0.06 29:0 30:0 31:0 32:0.01 
0.02022240964726868 0:0 1:1 2:0 3:0 4:0 5:1 6:0 7:1 8:146 9:15634 10:1 11:0 12:0 13:0 14:13 15:14 16:0 17:0 18:0 19:0 20:1 21:0 22:0.14 23:255 24:255 25:1 26:0 27:0 28:0 29:0 30:0 31:0.01 32:0.01 
0.017443629276935758 0:0 1:1 2:0 3:0 4:0 5:1 6:0 7:1 8:198 9:1085 10:1 11:0 12:0 13:0 14:23 15:23 16:0 17:0 18:0 19:0 20:1 21:0 22:0 23:255 24:255 25:1 26:0 27:0 28:0 29:0 30:0 31:0.01 32:0.01 
0.005923019050911007 0:0 1:1 2:0 3:0 4:0 5:1 6:0 7:1 8:225 9:7185 10:1 11:0 12:0 13:0 14:5 15:5 16:0 17:0 18:0 19:0 20:1 21:0 22:0 23:27 24:255 25:1 26:0 27:0.04 28:0.03 29:0 30:0 31:0 32:0.01 
0.020118101257427773 0:0 1:1 2:0 3:0 4:1 5:0 6:0 7:1 8:2685 9:358 10:1 11:0 12:0 13:0 14:1 15:1 16:0 17:0 18:0 19:0 20:1 21:0 22:0 23:107 24:183 25:0.77 26:0.03 27:0.01 28:0.01 29:0 30:0.03 31:0 32:0.01 
0.00064214404715252568 0:0 1:1 2:0 3:0 4:0 5:1 6:0 7:1 8:255 9:3026 10:1 11:0 12:0 13:0 14:9 15:23 16:0 17:0 18:0 19:0 20:1 21:0 22:0.22 23:9 24:255 25:1 26:0 27:0.11 28:0.03 29:0 30:0 31:0 32:0.01 
0.015951488006472312 0:0 1:1 2:0 3:0 4:0 5:1 6:0 7:1 8:242 9:175 10:1 11:0 12:0 13:0 14:1 15:1 16:0 17:0 18:0 19:0 20:1 21:0 22:0 23:255 24:255 25:1 26:0 27:0 28:0 29:0 30:0 31:0.01 32:0.01 
0.0068554279588236653 0:0 1:1 2:0 3:0 4:0 5:1 6:0 7:1 8:228 9:547 10:1 11:0 12:0 13:0 14:20 15:20 16:0 17:0 18:0 19:0 20:1 21:0 22:0 23:20 24:160 25:1 26:0 27:0.05 28:0.06 29:0 30:0.01 31:0 32:0.01 
0.020084458189956259 0:0 1:1 2:0 3:0 4:1 5:0 6:0 7:1 8:3724 9:330 10:1 11:0 12:0 13:0 14:1 15:1 16:0 17:0 18:0 19:0 20:1 21:0 22:0 23:77 24:155 25:0.88 26:0.05 27:0.01 28:0.02 29:0.01 30:0.02 31:0 32:0.01 
0.01143760761625601 0:0 1:1 2:0 3:0 4:0 5:1 6:0 7:1 8:342 9:753 10:1 11:0 12:0 13:0 14:1 15:1 16:0 17:0 18:0 19:0 20:1 21:0 22:0 23:169 24:255 25:1 26:0 27:0.01 28:0.02 29:0.01 30:0 31:0.01 32:0.01 
0.0086237007964987209 0:0 1:1 2:0 3:0 4:0 5:1 6:0 7:1 8:335 9:5480 10:1 11:0 12:0 13:0 14:4 15:12 16:0 17:0.08 18:0 19:0 20:1 21:0 22:0.25 23:85 24:255 25:1 26:0 27:0.01 28:0.02 29:0 30:0 31:0.01 32:0.01 
0.0077838856660974749 0:0 1:1 2:0 3:0 4:0 5:1 6:0 7:1 8:253 9:1217 10:1 11:0 12:0 13:0 14:5 15:5 16:0 17:0 18:0 19:0 20:1 21:0 22:0 23:5 24:255 25:1 26:0 27:0.2 28:0.06 29:0 30:0 31:0 32:0.01 
0.0099067809239842403 0:0 1:1 2:0 3:0 4:0 5:1 6:0 7:1 8:194 9:8163 10:1 11:0 12:0 13:0 14:24 15:35 16:0 17:0 18:0 19:0 20:1 21:0 22:0.06 23:24 24:255 25:1 26:0 27:0.04 28:0.04 29:0 30:0.01 31:0 32:0.01 
0.010587499478876213 0:0 1:1 2:0 3:0 4:0 5:1 6:0 7:1 8:301 9:3010 10:1 11:0 12:0 13:0 14:4 15:4 16:0 17:0 18:0 19:0 20:1 21:0 22:0 23:126 24:255 25:1 26:0 27:0.01 28:0.01 29:0 30:0 31:0.02 32:0.01 
0.018649551459691924 0:0 1:1 2:0 3:0 4:0 5:1 6:0 7:1 8:234 9:8139 10:1 11:0 12:0 13:0 14:5 15:5 16:0 17:0 18:0 19:0 20:1 21:0 22:0 23:255 24:255 25:1 26:0 27:0 28:0 29:0 30:0 31:0.01 32:0.01 
0.010408404089506796 0:0 1:1 2:0 3:0 4:0 5:1 6:0 7:1 8:197 9:4966 10:1 11:0 12:0 13:0 14:5 15:5 16:0 17:0 18:0 19:0 20:1 21:0 22:0 23:8 24:255 25:1 26:0 27:0.12 28:0.05 29:0 30:0 31:0 32:0.01 
0.01318022846709065 0:0 1:1 2:0 3:0 4:0 5:1 6:0 7:1 8:255 9:6023 10:1 11:0 12:0 13:0 14:4 15:4 16:0 17:0 18:0 19:0 20:1 21:0 22:0 23:53 24:255 25:1 26:0 27:0.02 28:0.03 29:0.02 30:0.01 31:0.02 32:0.01 
0.010097678930501442 0:0 1:1 2:0 3:0 4:0 5:1 6:0 7:1 8:335 9:652 10:1 11:0 12:0 13:0 14:2 15:2 16:0 17:0 18:0 19:0 20:1 21:0 22:0 23:10 24:255 25:1 26:0 27:0.1 28:0.02 29:0 30:0 31:0 32:0.01 
0.01996237549781904 0:0 1:1 2:0 3:0 4:0 5:1 6:0 7:1 8:338 9:5759 10:1 11:0 12:0 13:0 14:4 15:4 16:0 17:0 18:0 19:0 20:1 21:0 22:0 23:65 24:115 25:1 26:0 27:0.02 28:0.03 29:0 30:0 31:0 32:0.01 
0.010411996039081139 0:0 1:1 2:0 3:0 4:0 5:1 6:0 7:1 8:228 9:6860 10:1 11:0 12:0 13:0 14:15 15:15 16:0 17:0 18:0 19:0 20:1 21:0 22:0 23:100 24:255 25:1 26:0 27:0.01 28:0.02 29:0 30:0 31:0.01 32:0.01 
0.012223893807407347 0:0 1:1 2:0 3:0 4:0 5:1 6:0 7:1 8:211 9:2081 10:1 11:0 12:0 13:0 14:5 15:8 16:0 17:0 18:0 19:0 20:1 21:0 22:0.25 23:88 24:255 25:1 26:0 27:0.01 28:0.04 29:0 30:0 31:0 32:0.01 
0.0052852970569445485 0:0 1:1 2:0 3:0 4:0 5:1 6:0 7:1 8:199 9:1246 10:1 11:0 12:0 13:0 14:22 15:22 16:0 17:0 18:0 19:0 20:1 21:0 22:0 23:36 24:255 25:1 26:0 27:0.03 28:0.04 29:0 30:0.01 31:0.03 32:0.01 
0.0055174715629230184 0:0 1:1 2:0 3:0 4:0 5:1 6:0 7:1 8:193 9:929 10:1 11:0 12:0 13:0 14:6 15:6 16:0 17:0 18:0 19:0 20:1 21:0 22:0 23:6 24:255 25:1 26:0 27:0.17 28:0.03 29:0 30:0.01 31:0 32:0.01 
0.020107938699004745 0:0 1:1 2:0 3:0 4:0 5:1 6:0 7:1 8:312 9:30739 10:1 11:0 12:0 13:0 14:2 15:4 16:0 17:0.25 18:0 19:0 20:1 21:0 22:0.5 23:155 24:255 25:1 26:0 27:0.01 28:0.03 29:0 30:0 31:0.01 32:0.01 
0.011919773436374057 0:0 1:1 2:0 3:0 4:0 5:1 6:0 7:1 8:281 9:4768 10:1 11:0 12:0 13:0 14:12 15:12 16:0 17:0 18:0 19:0 20:1 21:0 22:0 23:160 24:255 25:1 26:0 27:0.01 28:0.01 29:0 30:0 31:0.01 32:0.01 
0.0077530246274701989 0:0 1:1 2:0 3:0 4:0 5:1 6:0 7:1 8:312 9:124 10:1 11:0 12:0 13:0 14:3 15:18 16:0 17:0 18:0 19:0 20:1 21:0 22:0.28 23:68 24:255 25:1 26:0 27:0.01 28:0.02 29:0 30:0 31:0.01 32:0.01 
0.003420786541065755 0:0 1:1 2:0 3:0 4:1 5:0 6:0 7:1 8:1404 9:331 10:1 11:0 12:0 13:0 14:1 15:1 16:0 17:0 18:0 19:0 20:1 21:0 22:0 23:13 24:175 25:0.54 26:0.23 27:0.08 28:0.01 29:0 30:0 31:0 32:0.01 
0.0067447422381177206 0:0 1:1 2:0 3:0 4:0 5:1 6:0 7:1 8:245 9:188 10:1 11:0 12:0 13:0 14:1 15:36 16:0 17:0 18:0 19:0 20:1 21:0 22:0.17 23:30 24:255 25:1 26:0 27:0.03 28:0.04 29:0.03 30:0.01 31:0 32:0.01 
0.016705076069459146 0:0 1:1 2:0 3:0 4:0 5:1 6:0 7:1 8:236 9:3222 10:1 11:0 12:0 13:0 14:7 15:7 16:0 17:0 18:0 19:0 20:1 21:0 22:0 23:255 24:248 25:0.97 26:0.01 27:0 28:0 29:0 30:0 31:0.01 32:0.01 
0.012803790833751277 0:0 1:1 2:0 3:0 4:1 5:0 6:0 7:1 8:1353 9:330 10:1 11:0 12:0 13:0 14:2 15:1 16:0 17:0 18:0 19:0 20:0.5 21:1 22:0 23:255 24:149 25:0.58 26:0.03 27:0 28:0 29:0.01 30:0.02 31:0 32:0.01 
0.010072855560452511 0:0 1:1 2:0 3:0 4:0 5:1 6:0 7:1 8:266 9:1646 10:1 11:0 12:0 13:0 14:15 15:17 16:0 17:0 18:0 19:0 20:1 21:0 22:0.12 23:255 24:255 25:1 26:0 27:0 28:0 29:0 30:0 31:0.01 32:0.01 
0.010655774322202624 0:0 1:1 2:0 3:0 4:0 5:1 6:0 7:1 8:316 9:912 10:1 11:0 12:0 13:0 14:7 15:7 16:0 17:0 18:0 19:0 20:1 21:0 22:0 23:22 24:255 25:1 26:0 27:0.05 28:0.03 29:0 30:0 31:0 32:0.01 
0.020080297323960168 0:0 1:1 2:0 3:0 4:0 5:1 6:0 7:1 8:231 9:9950 10:1 11:0 12:0 13:0 14:1 15:13 16:0 17:0 18:0 19:0 20:1 21:0 22:0.15 23:7 24:254 25:1 26:0 27:0.14 28:0.03 29:0 30:0 31:0 32:0.01 
0.014026346391989292 0:0 1:1 2:0 3:0 4:0 5:1 6:0 7:1 8:250 9:1215 10:1 11:0 12:0 13:0 14:12 15:12 16:0 17:0 18:0 19:0 20:1 21:0 22:0 23:217 24:255 25:1 26:0 27:0 28:0.01 29:0 30:0 31:0.01 32:0.01 
0.017410429484315024 0:0 1:1 2:0 3:0 4:0 5:1 6:0 7:1 8:303 9:2495 10:1 11:0 12:0 13:0 14:7 15:7 16:0 17:0 18:0 19:0 20:1 21:0 22:0 23:7 24:255 25:1 26:0 27:0.14 28:0.04 29:0 30:0 31:0 32:0.01 
0.013802274558043724 0:0 1:1 2:0 3:0 4:0 5:1 6:0 7:1 8:223 9:1208 10:1 11:0 12:0 13:0 14:50 15:50 16:0 17:0 18:0.02 19:0.02 20:1 21:0 22:0 23:99 24:255 25:1 26:0 27:0.02 28:0.03 29:0 30:0 31:0.01 32:0.01 
0.0012300038728170655 0:0 1:1 2:0 3:0 4:0 5:1 6:0 7:1 8:312 9:839 10:1 11:0 12:0 13:0 14:5 15:7 16:0 17:0 18:0 19:0 20:1 21:0 22:0.29 23:223 24:255 25:1 26:0 27:0 28:0.02 29:0 30:0 31:0.01 32:0.01 
0.014682839241931729 0:0 1:1 2:0 3:0 4:0 5:1 6:0 7:1 8:361 9:777 10:1 11:0 12:0 13:0 14:18 15:19 16:0 17:0 18:0 19:0 20:1 21:0 22:0.11 23:255 24:255 25:1 26:0 27:0 28:0 29:0 30:0 31:0.01 32:0.01 
0.017966499111117973 0:0 1:1 2:0 3:0 4:0 5:1 6:0 7:1 8:357 9:2333 10:1 11:0 12:0 13:0 14:21 15:25 16:0 17:0 18:0 19:0 20:1 21:0 22:0.08 23:68 24:255 25:1 26:0 27:0.01 28:0.02 29:0 30:0.02 31:0 32:0.01 
0.020089661389726933 0:0 1:1 2:0 3:0 4:0 5:1 6:0 7:1 8:293 9:25672 10:1 11:0 12:0 13:0 14:2 15:2 16:0 17:0 18:0 19:0 20:1 21:0 22:0 23:143 24:255 25:1 26:0 27:0.01 28:0.02 29:0 30:0 31:0 32:0.01 
0.0089168341652694355 0:0 1:1 2:0 3:0 4:0 5:1 6:0 7:1 8:350 9:3098 10:1 11:0 12:0 13:0 14:28 15:47 16:0 17:0 18:0 19:0 20:1 21:0 22:0.09 23:108 24:255 25:1 26:0 27:0.01 28:0.01 29:0.01 30:0 31:0 32:0.01 
0.020098538993572633 0:0 1:1 2:0 3:0 4:0 5:1 6:0 7:1 8:203 9:11262 10:1 11:0 12:0 13:0 14:6 15:13 16:0 17:0 18:0 19:0.08 20:1 21:0 22:0.23 23:6 24:255 25:1 26:0 27:0.17 28:0.04 29:0 30:0 31:0 32:0.01 
0.013314996000547027 0:0 1:1 2:0 3:0 4:0 5:1 6:0 7:1 8:205 9:4275 10:1 11:0 12:0 13:0 14:12 15:12 16:0 17:0 18:0.08 19:0.08 20:1 21:0 22:0 23:39 24:255 25:1 26:0 27:0.03 28:0.04 29:0 30:0 31:0.05 32:0.01 
0.0058762189889514007 0:0 1:1 2:0 3:0 4:0 5:1 6:0 7:1 8:337 9:1949 10:1 11:0 12:0 13:0 14:7 15:9 16:0 17:0 18:0 19:0 20:1 21:0 22:0.33 23:33 24:255 25:1 26:0 27:0.03 28:0.02 29:0 30:0.02 31:0 32:0.01 
0.0092366953274325789 0:0 1:1 2:0 3:0 4:0 5:1 6:0 7:1 8:262 9:531 10:1 11:0 12:0 13:0 14:8 15:45 16:0 17:0 18:0 19:0 20:1 21:0 22:0.04 23:255 24:255 25:1 26:0 27:0 28:0 29:0 30:0 31:0.01 32:0.01 
0.010499632042621793 0:0 1:1 2:0 3:0 4:0 5:1 6:0 7:1 8:309 9:3896 10:1 11:0 12:0 13:0 14:8 15:9 16:0 17:0 18:0 19:0 20:1 21:0 22:0.22 23:119 24:255 25:1 26:0 27:0.01 28:0.01 29:0 30:0 31:0.02 32:0.01 
0.012509791125282919 0:2 1:1 2:0 3:0 4:1 5:0 6:0 7:1 8:1289 9:326 10:1 11:0 12:0 13:0 14:1 15:4 16:0 17:0 18:0 19:0 20:1 21:0 22:1 23:129 24:88 25:0.68 26:0.03 27:0.01 28:0 29:0 30:0 31:0.01 32:0.01 
0.015103396717410202 0:0 1:1 2:0 3:0 4:0 5:1 6:0 7:1 8:212 9:2345 10:1 11:0 12:0 13:0 14:3 15:9 16:0 17:0 18:0 19:0 20:1 21:0 22:0.22 23:3 24:215 25:1 26:0 27:0.33 28:0.01 29:0 30:0 31:0 32:0.01 
0.017891749528669534 0:0 1:1 2:0 3:0 4:0 5:1 6:0 7:1 8:314 9:369 10:1 11:0 12:0 13:0 14:3 15:3 16:0 17:0 18:0 19:0 20:1 21:0 22:0 23:3 24:122 25:1 26:0 27:0.33 28:0.07 29:0 30:0 31:0 32:0.01 
0.01335462732206108 0:0 1:1 2:0 3:0 4:0 5:1 6:0 7:1 8:212 9:1090 10:1 11:0 12:0 13:0 14:16 15:16 16:0 17:0 18:0 19:0 20:1 21:0 22:0 23:174 24:255 25:1 26:0 27:0.01 28:0.04 29:0 30:0.01 31:0.01 32:0.01 
0.0061136892571387194 0:0 1:1 2:0 3:0 4:0 5:1 6:0 7:1 8:351 9:280 10:1 11:0 12:0 13:0 14:4 15:4 16:0 17:0 18:0 19:0 20:1 21:0 22:0 23:255 24:255 25:1 26:0 27:0 28:0 29:0 30:0 31:0.01 32:0.01 
0.0083114904538529842 0:0 1:1 2:0 3:0 4:0 5:1 6:0 7:1 8:308 9:1380 10:1 11:0 12:0 13:0 14:2 15:2 16:0 17:0 18:0 19:0 20:1 21:0 22:0 23:173 24:149 25:0.86 26:0.02 27:0.01 28:0 29:0.01 30:0.01 31:0.01 32:0.01 
0.019762514607256268 0:0 1:1 2:0 3:0 4:0 5:1 6:0 7:1 8:239 9:8317 10:1 11:0 12:0 13:0 14:1 15:5 16:0 17:0 18:0 19:0 20:1 21:0 22:0.4 23:64 24:254 25:1 26:0 27:0.02 28:0.03 29:0 30:0 31:0 32:0.01 
0.014092507179309734 0:0 1:1 2:0 3:0 4:0 5:1 6:0 7:1 8:279 9:8936 10:1 11:0 12:0 13:0 14:4 15:22 16:0 17:0.05 18:0 19:0 20:1 21:0 22:0.32 23:35 24:255 25:1 26:0 27:0.03 28:0.05 29:0 30:0 31:0.03 32:0.01 
0.017917831927902875 0:0 1:1 2:0 3:0 4:0 5:1 6:0 7:1 8:323 9:2025 10:1 11:0 12:0 13:0 14:6 15:8 16:0 17:0 18:0 19:0 20:1 21:0 22:0.38 23:6 24:255 25:1 26:0 27:0.17 28:0.02 29:0 30:0.01 31:0 32:0.01 
0.019901833565080344 0:0 1:1 2:0 3:0 4:0 5:1 6:0 7:1 8:141 9:7373 10:1 11:0 12:0 13:0 14:8 15:8 16:0 17:0 18:0 19:0 20:1 21:0 22:0 23:8 24:255 25:1 26:0 27:0.12 28:0.04 29:0 30:0.01 31:0 32:0.01 
0.0150205215886208 0:5 1:1 2:0 3:0 4:1 5:0 6:0 7:1 8:605 9:333 10:1 11:0 12:0 13:0 14:1 15:1 16:0 17:0 18:0 19:0 20:1 21:0 22:0 23:59 24:156 25:0.47 26:0.07 27:0.02 28:0.01 29:0 30:0 31:0 32:0.01 
0.012010613642847844 0:0 1:1 2:0 3:0 4:0 5:1 6:0 7:1 8:194 9:1423 10:1 11:0 12:0 13:0 14:10 15:10 16:0 17:0 18:0 19:0 20:1 21:0 22:0 23:107 24:255 25:1 26:0 27:0.01 28:0.02 29:0 30:0 31:0 32:0.01 
0.013480185592999506 0:0 1:1 2:0 3:0 4:0 5:1 6:0 7:1 8:231 9:2775 10:1 11:0 12:0 13:0 14:15 15:16 16:0 17:0 18:0 19:0 20:1 21:0 22:0.12 23:100 24:255 25:1 26:0 27:0.01 28:0.02 29:0 30:0 31:0.03 32:0.01 
0.010041020165684231 0:0 1:1 2:0 3:0 4:0 5:1 6:0 7:1 8:154 9:13386 10:1 11:0 12:0 13:0 14:4 15:4 16:0 17:0 18:0 19:0 20:1 21:0 22:0 23:150 24:255 25:1 26:0 27:0.01 28:0.03 29:0 30:0 31:0.01 32:0.01 
0.018921906566211823 0:0 1:1 2:0 3:0 4:0 5:1 6:0 7:1 8:198 9:11607 10:1 11:0 12:0 13:0 14:1 15:1 16:0 17:0 18:0 19:0 20:1 21:0 22:0 23:4 24:255 25:1 26:0 27:0.25 28:0.05 29:0 30:0 31:0 32:0.01 
0.0058661774791215673 0:0 1:1 2:0 3:0 4:0 5:1 6:0 7:1 8:329 9:2189 10:1 11:0 12:0 13:0 14:5 15:5 16:0 17:0 18:0 19:0 20:1 21:0 22:0 23:124 24:255 25:1 26:0 27:0.01 28:0.02 29:0 30:0.02 31:0.01 32:0.01 
0.0017392139020361332 0:0 1:1 2:0 3:0 4:0 5:1 6:0 7:1 8:312 9:327 10:1 11:0 12:0 13:0 14:5 15:26 16:0 17:0 18:0 19:0 20:1 21:0 22:0.15 23:244 24:255 25:1 26:0 27:0 28:0.01 29:0 30:0 31:0.01 32:0.01 
0.020104833549196274 0:0 1:1 2:0 3:0 4:0 5:1 6:0 7:1 8:155 9:4187 10:1 11:0 12:0 13:0 14:9 15:9 16:0 17:0 18:0 19:0 20:1 21:0 22:0 23:184 24:184 25:1 26:0 27:0.01 28:0 29:0 30:0 31:0.01 32:0.01 
0.011388747199169744 0:0 1:1 2:0 3:0 4:0 5:1 6:0 7:1 8:226 9:673 10:1 11:0 12:0 13:0 14:13 15:16 16:0 17:0 18:0 19:0 20:1 21:0 22:0.25 23:255 24:255 25:1 26:0 27:0 28:0 29:0 30:0 31:0.01 32:0.01 
0.0052522031860012947 0:0 1:1 2:0 3:0 4:0 5:1 6:0 7:1 8:225 9:1364 10:1 11:0 12:0 13:0 14:22 15:22 16:0 17:0 18:0 19:0 20:1 21:0 22:0 23:23 24:255 25:1 26:0 27:0.04 28:0.01 29:0 30:0 31:0.04 32:0.01 
0.0043379981048926866 0:0 1:1 2:0 3:0 4:0 5:1 6:0 7:1 8:334 9:634 10:1 11:0 12:0 13:0 14:5 15:5 16:0 17:0 18:0 19:0 20:1 21:0 22:0 23:13 24:255 25:1 26:0 27:0.08 28:0.02 29:0 30:0 31:0 32:0.01 
0.020013764797549467 0:0 1:1 2:0 3:0 4:0 5:1 6:0 7:1 8:309 9:10929 10:1 11:0 12:0 13:0 14:1 15:1 16:0 17:0 18:0 19:0 20:1 21:0 22:0 23:40 24:255 25:1 26:0 27:0.03 28:0.03 29:0 30:0 31:0 32:0.01 
0.016492420631206196 0:0 1:1 2:0 3:0 4:0 5:1 6:0 7:1 8:271 9:10615 10:1 11:0 12:0 13:0 14:1 15:1 16:0 17:0 18:0 19:0 20:1 21:0 22:0 23:31 24:255 25:1 26:0 27:0.03 28:0.03 29:0 30:0 31:0 32:0.01 
0.016628122489215018 0:0 1:1 2:0 3:0 4:0 5:1 6:0 7:1 8:349 9:2578 10:1 11:0 12:0 13:0 14:6 15:6 16:0 17:0 18:0 19:0 20:1 21:0 22:0 23:42 24:255 25:1 26:0 27:0.02 28:0.02 29:0 30:0 31:0 32:0.01 
0.0057648162814523951 0:0 1:1 2:0 3:0 4:0 5:1 6:0 7:1 8:225 9:2445 10:1 11:0 12:0 13:0 14:17 15:17 16:0 17:0 18:0 19:0 20:1 21:0 22:0 23:255 24:255 25:1 26:0 27:0 28:0 29:0 30:0 31:0.01 32:0.01 
0.0056110848566677954 0:0 1:1 2:0 3:0 4:0 5:1 6:0 7:1 8:294 9:885 10:1 11:0 12:0 13:0 14:14 15:16 16:0 17:0 18:0.07 19:0.06 20:1 21:0 22:0.19 23:255 24:255 25:1 26:0 27:0 28:0 29:0 30:0 31:0.01 32:0.01 
0.0091254670765354498 0:0 1:1 2:0 3:0 4:0 5:1 6:0 7:1 8:342 9:2787 10:1 11:0 12:0 13:0 14:4 15:5 16:0 17:0 18:0 19:0 20:1 21:0 22:0.4 23:84 24:255 25:1 26:0 27:0.01 28:0.01 29:0.01 30:0 31:0 32:0.01 
0.015865581370132744 0:0 1:1 2:0 3:0 4:0 5:1 6:0 7:1 8:371 9:327 10:1 11:0 12:0 13:0 14:2 15:29 16:0 17:0 18:0 19:0 20:1 21:0 22:0.14 23:14 24:255 25:1 26:0 27:0.07 28:0.01 29:0 30:0 31:0 32:0.01 
0.011828561303860141 0:0 1:1 2:0 3:0 4:0 5:1 6:0 7:1 8:261 9:17739 10:1 11:0 12:0 13:0 14:1 15:5 16:0 17:0 18:0 19:0 20:1 21:0 22:0.4 23:92 24:255 25:1 26:0 27:0.01 28:0.05 29:0 30:0 31:0 32:0.01 
0.0018486028425295101 0:0 1:1 2:0 3:0 4:0 5:1 6:0 7:1 8:195 9:382 10:1 11:0 12:0 13:0 14:9 15:19 16:0 17:0 18:0 19:0 20:1 21:0 22:0.11 23:9 24:255 25:1 26:0 27:0.11 28:0.04 29:0 30:0.01 31:0 32:0.01 
0.0090181460035142942 0:0 1:1 2:0 3:0 4:0 5:1 6:0 7:1 8:241 9:1162 10:1 11:0 12:0 13:0 14:8 15:9 16:0 17:0 18:0 19:0 20:1 21:0 22:0.22 23:109 24:255 25:1 26:0 27:0.01 28:0.02 29:0 30:0 31:0.03 32:0.01 
0.001936773713010145 0:0 1:1 2:0 3:0 4:0 5:1 6:0 7:1 8:297 9:2006 10:1 11:0 12:0 13:0 14:11 15:13 16:0 17:0 18:0 19:0 20:1 21:0 22:0.15 23:255 24:255 25:1 26:0 27:0 28:0 29:0 30:0 31:0.01 32:0.01 
0.0075467977047319855 0:0 1:1 2:0 3:0 4:0 5:1 6:0 7:1 8:144 9:9567 10:1 11:0 12:0 13:0 14:1 15:9 16:0 17:0 18:0 19:0 20:1 21:0 22:0.56 23:27 24:255 25:1 26:0 27:0.04 28:0.01 29:0 30:0 31:0.07 32:0.01 
0.018410572637759935 0:0 1:1 2:0 3:0 4:0 5:1 6:0 7:1 8:144 9:5086 10:1 11:0 12:0 13:0 14:1 15:1 16:0 17:0 18:0 19:0 20:1 21:0 22:0 23:13 24:255 25:1 26:0 27:0.08 28:0.05 29:0 30:0.01 31:0 32:0.01 
0.0049867703892437602 0:0 1:1 2:0 3:0 4:0 5:1 6:0 7:1 8:281 9:9569 10:1 11:0 12:0 13:0 14:7 15:11 16:0 17:0 18:0 19:0 20:1 21:0 22:0.18 23:31 24:255 25:1 26:0 27:0.03 28:0.06 29:0 30:0 31:0 32:0.01 
0.011280367392385563 0:0 1:1 2:0 3:0 4:1 5:0 6:0 7:1 8:1197 9:332 10:1 11:0 12:0 13:0 14:2 15:1 16:0 17:0 18:0 19:0 20:0.5 21:1 22:0 23:255 24:150 25:0.59 26:0.03 27:0 28:0 29:0.01 30:0.02 31:0 32:0.01 
0.017030541251796059 0:0 1:1 2:0 3:0 4:0 5:1 6:0 7:1 8:258 9:9692 10:1 11:0 12:0 13:0 14:1 15:1 16:0 17:0 18:0 19:0 20:1 21:0 22:0 23:36 24:255 25:1 26:0 27:0.03 28:0.07 29:0 30:0.01 31:0.03 32:0.01 
0.0075484291671065289 0:0 1:1 2:0 3:0 4:0 5:1 6:0 7:1 8:230 9:707 10:1 11:0 12:0 13:0 14:8 15:10 16:0 17:0 18:0 19:0 20:1 21:0 22:0.2 23:94 24:255 25:1 26:0 27:0.01 28:0.05 29:0 30:0 31:0 32:0.01 
0.018351082250011974 0:1 1:1 2:0 3:0 4:1 5:0 6:0 7:1 8:2288 9:331 10:1 11:0 12:0 13:0 14:2 15:3 16:0 17:0 18:0 19:0 20:0.5 21:1 22:1 23:255 24:156 25:0.61 26:0.03 27:0 28:0 29:0.01 30:0.02 31:0 32:0.01 
0.012494111119038594 0:0 1:1 2:0 3:0 4:0 5:1 6:0 7:1 8:306 9:3882 10:1 11:0 12:0 13:0 14:4 15:4 16:0 17:0 18:0 19:0 20:1 21:0 22:0 23:4 24:255 25:1 26:0 27:0.25 28:0.02 29:0 30:0 31:0 32:0.01 
0.01116788838875862 0:0 1:1 2:0 3:0 4:0 5:1 6:0 7:1 8:195 9:557 10:1 11:0 12:0 13:0 14:2 15:12 16:0 17:0 18:0 19:0 20:1 21:0 22:0.33 23:255 24:255 25:1 26:0 27:0 28:0 29:0 30:0 31:0.01 32:0.01 
0.0074874102829707561 0:0 1:1 2:0 3:0 4:0 5:1 6:0 7:1 8:243 9:7333 10:1 11:0 12:0 13:0 14:11 15:11 16:0 17:0 18:0 19:0 20:1 21:0 22:0 23:132 24:255 25:1 26:0 27:0.01 28:0.04 29:0 30:0 31:0.02 32:0.01 
0.01353994656375463 0:0 1:1 2:0 3:0 4:0 5:1 6:0 7:1 8:205 9:7176 10:1 11:0 12:0 13:0 14:20 15:22 16:0 17:0 18:0 19:0 20:1 21:0 22:0.09 23:42 24:255 25:1 26:0 27:0.02 28:0.06 29:0 30:0.01 31:0 32:0.01 
0.015808880645993437 0:1 1:1 2:0 3:0 4:1 5:0 6:0 7:1 8:1215 9:328 10:1 11:0 12:0 13:0 14:1 15:2 16:0 17:0 18:0 19:0 20:1 21:0 22:1 23:156 24:97 25:0.62 26:0.03 27:0.01 28:0 29:0 30:0 31:0.01 32:0.01 
0.0079152981211712617 0:0 1:1 2:0 3:0 4:0 5:1 6:1 7:0 8:162 9:0 10:1 11:0 12:0 13:0 14:1 15:1 16:1 17:1 18:0 19:0 20:1 21:0 22:0 23:26 24:255 25:1 26:0 27:0.04 28:0.04 29:0.04 30:0.01 31:0 32:0.01 
0.016218573028505989 0:0 1:1 2:0 3:0 4:0 5:1 6:0 7:1 8:206 9:2724 10:1 11:0 12:0 13:0 14:7 15:30 16:0 17:0 18:0 19:0 20:1 21:0 22:0.07 23:255 24:255 25:1 26:0 27:0 28:0 29:0 30:0 31:0.01 32:0.01 
0.01128069117107032 0:0 1:1 2:0 3:0 4:0 5:1 6:0 7:1 8:239 9:1529 10:1 11:0 12:0 13:0 14:3 15:6 16:0 17:0 18:0 19:0.17 20:1 21:0 22:0.5 23:145 24:255 25:1 26:0 27:0.01 28:0.02 29:0 30:0 31:0 32:0.01 
0.0047343542745373708 0:0 1:1 2:0 3:0 4:0 5:1 6:0 7:1 8:241 9:349 10:1 11:0 12:0 13:0 14:18 15:18 16:0 17:0 18:0 19:0 20:1 21:0 22:0 23:166 24:255 25:1 26:0 27:0.01 28:0.03 29:0 30:0 31:0 32:0.01 
0.0075661876138702466 0:0 1:1 2:0 3:0 4:0 5:1 6:0 7:1 8:280 9:1037 10:1 11:0 12:0 13:0 14:5 15:5 16:0 17:0 18:0 19:0 20:1 21:0 22:0 23:5 24:255 25:1 26:0 27:0.2 28:0.02 29:0 30:0 31:0 32:0.01 
0.0073874571891717625 0:0 1:1 2:0 3:0 4:1 5:0 6:0 7:1 8:1330 9:329 10:1 11:0 12:0 13:0 14:1 15:1 16:0 17:0 18:0 19:0 20:1 21:0 22:0 23:6 24:164 25:0.83 26:0.33 27:0.17 28:0.02 29:0 30:0.02 31:0 32:0.01 
0.0087344254523648406 0:0 1:1 2:0 3:0 4:0 5:1 6:0 7:1 8:223 9:1839 10:1 11:0 12:0 13:0 14:8 15:10 16:0 17:0 18:0 19:0 20:1 21:0 22:0.2 23:84 24:255 25:1 26:0 27:0.01 28:0.05 29:0 30:0 31:0 32:0.01 
0.012161345281938204 0:0 1:1 2:0 3:0 4:0 5:1 6:0 7:1 8:222 9:1776 10:1 11:0 12:0 13:0 14:3 15:21 16:0 17:0 18:0 19:0 20:1 21:0 22:0.29 23:54 24:255 25:1 26:0 27:0.02 28:0.04 29:0 30:0 31:0.02 32:0.01 
0.0063689371287685616 0:0 1:1 2:0 3:0 4:0 5:1 6:0 7:1 8:308 9:935 10:1 11:0 12:0 13:0 14:18 15:18 16:0 17:0 18:0 19:0 20:1 21:0 22:0 23:255 24:255 25:1 26:0 27:0 28:0 29:0 30:0 31:0.01 32:0.01 
0.017120210585864777 0:0 1:1 2:0 3:0 4:0 5:1 6:0 7:1 8:378 9:613 10:1 11:0 12:0 13:0 14:37 15:37 16:0 17:0 18:0 19:0 20:1 21:0 22:0 23:255 24:255 25:1 26:0 27:0 28:0 29:0 30:0 31:0.01 32:0.01 
0.020124211026672022 0:0 1:1 2:0 3:0 4:0 5:1 6:0 7:1 8:347 9:12518 10:1 11:0 12:0 13:0 14:11 15:21 16:0 17:0 18:0 19:0 20:1 21:0 22:0.1 23:37 24:255 25:1 26:0 27:0.03 28:0.02 29:0 30:0 31:0 32:0.01 
0.020106367183658918 0:0 1:1 2:0 3:0 4:0 5:1 6:0 7:1 8:459 9:5154 10:1 11:0 12:0 13:0 14:1 15:6 16:0 17:0 18:0 19:0 20:1 21:0 22:0.83 23:4 24:255 25:1 26:0 27:0.25 28:0.05 29:0 30:0 31:0 32:0.01 
0.013934044042427443 0:0 1:1 2:0 3:0 4:0 5:1 6:0 7:1 8:315 9:3413 10:1 11:0 12:0 13:0 14:4 15:4 16:0 17:0 18:0 19:0 20:1 21:0 22:0 23:255 24:255 25:1 26:0 27:0 28:0 29:0 30:0 31:0.01 32:0.01 
0.017218078406301227 0:0 1:1 2:0 3:0 4:0 5:1 6:0 7:1 8:329 9:4556 10:1 11:0 12:0 13:0 14:3 15:10 16:0.33 17:0.2 18:0 19:0 20:1 21:0 22:0.4 23:51 24:255 25:1 26:0 27:0.02 28:0.07 29:0.02 30:0.02 31:0 32:0.01 
0.012610581689996472 0:0 1:1 2:0 3:0 4:0 5:1 6:0 7:1 8:306 9:1162 10:1 11:0 12:0 13:0 14:13 15:13 16:0 17:0 18:0 19:0 20:1 21:0 22:0 23:255 24:255 25:1 26:0 27:0 28:0 29:0 30:0 31:0.01 32:0.01 
0.0067947572684936095 0:0 1:1 2:0 3:0 4:0 5:1 6:0 7:1 8:282 9:124 10:1 11:0 12:0 13:0 14:1 15:2 16:0 17:0 18:0 19:0 20:1 21:0 22:1 23:54 24:255 25:1 26:0 27:0.02 28:0.02 29:0 30:0 31:0.02 32:0.01 
0.01368770063599074 0:0 1:1 2:0 3:0 4:0 5:1 6:0 7:1 8:191 9:2852 10:1 11:0 12:0 13:0 14:20 15:20 16:0 17:0 18:0 19:0 20:1 21:0 22:0 23:20 24:255 25:1 26:0 27:0.05 28:0.03 29:0 30:0.01 31:0 32:0.01 
0.0037509114173432893 0:0 1:1 2:0 3:0 4:0 5:1 6:0 7:1 8:296 9:511 10:1 11:0 12:0 13:0 14:19 15:24 16:0 17:0 18:0 19:0 20:1 21:0 22:0.17 23:235 24:255 25:1 26:0 27:0 28:0.01 29:0 30:0 31:0 32:0.01 
0.00092790849742430126 0:0 1:1 2:0 3:0 4:0 5:1 6:0 7:1 8:231 9:334 10:1 11:0 12:0 13:0 14:8 15:8 16:0 17:0 18:0 19:0 20:1 21:0 22:0 23:74 24:255 25:1 26:0 27:0.01 28:0.01 29:0 30:0 31:0 32:0.01 
0.015401154021873155 0:0 1:1 2:0 3:0 4:0 5:1 6:0 7:1 8:343 9:6731 10:1 11:0 12:0 13:0 14:11 15:11 16:0 17:0 18:0 19:0 20:1 21:0 22:0 23:11 24:255 25:1 26:0 27:0.09 28:0.03 29:0 30:0 31:0 32:0.01 
0.020104847149520096 0:2 1:1 2:0 3:0 4:1 5:0 6:0 7:1 8:1602 9:508 10:1 11:0 12:0 13:0 14:1 15:1 16:0 17:0 18:0 19:0 20:1 21:0 22:0 23:206 24:134 25:0.56 26:0.02 27:0 28:0.01 29:0 30:0 31:0.04 32:0.01 
0.0018669751854467759 0:0 1:1 2:0 3:0 4:0 5:1 6:0 7:1 8:230 9:660 10:1 11:0 12:0 13:0 14:5 15:5 16:0 17:0 18:0 19:0 20:1 21:0 22:0 23:255 24:255 25:1 26:0 27:0 28:0 29:0 30:0 31:0.01 32:0.01 
0.0055815530833311748 0:2 1:1 2:0 3:0 4:1 5:0 6:0 7:1 8:1098 9:328 10:1 11:0 12:0 13:0 14:1 15:3 16:0 17:0 18:0 19:0 20:1 21:0 22:1 23:12 24:142 25:0.92 26:0.17 27:0.08 28:0.02 29:0 30:0.04 31:0 32:0.01 
0.019676961057649295 0:0 1:1 2:0 3:0 4:0 5:1 6:0 7:1 8:149 9:9692 10:1 11:0 12:0 13:0 14:1 15:1 16:0 17:0 18:0 19:0 20:1 21:0 22:0 23:87 24:255 25:1 26:0 27:0.01 28:0.07 29:0 30:0.01 31:0.01 32:0.01 
0.0018472863606106716 0:0 1:1 2:0 3:0 4:0 5:1 6:0 7:1 8:189 9:4536 10:1 11:0 12:0 13:0 14:17 15:18 16:0 17:0 18:0 19:0 20:1 21:0 22:0.11 23:52 24:255 25:1 26:0 27:0.02 28:0.01 29:0 30:0 31:0.02 32:0.01 
0.00467131244925101 0:0 1:1 2:0 3:0 4:0 5:1 6:0 7:1 8:192 9:5408 10:1 11:0 12:0 13:0 14:13 15:14 16:0 17:0 18:0 19:0 20:1 21:0 22:0.14 23:33 24:255 25:1 26:0 27:0.03 28:0.03 29:0.03 30:0.01 31:0.06 32:0.01 
0.019899025127525043 0:0 1:1 2:0 3:0 4:0 5:1 6:0 7:1 8:282 9:2573 10:1 11:0 12:0 13:0 14:9 15:12 16:0 17:0 18:0 19:0 20:1 21:0 22:0.33 23:45 24:122 25:1 26:0 27:0.02 28:0.05 29:0 30:0 31:0 32:0.01 
0.011250220906255255 0:0 1:1 2:0 3:0 4:0 5:1 6:0 7:1 8:228 9:577 10:1 11:0 12:0 13:0 14:17 15:17 16:0 17:0 18:0 19:0 20:1 21:0 22:0 23:17 24:157 25:1 26:0 27:0.06 28:0.06 29:0 30:0.01 31:0 32:0.01 
0.0059362403514820299 0:0 1:1 2:0 3:0 4:0 5:1 6:0 7:1 8:232 9:350 10:1 11:0 12:0 13:0 14:27 15:42 16:0 17:0 18:0 19:0 20:1 21:0 22:0.07 23:109 24:255 25:1 26:0 27:0.01 28:0.02 29:0.01 30:0 31:0 32:0.01 
0.020138874830804544 0:1 1:1 2:0 3:0 4:0 5:1 6:0 7:1 8:275 9:29434 10:1 11:0 12:0 13:0 14:1 15:1 16:0 17:0 18:0 19:0 20:1 21:0 22:0 23:238 24:255 25:1 26:0 27:0.01 28:0.02 29:0 30:0 31:0.01 32:0.01 
0.0090451400503713964 0:0 1:1 2:0 3:0 4:0 5:1 6:0 7:1 8:209 9:1999 10:1 11:0 12:0 13:0 14:1 15:1 16:0 17:0 18:0 19:0 20:1 21:0 22:0 23:81 24:255 25:1 26:0 27:0.01 28:0.02 29:0 30:0 31:0.01 32:0.01 
0.0047084390946260848 0:0 1:1 2:0 3:0 4:0 5:1 6:0 7:1 8:210 9:178 10:1 11:0 12:0 13:0 14:10 15:10 16:0 17:0 18:0 19:0 20:1 21:0 22:0 23:10 24:255 25:1 26:0 27:0.1 28:0.04 29:0 30:0 31:0 32:0.01 
0.019885643505929015 0:0 1:1 2:0 3:0 4:0 5:1 6:0 7:1 8:331 9:10355 10:1 11:0 12:0 13:0 14:6 15:11 16:0 17:0 18:0 19:0 20:1 21:0 22:0.27 23:6 24:255 25:1 26:0 27:0.17 28:0.01 29:0 30:0 31:0 32:0.01 
0.014396114583960581 0:0 1:1 2:0 3:0 4:0 5:1 6:0 7:1 8:210 9:2649 10:1 11:0 12:0 13:0 14:18 15:18 16:0 17:0 18:0 19:0 20:1 21:0 22:0 23:19 24:255 25:1 26:0 27:0.05 28:0.06 29:0 30:0 31:0 32:0.01 
0.0033644639667070545 0:0 1:1 2:0 3:0 4:0 5:1 6:0 7:1 8:348 9:342 10:1 11:0 12:0 13:0 14:4 15:11 16:0 17:0.09 18:0 19:0 20:1 21:0 22:0.36 23:198 24:255 25:1 26:0 27:0.01 28:0.02 29:0.01 30:0.01 31:0.01 32:0.01 
0.0086943947053718766 0:0 1:1 2:0 3:0 4:0 5:1 6:0 7:1 8:212 9:774 10:1 11:0 12:0 13:0 14:9 15:9 16:0 17:0 18:0 19:0 20:1 21:0 22:0 23:255 24:255 25:1 26:0 27:0 28:0 29:0 30:0 31:0.01 32:0.01 
0.0046731690342912552 0:0 1:1 2:0 3:0 4:0 5:1 6:0 7:1 8:216 9:9146 10:1 11:0 12:0 13:0 14:17 15:17 16:0 17:0 18:0 19:0 20:1 21:0 22:0 23:108 24:255 25:1 26:0 27:0.01 28:0.02 29:0 30:0 31:0 32:0.01 
0.018683994912283418 0:0 1:1 2:0 3:0 4:0 5:1 6:0 7:1 8:300 9:5973 10:1 11:0 12:0 13:0 14:1 15:38 16:0 17:0 18:0 19:0 20:1 21:0 22:0.05 23:12 24:255 25:1 26:0 27:0.08 28:0.03 29:0 30:0 31:0.08 32:0.01 
0.0013147038311390295 0:0 1:1 2:0 3:0 4:0 5:1 6:0 7:1 8:308 9:1512 10:1 11:0 12:0 13:0 14:5 15:5 16:0 17:0 18:0 19:0 20:1 21:0 22:0 23:255 24:255 25:1 26:0 27:0 28:0 29:0 30:0 31:0.01 32:0.01 
0.018765999186008554 0:0 1:1 2:0 3:0 4:0 5:1 6:0 7:1 8:298 9:3411 10:1 11:0 12:0 13:0 14:2 15:2 16:0 17:0 18:0 19:0 20:1 21:0 22:0 23:2 24:255 25:1 26:0 27:0.5 28:0.02 29:0 30:0 31:0 32:0.01 
0.019647911780504044 0:0 1:1 2:0 3:0 4:0 5:1 6:1 7:0 8:157 9:0 10:1 11:0 12:0 13:0 14:2 15:2 16:0.5 17:0.5 18:0 19:0 20:1 21:0 22:0 23:101 24:101 25:1 26:0 27:0.02 28:0 29:0.01 30:0.01 31:0.01 32:0.01 
0.015561787037681806 0:0 1:1 2:0 3:0 4:0 5:1 6:0 7:1 8:216 9:9146 10:1 11:0 12:0 13:0 14:23 15:23 16:0 17:0 18:0 19:0 20:1 21:0 22:0 23:65 24:255 25:1 26:0 27:0.02 28:0.02 29:0 30:0 31:0 32:0.01 
0.0098950413190454518 0:0 1:1 2:0 3:0 4:0 5:1 6:0 7:1 8:200 9:328 10:1 11:0 12:0 13:0 14:3 15:9 16:0.33 17:0.33 18:0 19:0 20:1 21:0 22:0.44 23:122 24:172 25:1 26:0 27:0.01 28:0.02 29:0.01 30:0.01 31:0 32:0.01 
0.0060187288674188053 0:0 1:1 2:0 3:0 4:0 5:1 6:0 7:1 8:206 9:572 10:1 11:0 12:0 13:0 14:15 15:38 16:0 17:0 18:0 19:0 20:1 21:0 22:0.05 23:255 24:255 25:1 26:0 27:0 28:0 29:0 30:0 31:0.01 32:0.01 
0.014550291969422041 0:0 1:1 2:0 3:0 4:0 5:1 6:0 7:1 8:158 9:5479 10:1 11:0 12:0 13:0 14:2 15:2 16:0 17:0 18:0 19:0 20:1 21:0 22:0 23:2 24:251 25:1 26:0 27:0.5 28:0.04 29:0 30:0 31:0 32:0.01 
0.0076034691700324827 0:27 1:1 2:0 3:0 4:0 5:1 6:1 7:0 8:209 9:0 10:1 11:0 12:0 13:0 14:1 15:1 16:1 17:1 18:0 19:0 20:1 21:0 22:0 23:7 24:255 25:1 26:0 27:0.14 28:0.04 29:0.14 30:0.01 31:0 32:0.01 
0.011191013265644187 0:0 1:1 2:0 3:0 4:0 5:1 6:0 7:1 8:288 9:958 10:1 11:0 12:0 13:0 14:3 15:13 16:0 17:0 18:0 19:0 20:1 21:0 22:0.15 23:3 24:208 25:1 26:0 27:0.33 28:0.01 29:0 30:0.01 31:0 32:0.01 
0.0040291394816747098 0:0 1:1 2:0 3:0 4:0 5:1 6:0 7:1 8:296 9:3007 10:1 11:0 12:0 13:0 14:5 15:5 16:0 17:0 18:0 19:0 20:1 21:0 22:0 23:62 24:255 25:1 26:0 27:0.02 28:0.03 29:0 30:0 31:0.02 32:0.01 
0.0092922396330520473 0:0 1:1 2:0 3:0 4:0 5:1 6:0 7:1 8:165 9:2472 10:1 11:0 12:0 13:0 14:3 15:3 16:0 17:0 18:0 19:0 20:1 21:0 22:0 23:18 24:255 25:1 26:0 27:0.06 28:0.04 29:0 30:0 31:0 32:0.01 
0.010585545002660691 0:0 1:1 2:0 3:0 4:0 5:1 6:0 7:1 8:294 9:685 10:1 11:0 12:0 13:0 14:14 15:54 16:0 17:0 18:0 19:0 20:1 21:0 22:0.07 23:69 24:255 25:1 26:0 27:0.01 28:0.04 29:0 30:0 31:0 32:0.01 
0.010620720250727113 0:0 1:1 2:0 3:0 4:0 5:1 6:0 7:1 8:314 9:1922 10:1 11:0 12:0 13:0 14:14 15:14 16:0 17:0 18:0 19:0 20:1 21:0 22:0 23:14 24:255 25:1 26:0 27:0.07 28:0.04 29:0 30:0.01 31:0 32:0.01 
0.014720283177948627 0:0 1:1 2:0 3:0 4:0 5:1 6:0 7:1 8:230 9:1400 10:1 11:0 12:0 13:0 14:40 15:40 16:0 17:0 18:0 19:0 20:1 21:0 22:0 23:255 24:255 25:1 26:0 27:0 28:0 29:0 30:0 31:0.01 32:0.01 
0.019736723704781117 0:0 1:1 2:0 3:0 4:0 5:1 6:0 7:1 8:223 9:2936 10:1 11:0 12:0 13:0 14:6 15:6 16:0 17:0 18:0 19:0 20:1 21:0 22:0 23:214 24:255 25:1 26:0 27:0 28:0.02 29:0 30:0.01 31:0 32:0.01 
0.018432409483504608 0:0 1:1 2:0 3:0 4:0 5:1 6:0 7:1 8:210 9:11933 10:1 11:0 12:0 13:0 14:1 15:2 16:0 17:0 18:0 19:0 20:1 21:0 22:1 23:84 24:255 25:1 26:0 27:0.01 28:0.04 29:0 30:0 31:0 32:0.01 
0.010301459719278589 0:0 1:1 2:0 3:0 4:0 5:1 6:0 7:1 8:222 9:304 10:1 11:0 12:0 13:0 14:9 15:10 16:0 17:0 18:0 19:0 20:1 21:0 22:0.2 23:115 24:165 25:1 26:0 27:0.01 28:0.02 29:0 30:0 31:0 32:0.01 
0.020242698996039459 0:0 1:1 2:0 3:0 4:0 5:1 6:0 7:1 8:213 9:7669 10:1 11:0 12:0 13:0 14:3 15:3 16:0 17:0 18:0 19:0 20:1 21:0 22:0 23:255 24:255 25:1 26:0 27:0 28:0 29:0 30:0 31:0.01 32:0.01 
0.017139187213901994 0:0 1:1 2:0 3:0 4:0 5:1 6:0 7:1 8:320 9:429 10:1 11:0 12:0 13:0 14:5 15:5 16:0 17:0 18:0 19:0 20:1 21:0 22:0 23:68 24:141 25:1 26:0 27:0.01 28:0.06 29:0 30:0 31:0 32:0.01 
0.011609178334347648 0:0 1:1 2:0 3:0 4:0 5:1 6:0 7:1 8:211 9:7628 10:1 11:0 12:0 13:0 14:3 15:3 16:0 17:0 18:0 19:0 20:1 21:0 22:0 23:41 24:255 25:1 26:0 27:0.02 28:0.05 29:0 30:0.01 31:0.02 32:0.01 
0.015957977921713142 0:0 1:1 2:0 3:0 4:0 5:1 6:0 7:1 8:331 9:10578 10:1 11:0 12:0 13:0 14:2 15:7 16:0 17:0 18:0 19:0 20:1 21:0 22:0.29 23:10 24:255 25:1 26:0 27:0.1 28:0.06 29:0 30:0.01 31:0 32:0.01 
0.019218081493029594 0:0 1:1 2:0 3:0 4:0 5:1 6:0 7:1 8:347 9:3928 10:1 11:0 12:0 13:0 14:7 15:7 16:0 17:0 18:0 19:0 20:1 21:0 22:0 23:175 24:183 25:1 26:0 27:0.01 28:0.01 29:0.01 30:0.01 31:0.01 32:0.01 
0.0087344483305498381 0:0 1:1 2:0 3:0 4:0 5:1 6:0 7:1 8:284 9:406 10:1 11:0 12:0 13:0 14:1 15:24 16:0 17:0 18:0 19:0 20:1 21:0 22:0.08 23:3 24:255 25:1 26:0 27:0.33 28:0.06 29:0.33 30:0.01 31:0 32:0.01 
0.020135382391565131 0:0 1:1 2:0 3:0 4:0 5:1 6:0 7:1 8:213 9:10194 10:1 11:0 12:0 13:0 14:3 15:3 16:0 17:0 18:0 19:0 20:1 21:0 22:0 23:8 24:255 25:1 26:0 27:0.12 28:0.05 29:0 30:0 31:0 32:0.01 
0.0061694027119526072 0:0 1:1 2:0 3:0 4:0 5:1 6:0 7:1 8:238 9:1535 10:1 11:0 12:0 13:0 14:23 15:25 16:0 17:0 18:0 19:0 20:1 21:0 22:0.08 23:181 24:255 25:1 26:0 27:0.01 28:0.02 29:0 30:0 31:0.02 32:0.01 
0.013101960626805494 0:0 1:1 2:0 3:0 4:0 5:1 6:0 7:1 8:316 9:4640 10:1 11:0 12:0 13:0 14:21 15:21 16:0 17:0 18:0 19:0 20:1 21:0 22:0 23:43 24:255 25:1 26:0 27:0.02 28:0.01 29:0 30:0 31:0 32:0.01 
0.0033754847953897413 0:0 1:1 2:0 3:0 4:0 5:1 6:0 7:1 8:221 9:2574 10:1 11:0 12:0 13:0 14:3 15:23 16:0 17:0 18:0 19:0 20:1 21:0 22:0.09 23:30 24:255 25:1 26:0 27:0.03 28:0.01 29:0 30:0 31:0.07 32:0.01 
0.0011146911432209018 0:0 1:1 2:0 3:0 4:0 5:1 6:0 7:1 8:239 9:1345 10:1 11:0 12:0 13:0 14:2 15:2 16:0 17:0 18:0 19:0 20:1 21:0 22:0 23:77 24:255 25:1 26:0 27:0.01 28:0.03 29:0 30:0 31:0.01 32:0.01 
0.015724191821222519 0:0 1:1 2:0 3:0 4:0 5:1 6:0 7:1 8:310 9:2698 10:1 11:0 12:0 13:0 14:3 15:3 16:0 17:0 18:0 19:0 20:1 21:0 22:0 23:255 24:243 25:0.95 26:0.01 27:0 28:0 29:0 30:0 31:0.01 32:0.01 
0.013256574016231022 0:1 1:1 2:0 3:0 4:1 5:0 6:0 7:1 8:968 9:370 10:1 11:0 12:0 13:0 14:1 15:2 16:0 17:0 18:0 19:0 20:1 21:0 22:1 23:36 24:167 25:0.64 26:0.08 27:0.03 28:0.02 29:0 30:0.02 31:0 32:0.01 
0.015647883810909587 0:0 1:1 2:0 3:0 4:0 5:1 6:0 7:1 8:282 9:18884 10:1 11:0 12:0 13:0 14:7 15:21 16:0 17:0 18:0 19:0 20:1 21:0 22:0.1 23:7 24:212 25:1 26:0 27:0.14 28:0.01 29:0 30:0.01 31:0 32:0.01 
0.011590079469009151 0:0 1:1 2:0 3:0 4:1 5:0 6:0 7:1 8:1960 9:366 10:1 11:0 12:0 13:0 14:1 15:1 16:0 17:0 18:0 19:0 20:1 21:0 22:0 23:231 24:182 25:0.75 26:0.02 27:0 28:0.01 29:0 30:0 31:0 32:0.01 
0.013099830072940855 0:0 1:1 2:0 3:0 4:0 5:1 6:0 7:1 8:304 9:53 10:1 11:0 12:0 13:0 14:1 15:3 16:0 17:0.33 18:0 19:0 20:1 21:0 22:0.67 23:121 24:255 25:1 26:0 27:0.01 28:0.01 29:0.02 30:0.01 31:0.02 32:0.01 
0.015813219292818651 0:0 1:1 2:0 3:0 4:0 5:1 6:0 7:1 8:312 9:581 10:1 11:0 12:0 13:0 14:11 15:12 16:0 17:0 18:0 19:0 20:1 21:0 22:0.17 23:56 24:106 25:1 26:0 27:0.02 28:0.03 29:0 30:0 31:0 32:0.01 
0.0066335375578615036 0:0 1:1 2:0 3:0 4:1 5:0 6:0 7:1 8:850 9:332 10:1 11:0 12:0 13:0 14:1 15:4 16:0 17:0 18:0 19:0 20:1 21:0 22:1 23:12 24:174 25:0.5 26:0.25 27:0.08 28:0.01 29:0 30:0 31:0 32:0.01 
0.019936029218477744 0:0 1:1 2:0 3:0 4:0 5:1 6:0 7:1 8:316 9:7853 10:1 11:0 12:0 13:0 14:1 15:4 16:0 17:0 18:0 19:0 20:1 21:0 22:1 23:28 24:255 25:1 26:0 27:0.04 28:0.03 29:0 30:0.01 31:0 32:0.01 
0.0020919016099173668 0:0 1:1 2:0 3:0 4:0 5:1 6:0 7:1 8:192 9:398 10:1 11:0 12:0 13:0 14:19 15:41 16:0 17:0 18:0.05 19:0.02 20:1 21:0 22:0.07 23:54 24:255 25:1 26:0 27:0.02 28:0.04 29:0 30:0.01 31:0.02 32:0.01 
0.020100892817688617 0:0 1:1 2:0 3:0 4:0 5:1 6:0 7:1 8:226 9:18108 10:1 11:0 12:0 13:0 14:51 15:55 16:0 17:0 18:0 19:0 20:1 21:0 22:0.07 23:255 24:255 25:1 26:0 27:0 28:0 29:0 30:0 31:0.01 32:0.01 
0.011238880214223469 0:0 1:1 2:0 3:0 4:0 5:1 6:0 7:1 8:334 9:280 10:1 11:0 12:0 13:0 14:6 15:6 16:0 17:0 18:0 19:0 20:1 21:0 22:0 23:174 24:255 25:1 26:0 27:0.01 28:0.02 29:0.01 30:0 31:0.01 32:0.01 
0.020123806586378655 0:0 1:1 2:0 3:0 4:0 5:1 6:0 7:1 8:222 9:25804 10:1 11:0 12:0 13:0 14:44 15:44 16:0 17:0 18:0.02 19:0.02 20:1 21:0 22:0 23:93 24:255 25:1 26:0 27:0.02 28:0.03 29:0 30:0 31:0.01 32:0.01 
0.0028691596304349699 0:11 1:1 2:0 3:0 4:1 5:0 6:0 7:1 8:2063 9:334 10:1 11:0 12:0 13:0 14:1 15:5 16:0 17:0 18:0 19:0 20:1 21:0 22:1 23:234 24:144 25:0.62 26:0.02 27:0 28:0 29:0 30:0 31:0.01 32:0.01 
0.017414912806425105 0:0 1:1 2:0 3:0 4:0 5:1 6:0 7:1 8:214 9:10360 10:1 11:0 12:0 13:0 14:2 15:27 16:0 17:0 18:0 19:0 20:1 21:0 22:0.11 23:43 24:254 25:1 26:0 27:0.02 28:0.03 29:0 30:0 31:0 32:0.01 
0.015116435544150358 0:0 1:1 2:0 3:0 4:0 5:1 6:0 7:1 8:243 9:3446 10:1 11:0 12:0 13:0 14:9 15:9 16:0 17:0 18:0 19:0 20:1 21:0 22:0 23:255 24:255 25:1 26:0 27:0 28:0 29:0 30:0 31:0.01 32:0.01 
0.015377619181954769 0:0 1:1 2:0 3:0 4:0 5:1 6:0 7:1 8:305 9:2507 10:1 11:0 12:0 13:0 14:5 15:5 16:0 17:0 18:0 19:0 20:1 21:0 22:0 23:255 24:238 25:0.93 26:0.01 27:0 28:0 29:0 30:0 31:0.02 32:0.01 
0.016247022157491117 0:0 1:1 2:0 3:0 4:0 5:1 6:0 7:1 8:290 9:2056 10:1 11:0 12:0 13:0 14:20 15:20 16:0 17:0 18:0 19:0 20:1 21:0 22:0 23:168 24:255 25:1 26:0 27:0.01 28:0.01 29:0 30:0 31:0.01 32:0.01 
0.0081109004135915194 0:0 1:1 2:0 3:0 4:0 5:1 6:0 7:1 8:313 9:379 10:1 11:0 12:0 13:0 14:10 15:17 16:0 17:0 18:0 19:0 20:1 21:0 22:0.12 23:255 24:255 25:1 26:0 27:0 28:0 29:0 30:0 31:0.01 32:0.01 
0.01916729985940327 0:0 1:1 2:0 3:0 4:0 5:1 6:0 7:1 8:310 9:3368 10:1 11:0 12:0 13:0 14:22 15:22 16:0 17:0 18:0 19:0 20:1 21:0 22:0 23:87 24:255 25:1 26:0 27:0.01 28:0.01 29:0 30:0 31:0.02 32:0.01 
0.0042610271053747754 0:0 1:1 2:0 3:0 4:0 5:1 6:0 7:1 8:280 9:228 10:1 11:0 12:0 13:0 14:3 15:3 16:0 17:0 18:0 19:0 20:1 21:0 22:0 23:3 24:255 25:1 26:0 27:0.33 28:0.02 29:0 30:0 31:0 32:0.01 
0.0036541635516032281 0:0 1:1 2:0 3:0 4:0 5:1 6:0 7:1 8:204 9:255 10:1 11:0 12:0 13:0 14:6 15:6 16:0 17:0 18:0 19:0 20:1 21:0 22:0 23:6 24:255 25:1 26:0 27:0.17 28:0.04 29:0 30:0.01 31:0 32:0.01 
0.0168739910352033 0:0 1:1 2:0 3:0 4:0 5:1 6:0 7:1 8:313 9:17 10:1 11:0 12:0 13:0 14:1 15:1 16:0 17:0 18:0 19:0 20:1 21:0 22:0 23:3 24:255 25:1 26:0 27:0.33 28:0.03 29:0 30:0 31:0 32:0.01 
0.010329421550925311 0:0 1:1 2:0 3:0 4:1 5:0 6:0 7:1 8:750 9:331 10:1 11:0 12:0 13:0 14:1 15:1 16:0 17:0 18:0 19:0 20:1 21:0 22:0 23:93 24:176 25:0.73 26:0.03 27:0.01 28:0.02 29:0 30:0.03 31:0 32:0.01 
0.010061312127223589 0:0 1:1 2:0 3:0 4:0 5:1 6:0 7:1 8:205 9:4317 10:1 11:0 12:0 13:0 14:1 15:3 16:0 17:0 18:0 19:0 20:1 21:0 22:1 23:43 24:255 25:1 26:0 27:0.02 28:0.02 29:0 30:0 31:0 32:0.01 
0.0079645596251793314 0:0 1:1 2:0 3:0 4:0 5:1 6:0 7:1 8:265 9:178 10:1 11:0 12:0 13:0 14:1 15:1 16:0 17:0 18:0 19:0 20:1 21:0 22:0 23:139 24:255 25:1 26:0 27:0.01 28:0.03 29:0.01 30:0.01 31:0.01 32:0.01 
0.0057642464518604204 0:0 1:1 2:0 3:0 4:0 5:1 6:0 7:1 8:226 9:4368 10:1 11:0 12:0 13:0 14:4 15:4 16:0 17:0 18:0 19:0 20:1 21:0 22:0 23:119 24:255 25:1 26:0 27:0.01 28:0.04 29:0 30:0 31:0 32:0.01 
0.0086943673366863643 0:0 1:1 2:0 3:0 4:0 5:1 6:0 7:1 8:211 9:3485 10:1 11:0 12:0 13:0 14:8 15:16 16:0 17:0 18:0 19:0 20:1 21:0 22:0.19 23:78 24:255 25:1 26:0 27:0.01 28:0.02 29:0 30:0 31:0.01 32:0.01 
0.01653320256082921 0:1 1:1 2:0 3:0 4:1 5:0 6:0 7:1 8:1085 9:345 10:1 11:0 12:0 13:0 14:1 15:3 16:0 17:0 18:0 19:0 20:1 21:0 22:1 23:196 24:119 25:0.61 26:0.03 27:0.01 28:0 29:0 30:0 31:0.01 32:0.01 
0.013918259411502674 0:0 1:1 2:0 3:0 4:0 5:1 6:0 7:1 8:305 9:1211 10:1 11:0 12:0 13:0 14:2 15:2 16:0 17:0 18:0 19:0 20:1 21:0 22:0 23:117 24:255 25:1 26:0 27:0.01 28:0.03 29:0 30:0 31:0 32:0.01 
0.020097096005832774 0:0 1:1 2:0 3:0 4:0 5:1 6:0 7:1 8:177 9:14235 10:1 11:0 12:0 13:0 14:1 15:4 16:0 17:0.25 18:0 19:0 20:1 21:0 22:0.75 23:120 24:170 25:1 26:0 27:0.01 28:0.02 29:0 30:0 31:0 32:0.01 
0.014250837723740972 0:0 1:1 2:0 3:0 4:0 5:1 6:0 7:1 8:202 9:4774 10:1 11:0 12:0 13:0 14:4 15:17 16:0 17:0 18:0 19:0 20:1 21:0 22:0.12 23:5 24:255 25:1 26:0 27:0.2 28:0.01 29:0 30:0 31:0.2 32:0.01 
0.0099038611403689837 0:0 1:1 2:0 3:0 4:0 5:1 6:0 7:1 8:161 9:481 10:1 11:0 12:0 13:0 14:1 15:4 16:0 17:0 18:0 19:0 20:1 21:0 22:0.5 23:2 24:255 25:1 26:0 27:0.5 28:0.09 29:0 30:0.01 31:0 32:0.01 
0.0096747253242096352 0:0 1:1 2:0 3:0 4:0 5:1 6:0 7:1 8:312 9:188 10:1 11:0 12:0 13:0 14:1 15:3 16:0 17:0 18:0 19:0 20:1 21:0 22:1 23:82 24:255 25:1 26:0 27:0.01 28:0.03 29:0 30:0.01 31:0.01 32:0.01 
0.020090695215449643 0:0 1:1 2:0 3:0 4:0 5:1 6:0 7:1 8:167 9:10912 10:1 11:0 12:0 13:0 14:1 15:2 16:0 17:0 18:0 19:0 20:1 21:0 22:1 23:5 24:255 25:1 26:0 27:0.2 28:0.04 29:0 30:0 31:0 32:0.01 
0.0099003984757900891 0:0 1:1 2:0 3:0 4:0 5:1 6:0 7:1 8:229 9:2099 10:1 11:0 12:0 13:0 14:12 15:46 16:0 17:0 18:0 19:0 20:1 21:0 22:0.04 23:50 24:255 25:1 26:0 27:0.02 28:0.04 29:0 30:0 31:0 32:0.01 
0.010004313660245935 0:0 1:1 2:0 3:0 4:1 5:0 6:0 7:1 8:1424 9:329 10:1 11:0 12:0 13:0 14:1 15:1 16:0 17:0 18:0 19:0 20:1 21:0 22:0 23:102 24:136 25:0.45 26:0.04 27:0.01 28:0.01 29:0 30:0 31:0 32:0.01 
0.00079300357512882469 0:0 1:1 2:0 3:0 4:0 5:1 6:0 7:1 8:287 9:473 10:1 11:0 12:0 13:0 14:4 15:23 16:0 17:0 18:0 19:0 20:1 21:0 22:0.17 23:59 24:255 25:1 26:0 27:0.02 28:0.04 29:0 30:0 31:0.02 32:0.01 
0.019833182411672659 0:0 1:1 2:0 3:0 4:0 5:1 6:0 7:1 8:295 9:16850 10:1 11:0 12:0 13:0 14:6 15:6 16:0 17:0 18:0 19:0 20:1 21:0 22:0 23:6 24:255 25:1 26:0 27:0.17 28:0.04 29:0 30:0 31:0 32:0.01 
0.012226721615483294 0:0 1:1 2:0 3:0 4:0 5:1 6:0 7:1 8:214 9:8023 10:1 11:0 12:0 13:0 14:22 15:22 16:0 17:0 18:0 19:0 20:1 21:0 22:0 23:39 24:255 25:1 26:0 27:0.03 28:0.02 29:0 30:0 31:0 32:0.01 
0.0076442692243067073 0:0 1:1 2:0 3:0 4:0 5:1 6:0 7:1 8:253 9:2912 10:1 11:0 12:0 13:0 14:1 15:1 16:0 17:0 18:0 19:0 20:1 21:0 22:0 23:74 24:255 25:1 26:0 27:0.01 28:0.01 29:0 30:0 31:0 32:0.01 
0.0077272616462428804 0:0 1:1 2:0 3:0 4:0 5:1 6:0 7:1 8:221 9:1585 10:1 11:0 12:0 13:0 14:1 15:11 16:0 17:0 18:0 19:0 20:1 21:0 22:0.36 23:255 24:255 25:1 26:0 27:0 28:0 29:0 30:0 31:0.01 32:0.01 
0.00067553634250304374 0:0 1:1 2:0 3:0 4:0 5:1 6:0 7:1 8:243 9:828 10:1 11:0 12:0 13:0 14:2 15:4 16:0 17:0 18:0 19:0 20:1 21:0 22:0.5 23:31 24:255 25:1 26:0 27:0.03 28:0.05 29:0 30:0 31:0 32:0.01 
0.0030270725903255753 0:0 1:1 2:0 3:0 4:0 5:1 6:0 7:1 8:210 9:392 10:1 11:0 12:0 13:0 14:5 15:5 16:0 17:0 18:0 19:0 20:1 21:0 22:0 23:137 24:255 25:1 26:0 27:0.01 28:0.04 29:0 30:0 31:0 32:0.01 
0.0052024835980450284 0:0 1:1 2:0 3:0 4:0 5:1 6:0 7:1 8:228 9:1452 10:1 11:0 12:0 13:0 14:10 15:10 16:0 17:0 18:0 19:0 20:1 21:0 22:0 23:148 24:255 25:1 26:0 27:0.01 28:0.04 29:0 30:0 31:0.01 32:0.01 
0.020254534579271708 0:0 1:1 2:0 3:0 4:0 5:1 6:0 7:1 8:219 9:2917 10:1 11:0 12:0 13:0 14:5 15:7 16:0.2 17:0.29 18:0 19:0 20:1 21:0 22:0.29 23:17 24:136 25:1 26:0 27:0.06 28:0.06 29:0.06 30:0.01 31:0 32:0.01 
0.0072503946335764676 0:0 1:1 2:0 3:0 4:0 5:1 6:0 7:1 8:314 9:646 10:1 11:0 12:0 13:0 14:22 15:23 16:0 17:0 18:0 19:0 20:1 21:0 22:0.09 23:221 24:255 25:1 26:0 27:0 28:0.01 29:0 30:0 31:0 32:0.01 
0.012976482820975979 0:0 1:1 2:0 3:0 4:0 5:1 6:0 7:1 8:221 9:2251 10:1 11:0 12:0 13:0 14:12 15:12 16:0 17:0 18:0 19:0 20:1 21:0 22:0 23:21 24:255 25:1 26:0 27:0.05 28:0.03 29:0 30:0 31:0.05 32:0.01 
0.011248717803334606 0:0 1:1 2:0 3:0 4:0 5:1 6:0 7:1 8:305 9:594 10:1 11:0 12:0 13:0 14:25 15:46 16:0.04 17:0.07 18:0 19:0 20:1 21:0 22:0.07 23:191 24:255 25:1 26:0 27:0.01 28:0.02 29:0.01 30:0.01 31:0.01 32:0.01 
0.019991370156236525 0:0 1:1 2:0 3:0 4:0 5:1 6:0 7:1 8:292 9:11619 10:1 11:0 12:0 13:0 14:3 15:3 16:0 17:0 18:0 19:0 20:1 21:0 22:0 23:118 24:255 25:1 26:0 27:0.01 28:0.03 29:0 30:0 31:0 32:0.01 
0.0089657201745782875 0:0 1:1 2:0 3:0 4:0 5:1 6:0 7:1 8:215 9:775 10:1 11:0 12:0 13:0 14:2 15:7 16:0 17:0 18:0 19:0 20:1 21:0 22:0.29 23:2 24:214 25:1 26:0 27:0.5 28:0.01 29:0 30:0 31:0 32:0.01 
0.015914139170789932 0:0 1:1 2:0 3:0 4:0 5:1 6:0 7:1 8:198 9:1307 10:1 11:0 12:0 13:0 14:5 15:5 16:0 17:0 18:0 19:0 20:1 21:0 22:0 23:128 24:255 25:1 26:0 27:0.01 28:0.02 29:0 30:0 31:0.02 32:0.01 
0.013872224074666581 0:0 1:1 2:0 3:0 4:0 5:1 6:0 7:1 8:174 9:2175 10:1 11:0 12:0 13:0 14:17 15:17 16:0 17:0 18:0 19:0 20:1 21:0 22:0 23:17 24:255 25:1 26:0 27:0.06 28:0.02 29:0 30:0 31:0 32:0.01 
0.010347157721313392 0:0 1:1 2:0 3:0 4:0 5:1 6:0 7:1 8:198 9:27266 10:1 11:0 12:0 13:0 14:1 15:1 16:0 17:0 18:0 19:0 20:1 21:0 22:0 23:75 24:255 25:1 26:0 27:0.01 28:0.03 29:0.01 30:0 31:0.01 32:0.01 
0.0034691875030885525 0:0 1:1 2:0 3:0 4:0 5:1 6:0 7:1 8:211 9:760 10:1 11:0 12:0 13:0 14:12 15:21 16:0.25 17:0.24 18:0 19:0 20:1 21:0 22:0.19 23:29 24:255 25:1 26:0 27:0.03 28:0.02 29:0.07 30:0.01 31:0 32:0.01 
0.0071318977609051209 0:0 1:1 2:0 3:0 4:0 5:1 6:0 7:1 8:196 9:12954 10:1 11:0 12:0 13:0 14:23 15:23 16:0 17:0 18:0 19:0 20:1 21:0 22:0 23:46 24:255 25:1 26:0 27:0.02 28:0.03 29:0 30:0 31:0 32:0.01 
0.017929099286438266 0:0 1:1 2:0 3:0 4:0 5:1 6:0 7:1 8:228 9:955 10:1 11:0 12:0 13:0 14:15 15:17 16:0 17:0 18:0 19:0 20:1 21:0 22:0.12 23:173 24:255 25:1 26:0 27:0.01 28:0.02 29:0 30:0 31:0.02 32:0.01 
0.008528838463300362 0:0 1:1 2:0 3:0 4:0 5:1 6:0 7:1 8:303 9:839 10:1 11:0 12:0 13:0 14:9 15:10 16:0 17:0 18:0 19:0 20:1 21:0 22:0.2 23:245 24:255 25:1 26:0 27:0 28:0.01 29:0 30:0 31:0.01 32:0.01 
0.019309849061866176 0:0 1:1 2:0 3:0 4:1 5:0 6:0 7:1 8:605 9:334 10:1 11:0 12:0 13:0 14:1 15:1 16:0 17:0 18:0 19:0 20:1 21:0 22:0 23:252 24:135 25:0.54 26:0.03 27:0 28:0 29:0.01 30:0.02 31:0 32:0.01 
0.018152504043703954 0:0 1:1 2:0 3:0 4:0 5:1 6:0 7:1 8:213 9:4556 10:1 11:0 12:0 13:0 14:10 15:10 16:0 17:0 18:0 19:0 20:1 21:0 22:0 23:255 24:255 25:1 26:0 27:0 28:0 29:0 30:0 31:0.01 32:0.01 
0.02009199238231589 0:0 1:1 2:0 3:0 4:0 5:1 6:0 7:1 8:334 9:13380 10:1 11:0 12:0 13:0 14:1 15:1 16:0 17:0 18:0 19:0 20:1 21:0 22:0 23:82 24:255 25:1 26:0 27:0.01 28:0.01 29:0 30:0 31:0.01 32:0.01 
0.0098212793725735575 0:0 1:1 2:0 3:0 4:0 5:1 6:0 7:1 8:214 9:3041 10:1 11:0 12:0 13:0 14:8 15:8 16:0 17:0 18:0 19:0 20:1 21:0 22:0 23:25 24:251 25:1 26:0 27:0.04 28:0.02 29:0 30:0 31:0 32:0.01 
0.0038643251018126829 0:0 1:1 2:0 3:0 4:1 5:0 6:0 7:1 8:1353 9:334 10:1 11:0 12:0 13:0 14:1 15:1 16:0 17:0 18:0 19:0 20:1 21:0 22:0 23:124 24:136 25:0.54 26:0.03 27:0.01 28:0.01 29:0 30:0 31:0 32:0.01 
0.0023317149074342041 0:0 1:1 2:0 3:0 4:0 5:1 6:0 7:1 8:289 9:468 10:1 11:0 12:0 13:0 14:3 15:4 16:0 17:0 18:0 19:0 20:1 21:0 22:0.5 23:99 24:255 25:1 26:0 27:0.01 28:0.02 29:0.01 30:0.01 31:0 32:0.01 
0.010080157313614019 0:0 1:1 2:0 3:0 4:0 5:1 6:0 7:1 8:375 9:327 10:1 11:0 12:0 13:0 14:2 15:14 16:0 17:0 18:0 19:0 20:1 21:0 22:0.21 23:250 24:255 25:1 26:0 27:0 28:0.01 29:0 30:0 31:0.01 32:0.01 
0.007450440192952313 0:0 1:1 2:0 3:0 4:0 5:1 6:0 7:1 8:241 9:1512 10:1 11:0 12:0 13:0 14:2 15:2 16:0 17:0 18:0 19:0 20:1 21:0 22:0 23:255 24:255 25:1 26:0 27:0 28:0 29:0 30:0 31:0.01 32:0.01 
0.018329571250893538 0:0 1:1 2:0 3:0 4:0 5:1 6:0 7:1 8:346 9:5790 10:1 11:0 12:0 13:0 14:7 15:10 16:0 17:0 18:0 19:0 20:1 21:0 22:0.2 23:24 24:255 25:1 26:0 27:0.04 28:0.05 29:0 30:0 31:0 32:0.01 
0.020082013045538472 0:0 1:1 2:0 3:0 4:0 5:1 6:0 7:1 8:270 9:2170 10:1 11:0 12:0 13:0 14:1 15:4 16:0 17:0 18:0 19:0 20:1 21:0 22:1 23:123 24:123 25:1 26:0 27:0.01 28:0 29:0 30:0 31:0.01 32:0.01 
0.0056356820095908554 0:0 1:1 2:0 3:0 4:0 5:1 6:0 7:1 8:268 9:443 10:1 11:0 12:0 13:0 14:5 15:5 16:0 17:0 18:0 19:0 20:1 21:0 22:0 23:255 24:255 25:1 26:0 27:0 28:0 29:0 30:0 31:0.01 32:0.01 
0.0071936094746491101 0:0 1:1 2:0 3:0 4:0 5:1 6:0 7:1 8:288 9:4768 10:1 11:0 12:0 13:0 14:13 15:13 16:0 17:0 18:0 19:0 20:1 21:0 22:0 23:255 24:255 25:1 26:0 27:0 28:0 29:0 30:0 31:0.01 32:0.01 
0.013356576303347682 0:0 1:1 2:0 3:0 4:0 5:1 6:0 7:1 8:344 9:4438 10:1 11:0 12:0 13:0 14:17 15:27 16:0 17:0 18:0 19:0 20:1 21:0 22:0.07 23:43 24:255 25:1 26:0 27:0.02 28:0.02 29:0 30:0 31:0 32:0.01 
0.0049582858563182626 0:0 1:1 2:0 3:0 4:0 5:1 6:0 7:1 8:323 9:310 10:1 11:0 12:0 13:0 14:15 15:16 16:0 17:0 18:0 19:0 20:1 21:0 22:0.12 23:135 24:255 25:1 26:0 27:0.01 28:0.01 29:0 30:0 31:0.01 32:0.01 
0.0083797207816437413 0:0 1:1 2:0 3:0 4:0 5:1 6:0 7:1 8:200 9:759 10:1 11:0 12:0 13:0 14:3 15:7 16:0 17:0 18:0 19:0 20:1 21:0 22:0.29 23:9 24:255 25:1 26:0 27:0.11 28:0.01 29:0 30:0 31:0.11 32:0.01 
0.014921254302326693 0:0 1:1 2:0 3:0 4:1 5:0 6:0 7:1 8:709 9:332 10:1 11:0 12:0 13:0 14:1 15:1 16:0 17:0 18:0 19:0 20:1 21:0 22:0 23:241 24:127 25:0.53 26:0.03 27:0 28:0 29:0.01 30:0.02 31:0 32:0.01 
0.020136041236764872 0:0 1:1 2:0 3:0 4:0 5:1 6:0 7:1 8:252 9:12774 10:1 11:0 12:0 13:0 14:2 15:2 16:0 17:0 18:0 19:0 20:1 21:0 22:0 23:9 24:255 25:1 26:0 27:0.11 28:0.05 29:0 30:0 31:0.11 32:0.01 
0.016677815215929818 0:0 1:1 2:0 3:0 4:1 5:0 6:0 7:1 8:1688 9:335 10:1 11:0 12:0 13:0 14:1 15:3 16:0 17:0 18:0 19:0 20:1 21:0 22:1 23:255 24:153 25:0.6 26:0.03 27:0 28:0 29:0 30:0 31:0.01 32:0.01 
0.0025471895736378664 0:0 1:1 2:0 3:0 4:0 5:1 6:1 7:0 8:211 9:1460 10:1 11:0 12:0 13:0 14:3 15:4 16:0.33 17:0.25 18:0 19:0 20:1 21:0 22:0.5 23:21 24:255 25:1 26:0 27:0.05 28:0.02 29:0.05 30:0 31:0 32:0.01 
0.0042176160782627691 0:0 1:1 2:0 3:0 4:0 5:1 6:0 7:1 8:259 9:396 10:1 11:0 12:0 13:0 14:5 15:5 16:0 17:0 18:0 19:0 20:1 21:0 22:0 23:255 24:255 25:1 26:0 27:0 28:0 29:0 30:0 31:0.01 32:0.01 
0.011639040396196173 0:0 1:1 2:0 3:0 4:0 5:1 6:0 7:1 8:207 9:353 10:1 11:0 12:0 13:0 14:44 15:55 16:0 17:0 18:0 19:0 20:1 21:0 22:0.09 23:255 24:255 25:1 26:0 27:0 28:0 29:0 30:0 31:0.01 32:0.01 
0.0059738913074234064 0:0 1:1 2:0 3:0 4:0 5:1 6:0 7:1 8:232 9:2022 10:1 11:0 12:0 13:0 14:21 15:21 16:0.05 17:0.05 18:0 19:0 20:1 21:0 22:0 23:21 24:255 25:1 26:0 27:0.05 28:0.05 29:0.05 30:0.01 31:0 32:0.01 
0.0018085153338564964 0:0 1:1 2:0 3:0 4:0 5:1 6:0 7:1 8:306 9:2772 10:1 11:0 12:0 13:0 14:5 15:7 16:0 17:0 18:0 19:0 20:1 21:0 22:0.43 23:221 24:255 25:1 26:0 27:0 28:0.01 29:0 30:0 31:0 32:0.01 
0.0082889423564782919 0:0 1:1 2:0 3:0 4:0 5:1 6:0 7:1 8:238 9:1587 10:1 11:0 12:0 13:0 14:5 15:5 16:0 17:0 18:0 19:0 20:1 21:0 22:0 23:196 24:255 25:1 26:0 27:0.01 28:0.01 29:0 30:0 31:0.01 32:0.01 
0.013174319847914956 0:0 1:1 2:0 3:0 4:0 5:1 6:0 7:1 8:163 9:1558 10:1 11:0 12:0 13:0 14:2 15:2 16:0 17:0 18:0 19:0 20:1 21:0 22:0 23:255 24:255 25:1 26:0 27:0 28:0 29:0 30:0 31:0.01 32:0.01 
0.01271782412144476 0:0 1:1 2:0 3:0 4:0 5:1 6:0 7:1 8:258 9:1887 10:1 11:0 12:0 13:0 14:20 15:35 16:0 17:0 18:0 19:0 20:1 21:0 22:0.09 23:102 24:255 25:1 26:0 27:0.01 28:0.02 29:0.01 30:0 31:0 32:0.01 
0.0095167858823606115 0:0 1:1 2:0 3:0 4:0 5:1 6:0 7:1 8:326 9:633 10:1 11:0 12:0 13:0 14:3 15:3 16:0 17:0 18:0 19:0 20:1 21:0 22:0 23:142 24:255 25:1 26:0 27:0.01 28:0.03 29:0 30:0 31:0 32:0.01 
0.015220076742898339 0:0 1:1 2:0 3:0 4:0 5:1 6:0 7:1 8:297 9:2584 10:1 11:0 12:0 13:0 14:2 15:3 16:0 17:0 18:0 19:0 20:1 21:0 22:0.67 23:98 24:255 25:1 26:0 27:0.01 28:0.03 29:0 30:0 31:0 32:0.01 
0.0091245557570135121 0:0 1:1 2:0 3:0 4:0 5:1 6:0 7:1 8:319 9:4385 10:1 11:0 12:0 13:0 14:9 15:9 16:0 17:0 18:0 19:0 20:1 21:0 22:0 23:35 24:255 25:1 26:0 27:0.03 28:0.04 29:0 30:0.01 31:0 32:0.01 
0.0094640244140875591 0:0 1:1 2:0 3:0 4:0 5:1 6:0 7:1 8:239 9:607 10:1 11:0 12:0 13:0 14:11 15:11 16:0 17:0 18:0 19:0 20:1 21:0 22:0 23:151 24:255 25:1 26:0 27:0.01 28:0.03 29:0.01 30:0.01 31:0.01 32:0.01 
0.0090939321922336898 0:0 1:1 2:0 3:0 4:0 5:1 6:0 7:1 8:247 9:311 10:1 11:0 12:0 13:0 14:42 15:63 16:0 17:0 18:0 19:0 20:1 21:0 22:0.03 23:255 24:255 25:1 26:0 27:0 28:0 29:0 30:0 31:0.01 32:0.01 
0.019889152781148001 0:0 1:1 2:0 3:0 4:0 5:1 6:0 7:1 8:199 9:12616 10:1 11:0 12:0 13:0 14:3 15:3 16:0 17:0 18:0 19:0 20:1 21:0 22:0 23:6 24:255 25:1 26:0 27:0.17 28:0.05 29:0 30:0 31:0 32:0.01 
0.01160873277340343 0:0 1:1 2:0 3:0 4:0 5:1 6:0 7:1 8:165 9:2472 10:1 11:0 12:0 13:0 14:1 15:1 16:0 17:0 18:0 19:0 20:1 21:0 22:0 23:57 24:255 25:1 26:0 27:0.02 28:0.04 29:0 30:0 31:0 32:0.01 
0.0055556775595881625 0:0 1:1 2:0 3:0 4:0 5:1 6:0 7:1 8:265 9:254 10:1 11:0 12:0 13:0 14:1 15:6 16:0 17:0 18:0 19:0 20:1 21:0 22:0.33 23:5 24:255 25:1 26:0 27:0.2 28:0.02 29:0 30:0 31:0 32:0.01 
0.013494631920300409 0:0 1:1 2:0 3:0 4:0 5:1 6:0 7:1 8:269 9:7634 10:1 11:0 12:0 13:0 14:4 15:6 16:0 17:0.17 18:0 19:0 20:1 21:0 22:0.33 23:33 24:255 25:1 26:0 27:0.03 28:0.03 29:0 30:0 31:0 32:0.01 
0.0051718122620707397 0:0 1:1 2:0 3:0 4:0 5:1 6:0 7:1 8:324 9:1918 10:1 11:0 12:0 13:0 14:9 15:17 16:0.11 17:0.12 18:0 19:0 20:1 21:0 22:0.29 23:57 24:255 25:1 26:0 27:0.02 28:0.07 29:0.02 30:0.02 31:0 32:0.01 
0.017816498691633539 0:0 1:1 2:0 3:0 4:0 5:1 6:0 7:1 8:263 9:6318 10:1 11:0 12:0 13:0 14:3 15:7 16:0 17:0 18:0 19:0 20:1 21:0 22:0.43 23:76 24:255 25:1 26:0 27:0.01 28:0.03 29:0.01 30:0.01 31:0.01 32:0.01 
0.020084373436271046 0:0 1:1 2:0 3:0 4:0 5:1 6:0 7:1 8:284 9:2712 10:1 11:0 12:0 13:0 14:4 15:8 16:0 17:0.12 18:0 19:0 20:1 21:0 22:0.38 23:5 24:82 25:1 26:0 27:0.2 28:0.07 29:0 30:0 31:0 32:0.01 
0.0017606161987447891 0:0 1:1 2:0 3:0 4:0 5:1 6:0 7:1 8:233 9:4721 10:1 11:0 12:0 13:0 14:1 15:1 16:0 17:0 18:0 19:0 20:1 21:0 22:0 23:67 24:254 25:1 26:0 27:0.01 28:0.03 29:0 30:0 31:0 32:0.01 
0.020083734219072762 0:0 1:1 2:0 3:0 4:0 5:1 6:0 7:1 8:187 9:13920 10:1 11:0 12:0 13:0 14:3 15:3 16:0 17:0 18:0 19:0 20:1 21:0 22:0 23:6 24:255 25:1 26:0 27:0.17 28:0.05 29:0 30:0 31:0 32:0.01 
0.0007787583668021781 0:0 1:1 2:0 3:0 4:0 5:1 6:0 7:1 8:316 9:607 10:1 11:0 12:0 13:0 14:12 15:12 16:0 17:0 18:0 19:0 20:1 21:0 22:0 23:180 24:255 25:1 26:0 27:0.01 28:0.03 29:0.01 30:0.01 31:0.01 32:0.01 
0.01551663249764291 0:0 1:1 2:0 3:0 4:0 5:1 6:0 7:1 8:382 9:528 10:1 11:0 12:0 13:0 14:7 15:15 16:0.14 17:0.2 18:0 19:0 20:1 21:0 22:0.2 23:173 24:255 25:1 26:0 27:0.01 28:0.02 29:0.01 30:0.01 31:0.01 32:0.01 
0.016857342406003048 0:0 1:1 2:0 3:0 4:0 5:1 6:0 7:1 8:305 9:1380 10:1 11:0 12:0 13:0 14:3 15:3 16:0 17:0 18:0 19:0 20:1 21:0 22:0 23:130 24:110 25:0.85 26:0.03 27:0.01 28:0 29:0.01 30:0.01 31:0.01 32:0.01 
0.019032232799690449 0:0 1:1 2:0 3:0 4:0 5:1 6:0 7:1 8:330 9:6880 10:1 11:0 12:0 13:0 14:1 15:4 16:0 17:0 18:0 19:0 20:1 21:0 22:0.75 23:5 24:255 25:1 26:0 27:0.2 28:0.04 29:0 30:0 31:0 32:0.01 
0.012696667710507412 0:0 1:1 2:0 3:0 4:0 5:1 6:0 7:1 8:228 9:774 10:1 11:0 12:0 13:0 14:52 15:56 16:0 17:0 18:0 19:0 20:1 21:0 22:0.07 23:255 24:255 25:1 26:0 27:0 28:0 29:0 30:0 31:0.01 32:0.01 
0.0065508717604807285 0:0 1:1 2:0 3:0 4:0 5:1 6:0 7:1 8:285 9:3400 10:1 11:0 12:0 13:0 14:17 15:22 16:0 17:0 18:0 19:0 20:1 21:0 22:0.09 23:255 24:255 25:1 26:0 27:0 28:0 29:0 30:0 31:0.01 32:0.01 
0.0029741232632970287 0:0 1:1 2:0 3:0 4:0 5:1 6:0 7:1 8:265 9:558 10:1 11:0 12:0 13:0 14:4 15:4 16:0 17:0 18:0 19:0 20:1 21:0 22:0 23:255 24:255 25:1 26:0 27:0 28:0 29:0 30:0 31:0.01 32:0.01 
0.015332940475949026 0:0 1:1 2:0 3:0 4:0 5:1 6:0 7:1 8:242 9:739 10:1 11:0 12:0 13:0 14:7 15:9 16:0 17:0 18:0 19:0 20:1 21:0 22:0.22 23:165 24:255 25:1 26:0 27:0.01 28:0.02 29:0 30:0 31:0.02 32:0.01 
0.0086635831710259494 0:0 1:1 2:0 3:0 4:0 5:1 6:0 7:1 8:311 9:4768 10:1 11:0 12:0 13:0 14:9 15:10 16:0 17:0 18:0 19:0 20:1 21:0 22:0.2 23:201 24:255 25:1 26:0 27:0 28:0.01 29:0 30:0 31:0.01 32:0.01 
0.012032103905760689 0:0 1:1 2:0 3:0 4:0 5:1 6:0 7:1 8:338 9:5507 10:1 11:0 12:0 13:0 14:10 15:11 16:0 17:0 18:0 19:0 20:1 21:0 22:0.18 23:71 24:255 25:1 26:0 27:0.01 28:0.03 29:0 30:0 31:0 32:0.01 
0.013899501872450327 0:0 1:1 2:0 3:0 4:0 5:1 6:0 7:1 8:242 9:4401 10:1 11:0 12:0 13:0 14:1 15:1 16:0 17:0 18:0 19:0 20:1 21:0 22:0 23:82 24:255 25:1 26:0 27:0.01 28:0.02 29:0 30:0 31:0.01 32:0.01 
0.020065702337288664 0:0 1:1 2:0 3:0 4:0 5:1 6:0 7:1 8:144 9:31220 10:1 11:0 12:0 13:0 14:1 15:1 16:0 17:0 18:0 19:0 20:1 21:0 22:0 23:255 24:255 25:1 26:0 27:0 28:0 29:0 30:0 31:0.01 32:0.01 
0.01941789361502861 0:0 1:1 2:0 3:0 4:0 5:1 6:0 7:1 8:304 9:3227 10:1 11:0 12:0 13:0 14:11 15:35 16:0 17:0 18:0 19:0 20:1 21:0 22:0.06 23:11 24:255 25:1 26:0 27:0.09 28:0.03 29:0 30:0 31:0 32:0.01 
0.01804731216023419 0:0 1:1 2:0 3:0 4:1 5:0 6:0 7:1 8:679 9:329 10:1 11:0 12:0 13:0 14:1 15:2 16:0 17:0 18:0 19:0 20:1 21:0 22:1 23:191 24:198 25:0.81 26:0.02 27:0.01 28:0.01 29:0 30:0 31:0 32:0.01 
0.012085249395245624 0:0 1:1 2:0 3:0 4:0 5:1 6:0 7:1 8:337 9:2214 10:1 11:0 12:0 13:0 14:3 15:9 16:0 17:0 18:0 19:0 20:1 21:0 22:0.33 23:181 24:255 25:1 26:0 27:0.01 28:0.01 29:0 30:0 31:0.01 32:0.01 
0.014509484689725564 0:0 1:1 2:0 3:0 4:0 5:1 6:0 7:1 8:235 9:1576 10:1 11:0 12:0 13:0 14:7 15:7 16:0 17:0 18:0 19:0 20:1 21:0 22:0 23:19 24:255 25:1 26:0 27:0.05 28:0.03 29:0 30:0 31:0 32:0.01 
0.020056462101635954 0:0 1:1 2:0 3:0 4:0 5:1 6:0 7:1 8:172 9:6219 10:1 11:0 12:0 13:0 14:1 15:37 16:0 17:0 18:0 19:0 20:1 21:0 22:0.08 23:97 24:255 25:1 26:0 27:0.01 28:0.03 29:0 30:0 31:0.01 32:0.01 
0.0072925208246747081 0:0 1:1 2:0 3:0 4:0 5:1 6:0 7:1 8:306 9:1380 10:1 11:0 12:0 13:0 14:4 15:4 16:0 17:0 18:0 19:0 20:1 21:0 22:0 23:255 24:249 25:0.98 26:0.01 27:0 28:0 29:0 30:0 31:0.01 32:0.01 
0.01901643719380388 0:0 1:1 2:0 3:0 4:0 5:1 6:0 7:1 8:321 9:12615 10:1 11:0 12:0 13:0 14:31 15:31 16:0 17:0 18:0 19:0 20:1 21:0 22:0 23:255 24:255 25:1 26:0 27:0 28:0 29:0 30:0 31:0.01 32:0.01 
0.014129396858494904 0:10 1:1 2:0 3:0 4:1 5:0 6:0 7:1 8:880 9:281 10:1 11:0 12:0 13:0 14:2 15:3 16:0 17:0 18:0 19:0 20:0.5 21:1 22:1 23:247 24:131 25:0.53 26:0.03 27:0 28:0 29:0.01 30:0.02 31:0 32:0.01 
0.018731435343008133 0:0 1:1 2:0 3:0 4:0 5:1 6:0 7:1 8:235 9:12623 10:1 11:0 12:0 13:0 14:5 15:5 16:0 17:0 18:0 19:0 20:1 21:0 22:0 23:255 24:255 25:1 26:0 27:0 28:0 29:0 30:0 31:0.01 32:0.01 
0.018279705352628423 0:0 1:1 2:0 3:0 4:0 5:1 6:0 7:1 8:259 9:15860 10:1 11:0 12:0 13:0 14:4 15:14 16:0 17:0 18:0 19:0 20:1 21:0 22:0.36 23:4 24:255 25:1 26:0 27:0.25 28:0.03 29:0 30:0 31:0 32:0.01 
0.009793009657378806 0:0 1:1 2:0 3:0 4:0 5:1 6:0 7:1 8:190 9:1069 10:1 11:0 12:0 13:0 14:6 15:6 16:0 17:0 18:0 19:0 20:1 21:0 22:0 23:70 24:255 25:1 26:0 27:0.01 28:0.04 29:0 30:0 31:0 32:0.01 
0.0013791638414655995 0:0 1:1 2:0 3:0 4:0 5:1 6:0 7:1 8:283 9:557 10:1 11:0 12:0 13:0 14:16 15:20 16:0 17:0 18:0 19:0 20:1 21:0 22:0.15 23:255 24:255 25:1 26:0 27:0 28:0 29:0 30:0 31:0.01 32:0.01 
0.005405641233208012 0:0 1:1 2:0 3:0 4:0 5:1 6:0 7:1 8:254 9:2005 10:1 11:0 12:0 13:0 14:4 15:26 16:0 17:0 18:0 19:0 20:1 21:0 22:0.08 23:255 24:255 25:1 26:0 27:0 28:0 29:0 30:0 31:0.01 32:0.01 
0.012589234184099404 0:0 1:1 2:0 3:0 4:0 5:1 6:0 7:1 8:214 9:1738 10:1 11:0 12:0 13:0 14:21 15:21 16:0 17:0 18:0 19:0 20:1 21:0 22:0 23:130 24:255 25:1 26:0 27:0.01 28:0.04 29:0 30:0 31:0 32:0.01 
0.02012970363416574 0:0 1:1 2:0 3:0 4:0 5:1 6:1 7:0 8:193 9:16060 10:1 11:0 12:0 13:0 14:3 15:4 16:0.33 17:0.25 18:0 19:0 20:1 21:0 22:0.5 23:3 24:255 25:1 26:0 27:0.33 28:0.05 29:0.33 30:0 31:0 32:0.01 
0.0054379308090418219 0:0 1:1 2:0 3:0 4:0 5:1 6:0 7:1 8:219 9:1681 10:1 11:0 12:0 13:0 14:3 15:8 16:0 17:0 18:0 19:0 20:1 21:0 22:0.25 23:3 24:255 25:1 26:0 27:0.33 28:0.04 29:0 30:0 31:0 32:0.01 
0.00085666634662635811 0:0 1:1 2:0 3:0 4:0 5:1 6:0 7:1 8:221 9:482 10:1 11:0 12:0 13:0 14:7 15:9 16:0 17:0 18:0 19:0 20:1 21:0 22:0.22 23:7 24:255 25:1 26:0 27:0.14 28:0.04 29:0 30:0 31:0 32:0.01 
0.011615427508996705 0:0 1:1 2:0 3:0 4:0 5:1 6:0 7:1 8:220 9:1849 10:1 11:0 12:0 13:0 14:16 15:16 16:0 17:0 18:0 19:0 20:1 21:0 22:0 23:16 24:255 25:1 26:0 27:0.06 28:0.02 29:0 30:0 31:0 32:0.01 
0.0085927310536597235 0:0 1:1 2:0 3:0 4:0 5:1 6:0 7:1 8:227 9:8036 10:1 11:0 12:0 13:0 14:4 15:6 16:0 17:0 18:0 19:0 20:1 21:0 22:0.5 23:54 24:255 25:1 26:0 27:0.02 28:0.04 29:0 30:0 31:0 32:0.01 
0.018550086017619111 0:0 1:1 2:0 3:0 4:0 5:1 6:0 7:1 8:232 9:13603 10:1 11:0 12:0 13:0 14:1 15:5 16:0 17:0 18:0 19:0 20:1 21:0 22:1 23:147 24:147 25:1 26:0 27:0.01 28:0 29:0 30:0 31:0.01 32:0.01 
0.0015606248963844641 0:0 1:1 2:0 3:0 4:0 5:1 6:0 7:1 8:194 9:484 10:1 11:0 12:0 13:0 14:17 15:20 16:0 17:0 18:0 19:0 20:1 21:0 22:0.15 23:17 24:255 25:1 26:0 27:0.06 28:0.03 29:0 30:0 31:0 32:0.01 
0.00065296404356568537 0:0 1:1 2:0 3:0 4:0 5:1 6:0 7:1 8:227 9:369 10:1 11:0 12:0 13:0 14:7 15:11 16:0 17:0 18:0 19:0 20:1 21:0 22:0.18 23:163 24:255 25:1 26:0 27:0.01 28:0.04 29:0 30:0 31:0.01 32:0.01 
0.008916909727557553 0:0 1:1 2:0 3:0 4:0 5:1 6:0 7:1 8:307 9:1212 10:1 11:0 12:0 13:0 14:12 15:12 16:0 17:0 18:0 19:0 20:1 21:0 22:0 23:255 24:255 25:1 26:0 27:0 28:0 29:0 30:0 31:0.01 32:0.01 
0.012177049343525134 0:0 1:1 2:0 3:0 4:1 5:0 6:0 7:1 8:786 9:336 10:1 11:0 12:0 13:0 14:1 15:3 16:0 17:0 18:0 19:0 20:1 21:0 22:1 23:233 24:123 25:0.52 26:0.03 27:0 28:0.02 29:0.01 30:0.02 31:0 32:0.01 
0.0044384951296668508 0:0 1:1 2:0 3:0 4:0 5:1 6:0 7:1 8:215 9:2746 10:1 11:0 12:0 13:0 14:14 15:14 16:0 17:0 18:0 19:0 20:1 21:0 22:0 23:37 24:255 25:1 26:0 27:0.03 28:0.02 29:0 30:0 31:0 32:0.01 
0.018523301926048119 0:0 1:1 2:0 3:0 4:0 5:1 6:0 7:1 8:276 9:5069 10:1 11:0 12:0 13:0 14:3 15:3 16:0 17:0 18:0 19:0 20:1 21:0 22:0 23:3 24:255 25:1 26:0 27:0.33 28:0.02 29:0 30:0 31:0 32:0.01 
0.01061917755925487 0:0 1:1 2:0 3:0 4:0 5:1 6:0 7:1 8:197 9:4082 10:1 11:0 12:0 13:0 14:20 15:20 16:0 17:0 18:0 19:0 20:1 21:0 22:0 23:20 24:255 25:1 26:0 27:0.05 28:0.04 29:0 30:0 31:0 32:0.01 
0.0090318831468277801 0:0 1:1 2:0 3:0 4:0 5:1 6:0 7:1 8:309 9:1643 10:1 11:0 12:0 13:0 14:2 15:3 16:0 17:0 18:0 19:0 20:1 21:0 22:0.67 23:9 24:254 25:1 26:0 27:0.11 28:0.03 29:0 30:0 31:0 32:0.01 
0.012604733643293528 0:0 1:1 2:0 3:0 4:0 5:1 6:0 7:1 8:278 9:4894 10:1 11:0 12:0 13:0 14:1 15:1 16:0 17:0 18:0 19:0 20:1 21:0 22:0 23:245 24:255 25:1 26:0 27:0.01 28:0.01 29:0 30:0 31:0.01 32:0.01 
0.01982644207633729 0:0 1:1 2:0 3:0 4:0 5:1 6:0 7:1 8:139 9:32424 10:1 11:0 12:0 13:0 14:1 15:15 16:0 17:0 18:0 19:0 20:1 21:0 22:0.13 23:255 24:255 25:1 26:0 27:0 28:0 29:0 30:0 31:0.01 32:0.01 
0.0095624286951390691 0:0 1:1 2:0 3:0 4:0 5:1 6:0 7:1 8:190 9:12948 10:1 11:0 12:0 13:0 14:4 15:4 16:0 17:0 18:0 19:0 20:1 21:0 22:0 23:56 24:255 25:1 26:0 27:0.02 28:0.01 29:0 30:0 31:0.02 32:0.01 
0.011726280776824636 0:0 1:1 2:0 3:0 4:0 5:1 6:0 7:1 8:305 9:2239 10:1 11:0 12:0 13:0 14:1 15:1 16:0 17:0 18:0 19:0 20:1 21:0 22:0 23:255 24:238 25:0.93 26:0.01 27:0 28:0 29:0 30:0 31:0.02 32:0.01 
0.020133553731109387 0:0 1:1 2:0 3:0 4:1 5:0 6:0 7:1 8:2377 9:324 10:1 11:0 12:0 13:0 14:1 15:1 16:0 17:0 18:0 19:0 20:1 21:0 22:0 23:22 24:167 25:0.95 26:0.09 27:0.05 28:0.02 29:0 30:0 31:0 32:0.01 
0.0071336354753788276 0:0 1:1 2:0 3:0 4:0 5:1 6:0 7:1 8:319 9:2452 10:1 11:0 12:0 13:0 14:23 15:34 16:0 17:0 18:0 19:0 20:1 21:0 22:0.15 23:255 24:255 25:1 26:0 27:0 28:0 29:0 30:0 31:0.01 32:0.01 
0.006896267534805137 0:0 1:1 2:0 3:0 4:0 5:1 6:0 7:1 8:325 9:4898 10:1 11:0 12:0 13:0 14:3 15:3 16:0 17:0 18:0 19:0 20:1 21:0 22:0 23:255 24:255 25:1 26:0 27:0 28:0 29:0 30:0 31:0.01 32:0.01 
0.019653936810335157 0:0 1:1 2:0 3:0 4:0 5:1 6:0 7:1 8:199 9:6979 10:1 11:0 12:0 13:0 14:13 15:13 16:0 17:0 18:0.08 19:0.08 20:1 21:0 22:0 23:106 24:255 25:1 26:0 27:0.01 28:0.01 29:0 30:0 31:0.02 32:0.01 
0.019107990130934165 0:0 1:1 2:0 3:0 4:0 5:1 6:0 7:1 8:177 9:3314 10:1 11:0 12:0 13:0 14:2 15:7 16:0 17:0 18:0 19:0 20:1 21:0 22:0.29 23:40 24:245 25:1 26:0 27:0.03 28:0.01 29:0 30:0.01 31:0.03 32:0.01 
0.020099954898869232 0:0 1:1 2:0 3:0 4:0 5:1 6:0 7:1 8:193 9:58410 10:1 11:0 12:0 13:0 14:2 15:2 16:0 17:0 18:0 19:0 20:1 21:0 22:0 23:10 24:255 25:1 26:0 27:0.1 28:0.04 29:0 30:0 31:0.1 32:0.01 
0.010279945703080483 0:0 1:1 2:0 3:0 4:0 5:1 6:0 7:1 8:296 9:581 10:1 11:0 12:0 13:0 14:15 15:49 16:0 17:0 18:0.07 19:0.02 20:1 21:0 22:0.1 23:45 24:255 25:1 26:0 27:0.02 28:0.01 29:0 30:0 31:0.02 32:0.01 
0.0119925518187281 0:0 1:1 2:0 3:0 4:0 5:1 6:0 7:1 8:345 9:3076 10:1 11:0 12:0 13:0 14:5 15:8 16:0 17:0 18:0 19:0 20:1 21:0 22:0.25 23:22 24:255 25:1 26:0 27:0.05 28:0.05 29:0 30:0 31:0 32:0.01 
0.0126907249051946 0:0 1:1 2:0 3:0 4:0 5:1 6:0 7:1 8:168 9:4483 10:1 11:0 12:0 13:0 14:3 15:3 16:0 17:0 18:0 19:0 20:1 21:0 22:0 23:56 24:255 25:1 26:0 27:0.02 28:0.05 29:0 30:0.01 31:0.02 32:0.01 
0.011751660836588455 0:0 1:1 2:0 3:0 4:0 5:1 6:0 7:1 8:309 9:4622 10:1 11:0 12:0 13:0 14:25 15:28 16:0 17:0 18:0 19:0 20:1 21:0 22:0.14 23:90 24:255 25:1 26:0 27:0.01 28:0.05 29:0 30:0 31:0 32:0.01 
0.015569692455519417 0:0 1:1 2:0 3:0 4:1 5:0 6:0 7:1 8:1627 9:364 10:1 11:0 12:0 13:0 14:1 15:1 16:0 17:0 18:0 19:0 20:1 21:0 22:0 23:7 24:153 25:1 26:0 27:0.14 28:0.02 29:0 30:0 31:0 32:0.01 
0.0034010582096553419 0:0 1:1 2:0 3:0 4:0 5:1 6:0 7:1 8:227 9:1618 10:1 11:0 12:0 13:0 14:15 15:15 16:0 17:0 18:0 19:0 20:1 21:0 22:0 23:18 24:255 25:1 26:0 27:0.06 28:0.03 29:0 30:0 31:0 32:0.01 
0.01218545310335316 0:0 1:1 2:0 3:0 4:1 5:0 6:0 7:1 8:1947 9:368 10:1 11:0 12:0 13:0 14:1 15:2 16:0 17:0 18:0 19:0 20:1 21:0 22:1 23:238 24:147 25:0.62 26:0.02 27:0 28:0 29:0 30:0 31:0.01 32:0.01 
0.0028314353680701618 0:0 1:1 2:0 3:0 4:0 5:1 6:0 7:1 8:303 9:1600 10:1 11:0 12:0 13:0 14:15 15:15 16:0 17:0 18:0 19:0 20:1 21:0 22:0 23:255 24:255 25:1 26:0 27:0 28:0 29:0 30:0 31:0.01 32:0.01 
0.012608415212441186 0:0 1:1 2:0 3:0 4:0 5:1 6:0 7:1 8:348 9:2784 10:1 11:0 12:0 13:0 14:31 15:45 16:0 17:0 18:0 19:0 20:1 21:0 22:0.11 23:75 24:255 25:1 26:0 27:0.01 28:0.01 29:0 30:0 31:0 32:0.01 
0.00956821040522313 0:0 1:1 2:0 3:0 4:0 5:1 6:0 7:1 8:221 9:321 10:1 11:0 12:0 13:0 14:2 15:2 16:0 17:0 18:0 19:0 20:1 21:0 22:0 23:2 24:255 25:1 26:0 27:0.5 28:0.04 29:0 30:0.01 31:0 32:0.01 
0.010572958751766689 0:0 1:1 2:0 3:0 4:0 5:1 6:0 7:1 8:262 9:872 10:1 11:0 12:0 13:0 14:9 15:9 16:0 17:0 18:0 19:0 20:1 21:0 22:0 23:139 24:255 25:1 26:0 27:0.01 28:0.04 29:0 30:0 31:0.01 32:0.01 
0.0031454570486438398 0:0 1:1 2:0 3:0 4:0 5:1 6:0 7:1 8:326 9:1528 10:1 11:0 12:0 13:0 14:2 15:32 16:0 17:0 18:0 19:0 20:1 21:0 22:0.06 23:255 24:255 25:1 26:0 27:0 28:0 29:0 30:0 31:0.01 32:0.01 
0.0069016162507436352 0:0 1:1 2:0 3:0 4:0 5:1 6:1 7:0 8:172 9:0 10:1 11:0 12:0 13:0 14:1 15:2 16:1 17:0.5 18:0 19:0 20:1 21:0 22:1 23:5 24:255 25:1 26:0 27:0.2 28:0.02 29:0.2 30:0.01 31:0.2 32:0.01 
0.016798069921975172 0:0 1:1 2:0 3:0 4:0 5:1 6:0 7:1 8:156 9:55 10:1 11:0 12:0 13:0 14:1 15:1 16:0 17:0 18:0 19:0 20:1 21:0 22:0 23:103 24:255 25:1 26:0 27:0.01 28:0.01 29:0 30:0 31:0.02 32:0.01 
0.019280373222811245 0:0 1:1 2:0 3:0 4:0 5:1 6:0 7:1 8:284 9:7405 10:1 11:0 12:0 13:0 14:7 15:7 16:0 17:0 18:0 19:0 20:1 21:0 22:0 23:46 24:255 25:1 26:0 27:0.02 28:0.05 29:0 30:0 31:0 32:0.01 
0.018847446427641648 0:0 1:1 2:0 3:0 4:0 5:1 6:0 7:1 8:319 9:8973 10:1 11:0 12:0 13:0 14:4 15:4 16:0 17:0 18:0 19:0 20:1 21:0 22:0 23:198 24:255 25:1 26:0 27:0.01 28:0.03 29:0 30:0 31:0.01 32:0.01 
0.019889204468474364 0:0 1:1 2:0 3:0 4:0 5:1 6:0 7:1 8:143 9:5894 10:1 11:0 12:0 13:0 14:2 15:2 16:0 17:0 18:0 19:0 20:1 21:0 22:0 23:186 24:255 25:1 26:0 27:0.01 28:0.03 29:0 30:0.01 31:0.01 32:0.01 
0.002048463571585168 0:0 1:1 2:0 3:0 4:0 5:1 6:0 7:1 8:194 9:1052 10:1 11:0 12:0 13:0 14:10 15:34 16:0 17:0 18:0 19:0 20:1 21:0 22:0.06 23:42 24:255 25:1 26:0 27:0.02 28:0.05 29:0 30:0 31:0 32:0.01 
0.020050464656969948 0:0 1:1 2:0 3:0 4:0 5:1 6:0 7:1 8:328 9:17829 10:1 11:0 12:0 13:0 14:3 15:3 16:0 17:0 18:0 19:0 20:1 21:0 22:0 23:247 24:255 25:1 26:0 27:0.01 28:0.01 29:0 30:0 31:0.01 32:0.01 
0.011309893783800849 0:0 1:1 2:0 3:0 4:0 5:1 6:0 7:1 8:324 9:2912 10:1 11:0 12:0 13:0 14:1 15:14 16:0 17:0 18:0 19:0 20:1 21:0 22:0.21 23:32 24:255 25:1 26:0 27:0.03 28:0.01 29:0 30:0 31:0 32:0.01 
0.0020928677134207504 0:0 1:1 2:0 3:0 4:0 5:1 6:0 7:1 8:299 9:1654 10:1 11:0 12:0 13:0 14:11 15:15 16:0 17:0 18:0 19:0 20:1 21:0 22:0.13 23:255 24:255 25:1 26:0 27:0 28:0 29:0 30:0 31:0.01 32:0.01 
0.014329477089476111 0:0 1:1 2:0 3:0 4:0 5:1 6:0 7:1 8:320 9:2056 10:1 11:0 12:0 13:0 14:5 15:5 16:0 17:0 18:0 19:0 20:1 21:0 22:0 23:255 24:255 25:1 26:0 27:0 28:0 29:0 30:0 31:0.01 32:0.01 
0.0024718516461846047 0:0 1:1 2:0 3:0 4:0 5:1 6:0 7:1 8:217 9:2208 10:1 11:0 12:0 13:0 14:12 15:17 16:0 17:0 18:0 19:0 20:1 21:0 22:0.12 23:12 24:255 25:1 26:0 27:0.08 28:0.05 29:0 30:0 31:0 32:0.01 
0.012073516045905361 0:0 1:1 2:0 3:0 4:0 5:1 6:0 7:1 8:317 9:1049 10:1 11:0 12:0 13:0 14:18 15:19 16:0 17:0 18:0 19:0 20:1 21:0 22:0.11 23:83 24:255 25:1 26:0 27:0.01 28:0.05 29:0 30:0 31:0 32:0.01 
0.0048395843761494042 0:0 1:1 2:0 3:0 4:0 5:1 6:0 7:1 8:293 9:253 10:1 11:0 12:0 13:0 14:17 15:17 16:0 17:0 18:0 19:0 20:1 21:0 22:0 23:255 24:255 25:1 26:0 27:0 28:0 29:0 30:0 31:0.01 32:0.01 
0.013548081585808501 0:0 1:1 2:0 3:0 4:0 5:1 6:0 7:1 8:304 9:3003 10:1 11:0 12:0 13:0 14:7 15:31 16:0 17:0 18:0 19:0 20:1 21:0 22:0.06 23:7 24:255 25:1 26:0 27:0.14 28:0.03 29:0 30:0 31:0 32:0.01 
0.011253162318780398 0:0 1:1 2:0 3:0 4:0 5:1 6:0 7:1 8:341 9:1352 10:1 11:0 12:0 13:0 14:4 15:6 16:0 17:0 18:0 19:0 20:1 21:0 22:0.5 23:255 24:255 25:1 26:0 27:0 28:0 29:0 30:0 31:0.01 32:0.01 
0.0011548345619048295 0:0 1:1 2:0 3:0 4:0 5:1 6:0 7:1 8:313 9:293 10:1 11:0 12:0 13:0 14:18 15:18 16:0 17:0 18:0 19:0 20:1 21:0 22:0 23:206 24:255 25:1 26:0 27:0 28:0.01 29:0 30:0 31:0 32:0.01 
0.012119262740194434 0:0 1:1 2:0 3:0 4:0 5:1 6:0 7:1 8:321 9:506 10:1 11:0 12:0 13:0 14:2 15:4 16:0 17:0 18:0 19:0 20:1 21:0 22:0.5 23:2 24:255 25:1 26:0 27:0.5 28:0.03 29:0 30:0.01 31:0 32:0.01 
0.01087890227780639 0:0 1:1 2:0 3:0 4:0 5:1 6:0 7:1 8:169 9:1483 10:1 11:0 12:0 13:0 14:1 15:1 16:0 17:0 18:0 19:0 20:1 21:0 22:0 23:255 24:255 25:1 26:0 27:0 28:0 29:0 30:0 31:0.01 32:0.01 
0.014516090392568079 0:0 1:1 2:0 3:0 4:0 5:1 6:0 7:1 8:338 9:1462 10:1 11:0 12:0 13:0 14:7 15:7 16:0 17:0 18:0 19:0 20:1 21:0 22:0 23:255 24:255 25:1 26:0 27:0 28:0 29:0 30:0 31:0.01 32:0.01 
0.0088671142390620503 0:0 1:1 2:0 3:0 4:0 5:1 6:0 7:1 8:196 9:260 10:1 11:0 12:0 13:0 14:16 15:16 16:0 17:0 18:0 19:0 20:1 21:0 22:0 23:102 24:255 25:1 26:0 27:0.01 28:0.07 29:0 30:0.01 31:0.01 32:0.01 
0.013869938345746007 0:0 1:1 2:0 3:0 4:0 5:1 6:0 7:1 8:193 9:3468 10:1 11:0 12:0 13:0 14:18 15:18 16:0 17:0 18:0 19:0 20:1 21:0 22:0 23:18 24:255 25:1 26:0 27:0.06 28:0.03 29:0 30:0.01 31:0 32:0.01 
0.019085289867480402 0:0 1:1 2:0 3:0 4:0 5:1 6:0 7:1 8:285 9:5200 10:1 11:0 12:0 13:0 14:9 15:9 16:0 17:0 18:0 19:0 20:1 21:0 22:0 23:157 24:255 25:1 26:0 27:0.01 28:0.01 29:0 30:0 31:0.01 32:0.01 
0.0041759271613862371 0:0 1:1 2:0 3:0 4:0 5:1 6:0 7:1 8:294 9:1719 10:1 11:0 12:0 13:0 14:7 15:19 16:0 17:0 18:0 19:0 20:1 21:0 22:0.11 23:255 24:255 25:1 26:0 27:0 28:0 29:0 30:0 31:0.01 32:0.01 
0.020132460372396094 0:0 1:1 2:0 3:0 4:0 5:1 6:0 7:1 8:196 9:18417 10:1 11:0 12:0 13:0 14:17 15:17 16:0 17:0 18:0 19:0 20:1 21:0 22:0 23:145 24:255 25:1 26:0 27:0.01 28:0.03 29:0 30:0 31:0.01 32:0.01 
0.019856884650501363 0:0 1:1 2:0 3:0 4:0 5:1 6:0 7:1 8:182 9:24043 10:1 11:0 12:0 13:0 14:1 15:1 16:0 17:0 18:0 19:0 20:1 21:0 22:0 23:190 24:255 25:1 26:0 27:0.01 28:0.03 29:0 30:0 31:0.01 32:0.01 
0.0049671684358799893 0:0 1:1 2:0 3:0 4:1 5:0 6:0 7:1 8:1113 9:331 10:1 11:0 12:0 13:0 14:1 15:4 16:0 17:0 18:0 19:0 20:1 21:0 22:1 23:49 24:175 25:0.76 26:0.1 27:0.02 28:0.01 29:0 30:0 31:0 32:0.01 
0.0067672088660044724 0:0 1:1 2:0 3:0 4:0 5:1 6:0 7:1 8:203 9:5041 10:1 11:0 12:0 13:0 14:4 15:4 16:0 17:0 18:0 19:0 20:1 21:0 22:0 23:17 24:255 25:1 26:0 27:0.06 28:0.05 29:0 30:0.02 31:0.06 32:0.01 
0.020129739851651299 0:1 1:1 2:0 3:0 4:1 5:0 6:0 7:1 8:16438 9:324 10:1 11:0 12:0 13:0 14:1 15:2 16:0 17:0 18:0 19:0 20:1 21:0 22:1 23:14 24:186 25:0.64 26:0.14 27:0.07 28:0.02 29:0 30:0.03 31:0 32:0.01 
0.014584791702786671 0:0 1:1 2:0 3:0 4:0 5:1 6:0 7:1 8:299 9:2330 10:1 11:0 12:0 13:0 14:13 15:13 16:0 17:0 18:0 19:0 20:1 21:0 22:0 23:13 24:255 25:1 26:0 27:0.08 28:0.04 29:0 30:0 31:0 32:0.01 
0.018407919981741964 0:0 1:1 2:0 3:0 4:0 5:1 6:0 7:1 8:191 9:3731 10:1 11:0 12:0 13:0 14:5 15:16 16:0 17:0 18:0 19:0 20:1 21:0 22:0.25 23:111 24:255 25:1 26:0 27:0.01 28:0.03 29:0 30:0 31:0.01 32:0.01 
0.019572322254023819 0:0 1:1 2:0 3:0 4:0 5:1 6:0 7:1 8:347 9:8113 10:1 11:0 12:0 13:0 14:3 15:3 16:0 17:0 18:0 19:0 20:1 21:0 22:0 23:255 24:255 25:1 26:0 27:0 28:0 29:0 30:0 31:0.01 32:0.01 
0.020114999922554014 0:1 1:1 2:0 3:0 4:1 5:0 6:0 7:1 8:1100 9:483 10:1 11:0 12:0 13:0 14:1 15:2 16:0 17:0 18:0 19:0 20:1 21:0 22:1 23:108 24:142 25:0.8 26:0.03 27:0.01 28:0.01 29:0.07 30:0.04 31:0.01 32:0.01 
0.0021905974349085647 0:0 1:1 2:0 3:0 4:0 5:1 6:0 7:1 8:146 9:13603 10:1 11:0 12:0 13:0 14:1 15:1 16:0 17:0 18:0 19:0 20:1 21:0 22:0 23:170 24:170 25:1 26:0 27:0.01 28:0 29:0.01 30:0.01 31:0.01 32:0.01 
0.014247534745569775 0:0 1:1 2:0 3:0 4:0 5:1 6:0 7:1 8:289 9:4743 10:1 11:0 12:0 13:0 14:17 15:17 16:0 17:0 18:0 19:0 20:1 21:0 22:0 23:82 24:255 25:1 26:0 27:0.01 28:0.01 29:0 30:0 31:0.02 32:0.01 
0.014185760353178129 0:0 1:1 2:0 3:0 4:0 5:1 6:0 7:1 8:338 9:200 10:1 11:0 12:0 13:0 14:1 15:2 16:0 17:0 18:0 19:0 20:1 21:0 22:1 23:255 24:255 25:1 26:0 27:0 28:0 29:0 30:0 31:0.01 32:0.01 
0.0056743092868532822 0:0 1:1 2:0 3:0 4:0 5:1 6:0 7:1 8:317 9:264 10:1 11:0 12:0 13:0 14:12 15:31 16:0 17:0 18:0 19:0 20:1 21:0 22:0.16 23:38 24:255 25:1 26:0 27:0.03 28:0.01 29:0 30:0 31:0.03 32:0.01 
0.014775672716324975 0:0 1:1 2:0 3:0 4:1 5:0 6:0 7:1 8:1710 9:332 10:1 11:0 12:0 13:0 14:1 15:1 16:0 17:0 18:0 19:0 20:1 21:0 22:0 23:120 24:137 25:0.53 26:0.03 27:0.01 28:0.01 29:0 30:0 31:0 32:0.01 
0.011992396068972367 0:0 1:1 2:0 3:0 4:0 5:1 6:0 7:1 8:269 9:9287 10:1 11:0 12:0 13:0 14:3 15:3 16:0 17:0 18:0 19:0 20:1 21:0 22:0 23:94 24:255 25:1 26:0 27:0.01 28:0.07 29:0 30:0 31:0.02 32:0.01 
0.010523620704408997 0:0 1:1 2:0 3:0 4:0 5:1 6:0 7:1 8:193 9:351 10:1 11:0 12:0 13:0 14:26 15:57 16:0 17:0 18:0.04 19:0.02 20:1 21:0 22:0.05 23:61 24:255 25:1 26:0 27:0.02 28:0.04 29:0 30:0.01 31:0.02 32:0.01 
0.0073350634857819747 0:0 1:1 2:0 3:0 4:0 5:1 6:0 7:1 8:331 9:480 10:1 11:0 12:0 13:0 14:22 15:25 16:0 17:0 18:0 19:0 20:1 21:0 22:0.08 23:142 24:255 25:1 26:0 27:0.01 28:0.01 29:0 30:0 31:0.01 32:0.01 
0.013276983575096327 0:0 1:1 2:0 3:0 4:0 5:1 6:0 7:1 8:335 9:1211 10:1 11:0 12:0 13:0 14:11 15:11 16:0 17:0 18:0 19:0 20:1 21:0 22:0 23:11 24:255 25:1 26:0 27:0.09 28:0.03 29:0 30:0.01 31:0 32:0.01 
0.012742745868849329 0:0 1:1 2:0 3:0 4:0 5:1 6:0 7:1 8:209 9:2030 10:1 11:0 12:0 13:0 14:3 15:3 16:0 17:0 18:0 19:0 20:1 21:0 22:0 23:3 24:255 25:1 26:0 27:0.33 28:0.07 29:0 30:0.01 31:0 32:0.01 
0.0020714154950085481 0:0 1:1 2:0 3:0 4:0 5:1 6:0 7:1 8:242 9:9621 10:1 11:0 12:0 13:0 14:3 15:3 16:0 17:0 18:0 19:0 20:1 21:0 22:0 23:255 24:255 25:1 26:0 27:0 28:0 29:0 30:0 31:0.01 32:0.01 
0.019261096821900907 0:0 1:1 2:0 3:0 4:0 5:1 6:0 7:1 8:295 9:4021 10:1 11:0 12:0 13:0 14:7 15:11 16:0 17:0 18:0 19:0 20:1 21:0 22:0.36 23:56 24:133 25:1 26:0 27:0.02 28:0.05 29:0 30:0 31:0 32:0.01 
0.0048188186756129917 0:0 1:1 2:0 3:0 4:0 5:1 6:0 7:1 8:226 9:943 10:1 11:0 12:0 13:0 14:8 15:8 16:0 17:0 18:0 19:0 20:1 21:0 22:0 23:42 24:255 25:1 26:0 27:0.02 28:0.02 29:0.07 30:0.01 31:0 32:0.01 
0.012589234985707411 0:0 1:1 2:0 3:0 4:0 5:1 6:0 7:1 8:299 9:3943 10:1 11:0 12:0 13:0 14:1 15:1 16:0 17:0 18:0 19:0 20:1 21:0 22:0 23:116 24:255 25:1 26:0 27:0.01 28:0.05 29:0.01 30:0.01 31:0.01 32:0.01 
0.017224831747784206 0:0 1:1 2:0 3:0 4:0 5:1 6:0 7:1 8:244 9:10329 10:1 11:0 12:0 13:0 14:1 15:4 16:0 17:0 18:0 19:0 20:1 21:0 22:0.75 23:104 24:255 25:1 26:0 27:0.01 28:0.01 29:0 30:0 31:0.02 32:0.01 
0.0039166756682190371 0:0 1:1 2:0 3:0 4:0 5:1 6:0 7:1 8:336 9:3820 10:1 11:0 12:0 13:0 14:15 15:18 16:0 17:0 18:0 19:0 20:1 21:0 22:0.11 23:59 24:255 25:1 26:0 27:0.02 28:0.01 29:0 30:0 31:0 32:0.01 
0.0092410790537147351 0:0 1:1 2:0 3:0 4:0 5:1 6:0 7:1 8:149 9:436 10:1 11:0 12:0 13:0 14:1 15:1 16:0 17:0 18:0 19:0 20:1 21:0 22:0 23:2 24:255 25:1 26:0 27:0.5 28:0.03 29:0 30:0.01 31:0 32:0.01 
0.014025125167955925 0:0 1:1 2:0 3:0 4:0 5:1 6:0 7:1 8:202 9:454 10:1 11:0 12:0 13:0 14:7 15:7 16:0 17:0 18:0 19:0 20:1 21:0 22:0 23:255 24:255 25:1 26:0 27:0 28:0 29:0 30:0 31:0.01 32:0.01 
0.0038653729132011308 0:0 1:1 2:0 3:0 4:0 5:1 6:0 7:1 8:205 9:528 10:1 11:0 12:0 13:0 14:2 15:3 16:0 17:0 18:0 19:0 20:1 21:0 22:0.67 23:37 24:255 25:1 26:0 27:0.03 28:0.03 29:0 30:0 31:0 32:0.01 
0.015891287931227471 0:0 1:1 2:0 3:0 4:0 5:1 6:0 7:1 8:281 9:9644 10:1 11:0 12:0 13:0 14:23 15:24 16:0 17:0 18:0.04 19:0.04 20:1 21:0 22:0.08 23:81 24:255 25:1 26:0 27:0.01 28:0.02 29:0 30:0 31:0.01 32:0.01 
0.011228491879347845 0:0 1:1 2:0 3:0 4:0 5:1 6:0 7:1 8:397 9:381 10:1 11:0 12:0 13:0 14:21 15:29 16:0 17:0 18:0.05 19:0.03 20:1 21:0 22:0.14 23:142 24:154 25:1 26:0 27:0.01 28:0.03 29:0.01 30:0.01 31:0.01 32:0.01 
0.0055876336248354419 0:0 1:1 2:0 3:0 4:0 5:1 6:0 7:1 8:246 9:301 10:1 11:0 12:0 13:0 14:4 15:4 16:0.25 17:0.25 18:0 19:0 20:1 21:0 22:0 23:255 24:255 25:1 26:0 27:0 28:0 29:0 30:0 31:0.01 32:0.01 
0.010775983905454999 0:0 1:1 2:0 3:0 4:0 5:1 6:0 7:1 8:255 9:3561 10:1 11:0 12:0 13:0 14:5 15:11 16:0 17:0 18:0 19:0 20:1 21:0 22:0.27 23:52 24:255 25:1 26:0 27:0.02 28:0.05 29:0 30:0 31:0 32:0.01 
0.0053920318076361778 0:0 1:1 2:0 3:0 4:0 5:1 6:0 7:1 8:324 9:707 10:1 11:0 12:0 13:0 14:3 15:3 16:0 17:0 18:0 19:0 20:1 21:0 22:0 23:191 24:255 25:1 26:0 27:0.01 28:0.01 29:0 30:0 31:0 32:0.01 
0.012079723582054834 0:0 1:1 2:0 3:0 4:0 5:1 6:0 7:1 8:198 9:27266 10:1 11:0 12:0 13:0 14:1 15:8 16:0 17:0 18:0 19:0 20:1 21:0 22:0.25 23:47 24:255 25:1 26:0 27:0.02 28:0.03 29:0 30:0 31:0 32:0.01 
0.012392834365937739 0:0 1:1 2:0 3:0 4:0 5:1 6:0 7:1 8:218 9:2459 10:1 11:0 12:0 13:0 14:18 15:25 16:0 17:0 18:0 19:0 20:1 21:0 22:0.24 23:207 24:255 25:1 26:0 27:0 28:0.01 29:0 30:0 31:0.01 32:0.01 
0.0050261184489176804 0:0 1:1 2:0 3:0 4:0 5:1 6:0 7:1 8:254 9:1019 10:1 11:0 12:0 13:0 14:2 15:25 16:0 17:0 18:0 19:0 20:1 21:0 22:0.2 23:37 24:255 25:1 26:0 27:0.03 28:0.03 29:0 30:0.01 31:0 32:0.01 
0.019516109313340801 0:0 1:1 2:0 3:0 4:0 5:1 6:0 7:1 8:315 9:5200 10:1 11:0 12:0 13:0 14:45 15:56 16:0 17:0 18:0 19:0 20:1 21:0 22:0.09 23:255 24:255 25:1 26:0 27:0 28:0 29:0 30:0 31:0.01 32:0.01 
0.0099582221923054451 0:0 1:1 2:0 3:0 4:0 5:1 6:0 7:1 8:311 9:442 10:1 11:0 12:0 13:0 14:11 15:22 16:0.09 17:0.14 18:0 19:0 20:1 21:0 22:0.14 23:177 24:255 25:1 26:0 27:0.01 28:0.02 29:0.01 30:0.01 31:0.01 32:0.01 
0.018057226805275193 0:0 1:1 2:0 3:0 4:0 5:1 6:0 7:1 8:208 9:1227 10:1 11:0 12:0 13:0 14:7 15:7 16:0 17:0 18:0 19:0 20:1 21:0 22:0 23:176 24:176 25:1 26:0 27:0.01 28:0 29:0.01 30:0.01 31:0.01 32:0.01 
0.012863667911624082 0:0 1:1 2:0 3:0 4:0 5:1 6:0 7:1 8:365 9:870 10:1 11:0 12:0 13:0 14:14 15:16 16:0 17:0 18:0 19:0 20:1 21:0 22:0.19 23:255 24:255 25:1 26:0 27:0 28:0 29:0 30:0 31:0.01 32:0.01 
0.011336967789356844 0:0 1:1 2:0 3:0 4:0 5:1 6:0 7:1 8:243 9:1763 10:1 11:0 12:0 13:0 14:5 15:5 16:0 17:0 18:0 19:0 20:1 21:0 22:0 23:163 24:255 25:1 26:0 27:0.01 28:0.03 29:0 30:0 31:0.01 32:0.01 
0.016895715886004574 0:0 1:1 2:0 3:0 4:0 5:1 6:0 7:1 8:203 9:11653 10:1 11:0 12:0 13:0 14:1 15:8 16:0 17:0 18:0 19:0 20:1 21:0 22:0.25 23:13 24:174 25:1 26:0 27:0.08 28:0.06 29:0 30:0.01 31:0 32:0.01 
0.018497305486527262 0:0 1:1 2:0 3:0 4:0 5:1 6:0 7:1 8:207 9:15789 10:1 11:0 12:0 13:0 14:5 15:5 16:0 17:0 18:0 19:0 20:1 21:0 22:0 23:5 24:255 25:1 26:0 27:0.2 28:0.06 29:0 30:0 31:0 32:0.01 
0.019673800726778726 0:0 1:1 2:0 3:0 4:0 5:1 6:0 7:1 8:196 9:11180 10:1 11:0 12:0 13:0 14:5 15:5 16:0 17:0 18:0 19:0 20:1 21:0 22:0 23:255 24:255 25:1 26:0 27:0 28:0 29:0 30:0 31:0.01 32:0.01 
0.015765360659397959 0:0 1:1 2:0 3:0 4:0 5:1 6:0 7:1 8:310 9:9544 10:1 11:0 12:0 13:0 14:3 15:10 16:0 17:0 18:0 19:0 20:1 21:0 22:0.3 23:19 24:254 25:1 26:0 27:0.05 28:0.03 29:0 30:0 31:0 32:0.01 
0.0047054888376248452 0:0 1:1 2:0 3:0 4:0 5:1 6:0 7:1 8:257 9:398 10:1 11:0 12:0 13:0 14:6 15:13 16:0 17:0 18:0 19:0 20:1 21:0 22:0.15 23:76 24:255 25:1 26:0 27:0.01 28:0.03 29:0.01 30:0.01 31:0 32:0.01 
0.017505364374725888 0:0 1:1 2:0 3:0 4:0 5:1 6:0 7:1 8:159 9:9492 10:1 11:0 12:0 13:0 14:2 15:2 16:0 17:0 18:0 19:0 20:1 21:0 22:0 23:9 24:255 25:1 26:0 27:0.11 28:0.01 29:0 30:0 31:0.11 32:0.01 
0.019193903913274694 0:0 1:1 2:0 3:0 4:0 5:1 6:1 7:0 8:267 9:0 10:1 11:0 12:0 13:0 14:1 15:1 16:1 17:1 18:0 19:0 20:1 21:0 22:0 23:86 24:159 25:1 26:0 27:0.01 28:0.05 29:0.01 30:0.01 31:0 32:0.01 
0.019930223028339279 0:0 1:1 2:0 3:0 4:0 5:1 6:0 7:1 8:194 9:5356 10:1 11:0 12:0 13:0 14:15 15:15 16:0 17:0 18:0 19:0 20:1 21:0 22:0 23:183 24:255 25:1 26:0 27:0.01 28:0.03 29:0 30:0 31:0.01 32:0.01 
0.010039800149335492 0:0 1:1 2:0 3:0 4:0 5:1 6:0 7:1 8:281 9:1954 10:1 11:0 12:0 13:0 14:2 15:2 16:0 17:0 18:0 19:0 20:1 21:0 22:0 23:76 24:255 25:1 26:0 27:0.01 28:0.05 29:0 30:0 31:0.01 32:0.01 
0.020100525986057622 0:0 1:1 2:0 3:0 4:0 5:1 6:0 7:1 8:318 9:24495 10:1 11:0 12:0 13:0 14:48 15:59 16:0 17:0 18:0 19:0 20:1 21:0 22:0.08 23:255 24:255 25:1 26:0 27:0 28:0 29:0 30:0 31:0.01 32:0.01 
0.020112548508085543 0:0 1:1 2:0 3:0 4:0 5:1 6:0 7:1 8:206 9:66067 10:1 11:0 12:0 13:0 14:5 15:5 16:0 17:0 18:0 19:0 20:1 21:0 22:0 23:5 24:255 25:1 26:0 27:0.2 28:0.04 29:0 30:0 31:0 32:0.01 
0.010080911971954397 0:0 1:1 2:0 3:0 4:0 5:1 6:0 7:1 8:230 9:514 10:1 11:0 12:0 13:0 14:11 15:11 16:0 17:0 18:0 19:0 20:1 21:0 22:0 23:52 24:76 25:1 26:0 27:0.02 28:0.07 29:0 30:0 31:0 32:0.01 
0.0019906539945207576 0:0 1:1 2:0 3:0 4:0 5:1 6:0 7:1 8:194 9:312 10:1 11:0 12:0 13:0 14:4 15:6 16:0 17:0 18:0 19:0 20:1 21:0 22:0.5 23:32 24:255 25:1 26:0 27:0.03 28:0.02 29:0 30:0 31:0 32:0.01 
0.020106512540978391 0:0 1:1 2:0 3:0 4:0 5:1 6:0 7:1 8:243 9:9284 10:1 11:0 12:0 13:0 14:14 15:16 16:0 17:0 18:0 19:0 20:1 21:0 22:0.19 23:255 24:255 25:1 26:0 27:0 28:0 29:0 30:0 31:0.01 32:0.01 
0.0070731011125760015 0:0 1:1 2:0 3:0 4:0 5:1 6:0 7:1 8:198 9:889 10:1 11:0 12:0 13:0 14:8 15:26 16:0 17:0 18:0 19:0 20:1 21:0 22:0.12 23:8 24:234 25:1 26:0 27:0.12 28:0.02 29:0 30:0 31:0 32:0.01 
0.0072119308399883819 0:0 1:1 2:0 3:0 4:0 5:1 6:0 7:1 8:223 9:488 10:1 11:0 12:0 13:0 14:12 15:15 16:0.08 17:0.13 18:0 19:0 20:1 21:0 22:0.13 23:66 24:255 25:1 26:0 27:0.02 28:0.03 29:0.02 30:0.01 31:0 32:0.01 
0.0074075717536570395 0:0 1:1 2:0 3:0 4:0 5:1 6:0 7:1 8:265 9:2747 10:1 11:0 12:0 13:0 14:14 15:14 16:0 17:0 18:0 19:0 20:1 21:0 22:0 23:72 24:255 25:1 26:0 27:0.01 28:0.03 29:0.01 30:0.01 31:0.01 32:0.01 
0.0033964494682358903 0:0 1:1 2:0 3:0 4:0 5:1 6:0 7:1 8:258 9:446 10:1 11:0 12:0 13:0 14:1 15:2 16:0 17:0 18:0 19:0 20:1 21:0 22:1 23:9 24:255 25:1 26:0 27:0.11 28:0.02 29:0 30:0 31:0 32:0.01 
0.011300126778157027 0:0 1:1 2:0 3:0 4:0 5:1 6:0 7:1 8:224 9:2584 10:1 11:0 12:0 13:0 14:2 15:2 16:0 17:0 18:0 19:0 20:1 21:0 22:0 23:65 24:255 25:1 26:0 27:0.02 28:0.03 29:0 30:0 31:0 32:0.01 
0.0014061224776124714 0:0 1:1 2:0 3:0 4:0 5:1 6:0 7:1 8:227 9:456 10:1 11:0 12:0 13:0 14:5 15:5 16:0 17:0 18:0 19:0 20:1 21:0 22:0 23:149 24:255 25:1 26:0 27:0.01 28:0.05 29:0 30:0 31:0.01 32:0.01 
0.002123890336216737 0:0 1:1 2:0 3:0 4:0 5:1 6:0 7:1 8:207 9:1675 10:1 11:0 12:0 13:0 14:8 15:8 16:0 17:0 18:0 19:0 20:1 21:0 22:0 23:21 24:255 25:1 26:0 27:0.05 28:0.03 29:0 30:0 31:0 32:0.01 
0.0043849311628358176 0:0 1:1 2:0 3:0 4:0 5:1 6:0 7:1 8:337 9:361 10:1 11:0 12:0 13:0 14:15 15:15 16:0 17:0 18:0 19:0 20:1 21:0 22:0 23:203 24:255 25:1 26:0 27:0 28:0.01 29:0 30:0 31:0 32:0.01 
0.018143811810505193 0:0 1:1 2:0 3:0 4:0 5:1 6:0 7:1 8:380 9:1973 10:1 11:0 12:0 13:0 14:33 15:33 16:0 17:0 18:0 19:0 20:1 21:0 22:0 23:255 24:255 25:1 26:0 27:0.01 28:0 29:0 30:0 31:0.01 32:0.01 
0.013062622715555723 0:0 1:1 2:0 3:0 4:1 5:0 6:0 7:1 8:1435 9:328 10:1 11:0 12:0 13:0 14:1 15:21 16:0 17:0.95 18:0 19:0 20:1 21:0 22:0.1 23:30 24:154 25:0.93 26:0.1 27:0.03 28:0.02 29:0.03 30:0.03 31:0 32:0.01 
0.01012918452930452 0:0 1:1 2:0 3:0 4:0 5:1 6:0 7:1 8:365 9:468 10:1 11:0 12:0 13:0 14:4 15:4 16:0 17:0 18:0 19:0 20:1 21:0 22:0 23:255 24:255 25:1 26:0 27:0 28:0 29:0 30:0 31:0.01 32:0.01 
0.018309399809099822 0:0 1:1 2:0 3:0 4:0 5:1 6:0 7:1 8:222 9:3423 10:1 11:0 12:0 13:0 14:3 15:4 16:0 17:0 18:0 19:0 20:1 21:0 22:0.5 23:165 24:255 25:1 26:0 27:0.01 28:0.04 29:0.01 30:0.01 31:0 32:0.01 
0.018311132281510059 0:0 1:1 2:0 3:0 4:0 5:1 6:0 7:1 8:265 9:14515 10:1 11:0 12:0 13:0 14:4 15:6 16:0 17:0 18:0 19:0 20:1 21:0 22:0.33 23:200 24:255 25:1 26:0 27:0 28:0.02 29:0 30:0 31:0.01 32:0.01 
0.012284502566572137 0:0 1:1 2:0 3:0 4:0 5:1 6:0 7:1 8:236 9:530 10:1 11:0 12:0 13:0 14:3 15:3 16:0 17:0 18:0 19:0 20:1 21:0 22:0 23:3 24:93 25:1 26:0 27:0.33 28:0.06 29:0 30:0.02 31:0 32:0.01 
0.017508581756621362 0:0 1:1 2:0 3:0 4:0 5:1 6:0 7:1 8:312 9:2993 10:1 11:0 12:0 13:0 14:7 15:7 16:0 17:0 18:0 19:0 20:1 21:0 22:0 23:206 24:255 25:1 26:0 27:0 28:0.02 29:0 30:0 31:0 32:0.01 
0.0050310660020716456 0:15 1:1 2:0 3:0 4:0 5:1 6:1 7:0 8:267 9:0 10:1 11:0 12:0 13:0 14:1 15:2 16:1 17:0.5 18:0 19:0 20:1 21:0 22:1 23:14 24:255 25:1 26:0 27:0.07 28:0.06 29:0.07 30:0.01 31:0 32:0.01 
0.012972147443951866 0:0 1:1 2:0 3:0 4:0 5:1 6:0 7:1 8:382 9:400 10:1 11:0 12:0 13:0 14:22 15:22 16:0 17:0 18:0 19:0 20:1 21:0 22:0 23:255 24:255 25:1 26:0 27:0 28:0 29:0 30:0 31:0.01 32:0.01 
0.0096147638191355373 0:0 1:1 2:0 3:0 4:0 5:1 6:0 7:1 8:259 9:3494 10:1 11:0 12:0 13:0 14:1 15:1 16:0 17:0 18:0 19:0 20:1 21:0 22:0 23:79 24:255 25:1 26:0 27:0.01 28:0.02 29:0 30:0 31:0 32:0.01 
0.020568776151519003 0:0 1:1 2:0 3:0 4:0 5:1 6:0 7:1 8:301 9:38684 10:1 11:0 12:0 13:0 14:4 15:4 16:0 17:0 18:0 19:0 20:1 21:0 22:0 23:26 24:255 25:1 26:0 27:0.04 28:0.04 29:0 30:0 31:0 32:0.01 
0.0125202208654282 0:3 1:1 2:0 3:0 4:1 5:0 6:0 7:1 8:1027 9:326 10:1 11:0 12:0 13:0 14:1 15:1 16:0 17:0 18:0 19:0 20:1 21:0 22:0 23:35 24:167 25:0.94 26:0.09 27:0.03 28:0.02 29:0 30:0 31:0 32:0.01 
0.019786572582912824 0:25 1:1 2:0 3:0 4:1 5:0 6:0 7:1 8:331 9:1063 10:1 11:0 12:0 13:0 14:1 15:1 16:0 17:0 18:0 19:0 20:1 21:0 22:0 23:252 24:67 25:0.27 26:0.28 27:0 28:0 29:0 30:0 31:0.26 32:0.01 
0.007317430453365947 0:0 1:1 2:0 3:0 4:0 5:1 6:0 7:1 8:159 9:217 10:1 11:0 12:0 13:0 14:1 15:1 16:0 17:0 18:0 19:0 20:1 21:0 22:0 23:8 24:255 25:1 26:0 27:0.12 28:0.04 29:0 30:0 31:0 32:0.01 
0.019235709124231101 0:0 1:1 2:0 3:0 4:0 5:1 6:0 7:1 8:300 9:16944 10:1 11:0 12:0 13:0 14:3 15:33 16:0 17:0 18:0 19:0 20:1 21:0 22:0.06 23:22 24:227 25:1 26:0 27:0.05 28:0.01 29:0 30:0.01 31:0 32:0.01 
0.017648183921104135 0:0 1:1 2:0 3:0 4:0 5:1 6:0 7:1 8:287 9:9006 10:1 11:0 12:0 13:0 14:1 15:2 16:0 17:0 18:0 19:0 20:1 21:0 22:1 23:118 24:255 25:1 26:0 27:0.01 28:0.01 29:0.02 30:0.01 31:0.03 32:0.01 
0.014608044554598999 0:0 1:1 2:0 3:0 4:0 5:1 6:0 7:1 8:334 9:916 10:1 11:0 12:0 13:0 14:14 15:14 16:0 17:0 18:0 19:0 20:1 21:0 22:0 23:172 24:255 25:1 26:0 27:0.01 28:0.02 29:0 30:0 31:0 32:0.01 
0.013633590875631216 0:1 1:1 2:0 3:0 4:1 5:0 6:0 7:1 8:790 9:334 10:1 11:0 12:0 13:0 14:2 15:3 16:0 17:0 18:0 19:0 20:1 21:0 22:0.67 23:9 24:166 25:0.78 26:0.22 27:0.11 28:0.02 29:0 30:0.02 31:0 32:0.01 
0.0017409079687785139 0:0 1:1 2:0 3:0 4:0 5:1 6:0 7:1 8:226 9:648 10:1 11:0 12:0 13:0 14:17 15:17 16:0 17:0 18:0 19:0 20:1 21:0 22:0 23:78 24:255 25:1 26:0 27:0.01 28:0.01 29:0 30:0 31:0.01 32:0.01 
0.0094701568559566133 0:30 1:1 2:0 3:0 4:0 5:1 6:0 7:1 8:241 9:174 10:1 11:0 12:0 13:0 14:17 15:19 16:0 17:0 18:0 19:0 20:1 21:0 22:0.11 23:118 24:255 25:1 26:0 27:0.01 28:0.02 29:0 30:0 31:0.03 32:0.01 
0.014929192703108628 0:0 1:1 2:0 3:0 4:0 5:1 6:0 7:1 8:181 9:1917 10:1 11:0 12:0 13:0 14:2 15:2 16:0 17:0 18:0 19:0 20:1 21:0 22:0 23:13 24:255 25:1 26:0 27:0.08 28:0.03 29:0 30:0 31:0 32:0.01 
0.015209469745778123 0:0 1:1 2:0 3:0 4:0 5:1 6:0 7:1 8:246 9:5480 10:1 11:0 12:0 13:0 14:4 15:9 16:0 17:0.11 18:0 19:0 20:1 21:0 22:0.22 23:115 24:255 25:1 26:0 27:0.01 28:0.02 29:0 30:0 31:0.01 32:0.01 
0.015004103093513839 0:0 1:1 2:0 3:0 4:0 5:1 6:0 7:1 8:280 9:18884 10:1 11:0 12:0 13:0 14:7 15:7 16:0 17:0 18:0 19:0 20:1 21:0 22:0 23:49 24:254 25:1 26:0 27:0.02 28:0.01 29:0 30:0.01 31:0.02 32:0.01 
0.019891063655497442 0:10 1:1 2:0 3:0 4:1 5:0 6:0 7:1 8:2709 9:328 10:1 11:0 12:0 13:0 14:1 15:1 16:0 17:0 18:0 19:0 20:1 21:0 22:0 23:255 24:165 25:0.65 26:0.03 27:0 28:0 29:0 30:0 31:0.01 32:0.01 
0.0088715477724266405 0:0 1:1 2:0 3:0 4:0 5:1 6:0 7:1 8:225 9:255 10:1 11:0 12:0 13:0 14:9 15:12 16:0 17:0 18:0 19:0 20:1 21:0 22:0.25 23:198 24:255 25:1 26:0 27:0.01 28:0.01 29:0 30:0 31:0.02 32:0.01 
0.020081317675506867 0:0 1:1 2:0 3:0 4:0 5:1 6:0 7:1 8:184 9:7959 10:1 11:0 12:0 13:0 14:1 15:1 16:0 17:0 18:0 19:0 20:1 21:0 22:0 23:169 24:169 25:1 26:0 27:0.01 28:0 29:0.01 30:0.01 31:0.01 32:0.01 
0.0090495547753960993 0:0 1:1 2:0 3:0 4:0 5:1 6:0 7:1 8:297 9:1159 10:1 11:0 12:0 13:0 14:1 15:1 16:0 17:0 18:0 19:0 20:1 21:0 22:0 23:18 24:255 25:1 26:0 27:0.06 28:0.03 29:0 30:0.01 31:0 32:0.01 
0.0043343284013751694 0:0 1:1 2:0 3:0 4:0 5:1 6:0 7:1 8:220 9:3010 10:1 11:0 12:0 13:0 14:7 15:29 16:0 17:0 18:0 19:0 20:1 21:0 22:0.14 23:34 24:255 25:1 26:0 27:0.03 28:0.01 29:0 30:0 31:0.06 32:0.01 
0.012450290193421372 0:0 1:1 2:0 3:0 4:0 5:1 6:0 7:1 8:314 9:815 10:1 11:0 12:0 13:0 14:2 15:2 16:0 17:0 18:0 19:0 20:1 21:0 22:0 23:17 24:255 25:1 26:0 27:0.06 28:0.03 29:0 30:0 31:0 32:0.01 
0.013424023140808823 0:0 1:1 2:0 3:0 4:0 5:1 6:0 7:1 8:161 9:4521 10:1 11:0 12:0 13:0 14:2 15:6 16:0 17:0.33 18:0 19:0 20:1 21:0 22:0.5 23:12 24:255 25:1 26:0 27:0.08 28:0.08 29:0 30:0 31:0 32:0.01 
0.0045561482278774117 0:0 1:1 2:0 3:0 4:0 5:1 6:0 7:1 8:334 9:2879 10:1 11:0 12:0 13:0 14:9 15:9 16:0 17:0 18:0 19:0 20:1 21:0 22:0 23:9 24:255 25:1 26:0 27:0.11 28:0.02 29:0 30:0 31:0 32:0.01 
0.02012784345557516 0:0 1:1 2:0 3:0 4:0 5:1 6:0 7:1 8:205 9:14313 10:1 11:0 12:0 13:0 14:2 15:2 16:0 17:0 18:0 19:0 20:1 21:0 22:0 23:6 24:255 25:1 26:0 27:0.17 28:0.02 29:0 30:0 31:0 32:0.01 
0.019994664753956816 0:0 1:1 2:0 3:0 4:0 5:1 6:0 7:1 8:366 9:5516 10:1 11:0 12:0 13:0 14:4 15:5 16:0 17:0 18:0 19:0 20:1 21:0 22:0.4 23:255 24:255 25:1 26:0 27:0 28:0 29:0 30:0 31:0.01 32:0.01 
0.0035672271854903358 0:0 1:1 2:0 3:0 4:0 5:1 6:0 7:1 8:331 9:241 10:1 11:0 12:0 13:0 14:2 15:5 16:0 17:0 18:0 19:0 20:1 21:0 22:0.4 23:2 24:255 25:1 26:0 27:0.5 28:0.05 29:0 30:0.01 31:0 32:0.01 
0.016742593720875089 0:0 1:1 2:0 3:0 4:0 5:1 6:0 7:1 8:193 9:1565 10:1 11:0 12:0 13:0 14:1 15:1 16:0 17:0 18:0 19:0 20:1 21:0 22:0 23:183 24:183 25:1 26:0 27:0.01 28:0 29:0.01 30:0.01 31:0.01 32:0.01 
0.015526895915303592 0:0 1:1 2:0 3:0 4:0 5:1 6:0 7:1 8:250 9:7383 10:1 11:0 12:0 13:0 14:21 15:23 16:0 17:0 18:0 19:0 20:1 21:0 22:0.09 23:140 24:255 25:1 26:0 27:0.01 28:0.02 29:0 30:0 31:0.02 32:0.01 
0.019541856537354213 0:0 1:1 2:0 3:0 4:0 5:1 6:0 7:1 8:230 9:843 10:1 11:0 12:0 13:0 14:20 15:21 16:0 17:0 18:0 19:0 20:1 21:0 22:0.1 23:61 24:85 25:1 26:0 27:0.02 28:0.06 29:0 30:0 31:0 32:0.01 
0.004374910856371466 0:0 1:1 2:0 3:0 4:0 5:1 6:0 7:1 8:303 9:748 10:1 11:0 12:0 13:0 14:8 15:10 16:0 17:0 18:0.12 19:0.1 20:1 21:0 22:0.3 23:255 24:255 25:1 26:0 27:0 28:0 29:0 30:0 31:0.01 32:0.01 
0.018334161797134693 0:0 1:1 2:0 3:0 4:0 5:1 6:0 7:1 8:197 9:14468 10:1 11:0 12:0 13:0 14:15 15:16 16:0 17:0 18:0 19:0 20:1 21:0 22:0.12 23:246 24:255 25:1 26:0 27:0 28:0.01 29:0 30:0 31:0.01 32:0.01 
0.020123558738413351 0:0 1:1 2:0 3:0 4:0 5:1 6:0 7:1 8:290 9:28271 10:1 11:0 12:0 13:0 14:1 15:7 16:0 17:0 18:0 19:0 20:1 21:0 22:0.57 23:76 24:255 25:1 26:0 27:0.01 28:0.02 29:0 30:0 31:0.01 32:0.01 
0.011054300206069309 0:0 1:1 2:0 3:0 4:0 5:1 6:0 7:1 8:200 9:6927 10:1 11:0 12:0 13:0 14:3 15:12 16:0 17:0 18:0 19:0 20:1 21:0 22:0.25 23:255 24:255 25:1 26:0 27:0 28:0 29:0 30:0 31:0.01 32:0.01 
0.010196237899209832 0:0 1:1 2:0 3:0 4:0 5:1 6:0 7:1 8:247 9:17739 10:1 11:0 12:0 13:0 14:16 15:17 16:0 17:0 18:0 19:0 20:1 21:0 22:0.12 23:81 24:255 25:1 26:0 27:0.01 28:0.05 29:0 30:0 31:0 32:0.01 
0.01805193253382131 0:0 1:1 2:0 3:0 4:0 5:1 6:0 7:1 8:366 9:1861 10:1 11:0 12:0 13:0 14:5 15:13 16:0 17:0 18:0 19:0 20:1 21:0 22:0.23 23:255 24:255 25:1 26:0 27:0 28:0 29:0 30:0 31:0.01 32:0.01 
0.020148481467669378 0:0 1:1 2:0 3:0 4:0 5:1 6:0 7:1 8:332 9:7273 10:1 11:0 12:0 13:0 14:2 15:2 16:0 17:0 18:0 19:0 20:1 21:0 22:0 23:3 24:186 25:1 26:0 27:0.33 28:0.06 29:0 30:0.01 31:0 32:0.01 
0.020116358472779011 0:0 1:1 2:0 3:0 4:0 5:1 6:0 7:1 8:282 9:21896 10:1 11:0 12:0 13:0 14:6 15:6 16:0 17:0 18:0 19:0 20:1 21:0 22:0 23:134 24:255 25:1 26:0 27:0.01 28:0.05 29:0 30:0 31:0.01 32:0.01 
0.011934864957979498 0:0 1:1 2:0 3:0 4:0 5:1 6:0 7:1 8:334 9:570 10:1 11:0 12:0 13:0 14:12 15:35 16:0 17:0 18:0 19:0.03 20:1 21:0 22:0.09 23:92 24:255 25:1 26:0 27:0.01 28:0.02 29:0 30:0 31:0 32:0.01 
0.007537425450780991 0:0 1:1 2:0 3:0 4:0 5:1 6:0 7:1 8:195 9:679 10:1 11:0 12:0 13:0 14:2 15:2 16:0 17:0 18:0 19:0 20:1 21:0 22:0 23:54 24:255 25:1 26:0 27:0.02 28:0.07 29:0 30:0.01 31:0.02 32:0.01 
0.014446162486497577 0:0 1:1 2:0 3:0 4:0 5:1 6:0 7:1 8:305 9:1075 10:1 11:0 12:0 13:0 14:6 15:6 16:0 17:0 18:0 19:0 20:1 21:0 22:0 23:255 24:238 25:0.93 26:0.01 27:0 28:0 29:0 30:0 31:0.02 32:0.01 
0.0063653000699546037 0:0 1:1 2:0 3:0 4:0 5:1 6:0 7:1 8:238 9:396 10:1 11:0 12:0 13:0 14:17 15:22 16:0 17:0 18:0 19:0 20:1 21:0 22:0.14 23:194 24:255 25:1 26:0 27:0.01 28:0.04 29:0 30:0 31:0.02 32:0.01 
0.0096775038141885383 0:0 1:1 2:0 3:0 4:0 5:1 6:0 7:1 8:223 9:4712 10:1 11:0 12:0 13:0 14:11 15:12 16:0 17:0 18:0 19:0 20:1 21:0 22:0.17 23:96 24:255 25:1 26:0 27:0.01 28:0.02 29:0 30:0 31:0.03 32:0.01 
0.0093026414300518452 0:0 1:1 2:0 3:0 4:0 5:1 6:0 7:1 8:322 9:1721 10:1 11:0 12:0 13:0 14:8 15:10 16:0 17:0 18:0 19:0 20:1 21:0 22:0.3 23:255 24:255 25:1 26:0 27:0 28:0 29:0 30:0 31:0.01 32:0.01 
0.00099288400853509416 0:0 1:1 2:0 3:0 4:0 5:1 6:0 7:1 8:223 9:685 10:1 11:0 12:0 13:0 14:3 15:3 16:0 17:0 18:0 19:0 20:1 21:0 22:0 23:128 24:255 25:1 26:0 27:0.01 28:0.03 29:0 30:0 31:0 32:0.01 
0.019882200031160754 0:4 1:1 2:0 3:0 4:1 5:0 6:0 7:1 8:2857 9:330 10:1 11:0 12:0 13:0 14:1 15:1 16:0 17:0 18:0 19:0 20:1 21:0 22:0 23:125 24:199 25:0.82 26:0.03 27:0.01 28:0.02 29:0 30:0 31:0 32:0.01 
0.018214344811542767 0:0 1:1 2:0 3:0 4:0 5:1 6:0 7:1 8:200 9:2276 10:1 11:0 12:0 13:0 14:17 15:17 16:0 17:0 18:0 19:0 20:1 21:0 22:0 23:255 24:255 25:1 26:0 27:0 28:0 29:0 30:0 31:0.01 32:0.01 
0.0043157104885524575 0:0 1:1 2:0 3:0 4:0 5:1 6:0 7:1 8:308 9:302 10:1 11:0 12:0 13:0 14:1 15:1 16:0 17:0 18:0 19:0 20:1 21:0 22:0 23:48 24:255 25:1 26:0 27:0.02 28:0.05 29:0 30:0 31:0 32:0.01 
0.019563965935252739 0:0 1:1 2:0 3:0 4:0 5:1 6:0 7:1 8:426 9:526 10:1 11:0 12:0 13:0 14:1 15:1 16:0 17:0 18:0 19:0 20:1 21:0 22:0 23:21 24:255 25:1 26:0 27:0.05 28:0.06 29:0.05 30:0.01 31:0 32:0.01 
