svm_type one_class
kernel_type rbf
gamma 0.00029999999999999997
nr_class 2
total_sv 1178
rho 0.022264179489474314
SV
0.015464113959254441 0:0 1:1 2:0 3:0 4:0 5:1 6:0 7:1 8:227 9:6588 10:1 11:0 12:0 13:0 14:5 15:22 16:0 17:0 18:0 19:0 20:1 21:0 22:0.18 23:43 24:255 25:1 26:0 27:0.02 28:0.14 29:0 30:0 31:0.56 32:0.57 
0.015750038735843429 0:0 1:1 2:0 3:0 4:0 5:1 6:0 7:1 8:247 9:1416 10:1 11:0 12:0 13:0 14:11 15:11 16:0 17:0 18:0 19:0 20:1 21:0 22:0 23:156 24:255 25:1 26:0 27:0.01 28:0.09 29:0 30:0 31:0.46 32:0.61 
0.019923536293028843 0:0 1:1 2:0 3:0 4:0 5:1 6:0 7:1 8:347 9:8113 10:1 11:0 12:0 13:0 14:7 15:7 16:0 17:0 18:0 19:0 20:1 21:0 22:0 23:255 24:255 25:1 26:0 27:0 28:0 29:0.01 30:0.01 31:0.02 32:0.02 
0.014531560326025804 0:0 1:1 2:0 3:0 4:0 5:1 6:0 7:1 8:216 9:5284 10:1 11:0 12:0 13:0 14:9 15:9 16:0 17:0 18:0 19:0 20:1 21:0 22:0 23:123 24:255 25:1 26:0 27:0.01 28:0.02 29:0 30:0 31:0.44 32:0.29 
0.011232216223919194 0:0 1:1 2:0 3:0 4:0 5:1 6:0 7:1 8:335 9:1212 10:1 11:0 12:0 13:0 14:3 15:3 16:0 17:0 18:0 19:0 20:1 21:0 22:0 23:7 24:255 25:1 26:0 27:0.14 28:0.21 29:0 30:0.01 31:0.43 32:0.96 
0.022303639815578521 0:0 1:1 2:0 3:0 4:0 5:1 6:0 7:1 8:324 9:10647 10:1 11:0 12:0 13:0 14:2 15:2 16:0 17:0 18:0 19:0 20:1 21:0 22:0 23:11 24:14 25:1 26:0 27:0.09 28:0.14 29:0 30:0.14 31:0 32:0.07 
0.017219257994759811 0:0 1:1 2:0 3:0 4:0 5:1 6:0 7:1 8:237 9:5193 10:1 11:0 12:0 13:0 14:1 15:48 16:0 17:0 18:0 19:0 20:1 21:0 22:0.06 23:1 24:216 25:1 26:0 27:1 28:0.01 29:0 30:0 31:0 32:0.2 
0.0013602579114951113 0:5 1:1 2:0 3:0 4:1 5:0 6:0 7:1 8:722 9:334 10:1 11:0 12:0 13:0 14:1 15:1 16:0 17:0 18:0 19:0 20:1 21:0 22:0 23:137 24:116 25:0.47 26:0.03 27:0.01 28:0.02 29:0 30:0 31:0.03 32:0.04 
0.0093829034776030176 0:0 1:1 2:0 3:0 4:0 5:1 6:0 7:1 8:269 9:8921 10:1 11:0 12:0 13:0 14:2 15:2 16:0 17:0 18:0 19:0 20:1 21:0 22:0 23:104 24:255 25:1 26:0 27:0.01 28:0.03 29:0 30:0.01 31:0.01 32:0.03 
0.014992588435046689 0:0 1:1 2:0 3:0 4:0 5:1 6:0 7:1 8:235 9:12623 10:1 11:0 12:0 13:0 14:4 15:4 16:0 17:0 18:0 19:0 20:1 21:0 22:0 23:28 24:255 25:1 26:0 27:0.04 28:0.04 29:0 30:0 31:0.46 32:0.06 
0.01812364832837619 0:6 1:1 2:0 3:0 4:1 5:0 6:0 7:1 8:2597 9:331 10:1 11:0 12:0 13:0 14:1 15:4 16:0 17:0 18:0 19:0 20:1 21:0 22:1 23:59 24:163 25:0.56 26:0.22 27:0.02 28:0.01 29:0.02 30:0 31:0 32:0.05 
0.001810020595545545 0:0 1:1 2:0 3:0 4:0 5:1 6:0 7:1 8:229 9:682 10:1 11:0 12:0 13:0 14:7 15:12 16:0 17:0 18:0 19:0 20:1 21:0 22:0.17 23:253 24:255 25:1 26:0 27:0 28:0.01 29:0 30:0 31:0.14 32:0.15 
0.0090222171419354243 0:0 1:1 2:0 3:0 4:1 5:0 6:0 7:1 8:1193 9:333 10:1 11:0 12:0 13:0 14:1 15:1 16:0 17:0 18:0 19:0 20:1 21:0 22:0 23:37 24:39 25:0.97 26:0.05 27:0.03 28:0.05 29:0 30:0 31:0.05 32:0.05 
0.017628858192559948 0:0 1:1 2:0 3:0 4:0 5:1 6:0 7:1 8:224 9:4114 10:1 11:0 12:0 13:0 14:4 15:4 16:0 17:0 18:0 19:0 20:1 21:0 22:0 23:208 24:255 25:1 26:0 27:0 28:0.01 29:0 30:0 31:0.04 32:0.04 
0.0039559837436131647 0:26 1:1 2:0 3:0 4:1 5:0 6:0 7:1 8:343 9:1063 10:1 11:0 12:0 13:0 14:1 15:1 16:0 17:0 18:0 19:0 20:1 21:0 22:0 23:97 24:25 25:0.26 26:0.05 27:0.01 28:0 29:0 30:0 31:0.01 32:0.04 
0.017603748848396654 0:0 1:1 2:0 3:0 4:0 5:1 6:0 7:1 8:227 9:2507 10:1 11:0 12:0 13:0 14:4 15:4 16:0 17:0 18:0 19:0 20:1 21:0 22:0 23:255 24:242 25:0.95 26:0.02 27:0 28:0 29:0 30:0 31:0.04 32:0.05 
0.017740960668034531 0:0 1:1 2:0 3:0 4:0 5:1 6:0 7:1 8:312 9:3966 10:1 11:0 12:0 13:0 14:12 15:15 16:0 17:0 18:0 19:0 20:1 21:0 22:0.13 23:152 24:255 25:1 26:0 27:0.01 28:0.04 29:0.01 30:0.01 31:0 32:0.02 
0.020600411111234045 0:252 1:1 2:0 3:0 4:0 5:1 6:0 7:1 8:222 9:238 10:1 11:0 12:0 13:0 14:1 15:1 16:0 17:0 18:0 19:0 20:1 21:0 22:0 23:79 24:255 25:1 26:0 27:0.01 28:0.07 29:0 30:0 31:0.03 32:0.02 
0.0079532543630737897 0:0 1:1 2:0 3:0 4:0 5:1 6:0 7:1 8:245 9:776 10:1 11:0 12:0 13:0 14:30 15:31 16:0 17:0 18:0 19:0 20:1 21:0 22:0.06 23:42 24:255 25:1 26:0 27:0.02 28:0.02 29:0 30:0 31:0 32:0.02 
0.013450799714792926 0:0 1:1 2:0 3:0 4:0 5:1 6:0 7:1 8:210 9:1295 10:1 11:0 12:0 13:0 14:3 15:16 16:0 17:0 18:0 19:0 20:1 21:0 22:0.19 23:34 24:218 25:1 26:0 27:0.03 28:0.02 29:0.03 30:0.01 31:0.38 32:0.27 
0.019955955096996714 0:0 1:1 2:0 3:0 4:0 5:1 6:0 7:1 8:216 9:3085 10:1 11:0 12:0 13:0 14:9 15:9 16:0 17:0 18:0 19:0 20:1 21:0 22:0 23:63 24:255 25:1 26:0 27:0.02 28:0.05 29:0 30:0 31:0.86 32:0.38 
0.0091583956004632275 0:1 1:1 2:0 3:0 4:1 5:0 6:0 7:1 8:1186 9:370 10:1 11:0 12:0 13:0 14:1 15:2 16:0 17:0 18:0 19:0 20:1 21:0 22:1 23:2 24:158 25:1 26:0 27:0.5 28:0.02 29:0 30:0 31:0 32:0.04 
0.022274734363136532 0:0 1:1 2:0 3:0 4:0 5:1 6:0 7:1 8:350 9:143 10:1 11:0 12:0 13:0 14:1 15:11 16:0 17:0 18:0 19:0 20:1 21:0 22:0.36 23:2 24:11 25:1 26:0 27:0.5 28:0.45 29:0 30:0 31:0.5 32:0.91 
0.013817676404731499 0:1 1:1 2:0 3:0 4:1 5:0 6:0 7:1 8:1561 9:330 10:1 11:0 12:0 13:0 14:2 15:2 16:0 17:0 18:0 19:0 20:1 21:0 22:0 23:166 24:118 25:0.71 26:0.03 27:0.01 28:0 29:0 30:0 31:0.03 32:0.03 
0.0086819330640629695 0:0 1:1 2:0 3:0 4:1 5:0 6:0 7:1 8:172 9:0 10:1 11:0 12:0 13:0 14:1 15:1 16:0 17:0 18:0 19:0 20:1 21:0 22:0 23:104 24:31 25:0.3 26:0.68 27:0.29 28:0 29:0 30:0 31:0.64 32:0.03 
0.01326052772866677 0:31 1:1 2:0 3:0 4:1 5:0 6:0 7:1 8:1000 9:3074 10:1 11:0 12:0 13:0 14:1 15:1 16:0 17:0 18:0 19:0 20:1 21:0 22:0 23:192 24:42 25:0.22 26:0.04 27:0.01 28:0 29:0 30:0 31:0.01 32:0.02 
0.01828581608423839 0:0 1:1 2:0 3:0 4:0 5:1 6:0 7:1 8:344 9:1451 10:1 11:0 12:0 13:0 14:10 15:10 16:0 17:0 18:0 19:0 20:1 21:0 22:0 23:255 24:255 25:1 26:0 27:0 28:0 29:0 30:0 31:0.02 32:0.02 
0.014408732101845676 0:0 1:1 2:0 3:0 4:0 5:1 6:0 7:1 8:341 9:5468 10:1 11:0 12:0 13:0 14:13 15:26 16:0 17:0.04 18:0 19:0 20:1 21:0 22:0.12 23:23 24:255 25:1 26:0 27:0.04 28:0.01 29:0 30:0 31:0 32:0.07 
0.0096939519393723986 0:0 1:1 2:0 3:0 4:0 5:1 6:0 7:1 8:254 9:2005 10:1 11:0 12:0 13:0 14:2 15:3 16:0 17:0 18:0 19:0 20:1 21:0 22:0.67 23:212 24:255 25:1 26:0 27:0 28:0.02 29:0.01 30:0.01 31:0.08 32:0.08 
0.0090249119077651582 0:0 1:1 2:0 3:0 4:0 5:1 6:0 7:1 8:224 9:1808 10:1 11:0 12:0 13:0 14:19 15:19 16:0 17:0 18:0 19:0 20:1 21:0 22:0 23:23 24:255 25:1 26:0 27:0.04 28:0.23 29:0 30:0 31:0.17 32:0.89 
0.014067756766258625 0:0 1:1 2:0 3:0 4:1 5:0 6:0 7:1 8:852 9:439 10:1 11:0 12:0 13:0 14:1 15:2 16:0 17:0 18:0 19:0 20:1 21:0 22:1 23:210 24:81 25:0.29 26:0.02 27:0 28:0.02 29:0 30:0 31:0.01 32:0.02 
0.0070751861044614246 0:0 1:1 2:0 3:0 4:0 5:1 6:0 7:1 8:321 9:313 10:1 11:0 12:0 13:0 14:35 15:35 16:0 17:0 18:0 19:0 20:1 21:0 22:0 23:142 24:253 25:1 26:0 27:0.01 28:0.06 29:0 30:0 31:0.4 32:0.52 
0.016935469858758996 0:0 1:1 2:0 3:0 4:0 5:1 6:0 7:1 8:181 9:2047 10:1 11:0 12:0 13:0 14:3 15:8 16:0 17:0 18:0 19:0 20:1 21:0 22:0.38 23:24 24:27 25:1 26:0 27:0.04 28:0.07 29:0 30:0.07 31:0 32:0.04 
0.0095367842796528907 0:0 1:1 2:0 3:0 4:1 5:0 6:0 7:1 8:245 9:0 10:1 11:0 12:0 13:0 14:2 15:2 16:0 17:0 18:0 19:0 20:1 21:0 22:0 23:83 24:59 25:0.08 26:0.86 27:0.07 28:0.03 29:0 30:0 31:0.8 32:0.02 
0.016736209117836815 0:0 1:1 2:0 3:0 4:0 5:1 6:0 7:1 8:273 9:5189 10:1 11:0 12:0 13:0 14:1 15:1 16:0 17:0 18:0 19:0 20:1 21:0 22:0 23:40 24:255 25:1 26:0 27:0.03 28:0.04 29:0.03 30:0 31:0.15 32:0.04 
0.016517608588074995 0:0 1:1 2:0 3:0 4:0 5:1 6:0 7:1 8:216 9:6979 10:1 11:0 12:0 13:0 14:13 15:13 16:0 17:0 18:0 19:0 20:1 21:0 22:0 23:255 24:255 25:1 26:0 27:0 28:0 29:0 30:0 31:0.03 32:0.03 
0.013213845873947819 0:0 1:1 2:0 3:0 4:0 5:1 6:0 7:1 8:376 9:6030 10:1 11:0 12:0 13:0 14:1 15:6 16:0 17:0 18:0 19:0 20:1 21:0 22:0.67 23:9 24:229 25:1 26:0 27:0.11 28:0.12 29:0 30:0 31:0.56 32:0.95 
0.017656509604638167 0:0 1:1 2:0 3:0 4:0 5:1 6:0 7:1 8:204 9:1769 10:1 11:0 12:0 13:0 14:40 15:45 16:0 17:0 18:0 19:0 20:1 21:0 22:0.04 23:255 24:255 25:1 26:0 27:0 28:0 29:0 30:0 31:0.05 32:0.05 
0.012049498216302443 0:0 1:1 2:0 3:0 4:0 5:1 6:0 7:1 8:292 9:2750 10:1 11:0 12:0 13:0 14:3 15:5 16:0 17:0.2 18:0 19:0 20:1 21:0 22:0.4 23:140 24:255 25:1 26:0 27:0.01 28:0.04 29:0.01 30:0.01 31:0 32:0.02 
0.022274583551610112 0:0 1:1 2:0 3:0 4:0 5:1 6:0 7:1 8:333 9:12085 10:1 11:0 12:0 13:0 14:3 15:3 16:0.33 17:0.33 18:0 19:0 20:1 21:0 22:0 23:3 24:255 25:1 26:0 27:0.33 28:0.02 29:0.33 30:0.01 31:0 32:0.03 
0.011478080271820268 0:0 1:1 2:0 3:0 4:0 5:1 6:0 7:1 8:205 9:539 10:1 11:0 12:0 13:0 14:14 15:14 16:0 17:0 18:0 19:0 20:1 21:0 22:0 23:19 24:255 25:1 26:0 27:0.05 28:0.03 29:0 30:0 31:0.21 32:0.03 
0.013645723872468044 0:0 1:1 2:0 3:0 4:1 5:0 6:0 7:1 8:796 9:333 10:1 11:0 12:0 13:0 14:1 15:2 16:0 17:0 18:0 19:0 20:1 21:0 22:1 23:152 24:222 25:0.88 26:0.03 27:0.01 28:0.01 29:0 30:0 31:0.01 32:0.03 
0.021886570824393319 0:0 1:1 2:0 3:0 4:0 5:1 6:0 7:1 8:324 9:1668 10:1 11:0 12:0 13:0 14:1 15:1 16:0 17:0 18:0 19:0 20:1 21:0 22:0 23:10 24:13 25:1 26:0 27:0.1 28:0.15 29:0 30:0.15 31:0 32:0.08 
0.010240946041557786 0:0 1:1 2:0 3:0 4:0 5:1 6:0 7:1 8:314 9:1108 10:1 11:0 12:0 13:0 14:4 15:4 16:0 17:0 18:0 19:0 20:1 21:0 22:0 23:25 24:255 25:1 26:0 27:0.04 28:0.15 29:0 30:0 31:0.84 32:0.88 
0.022214410487889198 0:244 1:1 2:0 3:0 4:1 5:0 6:0 7:1 8:215 9:6074 10:1 11:0 12:0 13:0 14:1 15:1 16:0 17:0 18:0 19:0 20:1 21:0 22:0 23:124 24:28 25:0.23 26:0.04 27:0.01 28:0 29:0 30:0 31:0.02 32:0.07 
0.018034268098140706 0:0 1:1 2:0 3:0 4:0 5:1 6:0 7:1 8:196 9:5299 10:1 11:0 12:0 13:0 14:13 15:13 16:0 17:0 18:0 19:0 20:1 21:0 22:0 23:14 24:255 25:1 26:0 27:0.07 28:0.07 29:0 30:0 31:0.07 32:0.47 
0.0015885973102213488 0:0 1:1 2:0 3:0 4:0 5:1 6:0 7:1 8:279 9:255 10:1 11:0 12:0 13:0 14:1 15:1 16:0 17:0 18:0 19:0 20:1 21:0 22:0 23:107 24:255 25:1 26:0 27:0.01 28:0.05 29:0 30:0 31:0.23 32:0.65 
0.014994961676056283 0:0 1:1 2:0 3:0 4:0 5:1 6:0 7:1 8:209 9:1965 10:1 11:0 12:0 13:0 14:30 15:30 16:0 17:0 18:0 19:0 20:1 21:0 22:0 23:255 24:255 25:1 26:0 27:0 28:0 29:0 30:0 31:0.32 32:0.32 
0.018301347322087304 0:0 1:1 2:0 3:0 4:0 5:1 6:0 7:1 8:370 9:414 10:1 11:0 12:0 13:0 14:4 15:5 16:0 17:0 18:0 19:0 20:1 21:0 22:0.4 23:6 24:173 25:1 26:0 27:0.17 28:0.22 29:0 30:0 31:0.33 32:0.94 
0.021664397806322143 0:0 1:1 2:0 3:0 4:0 5:1 6:0 7:1 8:332 9:12282 10:1 11:0 12:0 13:0 14:7 15:7 16:0 17:0 18:0 19:0 20:1 21:0 22:0 23:14 24:227 25:1 26:0 27:0.07 28:0.11 29:0 30:0 31:0.07 32:0.66 
0.02217297371227752 0:0 1:1 2:0 3:0 4:0 5:1 6:0 7:1 8:164 9:8083 10:1 11:0 12:0 13:0 14:7 15:7 16:0 17:0 18:0 19:0 20:1 21:0 22:0 23:255 24:255 25:1 26:0 27:0 28:0 29:0 30:0 31:0.29 32:0.29 
0.015682724108353818 0:28 1:1 2:0 3:0 4:1 5:0 6:0 7:1 8:991 9:3081 10:1 11:0 12:0 13:0 14:1 15:1 16:0 17:0 18:0 19:0 20:1 21:0 22:0 23:255 24:47 25:0.18 26:0.02 27:0 28:0 29:0 30:0 31:0.06 32:0.13 
0.0017540018504433831 0:0 1:1 2:0 3:0 4:0 5:1 6:0 7:1 8:247 9:756 10:1 11:0 12:0 13:0 14:37 15:37 16:0 17:0 18:0 19:0 20:1 21:0 22:0 23:75 24:255 25:1 26:0 27:0.01 28:0.01 29:0 30:0 31:0.19 32:0.07 
0.018450551054132215 0:20 1:1 2:0 3:0 4:1 5:0 6:0 7:1 8:245 9:774 10:1 11:0 12:0 13:0 14:1 15:1 16:0 17:0 18:0 19:0 20:1 21:0 22:0 23:236 24:61 25:0.26 26:0.3 27:0 28:0 29:0 30:0 31:0.28 32:0.02 
0.010133837898858029 0:1 1:1 2:0 3:0 4:1 5:0 6:0 7:1 8:1132 9:331 10:1 11:0 12:0 13:0 14:1 15:1 16:0 17:0 18:0 19:0 20:1 21:0 22:0 23:64 24:206 25:0.86 26:0.06 27:0.02 28:0.01 29:0 30:0 31:0.02 32:0.05 
0.022143562573676955 0:0 1:1 2:0 3:0 4:0 5:1 6:0 7:1 8:214 9:5773 10:1 11:0 12:0 13:0 14:14 15:16 16:0 17:0 18:0 19:0 20:1 21:0 22:0.12 23:14 24:255 25:1 26:0 27:0.07 28:0.01 29:0 30:0 31:0 32:0.06 
0.018069750258980159 0:27 1:1 2:0 3:0 4:1 5:0 6:0 7:1 8:907 9:2586 10:1 11:0 12:0 13:0 14:1 15:1 16:0 17:0 18:0 19:0 20:1 21:0 22:0 23:253 24:47 25:0.19 26:0.02 27:0 28:0 29:0 30:0 31:0.05 32:0.11 
0.002179897394430445 0:21 1:1 2:0 3:0 4:1 5:0 6:0 7:1 8:231 9:769 10:1 11:0 12:0 13:0 14:1 15:1 16:0 17:0 18:0 19:0 20:1 21:0 22:0 23:106 24:15 25:0.13 26:0.67 27:0.01 28:0.13 29:0 30:0 31:0.61 32:0.13 
0.011003771836765599 0:151 1:1 2:0 3:0 4:0 5:1 6:0 7:1 8:310 9:238 10:1 11:0 12:0 13:0 14:1 15:16 16:0 17:0 18:0 19:0 20:1 21:0 22:0.12 23:90 24:255 25:1 26:0 27:0.01 28:0.07 29:0 30:0 31:0.02 32:0.02 
0.011408404867909479 0:0 1:1 2:0 3:0 4:1 5:0 6:0 7:1 8:1189 9:412 10:1 11:0 12:0 13:0 14:1 15:1 16:0 17:0 18:0 19:0 20:1 21:0 22:0 23:24 24:166 25:0.88 26:0.12 27:0.04 28:0.01 29:0 30:0 31:0.04 32:0.02 
0.012707538230146882 0:0 1:1 2:0 3:0 4:0 5:1 6:1 7:0 8:352 9:13336 10:1 11:0 12:0 13:0 14:1 15:1 16:1 17:1 18:0 19:0 20:1 21:0 22:0 23:133 24:255 25:1 26:0 27:0.01 28:0.04 29:0.01 30:0 31:0.13 32:0.08 
0.0075356069072542997 0:0 1:1 2:0 3:0 4:0 5:1 6:0 7:1 8:225 9:703 10:1 11:0 12:0 13:0 14:6 15:6 16:0 17:0 18:0 19:0 20:1 21:0 22:0 23:211 24:255 25:1 26:0 27:0 28:0.02 29:0 30:0 31:0.33 32:0.34 
0.013846415728228319 0:0 1:1 2:0 3:0 4:0 5:1 6:0 7:1 8:334 9:4158 10:1 11:0 12:0 13:0 14:4 15:4 16:0 17:0 18:0 19:0 20:1 21:0 22:0 23:188 24:255 25:1 26:0 27:0.01 28:0.02 29:0 30:0.01 31:0.02 32:0.04 
0.02221991770492425 0:10 1:1 2:0 3:0 4:1 5:0 6:0 7:1 8:11587 9:1431 10:1 11:0 12:0 13:0 14:1 15:1 16:0 17:0 18:0 19:0 20:1 21:0 22:0 23:112 24:180 25:0.7 26:0.12 27:0.01 28:0.01 29:0.01 30:0 31:0.03 32:0.04 
0.022187913887937651 0:0 1:1 2:0 3:0 4:0 5:1 6:0 7:1 8:321 9:13056 10:1 11:0 12:0 13:0 14:45 15:45 16:0 17:0 18:0 19:0 20:1 21:0 22:0 23:152 24:253 25:1 26:0 27:0.01 28:0.06 29:0 30:0 31:0.38 32:0.52 
0.013106449548704623 0:0 1:1 2:0 3:0 4:1 5:0 6:0 7:1 8:15377 9:0 10:1 11:0 12:0 13:0 14:2 15:2 16:0 17:0 18:0 19:0 20:1 21:0 22:0 23:157 24:49 25:0.17 26:0.45 27:0.17 28:0.04 29:0 30:0 31:0.42 32:0.02 
0.019269840147707447 0:0 1:1 2:0 3:0 4:0 5:1 6:1 7:0 8:243 9:21900 10:1 11:0 12:0 13:0 14:1 15:1 16:1 17:1 18:0 19:0 20:1 21:0 22:0 23:128 24:255 25:1 26:0 27:0.01 28:0.05 29:0.01 30:0 31:0.23 32:0.59 
0.01910260546886848 0:0 1:1 2:0 3:0 4:0 5:1 6:0 7:1 8:409 9:6033 10:1 11:0 12:0 13:0 14:13 15:13 16:0 17:0 18:0 19:0 20:1 21:0 22:0 23:139 24:247 25:1 26:0 27:0.01 28:0.12 29:0 30:0 31:0.09 32:0.49 
0.0020160423080885625 0:0 1:1 2:0 3:0 4:0 5:1 6:0 7:1 8:222 9:278 10:1 11:0 12:0 13:0 14:1 15:1 16:0 17:0 18:0 19:0 20:1 21:0 22:0 23:47 24:255 25:1 26:0 27:0.02 28:0.15 29:0 30:0 31:0.64 32:0.9 
0.010989382043868052 0:0 1:1 2:0 3:0 4:1 5:0 6:0 7:1 8:1001 9:330 10:1 11:0 12:0 13:0 14:1 15:2 16:0 17:0 18:0 19:0 20:1 21:0 22:1 23:115 24:115 25:0.43 26:0.03 27:0.01 28:0.02 29:0 30:0 31:0.03 32:0.04 
0.012989209242424636 0:0 1:1 2:0 3:0 4:0 5:1 6:0 7:1 8:203 9:1944 10:1 11:0 12:0 13:0 14:12 15:12 16:0 17:0 18:0 19:0 20:1 21:0 22:0 23:12 24:255 25:1 26:0 27:0.08 28:0.16 29:0 30:0 31:0 32:0.56 
0.017934314380883554 0:5 1:1 2:0 3:0 4:1 5:0 6:0 7:1 8:664 9:332 10:1 11:0 12:0 13:0 14:1 15:1 16:0 17:0 18:0 19:0 20:1 21:0 22:0 23:204 24:124 25:0.54 26:0.02 27:0 28:0.02 29:0 30:0 31:0.03 32:0.05 
0.022298342852035344 0:0 1:1 2:0 3:0 4:0 5:1 6:0 7:1 8:157 9:9884 10:1 11:0 12:0 13:0 14:3 15:12 16:0 17:0 18:0 19:0 20:1 21:0 22:0.25 23:21 24:255 25:1 26:0 27:0.05 28:0.06 29:0 30:0 31:0.05 32:0.06 
0.014197480766639594 0:0 1:1 2:0 3:0 4:0 5:1 6:0 7:1 8:413 9:6825 10:1 11:0 12:0 13:0 14:4 15:4 16:0 17:0 18:0 19:0 20:1 21:0 22:0 23:88 24:245 25:1 26:0 27:0.01 28:0.17 29:0 30:0 31:0.14 32:0.69 
0.011793073999854154 0:0 1:1 2:0 3:0 4:0 5:1 6:0 7:1 8:165 9:7527 10:1 11:0 12:0 13:0 14:1 15:3 16:0 17:0 18:0 19:0 20:1 21:0 22:1 23:84 24:246 25:1 26:0 27:0.01 28:0.13 29:0 30:0 31:0.32 32:0.51 
0.018744051076366251 0:0 1:1 2:0 3:0 4:0 5:1 6:0 7:1 8:308 9:553 10:1 11:0 12:0 13:0 14:2 15:2 16:0 17:0 18:0 19:0 20:1 21:0 22:0 23:32 24:35 25:1 26:0 27:0.03 28:0.06 29:0 30:0.06 31:0 32:0.03 
0.0061016723147375093 0:142 1:1 2:0 3:0 4:0 5:1 6:0 7:1 8:237 9:238 10:1 11:0 12:0 13:0 14:1 15:16 16:0 17:0 18:0 19:0 20:1 21:0 22:0.12 23:72 24:255 25:1 26:0 27:0.01 28:0.07 29:0 30:0 31:0.03 32:0.02 
0.0020213624674597338 0:23 1:1 2:0 3:0 4:1 5:0 6:0 7:1 8:295 9:903 10:1 11:0 12:0 13:0 14:1 15:1 16:0 17:0 18:0 19:0 20:1 21:0 22:0 23:146 24:27 25:0.18 26:0.05 27:0.01 28:0 29:0 30:0 31:0.01 32:0.07 
0.021955638550191656 0:2 1:1 2:0 3:0 4:1 5:0 6:0 7:1 8:2794 9:331 10:1 11:0 12:0 13:0 14:1 15:4 16:0 17:0 18:0 19:0 20:1 21:0 22:1 23:34 24:141 25:0.41 26:0.09 27:0.03 28:0.01 29:0 30:0 31:0 32:0.04 
0.0221697959276278 0:0 1:1 2:0 3:0 4:1 5:0 6:0 7:1 8:11624 9:1551 10:1 11:0 12:0 13:0 14:1 15:1 16:0 17:0 18:0 19:0 20:1 21:0 22:0 23:255 24:79 25:0.31 26:0.05 27:0 28:0 29:0.44 30:0 31:0.05 32:0.03 
0.0098265225161226696 0:0 1:1 2:0 3:0 4:0 5:1 6:0 7:1 8:230 9:901 10:1 11:0 12:0 13:0 14:17 15:30 16:0 17:0 18:0 19:0 20:1 21:0 22:0.07 23:255 24:255 25:1 26:0 27:0 28:0 29:0 30:0 31:0.11 32:0.11 
0.022294450586491543 0:0 1:1 2:0 3:0 4:0 5:1 6:0 7:1 8:313 9:55704 10:1 11:0 12:0 13:0 14:1 15:1 16:0 17:0 18:0 19:0 20:1 21:0 22:0 23:5 24:255 25:1 26:0 27:0.2 28:0.13 29:0 30:0 31:0.8 32:0.97 
0.0092355242919527902 0:0 1:1 2:0 3:0 4:0 5:1 6:0 7:1 8:356 9:238 10:1 11:0 12:0 13:0 14:1 15:38 16:0 17:0 18:0 19:0 20:1 21:0 22:0.11 23:3 24:253 25:1 26:0 27:0.33 28:0.21 29:0 30:0 31:0 32:0.8 
0.012052937551070822 0:0 1:1 2:0 3:0 4:0 5:1 6:0 7:1 8:209 9:2120 10:1 11:0 12:0 13:0 14:8 15:8 16:0 17:0 18:0 19:0 20:1 21:0 22:0 23:255 24:255 25:1 26:0 27:0 28:0 29:0 30:0 31:0.05 32:0.05 
0.019504493747644798 0:0 1:1 2:0 3:0 4:0 5:1 6:0 7:1 8:320 9:9693 10:1 11:0 12:0 13:0 14:22 15:23 16:0 17:0 18:0 19:0 20:1 21:0 22:0.09 23:255 24:255 25:1 26:0 27:0 28:0 29:0.01 30:0.01 31:0.02 32:0.02 
0.022174166893965085 0:7 1:1 2:0 3:0 4:1 5:0 6:0 7:1 8:174 9:3333 10:1 11:0 12:0 13:0 14:1 15:1 16:0 17:0 18:0 19:0 20:1 21:0 22:0 23:215 24:19 25:0.09 26:0.02 27:0 28:0 29:0 30:0 31:0.03 32:0.11 
0.011394550515396337 0:0 1:1 2:0 3:0 4:1 5:0 6:0 7:1 8:1819 9:384 10:1 11:0 12:0 13:0 14:1 15:1 16:0 17:0 18:0 19:0 20:1 21:0 22:0 23:255 24:69 25:0.27 26:0.06 27:0 28:0 29:0.49 30:0 31:0.05 32:0.03 
0.0076913442328111585 0:5 1:1 2:0 3:0 4:1 5:0 6:0 7:1 8:827 9:326 10:1 11:0 12:0 13:0 14:1 15:1 16:0 17:0 18:0 19:0 20:1 21:0 22:0 23:199 24:121 25:0.53 26:0.02 27:0.01 28:0.02 29:0 30:0 31:0.03 32:0.05 
0.010776431180835514 0:0 1:1 2:0 3:0 4:0 5:1 6:0 7:1 8:245 9:406 10:1 11:0 12:0 13:0 14:29 15:50 16:0 17:0 18:0 19:0 20:1 21:0 22:0.04 23:255 24:255 25:1 26:0 27:0 28:0 29:0 30:0 31:0.06 32:0.06 
0.00061251950831273452 0:0 1:1 2:0 3:0 4:0 5:1 6:0 7:1 8:232 9:391 10:1 11:0 12:0 13:0 14:1 15:1 16:0 17:0 18:0 19:0 20:1 21:0 22:0 23:6 24:255 25:1 26:0 27:0.17 28:0.02 29:0 30:0 31:0.17 32:0.03 
0.0040779585026250592 0:0 1:1 2:0 3:0 4:0 5:1 6:0 7:1 8:336 9:777 10:1 11:0 12:0 13:0 14:17 15:24 16:0.06 17:0.04 18:0 19:0 20:1 21:0 22:0.17 23:17 24:255 25:1 26:0 27:0.06 28:0.02 29:0.06 30:0.01 31:0 32:0.03 
0.022207333252330798 0:0 1:1 2:0 3:0 4:0 5:1 6:0 7:1 8:177 9:10157 10:1 11:0 12:0 13:0 14:1 15:1 16:0 17:0 18:0 19:0 20:1 21:0 22:0 23:94 24:255 25:1 26:0 27:0.01 28:0.06 29:0 30:0 31:0.01 32:0.06 
0.013762354493504459 0:0 1:1 2:0 3:0 4:0 5:1 6:0 7:1 8:362 9:3975 10:1 11:0 12:0 13:0 14:9 15:10 16:0 17:0 18:0 19:0 20:1 21:0 22:0.2 23:49 24:255 25:1 26:0 27:0.02 28:0.17 29:0.02 30:0 31:0.33 32:0.8 
0.0063135041299419567 0:0 1:1 2:0 3:0 4:0 5:1 6:0 7:1 8:290 9:760 10:1 11:0 12:0 13:0 14:3 15:3 16:0 17:0 18:0 19:0 20:1 21:0 22:0 23:118 24:255 25:1 26:0 27:0.01 28:0.02 29:0 30:0.01 31:0.21 32:0.12 
0.010475514259442962 0:0 1:1 2:0 3:0 4:0 5:1 6:0 7:1 8:225 9:1674 10:1 11:0 12:0 13:0 14:28 15:28 16:0 17:0 18:0 19:0 20:1 21:0 22:0 23:255 24:255 25:1 26:0 27:0 28:0 29:0 30:0 31:0.02 32:0.02 
0.0054975206327502277 0:0 1:1 2:0 3:0 4:0 5:1 6:0 7:1 8:240 9:4359 10:1 11:0 12:0 13:0 14:3 15:3 16:0 17:0 18:0 19:0 20:1 21:0 22:0 23:255 24:255 25:1 26:0 27:0 28:0 29:0 30:0 31:0.02 32:0.02 
0.0048137201565236522 0:0 1:1 2:0 3:0 4:0 5:1 6:0 7:1 8:222 9:791 10:1 11:0 12:0 13:0 14:27 15:44 16:0 17:0 18:0 19:0 20:1 21:0 22:0.09 23:109 24:255 25:1 26:0 27:0.01 28:0.05 29:0 30:0 31:0.33 32:0.55 
0.0053807966986975028 0:0 1:1 2:0 3:0 4:0 5:1 6:0 7:1 8:384 9:334 10:1 11:0 12:0 13:0 14:19 15:33 16:0 17:0 18:0 19:0 20:1 21:0 22:0.12 23:39 24:231 25:1 26:0 27:0.03 28:0.21 29:0 30:0 31:0.08 32:0.77 
0.014609869974762548 0:0 1:1 2:0 3:0 4:0 5:1 6:0 7:1 8:410 9:6726 10:1 11:0 12:0 13:0 14:12 15:12 16:0 17:0 18:0 19:0 20:1 21:0 22:0 23:138 24:247 25:1 26:0 27:0.01 28:0.12 29:0 30:0 31:0.09 32:0.49 
0.012525525896247754 0:0 1:1 2:0 3:0 4:0 5:1 6:0 7:1 8:312 9:3327 10:1 11:0 12:0 13:0 14:1 15:2 16:0 17:0 18:0 19:0 20:1 21:0 22:1 23:141 24:255 25:1 26:0 27:0.01 28:0.02 29:0 30:0.01 31:0.01 32:0.03 
0.022190746635588232 0:0 1:1 2:0 3:0 4:0 5:1 6:0 7:1 8:273 9:4471 10:1 11:0 12:0 13:0 14:22 15:28 16:0 17:0 18:0 19:0 20:1 21:0 22:0.18 23:28 24:255 25:1 26:0 27:0.04 28:0.07 29:0 30:0 31:0.21 32:0.64 
0.0037025684794169478 0:0 1:1 2:0 3:0 4:0 5:1 6:0 7:1 8:322 9:656 10:1 11:0 12:0 13:0 14:9 15:9 16:0 17:0 18:0 19:0 20:1 21:0 22:0 23:22 24:250 25:1 26:0 27:0.05 28:0.13 29:0 30:0 31:0.59 32:0.5 
0.021755167353758272 0:0 1:1 2:0 3:0 4:0 5:1 6:0 7:1 8:488 9:10161 10:1 11:0 12:0 13:0 14:7 15:7 16:0 17:0 18:0 19:0 20:1 21:0 22:0 23:223 24:255 25:1 26:0 27:0 28:0.02 29:0.01 30:0.01 31:0.08 32:0.08 
0.0034361313902882321 0:0 1:1 2:0 3:0 4:0 5:1 6:0 7:1 8:313 9:1404 10:1 11:0 12:0 13:0 14:19 15:19 16:0 17:0 18:0 19:0 20:1 21:0 22:0 23:29 24:255 25:1 26:0 27:0.03 28:0.09 29:0 30:0 31:0.34 32:0.65 
0.0015730558863284857 0:0 1:1 2:0 3:0 4:0 5:1 6:0 7:1 8:246 9:266 10:1 11:0 12:0 13:0 14:1 15:35 16:0 17:0 18:0 19:0 20:1 21:0 22:0.11 23:3 24:241 25:1 26:0 27:0.33 28:0.18 29:0 30:0 31:0.67 32:0.59 
0.022308622379081912 0:5 1:1 2:0 3:0 4:1 5:0 6:0 7:1 8:203 9:4267 10:1 11:0 12:0 13:0 14:1 15:1 16:0 17:0 18:0 19:0 20:1 21:0 22:0 23:211 24:18 25:0.09 26:0.02 27:0 28:0 29:0 30:0 31:0.03 32:0.11 
0.011031064606339829 0:0 1:1 2:0 3:0 4:0 5:1 6:0 7:1 8:337 9:1173 10:1 11:0 12:0 13:0 14:14 15:14 16:0 17:0 18:0 19:0 20:1 21:0 22:0 23:56 24:255 25:1 26:0 27:0.02 28:0.16 29:0 30:0 31:0.36 32:0.85 
0.020131707834981544 0:0 1:1 2:0 3:0 4:0 5:1 6:0 7:1 8:199 9:5137 10:1 11:0 12:0 13:0 14:12 15:12 16:0 17:0 18:0 19:0 20:1 21:0 22:0 23:175 24:255 25:1 26:0 27:0.01 28:0.02 29:0 30:0 31:0.15 32:0.35 
0.021212822719246887 0:0 1:1 2:0 3:0 4:0 5:1 6:0 7:1 8:216 9:6979 10:1 11:0 12:0 13:0 14:2 15:2 16:0 17:0 18:0 19:0 20:1 21:0 22:0 23:57 24:255 25:1 26:0 27:0.02 28:0.02 29:0.02 30:0 31:0.12 32:0.09 
0.0037678486954721567 0:56 1:1 2:0 3:0 4:0 5:1 6:0 7:1 8:237 9:238 10:1 11:0 12:0 13:0 14:1 15:1 16:0 17:0 18:0 19:0 20:1 21:0 22:0 23:71 24:255 25:1 26:0 27:0.01 28:0.07 29:0 30:0 31:0.03 32:0.02 
0.015707957871654334 0:0 1:1 2:0 3:0 4:0 5:1 6:0 7:1 8:337 9:1173 10:1 11:0 12:0 13:0 14:2 15:3 16:0 17:0 18:0 19:0 20:1 21:0 22:0.67 23:218 24:255 25:1 26:0 27:0 28:0.01 29:0 30:0.01 31:0.15 32:0.13 
0.01513706285071708 0:0 1:1 2:0 3:0 4:0 5:1 6:0 7:1 8:346 9:1664 10:1 11:0 12:0 13:0 14:8 15:8 16:0 17:0 18:0 19:0 20:1 21:0 22:0 23:12 24:255 25:1 26:0 27:0.08 28:0.05 29:0 30:0 31:0.33 32:0.47 
0.012462877022282012 0:25 1:1 2:0 3:0 4:1 5:0 6:0 7:1 8:350 9:1072 10:1 11:0 12:0 13:0 14:1 15:1 16:0 17:0 18:0 19:0 20:1 21:0 22:0 23:255 24:59 25:0.23 26:0.02 27:0.01 28:0 29:0 30:0 31:0.03 32:0.1 
0.022225972414915418 0:0 1:1 2:0 3:0 4:1 5:0 6:0 7:1 8:1565 9:526 10:1 11:0 12:0 13:0 14:1 15:4 16:0 17:0 18:0 19:0 20:1 21:0 22:1 23:52 24:129 25:0.21 26:0.06 27:0.02 28:0.02 29:0 30:0 31:0 32:0.04 
0.0081777737001039533 0:33 1:1 2:0 3:0 4:1 5:0 6:0 7:1 8:938 9:2720 10:1 11:0 12:0 13:0 14:1 15:1 16:0 17:0 18:0 19:0 20:1 21:0 22:0 23:171 24:43 25:0.25 26:0.03 27:0.01 28:0 29:0 30:0 31:0.01 32:0.02 
0.01896694022048484 0:1 1:1 2:0 3:0 4:0 5:1 6:0 7:1 8:258 9:646195 10:1 11:0 12:0 13:0 14:1 15:1 16:0 17:0 18:0 19:0 20:1 21:0 22:0 23:59 24:255 25:1 26:0 27:0.02 28:0.02 29:0 30:0 31:0.05 32:0.06 
0.01684797498958257 0:0 1:1 2:0 3:0 4:1 5:0 6:0 7:1 8:1745 9:444 10:1 11:0 12:0 13:0 14:1 15:3 16:0 17:0 18:0 19:0 20:1 21:0 22:1 23:197 24:72 25:0.24 26:0.02 27:0.01 28:0.03 29:0 30:0 31:0.01 32:0.03 
0.0035319423842185733 0:1 1:1 2:0 3:0 4:1 5:0 6:0 7:1 8:988 9:334 10:1 11:0 12:0 13:0 14:1 15:2 16:0 17:0 18:0 19:0 20:1 21:0 22:1 23:20 24:153 25:0.3 26:0.1 27:0.05 28:0.01 29:0 30:0 31:0 32:0.07 
0.016669319159298104 0:0 1:1 2:0 3:0 4:0 5:1 6:0 7:1 8:240 9:4359 10:1 11:0 12:0 13:0 14:4 15:4 16:0 17:0 18:0 19:0 20:1 21:0 22:0 23:150 24:255 25:1 26:0 27:0.01 28:0.02 29:0 30:0.01 31:0.03 32:0.04 
0.0090883172443303323 0:0 1:1 2:0 3:0 4:0 5:1 6:0 7:1 8:359 9:2282 10:1 11:0 12:0 13:0 14:4 15:4 16:0 17:0 18:0 19:0 20:1 21:0 22:0 23:133 24:255 25:1 26:0 27:0.01 28:0.09 29:0 30:0 31:0.15 32:0.48 
0.016226460447118292 0:0 1:1 2:0 3:0 4:1 5:0 6:0 7:1 8:749 9:0 10:1 11:0 12:0 13:0 14:2 15:2 16:0 17:0 18:0 19:0 20:1 21:0 22:0 23:157 24:46 25:0.29 26:0.45 27:0.29 28:0 29:0 30:0 31:0.43 32:0.02 
0.0021734705120810193 0:0 1:1 2:0 3:0 4:0 5:1 6:0 7:1 8:241 9:688 10:1 11:0 12:0 13:0 14:15 15:16 16:0 17:0 18:0 19:0 20:1 21:0 22:0.12 23:102 24:255 25:1 26:0 27:0.01 28:0.02 29:0 30:0 31:0 32:0.04 
0.022184834628441015 0:0 1:1 2:0 3:0 4:0 5:1 6:0 7:1 8:307 9:2360 10:1 11:0 12:0 13:0 14:2 15:40 16:0 17:0 18:0 19:0 20:1 21:0 22:0.05 23:2 24:143 25:1 26:0 27:0.5 28:0.2 29:0 30:0 31:0 32:0.65 
0.019987415912600743 0:0 1:1 2:0 3:0 4:0 5:1 6:0 7:1 8:239 9:7629 10:1 11:0 12:0 13:0 14:1 15:1 16:0 17:0 18:0 19:0 20:1 21:0 22:0 23:1 24:253 25:1 26:0 27:1 28:0.19 29:0 30:0 31:0 32:0.99 
0.009555174100235455 0:0 1:1 2:0 3:0 4:0 5:1 6:0 7:1 8:332 9:405 10:1 11:0 12:0 13:0 14:9 15:9 16:0 17:0 18:0 19:0 20:1 21:0 22:0 23:255 24:255 25:1 26:0 27:0 28:0 29:0 30:0 31:0.02 32:0.02 
0.014627037978991439 0:0 1:1 2:0 3:0 4:0 5:1 6:0 7:1 8:355 9:2761 10:1 11:0 12:0 13:0 14:2 15:3 16:0 17:0 18:0 19:0 20:1 21:0 22:0.67 23:236 24:255 25:1 26:0 27:0 28:0.02 29:0.01 30:0.01 31:0.07 32:0.07 
0.0021672889664620409 0:2 1:1 2:0 3:0 4:1 5:0 6:0 7:1 8:1339 9:334 10:1 11:0 12:0 13:0 14:1 15:2 16:0 17:0 18:0 19:0 20:1 21:0 22:1 23:155 24:183 25:0.65 26:0.08 27:0.01 28:0.01 29:0.01 30:0 31:0.03 32:0.04 
0.0072015222369185821 0:0 1:1 2:0 3:0 4:1 5:0 6:0 7:1 8:1065 9:328 10:1 11:0 12:0 13:0 14:1 15:8 16:0 17:0.88 18:0 19:0 20:1 21:0 22:0.25 23:182 24:129 25:0.53 26:0.03 27:0.01 28:0.02 29:0 30:0 31:0.04 32:0.02 
0.017017805396867446 0:0 1:1 2:0 3:0 4:0 5:1 6:0 7:1 8:294 9:9763 10:1 11:0 12:0 13:0 14:41 15:41 16:0 17:0 18:0 19:0 20:1 21:0 22:0 23:255 24:255 25:1 26:0 27:0 28:0 29:0 30:0 31:0.05 32:0.05 
0.010449176145132761 0:23 1:1 2:0 3:0 4:1 5:0 6:0 7:1 8:316 9:1043 10:1 11:0 12:0 13:0 14:1 15:1 16:0 17:0 18:0 19:0 20:1 21:0 22:0 23:174 24:46 25:0.26 26:0.03 27:0.01 28:0 29:0 30:0 31:0.01 32:0.02 
0.016195650011280229 0:88 1:1 2:0 3:0 4:0 5:1 6:0 7:1 8:338 9:238 10:1 11:0 12:0 13:0 14:1 15:13 16:0 17:0 18:0 19:0 20:1 21:0 22:0.15 23:2 24:253 25:1 26:0 27:0.5 28:0.21 29:0 30:0 31:0 32:0.8 
0.01600487836956831 0:27 1:1 2:0 3:0 4:1 5:0 6:0 7:1 8:1473 9:4152 10:1 11:0 12:0 13:0 14:1 15:1 16:0 17:0 18:0 19:0 20:1 21:0 22:0 23:110 24:25 25:0.23 26:0.05 27:0.01 28:0 29:0 30:0 31:0.03 32:0.04 
0.017029908787325174 0:0 1:1 2:0 3:0 4:0 5:1 6:0 7:1 8:332 9:3085 10:1 11:0 12:0 13:0 14:42 15:44 16:0 17:0 18:0 19:0 20:1 21:0 22:0.07 23:255 24:255 25:1 26:0 27:0 28:0 29:0 30:0 31:0.02 32:0.02 
0.012195808020913393 0:0 1:1 2:0 3:0 4:0 5:1 6:0 7:1 8:201 9:468 10:1 11:0 12:0 13:0 14:1 15:1 16:0 17:0 18:0 19:0 20:1 21:0 22:0 23:2 24:255 25:1 26:0 27:0.5 28:0.09 29:0 30:0 31:0 32:0.98 
0.020110992446162899 0:0 1:1 2:0 3:0 4:0 5:1 6:0 7:1 8:307 9:5669 10:1 11:0 12:0 13:0 14:4 15:4 16:0 17:0 18:0 19:0 20:1 21:0 22:0 23:30 24:255 25:1 26:0 27:0.03 28:0.01 29:0 30:0 31:0.13 32:0.02 
0.022232396510323202 0:232 1:1 2:0 3:0 4:1 5:0 6:0 7:1 8:205 9:6096 10:1 11:0 12:0 13:0 14:1 15:1 16:0 17:0 18:0 19:0 20:1 21:0 22:0 23:255 24:26 25:0.1 26:0.05 27:0 28:0 29:0.51 30:0 31:0.02 32:0.15 
0.018807727808479321 0:0 1:1 2:0 3:0 4:0 5:1 6:0 7:1 8:307 9:12304 10:1 11:0 12:0 13:0 14:29 15:29 16:0 17:0 18:0 19:0 20:1 21:0 22:0 23:110 24:255 25:1 26:0 27:0.01 28:0.01 29:0 30:0 31:0.13 32:0.06 
0.022310707160454576 0:0 1:1 2:0 3:0 4:0 5:1 6:0 7:1 8:313 9:9204 10:1 11:0 12:0 13:0 14:3 15:3 16:0 17:0 18:0 19:0 20:1 21:0 22:0 23:33 24:255 25:1 26:0 27:0.03 28:0.11 29:0 30:0 31:0.21 32:0.51 
0.014119715407474793 0:0 1:1 2:0 3:0 4:0 5:1 6:0 7:1 8:311 9:2288 10:1 11:0 12:0 13:0 14:3 15:6 16:0 17:0 18:0 19:0 20:1 21:0 22:0.5 23:123 24:227 25:1 26:0 27:0.01 28:0.01 29:0 30:0 31:0.03 32:0.02 
0.010000929289680471 0:0 1:1 2:0 3:0 4:0 5:1 6:0 7:1 8:210 9:4046 10:1 11:0 12:0 13:0 14:2 15:2 16:0 17:0 18:0 19:0 20:1 21:0 22:0 23:45 24:255 25:1 26:0 27:0.02 28:0.03 29:0 30:0.02 31:0.11 32:0.03 
0.018208217600525552 0:0 1:1 2:0 3:0 4:0 5:1 6:0 7:1 8:238 9:6086 10:1 11:0 12:0 13:0 14:14 15:14 16:0 17:0 18:0 19:0 20:1 21:0 22:0 23:146 24:255 25:1 26:0 27:0.01 28:0.01 29:0 30:0 31:0.03 32:0.02 
0.022327288861457763 0:0 1:1 2:0 3:0 4:0 5:1 6:0 7:1 8:234 9:34237 10:1 11:0 12:0 13:0 14:4 15:4 16:0 17:0 18:0 19:0 20:1 21:0 22:0 23:150 24:255 25:1 26:0 27:0.01 28:0.02 29:0 30:0.01 31:0.17 32:0.12 
0.015083482843845072 0:0 1:1 2:0 3:0 4:0 5:1 6:0 7:1 8:363 9:2801 10:1 11:0 12:0 13:0 14:3 15:4 16:0 17:0 18:0 19:0 20:1 21:0 22:0.5 23:130 24:255 25:1 26:0 27:0.01 28:0.02 29:0 30:0 31:0.02 32:0.03 
0.015447042670939321 0:0 1:1 2:0 3:0 4:1 5:0 6:0 7:1 8:761 9:345 10:1 11:0 12:0 13:0 14:1 15:1 16:0 17:0 18:0 19:0 20:1 21:0 22:0 23:136 24:76 25:0.4 26:0.52 27:0.01 28:0.03 29:0.01 30:0.01 31:0.5 32:0.03 
0.013614286601673959 0:0 1:1 2:0 3:0 4:0 5:1 6:0 7:1 8:230 9:857 10:1 11:0 12:0 13:0 14:29 15:29 16:0 17:0 18:0 19:0 20:1 21:0 22:0 23:153 24:255 25:1 26:0 27:0.02 28:0.01 29:0 30:0 31:0.09 32:0.05 
0.0028335289128783633 0:0 1:1 2:0 3:0 4:0 5:1 6:0 7:1 8:202 9:1411 10:1 11:0 12:0 13:0 14:13 15:13 16:0 17:0 18:0 19:0 20:1 21:0 22:0 23:34 24:255 25:1 26:0 27:0.03 28:0.07 29:0 30:0 31:0 32:0.03 
0.0067605200259947262 0:0 1:1 2:0 3:0 4:0 5:1 6:0 7:1 8:210 9:188 10:1 11:0 12:0 13:0 14:1 15:4 16:0 17:0 18:0 19:0 20:1 21:0 22:0.5 23:49 24:255 25:1 26:0 27:0.02 28:0.03 29:0 30:0.02 31:0 32:0.02 
0.01631866761974312 0:0 1:1 2:0 3:0 4:0 5:1 6:0 7:1 8:183 9:791 10:1 11:0 12:0 13:0 14:2 15:1 16:0 17:0 18:0 19:0 20:0.5 21:1 22:0 23:255 24:240 25:0.94 26:0.02 27:0 28:0 29:0 30:0 31:0.03 32:0.03 
0.022296498982964805 0:0 1:1 2:0 3:0 4:0 5:1 6:0 7:1 8:251 9:13491 10:1 11:0 12:0 13:0 14:1 15:1 16:0 17:0 18:0 19:0 20:1 21:0 22:0 23:11 24:255 25:1 26:0 27:0.09 28:0.14 29:0 30:0 31:0.27 32:0.93 
0.021777891784780685 0:10 1:1 2:0 3:0 4:1 5:0 6:0 7:1 8:11324 9:1551 10:1 11:0 12:0 13:0 14:1 15:3 16:0 17:0 18:0 19:0 20:1 21:0 22:1 23:255 24:50 25:0.2 26:0.06 27:0 28:0 29:0.65 30:0 31:0.03 32:0.02 
0.020639611492944826 0:0 1:1 2:0 3:0 4:0 5:1 6:0 7:1 8:321 9:3683 10:1 11:0 12:0 13:0 14:12 15:12 16:0 17:0 18:0 19:0 20:1 21:0 22:0 23:152 24:255 25:1 26:0 27:0.01 28:0.01 29:0 30:0 31:0.08 32:0.05 
0.013523435038377033 0:98 1:1 2:0 3:0 4:0 5:1 6:0 7:1 8:338 9:238 10:1 11:0 12:0 13:0 14:1 15:1 16:0 17:0 18:0 19:0 20:1 21:0 22:0 23:89 24:255 25:1 26:0 27:0.01 28:0.07 29:0 30:0 31:0.02 32:0.02 
0.012916565568803495 0:0 1:1 2:0 3:0 4:0 5:1 6:0 7:1 8:370 9:2113 10:1 11:0 12:0 13:0 14:15 15:16 16:0 17:0 18:0 19:0 20:1 21:0 22:0.12 23:78 24:231 25:1 26:0 27:0.01 28:0.19 29:0 30:0 31:0.08 32:0.69 
0.0086852673045772853 0:0 1:1 2:0 3:0 4:0 5:1 6:0 7:1 8:256 9:791 10:1 11:0 12:0 13:0 14:1 15:1 16:0 17:0 18:0 19:0 20:1 21:0 22:0 23:255 24:241 25:0.95 26:0.01 27:0 28:0 29:0 30:0 31:0.02 32:0.02 
0.0042666575598045986 0:0 1:1 2:0 3:0 4:0 5:1 6:0 7:1 8:276 9:296 10:1 11:0 12:0 13:0 14:9 15:11 16:0 17:0 18:0 19:0 20:1 21:0 22:0.18 23:186 24:255 25:1 26:0 27:0.01 28:0.02 29:0 30:0 31:0.01 32:0.02 
0.0094956333717654221 0:0 1:1 2:0 3:0 4:0 5:1 6:0 7:1 8:226 9:2150 10:1 11:0 12:0 13:0 14:7 15:7 16:0 17:0 18:0 19:0 20:1 21:0 22:0 23:212 24:255 25:1 26:0 27:0 28:0.02 29:0 30:0 31:0.04 32:0.04 
0.0075643937781854492 0:0 1:1 2:0 3:0 4:0 5:1 6:0 7:1 8:226 9:2631 10:1 11:0 12:0 13:0 14:3 15:3 16:0 17:0 18:0 19:0 20:1 21:0 22:0 23:255 24:255 25:1 26:0 27:0 28:0 29:0.01 30:0.01 31:0.02 32:0.02 
0.022404349024447962 0:0 1:1 2:0 3:0 4:0 5:1 6:0 7:1 8:246 9:18036 10:1 11:0 12:0 13:0 14:1 15:1 16:0 17:0 18:0 19:0 20:1 21:0 22:0 23:255 24:253 25:0.99 26:0.01 27:0 28:0 29:0 30:0 31:0.02 32:0.02 
0.012139993071480604 0:29 1:1 2:0 3:0 4:1 5:0 6:0 7:1 8:1074 9:3081 10:1 11:0 12:0 13:0 14:1 15:1 16:0 17:0 18:0 19:0 20:1 21:0 22:0 23:173 24:37 25:0.21 26:0.04 27:0.01 28:0 29:0 30:0 31:0.01 32:0.03 
0.011133585385286053 0:0 1:1 2:0 3:0 4:0 5:1 6:0 7:1 8:318 9:2698 10:1 11:0 12:0 13:0 14:15 15:17 16:0 17:0 18:0 19:0.12 20:1 21:0 22:0.18 23:255 24:251 25:0.98 26:0.01 27:0 28:0 29:0 30:0 31:0.02 32:0.02 
0.0085662937842059163 0:0 1:1 2:0 3:0 4:0 5:1 6:0 7:1 8:219 9:2393 10:1 11:0 12:0 13:0 14:3 15:3 16:0 17:0 18:0 19:0 20:1 21:0 22:0 23:72 24:255 25:1 26:0 27:0.01 28:0.01 29:0.01 30:0 31:0.1 32:0.09 
0.0023910390156054312 0:0 1:1 2:0 3:0 4:0 5:1 6:0 7:1 8:225 9:372 10:1 11:0 12:0 13:0 14:4 15:4 16:0 17:0 18:0 19:0 20:1 21:0 22:0 23:95 24:255 25:1 26:0 27:0.01 28:0.02 29:0 30:0.01 31:0.04 32:0.04 
0.011232792795736021 0:0 1:1 2:0 3:0 4:0 5:1 6:0 7:1 8:224 9:994 10:1 11:0 12:0 13:0 14:20 15:20 16:0 17:0 18:0 19:0 20:1 21:0 22:0 23:111 24:255 25:1 26:0 27:0.01 28:0.02 29:0 30:0.01 31:0.04 32:0.04 
0.015820276040965871 0:0 1:1 2:0 3:0 4:0 5:1 6:0 7:1 8:418 9:9927 10:1 11:0 12:0 13:0 14:9 15:9 16:0 17:0 18:0 19:0 20:1 21:0 22:0 23:77 24:245 25:1 26:0 27:0.01 28:0.18 29:0 30:0 31:0.16 32:0.73 
0.011662256737850391 0:0 1:1 2:0 3:0 4:1 5:0 6:0 7:1 8:259 9:0 10:1 11:0 12:0 13:0 14:2 15:2 16:0 17:0 18:0 19:0 20:1 21:0 22:0 23:122 24:39 25:0.2 26:0.58 27:0.19 28:0.05 29:0 30:0 31:0.53 32:0.03 
0.019515389202335524 0:0 1:1 2:0 3:0 4:0 5:1 6:0 7:1 8:250 9:7353 10:1 11:0 12:0 13:0 14:1 15:1 16:0 17:0 18:0 19:0 20:1 21:0 22:0 23:52 24:255 25:1 26:0 27:0.02 28:0.15 29:0 30:0 31:0 32:0.8 
0.011779264135763917 0:0 1:1 2:0 3:0 4:0 5:1 6:0 7:1 8:306 9:607 10:1 11:0 12:0 13:0 14:14 15:14 16:0 17:0 18:0 19:0 20:1 21:0 22:0 23:255 24:255 25:1 26:0 27:0 28:0 29:0.01 30:0.01 31:0.02 32:0.02 
0.014393609656462967 0:0 1:1 2:0 3:0 4:1 5:0 6:0 7:1 8:1476 9:328 10:1 11:0 12:0 13:0 14:1 15:1 16:0 17:0 18:0 19:0 20:1 21:0 22:0 23:72 24:137 25:0.64 26:0.06 27:0.01 28:0.02 29:0 30:0.01 31:0.03 32:0.04 
0.022303282942634353 0:0 1:1 2:0 3:0 4:0 5:1 6:0 7:1 8:269 9:38544 10:1 11:0 12:0 13:0 14:1 15:1 16:0 17:0 18:0 19:0 20:1 21:0 22:0 23:87 24:255 25:1 26:0 27:0.01 28:0.04 29:0 30:0 31:0.2 32:0.08 
0.0087372625250847075 0:0 1:1 2:0 3:0 4:0 5:1 6:0 7:1 8:341 9:1531 10:1 11:0 12:0 13:0 14:8 15:8 16:0 17:0 18:0 19:0 20:1 21:0 22:0 23:30 24:204 25:1 26:0 27:0.03 28:0.1 29:0 30:0 31:0.47 32:0.72 
0.021631548761014183 0:0 1:1 2:0 3:0 4:0 5:1 6:0 7:1 8:417 9:3294 10:1 11:0 12:0 13:0 14:17 15:17 16:0 17:0 18:0 19:0 20:1 21:0 22:0 23:143 24:247 25:1 26:0 27:0.01 28:0.11 29:0 30:0 31:0.08 32:0.47 
0.01657461696413846 0:1 1:1 2:0 3:0 4:0 5:1 6:1 7:0 8:364 9:646196 10:1 11:0 12:0 13:0 14:2 15:15 16:0.5 17:0.07 18:0 19:0 20:1 21:0 22:0.13 23:110 24:255 25:1 26:0 27:0.01 28:0.08 29:0.01 30:0 31:0.15 32:0.52 
0.012165657282763823 0:0 1:1 2:0 3:0 4:0 5:1 6:0 7:1 8:312 9:9284 10:1 11:0 12:0 13:0 14:12 15:20 16:0.08 17:0.05 18:0 19:0 20:1 21:0 22:0.1 23:255 24:255 25:1 26:0 27:0 28:0 29:0.01 30:0.01 31:0.02 32:0.02 
0.021525127684592096 0:0 1:1 2:0 3:0 4:0 5:1 6:0 7:1 8:280 9:24971 10:1 11:0 12:0 13:0 14:9 15:10 16:0 17:0 18:0 19:0 20:1 21:0 22:0.2 23:23 24:232 25:1 26:0 27:0.04 28:0.06 29:0 30:0 31:0.57 32:0.62 
0.017362412305108633 0:0 1:1 2:0 3:0 4:0 5:1 6:0 7:1 8:464 9:10134 10:1 11:0 12:0 13:0 14:12 15:12 16:0 17:0 18:0 19:0 20:1 21:0 22:0 23:79 24:255 25:1 26:0 27:0.01 28:0.09 29:0 30:0 31:0.16 32:0.56 
0.022285783913155638 0:0 1:1 2:0 3:0 4:0 5:1 6:0 7:1 8:290 9:12689 10:1 11:0 12:0 13:0 14:14 15:14 16:0 17:0 18:0 19:0 20:1 21:0 22:0 23:218 24:255 25:1 26:0 27:0 28:0.01 29:0 30:0 31:0.05 32:0.05 
0.015558489829665871 0:0 1:1 2:0 3:0 4:0 5:1 6:0 7:1 8:215 9:3632 10:1 11:0 12:0 13:0 14:2 15:2 16:0 17:0 18:0 19:0 20:1 21:0 22:0 23:2 24:255 25:1 26:0 27:0.5 28:0.06 29:0 30:0 31:0 32:0.04 
0.0095693676742904764 0:0 1:1 2:0 3:0 4:0 5:1 6:0 7:1 8:294 9:454 10:1 11:0 12:0 13:0 14:25 15:25 16:0 17:0 18:0 19:0 20:1 21:0 22:0 23:176 24:255 25:1 26:0 27:0.01 28:0.04 29:0 30:0 31:0.2 32:0.41 
0.020030909025007995 0:0 1:1 2:0 3:0 4:0 5:1 6:0 7:1 8:303 9:1783 10:1 11:0 12:0 13:0 14:10 15:10 16:0 17:0 18:0 19:0 20:1 21:0 22:0 23:10 24:83 25:1 26:0 27:0.1 28:0.1 29:0 30:0 31:0 32:0.02 
0.00044840538590719707 0:0 1:1 2:0 3:0 4:0 5:1 6:0 7:1 8:231 9:1550 10:1 11:0 12:0 13:0 14:15 15:15 16:0 17:0 18:0 19:0 20:1 21:0 22:0 23:249 24:255 25:1 26:0 27:0 28:0.02 29:0 30:0 31:0.34 32:0.36 
0.015540403619573833 0:0 1:1 2:0 3:0 4:0 5:1 6:0 7:1 8:206 9:1162 10:1 11:0 12:0 13:0 14:8 15:8 16:0 17:0 18:0 19:0 20:1 21:0 22:0 23:240 24:255 25:1 26:0 27:0 28:0.01 29:0 30:0 31:0.04 32:0.04 
0.0037100512373243032 0:5 1:1 2:0 3:0 4:1 5:0 6:0 7:1 8:1133 9:336 10:1 11:0 12:0 13:0 14:1 15:1 16:0 17:0 18:0 19:0 20:1 21:0 22:0 23:105 24:144 25:0.67 26:0.04 27:0.01 28:0.02 29:0 30:0 31:0.05 32:0.03 
0.022171635608176418 0:0 1:1 2:0 3:0 4:0 5:1 6:0 7:1 8:296 9:24695 10:1 11:0 12:0 13:0 14:1 15:2 16:0 17:0 18:0 19:0 20:1 21:0 22:1 23:32 24:255 25:1 26:0 27:0.03 28:0.03 29:0 30:0.02 31:0.16 32:0.03 
0.018733545463537692 0:0 1:1 2:0 3:0 4:0 5:1 6:0 7:1 8:233 9:3510 10:1 11:0 12:0 13:0 14:11 15:20 16:0 17:0 18:0 19:0 20:1 21:0 22:0.1 23:12 24:255 25:1 26:0 27:0.08 28:0.2 29:0 30:0 31:0.08 32:0.96 
0.01965734985011075 0:0 1:1 2:0 3:0 4:0 5:1 6:0 7:1 8:213 9:1565 10:1 11:0 12:0 13:0 14:4 15:4 16:0 17:0 18:0 19:0 20:1 21:0 22:0 23:41 24:70 25:1 26:0 27:0.02 28:0.04 29:0 30:0.01 31:0 32:0.07 
0.017407031711029058 0:0 1:1 2:0 3:0 4:0 5:1 6:0 7:1 8:339 9:1150 10:1 11:0 12:0 13:0 14:10 15:14 16:0 17:0 18:0 19:0 20:1 21:0 22:0.36 23:10 24:62 25:1 26:0 27:0.1 28:0.11 29:0 30:0 31:0 32:0.03 
0.0092471572119565242 0:0 1:1 2:0 3:0 4:0 5:1 6:0 7:1 8:244 9:1571 10:1 11:0 12:0 13:0 14:3 15:3 16:0 17:0 18:0 19:0 20:1 21:0 22:0 23:25 24:255 25:1 26:0 27:0.04 28:0.02 29:0 30:0 31:0 32:0.02 
0.020606323995698138 0:0 1:1 2:0 3:0 4:0 5:1 6:0 7:1 8:246 9:4498 10:1 11:0 12:0 13:0 14:1 15:1 16:0 17:0 18:0 19:0 20:1 21:0 22:0 23:255 24:240 25:0.94 26:0.01 27:0 28:0 29:0 30:0 31:0.02 32:0.02 
0.0079247457949645026 0:0 1:1 2:0 3:0 4:0 5:1 6:0 7:1 8:410 9:10161 10:1 11:0 12:0 13:0 14:23 15:23 16:0 17:0 18:0 19:0 20:1 21:0 22:0 23:67 24:245 25:1 26:0 27:0.01 28:0.2 29:0 30:0 31:0.18 32:0.78 
0.011022105002795754 0:0 1:1 2:0 3:0 4:0 5:1 6:0 7:1 8:269 9:8921 10:1 11:0 12:0 13:0 14:1 15:1 16:0 17:0 18:0 19:0 20:1 21:0 22:0 23:88 24:255 25:1 26:0 27:0.01 28:0.03 29:0 30:0.02 31:0.01 32:0.03 
0.010249295661711233 0:25 1:1 2:0 3:0 4:1 5:0 6:0 7:1 8:1276 9:368 10:1 11:0 12:0 13:0 14:1 15:3 16:0 17:0 18:0 19:0 20:1 21:0 22:1 23:172 24:182 25:0.68 26:0.08 27:0.01 28:0.01 29:0.01 30:0 31:0.03 32:0.04 
0.0027263836456255883 0:0 1:1 2:0 3:0 4:0 5:1 6:0 7:1 8:288 9:337 10:1 11:0 12:0 13:0 14:24 15:24 16:0 17:0 18:0 19:0 20:1 21:0 22:0 23:23 24:255 25:1 26:0 27:0.04 28:0.05 29:0 30:0 31:0 32:0.03 
0.018524441515178961 0:0 1:1 2:0 3:0 4:0 5:1 6:0 7:1 8:188 9:585 10:1 11:0 12:0 13:0 14:1 15:1 16:0 17:0 18:0 19:0 20:1 21:0 22:0 23:255 24:238 25:0.93 26:0.01 27:0 28:0 29:0 30:0 31:0.05 32:0.05 
0.022248719668435991 0:0 1:1 2:0 3:0 4:0 5:1 6:0 7:1 8:330 9:2152 10:1 11:0 12:0 13:0 14:25 15:32 16:0 17:0 18:0 19:0 20:1 21:0 22:0.16 23:25 24:39 25:1 26:0 27:0.04 28:0.05 29:0 30:0 31:0 32:0.03 
0.022307955131534975 0:0 1:1 2:0 3:0 4:0 5:1 6:0 7:1 8:458 9:6452 10:1 11:0 12:0 13:0 14:14 15:14 16:0 17:0 18:0 19:0 20:1 21:0 22:0 23:255 24:255 25:1 26:0 27:0 28:0 29:0 30:0 31:0.02 32:0.02 
0.011291121527020333 0:0 1:1 2:0 3:0 4:0 5:1 6:0 7:1 8:418 9:6726 10:1 11:0 12:0 13:0 14:5 15:5 16:0 17:0 18:0 19:0 20:1 21:0 22:0 23:89 24:245 25:1 26:0 27:0.01 28:0.17 29:0 30:0 31:0.13 32:0.69 
0.017462985456384007 0:0 1:1 2:0 3:0 4:0 5:1 6:0 7:1 8:338 9:1512 10:1 11:0 12:0 13:0 14:4 15:4 16:0 17:0 18:0 19:0 20:1 21:0 22:0 23:143 24:172 25:1 26:0 27:0.01 28:0.02 29:0 30:0.01 31:0.02 32:0.05 
0.022293680621889994 0:0 1:1 2:0 3:0 4:1 5:0 6:1 7:0 8:1151 9:8390 10:1 11:0 12:0 13:0 14:1 15:1 16:1 17:1 18:0 19:0 20:1 21:0 22:0 23:101 24:23 25:0.23 26:0.06 27:0.01 28:0 29:0.02 30:0.09 31:0.08 32:0.35 
0.017051272556375882 0:0 1:1 2:0 3:0 4:0 5:1 6:0 7:1 8:247 9:2955 10:1 11:0 12:0 13:0 14:3 15:3 16:0.33 17:0.33 18:0 19:0 20:1 21:0 22:0 23:130 24:255 25:1 26:0 27:0.01 28:0.05 29:0.01 30:0 31:0.23 32:0.59 
0.0056138149420845648 0:0 1:1 2:0 3:0 4:0 5:1 6:0 7:1 8:335 9:951 10:1 11:0 12:0 13:0 14:4 15:4 16:0 17:0 18:0 19:0 20:1 21:0 22:0 23:19 24:255 25:1 26:0 27:0.05 28:0.07 29:0 30:0 31:0.11 32:0.05 
0.01306474296899836 0:0 1:1 2:0 3:0 4:0 5:1 6:0 7:1 8:204 9:633 10:1 11:0 12:0 13:0 14:2 15:3 16:0 17:0 18:0 19:0 20:1 21:0 22:0.67 23:161 24:255 25:1 26:0 27:0.01 28:0.04 29:0.01 30:0.01 31:0 32:0.02 
0.016645458210543279 0:0 1:1 2:0 3:0 4:0 5:1 6:0 7:1 8:209 9:3410 10:1 11:0 12:0 13:0 14:40 15:40 16:0 17:0 18:0 19:0 20:1 21:0 22:0 23:255 24:255 25:1 26:0 27:0 28:0 29:0 30:0 31:0.31 32:0.31 
0.0064569660373489388 0:0 1:1 2:0 3:0 4:0 5:1 6:0 7:1 8:246 9:1484 10:1 11:0 12:0 13:0 14:10 15:10 16:0 17:0 18:0 19:0 20:1 21:0 22:0 23:183 24:255 25:1 26:0 27:0.01 28:0.01 29:0.01 30:0 31:0.04 32:0.03 
0.0037982214406895812 0:0 1:1 2:0 3:0 4:0 5:1 6:0 7:1 8:385 9:361 10:1 11:0 12:0 13:0 14:12 15:12 16:0 17:0 18:0 19:0 20:1 21:0 22:0 23:75 24:231 25:1 26:0 27:0.01 28:0.19 29:0 30:0 31:0.08 32:0.7 
0.0011588026666311234 0:0 1:1 2:0 3:0 4:0 5:1 6:0 7:1 8:374 9:1861 10:1 11:0 12:0 13:0 14:1 15:1 16:0 17:0 18:0 19:0 20:1 21:0 22:0 23:64 24:231 25:1 26:0 27:0.02 28:0.2 29:0 30:0 31:0.09 32:0.75 
0.014129142776295917 0:0 1:1 2:0 3:0 4:0 5:1 6:0 7:1 8:308 9:1924 10:1 11:0 12:0 13:0 14:8 15:8 16:0 17:0 18:0 19:0 20:1 21:0 22:0 23:180 24:255 25:1 26:0 27:0.01 28:0.02 29:0 30:0 31:0.01 32:0.03 
0.016238306840726271 0:0 1:1 2:0 3:0 4:0 5:1 6:0 7:1 8:368 9:2751 10:1 11:0 12:0 13:0 14:3 15:9 16:0 17:0 18:0 19:0 20:1 21:0 22:0.44 23:23 24:231 25:1 26:0 27:0.04 28:0.22 29:0 30:0 31:0.13 32:0.81 
0.0032851546120831608 0:0 1:1 2:0 3:0 4:0 5:1 6:0 7:1 8:297 9:9287 10:1 11:0 12:0 13:0 14:2 15:2 16:0 17:0 18:0 19:0 20:1 21:0 22:0 23:167 24:255 25:1 26:0 27:0.01 28:0.01 29:0 30:0 31:0.1 32:0.07 
0.0091825400491758573 0:0 1:1 2:0 3:0 4:0 5:1 6:0 7:1 8:199 9:2200 10:1 11:0 12:0 13:0 14:10 15:10 16:0 17:0 18:0 19:0 20:1 21:0 22:0 23:10 24:255 25:1 26:0 27:0.1 28:0.08 29:0 30:0 31:0 32:0.46 
0.0067134535460557643 0:0 1:1 2:0 3:0 4:0 5:1 6:0 7:1 8:327 9:1921 10:1 11:0 12:0 13:0 14:3 15:3 16:0 17:0 18:0 19:0 20:1 21:0 22:0 23:57 24:255 25:1 26:0 27:0.02 28:0.18 29:0 30:0 31:0.26 32:0.76 
0.0099081274456544396 0:0 1:1 2:0 3:0 4:0 5:1 6:0 7:1 8:237 9:1280 10:1 11:0 12:0 13:0 14:8 15:23 16:0 17:0 18:0 19:0 20:1 21:0 22:0.17 23:9 24:255 25:1 26:0 27:0.11 28:0.15 29:0 30:0 31:0.11 32:0.82 
0.015021591917245983 0:0 1:1 2:0 3:0 4:0 5:1 6:0 7:1 8:210 9:4046 10:1 11:0 12:0 13:0 14:2 15:9 16:0 17:0 18:0 19:0 20:1 21:0 22:0.22 23:2 24:255 25:1 26:0 27:0.5 28:0.03 29:0 30:0.02 31:0 32:0.02 
0.017838991203764736 0:0 1:1 2:0 3:0 4:1 5:0 6:1 7:0 8:251 9:1070 10:1 11:0 12:0 13:0 14:1 15:1 16:1 17:1 18:0 19:0 20:1 21:0 22:0 23:50 24:14 25:0.28 26:0.04 27:0.02 28:0 29:0.02 30:0.07 31:0.22 32:0.79 
0.021077945547780488 0:0 1:1 2:0 3:0 4:0 5:1 6:0 7:1 8:233 9:19796 10:1 11:0 12:0 13:0 14:1 15:1 16:0 17:0 18:0 19:0 20:1 21:0 22:0 23:185 24:255 25:1 26:0 27:0.01 28:0.02 29:0 30:0.01 31:0.14 32:0.12 
0.0037028292362751196 0:0 1:1 2:0 3:0 4:0 5:1 6:0 7:1 8:359 9:779 10:1 11:0 12:0 13:0 14:10 15:10 16:0 17:0 18:0 19:0 20:1 21:0 22:0 23:130 24:255 25:1 26:0 27:0.01 28:0.02 29:0 30:0 31:0.08 32:0.06 
0.022143995084568813 0:0 1:1 2:0 3:0 4:0 5:1 6:0 7:1 8:163 9:19076 10:1 11:0 12:0 13:0 14:1 15:1 16:0 17:0 18:0 19:0 20:1 21:0 22:0 23:255 24:255 25:1 26:0 27:0 28:0 29:0 30:0 31:0.13 32:0.13 
0.0019722204052096989 0:0 1:1 2:0 3:0 4:0 5:1 6:0 7:1 8:276 9:2543 10:1 11:0 12:0 13:0 14:20 15:20 16:0 17:0 18:0 19:0 20:1 21:0 22:0 23:255 24:255 25:1 26:0 27:0 28:0 29:0 30:0 31:0.04 32:0.04 
0.019067514417061868 0:0 1:1 2:0 3:0 4:0 5:1 6:0 7:1 8:423 9:705 10:1 11:0 12:0 13:0 14:1 15:4 16:0 17:0 18:0 19:0 20:1 21:0 22:0.75 23:6 24:255 25:1 26:0 27:0.17 28:0.04 29:0 30:0 31:0 32:0.04 
0.0077994230329150281 0:0 1:1 2:0 3:0 4:0 5:1 6:0 7:1 8:235 9:6225 10:1 11:0 12:0 13:0 14:11 15:13 16:0 17:0.15 18:0 19:0 20:1 21:0 22:0.23 23:63 24:255 25:1 26:0 27:0.02 28:0.11 29:0 30:0 31:0.79 32:0.68 
0.012479381447325131 0:0 1:1 2:0 3:0 4:0 5:1 6:0 7:1 8:207 9:2429 10:1 11:0 12:0 13:0 14:2 15:2 16:0 17:0 18:0 19:0 20:1 21:0 22:0 23:2 24:255 25:1 26:0 27:0.5 28:0.16 29:0 30:0 31:0 32:0.6 
0.0078131283070737786 0:0 1:1 2:0 3:0 4:0 5:1 6:0 7:1 8:306 9:526 10:1 11:0 12:0 13:0 14:1 15:4 16:0 17:0 18:0 19:0 20:1 21:0 22:0.75 23:8 24:255 25:1 26:0 27:0.12 28:0.03 29:0 30:0 31:0.38 32:0.02 
0.018153701526137593 0:0 1:1 2:0 3:0 4:0 5:1 6:0 7:1 8:241 9:191 10:1 11:0 12:0 13:0 14:41 15:41 16:0 17:0 18:0 19:0 20:1 21:0 22:0 23:255 24:255 25:1 26:0 27:0 28:0 29:0 30:0 31:0.02 32:0.02 
0.0017565075878049376 0:0 1:1 2:0 3:0 4:0 5:1 6:0 7:1 8:355 9:2761 10:1 11:0 12:0 13:0 14:2 15:2 16:0.5 17:0.5 18:0 19:0 20:1 21:0 22:0 23:134 24:255 25:1 26:0 27:0.01 28:0.04 29:0.01 30:0 31:0.13 32:0.08 
0.009019770066285274 0:0 1:1 2:0 3:0 4:1 5:0 6:0 7:1 8:1862 9:331 10:1 11:0 12:0 13:0 14:1 15:1 16:0 17:0 18:0 19:0 20:1 21:0 22:0 23:104 24:164 25:0.63 26:0.04 27:0.01 28:0.01 29:0 30:0 31:0.02 32:0.05 
0.01289828544010492 0:28 1:1 2:0 3:0 4:1 5:0 6:0 7:1 8:326 9:1063 10:1 11:0 12:0 13:0 14:1 15:1 16:0 17:0 18:0 19:0 20:1 21:0 22:0 23:46 24:13 25:0.28 26:0.09 27:0.02 28:0 29:0 30:0 31:0.07 32:0.15 
0.013446401084684458 0:28 1:1 2:0 3:0 4:1 5:0 6:0 7:1 8:861 9:2586 10:1 11:0 12:0 13:0 14:1 15:1 16:0 17:0 18:0 19:0 20:1 21:0 22:0 23:175 24:28 25:0.16 26:0.04 27:0.01 28:0 29:0 30:0 31:0.01 32:0.07 
0.021171562742697287 0:0 1:1 2:0 3:0 4:0 5:1 6:0 7:1 8:307 9:8792 10:1 11:0 12:0 13:0 14:7 15:9 16:0 17:0 18:0 19:0 20:1 21:0 22:0.33 23:23 24:96 25:1 26:0 27:0.04 28:0.08 29:0 30:0 31:0 32:0.02 
0.012467720549670162 0:0 1:1 2:0 3:0 4:1 5:0 6:0 7:1 8:1053 9:394 10:1 11:0 12:0 13:0 14:1 15:1 16:0 17:0 18:0 19:0 20:1 21:0 22:0 23:255 24:73 25:0.29 26:0.06 27:0 28:0 29:0.47 30:0 31:0.05 32:0.03 
0.013400843911178536 0:0 1:1 2:0 3:0 4:0 5:1 6:0 7:1 8:241 9:9284 10:1 11:0 12:0 13:0 14:17 15:17 16:0 17:0 18:0 19:0 20:1 21:0 22:0 23:90 24:255 25:1 26:0 27:0.01 28:0.02 29:0 30:0.01 31:0.04 32:0.04 
0.012769501335046063 0:27 1:1 2:0 3:0 4:1 5:0 6:0 7:1 8:1190 9:3380 10:1 11:0 12:0 13:0 14:1 15:1 16:0 17:0 18:0 19:0 20:1 21:0 22:0 23:255 24:49 25:0.19 26:0.02 27:0 28:0 29:0 30:0 31:0.06 32:0.12 
0.021447986516586689 0:0 1:1 2:0 3:0 4:1 5:0 6:0 7:1 8:1276 9:436 10:1 11:0 12:0 13:0 14:1 15:3 16:0 17:0 18:0 19:0 20:1 21:0 22:1 23:76 24:49 25:0.07 26:0.93 27:0.01 28:0.04 29:0 30:0 31:0.91 32:0.04 
0.0035434743864366566 0:0 1:1 2:0 3:0 4:0 5:1 6:0 7:1 8:239 9:2964 10:1 11:0 12:0 13:0 14:30 15:30 16:0 17:0 18:0 19:0 20:1 21:0 22:0 23:255 24:255 25:1 26:0 27:0 28:0 29:0 30:0 31:0.33 32:0.33 
0.013923390637568424 0:1 1:1 2:0 3:0 4:1 5:0 6:0 7:1 8:1624 9:336 10:1 11:0 12:0 13:0 14:1 15:2 16:0 17:0 18:0 19:0 20:1 21:0 22:1 23:126 24:193 25:0.83 26:0.03 27:0.01 28:0.01 29:0 30:0 31:0.04 32:0.05 
0.0067758094697667193 0:0 1:1 2:0 3:0 4:0 5:1 6:0 7:1 8:190 9:332 10:1 11:0 12:0 13:0 14:7 15:20 16:0 17:0 18:0 19:0 20:1 21:0 22:0.1 23:36 24:255 25:1 26:0 27:0.03 28:0.02 29:0 30:0 31:0.08 32:0.04 
0.020421167793301751 0:1 1:1 2:0 3:0 4:1 5:0 6:0 7:1 8:1406 9:412 10:1 11:0 12:0 13:0 14:1 15:2 16:0 17:0 18:0 19:0 20:1 21:0 22:1 23:255 24:169 25:0.66 26:0.02 27:0 28:0 29:0 30:0 31:0.04 32:0.04 
0.015126156476840463 0:0 1:1 2:0 3:0 4:0 5:1 6:0 7:1 8:181 9:5929 10:1 11:0 12:0 13:0 14:5 15:12 16:0 17:0 18:0 19:0 20:1 21:0 22:0.17 23:19 24:255 25:1 26:0 27:0.05 28:0.1 29:0 30:0 31:0.16 32:0.32 
0.013799942214019359 0:27 1:1 2:0 3:0 4:1 5:0 6:0 7:1 8:1234 9:3380 10:1 11:0 12:0 13:0 14:1 15:1 16:0 17:0 18:0 19:0 20:1 21:0 22:0 23:255 24:64 25:0.25 26:0.03 27:0 28:0 29:0 30:0 31:0 32:0.02 
0.0073029139940842284 0:0 1:1 2:0 3:0 4:0 5:1 6:0 7:1 8:318 9:1790 10:1 11:0 12:0 13:0 14:3 15:3 16:0 17:0 18:0 19:0 20:1 21:0 22:0 23:10 24:227 25:1 26:0 27:0.1 28:0.11 29:0 30:0 31:0.1 32:0.67 
0.017561572521884578 0:0 1:1 2:0 3:0 4:0 5:1 6:0 7:1 8:158 9:2500 10:1 11:0 12:0 13:0 14:15 15:15 16:0 17:0 18:0 19:0 20:1 21:0 22:0 23:39 24:229 25:1 26:0 27:0.03 28:0.06 29:0 30:0 31:0 32:0.54 
0.014293515896237688 0:0 1:1 2:0 3:0 4:1 5:0 6:0 7:1 8:607 9:337 10:1 11:0 12:0 13:0 14:1 15:1 16:0 17:0 18:0 19:0 20:1 21:0 22:0 23:89 24:177 25:0.85 26:0.03 27:0.01 28:0.01 29:0 30:0 31:0.03 32:0.05 
0.0039308717448197483 0:0 1:1 2:0 3:0 4:0 5:1 6:0 7:1 8:238 9:406 10:1 11:0 12:0 13:0 14:24 15:24 16:0 17:0 18:0 19:0 20:1 21:0 22:0 23:181 24:255 25:1 26:0 27:0.01 28:0.08 29:0 30:0 31:0.4 32:0.56 
0.022235428830173244 0:0 1:1 2:0 3:0 4:0 5:1 6:1 7:0 8:298 9:14600 10:1 11:0 12:0 13:0 14:1 15:1 16:1 17:1 18:0 19:0 20:1 21:0 22:0 23:120 24:255 25:1 26:0 27:0.01 28:0.02 29:0.01 30:0 31:0.06 32:0.04 
0.0031003478928687319 0:0 1:1 2:0 3:0 4:0 5:1 6:0 7:1 8:349 9:263 10:1 11:0 12:0 13:0 14:17 15:30 16:0 17:0 18:0 19:0 20:1 21:0 22:0.2 23:49 24:250 25:1 26:0 27:0.02 28:0.11 29:0 30:0 31:0.27 32:0.42 
0.012083948887574966 0:0 1:1 2:0 3:0 4:0 5:1 6:0 7:1 8:197 9:27340 10:1 11:0 12:0 13:0 14:3 15:6 16:0 17:0.17 18:0 19:0 20:1 21:0 22:0.5 23:9 24:255 25:1 26:0 27:0.11 28:0.04 29:0 30:0 31:0 32:0.03 
0.008362021486531486 0:1 1:1 2:0 3:0 4:0 5:1 6:0 7:1 8:329 9:646195 10:1 11:0 12:0 13:0 14:8 15:8 16:0 17:0 18:0 19:0 20:1 21:0 22:0 23:100 24:255 25:1 26:0 27:0.01 28:0.01 29:0 30:0 31:0.03 32:0.02 
0.0026949438235222833 0:22 1:1 2:0 3:0 4:1 5:0 6:0 7:1 8:224 9:761 10:1 11:0 12:0 13:0 14:1 15:1 16:0 17:0 18:0 19:0 20:1 21:0 22:0 23:107 24:30 25:0.28 26:0.05 27:0.01 28:0 29:0 30:0 31:0.01 32:0.03 
0.0053787389265741101 0:0 1:1 2:0 3:0 4:0 5:1 6:0 7:1 8:311 9:4359 10:1 11:0 12:0 13:0 14:13 15:13 16:0 17:0 18:0 19:0 20:1 21:0 22:0 23:255 24:255 25:1 26:0 27:0 28:0 29:0.01 30:0.01 31:0.02 32:0.02 
0.010038954990515808 0:0 1:1 2:0 3:0 4:0 5:1 6:0 7:1 8:231 9:1737 10:1 11:0 12:0 13:0 14:7 15:8 16:0 17:0 18:0 19:0 20:1 21:0 22:0.25 23:255 24:255 25:1 26:0 27:0 28:0 29:0 30:0 31:0.03 32:0.03 
0.014094149377927976 0:0 1:1 2:0 3:0 4:1 5:0 6:0 7:1 8:1137 9:389 10:1 11:0 12:0 13:0 14:1 15:1 16:0 17:0 18:0 19:0 20:1 21:0 22:0 23:255 24:84 25:0.33 26:0.05 27:0 28:0 29:0.42 30:0 31:0.05 32:0.02 
0.01685264647018039 0:0 1:1 2:0 3:0 4:0 5:1 6:0 7:1 8:296 9:2666 10:1 11:0 12:0 13:0 14:3 15:3 16:0 17:0 18:0 19:0 20:1 21:0 22:0 23:21 24:255 25:1 26:0 27:0.05 28:0.02 29:0 30:0 31:0 32:0.02 
0.014945530723276085 0:0 1:1 2:0 3:0 4:0 5:1 6:0 7:1 8:324 9:1951 10:1 11:0 12:0 13:0 14:4 15:4 16:0 17:0 18:0 19:0 20:1 21:0 22:0 23:4 24:255 25:1 26:0 27:0.25 28:0.16 29:0 30:0 31:0 32:0.96 
0.010738524309947112 0:0 1:1 2:0 3:0 4:0 5:1 6:0 7:1 8:311 9:3369 10:1 11:0 12:0 13:0 14:1 15:2 16:0 17:0 18:0 19:0 20:1 21:0 22:1 23:114 24:255 25:1 26:0 27:0.01 28:0.03 29:0 30:0.01 31:0.01 32:0.03 
0.02240491910121286 0:0 1:1 2:0 3:0 4:0 5:1 6:0 7:1 8:273 9:50390 10:1 11:0 12:0 13:0 14:1 15:1 16:0 17:0 18:0 19:0 20:1 21:0 22:0 23:46 24:255 25:1 26:0 27:0.02 28:0.05 29:0 30:0 31:0 32:0.05 
0.0092746273547631031 0:0 1:1 2:0 3:0 4:0 5:1 6:0 7:1 8:315 9:515 10:1 11:0 12:0 13:0 14:16 15:16 16:0 17:0 18:0 19:0 20:1 21:0 22:0 23:183 24:255 25:1 26:0 27:0.01 28:0.06 29:0 30:0 31:0.46 32:0.6 
0.015845218298075364 0:0 1:1 2:0 3:0 4:0 5:1 6:0 7:1 8:405 9:3968 10:1 11:0 12:0 13:0 14:5 15:5 16:0 17:0 18:0 19:0 20:1 21:0 22:0 23:21 24:255 25:1 26:0 27:0.05 28:0.21 29:0 30:0 31:0.71 32:0.87 
0.021505618983395612 0:28 1:1 2:0 3:0 4:1 5:0 6:0 7:1 8:378 9:1181 10:1 11:0 12:0 13:0 14:1 15:1 16:0 17:0 18:0 19:0 20:1 21:0 22:0 23:255 24:48 25:0.19 26:0.02 27:0 28:0 29:0 30:0 31:0.06 32:0.12 
0.015737511536119009 0:0 1:1 2:0 3:0 4:0 5:1 6:0 7:1 8:297 9:892 10:1 11:0 12:0 13:0 14:2 15:2 16:0 17:0 18:0 19:0 20:1 21:0 22:0 23:255 24:255 25:1 26:0 27:0 28:0 29:0.01 30:0.01 31:0.02 32:0.02 
0.0029587287963944386 0:0 1:1 2:0 3:0 4:0 5:1 6:0 7:1 8:337 9:397 10:1 11:0 12:0 13:0 14:1 15:1 16:0 17:0 18:0 19:0 20:1 21:0 22:0 23:131 24:255 25:1 26:0 27:0.01 28:0.02 29:0 30:0.01 31:0.03 32:0.04 
0.0088007489655157131 0:0 1:1 2:0 3:0 4:0 5:1 6:0 7:1 8:270 9:488 10:1 11:0 12:0 13:0 14:1 15:2 16:0 17:0 18:0 19:0 20:1 21:0 22:1 23:37 24:211 25:1 26:0 27:0.03 28:0.09 29:0 30:0 31:0.38 32:0.69 
0.0066333486432686474 0:0 1:1 2:0 3:0 4:1 5:0 6:0 7:1 8:998 9:329 10:1 11:0 12:0 13:0 14:1 15:1 16:0 17:0 18:0 19:0 20:1 21:0 22:0 23:9 24:198 25:1 26:0 27:0.11 28:0.02 29:0 30:0 31:0 32:0.06 
0.0066421724959095131 0:0 1:1 2:0 3:0 4:1 5:0 6:0 7:1 8:904 9:342 10:1 11:0 12:0 13:0 14:1 15:1 16:0 17:0 18:0 19:0 20:1 21:0 22:0 23:82 24:140 25:0.49 26:0.06 27:0.01 28:0.01 29:0 30:0 31:0.01 32:0.02 
0.011738219230042809 0:0 1:1 2:0 3:0 4:1 5:0 6:0 7:1 8:810 9:326 10:1 11:0 12:0 13:0 14:1 15:2 16:0 17:0 18:0 19:0 20:1 21:0 22:1 23:41 24:195 25:0.83 26:0.07 27:0.02 28:0.02 29:0 30:0 31:0.02 32:0.06 
0.012315869372987408 0:0 1:1 2:0 3:0 4:0 5:1 6:0 7:1 8:296 9:3909 10:1 11:0 12:0 13:0 14:3 15:3 16:0.33 17:0.33 18:0 19:0 20:1 21:0 22:0 23:3 24:255 25:1 26:0 27:0.33 28:0.02 29:0.33 30:0.02 31:0 32:0.03 
0.02232829681151699 0:0 1:1 2:0 3:0 4:0 5:1 6:0 7:1 8:215 9:4862 10:1 11:0 12:0 13:0 14:5 15:5 16:0 17:0 18:0 19:0 20:1 21:0 22:0 23:5 24:30 25:1 26:0 27:0.2 28:0.13 29:0 30:0 31:0 32:0.03 
0.011227902697928028 0:0 1:1 2:0 3:0 4:0 5:1 6:0 7:1 8:298 9:3127 10:1 11:0 12:0 13:0 14:42 15:42 16:0 17:0 18:0 19:0 20:1 21:0 22:0 23:255 24:255 25:1 26:0 27:0 28:0 29:0 30:0 31:0.05 32:0.05 
0.013356619625501689 0:0 1:1 2:0 3:0 4:0 5:1 6:0 7:1 8:341 9:9041 10:1 11:0 12:0 13:0 14:1 15:1 16:0 17:0 18:0 19:0 20:1 21:0 22:0 23:29 24:255 25:1 26:0 27:0.03 28:0.2 29:0 30:0 31:0.52 32:0.84 
0.012235941987149978 0:27 1:1 2:0 3:0 4:1 5:0 6:0 7:1 8:1468 9:4152 10:1 11:0 12:0 13:0 14:1 15:1 16:0 17:0 18:0 19:0 20:1 21:0 22:0 23:255 24:46 25:0.18 26:0.02 27:0 28:0 29:0 30:0 31:0.06 32:0.13 
0.019003810640448673 0:0 1:1 2:0 3:0 4:0 5:1 6:0 7:1 8:212 9:2531 10:1 11:0 12:0 13:0 14:1 15:1 16:0 17:0 18:0 19:0 20:1 21:0 22:0 23:47 24:47 25:1 26:0 27:0.02 28:0 29:0.02 30:0.02 31:0.68 32:0.68 
0.011074568604473384 0:0 1:1 2:0 3:0 4:0 5:1 6:0 7:1 8:306 9:1047 10:1 11:0 12:0 13:0 14:3 15:3 16:0 17:0 18:0 19:0 20:1 21:0 22:0 23:137 24:241 25:1 26:0 27:0.01 28:0.01 29:0 30:0 31:0.03 32:0.02 
0.022171905803635372 0:0 1:1 2:0 3:0 4:0 5:1 6:0 7:1 8:182 9:10920 10:1 11:0 12:0 13:0 14:4 15:22 16:0 17:0 18:0 19:0 20:1 21:0 22:0.23 23:53 24:215 25:1 26:0 27:0.02 28:0.15 29:0 30:0 31:0.51 32:0.59 
0.01443219814890245 0:0 1:1 2:0 3:0 4:0 5:1 6:0 7:1 8:243 9:3446 10:1 11:0 12:0 13:0 14:11 15:11 16:0 17:0 18:0 19:0 20:1 21:0 22:0 23:255 24:255 25:1 26:0 27:0 28:0 29:0.01 30:0.01 31:0.07 32:0.07 
0.017750071566144221 0:0 1:1 2:0 3:0 4:0 5:1 6:0 7:1 8:257 9:4049 10:1 11:0 12:0 13:0 14:1 15:1 16:0 17:0 18:0 19:0 20:1 21:0 22:0 23:166 24:255 25:1 26:0 27:0.01 28:0.01 29:0 30:0 31:0.1 32:0.07 
0.020378813680944526 0:2 1:1 2:0 3:0 4:1 5:0 6:0 7:1 8:12323 9:1437 10:1 11:0 12:0 13:0 14:1 15:1 16:0 17:0 18:0 19:0 20:1 21:0 22:0 23:142 24:154 25:0.61 26:0.04 27:0.01 28:0.01 29:0 30:0 31:0.02 32:0.03 
0.020548808372595595 0:0 1:1 2:0 3:0 4:0 5:1 6:0 7:1 8:322 9:4287 10:1 11:0 12:0 13:0 14:21 15:22 16:0 17:0 18:0 19:0 20:1 21:0 22:0.09 23:182 24:255 25:1 26:0 27:0.01 28:0.05 29:0 30:0 31:0.49 32:0.6 
0.014859486045281908 0:0 1:1 2:0 3:0 4:0 5:1 6:0 7:1 8:276 9:3801 10:1 11:0 12:0 13:0 14:13 15:31 16:0 17:0 18:0 19:0 20:1 21:0 22:0.1 23:74 24:255 25:1 26:0 27:0.01 28:0.09 29:0 30:0 31:0.01 32:0.6 
0.014684667906798109 0:0 1:1 2:0 3:0 4:0 5:1 6:0 7:1 8:359 9:908 10:1 11:0 12:0 13:0 14:34 15:34 16:0 17:0 18:0 19:0 20:1 21:0 22:0 23:154 24:255 25:1 26:0 27:0.01 28:0.01 29:0 30:0 31:0.06 32:0.05 
0.016116822505533868 0:0 1:1 2:0 3:0 4:0 5:1 6:0 7:1 8:250 9:491 10:1 11:0 12:0 13:0 14:1 15:1 16:0 17:0 18:0 19:0 20:1 21:0 22:0 23:18 24:100 25:1 26:0 27:0.06 28:0.02 29:0 30:0.01 31:0.17 32:0.51 
0.016297873173087438 0:0 1:1 2:0 3:0 4:0 5:1 6:0 7:1 8:219 9:475 10:1 11:0 12:0 13:0 14:13 15:13 16:0 17:0 18:0 19:0 20:1 21:0 22:0 23:49 24:153 25:1 26:0 27:0.02 28:0.02 29:0 30:0 31:0.06 32:0.03 
0.012173693502327471 0:0 1:1 2:0 3:0 4:0 5:1 6:0 7:1 8:209 9:741 10:1 11:0 12:0 13:0 14:31 15:31 16:0 17:0 18:0 19:0 20:1 21:0 22:0 23:255 24:255 25:1 26:0 27:0 28:0 29:0 30:0 31:0.32 32:0.32 
0.0029367088611903826 0:0 1:1 2:0 3:0 4:0 5:1 6:0 7:1 8:250 9:2172 10:1 11:0 12:0 13:0 14:4 15:4 16:0.25 17:0.25 18:0 19:0 20:1 21:0 22:0 23:131 24:255 25:1 26:0 27:0.01 28:0.05 29:0.01 30:0 31:0.23 32:0.59 
0.017080385583353203 0:1 1:1 2:0 3:0 4:1 5:0 6:0 7:1 8:848 9:330 10:1 11:0 12:0 13:0 14:1 15:1 16:0 17:0 18:0 19:0 20:1 21:0 22:0 23:79 24:54 25:0.68 26:0.05 27:0.01 28:0 29:0 30:0 31:0.01 32:0.02 
0.011484178500199746 0:0 1:1 2:0 3:0 4:0 5:1 6:0 7:1 8:213 9:9186 10:1 11:0 12:0 13:0 14:1 15:1 16:0 17:0 18:0 19:0 20:1 21:0 22:0 23:222 24:255 25:1 26:0 27:0 28:0.01 29:0 30:0 31:0.03 32:0.03 
0.019611842547455006 0:1 1:1 2:0 3:0 4:1 5:0 6:0 7:1 8:3696 9:328 10:1 11:0 12:0 13:0 14:1 15:4 16:0 17:0 18:0 19:0 20:1 21:0 22:1 23:164 24:161 25:0.57 26:0.03 27:0.01 28:0.01 29:0 30:0 31:0.03 32:0.04 
0.022330725317366573 0:0 1:1 2:0 3:0 4:0 5:1 6:0 7:1 8:202 9:55044 10:1 11:0 12:0 13:0 14:12 15:12 16:0 17:0 18:0 19:0 20:1 21:0 22:0 23:87 24:255 25:1 26:0 27:0.01 28:0.06 29:0 30:0 31:0.01 32:0.06 
0.0044036878384446513 0:0 1:1 2:0 3:0 4:0 5:1 6:0 7:1 8:242 9:1377 10:1 11:0 12:0 13:0 14:12 15:12 16:0 17:0 18:0 19:0 20:1 21:0 22:0 23:36 24:255 25:1 26:0 27:0.03 28:0.02 29:0 30:0 31:0.08 32:0.09 
0.015624328065832888 0:0 1:1 2:0 3:0 4:0 5:1 6:0 7:1 8:235 9:7333 10:1 11:0 12:0 13:0 14:5 15:5 16:0.2 17:0.2 18:0 19:0 20:1 21:0 22:0 23:255 24:255 25:1 26:0 27:0 28:0 29:0 30:0 31:0.02 32:0.02 
0.0044666200075745861 0:0 1:1 2:0 3:0 4:0 5:1 6:0 7:1 8:224 9:553 10:1 11:0 12:0 13:0 14:3 15:21 16:0 17:0 18:0 19:0 20:1 21:0 22:0.1 23:27 24:30 25:1 26:0 27:0.04 28:0.07 29:0 30:0.07 31:0 32:0.03 
0.017951583207965957 0:0 1:1 2:0 3:0 4:0 5:1 6:0 7:1 8:315 9:4161 10:1 11:0 12:0 13:0 14:7 15:7 16:0 17:0 18:0 19:0 20:1 21:0 22:0 23:255 24:255 25:1 26:0 27:0 28:0 29:0.01 30:0.01 31:0.02 32:0.02 
0.001032428647061113 0:0 1:1 2:0 3:0 4:0 5:1 6:0 7:1 8:318 9:415 10:1 11:0 12:0 13:0 14:2 15:3 16:0 17:0 18:0 19:0 20:1 21:0 22:0.67 23:165 24:255 25:1 26:0 27:0.01 28:0.02 29:0 30:0.01 31:0.02 32:0.04 
0.015245443118257634 0:0 1:1 2:0 3:0 4:0 5:1 6:0 7:1 8:258 9:2366 10:1 11:0 12:0 13:0 14:11 15:12 16:0 17:0 18:0 19:0 20:1 21:0 22:0.17 23:178 24:255 25:1 26:0 27:0.01 28:0.01 29:0.01 30:0 31:0.04 32:0.03 
0.0071367662179147827 0:0 1:1 2:0 3:0 4:0 5:1 6:0 7:1 8:349 9:2920 10:1 11:0 12:0 13:0 14:7 15:7 16:0 17:0 18:0 19:0 20:1 21:0 22:0 23:78 24:255 25:1 26:0 27:0.01 28:0.15 29:0.01 30:0 31:0.26 32:0.76 
0.017694057168425609 0:0 1:1 2:0 3:0 4:0 5:1 6:0 7:1 8:304 9:1380 10:1 11:0 12:0 13:0 14:4 15:4 16:0 17:0 18:0 19:0 20:1 21:0 22:0 23:202 24:196 25:0.97 26:0.01 27:0 28:0 29:0 30:0 31:0.07 32:0.08 
0.021076779003503462 0:0 1:1 2:0 3:0 4:0 5:1 6:0 7:1 8:206 9:1668 10:1 11:0 12:0 13:0 14:5 15:5 16:0 17:0 18:0 19:0 20:1 21:0 22:0 23:20 24:23 25:1 26:0 27:0.05 28:0.09 29:0 30:0.09 31:0 32:0.04 
0.010158735666555762 0:0 1:1 2:0 3:0 4:0 5:1 6:0 7:1 8:278 9:5449 10:1 11:0 12:0 13:0 14:17 15:38 16:0 17:0 18:0 19:0 20:1 21:0 22:0.11 23:20 24:255 25:1 26:0 27:0.05 28:0.06 29:0 30:0 31:0.1 32:0.49 
0.016685298455822721 0:0 1:1 2:0 3:0 4:0 5:1 6:0 7:1 8:211 9:11359 10:1 11:0 12:0 13:0 14:38 15:38 16:0 17:0 18:0 19:0 20:1 21:0 22:0 23:123 24:254 25:1 26:0 27:0.01 28:0.1 29:0 30:0 31:0.31 32:0.67 
0.019685922140382953 0:0 1:1 2:0 3:0 4:0 5:1 6:0 7:1 8:324 9:3410 10:1 11:0 12:0 13:0 14:9 15:9 16:0 17:0 18:0 19:0 20:1 21:0 22:0 23:11 24:255 25:1 26:0 27:0.09 28:0.14 29:0 30:0 31:0.18 32:0.85 
0.021692133842942281 0:0 1:1 2:0 3:0 4:0 5:1 6:0 7:1 8:295 9:0 10:1 11:0 12:0 13:0 14:2 15:2 16:0 17:0 18:0 19:0 20:1 21:0 22:0 23:27 24:113 25:1 26:0 27:0.04 28:0.17 29:0 30:0.01 31:0.89 32:0.85 
0.0094598927199872652 0:0 1:1 2:0 3:0 4:0 5:1 6:0 7:1 8:319 9:10093 10:1 11:0 12:0 13:0 14:1 15:23 16:0 17:0 18:0 19:0 20:1 21:0 22:0.09 23:255 24:255 25:1 26:0 27:0 28:0 29:0 30:0 31:0.05 32:0.05 
0.016101512721655782 0:0 1:1 2:0 3:0 4:0 5:1 6:0 7:1 8:240 9:4359 10:1 11:0 12:0 13:0 14:13 15:13 16:0 17:0 18:0 19:0 20:1 21:0 22:0 23:86 24:255 25:1 26:0 27:0.01 28:0.02 29:0 30:0.01 31:0.05 32:0.04 
0.020256329320287918 0:12 1:1 2:0 3:0 4:1 5:0 6:1 7:0 8:12252 9:1400 10:1 11:0 12:0 13:0 14:1 15:1 16:1 17:1 18:0 19:0 20:1 21:0 22:0 23:175 24:175 25:0.69 26:0.02 27:0.01 28:0.01 29:0.01 30:0.01 31:0.02 32:0.03 
0.0062691763667947226 0:0 1:1 2:0 3:0 4:0 5:1 6:0 7:1 8:204 9:1963 10:1 11:0 12:0 13:0 14:11 15:13 16:0 17:0 18:0 19:0 20:1 21:0 22:0.23 23:43 24:255 25:1 26:0 27:0.02 28:0.03 29:0 30:0 31:0 32:0.02 
0.0020834049831254167 0:98 1:1 2:0 3:0 4:0 5:1 6:0 7:1 8:303 9:259 10:1 11:0 12:0 13:0 14:1 15:1 16:0 17:0 18:0 19:0 20:1 21:0 22:0 23:255 24:253 25:0.99 26:0.01 27:0 28:0 29:0 30:0 31:0.04 32:0.04 
0.0035747959635632921 0:0 1:1 2:0 3:0 4:0 5:1 6:0 7:1 8:375 9:468 10:1 11:0 12:0 13:0 14:14 15:15 16:0 17:0 18:0 19:0 20:1 21:0 22:0.13 23:77 24:231 25:1 26:0 27:0.01 28:0.19 29:0 30:0 31:0.08 32:0.69 
0.0058055687508733493 0:0 1:1 2:0 3:0 4:0 5:1 6:0 7:1 8:220 9:1528 10:1 11:0 12:0 13:0 14:4 15:4 16:0 17:0 18:0 19:0 20:1 21:0 22:0 23:224 24:253 25:1 26:0 27:0 28:0.01 29:0 30:0.01 31:0.01 32:0.03 
0.0081504141954484056 0:0 1:1 2:0 3:0 4:0 5:1 6:0 7:1 8:209 9:685 10:1 11:0 12:0 13:0 14:6 15:17 16:0 17:0 18:0 19:0 20:1 21:0 22:0.12 23:8 24:255 25:1 26:0 27:0.12 28:0.11 29:0 30:0 31:0 32:0.62 
0.0099839800710756696 0:0 1:1 2:0 3:0 4:0 5:1 6:0 7:1 8:181 9:9287 10:1 11:0 12:0 13:0 14:1 15:1 16:0 17:0 18:0 19:0 20:1 21:0 22:0 23:80 24:255 25:1 26:0 27:0.01 28:0.02 29:0 30:0 31:0.21 32:0.07 
0.022326061612192256 0:236 1:1 2:0 3:0 4:1 5:0 6:0 7:1 8:270 9:1629 10:1 11:0 12:0 13:0 14:1 15:1 16:0 17:0 18:0 19:0 20:1 21:0 22:0 23:50 24:11 25:0.22 26:0.06 27:0.02 28:0 29:0 30:0 31:0.04 32:0.18 
0.010643368696089438 0:5 1:1 2:0 3:0 4:1 5:0 6:0 7:1 8:924 9:336 10:1 11:0 12:0 13:0 14:1 15:1 16:0 17:0 18:0 19:0 20:1 21:0 22:0 23:133 24:190 25:0.76 26:0.03 27:0.01 28:0.01 29:0 30:0 31:0.02 32:0.04 
0.009748191262119732 0:0 1:1 2:0 3:0 4:0 5:1 6:0 7:1 8:340 9:689 10:1 11:0 12:0 13:0 14:1 15:1 16:0 17:0 18:0 19:0 20:1 21:0 22:0 23:1 24:223 25:1 26:0 27:1 28:0.18 29:0 30:0 31:0 32:1 
0.022287317512917335 0:0 1:1 2:0 3:0 4:0 5:1 6:0 7:1 8:403 9:4438 10:1 11:0 12:0 13:0 14:7 15:7 16:0 17:0 18:0 19:0 20:1 21:0 22:0 23:133 24:247 25:1 26:0 27:0.01 28:0.13 29:0 30:0 31:0.09 32:0.51 
0.015681688188480654 0:0 1:1 2:0 3:0 4:0 5:1 6:0 7:1 8:401 9:5454 10:1 11:0 12:0 13:0 14:14 15:14 16:0 17:0 18:0 19:0 20:1 21:0 22:0 23:58 24:245 25:1 26:0 27:0.02 28:0.22 29:0 30:0 31:0.21 32:0.81 
0.0056645298427102711 0:0 1:1 2:0 3:0 4:0 5:1 6:0 7:1 8:297 9:844 10:1 11:0 12:0 13:0 14:18 15:20 16:0 17:0 18:0 19:0 20:1 21:0 22:0.15 23:211 24:255 25:1 26:0 27:0 28:0.02 29:0 30:0 31:0 32:0.02 
0.0068518671811297512 0:0 1:1 2:0 3:0 4:0 5:1 6:0 7:1 8:306 9:607 10:1 11:0 12:0 13:0 14:17 15:30 16:0.06 17:0.03 18:0 19:0 20:1 21:0 22:0.07 23:255 24:255 25:1 26:0 27:0 28:0 29:0.01 30:0.01 31:0.02 32:0.02 
0.014157457213872415 0:0 1:1 2:0 3:0 4:0 5:1 6:0 7:1 8:246 9:9055 10:1 11:0 12:0 13:0 14:1 15:1 16:0 17:0 18:0 19:0 20:1 21:0 22:0 23:19 24:255 25:1 26:0 27:0.05 28:0.2 29:0 30:0 31:0 32:0.93 
0.022295250676126765 0:0 1:1 2:0 3:0 4:0 5:1 6:0 7:1 8:225 9:17888 10:1 11:0 12:0 13:0 14:4 15:7 16:0 17:0 18:0 19:0.14 20:1 21:0 22:0.29 23:7 24:13 25:1 26:0 27:0.14 28:0.23 29:0 30:0 31:0 32:0.08 
0.002492708411978314 0:0 1:1 2:0 3:0 4:0 5:1 6:0 7:1 8:365 9:295 10:1 11:0 12:0 13:0 14:8 15:9 16:0 17:0 18:0 19:0 20:1 21:0 22:0.22 23:9 24:247 25:1 26:0 27:0.11 28:0.12 29:0 30:0 31:0 32:0.72 
0.0090243517550858653 0:23 1:1 2:0 3:0 4:1 5:0 6:0 7:1 8:301 9:1043 10:1 11:0 12:0 13:0 14:1 15:1 16:0 17:0 18:0 19:0 20:1 21:0 22:0 23:116 24:32 25:0.28 26:0.04 27:0.01 28:0 29:0 30:0 31:0.01 32:0.03 
0.012402070761535385 0:0 1:1 2:0 3:0 4:0 5:1 6:0 7:1 8:219 9:3248 10:1 11:0 12:0 13:0 14:11 15:11 16:0 17:0 18:0 19:0 20:1 21:0 22:0 23:76 24:255 25:1 26:0 27:0.01 28:0.02 29:0 30:0 31:0.22 32:0.31 
0.004913228591058927 0:0 1:1 2:0 3:0 4:0 5:1 6:0 7:1 8:213 9:298 10:1 11:0 12:0 13:0 14:9 15:9 16:0 17:0 18:0 19:0 20:1 21:0 22:0 23:157 24:255 25:1 26:0 27:0.01 28:0.01 29:0 30:0 31:0.03 32:0.02 
0.0067990774285714402 0:0 1:1 2:0 3:0 4:0 5:1 6:0 7:1 8:214 9:1400 10:1 11:0 12:0 13:0 14:39 15:44 16:0 17:0 18:0 19:0 20:1 21:0 22:0.05 23:255 24:255 25:1 26:0 27:0 28:0 29:0 30:0 31:0.05 32:0.05 
0.01713570263961146 0:0 1:1 2:0 3:0 4:1 5:0 6:0 7:1 8:796 9:390 10:1 11:0 12:0 13:0 14:1 15:1 16:0 17:0 18:0 19:0 20:1 21:0 22:0 23:3 24:184 25:0.67 26:0.67 27:0.33 28:0.02 29:0.33 30:0 31:0 32:0.05 
0.0017841329732643544 0:0 1:1 2:0 3:0 4:0 5:1 6:0 7:1 8:219 9:430 10:1 11:0 12:0 13:0 14:13 15:13 16:0 17:0 18:0 19:0 20:1 21:0 22:0 23:137 24:255 25:1 26:0 27:0.01 28:0.01 29:0 30:0 31:0.1 32:0.05 
0.0036155762017913342 0:0 1:1 2:0 3:0 4:0 5:1 6:0 7:1 8:294 9:2750 10:1 11:0 12:0 13:0 14:3 15:4 16:0 17:0 18:0 19:0 20:1 21:0 22:0.5 23:44 24:255 25:1 26:0 27:0.02 28:0.04 29:0 30:0.01 31:0 32:0.02 
0.0023894552096050525 0:0 1:1 2:0 3:0 4:0 5:1 6:0 7:1 8:208 9:552 10:1 11:0 12:0 13:0 14:5 15:23 16:0 17:0 18:0 19:0 20:1 21:0 22:0.13 23:45 24:253 25:1 26:0 27:0.02 28:0.14 29:0 30:0 31:0.33 32:0.53 
0.0082393058744514632 0:0 1:1 2:0 3:0 4:0 5:1 6:0 7:1 8:233 9:1645 10:1 11:0 12:0 13:0 14:4 15:4 16:0 17:0 18:0 19:0 20:1 21:0 22:0 23:203 24:255 25:1 26:0 27:0 28:0.01 29:0 30:0 31:0.03 32:0.03 
0.019628708045545954 0:0 1:1 2:0 3:0 4:0 5:1 6:0 7:1 8:310 9:516 10:1 11:0 12:0 13:0 14:4 15:44 16:0 17:0 18:0 19:0 20:1 21:0 22:0.05 23:4 24:145 25:1 26:0 27:0.25 28:0.2 29:0 30:0 31:0 32:0.64 
0.022300271961366427 0:0 1:1 2:0 3:0 4:0 5:1 6:0 7:1 8:204 9:6632 10:1 11:0 12:0 13:0 14:7 15:25 16:0 17:0 18:0 19:0 20:1 21:0 22:0.12 23:7 24:57 25:1 26:0 27:0.14 28:0.07 29:0 30:0.04 31:0 32:0.02 
0.017624075048658989 0:0 1:1 2:0 3:0 4:0 5:1 6:0 7:1 8:349 9:6773 10:1 11:0 12:0 13:0 14:4 15:4 16:0 17:0 18:0 19:0 20:1 21:0 22:0 23:106 24:255 25:1 26:0 27:0.01 28:0.03 29:0 30:0.01 31:0.01 32:0.03 
0.020547903882229622 0:0 1:1 2:0 3:0 4:0 5:1 6:0 7:1 8:297 9:3992 10:1 11:0 12:0 13:0 14:2 15:2 16:0 17:0 18:0 19:0 20:1 21:0 22:0 23:255 24:255 25:1 26:0 27:0 28:0 29:0.01 30:0.01 31:0.02 32:0.02 
0.0030991276866440716 0:0 1:1 2:0 3:0 4:0 5:1 6:0 7:1 8:375 9:468 10:1 11:0 12:0 13:0 14:6 15:13 16:0 17:0 18:0 19:0 20:1 21:0 22:0.31 23:26 24:231 25:1 26:0 27:0.04 28:0.21 29:0 30:0 31:0.12 32:0.8 
0.022293343656184555 0:14 1:1 2:0 3:0 4:1 5:0 6:0 7:1 8:315 9:201030 10:1 11:0 12:0 13:0 14:1 15:1 16:0 17:0 18:0 19:0 20:1 21:0 22:0 23:173 24:14 25:0.08 26:0.03 27:0.01 28:0 29:0 30:0 31:0.01 32:0.07 
0.022098254505719291 0:0 1:1 2:0 3:0 4:0 5:1 6:0 7:1 8:205 9:5905 10:1 11:0 12:0 13:0 14:41 15:41 16:0 17:0 18:0 19:0 20:1 21:0 22:0 23:255 24:255 25:1 26:0 27:0 28:0 29:0 30:0 31:0.31 32:0.31 
0.022154633675828442 0:0 1:1 2:0 3:0 4:0 5:1 6:1 7:0 8:211 9:24573 10:1 11:0 12:0 13:0 14:2 15:2 16:0.5 17:0.5 18:0 19:0 20:1 21:0 22:0 23:124 24:255 25:1 26:0 27:0.01 28:0.01 29:0.01 30:0 31:0.06 32:0.03 
0.018538300075801657 0:0 1:1 2:0 3:0 4:0 5:1 6:0 7:1 8:298 9:12246 10:1 11:0 12:0 13:0 14:2 15:2 16:0 17:0 18:0 19:0 20:1 21:0 22:0 23:140 24:255 25:1 26:0 27:0.01 28:0.01 29:0 30:0 31:0.12 32:0.07 
0.014107205150891913 0:66 1:1 2:0 3:0 4:0 5:1 6:0 7:1 8:254 9:274 10:1 11:0 12:0 13:0 14:2 15:2 16:0 17:0 18:0 19:0 20:1 21:0 22:0 23:255 24:253 25:0.99 26:0.01 27:0 28:0 29:0 30:0 31:0.02 32:0.02 
0.020064996502609463 0:0 1:1 2:0 3:0 4:0 5:1 6:0 7:1 8:295 9:3280 10:1 11:0 12:0 13:0 14:12 15:12 16:0 17:0 18:0 19:0 20:1 21:0 22:0 23:12 24:229 25:1 26:0 27:0.08 28:0.06 29:0 30:0 31:0 32:0.55 
0.0070850284451148583 0:0 1:1 2:0 3:0 4:0 5:1 6:0 7:1 8:282 9:334 10:1 11:0 12:0 13:0 14:19 15:20 16:0 17:0 18:0 19:0 20:1 21:0 22:0.1 23:255 24:255 25:1 26:0 27:0 28:0 29:0 30:0 31:0.06 32:0.06 
0.019565452034371954 0:2 1:1 2:0 3:0 4:1 5:0 6:0 7:1 8:851 9:482 10:1 11:0 12:0 13:0 14:1 15:1 16:0 17:0 18:0 19:0 20:1 21:0 22:0 23:158 24:108 25:0.23 26:0.46 27:0.01 28:0.02 29:0 30:0 31:0.41 32:0.06 
0.019823369904144326 0:0 1:1 2:0 3:0 4:0 5:1 6:0 7:1 8:238 9:1775 10:1 11:0 12:0 13:0 14:2 15:7 16:0 17:0 18:0 19:0 20:1 21:0 22:0.43 23:23 24:26 25:1 26:0 27:0.04 28:0.08 29:0 30:0.08 31:0 32:0.04 
0.016938253672401374 0:0 1:1 2:0 3:0 4:0 5:1 6:0 7:1 8:309 9:4833 10:1 11:0 12:0 13:0 14:6 15:6 16:0 17:0 18:0 19:0 20:1 21:0 22:0 23:8 24:255 25:1 26:0 27:0.12 28:0.05 29:0 30:0 31:0 32:0.05 
0.007896399236221107 0:0 1:1 2:0 3:0 4:0 5:1 6:0 7:1 8:220 9:1384 10:1 11:0 12:0 13:0 14:22 15:22 16:0 17:0 18:0 19:0 20:1 21:0 22:0 23:22 24:255 25:1 26:0 27:0.05 28:0.02 29:0 30:0 31:0 32:0.02 
0.0089664381358158553 0:0 1:1 2:0 3:0 4:0 5:1 6:0 7:1 8:245 9:2256 10:1 11:0 12:0 13:0 14:2 15:3 16:0 17:0 18:0 19:0 20:1 21:0 22:0.67 23:10 24:255 25:1 26:0 27:0.1 28:0.03 29:0 30:0.02 31:0.3 32:0.03 
0.002370649865458211 0:23 1:1 2:0 3:0 4:1 5:0 6:0 7:1 8:336 9:1072 10:1 11:0 12:0 13:0 14:1 15:1 16:0 17:0 18:0 19:0 20:1 21:0 22:0 23:99 24:11 25:0.1 26:0.72 27:0.01 28:0.18 29:0 30:0 31:0.66 32:0.18 
0.019095531852404739 0:0 1:1 2:0 3:0 4:0 5:1 6:0 7:1 8:217 9:6297 10:1 11:0 12:0 13:0 14:7 15:7 16:0 17:0 18:0 19:0 20:1 21:0 22:0 23:113 24:255 25:1 26:0 27:0.01 28:0.02 29:0 30:0 31:0.08 32:0.06 
0.0062045120161894705 0:0 1:1 2:0 3:0 4:0 5:1 6:0 7:1 8:223 9:413 10:1 11:0 12:0 13:0 14:5 15:5 16:0 17:0 18:0 19:0 20:1 21:0 22:0 23:173 24:255 25:1 26:0 27:0.01 28:0.01 29:0 30:0 31:0.09 32:0.06 
0.018436917619943462 0:0 1:1 2:0 3:0 4:0 5:1 6:0 7:1 8:252 9:10620 10:1 11:0 12:0 13:0 14:1 15:1 16:0 17:0 18:0 19:0 20:1 21:0 22:0 23:37 24:255 25:1 26:0 27:0.03 28:0.17 29:0 30:0 31:0 32:0.85 
0.012615246386141449 0:0 1:1 2:0 3:0 4:0 5:1 6:0 7:1 8:304 9:2328 10:1 11:0 12:0 13:0 14:2 15:6 16:0 17:0 18:0 19:0 20:1 21:0 22:0.33 23:255 24:255 25:1 26:0 27:0 28:0 29:0 30:0 31:0.04 32:0.04 
0.015563233258098474 0:0 1:1 2:0 3:0 4:0 5:1 6:1 7:0 8:206 9:0 10:1 11:0 12:0 13:0 14:1 15:3 16:1 17:0.67 18:0 19:0 20:1 21:0 22:1 23:2 24:255 25:1 26:0 27:0.5 28:0.12 29:0.5 30:0 31:0 32:0.65 
0.0056689845645122201 0:0 1:1 2:0 3:0 4:0 5:1 6:0 7:1 8:172 9:4139 10:1 11:0 12:0 13:0 14:3 15:3 16:0 17:0 18:0 19:0 20:1 21:0 22:0 23:32 24:255 25:1 26:0 27:0.03 28:0.01 29:0 30:0 31:0 32:0.06 
0.012909295806722945 0:0 1:1 2:0 3:0 4:0 5:1 6:0 7:1 8:308 9:1565 10:1 11:0 12:0 13:0 14:3 15:3 16:0 17:0 18:0 19:0 20:1 21:0 22:0 23:113 24:142 25:1 26:0 27:0.01 28:0.02 29:0 30:0.01 31:0.03 32:0.06 
0.0058253529726676988 0:0 1:1 2:0 3:0 4:0 5:1 6:0 7:1 8:323 9:314 10:1 11:0 12:0 13:0 14:2 15:2 16:0 17:0 18:0 19:0 20:1 21:0 22:0 23:9 24:227 25:1 26:0 27:0.11 28:0.11 29:0 30:0 31:0.11 32:0.68 
0.010578398475584047 0:0 1:1 2:0 3:0 4:0 5:1 6:0 7:1 8:355 9:768 10:1 11:0 12:0 13:0 14:43 15:43 16:0 17:0 18:0 19:0 20:1 21:0 22:0 23:163 24:255 25:1 26:0 27:0.01 28:0.01 29:0 30:0 31:0.06 32:0.05 
0.02213776774210667 0:0 1:1 2:0 3:0 4:0 5:1 6:0 7:1 8:297 9:5077 10:1 11:0 12:0 13:0 14:4 15:4 16:0 17:0 18:0 19:0 20:1 21:0 22:0 23:6 24:152 25:1 26:0 27:0.17 28:0.15 29:0 30:0 31:0.33 32:0.94 
0.018305752866166571 0:0 1:1 2:0 3:0 4:0 5:1 6:0 7:1 8:210 9:1024 10:1 11:0 12:0 13:0 14:43 15:43 16:0 17:0 18:0 19:0 20:1 21:0 22:0 23:255 24:255 25:1 26:0 27:0 28:0 29:0 30:0 31:0.31 32:0.31 
0.010994086560361035 0:0 1:1 2:0 3:0 4:0 5:1 6:0 7:1 8:326 9:5987 10:1 11:0 12:0 13:0 14:8 15:8 16:0 17:0 18:0 19:0 20:1 21:0 22:0 23:23 24:255 25:1 26:0 27:0.04 28:0.01 29:0 30:0 31:0.17 32:0.02 
0.022105069823460759 0:0 1:1 2:0 3:0 4:0 5:1 6:0 7:1 8:175 9:2866 10:1 11:0 12:0 13:0 14:6 15:6 16:0 17:0 18:0 19:0 20:1 21:0 22:0 23:9 24:255 25:1 26:0 27:0.11 28:0.11 29:0 30:0 31:0 32:0.4 
0.021103375308038137 0:0 1:1 2:0 3:0 4:0 5:1 6:0 7:1 8:234 9:2923 10:1 11:0 12:0 13:0 14:12 15:12 16:0 17:0 18:0 19:0 20:1 21:0 22:0 23:12 24:75 25:1 26:0 27:0.08 28:0.04 29:0 30:0 31:0 32:0.48 
0.012815279142548354 0:0 1:1 2:0 3:0 4:0 5:1 6:0 7:1 8:293 9:882 10:1 11:0 12:0 13:0 14:7 15:7 16:0 17:0 18:0 19:0 20:1 21:0 22:0 23:6 24:255 25:1 26:0 27:0.17 28:0.07 29:0 30:0 31:0 32:0.03 
0.01514262061509122 0:0 1:1 2:0 3:0 4:0 5:1 6:0 7:1 8:273 9:4840 10:1 11:0 12:0 13:0 14:19 15:19 16:0 17:0 18:0 19:0 20:1 21:0 22:0 23:175 24:255 25:1 26:0 27:0.01 28:0.05 29:0.01 30:0 31:0.18 32:0.44 
0.00092468370876051462 0:2 1:1 2:0 3:0 4:1 5:0 6:0 7:1 8:677 9:334 10:1 11:0 12:0 13:0 14:1 15:4 16:0 17:0 18:0 19:0 20:1 21:0 22:1 23:182 24:140 25:0.53 26:0.02 27:0.01 28:0.01 29:0 30:0 31:0.03 32:0.04 
0.0061317055658953994 0:0 1:1 2:0 3:0 4:1 5:0 6:0 7:1 8:2582 9:330 10:1 11:0 12:0 13:0 14:1 15:1 16:0 17:0 18:0 19:0 20:1 21:0 22:0 23:159 24:128 25:0.47 26:0.03 27:0.01 28:0.02 29:0 30:0 31:0.03 32:0.05 
0.016700913719743381 0:0 1:1 2:0 3:0 4:0 5:1 6:0 7:1 8:368 9:1366 10:1 11:0 12:0 13:0 14:23 15:23 16:0 17:0 18:0 19:0 20:1 21:0 22:0 23:43 24:182 25:1 26:0 27:0.02 28:0.05 29:0 30:0 31:0.12 32:0.05 
0.011018343199934331 0:0 1:1 2:0 3:0 4:0 5:1 6:0 7:1 8:242 9:1047 10:1 11:0 12:0 13:0 14:13 15:15 16:0 17:0 18:0 19:0 20:1 21:0 22:0.2 23:60 24:217 25:1 26:0 27:0.02 28:0.13 29:0 30:0 31:0.52 32:0.83 
0.013347737054904264 0:0 1:1 2:0 3:0 4:0 5:1 6:0 7:1 8:224 9:2259 10:1 11:0 12:0 13:0 14:5 15:7 16:0 17:0.29 18:0 19:0 20:1 21:0 22:0.43 23:57 24:255 25:1 26:0 27:0.02 28:0.12 29:0 30:0 31:0.88 32:0.71 
0.022191296456620789 0:27 1:1 2:0 3:0 4:1 5:0 6:0 7:1 8:872 9:2586 10:1 11:0 12:0 13:0 14:1 15:1 16:0 17:0 18:0 19:0 20:1 21:0 22:0 23:49 24:15 25:0.31 26:0.1 27:0.02 28:0 29:0 30:0 31:0.02 32:0.07 
0.00360359627446341 0:0 1:1 2:0 3:0 4:0 5:1 6:0 7:1 8:239 9:1429 10:1 11:0 12:0 13:0 14:32 15:32 16:0 17:0 18:0 19:0 20:1 21:0 22:0 23:255 24:255 25:1 26:0 27:0 28:0 29:0 30:0 31:0.33 32:0.33 
0.01435337303945655 0:0 1:1 2:0 3:0 4:0 5:1 6:0 7:1 8:228 9:1745 10:1 11:0 12:0 13:0 14:3 15:3 16:0.33 17:0.33 18:0 19:0 20:1 21:0 22:0 23:161 24:255 25:1 26:0 27:0.01 28:0.01 29:0.01 30:0 31:0.02 32:0.02 
0.013133837142828503 0:0 1:1 2:0 3:0 4:0 5:1 6:0 7:1 8:180 9:9287 10:1 11:0 12:0 13:0 14:4 15:4 16:0 17:0 18:0 19:0 20:1 21:0 22:0 23:120 24:255 25:1 26:0 27:0.01 28:0.08 29:0.01 30:0 31:0.4 32:0.47 
0.0098727323569759041 0:1 1:1 2:0 3:0 4:1 5:0 6:0 7:1 8:1763 9:370 10:1 11:0 12:0 13:0 14:1 15:1 16:0 17:0 18:0 19:0 20:1 21:0 22:0 23:209 24:177 25:0.71 26:0.02 27:0 28:0.01 29:0 30:0 31:0.05 32:0.06 
0.019470371452771116 0:0 1:1 2:0 3:0 4:0 5:1 6:0 7:1 8:225 9:4624 10:1 11:0 12:0 13:0 14:5 15:5 16:0 17:0 18:0 19:0 20:1 21:0 22:0 23:210 24:255 25:1 26:0 27:0 28:0.02 29:0 30:0 31:0.33 32:0.34 
0.022364204885288178 0:0 1:1 2:0 3:0 4:0 5:1 6:0 7:1 8:368 9:25917 10:1 11:0 12:0 13:0 14:5 15:5 16:0 17:0 18:0 19:0 20:1 21:0 22:0 23:129 24:140 25:1 26:0 27:0.01 28:0.04 29:0.01 30:0.01 31:0.17 32:0.23 
0.014209795251871295 0:0 1:1 2:0 3:0 4:0 5:1 6:0 7:1 8:321 9:9021 10:1 11:0 12:0 13:0 14:2 15:2 16:0 17:0 18:0 19:0 20:1 21:0 22:0 23:63 24:231 25:1 26:0 27:0.02 28:0.2 29:0 30:0 31:0.1 32:0.75 
0.020371520804643405 0:0 1:1 2:0 3:0 4:0 5:1 6:1 7:0 8:290 9:54675 10:1 11:0 12:0 13:0 14:3 15:3 16:0.33 17:0.33 18:0 19:0 20:1 21:0 22:0 23:23 24:255 25:1 26:0 27:0.04 28:0.02 29:0.04 30:0 31:0.26 32:0.09 
0.012254602383741622 0:0 1:1 2:0 3:0 4:1 5:0 6:0 7:1 8:892 9:332 10:1 11:0 12:0 13:0 14:1 15:1 16:0 17:0 18:0 19:0 20:1 21:0 22:0 23:248 24:152 25:0.61 26:0.02 27:0 28:0.01 29:0 30:0 31:0.03 32:0.04 
0.0079150329549919698 0:0 1:1 2:0 3:0 4:0 5:1 6:0 7:1 8:244 9:266 10:1 11:0 12:0 13:0 14:10 15:28 16:0 17:0 18:0 19:0 20:1 21:0 22:0.07 23:10 24:216 25:1 26:0 27:0.1 28:0.01 29:0 30:0 31:0 32:0.2 
0.012327112182372056 0:1 1:1 2:0 3:0 4:1 5:0 6:0 7:1 8:2208 9:331 10:1 11:0 12:0 13:0 14:1 15:3 16:0 17:0 18:0 19:0 20:1 21:0 22:1 23:76 24:51 25:0.67 26:0.05 27:0.01 28:0 29:0 30:0 31:0.01 32:0.02 
0.013295703802701791 0:0 1:1 2:0 3:0 4:0 5:1 6:0 7:1 8:458 9:4759 10:1 11:0 12:0 13:0 14:18 15:18 16:0 17:0 18:0 19:0 20:1 21:0 22:0 23:103 24:249 25:1 26:0 27:0.01 28:0.11 29:0 30:0 31:0.49 32:0.74 
0.018575952343086365 0:0 1:1 2:0 3:0 4:0 5:1 6:0 7:1 8:479 9:6839 10:1 11:0 12:0 13:0 14:7 15:7 16:0 17:0 18:0 19:0 20:1 21:0 22:0 23:87 24:249 25:1 26:0 27:0.01 28:0.11 29:0 30:0 31:0.52 32:0.78 
0.020193383103846607 0:0 1:1 2:0 3:0 4:0 5:1 6:0 7:1 8:215 9:6008 10:1 11:0 12:0 13:0 14:4 15:4 16:0 17:0 18:0 19:0 20:1 21:0 22:0 23:214 24:255 25:1 26:0 27:0 28:0.01 29:0 30:0 31:0.04 32:0.04 
0.014400707828099258 0:0 1:1 2:0 3:0 4:0 5:1 6:0 7:1 8:312 9:139 10:1 11:0 12:0 13:0 14:1 15:2 16:0 17:0 18:0 19:0 20:1 21:0 22:1 23:2 24:169 25:1 26:0 27:0.5 28:0.22 29:0 30:0 31:0.5 32:0.96 
0.0016498265340559506 0:0 1:1 2:0 3:0 4:0 5:1 6:0 7:1 8:369 9:294 10:1 11:0 12:0 13:0 14:8 15:8 16:0 17:0 18:0 19:0 20:1 21:0 22:0 23:71 24:231 25:1 26:0 27:0.01 28:0.19 29:0 30:0 31:0.08 32:0.72 
0.022226892569967963 0:0 1:1 2:0 3:0 4:0 5:1 6:0 7:1 8:283 9:9755 10:1 11:0 12:0 13:0 14:2 15:2 16:0 17:0 18:0 19:0 20:1 21:0 22:0 23:116 24:255 25:1 26:0 27:0.01 28:0.1 29:0 30:0 31:0.82 32:0.92 
0.0011392339463788641 0:28 1:1 2:0 3:0 4:1 5:0 6:0 7:1 8:871 9:2579 10:1 11:0 12:0 13:0 14:1 15:1 16:0 17:0 18:0 19:0 20:1 21:0 22:0 23:177 24:47 25:0.27 26:0.03 27:0.01 28:0 29:0 30:0 31:0.01 32:0.02 
0.012224426228245103 0:0 1:1 2:0 3:0 4:0 5:1 6:0 7:1 8:467 9:9887 10:1 11:0 12:0 13:0 14:14 15:14 16:0 17:0 18:0 19:0 20:1 21:0 22:0 23:49 24:249 25:1 26:0 27:0.02 28:0.11 29:0 30:0 31:0.51 32:0.85 
0.022138425091918375 0:0 1:1 2:0 3:0 4:0 5:1 6:0 7:1 8:161 9:31220 10:1 11:0 12:0 13:0 14:1 15:1 16:0 17:0 18:0 19:0 20:1 21:0 22:0 23:212 24:255 25:1 26:0 27:0 28:0.01 29:0 30:0 31:0.06 32:0.05 
0.015689226639384428 0:0 1:1 2:0 3:0 4:0 5:1 6:0 7:1 8:218 9:2155 10:1 11:0 12:0 13:0 14:8 15:8 16:0 17:0 18:0 19:0 20:1 21:0 22:0 23:100 24:255 25:1 26:0 27:0.01 28:0.09 29:0 30:0 31:0.01 32:0.5 
0.022192583697448753 0:1 1:1 2:0 3:0 4:1 5:0 6:0 7:1 8:2264 9:338 10:1 11:0 12:0 13:0 14:1 15:2 16:0 17:0 18:0 19:0 20:1 21:0 22:1 23:255 24:136 25:0.53 26:0.02 27:0 28:0 29:0 30:0 31:0.03 32:0.02 
0.0099224545627149968 0:0 1:1 2:0 3:0 4:0 5:1 6:0 7:1 8:323 9:744 10:1 11:0 12:0 13:0 14:2 15:2 16:0 17:0 18:0 19:0 20:1 21:0 22:0 23:1 24:255 25:1 26:0 27:1 28:0.16 29:0 30:0 31:0 32:0.96 
0.0038897187155631685 0:0 1:1 2:0 3:0 4:1 5:0 6:0 7:1 8:822 9:325 10:1 11:0 12:0 13:0 14:1 15:1 16:0 17:0 18:0 19:0 20:1 21:0 22:0 23:177 24:112 25:0.5 26:0.02 27:0.01 28:0.02 29:0 30:0 31:0.03 32:0.04 
0.019321154666654738 0:0 1:1 2:0 3:0 4:0 5:1 6:0 7:1 8:192 9:910 10:1 11:0 12:0 13:0 14:10 15:22 16:0.1 17:0.05 18:0 19:0 20:1 21:0 22:0.14 23:23 24:216 25:1 26:0 27:0.04 28:0.02 29:0.04 30:0.01 31:0.57 32:0.27 
0.0020675254865377031 0:0 1:1 2:0 3:0 4:0 5:1 6:0 7:1 8:311 9:3800 10:1 11:0 12:0 13:0 14:8 15:8 16:0 17:0 18:0 19:0 20:1 21:0 22:0 23:44 24:255 25:1 26:0 27:0.02 28:0.16 29:0 30:0 31:0 32:0.83 
0.011677269246710404 0:0 1:1 2:0 3:0 4:0 5:1 6:0 7:1 8:215 9:8854 10:1 11:0 12:0 13:0 14:2 15:15 16:0 17:0 18:0 19:0 20:1 21:0 22:0.33 23:6 24:255 25:1 26:0 27:0.17 28:0.15 29:0 30:0 31:0 32:0.64 
0.012676535939572282 0:0 1:1 2:0 3:0 4:1 5:0 6:0 7:1 8:1713 9:396 10:1 11:0 12:0 13:0 14:1 15:3 16:0 17:0 18:0 19:0 20:1 21:0 22:1 23:197 24:65 25:0.13 26:0.36 27:0.01 28:0.03 29:0 30:0 31:0.35 32:0.02 
0.011582698002759982 0:0 1:1 2:0 3:0 4:0 5:1 6:0 7:1 8:261 9:590 10:1 11:0 12:0 13:0 14:2 15:3 16:0 17:0 18:0 19:0 20:1 21:0 22:0.67 23:3 24:255 25:1 26:0 27:0.33 28:0.02 29:0 30:0 31:0 32:0.05 
0.015526620209310362 0:0 1:1 2:0 3:0 4:1 5:0 6:0 7:1 8:1355 9:392 10:1 11:0 12:0 13:0 14:2 15:1 16:0.5 17:0 18:0 19:0 20:0.5 21:1 22:0 23:172 24:91 25:0.53 26:0.03 27:0.01 28:0 29:0.02 30:0 31:0.08 32:0.05 
0.0048854794152502368 0:0 1:1 2:0 3:0 4:0 5:1 6:0 7:1 8:257 9:349 10:1 11:0 12:0 13:0 14:2 15:31 16:0 17:0 18:0 19:0 20:1 21:0 22:0.13 23:128 24:255 25:1 26:0 27:0.01 28:0.02 29:0 30:0.01 31:0.2 32:0.12 
0.014923877066920782 0:15 1:1 2:0 3:0 4:1 5:0 6:0 7:1 8:1730 9:332 10:1 11:0 12:0 13:0 14:1 15:2 16:0 17:0 18:0 19:0 20:1 21:0 22:1 23:187 24:186 25:0.82 26:0.02 27:0.01 28:0.01 29:0 30:0 31:0.06 32:0.08 
0.013455532738987629 0:0 1:1 2:0 3:0 4:0 5:1 6:0 7:1 8:315 9:2456 10:1 11:0 12:0 13:0 14:10 15:10 16:0 17:0 18:0 19:0 20:1 21:0 22:0 23:10 24:255 25:1 26:0 27:0.1 28:0.09 29:0 30:0 31:0 32:0.05 
0.002658107310235048 0:0 1:1 2:0 3:0 4:0 5:1 6:0 7:1 8:369 9:1298 10:1 11:0 12:0 13:0 14:13 15:13 16:0 17:0 18:0 19:0 20:1 21:0 22:0 23:33 24:172 25:1 26:0 27:0.03 28:0.05 29:0 30:0 31:0.15 32:0.06 
0.02220367890644688 0:0 1:1 2:0 3:0 4:0 5:1 6:0 7:1 8:241 9:61382 10:1 11:0 12:0 13:0 14:10 15:10 16:0 17:0 18:0 19:0 20:1 21:0 22:0 23:55 24:255 25:1 26:0 27:0.02 28:0.02 29:0 30:0 31:0.05 32:0.07 
0.022192686264794564 0:0 1:1 2:0 3:0 4:0 5:1 6:0 7:1 8:209 9:17035 10:1 11:0 12:0 13:0 14:3 15:3 16:0.33 17:0.33 18:0 19:0 20:1 21:0 22:0 23:25 24:255 25:1 26:0 27:0.04 28:0.02 29:0.04 30:0 31:0.24 32:0.29 
0.019509542799314064 0:0 1:1 2:0 3:0 4:0 5:1 6:0 7:1 8:332 9:9211 10:1 11:0 12:0 13:0 14:40 15:42 16:0 17:0 18:0 19:0 20:1 21:0 22:0.07 23:255 24:255 25:1 26:0 27:0 28:0 29:0 30:0 31:0.02 32:0.02 
0.017141446560845545 0:0 1:1 2:0 3:0 4:0 5:1 6:0 7:1 8:317 9:3410 10:1 11:0 12:0 13:0 14:25 15:26 16:0 17:0 18:0 19:0 20:1 21:0 22:0.08 23:255 24:255 25:1 26:0 27:0 28:0 29:0 30:0 31:0.02 32:0.02 
0.0072898261117866322 0:0 1:1 2:0 3:0 4:0 5:1 6:0 7:1 8:300 9:1197 10:1 11:0 12:0 13:0 14:3 15:7 16:0 17:0 18:0 19:0 20:1 21:0 22:0.29 23:93 24:255 25:1 26:0 27:0.01 28:0.02 29:0.02 30:0.01 31:0.02 32:0.02 
0.022322710217701519 0:18 1:1 2:0 3:0 4:1 5:0 6:0 7:1 8:510 9:226840 10:1 11:0 12:0 13:0 14:1 15:1 16:0 17:0 18:0 19:0 20:1 21:0 22:0 23:255 24:17 25:0.07 26:0.02 27:0 28:0 29:0 30:0.06 31:0.04 32:0.12 
0.022229679271404075 0:0 1:1 2:0 3:0 4:0 5:1 6:0 7:1 8:286 9:4520 10:1 11:0 12:0 13:0 14:1 15:4 16:0 17:0.25 18:0 19:0 20:1 21:0 22:1 23:25 24:96 25:1 26:0 27:0.04 28:0.19 29:0 30:0 31:0 32:0.74 
0.021660673880683705 0:0 1:1 2:0 3:0 4:1 5:0 6:0 7:1 8:1117 9:489 10:1 11:0 12:0 13:0 14:1 15:2 16:0 17:0 18:0 19:0 20:1 21:0 22:1 23:255 24:48 25:0.19 26:0.06 27:0 28:0 29:0.66 30:0 31:0.03 32:0.02 
0.0053064088593738849 0:0 1:1 2:0 3:0 4:0 5:1 6:0 7:1 8:297 9:307 10:1 11:0 12:0 13:0 14:2 15:2 16:0 17:0 18:0 19:0 20:1 21:0 22:0 23:3 24:255 25:1 26:0 27:0.33 28:0.05 29:0 30:0 31:0.33 32:0.41 
0.020467651501558892 0:0 1:1 2:0 3:0 4:0 5:1 6:0 7:1 8:223 9:8584 10:1 11:0 12:0 13:0 14:17 15:17 16:0 17:0 18:0 19:0 20:1 21:0 22:0 23:255 24:255 25:1 26:0 27:0 28:0 29:0 30:0 31:0.02 32:0.02 
0.022305624400791865 0:0 1:1 2:0 3:0 4:0 5:1 6:0 7:1 8:249 9:10478 10:1 11:0 12:0 13:0 14:1 15:1 16:0 17:0 18:0 19:0 20:1 21:0 22:0 23:255 24:241 25:0.95 26:0.02 27:0 28:0 29:0 30:0 31:0.04 32:0.04 
0.022288839812678748 0:0 1:1 2:0 3:0 4:1 5:0 6:0 7:1 8:7012 9:0 10:1 11:0 12:0 13:0 14:5 15:6 16:0 17:0 18:0 19:0 20:1 21:0 22:0.33 23:130 24:34 25:0.13 26:0.55 27:0.12 28:0.06 29:0 30:0 31:0.5 32:0.03 
0.0009819024038205254 0:0 1:1 2:0 3:0 4:0 5:1 6:0 7:1 8:217 9:612 10:1 11:0 12:0 13:0 14:4 15:12 16:0.25 17:0.25 18:0 19:0 20:1 21:0 22:0.33 23:13 24:255 25:1 26:0 27:0.08 28:0.05 29:0.08 30:0 31:0 32:0.05 
0.021409743194817619 0:0 1:1 2:0 3:0 4:0 5:1 6:0 7:1 8:177 9:8654 10:1 11:0 12:0 13:0 14:4 15:4 16:0 17:0 18:0 19:0 20:1 21:0 22:0 23:49 24:255 25:1 26:0 27:0.02 28:0.02 29:0 30:0 31:0 32:0.02 
0.00084187983198611913 0:0 1:1 2:0 3:0 4:0 5:1 6:0 7:1 8:272 9:690 10:1 11:0 12:0 13:0 14:19 15:21 16:0 17:0 18:0 19:0 20:1 21:0 22:0.14 23:89 24:250 25:1 26:0 27:0.01 28:0.1 29:0 30:0 31:0.15 32:0.34 
0.010249254648883519 0:0 1:1 2:0 3:0 4:0 5:1 6:0 7:1 8:325 9:1965 10:1 11:0 12:0 13:0 14:34 15:34 16:0 17:0 18:0 19:0 20:1 21:0 22:0 23:44 24:227 25:1 26:0 27:0.02 28:0.11 29:0 30:0 31:0.09 32:0.57 
0.0045754860865816777 0:0 1:1 2:0 3:0 4:0 5:1 6:0 7:1 8:339 9:1438 10:1 11:0 12:0 13:0 14:8 15:8 16:0 17:0 18:0 19:0 20:1 21:0 22:0 23:46 24:247 25:1 26:0 27:0.02 28:0.13 29:0 30:0 31:0.07 32:0.78 
0.0090406986170403613 0:0 1:1 2:0 3:0 4:0 5:1 6:0 7:1 8:375 9:349 10:1 11:0 12:0 13:0 14:5 15:5 16:0 17:0 18:0 19:0 20:1 21:0 22:0 23:17 24:255 25:1 26:0 27:0.06 28:0.2 29:0 30:0.01 31:0.53 32:0.94 
0.01582794924429454 0:1 1:1 2:0 3:0 4:1 5:0 6:0 7:1 8:1489 9:340 10:1 11:0 12:0 13:0 14:1 15:3 16:0 17:0 18:0 19:0 20:1 21:0 22:1 23:240 24:152 25:0.63 26:0.03 27:0 28:0 29:0 30:0 31:0.04 32:0.05 
0.018516188922075943 0:0 1:1 2:0 3:0 4:0 5:1 6:0 7:1 8:203 9:2996 10:1 11:0 12:0 13:0 14:12 15:12 16:0.08 17:0.08 18:0 19:0 20:1 21:0 22:0 23:255 24:255 25:1 26:0 27:0 28:0 29:0.01 30:0.01 31:0.02 32:0.02 
0.013420656375536343 0:0 1:1 2:0 3:0 4:0 5:1 6:0 7:1 8:219 9:11394 10:1 11:0 12:0 13:0 14:21 15:28 16:0 17:0 18:0 19:0 20:1 21:0 22:0.11 23:87 24:255 25:1 26:0 27:0.01 28:0.03 29:0 30:0 31:0.14 32:0.06 
0.0077754121427895534 0:0 1:1 2:0 3:0 4:0 5:1 6:0 7:1 8:272 9:2492 10:1 11:0 12:0 13:0 14:18 15:22 16:0 17:0 18:0 19:0 20:1 21:0 22:0.09 23:19 24:249 25:1 26:0 27:0.05 28:0.12 29:0 30:0 31:0.05 32:0.88 
0.018911809991097241 0:0 1:1 2:0 3:0 4:0 5:1 6:0 7:1 8:235 9:678 10:1 11:0 12:0 13:0 14:5 15:6 16:0 17:0 18:0 19:0 20:1 21:0 22:0.33 23:6 24:160 25:1 26:0 27:0.17 28:0.21 29:0 30:0 31:0 32:0.57 
0.0074544774779899126 0:0 1:1 2:0 3:0 4:0 5:1 6:0 7:1 8:216 9:1484 10:1 11:0 12:0 13:0 14:9 15:9 16:0 17:0 18:0 19:0 20:1 21:0 22:0 23:236 24:255 25:1 26:0 27:0 28:0.01 29:0 30:0 31:0.03 32:0.03 
0.016156866737889242 0:0 1:1 2:0 3:0 4:0 5:1 6:0 7:1 8:223 9:2302 10:1 11:0 12:0 13:0 14:9 15:9 16:0 17:0 18:0 19:0 20:1 21:0 22:0 23:255 24:255 25:1 26:0 27:0 28:0 29:0 30:0 31:0.04 32:0.04 
0.0016720815221384984 0:21 1:1 2:0 3:0 4:1 5:0 6:0 7:1 8:244 9:781 10:1 11:0 12:0 13:0 14:1 15:1 16:0 17:0 18:0 19:0 20:1 21:0 22:0 23:144 24:21 25:0.15 26:0.49 27:0.01 28:0 29:0 30:0 31:0.45 32:0.05 
0.016156378086150787 0:0 1:1 2:0 3:0 4:0 5:1 6:0 7:1 8:225 9:4359 10:1 11:0 12:0 13:0 14:11 15:11 16:0 17:0 18:0 19:0 20:1 21:0 22:0 23:255 24:255 25:1 26:0 27:0 28:0 29:0 30:0 31:0.02 32:0.02 
0.018205166781058053 0:0 1:1 2:0 3:0 4:0 5:1 6:0 7:1 8:210 9:2553 10:1 11:0 12:0 13:0 14:15 15:15 16:0 17:0 18:0 19:0 20:1 21:0 22:0 23:15 24:255 25:1 26:0 27:0.07 28:0.15 29:0 30:0 31:0 32:0.56 
0.013296798388925161 0:0 1:1 2:0 3:0 4:0 5:1 6:0 7:1 8:337 9:2654 10:1 11:0 12:0 13:0 14:2 15:27 16:0 17:0 18:0 19:0 20:1 21:0 22:0.19 23:72 24:255 25:1 26:0 27:0.01 28:0.03 29:0 30:0.01 31:0.01 32:0.02 
0.011467918875866109 0:0 1:1 2:0 3:0 4:0 5:1 6:0 7:1 8:213 9:256 10:1 11:0 12:0 13:0 14:28 15:46 16:0 17:0 18:0 19:0 20:1 21:0 22:0.09 23:29 24:255 25:1 26:0 27:0.03 28:0.04 29:0 30:0 31:0.03 32:0.04 
0.012652033960707283 0:0 1:1 2:0 3:0 4:1 5:0 6:0 7:1 8:978 9:339 10:1 11:0 12:0 13:0 14:1 15:2 16:0 17:0 18:0 19:0 20:1 21:0 22:1 23:196 24:147 25:0.57 26:0.02 27:0.01 28:0.01 29:0 30:0 31:0.03 32:0.04 
0.011806346158741059 0:0 1:1 2:0 3:0 4:0 5:1 6:0 7:1 8:331 9:1389 10:1 11:0 12:0 13:0 14:15 15:15 16:0 17:0 18:0 19:0 20:1 21:0 22:0 23:18 24:247 25:1 26:0 27:0.06 28:0.13 29:0 30:0 31:0.17 32:0.79 
0.013650947490457388 0:0 1:1 2:0 3:0 4:0 5:1 6:0 7:1 8:240 9:12595 10:1 11:0 12:0 13:0 14:4 15:8 16:0 17:0 18:0 19:0 20:1 21:0 22:0.25 23:94 24:255 25:1 26:0 27:0.01 28:0.02 29:0.02 30:0.01 31:0.02 32:0.02 
0.0025015458348785864 0:25 1:1 2:0 3:0 4:1 5:0 6:0 7:1 8:341 9:1063 10:1 11:0 12:0 13:0 14:1 15:1 16:0 17:0 18:0 19:0 20:1 21:0 22:0 23:217 24:38 25:0.18 26:0.04 27:0 28:0 29:0 30:0 31:0.01 32:0.05 
0.0092468723458389301 0:0 1:1 2:0 3:0 4:0 5:1 6:0 7:1 8:256 9:1695 10:1 11:0 12:0 13:0 14:1 15:1 16:0 17:0 18:0 19:0 20:1 21:0 22:0 23:174 24:255 25:1 26:0 27:0.01 28:0.01 29:0.01 30:0 31:0.04 32:0.03 
0.02018093111270626 0:0 1:1 2:0 3:0 4:0 5:1 6:0 7:1 8:433 9:8113 10:1 11:0 12:0 13:0 14:5 15:7 16:0 17:0 18:0 19:0 20:1 21:0 22:0.29 23:255 24:255 25:1 26:0 27:0 28:0 29:0 30:0 31:0.02 32:0.02 
0.013723230759535606 0:81 1:1 2:0 3:0 4:0 5:1 6:0 7:1 8:222 9:238 10:1 11:0 12:0 13:0 14:1 15:14 16:0 17:0 18:0 19:0 20:1 21:0 22:0.14 23:82 24:255 25:1 26:0 27:0.01 28:0.07 29:0 30:0 31:0.02 32:0.02 
0.0222347841265161 0:0 1:1 2:0 3:0 4:1 5:0 6:1 7:0 8:2050 9:12042 10:1 11:0 12:0 13:0 14:1 15:1 16:1 17:1 18:0 19:0 20:1 21:0 22:0 23:255 24:22 25:0.09 26:0.06 27:0 28:0 29:0.53 30:0.09 31:0.01 32:0.09 
0.0088313171917612995 0:0 1:1 2:0 3:0 4:1 5:0 6:0 7:1 8:201 9:0 10:1 11:0 12:0 13:0 14:1 15:1 16:0 17:0 18:0 19:0 20:1 21:0 22:0 23:84 24:13 25:0.15 26:0.85 27:0.14 28:0 29:0 30:0 31:0.8 32:0.08 
0.022237105697588921 0:2 1:1 2:0 3:0 4:1 5:0 6:0 7:1 8:22532 9:1437 10:1 11:0 12:0 13:0 14:1 15:2 16:0 17:0 18:0 19:0 20:1 21:0 22:1 23:131 24:151 25:0.6 26:0.04 27:0.01 28:0.01 29:0 30:0 31:0.02 32:0.03 
0.016238510599313315 0:0 1:1 2:0 3:0 4:1 5:0 6:0 7:1 8:748 9:0 10:1 11:0 12:0 13:0 14:1 15:1 16:0 17:0 18:0 19:0 20:1 21:0 22:0 23:97 24:33 25:0.08 26:0.74 27:0.07 28:0.06 29:0 30:0 31:0.66 32:0.03 
0.020386773681916145 0:0 1:1 2:0 3:0 4:0 5:1 6:0 7:1 8:349 9:5208 10:1 11:0 12:0 13:0 14:13 15:13 16:0 17:0 18:0 19:0 20:1 21:0 22:0 23:13 24:235 25:1 26:0 27:0.08 28:0.17 29:0 30:0 31:0 32:0.94 
0.016174740679654048 0:0 1:1 2:0 3:0 4:0 5:1 6:0 7:1 8:337 9:1212 10:1 11:0 12:0 13:0 14:10 15:10 16:0 17:0 18:0 19:0 20:1 21:0 22:0 23:106 24:135 25:1 26:0 27:0.01 28:0.02 29:0 30:0.01 31:0.03 32:0.06 
0.020469892328384566 0:0 1:1 2:0 3:0 4:0 5:1 6:0 7:1 8:234 9:765 10:1 11:0 12:0 13:0 14:9 15:9 16:0 17:0 18:0 19:0 20:1 21:0 22:0 23:10 24:118 25:1 26:0 27:0.1 28:0.14 29:0 30:0 31:0.1 32:0.92 
0.0094922500253294528 0:0 1:1 2:0 3:0 4:0 5:1 6:0 7:1 8:279 9:804 10:1 11:0 12:0 13:0 14:1 15:3 16:0 17:0 18:0 19:0 20:1 21:0 22:0.67 23:27 24:255 25:1 26:0 27:0.04 28:0.05 29:0 30:0 31:0 32:0.05 
0.020534145835843384 0:0 1:1 2:0 3:0 4:0 5:1 6:0 7:1 8:326 9:635 10:1 11:0 12:0 13:0 14:2 15:2 16:0 17:0 18:0 19:0 20:1 21:0 22:0 23:8 24:11 25:1 26:0 27:0.12 28:0.18 29:0 30:0.18 31:0 32:0.09 
0.002385481287216904 0:0 1:1 2:0 3:0 4:0 5:1 6:0 7:1 8:240 9:581 10:1 11:0 12:0 13:0 14:6 15:6 16:0 17:0 18:0 19:0 20:1 21:0 22:0 23:68 24:255 25:1 26:0 27:0.01 28:0.04 29:0 30:0 31:0.25 32:0.08 
0.022345283310818826 0:0 1:1 2:0 3:0 4:1 5:0 6:1 7:0 8:3400 9:14607 10:1 11:0 12:0 13:0 14:2 15:1 16:0.5 17:1 18:0 19:0 20:0.5 21:1 22:0 23:148 24:16 25:0.11 26:0.01 27:0.01 28:0 29:0.01 30:0.06 31:0.07 32:0.69 
0.022523423545188333 0:1 1:1 2:0 3:0 4:1 5:0 6:0 7:1 8:3130 9:328 10:1 11:0 12:0 13:0 14:1 15:2 16:0 17:0 18:0 19:0 20:1 21:0 22:1 23:95 24:166 25:0.43 26:0.05 27:0.01 28:0.01 29:0 30:0 31:0.03 32:0.03 
0.022323528760474522 0:0 1:1 2:0 3:0 4:0 5:1 6:0 7:1 8:198 9:5989 10:1 11:0 12:0 13:0 14:7 15:25 16:0.14 17:0.08 18:0 19:0 20:1 21:0 22:0.12 23:29 24:40 25:1 26:0 27:0.03 28:0.15 29:0.03 30:0.03 31:0.76 32:0.8 
0.0055688170243268931 0:0 1:1 2:0 3:0 4:0 5:1 6:0 7:1 8:234 9:756 10:1 11:0 12:0 13:0 14:2 15:2 16:0 17:0 18:0 19:0 20:1 21:0 22:0 23:170 24:255 25:1 26:0 27:0.01 28:0.01 29:0 30:0 31:0.09 32:0.06 
0.0058560162817280397 0:0 1:1 2:0 3:0 4:0 5:1 6:0 7:1 8:227 9:340 10:1 11:0 12:0 13:0 14:1 15:2 16:0 17:0 18:0 19:0 20:1 21:0 22:1 23:1 24:255 25:1 26:0 27:1 28:0.12 29:0 30:0 31:0 32:0.65 
0.0092712503979973226 0:0 1:1 2:0 3:0 4:0 5:1 6:0 7:1 8:199 9:9186 10:1 11:0 12:0 13:0 14:1 15:1 16:0 17:0 18:0 19:0 20:1 21:0 22:0 23:255 24:255 25:1 26:0 27:0 28:0 29:0 30:0 31:0.02 32:0.02 
0.010238555278926026 0:0 1:1 2:0 3:0 4:0 5:1 6:0 7:1 8:235 9:1211 10:1 11:0 12:0 13:0 14:15 15:16 16:0 17:0 18:0 19:0 20:1 21:0 22:0.12 23:255 24:255 25:1 26:0 27:0 28:0 29:0 30:0 31:0.04 32:0.04 
0.021444463112610286 0:0 1:1 2:0 3:0 4:0 5:1 6:0 7:1 8:202 9:6763 10:1 11:0 12:0 13:0 14:2 15:2 16:0 17:0 18:0 19:0 20:1 21:0 22:0 23:7 24:255 25:1 26:0 27:0.14 28:0.03 29:0 30:0 31:0.57 32:0.03 
0.022227139952728604 0:0 1:1 2:0 3:0 4:0 5:1 6:1 7:0 8:252 9:13335 10:1 11:0 12:0 13:0 14:1 15:6 16:1 17:0.17 18:0 19:0 20:1 21:0 22:0.33 23:255 24:255 25:1 26:0 27:0 28:0 29:0.01 30:0.01 31:0.02 32:0.02 
0.0090431926973823396 0:0 1:1 2:0 3:0 4:0 5:1 6:0 7:1 8:230 9:488 10:1 11:0 12:0 13:0 14:6 15:6 16:0.17 17:0.17 18:0 19:0 20:1 21:0 22:0 23:255 24:255 25:1 26:0 27:0 28:0 29:0 30:0 31:0.02 32:0.02 
0.0080268599971011906 0:0 1:1 2:0 3:0 4:0 5:1 6:0 7:1 8:324 9:1564 10:1 11:0 12:0 13:0 14:6 15:6 16:0 17:0 18:0 19:0 20:1 21:0 22:0 23:50 24:255 25:1 26:0 27:0.02 28:0.1 29:0 30:0 31:0.88 32:0.8 
0.01128664965847675 0:26 1:1 2:0 3:0 4:1 5:0 6:0 7:1 8:314 9:1054 10:1 11:0 12:0 13:0 14:1 15:1 16:0 17:0 18:0 19:0 20:1 21:0 22:0 23:255 24:54 25:0.21 26:0.02 27:0 28:0 29:0 30:0 31:0.03 32:0.11 
0.0096352627618046093 0:0 1:1 2:0 3:0 4:0 5:1 6:0 7:1 8:218 9:263 10:1 11:0 12:0 13:0 14:7 15:7 16:0 17:0 18:0 19:0 20:1 21:0 22:0 23:255 24:255 25:1 26:0 27:0 28:0 29:0 30:0 31:0.02 32:0.02 
0.014682038750826023 0:1 1:1 2:0 3:0 4:0 5:1 6:1 7:0 8:247 9:4168 10:1 11:0 12:0 13:0 14:14 15:19 16:0.07 17:0.11 18:0 19:0 20:1 21:0 22:0.11 23:124 24:255 25:1 26:0 27:0.01 28:0.08 29:0.01 30:0 31:0.04 32:0.42 
0.01215747658201774 0:1 1:1 2:0 3:0 4:1 5:0 6:0 7:1 8:1030 9:394 10:1 11:0 12:0 13:0 14:1 15:1 16:0 17:0 18:0 19:0 20:1 21:0 22:0 23:23 24:187 25:0.78 26:0.13 27:0.04 28:0.02 29:0.04 30:0 31:0 32:0.05 
0.012295756842669396 0:0 1:1 2:0 3:0 4:0 5:1 6:0 7:1 8:215 9:1342 10:1 11:0 12:0 13:0 14:25 15:25 16:0 17:0 18:0 19:0 20:1 21:0 22:0 23:255 24:255 25:1 26:0 27:0 28:0 29:0 30:0 31:0.02 32:0.02 
0.013123586005820906 0:0 1:1 2:0 3:0 4:0 5:1 6:0 7:1 8:218 9:1477 10:1 11:0 12:0 13:0 14:1 15:1 16:0 17:0 18:0 19:0 20:1 21:0 22:0 23:10 24:255 25:1 26:0 27:0.1 28:0.17 29:0 30:0 31:0 32:0.76 
0.016651949736434468 0:0 1:1 2:0 3:0 4:0 5:1 6:0 7:1 8:239 9:3272 10:1 11:0 12:0 13:0 14:4 15:4 16:0 17:0 18:0 19:0 20:1 21:0 22:0 23:126 24:255 25:1 26:0 27:0.01 28:0.09 29:0 30:0 31:0.48 32:0.65 
0.017964677511117355 0:0 1:1 2:0 3:0 4:0 5:1 6:0 7:1 8:313 9:3222 10:1 11:0 12:0 13:0 14:4 15:5 16:0 17:0 18:0 19:0.2 20:1 21:0 22:0.4 23:255 24:250 25:0.98 26:0.01 27:0 28:0 29:0 30:0 31:0.02 32:0.02 
0.010569332153685778 0:0 1:1 2:0 3:0 4:0 5:1 6:0 7:1 8:255 9:3418 10:1 11:0 12:0 13:0 14:14 15:14 16:0 17:0 18:0 19:0 20:1 21:0 22:0 23:48 24:255 25:1 26:0 27:0.02 28:0.07 29:0 30:0 31:0.29 32:0.8 
0.022313961053005864 0:0 1:1 2:0 3:0 4:0 5:1 6:0 7:1 8:205 9:25672 10:1 11:0 12:0 13:0 14:5 15:5 16:0.2 17:0.2 18:0 19:0 20:1 21:0 22:0 23:255 24:255 25:1 26:0 27:0 28:0 29:0.01 30:0.01 31:0.02 32:0.02 
0.022157932667202333 0:0 1:1 2:0 3:0 4:0 5:1 6:0 7:1 8:341 9:790 10:1 11:0 12:0 13:0 14:1 15:1 16:0 17:0 18:0 19:0 20:1 21:0 22:0 23:2 24:12 25:1 26:0 27:0.5 28:0.67 29:0 30:0.08 31:0.5 32:0.83 
0.0033557756133132527 0:0 1:1 2:0 3:0 4:0 5:1 6:0 7:1 8:245 9:1451 10:1 11:0 12:0 13:0 14:6 15:31 16:0 17:0 18:0 19:0 20:1 21:0 22:0.13 23:61 24:255 25:1 26:0 27:0.02 28:0.06 29:0 30:0 31:0.9 32:0.98 
0.011774640178176282 0:0 1:1 2:0 3:0 4:0 5:1 6:0 7:1 8:358 9:269 10:1 11:0 12:0 13:0 14:10 15:10 16:0 17:0 18:0 19:0 20:1 21:0 22:0 23:203 24:255 25:1 26:0 27:0 28:0.06 29:0 30:0 31:0.42 32:0.54 
0.015112192226278423 0:0 1:1 2:0 3:0 4:0 5:1 6:0 7:1 8:235 9:7542 10:1 11:0 12:0 13:0 14:2 15:2 16:0 17:0 18:0 19:0 20:1 21:0 22:0 23:2 24:255 25:1 26:0 27:0.5 28:0.01 29:0 30:0 31:0 32:0.02 
0.0096888618881459439 0:0 1:1 2:0 3:0 4:0 5:1 6:0 7:1 8:328 9:927 10:1 11:0 12:0 13:0 14:10 15:32 16:0 17:0 18:0 19:0 20:1 21:0 22:0.16 23:125 24:255 25:1 26:0 27:0.01 28:0.03 29:0 30:0.01 31:0.01 32:0.03 
0.019617784909314949 0:29 1:1 2:0 3:0 4:1 5:0 6:0 7:1 8:1081 9:3081 10:1 11:0 12:0 13:0 14:1 15:1 16:0 17:0 18:0 19:0 20:1 21:0 22:0 23:100 24:27 25:0.27 26:0.05 27:0.01 28:0 29:0 30:0 31:0.01 32:0.04 
0.010165203056157302 0:0 1:1 2:0 3:0 4:0 5:1 6:0 7:1 8:218 9:1738 10:1 11:0 12:0 13:0 14:7 15:8 16:0 17:0 18:0 19:0 20:1 21:0 22:0.25 23:39 24:255 25:1 26:0 27:0.03 28:0.05 29:0 30:0 31:0 32:0.02 
0.00059784767761812338 0:0 1:1 2:0 3:0 4:1 5:0 6:0 7:1 8:779 9:330 10:1 11:0 12:0 13:0 14:1 15:1 16:0 17:0 18:0 19:0 20:1 21:0 22:0 23:170 24:135 25:0.51 26:0.02 27:0.01 28:0.01 29:0 30:0 31:0.02 32:0.04 
0.011618489371039662 0:0 1:1 2:0 3:0 4:0 5:1 6:0 7:1 8:332 9:1464 10:1 11:0 12:0 13:0 14:16 15:22 16:0 17:0 18:0 19:0 20:1 21:0 22:0.14 23:58 24:255 25:1 26:0 27:0.02 28:0.06 29:0 30:0 31:0 32:0.29 
0.011309253078897664 0:0 1:1 2:0 3:0 4:0 5:1 6:0 7:1 8:370 9:1232 10:1 11:0 12:0 13:0 14:12 15:12 16:0 17:0 18:0 19:0 20:1 21:0 22:0 23:32 24:171 25:1 26:0 27:0.03 28:0.05 29:0 30:0 31:0.16 32:0.06 
0.016489742479903792 0:0 1:1 2:0 3:0 4:0 5:1 6:0 7:1 8:287 9:1284 10:1 11:0 12:0 13:0 14:41 15:41 16:0 17:0 18:0 19:0 20:1 21:0 22:0 23:255 24:255 25:1 26:0 27:0 28:0 29:0.01 30:0.01 31:0.02 32:0.02 
0.02229769778518868 0:0 1:1 2:0 3:0 4:0 5:1 6:1 7:0 8:401 9:0 10:1 11:0 12:0 13:0 14:1 15:3 16:1 17:0.33 18:0 19:0 20:1 21:0 22:1 23:35 24:255 25:1 26:0 27:0.03 28:0.14 29:0.03 30:0 31:0.11 32:0.54 
0.014731577326408096 0:0 1:1 2:0 3:0 4:0 5:1 6:0 7:1 8:470 9:7497 10:1 11:0 12:0 13:0 14:12 15:12 16:0 17:0 18:0 19:0 20:1 21:0 22:0 23:47 24:249 25:1 26:0 27:0.02 28:0.11 29:0 30:0 31:0.53 32:0.86 
0.014669349783047481 0:0 1:1 2:0 3:0 4:1 5:0 6:0 7:1 8:1879 9:370 10:1 11:0 12:0 13:0 14:1 15:1 16:0 17:0 18:0 19:0 20:1 21:0 22:0 23:182 24:157 25:0.57 26:0.02 27:0.01 28:0.01 29:0 30:0 31:0.04 32:0.06 
0.0092971764342831466 0:0 1:1 2:0 3:0 4:0 5:1 6:0 7:1 8:232 9:2043 10:1 11:0 12:0 13:0 14:4 15:4 16:0.25 17:0.25 18:0 19:0 20:1 21:0 22:0 23:255 24:255 25:1 26:0 27:0 28:0 29:0 30:0 31:0.02 32:0.02 
0.014217665375818559 0:0 1:1 2:0 3:0 4:0 5:1 6:0 7:1 8:222 9:5381 10:1 11:0 12:0 13:0 14:8 15:16 16:0 17:0 18:0 19:0 20:1 21:0 22:0.19 23:202 24:231 25:1 26:0 27:0 28:0.01 29:0 30:0 31:0.01 32:0.03 
0.020107433925597482 0:0 1:1 2:0 3:0 4:0 5:1 6:0 7:1 8:202 9:54674 10:1 11:0 12:0 13:0 14:5 15:8 16:0 17:0 18:0 19:0 20:1 21:0 22:0.38 23:26 24:255 25:1 26:0 27:0.04 28:0.01 29:0 30:0 31:0 32:0.02 
0.01403486184229698 0:18 1:1 2:0 3:0 4:1 5:0 6:0 7:1 8:1229 9:332 10:1 11:0 12:0 13:0 14:1 15:1 16:0 17:0 18:0 19:0 20:1 21:0 22:0 23:39 24:39 25:0.97 26:0.05 27:0.03 28:0.05 29:0 30:0 31:0.05 32:0.05 
0.0045577454952563309 0:0 1:1 2:0 3:0 4:0 5:1 6:0 7:1 8:308 9:409 10:1 11:0 12:0 13:0 14:23 15:23 16:0 17:0 18:0 19:0 20:1 21:0 22:0 23:48 24:255 25:1 26:0 27:0.02 28:0.13 29:0 30:0 31:0.52 32:0.91 
0.012551708464947523 0:0 1:1 2:0 3:0 4:0 5:1 6:0 7:1 8:159 9:767 10:1 11:0 12:0 13:0 14:1 15:1 16:0 17:0 18:0 19:0 20:1 21:0 22:0 23:1 24:255 25:1 26:0 27:1 28:0.02 29:0 30:0 31:0 32:0.25 
0.015290252489772987 0:0 1:1 2:0 3:0 4:0 5:1 6:0 7:1 8:234 9:1191 10:1 11:0 12:0 13:0 14:1 15:1 16:0 17:0 18:0 19:0 20:1 21:0 22:0 23:56 24:195 25:1 26:0 27:0.02 28:0.05 29:0 30:0 31:0.09 32:0.05 
0.0076962734432851516 0:0 1:1 2:0 3:0 4:0 5:1 6:0 7:1 8:318 9:2256 10:1 11:0 12:0 13:0 14:2 15:28 16:0 17:0 18:0 19:0 20:1 21:0 22:0.07 23:27 24:255 25:1 26:0 27:0.04 28:0.03 29:0 30:0.02 31:0.19 32:0.03 
0.020816152047714961 0:0 1:1 2:0 3:0 4:0 5:1 6:0 7:1 8:252 9:5921 10:1 11:0 12:0 13:0 14:5 15:5 16:0 17:0 18:0 19:0 20:1 21:0 22:0 23:120 24:255 25:1 26:0 27:0.01 28:0.02 29:0 30:0 31:0.1 32:0.06 
0.0024815404167689331 0:0 1:1 2:0 3:0 4:0 5:1 6:0 7:1 8:277 9:525 10:1 11:0 12:0 13:0 14:1 15:1 16:0 17:0 18:0 19:0 20:1 21:0 22:0 23:120 24:255 25:1 26:0 27:0.01 28:0.04 29:0 30:0.01 31:0 32:0.02 
0.0072878902131267576 0:0 1:1 2:0 3:0 4:0 5:1 6:0 7:1 8:232 9:1472 10:1 11:0 12:0 13:0 14:4 15:4 16:0 17:0 18:0 19:0 20:1 21:0 22:0 23:44 24:218 25:1 26:0 27:0.02 28:0.02 29:0.02 30:0.01 31:0.3 32:0.27 
0.0072513397966156839 0:0 1:1 2:0 3:0 4:0 5:1 6:0 7:1 8:209 9:469 10:1 11:0 12:0 13:0 14:10 15:12 16:0 17:0.17 18:0 19:0 20:1 21:0 22:0.25 23:62 24:255 25:1 26:0 27:0.02 28:0.11 29:0 30:0 31:0.81 32:0.69 
0.0093592914531619564 0:0 1:1 2:0 3:0 4:0 5:1 6:0 7:1 8:317 9:351 10:1 11:0 12:0 13:0 14:1 15:2 16:0 17:0 18:0 19:0 20:1 21:0 22:1 23:164 24:255 25:1 26:0 27:0.01 28:0.02 29:0 30:0.01 31:0.02 32:0.04 
0.022501546292765386 0:0 1:1 2:0 3:0 4:0 5:1 6:0 7:1 8:175 9:13735 10:1 11:0 12:0 13:0 14:2 15:10 16:0 17:0 18:0 19:0 20:1 21:0 22:0.3 23:9 24:255 25:1 26:0 27:0.11 28:0.01 29:0 30:0 31:0.78 32:0.08 
0.01692438889466584 0:0 1:1 2:0 3:0 4:0 5:1 6:0 7:1 8:341 9:4359 10:1 11:0 12:0 13:0 14:11 15:11 16:0 17:0 18:0 19:0 20:1 21:0 22:0 23:255 24:255 25:1 26:0 27:0 28:0 29:0 30:0 31:0.02 32:0.02 
0.017245291560604011 0:0 1:1 2:0 3:0 4:1 5:0 6:0 7:1 8:768 9:389 10:1 11:0 12:0 13:0 14:1 15:1 16:0 17:0 18:0 19:0 20:1 21:0 22:0 23:255 24:78 25:0.31 26:0.05 27:0 28:0 29:0.44 30:0 31:0.05 32:0.03 
0.0045094454316531906 0:0 1:1 2:0 3:0 4:0 5:1 6:0 7:1 8:238 9:488 10:1 11:0 12:0 13:0 14:1 15:1 16:0 17:0 18:0 19:0 20:1 21:0 22:0 23:147 24:255 25:1 26:0 27:0.01 28:0.02 29:0 30:0.01 31:0.03 32:0.04 
0.0072944318775513446 0:0 1:1 2:0 3:0 4:0 5:1 6:0 7:1 8:294 9:2138 10:1 11:0 12:0 13:0 14:10 15:10 16:0 17:0 18:0 19:0 20:1 21:0 22:0 23:120 24:255 25:1 26:0 27:0.01 28:0.08 29:0 30:0 31:0.04 32:0.44 
0.014176514515532057 0:1 1:1 2:0 3:0 4:0 5:1 6:0 7:1 8:275 9:1335 10:1 11:0 12:0 13:0 14:7 15:8 16:0 17:0 18:0 19:0 20:1 21:0 22:0.25 23:77 24:250 25:1 26:0 27:0.01 28:0.1 29:0 30:0 31:0.17 32:0.34 
0.014208322882089935 0:0 1:1 2:0 3:0 4:0 5:1 6:0 7:1 8:374 9:1861 10:1 11:0 12:0 13:0 14:15 15:27 16:0 17:0 18:0 19:0 20:1 21:0 22:0.15 23:35 24:231 25:1 26:0 27:0.03 28:0.21 29:0 30:0 31:0.09 32:0.77 
