svm_type one_class
kernel_type rbf
gamma 0.00029999999999999997
nr_class 2
total_sv 1
rho 0.01
SV
0.01 0:0 1:1 2:0 3:0 4:1 5:0 6:0 7:1 8:22 9:0 10:1 11:0 12:0 13:0 14:3 15:2 16:0 17:0 18:0 19:0 20:0.67 21:0.67 22:0 23:255 24:66 25:0.26 26:0.05 27:0.26 28:0 29:0.22 30:0 31:0.02 32:0 
