svm_type one_class
kernel_type rbf
gamma 0.00029999999999999997
nr_class 2
total_sv 7123
rho 0.19742235377069248
SV
0.020916689583850828 0:2 1:1 2:0 3:0 4:1 5:0 6:0 7:1 8:1591 9:372 10:1 11:0 12:0 13:0 14:1 15:2 16:0 17:0 18:0 19:0 20:1 21:0 22:1 23:181 24:147 25:0.81 26:0.02 27:0.01 28:0 29:0 30:0 31:0 32:0 
0.02749569456366615 0:0 1:1 2:0 3:0 4:0 5:1 6:0 7:1 8:255 9:861 10:1 11:0 12:0 13:0 14:44 15:44 16:0.02 17:0.02 18:0 19:0 20:1 21:0 22:0 23:255 24:255 25:1 26:0 27:0 28:0 29:0 30:0 31:0 32:0 
0.025403348261451818 0:0 1:1 2:0 3:0 4:0 5:1 6:0 7:1 8:220 9:1398 10:1 11:0 12:0 13:0 14:26 15:42 16:0 17:0 18:0 19:0 20:1 21:0 22:0.05 23:26 24:255 25:1 26:0 27:0.04 28:0.03 29:0 30:0 31:0 32:0 
0.009109062295340838 0:0 1:1 2:0 3:0 4:0 5:1 6:0 7:1 8:310 9:2794 10:1 11:0 12:0 13:0 14:4 15:4 16:0 17:0 18:0 19:0 20:1 21:0 22:0 23:255 24:255 25:1 26:0 27:0 28:0 29:0 30:0 31:0 32:0 
0.07338628274899589 0:0 1:1 2:0 3:0 4:0 5:1 6:0 7:1 8:321 9:5683 10:1 11:0 12:0 13:0 14:10 15:10 16:0 17:0 18:0 19:0 20:1 21:0 22:0 23:168 24:255 25:1 26:0 27:0.01 28:0.04 29:0 30:0 31:0 32:0 
0.021767527214496155 0:0 1:1 2:0 3:0 4:0 5:1 6:0 7:1 8:329 9:3982 10:1 11:0 12:0 13:0 14:2 15:31 16:0 17:0 18:0 19:0 20:1 21:0 22:0.1 23:24 24:255 25:1 26:0 27:0.04 28:0.05 29:0 30:0 31:0 32:0 
0.084906265517858168 0:2 1:1 2:0 3:0 4:1 5:0 6:0 7:1 8:3065 9:331 10:1 11:0 12:0 13:0 14:1 15:2 16:0 17:0 18:0 19:0 20:1 21:0 22:1 23:243 24:119 25:0.48 26:0.02 27:0 28:0.02 29:0.01 30:0.02 31:0 32:0 
0.049800589044605319 0:0 1:1 2:0 3:0 4:0 5:1 6:0 7:1 8:278 9:7227 10:1 11:0 12:0 13:0 14:3 15:3 16:0 17:0 18:0 19:0 20:1 21:0 22:0 23:153 24:255 25:1 26:0 27:0.01 28:0.05 29:0 30:0 31:0 32:0 
0.0074972677398994795 0:0 1:1 2:0 3:0 4:0 5:1 6:0 7:1 8:237 9:511 10:1 11:0 12:0 13:0 14:1 15:1 16:0 17:0 18:0 19:0 20:1 21:0 22:0 23:3 24:255 25:1 26:0 27:0.33 28:0.01 29:0 30:0 31:0 32:0 
0.023465545613812016 0:0 1:1 2:0 3:0 4:0 5:1 6:0 7:1 8:225 9:1357 10:1 11:0 12:0 13:0 14:1 15:1 16:0 17:0 18:0 19:0 20:1 21:0 22:0 23:5 24:255 25:1 26:0 27:0.2 28:0.02 29:0 30:0 31:0 32:0 
0.027325881740142645 0:0 1:1 2:0 3:0 4:0 5:1 6:0 7:1 8:262 9:1011 10:1 11:0 12:0 13:0 14:3 15:4 16:0 17:0 18:0 19:0 20:1 21:0 22:0.5 23:94 24:255 25:1 26:0 27:0.02 28:0.01 29:0 30:0 31:0 32:0 
0.030302717953249556 0:0 1:1 2:0 3:0 4:0 5:1 6:0 7:1 8:221 9:981 10:1 11:0 12:0 13:0 14:2 15:3 16:0 17:0 18:0 19:0 20:1 21:0 22:0.67 23:50 24:82 25:1 26:0 27:0.02 28:0.04 29:0 30:0 31:0 32:0 
0.019089965020606312 0:0 1:1 2:0 3:0 4:1 5:0 6:0 7:1 8:661 9:329 10:1 11:0 12:0 13:0 14:1 15:1 16:0 17:0 18:0 19:0 20:1 21:0 22:0 23:163 24:69 25:0.36 26:0.02 27:0.01 28:0.03 29:0 30:0 31:0 32:0 
0.14651016850414278 0:0 1:1 2:0 3:0 4:0 5:1 6:0 7:1 8:271 9:4781 10:1 11:0 12:0 13:0 14:4 15:7 16:0 17:0 18:0 19:0 20:1 21:0 22:0.29 23:11 24:28 25:1 26:0 27:0.09 28:0.25 29:0 30:0 31:0 32:0 
0.18018385065678719 0:1 1:1 2:0 3:0 4:1 5:0 6:0 7:1 8:3740 9:449 10:1 11:0 12:0 13:0 14:1 15:3 16:0 17:0 18:0 19:0 20:1 21:0 22:1 23:193 24:185 25:0.68 26:0.02 27:0.01 28:0.01 29:0 30:0 31:0 32:0 
0.023436293563638421 0:0 1:1 2:0 3:0 4:0 5:1 6:0 7:1 8:283 9:912 10:1 11:0 12:0 13:0 14:2 15:2 16:0 17:0 18:0 19:0 20:1 21:0 22:0 23:75 24:255 25:1 26:0 27:0.01 28:0.03 29:0 30:0 31:0 32:0 
0.073736077253837073 0:0 1:1 2:0 3:0 4:0 5:1 6:0 7:1 8:161 9:5530 10:1 11:0 12:0 13:0 14:2 15:2 16:0 17:0 18:0 19:0 20:1 21:0 22:0 23:2 24:255 25:1 26:0 27:0.5 28:0.05 29:0 30:0 31:0 32:0 
0.010013005686108804 0:0 1:1 2:0 3:0 4:1 5:0 6:0 7:1 8:567 9:0 10:1 11:0 12:0 13:0 14:1 15:1 16:0 17:0 18:0 19:0 20:1 21:0 22:0 23:53 24:38 25:0.25 26:0.09 27:0.25 28:0.05 29:0 30:0 31:0 32:0 
0.048533537509485435 0:0 1:1 2:0 3:0 4:0 5:1 6:0 7:1 8:344 9:573 10:1 11:0 12:0 13:0 14:28 15:60 16:0.04 17:0.03 18:0 19:0 20:1 21:0 22:0.08 23:255 24:255 25:1 26:0 27:0 28:0 29:0 30:0 31:0 32:0 
0.035852176109486385 0:0 1:1 2:0 3:0 4:0 5:1 6:0 7:1 8:296 9:5670 10:1 11:0 12:0 13:0 14:10 15:10 16:0 17:0 18:0 19:0 20:1 21:0 22:0 23:69 24:255 25:1 26:0 27:0.01 28:0.02 29:0 30:0 31:0 32:0 
0.062685416158297189 0:0 1:1 2:0 3:0 4:0 5:1 6:0 7:1 8:234 9:6282 10:1 11:0 12:0 13:0 14:6 15:6 16:0 17:0 18:0 19:0 20:1 21:0 22:0 23:106 24:255 25:1 26:0 27:0.01 28:0.03 29:0 30:0 31:0 32:0 
0.013675660517264864 0:0 1:1 2:0 3:0 4:0 5:1 6:0 7:1 8:325 9:426 10:1 11:0 12:0 13:0 14:5 15:5 16:0 17:0 18:0 19:0 20:1 21:0 22:0 23:187 24:255 25:1 26:0 27:0.01 28:0.01 29:0 30:0 31:0 32:0 
0.0062663960465914204 0:0 1:1 2:0 3:0 4:0 5:1 6:0 7:1 8:339 9:241 10:1 11:0 12:0 13:0 14:1 15:1 16:0 17:0 18:0 19:0 20:1 21:0 22:0 23:68 24:255 25:1 26:0 27:0.01 28:0.02 29:0 30:0 31:0 32:0 
0.0048023522026177483 0:0 1:1 2:0 3:0 4:0 5:1 6:0 7:1 8:318 9:2649 10:1 11:0 12:0 13:0 14:5 15:5 16:0 17:0 18:0 19:0 20:1 21:0 22:0 23:5 24:255 25:1 26:0 27:0.2 28:0.09 29:0 30:0 31:0 32:0 
0.035472377808425423 0:0 1:1 2:0 3:0 4:0 5:1 6:0 7:1 8:356 9:1125 10:1 11:0 12:0 13:0 14:3 15:3 16:0 17:0 18:0 19:0 20:1 21:0 22:0 23:36 24:255 25:1 26:0 27:0.03 28:0.03 29:0 30:0 31:0 32:0 
0.036992169056561434 0:0 1:1 2:0 3:0 4:0 5:1 6:0 7:1 8:364 9:6914 10:1 11:0 12:0 13:0 14:13 15:13 16:0 17:0 18:0 19:0 20:1 21:0 22:0 23:255 24:255 25:1 26:0 27:0 28:0 29:0 30:0 31:0 32:0 
0.072409205810082547 0:0 1:1 2:0 3:0 4:0 5:1 6:0 7:1 8:300 9:1841 10:1 11:0 12:0 13:0 14:43 15:43 16:0 17:0 18:0 19:0 20:1 21:0 22:0 23:43 24:255 25:1 26:0 27:0.02 28:0.02 29:0 30:0 31:0 32:0 
0.07513318668919744 0:0 1:1 2:0 3:0 4:0 5:1 6:0 7:1 8:237 9:241 10:1 11:0 12:0 13:0 14:66 15:66 16:0 17:0 18:0 19:0 20:1 21:0 22:0 23:234 24:255 25:1 26:0 27:0 28:0.01 29:0 30:0 31:0 32:0 
0.10420378941326279 0:0 1:1 2:0 3:0 4:0 5:1 6:0 7:1 8:367 9:5199 10:1 11:0 12:0 13:0 14:4 15:4 16:0 17:0 18:0 19:0 20:1 21:0 22:0 23:108 24:255 25:1 26:0 27:0.01 28:0.05 29:0 30:0 31:0 32:0 
0.1222631332223056 0:0 1:1 2:0 3:0 4:1 5:0 6:0 7:1 8:4491 9:0 10:1 11:0 12:0 13:0 14:1 15:1 16:0 17:0 18:0 19:0 20:1 21:0 22:0 23:63 24:79 25:0.25 26:0.06 27:0.25 28:0.03 29:0 30:0 31:0 32:0 
0.0015815270382055959 0:0 1:1 2:0 3:0 4:0 5:1 6:0 7:1 8:233 9:4759 10:1 11:0 12:0 13:0 14:14 15:14 16:0 17:0 18:0 19:0 20:1 21:0 22:0 23:133 24:255 25:1 26:0 27:0.01 28:0.01 29:0 30:0 31:0 32:0 
0.064840535027517965 0:0 1:1 2:0 3:0 4:0 5:1 6:1 7:0 8:278 9:7958 10:1 11:0 12:0 13:0 14:1 15:2 16:1 17:0.5 18:0 19:0 20:1 21:0 22:1 23:3 24:255 25:1 26:0 27:0.33 28:0.03 29:0.33 30:0 31:0 32:0 
0.046267636975011392 0:0 1:1 2:0 3:0 4:0 5:1 6:0 7:1 8:301 9:2698 10:1 11:0 12:0 13:0 14:8 15:9 16:0 17:0 18:0 19:0.11 20:1 21:0 22:0.22 23:85 24:84 25:0.99 26:0.02 27:0.01 28:0 29:0 30:0 31:0 32:0 
0.065819045467663914 0:0 1:1 2:0 3:0 4:0 5:1 6:0 7:1 8:376 9:345 10:1 11:0 12:0 13:0 14:1 15:1 16:0 17:0 18:0 19:0 20:1 21:0 22:0 23:190 24:255 25:1 26:0 27:0.01 28:0.03 29:0.01 30:0 31:0 32:0 
0.024190197392208103 0:0 1:1 2:0 3:0 4:0 5:1 6:0 7:1 8:358 9:1758 10:1 11:0 12:0 13:0 14:1 15:1 16:0 17:0 18:0 19:0 20:1 21:0 22:0 23:255 24:255 25:1 26:0 27:0 28:0 29:0 30:0 31:0 32:0 
0.055746172868585749 0:0 1:1 2:0 3:0 4:0 5:1 6:0 7:1 8:282 9:1227 10:1 11:0 12:0 13:0 14:2 15:32 16:0 17:0 18:0 19:0 20:1 21:0 22:0.06 23:175 24:175 25:1 26:0 27:0.01 28:0 29:0 30:0 31:0 32:0 
0.06417959781940806 0:0 1:0 2:1 3:0 4:0 5:1 6:0 7:1 8:105 9:105 10:1 11:0 12:0 13:0 14:1 15:1 16:0 17:0 18:0 19:0 20:1 21:0 22:0 23:114 24:76 25:0.67 26:0.03 27:0.01 28:0 29:0 30:0 31:0 32:0 
0.0041046687951733305 0:0 1:1 2:0 3:0 4:0 5:1 6:0 7:1 8:311 9:4591 10:1 11:0 12:0 13:0 14:21 15:21 16:0 17:0 18:0 19:0 20:1 21:0 22:0 23:21 24:255 25:1 26:0 27:0.05 28:0.03 29:0 30:0.01 31:0 32:0 
0.06395190263027839 0:0 1:1 2:0 3:0 4:0 5:1 6:0 7:1 8:327 9:6721 10:1 11:0 12:0 13:0 14:4 15:5 16:0 17:0 18:0 19:0 20:1 21:0 22:0.4 23:255 24:255 25:1 26:0 27:0 28:0 29:0 30:0 31:0 32:0 
0.031643397307673501 0:0 1:1 2:0 3:0 4:0 5:1 6:0 7:1 8:303 9:458 10:1 11:0 12:0 13:0 14:1 15:1 16:0 17:0 18:0 19:0 20:1 21:0 22:0 23:3 24:255 25:1 26:0 27:0.33 28:0.06 29:0 30:0 31:0 32:0 
0.095123876084542341 0:0 1:1 2:0 3:0 4:1 5:0 6:0 7:1 8:2697 9:331 10:1 11:0 12:0 13:0 14:1 15:1 16:0 17:0 18:0 19:0 20:1 21:0 22:0 23:255 24:87 25:0.34 26:0.03 27:0 28:0 29:0.01 30:0.02 31:0 32:0 
0.0041076034989024467 0:1 1:1 2:0 3:0 4:1 5:0 6:0 7:1 8:1483 9:363 10:1 11:0 12:0 13:0 14:1 15:4 16:0 17:0 18:0 19:0 20:1 21:0 22:1 23:24 24:126 25:1 26:0 27:0.04 28:0.02 29:0 30:0 31:0 32:0 
0.17185095728680552 0:0 1:1 2:0 3:0 4:0 5:1 6:0 7:1 8:2426 9:2737 10:1 11:0 12:0 13:0 14:10 15:10 16:0 17:0 18:0 19:0 20:1 21:0 22:0 23:12 24:255 25:1 26:0 27:0.08 28:0.07 29:0 30:0 31:0 32:0 
0.032044762067413135 0:0 1:1 2:0 3:0 4:0 5:1 6:0 7:1 8:216 9:7384 10:1 11:0 12:0 13:0 14:16 15:16 16:0 17:0 18:0 19:0 20:1 21:0 22:0 23:153 24:255 25:1 26:0 27:0.01 28:0.01 29:0 30:0 31:0 32:0 
0.017985301792876746 0:0 1:1 2:0 3:0 4:0 5:1 6:0 7:1 8:222 9:5834 10:1 11:0 12:0 13:0 14:3 15:3 16:0 17:0 18:0 19:0 20:1 21:0 22:0 23:255 24:255 25:1 26:0 27:0 28:0 29:0 30:0 31:0 32:0 
0.0052839947976191497 0:0 1:1 2:0 3:0 4:0 5:1 6:0 7:1 8:232 9:5745 10:1 11:0 12:0 13:0 14:8 15:8 16:0 17:0 18:0 19:0 20:1 21:0 22:0 23:71 24:255 25:1 26:0 27:0.01 28:0.02 29:0 30:0 31:0 32:0 
0.12841743308545706 0:0 1:1 2:0 3:0 4:1 5:0 6:0 7:1 8:4539 9:0 10:1 11:0 12:0 13:0 14:20 15:20 16:0 17:0 18:0 19:0 20:1 21:0 22:0 23:141 24:49 25:0.28 26:0.03 27:0.28 28:0.04 29:0 30:0 31:0 32:0 
0.038727540050247589 0:0 1:1 2:0 3:0 4:0 5:1 6:0 7:1 8:325 9:3941 10:1 11:0 12:0 13:0 14:4 15:4 16:0.25 17:0.25 18:0 19:0 20:1 21:0 22:0 23:255 24:255 25:1 26:0 27:0 28:0 29:0 30:0 31:0 32:0 
0.054557979542755666 0:0 1:1 2:0 3:0 4:0 5:1 6:0 7:1 8:205 9:6622 10:1 11:0 12:0 13:0 14:9 15:10 16:0 17:0 18:0 19:0 20:1 21:0 22:0.2 23:81 24:255 25:1 26:0 27:0.01 28:0.01 29:0 30:0 31:0 32:0 
0.056217082822079947 0:0 1:1 2:0 3:0 4:0 5:1 6:0 7:1 8:304 9:1380 10:1 11:0 12:0 13:0 14:1 15:18 16:0 17:0 18:0 19:0 20:1 21:0 22:0.17 23:194 24:190 25:0.98 26:0.01 27:0.01 28:0 29:0 30:0 31:0 32:0 
0.06844488956243705 0:0 1:1 2:0 3:0 4:0 5:1 6:0 7:1 8:310 9:255 10:1 11:0 12:0 13:0 14:9 15:9 16:0 17:0 18:0 19:0 20:1 21:0 22:0 23:47 24:156 25:1 26:0 27:0.02 28:0.04 29:0 30:0 31:0 32:0 
0.023504163780193692 0:0 1:1 2:0 3:0 4:1 5:0 6:0 7:1 8:2838 9:325 10:1 11:0 12:0 13:0 14:1 15:1 16:0 17:0 18:0 19:0 20:1 21:0 22:0 23:255 24:130 25:0.51 26:0.05 27:0 28:0 29:0.01 30:0 31:0 32:0 
0.041435645467031025 0:0 1:1 2:0 3:0 4:0 5:1 6:0 7:1 8:294 9:3808 10:1 11:0 12:0 13:0 14:2 15:2 16:0 17:0 18:0 19:0 20:1 21:0 22:0 23:6 24:255 25:1 26:0 27:0.17 28:0.05 29:0 30:0 31:0 32:0 
0.029656838505736822 0:0 1:0 2:1 3:0 4:1 5:0 6:0 7:1 8:44 9:145 10:1 11:0 12:0 13:0 14:213 15:215 16:0 17:0 18:0 19:0 20:1 21:0.01 22:0.01 23:255 24:255 25:1 26:0 27:0 28:0 29:0 30:0 31:0 32:0 
0.063189690154776476 0:0 1:1 2:0 3:0 4:0 5:1 6:0 7:1 8:224 9:6874 10:1 11:0 12:0 13:0 14:3 15:3 16:0 17:0 18:0 19:0 20:1 21:0 22:0 23:3 24:255 25:1 26:0 27:0.33 28:0.06 29:0 30:0 31:0 32:0 
0.12091686395409473 0:0 1:1 2:0 3:0 4:0 5:1 6:0 7:1 8:197 9:7204 10:1 11:0 12:0 13:0 14:2 15:2 16:0 17:0 18:0 19:0 20:1 21:0 22:0 23:32 24:167 25:1 26:0 27:0.03 28:0.03 29:0 30:0 31:0 32:0 
0.014180049323428381 0:1 1:0 2:1 3:0 4:0 5:1 6:0 7:1 8:105 9:147 10:1 11:0 12:0 13:0 14:2 15:2 16:0 17:0 18:0 19:0 20:1 21:0 22:0 23:64 24:26 25:0.41 26:0.05 27:0.05 28:0 29:0 30:0 31:0 32:0 
0.084072881259848714 0:3 1:1 2:0 3:0 4:1 5:0 6:0 7:1 8:1770 9:328 10:1 11:0 12:0 13:0 14:1 15:2 16:0 17:0 18:0 19:0 20:1 21:0 22:1 23:152 24:248 25:0.97 26:0.01 27:0.01 28:0.01 29:0 30:0 31:0 32:0 
0.094956594343738307 0:1 1:1 2:0 3:0 4:1 5:0 6:0 7:1 8:1211 9:282 10:1 11:0 12:0 13:0 14:1 15:1 16:0 17:0 18:0 19:0 20:1 21:0 22:0 23:20 24:194 25:0.8 26:0.15 27:0.05 28:0.01 29:0 30:0 31:0 32:0 
0.043637612990364776 0:0 1:1 2:0 3:0 4:0 5:1 6:0 7:1 8:229 9:8015 10:1 11:0 12:0 13:0 14:1 15:7 16:0 17:0 18:0 19:0 20:1 21:0 22:0.29 23:243 24:255 25:1 26:0 27:0.01 28:0.01 29:0 30:0 31:0 32:0 
0.19349332634436212 0:0 1:1 2:0 3:0 4:0 5:1 6:0 7:1 8:538 9:6471 10:1 11:0 12:0 13:0 14:3 15:8 16:0 17:0 18:0 19:0 20:1 21:0 22:0.25 23:255 24:255 25:1 26:0 27:0 28:0 29:0 30:0 31:0 32:0 
0.041186069466112973 0:0 1:1 2:0 3:0 4:1 5:0 6:0 7:1 8:748 9:0 10:1 11:0 12:0 13:0 14:1 15:1 16:0 17:0 18:0 19:0 20:1 21:0 22:0 23:186 24:46 25:0.25 26:0.02 27:0.25 28:0 29:0 30:0 31:0 32:0 
0.0090143544948974533 0:0 1:1 2:0 3:0 4:0 5:1 6:0 7:1 8:285 9:2531 10:1 11:0 12:0 13:0 14:1 15:1 16:0 17:0 18:0 19:0 20:1 21:0 22:0 23:255 24:255 25:1 26:0 27:0.01 28:0 29:0 30:0 31:0 32:0 
0.0064337928645296569 0:0 1:1 2:0 3:0 4:1 5:0 6:0 7:1 8:771 9:374 10:1 11:0 12:0 13:0 14:1 15:2 16:0 17:0 18:0 19:0 20:1 21:0 22:1 23:112 24:172 25:0.88 26:0.04 27:0.01 28:0.01 29:0 30:0 31:0 32:0 
0.034841474972898717 0:0 1:1 2:0 3:0 4:0 5:1 6:0 7:1 8:259 9:1541 10:1 11:0 12:0 13:0 14:1 15:2 16:0 17:0 18:0 19:0 20:1 21:0 22:1 23:79 24:255 25:1 26:0 27:0.01 28:0.04 29:0 30:0 31:0 32:0 
0.038492774765602235 0:0 1:1 2:0 3:0 4:0 5:1 6:0 7:1 8:231 9:1225 10:1 11:0 12:0 13:0 14:1 15:1 16:0 17:0 18:0 19:0 20:1 21:0 22:0 23:176 24:255 25:1 26:0 27:0.01 28:0.01 29:0.01 30:0 31:0 32:0 
0.027972450432129765 0:0 1:1 2:0 3:0 4:0 5:1 6:0 7:1 8:226 9:3709 10:1 11:0 12:0 13:0 14:24 15:25 16:0 17:0 18:0 19:0 20:1 21:0 22:0.08 23:255 24:255 25:1 26:0 27:0 28:0 29:0 30:0 31:0 32:0 
0.047373406461990106 0:0 1:1 2:0 3:0 4:0 5:1 6:0 7:1 8:201 9:1148 10:1 11:0 12:0 13:0 14:15 15:15 16:0 17:0 18:0 19:0 20:1 21:0 22:0 23:15 24:69 25:1 26:0 27:0.07 28:0.06 29:0 30:0 31:0 32:0 
0.029248275974809692 0:0 1:1 2:0 3:0 4:1 5:0 6:0 7:1 8:888 9:328 10:1 11:0 12:0 13:0 14:1 15:2 16:0 17:0 18:0 19:0 20:1 21:0 22:1 23:95 24:203 25:0.79 26:0.04 27:0.01 28:0.01 29:0 30:0 31:0 32:0 
0.06001319139598317 0:0 1:1 2:0 3:0 4:0 5:1 6:0 7:1 8:160 9:584 10:1 11:0 12:0 13:0 14:1 15:21 16:0 17:0 18:0 19:0 20:1 21:0 22:0.1 23:200 24:255 25:1 26:0 27:0 28:0.01 29:0.01 30:0.01 31:0 32:0 
0.070547098650188378 0:0 1:1 2:0 3:0 4:0 5:1 6:0 7:1 8:318 9:760 10:1 11:0 12:0 13:0 14:2 15:2 16:0 17:0 18:0 19:0 20:1 21:0 22:0 23:90 24:175 25:1 26:0 27:0.01 28:0.02 29:0 30:0 31:0 32:0 
0.066507949816385026 0:0 1:1 2:0 3:0 4:0 5:1 6:0 7:1 8:286 9:7833 10:1 11:0 12:0 13:0 14:2 15:2 16:0 17:0 18:0 19:0 20:1 21:0 22:0 23:2 24:255 25:1 26:0 27:0.5 28:0.07 29:0 30:0 31:0 32:0 
0.10963633998383818 0:0 1:1 2:0 3:0 4:0 5:1 6:0 7:1 8:303 9:1380 10:1 11:0 12:0 13:0 14:3 15:3 16:0 17:0 18:0 19:0 20:1 21:0 22:0 23:122 24:73 25:0.6 26:0.03 27:0.01 28:0 29:0 30:0 31:0 32:0 
0.062547614767709203 0:0 1:1 2:0 3:0 4:0 5:1 6:0 7:1 8:366 9:2862 10:1 11:0 12:0 13:0 14:16 15:16 16:0 17:0 18:0 19:0 20:1 21:0 22:0 23:197 24:255 25:1 26:0 27:0.01 28:0.02 29:0 30:0 31:0 32:0 
0.00096115979548602043 0:0 1:1 2:0 3:0 4:0 5:1 6:0 7:1 8:205 9:4858 10:1 11:0 12:0 13:0 14:32 15:32 16:0 17:0 18:0 19:0 20:1 21:0 22:0 23:197 24:255 25:1 26:0 27:0.01 28:0.02 29:0 30:0 31:0 32:0 
0.059777476765593557 0:0 1:1 2:0 3:0 4:1 5:0 6:0 7:1 8:8325 9:0 10:1 11:0 12:0 13:0 14:17 15:17 16:0 17:0 18:0 19:0 20:1 21:0 22:0 23:87 24:46 25:0.53 26:0.03 27:0.53 28:0 29:0 30:0 31:0 32:0 
0.076515510020566557 0:0 1:1 2:0 3:0 4:1 5:0 6:0 7:1 8:1214 9:0 10:1 11:0 12:0 13:0 14:12 15:12 16:0 17:0 18:0 19:0 20:1 21:0 22:0 23:208 24:138 25:0.64 26:0.01 27:0.64 28:0.01 29:0 30:0 31:0 32:0 
0.029636225941379615 0:0 1:1 2:0 3:0 4:1 5:0 6:0 7:1 8:2056 9:0 10:1 11:0 12:0 13:0 14:6 15:6 16:0 17:0 18:0 19:0 20:1 21:0 22:0 23:21 24:49 25:0.57 26:0.14 27:0.57 28:0.04 29:0.05 30:0 31:0 32:0 
0.17250640698809414 0:0 1:1 2:0 3:0 4:0 5:1 6:0 7:1 8:149 9:7542 10:1 11:0 12:0 13:0 14:21 15:21 16:0 17:0 18:0 19:0 20:1 21:0 22:0 23:158 24:255 25:1 26:0 27:0.01 28:0.01 29:0 30:0 31:0 32:0 
0.001903573026053463 0:0 1:1 2:0 3:0 4:0 5:1 6:0 7:1 8:177 9:1531 10:1 11:0 12:0 13:0 14:2 15:2 16:0 17:0 18:0 19:0 20:1 21:0 22:0 23:255 24:255 25:1 26:0 27:0 28:0 29:0 30:0 31:0 32:0 
0.059777502020013459 0:0 1:1 2:0 3:0 4:1 5:0 6:0 7:1 8:1110 9:331 10:1 11:0 12:0 13:0 14:1 15:1 16:0 17:0 18:0 19:0 20:1 21:0 22:0 23:78 24:240 25:0.94 26:0.03 27:0.01 28:0.02 29:0 30:0 31:0 32:0 
0.1323767366945392 0:1 1:1 2:0 3:0 4:1 5:0 6:0 7:1 8:3731 9:328 10:1 11:0 12:0 13:0 14:1 15:1 16:0 17:0 18:0 19:0 20:1 21:0 22:0 23:255 24:152 25:0.6 26:0.03 27:0 28:0 29:0 30:0 31:0 32:0 
0.073472765038925941 0:0 1:1 2:0 3:0 4:1 5:0 6:0 7:1 8:1452 9:322 10:1 11:0 12:0 13:0 14:1 15:1 16:0 17:0 18:0 19:0 20:1 21:0 22:0 23:142 24:246 25:0.97 26:0.01 27:0.01 28:0.01 29:0 30:0 31:0 32:0 
0.050734276933254635 0:0 1:1 2:0 3:0 4:0 5:1 6:0 7:1 8:230 9:1380 10:1 11:0 12:0 13:0 14:3 15:3 16:0 17:0 18:0 19:0 20:1 21:0 22:0 23:255 24:219 25:0.86 26:0.01 27:0 28:0 29:0 30:0 31:0 32:0 
0.13903418296153613 0:0 1:1 2:0 3:0 4:1 5:0 6:0 7:1 8:109 9:408 10:1 11:0 12:0 13:0 14:1 15:2 16:0 17:0 18:0 19:0 20:1 21:0 22:1 23:255 24:98 25:0.38 26:0.03 27:0 28:0 29:0 30:0 31:0 32:0 
0.077465200989151453 0:0 1:1 2:0 3:0 4:0 5:1 6:0 7:1 8:337 9:7189 10:1 11:0 12:0 13:0 14:6 15:10 16:0 17:0 18:0 19:0 20:1 21:0 22:0.2 23:10 24:255 25:1 26:0 27:0.1 28:0.02 29:0 30:0 31:0 32:0 
0.10066107906799371 0:0 1:1 2:0 3:0 4:0 5:1 6:0 7:1 8:319 9:2344 10:1 11:0 12:0 13:0 14:3 15:6 16:0.33 17:0.17 18:0 19:0 20:1 21:0 22:0.5 23:149 24:149 25:1 26:0 27:0.01 28:0 29:0.01 30:0.01 31:0 32:0 
0.066864111368333506 0:0 1:1 2:0 3:0 4:0 5:1 6:0 7:1 8:185 9:4841 10:1 11:0 12:0 13:0 14:3 15:4 16:0 17:0 18:0 19:0 20:1 21:0 22:0.5 23:176 24:255 25:1 26:0 27:0.01 28:0.03 29:0 30:0 31:0 32:0 
0.078690334674384133 0:0 1:1 2:0 3:0 4:0 5:1 6:0 7:1 8:333 9:3679 10:1 11:0 12:0 13:0 14:20 15:20 16:0 17:0 18:0 19:0 20:1 21:0 22:0 23:190 24:255 25:1 26:0 27:0.01 28:0.02 29:0 30:0 31:0 32:0 
0.025732112591707809 0:0 1:1 2:0 3:0 4:0 5:1 6:0 7:1 8:241 9:1991 10:1 11:0 12:0 13:0 14:2 15:2 16:0 17:0 18:0 19:0 20:1 21:0 22:0 23:91 24:255 25:1 26:0 27:0.01 28:0.05 29:0 30:0 31:0 32:0 
0.055411873376998662 0:0 1:1 2:0 3:0 4:0 5:1 6:0 7:1 8:293 9:2400 10:1 11:0 12:0 13:0 14:5 15:43 16:0 17:0 18:0 19:0 20:1 21:0 22:0.12 23:158 24:255 25:1 26:0 27:0.01 28:0.01 29:0.01 30:0 31:0 32:0 
0.0011689140124236503 0:0 1:1 2:0 3:0 4:0 5:1 6:0 7:1 8:199 9:3413 10:1 11:0 12:0 13:0 14:18 15:26 16:0 17:0 18:0 19:0 20:1 21:0 22:0.12 23:115 24:255 25:1 26:0 27:0.01 28:0.02 29:0 30:0 31:0 32:0 
0.057431129794865726 0:0 1:1 2:0 3:0 4:0 5:1 6:0 7:1 8:321 9:1543 10:1 11:0 12:0 13:0 14:7 15:7 16:0 17:0 18:0 19:0 20:1 21:0 22:0 23:145 24:181 25:1 26:0 27:0.01 28:0.01 29:0 30:0 31:0 32:0 
0.10170290441731056 0:0 1:1 2:0 3:0 4:1 5:0 6:0 7:1 8:711 9:399 10:1 11:0 12:0 13:0 14:1 15:2 16:0 17:0 18:0 19:0 20:1 21:0 22:1 23:225 24:162 25:0.72 26:0.02 27:0 28:0.01 29:0 30:0 31:0 32:0 
0.045446236290734771 0:0 1:1 2:0 3:0 4:0 5:1 6:0 7:1 8:298 9:7299 10:1 11:0 12:0 13:0 14:1 15:1 16:0 17:0 18:0 19:0 20:1 21:0 22:0 23:255 24:255 25:1 26:0 27:0 28:0 29:0 30:0 31:0 32:0 
0.0050271753089219315 0:0 1:1 2:0 3:0 4:0 5:1 6:0 7:1 8:302 9:3415 10:1 11:0 12:0 13:0 14:1 15:5 16:0 17:0 18:0 19:0 20:1 21:0 22:0.4 23:255 24:255 25:1 26:0 27:0 28:0 29:0 30:0 31:0 32:0 
0.017910852976312001 0:0 1:1 2:0 3:0 4:0 5:1 6:0 7:1 8:275 9:833 10:1 11:0 12:0 13:0 14:4 15:5 16:0 17:0 18:0 19:0 20:1 21:0 22:0.4 23:162 24:255 25:1 26:0 27:0.01 28:0.02 29:0 30:0 31:0 32:0 
0.031854852221774879 0:0 1:1 2:0 3:0 4:0 5:1 6:0 7:1 8:375 9:3119 10:1 11:0 12:0 13:0 14:6 15:8 16:0 17:0 18:0 19:0 20:1 21:0 22:0.38 23:255 24:255 25:1 26:0 27:0 28:0 29:0 30:0 31:0 32:0 
0.11669010375340737 0:1 1:1 2:0 3:0 4:1 5:0 6:0 7:1 8:1917 9:335 10:1 11:0 12:0 13:0 14:2 15:6 16:0 17:0 18:0 19:0 20:1 21:0 22:0.83 23:167 24:240 25:0.96 26:0.01 27:0.01 28:0.01 29:0 30:0 31:0 32:0 
0.0075885259625908183 0:0 1:1 2:0 3:0 4:0 5:1 6:0 7:1 8:247 9:2495 10:1 11:0 12:0 13:0 14:2 15:2 16:0 17:0 18:0 19:0 20:1 21:0 22:0 23:60 24:255 25:1 26:0 27:0.02 28:0.02 29:0 30:0 31:0 32:0 
0.10789592112376901 0:0 1:1 2:0 3:0 4:1 5:0 6:0 7:1 8:1030 9:0 10:1 11:0 12:0 13:0 14:4 15:4 16:0 17:0 18:0 19:0 20:1 21:0 22:0 23:26 24:38 25:0.38 26:0.19 27:0.38 28:0.05 29:0 30:0 31:0 32:0 
0.034383998967554431 0:0 1:1 2:0 3:0 4:0 5:1 6:0 7:1 8:341 9:4291 10:1 11:0 12:0 13:0 14:17 15:17 16:0 17:0 18:0 19:0 20:1 21:0 22:0 23:56 24:255 25:1 26:0 27:0.02 28:0.01 29:0 30:0 31:0 32:0 
0.096714071229433693 0:0 1:1 2:0 3:0 4:1 5:0 6:0 7:1 8:15377 9:0 10:1 11:0 12:0 13:0 14:4 15:10 16:0 17:0 18:0 19:0 20:1 21:0 22:0.2 23:126 24:44 25:0.23 26:0.03 27:0.23 28:0.05 29:0 30:0 31:0 32:0 
0.093378734996629117 0:0 1:1 2:0 3:0 4:0 5:1 6:0 7:1 8:242 9:3322 10:1 11:0 12:0 13:0 14:1 15:2 16:0 17:0 18:0 19:0 20:1 21:0 22:1 23:22 24:22 25:1 26:0 27:0.05 28:0 29:0 30:0 31:0 32:0 
0.0090542396813493922 0:0 1:1 2:0 3:0 4:0 5:1 6:0 7:1 8:210 9:2942 10:1 11:0 12:0 13:0 14:39 15:39 16:0 17:0 18:0 19:0 20:1 21:0 22:0 23:255 24:255 25:1 26:0 27:0 28:0 29:0 30:0 31:0 32:0 
0.0367680472168848 0:0 1:1 2:0 3:0 4:0 5:1 6:0 7:1 8:307 9:2769 10:1 11:0 12:0 13:0 14:2 15:10 16:0 17:0 18:0 19:0 20:1 21:0 22:0.2 23:5 24:141 25:1 26:0 27:0.2 28:0.1 29:0 30:0 31:0 32:0 
0.19702486711176803 0:0 1:1 2:0 3:0 4:1 5:0 6:0 7:1 8:20658 9:0 10:1 11:0 12:0 13:0 14:1 15:1 16:0 17:0 18:0 19:0 20:1 21:0 22:0 23:140 24:39 25:0.28 26:0.04 27:0.28 28:0 29:0 30:0 31:0 32:0 
0.10804752945464986 0:0 1:1 2:0 3:0 4:1 5:0 6:0 7:1 8:3676 9:0 10:1 11:0 12:0 13:0 14:8 15:8 16:0 17:0 18:0 19:0 20:1 21:0 22:0 23:174 24:121 25:0.62 26:0.02 27:0.62 28:0.02 29:0 30:0.01 31:0 32:0 
0.077101593478817593 0:0 1:1 2:0 3:0 4:0 5:1 6:0 7:1 8:274 9:3225 10:1 11:0 12:0 13:0 14:2 15:44 16:0 17:0 18:0 19:0 20:1 21:0 22:0.11 23:155 24:255 25:1 26:0 27:0.01 28:0.02 29:0 30:0 31:0 32:0 
0.079417493943456777 0:0 1:1 2:0 3:0 4:0 5:1 6:0 7:1 8:190 9:1227 10:1 11:0 12:0 13:0 14:39 15:57 16:0 17:0 18:0 19:0 20:1 21:0 22:0.07 23:220 24:255 25:1 26:0 27:0 28:0.02 29:0 30:0 31:0 32:0 
0.041218613755516227 0:0 1:1 2:0 3:0 4:0 5:1 6:0 7:1 8:223 9:5567 10:1 11:0 12:0 13:0 14:3 15:3 16:0 17:0 18:0 19:0 20:1 21:0 22:0 23:3 24:255 25:1 26:0 27:0.33 28:0.04 29:0 30:0 31:0 32:0 
0.057686900071972469 0:0 1:1 2:0 3:0 4:0 5:1 6:0 7:1 8:308 9:3307 10:1 11:0 12:0 13:0 14:3 15:6 16:0 17:0 18:0 19:0 20:1 21:0 22:0.5 23:85 24:121 25:1 26:0 27:0.01 28:0.02 29:0 30:0 31:0 32:0 
0.16561106141472287 0:0 1:1 2:0 3:0 4:1 5:0 6:0 7:1 8:5558 9:0 10:1 11:0 12:0 13:0 14:6 15:6 16:0 17:0 18:0 19:0 20:1 21:0 22:0 23:31 24:97 25:0.52 26:0.06 27:0.52 28:0.03 29:0 30:0 31:0 32:0 
0.14047429926298571 0:0 1:1 2:0 3:0 4:0 5:1 6:0 7:1 8:174 9:3159 10:1 11:0 12:0 13:0 14:1 15:1 16:0 17:0 18:0 19:0 20:1 21:0 22:0 23:26 24:26 25:1 26:0 27:0.04 28:0 29:0 30:0 31:0 32:0 
0.071287062841712615 0:0 1:0 2:1 3:0 4:1 5:0 6:0 7:1 8:45 9:131 10:1 11:0 12:0 13:0 14:207 15:208 16:0 17:0 18:0 19:0 20:1 21:0 22:0.01 23:255 24:166 25:0.65 26:0.01 27:0 28:0 29:0 30:0 31:0 32:0 
0.14216298110201903 0:0 1:0 2:1 3:0 4:1 5:0 6:0 7:1 8:126 9:45 10:1 11:0 12:0 13:0 14:90 15:90 16:0 17:0 18:0 19:0 20:1 21:0 22:0 23:255 24:243 25:0.95 26:0.01 27:0.36 28:0 29:0 30:0 31:0 32:0 
0.069142238616302476 0:0 1:0 2:1 3:0 4:1 5:0 6:0 7:1 8:46 9:46 10:1 11:0 12:0 13:0 14:208 15:209 16:0 17:0 18:0 19:0 20:1 21:0 22:0.01 23:255 24:166 25:0.65 26:0.01 27:0 28:0 29:0 30:0 31:0 32:0 
0.11472569102763962 0:0 1:1 2:0 3:0 4:1 5:0 6:0 7:1 8:1585 9:442 10:1 11:0 12:0 13:0 14:2 15:4 16:0 17:0 18:0 19:0 20:1 21:0 22:0.75 23:155 24:106 25:0.59 26:0.05 27:0.01 28:0.02 29:0.01 30:0 31:0.01 32:0 
0.042502301417450636 0:0 1:1 2:0 3:0 4:0 5:1 6:0 7:1 8:227 9:1522 10:1 11:0 12:0 13:0 14:2 15:2 16:0 17:0 18:0 19:0 20:1 21:0 22:0 23:114 24:255 25:1 26:0 27:0.01 28:0.02 29:0 30:0 31:0 32:0 
0.047374071649057679 0:1 1:1 2:0 3:0 4:1 5:0 6:0 7:1 8:1737 9:441 10:1 11:0 12:0 13:0 14:1 15:1 16:0 17:0 18:0 19:0 20:1 21:0 22:0 23:19 24:178 25:0.95 26:0.11 27:0.05 28:0.02 29:0 30:0 31:0 32:0 
0.10088046641218433 0:3 1:1 2:0 3:0 4:1 5:0 6:0 7:1 8:992 9:279 10:1 11:0 12:0 13:0 14:1 15:2 16:0 17:0 18:0 19:0 20:1 21:0 22:1 23:22 24:25 25:0.82 26:0.14 27:0.05 28:0.08 29:0 30:0 31:0 32:0 
0.0090041488955093802 0:0 1:1 2:0 3:0 4:1 5:0 6:0 7:1 8:6601 9:0 10:1 11:0 12:0 13:0 14:18 15:18 16:0 17:0 18:0 19:0 20:1 21:0 22:0 23:178 24:87 25:0.35 26:0.03 27:0.35 28:0.02 29:0 30:0 31:0.02 32:0 
0.074378302655832063 0:0 1:1 2:0 3:0 4:1 5:0 6:0 7:1 8:383 9:0 10:1 11:0 12:0 13:0 14:2 15:3 16:0 17:0 18:0 19:0 20:1 21:0 22:0.67 23:88 24:114 25:0.35 26:0.09 27:0.4 28:0.02 29:0.01 30:0 31:0 32:0 
0.071274000407896901 0:0 1:1 2:0 3:0 4:0 5:1 6:0 7:1 8:266 9:5627 10:1 11:0 12:0 13:0 14:2 15:2 16:0 17:0 18:0 19:0 20:1 21:0 22:0 23:255 24:255 25:1 26:0 27:0 28:0 29:0 30:0 31:0 32:0 
0.0060147778532879783 0:1 1:1 2:0 3:0 4:1 5:0 6:0 7:1 8:1386 9:328 10:1 11:0 12:0 13:0 14:1 15:2 16:0 17:0 18:0 19:0 20:1 21:0 22:1 23:183 24:99 25:0.54 26:0.02 27:0.01 28:0 29:0 30:0 31:0 32:0 
0.011376823810172965 0:3 1:1 2:0 3:0 4:1 5:0 6:0 7:1 8:2432 9:334 10:1 11:0 12:0 13:0 14:1 15:2 16:0 17:0 18:0 19:0 20:1 21:0 22:1 23:74 24:98 25:0.85 26:0.04 27:0.01 28:0.02 29:0.01 30:0.01 31:0 32:0 
0.0064418294991643995 0:0 1:1 2:0 3:0 4:0 5:1 6:0 7:1 8:321 9:8064 10:1 11:0 12:0 13:0 14:17 15:17 16:0 17:0 18:0 19:0 20:1 21:0 22:0 23:150 24:255 25:1 26:0 27:0.01 28:0.02 29:0 30:0 31:0 32:0 
0.023627696142847703 0:0 1:1 2:0 3:0 4:0 5:1 6:0 7:1 8:346 9:1943 10:1 11:0 12:0 13:0 14:36 15:36 16:0 17:0 18:0 19:0 20:1 21:0 22:0 23:255 24:255 25:1 26:0 27:0 28:0 29:0 30:0 31:0 32:0 
0.084276848482198061 0:0 1:1 2:0 3:0 4:0 5:1 6:0 7:1 8:225 9:7464 10:1 11:0 12:0 13:0 14:2 15:2 16:0 17:0 18:0 19:0 20:1 21:0 22:0 23:115 24:255 25:1 26:0 27:0.01 28:0.02 29:0 30:0 31:0 32:0 
0.090234220622899833 0:0 1:1 2:0 3:0 4:0 5:1 6:0 7:1 8:418 9:537 10:1 11:0 12:0 13:0 14:1 15:17 16:0 17:0 18:0 19:0 20:1 21:0 22:0.12 23:2 24:255 25:1 26:0 27:0.5 28:0.02 29:0 30:0 31:0 32:0 
0.018356734712693445 0:1 1:1 2:0 3:0 4:1 5:0 6:0 7:1 8:2370 9:366 10:1 11:0 12:0 13:0 14:1 15:2 16:0 17:0 18:0 19:0 20:1 21:0 22:1 23:185 24:133 25:0.42 26:0.04 27:0.01 28:0.02 29:0 30:0 31:0 32:0 
0.061436288372573894 0:0 1:1 2:0 3:0 4:0 5:1 6:0 7:1 8:201 9:3142 10:1 11:0 12:0 13:0 14:42 15:42 16:0 17:0 18:0 19:0 20:1 21:0 22:0 23:255 24:255 25:1 26:0 27:0 28:0 29:0 30:0 31:0 32:0 
0.05149616229833829 0:0 1:1 2:0 3:0 4:0 5:1 6:0 7:1 8:304 9:1860 10:1 11:0 12:0 13:0 14:4 15:4 16:0 17:0 18:0 19:0 20:1 21:0 22:0 23:9 24:87 25:1 26:0 27:0.11 28:0.05 29:0 30:0 31:0 32:0 
0.080838735875637696 0:1 1:1 2:0 3:0 4:1 5:0 6:0 7:1 8:1208 9:433 10:1 11:0 12:0 13:0 14:1 15:1 16:0 17:0 18:0 19:0 20:1 21:0 22:0 23:14 24:155 25:0.5 26:0.21 27:0.07 28:0.01 29:0 30:0 31:0 32:0 
0.024472544804911758 0:0 1:1 2:0 3:0 4:0 5:1 6:0 7:1 8:215 9:597 10:1 11:0 12:0 13:0 14:29 15:47 16:0 17:0 18:0 19:0 20:1 21:0 22:0.04 23:29 24:255 25:1 26:0 27:0.03 28:0.02 29:0 30:0 31:0 32:0 
0.10467016216444645 0:0 1:1 2:0 3:0 4:1 5:0 6:0 7:1 8:3248 9:328 10:1 11:0 12:0 13:0 14:1 15:1 16:0 17:0 18:0 19:0 20:1 21:0 22:0 23:107 24:137 25:0.82 26:0.04 27:0.01 28:0.01 29:0 30:0 31:0 32:0 
0.050345342517219629 0:0 1:1 2:0 3:0 4:0 5:1 6:0 7:1 8:295 9:332 10:1 11:0 12:0 13:0 14:16 15:16 16:0 17:0 18:0 19:0 20:1 21:0 22:0 23:97 24:206 25:1 26:0 27:0.01 28:0.03 29:0 30:0 31:0 32:0 
0.13479738034562133 0:0 1:1 2:0 3:0 4:1 5:0 6:0 7:1 8:748 9:0 10:1 11:0 12:0 13:0 14:1 15:1 16:0 17:0 18:0 19:0 20:1 21:0 22:0 23:2 24:107 25:0.5 26:1 27:0.5 28:0.03 29:0.5 30:0 31:0 32:0 
0.031126943292192046 0:0 1:1 2:0 3:0 4:0 5:1 6:0 7:1 8:249 9:1218 10:1 11:0 12:0 13:0 14:3 15:3 16:0 17:0 18:0 19:0 20:1 21:0 22:0 23:88 24:255 25:1 26:0 27:0.01 28:0.03 29:0 30:0 31:0 32:0 
0.17044556716694498 0:0 1:1 2:0 3:0 4:1 5:0 6:0 7:1 8:1527 9:522 10:1 11:0 12:0 13:0 14:1 15:2 16:0 17:0 18:0 19:0 20:1 21:0 22:1 23:70 24:243 25:0.93 26:0.03 27:0.01 28:0.01 29:0 30:0 31:0 32:0 
0.14522695362498422 0:0 1:1 2:0 3:0 4:0 5:1 6:0 7:1 8:218 9:3298 10:1 11:0 12:0 13:0 14:50 15:61 16:0 17:0 18:0 19:0 20:1 21:0 22:0.03 23:219 24:219 25:1 26:0 27:0 28:0 29:0 30:0 31:0 32:0 
0.031322467850090796 0:0 1:1 2:0 3:0 4:0 5:1 6:0 7:1 8:198 9:2656 10:1 11:0 12:0 13:0 14:8 15:9 16:0 17:0 18:0 19:0 20:1 21:0 22:0.22 23:117 24:255 25:1 26:0 27:0.01 28:0.01 29:0 30:0 31:0 32:0 
0.089145672817245933 0:0 1:1 2:0 3:0 4:1 5:0 6:0 7:1 8:834 9:278 10:1 11:0 12:0 13:0 14:1 15:1 16:0 17:0 18:0 19:0 20:1 21:0 22:0 23:251 24:182 25:0.73 26:0.02 27:0 28:0 29:0 30:0 31:0 32:0 
0.029043002677314075 0:0 1:1 2:0 3:0 4:0 5:1 6:0 7:1 8:334 9:2783 10:1 11:0 12:0 13:0 14:1 15:2 16:0 17:0 18:0 19:0 20:1 21:0 22:1 23:5 24:255 25:1 26:0 27:0.2 28:0.03 29:0 30:0 31:0 32:0 
0.088547011394352365 0:0 1:1 2:0 3:0 4:1 5:0 6:0 7:1 8:634 9:451 10:1 11:0 12:0 13:0 14:1 15:1 16:0 17:0 18:0 19:0 20:1 21:0 22:0 23:51 24:232 25:0.69 26:0.06 27:0.02 28:0.01 29:0.29 30:0 31:0 32:0 
0.10647188841119695 0:0 1:1 2:0 3:0 4:1 5:0 6:0 7:1 8:1739 9:402 10:1 11:0 12:0 13:0 14:1 15:3 16:0 17:0 18:0 19:0 20:1 21:0 22:1 23:27 24:96 25:0.89 26:0.15 27:0.04 28:0.03 29:0 30:0 31:0 32:0 
0.047358993976903838 0:0 1:1 2:0 3:0 4:0 5:1 6:0 7:1 8:205 9:8064 10:1 11:0 12:0 13:0 14:2 15:2 16:0 17:0 18:0 19:0 20:1 21:0 22:0 23:255 24:255 25:1 26:0 27:0 28:0 29:0 30:0 31:0 32:0 
0.088386024214232459 0:0 1:0 2:1 3:0 4:1 5:0 6:0 7:1 8:46 9:143 10:1 11:0 12:0 13:0 14:69 15:68 16:0 17:0 18:0 19:0 20:0.99 21:0.03 22:0 23:255 24:168 25:0.66 26:0.01 27:0 28:0 29:0 30:0 31:0 32:0 
0.11621785144289493 0:0 1:1 2:0 3:0 4:0 5:1 6:0 7:1 8:304 9:1930 10:1 11:0 12:0 13:0 14:19 15:22 16:0 17:0 18:0 19:0 20:1 21:0 22:0.09 23:188 24:198 25:1 26:0 27:0.01 28:0.02 29:0.01 30:0.01 31:0 32:0 
0.11572063593542731 0:0 1:1 2:0 3:0 4:0 5:1 6:0 7:1 8:312 9:566 10:1 11:0 12:0 13:0 14:27 15:76 16:0 17:0 18:0 19:0 20:1 21:0 22:0.03 23:89 24:255 25:1 26:0 27:0.01 28:0.02 29:0 30:0 31:0 32:0 
0.080993365182670418 0:0 1:1 2:0 3:0 4:0 5:1 6:0 7:1 8:258 9:6627 10:1 11:0 12:0 13:0 14:3 15:3 16:0 17:0 18:0 19:0 20:1 21:0 22:0 23:118 24:255 25:1 26:0 27:0.01 28:0.01 29:0 30:0 31:0 32:0 
0.042782388362582427 0:0 1:1 2:0 3:0 4:0 5:1 6:0 7:1 8:314 9:4330 10:1 11:0 12:0 13:0 14:18 15:18 16:0 17:0 18:0 19:0 20:1 21:0 22:0 23:82 24:255 25:1 26:0 27:0.01 28:0.04 29:0 30:0 31:0 32:0 
0.006835751218352424 0:0 1:1 2:0 3:0 4:0 5:1 6:0 7:1 8:292 9:341 10:1 11:0 12:0 13:0 14:2 15:2 16:0 17:0 18:0 19:0 20:1 21:0 22:0 23:2 24:255 25:1 26:0 27:0.5 28:0.04 29:0 30:0 31:0 32:0 
0.14025174951001579 0:0 1:1 2:0 3:0 4:1 5:0 6:0 7:1 8:8812 9:372 10:1 11:0 12:0 13:0 14:2 15:1 16:0 17:0 18:0 19:0 20:0.5 21:1 22:0 23:22 24:132 25:0.73 26:0.14 27:0.05 28:0.02 29:0 30:0.3 31:0 32:0 
0.12895187301871208 0:0 1:0 2:1 3:0 4:1 5:0 6:0 7:1 8:46 9:132 10:1 11:0 12:0 13:0 14:165 15:164 16:0 17:0 18:0 19:0 20:0.99 21:0.01 22:0 23:54 24:21 25:0.39 26:0.04 27:0.02 28:0 29:0 30:0 31:0 32:0 
0.072963494720867883 0:0 1:1 2:0 3:0 4:0 5:1 6:0 7:1 8:315 9:6602 10:1 11:0 12:0 13:0 14:8 15:8 16:0 17:0 18:0 19:0 20:1 21:0 22:0 23:255 24:255 25:1 26:0 27:0 28:0 29:0 30:0 31:0 32:0 
0.16276984875957279 0:0 1:1 2:0 3:0 4:0 5:1 6:0 7:1 8:178 9:6462 10:1 11:0 12:0 13:0 14:1 15:4 16:0 17:0 18:0 19:0 20:1 21:0 22:0.5 23:66 24:102 25:1 26:0 27:0.02 28:0.04 29:0 30:0.01 31:0 32:0 
0.018601117788475171 0:0 1:1 2:0 3:0 4:0 5:1 6:0 7:1 8:180 9:2948 10:1 11:0 12:0 13:0 14:1 15:1 16:0 17:0 18:0 19:0 20:1 21:0 22:0 23:53 24:229 25:1 26:0 27:0.02 28:0.05 29:0 30:0.01 31:0 32:0 
0.025421021759521205 0:0 1:1 2:0 3:0 4:1 5:0 6:0 7:1 8:965 9:0 10:1 11:0 12:0 13:0 14:20 15:20 16:0 17:0 18:0 19:0 20:1 21:0 22:0 23:109 24:48 25:0.28 26:0.03 27:0.28 28:0.04 29:0 30:0 31:0 32:0 
0.098123481398810428 0:0 1:1 2:0 3:0 4:0 5:1 6:0 7:1 8:346 9:8073 10:1 11:0 12:0 13:0 14:12 15:32 16:0 17:0 18:0 19:0 20:1 21:0 22:0.06 23:12 24:255 25:1 26:0 27:0.08 28:0.03 29:0 30:0 31:0 32:0 
0.12824061381825524 0:0 1:1 2:0 3:0 4:0 5:1 6:0 7:1 8:376 9:51 10:1 11:0 12:0 13:0 14:3 15:29 16:0 17:0 18:0 19:0 20:1 21:0 22:0.1 23:46 24:255 25:1 26:0 27:0.02 28:0.06 29:0 30:0 31:0 32:0 
0.034725730935257479 0:4 1:1 2:0 3:0 4:1 5:0 6:0 7:1 8:2006 9:372 10:1 11:0 12:0 13:0 14:1 15:1 16:0 17:0 18:0 19:0 20:1 21:0 22:0 23:255 24:141 25:0.55 26:0.02 27:0 28:0 29:0 30:0 31:0 32:0 
0.037984286174902911 0:0 1:1 2:0 3:0 4:0 5:1 6:0 7:1 8:249 9:3198 10:1 11:0 12:0 13:0 14:2 15:37 16:0 17:0 18:0 19:0 20:1 21:0 22:0.08 23:95 24:255 25:1 26:0 27:0.01 28:0.04 29:0 30:0 31:0 32:0 
0.044965723133441104 0:0 1:1 2:0 3:0 4:0 5:1 6:0 7:1 8:316 9:7332 10:1 11:0 12:0 13:0 14:1 15:1 16:0 17:0 18:0 19:0 20:1 21:0 22:0 23:211 24:255 25:1 26:0 27:0 28:0.01 29:0 30:0 31:0 32:0 
0.079336152377647851 0:0 1:1 2:0 3:0 4:0 5:1 6:0 7:1 8:308 9:774 10:1 11:0 12:0 13:0 14:12 15:72 16:0 17:0 18:0 19:0 20:1 21:0 22:0.04 23:119 24:255 25:1 26:0 27:0.01 28:0.01 29:0 30:0 31:0 32:0 
0.083742838729044242 0:0 1:1 2:0 3:0 4:0 5:1 6:0 7:1 8:381 9:6418 10:1 11:0 12:0 13:0 14:9 15:11 16:0 17:0 18:0 19:0 20:1 21:0 22:0.18 23:255 24:255 25:1 26:0 27:0 28:0 29:0 30:0 31:0 32:0 
0.063088313691297304 0:0 1:1 2:0 3:0 4:0 5:1 6:0 7:1 8:331 9:1694 10:1 11:0 12:0 13:0 14:13 15:67 16:0 17:0 18:0 19:0 20:1 21:0 22:0.06 23:51 24:255 25:1 26:0 27:0.02 28:0.02 29:0 30:0 31:0 32:0 
0.028826647942563455 0:0 1:1 2:0 3:0 4:0 5:1 6:0 7:1 8:286 9:4673 10:1 11:0 12:0 13:0 14:28 15:31 16:0 17:0 18:0 19:0 20:1 21:0 22:0.1 23:68 24:255 25:1 26:0 27:0.01 28:0.02 29:0 30:0 31:0 32:0 
0.10734950211184199 0:0 1:1 2:0 3:0 4:0 5:1 6:0 7:1 8:148 9:2956 10:1 11:0 12:0 13:0 14:2 15:2 16:0 17:0 18:0 19:0 20:1 21:0 22:0 23:2 24:255 25:1 26:0 27:0.5 28:0.01 29:0 30:0 31:0 32:0 
0.080490269871124051 0:0 1:1 2:0 3:0 4:1 5:0 6:0 7:1 8:1556 9:0 10:1 11:0 12:0 13:0 14:1 15:1 16:0 17:0 18:0 19:0 20:1 21:0 22:0 23:255 24:129 25:0.51 26:0.02 27:0.51 28:0 29:0 30:0.01 31:0 32:0 
0.021325695601534984 0:0 1:1 2:0 3:0 4:0 5:1 6:0 7:1 8:316 9:3792 10:1 11:0 12:0 13:0 14:12 15:19 16:0 17:0 18:0 19:0 20:1 21:0 22:0.11 23:156 24:255 25:1 26:0 27:0.01 28:0.02 29:0 30:0 31:0 32:0 
0.17480465189242192 0:0 1:1 2:0 3:0 4:1 5:0 6:0 7:1 8:3669 9:330 10:1 11:0 12:0 13:0 14:1 15:1 16:0 17:0 18:0 19:0 20:1 21:0 22:0 23:18 24:139 25:0.83 26:0.17 27:0.06 28:0.01 29:0 30:0.01 31:0 32:0 
0.0044741533868867134 0:0 1:1 2:0 3:0 4:0 5:1 6:0 7:1 8:298 9:5989 10:1 11:0 12:0 13:0 14:7 15:29 16:0 17:0 18:0 19:0 20:1 21:0 22:0.07 23:255 24:255 25:1 26:0 27:0 28:0 29:0 30:0 31:0 32:0 
0.12675187591457063 0:0 1:1 2:0 3:0 4:0 5:1 6:0 7:1 8:370 9:2868 10:1 11:0 12:0 13:0 14:2 15:32 16:0 17:0 18:0 19:0 20:1 21:0 22:0.12 23:123 24:255 25:1 26:0 27:0.01 28:0.02 29:0 30:0 31:0 32:0 
0.14615090335565534 0:0 1:1 2:0 3:0 4:0 5:1 6:0 7:1 8:257 9:1065 10:1 11:0 12:0 13:0 14:28 15:110 16:0 17:0 18:0 19:0 20:1 21:0 22:0.12 23:255 24:255 25:1 26:0 27:0 28:0 29:0 30:0 31:0 32:0 
0.010718524720029451 0:0 1:1 2:0 3:0 4:0 5:1 6:0 7:1 8:298 9:1197 10:1 11:0 12:0 13:0 14:1 15:1 16:0 17:0 18:0 19:0 20:1 21:0 22:0 23:69 24:255 25:1 26:0 27:0.01 28:0.03 29:0 30:0 31:0 32:0 
0.014756151377966714 0:0 1:1 2:0 3:0 4:0 5:1 6:0 7:1 8:272 9:2674 10:1 11:0 12:0 13:0 14:5 15:5 16:0 17:0 18:0 19:0 20:1 21:0 22:0 23:5 24:255 25:1 26:0 27:0.2 28:0.04 29:0 30:0 31:0 32:0 
0.032705694492309666 0:0 1:1 2:0 3:0 4:0 5:1 6:0 7:1 8:217 9:1035 10:1 11:0 12:0 13:0 14:39 15:39 16:0 17:0 18:0 19:0 20:1 21:0 22:0 23:54 24:255 25:1 26:0 27:0.02 28:0.03 29:0 30:0 31:0 32:0 
0.014241985356319962 0:0 1:1 2:0 3:0 4:0 5:1 6:0 7:1 8:255 9:1249 10:1 11:0 12:0 13:0 14:3 15:4 16:0 17:0 18:0 19:0 20:1 21:0 22:0.5 23:81 24:255 25:1 26:0 27:0.01 28:0.02 29:0 30:0 31:0 32:0 
0.055837035343494427 0:0 1:1 2:0 3:0 4:1 5:0 6:0 7:1 8:1339 9:0 10:1 11:0 12:0 13:0 14:2 15:2 16:0 17:0 18:0 19:0 20:1 21:0 22:0 23:255 24:71 25:0.28 26:0.02 27:0.28 28:0 29:0 30:0 31:0 32:0 
0.086155442932672716 0:0 1:1 2:0 3:0 4:1 5:0 6:0 7:1 8:637 9:329 10:1 11:0 12:0 13:0 14:1 15:1 16:0 17:0 18:0 19:0 20:1 21:0 22:0 23:160 24:247 25:0.97 26:0.01 27:0.01 28:0.01 29:0 30:0 31:0 32:0 
0.0068208460386193466 0:0 1:1 2:0 3:0 4:0 5:1 6:0 7:1 8:222 9:4675 10:1 11:0 12:0 13:0 14:11 15:12 16:0 17:0 18:0 19:0 20:1 21:0 22:0.17 23:126 24:255 25:1 26:0 27:0.01 28:0.02 29:0.01 30:0 31:0 32:0 
0.034556700895274288 0:0 1:1 2:0 3:0 4:0 5:1 6:0 7:1 8:230 9:3662 10:1 11:0 12:0 13:0 14:1 15:1 16:0 17:0 18:0 19:0 20:1 21:0 22:0 23:118 24:255 25:1 26:0 27:0.01 28:0.04 29:0 30:0 31:0 32:0 
0.0127976804366978 0:0 1:1 2:0 3:0 4:0 5:1 6:0 7:1 8:358 9:3781 10:1 11:0 12:0 13:0 14:4 15:5 16:0 17:0 18:0 19:0 20:1 21:0 22:0.4 23:255 24:255 25:1 26:0 27:0 28:0 29:0 30:0 31:0 32:0 
0.052135012644732664 0:0 1:1 2:0 3:0 4:0 5:1 6:0 7:1 8:159 9:347 10:1 11:0 12:0 13:0 14:8 15:8 16:0 17:0 18:0 19:0 20:1 21:0 22:0 23:152 24:255 25:1 26:0 27:0.01 28:0.01 29:0 30:0 31:0 32:0 
0.081111958288588248 0:0 1:1 2:0 3:0 4:0 5:1 6:0 7:1 8:367 9:3008 10:1 11:0 12:0 13:0 14:5 15:5 16:0 17:0 18:0 19:0 20:1 21:0 22:0 23:99 24:255 25:1 26:0 27:0.01 28:0.02 29:0 30:0 31:0 32:0 
0.013813790313624678 0:0 1:1 2:0 3:0 4:0 5:1 6:0 7:1 8:242 9:3008 10:1 11:0 12:0 13:0 14:5 15:5 16:0 17:0 18:0 19:0 20:1 21:0 22:0 23:7 24:255 25:1 26:0 27:0.14 28:0.03 29:0 30:0 31:0 32:0 
0.034244551805680562 0:0 1:1 2:0 3:0 4:0 5:1 6:0 7:1 8:210 9:2322 10:1 11:0 12:0 13:0 14:7 15:12 16:0 17:0 18:0 19:0 20:1 21:0 22:0.25 23:187 24:255 25:1 26:0 27:0.01 28:0.01 29:0 30:0 31:0 32:0 
0.040150540368537581 0:0 1:0 2:1 3:0 4:1 5:0 6:0 7:1 8:41 9:41 10:1 11:0 12:0 13:0 14:118 15:200 16:0 17:0 18:0 19:0 20:1 21:0 22:0.02 23:255 24:255 25:1 26:0 27:0.01 28:0 29:0 30:0 31:0 32:0 
0.079223051795169253 0:0 1:1 2:0 3:0 4:1 5:0 6:0 7:1 8:7422 9:0 10:1 11:0 12:0 13:0 14:9 15:9 16:0 17:0 18:0 19:0 20:1 21:0 22:0 23:111 24:97 25:0.58 26:0.04 27:0.58 28:0.02 29:0.01 30:0.01 31:0 32:0 
0.02492467445983744 0:4 1:1 2:0 3:0 4:1 5:0 6:0 7:1 8:737 9:334 10:1 11:0 12:0 13:0 14:1 15:21 16:0 17:0.95 18:0 19:0 20:1 21:0 22:0.1 23:163 24:86 25:0.53 26:0.04 27:0.01 28:0 29:0.01 30:0.01 31:0 32:0 
0.091766525154300338 0:0 1:1 2:0 3:0 4:1 5:0 6:0 7:1 8:2292 9:329 10:1 11:0 12:0 13:0 14:1 15:2 16:0 17:0 18:0 19:0 20:1 21:0 22:1 23:255 24:192 25:0.75 26:0.02 27:0 28:0 29:0 30:0 31:0 32:0 
0.082137337519222059 0:0 1:1 2:0 3:0 4:1 5:0 6:0 7:1 8:252 9:0 10:1 11:0 12:0 13:0 14:2 15:2 16:0 17:0 18:0 19:0 20:1 21:0 22:0 23:4 24:56 25:0.75 26:0.5 27:0.75 28:0.04 29:0 30:0 31:0 32:0 
0.052651110062760437 0:1 1:1 2:0 3:0 4:1 5:0 6:0 7:1 8:661 9:397 10:1 11:0 12:0 13:0 14:1 15:1 16:0 17:0 18:0 19:0 20:1 21:0 22:0 23:5 24:129 25:0.8 26:0.4 27:0.2 28:0.02 29:0 30:0 31:0 32:0 
0.0017888616151189585 0:1 1:1 2:0 3:0 4:1 5:0 6:0 7:1 8:640 9:340 10:1 11:0 12:0 13:0 14:1 15:3 16:0 17:0 18:0 19:0 20:1 21:0 22:1 23:255 24:151 25:0.59 26:0.02 27:0 28:0 29:0 30:0 31:0 32:0 
0.10642085419133702 0:0 1:1 2:0 3:0 4:1 5:0 6:0 7:1 8:3270 9:332 10:1 11:0 12:0 13:0 14:1 15:1 16:0 17:0 18:0 19:0 20:1 21:0 22:0 23:26 24:152 25:0.62 26:0.19 27:0.04 28:0.01 29:0 30:0 31:0 32:0 
0.13246180570853455 0:0 1:1 2:0 3:0 4:1 5:0 6:0 7:1 8:768 9:0 10:1 11:0 12:0 13:0 14:7 15:7 16:0 17:0 18:0 19:0 20:1 21:0 22:0 23:255 24:155 25:0.61 26:0.03 27:0.62 28:0 29:0 30:0.01 31:0 32:0 
0.055739591435213766 0:0 1:1 2:0 3:0 4:1 5:0 6:0 7:1 8:59 9:0 10:1 11:0 12:0 13:0 14:24 15:24 16:0 17:0 18:0 19:0 20:1 21:0 22:0 23:255 24:149 25:0.58 26:0.02 27:0.58 28:0 29:0 30:0 31:0 32:0 
0.084794431859883085 0:0 1:1 2:0 3:0 4:0 5:1 6:0 7:1 8:346 9:3477 10:1 11:0 12:0 13:0 14:8 15:8 16:0 17:0 18:0 19:0 20:1 21:0 22:0 23:8 24:255 25:1 26:0 27:0.12 28:0.03 29:0 30:0 31:0 32:0 
0.061996419664858957 0:0 1:1 2:0 3:0 4:1 5:0 6:0 7:1 8:3468 9:0 10:1 11:0 12:0 13:0 14:23 15:23 16:0 17:0 18:0 19:0 20:1 21:0 22:0 23:85 24:99 25:0.62 26:0.02 27:0.62 28:0.02 29:0 30:0 31:0 32:0 
0.039573349922167531 0:0 1:1 2:0 3:0 4:1 5:0 6:0 7:1 8:859 9:404 10:1 11:0 12:0 13:0 14:1 15:3 16:0 17:0 18:0 19:0 20:1 21:0 22:1 23:85 24:190 25:0.87 26:0.04 27:0.01 28:0.01 29:0 30:0 31:0 32:0 
0.0080135589648297201 0:0 1:1 2:0 3:0 4:1 5:0 6:0 7:1 8:1006 9:364 10:1 11:0 12:0 13:0 14:1 15:2 16:0 17:0 18:0 19:0 20:1 21:0 22:1 23:184 24:181 25:0.67 26:0.03 27:0.01 28:0.01 29:0.01 30:0.01 31:0 32:0 
0.043016631242200162 0:0 1:1 2:0 3:0 4:1 5:0 6:0 7:1 8:9198 9:0 10:1 11:0 12:0 13:0 14:7 15:7 16:0 17:0 18:0 19:0 20:1 21:0 22:0 23:57 24:43 25:0.33 26:0.04 27:0.33 28:0.05 29:0 30:0 31:0 32:0 
0.0146154151197442 0:0 1:1 2:0 3:0 4:0 5:1 6:0 7:1 8:283 9:6614 10:1 11:0 12:0 13:0 14:4 15:4 16:0 17:0 18:0 19:0 20:1 21:0 22:0 23:255 24:255 25:1 26:0 27:0 28:0 29:0 30:0 31:0 32:0 
0.16519738500109554 0:0 1:1 2:0 3:0 4:1 5:0 6:0 7:1 8:2771 9:0 10:1 11:0 12:0 13:0 14:1 15:1 16:0 17:0 18:0 19:0 20:1 21:0 22:0 23:57 24:38 25:0.3 26:0.09 27:0.3 28:0.05 29:0 30:0 31:0 32:0 
0.062148983288812749 0:0 1:1 2:0 3:0 4:0 5:1 6:0 7:1 8:298 9:1971 10:1 11:0 12:0 13:0 14:45 15:47 16:0 17:0 18:0 19:0 20:1 21:0 22:0.06 23:113 24:255 25:1 26:0 27:0.01 28:0.02 29:0 30:0 31:0 32:0 
0.034506827373991078 0:0 1:1 2:0 3:0 4:0 5:1 6:0 7:1 8:218 9:1976 10:1 11:0 12:0 13:0 14:3 15:3 16:0 17:0 18:0 19:0 20:1 21:0 22:0 23:178 24:255 25:1 26:0 27:0.01 28:0.02 29:0 30:0 31:0 32:0 
0.0017327405137300914 0:0 1:1 2:0 3:0 4:0 5:1 6:0 7:1 8:243 9:1973 10:1 11:0 12:0 13:0 14:1 15:1 16:0 17:0 18:0 19:0 20:1 21:0 22:0 23:255 24:255 25:1 26:0 27:0 28:0 29:0 30:0 31:0 32:0 
0.049568850963931571 0:1 1:1 2:0 3:0 4:1 5:0 6:0 7:1 8:2348 9:332 10:1 11:0 12:0 13:0 14:1 15:3 16:0 17:0 18:0 19:0 20:1 21:0 22:1 23:255 24:122 25:0.48 26:0.03 27:0 28:0 29:0 30:0 31:0 32:0 
0.12183647127324021 0:0 1:1 2:0 3:0 4:1 5:0 6:1 7:0 8:82 9:206 10:1 11:0 12:0 13:0 14:1 15:1 16:1 17:1 18:0 19:0 20:1 21:0 22:0 23:119 24:202 25:0.83 26:0.03 27:0.01 28:0.01 29:0.01 30:0 31:0 32:0 
0.027084747038450378 0:0 1:1 2:0 3:0 4:0 5:1 6:0 7:1 8:299 9:455 10:1 11:0 12:0 13:0 14:2 15:2 16:0 17:0 18:0 19:0 20:1 21:0 22:0 23:83 24:255 25:1 26:0 27:0.01 28:0.03 29:0 30:0 31:0 32:0 
0.082956682952129046 0:1 1:1 2:0 3:0 4:1 5:0 6:0 7:1 8:2472 9:333 10:1 11:0 12:0 13:0 14:1 15:1 16:0 17:0 18:0 19:0 20:1 21:0 22:0 23:26 24:153 25:0.77 26:0.12 27:0.04 28:0.01 29:0 30:0.01 31:0 32:0 
0.10682716732258349 0:0 1:1 2:0 3:0 4:0 5:1 6:0 7:1 8:165 9:175 10:1 11:0 12:0 13:0 14:1 15:1 16:0 17:0 18:0 19:0 20:1 21:0 22:0 23:255 24:255 25:1 26:0 27:0 28:0 29:0 30:0 31:0 32:0 
0.06842055970077178 0:0 1:1 2:0 3:0 4:0 5:1 6:0 7:1 8:333 9:523 10:1 11:0 12:0 13:0 14:17 15:18 16:0 17:0 18:0 19:0 20:1 21:0 22:0.11 23:37 24:183 25:1 26:0 27:0.03 28:0.09 29:0 30:0.01 31:0 32:0 
0.025735693669035994 0:0 1:0 2:1 3:0 4:1 5:0 6:0 7:1 8:44 9:110 10:1 11:0 12:0 13:0 14:1 15:81 16:0 17:0 18:0 19:0 20:1 21:0 22:0.02 23:255 24:254 25:1 26:0.01 27:0 28:0 29:0 30:0 31:0 32:0 
0.017110471865602696 0:0 1:1 2:0 3:0 4:0 5:1 6:0 7:1 8:285 9:6356 10:1 11:0 12:0 13:0 14:6 15:6 16:0 17:0 18:0 19:0 20:1 21:0 22:0 23:255 24:255 25:1 26:0 27:0 28:0 29:0 30:0 31:0 32:0 
0.13254661376589277 0:2 1:1 2:0 3:0 4:1 5:0 6:0 7:1 8:3145 9:325 10:1 11:0 12:0 13:0 14:1 15:2 16:0 17:0 18:0 19:0 20:1 21:0 22:1 23:88 24:66 25:0.64 26:0.03 27:0.01 28:0.03 29:0 30:0 31:0 32:0 
0.1529981945119171 0:0 1:1 2:0 3:0 4:1 5:0 6:0 7:1 8:15377 9:0 10:1 11:0 12:0 13:0 14:23 15:23 16:0 17:0 18:0 19:0 20:1 21:0 22:0 23:251 24:127 25:0.51 26:0.02 27:0.51 28:0 29:0 30:0 31:0 32:0 
0.062471540911128345 0:0 1:1 2:0 3:0 4:0 5:1 6:0 7:1 8:285 9:5790 10:1 11:0 12:0 13:0 14:20 15:27 16:0 17:0 18:0 19:0 20:1 21:0 22:0.11 23:182 24:255 25:1 26:0 27:0.01 28:0.01 29:0 30:0 31:0 32:0 
0.021599838619976986 0:0 1:1 2:0 3:0 4:0 5:1 6:0 7:1 8:187 9:590 10:1 11:0 12:0 13:0 14:1 15:38 16:0 17:0 18:0 19:0 20:1 21:0 22:0.08 23:51 24:255 25:1 26:0 27:0.02 28:0.04 29:0 30:0 31:0 32:0 
0.019081370407379943 0:1 1:1 2:0 3:0 4:1 5:0 6:0 7:1 8:729 9:379 10:1 11:0 12:0 13:0 14:2 15:2 16:0 17:0 18:0 19:0 20:1 21:0 22:0 23:29 24:231 25:0.9 26:0.1 27:0.03 28:0.02 29:0 30:0 31:0 32:0 
0.12806513951227855 0:0 1:1 2:0 3:0 4:0 5:1 6:0 7:1 8:233 9:6634 10:1 11:0 12:0 13:0 14:4 15:6 16:0 17:0 18:0 19:0 20:1 21:0 22:0.5 23:32 24:193 25:1 26:0 27:0.03 28:0.08 29:0 30:0 31:0 32:0 
0.030784609734174351 0:0 1:1 2:0 3:0 4:1 5:0 6:0 7:1 8:9178 9:0 10:1 11:0 12:0 13:0 14:10 15:10 16:0 17:0 18:0 19:0 20:1 21:0 22:0 23:153 24:84 25:0.35 26:0.04 27:0.35 28:0.02 29:0 30:0 31:0 32:0 
0.023535470681386686 0:0 1:1 2:0 3:0 4:0 5:1 6:0 7:1 8:369 9:6193 10:1 11:0 12:0 13:0 14:1 15:1 16:0 17:0 18:0 19:0 20:1 21:0 22:0 23:255 24:255 25:1 26:0 27:0 28:0 29:0 30:0 31:0 32:0 
0.0038758936166599402 0:0 1:1 2:0 3:0 4:0 5:1 6:0 7:1 8:323 9:1509 10:1 11:0 12:0 13:0 14:1 15:1 16:0 17:0 18:0 19:0 20:1 21:0 22:0 23:162 24:255 25:1 26:0 27:0.01 28:0.01 29:0 30:0 31:0 32:0 
0.14645412147363066 0:0 1:1 2:0 3:0 4:1 5:0 6:0 7:1 8:554 9:0 10:1 11:0 12:0 13:0 14:1 15:1 16:0 17:0 18:0 19:0 20:1 21:0 22:0 23:3 24:118 25:0.67 26:0.67 27:0.67 28:0.03 29:0 30:0.01 31:0 32:0 
0.13293285645881997 0:0 1:1 2:0 3:0 4:1 5:0 6:0 7:1 8:16115 9:0 10:1 11:0 12:0 13:0 14:4 15:4 16:0 17:0 18:0 19:0 20:1 21:0 22:0 23:124 24:45 25:0.36 26:0.02 27:0.36 28:0 29:0 30:0 31:0 32:0 
0.045026774108409023 0:0 1:0 2:1 3:0 4:1 5:0 6:0 7:1 8:33 9:88 10:1 11:0 12:0 13:0 14:1 15:8 16:0 17:0 18:0 19:0 20:1 21:0 22:0.75 23:30 24:22 25:0.73 26:0.07 27:0.03 28:0 29:0 30:0 31:0 32:0 
0.0053441531124902514 0:0 1:1 2:0 3:0 4:1 5:0 6:0 7:1 8:151 9:0 10:1 11:0 12:0 13:0 14:2 15:3 16:0 17:0 18:0 19:0 20:1 21:0 22:0.67 23:180 24:101 25:0.51 26:0.03 27:0.51 28:0.02 29:0 30:0 31:0 32:0 
0.097331795131328336 0:0 1:1 2:0 3:0 4:0 5:1 6:0 7:1 8:280 9:327 10:1 11:0 12:0 13:0 14:2 15:77 16:0 17:0 18:0 19:0 20:1 21:0 22:0.12 23:99 24:255 25:1 26:0 27:0.01 28:0.01 29:0 30:0 31:0.01 32:0 
0.093042956592114145 0:0 1:1 2:0 3:0 4:0 5:1 6:0 7:1 8:415 9:235 10:1 11:0 12:0 13:0 14:6 15:18 16:0 17:0 18:0 19:0 20:1 21:0 22:0.17 23:65 24:255 25:1 26:0 27:0.02 28:0.04 29:0 30:0 31:0 32:0 
0.17835158480907509 0:0 1:1 2:0 3:0 4:1 5:0 6:0 7:1 8:3001 9:640 10:1 11:0 12:0 13:0 14:1 15:2 16:0 17:0 18:0 19:0 20:1 21:0 22:1 23:255 24:133 25:0.52 26:0.01 27:0 28:0 29:0.73 30:0.75 31:0 32:0 
0.083894386834001008 0:0 1:1 2:0 3:0 4:0 5:1 6:0 7:1 8:331 9:6827 10:1 11:0 12:0 13:0 14:18 15:20 16:0 17:0 18:0 19:0 20:1 21:0 22:0.15 23:255 24:255 25:1 26:0 27:0 28:0 29:0 30:0 31:0 32:0 
0.021287004957493222 0:0 1:1 2:0 3:0 4:0 5:1 6:0 7:1 8:260 9:737 10:1 11:0 12:0 13:0 14:6 15:6 16:0 17:0 18:0 19:0 20:1 21:0 22:0 23:78 24:212 25:1 26:0 27:0.01 28:0.02 29:0 30:0 31:0 32:0 
0.023671985287646788 0:0 1:1 2:0 3:0 4:0 5:1 6:0 7:1 8:243 9:5907 10:1 11:0 12:0 13:0 14:13 15:13 16:0 17:0 18:0 19:0 20:1 21:0 22:0 23:195 24:255 25:1 26:0 27:0.01 28:0.02 29:0 30:0 31:0 32:0 
0.026242710999697716 0:0 1:1 2:0 3:0 4:1 5:0 6:0 7:1 8:567 9:0 10:1 11:0 12:0 13:0 14:1 15:1 16:0 17:0 18:0 19:0 20:1 21:0 22:0 23:78 24:75 25:0.4 26:0.04 27:0.4 28:0.03 29:0 30:0 31:0 32:0 
0.041952430056065207 0:0 1:1 2:0 3:0 4:0 5:1 6:0 7:1 8:293 9:4937 10:1 11:0 12:0 13:0 14:18 15:18 16:0 17:0 18:0 19:0 20:1 21:0 22:0 23:69 24:255 25:1 26:0 27:0.01 28:0.02 29:0 30:0 31:0 32:0 
0.10324282749257917 0:0 1:1 2:0 3:0 4:1 5:0 6:0 7:1 8:3446 9:328 10:1 11:0 12:0 13:0 14:1 15:1 16:0 17:0 18:0 19:0 20:1 21:0 22:0 23:255 24:149 25:0.58 26:0.03 27:0 28:0 29:0 30:0.01 31:0 32:0 
0.055244973562926451 0:0 1:1 2:0 3:0 4:0 5:1 6:0 7:1 8:323 9:6186 10:1 11:0 12:0 13:0 14:9 15:10 16:0 17:0 18:0 19:0 20:1 21:0 22:0.2 23:208 24:255 25:1 26:0 27:0 28:0.03 29:0 30:0 31:0 32:0 
0.045696001752534327 0:0 1:1 2:0 3:0 4:0 5:1 6:0 7:1 8:327 9:3276 10:1 11:0 12:0 13:0 14:4 15:38 16:0 17:0 18:0 19:0 20:1 21:0 22:0.13 23:155 24:255 25:1 26:0 27:0.01 28:0.04 29:0 30:0 31:0 32:0 
0.19594814769072527 0:5 1:1 2:0 3:0 4:1 5:0 6:0 7:1 8:11200 9:328 10:1 11:0 12:0 13:0 14:1 15:3 16:0 17:0 18:0 19:0 20:1 21:0 22:1 23:15 24:86 25:0.87 26:0.13 27:0.07 28:0.02 29:0 30:0 31:0 32:0 
0.066043788298543793 0:0 1:1 2:0 3:0 4:0 5:1 6:0 7:1 8:354 9:2771 10:1 11:0 12:0 13:0 14:1 15:12 16:0 17:0 18:0 19:0 20:1 21:0 22:0.17 23:83 24:255 25:1 26:0 27:0.01 28:0.01 29:0 30:0 31:0 32:0 
0.11536391962665024 0:1 1:1 2:0 3:0 4:1 5:0 6:0 7:1 8:1848 9:434 10:1 11:0 12:0 13:0 14:1 15:1 16:0 17:0 18:0 19:0 20:1 21:0 22:0 23:23 24:98 25:0.57 26:0.13 27:0.04 28:0.02 29:0 30:0 31:0 32:0 
0.041736047255226387 0:0 1:1 2:0 3:0 4:1 5:0 6:0 7:1 8:591 9:275 10:1 11:0 12:0 13:0 14:1 15:1 16:0 17:0 18:0 19:0 20:1 21:0 22:0 23:255 24:163 25:0.64 26:0.03 27:0 28:0 29:0 30:0.01 31:0 32:0 
0.024081347179835552 0:0 1:1 2:0 3:0 4:0 5:1 6:0 7:1 8:251 9:1917 10:1 11:0 12:0 13:0 14:2 15:47 16:0 17:0 18:0 19:0 20:1 21:0 22:0.11 23:43 24:255 25:1 26:0 27:0.02 28:0.05 29:0.02 30:0.01 31:0 32:0 
0.057106475718914002 0:0 1:1 2:0 3:0 4:0 5:1 6:0 7:1 8:300 9:1400 10:1 11:0 12:0 13:0 14:44 15:46 16:0 17:0 18:0 19:0 20:1 21:0 22:0.07 23:180 24:255 25:1 26:0 27:0.01 28:0.02 29:0 30:0 31:0 32:0 
0.050114220375377563 0:0 1:1 2:0 3:0 4:1 5:0 6:0 7:1 8:10389 9:0 10:1 11:0 12:0 13:0 14:7 15:7 16:0 17:0 18:0 19:0 20:1 21:0 22:0 23:51 24:81 25:0.63 26:0.08 27:0.63 28:0.02 29:0 30:0 31:0 32:0 
0.049998769362030127 0:0 1:1 2:0 3:0 4:1 5:0 6:0 7:1 8:26408 9:0 10:1 11:0 12:0 13:0 14:9 15:9 16:0 17:0 18:0 19:0 20:1 21:0 22:0 23:109 24:96 25:0.28 26:0.03 27:0.28 28:0.02 29:0 30:0 31:0 32:0 
0.034900459385344085 0:0 1:1 2:0 3:0 4:1 5:0 6:0 7:1 8:1681 9:375 10:1 11:0 12:0 13:0 14:1 15:1 16:0 17:0 18:0 19:0 20:1 21:0 22:0 23:136 24:166 25:0.53 26:0.03 27:0.01 28:0.01 29:0 30:0 31:0.01 32:0 
0.050780377507528791 0:0 1:1 2:0 3:0 4:1 5:0 6:0 7:1 8:567 9:0 10:1 11:0 12:0 13:0 14:1 15:1 16:0 17:0 18:0 19:0 20:1 21:0 22:0 23:158 24:126 25:0.62 26:0.04 27:0.62 28:0.02 29:0 30:0 31:0 32:0 
0.098045572511235288 0:0 1:1 2:0 3:0 4:1 5:0 6:0 7:1 8:631 9:329 10:1 11:0 12:0 13:0 14:1 15:1 16:0 17:0 18:0 19:0 20:1 21:0 22:0 23:21 24:244 25:0.86 26:0.1 27:0.05 28:0.01 29:0 30:0 31:0 32:0 
0.046095686414664563 0:0 1:1 2:0 3:0 4:0 5:1 6:0 7:1 8:346 9:570 10:1 11:0 12:0 13:0 14:5 15:5 16:0 17:0 18:0 19:0 20:1 21:0 22:0 23:125 24:255 25:1 26:0 27:0.01 28:0.03 29:0 30:0 31:0 32:0 
0.15840904221252117 0:0 1:1 2:0 3:0 4:1 5:0 6:0 7:1 8:10389 9:0 10:1 11:0 12:0 13:0 14:18 15:18 16:0 17:0 18:0 19:0 20:1 21:0 22:0 23:39 24:125 25:0.62 26:0.08 27:0.62 28:0.02 29:0 30:0 31:0 32:0 
0.095771929086059734 0:0 1:1 2:0 3:0 4:0 5:1 6:0 7:1 8:216 9:5095 10:1 11:0 12:0 13:0 14:28 15:37 16:0 17:0 18:0 19:0 20:1 21:0 22:0.08 23:104 24:255 25:1 26:0 27:0.01 28:0.03 29:0 30:0 31:0 32:0 
0.12912829200685588 0:0 1:1 2:0 3:0 4:1 5:0 6:0 7:1 8:1566 9:385 10:1 11:0 12:0 13:0 14:1 15:1 16:0 17:0 18:0 19:0 20:1 21:0 22:0 23:255 24:55 25:0.22 26:0.02 27:0 28:0 29:0.58 30:0 31:0 32:0 
0.11862083332334894 0:0 1:1 2:0 3:0 4:1 5:0 6:0 7:1 8:8325 9:0 10:1 11:0 12:0 13:0 14:19 15:19 16:0 17:0 18:0 19:0 20:1 21:0 22:0 23:255 24:112 25:0.44 26:0.03 27:0.44 28:0 29:0 30:0 31:0 32:0 
0.002774234408840769 0:3 1:1 2:0 3:0 4:1 5:0 6:0 7:1 8:1213 9:361 10:1 11:0 12:0 13:0 14:1 15:1 16:0 17:0 18:0 19:0 20:1 21:0 22:0 23:88 24:54 25:0.61 26:0.05 27:0.01 28:0 29:0 30:0 31:0 32:0 
0.086064216478798333 0:0 1:1 2:0 3:0 4:1 5:0 6:0 7:1 8:1858 9:449 10:1 11:0 12:0 13:0 14:1 15:3 16:0 17:0 18:0 19:0 20:1 21:0 22:1 23:255 24:106 25:0.42 26:0.04 27:0 28:0 29:0.15 30:0 31:0.02 32:0 
0.15827782748952751 0:0 1:1 2:0 3:0 4:1 5:0 6:0 7:1 8:929 9:459 10:1 11:0 12:0 13:0 14:1 15:1 16:0 17:0 18:0 19:0 20:1 21:0 22:0 23:134 24:154 25:0.7 26:0.04 27:0.01 28:0.01 29:0.01 30:0 31:0 32:0 
0.19719456076634689 0:0 1:1 2:0 3:0 4:1 5:0 6:0 7:1 8:21240 9:336 10:1 11:0 12:0 13:0 14:1 15:2 16:0 17:0 18:0 19:0 20:1 21:0 22:1 23:143 24:134 25:0.39 26:0.03 27:0.01 28:0.01 29:0 30:0 31:0 32:0 
0.063044453840141762 0:0 1:1 2:0 3:0 4:0 5:1 6:0 7:1 8:160 9:5942 10:1 11:0 12:0 13:0 14:7 15:8 16:0 17:0 18:0 19:0 20:1 21:0 22:0.25 23:68 24:255 25:1 26:0 27:0.01 28:0.04 29:0 30:0 31:0 32:0 
0.016220112799887221 0:0 1:1 2:0 3:0 4:0 5:1 6:0 7:1 8:296 9:5971 10:1 11:0 12:0 13:0 14:18 15:37 16:0 17:0 18:0 19:0 20:1 21:0 22:0.08 23:255 24:255 25:1 26:0 27:0 28:0 29:0 30:0 31:0 32:0 
0.13447606651628879 0:0 1:1 2:0 3:0 4:1 5:0 6:0 7:1 8:641 9:0 10:1 11:0 12:0 13:0 14:1 15:1 16:0 17:0 18:0 19:0 20:1 21:0 22:0 23:255 24:153 25:0.6 26:0.03 27:0.61 28:0 29:0 30:0.01 31:0 32:0 
0.015481067042783198 0:0 1:1 2:0 3:0 4:0 5:1 6:0 7:1 8:220 9:1528 10:1 11:0 12:0 13:0 14:1 15:1 16:0 17:0 18:0 19:0 20:1 21:0 22:0 23:255 24:255 25:1 26:0 27:0 28:0 29:0.01 30:0.01 31:0 32:0 
0.053037343687788542 0:5 1:1 2:0 3:0 4:1 5:0 6:0 7:1 8:1720 9:367 10:1 11:0 12:0 13:0 14:1 15:1 16:0 17:0 18:0 19:0 20:1 21:0 22:0 23:134 24:242 25:0.96 26:0.01 27:0.01 28:0.01 29:0 30:0 31:0 32:0 
0.0094569840774139016 0:0 1:1 2:0 3:0 4:0 5:1 6:0 7:1 8:165 9:4357 10:1 11:0 12:0 13:0 14:1 15:1 16:0 17:0 18:0 19:0 20:1 21:0 22:0 23:25 24:255 25:1 26:0 27:0.04 28:0.02 29:0 30:0.01 31:0 32:0 
0.02361684916938606 0:0 1:1 2:0 3:0 4:0 5:1 6:0 7:1 8:213 9:3125 10:1 11:0 12:0 13:0 14:8 15:37 16:0 17:0 18:0 19:0 20:1 21:0 22:0.05 23:96 24:255 25:1 26:0 27:0.01 28:0.01 29:0 30:0 31:0 32:0 
0.076083766356259047 0:0 1:1 2:0 3:0 4:0 5:1 6:0 7:1 8:207 9:7262 10:1 11:0 12:0 13:0 14:24 15:24 16:0 17:0 18:0 19:0 20:1 21:0 22:0 23:92 24:255 25:1 26:0 27:0.01 28:0.02 29:0 30:0 31:0 32:0 
0.19733895371280544 0:3 1:1 2:0 3:0 4:1 5:0 6:0 7:1 8:122 9:1348 10:1 11:0 12:0 13:0 14:1 15:1 16:0 17:0 18:0 19:0 20:1 21:0 22:0 23:255 24:63 25:0.25 26:0.02 27:0 28:0 29:0.96 30:0.97 31:0 32:0 
0.17151484000667142 0:0 1:1 2:0 3:0 4:0 5:1 6:0 7:1 8:2426 9:2686 10:1 11:0 12:0 13:0 14:13 15:13 16:0 17:0 18:0 19:0 20:1 21:0 22:0 23:73 24:255 25:1 26:0 27:0.01 28:0.04 29:0 30:0 31:0 32:0 
0.018669115915892813 0:0 1:1 2:0 3:0 4:0 5:1 6:0 7:1 8:287 9:2859 10:1 11:0 12:0 13:0 14:5 15:5 16:0 17:0 18:0 19:0 20:1 21:0 22:0 23:5 24:255 25:1 26:0 27:0.2 28:0.05 29:0 30:0 31:0 32:0 
0.0091190822014732848 0:0 1:1 2:0 3:0 4:1 5:0 6:0 7:1 8:919 9:386 10:1 11:0 12:0 13:0 14:1 15:1 16:0 17:0 18:0 19:0 20:1 21:0 22:0 23:255 24:122 25:0.48 26:0.01 27:0 28:0 29:0.62 30:0.66 31:0 32:0 
0.040693328251016903 0:0 1:1 2:0 3:0 4:1 5:0 6:0 7:1 8:1579 9:329 10:1 11:0 12:0 13:0 14:1 15:1 16:0 17:0 18:0 19:0 20:1 21:0 22:0 23:61 24:31 25:0.51 26:0.08 27:0.02 28:0 29:0 30:0 31:0 32:0 
0.10189109245957353 0:0 1:1 2:0 3:0 4:0 5:1 6:0 7:1 8:229 9:820 10:1 11:0 12:0 13:0 14:4 15:4 16:0 17:0 18:0 19:0 20:1 21:0 22:0 23:31 24:81 25:1 26:0 27:0.03 28:0.09 29:0 30:0 31:0 32:0 
0.058056350165792164 0:3 1:1 2:0 3:0 4:1 5:0 6:0 7:1 8:1281 9:443 10:1 11:0 12:0 13:0 14:1 15:1 16:0 17:0 18:0 19:0 20:1 21:0 22:0 23:152 24:142 25:0.5 26:0.03 27:0.01 28:0.01 29:0 30:0 31:0 32:0 
0.068679694961064172 0:0 1:1 2:0 3:0 4:0 5:1 6:0 7:1 8:308 9:5872 10:1 11:0 12:0 13:0 14:14 15:18 16:0 17:0 18:0 19:0 20:1 21:0 22:0.22 23:173 24:255 25:1 26:0 27:0.01 28:0.02 29:0 30:0 31:0 32:0 
0.08999780625690805 0:1 1:1 2:0 3:0 4:1 5:0 6:0 7:1 8:1156 9:521 10:1 11:0 12:0 13:0 14:1 15:2 16:0 17:0 18:0 19:0 20:1 21:0 22:1 23:47 24:243 25:0.89 26:0.09 27:0.02 28:0.01 29:0 30:0 31:0 32:0 
0.070478300853437453 0:0 1:1 2:0 3:0 4:0 5:1 6:0 7:1 8:219 9:3313 10:1 11:0 12:0 13:0 14:1 15:1 16:0 17:0 18:0 19:0 20:1 21:0 22:0 23:255 24:255 25:1 26:0 27:0 28:0 29:0 30:0 31:0 32:0 
0.013271027539201664 0:0 1:1 2:0 3:0 4:0 5:1 6:0 7:1 8:298 9:1691 10:1 11:0 12:0 13:0 14:29 15:30 16:0 17:0 18:0 19:0 20:1 21:0 22:0.07 23:255 24:255 25:1 26:0 27:0 28:0 29:0 30:0 31:0 32:0 
0.10401891782822613 0:0 1:1 2:0 3:0 4:0 5:1 6:0 7:1 8:244 9:2295 10:1 11:0 12:0 13:0 14:5 15:8 16:0 17:0 18:0 19:0 20:1 21:0 22:0.25 23:148 24:148 25:1 26:0 27:0.01 28:0 29:0 30:0 31:0 32:0 
0.10926024704628864 0:0 1:1 2:0 3:0 4:1 5:0 6:0 7:1 8:14189 9:0 10:1 11:0 12:0 13:0 14:13 15:13 16:0 17:0 18:0 19:0 20:1 21:0 22:0 23:127 24:94 25:0.34 26:0.04 27:0.34 28:0.02 29:0 30:0 31:0 32:0 
0.082119095714165785 0:0 1:1 2:0 3:0 4:1 5:0 6:0 7:1 8:573 9:283 10:1 11:0 12:0 13:0 14:1 15:1 16:0 17:0 18:0 19:0 20:1 21:0 22:0 23:19 24:133 25:0.63 26:0.21 27:0.05 28:0.02 29:0 30:0 31:0 32:0 
0.015683290928727573 0:0 1:1 2:0 3:0 4:0 5:1 6:0 7:1 8:346 9:5859 10:1 11:0 12:0 13:0 14:1 15:13 16:0 17:0 18:0 19:0 20:1 21:0 22:0.23 23:8 24:255 25:1 26:0 27:0.12 28:0.03 29:0 30:0 31:0 32:0 
0.11237810161407689 0:0 1:1 2:0 3:0 4:0 5:1 6:0 7:1 8:204 9:7203 10:1 11:0 12:0 13:0 14:24 15:42 16:0 17:0 18:0 19:0 20:1 21:0 22:0.07 23:255 24:255 25:1 26:0 27:0 28:0 29:0 30:0 31:0 32:0 
0.099383699424620608 0:0 1:1 2:0 3:0 4:0 5:1 6:0 7:1 8:282 9:4768 10:1 11:0 12:0 13:0 14:14 15:32 16:0 17:0 18:0 19:0 20:1 21:0 22:0.06 23:30 24:93 25:1 26:0 27:0.03 28:0.08 29:0 30:0.01 31:0 32:0 
0.093453744176828002 0:0 1:1 2:0 3:0 4:1 5:0 6:0 7:1 8:981 9:410 10:1 11:0 12:0 13:0 14:1 15:4 16:0 17:0 18:0 19:0 20:1 21:0 22:1 23:255 24:66 25:0.26 26:0.05 27:0 28:0 29:0.47 30:0 31:0.02 32:0 
0.037154424645154838 0:0 1:1 2:0 3:0 4:0 5:1 6:0 7:1 8:253 9:2802 10:1 11:0 12:0 13:0 14:1 15:36 16:0 17:0 18:0 19:0 20:1 21:0 22:0.08 23:5 24:255 25:1 26:0 27:0.2 28:0.07 29:0 30:0.01 31:0 32:0 
0.086930780985120873 0:0 1:1 2:0 3:0 4:0 5:1 6:0 7:1 8:378 9:2488 10:1 11:0 12:0 13:0 14:6 15:6 16:0.17 17:0.17 18:0 19:0 20:1 21:0 22:0 23:255 24:255 25:1 26:0 27:0 28:0 29:0 30:0 31:0 32:0 
0.031745046807632869 0:0 1:1 2:0 3:0 4:1 5:0 6:0 7:1 8:700 9:326 10:1 11:0 12:0 13:0 14:2 15:1 16:0 17:0 18:0 19:0 20:0.5 21:1 22:0 23:255 24:79 25:0.31 26:0.29 27:0 28:0 29:0 30:0 31:0 32:0 
0.10457438468249368 0:0 1:1 2:0 3:0 4:0 5:1 6:0 7:1 8:189 9:3865 10:1 11:0 12:0 13:0 14:29 15:48 16:0 17:0 18:0 19:0 20:1 21:0 22:0.06 23:58 24:255 25:1 26:0 27:0.02 28:0.02 29:0 30:0 31:0 32:0 
0.16291955310943318 0:0 1:1 2:0 3:0 4:1 5:0 6:0 7:1 8:3025 9:331 10:1 11:0 12:0 13:0 14:1 15:1 16:0 17:0 18:0 19:0 20:1 21:0 22:0 23:4 24:226 25:1 26:0 27:0.25 28:0.01 29:0 30:0 31:0 32:0 
0.10119343769460104 0:0 1:1 2:0 3:0 4:1 5:0 6:0 7:1 8:8766 9:0 10:1 11:0 12:0 13:0 14:4 15:4 16:0 17:0 18:0 19:0 20:1 21:0 22:0 23:158 24:33 25:0.21 26:0.03 27:0.21 28:0 29:0 30:0 31:0.04 32:0 
0.014420750212478618 0:0 1:1 2:0 3:0 4:0 5:1 6:0 7:1 8:322 9:1694 10:1 11:0 12:0 13:0 14:2 15:2 16:0 17:0 18:0 19:0 20:1 21:0 22:0 23:144 24:255 25:1 26:0 27:0.01 28:0.03 29:0 30:0 31:0 32:0 
0.026235314160142246 0:0 1:1 2:0 3:0 4:1 5:0 6:0 7:1 8:2361 9:328 10:1 11:0 12:0 13:0 14:1 15:2 16:0 17:0 18:0 19:0 20:1 21:0 22:1 23:103 24:119 25:0.31 26:0.05 27:0.01 28:0.03 29:0.03 30:0.01 31:0 32:0 
0.086963511974767482 0:0 1:1 2:0 3:0 4:1 5:0 6:0 7:1 8:1901 9:363 10:1 11:0 12:0 13:0 14:1 15:1 16:0 17:0 18:0 19:0 20:1 21:0 22:0 23:150 24:65 25:0.43 26:0.05 27:0.01 28:0 29:0 30:0 31:0 32:0 
0.012033043395185029 0:1 1:1 2:0 3:0 4:1 5:0 6:0 7:1 8:1013 9:381 10:1 11:0 12:0 13:0 14:1 15:1 16:0 17:0 18:0 19:0 20:1 21:0 22:0 23:10 24:74 25:0.8 26:0.3 27:0.1 28:0.03 29:0 30:0 31:0 32:0 
0.07687371185779053 0:0 1:1 2:0 3:0 4:1 5:0 6:0 7:1 8:5891 9:0 10:1 11:0 12:0 13:0 14:17 15:17 16:0 17:0 18:0 19:0 20:1 21:0 22:0 23:60 24:23 25:0.38 26:0.08 27:0.38 28:0 29:0 30:0 31:0 32:0 
0.076379365904467852 0:0 1:1 2:0 3:0 4:1 5:0 6:0 7:1 8:1171 9:283 10:1 11:0 12:0 13:0 14:1 15:1 16:0 17:0 18:0 19:0 20:1 21:0 22:0 23:105 24:169 25:0.79 26:0.04 27:0.01 28:0.01 29:0 30:0 31:0 32:0 
0.080017494414929904 0:5 1:1 2:0 3:0 4:1 5:0 6:0 7:1 8:914 9:370 10:1 11:0 12:0 13:0 14:1 15:2 16:0 17:0 18:0 19:0 20:1 21:0 22:1 23:5 24:141 25:0.8 26:0.4 27:0.2 28:0.01 29:0 30:0 31:0 32:0 
0.035322270279086153 0:0 1:1 2:0 3:0 4:0 5:1 6:0 7:1 8:312 9:6107 10:1 11:0 12:0 13:0 14:3 15:4 16:0 17:0 18:0 19:0 20:1 21:0 22:0.5 23:3 24:255 25:1 26:0 27:0.33 28:0.01 29:0 30:0 31:0 32:0 
0.033710639249118227 0:0 1:1 2:0 3:0 4:0 5:1 6:0 7:1 8:172 9:1138 10:1 11:0 12:0 13:0 14:5 15:10 16:0 17:0.1 18:0 19:0 20:1 21:0 22:0.4 23:75 24:255 25:1 26:0 27:0.01 28:0.02 29:0 30:0 31:0 32:0 
0.045859890414846019 0:0 1:1 2:0 3:0 4:0 5:1 6:0 7:1 8:313 9:248 10:1 11:0 12:0 13:0 14:6 15:7 16:0 17:0 18:0 19:0 20:1 21:0 22:0.29 23:149 24:185 25:1 26:0 27:0.01 28:0.02 29:0 30:0.01 31:0 32:0 
0.047591935180165967 0:0 1:1 2:0 3:0 4:0 5:1 6:0 7:1 8:225 9:2617 10:1 11:0 12:0 13:0 14:2 15:2 16:0 17:0 18:0 19:0 20:1 21:0 22:0 23:255 24:255 25:1 26:0 27:0 28:0 29:0 30:0 31:0 32:0 
0.1569773520883124 0:0 1:1 2:0 3:0 4:1 5:0 6:0 7:1 8:4539 9:0 10:1 11:0 12:0 13:0 14:18 15:18 16:0 17:0 18:0 19:0 20:1 21:0 22:0 23:255 24:132 25:0.52 26:0.02 27:0.52 28:0 29:0 30:0 31:0 32:0 
0.05846856972109326 0:0 1:1 2:0 3:0 4:0 5:1 6:0 7:1 8:325 9:6665 10:1 11:0 12:0 13:0 14:5 15:5 16:0.2 17:0.2 18:0 19:0 20:1 21:0 22:0 23:255 24:255 25:1 26:0 27:0 28:0 29:0 30:0 31:0 32:0 
0.1465425616173342 0:0 1:1 2:0 3:0 4:1 5:0 6:0 7:1 8:40494 9:0 10:1 11:0 12:0 13:0 14:15 15:15 16:0 17:0 18:0 19:0 20:1 21:0 22:0 23:255 24:62 25:0.24 26:0.02 27:0.15 28:0 29:0.28 30:0.32 31:0 32:0 
0.19633492904049113 0:0 1:1 2:0 3:0 4:0 5:1 6:0 7:1 8:487 9:7477 10:1 11:0 12:0 13:0 14:14 15:14 16:0 17:0 18:0 19:0 20:1 21:0 22:0 23:100 24:255 25:1 26:0 27:0.01 28:0.05 29:0 30:0 31:0 32:0 
0.12185229319006997 0:0 1:1 2:0 3:0 4:1 5:0 6:0 7:1 8:4004 9:370 10:1 11:0 12:0 13:0 14:1 15:2 16:0 17:0 18:0 19:0 20:1 21:0 22:1 23:150 24:243 25:0.95 26:0.01 27:0.01 28:0.01 29:0 30:0 31:0 32:0 
0.092720308882477481 0:0 1:1 2:0 3:0 4:1 5:0 6:0 7:1 8:713 9:280 10:1 11:0 12:0 13:0 14:1 15:1 16:0 17:0 18:0 19:0 20:1 21:0 22:0 23:94 24:187 25:0.76 26:0.04 27:0.01 28:0.01 29:0 30:0 31:0 32:0 
0.0037344625833546532 0:0 1:1 2:0 3:0 4:0 5:1 6:0 7:1 8:200 9:955 10:1 11:0 12:0 13:0 14:1 15:1 16:0 17:0 18:0 19:0 20:1 21:0 22:0 23:131 24:255 25:1 26:0 27:0.01 28:0.03 29:0 30:0 31:0 32:0 
0.087615321269692695 0:0 1:1 2:0 3:0 4:1 5:0 6:0 7:1 8:7321 9:0 10:1 11:0 12:0 13:0 14:1 15:1 16:0 17:0 18:0 19:0 20:1 21:0 22:0 23:146 24:55 25:0.38 26:0.03 27:0.38 28:0 29:0 30:0 31:0 32:0 
0.03184699902933965 0:0 1:1 2:0 3:0 4:1 5:0 6:0 7:1 8:1580 9:327 10:1 11:0 12:0 13:0 14:1 15:1 16:0 17:0 18:0 19:0 20:1 21:0 22:0 23:172 24:150 25:0.87 26:0.03 27:0.01 28:0 29:0 30:0 31:0 32:0 
0.01177330624198795 0:0 1:1 2:0 3:0 4:0 5:1 6:0 7:1 8:287 9:925 10:1 11:0 12:0 13:0 14:5 15:5 16:0 17:0 18:0 19:0 20:1 21:0 22:0 23:17 24:105 25:1 26:0 27:0.06 28:0.05 29:0 30:0 31:0 32:0 
0.018437408839317136 0:0 1:1 2:0 3:0 4:0 5:1 6:0 7:1 8:365 9:1148 10:1 11:0 12:0 13:0 14:2 15:2 16:0 17:0 18:0 19:0 20:1 21:0 22:0 23:166 24:255 25:1 26:0 27:0.01 28:0.01 29:0 30:0 31:0 32:0 
0.031391660456092756 0:0 1:1 2:0 3:0 4:0 5:1 6:0 7:1 8:296 9:589 10:1 11:0 12:0 13:0 14:2 15:2 16:0 17:0 18:0 19:0 20:1 21:0 22:0 23:255 24:255 25:1 26:0 27:0 28:0 29:0 30:0 31:0 32:0 
0.065775914059179985 0:0 1:1 2:0 3:0 4:0 5:1 6:0 7:1 8:272 9:3874 10:1 11:0 12:0 13:0 14:2 15:15 16:0 17:0 18:0 19:0 20:1 21:0 22:0.33 23:158 24:255 25:1 26:0 27:0.01 28:0.02 29:0 30:0 31:0 32:0 
0.066928694489645002 0:3 1:1 2:0 3:0 4:1 5:0 6:0 7:1 8:1836 9:331 10:1 11:0 12:0 13:0 14:1 15:2 16:0 17:0 18:0 19:0 20:1 21:0 22:1 23:92 24:36 25:0.39 26:0.11 27:0.01 28:0 29:0 30:0 31:0 32:0 
0.034592251610752391 0:0 1:1 2:0 3:0 4:0 5:1 6:0 7:1 8:281 9:3816 10:1 11:0 12:0 13:0 14:8 15:37 16:0 17:0 18:0 19:0 20:1 21:0 22:0.14 23:29 24:255 25:1 26:0 27:0.03 28:0.05 29:0 30:0 31:0 32:0 
0.1250789255475476 0:0 1:1 2:0 3:0 4:0 5:1 6:0 7:1 8:368 9:1856 10:1 11:0 12:0 13:0 14:8 15:27 16:0 17:0 18:0 19:0 20:1 21:0 22:0.11 23:8 24:255 25:1 26:0 27:0.12 28:0.01 29:0 30:0 31:0 32:0 
0.10429701440832451 0:0 1:1 2:0 3:0 4:0 5:1 6:0 7:1 8:280 9:3307 10:1 11:0 12:0 13:0 14:7 15:7 16:0 17:0 18:0 19:0 20:1 21:0 22:0 23:121 24:157 25:1 26:0 27:0.01 28:0.01 29:0 30:0 31:0 32:0 
0.010010042077863818 0:0 1:1 2:0 3:0 4:0 5:1 6:0 7:1 8:331 9:1483 10:1 11:0 12:0 13:0 14:2 15:2 16:0 17:0 18:0 19:0 20:1 21:0 22:0 23:90 24:255 25:1 26:0 27:0.01 28:0.01 29:0 30:0 31:0 32:0 
0.12823764973559479 0:0 1:1 2:0 3:0 4:1 5:0 6:1 7:0 8:10220 9:0 10:1 11:0 12:0 13:0 14:3 15:3 16:0.33 17:0.33 18:0 19:0 20:1 21:0 22:0 23:162 24:54 25:0.28 26:0.03 27:0.28 28:0.04 29:0.01 30:0.02 31:0 32:0 
0.011256818208932038 0:0 1:1 2:0 3:0 4:0 5:1 6:0 7:1 8:173 9:1737 10:1 11:0 12:0 13:0 14:1 15:1 16:0 17:0 18:0 19:0 20:1 21:0 22:0 23:8 24:255 25:1 26:0 27:0.12 28:0.02 29:0 30:0 31:0 32:0 
0.078215084742717239 0:0 1:1 2:0 3:0 4:0 5:1 6:0 7:1 8:200 9:4763 10:1 11:0 12:0 13:0 14:31 15:31 16:0 17:0 18:0 19:0 20:1 21:0 22:0 23:90 24:255 25:1 26:0 27:0.01 28:0.03 29:0 30:0 31:0 32:0 
0.037942697779287965 0:0 1:1 2:0 3:0 4:0 5:1 6:1 7:0 8:274 9:2920 10:1 11:0 12:0 13:0 14:2 15:3 16:0.5 17:0.67 18:0 19:0 20:1 21:0 22:0.67 23:168 24:255 25:1 26:0 27:0.01 28:0.02 29:0.01 30:0.01 31:0.01 32:0 
0.0041593352545446684 0:0 1:1 2:0 3:0 4:0 5:1 6:0 7:1 8:310 9:2402 10:1 11:0 12:0 13:0 14:15 15:40 16:0 17:0 18:0 19:0 20:1 21:0 22:0.08 23:86 24:255 25:1 26:0 27:0.01 28:0.02 29:0 30:0 31:0 32:0 
0.037746493911788803 0:0 1:1 2:0 3:0 4:0 5:1 6:0 7:1 8:366 9:1644 10:1 11:0 12:0 13:0 14:10 15:10 16:0 17:0 18:0 19:0 20:1 21:0 22:0 23:210 24:255 25:1 26:0 27:0 28:0.02 29:0 30:0 31:0 32:0 
0.027219207757494108 0:0 1:1 2:0 3:0 4:0 5:1 6:0 7:1 8:331 9:2263 10:1 11:0 12:0 13:0 14:5 15:5 16:0 17:0 18:0 19:0 20:1 21:0 22:0 23:5 24:255 25:1 26:0 27:0.2 28:0.06 29:0 30:0 31:0 32:0 
0.046448913599229709 0:0 1:1 2:0 3:0 4:0 5:1 6:0 7:1 8:350 9:590 10:1 11:0 12:0 13:0 14:1 15:3 16:0 17:0 18:0 19:0 20:1 21:0 22:0.67 23:2 24:255 25:1 26:0 27:0.5 28:0.01 29:0 30:0 31:0 32:0 
0.0025856580371019949 0:0 1:1 2:0 3:0 4:1 5:0 6:0 7:1 8:2764 9:334 10:1 11:0 12:0 13:0 14:3 15:1 16:0 17:0 18:0 19:0 20:0.33 21:0.67 22:0 23:200 24:135 25:0.56 26:0.03 27:0 28:0.01 29:0 30:0 31:0 32:0 
0.12926968771648772 0:0 1:1 2:0 3:0 4:0 5:1 6:0 7:1 8:465 9:296 10:1 11:0 12:0 13:0 14:20 15:20 16:0 17:0 18:0 19:0 20:1 21:0 22:0 23:202 24:255 25:1 26:0 27:0 28:0.01 29:0 30:0 31:0 32:0 
0.10125037230122111 0:0 1:1 2:0 3:0 4:0 5:1 6:0 7:1 8:149 9:3177 10:1 11:0 12:0 13:0 14:2 15:2 16:0 17:0 18:0 19:0 20:1 21:0 22:0 23:121 24:255 25:1 26:0 27:0.01 28:0.01 29:0 30:0 31:0 32:0 
0.10674801603841137 0:0 1:1 2:0 3:0 4:0 5:1 6:0 7:1 8:162 9:2778 10:1 11:0 12:0 13:0 14:3 15:3 16:0 17:0 18:0 19:0 20:1 21:0 22:0 23:255 24:255 25:1 26:0 27:0 28:0 29:0 30:0 31:0 32:0 
0.078014181068003285 0:0 1:1 2:0 3:0 4:1 5:0 6:0 7:1 8:1146 9:337 10:1 11:0 12:0 13:0 14:1 15:1 16:0 17:0 18:0 19:0 20:1 21:0 22:0 23:2 24:129 25:0.5 26:1 27:0.5 28:0.02 29:0 30:0.02 31:0 32:0 
0.023386404136212229 0:0 1:0 2:1 3:0 4:1 5:0 6:0 7:1 8:34 9:50 10:1 11:0 12:0 13:0 14:3 15:4 16:0 17:0 18:0 19:0 20:1 21:0 22:0.5 23:255 24:255 25:1 26:0 27:0.01 28:0 29:0 30:0 31:0 32:0 
0.077503370026901386 0:0 1:1 2:0 3:0 4:0 5:1 6:0 7:1 8:168 9:2944 10:1 11:0 12:0 13:0 14:1 15:1 16:0 17:0 18:0 19:0 20:1 21:0 22:0 23:98 24:255 25:1 26:0 27:0.01 28:0.05 29:0 30:0 31:0 32:0 
0.091272577556968548 0:0 1:1 2:0 3:0 4:0 5:1 6:0 7:1 8:336 9:3915 10:1 11:0 12:0 13:0 14:2 15:3 16:0 17:0 18:0 19:0 20:1 21:0 22:0.67 23:2 24:255 25:1 26:0 27:0.5 28:0.02 29:0 30:0 31:0 32:0 
0.13069846064519142 0:0 1:1 2:0 3:0 4:1 5:0 6:0 7:1 8:2192 9:397 10:1 11:0 12:0 13:0 14:1 15:1 16:0 17:0 18:0 19:0 20:1 21:0 22:0 23:162 24:248 25:0.97 26:0.01 27:0.01 28:0.01 29:0 30:0 31:0 32:0 
0.0086640446148995298 0:0 1:1 2:0 3:0 4:1 5:0 6:0 7:1 8:1338 9:412 10:1 11:0 12:0 13:0 14:1 15:1 16:0 17:0 18:0 19:0 20:1 21:0 22:0 23:238 24:165 25:0.69 26:0.02 27:0 28:0 29:0 30:0 31:0 32:0 
0.029428808512028382 0:0 1:1 2:0 3:0 4:1 5:0 6:0 7:1 8:616 9:362 10:1 11:0 12:0 13:0 14:1 15:1 16:0 17:0 18:0 19:0 20:1 21:0 22:0 23:255 24:141 25:0.55 26:0.03 27:0 28:0 29:0 30:0 31:0 32:0 
0.11417022302781178 0:0 1:1 2:0 3:0 4:1 5:0 6:0 7:1 8:2381 9:279 10:1 11:0 12:0 13:0 14:1 15:1 16:0 17:0 18:0 19:0 20:1 21:0 22:0 23:143 24:190 25:0.76 26:0.03 27:0.01 28:0.01 29:0 30:0 31:0 32:0 
0.068697097660927131 0:0 1:1 2:0 3:0 4:0 5:1 6:0 7:1 8:238 9:6406 10:1 11:0 12:0 13:0 14:5 15:5 16:0 17:0 18:0 19:0 20:1 21:0 22:0 23:116 24:255 25:1 26:0 27:0.01 28:0.02 29:0 30:0 31:0 32:0 
0.038810556207762879 0:0 1:1 2:0 3:0 4:0 5:1 6:0 7:1 8:219 9:2963 10:1 11:0 12:0 13:0 14:3 15:3 16:0 17:0 18:0 19:0 20:1 21:0 22:0 23:3 24:255 25:1 26:0 27:0.33 28:0.07 29:0 30:0 31:0 32:0 
0.021760891469750514 0:0 1:1 2:0 3:0 4:0 5:1 6:0 7:1 8:178 9:368 10:1 11:0 12:0 13:0 14:2 15:3 16:0 17:0 18:0 19:0 20:1 21:0 22:0.67 23:255 24:255 25:1 26:0 27:0 28:0 29:0 30:0 31:0 32:0 
0.051223345503281309 0:0 1:1 2:0 3:0 4:0 5:1 6:0 7:1 8:212 9:5415 10:1 11:0 12:0 13:0 14:11 15:11 16:0 17:0 18:0 19:0 20:1 21:0 22:0 23:175 24:255 25:1 26:0 27:0.01 28:0.02 29:0 30:0 31:0 32:0 
0.02404478457828578 0:0 1:1 2:0 3:0 4:0 5:1 6:0 7:1 8:194 9:7197 10:1 11:0 12:0 13:0 14:2 15:2 16:0 17:0 18:0 19:0 20:1 21:0 22:0 23:2 24:255 25:1 26:0 27:0.5 28:0.04 29:0 30:0 31:0 32:0 
0.12257038940586229 0:0 1:1 2:0 3:0 4:1 5:0 6:0 7:1 8:11600 9:1431 10:1 11:0 12:0 13:0 14:1 15:1 16:0 17:0 18:0 19:0 20:1 21:0 22:0 23:196 24:178 25:0.69 26:0.02 27:0.01 28:0.01 29:0 30:0 31:0 32:0 
0.021160263606628298 0:0 1:1 2:0 3:0 4:0 5:1 6:0 7:1 8:302 9:1075 10:1 11:0 12:0 13:0 14:3 15:3 16:0 17:0 18:0 19:0 20:1 21:0 22:0 23:255 24:215 25:0.84 26:0.02 27:0 28:0 29:0 30:0 31:0 32:0 
0.045489481846242241 0:0 1:1 2:0 3:0 4:1 5:0 6:0 7:1 8:1012 9:331 10:1 11:0 12:0 13:0 14:1 15:1 16:0 17:0 18:0 19:0 20:1 21:0 22:0 23:23 24:21 25:0.91 26:0.13 27:0.04 28:0 29:0 30:0 31:0 32:0 
0.10195649708711302 0:0 1:1 2:0 3:0 4:0 5:1 6:0 7:1 8:333 9:5726 10:1 11:0 12:0 13:0 14:5 15:5 16:0 17:0 18:0 19:0 20:1 21:0 22:0 23:99 24:255 25:1 26:0 27:0.01 28:0.01 29:0 30:0 31:0 32:0 
0.089315839181496395 0:0 1:1 2:0 3:0 4:0 5:1 6:0 7:1 8:244 9:4297 10:1 11:0 12:0 13:0 14:1 15:43 16:0 17:0 18:0 19:0 20:1 21:0 22:0.05 23:52 24:55 25:1 26:0 27:0.02 28:0.04 29:0 30:0 31:0 32:0 
0.011006352206398257 0:0 1:1 2:0 3:0 4:0 5:1 6:0 7:1 8:234 9:3295 10:1 11:0 12:0 13:0 14:2 15:2 16:0 17:0 18:0 19:0 20:1 21:0 22:0 23:2 24:255 25:1 26:0 27:0.5 28:0.03 29:0 30:0 31:0 32:0 
0.0024680634603609199 0:4 1:1 2:0 3:0 4:1 5:0 6:0 7:1 8:1057 9:372 10:1 11:0 12:0 13:0 14:1 15:1 16:0 17:0 18:0 19:0 20:1 21:0 22:0 23:194 24:124 25:0.57 26:0.02 27:0.01 28:0.02 29:0 30:0 31:0 32:0 
0.043684334312104639 0:0 1:1 2:0 3:0 4:1 5:0 6:0 7:1 8:12165 9:0 10:1 11:0 12:0 13:0 14:8 15:8 16:0 17:0 18:0 19:0 20:1 21:0 22:0 23:215 24:75 25:0.24 26:0.03 27:0.24 28:0.03 29:0 30:0 31:0 32:0 
0.026424608264845335 0:0 1:1 2:0 3:0 4:0 5:1 6:0 7:1 8:224 9:7877 10:1 11:0 12:0 13:0 14:4 15:4 16:0 17:0 18:0 19:0 20:1 21:0 22:0 23:7 24:255 25:1 26:0 27:0.14 28:0.02 29:0 30:0 31:0 32:0 
0.0029444404043880721 0:0 1:1 2:0 3:0 4:0 5:1 6:0 7:1 8:205 9:525 10:1 11:0 12:0 13:0 14:2 15:3 16:0 17:0 18:0 19:0 20:1 21:0 22:0.67 23:200 24:255 25:1 26:0 27:0 28:0.03 29:0 30:0 31:0 32:0 
0.14051650616519967 0:0 1:1 2:0 3:0 4:1 5:0 6:0 7:1 8:8769 9:369 10:1 11:0 12:0 13:0 14:1 15:1 16:0 17:0 18:0 19:0 20:1 21:0 22:0 23:3 24:160 25:1 26:0 27:0.33 28:0.01 29:0 30:0 31:0 32:0 
0.08062372631713087 0:0 1:1 2:0 3:0 4:0 5:1 6:0 7:1 8:236 9:5056 10:1 11:0 12:0 13:0 14:8 15:40 16:0 17:0.03 18:0 19:0 20:1 21:0 22:0.12 23:8 24:255 25:1 26:0 27:0.12 28:0.02 29:0 30:0 31:0 32:0 
0.077518512736492462 0:0 1:1 2:0 3:0 4:1 5:0 6:0 7:1 8:1809 9:325 10:1 11:0 12:0 13:0 14:1 15:2 16:0 17:0 18:0 19:0 20:1 21:0 22:1 23:16 24:90 25:0.81 26:0.25 27:0.06 28:0.03 29:0 30:0 31:0 32:0 
0.012566734737913598 0:0 1:1 2:0 3:0 4:0 5:1 6:0 7:1 8:330 9:2445 10:1 11:0 12:0 13:0 14:2 15:4 16:0 17:0 18:0 19:0 20:1 21:0 22:0.5 23:177 24:255 25:1 26:0 27:0.01 28:0.02 29:0.01 30:0 31:0 32:0 
0.054581554330790732 0:0 1:1 2:0 3:0 4:0 5:1 6:0 7:1 8:196 9:210 10:1 11:0 12:0 13:0 14:3 15:5 16:0 17:0 18:0 19:0 20:1 21:0 22:0.4 23:113 24:255 25:1 26:0 27:0.01 28:0.02 29:0 30:0 31:0 32:0 
0.008215786657568315 0:0 1:1 2:0 3:0 4:0 5:1 6:0 7:1 8:318 9:6014 10:1 11:0 12:0 13:0 14:1 15:1 16:0 17:0 18:0 19:0 20:1 21:0 22:0 23:49 24:255 25:1 26:0 27:0.02 28:0.03 29:0 30:0 31:0 32:0 
0.031051495433251142 0:0 1:1 2:0 3:0 4:0 5:1 6:0 7:1 8:229 9:396 10:1 11:0 12:0 13:0 14:1 15:2 16:0 17:0 18:0 19:0 20:1 21:0 22:1 23:2 24:255 25:1 26:0 27:0.5 28:0.01 29:0 30:0 31:0 32:0 
0.026739834621650131 0:0 1:1 2:0 3:0 4:0 5:1 6:0 7:1 8:277 9:987 10:1 11:0 12:0 13:0 14:3 15:3 16:0.33 17:0.33 18:0 19:0 20:1 21:0 22:0 23:2 24:255 25:1 26:0 27:0.5 28:0.06 29:0 30:0 31:0 32:0 
0.062236503038745762 0:0 1:1 2:0 3:0 4:0 5:1 6:0 7:1 8:438 9:3110 10:1 11:0 12:0 13:0 14:21 15:22 16:0 17:0 18:0 19:0 20:1 21:0 22:0.09 23:255 24:255 25:1 26:0 27:0 28:0 29:0 30:0 31:0 32:0 
0.14016914390375551 0:0 1:1 2:0 3:0 4:1 5:0 6:0 7:1 8:7077 9:0 10:1 11:0 12:0 13:0 14:5 15:5 16:0 17:0 18:0 19:0 20:1 21:0 22:0 23:20 24:53 25:0.55 26:0.2 27:0.55 28:0.04 29:0 30:0 31:0 32:0 
0.11070616010206526 0:0 1:1 2:0 3:0 4:0 5:1 6:0 7:1 8:239 9:2982 10:1 11:0 12:0 13:0 14:2 15:18 16:0 17:0 18:0 19:0 20:1 21:0 22:0.17 23:2 24:82 25:1 26:0 27:0.5 28:0.11 29:0 30:0 31:0 32:0 
0.11199815885278279 0:0 1:1 2:0 3:0 4:1 5:0 6:0 7:1 8:1163 9:489 10:1 11:0 12:0 13:0 14:1 15:1 16:0 17:0 18:0 19:0 20:1 21:0 22:0 23:255 24:121 25:0.47 26:0.02 27:0 28:0 29:0.47 30:0.5 31:0 32:0 
0.064226028482010991 0:0 1:1 2:0 3:0 4:0 5:1 6:0 7:1 8:201 9:1464 10:1 11:0 12:0 13:0 14:13 15:54 16:0 17:0 18:0 19:0 20:1 21:0 22:0.04 23:13 24:255 25:1 26:0 27:0.08 28:0.02 29:0 30:0 31:0 32:0 
0.093385590638504629 0:0 1:1 2:0 3:0 4:1 5:0 6:0 7:1 8:641 9:0 10:1 11:0 12:0 13:0 14:1 15:1 16:0 17:0 18:0 19:0 20:1 21:0 22:0 23:255 24:58 25:0.23 26:0.07 27:0.29 28:0 29:0 30:0.02 31:0 32:0 
0.0024420103858070179 0:4 1:1 2:0 3:0 4:1 5:0 6:0 7:1 8:2936 9:331 10:1 11:0 12:0 13:0 14:1 15:1 16:0 17:0 18:0 19:0 20:1 21:0 22:0 23:255 24:113 25:0.44 26:0.02 27:0 28:0 29:0 30:0 31:0 32:0 
0.0043136516422392357 0:0 1:1 2:0 3:0 4:0 5:1 6:0 7:1 8:326 9:1319 10:1 11:0 12:0 13:0 14:16 15:42 16:0 17:0 18:0 19:0 20:1 21:0 22:0.05 23:16 24:255 25:1 26:0 27:0.06 28:0.01 29:0 30:0 31:0 32:0 
0.068208968884726967 0:0 1:1 2:0 3:0 4:0 5:1 6:0 7:1 8:312 9:1078 10:1 11:0 12:0 13:0 14:3 15:3 16:0.33 17:0.33 18:0 19:0 20:1 21:0 22:0 23:105 24:164 25:1 26:0 27:0.01 28:0.02 29:0.01 30:0.01 31:0 32:0 
0.065897934695279659 0:0 1:1 2:0 3:0 4:0 5:1 6:0 7:1 8:184 9:1619 10:1 11:0 12:0 13:0 14:2 15:2 16:0 17:0 18:0 19:0 20:1 21:0 22:0 23:255 24:231 25:0.91 26:0.01 27:0 28:0 29:0 30:0 31:0 32:0 
0.0037113786167715622 0:0 1:1 2:0 3:0 4:0 5:1 6:0 7:1 8:235 9:1840 10:1 11:0 12:0 13:0 14:2 15:2 16:0 17:0 18:0 19:0 20:1 21:0 22:0 23:255 24:255 25:1 26:0 27:0 28:0 29:0 30:0 31:0 32:0 
0.011631728412464251 0:2 1:1 2:0 3:0 4:1 5:0 6:0 7:1 8:1647 9:326 10:1 11:0 12:0 13:0 14:1 15:2 16:0 17:0 18:0 19:0 20:1 21:0 22:1 23:166 24:159 25:0.46 26:0.04 27:0.01 28:0.01 29:0 30:0 31:0 32:0 
0.19745679243098083 0:0 1:1 2:0 3:0 4:1 5:0 6:0 7:1 8:15281 9:1361 10:1 11:0 12:0 13:0 14:1 15:1 16:0 17:0 18:0 19:0 20:1 21:0 22:0 23:107 24:213 25:0.64 26:0.03 27:0.01 28:0.01 29:0 30:0 31:0 32:0 
0.086886288078736246 0:0 1:1 2:0 3:0 4:1 5:0 6:0 7:1 8:1996 9:285 10:1 11:0 12:0 13:0 14:1 15:1 16:0 17:0 18:0 19:0 20:1 21:0 22:0 23:38 24:158 25:0.74 26:0.11 27:0.03 28:0.02 29:0 30:0 31:0 32:0 
0.039125858928367965 0:0 1:1 2:0 3:0 4:1 5:0 6:0 7:1 8:1723 9:334 10:1 11:0 12:0 13:0 14:3 15:1 16:0 17:0 18:0 19:0 20:0.33 21:0.67 22:0 23:211 24:102 25:0.45 26:0.03 27:0 28:0.02 29:0 30:0 31:0 32:0 
0.028136545017677386 0:0 1:1 2:0 3:0 4:0 5:1 6:0 7:1 8:292 9:4624 10:1 11:0 12:0 13:0 14:20 15:20 16:0 17:0 18:0 19:0 20:1 21:0 22:0 23:190 24:255 25:1 26:0 27:0.01 28:0.02 29:0 30:0 31:0 32:0 
0.049137143253139365 0:0 1:1 2:0 3:0 4:1 5:0 6:0 7:1 8:1214 9:0 10:1 11:0 12:0 13:0 14:15 15:15 16:0 17:0 18:0 19:0 20:1 21:0 22:0 23:173 24:106 25:0.31 26:0.02 27:0.31 28:0.02 29:0 30:0 31:0 32:0 
0.19637543701837201 0:0 1:1 2:0 3:0 4:1 5:0 6:0 7:1 8:4660 9:370 10:1 11:0 12:0 13:0 14:1 15:3 16:0 17:0 18:0 19:0 20:1 21:0 22:1 23:4 24:243 25:0.75 26:0.5 27:0.25 28:0.02 29:0 30:0 31:0 32:0 
0.043745514114782794 0:0 1:1 2:0 3:0 4:0 5:1 6:0 7:1 8:321 9:7886 10:1 11:0 12:0 13:0 14:21 15:35 16:0 17:0 18:0 19:0 20:1 21:0 22:0.06 23:255 24:255 25:1 26:0 27:0 28:0 29:0 30:0 31:0 32:0 
0.041154973819999649 0:0 1:1 2:0 3:0 4:0 5:1 6:0 7:1 8:227 9:5220 10:1 11:0 12:0 13:0 14:6 15:6 16:0 17:0 18:0 19:0 20:1 21:0 22:0 23:19 24:114 25:1 26:0 27:0.05 28:0.05 29:0 30:0 31:0 32:0 
0.025840225922956962 0:0 1:1 2:0 3:0 4:0 5:1 6:0 7:1 8:307 9:741 10:1 11:0 12:0 13:0 14:26 15:48 16:0 17:0 18:0 19:0 20:1 21:0 22:0.06 23:26 24:255 25:1 26:0 27:0.04 28:0.04 29:0 30:0 31:0 32:0 
0.022677597425775461 0:0 1:1 2:0 3:0 4:1 5:0 6:0 7:1 8:1883 9:329 10:1 11:0 12:0 13:0 14:1 15:1 16:0 17:0 18:0 19:0 20:1 21:0 22:0 23:192 24:131 25:0.39 26:0.02 27:0.01 28:0.02 29:0 30:0 31:0 32:0 
0.0485141840095034 0:0 1:1 2:0 3:0 4:1 5:0 6:0 7:1 8:2735 9:327 10:1 11:0 12:0 13:0 14:2 15:1 16:0 17:0 18:0 19:0 20:0.5 21:1 22:0 23:255 24:201 25:0.79 26:0.02 27:0 28:0 29:0 30:0 31:0 32:0 
0.085996566842337724 0:0 1:1 2:0 3:0 4:0 5:1 6:0 7:1 8:299 9:3991 10:1 11:0 12:0 13:0 14:19 15:52 16:0.05 17:0.02 18:0 19:0 20:1 21:0 22:0.12 23:255 24:255 25:1 26:0 27:0 28:0 29:0 30:0 31:0 32:0 
0.031500097757118505 0:0 1:1 2:0 3:0 4:1 5:0 6:0 7:1 8:2157 9:387 10:1 11:0 12:0 13:0 14:1 15:1 16:0 17:0 18:0 19:0 20:1 21:0 22:0 23:255 24:132 25:0.52 26:0.01 27:0 28:0 29:0.74 30:0.76 31:0 32:0 
0.080599956607029608 0:0 1:1 2:0 3:0 4:0 5:1 6:0 7:1 8:216 9:2531 10:1 11:0 12:0 13:0 14:8 15:8 16:0 17:0 18:0 19:0 20:1 21:0 22:0 23:105 24:105 25:1 26:0 27:0.01 28:0 29:0 30:0 31:0 32:0 
0.085727297960680821 0:0 1:1 2:0 3:0 4:1 5:0 6:0 7:1 8:1139 9:0 10:1 11:0 12:0 13:0 14:1 15:1 16:0 17:0 18:0 19:0 20:1 21:0 22:0 23:255 24:59 25:0.23 26:0.02 27:0.04 28:0 29:0.66 30:0.75 31:0 32:0 
0.033585540929642457 0:0 1:1 2:0 3:0 4:1 5:0 6:0 7:1 8:1879 9:330 10:1 11:0 12:0 13:0 14:1 15:1 16:0 17:0 18:0 19:0 20:1 21:0 22:0 23:255 24:138 25:0.54 26:0.02 27:0 28:0 29:0 30:0 31:0 32:0 
0.030095811745731352 0:0 1:1 2:0 3:0 4:0 5:1 6:0 7:1 8:155 9:1009 10:1 11:0 12:0 13:0 14:1 15:1 16:0 17:0 18:0 19:0 20:1 21:0 22:0 23:2 24:255 25:1 26:0 27:0.5 28:0.02 29:0 30:0 31:0 32:0 
0.063332374058926486 0:0 1:1 2:0 3:0 4:0 5:1 6:0 7:1 8:196 9:2719 10:1 11:0 12:0 13:0 14:24 15:24 16:0 17:0 18:0 19:0 20:1 21:0 22:0 23:146 24:255 25:1 26:0 27:0.01 28:0.03 29:0 30:0 31:0 32:0 
0.050416610324376943 0:0 1:1 2:0 3:0 4:1 5:0 6:0 7:1 8:383 9:0 10:1 11:0 12:0 13:0 14:2 15:2 16:0 17:0 18:0 19:0 20:1 21:0 22:0 23:85 24:27 25:0.32 26:0.07 27:0.32 28:0 29:0 30:0 31:0.01 32:0 
0.019199542927597141 0:0 1:1 2:0 3:0 4:0 5:1 6:0 7:1 8:317 9:1484 10:1 11:0 12:0 13:0 14:1 15:44 16:0 17:0 18:0 19:0 20:1 21:0 22:0.14 23:96 24:255 25:1 26:0 27:0.01 28:0.03 29:0 30:0 31:0 32:0 
0.093758416981753231 0:0 1:1 2:0 3:0 4:1 5:0 6:0 7:1 8:1441 9:387 10:1 11:0 12:0 13:0 14:1 15:2 16:0 17:0 18:0 19:0 20:1 21:0 22:1 23:78 24:41 25:0.53 26:0.08 27:0.01 28:0 29:0.03 30:0 31:0.04 32:0 
0.015494016825911415 0:3 1:1 2:0 3:0 4:1 5:0 6:0 7:1 8:1991 9:368 10:1 11:0 12:0 13:0 14:1 15:2 16:0 17:0 18:0 19:0 20:1 21:0 22:1 23:90 24:193 25:0.88 26:0.03 27:0.01 28:0.01 29:0 30:0 31:0 32:0 
0.019339154377726479 0:0 1:1 2:0 3:0 4:0 5:1 6:0 7:1 8:184 9:1619 10:1 11:0 12:0 13:0 14:2 15:2 16:0.5 17:0.5 18:0 19:0 20:1 21:0 22:0 23:255 24:253 25:0.99 26:0.01 27:0 28:0 29:0 30:0 31:0 32:0 
0.13864317793996367 0:0 1:1 2:0 3:0 4:0 5:1 6:0 7:1 8:305 9:4978 10:1 11:0 12:0 13:0 14:10 15:10 16:0 17:0 18:0 19:0 20:1 21:0 22:0 23:107 24:115 25:1 26:0 27:0.01 28:0.03 29:0 30:0.01 31:0 32:0 
0.13345640482409821 0:0 1:1 2:0 3:0 4:1 5:0 6:0 7:1 8:14052 9:0 10:1 11:0 12:0 13:0 14:1 15:1 16:0 17:0 18:0 19:0 20:1 21:0 22:0 23:78 24:63 25:0.21 26:0.06 27:0.21 28:0.03 29:0 30:0 31:0 32:0 
0.024152865190101413 0:0 1:0 2:1 3:0 4:1 5:0 6:0 7:1 8:33 9:0 10:1 11:0 12:0 13:0 14:1 15:2 16:0 17:0 18:0 19:0 20:1 21:0 22:1 23:114 24:27 25:0.24 26:0.04 27:0.24 28:0 29:0.01 30:0 31:0 32:0 
0.045956378378509202 0:0 1:1 2:0 3:0 4:0 5:1 6:0 7:1 8:207 9:512 10:1 11:0 12:0 13:0 14:9 15:9 16:0 17:0 18:0 19:0 20:1 21:0 22:0 23:64 24:144 25:1 26:0 27:0.02 28:0.02 29:0 30:0 31:0 32:0 
0.089840594242618005 0:0 1:1 2:0 3:0 4:0 5:1 6:0 7:1 8:363 9:7956 10:1 11:0 12:0 13:0 14:38 15:38 16:0 17:0 18:0 19:0 20:1 21:0 22:0 23:255 24:255 25:1 26:0 27:0 28:0 29:0 30:0 31:0 32:0 
0.037670065186248457 0:1 1:1 2:0 3:0 4:1 5:0 6:0 7:1 8:1533 9:360 10:1 11:0 12:0 13:0 14:1 15:4 16:0 17:0 18:0 19:0 20:1 21:0 22:1 23:170 24:153 25:0.63 26:0.11 27:0.01 28:0.01 29:0.01 30:0 31:0 32:0 
0.066746725941297019 0:0 1:1 2:0 3:0 4:0 5:1 6:0 7:1 8:330 9:5941 10:1 11:0 12:0 13:0 14:7 15:22 16:0 17:0 18:0 19:0 20:1 21:0 22:0.23 23:7 24:255 25:1 26:0 27:0.14 28:0.03 29:0 30:0 31:0 32:0 
0.0063166447355832295 0:0 1:1 2:0 3:0 4:0 5:1 6:0 7:1 8:287 9:439 10:1 11:0 12:0 13:0 14:2 15:4 16:0 17:0 18:0 19:0 20:1 21:0 22:0.5 23:103 24:255 25:1 26:0 27:0.01 28:0.04 29:0 30:0 31:0 32:0 
0.020297509910438917 0:0 1:1 2:0 3:0 4:0 5:1 6:0 7:1 8:181 9:5830 10:1 11:0 12:0 13:0 14:1 15:1 16:0 17:0 18:0 19:0 20:1 21:0 22:0 23:255 24:255 25:1 26:0 27:0 28:0 29:0.01 30:0.01 31:0 32:0 
0.061628709409991864 0:0 1:1 2:0 3:0 4:0 5:1 6:0 7:1 8:214 9:1650 10:1 11:0 12:0 13:0 14:7 15:52 16:0 17:0 18:0 19:0 20:1 21:0 22:0.08 23:90 24:255 25:1 26:0 27:0.01 28:0.04 29:0 30:0 31:0 32:0 
0.013133512375311903 0:0 1:1 2:0 3:0 4:0 5:1 6:0 7:1 8:212 9:5383 10:1 11:0 12:0 13:0 14:6 15:6 16:0 17:0 18:0 19:0 20:1 21:0 22:0 23:6 24:255 25:1 26:0 27:0.17 28:0.04 29:0 30:0 31:0 32:0 
0.032229950553605724 0:0 1:1 2:0 3:0 4:0 5:1 6:0 7:1 8:197 9:1463 10:1 11:0 12:0 13:0 14:1 15:1 16:0 17:0 18:0 19:0 20:1 21:0 22:0 23:66 24:255 25:1 26:0 27:0.02 28:0.07 29:0 30:0 31:0 32:0 
0.067797393691790192 0:0 1:1 2:0 3:0 4:0 5:1 6:0 7:1 8:302 9:4743 10:1 11:0 12:0 13:0 14:12 15:54 16:0 17:0 18:0 19:0 20:1 21:0 22:0.11 23:12 24:255 25:1 26:0 27:0.08 28:0.06 29:0 30:0.01 31:0 32:0 
0.047209936678050665 0:0 1:1 2:0 3:0 4:0 5:1 6:0 7:1 8:318 9:1342 10:1 11:0 12:0 13:0 14:1 15:1 16:0 17:0 18:0 19:0 20:1 21:0 22:0 23:255 24:255 25:1 26:0 27:0 28:0 29:0 30:0 31:0 32:0 
0.19744867225161186 0:1 1:1 2:0 3:0 4:1 5:0 6:0 7:1 8:13549 9:1858 10:1 11:0 12:0 13:0 14:1 15:3 16:0 17:0 18:0 19:0 20:1 21:0 22:1 23:85 24:176 25:0.76 26:0.04 27:0.01 28:0.01 29:0.01 30:0 31:0 32:0 
0.055834810345757852 0:1 1:1 2:0 3:0 4:1 5:0 6:0 7:1 8:602 9:333 10:1 11:0 12:0 13:0 14:1 15:2 16:0 17:0 18:0 19:0 20:1 21:0 22:1 23:4 24:113 25:1 26:0 27:0.25 28:0.02 29:0 30:0.01 31:0 32:0 
0.10053414196618199 0:0 1:1 2:0 3:0 4:1 5:0 6:0 7:1 8:4892 9:0 10:1 11:0 12:0 13:0 14:18 15:18 16:0 17:0 18:0 19:0 20:1 21:0 22:0 23:156 24:48 25:0.31 26:0.04 27:0.31 28:0 29:0 30:0 31:0 32:0 
0.011717662539033601 0:0 1:1 2:0 3:0 4:0 5:1 6:0 7:1 8:337 9:1084 10:1 11:0 12:0 13:0 14:1 15:1 16:0 17:0 18:0 19:0 20:1 21:0 22:0 23:7 24:255 25:1 26:0 27:0.14 28:0.09 29:0 30:0 31:0 32:0 
0.14028695372109828 0:0 1:1 2:0 3:0 4:0 5:1 6:0 7:1 8:284 9:941 10:1 11:0 12:0 13:0 14:8 15:23 16:0 17:0 18:0 19:0 20:1 21:0 22:0.09 23:106 24:106 25:1 26:0 27:0.01 28:0 29:0 30:0 31:0 32:0 
0.063728222993452655 0:0 1:1 2:0 3:0 4:0 5:1 6:0 7:1 8:373 9:2289 10:1 11:0 12:0 13:0 14:6 15:6 16:0 17:0 18:0 19:0 20:1 21:0 22:0 23:28 24:255 25:1 26:0 27:0.04 28:0.02 29:0 30:0.01 31:0 32:0 
0.1223602807176081 0:0 1:1 2:0 3:0 4:0 5:1 6:0 7:1 8:231 9:4593 10:1 11:0 12:0 13:0 14:15 15:67 16:0 17:0.03 18:0 19:0 20:1 21:0 22:0.07 23:15 24:255 25:1 26:0 27:0.07 28:0.07 29:0 30:0 31:0 32:0 
0.021722191903425087 0:0 1:0 2:1 3:0 4:1 5:0 6:0 7:1 8:48 9:48 10:1 11:0 12:0 13:0 14:1 15:1 16:0 17:0 18:0 19:0 20:1 21:0 22:0 23:255 24:171 25:0.67 26:0.01 27:0.67 28:0 29:0 30:0 31:0 32:0 
0.071296029402972083 0:0 1:1 2:0 3:0 4:1 5:0 6:0 7:1 8:1342 9:0 10:1 11:0 12:0 13:0 14:4 15:4 16:0 17:0 18:0 19:0 20:1 21:0 22:0 23:193 24:52 25:0.27 26:0.02 27:0.27 28:0 29:0 30:0 31:0 32:0 
0.092438176543527484 0:0 1:1 2:0 3:0 4:0 5:1 6:0 7:1 8:306 9:560 10:1 11:0 12:0 13:0 14:4 15:4 16:0.25 17:0.25 18:0 19:0 20:1 21:0 22:0 23:106 24:165 25:1 26:0 27:0.01 28:0.02 29:0.01 30:0.01 31:0 32:0 
0.012880522958573361 0:0 1:1 2:0 3:0 4:0 5:1 6:0 7:1 8:291 9:6153 10:1 11:0 12:0 13:0 14:4 15:4 16:0 17:0 18:0 19:0 20:1 21:0 22:0 23:246 24:255 25:1 26:0 27:0 28:0.01 29:0 30:0 31:0 32:0 
0.042572394288481821 0:0 1:1 2:0 3:0 4:0 5:1 6:0 7:1 8:244 9:1841 10:1 11:0 12:0 13:0 14:6 15:6 16:0 17:0 18:0 19:0 20:1 21:0 22:0 23:6 24:197 25:1 26:0 27:0.17 28:0.03 29:0 30:0 31:0 32:0 
0.0032797881273324281 0:0 1:1 2:0 3:0 4:0 5:1 6:0 7:1 8:256 9:2052 10:1 11:0 12:0 13:0 14:2 15:35 16:0 17:0.57 18:0 19:0 20:1 21:0 22:0.09 23:55 24:255 25:1 26:0 27:0.02 28:0.02 29:0 30:0 31:0 32:0 
0.018542225159571959 0:0 1:1 2:0 3:0 4:1 5:0 6:0 7:1 8:1451 9:373 10:1 11:0 12:0 13:0 14:1 15:2 16:0 17:0 18:0 19:0 20:1 21:0 22:1 23:125 24:244 25:0.95 26:0.02 27:0.01 28:0.01 29:0 30:0 31:0 32:0 
0.013927135170263592 0:0 1:1 2:0 3:0 4:0 5:1 6:0 7:1 8:218 9:1791 10:1 11:0 12:0 13:0 14:2 15:2 16:0 17:0 18:0 19:0 20:1 21:0 22:0 23:2 24:255 25:1 26:0 27:0.5 28:0.02 29:0 30:0 31:0 32:0 
0.098326239659390149 0:2 1:1 2:0 3:0 4:1 5:0 6:0 7:1 8:2297 9:328 10:1 11:0 12:0 13:0 14:1 15:1 16:0 17:0 18:0 19:0 20:1 21:0 22:0 23:214 24:88 25:0.31 26:0.03 27:0 28:0.02 29:0 30:0 31:0 32:0 
0.099488158453402947 0:0 1:0 2:1 3:0 4:1 5:0 6:0 7:1 8:44 9:44 10:1 11:0 12:0 13:0 14:15 15:230 16:0 17:0 18:0 19:0 20:1 21:0 22:0.01 23:255 24:255 25:1 26:0 27:0.01 28:0 29:0 30:0 31:0 32:0 
0.043778446815224387 0:0 1:1 2:0 3:0 4:1 5:0 6:0 7:1 8:3843 9:333 10:1 11:0 12:0 13:0 14:1 15:1 16:0 17:0 18:0 19:0 20:1 21:0 22:0 23:153 24:139 25:0.54 26:0.04 27:0.01 28:0.01 29:0 30:0 31:0 32:0 
0.10790077373184161 0:0 1:1 2:0 3:0 4:1 5:0 6:0 7:1 8:905 9:282 10:1 11:0 12:0 13:0 14:2 15:1 16:0 17:0 18:0 19:0 20:0.5 21:1 22:0 23:255 24:201 25:0.79 26:0.02 27:0 28:0 29:0 30:0 31:0 32:0 
0.046163426449931891 0:0 1:1 2:0 3:0 4:0 5:1 6:0 7:1 8:234 9:2501 10:1 11:0 12:0 13:0 14:26 15:29 16:0 17:0 18:0 19:0 20:1 21:0 22:0.1 23:46 24:131 25:1 26:0 27:0.02 28:0.04 29:0 30:0 31:0 32:0 
0.11917768874562987 0:0 1:1 2:0 3:0 4:0 5:1 6:0 7:1 8:350 9:4137 10:1 11:0 12:0 13:0 14:25 15:51 16:0.04 17:0.02 18:0 19:0 20:1 21:0 22:0.04 23:154 24:255 25:1 26:0 27:0.01 28:0.05 29:0.01 30:0 31:0 32:0 
0.017591308656325189 0:0 1:1 2:0 3:0 4:0 5:1 6:0 7:1 8:286 9:1108 10:1 11:0 12:0 13:0 14:2 15:3 16:0 17:0 18:0 19:0 20:1 21:0 22:0.67 23:255 24:255 25:1 26:0 27:0 28:0 29:0 30:0 31:0 32:0 
0.013501599280666595 0:0 1:1 2:0 3:0 4:0 5:1 6:0 7:1 8:328 9:3200 10:1 11:0 12:0 13:0 14:3 15:3 16:0 17:0 18:0 19:0 20:1 21:0 22:0 23:255 24:255 25:1 26:0 27:0 28:0 29:0 30:0 31:0 32:0 
0.059280302682067118 0:0 1:1 2:0 3:0 4:0 5:1 6:0 7:1 8:367 9:1831 10:1 11:0 12:0 13:0 14:4 15:4 16:0 17:0 18:0 19:0 20:1 21:0 22:0 23:140 24:255 25:1 26:0 27:0.01 28:0.03 29:0 30:0 31:0 32:0 
0.022414689695362353 0:0 1:1 2:0 3:0 4:0 5:1 6:0 7:1 8:243 9:7256 10:1 11:0 12:0 13:0 14:15 15:30 16:0 17:0 18:0 19:0 20:1 21:0 22:0.1 23:125 24:255 25:1 26:0 27:0.01 28:0.03 29:0 30:0 31:0 32:0 
0.065987668948443018 0:0 1:1 2:0 3:0 4:0 5:1 6:0 7:1 8:192 9:4977 10:1 11:0 12:0 13:0 14:1 15:1 16:0 17:0 18:0 19:0 20:1 21:0 22:0 23:255 24:255 25:1 26:0 27:0 28:0 29:0.01 30:0.01 31:0 32:0 
0.0031636288049001551 0:0 1:1 2:0 3:0 4:0 5:1 6:0 7:1 8:303 9:7208 10:1 11:0 12:0 13:0 14:2 15:2 16:0 17:0 18:0 19:0 20:1 21:0 22:0 23:255 24:255 25:1 26:0 27:0 28:0 29:0 30:0 31:0 32:0 
0.027377807220321178 0:0 1:1 2:0 3:0 4:1 5:0 6:0 7:1 8:1131 9:330 10:1 11:0 12:0 13:0 14:1 15:1 16:0 17:0 18:0 19:0 20:1 21:0 22:0 23:91 24:33 25:0.36 26:0.07 27:0.01 28:0 29:0 30:0 31:0 32:0 
0.049169870208071335 0:0 1:1 2:0 3:0 4:1 5:0 6:0 7:1 8:1378 9:0 10:1 11:0 12:0 13:0 14:1 15:1 16:0 17:0 18:0 19:0 20:1 21:0 22:0 23:166 24:97 25:0.52 26:0.02 27:0.52 28:0.02 29:0 30:0 31:0 32:0 
0.034676073235224633 0:0 1:1 2:0 3:0 4:0 5:1 6:0 7:1 8:261 9:5238 10:1 11:0 12:0 13:0 14:6 15:6 16:0 17:0 18:0 19:0 20:1 21:0 22:0 23:6 24:255 25:1 26:0 27:0.17 28:0.05 29:0 30:0 31:0 32:0 
0.083297877920028643 0:0 1:1 2:0 3:0 4:0 5:1 6:0 7:1 8:211 9:3712 10:1 11:0 12:0 13:0 14:3 15:3 16:0 17:0 18:0 19:0 20:1 21:0 22:0 23:3 24:83 25:1 26:0 27:0.33 28:0.04 29:0 30:0 31:0 32:0 
0.054039886809817188 0:0 1:1 2:0 3:0 4:0 5:1 6:0 7:1 8:161 9:4297 10:1 11:0 12:0 13:0 14:2 15:2 16:0 17:0 18:0 19:0 20:1 21:0 22:0 23:2 24:255 25:1 26:0 27:0.5 28:0.03 29:0 30:0 31:0 32:0 
0.13586566139882819 0:0 1:1 2:0 3:0 4:1 5:0 6:0 7:1 8:1153 9:0 10:1 11:0 12:0 13:0 14:2 15:2 16:0 17:0 18:0 19:0 20:1 21:0 22:0 23:173 24:52 25:0.3 26:0.03 27:0.3 28:0 29:0 30:0 31:0 32:0 
0.09656640835764585 0:0 1:1 2:0 3:0 4:0 5:1 6:0 7:1 8:204 9:2457 10:1 11:0 12:0 13:0 14:29 15:53 16:0 17:0 18:0 19:0 20:1 21:0 22:0.06 23:255 24:255 25:1 26:0 27:0 28:0 29:0 30:0 31:0 32:0 
0.017338699282039075 0:0 1:1 2:0 3:0 4:1 5:0 6:0 7:1 8:5891 9:0 10:1 11:0 12:0 13:0 14:2 15:2 16:0 17:0 18:0 19:0 20:1 21:0 22:0 23:89 24:78 25:0.34 26:0.04 27:0.34 28:0.03 29:0 30:0 31:0 32:0 
0.021381134603981541 0:0 1:1 2:0 3:0 4:0 5:1 6:0 7:1 8:382 9:499 10:1 11:0 12:0 13:0 14:1 15:18 16:0 17:0 18:0 19:0 20:1 21:0 22:0.22 23:15 24:255 25:1 26:0 27:0.07 28:0.04 29:0.07 30:0 31:0 32:0 
0.12992845891478064 0:0 1:1 2:0 3:0 4:0 5:1 6:0 7:1 8:168 9:4898 10:1 11:0 12:0 13:0 14:11 15:11 16:0 17:0 18:0 19:0 20:1 21:0 22:0 23:255 24:255 25:1 26:0 27:0 28:0 29:0 30:0 31:0 32:0 
0.073700260631679421 0:0 1:1 2:0 3:0 4:0 5:1 6:0 7:1 8:305 9:1307 10:1 11:0 12:0 13:0 14:3 15:4 16:0 17:0 18:0 19:0 20:1 21:0 22:0.5 23:6 24:183 25:1 26:0 27:0.17 28:0.05 29:0 30:0 31:0 32:0 
0.091577056959039768 0:1 1:1 2:0 3:0 4:1 5:0 6:0 7:1 8:2577 9:330 10:1 11:0 12:0 13:0 14:1 15:3 16:0 17:0 18:0 19:0 20:1 21:0 22:1 23:30 24:115 25:0.6 26:0.17 27:0.03 28:0.02 29:0 30:0 31:0 32:0 
0.0045704725792531584 0:0 1:1 2:0 3:0 4:0 5:1 6:0 7:1 8:209 9:1817 10:1 11:0 12:0 13:0 14:24 15:24 16:0 17:0 18:0 19:0 20:1 21:0 22:0 23:115 24:255 25:1 26:0 27:0.01 28:0.03 29:0.01 30:0 31:0 32:0 
0.045499357393713205 0:0 1:1 2:0 3:0 4:1 5:0 6:0 7:1 8:1066 9:279 10:1 11:0 12:0 13:0 14:1 15:1 16:0 17:0 18:0 19:0 20:1 21:0 22:0 23:157 24:134 25:0.54 26:0.03 27:0.01 28:0.01 29:0.01 30:0 31:0 32:0 
0.0889782689416415 0:0 1:1 2:0 3:0 4:1 5:0 6:0 7:1 8:13239 9:0 10:1 11:0 12:0 13:0 14:6 15:7 16:0 17:0 18:0 19:0 20:1 21:0 22:0.29 23:75 24:85 25:0.45 26:0.07 27:0.47 28:0.02 29:0 30:0 31:0 32:0 
0.030380109580727212 0:0 1:1 2:0 3:0 4:0 5:1 6:0 7:1 8:256 9:3383 10:1 11:0 12:0 13:0 14:1 15:1 16:0 17:0 18:0 19:0 20:1 21:0 22:0 23:255 24:251 25:0.98 26:0.01 27:0 28:0 29:0 30:0 31:0 32:0 
0.12604652020820872 0:1 1:1 2:0 3:0 4:1 5:0 6:0 7:1 8:2225 9:364 10:1 11:0 12:0 13:0 14:1 15:3 16:0 17:0 18:0 19:0 20:1 21:0 22:1 23:21 24:242 25:0.86 26:0.1 27:0.05 28:0.01 29:0 30:0 31:0 32:0 
0.1092379446751038 0:0 1:1 2:0 3:0 4:0 5:1 6:0 7:1 8:232 9:6509 10:1 11:0 12:0 13:0 14:6 15:8 16:0 17:0 18:0 19:0 20:1 21:0 22:0.38 23:34 24:195 25:1 26:0 27:0.03 28:0.08 29:0 30:0 31:0 32:0 
0.013351509509935799 0:0 1:1 2:0 3:0 4:1 5:0 6:0 7:1 8:1640 9:386 10:1 11:0 12:0 13:0 14:1 15:1 16:0 17:0 18:0 19:0 20:1 21:0 22:0 23:248 24:129 25:0.49 26:0.01 27:0 28:0.02 29:0.81 30:0.78 31:0 32:0 
0.18189678846455917 0:2 1:1 2:0 3:0 4:1 5:0 6:0 7:1 8:11924 9:1370 10:1 11:0 12:0 13:0 14:1 15:1 16:0 17:0 18:0 19:0 20:1 21:0 22:0 23:10 24:152 25:0.9 26:0.2 27:0.1 28:0.02 29:0 30:0 31:0 32:0 
0.040275222999270117 0:0 1:1 2:0 3:0 4:0 5:1 6:0 7:1 8:224 9:7775 10:1 11:0 12:0 13:0 14:24 15:24 16:0 17:0 18:0 19:0 20:1 21:0 22:0 23:24 24:255 25:1 26:0 27:0.04 28:0.04 29:0 30:0 31:0 32:0 
0.030802927097514903 0:0 1:1 2:0 3:0 4:0 5:1 6:0 7:1 8:339 9:5320 10:1 11:0 12:0 13:0 14:7 15:7 16:0 17:0 18:0 19:0 20:1 21:0 22:0 23:85 24:255 25:1 26:0 27:0.01 28:0.04 29:0 30:0 31:0 32:0 
0.03263544145333714 0:0 1:1 2:0 3:0 4:0 5:1 6:0 7:1 8:311 9:5348 10:1 11:0 12:0 13:0 14:25 15:48 16:0 17:0 18:0 19:0 20:1 21:0 22:0.06 23:53 24:255 25:1 26:0 27:0.02 28:0.04 29:0.02 30:0 31:0 32:0 
0.10044255541924677 0:0 1:1 2:0 3:0 4:0 5:1 6:0 7:1 8:300 9:1963 10:1 11:0 12:0 13:0 14:10 15:10 16:0 17:0 18:0 19:0 20:1 21:0 22:0 23:10 24:98 25:1 26:0 27:0.1 28:0.05 29:0 30:0 31:0 32:0 
0.090938385273250155 0:0 1:1 2:0 3:0 4:0 5:1 6:0 7:1 8:214 9:5196 10:1 11:0 12:0 13:0 14:42 15:43 16:0 17:0 18:0 19:0 20:1 21:0 22:0.05 23:230 24:255 25:1 26:0 27:0 28:0.01 29:0 30:0 31:0 32:0 
0.12078674140472502 0:1 1:1 2:0 3:0 4:1 5:0 6:0 7:1 8:5221 9:335 10:1 11:0 12:0 13:0 14:1 15:4 16:0 17:0 18:0 19:0 20:1 21:0 22:1 23:3 24:195 25:1 26:0 27:0.33 28:0.01 29:0 30:0 31:0 32:0 
0.11099032224913123 0:0 1:1 2:0 3:0 4:0 5:1 6:0 7:1 8:381 9:1139 10:1 11:0 12:0 13:0 14:15 15:15 16:0 17:0 18:0 19:0 20:1 21:0 22:0 23:140 24:255 25:1 26:0 27:0.01 28:0.01 29:0 30:0 31:0 32:0 
0.047957141644735871 0:0 1:1 2:0 3:0 4:0 5:1 6:0 7:1 8:379 9:1669 10:1 11:0 12:0 13:0 14:1 15:1 16:0 17:0 18:0 19:0 20:1 21:0 22:0 23:54 24:255 25:1 26:0 27:0.02 28:0.03 29:0 30:0 31:0 32:0 
0.15999097452608563 0:0 1:1 2:0 3:0 4:0 5:1 6:0 7:1 8:509 9:5071 10:1 11:0 12:0 13:0 14:10 15:15 16:0 17:0 18:0 19:0 20:1 21:0 22:0.2 23:255 24:255 25:1 26:0 27:0 28:0 29:0 30:0 31:0 32:0 
0.039890628773583313 0:0 1:0 2:1 3:0 4:1 5:0 6:0 7:1 8:44 9:126 10:1 11:0 12:0 13:0 14:240 15:317 16:0 17:0 18:0 19:0 20:1 21:0.01 22:0.01 23:243 24:203 25:0.84 26:0.01 27:0 28:0 29:0 30:0 31:0 32:0 
0.17575892578576979 0:0 1:1 2:0 3:0 4:1 5:0 6:0 7:1 8:11433 9:1548 10:1 11:0 12:0 13:0 14:1 15:2 16:0 17:0 18:0 19:0 20:1 21:0 22:1 23:255 24:72 25:0.28 26:0.05 27:0 28:0 29:0.48 30:0 31:0.02 32:0 
0.067200349138830828 0:0 1:1 2:0 3:0 4:0 5:1 6:0 7:1 8:313 9:8110 10:1 11:0 12:0 13:0 14:5 15:12 16:0 17:0 18:0 19:0 20:1 21:0 22:0.25 23:13 24:255 25:1 26:0 27:0.08 28:0.02 29:0 30:0 31:0 32:0 
0.007627329373886463 0:0 1:1 2:0 3:0 4:0 5:1 6:0 7:1 8:229 9:1397 10:1 11:0 12:0 13:0 14:1 15:1 16:0 17:0 18:0 19:0 20:1 21:0 22:0 23:85 24:255 25:1 26:0 27:0.01 28:0.01 29:0 30:0 31:0 32:0 
0.013289019141630422 0:1 1:1 2:0 3:0 4:1 5:0 6:0 7:1 8:1217 9:374 10:1 11:0 12:0 13:0 14:1 15:1 16:0 17:0 18:0 19:0 20:1 21:0 22:0 23:182 24:213 25:0.83 26:0.02 27:0.01 28:0.01 29:0 30:0 31:0 32:0 
0.093526964711141344 0:0 1:1 2:0 3:0 4:0 5:1 6:0 7:1 8:176 9:5163 10:1 11:0 12:0 13:0 14:1 15:5 16:0 17:0 18:0 19:0 20:1 21:0 22:0.6 23:255 24:245 25:0.96 26:0.01 27:0 28:0 29:0 30:0 31:0 32:0 
0.065440827987388525 0:0 1:1 2:0 3:0 4:0 5:1 6:0 7:1 8:157 9:3990 10:1 11:0 12:0 13:0 14:1 15:1 16:0 17:0 18:0 19:0 20:1 21:0 22:0 23:7 24:255 25:1 26:0 27:0.14 28:0.08 29:0 30:0.01 31:0 32:0 
0.0060101928409404988 0:0 1:1 2:0 3:0 4:0 5:1 6:0 7:1 8:250 9:5966 10:1 11:0 12:0 13:0 14:1 15:1 16:0 17:0 18:0 19:0 20:1 21:0 22:0 23:120 24:255 25:1 26:0 27:0.01 28:0.03 29:0 30:0 31:0 32:0 
0.0185191927646313 0:0 1:1 2:0 3:0 4:0 5:1 6:0 7:1 8:198 9:7003 10:1 11:0 12:0 13:0 14:1 15:6 16:0 17:0 18:0 19:0 20:1 21:0 22:0.33 23:7 24:255 25:1 26:0 27:0.14 28:0.03 29:0 30:0 31:0 32:0 
0.05724772388199826 0:0 1:1 2:0 3:0 4:0 5:1 6:0 7:1 8:264 9:3011 10:1 11:0 12:0 13:0 14:1 15:1 16:0 17:0 18:0 19:0 20:1 21:0 22:0 23:255 24:241 25:0.95 26:0.02 27:0 28:0 29:0 30:0 31:0 32:0 
0.070056515350414489 0:0 1:1 2:0 3:0 4:0 5:1 6:0 7:1 8:327 9:4930 10:1 11:0 12:0 13:0 14:8 15:9 16:0 17:0 18:0 19:0 20:1 21:0 22:0.22 23:8 24:255 25:1 26:0 27:0.12 28:0.1 29:0 30:0 31:0 32:0 
0.0749992638347831 0:0 1:1 2:0 3:0 4:0 5:1 6:0 7:1 8:191 9:2568 10:1 11:0 12:0 13:0 14:2 15:2 16:0 17:0 18:0 19:0 20:1 21:0 22:0 23:189 24:255 25:1 26:0 27:0.01 28:0.02 29:0.01 30:0.01 31:0 32:0 
0.041536228144403706 0:5 1:1 2:0 3:0 4:1 5:0 6:0 7:1 8:1110 9:369 10:1 11:0 12:0 13:0 14:1 15:1 16:0 17:0 18:0 19:0 20:1 21:0 22:0 23:32 24:72 25:0.56 26:0.06 27:0.03 28:0.03 29:0 30:0 31:0 32:0 
0.0067652175090500552 0:0 1:1 2:0 3:0 4:0 5:1 6:0 7:1 8:255 9:1615 10:1 11:0 12:0 13:0 14:1 15:1 16:0 17:0 18:0 19:0 20:1 21:0 22:0 23:106 24:255 25:1 26:0 27:0.01 28:0.03 29:0 30:0 31:0 32:0 
0.16632596033371616 0:0 1:1 2:0 3:0 4:0 5:1 6:0 7:1 8:257 9:3136 10:1 11:0 12:0 13:0 14:1 15:1 16:0 17:0 18:0 19:0 20:1 21:0 22:0 23:99 24:92 25:0.93 26:0.02 27:0.01 28:0 29:0 30:0 31:0 32:0 
0.0092119930964473067 0:0 1:1 2:0 3:0 4:0 5:1 6:0 7:1 8:270 9:872 10:1 11:0 12:0 13:0 14:3 15:3 16:0 17:0 18:0 19:0 20:1 21:0 22:0 23:201 24:255 25:1 26:0 27:0 28:0.03 29:0 30:0 31:0 32:0 
0.0022749810049591829 0:0 1:1 2:0 3:0 4:1 5:0 6:0 7:1 8:8766 9:0 10:1 11:0 12:0 13:0 14:4 15:4 16:0 17:0 18:0 19:0 20:1 21:0 22:0 23:133 24:48 25:0.32 26:0.04 27:0.32 28:0.04 29:0 30:0 31:0 32:0 
0.0042085940841810983 0:0 1:1 2:0 3:0 4:0 5:1 6:0 7:1 8:359 9:1960 10:1 11:0 12:0 13:0 14:26 15:26 16:0 17:0 18:0 19:0 20:1 21:0 22:0 23:255 24:255 25:1 26:0 27:0 28:0 29:0 30:0 31:0 32:0 
0.061334130611644083 0:0 1:1 2:0 3:0 4:0 5:1 6:0 7:1 8:302 9:6717 10:1 11:0 12:0 13:0 14:1 15:1 16:0 17:0 18:0 19:0 20:1 21:0 22:0 23:4 24:255 25:1 26:0 27:0.25 28:0.03 29:0 30:0 31:0 32:0 
0.063686459423414152 0:0 1:1 2:0 3:0 4:0 5:1 6:0 7:1 8:170 9:4455 10:1 11:0 12:0 13:0 14:1 15:1 16:0 17:0 18:0 19:0 20:1 21:0 22:0 23:79 24:255 25:1 26:0 27:0.01 28:0.01 29:0 30:0 31:0 32:0 
0.094342742332682542 0:0 1:1 2:0 3:0 4:0 5:1 6:0 7:1 8:323 9:4675 10:1 11:0 12:0 13:0 14:65 15:69 16:0 17:0 18:0 19:0 20:1 21:0 22:0.06 23:255 24:255 25:1 26:0 27:0 28:0 29:0 30:0 31:0 32:0 
0.045703908071814327 0:0 1:1 2:0 3:0 4:0 5:1 6:0 7:1 8:216 9:2100 10:1 11:0 12:0 13:0 14:4 15:29 16:0 17:0 18:0 19:0 20:1 21:0 22:0.21 23:4 24:252 25:1 26:0 27:0.25 28:0.05 29:0 30:0 31:0 32:0 
0.018983542788200306 0:0 1:1 2:0 3:0 4:0 5:1 6:0 7:1 8:327 9:1811 10:1 11:0 12:0 13:0 14:2 15:3 16:0 17:0 18:0 19:0 20:1 21:0 22:0.67 23:7 24:255 25:1 26:0 27:0.14 28:0.04 29:0 30:0 31:0 32:0 
0.053707831384559611 0:0 1:1 2:0 3:0 4:1 5:0 6:0 7:1 8:1223 9:333 10:1 11:0 12:0 13:0 14:1 15:1 16:0 17:0 18:0 19:0 20:1 21:0 22:0 23:78 24:246 25:0.96 26:0.03 27:0.01 28:0.01 29:0 30:0 31:0 32:0 
0.062311194492196353 0:0 1:0 2:1 3:0 4:1 5:0 6:0 7:1 8:43 9:109 10:1 11:0 12:0 13:0 14:239 15:315 16:0 17:0 18:0 19:0 20:1 21:0 22:0.01 23:255 24:253 25:0.99 26:0.01 27:0 28:0 29:0 30:0 31:0 32:0 
0.0024912063469695721 0:0 1:1 2:0 3:0 4:0 5:1 6:0 7:1 8:355 9:3465 10:1 11:0 12:0 13:0 14:11 15:12 16:0 17:0 18:0 19:0 20:1 21:0 22:0.17 23:67 24:255 25:1 26:0 27:0.01 28:0.03 29:0 30:0 31:0 32:0 
0.029491973349621892 0:0 1:1 2:0 3:0 4:1 5:0 6:0 7:1 8:1874 9:0 10:1 11:0 12:0 13:0 14:10 15:10 16:0 17:0 18:0 19:0 20:1 21:0 22:0 23:111 24:38 25:0.34 26:0.03 27:0.34 28:0 29:0 30:0 31:0 32:0 
0.01885696069798427 0:0 1:1 2:0 3:0 4:0 5:1 6:0 7:1 8:303 9:1694 10:1 11:0 12:0 13:0 14:1 15:1 16:0 17:0 18:0 19:0 20:1 21:0 22:0 23:255 24:255 25:1 26:0 27:0 28:0 29:0 30:0 31:0 32:0 
0.036881769909799439 0:0 1:0 2:1 3:0 4:1 5:0 6:0 7:1 8:48 9:48 10:1 11:0 12:0 13:0 14:1 15:1 16:0 17:0 18:0 19:0 20:1 21:0 22:0 23:101 24:22 25:0.22 26:0.04 27:0.22 28:0 29:0 30:0 31:0 32:0 
0.094191502757713805 0:0 1:1 2:0 3:0 4:0 5:1 6:0 7:1 8:156 9:1493 10:1 11:0 12:0 13:0 14:1 15:18 16:0 17:0 18:0 19:0 20:1 21:0 22:0.17 23:255 24:255 25:1 26:0 27:0 28:0 29:0 30:0 31:0 32:0 
0.19531745551740756 0:0 1:1 2:0 3:0 4:1 5:0 6:0 7:1 8:11737 9:1549 10:1 11:0 12:0 13:0 14:1 15:1 16:0 17:0 18:0 19:0 20:1 21:0 22:0 23:255 24:122 25:0.48 26:0.02 27:0 28:0 29:0.36 30:0.42 31:0 32:0 
0.092664219462793851 0:0 1:1 2:0 3:0 4:0 5:1 6:0 7:1 8:215 9:2911 10:1 11:0 12:0 13:0 14:13 15:13 16:0 17:0 18:0 19:0 20:1 21:0 22:0 23:13 24:69 25:1 26:0 27:0.08 28:0.07 29:0 30:0 31:0 32:0 
0.030676882984004908 0:0 1:1 2:0 3:0 4:0 5:1 6:0 7:1 8:238 9:2406 10:1 11:0 12:0 13:0 14:2 15:4 16:0 17:0 18:0 19:0 20:1 21:0 22:0.5 23:2 24:255 25:1 26:0 27:0.5 28:0.05 29:0 30:0 31:0 32:0 
0.09336169499273124 0:0 1:1 2:0 3:0 4:1 5:0 6:0 7:1 8:1325 9:331 10:1 11:0 12:0 13:0 14:1 15:1 16:0 17:0 18:0 19:0 20:1 21:0 22:0 23:22 24:21 25:0.95 26:0.09 27:0.05 28:0 29:0 30:0 31:0 32:0 
0.025578191841763555 0:0 1:1 2:0 3:0 4:0 5:1 6:0 7:1 8:318 9:1748 10:1 11:0 12:0 13:0 14:7 15:8 16:0 17:0 18:0 19:0 20:1 21:0 22:0.25 23:8 24:99 25:1 26:0 27:0.12 28:0.12 29:0 30:0 31:0 32:0 
0.07417140318582302 0:0 1:1 2:0 3:0 4:1 5:0 6:0 7:1 8:859 9:325 10:1 11:0 12:0 13:0 14:1 15:1 16:0 17:0 18:0 19:0 20:1 21:0 22:0 23:161 24:248 25:0.97 26:0.01 27:0.01 28:0.01 29:0 30:0 31:0 32:0 
0.0061623497652522324 0:0 1:1 2:0 3:0 4:0 5:1 6:0 7:1 8:305 9:2295 10:1 11:0 12:0 13:0 14:1 15:1 16:0 17:0 18:0 19:0 20:1 21:0 22:0 23:223 24:223 25:1 26:0 27:0 28:0 29:0 30:0 31:0 32:0 
0.028023897461402755 0:5 1:1 2:0 3:0 4:1 5:0 6:0 7:1 8:911 9:357 10:1 11:0 12:0 13:0 14:2 15:1 16:0 17:0 18:0 19:0 20:0.5 21:1 22:0 23:90 24:51 25:0.57 26:0.06 27:0.01 28:0 29:0 30:0 31:0 32:0 
0.087801777066429471 0:0 1:1 2:0 3:0 4:1 5:0 6:0 7:1 8:2890 9:0 10:1 11:0 12:0 13:0 14:10 15:10 16:0 17:0 18:0 19:0 20:1 21:0 22:0 23:109 24:34 25:0.28 26:0.26 27:0.5 28:0.06 29:0 30:0 31:0 32:0 
0.058516347713671264 0:0 1:1 2:0 3:0 4:0 5:1 6:0 7:1 8:312 9:7654 10:1 11:0 12:0 13:0 14:4 15:16 16:0 17:0 18:0 19:0 20:1 21:0 22:0.19 23:154 24:255 25:1 26:0 27:0.01 28:0.03 29:0 30:0 31:0 32:0 
0.096392455160783985 0:0 1:1 2:0 3:0 4:0 5:1 6:0 7:1 8:333 9:2346 10:1 11:0 12:0 13:0 14:5 15:5 16:0 17:0 18:0 19:0 20:1 21:0 22:0 23:122 24:158 25:1 26:0 27:0.01 28:0.03 29:0 30:0.01 31:0 32:0 
0.041680248736841952 0:0 1:1 2:0 3:0 4:0 5:1 6:0 7:1 8:238 9:5887 10:1 11:0 12:0 13:0 14:8 15:8 16:0 17:0 18:0 19:0 20:1 21:0 22:0 23:27 24:203 25:1 26:0 27:0.04 28:0.05 29:0 30:0.01 31:0 32:0 
0.071321143993506197 0:0 1:1 2:0 3:0 4:0 5:1 6:0 7:1 8:313 9:5790 10:1 11:0 12:0 13:0 14:4 15:12 16:0 17:0 18:0 19:0 20:1 21:0 22:0.25 23:161 24:255 25:1 26:0 27:0.01 28:0.01 29:0 30:0 31:0 32:0 
0.084894124242218386 0:0 1:1 2:0 3:0 4:1 5:0 6:0 7:1 8:151 9:0 10:1 11:0 12:0 13:0 14:1 15:1 16:0 17:0 18:0 19:0 20:1 21:0 22:0 23:108 24:141 25:0.76 26:0.04 27:0.76 28:0.01 29:0.01 30:0 31:0 32:0 
0.064474483657378442 0:0 1:1 2:0 3:0 4:1 5:0 6:0 7:1 8:46 9:282 10:1 11:0 12:0 13:0 14:1 15:1 16:0 17:0 18:0 19:0 20:1 21:0 22:0 23:154 24:61 25:0.4 26:0.05 27:0.01 28:0 29:0 30:0 31:0 32:0 
0.078767674350533376 0:1 1:1 2:0 3:0 4:1 5:0 6:0 7:1 8:623 9:437 10:1 11:0 12:0 13:0 14:1 15:1 16:0 17:0 18:0 19:0 20:1 21:0 22:0 23:4 24:148 25:0.75 26:0.5 27:0.25 28:0.02 29:0.25 30:0 31:0 32:0 
0.025030275641427551 0:0 1:1 2:0 3:0 4:0 5:1 6:0 7:1 8:331 9:1650 10:1 11:0 12:0 13:0 14:7 15:46 16:0 17:0 18:0 19:0 20:1 21:0 22:0.13 23:212 24:255 25:1 26:0 27:0 28:0.02 29:0 30:0 31:0 32:0 
