svm_type one_class
kernel_type rbf
gamma 0.00029999999999999997
nr_class 2
total_sv 5
rho 0.052808219349664599
SV
0.0057343452945540167 0:0 1:1 2:0 3:0 4:1 5:0 6:1 7:0 8:0 9:0 10:1 11:0 12:0 13:0 14:1 15:1 16:1 17:1 18:0 19:0 20:1 21:0 22:0 23:126 24:1 25:0.01 26:0.05 27:0.01 28:0 29:0.01 30:1 31:0 32:0 
0.042796073877778416 0:0 1:1 2:0 3:0 4:1 5:0 6:1 7:0 8:0 9:0 10:1 11:0 12:0 13:0 14:1 15:1 16:1 17:1 18:0 19:0 20:1 21:0 22:0 23:16 24:2 25:0.06 26:0.25 27:0.06 28:1 29:0.06 30:0.5 31:0 32:0 
0.029707802225263018 0:0 1:1 2:0 3:0 4:1 5:0 6:1 7:0 8:0 9:0 10:1 11:0 12:0 13:0 14:1 15:1 16:1 17:1 18:0 19:0 20:1 21:0 22:0 23:77 24:1 25:0.01 26:0.06 27:0.01 28:0 29:0.01 30:1 31:0 32:0 
0.040742812125848529 0:0 1:1 2:0 3:0 4:1 5:0 6:1 7:0 8:0 9:0 10:1 11:0 12:0 13:0 14:1 15:1 16:1 17:1 18:0 19:0 20:1 21:0 22:0 23:156 24:1 25:0.01 26:0.04 27:0.01 28:0 29:0.01 30:1 31:0 32:0 
0.051018966476556037 0:0 1:1 2:0 3:0 4:1 5:0 6:1 7:0 8:0 9:0 10:0 11:1 12:0 13:0 14:1 15:2 16:1 17:1 18:0 19:0 20:1 21:0 22:1 23:255 24:1 25:0 26:0.02 27:0 28:0 29:0 30:1 31:0 32:0 
