svm_type one_class
kernel_type rbf
gamma 0.00029999999999999997
nr_class 2
total_sv 7
rho 0.010003639062541664
SV
0.010391930295223058 0:0 1:1 2:0 3:0 4:1 5:0 6:0 7:1 8:1288 9:388 10:1 11:0 12:0 13:0 14:1 15:1 16:0 17:0 18:0 19:0 20:1 21:0 22:0 23:255 24:1 25:0 26:0.02 27:0 28:0 29:1 30:0 31:0 32:0 
0.0098465894609293288 0:74 1:1 2:0 3:0 4:1 5:0 6:0 7:1 8:208 9:2719 10:1 11:0 12:0 13:0 14:1 15:1 16:0 17:0 18:0 19:0 20:1 21:0 22:0 23:255 24:19 25:0.07 26:0.07 27:0 28:0 29:1 30:0.95 31:0 32:0 
0.010392072387097693 0:0 1:1 2:0 3:0 4:1 5:0 6:0 7:1 8:10986 9:394 10:1 11:0 12:0 13:0 14:1 15:2 16:0 17:0 18:0 19:0 20:1 21:0 22:1 23:255 24:1 25:0 26:1 27:0 28:0 29:1 30:0 31:0 32:0 
0.0098465894609293288 0:0 1:1 2:0 3:0 4:1 5:0 6:0 7:1 8:2597 9:394 10:1 11:0 12:0 13:0 14:1 15:1 16:0 17:0 18:0 19:0 20:1 21:0 22:0 23:255 24:1 25:0 26:0.02 27:0 28:0 29:1 30:0 31:0 32:0 
0.0098353972857337449 0:0 1:1 2:0 3:0 4:1 5:0 6:0 7:1 8:71 9:0 10:1 11:0 12:0 13:0 14:150 15:1 16:0.99 17:0 18:0 19:0 20:0.01 21:0.07 22:0 23:255 24:1 25:0 26:0.06 27:0 28:0 29:1 30:0 31:0 32:0 
0.0098374868856033124 0:0 1:1 2:0 3:0 4:1 5:0 6:0 7:1 8:71 9:0 10:1 11:0 12:0 13:0 14:1 15:1 16:0 17:0 18:0 19:0 20:1 21:0 22:0 23:255 24:1 25:0 26:0.06 27:0 28:0 29:1 30:0 31:0 32:0 
0.0098499342244835371 0:0 1:1 2:0 3:0 4:1 5:0 6:0 7:1 8:1096 9:405 10:1 11:0 12:0 13:0 14:1 15:2 16:0 17:0 18:0 19:0 20:1 21:0 22:1 23:255 24:1 25:0 26:0.09 27:0 28:0 29:1 30:0 31:0 32:0 
