svm_type one_class
kernel_type rbf
gamma 0.00029999999999999997
nr_class 2
total_sv 1
rho 0.01
SV
0.01 0:0 1:0 2:1 3:0 4:1 5:0 6:0 7:1 8:17 9:17 10:1 11:0 12:0 13:0 14:4 15:223 16:0 17:0 18:0 19:0 20:1 21:0 22:0.01 23:255 24:79 25:0.31 26:0.01 27:0 28:0 29:0 30:0 31:0 32:0 
