svm_type one_class
kernel_type rbf
gamma 0.00029999999999999997
nr_class 2
total_sv 3487
rho 0.028228902456483084
SV
0.013205543504424259 0:0 1:1 2:0 3:0 4:0 5:1 6:0 7:1 8:300 9:13788 10:1 11:0 12:0 13:0 14:8 15:9 16:0 17:0.11 18:0 19:0 20:1 21:0 22:0.22 23:91 24:255 25:1 26:0 27:0.01 28:0.02 29:0 30:0 31:0 32:0 
0.010075425369266087 0:0 1:1 2:0 3:0 4:0 5:1 6:0 7:1 8:253 9:11905 10:1 11:0 12:0 13:0 14:8 15:10 16:0 17:0 18:0 19:0 20:1 21:0 22:0.2 23:87 24:255 25:1 26:0 27:0.01 28:0.02 29:0 30:0 31:0 32:0 
0.0088358556526330588 0:0 1:1 2:0 3:0 4:0 5:1 6:0 7:1 8:245 9:9165 10:1 11:0 12:0 13:0 14:2 15:3 16:0 17:0 18:0 19:0 20:1 21:0 22:0.67 23:10 24:255 25:1 26:0 27:0.1 28:0.05 29:0 30:0 31:0 32:0 
0.0069469451573012037 0:0 1:1 2:0 3:0 4:0 5:1 6:0 7:1 8:261 9:8412 10:1 11:0 12:0 13:0 14:9 15:9 16:0 17:0 18:0 19:0 20:1 21:0 22:0 23:255 24:255 25:1 26:0 27:0 28:0 29:0 30:0 31:0 32:0 
0.0091482679825259546 0:0 1:1 2:0 3:0 4:0 5:1 6:0 7:1 8:329 9:8437 10:1 11:0 12:0 13:0 14:4 15:4 16:0 17:0 18:0 19:0 20:1 21:0 22:0 23:83 24:255 25:1 26:0 27:0.01 28:0.04 29:0 30:0 31:0 32:0 
0.025001767716893407 0:0 1:1 2:0 3:0 4:0 5:1 6:0 7:1 8:227 9:11564 10:1 11:0 12:0 13:0 14:5 15:6 16:0 17:0 18:0 19:0 20:1 21:0 22:0.33 23:41 24:52 25:1 26:0 27:0.02 28:0.04 29:0 30:0 31:0 32:0 
0.018726716619166573 0:0 1:1 2:0 3:0 4:0 5:1 6:0 7:1 8:166 9:34660 10:1 11:0 12:0 13:0 14:1 15:1 16:0 17:0 18:0 19:0 20:1 21:0 22:0 23:16 24:255 25:1 26:0 27:0.06 28:0.06 29:0 30:0 31:0 32:0 
0.0051526749363984348 0:0 1:1 2:0 3:0 4:0 5:1 6:0 7:1 8:313 9:8549 10:1 11:0 12:0 13:0 14:4 15:4 16:0 17:0 18:0 19:0 20:1 21:0 22:0 23:255 24:255 25:1 26:0 27:0 28:0 29:0 30:0 31:0 32:0 
0.010050812480584564 0:0 1:1 2:0 3:0 4:0 5:1 6:0 7:1 8:261 9:15455 10:1 11:0 12:0 13:0 14:22 15:22 16:0 17:0 18:0 19:0 20:1 21:0 22:0 23:255 24:255 25:1 26:0 27:0 28:0 29:0 30:0 31:0 32:0 
0.0061876922338906931 0:0 1:1 2:0 3:0 4:0 5:1 6:0 7:1 8:219 9:17540 10:1 11:0 12:0 13:0 14:8 15:8 16:0 17:0 18:0 19:0 20:1 21:0 22:0 23:36 24:255 25:1 26:0 27:0.03 28:0.05 29:0 30:0 31:0 32:0 
0.026082023259992503 0:0 1:1 2:0 3:0 4:0 5:1 6:0 7:1 8:336 9:15767 10:1 11:0 12:0 13:0 14:12 15:12 16:0 17:0 18:0 19:0 20:1 21:0 22:0 23:95 24:255 25:1 26:0 27:0.01 28:0.02 29:0 30:0 31:0 32:0 
0.027008391310380457 0:0 1:1 2:0 3:0 4:0 5:1 6:0 7:1 8:405 9:23786 10:1 11:0 12:0 13:0 14:1 15:1 16:0 17:0 18:0 19:0 20:1 21:0 22:0 23:9 24:255 25:1 26:0 27:0.11 28:0.05 29:0 30:0 31:0 32:0 
0.018294032351886026 0:0 1:1 2:0 3:0 4:0 5:1 6:0 7:1 8:325 9:12884 10:1 11:0 12:0 13:0 14:5 15:9 16:0 17:0 18:0 19:0 20:1 21:0 22:0.22 23:72 24:72 25:1 26:0 27:0.01 28:0 29:0 30:0 31:0 32:0 
0.0049886215432643696 0:0 1:1 2:0 3:0 4:0 5:1 6:0 7:1 8:292 9:13206 10:1 11:0 12:0 13:0 14:5 15:5 16:0 17:0 18:0 19:0 20:1 21:0 22:0 23:5 24:255 25:1 26:0 27:0.2 28:0.04 29:0 30:0 31:0 32:0 
0.01549013656817097 0:0 1:1 2:0 3:0 4:0 5:1 6:0 7:1 8:196 9:16143 10:1 11:0 12:0 13:0 14:5 15:33 16:0 17:0 18:0 19:0 20:1 21:0 22:0.09 23:230 24:255 25:1 26:0 27:0 28:0.02 29:0 30:0 31:0 32:0 
0.017776190609375141 0:0 1:1 2:0 3:0 4:0 5:1 6:0 7:1 8:257 9:23051 10:1 11:0 12:0 13:0 14:1 15:4 16:0 17:0 18:0 19:0 20:1 21:0 22:0.5 23:53 24:255 25:1 26:0 27:0.02 28:0.06 29:0 30:0 31:0 32:0 
0.014235928057637114 0:0 1:1 2:0 3:0 4:0 5:1 6:0 7:1 8:225 9:22996 10:1 11:0 12:0 13:0 14:6 15:39 16:0 17:0 18:0 19:0 20:1 21:0 22:0.05 23:255 24:255 25:1 26:0 27:0 28:0 29:0 30:0 31:0 32:0 
0.012297465465321985 0:0 1:1 2:0 3:0 4:0 5:1 6:0 7:1 8:213 9:37327 10:1 11:0 12:0 13:0 14:3 15:4 16:0 17:0 18:0 19:0 20:1 21:0 22:0.5 23:3 24:255 25:1 26:0 27:0.33 28:0.01 29:0 30:0 31:0 32:0 
0.0064865164132085294 0:0 1:1 2:0 3:0 4:0 5:1 6:0 7:1 8:190 9:8654 10:1 11:0 12:0 13:0 14:4 15:4 16:0 17:0 18:0 19:0 20:1 21:0 22:0 23:74 24:255 25:1 26:0 27:0.01 28:0.05 29:0.01 30:0 31:0 32:0 
0.014796687157015126 0:0 1:1 2:0 3:0 4:0 5:1 6:0 7:1 8:230 9:12471 10:1 11:0 12:0 13:0 14:6 15:7 16:0 17:0 18:0 19:0 20:1 21:0 22:0.29 23:255 24:255 25:1 26:0 27:0 28:0 29:0 30:0 31:0 32:0 
0.0076689172494020345 0:0 1:1 2:0 3:0 4:0 5:1 6:0 7:1 8:300 9:13038 10:1 11:0 12:0 13:0 14:1 15:1 16:0 17:0 18:0 19:0 20:1 21:0 22:0 23:49 24:255 25:1 26:0 27:0.02 28:0.05 29:0.02 30:0 31:0 32:0 
0.004335493213035853 0:0 1:1 2:0 3:0 4:0 5:1 6:1 7:0 8:215 9:11680 10:1 11:0 12:0 13:0 14:1 15:14 16:1 17:0.07 18:0 19:0 20:1 21:0 22:0.14 23:2 24:255 25:1 26:0 27:0.5 28:0.02 29:0.5 30:0 31:0 32:0 
0.012483202520786366 0:0 1:1 2:0 3:0 4:0 5:1 6:0 7:1 8:249 9:27998 10:1 11:0 12:0 13:0 14:1 15:9 16:0 17:0 18:0 19:0 20:1 21:0 22:0.33 23:6 24:255 25:1 26:0 27:0.17 28:0.02 29:0 30:0 31:0 32:0 
0.0047449890199401466 0:0 1:1 2:0 3:0 4:0 5:1 6:0 7:1 8:206 9:12642 10:1 11:0 12:0 13:0 14:4 15:4 16:0 17:0 18:0 19:0 20:1 21:0 22:0 23:10 24:255 25:1 26:0 27:0.1 28:0.09 29:0 30:0 31:0 32:0 
0.017418101089903999 0:0 1:1 2:0 3:0 4:0 5:1 6:0 7:1 8:188 9:13450 10:1 11:0 12:0 13:0 14:1 15:1 16:0 17:0 18:0 19:0 20:1 21:0 22:0 23:40 24:255 25:1 26:0 27:0.03 28:0.02 29:0 30:0 31:0 32:0 
0.027488048970950016 0:0 1:1 2:0 3:0 4:0 5:1 6:0 7:1 8:158 9:38643 10:1 11:0 12:0 13:0 14:1 15:13 16:0 17:0 18:0 19:0 20:1 21:0 22:0.23 23:255 24:255 25:1 26:0 27:0 28:0 29:0 30:0 31:0 32:0 
0.027677552027851438 0:0 1:1 2:0 3:0 4:0 5:1 6:0 7:1 8:276 9:108545 10:1 11:0 12:0 13:0 14:3 15:3 16:0 17:0 18:0 19:0 20:1 21:0 22:0 23:3 24:255 25:1 26:0 27:0.33 28:0.03 29:0 30:0 31:0 32:0 
0.021428835530145029 0:0 1:1 2:0 3:0 4:0 5:1 6:0 7:1 8:463 9:12604 10:1 11:0 12:0 13:0 14:19 15:45 16:0 17:0 18:0 19:0 20:1 21:0 22:0.04 23:255 24:255 25:1 26:0 27:0 28:0 29:0 30:0 31:0 32:0 
0.01937890771895253 0:0 1:1 2:0 3:0 4:0 5:1 6:0 7:1 8:258 9:12037 10:1 11:0 12:0 13:0 14:10 15:10 16:0 17:0 18:0 19:0 20:1 21:0 22:0 23:255 24:255 25:1 26:0 27:0 28:0 29:0 30:0 31:0 32:0 
0.0099267653640884822 0:0 1:1 2:0 3:0 4:0 5:1 6:0 7:1 8:186 9:15495 10:1 11:0 12:0 13:0 14:1 15:1 16:0 17:0 18:0 19:0 20:1 21:0 22:0 23:10 24:255 25:1 26:0 27:0.1 28:0.07 29:0 30:0 31:0 32:0 
0.010962372950379218 0:0 1:1 2:0 3:0 4:0 5:1 6:0 7:1 8:228 9:24786 10:1 11:0 12:0 13:0 14:14 15:14 16:0 17:0 18:0 19:0 20:1 21:0 22:0 23:99 24:255 25:1 26:0 27:0.01 28:0.01 29:0 30:0 31:0 32:0 
0.027313066589857 0:0 1:1 2:0 3:0 4:0 5:1 6:0 7:1 8:330 9:13508 10:1 11:0 12:0 13:0 14:7 15:7 16:0 17:0 18:0 19:0 20:1 21:0 22:0 23:24 24:24 25:1 26:0 27:0.04 28:0 29:0 30:0 31:0 32:0 
0.012980261539194408 0:0 1:1 2:0 3:0 4:0 5:1 6:0 7:1 8:197 9:18881 10:1 11:0 12:0 13:0 14:3 15:7 16:0 17:0 18:0 19:0 20:1 21:0 22:0.29 23:3 24:255 25:1 26:0 27:0.33 28:0.02 29:0 30:0 31:0 32:0 
0.014276840300057521 0:0 1:1 2:0 3:0 4:0 5:1 6:0 7:1 8:276 9:71903 10:1 11:0 12:0 13:0 14:1 15:1 16:0 17:0 18:0 19:0 20:1 21:0 22:0 23:24 24:255 25:1 26:0 27:0.04 28:0.02 29:0.04 30:0 31:0 32:0 
0.012885785921865366 0:0 1:1 2:0 3:0 4:0 5:1 6:0 7:1 8:186 9:14609 10:1 11:0 12:0 13:0 14:1 15:30 16:0 17:0 18:0 19:0 20:1 21:0 22:0.1 23:205 24:255 25:1 26:0 27:0 28:0.02 29:0 30:0 31:0 32:0 
0.007453399711776049 0:0 1:1 2:0 3:0 4:0 5:1 6:0 7:1 8:258 9:11758 10:1 11:0 12:0 13:0 14:14 15:16 16:0 17:0 18:0 19:0 20:1 21:0 22:0.19 23:132 24:255 25:1 26:0 27:0.01 28:0.04 29:0.01 30:0.01 31:0 32:0 
0.0066703029867509443 0:0 1:1 2:0 3:0 4:0 5:1 6:0 7:1 8:355 9:8377 10:1 11:0 12:0 13:0 14:6 15:7 16:0 17:0 18:0 19:0 20:1 21:0 22:0.29 23:255 24:255 25:1 26:0 27:0 28:0 29:0 30:0 31:0 32:0 
0.022216708430345448 0:0 1:1 2:0 3:0 4:0 5:1 6:0 7:1 8:303 9:29228 10:1 11:0 12:0 13:0 14:25 15:25 16:0 17:0 18:0 19:0 20:1 21:0 22:0 23:134 24:255 25:1 26:0 27:0.01 28:0.01 29:0 30:0 31:0 32:0 
0.014447509479191984 0:0 1:1 2:0 3:0 4:0 5:1 6:0 7:1 8:303 9:15021 10:1 11:0 12:0 13:0 14:12 15:13 16:0 17:0 18:0 19:0 20:1 21:0 22:0.15 23:85 24:255 25:1 26:0 27:0.01 28:0.03 29:0 30:0 31:0 32:0 
0.010344128347834684 0:0 1:1 2:0 3:0 4:0 5:1 6:0 7:1 8:223 9:8584 10:1 11:0 12:0 13:0 14:10 15:27 16:0 17:0 18:0 19:0 20:1 21:0 22:0.07 23:255 24:255 25:1 26:0 27:0 28:0 29:0 30:0 31:0 32:0 
0.027145367159259071 0:0 1:1 2:0 3:0 4:0 5:1 6:1 7:0 8:255 9:36500 10:1 11:0 12:0 13:0 14:4 15:4 16:0.25 17:0.25 18:0 19:0 20:1 21:0 22:0 23:255 24:255 25:1 26:0 27:0 28:0 29:0 30:0 31:0 32:0 
0.010685424173621281 0:0 1:1 2:0 3:0 4:0 5:1 6:0 7:1 8:277 9:11830 10:1 11:0 12:0 13:0 14:2 15:14 16:0 17:0 18:0 19:0 20:1 21:0 22:0.36 23:4 24:255 25:1 26:0 27:0.25 28:0.01 29:0 30:0 31:0 32:0 
0.0099237182742999645 0:0 1:1 2:0 3:0 4:0 5:1 6:0 7:1 8:142 9:27062 10:1 11:0 12:0 13:0 14:3 15:13 16:0 17:0 18:0 19:0.08 20:1 21:0 22:0.31 23:255 24:255 25:1 26:0 27:0 28:0 29:0 30:0 31:0 32:0 
0.024776944042519074 0:0 1:1 2:0 3:0 4:0 5:1 6:0 7:1 8:245 9:15255 10:1 11:0 12:0 13:0 14:1 15:91 16:0 17:0 18:0 19:0 20:1 21:0 22:0.14 23:7 24:255 25:1 26:0 27:0.14 28:0.04 29:0 30:0 31:0 32:0 
0.0088696446070721368 0:0 1:1 2:0 3:0 4:0 5:1 6:0 7:1 8:218 9:10179 10:1 11:0 12:0 13:0 14:30 15:32 16:0 17:0 18:0 19:0 20:1 21:0 22:0.06 23:63 24:255 25:1 26:0 27:0.02 28:0.05 29:0 30:0 31:0 32:0 
0.0036181597364429272 0:0 1:1 2:0 3:0 4:0 5:1 6:0 7:1 8:200 9:14210 10:1 11:0 12:0 13:0 14:7 15:7 16:0 17:0 18:0 19:0 20:1 21:0 22:0 23:52 24:255 25:1 26:0 27:0.02 28:0.04 29:0 30:0 31:0 32:0 
0.0034707794511879145 0:0 1:1 2:0 3:0 4:0 5:1 6:0 7:1 8:301 9:10063 10:1 11:0 12:0 13:0 14:9 15:10 16:0 17:0 18:0 19:0 20:1 21:0 22:0.2 23:255 24:255 25:1 26:0 27:0 28:0 29:0 30:0 31:0 32:0 
0.028472447791445105 0:0 1:1 2:0 3:0 4:0 5:1 6:0 7:1 8:322 9:93111 10:1 11:0 12:0 13:0 14:12 15:12 16:0 17:0 18:0 19:0 20:1 21:0 22:0 23:38 24:255 25:1 26:0 27:0.03 28:0.03 29:0.03 30:0.01 31:0 32:0 
0.025808255028039621 0:0 1:1 2:0 3:0 4:0 5:1 6:0 7:1 8:189 9:31876 10:1 11:0 12:0 13:0 14:1 15:1 16:0 17:0 18:0 19:0 20:1 21:0 22:0 23:25 24:255 25:1 26:0 27:0.04 28:0.03 29:0 30:0 31:0 32:0 
0.010958578492660725 0:0 1:1 2:0 3:0 4:0 5:1 6:0 7:1 8:328 9:14087 10:1 11:0 12:0 13:0 14:3 15:3 16:0 17:0 18:0 19:0 20:1 21:0 22:0 23:255 24:255 25:1 26:0 27:0 28:0 29:0 30:0 31:0 32:0 
0.012915452840622416 0:0 1:1 2:0 3:0 4:0 5:1 6:0 7:1 8:343 9:10925 10:1 11:0 12:0 13:0 14:5 15:21 16:0 17:0 18:0 19:0 20:1 21:0 22:0.1 23:5 24:255 25:1 26:0 27:0.2 28:0.03 29:0 30:0 31:0 32:0 
0.024839234599477816 0:0 1:1 2:0 3:0 4:0 5:1 6:0 7:1 8:170 9:37014 10:1 11:0 12:0 13:0 14:1 15:1 16:0 17:0 18:0 19:0 20:1 21:0 22:0 23:255 24:255 25:1 26:0 27:0 28:0 29:0 30:0 31:0 32:0 
0.002308123333010002 0:0 1:1 2:0 3:0 4:0 5:1 6:0 7:1 8:235 9:19714 10:1 11:0 12:0 13:0 14:1 15:1 16:0 17:0 18:0 19:0 20:1 21:0 22:0 23:31 24:255 25:1 26:0 27:0.03 28:0.04 29:0 30:0 31:0.03 32:0 
0.018016787759929067 0:0 1:1 2:0 3:0 4:0 5:1 6:0 7:1 8:191 9:13667 10:1 11:0 12:0 13:0 14:8 15:9 16:0 17:0 18:0 19:0 20:1 21:0 22:0.22 23:169 24:255 25:1 26:0 27:0.01 28:0.02 29:0 30:0 31:0 32:0 
0.013827807798589352 0:0 1:1 2:0 3:0 4:0 5:1 6:0 7:1 8:217 9:15560 10:1 11:0 12:0 13:0 14:2 15:19 16:0 17:0 18:0 19:0 20:1 21:0 22:0.16 23:75 24:255 25:1 26:0 27:0.01 28:0.01 29:0 30:0 31:0 32:0 
0.01959230740655471 0:0 1:1 2:0 3:0 4:0 5:1 6:0 7:1 8:199 9:19271 10:1 11:0 12:0 13:0 14:19 15:19 16:0 17:0 18:0 19:0 20:1 21:0 22:0 23:47 24:255 25:1 26:0 27:0.02 28:0.07 29:0 30:0 31:0 32:0 
0.0030469156011615887 0:0 1:1 2:0 3:0 4:0 5:1 6:0 7:1 8:360 9:9768 10:1 11:0 12:0 13:0 14:37 15:37 16:0 17:0 18:0 19:0 20:1 21:0 22:0 23:255 24:255 25:1 26:0 27:0 28:0 29:0 30:0 31:0 32:0 
0.023924572167877856 0:0 1:1 2:0 3:0 4:0 5:1 6:0 7:1 8:162 9:18666 10:1 11:0 12:0 13:0 14:1 15:12 16:0 17:0 18:0 19:0 20:1 21:0 22:0.33 23:27 24:255 25:1 26:0 27:0.04 28:0.01 29:0 30:0 31:0 32:0 
0.0061181910886722538 0:0 1:1 2:0 3:0 4:0 5:1 6:0 7:1 8:257 9:15697 10:1 11:0 12:0 13:0 14:2 15:23 16:0 17:0 18:0 19:0 20:1 21:0 22:0.22 23:39 24:255 25:1 26:0 27:0.03 28:0.01 29:0 30:0 31:0 32:0 
0.015130788734346989 0:0 1:1 2:0 3:0 4:0 5:1 6:1 7:0 8:307 9:27740 10:1 11:0 12:0 13:0 14:4 15:4 16:0.25 17:0.25 18:0 19:0 20:1 21:0 22:0 23:255 24:255 25:1 26:0 27:0 28:0 29:0 30:0 31:0 32:0 
0.005405049681302402 0:0 1:1 2:0 3:0 4:0 5:1 6:0 7:1 8:181 9:9442 10:1 11:0 12:0 13:0 14:1 15:1 16:0 17:0 18:0 19:0 20:1 21:0 22:0 23:84 24:255 25:1 26:0 27:0.01 28:0.03 29:0 30:0 31:0 32:0 
0.0019944542167323227 0:0 1:1 2:0 3:0 4:0 5:1 6:0 7:1 8:493 9:9142 10:1 11:0 12:0 13:0 14:7 15:8 16:0 17:0 18:0 19:0 20:1 21:0 22:0.25 23:255 24:255 25:1 26:0 27:0 28:0 29:0 30:0 31:0 32:0 
0.011554447012806461 0:0 1:1 2:0 3:0 4:0 5:1 6:0 7:1 8:250 9:15544 10:1 11:0 12:0 13:0 14:1 15:7 16:0 17:0 18:0 19:0 20:1 21:0 22:0.29 23:9 24:255 25:1 26:0 27:0.11 28:0.01 29:0 30:0 31:0 32:0 
0.01492443587458913 0:0 1:1 2:0 3:0 4:0 5:1 6:0 7:1 8:231 9:37654 10:1 11:0 12:0 13:0 14:1 15:1 16:0 17:0 18:0 19:0 20:1 21:0 22:0 23:255 24:255 25:1 26:0 27:0 28:0 29:0 30:0 31:0 32:0 
0.0072991979011637759 0:0 1:1 2:0 3:0 4:0 5:1 6:0 7:1 8:266 9:15084 10:1 11:0 12:0 13:0 14:10 15:10 16:0 17:0 18:0 19:0 20:1 21:0 22:0 23:10 24:255 25:1 26:0 27:0.1 28:0.05 29:0 30:0 31:0 32:0 
0.0022119517705325802 0:0 1:1 2:0 3:0 4:0 5:1 6:0 7:1 8:195 9:39751 10:1 11:0 12:0 13:0 14:2 15:2 16:0 17:0 18:0 19:0 20:1 21:0 22:0 23:45 24:255 25:1 26:0 27:0.02 28:0.05 29:0 30:0 31:0 32:0 
0.0175772830166505 0:0 1:1 2:0 3:0 4:0 5:1 6:0 7:1 8:317 9:23209 10:1 11:0 12:0 13:0 14:1 15:2 16:0 17:0 18:0 19:0 20:1 21:0 22:1 23:255 24:255 25:1 26:0 27:0 28:0 29:0 30:0 31:0 32:0 
0.011307121516303718 0:0 1:1 2:0 3:0 4:0 5:1 6:0 7:1 8:317 9:23436 10:1 11:0 12:0 13:0 14:5 15:5 16:0 17:0 18:0 19:0 20:1 21:0 22:0 23:28 24:255 25:1 26:0 27:0.04 28:0.04 29:0 30:0 31:0 32:0 
0.0093742924151699932 0:0 1:1 2:0 3:0 4:0 5:1 6:0 7:1 8:299 9:12211 10:1 11:0 12:0 13:0 14:7 15:8 16:0 17:0 18:0 19:0 20:1 21:0 22:0.25 23:153 24:255 25:1 26:0 27:0.01 28:0.02 29:0 30:0 31:0 32:0 
0.0055949822243377099 0:0 1:1 2:0 3:0 4:0 5:1 6:0 7:1 8:285 9:10993 10:1 11:0 12:0 13:0 14:4 15:4 16:0 17:0 18:0 19:0 20:1 21:0 22:0 23:79 24:255 25:1 26:0 27:0.01 28:0.03 29:0 30:0 31:0 32:0 
0.0085933895313494765 0:0 1:1 2:0 3:0 4:0 5:1 6:0 7:1 8:289 9:12602 10:1 11:0 12:0 13:0 14:14 15:14 16:0 17:0 18:0 19:0 20:1 21:0 22:0 23:98 24:255 25:1 26:0 27:0.01 28:0.03 29:0 30:0 31:0 32:0 
0.0084793533218212001 0:0 1:1 2:0 3:0 4:0 5:1 6:0 7:1 8:162 9:8448 10:1 11:0 12:0 13:0 14:1 15:1 16:0 17:0 18:0 19:0 20:1 21:0 22:0 23:42 24:255 25:1 26:0 27:0.02 28:0.04 29:0 30:0 31:0 32:0 
0.028207657578521748 0:0 1:1 2:0 3:0 4:0 5:1 6:0 7:1 8:192 9:36186 10:1 11:0 12:0 13:0 14:1 15:1 16:0 17:0 18:0 19:0 20:1 21:0 22:0 23:255 24:255 25:1 26:0 27:0 28:0 29:0 30:0 31:0 32:0 
0.010401035909095606 0:0 1:1 2:0 3:0 4:0 5:1 6:0 7:1 8:310 9:8502 10:1 11:0 12:0 13:0 14:2 15:2 16:0 17:0 18:0 19:0 20:1 21:0 22:0 23:255 24:255 25:1 26:0 27:0 28:0 29:0 30:0 31:0 32:0 
0.010314627634500348 0:0 1:1 2:0 3:0 4:0 5:1 6:0 7:1 8:144 9:9534 10:1 11:0 12:0 13:0 14:1 15:1 16:0 17:0 18:0 19:0 20:1 21:0 22:0 23:171 24:255 25:1 26:0 27:0.01 28:0.01 29:0 30:0 31:0 32:0 
0.024748694720278283 0:0 1:1 2:0 3:0 4:0 5:1 6:0 7:1 8:285 9:18555 10:1 11:0 12:0 13:0 14:8 15:8 16:0 17:0 18:0 19:0 20:1 21:0 22:0 23:123 24:255 25:1 26:0 27:0.01 28:0.03 29:0 30:0 31:0 32:0 
0.0092268569057646493 0:0 1:1 2:0 3:0 4:0 5:1 6:0 7:1 8:322 9:9457 10:1 11:0 12:0 13:0 14:19 15:19 16:0 17:0 18:0 19:0 20:1 21:0 22:0 23:65 24:255 25:1 26:0 27:0.02 28:0.01 29:0 30:0 31:0 32:0 
0.0166516356607695 0:0 1:1 2:0 3:0 4:0 5:1 6:0 7:1 8:286 9:8188 10:1 11:0 12:0 13:0 14:1 15:1 16:0 17:0 18:0 19:0 20:1 21:0 22:0 23:45 24:202 25:1 26:0 27:0.02 28:0.04 29:0 30:0 31:0 32:0 
0.012412570305993079 0:0 1:1 2:0 3:0 4:0 5:1 6:0 7:1 8:196 9:14123 10:1 11:0 12:0 13:0 14:8 15:8 16:0 17:0 18:0 19:0 20:1 21:0 22:0 23:87 24:255 25:1 26:0 27:0.01 28:0.04 29:0 30:0 31:0 32:0 
0.025521119094807351 0:0 1:1 2:0 3:0 4:0 5:1 6:0 7:1 8:170 9:24161 10:1 11:0 12:0 13:0 14:5 15:25 16:0 17:0 18:0 19:0 20:1 21:0 22:0.08 23:37 24:255 25:1 26:0 27:0.03 28:0.05 29:0 30:0 31:0 32:0 
0.028078532385847212 0:0 1:1 2:0 3:0 4:0 5:1 6:0 7:1 8:301 9:17844 10:1 11:0 12:0 13:0 14:12 15:12 16:0 17:0 18:0 19:0 20:1 21:0 22:0 23:21 24:119 25:1 26:0 27:0.05 28:0.02 29:0 30:0 31:0 32:0 
0.023331766388432519 0:0 1:1 2:0 3:0 4:0 5:1 6:0 7:1 8:307 9:20526 10:1 11:0 12:0 13:0 14:5 15:5 16:0 17:0 18:0 19:0 20:1 21:0 22:0 23:5 24:255 25:1 26:0 27:0.2 28:0.09 29:0 30:0 31:0 32:0 
0.009598836346337845 0:0 1:1 2:0 3:0 4:0 5:1 6:0 7:1 8:182 9:14650 10:1 11:0 12:0 13:0 14:7 15:7 16:0 17:0 18:0 19:0 20:1 21:0 22:0 23:39 24:255 25:1 26:0 27:0.03 28:0.04 29:0 30:0 31:0 32:0 
0.0079754698040600397 0:0 1:1 2:0 3:0 4:0 5:1 6:0 7:1 8:213 9:25519 10:1 11:0 12:0 13:0 14:1 15:1 16:0 17:0 18:0 19:0 20:1 21:0 22:0 23:119 24:255 25:1 26:0 27:0.01 28:0.04 29:0 30:0 31:0 32:0 
0.024693476705742037 0:0 1:1 2:0 3:0 4:0 5:1 6:0 7:1 8:479 9:9142 10:1 11:0 12:0 13:0 14:7 15:7 16:0 17:0 18:0 19:0 20:1 21:0 22:0 23:98 24:255 25:1 26:0 27:0.01 28:0.04 29:0 30:0.01 31:0 32:0 
0.027773413051529559 0:0 1:1 2:0 3:0 4:0 5:1 6:0 7:1 8:331 9:9207 10:1 11:0 12:0 13:0 14:1 15:1 16:0 17:0 18:0 19:0 20:1 21:0 22:0 23:25 24:85 25:1 26:0 27:0.04 28:0.05 29:0 30:0 31:0 32:0 
0.017310365803169612 0:0 1:1 2:0 3:0 4:0 5:1 6:0 7:1 8:328 9:24786 10:1 11:0 12:0 13:0 14:18 15:18 16:0 17:0 18:0 19:0 20:1 21:0 22:0 23:255 24:255 25:1 26:0 27:0 28:0 29:0 30:0 31:0 32:0 
0.018232402419962539 0:0 1:1 2:0 3:0 4:0 5:1 6:0 7:1 8:238 9:35052 10:1 11:0 12:0 13:0 14:1 15:2 16:0 17:0 18:0 19:0 20:1 21:0 22:1 23:52 24:255 25:1 26:0 27:0.02 28:0.07 29:0 30:0 31:0 32:0 
0.015913752918739397 0:0 1:1 2:0 3:0 4:0 5:1 6:0 7:1 8:150 9:23476 10:1 11:0 12:0 13:0 14:2 15:2 16:0 17:0 18:0 19:0 20:1 21:0 22:0 23:65 24:250 25:1 26:0 27:0.02 28:0.04 29:0 30:0 31:0 32:0 
0.022862366195792756 0:0 1:1 2:0 3:0 4:0 5:1 6:0 7:1 8:200 9:17733 10:1 11:0 12:0 13:0 14:32 15:56 16:0 17:0 18:0 19:0 20:1 21:0 22:0.05 23:116 24:255 25:1 26:0 27:0.01 28:0.03 29:0 30:0 31:0 32:0 
0.01640921169177318 0:0 1:1 2:0 3:0 4:0 5:1 6:0 7:1 8:235 9:22150 10:1 11:0 12:0 13:0 14:2 15:2 16:0 17:0 18:0 19:0 20:1 21:0 22:0 23:245 24:255 25:1 26:0 27:0 28:0.01 29:0 30:0 31:0 32:0 
0.0036900178510016332 0:0 1:1 2:0 3:0 4:0 5:1 6:0 7:1 8:246 9:12621 10:1 11:0 12:0 13:0 14:3 15:4 16:0 17:0 18:0 19:0 20:1 21:0 22:0.5 23:197 24:255 25:1 26:0 27:0.01 28:0.01 29:0 30:0 31:0 32:0 
0.0063498130998322216 0:0 1:1 2:0 3:0 4:0 5:1 6:0 7:1 8:203 9:56215 10:1 11:0 12:0 13:0 14:2 15:2 16:0 17:0 18:0 19:0 20:1 21:0 22:0 23:34 24:255 25:1 26:0 27:0.03 28:0.06 29:0 30:0 31:0 32:0 
0.028612448700722812 0:0 1:1 2:0 3:0 4:0 5:1 6:0 7:1 8:165 9:14328 10:1 11:0 12:0 13:0 14:3 15:7 16:0 17:0 18:0 19:0 20:1 21:0 22:0.43 23:6 24:96 25:1 26:0 27:0.17 28:0.1 29:0 30:0.01 31:0 32:0 
0.0034402774938976422 0:0 1:1 2:0 3:0 4:0 5:1 6:0 7:1 8:278 9:8596 10:1 11:0 12:0 13:0 14:15 15:15 16:0 17:0 18:0 19:0 20:1 21:0 22:0 23:22 24:255 25:1 26:0 27:0.05 28:0.02 29:0 30:0 31:0 32:0 
0.013992601092689506 0:0 1:1 2:0 3:0 4:0 5:1 6:0 7:1 8:148 9:14506 10:1 11:0 12:0 13:0 14:1 15:1 16:0 17:0 18:0 19:0 20:1 21:0 22:0 23:255 24:255 25:1 26:0 27:0 28:0 29:0 30:0 31:0 32:0 
0.00986609982060958 0:0 1:1 2:0 3:0 4:0 5:1 6:0 7:1 8:222 9:10707 10:1 11:0 12:0 13:0 14:3 15:3 16:0 17:0 18:0 19:0 20:1 21:0 22:0 23:255 24:255 25:1 26:0 27:0 28:0 29:0 30:0 31:0 32:0 
0.027943549469633615 0:0 1:1 2:0 3:0 4:0 5:1 6:1 7:0 8:196 9:36500 10:1 11:0 12:0 13:0 14:1 15:1 16:1 17:1 18:0 19:0 20:1 21:0 22:0 23:148 24:228 25:1 26:0 27:0.01 28:0.01 29:0.01 30:0 31:0 32:0 
0.0098883661047086836 0:0 1:1 2:0 3:0 4:0 5:1 6:0 7:1 8:264 9:8786 10:1 11:0 12:0 13:0 14:2 15:2 16:0 17:0 18:0 19:0 20:1 21:0 22:0 23:2 24:255 25:1 26:0 27:0.5 28:0.02 29:0 30:0 31:0 32:0 
0.010706736573852252 0:0 1:1 2:0 3:0 4:0 5:1 6:0 7:1 8:399 9:9572 10:1 11:0 12:0 13:0 14:6 15:6 16:0 17:0 18:0 19:0 20:1 21:0 22:0 23:255 24:255 25:1 26:0 27:0 28:0 29:0 30:0 31:0 32:0 
0.021891855965794405 0:0 1:1 2:0 3:0 4:0 5:1 6:0 7:1 8:326 9:15525 10:1 11:0 12:0 13:0 14:3 15:3 16:0 17:0 18:0 19:0 20:1 21:0 22:0 23:13 24:193 25:1 26:0 27:0.08 28:0.02 29:0 30:0 31:0 32:0 
0.024560703198423031 0:0 1:1 2:0 3:0 4:0 5:1 6:0 7:1 8:465 9:9067 10:1 11:0 12:0 13:0 14:2 15:2 16:0 17:0 18:0 19:0 20:1 21:0 22:0 23:255 24:255 25:1 26:0 27:0 28:0 29:0 30:0 31:0 32:0 
0.011303046492957774 0:0 1:1 2:0 3:0 4:0 5:1 6:0 7:1 8:215 9:12798 10:1 11:0 12:0 13:0 14:25 15:25 16:0 17:0 18:0 19:0 20:1 21:0 22:0 23:107 24:255 25:1 26:0 27:0.01 28:0.04 29:0 30:0 31:0 32:0 
0.028032770216253864 0:0 1:1 2:0 3:0 4:0 5:1 6:1 7:0 8:242 9:80476 10:1 11:0 12:0 13:0 14:2 15:4 16:0.5 17:0.25 18:0 19:0 20:1 21:0 22:0.5 23:2 24:156 25:1 26:0 27:0.5 28:0.08 29:0.5 30:0.01 31:0 32:0 
0.017726873480673127 0:0 1:1 2:0 3:0 4:0 5:1 6:0 7:1 8:346 9:11327 10:1 11:0 12:0 13:0 14:15 15:15 16:0 17:0 18:0 19:0 20:1 21:0 22:0 23:145 24:255 25:1 26:0 27:0.01 28:0.01 29:0 30:0 31:0 32:0 
0.0046622442344410805 0:0 1:1 2:0 3:0 4:0 5:1 6:0 7:1 8:325 9:12884 10:1 11:0 12:0 13:0 14:11 15:11 16:0 17:0 18:0 19:0 20:1 21:0 22:0 23:215 24:215 25:1 26:0 27:0.01 28:0 29:0 30:0 31:0 32:0 
0.0052729821666595688 0:0 1:1 2:0 3:0 4:0 5:1 6:0 7:1 8:276 9:10861 10:1 11:0 12:0 13:0 14:3 15:5 16:0.33 17:0.2 18:0 19:0 20:1 21:0 22:0.4 23:5 24:255 25:1 26:0 27:0.2 28:0.03 29:0.2 30:0 31:0 32:0 
0.025593836427053641 0:0 1:1 2:0 3:0 4:0 5:1 6:0 7:1 8:312 9:25925 10:1 11:0 12:0 13:0 14:3 15:33 16:0 17:0 18:0 19:0 20:1 21:0 22:0.06 23:125 24:255 25:1 26:0 27:0.01 28:0.02 29:0 30:0 31:0 32:0 
0.019740148677135829 0:0 1:1 2:0 3:0 4:0 5:1 6:0 7:1 8:319 9:17905 10:1 11:0 12:0 13:0 14:16 15:16 16:0 17:0 18:0 19:0 20:1 21:0 22:0 23:120 24:255 25:1 26:0 27:0.01 28:0.01 29:0 30:0 31:0 32:0 
0.0015467116202404346 0:0 1:1 2:0 3:0 4:0 5:1 6:0 7:1 8:213 9:10616 10:1 11:0 12:0 13:0 14:15 15:16 16:0 17:0 18:0 19:0 20:1 21:0 22:0.12 23:255 24:255 25:1 26:0 27:0 28:0 29:0 30:0 31:0 32:0 
0.012633641452795705 0:0 1:1 2:0 3:0 4:0 5:1 6:0 7:1 8:295 9:38677 10:1 11:0 12:0 13:0 14:5 15:5 16:0.2 17:0.2 18:0 19:0 20:1 21:0 22:0 23:255 24:255 25:1 26:0 27:0 28:0 29:0 30:0 31:0 32:0 
0.00201017463446059 0:0 1:1 2:0 3:0 4:0 5:1 6:0 7:1 8:213 9:27264 10:1 11:0 12:0 13:0 14:3 15:4 16:0 17:0 18:0 19:0 20:1 21:0 22:0.5 23:49 24:255 25:1 26:0 27:0.02 28:0.02 29:0.02 30:0.02 31:0 32:0 
0.010483054273351349 0:0 1:1 2:0 3:0 4:0 5:1 6:0 7:1 8:260 9:9728 10:1 11:0 12:0 13:0 14:1 15:1 16:0 17:0 18:0 19:0 20:1 21:0 22:0 23:6 24:255 25:1 26:0 27:0.17 28:0.07 29:0 30:0 31:0 32:0 
0.0035011043234940459 0:0 1:1 2:0 3:0 4:0 5:1 6:0 7:1 8:227 9:9534 10:1 11:0 12:0 13:0 14:1 15:1 16:0 17:0 18:0 19:0 20:1 21:0 22:0 23:159 24:255 25:1 26:0 27:0.01 28:0.01 29:0 30:0 31:0 32:0 
0.0024703609672629585 0:0 1:1 2:0 3:0 4:0 5:1 6:0 7:1 8:174 9:13184 10:1 11:0 12:0 13:0 14:1 15:1 16:0 17:0 18:0 19:0 20:1 21:0 22:0 23:219 24:248 25:1 26:0 27:0 28:0.01 29:0 30:0 31:0 32:0 
0.016834944491594825 0:0 1:1 2:0 3:0 4:0 5:1 6:0 7:1 8:163 9:18014 10:1 11:0 12:0 13:0 14:1 15:1 16:0 17:0 18:0 19:0 20:1 21:0 22:0 23:255 24:255 25:1 26:0 27:0 28:0 29:0 30:0 31:0 32:0 
0.021894642434475378 0:0 1:1 2:0 3:0 4:0 5:1 6:0 7:1 8:240 9:25683 10:1 11:0 12:0 13:0 14:3 15:3 16:0 17:0 18:0 19:0 20:1 21:0 22:0 23:203 24:255 25:1 26:0 27:0 28:0.02 29:0 30:0 31:0 32:0 
0.0098591812738107812 0:0 1:1 2:0 3:0 4:0 5:1 6:0 7:1 8:285 9:25519 10:1 11:0 12:0 13:0 14:2 15:27 16:0 17:0 18:0 19:0 20:1 21:0 22:0.19 23:49 24:255 25:1 26:0 27:0.02 28:0.04 29:0 30:0 31:0 32:0 
0.013884128184180909 0:0 1:1 2:0 3:0 4:0 5:1 6:0 7:1 8:240 9:33586 10:1 11:0 12:0 13:0 14:1 15:1 16:0 17:0 18:0 19:0 20:1 21:0 22:0 23:255 24:255 25:1 26:0 27:0 28:0 29:0 30:0 31:0 32:0 
0.0012255382219327469 0:0 1:1 2:0 3:0 4:0 5:1 6:0 7:1 8:246 9:9648 10:1 11:0 12:0 13:0 14:1 15:1 16:0 17:0 18:0 19:0 20:1 21:0 22:0 23:92 24:255 25:1 26:0 27:0.01 28:0.02 29:0 30:0 31:0 32:0 
0.0082663316753932136 0:0 1:1 2:0 3:0 4:0 5:1 6:0 7:1 8:215 9:25078 10:1 11:0 12:0 13:0 14:2 15:8 16:0 17:0 18:0 19:0 20:1 21:0 22:0.25 23:2 24:255 25:1 26:0 27:0.5 28:0.04 29:0 30:0 31:0 32:0 
0.0080867188393452336 0:0 1:1 2:0 3:0 4:0 5:1 6:0 7:1 8:164 9:9785 10:1 11:0 12:0 13:0 14:1 15:1 16:0 17:0 18:0 19:0 20:1 21:0 22:0 23:83 24:255 25:1 26:0 27:0.01 28:0.05 29:0 30:0 31:0 32:0 
0.010123556641296839 0:0 1:1 2:0 3:0 4:0 5:1 6:0 7:1 8:196 9:22792 10:1 11:0 12:0 13:0 14:4 15:4 16:0 17:0 18:0 19:0 20:1 21:0 22:0 23:239 24:255 25:1 26:0 27:0 28:0.02 29:0.01 30:0.01 31:0 32:0 
0.028226185753149276 0:0 1:1 2:0 3:0 4:0 5:1 6:0 7:1 8:267 9:23875 10:1 11:0 12:0 13:0 14:1 15:12 16:0 17:0 18:0 19:0 20:1 21:0 22:0.17 23:211 24:247 25:1 26:0 27:0 28:0.04 29:0 30:0 31:0 32:0 
0.021647809232860887 0:0 1:1 2:0 3:0 4:0 5:1 6:0 7:1 8:357 9:10481 10:1 11:0 12:0 13:0 14:12 15:13 16:0 17:0 18:0 19:0 20:1 21:0 22:0.15 23:255 24:255 25:1 26:0 27:0 28:0 29:0 30:0 31:0 32:0 
0.0078497546569833172 0:0 1:1 2:0 3:0 4:0 5:1 6:0 7:1 8:221 9:14561 10:1 11:0 12:0 13:0 14:20 15:20 16:0.05 17:0.05 18:0 19:0 20:1 21:0 22:0 23:255 24:255 25:1 26:0 27:0 28:0 29:0 30:0 31:0 32:0 
0.0024496810972612117 0:0 1:1 2:0 3:0 4:0 5:1 6:0 7:1 8:301 9:16802 10:1 11:0 12:0 13:0 14:12 15:12 16:0 17:0 18:0 19:0 20:1 21:0 22:0 23:39 24:255 25:1 26:0 27:0.03 28:0.01 29:0 30:0 31:0 32:0 
0.027830732012291463 0:0 1:1 2:0 3:0 4:0 5:1 6:0 7:1 8:142 9:17893 10:1 11:0 12:0 13:0 14:21 15:34 16:0 17:0 18:0 19:0 20:1 21:0 22:0.06 23:21 24:118 25:1 26:0 27:0.05 28:0.05 29:0 30:0 31:0 32:0 
0.007478025855126488 0:0 1:1 2:0 3:0 4:0 5:1 6:0 7:1 8:157 9:27062 10:1 11:0 12:0 13:0 14:4 15:23 16:0 17:0 18:0 19:0 20:1 21:0 22:0.17 23:255 24:255 25:1 26:0 27:0 28:0 29:0 30:0 31:0 32:0 
0.0082007146536904624 0:0 1:1 2:0 3:0 4:0 5:1 6:0 7:1 8:299 9:12067 10:1 11:0 12:0 13:0 14:16 15:16 16:0 17:0 18:0 19:0 20:1 21:0 22:0 23:39 24:255 25:1 26:0 27:0.03 28:0.02 29:0 30:0 31:0 32:0 
0.015496715987114936 0:0 1:1 2:0 3:0 4:0 5:1 6:0 7:1 8:193 9:17733 10:1 11:0 12:0 13:0 14:32 15:32 16:0 17:0 18:0 19:0 20:1 21:0 22:0 23:202 24:255 25:1 26:0 27:0 28:0.02 29:0 30:0 31:0 32:0 
0.014251780397456596 0:0 1:1 2:0 3:0 4:0 5:1 6:1 7:0 8:226 9:29200 10:1 11:0 12:0 13:0 14:1 15:1 16:1 17:1 18:0 19:0 20:1 21:0 22:0 23:255 24:255 25:1 26:0 27:0 28:0 29:0 30:0 31:0 32:0 
0.0030341266441104098 0:0 1:1 2:0 3:0 4:0 5:1 6:0 7:1 8:309 9:8584 10:1 11:0 12:0 13:0 14:4 15:4 16:0 17:0 18:0 19:0 20:1 21:0 22:0 23:255 24:255 25:1 26:0 27:0 28:0 29:0 30:0 31:0 32:0 
0.01472400460302388 0:4 1:1 2:0 3:0 4:0 5:1 6:0 7:1 8:252 9:273544 10:1 11:0 12:0 13:0 14:1 15:1 16:0 17:0 18:0 19:0 20:1 21:0 22:0 23:255 24:247 25:0.97 26:0.01 27:0 28:0 29:0 30:0 31:0 32:0 
0.010087741400212385 0:0 1:1 2:0 3:0 4:0 5:1 6:0 7:1 8:143 9:9598 10:1 11:0 12:0 13:0 14:1 15:1 16:0 17:0 18:0 19:0 20:1 21:0 22:0 23:87 24:255 25:1 26:0 27:0.01 28:0.01 29:0.01 30:0 31:0 32:0 
0.019631181045361157 0:0 1:1 2:0 3:0 4:0 5:1 6:0 7:1 8:215 9:26526 10:1 11:0 12:0 13:0 14:3 15:3 16:0 17:0 18:0 19:0 20:1 21:0 22:0 23:3 24:255 25:1 26:0 27:0.33 28:0.02 29:0 30:0 31:0 32:0 
0.002663928094401307 0:0 1:1 2:0 3:0 4:0 5:1 6:0 7:1 8:315 9:9998 10:1 11:0 12:0 13:0 14:2 15:2 16:0 17:0 18:0 19:0 20:1 21:0 22:0 23:6 24:255 25:1 26:0 27:0.17 28:0.02 29:0 30:0 31:0 32:0 
0.016227760316424037 0:0 1:1 2:0 3:0 4:0 5:1 6:0 7:1 8:153 9:9267 10:1 11:0 12:0 13:0 14:2 15:14 16:0 17:0 18:0 19:0 20:1 21:0 22:0.21 23:71 24:255 25:1 26:0 27:0.01 28:0.03 29:0 30:0 31:0 32:0 
0.02782619885070587 0:0 1:1 2:0 3:0 4:0 5:1 6:0 7:1 8:241 9:36362 10:1 11:0 12:0 13:0 14:1 15:1 16:0 17:0 18:0 19:0 20:1 21:0 22:0 23:55 24:255 25:1 26:0 27:0.02 28:0.01 29:0.02 30:0.01 31:0 32:0 
0.015582155693776568 0:0 1:1 2:0 3:0 4:0 5:1 6:1 7:0 8:149 9:43465 10:1 11:0 12:0 13:0 14:1 15:20 16:1 17:0.05 18:0 19:0 20:1 21:0 22:0.15 23:255 24:255 25:1 26:0 27:0 28:0 29:0 30:0 31:0 32:0 
0.022627631248519017 0:0 1:1 2:0 3:0 4:0 5:1 6:0 7:1 8:232 9:28808 10:1 11:0 12:0 13:0 14:4 15:4 16:0 17:0 18:0 19:0 20:1 21:0 22:0 23:99 24:255 25:1 26:0 27:0.01 28:0.03 29:0 30:0 31:0 32:0 
0.015473803585236633 0:0 1:1 2:0 3:0 4:0 5:1 6:0 7:1 8:312 9:22403 10:1 11:0 12:0 13:0 14:9 15:9 16:0 17:0 18:0 19:0 20:1 21:0 22:0 23:46 24:255 25:1 26:0 27:0.02 28:0.02 29:0 30:0 31:0 32:0 
0.0032873103075975333 0:0 1:1 2:0 3:0 4:0 5:1 6:0 7:1 8:162 9:8378 10:1 11:0 12:0 13:0 14:3 15:6 16:0 17:0 18:0 19:0 20:1 21:0 22:0.5 23:14 24:255 25:1 26:0 27:0.07 28:0.09 29:0 30:0 31:0 32:0 
0.020919560002370538 0:0 1:1 2:0 3:0 4:0 5:1 6:0 7:1 8:322 9:16407 10:1 11:0 12:0 13:0 14:4 15:4 16:0 17:0 18:0 19:0 20:1 21:0 22:0 23:9 24:200 25:1 26:0 27:0.11 28:0.05 29:0 30:0 31:0 32:0 
0.010442971598539331 0:0 1:1 2:0 3:0 4:0 5:1 6:0 7:1 8:263 9:27619 10:1 11:0 12:0 13:0 14:8 15:9 16:0 17:0 18:0 19:0 20:1 21:0 22:0.22 23:255 24:255 25:1 26:0 27:0 28:0 29:0 30:0 31:0 32:0 
0.013169493448954038 0:0 1:1 2:0 3:0 4:0 5:1 6:0 7:1 8:191 9:15272 10:1 11:0 12:0 13:0 14:2 15:2 16:0 17:0 18:0 19:0 20:1 21:0 22:0 23:255 24:255 25:1 26:0 27:0 28:0 29:0 30:0 31:0 32:0 
0.0030289899748394888 0:0 1:1 2:0 3:0 4:0 5:1 6:0 7:1 8:183 9:8939 10:1 11:0 12:0 13:0 14:14 15:21 16:0 17:0 18:0 19:0 20:1 21:0 22:0.14 23:133 24:255 25:1 26:0 27:0.01 28:0.04 29:0.01 30:0 31:0.01 32:0 
0.017407604114235038 0:0 1:1 2:0 3:0 4:0 5:1 6:0 7:1 8:291 9:26097 10:1 11:0 12:0 13:0 14:22 15:59 16:0.05 17:0.05 18:0 19:0 20:1 21:0 22:0.14 23:154 24:255 25:1 26:0 27:0.01 28:0.02 29:0.01 30:0.01 31:0 32:0 
0.020450700208119912 0:0 1:1 2:0 3:0 4:0 5:1 6:0 7:1 8:377 9:12591 10:1 11:0 12:0 13:0 14:5 15:5 16:0 17:0 18:0 19:0 20:1 21:0 22:0 23:255 24:255 25:1 26:0 27:0 28:0 29:0 30:0 31:0 32:0 
0.0062938691185086652 0:0 1:1 2:0 3:0 4:0 5:1 6:0 7:1 8:312 9:8819 10:1 11:0 12:0 13:0 14:6 15:6 16:0 17:0 18:0 19:0 20:1 21:0 22:0 23:115 24:255 25:1 26:0 27:0.01 28:0.03 29:0 30:0 31:0 32:0 
0.0074251921482240829 0:0 1:1 2:0 3:0 4:0 5:1 6:0 7:1 8:267 9:11375 10:1 11:0 12:0 13:0 14:1 15:1 16:0 17:0 18:0 19:0 20:1 21:0 22:0 23:63 24:255 25:1 26:0 27:0.02 28:0.02 29:0.02 30:0.01 31:0 32:0 
0.0034603722657694106 0:0 1:1 2:0 3:0 4:0 5:1 6:0 7:1 8:348 9:8143 10:1 11:0 12:0 13:0 14:8 15:16 16:0 17:0 18:0 19:0 20:1 21:0 22:0.38 23:45 24:255 25:1 26:0 27:0.02 28:0.06 29:0 30:0 31:0.02 32:0 
0.0081557112771244236 0:0 1:1 2:0 3:0 4:0 5:1 6:0 7:1 8:295 9:12771 10:1 11:0 12:0 13:0 14:1 15:1 16:0 17:0 18:0 19:0 20:1 21:0 22:0 23:255 24:255 25:1 26:0 27:0 28:0 29:0 30:0 31:0 32:0 
0.0042605990340497946 0:0 1:1 2:0 3:0 4:0 5:1 6:0 7:1 8:232 9:13341 10:1 11:0 12:0 13:0 14:7 15:7 16:0 17:0 18:0 19:0 20:1 21:0 22:0 23:82 24:255 25:1 26:0 27:0.01 28:0.01 29:0 30:0 31:0 32:0 
0.011072087276197809 0:0 1:1 2:0 3:0 4:0 5:1 6:0 7:1 8:280 9:18968 10:1 11:0 12:0 13:0 14:2 15:6 16:0 17:0 18:0 19:0 20:1 21:0 22:0.33 23:146 24:255 25:1 26:0 27:0.01 28:0.01 29:0 30:0 31:0 32:0 
0.0015315001133718999 0:0 1:1 2:0 3:0 4:0 5:1 6:0 7:1 8:366 9:9979 10:1 11:0 12:0 13:0 14:4 15:7 16:0 17:0 18:0 19:0 20:1 21:0 22:0.29 23:39 24:255 25:1 26:0 27:0.03 28:0.04 29:0 30:0 31:0 32:0 
0.017917638264939043 0:0 1:1 2:0 3:0 4:0 5:1 6:0 7:1 8:153 9:35215 10:1 11:0 12:0 13:0 14:1 15:12 16:0 17:0 18:0 19:0 20:1 21:0 22:0.33 23:255 24:255 25:1 26:0 27:0 28:0 29:0 30:0 31:0 32:0 
0.017629614202654791 0:0 1:1 2:0 3:0 4:0 5:1 6:0 7:1 8:221 9:21761 10:1 11:0 12:0 13:0 14:8 15:8 16:0 17:0 18:0 19:0 20:1 21:0 22:0 23:69 24:255 25:1 26:0 27:0.01 28:0.04 29:0 30:0 31:0 32:0 
0.024143841856684081 0:0 1:1 2:0 3:0 4:0 5:1 6:0 7:1 8:272 9:15626 10:1 11:0 12:0 13:0 14:1 15:1 16:0 17:0 18:0 19:0 20:1 21:0 22:0 23:187 24:178 25:0.95 26:0.02 27:0.01 28:0 29:0.01 30:0 31:0 32:0 
0.0022720347696853164 0:0 1:1 2:0 3:0 4:0 5:1 6:0 7:1 8:335 9:18840 10:1 11:0 12:0 13:0 14:12 15:12 16:0 17:0 18:0 19:0 20:1 21:0 22:0 23:255 24:255 25:1 26:0 27:0 28:0 29:0 30:0 31:0 32:0 
0.02215037193380729 0:0 1:1 2:0 3:0 4:0 5:1 6:0 7:1 8:519 9:9166 10:1 11:0 12:0 13:0 14:16 15:17 16:0 17:0 18:0 19:0 20:1 21:0 22:0.12 23:255 24:255 25:1 26:0 27:0 28:0 29:0 30:0 31:0 32:0 
0.015651932686206814 0:0 1:1 2:0 3:0 4:0 5:1 6:0 7:1 8:358 9:11355 10:1 11:0 12:0 13:0 14:5 15:6 16:0 17:0 18:0 19:0 20:1 21:0 22:0.33 23:255 24:255 25:1 26:0 27:0 28:0 29:0 30:0 31:0 32:0 
0.025647225101566057 0:0 1:1 2:0 3:0 4:0 5:1 6:0 7:1 8:196 9:30427 10:1 11:0 12:0 13:0 14:2 15:20 16:0 17:0 18:0 19:0 20:1 21:0 22:0.1 23:2 24:255 25:1 26:0 27:0.5 28:0.04 29:0 30:0 31:0 32:0 
0.0013971545437324179 0:0 1:1 2:0 3:0 4:0 5:1 6:0 7:1 8:230 9:15121 10:1 11:0 12:0 13:0 14:5 15:32 16:0 17:0 18:0 19:0 20:1 21:0 22:0.06 23:26 24:255 25:1 26:0 27:0.04 28:0.07 29:0 30:0 31:0 32:0 
0.019500618422184725 0:0 1:1 2:0 3:0 4:0 5:1 6:0 7:1 8:161 9:15087 10:1 11:0 12:0 13:0 14:2 15:2 16:0 17:0 18:0 19:0 20:1 21:0 22:0 23:255 24:255 25:1 26:0 27:0 28:0 29:0 30:0 31:0 32:0 
0.018543639828948091 0:0 1:1 2:0 3:0 4:0 5:1 6:0 7:1 8:261 9:18736 10:1 11:0 12:0 13:0 14:1 15:1 16:0 17:0 18:0 19:0 20:1 21:0 22:0 23:125 24:255 25:1 26:0 27:0.01 28:0.02 29:0.01 30:0 31:0 32:0 
0.014733445053427462 0:0 1:1 2:0 3:0 4:0 5:1 6:0 7:1 8:303 9:8611 10:1 11:0 12:0 13:0 14:2 15:44 16:0 17:0 18:0 19:0 20:1 21:0 22:0.07 23:137 24:255 25:1 26:0 27:0.01 28:0.03 29:0 30:0 31:0 32:0 
0.010239949687245592 0:0 1:1 2:0 3:0 4:0 5:1 6:0 7:1 8:236 9:23401 10:1 11:0 12:0 13:0 14:13 15:13 16:0 17:0 18:0 19:0 20:1 21:0 22:0 23:43 24:255 25:1 26:0 27:0.02 28:0.03 29:0 30:0 31:0 32:0 
0.023948394090696636 0:0 1:1 2:0 3:0 4:0 5:1 6:0 7:1 8:147 9:38988 10:1 11:0 12:0 13:0 14:1 15:2 16:0 17:0 18:0 19:0 20:1 21:0 22:1 23:47 24:255 25:1 26:0 27:0.02 28:0.02 29:0 30:0 31:0 32:0 
0.0081992221898016804 0:0 1:1 2:0 3:0 4:0 5:1 6:0 7:1 8:331 9:13692 10:1 11:0 12:0 13:0 14:1 15:1 16:0 17:0 18:0 19:0 20:1 21:0 22:0 23:19 24:255 25:1 26:0 27:0.05 28:0.07 29:0 30:0.01 31:0 32:0 
0.02134748989801271 0:0 1:1 2:0 3:0 4:0 5:1 6:0 7:1 8:189 9:18004 10:1 11:0 12:0 13:0 14:9 15:9 16:0 17:0 18:0 19:0 20:1 21:0 22:0 23:70 24:255 25:1 26:0 27:0.01 28:0.04 29:0 30:0 31:0 32:0 
0.0068692790237794565 0:0 1:1 2:0 3:0 4:0 5:1 6:0 7:1 8:223 9:18942 10:1 11:0 12:0 13:0 14:4 15:21 16:0 17:0 18:0 19:0 20:1 21:0 22:0.19 23:255 24:255 25:1 26:0 27:0 28:0 29:0 30:0 31:0 32:0 
0.0070956499893583876 0:0 1:1 2:0 3:0 4:0 5:1 6:0 7:1 8:256 9:9621 10:1 11:0 12:0 13:0 14:4 15:4 16:0 17:0 18:0 19:0 20:1 21:0 22:0 23:255 24:255 25:1 26:0 27:0 28:0 29:0 30:0 31:0 32:0 
0.0070584468820099854 0:0 1:1 2:0 3:0 4:0 5:1 6:0 7:1 8:312 9:11250 10:1 11:0 12:0 13:0 14:8 15:9 16:0 17:0 18:0 19:0 20:1 21:0 22:0.22 23:83 24:255 25:1 26:0 27:0.01 28:0.02 29:0 30:0 31:0 32:0 
0.0061153807625725755 0:0 1:1 2:0 3:0 4:0 5:1 6:0 7:1 8:236 9:18275 10:1 11:0 12:0 13:0 14:6 15:15 16:0 17:0 18:0 19:0 20:1 21:0 22:0.2 23:255 24:255 25:1 26:0 27:0 28:0 29:0 30:0 31:0 32:0 
0.014271191854986652 0:0 1:1 2:0 3:0 4:0 5:1 6:0 7:1 8:260 9:26088 10:1 11:0 12:0 13:0 14:2 15:2 16:0 17:0 18:0 19:0 20:1 21:0 22:0 23:255 24:255 25:1 26:0 27:0 28:0 29:0 30:0 31:0 32:0 
0.0058199320055211494 0:0 1:1 2:0 3:0 4:0 5:1 6:0 7:1 8:312 9:10010 10:1 11:0 12:0 13:0 14:2 15:19 16:0 17:0 18:0 19:0 20:1 21:0 22:0.11 23:4 24:255 25:1 26:0 27:0.25 28:0.04 29:0 30:0 31:0 32:0 
0.028515254026105309 0:0 1:1 2:0 3:0 4:0 5:1 6:0 7:1 8:336 9:86082 10:1 11:0 12:0 13:0 14:1 15:1 16:0 17:0 18:0 19:0 20:1 21:0 22:0 23:2 24:255 25:1 26:0 27:0.5 28:0.02 29:0.5 30:0 31:0 32:0 
0.0082450975538057528 0:0 1:1 2:0 3:0 4:0 5:1 6:0 7:1 8:258 9:14029 10:1 11:0 12:0 13:0 14:8 15:8 16:0 17:0 18:0 19:0 20:1 21:0 22:0 23:255 24:255 25:1 26:0 27:0 28:0 29:0 30:0 31:0 32:0 
0.014635707040605277 0:0 1:1 2:0 3:0 4:0 5:1 6:0 7:1 8:325 9:12884 10:1 11:0 12:0 13:0 14:6 15:6 16:0 17:0 18:0 19:0 20:1 21:0 22:0 23:183 24:183 25:1 26:0 27:0.01 28:0 29:0 30:0 31:0 32:0 
0.0052247565709725588 0:0 1:1 2:0 3:0 4:0 5:1 6:0 7:1 8:205 9:8647 10:1 11:0 12:0 13:0 14:17 15:28 16:0 17:0 18:0 19:0 20:1 21:0 22:0.11 23:17 24:255 25:1 26:0 27:0.06 28:0.03 29:0 30:0 31:0 32:0 
0.015014184929997235 0:0 1:1 2:0 3:0 4:0 5:1 6:0 7:1 8:283 9:14568 10:1 11:0 12:0 13:0 14:4 15:25 16:0 17:0 18:0 19:0 20:1 21:0 22:0.16 23:4 24:255 25:1 26:0 27:0.25 28:0.02 29:0 30:0 31:0 32:0 
0.022796259584767165 0:0 1:1 2:0 3:0 4:0 5:1 6:0 7:1 8:317 9:24716 10:1 11:0 12:0 13:0 14:2 15:3 16:0 17:0 18:0 19:0 20:1 21:0 22:0.67 23:255 24:255 25:1 26:0 27:0 28:0 29:0 30:0 31:0 32:0 
0.015670720120292601 0:0 1:1 2:0 3:0 4:0 5:1 6:0 7:1 8:281 9:17449 10:1 11:0 12:0 13:0 14:3 15:3 16:0 17:0 18:0 19:0 20:1 21:0 22:0 23:19 24:255 25:1 26:0 27:0.05 28:0.01 29:0 30:0 31:0 32:0 
0.01609881582991473 0:0 1:1 2:0 3:0 4:0 5:1 6:0 7:1 8:159 9:21375 10:1 11:0 12:0 13:0 14:2 15:38 16:0 17:0 18:0 19:0 20:1 21:0 22:0.16 23:2 24:255 25:1 26:0 27:0.5 28:0.01 29:0 30:0 31:0 32:0 
0.0037984079399408892 0:0 1:1 2:0 3:0 4:0 5:1 6:0 7:1 8:208 9:9518 10:1 11:0 12:0 13:0 14:1 15:1 16:0 17:0 18:0 19:0 20:1 21:0 22:0 23:66 24:255 25:1 26:0 27:0.02 28:0.01 29:0 30:0 31:0 32:0 
0.02597839141578244 0:0 1:1 2:0 3:0 4:0 5:1 6:0 7:1 8:148 9:13023 10:1 11:0 12:0 13:0 14:2 15:30 16:0.5 17:0.03 18:0 19:0 20:1 21:0 22:0.07 23:181 24:255 25:1 26:0 27:0.01 28:0.02 29:0.01 30:0.01 31:0 32:0 
0.024423098249758288 0:0 1:1 2:0 3:0 4:0 5:1 6:0 7:1 8:192 9:22691 10:1 11:0 12:0 13:0 14:1 15:1 16:0 17:0 18:0 19:0 20:1 21:0 22:0 23:90 24:255 25:1 26:0 27:0.01 28:0.02 29:0 30:0 31:0 32:0 
0.019412447305068439 0:0 1:1 2:0 3:0 4:0 5:1 6:0 7:1 8:311 9:16025 10:1 11:0 12:0 13:0 14:9 15:9 16:0 17:0 18:0 19:0 20:1 21:0 22:0 23:255 24:255 25:1 26:0 27:0 28:0 29:0 30:0 31:0 32:0 
0.014905125866796275 0:0 1:1 2:0 3:0 4:0 5:1 6:1 7:0 8:286 9:21900 10:1 11:0 12:0 13:0 14:2 15:44 16:0.5 17:0.02 18:0 19:0 20:1 21:0 22:0.07 23:255 24:255 25:1 26:0 27:0 28:0 29:0 30:0 31:0 32:0 
0.025222443427850176 0:0 1:1 2:0 3:0 4:0 5:1 6:0 7:1 8:185 9:8188 10:1 11:0 12:0 13:0 14:1 15:1 16:0 17:0 18:0 19:0 20:1 21:0 22:0 23:11 24:168 25:1 26:0 27:0.09 28:0.05 29:0 30:0 31:0 32:0 
0.028598324373119086 0:0 1:1 2:0 3:0 4:0 5:1 6:0 7:1 8:284 9:64787 10:1 11:0 12:0 13:0 14:1 15:18 16:0 17:0 18:0 19:0 20:1 21:0 22:0.11 23:255 24:255 25:1 26:0 27:0 28:0 29:0 30:0 31:0 32:0 
0.0077172380572477321 0:0 1:1 2:0 3:0 4:0 5:1 6:0 7:1 8:283 9:29165 10:1 11:0 12:0 13:0 14:4 15:4 16:0 17:0 18:0 19:0 20:1 21:0 22:0 23:15 24:255 25:1 26:0 27:0.07 28:0.05 29:0 30:0 31:0 32:0 
0.0032253483856534296 0:0 1:1 2:0 3:0 4:0 5:1 6:0 7:1 8:236 9:18275 10:1 11:0 12:0 13:0 14:17 15:17 16:0 17:0 18:0 19:0 20:1 21:0 22:0 23:255 24:255 25:1 26:0 27:0 28:0 29:0 30:0 31:0 32:0 
0.024566396448525679 0:0 1:1 2:0 3:0 4:0 5:1 6:0 7:1 8:146 9:19994 10:1 11:0 12:0 13:0 14:1 15:2 16:0 17:0 18:0 19:0 20:1 21:0 22:1 23:10 24:255 25:1 26:0 27:0.1 28:0.02 29:0 30:0 31:0 32:0 
0.025966083141774655 0:0 1:1 2:0 3:0 4:0 5:1 6:0 7:1 8:390 9:12604 10:1 11:0 12:0 13:0 14:21 15:21 16:0 17:0 18:0 19:0 20:1 21:0 22:0 23:98 24:255 25:1 26:0 27:0.01 28:0.05 29:0 30:0 31:0 32:0 
0.021278745309205795 0:0 1:1 2:0 3:0 4:0 5:1 6:0 7:1 8:148 9:22265 10:1 11:0 12:0 13:0 14:1 15:1 16:0 17:0 18:0 19:0 20:1 21:0 22:0 23:255 24:255 25:1 26:0 27:0 28:0 29:0 30:0 31:0 32:0 
0.023014163013606731 0:0 1:1 2:0 3:0 4:0 5:1 6:0 7:1 8:197 9:8346 10:1 11:0 12:0 13:0 14:4 15:44 16:0 17:0 18:0 19:0 20:1 21:0 22:0.07 23:4 24:53 25:1 26:0 27:0.25 28:0.09 29:0 30:0 31:0 32:0 
0.0075071093026267358 0:0 1:1 2:0 3:0 4:0 5:1 6:0 7:1 8:289 9:8891 10:1 11:0 12:0 13:0 14:19 15:20 16:0 17:0 18:0 19:0 20:1 21:0 22:0.1 23:255 24:255 25:1 26:0 27:0 28:0 29:0 30:0 31:0 32:0 
0.018888783663512335 0:0 1:1 2:0 3:0 4:0 5:1 6:0 7:1 8:208 9:22260 10:1 11:0 12:0 13:0 14:5 15:8 16:0 17:0 18:0 19:0 20:1 21:0 22:0.25 23:255 24:255 25:1 26:0 27:0 28:0 29:0 30:0 31:0 32:0 
0.0077922433341383757 0:0 1:1 2:0 3:0 4:0 5:1 6:0 7:1 8:329 9:12047 10:1 11:0 12:0 13:0 14:1 15:6 16:0 17:0 18:0 19:0 20:1 21:0 22:0.5 23:4 24:255 25:1 26:0 27:0.25 28:0.02 29:0 30:0 31:0 32:0 
0.024774088524370848 0:0 1:1 2:0 3:0 4:0 5:1 6:0 7:1 8:300 9:26466 10:1 11:0 12:0 13:0 14:4 15:4 16:0 17:0 18:0 19:0 20:1 21:0 22:0 23:124 24:255 25:1 26:0 27:0.01 28:0.02 29:0.02 30:0.01 31:0 32:0 
0.019443812636800881 0:0 1:1 2:0 3:0 4:0 5:1 6:0 7:1 8:184 9:24043 10:1 11:0 12:0 13:0 14:1 15:1 16:0 17:0 18:0 19:0 20:1 21:0 22:0 23:255 24:255 25:1 26:0 27:0 28:0 29:0 30:0 31:0 32:0 
0.0066538858083237638 0:0 1:1 2:0 3:0 4:0 5:1 6:0 7:1 8:221 9:37127 10:1 11:0 12:0 13:0 14:3 15:4 16:0 17:0 18:0 19:0 20:1 21:0 22:0.5 23:16 24:255 25:1 26:0 27:0.06 28:0.03 29:0 30:0 31:0 32:0 
0.016181836771061331 0:0 1:1 2:0 3:0 4:0 5:1 6:0 7:1 8:339 9:14468 10:1 11:0 12:0 13:0 14:12 15:12 16:0 17:0 18:0 19:0 20:1 21:0 22:0 23:255 24:255 25:1 26:0 27:0 28:0 29:0 30:0 31:0 32:0 
0.01364172155633009 0:0 1:1 2:0 3:0 4:0 5:1 6:0 7:1 8:216 9:25078 10:1 11:0 12:0 13:0 14:3 15:41 16:0 17:0 18:0 19:0 20:1 21:0 22:0.05 23:9 24:254 25:1 26:0 27:0.11 28:0.07 29:0 30:0 31:0 32:0 
0.0072830894717823263 0:0 1:1 2:0 3:0 4:0 5:1 6:0 7:1 8:246 9:9002 10:1 11:0 12:0 13:0 14:2 15:2 16:0 17:0 18:0 19:0 20:1 21:0 22:0 23:146 24:255 25:1 26:0 27:0.01 28:0.02 29:0 30:0 31:0 32:0 
0.027320044497689946 0:0 1:1 2:0 3:0 4:0 5:1 6:0 7:1 8:232 9:12268 10:1 11:0 12:0 13:0 14:2 15:2 16:0 17:0 18:0 19:0 20:1 21:0 22:0 23:10 24:149 25:1 26:0 27:0.1 28:0.01 29:0 30:0 31:0 32:0 
0.018824220337037401 0:0 1:1 2:0 3:0 4:0 5:1 6:0 7:1 8:184 9:23681 10:1 11:0 12:0 13:0 14:1 15:1 16:0 17:0 18:0 19:0 20:1 21:0 22:0 23:5 24:255 25:1 26:0 27:0.2 28:0.04 29:0 30:0 31:0 32:0 
0.01703299812601948 0:0 1:1 2:0 3:0 4:0 5:1 6:0 7:1 8:151 9:8719 10:1 11:0 12:0 13:0 14:1 15:1 16:0 17:0 18:0 19:0 20:1 21:0 22:0 23:255 24:255 25:1 26:0 27:0 28:0 29:0 30:0 31:0 32:0 
0.012736851246634684 0:0 1:1 2:0 3:0 4:0 5:1 6:0 7:1 8:308 9:18318 10:1 11:0 12:0 13:0 14:6 15:17 16:0 17:0 18:0 19:0 20:1 21:0 22:0.12 23:6 24:255 25:1 26:0 27:0.17 28:0.05 29:0 30:0.02 31:0 32:0 
0.02329696874019839 0:0 1:1 2:0 3:0 4:0 5:1 6:0 7:1 8:331 9:10783 10:1 11:0 12:0 13:0 14:2 15:3 16:0 17:0 18:0 19:0 20:1 21:0 22:0.67 23:56 24:64 25:1 26:0 27:0.02 28:0.05 29:0 30:0.02 31:0 32:0 
0.02193866111670905 0:0 1:1 2:0 3:0 4:0 5:1 6:1 7:0 8:313 9:21900 10:1 11:0 12:0 13:0 14:1 15:1 16:1 17:1 18:0 19:0 20:1 21:0 22:0 23:177 24:255 25:1 26:0 27:0.01 28:0.01 29:0.02 30:0.01 31:0.01 32:0 
0.0085316305615315835 0:0 1:1 2:0 3:0 4:0 5:1 6:0 7:1 8:264 9:13096 10:1 11:0 12:0 13:0 14:1 15:1 16:0 17:0 18:0 19:0 20:1 21:0 22:0 23:255 24:234 25:0.92 26:0.02 27:0 28:0 29:0 30:0 31:0 32:0 
0.010762720093735911 0:0 1:1 2:0 3:0 4:0 5:1 6:0 7:1 8:249 9:12405 10:1 11:0 12:0 13:0 14:10 15:11 16:0 17:0 18:0 19:0 20:1 21:0 22:0.18 23:171 24:255 25:1 26:0 27:0.01 28:0.02 29:0 30:0 31:0 32:0 
0.012961979402222724 0:0 1:1 2:0 3:0 4:0 5:1 6:0 7:1 8:203 9:56215 10:1 11:0 12:0 13:0 14:1 15:1 16:0 17:0 18:0 19:0 20:1 21:0 22:0 23:7 24:255 25:1 26:0 27:0.14 28:0.08 29:0 30:0 31:0 32:0 
0.020337110409971756 0:0 1:1 2:0 3:0 4:0 5:1 6:0 7:1 8:354 9:9059 10:1 11:0 12:0 13:0 14:15 15:21 16:0 17:0 18:0 19:0 20:1 21:0 22:0.14 23:179 24:255 25:1 26:0 27:0.01 28:0.03 29:0 30:0 31:0 32:0 
0.027943975329734153 0:0 1:1 2:0 3:0 4:0 5:1 6:0 7:1 8:321 9:14779 10:1 11:0 12:0 13:0 14:4 15:4 16:0 17:0 18:0 19:0 20:1 21:0 22:0 23:37 24:135 25:1 26:0 27:0.03 28:0.01 29:0 30:0 31:0 32:0 
0.012107011318805764 0:0 1:1 2:0 3:0 4:0 5:1 6:0 7:1 8:336 9:13637 10:1 11:0 12:0 13:0 14:1 15:1 16:0 17:0 18:0 19:0 20:1 21:0 22:0 23:7 24:255 25:1 26:0 27:0.14 28:0.04 29:0 30:0 31:0 32:0 
0.026097825158291687 0:0 1:1 2:0 3:0 4:0 5:1 6:0 7:1 8:268 9:9822 10:1 11:0 12:0 13:0 14:3 15:3 16:0 17:0 18:0 19:0 20:1 21:0 22:0 23:11 24:162 25:1 26:0 27:0.09 28:0.03 29:0 30:0 31:0 32:0 
0.019973846027158584 0:0 1:1 2:0 3:0 4:0 5:1 6:0 7:1 8:302 9:18308 10:1 11:0 12:0 13:0 14:2 15:2 16:0 17:0 18:0 19:0 20:1 21:0 22:0 23:127 24:255 25:1 26:0 27:0.01 28:0.01 29:0 30:0 31:0 32:0 
0.017677515186051578 0:0 1:1 2:0 3:0 4:0 5:1 6:0 7:1 8:305 9:22158 10:1 11:0 12:0 13:0 14:2 15:2 16:0 17:0 18:0 19:0 20:1 21:0 22:0 23:129 24:255 25:1 26:0 27:0.01 28:0.03 29:0.01 30:0 31:0 32:0 
0.017995509696859896 0:0 1:1 2:0 3:0 4:0 5:1 6:0 7:1 8:150 9:12632 10:1 11:0 12:0 13:0 14:1 15:2 16:0 17:0 18:0 19:0 20:1 21:0 22:1 23:210 24:255 25:1 26:0 27:0 28:0.01 29:0 30:0 31:0 32:0 
0.017784478519712307 0:0 1:1 2:0 3:0 4:0 5:1 6:0 7:1 8:224 9:61552 10:1 11:0 12:0 13:0 14:14 15:14 16:0 17:0 18:0 19:0 20:1 21:0 22:0 23:14 24:250 25:1 26:0 27:0.07 28:0.03 29:0 30:0 31:0 32:0 
0.0019418593274665805 0:0 1:1 2:0 3:0 4:0 5:1 6:0 7:1 8:338 9:11271 10:1 11:0 12:0 13:0 14:2 15:2 16:0 17:0 18:0 19:0 20:1 21:0 22:0 23:2 24:255 25:1 26:0 27:0.5 28:0.07 29:0 30:0 31:0 32:0 
0.004220053753411928 0:0 1:1 2:0 3:0 4:0 5:1 6:0 7:1 8:286 9:9133 10:1 11:0 12:0 13:0 14:20 15:20 16:0 17:0 18:0 19:0 20:1 21:0 22:0 23:62 24:255 25:1 26:0 27:0.02 28:0.05 29:0 30:0 31:0 32:0 
0.010253650906227242 0:0 1:1 2:0 3:0 4:0 5:1 6:1 7:0 8:174 9:10220 10:1 11:0 12:0 13:0 14:3 15:8 16:0.33 17:0.12 18:0 19:0 20:1 21:0 22:0.25 23:255 24:255 25:1 26:0 27:0 28:0 29:0.01 30:0.01 31:0 32:0 
0.012862455380496176 0:0 1:1 2:0 3:0 4:0 5:1 6:0 7:1 8:163 9:35147 10:1 11:0 12:0 13:0 14:1 15:1 16:0 17:0 18:0 19:0 20:1 21:0 22:0 23:202 24:255 25:1 26:0 27:0 28:0.01 29:0 30:0 31:0 32:0 
0.012404087094284597 0:0 1:1 2:0 3:0 4:0 5:1 6:0 7:1 8:144 9:9813 10:1 11:0 12:0 13:0 14:17 15:17 16:0 17:0 18:0 19:0 20:1 21:0 22:0 23:42 24:255 25:1 26:0 27:0.02 28:0.04 29:0 30:0 31:0 32:0 
0.01619182825395913 0:0 1:1 2:0 3:0 4:0 5:1 6:0 7:1 8:153 9:8386 10:1 11:0 12:0 13:0 14:1 15:1 16:0 17:0 18:0 19:0 20:1 21:0 22:0 23:255 24:255 25:1 26:0 27:0 28:0 29:0 30:0 31:0 32:0 
0.019265673455287805 0:0 1:1 2:0 3:0 4:0 5:1 6:0 7:1 8:341 9:8134 10:1 11:0 12:0 13:0 14:10 15:12 16:0 17:0 18:0 19:0 20:1 21:0 22:0.25 23:166 24:255 25:1 26:0 27:0.01 28:0.02 29:0 30:0 31:0 32:0 
0.019771986466606301 0:0 1:1 2:0 3:0 4:0 5:1 6:0 7:1 8:191 9:17975 10:1 11:0 12:0 13:0 14:1 15:1 16:0 17:0 18:0 19:0 20:1 21:0 22:0 23:10 24:207 25:1 26:0 27:0.1 28:0.03 29:0 30:0.01 31:0 32:0 
0.0098764300369040513 0:0 1:1 2:0 3:0 4:0 5:1 6:0 7:1 8:277 9:21067 10:1 11:0 12:0 13:0 14:1 15:1 16:0 17:0 18:0 19:0 20:1 21:0 22:0 23:23 24:255 25:1 26:0 27:0.04 28:0.03 29:0 30:0 31:0 32:0 
0.0083761789076596278 0:0 1:1 2:0 3:0 4:0 5:1 6:0 7:1 8:338 9:10111 10:1 11:0 12:0 13:0 14:1 15:1 16:0 17:0 18:0 19:0 20:1 21:0 22:0 23:4 24:255 25:1 26:0 27:0.25 28:0.03 29:0 30:0 31:0 32:0 
0.020691474844223023 0:0 1:1 2:0 3:0 4:0 5:1 6:0 7:1 8:313 9:14073 10:1 11:0 12:0 13:0 14:8 15:10 16:0 17:0 18:0 19:0 20:1 21:0 22:0.3 23:8 24:209 25:1 26:0 27:0.12 28:0.01 29:0 30:0 31:0 32:0 
0.01762589380315176 0:0 1:1 2:0 3:0 4:0 5:1 6:0 7:1 8:241 9:39228 10:1 11:0 12:0 13:0 14:1 15:4 16:0 17:0 18:0 19:0 20:1 21:0 22:1 23:27 24:255 25:1 26:0 27:0.04 28:0.02 29:0 30:0 31:0 32:0 
0.0067268912968382454 0:0 1:1 2:0 3:0 4:0 5:1 6:0 7:1 8:264 9:9819 10:1 11:0 12:0 13:0 14:7 15:9 16:0 17:0 18:0 19:0 20:1 21:0 22:0.22 23:9 24:255 25:1 26:0 27:0.11 28:0.01 29:0 30:0 31:0 32:0 
0.00065069345752686377 0:0 1:1 2:0 3:0 4:0 5:1 6:0 7:1 8:200 9:8585 10:1 11:0 12:0 13:0 14:5 15:5 16:0 17:0 18:0 19:0 20:1 21:0 22:0 23:55 24:255 25:1 26:0 27:0.02 28:0.04 29:0 30:0 31:0 32:0 
0.025681709433057691 0:0 1:1 2:0 3:0 4:0 5:1 6:0 7:1 8:210 9:28076 10:1 11:0 12:0 13:0 14:8 15:8 16:0 17:0 18:0 19:0 20:1 21:0 22:0 23:191 24:255 25:1 26:0 27:0.01 28:0.01 29:0 30:0 31:0 32:0 
0.010233578608764764 0:0 1:1 2:0 3:0 4:0 5:1 6:0 7:1 8:194 9:17192 10:1 11:0 12:0 13:0 14:1 15:1 16:0 17:0 18:0 19:0 20:1 21:0 22:0 23:26 24:255 25:1 26:0 27:0.04 28:0.07 29:0.04 30:0.01 31:0 32:0 
0.019441495219861424 0:0 1:1 2:0 3:0 4:0 5:1 6:0 7:1 8:146 9:30328 10:1 11:0 12:0 13:0 14:16 15:47 16:0 17:0 18:0 19:0 20:1 21:0 22:0.04 23:255 24:255 25:1 26:0 27:0 28:0 29:0 30:0 31:0 32:0 
0.0056020960595879622 0:0 1:1 2:0 3:0 4:0 5:1 6:0 7:1 8:192 9:10723 10:1 11:0 12:0 13:0 14:3 15:3 16:0 17:0 18:0 19:0 20:1 21:0 22:0 23:3 24:255 25:1 26:0 27:0.33 28:0.02 29:0 30:0 31:0 32:0 
0.019133541267750277 0:0 1:1 2:0 3:0 4:0 5:1 6:0 7:1 8:148 9:35147 10:1 11:0 12:0 13:0 14:1 15:1 16:0 17:0 18:0 19:0 20:1 21:0 22:0 23:115 24:255 25:1 26:0 27:0.01 28:0.05 29:0 30:0 31:0 32:0 
0.024919792876925563 0:0 1:1 2:0 3:0 4:0 5:1 6:0 7:1 8:274 9:10063 10:1 11:0 12:0 13:0 14:7 15:7 16:0 17:0 18:0 19:0 20:1 21:0 22:0 23:15 24:162 25:1 26:0 27:0.07 28:0.03 29:0 30:0 31:0 32:0 
0.010093792818039755 0:0 1:1 2:0 3:0 4:0 5:1 6:0 7:1 8:258 9:8134 10:1 11:0 12:0 13:0 14:6 15:6 16:0 17:0 18:0 19:0 20:1 21:0 22:0 23:255 24:255 25:1 26:0 27:0 28:0 29:0 30:0 31:0 32:0 
0.016879467285242887 0:0 1:1 2:0 3:0 4:0 5:1 6:0 7:1 8:323 9:11111 10:1 11:0 12:0 13:0 14:3 15:3 16:0 17:0 18:0 19:0 20:1 21:0 22:0 23:255 24:255 25:1 26:0 27:0 28:0 29:0 30:0 31:0 32:0 
0.013767837473591376 0:0 1:1 2:0 3:0 4:0 5:1 6:0 7:1 8:251 9:15764 10:1 11:0 12:0 13:0 14:1 15:3 16:0 17:0 18:0 19:0 20:1 21:0 22:1 23:28 24:255 25:1 26:0 27:0.04 28:0.01 29:0 30:0 31:0 32:0 
0.014997125674668649 0:0 1:1 2:0 3:0 4:0 5:1 6:0 7:1 8:143 9:51823 10:1 11:0 12:0 13:0 14:1 15:8 16:0 17:0 18:0 19:0 20:1 21:0 22:0.38 23:255 24:255 25:1 26:0 27:0 28:0 29:0 30:0 31:0 32:0 
0.02025176667234798 0:0 1:1 2:0 3:0 4:0 5:1 6:0 7:1 8:171 9:12324 10:1 11:0 12:0 13:0 14:8 15:8 16:0 17:0 18:0 19:0 20:1 21:0 22:0 23:178 24:255 25:1 26:0 27:0.01 28:0.01 29:0 30:0 31:0 32:0 
0.009603246743378863 0:0 1:1 2:0 3:0 4:0 5:1 6:0 7:1 8:341 9:11399 10:1 11:0 12:0 13:0 14:16 15:24 16:0 17:0 18:0 19:0 20:1 21:0 22:0.25 23:255 24:255 25:1 26:0 27:0.01 28:0 29:0 30:0 31:0 32:0 
0.016534668725563653 0:0 1:1 2:0 3:0 4:0 5:1 6:0 7:1 8:222 9:21953 10:1 11:0 12:0 13:0 14:5 15:9 16:0 17:0 18:0 19:0 20:1 21:0 22:0.22 23:255 24:255 25:1 26:0 27:0 28:0 29:0 30:0 31:0 32:0 
0.006549643542392773 0:0 1:1 2:0 3:0 4:0 5:1 6:0 7:1 8:220 9:9768 10:1 11:0 12:0 13:0 14:14 15:16 16:0 17:0 18:0 19:0 20:1 21:0 22:0.12 23:79 24:255 25:1 26:0 27:0.01 28:0.09 29:0 30:0 31:0 32:0 
0.0012110709353522139 0:0 1:1 2:0 3:0 4:0 5:1 6:0 7:1 8:264 9:18275 10:1 11:0 12:0 13:0 14:1 15:1 16:0 17:0 18:0 19:0 20:1 21:0 22:0 23:255 24:255 25:1 26:0 27:0 28:0 29:0 30:0 31:0 32:0 
0.0081224889250574462 0:0 1:1 2:0 3:0 4:0 5:1 6:0 7:1 8:249 9:10421 10:1 11:0 12:0 13:0 14:1 15:1 16:0 17:0 18:0 19:0 20:1 21:0 22:0 23:3 24:255 25:1 26:0 27:0.33 28:0.02 29:0 30:0 31:0 32:0 
0.014594209908349655 0:0 1:1 2:0 3:0 4:0 5:1 6:0 7:1 8:302 9:13144 10:1 11:0 12:0 13:0 14:4 15:4 16:0 17:0 18:0 19:0 20:1 21:0 22:0 23:101 24:255 25:1 26:0 27:0.01 28:0.04 29:0 30:0 31:0 32:0 
0.009903266174845252 0:0 1:1 2:0 3:0 4:0 5:1 6:0 7:1 8:268 9:13560 10:1 11:0 12:0 13:0 14:8 15:8 16:0 17:0 18:0 19:0 20:1 21:0 22:0 23:255 24:255 25:1 26:0 27:0 28:0 29:0 30:0 31:0 32:0 
0.0047910895286467315 0:0 1:1 2:0 3:0 4:0 5:1 6:0 7:1 8:184 9:15646 10:1 11:0 12:0 13:0 14:9 15:9 16:0 17:0 18:0 19:0 20:1 21:0 22:0 23:255 24:253 25:0.99 26:0.01 27:0 28:0 29:0 30:0 31:0 32:0 
0.024161623929099312 0:0 1:1 2:0 3:0 4:0 5:1 6:0 7:1 8:207 9:50694 10:1 11:0 12:0 13:0 14:7 15:7 16:0 17:0 18:0 19:0 20:1 21:0 22:0 23:7 24:255 25:1 26:0 27:0.14 28:0.05 29:0 30:0 31:0 32:0 
0.0052653693565271912 0:0 1:1 2:0 3:0 4:0 5:1 6:0 7:1 8:205 9:8892 10:1 11:0 12:0 13:0 14:2 15:2 16:0.5 17:0.5 18:0 19:0 20:1 21:0 22:0 23:88 24:255 25:1 26:0 27:0.01 28:0.02 29:0.01 30:0.01 31:0 32:0 
0.0060145175866667608 0:0 1:1 2:0 3:0 4:0 5:1 6:0 7:1 8:316 9:11415 10:1 11:0 12:0 13:0 14:13 15:14 16:0 17:0 18:0 19:0 20:1 21:0 22:0.14 23:255 24:255 25:1 26:0 27:0 28:0 29:0 30:0 31:0 32:0 
0.00070244364601828159 0:0 1:1 2:0 3:0 4:0 5:1 6:0 7:1 8:329 9:12605 10:1 11:0 12:0 13:0 14:13 15:16 16:0 17:0 18:0 19:0 20:1 21:0 22:0.12 23:86 24:255 25:1 26:0 27:0.01 28:0.05 29:0 30:0 31:0 32:0 
0.012516496418538459 0:0 1:1 2:0 3:0 4:0 5:1 6:0 7:1 8:146 9:30113 10:1 11:0 12:0 13:0 14:12 15:12 16:0 17:0 18:0 19:0 20:1 21:0 22:0 23:255 24:255 25:1 26:0 27:0 28:0 29:0 30:0 31:0 32:0 
0.010999595801930724 0:0 1:1 2:0 3:0 4:0 5:1 6:0 7:1 8:223 9:10928 10:1 11:0 12:0 13:0 14:1 15:5 16:0 17:0 18:0 19:0 20:1 21:0 22:0.4 23:2 24:255 25:1 26:0 27:0.5 28:0.03 29:0 30:0 31:0 32:0 
0.021807413420463169 0:0 1:1 2:0 3:0 4:0 5:1 6:0 7:1 8:178 9:15764 10:1 11:0 12:0 13:0 14:1 15:6 16:0 17:0 18:0 19:0 20:1 21:0 22:0.33 23:6 24:255 25:1 26:0 27:0.17 28:0.01 29:0 30:0 31:0 32:0 
0.0010884627838126033 0:0 1:1 2:0 3:0 4:0 5:1 6:0 7:1 8:214 9:12922 10:1 11:0 12:0 13:0 14:14 15:34 16:0 17:0 18:0 19:0 20:1 21:0 22:0.09 23:136 24:255 25:1 26:0 27:0.01 28:0.04 29:0 30:0 31:0 32:0 
0.02477988732880471 0:0 1:1 2:0 3:0 4:0 5:1 6:0 7:1 8:236 9:34500 10:1 11:0 12:0 13:0 14:1 15:1 16:0 17:0 18:0 19:0 20:1 21:0 22:0 23:107 24:255 25:1 26:0 27:0.01 28:0.01 29:0 30:0 31:0 32:0 
0.010092541072238075 0:0 1:1 2:0 3:0 4:0 5:1 6:0 7:1 8:303 9:15511 10:1 11:0 12:0 13:0 14:9 15:9 16:0 17:0 18:0 19:0 20:1 21:0 22:0 23:255 24:255 25:1 26:0 27:0 28:0 29:0 30:0 31:0 32:0 
0.02408542825872121 0:0 1:1 2:0 3:0 4:0 5:1 6:0 7:1 8:142 9:13258 10:1 11:0 12:0 13:0 14:13 15:15 16:0 17:0 18:0 19:0 20:1 21:0 22:0.13 23:13 24:255 25:1 26:0 27:0.08 28:0.03 29:0 30:0 31:0 32:0 
0.024792605094095456 0:0 1:1 2:0 3:0 4:0 5:1 6:0 7:1 8:149 9:32301 10:1 11:0 12:0 13:0 14:2 15:9 16:0 17:0 18:0 19:0 20:1 21:0 22:0.33 23:117 24:255 25:1 26:0 27:0.01 28:0.01 29:0 30:0 31:0 32:0 
0.016702226835871022 0:0 1:1 2:0 3:0 4:0 5:1 6:0 7:1 8:185 9:19807 10:1 11:0 12:0 13:0 14:1 15:1 16:0 17:0 18:0 19:0 20:1 21:0 22:0 23:255 24:255 25:1 26:0 27:0 28:0 29:0 30:0 31:0 32:0 
0.0062130416907363812 0:0 1:1 2:0 3:0 4:0 5:1 6:0 7:1 8:219 9:14183 10:1 11:0 12:0 13:0 14:1 15:10 16:0 17:0 18:0 19:0 20:1 21:0 22:0.6 23:255 24:255 25:1 26:0 27:0.01 28:0 29:0 30:0 31:0 32:0 
0.024021123775518828 0:0 1:1 2:0 3:0 4:0 5:1 6:0 7:1 8:300 9:17287 10:1 11:0 12:0 13:0 14:2 15:2 16:0 17:0 18:0 19:0 20:1 21:0 22:0 23:72 24:255 25:1 26:0 27:0.01 28:0.05 29:0 30:0 31:0 32:0 
0.014763272207755758 0:0 1:1 2:0 3:0 4:0 5:1 6:0 7:1 8:350 9:14276 10:1 11:0 12:0 13:0 14:8 15:12 16:0 17:0 18:0 19:0 20:1 21:0 22:0.17 23:52 24:255 25:1 26:0 27:0.02 28:0.03 29:0 30:0 31:0 32:0 
0.016548266748456053 0:0 1:1 2:0 3:0 4:0 5:1 6:0 7:1 8:237 9:17177 10:1 11:0 12:0 13:0 14:3 15:4 16:0 17:0 18:0 19:0 20:1 21:0 22:0.5 23:255 24:255 25:1 26:0 27:0 28:0 29:0 30:0 31:0 32:0 
0.016714259086922718 0:0 1:1 2:0 3:0 4:0 5:1 6:0 7:1 8:200 9:8491 10:1 11:0 12:0 13:0 14:3 15:6 16:0 17:0 18:0 19:0 20:1 21:0 22:0.5 23:5 24:143 25:1 26:0 27:0.2 28:0.03 29:0 30:0 31:0 32:0 
0.022030602859363417 0:0 1:1 2:0 3:0 4:0 5:1 6:0 7:1 8:332 9:29468 10:1 11:0 12:0 13:0 14:1 15:1 16:0 17:0 18:0 19:0 20:1 21:0 22:0 23:10 24:201 25:1 26:0 27:0.1 28:0.05 29:0 30:0 31:0 32:0 
0.012555496981481713 0:0 1:1 2:0 3:0 4:0 5:1 6:0 7:1 8:299 9:11783 10:1 11:0 12:0 13:0 14:22 15:22 16:0 17:0 18:0 19:0 20:1 21:0 22:0 23:182 24:255 25:1 26:0 27:0.01 28:0.01 29:0 30:0 31:0 32:0 
0.0018265148315630478 0:0 1:1 2:0 3:0 4:0 5:1 6:0 7:1 8:321 9:14962 10:1 11:0 12:0 13:0 14:8 15:8 16:0 17:0 18:0 19:0 20:1 21:0 22:0 23:255 24:255 25:1 26:0 27:0 28:0 29:0 30:0 31:0 32:0 
0.01530000676928114 0:0 1:1 2:0 3:0 4:0 5:1 6:0 7:1 8:215 9:16372 10:1 11:0 12:0 13:0 14:2 15:2 16:0 17:0 18:0 19:0 20:1 21:0 22:0 23:58 24:255 25:1 26:0 27:0.02 28:0.04 29:0 30:0 31:0 32:0 
0.026817116445981181 0:0 1:1 2:0 3:0 4:0 5:1 6:0 7:1 8:144 9:37654 10:1 11:0 12:0 13:0 14:1 15:1 16:0 17:0 18:0 19:0 20:1 21:0 22:0 23:255 24:255 25:1 26:0 27:0 28:0 29:0 30:0 31:0 32:0 
0.0043942667638238678 0:0 1:1 2:0 3:0 4:0 5:1 6:0 7:1 8:226 9:9703 10:1 11:0 12:0 13:0 14:11 15:31 16:0 17:0 18:0 19:0 20:1 21:0 22:0.06 23:255 24:255 25:1 26:0 27:0 28:0 29:0 30:0 31:0 32:0 
0.0030164235252184918 0:0 1:1 2:0 3:0 4:0 5:1 6:1 7:0 8:209 9:10110 10:1 11:0 12:0 13:0 14:2 15:4 16:0.5 17:0.25 18:0 19:0 20:1 21:0 22:0.5 23:2 24:255 25:1 26:0 27:0.5 28:0.08 29:0.5 30:0.01 31:0 32:0 
0.0016237951618779519 0:0 1:1 2:0 3:0 4:0 5:1 6:0 7:1 8:284 9:9418 10:1 11:0 12:0 13:0 14:11 15:11 16:0 17:0 18:0 19:0 20:1 21:0 22:0 23:199 24:255 25:1 26:0 27:0.01 28:0.01 29:0 30:0 31:0 32:0 
0.0046622677319346764 0:0 1:1 2:0 3:0 4:0 5:1 6:0 7:1 8:218 9:8663 10:1 11:0 12:0 13:0 14:1 15:8 16:0 17:0 18:0 19:0 20:1 21:0 22:0.25 23:190 24:255 25:1 26:0 27:0.01 28:0.04 29:0 30:0 31:0 32:0 
0.028241637640012116 0:0 1:1 2:0 3:0 4:0 5:1 6:0 7:1 8:324 9:57408 10:1 11:0 12:0 13:0 14:21 15:21 16:0 17:0 18:0 19:0 20:1 21:0 22:0 23:21 24:255 25:1 26:0 27:0.05 28:0.09 29:0 30:0.01 31:0 32:0 
0.0058117420488782061 0:0 1:1 2:0 3:0 4:0 5:1 6:0 7:1 8:230 9:10828 10:1 11:0 12:0 13:0 14:4 15:43 16:0 17:0 18:0 19:0 20:1 21:0 22:0.14 23:18 24:255 25:1 26:0 27:0.06 28:0.06 29:0 30:0 31:0 32:0 
0.022899451218756976 0:0 1:1 2:0 3:0 4:0 5:1 6:0 7:1 8:164 9:14875 10:1 11:0 12:0 13:0 14:25 15:29 16:0 17:0 18:0 19:0 20:1 21:0 22:0.14 23:255 24:255 25:1 26:0 27:0 28:0 29:0 30:0 31:0 32:0 
0.012417855562655938 0:0 1:1 2:0 3:0 4:0 5:1 6:0 7:1 8:196 9:25519 10:1 11:0 12:0 13:0 14:2 15:2 16:0 17:0 18:0 19:0 20:1 21:0 22:0 23:192 24:255 25:1 26:0 27:0.01 28:0.02 29:0 30:0 31:0 32:0 
0.020398510621298452 0:0 1:1 2:0 3:0 4:0 5:1 6:0 7:1 8:213 9:27544 10:1 11:0 12:0 13:0 14:43 15:47 16:0 17:0 18:0 19:0 20:1 21:0 22:0.06 23:252 24:255 25:1 26:0 27:0 28:0.01 29:0 30:0 31:0 32:0 
0.0049379534015443144 0:0 1:1 2:0 3:0 4:0 5:1 6:0 7:1 8:157 9:18961 10:1 11:0 12:0 13:0 14:4 15:4 16:0 17:0 18:0 19:0 20:1 21:0 22:0 23:92 24:255 25:1 26:0 27:0.01 28:0.04 29:0 30:0 31:0 32:0 
0.013048980997545097 0:0 1:1 2:0 3:0 4:0 5:1 6:0 7:1 8:313 9:11759 10:1 11:0 12:0 13:0 14:3 15:3 16:0 17:0 18:0 19:0 20:1 21:0 22:0 23:6 24:255 25:1 26:0 27:0.17 28:0.02 29:0 30:0 31:0 32:0 
0.013453521774052936 0:0 1:1 2:0 3:0 4:0 5:1 6:0 7:1 8:289 9:15252 10:1 11:0 12:0 13:0 14:7 15:7 16:0 17:0 18:0 19:0 20:1 21:0 22:0 23:255 24:255 25:1 26:0 27:0 28:0 29:0 30:0 31:0 32:0 
0.013935795904431159 0:0 1:1 2:0 3:0 4:0 5:1 6:0 7:1 8:150 9:11802 10:1 11:0 12:0 13:0 14:1 15:1 16:0 17:0 18:0 19:0 20:1 21:0 22:0 23:31 24:255 25:1 26:0 27:0.03 28:0.04 29:0 30:0 31:0 32:0 
0.028573023162537355 0:0 1:1 2:0 3:0 4:0 5:1 6:0 7:1 8:299 9:72748 10:1 11:0 12:0 13:0 14:14 15:15 16:0 17:0 18:0 19:0 20:1 21:0 22:0.13 23:47 24:255 25:1 26:0 27:0.02 28:0.02 29:0 30:0 31:0 32:0 
0.024021192796394624 0:0 1:1 2:0 3:0 4:0 5:1 6:0 7:1 8:196 9:18700 10:1 11:0 12:0 13:0 14:38 15:41 16:0 17:0 18:0 19:0 20:1 21:0 22:0.07 23:118 24:255 25:1 26:0 27:0.01 28:0.01 29:0 30:0 31:0 32:0 
0.021393880026358673 0:0 1:1 2:0 3:0 4:0 5:1 6:0 7:1 8:227 9:24786 10:1 11:0 12:0 13:0 14:17 15:17 16:0 17:0 18:0 19:0 20:1 21:0 22:0 23:154 24:255 25:1 26:0 27:0.01 28:0.01 29:0 30:0 31:0 32:0 
0.0042983779519100013 0:0 1:1 2:0 3:0 4:0 5:1 6:0 7:1 8:272 9:11744 10:1 11:0 12:0 13:0 14:1 15:1 16:0 17:0 18:0 19:0 20:1 21:0 22:0 23:255 24:255 25:1 26:0 27:0 28:0 29:0.01 30:0.01 31:0 32:0 
0.0059648324481071675 0:0 1:1 2:0 3:0 4:0 5:1 6:0 7:1 8:247 9:10366 10:1 11:0 12:0 13:0 14:2 15:2 16:0 17:0 18:0 19:0 20:1 21:0 22:0 23:125 24:255 25:1 26:0 27:0.01 28:0.05 29:0 30:0 31:0 32:0 
0.0057540386804278872 0:0 1:1 2:0 3:0 4:0 5:1 6:0 7:1 8:337 9:10541 10:1 11:0 12:0 13:0 14:14 15:14 16:0 17:0 18:0 19:0 20:1 21:0 22:0 23:35 24:255 25:1 26:0 27:0.03 28:0.04 29:0 30:0 31:0 32:0 
0.0020764666447177244 0:0 1:1 2:0 3:0 4:0 5:1 6:0 7:1 8:236 9:9142 10:1 11:0 12:0 13:0 14:12 15:12 16:0 17:0 18:0 19:0 20:1 21:0 22:0 23:255 24:255 25:1 26:0 27:0 28:0 29:0 30:0 31:0 32:0 
0.014634882008336542 0:0 1:1 2:0 3:0 4:0 5:1 6:0 7:1 8:190 9:14358 10:1 11:0 12:0 13:0 14:19 15:20 16:0 17:0 18:0 19:0 20:1 21:0 22:0.1 23:19 24:255 25:1 26:0 27:0.05 28:0.01 29:0 30:0 31:0 32:0 
0.016983607770303208 0:0 1:1 2:0 3:0 4:0 5:1 6:0 7:1 8:328 9:16319 10:1 11:0 12:0 13:0 14:6 15:8 16:0 17:0 18:0 19:0 20:1 21:0 22:0.38 23:255 24:255 25:1 26:0 27:0 28:0 29:0 30:0 31:0 32:0 
0.009174504249174013 0:0 1:1 2:0 3:0 4:0 5:1 6:0 7:1 8:238 9:9257 10:1 11:0 12:0 13:0 14:18 15:44 16:0 17:0 18:0 19:0 20:1 21:0 22:0.09 23:255 24:255 25:1 26:0 27:0 28:0 29:0 30:0 31:0 32:0 
0.0090770089873979908 0:0 1:1 2:0 3:0 4:0 5:1 6:0 7:1 8:215 9:12884 10:1 11:0 12:0 13:0 14:1 15:1 16:0 17:0 18:0 19:0 20:1 21:0 22:0 23:147 24:224 25:1 26:0 27:0.01 28:0.01 29:0 30:0 31:0 32:0 
0.015223974743804533 0:0 1:1 2:0 3:0 4:0 5:1 6:0 7:1 8:332 9:12343 10:1 11:0 12:0 13:0 14:3 15:3 16:0 17:0 18:0 19:0 20:1 21:0 22:0 23:72 24:255 25:1 26:0 27:0.01 28:0.02 29:0 30:0 31:0 32:0 
0.0028265379892017939 0:0 1:1 2:0 3:0 4:0 5:1 6:0 7:1 8:289 9:10913 10:1 11:0 12:0 13:0 14:16 15:16 16:0 17:0 18:0 19:0 20:1 21:0 22:0 23:16 24:255 25:1 26:0 27:0.06 28:0.01 29:0 30:0 31:0 32:0 
0.018857873218729275 0:0 1:1 2:0 3:0 4:0 5:1 6:0 7:1 8:339 9:19790 10:1 11:0 12:0 13:0 14:2 15:14 16:0 17:0 18:0 19:0 20:1 21:0 22:0.14 23:62 24:255 25:1 26:0 27:0.02 28:0.03 29:0 30:0 31:0 32:0 
0.01872176170433602 0:0 1:1 2:0 3:0 4:0 5:1 6:0 7:1 8:304 9:30973 10:1 11:0 12:0 13:0 14:4 15:4 16:0 17:0 18:0 19:0 20:1 21:0 22:0 23:51 24:255 25:1 26:0 27:0.02 28:0.05 29:0 30:0 31:0 32:0 
0.021321347971942739 0:0 1:1 2:0 3:0 4:0 5:1 6:0 7:1 8:213 9:20669 10:1 11:0 12:0 13:0 14:1 15:3 16:0 17:0 18:0 19:0 20:1 21:0 22:0.67 23:2 24:255 25:1 26:0 27:0.5 28:0.03 29:0 30:0 31:0 32:0 
0.019688615872638801 0:0 1:1 2:0 3:0 4:0 5:1 6:0 7:1 8:187 9:14664 10:1 11:0 12:0 13:0 14:1 15:1 16:0 17:0 18:0 19:0 20:1 21:0 22:0 23:255 24:255 25:1 26:0 27:0 28:0 29:0 30:0 31:0 32:0 
0.00071919198718820541 0:0 1:1 2:0 3:0 4:0 5:1 6:0 7:1 8:167 9:8159 10:1 11:0 12:0 13:0 14:1 15:2 16:0 17:0 18:0 19:0 20:1 21:0 22:1 23:85 24:255 25:1 26:0 27:0.01 28:0.02 29:0 30:0 31:0 32:0 
0.025118508279863075 0:0 1:1 2:0 3:0 4:0 5:1 6:0 7:1 8:162 9:37895 10:1 11:0 12:0 13:0 14:1 15:1 16:0 17:0 18:0 19:0 20:1 21:0 22:0 23:239 24:255 25:1 26:0 27:0 28:0.01 29:0 30:0 31:0 32:0 
0.0026567623588263575 0:0 1:1 2:0 3:0 4:0 5:1 6:0 7:1 8:413 9:8801 10:1 11:0 12:0 13:0 14:17 15:17 16:0 17:0 18:0 19:0 20:1 21:0 22:0 23:255 24:255 25:1 26:0 27:0 28:0 29:0 30:0 31:0 32:0 
0.0056607525645676338 0:0 1:1 2:0 3:0 4:0 5:1 6:0 7:1 8:292 9:23238 10:1 11:0 12:0 13:0 14:11 15:12 16:0 17:0 18:0 19:0 20:1 21:0 22:0.17 23:241 24:255 25:1 26:0 27:0 28:0.02 29:0 30:0 31:0 32:0 
0.0099924873572600544 0:0 1:1 2:0 3:0 4:0 5:1 6:0 7:1 8:232 9:9533 10:1 11:0 12:0 13:0 14:2 15:11 16:0 17:0 18:0 19:0 20:1 21:0 22:0.18 23:255 24:255 25:1 26:0 27:0 28:0 29:0 30:0 31:0 32:0 
0.015704445890892434 0:0 1:1 2:0 3:0 4:0 5:1 6:0 7:1 8:343 9:16123 10:1 11:0 12:0 13:0 14:5 15:5 16:0 17:0 18:0 19:0 20:1 21:0 22:0 23:39 24:255 25:1 26:0 27:0.03 28:0.03 29:0 30:0 31:0 32:0 
0.013620848619802594 0:0 1:1 2:0 3:0 4:0 5:1 6:0 7:1 8:350 9:13336 10:1 11:0 12:0 13:0 14:12 15:12 16:0 17:0 18:0 19:0 20:1 21:0 22:0 23:34 24:255 25:1 26:0 27:0.03 28:0.03 29:0 30:0 31:0 32:0 
0.010227433613121653 0:0 1:1 2:0 3:0 4:0 5:1 6:0 7:1 8:285 9:32099 10:1 11:0 12:0 13:0 14:11 15:11 16:0 17:0 18:0 19:0 20:1 21:0 22:0 23:80 24:255 25:1 26:0 27:0.01 28:0.07 29:0 30:0 31:0 32:0 
0.026589386932682445 0:0 1:1 2:0 3:0 4:0 5:1 6:0 7:1 8:287 9:39431 10:1 11:0 12:0 13:0 14:4 15:4 16:0 17:0 18:0 19:0 20:1 21:0 22:0 23:9 24:255 25:1 26:0 27:0.11 28:0.01 29:0 30:0 31:0 32:0 
0.0088061823558319516 0:0 1:1 2:0 3:0 4:0 5:1 6:0 7:1 8:241 9:13345 10:1 11:0 12:0 13:0 14:2 15:4 16:0 17:0 18:0 19:0 20:1 21:0 22:0.75 23:6 24:255 25:1 26:0 27:0.17 28:0.07 29:0 30:0 31:0 32:0 
0.0018960983710737799 0:0 1:1 2:0 3:0 4:0 5:1 6:1 7:0 8:244 9:27498 10:1 11:0 12:0 13:0 14:5 15:5 16:0.2 17:0.2 18:0 19:0 20:1 21:0 22:0 23:255 24:255 25:1 26:0 27:0 28:0 29:0 30:0 31:0 32:0 
0.0098778801271861075 0:0 1:1 2:0 3:0 4:0 5:1 6:0 7:1 8:203 9:23239 10:1 11:0 12:0 13:0 14:3 15:3 16:0 17:0 18:0 19:0 20:1 21:0 22:0 23:12 24:255 25:1 26:0 27:0.08 28:0.03 29:0 30:0 31:0 32:0 
0.014221140716215514 0:0 1:1 2:0 3:0 4:0 5:1 6:0 7:1 8:219 9:12044 10:1 11:0 12:0 13:0 14:1 15:19 16:0 17:0 18:0 19:0 20:1 21:0 22:0.11 23:4 24:255 25:1 26:0 27:0.25 28:0.01 29:0 30:0 31:0 32:0 
0.010104024959463921 0:0 1:1 2:0 3:0 4:0 5:1 6:0 7:1 8:179 9:14496 10:1 11:0 12:0 13:0 14:1 15:1 16:0 17:0 18:0 19:0 20:1 21:0 22:0 23:84 24:255 25:1 26:0 27:0.01 28:0.03 29:0 30:0 31:0 32:0 
0.015998677994812888 0:0 1:1 2:0 3:0 4:0 5:1 6:0 7:1 8:364 9:55328 10:1 11:0 12:0 13:0 14:1 15:1 16:0 17:0 18:0 19:0 20:1 21:0 22:0 23:26 24:255 25:1 26:0 27:0.04 28:0.02 29:0 30:0 31:0 32:0 
0.0080908102081349575 0:0 1:1 2:0 3:0 4:0 5:1 6:0 7:1 8:248 9:10403 10:1 11:0 12:0 13:0 14:6 15:6 16:0 17:0 18:0 19:0 20:1 21:0 22:0 23:255 24:255 25:1 26:0 27:0 28:0 29:0 30:0 31:0 32:0 
0.017105614066607121 0:0 1:1 2:0 3:0 4:0 5:1 6:0 7:1 8:157 9:38299 10:1 11:0 12:0 13:0 14:1 15:1 16:0 17:0 18:0 19:0 20:1 21:0 22:0 23:102 24:255 25:1 26:0 27:0.01 28:0.02 29:0 30:0 31:0 32:0 
0.019443607373461222 0:0 1:1 2:0 3:0 4:0 5:1 6:0 7:1 8:255 9:31700 10:1 11:0 12:0 13:0 14:13 15:14 16:0 17:0 18:0 19:0 20:1 21:0 22:0.14 23:255 24:255 25:1 26:0 27:0 28:0 29:0 30:0 31:0 32:0 
0.025084820512602694 0:0 1:1 2:0 3:0 4:0 5:1 6:0 7:1 8:369 9:14721 10:1 11:0 12:0 13:0 14:4 15:22 16:0 17:0 18:0 19:0 20:1 21:0 22:0.18 23:194 24:255 25:1 26:0 27:0.01 28:0.01 29:0 30:0 31:0 32:0 
0.0048102424077898212 0:0 1:1 2:0 3:0 4:0 5:1 6:0 7:1 8:301 9:8513 10:1 11:0 12:0 13:0 14:7 15:7 16:0 17:0 18:0 19:0 20:1 21:0 22:0 23:140 24:255 25:1 26:0 27:0.01 28:0.02 29:0.01 30:0 31:0 32:0 
0.01643548001928339 0:0 1:1 2:0 3:0 4:0 5:1 6:0 7:1 8:173 9:11889 10:1 11:0 12:0 13:0 14:6 15:6 16:0 17:0 18:0 19:0 20:1 21:0 22:0 23:136 24:136 25:1 26:0 27:0.01 28:0 29:0 30:0 31:0 32:0 
0.0013135852173023896 0:0 1:1 2:0 3:0 4:0 5:1 6:0 7:1 8:304 9:11472 10:1 11:0 12:0 13:0 14:21 15:21 16:0 17:0 18:0 19:0 20:1 21:0 22:0 23:255 24:255 25:1 26:0 27:0 28:0 29:0 30:0 31:0 32:0 
0.028032891734497741 0:0 1:1 2:0 3:0 4:0 5:1 6:0 7:1 8:159 9:29269 10:1 11:0 12:0 13:0 14:2 15:2 16:0.5 17:0.5 18:0 19:0 20:1 21:0 22:0 23:86 24:122 25:1 26:0 27:0.01 28:0.07 29:0.01 30:0.01 31:0 32:0 
0.028272360087459099 0:0 1:1 2:0 3:0 4:0 5:1 6:0 7:1 8:247 9:9324 10:1 11:0 12:0 13:0 14:4 15:5 16:0 17:0 18:0 19:0 20:1 21:0 22:0.4 23:13 24:23 25:1 26:0 27:0.08 28:0.17 29:0 30:0 31:0 32:0 
0.012185149126981149 0:0 1:1 2:0 3:0 4:0 5:1 6:0 7:1 8:193 9:12164 10:1 11:0 12:0 13:0 14:1 15:4 16:0 17:0 18:0 19:0 20:1 21:0 22:1 23:255 24:254 25:1 26:0.01 27:0 28:0 29:0 30:0 31:0 32:0 
0.027975466606077151 0:0 1:1 2:0 3:0 4:0 5:1 6:0 7:1 8:472 9:9463 10:1 11:0 12:0 13:0 14:9 15:10 16:0 17:0 18:0 19:0 20:1 21:0 22:0.2 23:115 24:255 25:1 26:0 27:0.01 28:0.03 29:0 30:0.01 31:0 32:0 
0.016677859741409007 0:0 1:1 2:0 3:0 4:0 5:1 6:0 7:1 8:141 9:40380 10:1 11:0 12:0 13:0 14:1 15:4 16:0 17:0 18:0 19:0 20:1 21:0 22:0.5 23:255 24:255 25:1 26:0 27:0 28:0 29:0 30:0 31:0 32:0 
0.024308990221094756 0:0 1:1 2:0 3:0 4:0 5:1 6:0 7:1 8:408 9:12001 10:1 11:0 12:0 13:0 14:2 15:30 16:0 17:0 18:0 19:0 20:1 21:0 22:0.1 23:8 24:255 25:1 26:0 27:0.12 28:0.06 29:0 30:0 31:0 32:0 
0.00076413273370073704 0:0 1:1 2:0 3:0 4:0 5:1 6:0 7:1 8:207 9:10399 10:1 11:0 12:0 13:0 14:4 15:5 16:0 17:0 18:0 19:0 20:1 21:0 22:0.4 23:10 24:255 25:1 26:0 27:0.1 28:0.07 29:0 30:0 31:0 32:0 
0.019328440393068264 0:0 1:1 2:0 3:0 4:0 5:1 6:0 7:1 8:325 9:17703 10:1 11:0 12:0 13:0 14:8 15:26 16:0 17:0 18:0 19:0 20:1 21:0 22:0.08 23:78 24:255 25:1 26:0 27:0.01 28:0.03 29:0 30:0 31:0 32:0 
0.016280294898546922 0:0 1:1 2:0 3:0 4:0 5:1 6:0 7:1 8:156 9:11431 10:1 11:0 12:0 13:0 14:1 15:1 16:0 17:0 18:0 19:0 20:1 21:0 22:0 23:15 24:255 25:1 26:0 27:0.07 28:0.04 29:0 30:0 31:0 32:0 
0.015864967166674036 0:0 1:1 2:0 3:0 4:0 5:1 6:0 7:1 8:326 9:10755 10:1 11:0 12:0 13:0 14:2 15:2 16:0 17:0 18:0 19:0 20:1 21:0 22:0 23:76 24:255 25:1 26:0 27:0.01 28:0.03 29:0.01 30:0 31:0 32:0 
0.010242518743746647 0:0 1:1 2:0 3:0 4:0 5:1 6:0 7:1 8:313 9:9458 10:1 11:0 12:0 13:0 14:1 15:2 16:0 17:0 18:0 19:0 20:1 21:0 22:1 23:9 24:255 25:1 26:0 27:0.11 28:0.03 29:0 30:0 31:0 32:0 
0.016828587083465261 0:0 1:1 2:0 3:0 4:0 5:1 6:0 7:1 8:185 9:25618 10:1 11:0 12:0 13:0 14:1 15:1 16:0 17:0 18:0 19:0 20:1 21:0 22:0 23:14 24:255 25:1 26:0 27:0.07 28:0.01 29:0 30:0 31:0 32:0 
0.019601448223531621 0:0 1:1 2:0 3:0 4:0 5:1 6:0 7:1 8:296 9:18046 10:1 11:0 12:0 13:0 14:9 15:9 16:0 17:0 18:0 19:0 20:1 21:0 22:0 23:255 24:255 25:1 26:0 27:0 28:0 29:0 30:0 31:0 32:0 
0.026710561974936438 0:0 1:1 2:0 3:0 4:0 5:1 6:0 7:1 8:187 9:30606 10:1 11:0 12:0 13:0 14:1 15:2 16:0 17:0 18:0 19:0 20:1 21:0 22:1 23:255 24:255 25:1 26:0 27:0 28:0 29:0 30:0 31:0 32:0 
0.016380197858099327 0:0 1:1 2:0 3:0 4:0 5:1 6:0 7:1 8:229 9:15915 10:1 11:0 12:0 13:0 14:4 15:25 16:0 17:0 18:0 19:0 20:1 21:0 22:0.16 23:255 24:255 25:1 26:0 27:0 28:0 29:0 30:0 31:0 32:0 
0.004992351168834985 0:0 1:1 2:0 3:0 4:0 5:1 6:0 7:1 8:343 9:11202 10:1 11:0 12:0 13:0 14:3 15:18 16:0.33 17:0.06 18:0 19:0 20:1 21:0 22:0.11 23:255 24:255 25:1 26:0 27:0 28:0 29:0.01 30:0.01 31:0 32:0 
0.0074364345099416605 0:0 1:1 2:0 3:0 4:0 5:1 6:0 7:1 8:241 9:13224 10:1 11:0 12:0 13:0 14:7 15:7 16:0 17:0 18:0 19:0 20:1 21:0 22:0 23:42 24:255 25:1 26:0 27:0.02 28:0.03 29:0 30:0 31:0 32:0 
0.017052630449019262 0:0 1:1 2:0 3:0 4:0 5:1 6:0 7:1 8:182 9:25961 10:1 11:0 12:0 13:0 14:1 15:1 16:0 17:0 18:0 19:0 20:1 21:0 22:0 23:255 24:244 25:0.96 26:0.02 27:0 28:0 29:0 30:0 31:0 32:0 
0.0030319500659990472 0:0 1:1 2:0 3:0 4:0 5:1 6:0 7:1 8:289 9:17733 10:1 11:0 12:0 13:0 14:27 15:27 16:0 17:0 18:0 19:0 20:1 21:0 22:0 23:255 24:255 25:1 26:0 27:0 28:0 29:0 30:0 31:0 32:0 
0.0042576431259067175 0:0 1:1 2:0 3:0 4:0 5:1 6:0 7:1 8:313 9:25429 10:1 11:0 12:0 13:0 14:8 15:8 16:0 17:0 18:0 19:0 20:1 21:0 22:0 23:36 24:255 25:1 26:0 27:0.03 28:0.05 29:0 30:0 31:0 32:0 
0.00875203439486235 0:0 1:1 2:0 3:0 4:0 5:1 6:0 7:1 8:297 9:9317 10:1 11:0 12:0 13:0 14:2 15:32 16:0 17:0 18:0 19:0 20:1 21:0 22:0.06 23:124 24:255 25:1 26:0 27:0.01 28:0.02 29:0 30:0 31:0 32:0 
0.0077943224744780812 0:0 1:1 2:0 3:0 4:0 5:1 6:0 7:1 8:231 9:15618 10:1 11:0 12:0 13:0 14:7 15:24 16:0 17:0 18:0 19:0 20:1 21:0 22:0.17 23:255 24:255 25:1 26:0 27:0 28:0 29:0 30:0 31:0 32:0 
0.0055547134356993579 0:0 1:1 2:0 3:0 4:0 5:1 6:0 7:1 8:242 9:8723 10:1 11:0 12:0 13:0 14:1 15:1 16:0 17:0 18:0 19:0 20:1 21:0 22:0 23:99 24:255 25:1 26:0 27:0.01 28:0.03 29:0 30:0 31:0 32:0 
0.0012279648365094017 0:0 1:1 2:0 3:0 4:0 5:1 6:0 7:1 8:224 9:12987 10:1 11:0 12:0 13:0 14:1 15:1 16:0 17:0 18:0 19:0 20:1 21:0 22:0 23:5 24:255 25:1 26:0 27:0.2 28:0.05 29:0 30:0 31:0 32:0 
0.021342828764741931 0:0 1:1 2:0 3:0 4:0 5:1 6:0 7:1 8:180 9:20504 10:1 11:0 12:0 13:0 14:1 15:2 16:0 17:0 18:0 19:0 20:1 21:0 22:1 23:255 24:255 25:1 26:0 27:0 28:0 29:0 30:0 31:0 32:0 
0.0039785846754163646 0:0 1:1 2:0 3:0 4:0 5:1 6:0 7:1 8:228 9:8550 10:1 11:0 12:0 13:0 14:3 15:3 16:0 17:0 18:0 19:0 20:1 21:0 22:0 23:3 24:255 25:1 26:0 27:0.33 28:0.05 29:0 30:0 31:0 32:0 
0.010657266468020034 0:0 1:1 2:0 3:0 4:0 5:1 6:0 7:1 8:241 9:33054 10:1 11:0 12:0 13:0 14:14 15:14 16:0 17:0 18:0 19:0 20:1 21:0 22:0 23:255 24:255 25:1 26:0 27:0 28:0 29:0 30:0 31:0 32:0 
0.01189124258038138 0:0 1:1 2:0 3:0 4:0 5:1 6:0 7:1 8:229 9:14560 10:1 11:0 12:0 13:0 14:6 15:6 16:0 17:0 18:0 19:0 20:1 21:0 22:0 23:126 24:255 25:1 26:0 27:0.01 28:0.01 29:0 30:0 31:0 32:0 
0.00045741697510326591 0:0 1:1 2:0 3:0 4:0 5:1 6:0 7:1 8:217 9:10384 10:1 11:0 12:0 13:0 14:3 15:3 16:0 17:0 18:0 19:0 20:1 21:0 22:0 23:255 24:255 25:1 26:0 27:0 28:0 29:0 30:0 31:0 32:0 
0.01647095889109099 0:0 1:1 2:0 3:0 4:0 5:1 6:0 7:1 8:230 9:24647 10:1 11:0 12:0 13:0 14:12 15:23 16:0 17:0 18:0 19:0 20:1 21:0 22:0.09 23:12 24:255 25:1 26:0 27:0.08 28:0.05 29:0 30:0.01 31:0 32:0 
0.011016304502265171 0:0 1:1 2:0 3:0 4:0 5:1 6:0 7:1 8:189 9:10561 10:1 11:0 12:0 13:0 14:6 15:6 16:0 17:0 18:0 19:0 20:1 21:0 22:0 23:245 24:255 25:1 26:0 27:0 28:0.01 29:0 30:0 31:0 32:0 
0.013192341483879573 0:0 1:1 2:0 3:0 4:0 5:1 6:1 7:0 8:286 9:33580 10:1 11:0 12:0 13:0 14:1 15:1 16:1 17:1 18:0 19:0 20:1 21:0 22:0 23:19 24:255 25:1 26:0 27:0.05 28:0.08 29:0.05 30:0 31:0 32:0 
0.025939498483840112 0:0 1:1 2:0 3:0 4:0 5:1 6:0 7:1 8:189 9:23086 10:1 11:0 12:0 13:0 14:1 15:1 16:0 17:0 18:0 19:0 20:1 21:0 22:0 23:2 24:255 25:1 26:0 27:0.5 28:0.03 29:0 30:0 31:0 32:0 
0.0065680852281559772 0:0 1:1 2:0 3:0 4:0 5:1 6:0 7:1 8:334 9:15650 10:1 11:0 12:0 13:0 14:1 15:1 16:0 17:0 18:0 19:0 20:1 21:0 22:0 23:68 24:255 25:1 26:0 27:0.01 28:0.02 29:0 30:0 31:0 32:0 
0.013481851742928338 0:0 1:1 2:0 3:0 4:0 5:1 6:0 7:1 8:220 9:26098 10:1 11:0 12:0 13:0 14:1 15:1 16:0 17:0 18:0 19:0 20:1 21:0 22:0 23:220 24:255 25:1 26:0 27:0 28:0.02 29:0 30:0 31:0 32:0 
0.0067863765805285785 0:0 1:1 2:0 3:0 4:0 5:1 6:0 7:1 8:297 9:27928 10:1 11:0 12:0 13:0 14:1 15:1 16:0 17:0 18:0 19:0 20:1 21:0 22:0 23:69 24:255 25:1 26:0 27:0.01 28:0.04 29:0 30:0 31:0 32:0 
0.014700895344579015 0:0 1:1 2:0 3:0 4:0 5:1 6:0 7:1 8:286 9:27280 10:1 11:0 12:0 13:0 14:2 15:3 16:0 17:0 18:0 19:0 20:1 21:0 22:0.67 23:64 24:255 25:1 26:0 27:0.02 28:0.02 29:0.02 30:0.01 31:0 32:0 
0.015342766593217328 0:0 1:1 2:0 3:0 4:0 5:1 6:0 7:1 8:221 9:35096 10:1 11:0 12:0 13:0 14:4 15:7 16:0 17:0 18:0 19:0 20:1 21:0 22:0.29 23:5 24:255 25:1 26:0 27:0.2 28:0.04 29:0 30:0 31:0 32:0 
0.0071156679358865358 0:0 1:1 2:0 3:0 4:0 5:1 6:0 7:1 8:154 9:30328 10:1 11:0 12:0 13:0 14:1 15:1 16:0 17:0 18:0 19:0 20:1 21:0 22:0 23:255 24:255 25:1 26:0 27:0 28:0 29:0 30:0 31:0 32:0 
0.009647555484847881 0:0 1:1 2:0 3:0 4:0 5:1 6:0 7:1 8:344 9:12009 10:1 11:0 12:0 13:0 14:6 15:8 16:0 17:0 18:0 19:0 20:1 21:0 22:0.25 23:255 24:255 25:1 26:0 27:0 28:0 29:0 30:0 31:0 32:0 
0.019146622006088687 0:0 1:1 2:0 3:0 4:0 5:1 6:0 7:1 8:372 9:12818 10:1 11:0 12:0 13:0 14:6 15:7 16:0.17 17:0.14 18:0 19:0 20:1 21:0 22:0.29 23:136 24:255 25:1 26:0 27:0.01 28:0.03 29:0.01 30:0 31:0 32:0 
0.00077753804505513772 0:0 1:1 2:0 3:0 4:0 5:1 6:0 7:1 8:234 9:11864 10:1 11:0 12:0 13:0 14:1 15:1 16:0 17:0 18:0 19:0 20:1 21:0 22:0 23:52 24:255 25:1 26:0 27:0.02 28:0.02 29:0 30:0 31:0 32:0 
0.016486392077845864 0:0 1:1 2:0 3:0 4:0 5:1 6:0 7:1 8:225 9:18273 10:1 11:0 12:0 13:0 14:2 15:7 16:0 17:0 18:0 19:0 20:1 21:0 22:0.29 23:2 24:255 25:1 26:0 27:0.5 28:0.01 29:0 30:0 31:0 32:0 
0.0026297302865172737 0:0 1:1 2:0 3:0 4:0 5:1 6:0 7:1 8:335 9:14638 10:1 11:0 12:0 13:0 14:10 15:17 16:0 17:0 18:0 19:0 20:1 21:0 22:0.12 23:255 24:255 25:1 26:0 27:0 28:0 29:0 30:0 31:0 32:0 
0.0074418836151823311 0:0 1:1 2:0 3:0 4:0 5:1 6:0 7:1 8:310 9:9238 10:1 11:0 12:0 13:0 14:2 15:21 16:0 17:0 18:0 19:0 20:1 21:0 22:0.1 23:129 24:255 25:1 26:0 27:0.01 28:0.03 29:0 30:0 31:0 32:0 
0.012454334313444893 0:0 1:1 2:0 3:0 4:0 5:1 6:0 7:1 8:316 9:21778 10:1 11:0 12:0 13:0 14:5 15:15 16:0 17:0 18:0 19:0 20:1 21:0 22:0.2 23:38 24:255 25:1 26:0 27:0.03 28:0.02 29:0 30:0.01 31:0 32:0 
0.028579588393786912 0:0 1:1 2:0 3:0 4:0 5:1 6:0 7:1 8:259 9:115374 10:1 11:0 12:0 13:0 14:1 15:1 16:0 17:0 18:0 19:0 20:1 21:0 22:0 23:39 24:255 25:1 26:0 27:0.03 28:0.07 29:0 30:0 31:0 32:0 
0.014519824139880315 0:0 1:1 2:0 3:0 4:0 5:1 6:0 7:1 8:145 9:30262 10:1 11:0 12:0 13:0 14:1 15:1 16:0 17:0 18:0 19:0 20:1 21:0 22:0 23:255 24:255 25:1 26:0 27:0 28:0 29:0 30:0 31:0 32:0 
0.0079314376260866664 0:0 1:1 2:0 3:0 4:0 5:1 6:0 7:1 8:155 9:9618 10:1 11:0 12:0 13:0 14:12 15:12 16:0 17:0 18:0 19:0 20:1 21:0 22:0 23:107 24:255 25:1 26:0 27:0.01 28:0.01 29:0.01 30:0 31:0 32:0 
0.014265110206206688 0:0 1:1 2:0 3:0 4:0 5:1 6:0 7:1 8:235 9:32795 10:1 11:0 12:0 13:0 14:4 15:4 16:0 17:0 18:0 19:0 20:1 21:0 22:0 23:176 24:255 25:1 26:0 27:0.01 28:0.03 29:0 30:0 31:0 32:0 
0.018827326112395071 0:0 1:1 2:0 3:0 4:0 5:1 6:0 7:1 8:307 9:9213 10:1 11:0 12:0 13:0 14:8 15:8 16:0 17:0 18:0 19:0 20:1 21:0 22:0 23:8 24:218 25:1 26:0 27:0.12 28:0.01 29:0 30:0 31:0 32:0 
0.018463373876732199 0:0 1:1 2:0 3:0 4:0 5:1 6:0 7:1 8:217 9:23622 10:1 11:0 12:0 13:0 14:8 15:8 16:0 17:0 18:0 19:0 20:1 21:0 22:0 23:8 24:255 25:1 26:0 27:0.12 28:0.04 29:0 30:0 31:0 32:0 
0.019874050596454043 0:0 1:1 2:0 3:0 4:0 5:1 6:0 7:1 8:256 9:34099 10:1 11:0 12:0 13:0 14:1 15:5 16:0 17:0 18:0 19:0 20:1 21:0 22:0.6 23:255 24:255 25:1 26:0 27:0 28:0 29:0 30:0 31:0 32:0 
0.01856936154744955 0:0 1:1 2:0 3:0 4:0 5:1 6:0 7:1 8:225 9:18682 10:1 11:0 12:0 13:0 14:3 15:3 16:0 17:0 18:0 19:0 20:1 21:0 22:0 23:190 24:255 25:1 26:0 27:0.01 28:0.03 29:0 30:0 31:0 32:0 
0.020166366462164652 0:0 1:1 2:0 3:0 4:0 5:1 6:0 7:1 8:265 9:39004 10:1 11:0 12:0 13:0 14:2 15:3 16:0 17:0 18:0 19:0 20:1 21:0 22:0.67 23:255 24:255 25:1 26:0 27:0 28:0 29:0 30:0 31:0 32:0 
0.008514032272154708 0:0 1:1 2:0 3:0 4:0 5:1 6:0 7:1 8:283 9:25262 10:1 11:0 12:0 13:0 14:7 15:8 16:0 17:0 18:0 19:0 20:1 21:0 22:0.25 23:7 24:255 25:1 26:0 27:0.14 28:0.02 29:0 30:0 31:0 32:0 
0.0069693282787084551 0:0 1:1 2:0 3:0 4:0 5:1 6:0 7:1 8:254 9:12834 10:1 11:0 12:0 13:0 14:8 15:21 16:0 17:0 18:0 19:0 20:1 21:0 22:0.14 23:22 24:255 25:1 26:0 27:0.05 28:0.05 29:0 30:0 31:0 32:0 
0.012935294589141482 0:0 1:1 2:0 3:0 4:0 5:1 6:0 7:1 8:356 9:11682 10:1 11:0 12:0 13:0 14:1 15:1 16:0 17:0 18:0 19:0 20:1 21:0 22:0 23:11 24:255 25:1 26:0 27:0.09 28:0.03 29:0 30:0 31:0 32:0 
0.0086183475425059743 0:0 1:1 2:0 3:0 4:0 5:1 6:0 7:1 8:342 9:13466 10:1 11:0 12:0 13:0 14:2 15:11 16:0 17:0 18:0 19:0 20:1 21:0 22:0.18 23:13 24:255 25:1 26:0 27:0.08 28:0.01 29:0 30:0 31:0 32:0 
0.015966350742049613 0:0 1:1 2:0 3:0 4:0 5:1 6:0 7:1 8:258 9:8745 10:1 11:0 12:0 13:0 14:1 15:1 16:0 17:0 18:0 19:0 20:1 21:0 22:0 23:255 24:217 25:0.85 26:0.01 27:0 28:0 29:0 30:0 31:0 32:0 
0.022623070892340464 0:0 1:1 2:0 3:0 4:0 5:1 6:0 7:1 8:214 9:22841 10:1 11:0 12:0 13:0 14:31 15:44 16:0 17:0 18:0 19:0 20:1 21:0 22:0.09 23:175 24:255 25:1 26:0 27:0.01 28:0.01 29:0 30:0 31:0 32:0 
0.0060715617092203479 0:0 1:1 2:0 3:0 4:0 5:1 6:0 7:1 8:196 9:8821 10:1 11:0 12:0 13:0 14:2 15:3 16:0 17:0 18:0 19:0 20:1 21:0 22:0.67 23:85 24:255 25:1 26:0 27:0.01 28:0.03 29:0 30:0 31:0 32:0 
0.0064116422294170604 0:0 1:1 2:0 3:0 4:0 5:1 6:0 7:1 8:213 9:22841 10:1 11:0 12:0 13:0 14:29 15:29 16:0 17:0 18:0 19:0 20:1 21:0 22:0 23:254 24:255 25:1 26:0 27:0 28:0.01 29:0 30:0 31:0 32:0 
0.0018525076581894135 0:0 1:1 2:0 3:0 4:0 5:1 6:0 7:1 8:270 9:15626 10:1 11:0 12:0 13:0 14:1 15:1 16:0 17:0 18:0 19:0 20:1 21:0 22:0 23:255 24:248 25:0.97 26:0.01 27:0 28:0 29:0 30:0 31:0 32:0 
0.0047360464903362254 0:0 1:1 2:0 3:0 4:0 5:1 6:0 7:1 8:296 9:14299 10:1 11:0 12:0 13:0 14:2 15:2 16:0 17:0 18:0 19:0 20:1 21:0 22:0 23:23 24:255 25:1 26:0 27:0.04 28:0.04 29:0 30:0 31:0 32:0 
0.018195456715970098 0:0 1:1 2:0 3:0 4:0 5:1 6:0 7:1 8:142 9:16627 10:1 11:0 12:0 13:0 14:1 15:1 16:0 17:0 18:0 19:0 20:1 21:0 22:0 23:108 24:255 25:1 26:0 27:0.01 28:0.02 29:0 30:0 31:0 32:0 
0.019643220103631544 0:0 1:1 2:0 3:0 4:0 5:1 6:0 7:1 8:321 9:18619 10:1 11:0 12:0 13:0 14:3 15:3 16:0 17:0 18:0 19:0 20:1 21:0 22:0 23:13 24:255 25:1 26:0 27:0.08 28:0.04 29:0 30:0 31:0 32:0 
0.011259095844730121 0:0 1:1 2:0 3:0 4:0 5:1 6:0 7:1 8:283 9:37266 10:1 11:0 12:0 13:0 14:1 15:1 16:0 17:0 18:0 19:0 20:1 21:0 22:0 23:5 24:255 25:1 26:0 27:0.2 28:0.04 29:0 30:0 31:0 32:0 
0.0045913105300151146 0:0 1:1 2:0 3:0 4:0 5:1 6:0 7:1 8:329 9:15416 10:1 11:0 12:0 13:0 14:29 15:29 16:0 17:0 18:0 19:0 20:1 21:0 22:0 23:68 24:255 25:1 26:0 27:0.01 28:0.04 29:0 30:0.01 31:0 32:0 
0.005473132206289047 0:0 1:1 2:0 3:0 4:0 5:1 6:0 7:1 8:315 9:8844 10:1 11:0 12:0 13:0 14:2 15:6 16:0 17:0 18:0 19:0 20:1 21:0 22:0.33 23:71 24:255 25:1 26:0 27:0.01 28:0.02 29:0 30:0 31:0 32:0 
0.0089390151497447546 0:0 1:1 2:0 3:0 4:0 5:1 6:0 7:1 8:246 9:14148 10:1 11:0 12:0 13:0 14:1 15:1 16:0 17:0 18:0 19:0 20:1 21:0 22:0 23:248 24:255 25:1 26:0 27:0 28:0.01 29:0 30:0 31:0 32:0 
0.0017458922838235256 0:0 1:1 2:0 3:0 4:0 5:1 6:0 7:1 8:325 9:11905 10:1 11:0 12:0 13:0 14:7 15:15 16:0 17:0 18:0 19:0 20:1 21:0 22:0.2 23:36 24:254 25:1 26:0 27:0.03 28:0.05 29:0 30:0 31:0 32:0 
0.0052500150311640646 0:0 1:1 2:0 3:0 4:0 5:1 6:0 7:1 8:244 9:27000 10:1 11:0 12:0 13:0 14:3 15:3 16:0 17:0 18:0 19:0 20:1 21:0 22:0 23:53 24:255 25:1 26:0 27:0.02 28:0.05 29:0 30:0 31:0 32:0 
0.022084631519071408 0:0 1:1 2:0 3:0 4:0 5:1 6:0 7:1 8:206 9:49163 10:1 11:0 12:0 13:0 14:3 15:3 16:0 17:0 18:0 19:0 20:1 21:0 22:0 23:10 24:255 25:1 26:0 27:0.1 28:0.09 29:0 30:0 31:0 32:0 
0.017610189673828439 0:0 1:1 2:0 3:0 4:0 5:1 6:0 7:1 8:328 9:10713 10:1 11:0 12:0 13:0 14:1 15:1 16:0 17:0 18:0 19:0 20:1 21:0 22:0 23:2 24:255 25:1 26:0 27:0.5 28:0.03 29:0 30:0 31:0 32:0 
0.0026280522039213005 0:0 1:1 2:0 3:0 4:0 5:1 6:0 7:1 8:289 9:11944 10:1 11:0 12:0 13:0 14:9 15:9 16:0 17:0 18:0 19:0 20:1 21:0 22:0 23:255 24:255 25:1 26:0 27:0 28:0 29:0 30:0 31:0 32:0 
0.024499649147671151 0:0 1:1 2:0 3:0 4:0 5:1 6:0 7:1 8:482 9:9079 10:1 11:0 12:0 13:0 14:2 15:2 16:0 17:0 18:0 19:0 20:1 21:0 22:0 23:2 24:255 25:1 26:0 27:0.5 28:0.01 29:0 30:0 31:0 32:0 
0.016517226486499829 0:0 1:1 2:0 3:0 4:0 5:1 6:0 7:1 8:193 9:19400 10:1 11:0 12:0 13:0 14:1 15:9 16:0 17:0.33 18:0 19:0 20:1 21:0 22:0.33 23:255 24:255 25:1 26:0 27:0 28:0 29:0 30:0 31:0 32:0 
0.017022335664593879 0:0 1:1 2:0 3:0 4:0 5:1 6:0 7:1 8:335 9:45893 10:1 11:0 12:0 13:0 14:17 15:24 16:0 17:0 18:0 19:0 20:1 21:0 22:0.08 23:17 24:255 25:1 26:0 27:0.06 28:0.04 29:0 30:0 31:0 32:0 
0.0060054926614087258 0:0 1:1 2:0 3:0 4:0 5:1 6:0 7:1 8:289 9:16639 10:1 11:0 12:0 13:0 14:7 15:7 16:0 17:0 18:0 19:0 20:1 21:0 22:0 23:44 24:255 25:1 26:0 27:0.02 28:0.04 29:0 30:0 31:0 32:0 
0.0072525743820651984 0:0 1:1 2:0 3:0 4:0 5:1 6:0 7:1 8:203 9:12128 10:1 11:0 12:0 13:0 14:24 15:24 16:0 17:0 18:0 19:0 20:1 21:0 22:0 23:63 24:255 25:1 26:0 27:0.02 28:0.05 29:0 30:0 31:0 32:0 
0.028211346756114274 0:0 1:1 2:0 3:0 4:0 5:1 6:0 7:1 8:282 9:51974 10:1 11:0 12:0 13:0 14:3 15:4 16:0 17:0 18:0 19:0 20:1 21:0 22:0.5 23:9 24:255 25:1 26:0 27:0.11 28:0.06 29:0 30:0 31:0 32:0 
0.024972728656050235 0:0 1:1 2:0 3:0 4:0 5:1 6:0 7:1 8:232 9:51836 10:1 11:0 12:0 13:0 14:1 15:5 16:0 17:0 18:0 19:0 20:1 21:0 22:0.4 23:255 24:255 25:1 26:0 27:0 28:0 29:0 30:0 31:0 32:0 
0.011130507718480495 0:0 1:1 2:0 3:0 4:0 5:1 6:0 7:1 8:181 9:12835 10:1 11:0 12:0 13:0 14:1 15:1 16:0 17:0 18:0 19:0 20:1 21:0 22:0 23:58 24:255 25:1 26:0 27:0.02 28:0.02 29:0 30:0 31:0 32:0 
0.004197945742697386 0:0 1:1 2:0 3:0 4:0 5:1 6:0 7:1 8:225 9:15105 10:1 11:0 12:0 13:0 14:4 15:4 16:0 17:0 18:0 19:0 20:1 21:0 22:0 23:56 24:255 25:1 26:0 27:0.02 28:0.04 29:0 30:0 31:0 32:0 
0.0054195898872168562 0:0 1:1 2:0 3:0 4:0 5:1 6:0 7:1 8:206 9:12884 10:1 11:0 12:0 13:0 14:2 15:2 16:0 17:0 18:0 19:0 20:1 21:0 22:0 23:255 24:255 25:1 26:0 27:0 28:0 29:0 30:0 31:0 32:0 
0.0092902365308130137 0:0 1:1 2:0 3:0 4:0 5:1 6:0 7:1 8:313 9:25519 10:1 11:0 12:0 13:0 14:1 15:1 16:0 17:0 18:0 19:0 20:1 21:0 22:0 23:182 24:255 25:1 26:0 27:0.01 28:0.02 29:0.01 30:0 31:0 32:0 
0.00604792547458592 0:0 1:1 2:0 3:0 4:0 5:1 6:0 7:1 8:254 9:11211 10:1 11:0 12:0 13:0 14:1 15:1 16:0 17:0 18:0 19:0 20:1 21:0 22:0 23:4 24:255 25:1 26:0 27:0.25 28:0.07 29:0 30:0 31:0 32:0 
0.0039045079581693388 0:0 1:1 2:0 3:0 4:0 5:1 6:0 7:1 8:283 9:16588 10:1 11:0 12:0 13:0 14:7 15:7 16:0 17:0 18:0 19:0 20:1 21:0 22:0 23:66 24:255 25:1 26:0 27:0.02 28:0.04 29:0 30:0 31:0 32:0 
0.022130352357471392 0:0 1:1 2:0 3:0 4:0 5:1 6:0 7:1 8:237 9:34513 10:1 11:0 12:0 13:0 14:3 15:3 16:0 17:0 18:0 19:0 20:1 21:0 22:0 23:29 24:255 25:1 26:0 27:0.03 28:0.02 29:0 30:0 31:0 32:0 
0.028214820842369571 0:0 1:1 2:0 3:0 4:0 5:1 6:1 7:0 8:230 9:43800 10:1 11:0 12:0 13:0 14:1 15:1 16:1 17:1 18:0 19:0 20:1 21:0 22:0 23:255 24:255 25:1 26:0 27:0 28:0 29:0 30:0 31:0 32:0 
0.011577940058978581 0:0 1:1 2:0 3:0 4:0 5:1 6:0 7:1 8:268 9:22835 10:1 11:0 12:0 13:0 14:1 15:1 16:0 17:0 18:0 19:0 20:1 21:0 22:0 23:255 24:255 25:1 26:0 27:0 28:0 29:0 30:0 31:0 32:0 
0.018520984513613354 0:0 1:1 2:0 3:0 4:0 5:1 6:0 7:1 8:145 9:20629 10:1 11:0 12:0 13:0 14:2 15:2 16:0 17:0 18:0 19:0 20:1 21:0 22:0 23:93 24:255 25:1 26:0 27:0.01 28:0.04 29:0 30:0 31:0 32:0 
0.018402128641785715 0:0 1:1 2:0 3:0 4:0 5:1 6:0 7:1 8:215 9:52248 10:1 11:0 12:0 13:0 14:17 15:17 16:0 17:0 18:0 19:0 20:1 21:0 22:0 23:17 24:255 25:1 26:0 27:0.06 28:0.04 29:0 30:0 31:0 32:0 
0.0097812062159164815 0:0 1:1 2:0 3:0 4:0 5:1 6:0 7:1 8:308 9:12542 10:1 11:0 12:0 13:0 14:10 15:10 16:0 17:0 18:0 19:0 20:1 21:0 22:0 23:255 24:255 25:1 26:0 27:0 28:0 29:0 30:0 31:0 32:0 
0.0010884069514708414 0:0 1:1 2:0 3:0 4:0 5:1 6:0 7:1 8:313 9:11803 10:1 11:0 12:0 13:0 14:5 15:12 16:0 17:0 18:0 19:0 20:1 21:0 22:0.33 23:255 24:255 25:1 26:0 27:0 28:0 29:0 30:0 31:0 32:0 
0.014329136967830844 0:0 1:1 2:0 3:0 4:0 5:1 6:0 7:1 8:173 9:25660 10:1 11:0 12:0 13:0 14:1 15:3 16:0 17:0 18:0 19:0 20:1 21:0 22:1 23:2 24:255 25:1 26:0 27:0.5 28:0.03 29:0 30:0 31:0 32:0 
0.0051556799916083577 0:0 1:1 2:0 3:0 4:0 5:1 6:0 7:1 8:301 9:12360 10:1 11:0 12:0 13:0 14:10 15:33 16:0 17:0 18:0 19:0 20:1 21:0 22:0.12 23:58 24:255 25:1 26:0 27:0.02 28:0.05 29:0 30:0 31:0 32:0 
0.0010049082146151075 0:0 1:1 2:0 3:0 4:0 5:1 6:0 7:1 8:220 9:8258 10:1 11:0 12:0 13:0 14:5 15:8 16:0 17:0 18:0 19:0 20:1 21:0 22:0.25 23:255 24:255 25:1 26:0 27:0 28:0 29:0 30:0 31:0 32:0 
0.017178113593830112 0:0 1:1 2:0 3:0 4:0 5:1 6:0 7:1 8:154 9:12990 10:1 11:0 12:0 13:0 14:1 15:1 16:0 17:0 18:0 19:0 20:1 21:0 22:0 23:70 24:255 25:1 26:0 27:0.01 28:0.06 29:0.01 30:0.01 31:0 32:0 
0.020658490900085608 0:0 1:1 2:0 3:0 4:0 5:1 6:0 7:1 8:153 9:11361 10:1 11:0 12:0 13:0 14:32 15:32 16:0 17:0 18:0 19:0 20:1 21:0 22:0 23:255 24:255 25:1 26:0 27:0 28:0 29:0 30:0 31:0 32:0 
0.00071280208568531497 0:0 1:1 2:0 3:0 4:0 5:1 6:0 7:1 8:258 9:9595 10:1 11:0 12:0 13:0 14:3 15:5 16:0 17:0 18:0 19:0 20:1 21:0 22:0.6 23:255 24:255 25:1 26:0 27:0 28:0 29:0 30:0 31:0 32:0 
0.0066060520518526657 0:0 1:1 2:0 3:0 4:0 5:1 6:1 7:0 8:199 9:10449 10:1 11:0 12:0 13:0 14:5 15:5 16:0.2 17:0.2 18:0 19:0 20:1 21:0 22:0 23:13 24:255 25:1 26:0 27:0.08 28:0.05 29:0.08 30:0 31:0 32:0 
0.013153160650826229 0:0 1:1 2:0 3:0 4:0 5:1 6:0 7:1 8:158 9:10144 10:1 11:0 12:0 13:0 14:3 15:3 16:0 17:0 18:0 19:0 20:1 21:0 22:0 23:75 24:255 25:1 26:0 27:0.01 28:0.04 29:0 30:0 31:0 32:0 
0.011631077810834773 0:0 1:1 2:0 3:0 4:0 5:1 6:0 7:1 8:214 9:8487 10:1 11:0 12:0 13:0 14:14 15:14 16:0.07 17:0.07 18:0 19:0 20:1 21:0 22:0 23:76 24:255 25:1 26:0 27:0.01 28:0.01 29:0 30:0 31:0 32:0 
0.0036633595916199125 0:0 1:1 2:0 3:0 4:0 5:1 6:0 7:1 8:349 9:12591 10:1 11:0 12:0 13:0 14:4 15:4 16:0 17:0 18:0 19:0 20:1 21:0 22:0 23:255 24:255 25:1 26:0 27:0 28:0 29:0 30:0 31:0 32:0 
0.023961540928205557 0:0 1:1 2:0 3:0 4:0 5:1 6:0 7:1 8:194 9:15965 10:1 11:0 12:0 13:0 14:22 15:22 16:0 17:0 18:0 19:0 20:1 21:0 22:0 23:96 24:255 25:1 26:0 27:0.01 28:0.02 29:0 30:0 31:0 32:0 
0.017547089461353953 0:0 1:1 2:0 3:0 4:0 5:1 6:0 7:1 8:247 9:32365 10:1 11:0 12:0 13:0 14:9 15:10 16:0 17:0 18:0 19:0 20:1 21:0 22:0.2 23:255 24:255 25:1 26:0 27:0 28:0 29:0 30:0 31:0 32:0 
0.014377506937386115 0:0 1:1 2:0 3:0 4:0 5:1 6:0 7:1 8:342 9:9542 10:1 11:0 12:0 13:0 14:1 15:4 16:0 17:0 18:0 19:0 20:1 21:0 22:0.5 23:24 24:255 25:1 26:0 27:0.04 28:0.04 29:0 30:0 31:0 32:0 
0.013823293134485099 0:0 1:1 2:0 3:0 4:0 5:1 6:0 7:1 8:232 9:16070 10:1 11:0 12:0 13:0 14:8 15:10 16:0 17:0 18:0 19:0 20:1 21:0 22:0.2 23:110 24:255 25:1 26:0 27:0.01 28:0.03 29:0 30:0 31:0 32:0 
0.027834083176909045 0:0 1:1 2:0 3:0 4:0 5:1 6:0 7:1 8:343 9:134175 10:1 11:0 12:0 13:0 14:12 15:12 16:0 17:0 18:0 19:0 20:1 21:0 22:0 23:245 24:255 25:1 26:0 27:0 28:0.01 29:0.01 30:0.01 31:0 32:0 
0.012425949202203102 0:0 1:1 2:0 3:0 4:0 5:1 6:0 7:1 8:326 9:13988 10:1 11:0 12:0 13:0 14:6 15:27 16:0 17:0 18:0 19:0 20:1 21:0 22:0.15 23:255 24:255 25:1 26:0 27:0 28:0 29:0 30:0 31:0 32:0 
0.022616998989573485 0:0 1:1 2:0 3:0 4:0 5:1 6:0 7:1 8:149 9:27078 10:1 11:0 12:0 13:0 14:1 15:2 16:0 17:0.5 18:0 19:0 20:1 21:0 22:1 23:149 24:255 25:1 26:0 27:0.01 28:0.02 29:0 30:0 31:0 32:0 
0.022698269470912427 0:0 1:1 2:0 3:0 4:0 5:1 6:0 7:1 8:295 9:26504 10:1 11:0 12:0 13:0 14:5 15:5 16:0 17:0 18:0 19:0 20:1 21:0 22:0 23:10 24:255 25:1 26:0 27:0.1 28:0.01 29:0 30:0 31:0 32:0 
0.0027843850134887643 0:0 1:1 2:0 3:0 4:0 5:1 6:0 7:1 8:178 9:13294 10:1 11:0 12:0 13:0 14:10 15:10 16:0 17:0 18:0 19:0 20:1 21:0 22:0 23:58 24:255 25:1 26:0 27:0.02 28:0.04 29:0 30:0 31:0 32:0 
0.011003989183002581 0:0 1:1 2:0 3:0 4:0 5:1 6:0 7:1 8:244 9:12469 10:1 11:0 12:0 13:0 14:7 15:7 16:0 17:0 18:0 19:0 20:1 21:0 22:0 23:96 24:255 25:1 26:0 27:0.01 28:0.03 29:0 30:0 31:0 32:0 
0.020545712173130032 0:0 1:1 2:0 3:0 4:0 5:1 6:0 7:1 8:321 9:20737 10:1 11:0 12:0 13:0 14:4 15:8 16:0 17:0 18:0 19:0 20:1 21:0 22:0.38 23:68 24:255 25:1 26:0 27:0.01 28:0.03 29:0 30:0 31:0 32:0 
0.028323834551150666 0:0 1:1 2:0 3:0 4:0 5:1 6:0 7:1 8:158 9:12234 10:1 11:0 12:0 13:0 14:7 15:7 16:0 17:0 18:0 19:0 20:1 21:0 22:0 23:33 24:33 25:1 26:0 27:0.03 28:0 29:0 30:0 31:0 32:0 
0.0039688580500932252 0:0 1:1 2:0 3:0 4:0 5:1 6:0 7:1 8:319 9:12434 10:1 11:0 12:0 13:0 14:2 15:7 16:0 17:0 18:0 19:0 20:1 21:0 22:0.29 23:34 24:255 25:1 26:0 27:0.03 28:0.05 29:0 30:0 31:0 32:0 
0.019370737285976235 0:0 1:1 2:0 3:0 4:0 5:1 6:0 7:1 8:227 9:25728 10:1 11:0 12:0 13:0 14:15 15:15 16:0 17:0 18:0 19:0 20:1 21:0 22:0 23:68 24:255 25:1 26:0 27:0.01 28:0.03 29:0 30:0 31:0 32:0 
0.013922806525875443 0:0 1:1 2:0 3:0 4:0 5:1 6:0 7:1 8:325 9:13391 10:1 11:0 12:0 13:0 14:2 15:2 16:0 17:0 18:0 19:0 20:1 21:0 22:0 23:70 24:255 25:1 26:0 27:0.01 28:0.02 29:0 30:0 31:0 32:0 
0.016881098757692385 0:0 1:1 2:0 3:0 4:0 5:1 6:0 7:1 8:237 9:8892 10:1 11:0 12:0 13:0 14:4 15:4 16:0 17:0 18:0 19:0 20:1 21:0 22:0 23:23 24:199 25:1 26:0 27:0.04 28:0.06 29:0 30:0.01 31:0 32:0 
0.028279673904850498 0:0 1:1 2:0 3:0 4:0 5:1 6:1 7:0 8:250 9:42340 10:1 11:0 12:0 13:0 14:1 15:1 16:1 17:1 18:0 19:0 20:1 21:0 22:0 23:108 24:237 25:1 26:0 27:0.01 28:0.05 29:0.01 30:0 31:0 32:0 
0.0072258498357548146 0:0 1:1 2:0 3:0 4:0 5:1 6:0 7:1 8:214 9:16070 10:1 11:0 12:0 13:0 14:6 15:6 16:0 17:0 18:0 19:0 20:1 21:0 22:0 23:6 24:255 25:1 26:0 27:0.17 28:0.04 29:0 30:0 31:0 32:0 
0.012759050896428198 0:0 1:1 2:0 3:0 4:0 5:1 6:0 7:1 8:300 9:8435 10:1 11:0 12:0 13:0 14:15 15:38 16:0 17:0 18:0 19:0 20:1 21:0 22:0.05 23:166 24:255 25:1 26:0 27:0.01 28:0.02 29:0 30:0 31:0 32:0 
0.02723687547140333 0:0 1:1 2:0 3:0 4:0 5:1 6:0 7:1 8:180 9:36668 10:1 11:0 12:0 13:0 14:1 15:1 16:0 17:0 18:0 19:0 20:1 21:0 22:0 23:141 24:255 25:1 26:0 27:0.01 28:0.01 29:0 30:0 31:0 32:0 
0.0084865514171920536 0:0 1:1 2:0 3:0 4:0 5:1 6:0 7:1 8:189 9:10416 10:1 11:0 12:0 13:0 14:1 15:1 16:0 17:0 18:0 19:0 20:1 21:0 22:0 23:65 24:255 25:1 26:0 27:0.02 28:0.03 29:0 30:0 31:0 32:0 
0.021578227509429025 0:0 1:1 2:0 3:0 4:0 5:1 6:0 7:1 8:218 9:36749 10:1 11:0 12:0 13:0 14:1 15:1 16:0 17:0 18:0 19:0 20:1 21:0 22:0 23:35 24:255 25:1 26:0 27:0.03 28:0.04 29:0 30:0 31:0 32:0 
0.011812044785114172 0:0 1:1 2:0 3:0 4:0 5:1 6:0 7:1 8:254 9:9066 10:1 11:0 12:0 13:0 14:1 15:1 16:0 17:0 18:0 19:0 20:1 21:0 22:0 23:255 24:223 25:0.87 26:0.02 27:0 28:0 29:0 30:0 31:0 32:0 
0.016003899059713132 0:0 1:1 2:0 3:0 4:0 5:1 6:0 7:1 8:152 9:8157 10:1 11:0 12:0 13:0 14:14 15:14 16:0 17:0 18:0 19:0 20:1 21:0 22:0 23:255 24:255 25:1 26:0 27:0 28:0 29:0 30:0 31:0 32:0 
0.015547383114383993 0:0 1:1 2:0 3:0 4:0 5:1 6:0 7:1 8:197 9:11312 10:1 11:0 12:0 13:0 14:1 15:9 16:0 17:0 18:0 19:0.11 20:1 21:0 22:0.33 23:2 24:255 25:1 26:0 27:0.5 28:0.05 29:0 30:0 31:0 32:0 
0.0074958682210561987 0:0 1:1 2:0 3:0 4:0 5:1 6:0 7:1 8:218 9:12640 10:1 11:0 12:0 13:0 14:3 15:21 16:0.33 17:0.05 18:0 19:0 20:1 21:0 22:0.14 23:64 24:255 25:1 26:0 27:0.02 28:0.02 29:0.02 30:0 31:0 32:0 
0.0013811334932159142 0:0 1:1 2:0 3:0 4:0 5:1 6:0 7:1 8:262 9:8702 10:1 11:0 12:0 13:0 14:5 15:5 16:0 17:0 18:0 19:0 20:1 21:0 22:0 23:255 24:255 25:1 26:0 27:0 28:0 29:0 30:0 31:0 32:0 
0.003323874419138435 0:0 1:1 2:0 3:0 4:0 5:1 6:0 7:1 8:189 9:15028 10:1 11:0 12:0 13:0 14:1 15:1 16:0 17:0 18:0 19:0 20:1 21:0 22:0 23:255 24:255 25:1 26:0 27:0 28:0 29:0 30:0 31:0 32:0 
0.027689107852299066 0:0 1:1 2:0 3:0 4:0 5:1 6:0 7:1 8:193 9:28696 10:1 11:0 12:0 13:0 14:2 15:2 16:0 17:0 18:0 19:0 20:1 21:0 22:0 23:8 24:255 25:1 26:0 27:0.12 28:0.04 29:0 30:0 31:0 32:0 
0.0083737279771522715 0:0 1:1 2:0 3:0 4:0 5:1 6:0 7:1 8:338 9:9755 10:1 11:0 12:0 13:0 14:1 15:1 16:0 17:0 18:0 19:0 20:1 21:0 22:0 23:45 24:255 25:1 26:0 27:0.02 28:0.07 29:0 30:0.01 31:0 32:0 
0.0011672684964707924 0:0 1:1 2:0 3:0 4:0 5:1 6:0 7:1 8:201 9:19572 10:1 11:0 12:0 13:0 14:5 15:5 16:0 17:0 18:0 19:0 20:1 21:0 22:0 23:5 24:255 25:1 26:0 27:0.2 28:0.02 29:0 30:0 31:0 32:0 
0.017955163545902288 0:0 1:1 2:0 3:0 4:0 5:1 6:1 7:0 8:256 9:15968 10:1 11:0 12:0 13:0 14:1 15:24 16:1 17:0.04 18:0 19:0 20:1 21:0 22:0.08 23:179 24:255 25:1 26:0 27:0.01 28:0.01 29:0.01 30:0 31:0.01 32:0 
0.0014784748201715839 0:0 1:1 2:0 3:0 4:0 5:1 6:0 7:1 8:341 9:8867 10:1 11:0 12:0 13:0 14:15 15:15 16:0 17:0 18:0 19:0 20:1 21:0 22:0 23:255 24:255 25:1 26:0 27:0 28:0 29:0 30:0 31:0 32:0 
0.027504679315217082 0:0 1:1 2:0 3:0 4:0 5:1 6:0 7:1 8:170 9:52838 10:1 11:0 12:0 13:0 14:1 15:1 16:0 17:0 18:0 19:0 20:1 21:0 22:0 23:55 24:255 25:1 26:0 27:0.02 28:0.05 29:0 30:0 31:0 32:0 
0.022127950206301171 0:0 1:1 2:0 3:0 4:0 5:1 6:0 7:1 8:307 9:20165 10:1 11:0 12:0 13:0 14:2 15:2 16:0 17:0 18:0 19:0 20:1 21:0 22:0 23:48 24:255 25:1 26:0 27:0.02 28:0.03 29:0 30:0 31:0 32:0 
0.002455889003043563 0:0 1:1 2:0 3:0 4:0 5:1 6:0 7:1 8:219 9:19309 10:1 11:0 12:0 13:0 14:2 15:7 16:0 17:0 18:0 19:0 20:1 21:0 22:0.29 23:2 24:255 25:1 26:0 27:0.5 28:0.04 29:0 30:0 31:0 32:0 
0.0063945591961280168 0:0 1:1 2:0 3:0 4:0 5:1 6:0 7:1 8:289 9:8822 10:1 11:0 12:0 13:0 14:4 15:33 16:0 17:0 18:0 19:0 20:1 21:0 22:0.09 23:141 24:255 25:1 26:0 27:0.01 28:0.02 29:0 30:0 31:0 32:0 
0.024567379065259635 0:0 1:1 2:0 3:0 4:0 5:1 6:0 7:1 8:161 9:13352 10:1 11:0 12:0 13:0 14:4 15:4 16:0 17:0 18:0 19:0 20:1 21:0 22:0 23:68 24:68 25:1 26:0 27:0.01 28:0 29:0 30:0 31:0 32:0 
0.010180892219948643 0:0 1:1 2:0 3:0 4:0 5:1 6:0 7:1 8:264 9:19085 10:1 11:0 12:0 13:0 14:14 15:14 16:0.07 17:0.07 18:0 19:0 20:1 21:0 22:0 23:255 24:255 25:1 26:0 27:0 28:0 29:0 30:0 31:0 32:0 
0.013594562604741617 0:0 1:1 2:0 3:0 4:0 5:1 6:0 7:1 8:162 9:8284 10:1 11:0 12:0 13:0 14:12 15:12 16:0 17:0 18:0 19:0 20:1 21:0 22:0 23:67 24:255 25:1 26:0 27:0.01 28:0.01 29:0 30:0 31:0 32:0 
0.028512112937040937 0:0 1:1 2:0 3:0 4:0 5:1 6:0 7:1 8:205 9:95839 10:1 11:0 12:0 13:0 14:4 15:4 16:0.25 17:0.25 18:0 19:0 20:1 21:0 22:0 23:88 24:255 25:1 26:0 27:0.01 28:0.04 29:0.01 30:0.01 31:0.01 32:0 
0.027326843881765137 0:0 1:1 2:0 3:0 4:0 5:1 6:0 7:1 8:291 9:29325 10:1 11:0 12:0 13:0 14:5 15:5 16:0 17:0 18:0 19:0 20:1 21:0 22:0 23:16 24:162 25:1 26:0 27:0.06 28:0.04 29:0 30:0 31:0 32:0 
0.020451414080181241 0:0 1:1 2:0 3:0 4:0 5:1 6:0 7:1 8:155 9:10121 10:1 11:0 12:0 13:0 14:14 15:18 16:0 17:0 18:0 19:0 20:1 21:0 22:0.17 23:161 24:255 25:1 26:0 27:0.01 28:0.01 29:0 30:0 31:0 32:0 
0.019416368125446445 0:0 1:1 2:0 3:0 4:0 5:1 6:0 7:1 8:506 9:10848 10:1 11:0 12:0 13:0 14:13 15:13 16:0 17:0 18:0 19:0 20:1 21:0 22:0 23:255 24:255 25:1 26:0 27:0 28:0 29:0.01 30:0.01 31:0 32:0 
0.028114783432258518 0:0 1:1 2:0 3:0 4:0 5:1 6:0 7:1 8:157 9:41901 10:1 11:0 12:0 13:0 14:1 15:1 16:0 17:0 18:0 19:0 20:1 21:0 22:0 23:255 24:255 25:1 26:0 27:0 28:0 29:0 30:0 31:0 32:0 
0.0091984765968054129 0:0 1:1 2:0 3:0 4:0 5:1 6:0 7:1 8:285 9:17602 10:1 11:0 12:0 13:0 14:8 15:8 16:0 17:0 18:0 19:0 20:1 21:0 22:0 23:226 24:255 25:1 26:0 27:0 28:0.02 29:0 30:0 31:0 32:0 
0.0030227792465561398 0:0 1:1 2:0 3:0 4:0 5:1 6:0 7:1 8:262 9:11829 10:1 11:0 12:0 13:0 14:3 15:4 16:0 17:0 18:0 19:0 20:1 21:0 22:0.5 23:55 24:255 25:1 26:0 27:0.02 28:0.03 29:0 30:0 31:0 32:0 
0.0077143578769442254 0:0 1:1 2:0 3:0 4:0 5:1 6:0 7:1 8:148 9:14506 10:1 11:0 12:0 13:0 14:17 15:17 16:0 17:0 18:0 19:0 20:1 21:0 22:0 23:255 24:255 25:1 26:0 27:0 28:0 29:0 30:0 31:0 32:0 
0.0032555831602757192 0:0 1:1 2:0 3:0 4:0 5:1 6:0 7:1 8:216 9:11094 10:1 11:0 12:0 13:0 14:3 15:7 16:0 17:0 18:0 19:0 20:1 21:0 22:0.43 23:46 24:231 25:1 26:0 27:0.02 28:0.04 29:0 30:0 31:0 32:0 
0.027950230274546996 0:0 1:1 2:0 3:0 4:0 5:1 6:0 7:1 8:163 9:30042 10:1 11:0 12:0 13:0 14:2 15:2 16:0 17:0 18:0 19:0 20:1 21:0 22:0 23:12 24:255 25:1 26:0 27:0.08 28:0.03 29:0 30:0 31:0 32:0 
0.021983766334039014 0:0 1:1 2:0 3:0 4:0 5:1 6:0 7:1 8:163 9:22886 10:1 11:0 12:0 13:0 14:1 15:2 16:0 17:0 18:0 19:0 20:1 21:0 22:1 23:255 24:255 25:1 26:0 27:0 28:0 29:0 30:0 31:0 32:0 
0.0083374587062270307 0:0 1:1 2:0 3:0 4:0 5:1 6:0 7:1 8:276 9:25868 10:1 11:0 12:0 13:0 14:1 15:3 16:0 17:0.33 18:0 19:0 20:1 21:0 22:0.67 23:255 24:255 25:1 26:0 27:0 28:0 29:0 30:0 31:0 32:0 
0.019906416071232988 0:0 1:1 2:0 3:0 4:0 5:1 6:0 7:1 8:352 9:11580 10:1 11:0 12:0 13:0 14:26 15:26 16:0 17:0 18:0 19:0 20:1 21:0 22:0 23:138 24:255 25:1 26:0 27:0.01 28:0.03 29:0 30:0 31:0 32:0 
0.0087022517178834934 0:0 1:1 2:0 3:0 4:0 5:1 6:0 7:1 8:294 9:16407 10:1 11:0 12:0 13:0 14:3 15:32 16:0 17:0 18:0 19:0 20:1 21:0 22:0.06 23:21 24:253 25:1 26:0 27:0.05 28:0.05 29:0 30:0 31:0 32:0 
0.018159061744643462 0:0 1:1 2:0 3:0 4:0 5:1 6:0 7:1 8:225 9:22047 10:1 11:0 12:0 13:0 14:20 15:20 16:0.05 17:0.05 18:0 19:0 20:1 21:0 22:0 23:119 24:255 25:1 26:0 27:0.01 28:0.01 29:0.01 30:0 31:0 32:0 
0.0038482824314122997 0:0 1:1 2:0 3:0 4:0 5:1 6:0 7:1 8:250 9:8467 10:1 11:0 12:0 13:0 14:6 15:7 16:0 17:0 18:0 19:0 20:1 21:0 22:0.29 23:37 24:255 25:1 26:0 27:0.03 28:0.04 29:0 30:0 31:0 32:0 
0.020665306747639577 0:0 1:1 2:0 3:0 4:0 5:1 6:0 7:1 8:290 9:37009 10:1 11:0 12:0 13:0 14:10 15:10 16:0 17:0 18:0 19:0 20:1 21:0 22:0 23:109 24:255 25:1 26:0 27:0.01 28:0.02 29:0 30:0 31:0 32:0 
0.0097823456970713325 0:0 1:1 2:0 3:0 4:0 5:1 6:0 7:1 8:231 9:31230 10:1 11:0 12:0 13:0 14:4 15:4 16:0 17:0 18:0 19:0 20:1 21:0 22:0 23:255 24:255 25:1 26:0 27:0 28:0 29:0 30:0 31:0 32:0 
0.019026657596815516 0:0 1:1 2:0 3:0 4:0 5:1 6:0 7:1 8:221 9:19471 10:1 11:0 12:0 13:0 14:2 15:2 16:0 17:0 18:0 19:0 20:1 21:0 22:0 23:2 24:255 25:1 26:0 27:0.5 28:0.07 29:0 30:0 31:0 32:0 
0.019378643987328515 0:0 1:1 2:0 3:0 4:0 5:1 6:0 7:1 8:295 9:35949 10:1 11:0 12:0 13:0 14:2 15:2 16:0 17:0 18:0 19:0 20:1 21:0 22:0 23:5 24:255 25:1 26:0 27:0.2 28:0.01 29:0 30:0 31:0 32:0 
0.028439601142206533 0:0 1:1 2:0 3:0 4:0 5:1 6:0 7:1 8:299 9:72160 10:1 11:0 12:0 13:0 14:5 15:5 16:0 17:0 18:0 19:0 20:1 21:0 22:0 23:48 24:255 25:1 26:0 27:0.02 28:0.05 29:0 30:0 31:0 32:0 
0.013773032566653458 0:0 1:1 2:0 3:0 4:0 5:1 6:0 7:1 8:320 9:18805 10:1 11:0 12:0 13:0 14:5 15:5 16:0 17:0 18:0 19:0 20:1 21:0 22:0 23:228 24:255 25:1 26:0 27:0 28:0.01 29:0 30:0 31:0 32:0 
0.014640463785449755 0:0 1:1 2:0 3:0 4:0 5:1 6:0 7:1 8:271 9:10462 10:1 11:0 12:0 13:0 14:6 15:28 16:0 17:0 18:0 19:0 20:1 21:0 22:0.11 23:98 24:255 25:1 26:0 27:0.01 28:0.03 29:0 30:0 31:0 32:0 
0.010245632486101138 0:0 1:1 2:0 3:0 4:0 5:1 6:0 7:1 8:293 9:38125 10:1 11:0 12:0 13:0 14:10 15:19 16:0 17:0 18:0 19:0 20:1 21:0 22:0.11 23:10 24:255 25:1 26:0 27:0.1 28:0.01 29:0 30:0 31:0 32:0 
0.0077818362154381971 0:0 1:1 2:0 3:0 4:0 5:1 6:0 7:1 8:202 9:10318 10:1 11:0 12:0 13:0 14:3 15:3 16:0 17:0 18:0 19:0 20:1 21:0 22:0 23:195 24:255 25:1 26:0 27:0.01 28:0.01 29:0 30:0 31:0 32:0 
0.0054083497887466945 0:0 1:1 2:0 3:0 4:0 5:1 6:0 7:1 8:245 9:11415 10:1 11:0 12:0 13:0 14:26 15:26 16:0 17:0 18:0 19:0 20:1 21:0 22:0 23:233 24:255 25:1 26:0 27:0 28:0.02 29:0 30:0 31:0 32:0 
0.011164712164894003 0:0 1:1 2:0 3:0 4:0 5:1 6:0 7:1 8:224 9:33586 10:1 11:0 12:0 13:0 14:7 15:7 16:0 17:0 18:0 19:0 20:1 21:0 22:0 23:255 24:255 25:1 26:0 27:0 28:0 29:0 30:0 31:0 32:0 
0.0096560332976036167 0:0 1:1 2:0 3:0 4:0 5:1 6:0 7:1 8:231 9:9009 10:1 11:0 12:0 13:0 14:11 15:36 16:0 17:0 18:0 19:0 20:1 21:0 22:0.06 23:28 24:255 25:1 26:0 27:0.04 28:0.03 29:0 30:0 31:0 32:0 
0.0057966196610379217 0:0 1:1 2:0 3:0 4:0 5:1 6:0 7:1 8:163 9:19983 10:1 11:0 12:0 13:0 14:2 15:2 16:0 17:0 18:0 19:0 20:1 21:0 22:0 23:201 24:255 25:1 26:0 27:0 28:0.02 29:0 30:0 31:0 32:0 
0.018088403657580195 0:0 1:1 2:0 3:0 4:0 5:1 6:0 7:1 8:144 9:10209 10:1 11:0 12:0 13:0 14:3 15:3 16:0 17:0 18:0 19:0 20:1 21:0 22:0 23:7 24:255 25:1 26:0 27:0.14 28:0.02 29:0 30:0 31:0 32:0 
0.0024016737910628524 0:0 1:1 2:0 3:0 4:0 5:1 6:0 7:1 8:274 9:15342 10:1 11:0 12:0 13:0 14:6 15:6 16:0 17:0 18:0 19:0 20:1 21:0 22:0 23:255 24:255 25:1 26:0 27:0.01 28:0 29:0 30:0 31:0 32:0 
0.01116370579349195 0:0 1:1 2:0 3:0 4:0 5:1 6:0 7:1 8:225 9:16193 10:1 11:0 12:0 13:0 14:1 15:4 16:0 17:0 18:0 19:0 20:1 21:0 22:0.75 23:2 24:255 25:1 26:0 27:0.5 28:0.03 29:0 30:0 31:0 32:0 
0.0064577567100546898 0:0 1:1 2:0 3:0 4:0 5:1 6:0 7:1 8:296 9:22934 10:1 11:0 12:0 13:0 14:28 15:28 16:0 17:0 18:0 19:0 20:1 21:0 22:0 23:255 24:255 25:1 26:0 27:0 28:0 29:0 30:0 31:0 32:0 
0.022508259788533831 0:0 1:1 2:0 3:0 4:0 5:1 6:0 7:1 8:296 9:11016 10:1 11:0 12:0 13:0 14:4 15:4 16:0 17:0 18:0 19:0 20:1 21:0 22:0 23:182 24:255 25:1 26:0 27:0.01 28:0.01 29:0 30:0 31:0 32:0 
0.015931947488534645 0:0 1:1 2:0 3:0 4:0 5:1 6:0 7:1 8:300 9:22055 10:1 11:0 12:0 13:0 14:4 15:4 16:0 17:0 18:0 19:0 20:1 21:0 22:0 23:46 24:255 25:1 26:0 27:0.02 28:0.03 29:0 30:0 31:0 32:0 
0.022099000715497912 0:0 1:1 2:0 3:0 4:0 5:1 6:0 7:1 8:320 9:25948 10:1 11:0 12:0 13:0 14:11 15:11 16:0 17:0 18:0 19:0 20:1 21:0 22:0 23:31 24:255 25:1 26:0 27:0.03 28:0.02 29:0 30:0 31:0 32:0 
0.02566851421272796 0:0 1:1 2:0 3:0 4:0 5:1 6:0 7:1 8:316 9:34557 10:1 11:0 12:0 13:0 14:3 15:7 16:0 17:0 18:0 19:0 20:1 21:0 22:0.43 23:32 24:255 25:1 26:0 27:0.03 28:0.08 29:0 30:0 31:0 32:0 
0.017868887868908567 0:0 1:1 2:0 3:0 4:0 5:1 6:0 7:1 8:294 9:16918 10:1 11:0 12:0 13:0 14:1 15:1 16:0 17:0 18:0 19:0 20:1 21:0 22:0 23:3 24:255 25:1 26:0 27:0.33 28:0.03 29:0 30:0 31:0 32:0 
0.028221957289448006 0:0 1:1 2:0 3:0 4:0 5:1 6:0 7:1 8:232 9:64983 10:1 11:0 12:0 13:0 14:1 15:1 16:0 17:0 18:0 19:0 20:1 21:0 22:0 23:9 24:255 25:1 26:0 27:0.11 28:0.04 29:0 30:0 31:0 32:0 
