svm_type one_class
kernel_type rbf
gamma 0.0001
nr_class 2
total_sv 1
rho 0.01
SV
0.01 0:285 1:0 2:1 3:0 4:1 5:0 6:0 7:1 8:145 9:105 10:1 11:0 12:0 13:0 14:5 15:2 16:0 17:0 18:0 19:0 20:0.4 21:0.6 22:0 23:255 24:3 25:0.01 26:0.59 27:0.96 28:0 29:0 30:0 31:0 32:0 
