svm_type one_class
kernel_type rbf
gamma 0.0001
nr_class 2
total_sv 1
rho 0.01
SV
0.01 0:0 1:1 2:0 3:0 4:1 5:0 6:0 7:1 8:30774 9:479 10:1 11:0 12:0 13:0 14:1 15:5 16:0 17:0 18:0 19:0 20:1 21:0 22:1 23:198 24:30 25:0.05 26:0.51 27:0.01 28:0.07 29:0 30:0 31:0.94 32:0.03 
