svm_type one_class
kernel_type rbf
gamma 0.0001
nr_class 2
total_sv 3
rho 0.0099999999999999985
SV
0.010312499999999999 0:12096 1:1 2:0 3:0 4:1 5:0 6:0 7:1 8:99 9:2822 10:1 11:0 12:0 13:0 14:1 15:1 16:0 17:0 18:0 19:0 20:1 21:0 22:0 23:3 24:2 25:0.33 26:0.67 27:0.33 28:1 29:0 30:0 31:0 32:0 
0.0093749999999999997 0:14943 1:1 2:0 3:0 4:1 5:0 6:0 7:1 8:1357 9:227537 10:1 11:0 12:0 13:0 14:1 15:1 16:0 17:0 18:0 19:0 20:1 21:0 22:0 23:2 24:2 25:0.5 26:1 27:0.5 28:1 29:0 30:0 31:0 32:0 
0.010312499999999999 0:15211 1:1 2:0 3:0 4:1 5:0 6:0 7:1 8:454 9:144329 10:1 11:0 12:0 13:0 14:1 15:1 16:0 17:0 18:0 19:0 20:1 21:0 22:0 23:3 24:2 25:0.33 26:0.67 27:0.33 28:1 29:0 30:0.5 31:0 32:0 
