svm_type one_class
kernel_type rbf
gamma 0.0001
nr_class 2
total_sv 2
rho 0.039039663076400756
SV
0.019999999999999966 0:0 1:1 2:0 3:0 4:1 5:0 6:1 7:0 8:0 9:0 10:1 11:0 12:0 13:0 14:1 15:1 16:0 17:0 18:1 19:1 20:1 21:0 22:0 23:255 24:1 25:0 26:0.07 27:0 28:0 29:0.71 30:0 31:0.02 32:1 
0.020000000000000035 0:0 1:1 2:0 3:0 4:1 5:0 6:0 7:1 8:22 9:0 10:1 11:0 12:0 13:0 14:2 15:2 16:0 17:0 18:0 19:0 20:1 21:0 22:0 23:255 24:2 25:0.01 26:0.06 27:0.01 28:0 29:0.99 30:0 31:0 32:0 
