svm_type one_class
kernel_type rbf
gamma 0.0001
nr_class 2
total_sv 566
rho 0.034531943899246666
SV
0.022684917146788525 0:0 1:1 2:0 3:0 4:1 5:0 6:0 7:1 8:2089 9:335 10:1 11:0 12:0 13:0 14:2 15:2 16:0 17:0 18:0 19:0 20:0.5 21:1 22:1 23:255 24:152 25:0.6 26:0.03 27:0 28:0 29:0.01 30:0.02 31:0 32:0.01 
0.012970001959072554 0:0 1:1 2:0 3:0 4:0 5:1 6:0 7:1 8:230 9:6880 10:1 11:0 12:0 13:0 14:1 15:17 16:0 17:0 18:0 19:0 20:1 21:0 22:0.29 23:24 24:255 25:1 26:0 27:0.04 28:0.04 29:0 30:0 31:0 32:0.01 
0.022350956303390342 0:0 1:1 2:0 3:0 4:0 5:1 6:0 7:1 8:256 9:4486 10:1 11:0 12:0 13:0 14:1 15:1 16:0 17:0 18:0 19:0 20:1 21:0 22:0 23:255 24:250 25:0.98 26:0.01 27:0 28:0 29:0 30:0 31:0.01 32:0.01 
0.02943591077041333 0:0 1:1 2:0 3:0 4:0 5:1 6:0 7:1 8:318 9:9696 10:1 11:0 12:0 13:0 14:40 15:40 16:0 17:0 18:0 19:0 20:1 21:0 22:0 23:255 24:255 25:1 26:0 27:0 28:0 29:0 30:0 31:0.01 32:0.01 
0.034721190604491511 0:0 1:1 2:0 3:0 4:0 5:1 6:0 7:1 8:172 9:15119 10:1 11:0 12:0 13:0 14:1 15:1 16:0 17:0 18:0 19:0 20:1 21:0 22:0 23:159 24:255 25:1 26:0 27:0.01 28:0.02 29:0 30:0 31:0.02 32:0.01 
0.0093115570749159708 0:0 1:1 2:0 3:0 4:0 5:1 6:0 7:1 8:173 9:438 10:1 11:0 12:0 13:0 14:1 15:1 16:0 17:0 18:0 19:0 20:1 21:0 22:0 23:120 24:255 25:1 26:0 27:0.01 28:0.01 29:0 30:0 31:0.02 32:0.01 
0.033272736122051172 0:0 1:1 2:0 3:0 4:0 5:1 6:0 7:1 8:302 9:11440 10:1 11:0 12:0 13:0 14:12 15:23 16:0 17:0 18:0.08 19:0.09 20:1 21:0 22:0.17 23:23 24:255 25:1 26:0 27:0.04 28:0.01 29:0 30:0 31:0.04 32:0.01 
0.016858237998895558 0:0 1:1 2:0 3:0 4:0 5:1 6:0 7:1 8:167 9:12937 10:1 11:0 12:0 13:0 14:9 15:11 16:0 17:0 18:0 19:0 20:1 21:0 22:0.18 23:9 24:255 25:1 26:0 27:0.11 28:0.04 29:0 30:0 31:0 32:0.01 
0.017606037532902036 0:0 1:1 2:0 3:0 4:0 5:1 6:0 7:1 8:273 9:8193 10:1 11:0 12:0 13:0 14:1 15:1 16:0 17:0 18:0 19:0 20:1 21:0 22:0 23:182 24:255 25:1 26:0 27:0.01 28:0.03 29:0 30:0 31:0.01 32:0.01 
0.010423555577315041 0:0 1:1 2:0 3:0 4:0 5:1 6:0 7:1 8:303 9:1337 10:1 11:0 12:0 13:0 14:19 15:24 16:0 17:0 18:0 19:0 20:1 21:0 22:0.08 23:19 24:255 25:1 26:0 27:0.05 28:0.03 29:0 30:0 31:0 32:0.01 
0.033107780558444926 0:0 1:1 2:0 3:0 4:0 5:1 6:0 7:1 8:145 9:4788 10:1 11:0 12:0 13:0 14:17 15:17 16:0 17:0 18:0 19:0 20:1 21:0 22:0 23:77 24:91 25:1 26:0 27:0.01 28:0.02 29:0 30:0 31:0 32:0.01 
0.0065363832899418325 0:0 1:1 2:0 3:0 4:0 5:1 6:0 7:1 8:309 9:1949 10:1 11:0 12:0 13:0 14:7 15:13 16:0 17:0.08 18:0 19:0.08 20:1 21:0 22:0.23 23:163 24:255 25:1 26:0 27:0.01 28:0.02 29:0 30:0.01 31:0.01 32:0.01 
0.023640459598864887 0:0 1:1 2:0 3:0 4:0 5:1 6:0 7:1 8:189 9:5360 10:1 11:0 12:0 13:0 14:5 15:6 16:0 17:0 18:0 19:0 20:1 21:0 22:0.33 23:40 24:255 25:1 26:0 27:0.03 28:0.01 29:0 30:0 31:0.03 32:0.01 
0.022016547314151501 0:0 1:1 2:0 3:0 4:1 5:0 6:0 7:1 8:2140 9:326 10:1 11:0 12:0 13:0 14:1 15:2 16:0 17:0 18:0 19:0 20:1 21:0 22:1 23:87 24:170 25:0.71 26:0.03 27:0.01 28:0.02 29:0 30:0.03 31:0 32:0.01 
0.021442516077014955 0:0 1:1 2:0 3:0 4:1 5:0 6:0 7:1 8:1129 9:327 10:1 11:0 12:0 13:0 14:1 15:1 16:0 17:0 18:0 19:0 20:1 21:0 22:0 23:7 24:138 25:1 26:0 27:0.14 28:0.02 29:0 30:0.04 31:0 32:0.01 
0.012787775321159055 0:0 1:1 2:0 3:0 4:0 5:1 6:0 7:1 8:190 9:244 10:1 11:0 12:0 13:0 14:27 15:28 16:0 17:0 18:0 19:0 20:1 21:0 22:0.07 23:255 24:255 25:1 26:0 27:0 28:0 29:0 30:0 31:0.01 32:0.01 
0.033174376027018754 0:0 1:1 2:0 3:0 4:0 5:1 6:0 7:1 8:285 9:9091 10:1 11:0 12:0 13:0 14:1 15:1 16:0 17:0 18:0 19:0 20:1 21:0 22:0 23:23 24:100 25:1 26:0 27:0.04 28:0.06 29:0 30:0 31:0 32:0.01 
0.013997842254795717 0:0 1:1 2:0 3:0 4:0 5:1 6:0 7:1 8:236 9:2731 10:1 11:0 12:0 13:0 14:3 15:3 16:0 17:0 18:0 19:0 20:1 21:0 22:0 23:6 24:255 25:1 26:0 27:0.17 28:0.05 29:0 30:0 31:0 32:0.01 
0.0021359552564745917 0:0 1:1 2:0 3:0 4:0 5:1 6:0 7:1 8:206 9:658 10:1 11:0 12:0 13:0 14:8 15:10 16:0 17:0 18:0 19:0 20:1 21:0 22:0.2 23:9 24:255 25:1 26:0 27:0.11 28:0.03 29:0 30:0 31:0 32:0.01 
0.034093358052475667 0:0 1:1 2:0 3:0 4:0 5:1 6:0 7:1 8:213 9:33514 10:1 11:0 12:0 13:0 14:1 15:6 16:0 17:0 18:0 19:0 20:1 21:0 22:0.5 23:3 24:251 25:1 26:0 27:0.33 28:0.04 29:0 30:0 31:0 32:0.01 
0.033617608610193563 0:0 1:1 2:0 3:0 4:0 5:1 6:0 7:1 8:313 9:25519 10:1 11:0 12:0 13:0 14:2 15:2 16:0 17:0 18:0 19:0 20:1 21:0 22:0 23:255 24:255 25:1 26:0 27:0 28:0 29:0 30:0 31:0.01 32:0.01 
0.021141301827931384 0:0 1:1 2:0 3:0 4:0 5:1 6:0 7:1 8:262 9:4165 10:1 11:0 12:0 13:0 14:5 15:5 16:0 17:0 18:0 19:0 20:1 21:0 22:0 23:5 24:255 25:1 26:0 27:0.2 28:0.05 29:0 30:0 31:0 32:0.01 
0.0030046032543642994 0:0 1:1 2:0 3:0 4:0 5:1 6:0 7:1 8:195 9:1993 10:1 11:0 12:0 13:0 14:9 15:9 16:0 17:0 18:0 19:0 20:1 21:0 22:0 23:134 24:255 25:1 26:0 27:0.01 28:0.04 29:0 30:0 31:0.01 32:0.01 
0.0073232999826213698 0:0 1:1 2:0 3:0 4:0 5:1 6:0 7:1 8:227 9:6822 10:1 11:0 12:0 13:0 14:6 15:6 16:0 17:0 18:0 19:0 20:1 21:0 22:0 23:58 24:255 25:1 26:0 27:0.02 28:0.02 29:0 30:0 31:0 32:0.01 
0.0038104081522714124 0:0 1:1 2:0 3:0 4:0 5:1 6:0 7:1 8:211 9:356 10:1 11:0 12:0 13:0 14:8 15:8 16:0 17:0 18:0 19:0 20:1 21:0 22:0 23:255 24:255 25:1 26:0 27:0 28:0 29:0 30:0 31:0.01 32:0.01 
0.026461690211831604 0:0 1:1 2:0 3:0 4:0 5:1 6:0 7:1 8:217 9:6763 10:1 11:0 12:0 13:0 14:3 15:3 16:0 17:0 18:0 19:0 20:1 21:0 22:0 23:255 24:255 25:1 26:0 27:0 28:0 29:0 30:0 31:0.01 32:0.01 
0.0093843310021309596 0:0 1:1 2:0 3:0 4:0 5:1 6:0 7:1 8:143 9:9578 10:1 11:0 12:0 13:0 14:1 15:2 16:0 17:0 18:0 19:0 20:1 21:0 22:1 23:59 24:255 25:1 26:0 27:0.02 28:0.06 29:0.03 30:0.01 31:0.02 32:0.01 
0.028850685531195706 0:0 1:1 2:0 3:0 4:0 5:1 6:0 7:1 8:294 9:9833 10:1 11:0 12:0 13:0 14:28 15:42 16:0 17:0 18:0.04 19:0.02 20:1 21:0 22:0.1 23:58 24:255 25:1 26:0 27:0.02 28:0.01 29:0 30:0 31:0.02 32:0.01 
0.0032988324438073128 0:0 1:1 2:0 3:0 4:0 5:1 6:0 7:1 8:186 9:4841 10:1 11:0 12:0 13:0 14:3 15:4 16:0 17:0 18:0 19:0 20:1 21:0 22:0.5 23:53 24:255 25:1 26:0 27:0.02 28:0.03 29:0 30:0 31:0 32:0.01 
0.034741537762213573 0:0 1:1 2:0 3:0 4:0 5:1 6:0 7:1 8:240 9:31639 10:1 11:0 12:0 13:0 14:2 15:6 16:0 17:0 18:0 19:0 20:1 21:0 22:0.33 23:52 24:255 25:1 26:0 27:0.02 28:0.03 29:0 30:0 31:0.02 32:0.01 
0.014693415777271812 0:0 1:1 2:0 3:0 4:0 5:1 6:0 7:1 8:309 9:7263 10:1 11:0 12:0 13:0 14:11 15:11 16:0 17:0 18:0 19:0 20:1 21:0 22:0 23:133 24:255 25:1 26:0 27:0.01 28:0.01 29:0 30:0 31:0.02 32:0.01 
0.024055048124334091 0:0 1:1 2:0 3:0 4:0 5:1 6:0 7:1 8:356 9:2431 10:1 11:0 12:0 13:0 14:2 15:2 16:0 17:0 18:0 19:0 20:1 21:0 22:0 23:255 24:255 25:1 26:0 27:0 28:0 29:0 30:0 31:0.01 32:0.01 
0.0040804340449793614 0:0 1:1 2:0 3:0 4:0 5:1 6:0 7:1 8:237 9:2912 10:1 11:0 12:0 13:0 14:2 15:47 16:0 17:0 18:0 19:0 20:1 21:0 22:0.15 23:53 24:255 25:1 26:0 27:0.02 28:0.01 29:0 30:0 31:0 32:0.01 
0.034473255485474294 0:0 1:1 2:0 3:0 4:0 5:1 6:0 7:1 8:146 9:15634 10:1 11:0 12:0 13:0 14:13 15:14 16:0 17:0 18:0 19:0 20:1 21:0 22:0.14 23:255 24:255 25:1 26:0 27:0 28:0 29:0 30:0 31:0.01 32:0.01 
0.023866008535255615 0:0 1:1 2:0 3:0 4:0 5:1 6:0 7:1 8:198 9:1085 10:1 11:0 12:0 13:0 14:23 15:23 16:0 17:0 18:0 19:0 20:1 21:0 22:0 23:255 24:255 25:1 26:0 27:0 28:0 29:0 30:0 31:0.01 32:0.01 
0.029761275784368182 0:0 1:1 2:0 3:0 4:1 5:0 6:0 7:1 8:2685 9:358 10:1 11:0 12:0 13:0 14:1 15:1 16:0 17:0 18:0 19:0 20:1 21:0 22:0 23:107 24:183 25:0.77 26:0.03 27:0.01 28:0.01 29:0 30:0.03 31:0 32:0.01 
0.01349752247874678 0:0 1:1 2:0 3:0 4:0 5:1 6:0 7:1 8:242 9:175 10:1 11:0 12:0 13:0 14:1 15:1 16:0 17:0 18:0 19:0 20:1 21:0 22:0 23:255 24:255 25:1 26:0 27:0 28:0 29:0 30:0 31:0.01 32:0.01 
0.034729361364524702 0:0 1:1 2:0 3:0 4:1 5:0 6:0 7:1 8:3724 9:330 10:1 11:0 12:0 13:0 14:1 15:1 16:0 17:0 18:0 19:0 20:1 21:0 22:0 23:77 24:155 25:0.88 26:0.05 27:0.01 28:0.02 29:0.01 30:0.02 31:0 32:0.01 
0.0082482572709298065 0:0 1:1 2:0 3:0 4:0 5:1 6:0 7:1 8:342 9:753 10:1 11:0 12:0 13:0 14:1 15:1 16:0 17:0 18:0 19:0 20:1 21:0 22:0 23:169 24:255 25:1 26:0 27:0.01 28:0.02 29:0.01 30:0 31:0.01 32:0.01 
0.0023744635943226842 0:0 1:1 2:0 3:0 4:0 5:1 6:0 7:1 8:335 9:5480 10:1 11:0 12:0 13:0 14:4 15:12 16:0 17:0.08 18:0 19:0 20:1 21:0 22:0.25 23:85 24:255 25:1 26:0 27:0.01 28:0.02 29:0 30:0 31:0.01 32:0.01 
0.016578392054743384 0:0 1:1 2:0 3:0 4:0 5:1 6:0 7:1 8:194 9:8163 10:1 11:0 12:0 13:0 14:24 15:35 16:0 17:0 18:0 19:0 20:1 21:0 22:0.06 23:24 24:255 25:1 26:0 27:0.04 28:0.04 29:0 30:0.01 31:0 32:0.01 
0.020105684157068628 0:0 1:1 2:0 3:0 4:0 5:1 6:0 7:1 8:234 9:8139 10:1 11:0 12:0 13:0 14:5 15:5 16:0 17:0 18:0 19:0 20:1 21:0 22:0 23:255 24:255 25:1 26:0 27:0 28:0 29:0 30:0 31:0.01 32:0.01 
0.006093283576630742 0:0 1:1 2:0 3:0 4:0 5:1 6:0 7:1 8:197 9:4966 10:1 11:0 12:0 13:0 14:5 15:5 16:0 17:0 18:0 19:0 20:1 21:0 22:0 23:8 24:255 25:1 26:0 27:0.12 28:0.05 29:0 30:0 31:0 32:0.01 
0.0062429557792918373 0:0 1:1 2:0 3:0 4:0 5:1 6:0 7:1 8:255 9:6023 10:1 11:0 12:0 13:0 14:4 15:4 16:0 17:0 18:0 19:0 20:1 21:0 22:0 23:53 24:255 25:1 26:0 27:0.02 28:0.03 29:0.02 30:0.01 31:0.02 32:0.01 
0.015331982565367143 0:0 1:1 2:0 3:0 4:0 5:1 6:0 7:1 8:335 9:652 10:1 11:0 12:0 13:0 14:2 15:2 16:0 17:0 18:0 19:0 20:1 21:0 22:0 23:10 24:255 25:1 26:0 27:0.1 28:0.02 29:0 30:0 31:0 32:0.01 
0.030584331232509705 0:0 1:1 2:0 3:0 4:0 5:1 6:0 7:1 8:338 9:5759 10:1 11:0 12:0 13:0 14:4 15:4 16:0 17:0 18:0 19:0 20:1 21:0 22:0 23:65 24:115 25:1 26:0 27:0.02 28:0.03 29:0 30:0 31:0 32:0.01 
0.003363001650281429 0:0 1:1 2:0 3:0 4:0 5:1 6:0 7:1 8:228 9:6860 10:1 11:0 12:0 13:0 14:15 15:15 16:0 17:0 18:0 19:0 20:1 21:0 22:0 23:100 24:255 25:1 26:0 27:0.01 28:0.02 29:0 30:0 31:0.01 32:0.01 
0.0080644000324424751 0:0 1:1 2:0 3:0 4:0 5:1 6:0 7:1 8:211 9:2081 10:1 11:0 12:0 13:0 14:5 15:8 16:0 17:0 18:0 19:0 20:1 21:0 22:0.25 23:88 24:255 25:1 26:0 27:0.01 28:0.04 29:0 30:0 31:0 32:0.01 
0.034748145308021214 0:0 1:1 2:0 3:0 4:0 5:1 6:0 7:1 8:312 9:30739 10:1 11:0 12:0 13:0 14:2 15:4 16:0 17:0.25 18:0 19:0 20:1 21:0 22:0.5 23:155 24:255 25:1 26:0 27:0.01 28:0.03 29:0 30:0 31:0.01 32:0.01 
0.006684964885649858 0:0 1:1 2:0 3:0 4:0 5:1 6:0 7:1 8:281 9:4768 10:1 11:0 12:0 13:0 14:12 15:12 16:0 17:0 18:0 19:0 20:1 21:0 22:0 23:160 24:255 25:1 26:0 27:0.01 28:0.01 29:0 30:0 31:0.01 32:0.01 
0.0039540918759902663 0:0 1:1 2:0 3:0 4:0 5:1 6:0 7:1 8:312 9:124 10:1 11:0 12:0 13:0 14:3 15:18 16:0 17:0 18:0 19:0 20:1 21:0 22:0.28 23:68 24:255 25:1 26:0 27:0.01 28:0.02 29:0 30:0 31:0.01 32:0.01 
0.021277302653719576 0:0 1:1 2:0 3:0 4:0 5:1 6:0 7:1 8:236 9:3222 10:1 11:0 12:0 13:0 14:7 15:7 16:0 17:0 18:0 19:0 20:1 21:0 22:0 23:255 24:248 25:0.97 26:0.01 27:0 28:0 29:0 30:0 31:0.01 32:0.01 
0.011940389594953809 0:0 1:1 2:0 3:0 4:1 5:0 6:0 7:1 8:1353 9:330 10:1 11:0 12:0 13:0 14:2 15:1 16:0 17:0 18:0 19:0 20:0.5 21:1 22:0 23:255 24:149 25:0.58 26:0.03 27:0 28:0 29:0.01 30:0.02 31:0 32:0.01 
0.0048085885575604517 0:0 1:1 2:0 3:0 4:0 5:1 6:0 7:1 8:266 9:1646 10:1 11:0 12:0 13:0 14:15 15:17 16:0 17:0 18:0 19:0 20:1 21:0 22:0.12 23:255 24:255 25:1 26:0 27:0 28:0 29:0 30:0 31:0.01 32:0.01 
0.014771771359480311 0:0 1:1 2:0 3:0 4:0 5:1 6:0 7:1 8:316 9:912 10:1 11:0 12:0 13:0 14:7 15:7 16:0 17:0 18:0 19:0 20:1 21:0 22:0 23:22 24:255 25:1 26:0 27:0.05 28:0.03 29:0 30:0 31:0 32:0.01 
0.031422538590169594 0:0 1:1 2:0 3:0 4:0 5:1 6:0 7:1 8:231 9:9950 10:1 11:0 12:0 13:0 14:1 15:13 16:0 17:0 18:0 19:0 20:1 21:0 22:0.15 23:7 24:254 25:1 26:0 27:0.14 28:0.03 29:0 30:0 31:0 32:0.01 
0.013020507684229878 0:0 1:1 2:0 3:0 4:0 5:1 6:0 7:1 8:303 9:2495 10:1 11:0 12:0 13:0 14:7 15:7 16:0 17:0 18:0 19:0 20:1 21:0 22:0 23:7 24:255 25:1 26:0 27:0.14 28:0.04 29:0 30:0 31:0 32:0.01 
0.0083725068899611899 0:0 1:1 2:0 3:0 4:0 5:1 6:0 7:1 8:223 9:1208 10:1 11:0 12:0 13:0 14:50 15:50 16:0 17:0 18:0.02 19:0.02 20:1 21:0 22:0 23:99 24:255 25:1 26:0 27:0.02 28:0.03 29:0 30:0 31:0.01 32:0.01 
0.012500966050532537 0:0 1:1 2:0 3:0 4:0 5:1 6:0 7:1 8:361 9:777 10:1 11:0 12:0 13:0 14:18 15:19 16:0 17:0 18:0 19:0 20:1 21:0 22:0.11 23:255 24:255 25:1 26:0 27:0 28:0 29:0 30:0 31:0.01 32:0.01 
0.024408028595235914 0:0 1:1 2:0 3:0 4:0 5:1 6:0 7:1 8:357 9:2333 10:1 11:0 12:0 13:0 14:21 15:25 16:0 17:0 18:0 19:0 20:1 21:0 22:0.08 23:68 24:255 25:1 26:0 27:0.01 28:0.02 29:0 30:0.02 31:0 32:0.01 
0.031978991021581117 0:0 1:1 2:0 3:0 4:0 5:1 6:0 7:1 8:293 9:25672 10:1 11:0 12:0 13:0 14:2 15:2 16:0 17:0 18:0 19:0 20:1 21:0 22:0 23:143 24:255 25:1 26:0 27:0.01 28:0.02 29:0 30:0 31:0 32:0.01 
0.003945847728092592 0:0 1:1 2:0 3:0 4:0 5:1 6:0 7:1 8:350 9:3098 10:1 11:0 12:0 13:0 14:28 15:47 16:0 17:0 18:0 19:0 20:1 21:0 22:0.09 23:108 24:255 25:1 26:0 27:0.01 28:0.01 29:0.01 30:0 31:0 32:0.01 
0.033564755289727799 0:0 1:1 2:0 3:0 4:0 5:1 6:0 7:1 8:203 9:11262 10:1 11:0 12:0 13:0 14:6 15:13 16:0 17:0 18:0 19:0.08 20:1 21:0 22:0.23 23:6 24:255 25:1 26:0 27:0.17 28:0.04 29:0 30:0 31:0 32:0.01 
0.014699966020472377 0:0 1:1 2:0 3:0 4:0 5:1 6:0 7:1 8:205 9:4275 10:1 11:0 12:0 13:0 14:12 15:12 16:0 17:0 18:0.08 19:0.08 20:1 21:0 22:0 23:39 24:255 25:1 26:0 27:0.03 28:0.04 29:0 30:0 31:0.05 32:0.01 
0.011762474057598855 0:0 1:1 2:0 3:0 4:0 5:1 6:0 7:1 8:337 9:1949 10:1 11:0 12:0 13:0 14:7 15:9 16:0 17:0 18:0 19:0 20:1 21:0 22:0.33 23:33 24:255 25:1 26:0 27:0.03 28:0.02 29:0 30:0.02 31:0 32:0.01 
0.0061774773804382649 0:0 1:1 2:0 3:0 4:0 5:1 6:0 7:1 8:262 9:531 10:1 11:0 12:0 13:0 14:8 15:45 16:0 17:0 18:0 19:0 20:1 21:0 22:0.04 23:255 24:255 25:1 26:0 27:0 28:0 29:0 30:0 31:0.01 32:0.01 
0.011652820491211097 0:2 1:1 2:0 3:0 4:1 5:0 6:0 7:1 8:1289 9:326 10:1 11:0 12:0 13:0 14:1 15:4 16:0 17:0 18:0 19:0 20:1 21:0 22:1 23:129 24:88 25:0.68 26:0.03 27:0.01 28:0 29:0 30:0 31:0.01 32:0.01 
0.021603111377559048 0:0 1:1 2:0 3:0 4:0 5:1 6:0 7:1 8:212 9:2345 10:1 11:0 12:0 13:0 14:3 15:9 16:0 17:0 18:0 19:0 20:1 21:0 22:0.22 23:3 24:215 25:1 26:0 27:0.33 28:0.01 29:0 30:0 31:0 32:0.01 
0.021156689526042306 0:0 1:1 2:0 3:0 4:0 5:1 6:0 7:1 8:314 9:369 10:1 11:0 12:0 13:0 14:3 15:3 16:0 17:0 18:0 19:0 20:1 21:0 22:0 23:3 24:122 25:1 26:0 27:0.33 28:0.07 29:0 30:0 31:0 32:0.01 
0.0024994865366403034 0:0 1:1 2:0 3:0 4:0 5:1 6:0 7:1 8:212 9:1090 10:1 11:0 12:0 13:0 14:16 15:16 16:0 17:0 18:0 19:0 20:1 21:0 22:0 23:174 24:255 25:1 26:0 27:0.01 28:0.04 29:0 30:0.01 31:0.01 32:0.01 
0.0014001705566032085 0:0 1:1 2:0 3:0 4:0 5:1 6:0 7:1 8:351 9:280 10:1 11:0 12:0 13:0 14:4 15:4 16:0 17:0 18:0 19:0 20:1 21:0 22:0 23:255 24:255 25:1 26:0 27:0 28:0 29:0 30:0 31:0.01 32:0.01 
0.023924120796711155 0:0 1:1 2:0 3:0 4:0 5:1 6:0 7:1 8:239 9:8317 10:1 11:0 12:0 13:0 14:1 15:5 16:0 17:0 18:0 19:0 20:1 21:0 22:0.4 23:64 24:254 25:1 26:0 27:0.02 28:0.03 29:0 30:0 31:0 32:0.01 
0.028178864325057392 0:0 1:1 2:0 3:0 4:0 5:1 6:0 7:1 8:279 9:8936 10:1 11:0 12:0 13:0 14:4 15:22 16:0 17:0.05 18:0 19:0 20:1 21:0 22:0.32 23:35 24:255 25:1 26:0 27:0.03 28:0.05 29:0 30:0 31:0.03 32:0.01 
0.017858039455209196 0:0 1:1 2:0 3:0 4:0 5:1 6:0 7:1 8:323 9:2025 10:1 11:0 12:0 13:0 14:6 15:8 16:0 17:0 18:0 19:0 20:1 21:0 22:0.38 23:6 24:255 25:1 26:0 27:0.17 28:0.02 29:0 30:0.01 31:0 32:0.01 
0.028321560230302724 0:0 1:1 2:0 3:0 4:0 5:1 6:0 7:1 8:141 9:7373 10:1 11:0 12:0 13:0 14:8 15:8 16:0 17:0 18:0 19:0 20:1 21:0 22:0 23:8 24:255 25:1 26:0 27:0.12 28:0.04 29:0 30:0.01 31:0 32:0.01 
0.02744860793512956 0:5 1:1 2:0 3:0 4:1 5:0 6:0 7:1 8:605 9:333 10:1 11:0 12:0 13:0 14:1 15:1 16:0 17:0 18:0 19:0 20:1 21:0 22:0 23:59 24:156 25:0.47 26:0.07 27:0.02 28:0.01 29:0 30:0 31:0 32:0.01 
0.012496093616953516 0:0 1:1 2:0 3:0 4:0 5:1 6:0 7:1 8:194 9:1423 10:1 11:0 12:0 13:0 14:10 15:10 16:0 17:0 18:0 19:0 20:1 21:0 22:0 23:107 24:255 25:1 26:0 27:0.01 28:0.02 29:0 30:0 31:0 32:0.01 
0.012028451706938914 0:0 1:1 2:0 3:0 4:0 5:1 6:0 7:1 8:231 9:2775 10:1 11:0 12:0 13:0 14:15 15:16 16:0 17:0 18:0 19:0 20:1 21:0 22:0.12 23:100 24:255 25:1 26:0 27:0.01 28:0.02 29:0 30:0 31:0.03 32:0.01 
0.016888328801502435 0:0 1:1 2:0 3:0 4:0 5:1 6:0 7:1 8:154 9:13386 10:1 11:0 12:0 13:0 14:4 15:4 16:0 17:0 18:0 19:0 20:1 21:0 22:0 23:150 24:255 25:1 26:0 27:0.01 28:0.03 29:0 30:0 31:0.01 32:0.01 
0.021216912518312796 0:0 1:1 2:0 3:0 4:0 5:1 6:0 7:1 8:198 9:11607 10:1 11:0 12:0 13:0 14:1 15:1 16:0 17:0 18:0 19:0 20:1 21:0 22:0 23:4 24:255 25:1 26:0 27:0.25 28:0.05 29:0 30:0 31:0 32:0.01 
0.012279552533543335 0:0 1:1 2:0 3:0 4:0 5:1 6:0 7:1 8:329 9:2189 10:1 11:0 12:0 13:0 14:5 15:5 16:0 17:0 18:0 19:0 20:1 21:0 22:0 23:124 24:255 25:1 26:0 27:0.01 28:0.02 29:0 30:0.02 31:0.01 32:0.01 
0.031679029402008396 0:0 1:1 2:0 3:0 4:0 5:1 6:0 7:1 8:155 9:4187 10:1 11:0 12:0 13:0 14:9 15:9 16:0 17:0 18:0 19:0 20:1 21:0 22:0 23:184 24:184 25:1 26:0 27:0.01 28:0 29:0 30:0 31:0.01 32:0.01 
0.0056966170021067377 0:0 1:1 2:0 3:0 4:0 5:1 6:0 7:1 8:226 9:673 10:1 11:0 12:0 13:0 14:13 15:16 16:0 17:0 18:0 19:0 20:1 21:0 22:0.25 23:255 24:255 25:1 26:0 27:0 28:0 29:0 30:0 31:0.01 32:0.01 
0.031032393615645026 0:0 1:1 2:0 3:0 4:0 5:1 6:0 7:1 8:309 9:10929 10:1 11:0 12:0 13:0 14:1 15:1 16:0 17:0 18:0 19:0 20:1 21:0 22:0 23:40 24:255 25:1 26:0 27:0.03 28:0.03 29:0 30:0 31:0 32:0.01 
0.023439738118433057 0:0 1:1 2:0 3:0 4:0 5:1 6:0 7:1 8:271 9:10615 10:1 11:0 12:0 13:0 14:1 15:1 16:0 17:0 18:0 19:0 20:1 21:0 22:0 23:31 24:255 25:1 26:0 27:0.03 28:0.03 29:0 30:0 31:0 32:0.01 
0.019542617025664538 0:0 1:1 2:0 3:0 4:0 5:1 6:0 7:1 8:349 9:2578 10:1 11:0 12:0 13:0 14:6 15:6 16:0 17:0 18:0 19:0 20:1 21:0 22:0 23:42 24:255 25:1 26:0 27:0.02 28:0.02 29:0 30:0 31:0 32:0.01 
0.0012339178270655685 0:0 1:1 2:0 3:0 4:0 5:1 6:0 7:1 8:342 9:2787 10:1 11:0 12:0 13:0 14:4 15:5 16:0 17:0 18:0 19:0 20:1 21:0 22:0.4 23:84 24:255 25:1 26:0 27:0.01 28:0.01 29:0.01 30:0 31:0 32:0.01 
0.018636940120630347 0:0 1:1 2:0 3:0 4:0 5:1 6:0 7:1 8:371 9:327 10:1 11:0 12:0 13:0 14:2 15:29 16:0 17:0 18:0 19:0 20:1 21:0 22:0.14 23:14 24:255 25:1 26:0 27:0.07 28:0.01 29:0 30:0 31:0 32:0.01 
0.01380655195093319 0:0 1:1 2:0 3:0 4:0 5:1 6:0 7:1 8:261 9:17739 10:1 11:0 12:0 13:0 14:1 15:5 16:0 17:0 18:0 19:0 20:1 21:0 22:0.4 23:92 24:255 25:1 26:0 27:0.01 28:0.05 29:0 30:0 31:0 32:0.01 
0.003800083718369509 0:0 1:1 2:0 3:0 4:0 5:1 6:0 7:1 8:144 9:9567 10:1 11:0 12:0 13:0 14:1 15:9 16:0 17:0 18:0 19:0 20:1 21:0 22:0.56 23:27 24:255 25:1 26:0 27:0.04 28:0.01 29:0 30:0 31:0.07 32:0.01 
0.026922352271060209 0:0 1:1 2:0 3:0 4:0 5:1 6:0 7:1 8:144 9:5086 10:1 11:0 12:0 13:0 14:1 15:1 16:0 17:0 18:0 19:0 20:1 21:0 22:0 23:13 24:255 25:1 26:0 27:0.08 28:0.05 29:0 30:0.01 31:0 32:0.01 
0.009041701825067033 0:0 1:1 2:0 3:0 4:1 5:0 6:0 7:1 8:1197 9:332 10:1 11:0 12:0 13:0 14:2 15:1 16:0 17:0 18:0 19:0 20:0.5 21:1 22:0 23:255 24:150 25:0.59 26:0.03 27:0 28:0 29:0.01 30:0.02 31:0 32:0.01 
0.016030113930101609 0:0 1:1 2:0 3:0 4:0 5:1 6:0 7:1 8:258 9:9692 10:1 11:0 12:0 13:0 14:1 15:1 16:0 17:0 18:0 19:0 20:1 21:0 22:0 23:36 24:255 25:1 26:0 27:0.03 28:0.07 29:0 30:0.01 31:0.03 32:0.01 
0.028161065045902399 0:1 1:1 2:0 3:0 4:1 5:0 6:0 7:1 8:2288 9:331 10:1 11:0 12:0 13:0 14:2 15:3 16:0 17:0 18:0 19:0 20:0.5 21:1 22:1 23:255 24:156 25:0.61 26:0.03 27:0 28:0 29:0.01 30:0.02 31:0 32:0.01 
0.0092590784829938537 0:0 1:1 2:0 3:0 4:0 5:1 6:0 7:1 8:306 9:3882 10:1 11:0 12:0 13:0 14:4 15:4 16:0 17:0 18:0 19:0 20:1 21:0 22:0 23:4 24:255 25:1 26:0 27:0.25 28:0.02 29:0 30:0 31:0 32:0.01 
0.013777886499464105 0:0 1:1 2:0 3:0 4:0 5:1 6:0 7:1 8:195 9:557 10:1 11:0 12:0 13:0 14:2 15:12 16:0 17:0 18:0 19:0 20:1 21:0 22:0.33 23:255 24:255 25:1 26:0 27:0 28:0 29:0 30:0 31:0.01 32:0.01 
0.025021950561690674 0:0 1:1 2:0 3:0 4:0 5:1 6:0 7:1 8:205 9:7176 10:1 11:0 12:0 13:0 14:20 15:22 16:0 17:0 18:0 19:0 20:1 21:0 22:0.09 23:42 24:255 25:1 26:0 27:0.02 28:0.06 29:0 30:0.01 31:0 32:0.01 
0.010620956501495723 0:1 1:1 2:0 3:0 4:1 5:0 6:0 7:1 8:1215 9:328 10:1 11:0 12:0 13:0 14:1 15:2 16:0 17:0 18:0 19:0 20:1 21:0 22:1 23:156 24:97 25:0.62 26:0.03 27:0.01 28:0 29:0 30:0 31:0.01 32:0.01 
0.012329037823735638 0:0 1:1 2:0 3:0 4:0 5:1 6:0 7:1 8:206 9:2724 10:1 11:0 12:0 13:0 14:7 15:30 16:0 17:0 18:0 19:0 20:1 21:0 22:0.07 23:255 24:255 25:1 26:0 27:0 28:0 29:0 30:0 31:0.01 32:0.01 
0.0074191272753850361 0:0 1:1 2:0 3:0 4:0 5:1 6:0 7:1 8:239 9:1529 10:1 11:0 12:0 13:0 14:3 15:6 16:0 17:0 18:0 19:0.17 20:1 21:0 22:0.5 23:145 24:255 25:1 26:0 27:0.01 28:0.02 29:0 30:0 31:0 32:0.01 
0.022007239757104301 0:0 1:1 2:0 3:0 4:0 5:1 6:0 7:1 8:378 9:613 10:1 11:0 12:0 13:0 14:37 15:37 16:0 17:0 18:0 19:0 20:1 21:0 22:0 23:255 24:255 25:1 26:0 27:0 28:0 29:0 30:0 31:0.01 32:0.01 
0.033255046813132488 0:0 1:1 2:0 3:0 4:0 5:1 6:0 7:1 8:347 9:12518 10:1 11:0 12:0 13:0 14:11 15:21 16:0 17:0 18:0 19:0 20:1 21:0 22:0.1 23:37 24:255 25:1 26:0 27:0.03 28:0.02 29:0 30:0 31:0 32:0.01 
0.032337732614511949 0:0 1:1 2:0 3:0 4:0 5:1 6:0 7:1 8:459 9:5154 10:1 11:0 12:0 13:0 14:1 15:6 16:0 17:0 18:0 19:0 20:1 21:0 22:0.83 23:4 24:255 25:1 26:0 27:0.25 28:0.05 29:0 30:0 31:0 32:0.01 
0.01987886765221045 0:0 1:1 2:0 3:0 4:0 5:1 6:0 7:1 8:315 9:3413 10:1 11:0 12:0 13:0 14:4 15:4 16:0 17:0 18:0 19:0 20:1 21:0 22:0 23:255 24:255 25:1 26:0 27:0 28:0 29:0 30:0 31:0.01 32:0.01 
0.013695635159086632 0:0 1:1 2:0 3:0 4:0 5:1 6:0 7:1 8:329 9:4556 10:1 11:0 12:0 13:0 14:3 15:10 16:0.33 17:0.2 18:0 19:0 20:1 21:0 22:0.4 23:51 24:255 25:1 26:0 27:0.02 28:0.07 29:0.02 30:0.02 31:0 32:0.01 
0.0099066799019581209 0:0 1:1 2:0 3:0 4:0 5:1 6:0 7:1 8:306 9:1162 10:1 11:0 12:0 13:0 14:13 15:13 16:0 17:0 18:0 19:0 20:1 21:0 22:0 23:255 24:255 25:1 26:0 27:0 28:0 29:0 30:0 31:0.01 32:0.01 
0.018711834421557896 0:0 1:1 2:0 3:0 4:0 5:1 6:0 7:1 8:191 9:2852 10:1 11:0 12:0 13:0 14:20 15:20 16:0 17:0 18:0 19:0 20:1 21:0 22:0 23:20 24:255 25:1 26:0 27:0.05 28:0.03 29:0 30:0.01 31:0 32:0.01 
0.020216745669812918 0:0 1:1 2:0 3:0 4:0 5:1 6:0 7:1 8:343 9:6731 10:1 11:0 12:0 13:0 14:11 15:11 16:0 17:0 18:0 19:0 20:1 21:0 22:0 23:11 24:255 25:1 26:0 27:0.09 28:0.03 29:0 30:0 31:0 32:0.01 
0.033879265213954526 0:2 1:1 2:0 3:0 4:1 5:0 6:0 7:1 8:1602 9:508 10:1 11:0 12:0 13:0 14:1 15:1 16:0 17:0 18:0 19:0 20:1 21:0 22:0 23:206 24:134 25:0.56 26:0.02 27:0 28:0.01 29:0 30:0 31:0.04 32:0.01 
0.008545947674711207 0:0 1:1 2:0 3:0 4:0 5:1 6:0 7:1 8:230 9:660 10:1 11:0 12:0 13:0 14:5 15:5 16:0 17:0 18:0 19:0 20:1 21:0 22:0 23:255 24:255 25:1 26:0 27:0 28:0 29:0 30:0 31:0.01 32:0.01 
0.0013057403141264578 0:2 1:1 2:0 3:0 4:1 5:0 6:0 7:1 8:1098 9:328 10:1 11:0 12:0 13:0 14:1 15:3 16:0 17:0 18:0 19:0 20:1 21:0 22:1 23:12 24:142 25:0.92 26:0.17 27:0.08 28:0.02 29:0 30:0.04 31:0 32:0.01 
0.02424730314245728 0:0 1:1 2:0 3:0 4:0 5:1 6:0 7:1 8:149 9:9692 10:1 11:0 12:0 13:0 14:1 15:1 16:0 17:0 18:0 19:0 20:1 21:0 22:0 23:87 24:255 25:1 26:0 27:0.01 28:0.07 29:0 30:0.01 31:0.01 32:0.01 
0.014553470369969896 0:0 1:1 2:0 3:0 4:0 5:1 6:0 7:1 8:282 9:2573 10:1 11:0 12:0 13:0 14:9 15:12 16:0 17:0 18:0 19:0 20:1 21:0 22:0.33 23:45 24:122 25:1 26:0 27:0.02 28:0.05 29:0 30:0 31:0 32:0.01 
0.0040191693183385868 0:0 1:1 2:0 3:0 4:0 5:1 6:0 7:1 8:228 9:577 10:1 11:0 12:0 13:0 14:17 15:17 16:0 17:0 18:0 19:0 20:1 21:0 22:0 23:17 24:157 25:1 26:0 27:0.06 28:0.06 29:0 30:0.01 31:0 32:0.01 
0.034749801304858406 0:1 1:1 2:0 3:0 4:0 5:1 6:0 7:1 8:275 9:29434 10:1 11:0 12:0 13:0 14:1 15:1 16:0 17:0 18:0 19:0 20:1 21:0 22:0 23:238 24:255 25:1 26:0 27:0.01 28:0.02 29:0 30:0 31:0.01 32:0.01 
0.025628459267914534 0:0 1:1 2:0 3:0 4:0 5:1 6:0 7:1 8:331 9:10355 10:1 11:0 12:0 13:0 14:6 15:11 16:0 17:0 18:0 19:0 20:1 21:0 22:0.27 23:6 24:255 25:1 26:0 27:0.17 28:0.01 29:0 30:0 31:0 32:0.01 
0.0085861024414801337 0:0 1:1 2:0 3:0 4:0 5:1 6:0 7:1 8:210 9:2649 10:1 11:0 12:0 13:0 14:18 15:18 16:0 17:0 18:0 19:0 20:1 21:0 22:0 23:19 24:255 25:1 26:0 27:0.05 28:0.06 29:0 30:0 31:0 32:0.01 
0.023764593850342498 0:0 1:1 2:0 3:0 4:0 5:1 6:0 7:1 8:300 9:5973 10:1 11:0 12:0 13:0 14:1 15:38 16:0 17:0 18:0 19:0 20:1 21:0 22:0.05 23:12 24:255 25:1 26:0 27:0.08 28:0.03 29:0 30:0 31:0.08 32:0.01 
0.016540524557720163 0:0 1:1 2:0 3:0 4:0 5:1 6:0 7:1 8:298 9:3411 10:1 11:0 12:0 13:0 14:2 15:2 16:0 17:0 18:0 19:0 20:1 21:0 22:0 23:2 24:255 25:1 26:0 27:0.5 28:0.02 29:0 30:0 31:0 32:0.01 
0.028693545552503738 0:0 1:1 2:0 3:0 4:0 5:1 6:1 7:0 8:157 9:0 10:1 11:0 12:0 13:0 14:2 15:2 16:0.5 17:0.5 18:0 19:0 20:1 21:0 22:0 23:101 24:101 25:1 26:0 27:0.02 28:0 29:0.01 30:0.01 31:0.01 32:0.01 
0.015730130111141098 0:0 1:1 2:0 3:0 4:0 5:1 6:0 7:1 8:216 9:9146 10:1 11:0 12:0 13:0 14:23 15:23 16:0 17:0 18:0 19:0 20:1 21:0 22:0 23:65 24:255 25:1 26:0 27:0.02 28:0.02 29:0 30:0 31:0 32:0.01 
0.0078022358038570376 0:0 1:1 2:0 3:0 4:0 5:1 6:0 7:1 8:200 9:328 10:1 11:0 12:0 13:0 14:3 15:9 16:0.33 17:0.33 18:0 19:0 20:1 21:0 22:0.44 23:122 24:172 25:1 26:0 27:0.01 28:0.02 29:0.01 30:0.01 31:0 32:0.01 
0.004650057115528853 0:0 1:1 2:0 3:0 4:0 5:1 6:0 7:1 8:206 9:572 10:1 11:0 12:0 13:0 14:15 15:38 16:0 17:0 18:0 19:0 20:1 21:0 22:0.05 23:255 24:255 25:1 26:0 27:0 28:0 29:0 30:0 31:0.01 32:0.01 
0.021464898945072811 0:0 1:1 2:0 3:0 4:0 5:1 6:0 7:1 8:158 9:5479 10:1 11:0 12:0 13:0 14:2 15:2 16:0 17:0 18:0 19:0 20:1 21:0 22:0 23:2 24:251 25:1 26:0 27:0.5 28:0.04 29:0 30:0 31:0 32:0.01 
0.0083521184701212114 0:0 1:1 2:0 3:0 4:0 5:1 6:0 7:1 8:288 9:958 10:1 11:0 12:0 13:0 14:3 15:13 16:0 17:0 18:0 19:0 20:1 21:0 22:0.15 23:3 24:208 25:1 26:0 27:0.33 28:0.01 29:0 30:0.01 31:0 32:0.01 
0.011845797726638253 0:0 1:1 2:0 3:0 4:0 5:1 6:0 7:1 8:165 9:2472 10:1 11:0 12:0 13:0 14:3 15:3 16:0 17:0 18:0 19:0 20:1 21:0 22:0 23:18 24:255 25:1 26:0 27:0.06 28:0.04 29:0 30:0 31:0 32:0.01 
0.0065054655464106157 0:0 1:1 2:0 3:0 4:0 5:1 6:0 7:1 8:294 9:685 10:1 11:0 12:0 13:0 14:14 15:54 16:0 17:0 18:0 19:0 20:1 21:0 22:0.07 23:69 24:255 25:1 26:0 27:0.01 28:0.04 29:0 30:0 31:0 32:0.01 
0.012270564947107284 0:0 1:1 2:0 3:0 4:0 5:1 6:0 7:1 8:230 9:1400 10:1 11:0 12:0 13:0 14:40 15:40 16:0 17:0 18:0 19:0 20:1 21:0 22:0 23:255 24:255 25:1 26:0 27:0 28:0 29:0 30:0 31:0.01 32:0.01 
0.024906510241232114 0:0 1:1 2:0 3:0 4:0 5:1 6:0 7:1 8:223 9:2936 10:1 11:0 12:0 13:0 14:6 15:6 16:0 17:0 18:0 19:0 20:1 21:0 22:0 23:214 24:255 25:1 26:0 27:0 28:0.02 29:0 30:0.01 31:0 32:0.01 
0.023248011242798159 0:0 1:1 2:0 3:0 4:0 5:1 6:0 7:1 8:210 9:11933 10:1 11:0 12:0 13:0 14:1 15:2 16:0 17:0 18:0 19:0 20:1 21:0 22:1 23:84 24:255 25:1 26:0 27:0.01 28:0.04 29:0 30:0 31:0 32:0.01 
0.034277803251281477 0:0 1:1 2:0 3:0 4:0 5:1 6:0 7:1 8:213 9:7669 10:1 11:0 12:0 13:0 14:3 15:3 16:0 17:0 18:0 19:0 20:1 21:0 22:0 23:255 24:255 25:1 26:0 27:0 28:0 29:0 30:0 31:0.01 32:0.01 
0.0035569858708705405 0:0 1:1 2:0 3:0 4:0 5:1 6:0 7:1 8:320 9:429 10:1 11:0 12:0 13:0 14:5 15:5 16:0 17:0 18:0 19:0 20:1 21:0 22:0 23:68 24:141 25:1 26:0 27:0.01 28:0.06 29:0 30:0 31:0 32:0.01 
0.0071702075735878452 0:0 1:1 2:0 3:0 4:0 5:1 6:0 7:1 8:211 9:7628 10:1 11:0 12:0 13:0 14:3 15:3 16:0 17:0 18:0 19:0 20:1 21:0 22:0 23:41 24:255 25:1 26:0 27:0.02 28:0.05 29:0 30:0.01 31:0.02 32:0.01 
0.011651031323768022 0:0 1:1 2:0 3:0 4:0 5:1 6:0 7:1 8:331 9:10578 10:1 11:0 12:0 13:0 14:2 15:7 16:0 17:0 18:0 19:0 20:1 21:0 22:0.29 23:10 24:255 25:1 26:0 27:0.1 28:0.06 29:0 30:0.01 31:0 32:0.01 
0.026853585863216553 0:0 1:1 2:0 3:0 4:0 5:1 6:0 7:1 8:347 9:3928 10:1 11:0 12:0 13:0 14:7 15:7 16:0 17:0 18:0 19:0 20:1 21:0 22:0 23:175 24:183 25:1 26:0 27:0.01 28:0.01 29:0.01 30:0.01 31:0.01 32:0.01 
0.0053327289591894892 0:0 1:1 2:0 3:0 4:0 5:1 6:0 7:1 8:284 9:406 10:1 11:0 12:0 13:0 14:1 15:24 16:0 17:0 18:0 19:0 20:1 21:0 22:0.08 23:3 24:255 25:1 26:0 27:0.33 28:0.06 29:0.33 30:0.01 31:0 32:0.01 
0.031967203916982247 0:0 1:1 2:0 3:0 4:0 5:1 6:0 7:1 8:213 9:10194 10:1 11:0 12:0 13:0 14:3 15:3 16:0 17:0 18:0 19:0 20:1 21:0 22:0 23:8 24:255 25:1 26:0 27:0.12 28:0.05 29:0 30:0 31:0 32:0.01 
0.014939570166555477 0:0 1:1 2:0 3:0 4:0 5:1 6:0 7:1 8:316 9:4640 10:1 11:0 12:0 13:0 14:21 15:21 16:0 17:0 18:0 19:0 20:1 21:0 22:0 23:43 24:255 25:1 26:0 27:0.02 28:0.01 29:0 30:0 31:0 32:0.01 
0.013482472393594784 0:0 1:1 2:0 3:0 4:0 5:1 6:0 7:1 8:310 9:2698 10:1 11:0 12:0 13:0 14:3 15:3 16:0 17:0 18:0 19:0 20:1 21:0 22:0 23:255 24:243 25:0.95 26:0.01 27:0 28:0 29:0 30:0 31:0.01 32:0.01 
0.010784103121150366 0:1 1:1 2:0 3:0 4:1 5:0 6:0 7:1 8:968 9:370 10:1 11:0 12:0 13:0 14:1 15:2 16:0 17:0 18:0 19:0 20:1 21:0 22:1 23:36 24:167 25:0.64 26:0.08 27:0.03 28:0.02 29:0 30:0.02 31:0 32:0.01 
0.020302328854108539 0:0 1:1 2:0 3:0 4:0 5:1 6:0 7:1 8:282 9:18884 10:1 11:0 12:0 13:0 14:7 15:21 16:0 17:0 18:0 19:0 20:1 21:0 22:0.1 23:7 24:212 25:1 26:0 27:0.14 28:0.01 29:0 30:0.01 31:0 32:0.01 
0.011851701274332962 0:0 1:1 2:0 3:0 4:1 5:0 6:0 7:1 8:1960 9:366 10:1 11:0 12:0 13:0 14:1 15:1 16:0 17:0 18:0 19:0 20:1 21:0 22:0 23:231 24:182 25:0.75 26:0.02 27:0 28:0.01 29:0 30:0 31:0 32:0.01 
0.017775374191370624 0:0 1:1 2:0 3:0 4:0 5:1 6:0 7:1 8:304 9:53 10:1 11:0 12:0 13:0 14:1 15:3 16:0 17:0.33 18:0 19:0 20:1 21:0 22:0.67 23:121 24:255 25:1 26:0 27:0.01 28:0.01 29:0.02 30:0.01 31:0.02 32:0.01 
0.021661283893525396 0:0 1:1 2:0 3:0 4:0 5:1 6:0 7:1 8:312 9:581 10:1 11:0 12:0 13:0 14:11 15:12 16:0 17:0 18:0 19:0 20:1 21:0 22:0.17 23:56 24:106 25:1 26:0 27:0.02 28:0.03 29:0 30:0 31:0 32:0.01 
0.0019680816738085818 0:0 1:1 2:0 3:0 4:1 5:0 6:0 7:1 8:850 9:332 10:1 11:0 12:0 13:0 14:1 15:4 16:0 17:0 18:0 19:0 20:1 21:0 22:1 23:12 24:174 25:0.5 26:0.25 27:0.08 28:0.01 29:0 30:0 31:0 32:0.01 
0.029624799145838408 0:0 1:1 2:0 3:0 4:0 5:1 6:0 7:1 8:316 9:7853 10:1 11:0 12:0 13:0 14:1 15:4 16:0 17:0 18:0 19:0 20:1 21:0 22:1 23:28 24:255 25:1 26:0 27:0.04 28:0.03 29:0 30:0.01 31:0 32:0.01 
0.034524184646474096 0:0 1:1 2:0 3:0 4:0 5:1 6:0 7:1 8:226 9:18108 10:1 11:0 12:0 13:0 14:51 15:55 16:0 17:0 18:0 19:0 20:1 21:0 22:0.07 23:255 24:255 25:1 26:0 27:0 28:0 29:0 30:0 31:0.01 32:0.01 
0.00050618928211858326 0:0 1:1 2:0 3:0 4:0 5:1 6:0 7:1 8:334 9:280 10:1 11:0 12:0 13:0 14:6 15:6 16:0 17:0 18:0 19:0 20:1 21:0 22:0 23:174 24:255 25:1 26:0 27:0.01 28:0.02 29:0.01 30:0 31:0.01 32:0.01 
0.032662678304676784 0:0 1:1 2:0 3:0 4:0 5:1 6:0 7:1 8:222 9:25804 10:1 11:0 12:0 13:0 14:44 15:44 16:0 17:0 18:0.02 19:0.02 20:1 21:0 22:0 23:93 24:255 25:1 26:0 27:0.02 28:0.03 29:0 30:0 31:0.01 32:0.01 
0.0031099291778321912 0:11 1:1 2:0 3:0 4:1 5:0 6:0 7:1 8:2063 9:334 10:1 11:0 12:0 13:0 14:1 15:5 16:0 17:0 18:0 19:0 20:1 21:0 22:1 23:234 24:144 25:0.62 26:0.02 27:0 28:0 29:0 30:0 31:0.01 32:0.01 
0.016127260284982174 0:0 1:1 2:0 3:0 4:0 5:1 6:0 7:1 8:214 9:10360 10:1 11:0 12:0 13:0 14:2 15:27 16:0 17:0 18:0 19:0 20:1 21:0 22:0.11 23:43 24:254 25:1 26:0 27:0.02 28:0.03 29:0 30:0 31:0 32:0.01 
0.016604433846811248 0:0 1:1 2:0 3:0 4:0 5:1 6:0 7:1 8:243 9:3446 10:1 11:0 12:0 13:0 14:9 15:9 16:0 17:0 18:0 19:0 20:1 21:0 22:0 23:255 24:255 25:1 26:0 27:0 28:0 29:0 30:0 31:0.01 32:0.01 
0.007839569799117806 0:0 1:1 2:0 3:0 4:0 5:1 6:0 7:1 8:290 9:2056 10:1 11:0 12:0 13:0 14:20 15:20 16:0 17:0 18:0 19:0 20:1 21:0 22:0 23:168 24:255 25:1 26:0 27:0.01 28:0.01 29:0 30:0 31:0.01 32:0.01 
0.018191164021666258 0:0 1:1 2:0 3:0 4:0 5:1 6:0 7:1 8:310 9:3368 10:1 11:0 12:0 13:0 14:22 15:22 16:0 17:0 18:0 19:0 20:1 21:0 22:0 23:87 24:255 25:1 26:0 27:0.01 28:0.01 29:0 30:0 31:0.02 32:0.01 
0.005555953085366501 0:0 1:1 2:0 3:0 4:0 5:1 6:0 7:1 8:280 9:228 10:1 11:0 12:0 13:0 14:3 15:3 16:0 17:0 18:0 19:0 20:1 21:0 22:0 23:3 24:255 25:1 26:0 27:0.33 28:0.02 29:0 30:0 31:0 32:0.01 
0.022702767524345076 0:0 1:1 2:0 3:0 4:0 5:1 6:0 7:1 8:313 9:17 10:1 11:0 12:0 13:0 14:1 15:1 16:0 17:0 18:0 19:0 20:1 21:0 22:0 23:3 24:255 25:1 26:0 27:0.33 28:0.03 29:0 30:0 31:0 32:0.01 
0.0073886944504793824 0:1 1:1 2:0 3:0 4:1 5:0 6:0 7:1 8:1085 9:345 10:1 11:0 12:0 13:0 14:1 15:3 16:0 17:0 18:0 19:0 20:1 21:0 22:1 23:196 24:119 25:0.61 26:0.03 27:0.01 28:0 29:0 30:0 31:0.01 32:0.01 
0.02994194081718226 0:0 1:1 2:0 3:0 4:0 5:1 6:0 7:1 8:177 9:14235 10:1 11:0 12:0 13:0 14:1 15:4 16:0 17:0.25 18:0 19:0 20:1 21:0 22:0.75 23:120 24:170 25:1 26:0 27:0.01 28:0.02 29:0 30:0 31:0 32:0.01 
0.017002872699080043 0:0 1:1 2:0 3:0 4:0 5:1 6:0 7:1 8:202 9:4774 10:1 11:0 12:0 13:0 14:4 15:17 16:0 17:0 18:0 19:0 20:1 21:0 22:0.12 23:5 24:255 25:1 26:0 27:0.2 28:0.01 29:0 30:0 31:0.2 32:0.01 
0.030964594205056973 0:0 1:1 2:0 3:0 4:0 5:1 6:0 7:1 8:167 9:10912 10:1 11:0 12:0 13:0 14:1 15:2 16:0 17:0 18:0 19:0 20:1 21:0 22:1 23:5 24:255 25:1 26:0 27:0.2 28:0.04 29:0 30:0 31:0 32:0.01 
0.0021320328425995386 0:0 1:1 2:0 3:0 4:0 5:1 6:0 7:1 8:229 9:2099 10:1 11:0 12:0 13:0 14:12 15:46 16:0 17:0 18:0 19:0 20:1 21:0 22:0.04 23:50 24:255 25:1 26:0 27:0.02 28:0.04 29:0 30:0 31:0 32:0.01 
0.024085477682923916 0:0 1:1 2:0 3:0 4:0 5:1 6:0 7:1 8:295 9:16850 10:1 11:0 12:0 13:0 14:6 15:6 16:0 17:0 18:0 19:0 20:1 21:0 22:0 23:6 24:255 25:1 26:0 27:0.17 28:0.04 29:0 30:0 31:0 32:0.01 
0.01873735116597202 0:0 1:1 2:0 3:0 4:0 5:1 6:0 7:1 8:214 9:8023 10:1 11:0 12:0 13:0 14:22 15:22 16:0 17:0 18:0 19:0 20:1 21:0 22:0 23:39 24:255 25:1 26:0 27:0.03 28:0.02 29:0 30:0 31:0 32:0.01 
0.027167085835949567 0:0 1:1 2:0 3:0 4:0 5:1 6:0 7:1 8:219 9:2917 10:1 11:0 12:0 13:0 14:5 15:7 16:0.2 17:0.29 18:0 19:0 20:1 21:0 22:0.29 23:17 24:136 25:1 26:0 27:0.06 28:0.06 29:0.06 30:0.01 31:0 32:0.01 
0.0085157763919861858 0:0 1:1 2:0 3:0 4:0 5:1 6:0 7:1 8:221 9:2251 10:1 11:0 12:0 13:0 14:12 15:12 16:0 17:0 18:0 19:0 20:1 21:0 22:0 23:21 24:255 25:1 26:0 27:0.05 28:0.03 29:0 30:0 31:0.05 32:0.01 
0.027852975376550706 0:0 1:1 2:0 3:0 4:0 5:1 6:0 7:1 8:292 9:11619 10:1 11:0 12:0 13:0 14:3 15:3 16:0 17:0 18:0 19:0 20:1 21:0 22:0 23:118 24:255 25:1 26:0 27:0.01 28:0.03 29:0 30:0 31:0 32:0.01 
0.011226664082830202 0:0 1:1 2:0 3:0 4:0 5:1 6:0 7:1 8:198 9:1307 10:1 11:0 12:0 13:0 14:5 15:5 16:0 17:0 18:0 19:0 20:1 21:0 22:0 23:128 24:255 25:1 26:0 27:0.01 28:0.02 29:0 30:0 31:0.02 32:0.01 
0.021174033185043906 0:0 1:1 2:0 3:0 4:0 5:1 6:0 7:1 8:174 9:2175 10:1 11:0 12:0 13:0 14:17 15:17 16:0 17:0 18:0 19:0 20:1 21:0 22:0 23:17 24:255 25:1 26:0 27:0.06 28:0.02 29:0 30:0 31:0 32:0.01 
0.017257437039882913 0:0 1:1 2:0 3:0 4:0 5:1 6:0 7:1 8:198 9:27266 10:1 11:0 12:0 13:0 14:1 15:1 16:0 17:0 18:0 19:0 20:1 21:0 22:0 23:75 24:255 25:1 26:0 27:0.01 28:0.03 29:0.01 30:0 31:0.01 32:0.01 
0.011048925553069196 0:0 1:1 2:0 3:0 4:0 5:1 6:0 7:1 8:196 9:12954 10:1 11:0 12:0 13:0 14:23 15:23 16:0 17:0 18:0 19:0 20:1 21:0 22:0 23:46 24:255 25:1 26:0 27:0.02 28:0.03 29:0 30:0 31:0 32:0.01 
0.016204700102654991 0:0 1:1 2:0 3:0 4:0 5:1 6:0 7:1 8:228 9:955 10:1 11:0 12:0 13:0 14:15 15:17 16:0 17:0 18:0 19:0 20:1 21:0 22:0.12 23:173 24:255 25:1 26:0 27:0.01 28:0.02 29:0 30:0 31:0.02 32:0.01 
0.02670405322795491 0:0 1:1 2:0 3:0 4:1 5:0 6:0 7:1 8:605 9:334 10:1 11:0 12:0 13:0 14:1 15:1 16:0 17:0 18:0 19:0 20:1 21:0 22:0 23:252 24:135 25:0.54 26:0.03 27:0 28:0 29:0.01 30:0.02 31:0 32:0.01 
0.022021464634392741 0:0 1:1 2:0 3:0 4:0 5:1 6:0 7:1 8:213 9:4556 10:1 11:0 12:0 13:0 14:10 15:10 16:0 17:0 18:0 19:0 20:1 21:0 22:0 23:255 24:255 25:1 26:0 27:0 28:0 29:0 30:0 31:0.01 32:0.01 
0.033712012806350444 0:0 1:1 2:0 3:0 4:0 5:1 6:0 7:1 8:334 9:13380 10:1 11:0 12:0 13:0 14:1 15:1 16:0 17:0 18:0 19:0 20:1 21:0 22:0 23:82 24:255 25:1 26:0 27:0.01 28:0.01 29:0 30:0 31:0.01 32:0.01 
0.02303195642749396 0:0 1:1 2:0 3:0 4:0 5:1 6:0 7:1 8:214 9:3041 10:1 11:0 12:0 13:0 14:8 15:8 16:0 17:0 18:0 19:0 20:1 21:0 22:0 23:25 24:251 25:1 26:0 27:0.04 28:0.02 29:0 30:0 31:0 32:0.01 
0.014744428168097127 0:0 1:1 2:0 3:0 4:0 5:1 6:0 7:1 8:375 9:327 10:1 11:0 12:0 13:0 14:2 15:14 16:0 17:0 18:0 19:0 20:1 21:0 22:0.21 23:250 24:255 25:1 26:0 27:0 28:0.01 29:0 30:0 31:0.01 32:0.01 
0.022165516696369066 0:0 1:1 2:0 3:0 4:0 5:1 6:0 7:1 8:346 9:5790 10:1 11:0 12:0 13:0 14:7 15:10 16:0 17:0 18:0 19:0 20:1 21:0 22:0.2 23:24 24:255 25:1 26:0 27:0.04 28:0.05 29:0 30:0 31:0 32:0.01 
0.028880830674729085 0:0 1:1 2:0 3:0 4:0 5:1 6:0 7:1 8:270 9:2170 10:1 11:0 12:0 13:0 14:1 15:4 16:0 17:0 18:0 19:0 20:1 21:0 22:1 23:123 24:123 25:1 26:0 27:0.01 28:0 29:0 30:0 31:0.01 32:0.01 
0.024764446362390682 0:0 1:1 2:0 3:0 4:0 5:1 6:0 7:1 8:344 9:4438 10:1 11:0 12:0 13:0 14:17 15:27 16:0 17:0 18:0 19:0 20:1 21:0 22:0.07 23:43 24:255 25:1 26:0 27:0.02 28:0.02 29:0 30:0 31:0 32:0.01 
0.0058267813744974049 0:0 1:1 2:0 3:0 4:0 5:1 6:0 7:1 8:323 9:310 10:1 11:0 12:0 13:0 14:15 15:16 16:0 17:0 18:0 19:0 20:1 21:0 22:0.12 23:135 24:255 25:1 26:0 27:0.01 28:0.01 29:0 30:0 31:0.01 32:0.01 
0.017903664355138627 0:0 1:1 2:0 3:0 4:0 5:1 6:0 7:1 8:200 9:759 10:1 11:0 12:0 13:0 14:3 15:7 16:0 17:0 18:0 19:0 20:1 21:0 22:0.29 23:9 24:255 25:1 26:0 27:0.11 28:0.01 29:0 30:0 31:0.11 32:0.01 
0.0089874099881250488 0:0 1:1 2:0 3:0 4:1 5:0 6:0 7:1 8:709 9:332 10:1 11:0 12:0 13:0 14:1 15:1 16:0 17:0 18:0 19:0 20:1 21:0 22:0 23:241 24:127 25:0.53 26:0.03 27:0 28:0 29:0.01 30:0.02 31:0 32:0.01 
0.03124190418464352 0:0 1:1 2:0 3:0 4:0 5:1 6:0 7:1 8:252 9:12774 10:1 11:0 12:0 13:0 14:2 15:2 16:0 17:0 18:0 19:0 20:1 21:0 22:0 23:9 24:255 25:1 26:0 27:0.11 28:0.05 29:0 30:0 31:0.11 32:0.01 
0.026414776983240223 0:0 1:1 2:0 3:0 4:1 5:0 6:0 7:1 8:1688 9:335 10:1 11:0 12:0 13:0 14:1 15:3 16:0 17:0 18:0 19:0 20:1 21:0 22:1 23:255 24:153 25:0.6 26:0.03 27:0 28:0 29:0 30:0 31:0.01 32:0.01 
0.0034965520273973409 0:0 1:1 2:0 3:0 4:0 5:1 6:0 7:1 8:259 9:396 10:1 11:0 12:0 13:0 14:5 15:5 16:0 17:0 18:0 19:0 20:1 21:0 22:0 23:255 24:255 25:1 26:0 27:0 28:0 29:0 30:0 31:0.01 32:0.01 
0.015059171840203929 0:0 1:1 2:0 3:0 4:0 5:1 6:0 7:1 8:207 9:353 10:1 11:0 12:0 13:0 14:44 15:55 16:0 17:0 18:0 19:0 20:1 21:0 22:0.09 23:255 24:255 25:1 26:0 27:0 28:0 29:0 30:0 31:0.01 32:0.01 
0.012178811314608719 0:0 1:1 2:0 3:0 4:0 5:1 6:0 7:1 8:306 9:2772 10:1 11:0 12:0 13:0 14:5 15:7 16:0 17:0 18:0 19:0 20:1 21:0 22:0.43 23:221 24:255 25:1 26:0 27:0 28:0.01 29:0 30:0 31:0 32:0.01 
0.016221183197566096 0:0 1:1 2:0 3:0 4:0 5:1 6:0 7:1 8:163 9:1558 10:1 11:0 12:0 13:0 14:2 15:2 16:0 17:0 18:0 19:0 20:1 21:0 22:0 23:255 24:255 25:1 26:0 27:0 28:0 29:0 30:0 31:0.01 32:0.01 
0.004618647724676227 0:0 1:1 2:0 3:0 4:0 5:1 6:0 7:1 8:258 9:1887 10:1 11:0 12:0 13:0 14:20 15:35 16:0 17:0 18:0 19:0 20:1 21:0 22:0.09 23:102 24:255 25:1 26:0 27:0.01 28:0.02 29:0.01 30:0 31:0 32:0.01 
0.0070918112085289319 0:0 1:1 2:0 3:0 4:0 5:1 6:0 7:1 8:326 9:633 10:1 11:0 12:0 13:0 14:3 15:3 16:0 17:0 18:0 19:0 20:1 21:0 22:0 23:142 24:255 25:1 26:0 27:0.01 28:0.03 29:0 30:0 31:0 32:0.01 
0.0086501441581144749 0:0 1:1 2:0 3:0 4:0 5:1 6:0 7:1 8:297 9:2584 10:1 11:0 12:0 13:0 14:2 15:3 16:0 17:0 18:0 19:0 20:1 21:0 22:0.67 23:98 24:255 25:1 26:0 27:0.01 28:0.03 29:0 30:0 31:0 32:0.01 
0.0013037610283823289 0:0 1:1 2:0 3:0 4:0 5:1 6:0 7:1 8:247 9:311 10:1 11:0 12:0 13:0 14:42 15:63 16:0 17:0 18:0 19:0 20:1 21:0 22:0.03 23:255 24:255 25:1 26:0 27:0 28:0 29:0 30:0 31:0.01 32:0.01 
0.031383785390931104 0:0 1:1 2:0 3:0 4:0 5:1 6:0 7:1 8:199 9:12616 10:1 11:0 12:0 13:0 14:3 15:3 16:0 17:0 18:0 19:0 20:1 21:0 22:0 23:6 24:255 25:1 26:0 27:0.17 28:0.05 29:0 30:0 31:0 32:0.01 
0.011841937244683442 0:0 1:1 2:0 3:0 4:0 5:1 6:0 7:1 8:165 9:2472 10:1 11:0 12:0 13:0 14:1 15:1 16:0 17:0 18:0 19:0 20:1 21:0 22:0 23:57 24:255 25:1 26:0 27:0.02 28:0.04 29:0 30:0 31:0 32:0.01 
0.014322932362608199 0:0 1:1 2:0 3:0 4:0 5:1 6:0 7:1 8:269 9:7634 10:1 11:0 12:0 13:0 14:4 15:6 16:0 17:0.17 18:0 19:0 20:1 21:0 22:0.33 23:33 24:255 25:1 26:0 27:0.03 28:0.03 29:0 30:0 31:0 32:0.01 
0.0050998700464755433 0:0 1:1 2:0 3:0 4:0 5:1 6:0 7:1 8:324 9:1918 10:1 11:0 12:0 13:0 14:9 15:17 16:0.11 17:0.12 18:0 19:0 20:1 21:0 22:0.29 23:57 24:255 25:1 26:0 27:0.02 28:0.07 29:0.02 30:0.02 31:0 32:0.01 
0.019193633464439891 0:0 1:1 2:0 3:0 4:0 5:1 6:0 7:1 8:263 9:6318 10:1 11:0 12:0 13:0 14:3 15:7 16:0 17:0 18:0 19:0 20:1 21:0 22:0.43 23:76 24:255 25:1 26:0 27:0.01 28:0.03 29:0.01 30:0.01 31:0.01 32:0.01 
0.03147155179655442 0:0 1:1 2:0 3:0 4:0 5:1 6:0 7:1 8:284 9:2712 10:1 11:0 12:0 13:0 14:4 15:8 16:0 17:0.12 18:0 19:0 20:1 21:0 22:0.38 23:5 24:82 25:1 26:0 27:0.2 28:0.07 29:0 30:0 31:0 32:0.01 
0.033784218569158822 0:0 1:1 2:0 3:0 4:0 5:1 6:0 7:1 8:187 9:13920 10:1 11:0 12:0 13:0 14:3 15:3 16:0 17:0 18:0 19:0 20:1 21:0 22:0 23:6 24:255 25:1 26:0 27:0.17 28:0.05 29:0 30:0 31:0 32:0.01 
0.011623489038216753 0:0 1:1 2:0 3:0 4:0 5:1 6:0 7:1 8:382 9:528 10:1 11:0 12:0 13:0 14:7 15:15 16:0.14 17:0.2 18:0 19:0 20:1 21:0 22:0.2 23:173 24:255 25:1 26:0 27:0.01 28:0.02 29:0.01 30:0.01 31:0.01 32:0.01 
0.028742134298774109 0:0 1:1 2:0 3:0 4:0 5:1 6:0 7:1 8:305 9:1380 10:1 11:0 12:0 13:0 14:3 15:3 16:0 17:0 18:0 19:0 20:1 21:0 22:0 23:130 24:110 25:0.85 26:0.03 27:0.01 28:0 29:0.01 30:0.01 31:0.01 32:0.01 
0.0081896431967536706 0:0 1:1 2:0 3:0 4:0 5:1 6:0 7:1 8:309 9:3925 10:1 11:0 12:0 13:0 14:3 15:4 16:0 17:0 18:0 19:0 20:1 21:0 22:0.5 23:134 24:255 25:1 26:0 27:0.01 28:0.03 29:0 30:0 31:0 32:0.01 
0.022934659497799818 0:0 1:1 2:0 3:0 4:0 5:1 6:0 7:1 8:330 9:6880 10:1 11:0 12:0 13:0 14:1 15:4 16:0 17:0 18:0 19:0 20:1 21:0 22:0.75 23:5 24:255 25:1 26:0 27:0.2 28:0.04 29:0 30:0 31:0 32:0.01 
0.010342395794747406 0:0 1:1 2:0 3:0 4:0 5:1 6:0 7:1 8:228 9:774 10:1 11:0 12:0 13:0 14:52 15:56 16:0 17:0 18:0 19:0 20:1 21:0 22:0.07 23:255 24:255 25:1 26:0 27:0 28:0 29:0 30:0 31:0.01 32:0.01 
0.0031747176265814131 0:0 1:1 2:0 3:0 4:0 5:1 6:0 7:1 8:242 9:739 10:1 11:0 12:0 13:0 14:7 15:9 16:0 17:0 18:0 19:0 20:1 21:0 22:0.22 23:165 24:255 25:1 26:0 27:0.01 28:0.02 29:0 30:0 31:0.02 32:0.01 
0.0035728607188365083 0:0 1:1 2:0 3:0 4:0 5:1 6:0 7:1 8:311 9:4768 10:1 11:0 12:0 13:0 14:9 15:10 16:0 17:0 18:0 19:0 20:1 21:0 22:0.2 23:201 24:255 25:1 26:0 27:0 28:0.01 29:0 30:0 31:0.01 32:0.01 
0.023621181445379603 0:0 1:1 2:0 3:0 4:0 5:1 6:0 7:1 8:338 9:5507 10:1 11:0 12:0 13:0 14:10 15:11 16:0 17:0 18:0 19:0 20:1 21:0 22:0.18 23:71 24:255 25:1 26:0 27:0.01 28:0.03 29:0 30:0 31:0 32:0.01 
0.0078093199554021076 0:0 1:1 2:0 3:0 4:0 5:1 6:0 7:1 8:242 9:4401 10:1 11:0 12:0 13:0 14:1 15:1 16:0 17:0 18:0 19:0 20:1 21:0 22:0 23:82 24:255 25:1 26:0 27:0.01 28:0.02 29:0 30:0 31:0.01 32:0.01 
0.034666310430402032 0:0 1:1 2:0 3:0 4:0 5:1 6:0 7:1 8:144 9:31220 10:1 11:0 12:0 13:0 14:1 15:1 16:0 17:0 18:0 19:0 20:1 21:0 22:0 23:255 24:255 25:1 26:0 27:0 28:0 29:0 30:0 31:0.01 32:0.01 
0.02255808185483597 0:0 1:1 2:0 3:0 4:0 5:1 6:0 7:1 8:304 9:3227 10:1 11:0 12:0 13:0 14:11 15:35 16:0 17:0 18:0 19:0 20:1 21:0 22:0.06 23:11 24:255 25:1 26:0 27:0.09 28:0.03 29:0 30:0 31:0 32:0.01 
0.01158493024356657 0:0 1:1 2:0 3:0 4:1 5:0 6:0 7:1 8:679 9:329 10:1 11:0 12:0 13:0 14:1 15:2 16:0 17:0 18:0 19:0 20:1 21:0 22:1 23:191 24:198 25:0.81 26:0.02 27:0.01 28:0.01 29:0 30:0 31:0 32:0.01 
0.0085684253993065541 0:0 1:1 2:0 3:0 4:0 5:1 6:0 7:1 8:337 9:2214 10:1 11:0 12:0 13:0 14:3 15:9 16:0 17:0 18:0 19:0 20:1 21:0 22:0.33 23:181 24:255 25:1 26:0 27:0.01 28:0.01 29:0 30:0 31:0.01 32:0.01 
0.00066008636424863543 0:0 1:1 2:0 3:0 4:0 5:1 6:0 7:1 8:235 9:1576 10:1 11:0 12:0 13:0 14:7 15:7 16:0 17:0 18:0 19:0 20:1 21:0 22:0 23:19 24:255 25:1 26:0 27:0.05 28:0.03 29:0 30:0 31:0 32:0.01 
0.028576505336489144 0:0 1:1 2:0 3:0 4:0 5:1 6:0 7:1 8:172 9:6219 10:1 11:0 12:0 13:0 14:1 15:37 16:0 17:0 18:0 19:0 20:1 21:0 22:0.08 23:97 24:255 25:1 26:0 27:0.01 28:0.03 29:0 30:0 31:0.01 32:0.01 
0.024685228506077638 0:0 1:1 2:0 3:0 4:0 5:1 6:0 7:1 8:321 9:12615 10:1 11:0 12:0 13:0 14:31 15:31 16:0 17:0 18:0 19:0 20:1 21:0 22:0 23:255 24:255 25:1 26:0 27:0 28:0 29:0 30:0 31:0.01 32:0.01 
0.01256943908962636 0:10 1:1 2:0 3:0 4:1 5:0 6:0 7:1 8:880 9:281 10:1 11:0 12:0 13:0 14:2 15:3 16:0 17:0 18:0 19:0 20:0.5 21:1 22:1 23:247 24:131 25:0.53 26:0.03 27:0 28:0 29:0.01 30:0.02 31:0 32:0.01 
0.023991014084320708 0:0 1:1 2:0 3:0 4:0 5:1 6:0 7:1 8:235 9:12623 10:1 11:0 12:0 13:0 14:5 15:5 16:0 17:0 18:0 19:0 20:1 21:0 22:0 23:255 24:255 25:1 26:0 27:0 28:0 29:0 30:0 31:0.01 32:0.01 
0.023625998151819521 0:0 1:1 2:0 3:0 4:0 5:1 6:0 7:1 8:259 9:15860 10:1 11:0 12:0 13:0 14:4 15:14 16:0 17:0 18:0 19:0 20:1 21:0 22:0.36 23:4 24:255 25:1 26:0 27:0.25 28:0.03 29:0 30:0 31:0 32:0.01 
0.003793984538799984 0:0 1:1 2:0 3:0 4:0 5:1 6:0 7:1 8:190 9:1069 10:1 11:0 12:0 13:0 14:6 15:6 16:0 17:0 18:0 19:0 20:1 21:0 22:0 23:70 24:255 25:1 26:0 27:0.01 28:0.04 29:0 30:0 31:0 32:0.01 
0.01221917446236446 0:0 1:1 2:0 3:0 4:0 5:1 6:0 7:1 8:214 9:1738 10:1 11:0 12:0 13:0 14:21 15:21 16:0 17:0 18:0 19:0 20:1 21:0 22:0 23:130 24:255 25:1 26:0 27:0.01 28:0.04 29:0 30:0 31:0 32:0.01 
0.033888287742225479 0:0 1:1 2:0 3:0 4:0 5:1 6:1 7:0 8:193 9:16060 10:1 11:0 12:0 13:0 14:3 15:4 16:0.33 17:0.25 18:0 19:0 20:1 21:0 22:0.5 23:3 24:255 25:1 26:0 27:0.33 28:0.05 29:0.33 30:0 31:0 32:0.01 
0.025096672242474732 0:0 1:1 2:0 3:0 4:0 5:1 6:0 7:1 8:232 9:13603 10:1 11:0 12:0 13:0 14:1 15:5 16:0 17:0 18:0 19:0 20:1 21:0 22:1 23:147 24:147 25:1 26:0 27:0.01 28:0 29:0 30:0 31:0.01 32:0.01 
0.014394635254645172 0:0 1:1 2:0 3:0 4:0 5:1 6:0 7:1 8:307 9:1212 10:1 11:0 12:0 13:0 14:12 15:12 16:0 17:0 18:0 19:0 20:1 21:0 22:0 23:255 24:255 25:1 26:0 27:0 28:0 29:0 30:0 31:0.01 32:0.01 
0.022916398249094649 0:0 1:1 2:0 3:0 4:0 5:1 6:0 7:1 8:276 9:5069 10:1 11:0 12:0 13:0 14:3 15:3 16:0 17:0 18:0 19:0 20:1 21:0 22:0 23:3 24:255 25:1 26:0 27:0.33 28:0.02 29:0 30:0 31:0 32:0.01 
0.018297963355334033 0:0 1:1 2:0 3:0 4:0 5:1 6:0 7:1 8:197 9:4082 10:1 11:0 12:0 13:0 14:20 15:20 16:0 17:0 18:0 19:0 20:1 21:0 22:0 23:20 24:255 25:1 26:0 27:0.05 28:0.04 29:0 30:0 31:0 32:0.01 
0.015278174935863462 0:0 1:1 2:0 3:0 4:0 5:1 6:0 7:1 8:309 9:1643 10:1 11:0 12:0 13:0 14:2 15:3 16:0 17:0 18:0 19:0 20:1 21:0 22:0.67 23:9 24:254 25:1 26:0 27:0.11 28:0.03 29:0 30:0 31:0 32:0.01 
0.012308143021796848 0:0 1:1 2:0 3:0 4:0 5:1 6:0 7:1 8:278 9:4894 10:1 11:0 12:0 13:0 14:1 15:1 16:0 17:0 18:0 19:0 20:1 21:0 22:0 23:245 24:255 25:1 26:0 27:0.01 28:0.01 29:0 30:0 31:0.01 32:0.01 
0.034517890257357367 0:0 1:1 2:0 3:0 4:0 5:1 6:0 7:1 8:139 9:32424 10:1 11:0 12:0 13:0 14:1 15:15 16:0 17:0 18:0 19:0 20:1 21:0 22:0.13 23:255 24:255 25:1 26:0 27:0 28:0 29:0 30:0 31:0.01 32:0.01 
0.010720728935227287 0:0 1:1 2:0 3:0 4:0 5:1 6:0 7:1 8:190 9:12948 10:1 11:0 12:0 13:0 14:4 15:4 16:0 17:0 18:0 19:0 20:1 21:0 22:0 23:56 24:255 25:1 26:0 27:0.02 28:0.01 29:0 30:0 31:0.02 32:0.01 
0.0079771159379088859 0:0 1:1 2:0 3:0 4:0 5:1 6:0 7:1 8:305 9:2239 10:1 11:0 12:0 13:0 14:1 15:1 16:0 17:0 18:0 19:0 20:1 21:0 22:0 23:255 24:238 25:0.93 26:0.01 27:0 28:0 29:0 30:0 31:0.02 32:0.01 
0.034027195268610033 0:0 1:1 2:0 3:0 4:1 5:0 6:0 7:1 8:2377 9:324 10:1 11:0 12:0 13:0 14:1 15:1 16:0 17:0 18:0 19:0 20:1 21:0 22:0 23:22 24:167 25:0.95 26:0.09 27:0.05 28:0.02 29:0 30:0 31:0 32:0.01 
0.0070982216559152735 0:0 1:1 2:0 3:0 4:0 5:1 6:0 7:1 8:325 9:4898 10:1 11:0 12:0 13:0 14:3 15:3 16:0 17:0 18:0 19:0 20:1 21:0 22:0 23:255 24:255 25:1 26:0 27:0 28:0 29:0 30:0 31:0.01 32:0.01 
0.023438577765207434 0:0 1:1 2:0 3:0 4:0 5:1 6:0 7:1 8:199 9:6979 10:1 11:0 12:0 13:0 14:13 15:13 16:0 17:0 18:0.08 19:0.08 20:1 21:0 22:0 23:106 24:255 25:1 26:0 27:0.01 28:0.01 29:0 30:0 31:0.02 32:0.01 
0.019176358582878895 0:0 1:1 2:0 3:0 4:0 5:1 6:0 7:1 8:177 9:3314 10:1 11:0 12:0 13:0 14:2 15:7 16:0 17:0 18:0 19:0 20:1 21:0 22:0.29 23:40 24:245 25:1 26:0 27:0.03 28:0.01 29:0 30:0.01 31:0.03 32:0.01 
0.034182703900150366 0:0 1:1 2:0 3:0 4:0 5:1 6:0 7:1 8:193 9:58410 10:1 11:0 12:0 13:0 14:2 15:2 16:0 17:0 18:0 19:0 20:1 21:0 22:0 23:10 24:255 25:1 26:0 27:0.1 28:0.04 29:0 30:0 31:0.1 32:0.01 
0.00604993290482367 0:0 1:1 2:0 3:0 4:0 5:1 6:0 7:1 8:296 9:581 10:1 11:0 12:0 13:0 14:15 15:49 16:0 17:0 18:0.07 19:0.02 20:1 21:0 22:0.1 23:45 24:255 25:1 26:0 27:0.02 28:0.01 29:0 30:0 31:0.02 32:0.01 
0.015402093419901782 0:0 1:1 2:0 3:0 4:0 5:1 6:0 7:1 8:345 9:3076 10:1 11:0 12:0 13:0 14:5 15:8 16:0 17:0 18:0 19:0 20:1 21:0 22:0.25 23:22 24:255 25:1 26:0 27:0.05 28:0.05 29:0 30:0 31:0 32:0.01 
0.0082175032394694574 0:0 1:1 2:0 3:0 4:0 5:1 6:0 7:1 8:168 9:4483 10:1 11:0 12:0 13:0 14:3 15:3 16:0 17:0 18:0 19:0 20:1 21:0 22:0 23:56 24:255 25:1 26:0 27:0.02 28:0.05 29:0 30:0.01 31:0.02 32:0.01 
0.0074036816448000533 0:0 1:1 2:0 3:0 4:0 5:1 6:0 7:1 8:309 9:4622 10:1 11:0 12:0 13:0 14:25 15:28 16:0 17:0 18:0 19:0 20:1 21:0 22:0.14 23:90 24:255 25:1 26:0 27:0.01 28:0.05 29:0 30:0 31:0 32:0.01 
0.026973126394372243 0:0 1:1 2:0 3:0 4:1 5:0 6:0 7:1 8:1627 9:364 10:1 11:0 12:0 13:0 14:1 15:1 16:0 17:0 18:0 19:0 20:1 21:0 22:0 23:7 24:153 25:1 26:0 27:0.14 28:0.02 29:0 30:0 31:0 32:0.01 
0.020698544639148813 0:0 1:1 2:0 3:0 4:1 5:0 6:0 7:1 8:1947 9:368 10:1 11:0 12:0 13:0 14:1 15:2 16:0 17:0 18:0 19:0 20:1 21:0 22:1 23:238 24:147 25:0.62 26:0.02 27:0 28:0 29:0 30:0 31:0.01 32:0.01 
0.017990205936842099 0:0 1:1 2:0 3:0 4:0 5:1 6:0 7:1 8:348 9:2784 10:1 11:0 12:0 13:0 14:31 15:45 16:0 17:0 18:0 19:0 20:1 21:0 22:0.11 23:75 24:255 25:1 26:0 27:0.01 28:0.01 29:0 30:0 31:0 32:0.01 
0.0083947291892652355 0:0 1:1 2:0 3:0 4:0 5:1 6:0 7:1 8:221 9:321 10:1 11:0 12:0 13:0 14:2 15:2 16:0 17:0 18:0 19:0 20:1 21:0 22:0 23:2 24:255 25:1 26:0 27:0.5 28:0.04 29:0 30:0.01 31:0 32:0.01 
0.01000130871484356 0:0 1:1 2:0 3:0 4:0 5:1 6:0 7:1 8:278 9:486 10:1 11:0 12:0 13:0 14:2 15:2 16:0 17:0 18:0 19:0 20:1 21:0 22:0 23:7 24:255 25:1 26:0 27:0.14 28:0.05 29:0 30:0 31:0 32:0.01 
0.0074720277217397366 0:0 1:1 2:0 3:0 4:0 5:1 6:0 7:1 8:262 9:872 10:1 11:0 12:0 13:0 14:9 15:9 16:0 17:0 18:0 19:0 20:1 21:0 22:0 23:139 24:255 25:1 26:0 27:0.01 28:0.04 29:0 30:0 31:0.01 32:0.01 
0.022273868229985255 0:0 1:1 2:0 3:0 4:0 5:1 6:1 7:0 8:172 9:0 10:1 11:0 12:0 13:0 14:1 15:2 16:1 17:0.5 18:0 19:0 20:1 21:0 22:1 23:5 24:255 25:1 26:0 27:0.2 28:0.02 29:0.2 30:0.01 31:0.2 32:0.01 
0.018107634655277829 0:0 1:1 2:0 3:0 4:0 5:1 6:0 7:1 8:156 9:55 10:1 11:0 12:0 13:0 14:1 15:1 16:0 17:0 18:0 19:0 20:1 21:0 22:0 23:103 24:255 25:1 26:0 27:0.01 28:0.01 29:0 30:0 31:0.02 32:0.01 
0.02093271238682947 0:0 1:1 2:0 3:0 4:0 5:1 6:0 7:1 8:284 9:7405 10:1 11:0 12:0 13:0 14:7 15:7 16:0 17:0 18:0 19:0 20:1 21:0 22:0 23:46 24:255 25:1 26:0 27:0.02 28:0.05 29:0 30:0 31:0 32:0.01 
0.02972672495466672 0:0 1:1 2:0 3:0 4:0 5:1 6:0 7:1 8:319 9:8973 10:1 11:0 12:0 13:0 14:4 15:4 16:0 17:0 18:0 19:0 20:1 21:0 22:0 23:198 24:255 25:1 26:0 27:0.01 28:0.03 29:0 30:0 31:0.01 32:0.01 
0.029320126872226553 0:0 1:1 2:0 3:0 4:0 5:1 6:0 7:1 8:143 9:5894 10:1 11:0 12:0 13:0 14:2 15:2 16:0 17:0 18:0 19:0 20:1 21:0 22:0 23:186 24:255 25:1 26:0 27:0.01 28:0.03 29:0 30:0.01 31:0.01 32:0.01 
0.034062547933310039 0:0 1:1 2:0 3:0 4:0 5:1 6:0 7:1 8:328 9:17829 10:1 11:0 12:0 13:0 14:3 15:3 16:0 17:0 18:0 19:0 20:1 21:0 22:0 23:247 24:255 25:1 26:0 27:0.01 28:0.01 29:0 30:0 31:0.01 32:0.01 
0.0024786575109078269 0:0 1:1 2:0 3:0 4:0 5:1 6:0 7:1 8:324 9:2912 10:1 11:0 12:0 13:0 14:1 15:14 16:0 17:0 18:0 19:0 20:1 21:0 22:0.21 23:32 24:255 25:1 26:0 27:0.03 28:0.01 29:0 30:0 31:0 32:0.01 
0.014127821734547295 0:0 1:1 2:0 3:0 4:0 5:1 6:0 7:1 8:320 9:2056 10:1 11:0 12:0 13:0 14:5 15:5 16:0 17:0 18:0 19:0 20:1 21:0 22:0 23:255 24:255 25:1 26:0 27:0 28:0 29:0 30:0 31:0.01 32:0.01 
0.0030075778272747014 0:0 1:1 2:0 3:0 4:0 5:1 6:0 7:1 8:317 9:1049 10:1 11:0 12:0 13:0 14:18 15:19 16:0 17:0 18:0 19:0 20:1 21:0 22:0.11 23:83 24:255 25:1 26:0 27:0.01 28:0.05 29:0 30:0 31:0 32:0.01 
0.0055863294055212859 0:0 1:1 2:0 3:0 4:0 5:1 6:0 7:1 8:304 9:3003 10:1 11:0 12:0 13:0 14:7 15:31 16:0 17:0 18:0 19:0 20:1 21:0 22:0.06 23:7 24:255 25:1 26:0 27:0.14 28:0.03 29:0 30:0 31:0 32:0.01 
0.017022265600117114 0:0 1:1 2:0 3:0 4:0 5:1 6:0 7:1 8:341 9:1352 10:1 11:0 12:0 13:0 14:4 15:6 16:0 17:0 18:0 19:0 20:1 21:0 22:0.5 23:255 24:255 25:1 26:0 27:0 28:0 29:0 30:0 31:0.01 32:0.01 
0.0041970435773966263 0:0 1:1 2:0 3:0 4:0 5:1 6:0 7:1 8:321 9:506 10:1 11:0 12:0 13:0 14:2 15:4 16:0 17:0 18:0 19:0 20:1 21:0 22:0.5 23:2 24:255 25:1 26:0 27:0.5 28:0.03 29:0 30:0.01 31:0 32:0.01 
0.012514528234770943 0:0 1:1 2:0 3:0 4:0 5:1 6:0 7:1 8:169 9:1483 10:1 11:0 12:0 13:0 14:1 15:1 16:0 17:0 18:0 19:0 20:1 21:0 22:0 23:255 24:255 25:1 26:0 27:0 28:0 29:0 30:0 31:0.01 32:0.01 
0.016010771324632536 0:0 1:1 2:0 3:0 4:0 5:1 6:0 7:1 8:338 9:1462 10:1 11:0 12:0 13:0 14:7 15:7 16:0 17:0 18:0 19:0 20:1 21:0 22:0 23:255 24:255 25:1 26:0 27:0 28:0 29:0 30:0 31:0.01 32:0.01 
0.019667152744271804 0:0 1:1 2:0 3:0 4:0 5:1 6:0 7:1 8:193 9:3468 10:1 11:0 12:0 13:0 14:18 15:18 16:0 17:0 18:0 19:0 20:1 21:0 22:0 23:18 24:255 25:1 26:0 27:0.06 28:0.03 29:0 30:0.01 31:0 32:0.01 
0.015360316993994016 0:0 1:1 2:0 3:0 4:0 5:1 6:0 7:1 8:285 9:5200 10:1 11:0 12:0 13:0 14:9 15:9 16:0 17:0 18:0 19:0 20:1 21:0 22:0 23:157 24:255 25:1 26:0 27:0.01 28:0.01 29:0 30:0 31:0.01 32:0.01 
0.034553878209480977 0:0 1:1 2:0 3:0 4:0 5:1 6:0 7:1 8:196 9:18417 10:1 11:0 12:0 13:0 14:17 15:17 16:0 17:0 18:0 19:0 20:1 21:0 22:0 23:145 24:255 25:1 26:0 27:0.01 28:0.03 29:0 30:0 31:0.01 32:0.01 
0.03466854834883687 0:0 1:1 2:0 3:0 4:0 5:1 6:0 7:1 8:182 9:24043 10:1 11:0 12:0 13:0 14:1 15:1 16:0 17:0 18:0 19:0 20:1 21:0 22:0 23:190 24:255 25:1 26:0 27:0.01 28:0.03 29:0 30:0 31:0.01 32:0.01 
0.03444009753267023 0:1 1:1 2:0 3:0 4:1 5:0 6:0 7:1 8:16438 9:324 10:1 11:0 12:0 13:0 14:1 15:2 16:0 17:0 18:0 19:0 20:1 21:0 22:1 23:14 24:186 25:0.64 26:0.14 27:0.07 28:0.02 29:0 30:0.03 31:0 32:0.01 
0.0054068366669613732 0:0 1:1 2:0 3:0 4:0 5:1 6:0 7:1 8:299 9:2330 10:1 11:0 12:0 13:0 14:13 15:13 16:0 17:0 18:0 19:0 20:1 21:0 22:0 23:13 24:255 25:1 26:0 27:0.08 28:0.04 29:0 30:0 31:0 32:0.01 
0.023353890913155036 0:0 1:1 2:0 3:0 4:0 5:1 6:0 7:1 8:191 9:3731 10:1 11:0 12:0 13:0 14:5 15:16 16:0 17:0 18:0 19:0 20:1 21:0 22:0.25 23:111 24:255 25:1 26:0 27:0.01 28:0.03 29:0 30:0 31:0.01 32:0.01 
0.025770029641582311 0:0 1:1 2:0 3:0 4:0 5:1 6:0 7:1 8:347 9:8113 10:1 11:0 12:0 13:0 14:3 15:3 16:0 17:0 18:0 19:0 20:1 21:0 22:0 23:255 24:255 25:1 26:0 27:0 28:0 29:0 30:0 31:0.01 32:0.01 
0.031032326946581253 0:1 1:1 2:0 3:0 4:1 5:0 6:0 7:1 8:1100 9:483 10:1 11:0 12:0 13:0 14:1 15:2 16:0 17:0 18:0 19:0 20:1 21:0 22:1 23:108 24:142 25:0.8 26:0.03 27:0.01 28:0.01 29:0.07 30:0.04 31:0.01 32:0.01 
0.01031297324608944 0:0 1:1 2:0 3:0 4:0 5:1 6:0 7:1 8:289 9:4743 10:1 11:0 12:0 13:0 14:17 15:17 16:0 17:0 18:0 19:0 20:1 21:0 22:0 23:82 24:255 25:1 26:0 27:0.01 28:0.01 29:0 30:0 31:0.02 32:0.01 
0.019784450674184547 0:0 1:1 2:0 3:0 4:0 5:1 6:0 7:1 8:338 9:200 10:1 11:0 12:0 13:0 14:1 15:2 16:0 17:0 18:0 19:0 20:1 21:0 22:1 23:255 24:255 25:1 26:0 27:0 28:0 29:0 30:0 31:0.01 32:0.01 
0.0056717238155616608 0:0 1:1 2:0 3:0 4:1 5:0 6:0 7:1 8:1710 9:332 10:1 11:0 12:0 13:0 14:1 15:1 16:0 17:0 18:0 19:0 20:1 21:0 22:0 23:120 24:137 25:0.53 26:0.03 27:0.01 28:0.01 29:0 30:0 31:0 32:0.01 
0.0087902063452732094 0:0 1:1 2:0 3:0 4:0 5:1 6:0 7:1 8:269 9:9287 10:1 11:0 12:0 13:0 14:3 15:3 16:0 17:0 18:0 19:0 20:1 21:0 22:0 23:94 24:255 25:1 26:0 27:0.01 28:0.07 29:0 30:0 31:0.02 32:0.01 
0.012345560674047861 0:0 1:1 2:0 3:0 4:0 5:1 6:0 7:1 8:193 9:351 10:1 11:0 12:0 13:0 14:26 15:57 16:0 17:0 18:0.04 19:0.02 20:1 21:0 22:0.05 23:61 24:255 25:1 26:0 27:0.02 28:0.04 29:0 30:0.01 31:0.02 32:0.01 
0.0059777950083745295 0:0 1:1 2:0 3:0 4:0 5:1 6:0 7:1 8:331 9:480 10:1 11:0 12:0 13:0 14:22 15:25 16:0 17:0 18:0 19:0 20:1 21:0 22:0.08 23:142 24:255 25:1 26:0 27:0.01 28:0.01 29:0 30:0 31:0.01 32:0.01 
0.018646694564870125 0:0 1:1 2:0 3:0 4:0 5:1 6:0 7:1 8:335 9:1211 10:1 11:0 12:0 13:0 14:11 15:11 16:0 17:0 18:0 19:0 20:1 21:0 22:0 23:11 24:255 25:1 26:0 27:0.09 28:0.03 29:0 30:0.01 31:0 32:0.01 
0.013955606315603143 0:0 1:1 2:0 3:0 4:0 5:1 6:0 7:1 8:209 9:2030 10:1 11:0 12:0 13:0 14:3 15:3 16:0 17:0 18:0 19:0 20:1 21:0 22:0 23:3 24:255 25:1 26:0 27:0.33 28:0.07 29:0 30:0.01 31:0 32:0.01 
0.026748701731227113 0:0 1:1 2:0 3:0 4:0 5:1 6:0 7:1 8:295 9:4021 10:1 11:0 12:0 13:0 14:7 15:11 16:0 17:0 18:0 19:0 20:1 21:0 22:0.36 23:56 24:133 25:1 26:0 27:0.02 28:0.05 29:0 30:0 31:0 32:0.01 
0.019543165021023785 0:0 1:1 2:0 3:0 4:0 5:1 6:0 7:1 8:244 9:10329 10:1 11:0 12:0 13:0 14:1 15:4 16:0 17:0 18:0 19:0 20:1 21:0 22:0.75 23:104 24:255 25:1 26:0 27:0.01 28:0.01 29:0 30:0 31:0.02 32:0.01 
0.010654208764591427 0:0 1:1 2:0 3:0 4:0 5:1 6:0 7:1 8:336 9:3820 10:1 11:0 12:0 13:0 14:15 15:18 16:0 17:0 18:0 19:0 20:1 21:0 22:0.11 23:59 24:255 25:1 26:0 27:0.02 28:0.01 29:0 30:0 31:0 32:0.01 
0.020515216148905963 0:0 1:1 2:0 3:0 4:0 5:1 6:0 7:1 8:149 9:436 10:1 11:0 12:0 13:0 14:1 15:1 16:0 17:0 18:0 19:0 20:1 21:0 22:0 23:2 24:255 25:1 26:0 27:0.5 28:0.03 29:0 30:0.01 31:0 32:0.01 
0.013600230494487369 0:0 1:1 2:0 3:0 4:0 5:1 6:0 7:1 8:202 9:454 10:1 11:0 12:0 13:0 14:7 15:7 16:0 17:0 18:0 19:0 20:1 21:0 22:0 23:255 24:255 25:1 26:0 27:0 28:0 29:0 30:0 31:0.01 32:0.01 
0.0099690882768249771 0:0 1:1 2:0 3:0 4:0 5:1 6:0 7:1 8:281 9:9644 10:1 11:0 12:0 13:0 14:23 15:24 16:0 17:0 18:0.04 19:0.04 20:1 21:0 22:0.08 23:81 24:255 25:1 26:0 27:0.01 28:0.02 29:0 30:0 31:0.01 32:0.01 
0.015414211591054064 0:0 1:1 2:0 3:0 4:0 5:1 6:0 7:1 8:397 9:381 10:1 11:0 12:0 13:0 14:21 15:29 16:0 17:0 18:0.05 19:0.03 20:1 21:0 22:0.14 23:142 24:154 25:1 26:0 27:0.01 28:0.03 29:0.01 30:0.01 31:0.01 32:0.01 
0.010425742504749319 0:0 1:1 2:0 3:0 4:0 5:1 6:0 7:1 8:234 9:1931 10:1 11:0 12:0 13:0 14:8 15:10 16:0 17:0 18:0 19:0 20:1 21:0 22:0.3 23:255 24:255 25:1 26:0 27:0 28:0 29:0 30:0 31:0.01 32:0.01 
0.016141830794852579 0:0 1:1 2:0 3:0 4:0 5:1 6:0 7:1 8:255 9:3561 10:1 11:0 12:0 13:0 14:5 15:11 16:0 17:0 18:0 19:0 20:1 21:0 22:0.27 23:52 24:255 25:1 26:0 27:0.02 28:0.05 29:0 30:0 31:0 32:0.01 
0.018851529818297463 0:0 1:1 2:0 3:0 4:0 5:1 6:0 7:1 8:198 9:27266 10:1 11:0 12:0 13:0 14:1 15:8 16:0 17:0 18:0 19:0 20:1 21:0 22:0.25 23:47 24:255 25:1 26:0 27:0.02 28:0.03 29:0 30:0 31:0 32:0.01 
0.0066606114994635854 0:0 1:1 2:0 3:0 4:0 5:1 6:0 7:1 8:218 9:2459 10:1 11:0 12:0 13:0 14:18 15:25 16:0 17:0 18:0 19:0 20:1 21:0 22:0.24 23:207 24:255 25:1 26:0 27:0 28:0.01 29:0 30:0 31:0.01 32:0.01 
0.02045315920836837 0:0 1:1 2:0 3:0 4:0 5:1 6:0 7:1 8:315 9:5200 10:1 11:0 12:0 13:0 14:45 15:56 16:0 17:0 18:0 19:0 20:1 21:0 22:0.09 23:255 24:255 25:1 26:0 27:0 28:0 29:0 30:0 31:0.01 32:0.01 
0.017091386732189788 0:0 1:1 2:0 3:0 4:0 5:1 6:0 7:1 8:208 9:1227 10:1 11:0 12:0 13:0 14:7 15:7 16:0 17:0 18:0 19:0 20:1 21:0 22:0 23:176 24:176 25:1 26:0 27:0.01 28:0 29:0.01 30:0.01 31:0.01 32:0.01 
0.01809542360235954 0:0 1:1 2:0 3:0 4:0 5:1 6:0 7:1 8:365 9:870 10:1 11:0 12:0 13:0 14:14 15:16 16:0 17:0 18:0 19:0 20:1 21:0 22:0.19 23:255 24:255 25:1 26:0 27:0 28:0 29:0 30:0 31:0.01 32:0.01 
0.014954169013472917 0:0 1:1 2:0 3:0 4:0 5:1 6:0 7:1 8:203 9:11653 10:1 11:0 12:0 13:0 14:1 15:8 16:0 17:0 18:0 19:0 20:1 21:0 22:0.25 23:13 24:174 25:1 26:0 27:0.08 28:0.06 29:0 30:0.01 31:0 32:0.01 
0.020628295277752229 0:0 1:1 2:0 3:0 4:0 5:1 6:0 7:1 8:207 9:15789 10:1 11:0 12:0 13:0 14:5 15:5 16:0 17:0 18:0 19:0 20:1 21:0 22:0 23:5 24:255 25:1 26:0 27:0.2 28:0.06 29:0 30:0 31:0 32:0.01 
0.027159076748849442 0:0 1:1 2:0 3:0 4:0 5:1 6:0 7:1 8:196 9:11180 10:1 11:0 12:0 13:0 14:5 15:5 16:0 17:0 18:0 19:0 20:1 21:0 22:0 23:255 24:255 25:1 26:0 27:0 28:0 29:0 30:0 31:0.01 32:0.01 
0.02607818794789131 0:0 1:1 2:0 3:0 4:0 5:1 6:0 7:1 8:310 9:9544 10:1 11:0 12:0 13:0 14:3 15:10 16:0 17:0 18:0 19:0 20:1 21:0 22:0.3 23:19 24:254 25:1 26:0 27:0.05 28:0.03 29:0 30:0 31:0 32:0.01 
0.025150033874019685 0:0 1:1 2:0 3:0 4:0 5:1 6:0 7:1 8:159 9:9492 10:1 11:0 12:0 13:0 14:2 15:2 16:0 17:0 18:0 19:0 20:1 21:0 22:0 23:9 24:255 25:1 26:0 27:0.11 28:0.01 29:0 30:0 31:0.11 32:0.01 
0.016858879307344768 0:0 1:1 2:0 3:0 4:0 5:1 6:1 7:0 8:267 9:0 10:1 11:0 12:0 13:0 14:1 15:1 16:1 17:1 18:0 19:0 20:1 21:0 22:0 23:86 24:159 25:1 26:0 27:0.01 28:0.05 29:0.01 30:0.01 31:0 32:0.01 
0.0229548176788456 0:0 1:1 2:0 3:0 4:0 5:1 6:0 7:1 8:194 9:5356 10:1 11:0 12:0 13:0 14:15 15:15 16:0 17:0 18:0 19:0 20:1 21:0 22:0 23:183 24:255 25:1 26:0 27:0.01 28:0.03 29:0 30:0 31:0.01 32:0.01 
0.034548502723994692 0:0 1:1 2:0 3:0 4:0 5:1 6:0 7:1 8:318 9:24495 10:1 11:0 12:0 13:0 14:48 15:59 16:0 17:0 18:0 19:0 20:1 21:0 22:0.08 23:255 24:255 25:1 26:0 27:0 28:0 29:0 30:0 31:0.01 32:0.01 
0.034254374406270036 0:0 1:1 2:0 3:0 4:0 5:1 6:0 7:1 8:206 9:66067 10:1 11:0 12:0 13:0 14:5 15:5 16:0 17:0 18:0 19:0 20:1 21:0 22:0 23:5 24:255 25:1 26:0 27:0.2 28:0.04 29:0 30:0 31:0 32:0.01 
0.033396500184345514 0:0 1:1 2:0 3:0 4:0 5:1 6:0 7:1 8:243 9:9284 10:1 11:0 12:0 13:0 14:14 15:16 16:0 17:0 18:0 19:0 20:1 21:0 22:0.19 23:255 24:255 25:1 26:0 27:0 28:0 29:0 30:0 31:0.01 32:0.01 
0.0050789568601894491 0:0 1:1 2:0 3:0 4:0 5:1 6:0 7:1 8:198 9:889 10:1 11:0 12:0 13:0 14:8 15:26 16:0 17:0 18:0 19:0 20:1 21:0 22:0.12 23:8 24:234 25:1 26:0 27:0.12 28:0.02 29:0 30:0 31:0 32:0.01 
0.00038059682012048614 0:0 1:1 2:0 3:0 4:0 5:1 6:0 7:1 8:227 9:456 10:1 11:0 12:0 13:0 14:5 15:5 16:0 17:0 18:0 19:0 20:1 21:0 22:0 23:149 24:255 25:1 26:0 27:0.01 28:0.05 29:0 30:0 31:0.01 32:0.01 
0.020877708008123361 0:0 1:1 2:0 3:0 4:0 5:1 6:0 7:1 8:380 9:1973 10:1 11:0 12:0 13:0 14:33 15:33 16:0 17:0 18:0 19:0 20:1 21:0 22:0 23:255 24:255 25:1 26:0 27:0.01 28:0 29:0 30:0 31:0.01 32:0.01 
0.010732019779573667 0:0 1:1 2:0 3:0 4:1 5:0 6:0 7:1 8:1435 9:328 10:1 11:0 12:0 13:0 14:1 15:21 16:0 17:0.95 18:0 19:0 20:1 21:0 22:0.1 23:30 24:154 25:0.93 26:0.1 27:0.03 28:0.02 29:0.03 30:0.03 31:0 32:0.01 
0.011056108534077872 0:0 1:1 2:0 3:0 4:0 5:1 6:0 7:1 8:365 9:468 10:1 11:0 12:0 13:0 14:4 15:4 16:0 17:0 18:0 19:0 20:1 21:0 22:0 23:255 24:255 25:1 26:0 27:0 28:0 29:0 30:0 31:0.01 32:0.01 
0.016268630483495972 0:0 1:1 2:0 3:0 4:0 5:1 6:0 7:1 8:222 9:3423 10:1 11:0 12:0 13:0 14:3 15:4 16:0 17:0 18:0 19:0 20:1 21:0 22:0.5 23:165 24:255 25:1 26:0 27:0.01 28:0.04 29:0.01 30:0.01 31:0 32:0.01 
0.02011828211452301 0:0 1:1 2:0 3:0 4:0 5:1 6:0 7:1 8:265 9:14515 10:1 11:0 12:0 13:0 14:4 15:6 16:0 17:0 18:0 19:0 20:1 21:0 22:0.33 23:200 24:255 25:1 26:0 27:0 28:0.02 29:0 30:0 31:0.01 32:0.01 
0.015190279574636499 0:0 1:1 2:0 3:0 4:0 5:1 6:0 7:1 8:236 9:530 10:1 11:0 12:0 13:0 14:3 15:3 16:0 17:0 18:0 19:0 20:1 21:0 22:0 23:3 24:93 25:1 26:0 27:0.33 28:0.06 29:0 30:0.02 31:0 32:0.01 
0.01874822080730262 0:0 1:1 2:0 3:0 4:0 5:1 6:0 7:1 8:312 9:2993 10:1 11:0 12:0 13:0 14:7 15:7 16:0 17:0 18:0 19:0 20:1 21:0 22:0 23:206 24:255 25:1 26:0 27:0 28:0.02 29:0 30:0 31:0 32:0.01 
0.011302132127371918 0:0 1:1 2:0 3:0 4:0 5:1 6:0 7:1 8:382 9:400 10:1 11:0 12:0 13:0 14:22 15:22 16:0 17:0 18:0 19:0 20:1 21:0 22:0 23:255 24:255 25:1 26:0 27:0 28:0 29:0 30:0 31:0.01 32:0.01 
0.034037027630824987 0:0 1:1 2:0 3:0 4:0 5:1 6:0 7:1 8:301 9:38684 10:1 11:0 12:0 13:0 14:4 15:4 16:0 17:0 18:0 19:0 20:1 21:0 22:0 23:26 24:255 25:1 26:0 27:0.04 28:0.04 29:0 30:0 31:0 32:0.01 
0.00092653022250957051 0:3 1:1 2:0 3:0 4:1 5:0 6:0 7:1 8:1027 9:326 10:1 11:0 12:0 13:0 14:1 15:1 16:0 17:0 18:0 19:0 20:1 21:0 22:0 23:35 24:167 25:0.94 26:0.09 27:0.03 28:0.02 29:0 30:0 31:0 32:0.01 
0.027761825311967504 0:25 1:1 2:0 3:0 4:1 5:0 6:0 7:1 8:331 9:1063 10:1 11:0 12:0 13:0 14:1 15:1 16:0 17:0 18:0 19:0 20:1 21:0 22:0 23:252 24:67 25:0.27 26:0.28 27:0 28:0 29:0 30:0 31:0.26 32:0.01 
0.006038034794718249 0:0 1:1 2:0 3:0 4:0 5:1 6:0 7:1 8:159 9:217 10:1 11:0 12:0 13:0 14:1 15:1 16:0 17:0 18:0 19:0 20:1 21:0 22:0 23:8 24:255 25:1 26:0 27:0.12 28:0.04 29:0 30:0 31:0 32:0.01 
0.026331936405056679 0:0 1:1 2:0 3:0 4:0 5:1 6:0 7:1 8:300 9:16944 10:1 11:0 12:0 13:0 14:3 15:33 16:0 17:0 18:0 19:0 20:1 21:0 22:0.06 23:22 24:227 25:1 26:0 27:0.05 28:0.01 29:0 30:0.01 31:0 32:0.01 
0.0057869374595426789 0:0 1:1 2:0 3:0 4:0 5:1 6:0 7:1 8:287 9:9006 10:1 11:0 12:0 13:0 14:1 15:2 16:0 17:0 18:0 19:0 20:1 21:0 22:1 23:118 24:255 25:1 26:0 27:0.01 28:0.01 29:0.02 30:0.01 31:0.03 32:0.01 
0.0071667867301512984 0:0 1:1 2:0 3:0 4:0 5:1 6:0 7:1 8:334 9:916 10:1 11:0 12:0 13:0 14:14 15:14 16:0 17:0 18:0 19:0 20:1 21:0 22:0 23:172 24:255 25:1 26:0 27:0.01 28:0.02 29:0 30:0 31:0 32:0.01 
0.020733813290056295 0:1 1:1 2:0 3:0 4:1 5:0 6:0 7:1 8:790 9:334 10:1 11:0 12:0 13:0 14:2 15:3 16:0 17:0 18:0 19:0 20:1 21:0 22:0.67 23:9 24:166 25:0.78 26:0.22 27:0.11 28:0.02 29:0 30:0.02 31:0 32:0.01 
0.010967732444647932 0:30 1:1 2:0 3:0 4:0 5:1 6:0 7:1 8:241 9:174 10:1 11:0 12:0 13:0 14:17 15:19 16:0 17:0 18:0 19:0 20:1 21:0 22:0.11 23:118 24:255 25:1 26:0 27:0.01 28:0.02 29:0 30:0 31:0.03 32:0.01 
0.020287868012728659 0:0 1:1 2:0 3:0 4:0 5:1 6:0 7:1 8:181 9:1917 10:1 11:0 12:0 13:0 14:2 15:2 16:0 17:0 18:0 19:0 20:1 21:0 22:0 23:13 24:255 25:1 26:0 27:0.08 28:0.03 29:0 30:0 31:0 32:0.01 
0.014156279264906094 0:0 1:1 2:0 3:0 4:0 5:1 6:0 7:1 8:246 9:5480 10:1 11:0 12:0 13:0 14:4 15:9 16:0 17:0.11 18:0 19:0 20:1 21:0 22:0.22 23:115 24:255 25:1 26:0 27:0.01 28:0.02 29:0 30:0 31:0.01 32:0.01 
0.020302328849077764 0:0 1:1 2:0 3:0 4:0 5:1 6:0 7:1 8:280 9:18884 10:1 11:0 12:0 13:0 14:7 15:7 16:0 17:0 18:0 19:0 20:1 21:0 22:0 23:49 24:254 25:1 26:0 27:0.02 28:0.01 29:0 30:0.01 31:0.02 32:0.01 
0.026627976619757909 0:10 1:1 2:0 3:0 4:1 5:0 6:0 7:1 8:2709 9:328 10:1 11:0 12:0 13:0 14:1 15:1 16:0 17:0 18:0 19:0 20:1 21:0 22:0 23:255 24:165 25:0.65 26:0.03 27:0 28:0 29:0 30:0 31:0.01 32:0.01 
0.029094530631785496 0:0 1:1 2:0 3:0 4:0 5:1 6:0 7:1 8:184 9:7959 10:1 11:0 12:0 13:0 14:1 15:1 16:0 17:0 18:0 19:0 20:1 21:0 22:0 23:169 24:169 25:1 26:0 27:0.01 28:0 29:0.01 30:0.01 31:0.01 32:0.01 
0.0012019992856066135 0:0 1:1 2:0 3:0 4:0 5:1 6:0 7:1 8:314 9:815 10:1 11:0 12:0 13:0 14:2 15:2 16:0 17:0 18:0 19:0 20:1 21:0 22:0 23:17 24:255 25:1 26:0 27:0.06 28:0.03 29:0 30:0 31:0 32:0.01 
0.020911188716429153 0:0 1:1 2:0 3:0 4:0 5:1 6:0 7:1 8:161 9:4521 10:1 11:0 12:0 13:0 14:2 15:6 16:0 17:0.33 18:0 19:0 20:1 21:0 22:0.5 23:12 24:255 25:1 26:0 27:0.08 28:0.08 29:0 30:0 31:0 32:0.01 
0.01599243276584527 0:0 1:1 2:0 3:0 4:0 5:1 6:0 7:1 8:334 9:2879 10:1 11:0 12:0 13:0 14:9 15:9 16:0 17:0 18:0 19:0 20:1 21:0 22:0 23:9 24:255 25:1 26:0 27:0.11 28:0.02 29:0 30:0 31:0 32:0.01 
0.031417818340369837 0:0 1:1 2:0 3:0 4:0 5:1 6:0 7:1 8:205 9:14313 10:1 11:0 12:0 13:0 14:2 15:2 16:0 17:0 18:0 19:0 20:1 21:0 22:0 23:6 24:255 25:1 26:0 27:0.17 28:0.02 29:0 30:0 31:0 32:0.01 
0.03191795233331448 0:0 1:1 2:0 3:0 4:0 5:1 6:0 7:1 8:366 9:5516 10:1 11:0 12:0 13:0 14:4 15:5 16:0 17:0 18:0 19:0 20:1 21:0 22:0.4 23:255 24:255 25:1 26:0 27:0 28:0 29:0 30:0 31:0.01 32:0.01 
0.019469506996192695 0:0 1:1 2:0 3:0 4:0 5:1 6:0 7:1 8:193 9:1565 10:1 11:0 12:0 13:0 14:1 15:1 16:0 17:0 18:0 19:0 20:1 21:0 22:0 23:183 24:183 25:1 26:0 27:0.01 28:0 29:0.01 30:0.01 31:0.01 32:0.01 
0.014567740974600609 0:0 1:1 2:0 3:0 4:0 5:1 6:0 7:1 8:250 9:7383 10:1 11:0 12:0 13:0 14:21 15:23 16:0 17:0 18:0 19:0 20:1 21:0 22:0.09 23:140 24:255 25:1 26:0 27:0.01 28:0.02 29:0 30:0 31:0.02 32:0.01 
0.021442092033478886 0:0 1:1 2:0 3:0 4:0 5:1 6:0 7:1 8:230 9:843 10:1 11:0 12:0 13:0 14:20 15:21 16:0 17:0 18:0 19:0 20:1 21:0 22:0.1 23:61 24:85 25:1 26:0 27:0.02 28:0.06 29:0 30:0 31:0 32:0.01 
0.019077555634280156 0:0 1:1 2:0 3:0 4:0 5:1 6:0 7:1 8:197 9:14468 10:1 11:0 12:0 13:0 14:15 15:16 16:0 17:0 18:0 19:0 20:1 21:0 22:0.12 23:246 24:255 25:1 26:0 27:0 28:0.01 29:0 30:0 31:0.01 32:0.01 
0.034100203682095778 0:0 1:1 2:0 3:0 4:0 5:1 6:0 7:1 8:290 9:28271 10:1 11:0 12:0 13:0 14:1 15:7 16:0 17:0 18:0 19:0 20:1 21:0 22:0.57 23:76 24:255 25:1 26:0 27:0.01 28:0.02 29:0 30:0 31:0.01 32:0.01 
0.024704042104772391 0:0 1:1 2:0 3:0 4:0 5:1 6:0 7:1 8:200 9:6927 10:1 11:0 12:0 13:0 14:3 15:12 16:0 17:0 18:0 19:0 20:1 21:0 22:0.25 23:255 24:255 25:1 26:0 27:0 28:0 29:0 30:0 31:0.01 32:0.01 
0.02135464420854984 0:0 1:1 2:0 3:0 4:0 5:1 6:0 7:1 8:247 9:17739 10:1 11:0 12:0 13:0 14:16 15:17 16:0 17:0 18:0 19:0 20:1 21:0 22:0.12 23:81 24:255 25:1 26:0 27:0.01 28:0.05 29:0 30:0 31:0 32:0.01 
0.020249104196746439 0:0 1:1 2:0 3:0 4:0 5:1 6:0 7:1 8:366 9:1861 10:1 11:0 12:0 13:0 14:5 15:13 16:0 17:0 18:0 19:0 20:1 21:0 22:0.23 23:255 24:255 25:1 26:0 27:0 28:0 29:0 30:0 31:0.01 32:0.01 
0.028029736579099445 0:0 1:1 2:0 3:0 4:0 5:1 6:0 7:1 8:332 9:7273 10:1 11:0 12:0 13:0 14:2 15:2 16:0 17:0 18:0 19:0 20:1 21:0 22:0 23:3 24:186 25:1 26:0 27:0.33 28:0.06 29:0 30:0.01 31:0 32:0.01 
0.034514330063964822 0:0 1:1 2:0 3:0 4:0 5:1 6:0 7:1 8:282 9:21896 10:1 11:0 12:0 13:0 14:6 15:6 16:0 17:0 18:0 19:0 20:1 21:0 22:0 23:134 24:255 25:1 26:0 27:0.01 28:0.05 29:0 30:0 31:0.01 32:0.01 
0.0010238930428382556 0:0 1:1 2:0 3:0 4:0 5:1 6:0 7:1 8:305 9:1075 10:1 11:0 12:0 13:0 14:6 15:6 16:0 17:0 18:0 19:0 20:1 21:0 22:0 23:255 24:238 25:0.93 26:0.01 27:0 28:0 29:0 30:0 31:0.02 32:0.01 
0.0051962863152049763 0:0 1:1 2:0 3:0 4:0 5:1 6:0 7:1 8:223 9:4712 10:1 11:0 12:0 13:0 14:11 15:12 16:0 17:0 18:0 19:0 20:1 21:0 22:0.17 23:96 24:255 25:1 26:0 27:0.01 28:0.02 29:0 30:0 31:0.03 32:0.01 
0.004788395968926636 0:0 1:1 2:0 3:0 4:0 5:1 6:0 7:1 8:223 9:685 10:1 11:0 12:0 13:0 14:3 15:3 16:0 17:0 18:0 19:0 20:1 21:0 22:0 23:128 24:255 25:1 26:0 27:0.01 28:0.03 29:0 30:0 31:0 32:0.01 
0.020036238952957901 0:4 1:1 2:0 3:0 4:1 5:0 6:0 7:1 8:2857 9:330 10:1 11:0 12:0 13:0 14:1 15:1 16:0 17:0 18:0 19:0 20:1 21:0 22:0 23:125 24:199 25:0.82 26:0.03 27:0.01 28:0.02 29:0 30:0 31:0 32:0.01 
0.02475941922363864 0:0 1:1 2:0 3:0 4:0 5:1 6:0 7:1 8:200 9:2276 10:1 11:0 12:0 13:0 14:17 15:17 16:0 17:0 18:0 19:0 20:1 21:0 22:0 23:255 24:255 25:1 26:0 27:0 28:0 29:0 30:0 31:0.01 32:0.01 
0.0041838431493020694 0:0 1:1 2:0 3:0 4:0 5:1 6:0 7:1 8:310 9:1313 10:1 11:0 12:0 13:0 14:35 15:35 16:0 17:0 18:0 19:0 20:1 21:0 22:0 23:35 24:255 25:1 26:0 27:0.03 28:0.03 29:0 30:0 31:0 32:0.01 
0.027197450526173846 0:0 1:1 2:0 3:0 4:0 5:1 6:0 7:1 8:426 9:526 10:1 11:0 12:0 13:0 14:1 15:1 16:0 17:0 18:0 19:0 20:1 21:0 22:0 23:21 24:255 25:1 26:0 27:0.05 28:0.06 29:0.05 30:0.01 31:0 32:0.01 
0.032736022019919167 0:0 1:1 2:0 3:0 4:0 5:1 6:0 7:1 8:321 9:3683 10:1 11:0 12:0 13:0 14:14 15:14 16:0 17:0 18:0 19:0 20:1 21:0 22:0 23:255 24:255 25:1 26:0 27:0 28:0 29:0 30:0 31:0.01 32:0.01 
0.0064856106978296527 0:0 1:1 2:0 3:0 4:0 5:1 6:0 7:1 8:225 9:3863 10:1 11:0 12:0 13:0 14:4 15:4 16:0 17:0 18:0 19:0 20:1 21:0 22:0 23:108 24:255 25:1 26:0 27:0.01 28:0.04 29:0 30:0.01 31:0.01 32:0.01 
0.0072084348077432019 0:0 1:1 2:0 3:0 4:0 5:1 6:0 7:1 8:194 9:1187 10:1 11:0 12:0 13:0 14:16 15:16 16:0 17:0 18:0 19:0 20:1 21:0 22:0 23:139 24:255 25:1 26:0 27:0.01 28:0.02 29:0 30:0 31:0.01 32:0.01 
0.0079461660986360344 0:0 1:1 2:0 3:0 4:0 5:1 6:0 7:1 8:322 9:1799 10:1 11:0 12:0 13:0 14:11 15:12 16:0 17:0 18:0 19:0 20:1 21:0 22:0.17 23:214 24:255 25:1 26:0 27:0 28:0.01 29:0 30:0 31:0 32:0.01 
0.018104683266132928 0:0 1:1 2:0 3:0 4:0 5:1 6:0 7:1 8:206 9:5200 10:1 11:0 12:0 13:0 14:21 15:22 16:0 17:0 18:0 19:0 20:1 21:0 22:0.09 23:255 24:255 25:1 26:0 27:0 28:0 29:0 30:0 31:0.01 32:0.01 
0.022116006363684187 0:0 1:1 2:0 3:0 4:0 5:1 6:0 7:1 8:201 9:3868 10:1 11:0 12:0 13:0 14:3 15:14 16:0 17:0 18:0 19:0 20:1 21:0 22:0.14 23:21 24:255 25:1 26:0 27:0.05 28:0.05 29:0 30:0.02 31:0.05 32:0.01 
0.027459463100230806 0:0 1:1 2:0 3:0 4:0 5:1 6:0 7:1 8:213 9:7765 10:1 11:0 12:0 13:0 14:27 15:27 16:0 17:0 18:0 19:0 20:1 21:0 22:0 23:27 24:255 25:1 26:0 27:0.04 28:0.04 29:0 30:0 31:0 32:0.01 
0.010156212756672656 0:0 1:1 2:0 3:0 4:0 5:1 6:0 7:1 8:203 9:1299 10:1 11:0 12:0 13:0 14:1 15:1 16:0 17:0 18:0 19:0 20:1 21:0 22:0 23:24 24:255 25:1 26:0 27:0.04 28:0.03 29:0 30:0 31:0 32:0.01 
0.023136650561395515 0:0 1:1 2:0 3:0 4:0 5:1 6:0 7:1 8:281 9:8536 10:1 11:0 12:0 13:0 14:6 15:6 16:0 17:0 18:0 19:0 20:1 21:0 22:0 23:18 24:255 25:1 26:0 27:0.06 28:0.06 29:0 30:0 31:0 32:0.01 
0.016679917761639965 0:0 1:1 2:0 3:0 4:0 5:1 6:0 7:1 8:354 9:3098 10:1 11:0 12:0 13:0 14:5 15:24 16:0 17:0 18:0 19:0 20:1 21:0 22:0.08 23:137 24:255 25:1 26:0 27:0.01 28:0.01 29:0.01 30:0 31:0 32:0.01 
0.01760355982508708 0:0 1:1 2:0 3:0 4:0 5:1 6:0 7:1 8:184 9:471 10:1 11:0 12:0 13:0 14:1 15:28 16:0 17:0 18:0 19:0 20:1 21:0 22:0.11 23:70 24:70 25:1 26:0 27:0.01 28:0 29:0 30:0 31:0.01 32:0.01 
0.00074096118555397534 0:0 1:1 2:0 3:0 4:0 5:1 6:0 7:1 8:235 9:2332 10:1 11:0 12:0 13:0 14:1 15:1 16:0 17:0 18:0 19:0 20:1 21:0 22:0 23:39 24:255 25:1 26:0 27:0.03 28:0.04 29:0 30:0 31:0 32:0.01 
0.033550531132432823 0:0 1:1 2:0 3:0 4:0 5:1 6:0 7:1 8:140 9:16758 10:1 11:0 12:0 13:0 14:4 15:4 16:0 17:0 18:0 19:0 20:1 21:0 22:0 23:18 24:255 25:1 26:0 27:0.06 28:0.02 29:0 30:0 31:0 32:0.01 
0.01690082932389746 0:0 1:1 2:0 3:0 4:1 5:0 6:0 7:1 8:1266 9:329 10:1 11:0 12:0 13:0 14:1 15:2 16:0 17:0 18:0 19:0 20:1 21:0 22:1 23:3 24:133 25:0.67 26:0.67 27:0.33 28:0.02 29:0 30:0.02 31:0 32:0.01 
0.0053496701941951001 0:0 1:1 2:0 3:0 4:0 5:1 6:0 7:1 8:315 9:1618 10:1 11:0 12:0 13:0 14:13 15:13 16:0 17:0 18:0 19:0 20:1 21:0 22:0 23:43 24:255 25:1 26:0 27:0.02 28:0.02 29:0 30:0 31:0 32:0.01 
0.0025785249523425403 0:0 1:1 2:0 3:0 4:0 5:1 6:0 7:1 8:282 9:1715 10:1 11:0 12:0 13:0 14:3 15:3 16:0 17:0 18:0 19:0 20:1 21:0 22:0 23:3 24:255 25:1 26:0 27:0.33 28:0.05 29:0 30:0.01 31:0 32:0.01 
0.022253835894319337 0:0 1:1 2:0 3:0 4:0 5:1 6:0 7:1 8:218 9:2452 10:1 11:0 12:0 13:0 14:41 15:52 16:0 17:0 18:0 19:0 20:1 21:0 22:0.1 23:255 24:255 25:1 26:0 27:0 28:0 29:0 30:0 31:0.01 32:0.01 
0.023873385995631144 0:0 1:1 2:0 3:0 4:0 5:1 6:0 7:1 8:234 9:11911 10:1 11:0 12:0 13:0 14:3 15:3 16:0 17:0 18:0 19:0 20:1 21:0 22:0 23:3 24:255 25:1 26:0 27:0.33 28:0.02 29:0 30:0.01 31:0 32:0.01 
0.0085314755034152229 0:0 1:1 2:0 3:0 4:0 5:1 6:0 7:1 8:406 9:382 10:1 11:0 12:0 13:0 14:4 15:10 16:0 17:0 18:0 19:0 20:1 21:0 22:0.4 23:154 24:166 25:1 26:0 27:0.01 28:0.03 29:0.01 30:0.01 31:0.01 32:0.01 
0.013708175576363947 0:0 1:1 2:0 3:0 4:0 5:1 6:0 7:1 8:144 9:193 10:1 11:0 12:0 13:0 14:1 15:5 16:0 17:0 18:0 19:0 20:1 21:0 22:0.4 23:16 24:255 25:1 26:0 27:0.06 28:0.03 29:0 30:0 31:0.12 32:0.01 
0.030371353604748404 0:0 1:1 2:0 3:0 4:0 5:1 6:0 7:1 8:224 9:14144 10:1 11:0 12:0 13:0 14:1 15:1 16:0 17:0 18:0 19:0 20:1 21:0 22:0 23:34 24:255 25:1 26:0 27:0.03 28:0.02 29:0.09 30:0.01 31:0 32:0.01 
0.017180270983862569 0:0 1:1 2:0 3:0 4:0 5:1 6:0 7:1 8:335 9:3248 10:1 11:0 12:0 13:0 14:18 15:18 16:0 17:0 18:0 19:0 20:1 21:0 22:0 23:255 24:255 25:1 26:0 27:0 28:0 29:0 30:0 31:0.01 32:0.01 
0.010589846159679294 0:0 1:1 2:0 3:0 4:0 5:1 6:0 7:1 8:325 9:3804 10:1 11:0 12:0 13:0 14:16 15:22 16:0 17:0 18:0 19:0 20:1 21:0 22:0.14 23:63 24:255 25:1 26:0 27:0.02 28:0.03 29:0 30:0 31:0 32:0.01 
0.0085144985660799994 0:0 1:1 2:0 3:0 4:0 5:1 6:0 7:1 8:305 9:1075 10:1 11:0 12:0 13:0 14:3 15:3 16:0 17:0 18:0 19:0 20:1 21:0 22:0 23:189 24:165 25:0.87 26:0.02 27:0.01 28:0 29:0.01 30:0.01 31:0.01 32:0.01 
0.013036450269834274 0:1 1:1 2:0 3:0 4:1 5:0 6:0 7:1 8:1770 9:332 10:1 11:0 12:0 13:0 14:1 15:1 16:0 17:0 18:0 19:0 20:1 21:0 22:0 23:80 24:163 25:0.69 26:0.04 27:0.01 28:0.02 29:0 30:0.03 31:0 32:0.01 
0.033963688783948856 0:0 1:1 2:0 3:0 4:0 5:1 6:0 7:1 8:294 9:13752 10:1 11:0 12:0 13:0 14:9 15:13 16:0 17:0 18:0 19:0 20:1 21:0 22:0.23 23:20 24:255 25:1 26:0 27:0.05 28:0.09 29:0 30:0.01 31:0 32:0.01 
0.011294105840362332 0:0 1:1 2:0 3:0 4:0 5:1 6:0 7:1 8:182 9:7321 10:1 11:0 12:0 13:0 14:3 15:10 16:0 17:0 18:0 19:0 20:1 21:0 22:0.4 23:109 24:255 25:1 26:0 27:0.01 28:0.03 29:0 30:0 31:0.01 32:0.01 
0.025771516483822369 0:0 1:1 2:0 3:0 4:0 5:1 6:0 7:1 8:291 9:4743 10:1 11:0 12:0 13:0 14:12 15:17 16:0 17:0 18:0 19:0 20:1 21:0 22:0.12 23:255 24:255 25:1 26:0 27:0 28:0 29:0 30:0 31:0.01 32:0.01 
0.024913362394923044 0:0 1:1 2:0 3:0 4:0 5:1 6:0 7:1 8:255 9:11167 10:1 11:0 12:0 13:0 14:6 15:8 16:0 17:0 18:0 19:0 20:1 21:0 22:0.25 23:164 24:255 25:1 26:0 27:0.01 28:0.02 29:0 30:0 31:0.02 32:0.01 
0.0013856015323610235 0:0 1:1 2:0 3:0 4:0 5:1 6:0 7:1 8:345 9:3100 10:1 11:0 12:0 13:0 14:26 15:29 16:0 17:0 18:0 19:0 20:1 21:0 22:0.07 23:43 24:255 25:1 26:0 27:0.02 28:0.05 29:0 30:0 31:0 32:0.01 
0.034693032444401022 0:0 1:1 2:0 3:0 4:0 5:1 6:0 7:1 8:258 9:45074 10:1 11:0 12:0 13:0 14:1 15:2 16:0 17:0 18:0 19:0 20:1 21:0 22:1 23:255 24:255 25:1 26:0 27:0 28:0 29:0 30:0 31:0.01 32:0.01 
0.020626229803820388 0:0 1:1 2:0 3:0 4:0 5:1 6:0 7:1 8:207 9:9107 10:1 11:0 12:0 13:0 14:6 15:6 16:0 17:0 18:0 19:0 20:1 21:0 22:0 23:143 24:255 25:1 26:0 27:0.01 28:0.05 29:0 30:0 31:0.01 32:0.01 
0.0016015566128389936 0:0 1:1 2:0 3:0 4:0 5:1 6:0 7:1 8:305 9:1075 10:1 11:0 12:0 13:0 14:2 15:2 16:0 17:0 18:0 19:0 20:1 21:0 22:0 23:141 24:118 25:0.84 26:0.03 27:0.01 28:0 29:0.01 30:0.01 31:0.01 32:0.01 
0.012876902468516136 0:0 1:1 2:0 3:0 4:0 5:1 6:0 7:1 8:232 9:9521 10:1 11:0 12:0 13:0 14:4 15:4 16:0 17:0 18:0 19:0 20:1 21:0 22:0 23:255 24:255 25:1 26:0 27:0 28:0 29:0 30:0 31:0.01 32:0.01 
0.0341344137746478 0:0 1:1 2:0 3:0 4:0 5:1 6:0 7:1 8:162 9:24486 10:1 11:0 12:0 13:0 14:1 15:1 16:0 17:0 18:0 19:0 20:1 21:0 22:0 23:74 24:255 25:1 26:0 27:0.01 28:0.01 29:0.03 30:0.01 31:0.04 32:0.01 
0.011753886568796489 0:0 1:1 2:0 3:0 4:0 5:1 6:0 7:1 8:234 9:9621 10:1 11:0 12:0 13:0 14:4 15:5 16:0 17:0 18:0 19:0 20:1 21:0 22:0.4 23:255 24:255 25:1 26:0 27:0 28:0 29:0 30:0 31:0.01 32:0.01 
0.023460067084103472 0:0 1:1 2:0 3:0 4:0 5:1 6:0 7:1 8:220 9:1769 10:1 11:0 12:0 13:0 14:41 15:41 16:0 17:0 18:0 19:0 20:1 21:0 22:0 23:255 24:255 25:1 26:0 27:0 28:0 29:0 30:0 31:0.01 32:0.01 
0.025978963160914498 0:0 1:1 2:0 3:0 4:0 5:1 6:0 7:1 8:299 9:5357 10:1 11:0 12:0 13:0 14:2 15:2 16:0 17:0 18:0 19:0 20:1 21:0 22:0 23:255 24:246 25:0.96 26:0.02 27:0 28:0 29:0 30:0 31:0.01 32:0.01 
0.019230687725089124 0:0 1:1 2:0 3:0 4:0 5:1 6:0 7:1 8:291 9:4317 10:1 11:0 12:0 13:0 14:13 15:13 16:0 17:0 18:0 19:0 20:1 21:0 22:0 23:13 24:255 25:1 26:0 27:0.08 28:0.02 29:0 30:0 31:0 32:0.01 
0.011265592264900866 0:0 1:1 2:0 3:0 4:0 5:1 6:0 7:1 8:248 9:2792 10:1 11:0 12:0 13:0 14:10 15:10 16:0 17:0 18:0 19:0 20:1 21:0 22:0 23:255 24:255 25:1 26:0 27:0 28:0 29:0 30:0 31:0.01 32:0.01 
0.0045166697508399597 0:0 1:1 2:0 3:0 4:0 5:1 6:0 7:1 8:185 9:4841 10:1 11:0 12:0 13:0 14:1 15:1 16:0 17:0 18:0 19:0 20:1 21:0 22:0 23:19 24:255 25:1 26:0 27:0.05 28:0.03 29:0 30:0 31:0 32:0.01 
0.011387728269923023 0:0 1:1 2:0 3:0 4:0 5:1 6:0 7:1 8:203 9:1415 10:1 11:0 12:0 13:0 14:4 15:11 16:0 17:0 18:0 19:0.09 20:1 21:0 22:0.27 23:4 24:255 25:1 26:0 27:0.25 28:0.05 29:0 30:0 31:0 32:0.01 
0.0053093768488468723 0:0 1:1 2:0 3:0 4:0 5:1 6:0 7:1 8:313 9:1293 10:1 11:0 12:0 13:0 14:15 15:15 16:0 17:0 18:0 19:0 20:1 21:0 22:0 23:255 24:255 25:1 26:0 27:0 28:0 29:0 30:0 31:0.01 32:0.01 
0.024464134721673043 0:0 1:1 2:0 3:0 4:1 5:0 6:0 7:1 8:3087 9:429 10:1 11:0 12:0 13:0 14:1 15:3 16:0 17:0 18:0 19:0 20:1 21:0 22:1 23:110 24:142 25:0.8 26:0.03 27:0.01 28:0.01 29:0.07 30:0.04 31:0.01 32:0.01 
0.019618962763700922 0:0 1:1 2:0 3:0 4:1 5:0 6:0 7:1 8:3082 9:331 10:1 11:0 12:0 13:0 14:1 15:4 16:0 17:0 18:0 19:0 20:1 21:0 22:1 23:63 24:154 25:0.49 26:0.08 27:0.02 28:0.01 29:0 30:0 31:0.02 32:0.01 
0.02270808172144391 0:0 1:1 2:0 3:0 4:0 5:1 6:0 7:1 8:153 9:2601 10:1 11:0 12:0 13:0 14:2 15:2 16:0 17:0 18:0 19:0 20:1 21:0 22:0 23:2 24:255 25:1 26:0 27:0.5 28:0.02 29:0 30:0 31:0 32:0.01 
0.0091776510102545075 0:0 1:1 2:0 3:0 4:0 5:1 6:0 7:1 8:232 9:9567 10:1 11:0 12:0 13:0 14:1 15:2 16:0 17:0 18:0 19:0 20:1 21:0 22:1 23:111 24:255 25:1 26:0 27:0.01 28:0.01 29:0 30:0 31:0.02 32:0.01 
0.015913026511232577 0:0 1:1 2:0 3:0 4:0 5:1 6:0 7:1 8:208 9:3227 10:1 11:0 12:0 13:0 14:8 15:10 16:0 17:0 18:0 19:0 20:1 21:0 22:0.3 23:24 24:255 25:1 26:0 27:0.04 28:0.02 29:0 30:0 31:0 32:0.01 
0.018638015903911252 0:0 1:1 2:0 3:0 4:0 5:1 6:0 7:1 8:223 9:4907 10:1 11:0 12:0 13:0 14:1 15:19 16:0 17:0 18:0 19:0 20:1 21:0 22:0.47 23:9 24:255 25:1 26:0 27:0.11 28:0.05 29:0 30:0.01 31:0 32:0.01 
0.028423003931527531 0:0 1:1 2:0 3:0 4:0 5:1 6:0 7:1 8:286 9:1024 10:1 11:0 12:0 13:0 14:2 15:3 16:0 17:0 18:0 19:0 20:1 21:0 22:0.67 23:76 24:85 25:1 26:0 27:0.01 28:0.06 29:0 30:0 31:0.01 32:0.01 
0.033920040934871873 0:0 1:1 2:0 3:0 4:0 5:1 6:0 7:1 8:267 9:10511 10:1 11:0 12:0 13:0 14:5 15:5 16:0 17:0 18:0 19:0 20:1 21:0 22:0 23:255 24:255 25:1 26:0 27:0 28:0 29:0 30:0 31:0.01 32:0.01 
0.019479799628429696 0:0 1:1 2:0 3:0 4:0 5:1 6:0 7:1 8:142 9:5894 10:1 11:0 12:0 13:0 14:1 15:1 16:0 17:0 18:0 19:0 20:1 21:0 22:0 23:63 24:255 25:1 26:0 27:0.02 28:0.04 29:0 30:0.01 31:0.02 32:0.01 
0.012037119942955841 0:0 1:1 2:0 3:0 4:0 5:1 6:0 7:1 8:195 9:1954 10:1 11:0 12:0 13:0 14:12 15:12 16:0 17:0 18:0 19:0 20:1 21:0 22:0 23:137 24:255 25:1 26:0 27:0.01 28:0.03 29:0 30:0 31:0.01 32:0.01 
0.0066182659019144788 0:0 1:1 2:0 3:0 4:0 5:1 6:0 7:1 8:279 9:2443 10:1 11:0 12:0 13:0 14:21 15:21 16:0 17:0 18:0 19:0 20:1 21:0 22:0 23:73 24:255 25:1 26:0 27:0.01 28:0.05 29:0 30:0 31:0.01 32:0.01 
0.034578391011663601 0:0 1:1 2:0 3:0 4:0 5:1 6:0 7:1 8:189 9:26476 10:1 11:0 12:0 13:0 14:3 15:5 16:0.33 17:0.4 18:0 19:0 20:1 21:0 22:0.4 23:15 24:134 25:1 26:0 27:0.07 28:0.06 29:0.07 30:0.01 31:0 32:0.01 
0.019267323582737618 0:0 1:1 2:0 3:0 4:0 5:1 6:0 7:1 8:317 9:2276 10:1 11:0 12:0 13:0 14:42 15:53 16:0 17:0 18:0 19:0 20:1 21:0 22:0.09 23:255 24:255 25:1 26:0 27:0 28:0 29:0 30:0 31:0.01 32:0.01 
0.027847896624049781 0:0 1:1 2:0 3:0 4:0 5:1 6:0 7:1 8:327 9:7042 10:1 11:0 12:0 13:0 14:4 15:5 16:0 17:0 18:0 19:0 20:1 21:0 22:0.4 23:108 24:255 25:1 26:0 27:0.01 28:0.01 29:0 30:0 31:0 32:0.01 
0.0059046866502705693 0:0 1:1 2:0 3:0 4:0 5:1 6:0 7:1 8:206 9:4076 10:1 11:0 12:0 13:0 14:2 15:2 16:0 17:0 18:0 19:0 20:1 21:0 22:0 23:36 24:255 25:1 26:0 27:0.03 28:0.05 29:0 30:0.01 31:0.03 32:0.01 
0.031815772944712127 0:0 1:1 2:0 3:0 4:0 5:1 6:0 7:1 8:281 9:15668 10:1 11:0 12:0 13:0 14:22 15:23 16:0 17:0 18:0 19:0 20:1 21:0 22:0.09 23:47 24:255 25:1 26:0 27:0.02 28:0.03 29:0 30:0 31:0 32:0.01 
0.022735179224511504 0:0 1:1 2:0 3:0 4:0 5:1 6:0 7:1 8:203 9:4335 10:1 11:0 12:0 13:0 14:19 15:19 16:0 17:0 18:0 19:0 20:1 21:0 22:0 23:142 24:255 25:1 26:0 27:0.01 28:0.02 29:0 30:0 31:0.01 32:0.01 
0.013385735461966307 0:0 1:1 2:0 3:0 4:0 5:1 6:0 7:1 8:289 9:6675 10:1 11:0 12:0 13:0 14:1 15:13 16:0 17:0 18:0 19:0 20:1 21:0 22:0.15 23:4 24:255 25:1 26:0 27:0.25 28:0.05 29:0.25 30:0 31:0 32:0.01 
0.017134745406713909 0:0 1:1 2:0 3:0 4:0 5:1 6:0 7:1 8:319 9:25393 10:1 11:0 12:0 13:0 14:24 15:26 16:0 17:0 18:0 19:0 20:1 21:0 22:0.12 23:24 24:255 25:1 26:0 27:0.04 28:0.04 29:0 30:0.01 31:0 32:0.01 
0.0061930175069538594 0:0 1:1 2:0 3:0 4:0 5:1 6:0 7:1 8:223 9:5775 10:1 11:0 12:0 13:0 14:7 15:8 16:0 17:0 18:0 19:0 20:1 21:0 22:0.25 23:46 24:255 25:1 26:0 27:0.02 28:0.03 29:0 30:0 31:0 32:0.01 
0.005425039791384121 0:0 1:1 2:0 3:0 4:0 5:1 6:0 7:1 8:313 9:174 10:1 11:0 12:0 13:0 14:21 15:21 16:0 17:0 18:0 19:0 20:1 21:0 22:0 23:21 24:255 25:1 26:0 27:0.05 28:0.06 29:0 30:0 31:0 32:0.01 
0.022419683055875383 0:0 1:1 2:0 3:0 4:0 5:1 6:0 7:1 8:196 9:2531 10:1 11:0 12:0 13:0 14:5 15:27 16:0 17:0 18:0 19:0 20:1 21:0 22:0.11 23:128 24:128 25:1 26:0 27:0.01 28:0 29:0 30:0 31:0.01 32:0.01 
0.011900633435326251 0:0 1:1 2:0 3:0 4:0 5:1 6:0 7:1 8:301 9:7177 10:1 11:0 12:0 13:0 14:10 15:14 16:0 17:0 18:0 19:0 20:1 21:0 22:0.21 23:52 24:255 25:1 26:0 27:0.02 28:0.02 29:0 30:0.01 31:0.06 32:0.01 
0.010539423916299053 0:0 1:1 2:0 3:0 4:0 5:1 6:0 7:1 8:222 9:5507 10:1 11:0 12:0 13:0 14:10 15:10 16:0 17:0 18:0 19:0 20:1 21:0 22:0 23:10 24:255 25:1 26:0 27:0.1 28:0.03 29:0 30:0 31:0 32:0.01 
0.0086585065773042667 0:0 1:1 2:0 3:0 4:0 5:1 6:0 7:1 8:149 9:597 10:1 11:0 12:0 13:0 14:1 15:1 16:0 17:0 18:0 19:0 20:1 21:0 22:0 23:61 24:255 25:1 26:0 27:0.02 28:0.02 29:0.02 30:0.01 31:0 32:0.01 
0.020353738999840543 0:0 1:1 2:0 3:0 4:0 5:1 6:0 7:1 8:233 9:7571 10:1 11:0 12:0 13:0 14:16 15:18 16:0 17:0 18:0 19:0 20:1 21:0 22:0.11 23:17 24:255 25:1 26:0 27:0.06 28:0.06 29:0 30:0 31:0.06 32:0.01 
0.015956027648843654 0:0 1:1 2:0 3:0 4:0 5:1 6:0 7:1 8:302 9:2507 10:1 11:0 12:0 13:0 14:3 15:3 16:0 17:0 18:0 19:0 20:1 21:0 22:0 23:162 24:138 25:0.85 26:0.02 27:0.01 28:0 29:0.01 30:0.01 31:0.01 32:0.01 
0.022864823564152623 0:0 1:1 2:0 3:0 4:0 5:1 6:0 7:1 8:188 9:5782 10:1 11:0 12:0 13:0 14:2 15:2 16:0 17:0 18:0 19:0 20:1 21:0 22:0 23:2 24:255 25:1 26:0 27:0.5 28:0.03 29:0 30:0.01 31:0 32:0.01 
0.011817975200889275 0:0 1:1 2:0 3:0 4:0 5:1 6:0 7:1 8:205 9:873 10:1 11:0 12:0 13:0 14:4 15:4 16:0 17:0 18:0 19:0 20:1 21:0 22:0 23:4 24:255 25:1 26:0 27:0.25 28:0.06 29:0 30:0 31:0 32:0.01 
0.0068888574790307404 0:0 1:1 2:0 3:0 4:0 5:1 6:0 7:1 8:330 9:707 10:1 11:0 12:0 13:0 14:2 15:7 16:0 17:0 18:0 19:0 20:1 21:0 22:0.43 23:255 24:255 25:1 26:0 27:0 28:0 29:0 30:0 31:0.01 32:0.01 
0.0019535298223526624 0:0 1:1 2:0 3:0 4:0 5:1 6:0 7:1 8:210 9:339 10:1 11:0 12:0 13:0 14:4 15:4 16:0 17:0 18:0 19:0 20:1 21:0 22:0 23:141 24:255 25:1 26:0 27:0.01 28:0.05 29:0 30:0 31:0.01 32:0.01 
0.016136834425764902 0:0 1:1 2:0 3:0 4:0 5:1 6:0 7:1 8:193 9:1986 10:1 11:0 12:0 13:0 14:10 15:10 16:0 17:0 18:0 19:0 20:1 21:0 22:0 23:255 24:255 25:1 26:0 27:0 28:0 29:0 30:0 31:0.01 32:0.01 
0.0023214358868734993 0:0 1:1 2:0 3:0 4:0 5:1 6:0 7:1 8:321 9:527 10:1 11:0 12:0 13:0 14:16 15:16 16:0 17:0 18:0 19:0 20:1 21:0 22:0 23:79 24:152 25:1 26:0 27:0.01 28:0.05 29:0 30:0 31:0 32:0.01 
0.00079184899920041257 0:0 1:1 2:0 3:0 4:0 5:1 6:0 7:1 8:215 9:2123 10:1 11:0 12:0 13:0 14:3 15:3 16:0 17:0 18:0 19:0 20:1 21:0 22:0 23:3 24:255 25:1 26:0 27:0.33 28:0.01 29:0 30:0 31:0 32:0.01 
0.0025692160526662434 0:0 1:1 2:0 3:0 4:0 5:1 6:0 7:1 8:235 9:2979 10:1 11:0 12:0 13:0 14:1 15:1 16:0 17:0 18:0 19:0 20:1 21:0 22:0 23:78 24:255 25:1 26:0 27:0.01 28:0.01 29:0 30:0 31:0 32:0.01 
0.029679944922448132 0:0 1:1 2:0 3:0 4:0 5:1 6:0 7:1 8:250 9:7931 10:1 11:0 12:0 13:0 14:3 15:3 16:0 17:0 18:0 19:0 20:1 21:0 22:0 23:255 24:251 25:0.98 26:0.01 27:0 28:0 29:0 30:0 31:0.01 32:0.01 
0.034624320810436371 0:0 1:1 2:0 3:0 4:0 5:1 6:0 7:1 8:276 9:39807 10:1 11:0 12:0 13:0 14:4 15:4 16:0 17:0 18:0 19:0 20:1 21:0 22:0 23:4 24:255 25:1 26:0 27:0.25 28:0.02 29:0 30:0 31:0 32:0.01 
0.022297637000185472 0:0 1:1 2:0 3:0 4:0 5:1 6:0 7:1 8:174 9:167 10:1 11:0 12:0 13:0 14:3 15:9 16:0 17:0 18:0 19:0 20:1 21:0 22:0.33 23:14 24:161 25:1 26:0 27:0.07 28:0.04 29:0 30:0 31:0 32:0.01 
0.029906683385206058 0:0 1:1 2:0 3:0 4:0 5:1 6:0 7:1 8:329 9:7217 10:1 11:0 12:0 13:0 14:23 15:24 16:0 17:0 18:0 19:0 20:1 21:0 22:0.08 23:255 24:255 25:1 26:0 27:0 28:0 29:0 30:0 31:0.01 32:0.01 
0.025604923866073669 0:0 1:1 2:0 3:0 4:0 5:1 6:0 7:1 8:179 9:1654 10:1 11:0 12:0 13:0 14:3 15:3 16:0 17:0 18:0 19:0 20:1 21:0 22:0 23:3 24:255 25:1 26:0 27:0.33 28:0.06 29:0 30:0 31:0 32:0.01 
0.0074536973439872367 0:0 1:1 2:0 3:0 4:0 5:1 6:0 7:1 8:210 9:5003 10:1 11:0 12:0 13:0 14:2 15:2 16:0 17:0 18:0 19:0 20:1 21:0 22:0 23:48 24:255 25:1 26:0 27:0.02 28:0.05 29:0 30:0.01 31:0.02 32:0.01 
0.033908115648293831 0:0 1:1 2:0 3:0 4:0 5:1 6:0 7:1 8:305 9:34692 10:1 11:0 12:0 13:0 14:5 15:5 16:0 17:0 18:0 19:0 20:1 21:0 22:0 23:5 24:255 25:1 26:0 27:0.2 28:0.02 29:0 30:0 31:0 32:0.01 
0.034719276123482121 0:0 1:1 2:0 3:0 4:0 5:1 6:0 7:1 8:214 9:15405 10:1 11:0 12:0 13:0 14:7 15:12 16:0 17:0 18:0 19:0 20:1 21:0 22:0.25 23:115 24:255 25:1 26:0 27:0.01 28:0.01 29:0 30:0 31:0.02 32:0.01 
0.019439416764421031 0:0 1:1 2:0 3:0 4:0 5:1 6:0 7:1 8:330 9:1013 10:1 11:0 12:0 13:0 14:24 15:24 16:0 17:0 18:0 19:0 20:1 21:0 22:0 23:255 24:255 25:1 26:0 27:0 28:0 29:0 30:0 31:0.01 32:0.01 
0.01422470309770564 0:0 1:1 2:0 3:0 4:0 5:1 6:0 7:1 8:300 9:3539 10:1 11:0 12:0 13:0 14:14 15:15 16:0 17:0 18:0 19:0 20:1 21:0 22:0.13 23:38 24:255 25:1 26:0 27:0.03 28:0.03 29:0 30:0.01 31:0.08 32:0.01 
0.029717909373216004 0:0 1:1 2:0 3:0 4:0 5:1 6:0 7:1 8:341 9:6700 10:1 11:0 12:0 13:0 14:1 15:5 16:0 17:0 18:0 19:0 20:1 21:0 22:0.4 23:249 24:255 25:1 26:0 27:0 28:0.01 29:0 30:0 31:0.01 32:0.01 
0.018756865406380621 0:0 1:1 2:0 3:0 4:0 5:1 6:0 7:1 8:155 9:443 10:1 11:0 12:0 13:0 14:1 15:6 16:0 17:0.17 18:0 19:0 20:1 21:0 22:0.5 23:137 24:137 25:1 26:0 27:0.01 28:0 29:0.01 30:0.01 31:0.01 32:0.01 
0.0017504842797289068 0:0 1:1 2:0 3:0 4:0 5:1 6:0 7:1 8:280 9:4045 10:1 11:0 12:0 13:0 14:10 15:28 16:0 17:0 18:0 19:0 20:1 21:0 22:0.07 23:10 24:215 25:1 26:0 27:0.1 28:0.01 29:0 30:0.01 31:0 32:0.01 
0.011893395974745383 0:0 1:1 2:0 3:0 4:0 5:1 6:0 7:1 8:205 9:4557 10:1 11:0 12:0 13:0 14:3 15:3 16:0 17:0 18:0 19:0 20:1 21:0 22:0 23:83 24:255 25:1 26:0 27:0.01 28:0.02 29:0 30:0 31:0.01 32:0.01 
0.0041708713827049108 0:0 1:1 2:0 3:0 4:0 5:1 6:0 7:1 8:233 9:1055 10:1 11:0 12:0 13:0 14:6 15:6 16:0 17:0 18:0 19:0 20:1 21:0 22:0 23:121 24:255 25:1 26:0 27:0.01 28:0.02 29:0.01 30:0 31:0 32:0.01 
0.0054407886165448987 0:0 1:1 2:0 3:0 4:0 5:1 6:0 7:1 8:224 9:1840 10:1 11:0 12:0 13:0 14:20 15:20 16:0.05 17:0.05 18:0 19:0 20:1 21:0 22:0 23:20 24:255 25:1 26:0 27:0.05 28:0.05 29:0.05 30:0.01 31:0 32:0.01 
0.018987823490622821 0:0 1:1 2:0 3:0 4:0 5:1 6:0 7:1 8:322 9:1694 10:1 11:0 12:0 13:0 14:4 15:9 16:0 17:0 18:0 19:0 20:1 21:0 22:0.33 23:255 24:255 25:1 26:0 27:0 28:0 29:0 30:0 31:0.01 32:0.01 
0.034974468078868295 0:27 1:1 2:0 3:0 4:1 5:0 6:0 7:1 8:1044 9:3081 10:1 11:0 12:0 13:0 14:1 15:1 16:0 17:0 18:0 19:0 20:1 21:0 22:0 23:254 24:68 25:0.27 26:0.28 27:0 28:0 29:0 30:0 31:0.26 32:0.01 
0.016099064138718217 0:0 1:1 2:0 3:0 4:0 5:1 6:0 7:1 8:192 9:1202 10:1 11:0 12:0 13:0 14:10 15:20 16:0 17:0 18:0 19:0 20:1 21:0 22:0.1 23:10 24:255 25:1 26:0 27:0.1 28:0.04 29:0 30:0.01 31:0 32:0.01 
0.024494430103804789 0:0 1:1 2:0 3:0 4:0 5:1 6:0 7:1 8:145 9:13603 10:1 11:0 12:0 13:0 14:1 15:1 16:0 17:0 18:0 19:0 20:1 21:0 22:0 23:176 24:176 25:1 26:0 27:0.01 28:0 29:0 30:0 31:0.01 32:0.01 
0.012415059167831272 0:0 1:1 2:0 3:0 4:0 5:1 6:0 7:1 8:226 9:9284 10:1 11:0 12:0 13:0 14:10 15:13 16:0.1 17:0.15 18:0 19:0 20:1 21:0 22:0.15 23:64 24:255 25:1 26:0 27:0.02 28:0.03 29:0.02 30:0.01 31:0 32:0.01 
0.034755779460529421 0:0 1:1 2:0 3:0 4:0 5:1 6:0 7:1 8:330 9:21542 10:1 11:0 12:0 13:0 14:4 15:46 16:0 17:0 18:0 19:0 20:1 21:0 22:0.04 23:99 24:255 25:1 26:0 27:0.01 28:0.01 29:0 30:0.01 31:0.01 32:0.01 
0.015552546291891909 0:0 1:1 2:0 3:0 4:0 5:1 6:0 7:1 8:198 9:1488 10:1 11:0 12:0 13:0 14:12 15:30 16:0 17:0 18:0 19:0 20:1 21:0 22:0.13 23:12 24:255 25:1 26:0 27:0.08 28:0.08 29:0 30:0.01 31:0 32:0.01 
0.01254864758130962 0:0 1:1 2:0 3:0 4:0 5:1 6:0 7:1 8:197 9:369 10:1 11:0 12:0 13:0 14:4 15:6 16:0.25 17:0.33 18:0 19:0 20:1 21:0 22:0.33 23:16 24:135 25:1 26:0 27:0.06 28:0.06 29:0.06 30:0.01 31:0 32:0.01 
0.017737000011702565 0:0 1:1 2:0 3:0 4:0 5:1 6:0 7:1 8:154 9:13386 10:1 11:0 12:0 13:0 14:2 15:18 16:0 17:0 18:0 19:0 20:1 21:0 22:0.11 23:127 24:255 25:1 26:0 27:0.01 28:0.04 29:0 30:0 31:0.01 32:0.01 
0.034192953606845974 0:0 1:1 2:0 3:0 4:0 5:1 6:0 7:1 8:373 9:10951 10:1 11:0 12:0 13:0 14:8 15:8 16:0 17:0 18:0 19:0 20:1 21:0 22:0 23:255 24:255 25:1 26:0 27:0 28:0 29:0 30:0 31:0.01 32:0.01 
0.0085059441691654417 0:0 1:1 2:0 3:0 4:0 5:1 6:0 7:1 8:204 9:648 10:1 11:0 12:0 13:0 14:9 15:10 16:0 17:0 18:0 19:0 20:1 21:0 22:0.2 23:135 24:255 25:1 26:0 27:0.01 28:0.03 29:0 30:0.01 31:0 32:0.01 
0.019837362707130324 0:0 1:1 2:0 3:0 4:0 5:1 6:0 7:1 8:327 9:1565 10:1 11:0 12:0 13:0 14:3 15:33 16:0 17:0 18:0 19:0 20:1 21:0 22:0.06 23:255 24:255 25:1 26:0 27:0 28:0 29:0 30:0 31:0.01 32:0.01 
0.0028247389230676096 0:0 1:1 2:0 3:0 4:0 5:1 6:0 7:1 8:364 9:531 10:1 11:0 12:0 13:0 14:6 15:14 16:0 17:0 18:0 19:0 20:1 21:0 22:0.21 23:255 24:255 25:1 26:0 27:0 28:0 29:0 30:0 31:0.01 32:0.01 
0.020615683336040126 0:0 1:1 2:0 3:0 4:0 5:1 6:0 7:1 8:296 9:1806 10:1 11:0 12:0 13:0 14:11 15:18 16:0 17:0 18:0 19:0 20:1 21:0 22:0.11 23:11 24:255 25:1 26:0 27:0.09 28:0.04 29:0 30:0.01 31:0 32:0.01 
0.034150118064794913 0:0 1:1 2:0 3:0 4:0 5:1 6:0 7:1 8:289 9:17392 10:1 11:0 12:0 13:0 14:6 15:7 16:0 17:0 18:0 19:0 20:1 21:0 22:0.29 23:16 24:255 25:1 26:0 27:0.06 28:0.06 29:0 30:0.01 31:0 32:0.01 
0.034387305785481589 0:0 1:1 2:0 3:0 4:0 5:1 6:0 7:1 8:199 9:14729 10:1 11:0 12:0 13:0 14:5 15:6 16:0 17:0.17 18:0 19:0 20:1 21:0 22:0.33 23:118 24:255 25:1 26:0 27:0.01 28:0.03 29:0 30:0 31:0.01 32:0.01 
0.022007900975946969 0:0 1:1 2:0 3:0 4:0 5:1 6:0 7:1 8:189 9:14570 10:1 11:0 12:0 13:0 14:1 15:1 16:0 17:0 18:0 19:0 20:1 21:0 22:0 23:255 24:255 25:1 26:0 27:0 28:0 29:0 30:0 31:0.01 32:0.01 
0.011464188844679358 0:0 1:1 2:0 3:0 4:0 5:1 6:0 7:1 8:293 9:2165 10:1 11:0 12:0 13:0 14:20 15:20 16:0 17:0 18:0 19:0 20:1 21:0 22:0 23:40 24:255 25:1 26:0 27:0.03 28:0.02 29:0 30:0 31:0 32:0.01 
0.011023285394587641 0:0 1:1 2:0 3:0 4:0 5:1 6:0 7:1 8:194 9:4768 10:1 11:0 12:0 13:0 14:12 15:18 16:0 17:0 18:0 19:0 20:1 21:0 22:0.17 23:104 24:255 25:1 26:0 27:0.01 28:0.01 29:0 30:0 31:0.02 32:0.01 
0.024026581125027337 0:0 1:1 2:0 3:0 4:0 5:1 6:0 7:1 8:314 9:2440 10:1 11:0 12:0 13:0 14:12 15:13 16:0 17:0 18:0 19:0 20:1 21:0 22:0.15 23:57 24:107 25:1 26:0 27:0.02 28:0.03 29:0 30:0 31:0 32:0.01 
0.00090237035279986874 0:0 1:1 2:0 3:0 4:0 5:1 6:0 7:1 8:195 9:124 10:1 11:0 12:0 13:0 14:3 15:7 16:0 17:0.14 18:0 19:0 20:1 21:0 22:0.29 23:114 24:255 25:1 26:0 27:0.01 28:0.02 29:0 30:0 31:0.01 32:0.01 
0.017471175236168309 0:0 1:1 2:0 3:0 4:0 5:1 6:0 7:1 8:198 9:776 10:1 11:0 12:0 13:0 14:6 15:8 16:0.17 17:0.25 18:0 19:0 20:1 21:0 22:0.25 23:18 24:137 25:1 26:0 27:0.06 28:0.06 29:0.06 30:0.01 31:0 32:0.01 
0.034698339372377318 0:0 1:1 2:0 3:0 4:0 5:1 6:0 7:1 8:227 9:20624 10:1 11:0 12:0 13:0 14:5 15:7 16:0 17:0 18:0 19:0 20:1 21:0 22:0.29 23:6 24:255 25:1 26:0 27:0.17 28:0.01 29:0 30:0 31:0.17 32:0.01 
0.033106692123715684 0:0 1:1 2:0 3:0 4:0 5:1 6:0 7:1 8:188 9:3371 10:1 11:0 12:0 13:0 14:3 15:3 16:0 17:0 18:0 19:0 20:1 21:0 22:0 23:3 24:77 25:1 26:0 27:0.33 28:0.06 29:0 30:0.03 31:0 32:0.01 
0.023776618853313333 0:0 1:1 2:0 3:0 4:0 5:1 6:0 7:1 8:164 9:29148 10:1 11:0 12:0 13:0 14:1 15:1 16:0 17:0 18:0 19:0 20:1 21:0 22:0 23:92 24:255 25:1 26:0 27:0.01 28:0.05 29:0.01 30:0.01 31:0.01 32:0.01 
0.030471396789897971 0:0 1:1 2:0 3:0 4:0 5:1 6:0 7:1 8:283 9:6560 10:1 11:0 12:0 13:0 14:1 15:1 16:0 17:0 18:0 19:0 20:1 21:0 22:0 23:4 24:255 25:1 26:0 27:0.25 28:0.05 29:0.25 30:0 31:0 32:0.01 
0.0115741343995076 0:0 1:1 2:0 3:0 4:0 5:1 6:0 7:1 8:299 9:5854 10:1 11:0 12:0 13:0 14:4 15:41 16:0 17:0 18:0 19:0 20:1 21:0 22:0.05 23:23 24:228 25:1 26:0 27:0.04 28:0.01 29:0 30:0.01 31:0 32:0.01 
0.006086155592636493 0:0 1:1 2:0 3:0 4:0 5:1 6:0 7:1 8:220 9:253 10:1 11:0 12:0 13:0 14:46 15:57 16:0 17:0 18:0 19:0 20:1 21:0 22:0.09 23:255 24:255 25:1 26:0 27:0 28:0 29:0 30:0 31:0.01 32:0.01 
0.028099225887542604 0:0 1:1 2:0 3:0 4:0 5:1 6:0 7:1 8:314 9:6924 10:1 11:0 12:0 13:0 14:43 15:54 16:0 17:0 18:0 19:0 20:1 21:0 22:0.09 23:255 24:255 25:1 26:0 27:0 28:0 29:0 30:0 31:0.01 32:0.01 
0.033248814148906222 0:0 1:1 2:0 3:0 4:0 5:1 6:0 7:1 8:311 9:4214 10:1 11:0 12:0 13:0 14:12 15:12 16:0 17:0 18:0 19:0 20:1 21:0 22:0 23:255 24:255 25:1 26:0 27:0 28:0 29:0 30:0 31:0.01 32:0.01 
0.0071789009905318104 0:0 1:1 2:0 3:0 4:0 5:1 6:0 7:1 8:229 9:534 10:1 11:0 12:0 13:0 14:16 15:16 16:0 17:0 18:0 19:0 20:1 21:0 22:0 23:125 24:255 25:1 26:0 27:0.01 28:0.04 29:0 30:0 31:0 32:0.01 
0.019813899306355166 0:0 1:1 2:0 3:0 4:0 5:1 6:0 7:1 8:228 9:2636 10:1 11:0 12:0 13:0 14:3 15:5 16:0 17:0 18:0 19:0 20:1 21:0 22:0.4 23:255 24:255 25:1 26:0 27:0 28:0 29:0 30:0 31:0.01 32:0.01 
0.021957940933625263 0:0 1:1 2:0 3:0 4:0 5:1 6:0 7:1 8:280 9:9335 10:1 11:0 12:0 13:0 14:12 15:12 16:0 17:0 18:0 19:0 20:1 21:0 22:0 23:36 24:255 25:1 26:0 27:0.03 28:0.03 29:0 30:0 31:0 32:0.01 
0.015304085277445296 0:0 1:1 2:0 3:0 4:0 5:1 6:0 7:1 8:298 9:9548 10:1 11:0 12:0 13:0 14:23 15:25 16:0 17:0 18:0 19:0 20:1 21:0 22:0.08 23:255 24:255 25:1 26:0 27:0 28:0 29:0 30:0 31:0.01 32:0.01 
0.0040992969863280814 0:0 1:1 2:0 3:0 4:0 5:1 6:0 7:1 8:303 9:392 10:1 11:0 12:0 13:0 14:10 15:12 16:0 17:0 18:0 19:0 20:1 21:0 22:0.17 23:103 24:255 25:1 26:0 27:0.01 28:0.04 29:0 30:0 31:0 32:0.01 
0.021910094422517304 0:0 1:1 2:0 3:0 4:0 5:1 6:0 7:1 8:194 9:6030 10:1 11:0 12:0 13:0 14:7 15:7 16:0 17:0 18:0 19:0 20:1 21:0 22:0 23:69 24:255 25:1 26:0 27:0.01 28:0.02 29:0 30:0 31:0 32:0.01 
0.0090859797108613673 0:0 1:1 2:0 3:0 4:0 5:1 6:0 7:1 8:224 9:1785 10:1 11:0 12:0 13:0 14:5 15:5 16:0 17:0 18:0 19:0 20:1 21:0 22:0 23:120 24:255 25:1 26:0 27:0.01 28:0.04 29:0 30:0 31:0 32:0.01 
0.028540197196282698 0:0 1:1 2:0 3:0 4:0 5:1 6:0 7:1 8:197 9:7321 10:1 11:0 12:0 13:0 14:7 15:7 16:0 17:0 18:0 19:0 20:1 21:0 22:0 23:255 24:255 25:1 26:0 27:0 28:0 29:0 30:0 31:0.01 32:0.01 
0.00069075320557845932 0:0 1:1 2:0 3:0 4:0 5:1 6:0 7:1 8:291 9:1340 10:1 11:0 12:0 13:0 14:5 15:20 16:0 17:0 18:0 19:0 20:1 21:0 22:0.15 23:130 24:255 25:1 26:0 27:0.01 28:0.03 29:0 30:0 31:0 32:0.01 
0.034038804664845927 0:0 1:1 2:0 3:0 4:0 5:1 6:0 7:1 8:281 9:16249 10:1 11:0 12:0 13:0 14:13 15:13 16:0 17:0 18:0 19:0 20:1 21:0 22:0 23:78 24:255 25:1 26:0 27:0.01 28:0.01 29:0 30:0 31:0.03 32:0.01 
0.016952748785247801 0:0 1:1 2:0 3:0 4:0 5:1 6:0 7:1 8:233 9:6084 10:1 11:0 12:0 13:0 14:22 15:22 16:0 17:0 18:0 19:0 20:1 21:0 22:0 23:255 24:255 25:1 26:0 27:0 28:0 29:0 30:0 31:0.01 32:0.01 
0.0070885445706954939 0:0 1:1 2:0 3:0 4:0 5:1 6:0 7:1 8:339 9:2784 10:1 11:0 12:0 13:0 14:2 15:2 16:0 17:0 18:0 19:0 20:1 21:0 22:0 23:26 24:255 25:1 26:0 27:0.04 28:0.03 29:0.04 30:0.01 31:0.04 32:0.01 
0.034707295289206325 0:0 1:1 2:0 3:0 4:0 5:1 6:0 7:1 8:311 9:18050 10:1 11:0 12:0 13:0 14:2 15:2 16:0 17:0 18:0 19:0 20:1 21:0 22:0 23:2 24:255 25:1 26:0 27:0.5 28:0.07 29:0 30:0.01 31:0 32:0.01 
0.013167817254571137 0:0 1:1 2:0 3:0 4:0 5:1 6:0 7:1 8:340 9:1275 10:1 11:0 12:0 13:0 14:1 15:3 16:0 17:0 18:0 19:0 20:1 21:0 22:0.67 23:98 24:255 25:1 26:0 27:0.01 28:0.02 29:0 30:0 31:0.01 32:0.01 
0.019131417003815099 0:0 1:1 2:0 3:0 4:1 5:0 6:0 7:1 8:936 9:328 10:1 11:0 12:0 13:0 14:1 15:1 16:0 17:0 18:0 19:0 20:1 21:0 22:0 23:6 24:186 25:0.83 26:0.33 27:0.17 28:0.02 29:0 30:0.03 31:0 32:0.01 
0.034492590736190903 0:0 1:1 2:0 3:0 4:0 5:1 6:0 7:1 8:149 9:16471 10:1 11:0 12:0 13:0 14:3 15:3 16:0 17:0 18:0 19:0 20:1 21:0 22:0 23:20 24:255 25:1 26:0 27:0.05 28:0.03 29:0 30:0 31:0 32:0.01 
0.034042712892082397 0:0 1:1 2:0 3:0 4:0 5:1 6:0 7:1 8:230 9:34870 10:1 11:0 12:0 13:0 14:2 15:2 16:0 17:0 18:0 19:0 20:1 21:0 22:0 23:50 24:255 25:1 26:0 27:0.02 28:0.02 29:0 30:0 31:0 32:0.01 
0.02423625553800958 0:1 1:1 2:0 3:0 4:0 5:1 6:0 7:1 8:188 9:29137 10:1 11:0 12:0 13:0 14:1 15:2 16:0 17:0 18:0 19:0 20:1 21:0 22:1 23:7 24:255 25:1 26:0 27:0.14 28:0.02 29:0 30:0 31:0 32:0.01 
0.011916622602051318 0:0 1:1 2:0 3:0 4:0 5:1 6:0 7:1 8:319 9:1056 10:1 11:0 12:0 13:0 14:6 15:6 16:0 17:0 18:0 19:0 20:1 21:0 22:0 23:13 24:255 25:1 26:0 27:0.08 28:0.02 29:0 30:0 31:0 32:0.01 
0.013227981115988968 0:0 1:1 2:0 3:0 4:0 5:1 6:0 7:1 8:242 9:3773 10:1 11:0 12:0 13:0 14:10 15:10 16:0 17:0 18:0 19:0 20:1 21:0 22:0 23:168 24:255 25:1 26:0 27:0.01 28:0.03 29:0 30:0 31:0.01 32:0.01 
0.015432527213315377 0:1 1:1 2:0 3:0 4:1 5:0 6:0 7:1 8:1789 9:284 10:1 11:0 12:0 13:0 14:1 15:2 16:0 17:0 18:0 19:0 20:1 21:0 22:1 23:118 24:137 25:0.53 26:0.03 27:0.01 28:0.01 29:0 30:0 31:0 32:0.01 
0.022373721139122529 0:0 1:1 2:0 3:0 4:0 5:1 6:0 7:1 8:378 9:209 10:1 11:0 12:0 13:0 14:1 15:1 16:0 17:0 18:0 19:0 20:1 21:0 22:0 23:5 24:255 25:1 26:0 27:0.2 28:0.07 29:0 30:0 31:0 32:0.01 
0.019997337367959299 0:0 1:1 2:0 3:0 4:0 5:1 6:0 7:1 8:302 9:25397 10:1 11:0 12:0 13:0 14:6 15:44 16:0 17:0 18:0 19:0 20:1 21:0 22:0.05 23:25 24:230 25:1 26:0 27:0.04 28:0.01 29:0 30:0.01 31:0 32:0.01 
0.026946103241046217 0:0 1:1 2:0 3:0 4:0 5:1 6:0 7:1 8:313 9:5226 10:1 11:0 12:0 13:0 14:11 15:11 16:0 17:0 18:0 19:0 20:1 21:0 22:0 23:33 24:255 25:1 26:0 27:0.03 28:0.01 29:0 30:0 31:0 32:0.01 
0.0011690349797910137 0:0 1:1 2:0 3:0 4:0 5:1 6:0 7:1 8:219 9:7263 10:1 11:0 12:0 13:0 14:1 15:1 16:0 17:0 18:0 19:0 20:1 21:0 22:0 23:55 24:255 25:1 26:0 27:0.02 28:0.01 29:0 30:0 31:0.04 32:0.01 
0.0089418598686252064 0:0 1:1 2:0 3:0 4:0 5:1 6:0 7:1 8:209 9:9548 10:1 11:0 12:0 13:0 14:25 15:25 16:0 17:0 18:0 19:0 20:1 21:0 22:0 23:255 24:255 25:1 26:0 27:0 28:0 29:0 30:0 31:0.01 32:0.01 
0.011814376195873572 0:1 1:1 2:0 3:0 4:1 5:0 6:0 7:1 8:2204 9:334 10:1 11:0 12:0 13:0 14:1 15:1 16:0 17:0 18:0 19:0 20:1 21:0 22:0 23:232 24:142 25:0.61 26:0.02 27:0 28:0 29:0 30:0 31:0.01 32:0.01 
0.0048110985169282309 0:0 1:1 2:0 3:0 4:0 5:1 6:0 7:1 8:340 9:821 10:1 11:0 12:0 13:0 14:2 15:5 16:0 17:0 18:0 19:0 20:1 21:0 22:0.8 23:105 24:255 25:1 26:0 27:0.01 28:0.02 29:0 30:0 31:0.01 32:0.01 
0.0098818625647032182 0:0 1:1 2:0 3:0 4:0 5:1 6:0 7:1 8:293 9:1658 10:1 11:0 12:0 13:0 14:5 15:5 16:0 17:0 18:0 19:0 20:1 21:0 22:0 23:92 24:255 25:1 26:0 27:0.01 28:0.03 29:0.01 30:0.01 31:0 32:0.01 
0.018434325358927195 0:0 1:1 2:0 3:0 4:0 5:1 6:0 7:1 8:289 9:11653 10:1 11:0 12:0 13:0 14:1 15:2 16:0 17:0 18:0 19:0 20:1 21:0 22:1 23:16 24:177 25:1 26:0 27:0.06 28:0.06 29:0 30:0.01 31:0 32:0.01 
0.018293987056699119 0:0 1:1 2:0 3:0 4:0 5:1 6:0 7:1 8:322 9:3987 10:1 11:0 12:0 13:0 14:5 15:5 16:0 17:0 18:0 19:0 20:1 21:0 22:0 23:31 24:255 25:1 26:0 27:0.03 28:0.04 29:0 30:0.01 31:0 32:0.01 
0.010175216667696389 0:0 1:1 2:0 3:0 4:0 5:1 6:0 7:1 8:312 9:1227 10:1 11:0 12:0 13:0 14:3 15:3 16:0 17:0 18:0 19:0 20:1 21:0 22:0 23:138 24:138 25:1 26:0 27:0.01 28:0 29:0 30:0 31:0.01 32:0.01 
0.0067577868084206733 0:0 1:1 2:0 3:0 4:0 5:1 6:0 7:1 8:204 9:255 10:1 11:0 12:0 13:0 14:4 15:12 16:0 17:0 18:0 19:0 20:1 21:0 22:0.17 23:130 24:255 25:1 26:0 27:0.01 28:0.03 29:0 30:0.01 31:0 32:0.01 
