svm_type one_class
kernel_type rbf
gamma 0.0001
nr_class 2
total_sv 1
rho 0.01
SV
0.01 0:0 1:1 2:0 3:0 4:1 5:0 6:0 7:1 8:12 9:0 10:1 11:0 12:0 13:0 14:2 15:1 16:0 17:0 18:0 19:0 20:0.5 21:1 22:0 23:255 24:5 25:0.02 26:0.75 27:0.02 28:0 29:0 30:0 31:0 32:0 
