svm_type one_class
kernel_type rbf
gamma 0.0001
nr_class 2
total_sv 2
rho 0.064183892458677283
SV
0.059999999999999998 0:0 1:1 2:0 3:0 4:1 5:0 6:1 7:0 8:7 9:0 10:1 11:0 12:0 13:0 14:1 15:1 16:0 17:0 18:1 19:1 20:1 21:0 22:0 23:1 24:5 25:1 26:0 27:1 28:0.6 29:0 30:0 31:1 32:0.2 
0.059999999999999998 0:0 1:1 2:0 3:0 4:1 5:0 6:1 7:0 8:0 9:0 10:1 11:0 12:0 13:0 14:1 15:1 16:1 17:1 18:0 19:0 20:1 21:0 22:0 23:164 24:3 25:0.01 26:1 27:1 28:0.67 29:1 30:1 31:0 32:0 
