svm_type one_class
kernel_type rbf
gamma 0.0001
nr_class 2
total_sv 4
rho 0.01
SV
0.01 0:2514 1:1 2:0 3:0 4:1 5:0 6:0 7:1 8:1937 9:84751 10:1 11:0 12:0 13:2 14:1 15:1 16:0 17:0 18:0 19:0 20:1 21:0 22:0 23:255 24:2 25:0.01 26:0.01 27:0 28:0 29:0 30:0 31:0 32:0 
0.01 0:85 1:1 2:0 3:0 4:1 5:0 6:0 7:1 8:136 9:383 10:1 11:0 12:0 13:1 14:1 15:1 16:0 17:0 18:0 19:0 20:1 21:0 22:0 23:1 24:9 25:1 26:0 27:1 28:0.78 29:0 30:0 31:0 32:0 
0.01 0:8989 1:1 2:0 3:0 4:1 5:0 6:0 7:1 8:465 9:320362 10:1 11:0 12:0 13:1 14:1 15:1 16:0 17:0 18:0 19:0 20:1 21:0 22:0 23:1 24:11 25:1 26:0 27:1 28:0.73 29:0 30:0 31:0 32:0 
0.01 0:310 1:1 2:0 3:0 4:1 5:0 6:0 7:1 8:595 9:121612 10:1 11:0 12:0 13:1 14:1 15:1 16:0 17:0 18:0 19:0 20:1 21:0 22:0 23:255 24:1 25:0 26:0.01 27:0 28:0 29:0 30:0 31:0 32:0 
