svm_type one_class
kernel_type rbf
gamma 0.00050000000000000001
nr_class 2
total_sv 4
rho 0.057469303877450098
SV
0.03000002675871288 0:0 1:1 2:0 3:0 4:0 5:1 6:1 7:0 8:0 9:0 10:1 11:0 12:0 13:0 14:1 15:1 16:0 17:0 18:1 19:1 20:1 21:0 22:0 23:1 24:14 25:1 26:0 27:1 28:0.64 29:0 30:0.07 31:1 32:0.86 
0.028964945562747254 0:0 1:1 2:0 3:0 4:1 5:0 6:1 7:0 8:0 9:0 10:1 11:0 12:0 13:0 14:1 15:1 16:0 17:0 18:1 19:1 20:1 21:0 22:0 23:157 24:3 25:0.01 26:0.69 27:0.69 28:0.67 29:0.04 30:0 31:0.63 32:0.33 
0.032062697442370204 0:0 1:1 2:0 3:0 4:1 5:0 6:0 7:1 8:12 9:0 10:1 11:0 12:0 13:0 14:1 15:1 16:0 17:0 18:0 19:0 20:1 21:0 22:0 23:1 24:2 25:1 26:0 27:1 28:1 29:0 30:0 31:0 32:0 
0.028972330236169654 0:0 1:1 2:0 3:0 4:1 5:0 6:1 7:0 8:0 9:0 10:1 11:0 12:0 13:0 14:1 15:1 16:1 17:1 18:0 19:0 20:1 21:0 22:0 23:164 24:3 25:0.01 26:1 27:1 28:0.67 29:1 30:1 31:0 32:0 
