svm_type one_class
kernel_type rbf
gamma 0.00050000000000000001
nr_class 2
total_sv 38
rho 0.62768625027537672
SV
0.059947351677570003 0:0 1:1 2:0 3:0 4:0 5:1 6:1 7:0 8:0 9:0 10:1 11:0 12:0 13:0 14:1 15:1 16:0 17:0 18:1 19:1 20:1 21:0 22:0 23:2 24:92 25:1 26:0 27:0.5 28:0.09 29:0 30:0 31:1 32:1 
0.085018382333109793 0:0 1:1 2:0 3:0 4:0 5:1 6:1 7:0 8:0 9:0 10:1 11:0 12:0 13:0 14:1 15:1 16:0 17:0 18:1 19:1 20:1 21:0 22:0 23:214 24:155 25:0.72 26:0.01 27:0 28:0 29:0 30:0 31:0.72 32:1 
0.099685098449929885 0:0 1:1 2:0 3:0 4:0 5:1 6:1 7:0 8:0 9:0 10:1 11:0 12:0 13:0 14:1 15:1 16:0 17:0 18:1 19:1 20:1 21:0 22:0 23:2 24:69 25:1 26:0 27:0.5 28:0.23 29:0 30:0 31:1 32:1 
0.37087641641267732 0:0 1:1 2:0 3:0 4:0 5:1 6:1 7:0 8:0 9:0 10:1 11:0 12:0 13:0 14:1 15:1 16:0 17:0 18:1 19:1 20:1 21:0 22:0 23:137 24:93 25:0.68 26:0.02 27:0.01 28:0 29:0 30:0 31:0.68 32:1 
0.15692817818416196 0:0 1:1 2:0 3:0 4:0 5:1 6:1 7:0 8:0 9:0 10:1 11:0 12:0 13:0 14:1 15:2 16:0 17:0 18:1 19:1 20:1 21:0 22:1 23:82 24:60 25:0.73 26:0.02 27:0.01 28:0 29:0 30:0 31:0.73 32:1 
0.027951642139372967 0:4 1:1 2:0 3:0 4:0 5:1 6:1 7:0 8:0 9:0 10:1 11:0 12:0 13:0 14:1 15:1 16:0 17:0 18:1 19:1 20:1 21:0 22:0 23:159 24:138 25:0.87 26:0.03 27:0.01 28:0 29:0 30:0 31:0.87 32:1 
0.0063550422953899833 0:0 1:1 2:0 3:0 4:0 5:1 6:1 7:0 8:0 9:0 10:1 11:0 12:0 13:0 14:1 15:2 16:0 17:0 18:1 19:1 20:1 21:0 22:1 23:166 24:116 25:0.7 26:0.02 27:0.01 28:0 29:0 30:0 31:0.7 32:1 
0.27700673995434483 0:0 1:1 2:0 3:0 4:0 5:1 6:1 7:0 8:0 9:0 10:1 11:0 12:0 13:0 14:1 15:1 16:0 17:0 18:1 19:1 20:1 21:0 22:0 23:196 24:137 25:0.7 26:0.02 27:0.01 28:0 29:0 30:0 31:0.7 32:1 
0.038668661624103005 0:0 1:1 2:0 3:0 4:0 5:1 6:1 7:0 8:0 9:0 10:1 11:0 12:0 13:0 14:7 15:7 16:0 17:0 18:0.43 19:0.43 20:1 21:0 22:0 23:160 24:171 25:1 26:0 27:0.01 28:0.04 29:0.01 30:0.01 31:0.26 32:0.3 
0.16623388744081755 0:0 1:1 2:0 3:0 4:0 5:1 6:1 7:0 8:0 9:0 10:1 11:0 12:0 13:0 14:1 15:2 16:0 17:0 18:1 19:1 20:1 21:0 22:1 23:38 24:27 25:0.71 26:0.05 27:0.03 28:0 29:0 30:0 31:0.71 32:1 
0.38685524351078659 0:0 1:1 2:0 3:0 4:0 5:1 6:1 7:0 8:0 9:0 10:1 11:0 12:0 13:0 14:1 15:2 16:0 17:0 18:1 19:1 20:1 21:0 22:1 23:113 24:181 25:1 26:0 27:0.01 28:0.1 29:0 30:0 31:1 32:1 
0.02164347731499805 0:0 1:1 2:0 3:0 4:0 5:1 6:1 7:0 8:0 9:0 10:1 11:0 12:0 13:0 14:2 15:2 16:0 17:0 18:1 19:1 20:1 21:0 22:0 23:224 24:186 25:0.83 26:0.02 27:0 28:0 29:0 30:0 31:0.83 32:1 
0.079083404606891283 0:0 1:1 2:0 3:0 4:0 5:1 6:1 7:0 8:0 9:0 10:1 11:0 12:0 13:0 14:1 15:1 16:0 17:0 18:1 19:1 20:1 21:0 22:0 23:118 24:118 25:1 26:0 27:0.01 28:0 29:0 30:0 31:1 32:1 
0.083247799987773069 0:0 1:1 2:0 3:0 4:0 5:1 6:1 7:0 8:0 9:0 10:1 11:0 12:0 13:0 14:1 15:1 16:0 17:0 18:1 19:1 20:1 21:0 22:0 23:55 24:107 25:1 26:0 27:0.02 28:0.17 29:0 30:0 31:1 32:0.98 
0.41395508479558069 0:0 1:1 2:0 3:0 4:0 5:1 6:1 7:0 8:0 9:0 10:1 11:0 12:0 13:0 14:1 15:1 16:1 17:1 18:0 19:0 20:1 21:0 22:0 23:2 24:184 25:1 26:0 27:0.5 28:0.1 29:0.5 30:0.01 31:0.5 32:0.99 
0.032549712813471424 0:0 1:1 2:0 3:0 4:0 5:1 6:1 7:0 8:0 9:0 10:1 11:0 12:0 13:0 14:1 15:1 16:0 17:0 18:1 19:1 20:1 21:0 22:0 23:2 24:73 25:1 26:0 27:0.5 28:0.04 29:0 30:0 31:1 32:1 
0.31314792386660056 0:0 1:1 2:0 3:0 4:0 5:1 6:1 7:0 8:0 9:0 10:1 11:0 12:0 13:0 14:511 15:1 16:0 17:0 18:0 19:1 20:0 21:0 22:0 23:88 24:66 25:0.75 26:0.02 27:0.01 28:0 29:0 30:0 31:0.75 32:1 
0.12171186969887896 0:0 1:1 2:0 3:0 4:0 5:1 6:1 7:0 8:0 9:0 10:1 11:0 12:0 13:0 14:22 15:22 16:0 17:0 18:0.82 19:0.82 20:1 21:0 22:0 23:25 24:178 25:1 26:0 27:0.04 28:0.21 29:0 30:0 31:0.84 32:0.98 
0.31799374180656909 0:4 1:1 2:0 3:0 4:0 5:1 6:1 7:0 8:0 9:0 10:1 11:0 12:0 13:0 14:511 15:1 16:0 17:0 18:0 19:1 20:0 21:0 22:0 23:86 24:64 25:0.74 26:0.02 27:0.01 28:0 29:0 30:0 31:0.74 32:1 
0.072561567849343978 0:0 1:1 2:0 3:0 4:0 5:1 6:1 7:0 8:0 9:0 10:1 11:0 12:0 13:0 14:1 15:1 16:0 17:0 18:1 19:1 20:1 21:0 22:0 23:217 24:182 25:0.84 26:0.02 27:0 28:0 29:0 30:0 31:0.84 32:1 
0.47003836492930967 0:0 1:1 2:0 3:0 4:0 5:1 6:1 7:0 8:0 9:0 10:1 11:0 12:0 13:0 14:24 15:24 16:0 17:0 18:0.83 19:0.83 20:1 21:0 22:0 23:177 24:188 25:1 26:0 27:0.01 28:0.03 29:0.01 30:0.01 31:0.33 32:0.36 
0.17836541563926772 0:0 1:1 2:0 3:0 4:0 5:1 6:1 7:0 8:0 9:0 10:1 11:0 12:0 13:0 14:1 15:8 16:0 17:0 18:1 19:0.12 20:1 21:0 22:0.25 23:64 24:187 25:1 26:0 27:0.02 28:0.03 29:0 30:0 31:0.78 32:0.93 
0.07885258281257651 0:0 1:1 2:0 3:0 4:0 5:1 6:1 7:0 8:0 9:0 10:1 11:0 12:0 13:0 14:1 15:1 16:0 17:0 18:1 19:1 20:1 21:0 22:0 23:82 24:186 25:1 26:0 27:0.01 28:0.03 29:0 30:0 31:1 32:1 
0.18148991566306633 0:0 1:1 2:0 3:0 4:0 5:1 6:1 7:0 8:0 9:0 10:1 11:0 12:0 13:0 14:1 15:1 16:0 17:0 18:1 19:1 20:1 21:0 22:0 23:2 24:63 25:1 26:0 27:0.5 28:0.3 29:0 30:0 31:1 32:1 
0.015014218861577219 0:0 1:1 2:0 3:0 4:0 5:1 6:1 7:0 8:0 9:0 10:1 11:0 12:0 13:0 14:1 15:1 16:0 17:0 18:1 19:1 20:1 21:0 22:0 23:54 24:91 25:1 26:0 27:0.02 28:0.07 29:0 30:0 31:1 32:1 
0.11028583839324016 0:0 1:1 2:0 3:0 4:0 5:1 6:1 7:0 8:0 9:0 10:1 11:0 12:0 13:0 14:1 15:1 16:0 17:0 18:1 19:1 20:1 21:0 22:0 23:94 24:80 25:0.85 26:0.04 27:0.01 28:0 29:0 30:0 31:0.85 32:1 
0.37101080773289946 0:0 1:1 2:0 3:0 4:1 5:0 6:1 7:0 8:0 9:0 10:1 11:0 12:0 13:0 14:1 15:1 16:0 17:0 18:1 19:1 20:1 21:0 22:0 23:2 24:2 25:1 26:0 27:0.5 28:0 29:0 30:0 31:1 32:1 
0.13809353721211531 0:0 1:1 2:0 3:0 4:0 5:1 6:1 7:0 8:0 9:0 10:1 11:0 12:0 13:0 14:17 15:17 16:0 17:0 18:0.76 19:0.76 20:1 21:0 22:0 23:41 24:188 25:1 26:0 27:0.02 28:0.18 29:0 30:0 31:0.88 32:0.97 
0.037168776691076141 0:0 1:1 2:0 3:0 4:0 5:1 6:1 7:0 8:0 9:0 10:1 11:0 12:0 13:0 14:1 15:1 16:0 17:0 18:1 19:1 20:1 21:0 22:0 23:2 24:70 25:1 26:0 27:0.5 28:0.16 29:0 30:0 31:1 32:1 
0.26426713982924399 0:0 1:1 2:0 3:0 4:0 5:1 6:1 7:0 8:0 9:0 10:1 11:0 12:0 13:0 14:1 15:1 16:1 17:1 18:0 19:0 20:1 21:0 22:0 23:2 24:121 25:1 26:0 27:0.5 28:0.17 29:1 30:0.02 31:0 32:0.98 
0.52744502265219118 0:4 1:1 2:0 3:0 4:0 5:1 6:1 7:0 8:0 9:0 10:1 11:0 12:0 13:0 14:1 15:1 16:0 17:0 18:1 19:1 20:1 21:0 22:0 23:255 24:185 25:0.73 26:0.02 27:0 28:0 29:0 30:0 31:0.73 32:1 
0.13847424335678954 0:0 1:1 2:0 3:0 4:0 5:1 6:1 7:0 8:0 9:0 10:1 11:0 12:0 13:0 14:1 15:7 16:0 17:0 18:1 19:0.14 20:1 21:0 22:0.29 23:2 24:3 25:1 26:0 27:0.5 28:0.67 29:0 30:0 31:1 32:1 
0.18180629954310379 0:0 1:1 2:0 3:0 4:0 5:1 6:1 7:0 8:0 9:0 10:1 11:0 12:0 13:0 14:1 15:1 16:0 17:0 18:1 19:1 20:1 21:0 22:0 23:170 24:119 25:0.7 26:0.02 27:0.01 28:0 29:0 30:0 31:0.7 32:1 
0.06682226112962629 0:0 1:1 2:0 3:0 4:0 5:1 6:1 7:0 8:0 9:0 10:1 11:0 12:0 13:0 14:1 15:1 16:0 17:0 18:1 19:1 20:1 21:0 22:0 23:2 24:137 25:1 26:0 27:0.5 28:0.23 29:0 30:0 31:1 32:1 
0.0069585147086546305 0:0 1:1 2:0 3:0 4:0 5:1 6:1 7:0 8:0 9:0 10:1 11:0 12:0 13:0 14:1 15:1 16:0 17:0 18:1 19:1 20:1 21:0 22:0 23:2 24:75 25:1 26:0 27:0.5 28:0.28 29:0 30:0 31:1 32:1 
0.19856046498571409 0:0 1:1 2:0 3:0 4:0 5:1 6:1 7:0 8:0 9:0 10:1 11:0 12:0 13:0 14:1 15:2 16:0 17:0 18:1 19:1 20:1 21:0 22:1 23:84 24:136 25:1 26:0 27:0.01 28:0.13 29:0 30:0 31:1 32:0.99 
0.31251849682873062 0:0 1:1 2:0 3:0 4:0 5:1 6:1 7:0 8:0 9:0 10:1 11:0 12:0 13:0 14:1 15:21 16:0 17:0.95 18:1 19:0.05 20:1 21:0 22:0.1 23:68 24:50 25:0.74 26:0.07 27:0.01 28:0 29:0.03 30:0 31:0.74 32:1 
0.33140687226844662 0:0 1:1 2:0 3:0 4:0 5:1 6:1 7:0 8:0 9:0 10:1 11:0 12:0 13:0 14:25 15:25 16:0 17:0 18:0.84 19:0.84 20:1 21:0 22:0 23:45 24:125 25:1 26:0 27:0.02 28:0.16 29:0 30:0 31:0.91 32:0.97 
