svm_type one_class
kernel_type rbf
gamma 0.00050000000000000001
nr_class 2
total_sv 4
rho 0.024396501953695214
SV
0.010459361338711193 0:0 1:0 2:1 3:0 4:0 5:1 6:0 7:1 8:1 9:26 10:1 11:0 12:0 13:0 14:29 15:4 16:0 17:0 18:0 19:0 20:0.14 21:0.28 22:0 23:255 24:4 25:0.02 26:0.85 27:0.2 28:0 29:0 30:0 31:0.8 32:0 
0.012718636465536866 0:0 1:0 2:1 3:0 4:0 5:1 6:0 7:1 8:1 9:74 10:1 11:0 12:0 13:0 14:43 15:11 16:0 17:0 18:0 19:0 20:0.26 21:0.23 22:0 23:255 24:11 25:0.04 26:0.75 27:0.31 28:0 29:0 30:0 31:0.69 32:0 
0.0095406386612888073 0:0 1:0 2:1 3:0 4:0 5:1 6:0 7:1 8:1 9:26 10:1 11:0 12:0 13:0 14:39 15:14 16:0 17:0 18:0 19:0 20:0.36 21:0.21 22:0 23:255 24:14 25:0.05 26:0.81 27:0.24 28:0 29:0 30:0 31:0.76 32:0 
0.0072813635344631342 0:0 1:0 2:1 3:0 4:0 5:1 6:0 7:1 8:1 9:74 10:1 11:0 12:0 13:0 14:33 15:1 16:0 17:0 18:0 19:0 20:0.03 21:0.3 22:0 23:255 24:1 25:0 26:0.79 27:0.27 28:0 29:0 30:0 31:0.73 32:0 
