svm_type one_class
kernel_type rbf
gamma 0.00050000000000000001
nr_class 2
total_sv 4
rho 0.018164160224068141
SV
0.01781738216056062 0:0 1:0 2:1 3:0 4:1 5:0 6:0 7:1 8:115 9:34 10:1 11:0 12:0 13:0 14:2 15:1 16:0 17:0 18:0.5 19:0 20:0.5 21:1 22:0 23:164 24:5 25:0.03 26:0.02 27:0.79 28:0 29:0 30:0 31:0.16 32:0 
0.012182617839439381 0:3 1:1 2:0 3:0 4:1 5:0 6:1 7:0 8:77 9:18 10:1 11:0 12:0 13:0 14:1 15:1 16:0 17:0 18:1 19:1 20:1 21:0 22:0 23:41 24:12 25:0.29 26:0.05 27:0.02 28:0 29:0 30:0 31:0.17 32:0.58 
0.018226988475625164 0:33 1:1 2:0 3:0 4:1 5:0 6:1 7:0 8:39 9:51 10:1 11:0 12:0 13:0 14:1 15:1 16:0 17:0 18:1 19:1 20:1 21:0 22:0 23:255 24:70 25:0.27 26:0.02 27:0 28:0 29:0.33 30:0.57 31:0.01 32:0.03 
0.011773011524374837 0:0 1:1 2:0 3:0 4:1 5:0 6:1 7:0 8:74 9:17 10:1 11:0 12:0 13:0 14:1 15:1 16:0 17:0 18:1 19:1 20:1 21:0 22:0 23:77 24:13 25:0.17 26:0.03 27:0.01 28:0 29:0 30:0 31:0.1 32:0.62 
