svm_type one_class
kernel_type rbf
gamma 0.00050000000000000001
nr_class 2
total_sv 1
rho 0.01
SV
0.01 0:0 1:1 2:0 3:0 4:1 5:0 6:0 7:1 8:6 9:265 10:1 11:0 12:0 13:0 14:8 15:1 16:0 17:0 18:0 19:0 20:0.12 21:0.25 22:0 23:255 24:2 25:0.01 26:0.01 27:0 28:0 29:0 30:0 31:0 32:0 
