svm_type one_class
kernel_type rbf
gamma 0.00050000000000000001
nr_class 2
total_sv 4
rho 0.021744466567263754
SV
0.012673234158186379 0:0 1:1 2:0 3:0 4:0 5:1 6:1 7:0 8:0 9:0 10:1 11:0 12:0 13:0 14:1 15:1 16:0 17:0 18:1 19:1 20:1 21:0 22:0 23:3 24:2 25:0.67 26:0.67 27:0.33 28:0 29:0 30:0 31:0.67 32:1 
0.011810934848496541 0:0 1:1 2:0 3:0 4:0 5:1 6:1 7:0 8:0 9:0 10:1 11:0 12:0 13:0 14:1 15:1 16:0 17:0 18:1 19:1 20:1 21:0 22:0 23:22 24:14 25:0.64 26:0.09 27:0.05 28:0 29:0 30:0 31:0.64 32:1 
0.012479133033792703 0:0 1:1 2:0 3:0 4:0 5:1 6:1 7:0 8:0 9:0 10:1 11:0 12:0 13:0 14:1 15:1 16:0 17:0 18:1 19:1 20:1 21:0 22:0 23:108 24:66 25:0.61 26:0.03 27:0.01 28:0 29:0 30:0 31:0.61 32:1 
0.01303669795952438 0:0 1:1 2:0 3:0 4:0 5:1 6:1 7:0 8:0 9:0 10:1 11:0 12:0 13:0 14:1 15:1 16:0 17:0 18:1 19:1 20:1 21:0 22:0 23:127 24:85 25:0.67 26:0.02 27:0.01 28:0 29:0 30:0 31:0.67 32:1 
