svm_type one_class
kernel_type rbf
gamma 0.00050000000000000001
nr_class 2
total_sv 7
rho 0.01
SV
0.010390625000000001 0:58 1:1 2:0 3:0 4:1 5:0 6:0 7:1 8:11422 9:1360 10:1 11:0 12:0 13:0 14:1 15:4 16:0 17:0 18:0 19:0 20:1 21:0 22:1 23:89 24:179 25:0.71 26:0.03 27:0.01 28:0.02 29:0 30:0 31:0 32:0 
0.0098437500000000018 0:91 1:1 2:0 3:0 4:1 5:0 6:0 7:1 8:6979 9:328 10:1 11:0 12:0 13:0 14:1 15:1 16:0 17:0 18:0 19:0 20:1 21:0 22:0 23:161 24:77 25:0.16 26:0.44 27:0.01 28:0.03 29:0 30:0 31:0.41 32:0 
0.0098437500000000018 0:55 1:1 2:0 3:0 4:1 5:0 6:0 7:1 8:7767 9:0 10:1 11:0 12:0 13:0 14:1 15:1 16:0 17:0 18:0 19:0 20:1 21:0 22:0 23:209 24:4 25:0.02 26:0.52 27:0.02 28:0 29:0 30:0 31:0 32:0 
0.0098437500000000018 0:100 1:1 2:0 3:0 4:1 5:0 6:0 7:1 8:11640 9:1392 10:1 11:0 12:0 13:0 14:1 15:21 16:0 17:0.95 18:0 19:0 20:1 21:0 22:0.1 23:14 24:14 25:1 26:0 27:0.07 28:0 29:0 30:0 31:0 32:0 
0.0098437500000000018 0:107 1:1 2:0 3:0 4:1 5:0 6:0 7:1 8:4539 9:0 10:1 11:0 12:0 13:0 14:1 15:1 16:0 17:0 18:0 19:0 20:1 21:0 22:0 23:71 24:1 25:0.01 26:0.38 27:0.54 28:0 29:0 30:0 31:0 32:0 
0.0098437500000000018 0:63 1:1 2:0 3:0 4:1 5:0 6:0 7:1 8:12313 9:1408 10:1 11:0 12:0 13:0 14:1 15:1 16:0 17:0 18:0 19:0 20:1 21:0 22:0 23:110 24:88 25:0.8 26:0.03 27:0.01 28:0 29:0 30:0 31:0 32:0 
0.010390625000000001 0:99 1:1 2:0 3:0 4:1 5:0 6:0 7:1 8:4455 9:7403 10:1 11:0 12:0 13:0 14:1 15:1 16:0 17:0 18:0 19:0 20:1 21:0 22:0 23:12 24:1 25:0.08 26:0.25 27:0.08 28:0 29:0 30:0 31:0 32:0 
