svm_type one_class
kernel_type rbf
gamma 0.00050000000000000001
nr_class 2
total_sv 6
rho 0.016903647518749891
SV
0.016775532650724248 0:0 1:1 2:0 3:0 4:1 5:0 6:0 7:1 8:567 9:0 10:1 11:0 12:0 13:0 14:1 15:1 16:0 17:0 18:0 19:0 20:1 21:0 22:0 23:5 24:1 25:0.2 26:0.6 27:0.2 28:0 29:0 30:0 31:0 32:0 
0.016780216260111377 0:0 1:1 2:0 3:0 4:1 5:0 6:0 7:1 8:1286 9:327 10:1 11:0 12:0 13:0 14:1 15:1 16:0 17:0 18:0 19:0 20:1 21:0 22:0 23:5 24:1 25:0.2 26:0.6 27:0.2 28:0 29:0 30:0 31:0 32:0 
0.016941573475487564 0:0 1:1 2:0 3:0 4:1 5:0 6:0 7:1 8:748 9:0 10:1 11:0 12:0 13:0 14:1 15:1 16:0 17:0 18:0 19:0 20:1 21:0 22:0 23:4 24:1 25:0.25 26:0.5 27:0.25 28:0 29:0 30:0 31:0 32:0 
0.011193276162168479 0:27 1:1 2:0 3:0 4:1 5:0 6:0 7:1 8:1509 9:4152 10:1 11:0 12:0 13:0 14:1 15:1 16:0 17:0 18:0 19:0 20:1 21:0 22:0 23:2 24:1 25:0.5 26:1 27:0.5 28:0 29:0 30:0 31:0 32:0 
0.011500974051725961 0:27 1:1 2:0 3:0 4:1 5:0 6:0 7:1 8:1471 9:4152 10:1 11:0 12:0 13:0 14:1 15:1 16:0 17:0 18:0 19:0 20:1 21:0 22:0 23:2 24:1 25:0.5 26:1 27:0.5 28:0 29:0 30:0 31:0 32:0 
0.016808427399782364 0:5 1:1 2:0 3:0 4:0 5:1 6:0 7:1 8:473 9:1 10:1 11:0 12:0 13:0 14:1 15:1 16:0 17:0 18:0 19:0 20:1 21:0 22:0 23:2 24:1 25:0.5 26:1 27:0.5 28:0 29:0 30:0 31:0 32:0 
