svm_type one_class
kernel_type rbf
gamma 0.00050000000000000001
nr_class 2
total_sv 1
rho 0.01
SV
0.01 0:0 1:1 2:0 3:0 4:1 5:0 6:0 7:1 8:0 9:0 10:1 11:0 12:0 13:0 14:3 15:2 16:0 17:0 18:0.33 19:0 20:0.67 21:0.67 22:0 23:25 24:61 25:0.36 26:0.16 27:0.04 28:0.03 29:0 30:0 31:0.08 32:0 
