svm_type one_class
kernel_type rbf
gamma 0.00050000000000000001
nr_class 2
total_sv 4
rho 0.018380425942740874
SV
0.014725968879564297 0:51 1:1 2:0 3:0 4:1 5:0 6:1 7:0 8:0 9:0 10:1 11:0 12:0 13:0 14:1 15:1 16:0 17:0 18:1 19:1 20:1 21:0 22:0 23:81 24:2 25:0.02 26:0.05 27:0.01 28:0 29:0 30:0 31:0.01 32:0.5 
0.016610734655058787 0:0 1:1 2:0 3:0 4:1 5:0 6:1 7:0 8:0 9:0 10:1 11:0 12:0 13:0 14:1 15:1 16:0 17:0 18:1 19:1 20:1 21:0 22:0 23:135 24:1 25:0.01 26:0.21 27:0.01 28:0 29:0 30:0 31:0.01 32:1 
0.015926289420975306 0:0 1:1 2:0 3:0 4:1 5:0 6:1 7:0 8:0 9:0 10:1 11:0 12:0 13:0 14:1 15:1 16:0 17:0 18:1 19:1 20:1 21:0 22:0 23:36 24:1 25:0.03 26:0.14 27:0.03 28:0 29:0.06 30:0 31:0.03 32:1 
0.0027370070444016114 0:10 1:1 2:0 3:0 4:1 5:0 6:1 7:0 8:0 9:0 10:1 11:0 12:0 13:0 14:1 15:1 16:0 17:0 18:1 19:1 20:1 21:0 22:0 23:81 24:1 25:0.01 26:0.06 27:0.01 28:0 29:0 30:0 31:0.01 32:1 
