svm_type one_class
kernel_type rbf
gamma 0.00050000000000000001
nr_class 2
total_sv 1
rho 0.01
SV
0.01 0:15 1:1 2:0 3:0 4:1 5:0 6:0 7:1 8:137 9:136 10:1 11:0 12:0 13:2 14:1 15:1 16:0 17:0 18:0 19:0 20:1 21:0 22:0 23:84 24:1 25:0.01 26:0.06 27:0.01 28:0 29:0.08 30:0 31:0 32:0 
