svm_type one_class
kernel_type rbf
gamma 0.001
nr_class 2
total_sv 7
rho 0.011287735510510155
SV
0.010380562674029606 0:60 1:1 2:0 3:0 4:1 5:0 6:0 7:1 8:87 9:225 10:1 11:0 12:0 13:0 14:1 15:1 16:0 17:0 18:0 19:0 20:1 21:0 22:0 23:255 24:1 25:0 26:0.02 27:0 28:0 29:0 30:0 31:0 32:0 
0.0087237080140948834 0:60 1:1 2:0 3:0 4:1 5:0 6:0 7:1 8:84 9:153 10:1 11:0 12:0 13:0 14:1 15:1 16:0 17:0 18:0 19:0 20:1 21:0 22:0 23:255 24:1 25:0 26:0.02 27:0 28:0 29:0 30:0 31:0.78 32:0 
0.011492399473781872 0:99 1:0 2:1 3:0 4:1 5:0 6:0 7:1 8:146 9:105 10:1 11:0 12:0 13:0 14:5 15:1 16:0 17:0 18:0 19:0 20:0.2 21:0.6 22:0 23:255 24:1 25:0 26:0.41 27:0.79 28:0 29:0 30:0 31:0 32:0 
0.010951664919046821 0:50 1:1 2:0 3:0 4:1 5:0 6:0 7:1 8:120 9:12221 10:1 11:0 12:0 13:0 14:2 15:1 16:0 17:0 18:0 19:0 20:0.5 21:1 22:0 23:255 24:1 25:0 26:0.83 27:0 28:0 29:0 30:0 31:0 32:0 
0.011264244360900807 0:49 1:1 2:0 3:0 4:1 5:0 6:0 7:1 8:122 9:10488 10:1 11:0 12:0 13:0 14:1 15:1 16:0 17:0 18:0 19:0 20:1 21:0 22:0 23:221 24:1 25:0 26:0.03 27:0 28:0 29:0 30:0 31:0 32:0 
0.010951664919046821 0:140 1:1 2:0 3:0 4:1 5:0 6:0 7:1 8:177 9:27162 10:1 11:0 12:0 13:0 14:1 15:1 16:0 17:0 18:0 19:0 20:1 21:0 22:0 23:223 24:1 25:0 26:0.02 27:0 28:0 29:0 30:0 31:0 32:0 
0.0062357556390991945 0:60 1:1 2:0 3:0 4:1 5:0 6:0 7:1 8:86 9:183 10:1 11:0 12:0 13:0 14:1 15:1 16:0 17:0 18:0 19:0 20:1 21:0 22:0 23:255 24:1 25:0 26:0.02 27:0 28:0 29:0 30:0 31:0 32:0 
