svm_type one_class
kernel_type rbf
gamma 0.001
nr_class 2
total_sv 3
rho 0.025500468531596789
SV
0.0045775565164293507 0:0 1:0 2:1 3:0 4:1 5:0 6:0 7:1 8:17 9:0 10:1 11:0 12:0 13:0 14:1 15:2 16:0 17:0 18:0 19:0 20:1 21:0 22:1 23:1 24:20 25:1 26:0 27:1 28:0.15 29:0 30:0 31:0 32:0 
0.021605882279461613 0:0 1:0 2:1 3:0 4:1 5:0 6:0 7:1 8:17 9:0 10:1 11:0 12:0 13:0 14:1 15:1 16:0 17:0 18:0 19:0 20:1 21:0 22:0 23:1 24:1 25:1 26:0 27:1 28:0 29:0 30:0 31:0 32:0 
0.023816561204109039 0:0 1:1 2:0 3:0 4:1 5:0 6:0 7:1 8:18 9:0 10:1 11:0 12:0 13:0 14:1 15:1 16:0 17:0 18:0 19:0 20:1 21:0 22:0 23:5 24:58 25:0.8 26:0.4 27:0.8 28:0.03 29:0 30:0 31:0 32:0 
