svm_type one_class
kernel_type rbf
gamma 0.001
nr_class 2
total_sv 954
rho 0.013429455769348972
SV
0.012863577622934568 0:0 1:1 2:0 3:0 4:0 5:1 6:0 7:1 8:232 9:8153 10:1 11:0 12:0 13:0 14:5 15:5 16:0.2 17:0.2 18:0 19:0 20:1 21:0 22:0 23:30 24:255 25:1 26:0 27:0.03 28:0.04 29:0.03 30:0.01 31:0 32:0.01 
0.010445103158901209 0:0 1:1 2:0 3:0 4:1 5:0 6:0 7:1 8:2089 9:335 10:1 11:0 12:0 13:0 14:2 15:2 16:0 17:0 18:0 19:0 20:0.5 21:1 22:1 23:255 24:152 25:0.6 26:0.03 27:0 28:0 29:0.01 30:0.02 31:0 32:0.01 
0.012696076352297418 0:0 1:1 2:0 3:0 4:0 5:1 6:0 7:1 8:302 9:1380 10:1 11:0 12:0 13:0 14:5 15:5 16:0 17:0 18:0 19:0 20:1 21:0 22:0 23:212 24:187 25:0.88 26:0.02 27:0 28:0 29:0 30:0.01 31:0 32:0.01 
0.0086701426289083859 0:0 1:1 2:0 3:0 4:0 5:1 6:0 7:1 8:198 9:6924 10:1 11:0 12:0 13:0 14:12 15:12 16:0 17:0 18:0 19:0 20:1 21:0 22:0 23:230 24:255 25:1 26:0 27:0 28:0.01 29:0 30:0 31:0.01 32:0.01 
0.012566811281453809 0:0 1:1 2:0 3:0 4:0 5:1 6:0 7:1 8:230 9:6880 10:1 11:0 12:0 13:0 14:1 15:17 16:0 17:0 18:0 19:0 20:1 21:0 22:0.29 23:24 24:255 25:1 26:0 27:0.04 28:0.04 29:0 30:0 31:0 32:0.01 
0.013324686134786795 0:0 1:1 2:0 3:0 4:0 5:1 6:0 7:1 8:256 9:4486 10:1 11:0 12:0 13:0 14:1 15:1 16:0 17:0 18:0 19:0 20:1 21:0 22:0 23:255 24:250 25:0.98 26:0.01 27:0 28:0 29:0 30:0 31:0.01 32:0.01 
0.013911233803810687 0:0 1:1 2:0 3:0 4:0 5:1 6:0 7:1 8:318 9:9696 10:1 11:0 12:0 13:0 14:40 15:40 16:0 17:0 18:0 19:0 20:1 21:0 22:0 23:255 24:255 25:1 26:0 27:0 28:0 29:0 30:0 31:0.01 32:0.01 
0.013247793102163018 0:0 1:1 2:0 3:0 4:0 5:1 6:0 7:1 8:296 9:943 10:1 11:0 12:0 13:0 14:16 15:16 16:0 17:0 18:0 19:0 20:1 21:0 22:0 23:68 24:255 25:1 26:0 27:0.01 28:0.02 29:0.04 30:0.01 31:0 32:0.01 
0.0010446796420404475 0:0 1:1 2:0 3:0 4:0 5:1 6:0 7:1 8:244 9:263 10:1 11:0 12:0 13:0 14:10 15:10 16:0 17:0 18:0 19:0 20:1 21:0 22:0 23:255 24:255 25:1 26:0 27:0 28:0 29:0 30:0 31:0.01 32:0.01 
0.013817454697093119 0:0 1:1 2:0 3:0 4:0 5:1 6:0 7:1 8:172 9:15119 10:1 11:0 12:0 13:0 14:1 15:1 16:0 17:0 18:0 19:0 20:1 21:0 22:0 23:159 24:255 25:1 26:0 27:0.01 28:0.02 29:0 30:0 31:0.02 32:0.01 
0.010562178612029224 0:0 1:1 2:0 3:0 4:0 5:1 6:0 7:1 8:293 9:732 10:1 11:0 12:0 13:0 14:20 15:32 16:0 17:0 18:0.05 19:0.03 20:1 21:0 22:0.12 23:50 24:255 25:1 26:0 27:0.02 28:0.01 29:0 30:0 31:0.02 32:0.01 
0.004729730484969252 0:0 1:1 2:0 3:0 4:0 5:1 6:0 7:1 8:326 9:1511 10:1 11:0 12:0 13:0 14:6 15:6 16:0 17:0 18:0 19:0 20:1 21:0 22:0 23:251 24:255 25:1 26:0 27:0 28:0.01 29:0 30:0 31:0.01 32:0.01 
0.012983503297347923 0:0 1:1 2:0 3:0 4:0 5:1 6:0 7:1 8:173 9:438 10:1 11:0 12:0 13:0 14:1 15:1 16:0 17:0 18:0 19:0 20:1 21:0 22:0 23:120 24:255 25:1 26:0 27:0.01 28:0.01 29:0 30:0 31:0.02 32:0.01 
0.011192728113241367 0:0 1:1 2:0 3:0 4:0 5:1 6:0 7:1 8:334 9:2840 10:1 11:0 12:0 13:0 14:8 15:8 16:0 17:0 18:0 19:0 20:1 21:0 22:0 23:8 24:255 25:1 26:0 27:0.12 28:0.02 29:0 30:0 31:0 32:0.01 
0.013390031820953691 0:0 1:1 2:0 3:0 4:0 5:1 6:0 7:1 8:302 9:11440 10:1 11:0 12:0 13:0 14:12 15:23 16:0 17:0 18:0.08 19:0.09 20:1 21:0 22:0.17 23:23 24:255 25:1 26:0 27:0.04 28:0.01 29:0 30:0 31:0.04 32:0.01 
0.01221625356667987 0:0 1:1 2:0 3:0 4:0 5:1 6:0 7:1 8:167 9:12937 10:1 11:0 12:0 13:0 14:9 15:11 16:0 17:0 18:0 19:0 20:1 21:0 22:0.18 23:9 24:255 25:1 26:0 27:0.11 28:0.04 29:0 30:0 31:0 32:0.01 
0.002702285381473114 0:0 1:1 2:0 3:0 4:0 5:1 6:0 7:1 8:226 9:650 10:1 11:0 12:0 13:0 14:10 15:10 16:0 17:0 18:0 19:0 20:1 21:0 22:0 23:89 24:255 25:1 26:0 27:0.01 28:0.04 29:0 30:0.01 31:0.01 32:0.01 
0.013391060502757084 0:0 1:1 2:0 3:0 4:0 5:1 6:0 7:1 8:273 9:8193 10:1 11:0 12:0 13:0 14:1 15:1 16:0 17:0 18:0 19:0 20:1 21:0 22:0 23:182 24:255 25:1 26:0 27:0.01 28:0.03 29:0 30:0 31:0.01 32:0.01 
0.0037049624599172389 0:0 1:1 2:0 3:0 4:0 5:1 6:0 7:1 8:340 9:821 10:1 11:0 12:0 13:0 14:4 15:8 16:0 17:0 18:0 19:0 20:1 21:0 22:0.25 23:101 24:255 25:1 26:0 27:0.01 28:0.02 29:0 30:0 31:0.01 32:0.01 
0.0075338114679011567 0:0 1:1 2:0 3:0 4:0 5:1 6:0 7:1 8:325 9:2006 10:1 11:0 12:0 13:0 14:10 15:12 16:0 17:0 18:0 19:0 20:1 21:0 22:0.17 23:10 24:255 25:1 26:0 27:0.1 28:0.07 29:0 30:0.01 31:0 32:0.01 
0.0074009237361340055 0:0 1:1 2:0 3:0 4:0 5:1 6:0 7:1 8:303 9:1337 10:1 11:0 12:0 13:0 14:19 15:24 16:0 17:0 18:0 19:0 20:1 21:0 22:0.08 23:19 24:255 25:1 26:0 27:0.05 28:0.03 29:0 30:0 31:0 32:0.01 
0.0058519157883952823 0:0 1:1 2:0 3:0 4:0 5:1 6:0 7:1 8:237 9:607 10:1 11:0 12:0 13:0 14:5 15:5 16:0.2 17:0.2 18:0 19:0 20:1 21:0 22:0 23:255 24:255 25:1 26:0 27:0 28:0 29:0 30:0 31:0.01 32:0.01 
0.013427947496538218 0:0 1:1 2:0 3:0 4:0 5:1 6:0 7:1 8:145 9:4788 10:1 11:0 12:0 13:0 14:17 15:17 16:0 17:0 18:0 19:0 20:1 21:0 22:0 23:77 24:91 25:1 26:0 27:0.01 28:0.02 29:0 30:0 31:0 32:0.01 
0.013363126189019891 0:0 1:1 2:0 3:0 4:0 5:1 6:0 7:1 8:309 9:1949 10:1 11:0 12:0 13:0 14:7 15:13 16:0 17:0.08 18:0 19:0.08 20:1 21:0 22:0.23 23:163 24:255 25:1 26:0 27:0.01 28:0.02 29:0 30:0.01 31:0.01 32:0.01 
0.012850793310360965 0:0 1:1 2:0 3:0 4:0 5:1 6:0 7:1 8:189 9:5360 10:1 11:0 12:0 13:0 14:5 15:6 16:0 17:0 18:0 19:0 20:1 21:0 22:0.33 23:40 24:255 25:1 26:0 27:0.03 28:0.01 29:0 30:0 31:0.03 32:0.01 
0.013232031343444155 0:0 1:1 2:0 3:0 4:1 5:0 6:0 7:1 8:2140 9:326 10:1 11:0 12:0 13:0 14:1 15:2 16:0 17:0 18:0 19:0 20:1 21:0 22:1 23:87 24:170 25:0.71 26:0.03 27:0.01 28:0.02 29:0 30:0.03 31:0 32:0.01 
0.0095975752880099775 0:0 1:1 2:0 3:0 4:0 5:1 6:0 7:1 8:279 9:8936 10:1 11:0 12:0 13:0 14:9 15:9 16:0 17:0 18:0 19:0 20:1 21:0 22:0 23:61 24:255 25:1 26:0 27:0.02 28:0.05 29:0 30:0 31:0.02 32:0.01 
0.0097291382148345547 0:0 1:1 2:0 3:0 4:0 5:1 6:0 7:1 8:314 9:2193 10:1 11:0 12:0 13:0 14:2 15:2 16:0 17:0 18:0 19:0 20:1 21:0 22:0 23:104 24:255 25:1 26:0 27:0.01 28:0.05 29:0.01 30:0.01 31:0.01 32:0.01 
0.0099546573919098141 0:0 1:1 2:0 3:0 4:1 5:0 6:0 7:1 8:1129 9:327 10:1 11:0 12:0 13:0 14:1 15:1 16:0 17:0 18:0 19:0 20:1 21:0 22:0 23:7 24:138 25:1 26:0 27:0.14 28:0.02 29:0 30:0.04 31:0 32:0.01 
0.0047472927412524849 0:0 1:1 2:0 3:0 4:0 5:1 6:0 7:1 8:190 9:244 10:1 11:0 12:0 13:0 14:27 15:28 16:0 17:0 18:0 19:0 20:1 21:0 22:0.07 23:255 24:255 25:1 26:0 27:0 28:0 29:0 30:0 31:0.01 32:0.01 
0.0023204306780855721 0:0 1:1 2:0 3:0 4:0 5:1 6:0 7:1 8:235 9:1202 10:1 11:0 12:0 13:0 14:5 15:5 16:0 17:0 18:0 19:0 20:1 21:0 22:0 23:8 24:255 25:1 26:0 27:0.12 28:0.01 29:0 30:0 31:0 32:0.01 
0.010167727567051673 0:16 1:1 2:0 3:0 4:1 5:0 6:0 7:1 8:1359 9:331 10:1 11:0 12:0 13:0 14:1 15:2 16:0 17:0 18:0 19:0 20:1 21:0 22:1 23:43 24:176 25:0.74 26:0.09 27:0.02 28:0.01 29:0 30:0 31:0 32:0.01 
0.01341441758633562 0:0 1:1 2:0 3:0 4:0 5:1 6:0 7:1 8:285 9:9091 10:1 11:0 12:0 13:0 14:1 15:1 16:0 17:0 18:0 19:0 20:1 21:0 22:0 23:23 24:100 25:1 26:0 27:0.04 28:0.06 29:0 30:0 31:0 32:0.01 
0.0065872700121412404 0:0 1:1 2:0 3:0 4:0 5:1 6:0 7:1 8:301 9:3010 10:1 11:0 12:0 13:0 14:10 15:16 16:0 17:0 18:0 19:0 20:1 21:0 22:0.19 23:92 24:255 25:1 26:0 27:0.01 28:0.01 29:0 30:0 31:0.02 32:0.01 
0.011434579572065172 0:0 1:1 2:0 3:0 4:0 5:1 6:0 7:1 8:236 9:2731 10:1 11:0 12:0 13:0 14:3 15:3 16:0 17:0 18:0 19:0 20:1 21:0 22:0 23:6 24:255 25:1 26:0 27:0.17 28:0.05 29:0 30:0 31:0 32:0.01 
0.011599683640635128 0:0 1:1 2:0 3:0 4:0 5:1 6:0 7:1 8:260 9:9541 10:1 11:0 12:0 13:0 14:1 15:2 16:0 17:0 18:0 19:0 20:1 21:0 22:1 23:79 24:255 25:1 26:0 27:0.01 28:0.01 29:0.03 30:0.01 31:0.04 32:0.01 
0.01167407053048029 0:0 1:1 2:0 3:0 4:0 5:1 6:0 7:1 8:206 9:658 10:1 11:0 12:0 13:0 14:8 15:10 16:0 17:0 18:0 19:0 20:1 21:0 22:0.2 23:9 24:255 25:1 26:0 27:0.11 28:0.03 29:0 30:0 31:0 32:0.01 
0.013854122116679777 0:0 1:1 2:0 3:0 4:0 5:1 6:0 7:1 8:213 9:33514 10:1 11:0 12:0 13:0 14:1 15:6 16:0 17:0 18:0 19:0 20:1 21:0 22:0.5 23:3 24:251 25:1 26:0 27:0.33 28:0.04 29:0 30:0 31:0 32:0.01 
0.013741106123607445 0:0 1:1 2:0 3:0 4:0 5:1 6:0 7:1 8:313 9:25519 10:1 11:0 12:0 13:0 14:2 15:2 16:0 17:0 18:0 19:0 20:1 21:0 22:0 23:255 24:255 25:1 26:0 27:0 28:0 29:0 30:0 31:0.01 32:0.01 
0.013411982166705205 0:0 1:1 2:0 3:0 4:0 5:1 6:0 7:1 8:262 9:4165 10:1 11:0 12:0 13:0 14:5 15:5 16:0 17:0 18:0 19:0 20:1 21:0 22:0 23:5 24:255 25:1 26:0 27:0.2 28:0.05 29:0 30:0 31:0 32:0.01 
0.0037607581225267113 0:0 1:1 2:0 3:0 4:0 5:1 6:0 7:1 8:195 9:1993 10:1 11:0 12:0 13:0 14:9 15:9 16:0 17:0 18:0 19:0 20:1 21:0 22:0 23:134 24:255 25:1 26:0 27:0.01 28:0.04 29:0 30:0 31:0.01 32:0.01 
0.012642393422738192 0:0 1:1 2:0 3:0 4:0 5:1 6:0 7:1 8:227 9:6822 10:1 11:0 12:0 13:0 14:6 15:6 16:0 17:0 18:0 19:0 20:1 21:0 22:0 23:58 24:255 25:1 26:0 27:0.02 28:0.02 29:0 30:0 31:0 32:0.01 
0.0077754401449349631 0:0 1:1 2:0 3:0 4:0 5:1 6:0 7:1 8:230 9:302 10:1 11:0 12:0 13:0 14:7 15:25 16:0 17:0 18:0 19:0 20:1 21:0 22:0.08 23:114 24:255 25:1 26:0 27:0.01 28:0.04 29:0 30:0 31:0 32:0.01 
0.0069814780520746945 0:0 1:1 2:0 3:0 4:0 5:1 6:0 7:1 8:236 9:7610 10:1 11:0 12:0 13:0 14:14 15:15 16:0 17:0 18:0 19:0 20:1 21:0 22:0.13 23:35 24:255 25:1 26:0 27:0.03 28:0.04 29:0 30:0 31:0 32:0.01 
0.010686137176893633 0:0 1:1 2:0 3:0 4:0 5:1 6:0 7:1 8:211 9:356 10:1 11:0 12:0 13:0 14:8 15:8 16:0 17:0 18:0 19:0 20:1 21:0 22:0 23:255 24:255 25:1 26:0 27:0 28:0 29:0 30:0 31:0.01 32:0.01 
0.013406739566722163 0:0 1:1 2:0 3:0 4:0 5:1 6:0 7:1 8:217 9:6763 10:1 11:0 12:0 13:0 14:3 15:3 16:0 17:0 18:0 19:0 20:1 21:0 22:0 23:255 24:255 25:1 26:0 27:0 28:0 29:0 30:0 31:0.01 32:0.01 
0.0083967262944390324 0:0 1:1 2:0 3:0 4:0 5:1 6:0 7:1 8:143 9:9578 10:1 11:0 12:0 13:0 14:1 15:2 16:0 17:0 18:0 19:0 20:1 21:0 22:1 23:59 24:255 25:1 26:0 27:0.02 28:0.06 29:0.03 30:0.01 31:0.02 32:0.01 
0.013414077304369013 0:0 1:1 2:0 3:0 4:0 5:1 6:0 7:1 8:294 9:9833 10:1 11:0 12:0 13:0 14:28 15:42 16:0 17:0 18:0.04 19:0.02 20:1 21:0 22:0.1 23:58 24:255 25:1 26:0 27:0.02 28:0.01 29:0 30:0 31:0.02 32:0.01 
0.010150434097472173 0:0 1:1 2:0 3:0 4:0 5:1 6:0 7:1 8:186 9:4841 10:1 11:0 12:0 13:0 14:3 15:4 16:0 17:0 18:0 19:0 20:1 21:0 22:0.5 23:53 24:255 25:1 26:0 27:0.02 28:0.03 29:0 30:0 31:0 32:0.01 
0.013737365038000434 0:0 1:1 2:0 3:0 4:0 5:1 6:0 7:1 8:240 9:31639 10:1 11:0 12:0 13:0 14:2 15:6 16:0 17:0 18:0 19:0 20:1 21:0 22:0.33 23:52 24:255 25:1 26:0 27:0.02 28:0.03 29:0 30:0 31:0.02 32:0.01 
0.008028283310006587 0:0 1:1 2:0 3:0 4:0 5:1 6:0 7:1 8:227 9:1478 10:1 11:0 12:0 13:0 14:9 15:12 16:0 17:0 18:0 19:0 20:1 21:0 22:0.25 23:148 24:255 25:1 26:0 27:0.01 28:0.04 29:0 30:0 31:0 32:0.01 
0.0062638990538710229 0:0 1:1 2:0 3:0 4:0 5:1 6:0 7:1 8:354 9:361 10:1 11:0 12:0 13:0 14:4 15:4 16:0 17:0 18:0 19:0 20:1 21:0 22:0 23:255 24:255 25:1 26:0 27:0 28:0 29:0 30:0 31:0.01 32:0.01 
0.013796450890714988 0:0 1:1 2:0 3:0 4:0 5:1 6:0 7:1 8:309 9:7263 10:1 11:0 12:0 13:0 14:11 15:11 16:0 17:0 18:0 19:0 20:1 21:0 22:0 23:133 24:255 25:1 26:0 27:0.01 28:0.01 29:0 30:0 31:0.02 32:0.01 
0.0082453766011161174 0:0 1:1 2:0 3:0 4:0 5:1 6:0 7:1 8:222 9:4945 10:1 11:0 12:0 13:0 14:6 15:11 16:0 17:0 18:0 19:0 20:1 21:0 22:0.27 23:19 24:255 25:1 26:0 27:0.05 28:0.01 29:0 30:0 31:0.05 32:0.01 
0.0087211909350730157 0:0 1:1 2:0 3:0 4:0 5:1 6:0 7:1 8:237 9:597 10:1 11:0 12:0 13:0 14:1 15:1 16:0 17:0 18:0 19:0 20:1 21:0 22:0 23:8 24:255 25:1 26:0 27:0.12 28:0.03 29:0 30:0 31:0 32:0.01 
0.01273460902249467 0:0 1:1 2:0 3:0 4:0 5:1 6:0 7:1 8:356 9:2431 10:1 11:0 12:0 13:0 14:2 15:2 16:0 17:0 18:0 19:0 20:1 21:0 22:0 23:255 24:255 25:1 26:0 27:0 28:0 29:0 30:0 31:0.01 32:0.01 
0.011601078414263446 0:0 1:1 2:0 3:0 4:0 5:1 6:0 7:1 8:237 9:2912 10:1 11:0 12:0 13:0 14:2 15:47 16:0 17:0 18:0 19:0 20:1 21:0 22:0.15 23:53 24:255 25:1 26:0 27:0.02 28:0.01 29:0 30:0 31:0 32:0.01 
0.009333274650240253 0:0 1:1 2:0 3:0 4:0 5:1 6:0 7:1 8:223 9:4739 10:1 11:0 12:0 13:0 14:14 15:14 16:0 17:0 18:0 19:0 20:1 21:0 22:0 23:39 24:255 25:1 26:0 27:0.03 28:0.06 29:0 30:0 31:0 32:0.01 
0.0044086643861978728 0:0 1:1 2:0 3:0 4:0 5:1 6:0 7:1 8:331 9:480 10:1 11:0 12:0 13:0 14:6 15:6 16:0 17:0 18:0 19:0 20:1 21:0 22:0 23:255 24:255 25:1 26:0 27:0 28:0 29:0 30:0 31:0.01 32:0.01 
0.013734920228190041 0:0 1:1 2:0 3:0 4:0 5:1 6:0 7:1 8:146 9:15634 10:1 11:0 12:0 13:0 14:13 15:14 16:0 17:0 18:0 19:0 20:1 21:0 22:0.14 23:255 24:255 25:1 26:0 27:0 28:0 29:0 30:0 31:0.01 32:0.01 
0.013524913884251675 0:0 1:1 2:0 3:0 4:0 5:1 6:0 7:1 8:198 9:1085 10:1 11:0 12:0 13:0 14:23 15:23 16:0 17:0 18:0 19:0 20:1 21:0 22:0 23:255 24:255 25:1 26:0 27:0 28:0 29:0 30:0 31:0.01 32:0.01 
0.010150757889289904 0:0 1:1 2:0 3:0 4:0 5:1 6:0 7:1 8:225 9:7185 10:1 11:0 12:0 13:0 14:5 15:5 16:0 17:0 18:0 19:0 20:1 21:0 22:0 23:27 24:255 25:1 26:0 27:0.04 28:0.03 29:0 30:0 31:0 32:0.01 
0.010105865722069158 0:0 1:1 2:0 3:0 4:0 5:1 6:0 7:1 8:207 9:1894 10:1 11:0 12:0 13:0 14:19 15:19 16:0 17:0 18:0 19:0 20:1 21:0 22:0 23:33 24:255 25:1 26:0 27:0.03 28:0.04 29:0 30:0.01 31:0.03 32:0.01 
0.013407418645660203 0:0 1:1 2:0 3:0 4:1 5:0 6:0 7:1 8:2685 9:358 10:1 11:0 12:0 13:0 14:1 15:1 16:0 17:0 18:0 19:0 20:1 21:0 22:0 23:107 24:183 25:0.77 26:0.03 27:0.01 28:0.01 29:0 30:0.03 31:0 32:0.01 
0.0097965946823741264 0:0 1:1 2:0 3:0 4:0 5:1 6:0 7:1 8:255 9:3026 10:1 11:0 12:0 13:0 14:9 15:23 16:0 17:0 18:0 19:0 20:1 21:0 22:0.22 23:9 24:255 25:1 26:0 27:0.11 28:0.03 29:0 30:0 31:0 32:0.01 
0.0091421032660593121 0:0 1:1 2:0 3:0 4:0 5:1 6:0 7:1 8:242 9:175 10:1 11:0 12:0 13:0 14:1 15:1 16:0 17:0 18:0 19:0 20:1 21:0 22:0 23:255 24:255 25:1 26:0 27:0 28:0 29:0 30:0 31:0.01 32:0.01 
0.0095116383545284303 0:0 1:1 2:0 3:0 4:0 5:1 6:0 7:1 8:228 9:547 10:1 11:0 12:0 13:0 14:20 15:20 16:0 17:0 18:0 19:0 20:1 21:0 22:0 23:20 24:160 25:1 26:0 27:0.05 28:0.06 29:0 30:0.01 31:0 32:0.01 
0.013729632942266222 0:0 1:1 2:0 3:0 4:1 5:0 6:0 7:1 8:3724 9:330 10:1 11:0 12:0 13:0 14:1 15:1 16:0 17:0 18:0 19:0 20:1 21:0 22:0 23:77 24:155 25:0.88 26:0.05 27:0.01 28:0.02 29:0.01 30:0.02 31:0 32:0.01 
0.012406189597856901 0:0 1:1 2:0 3:0 4:0 5:1 6:0 7:1 8:342 9:753 10:1 11:0 12:0 13:0 14:1 15:1 16:0 17:0 18:0 19:0 20:1 21:0 22:0 23:169 24:255 25:1 26:0 27:0.01 28:0.02 29:0.01 30:0 31:0.01 32:0.01 
0.0097481288600895083 0:0 1:1 2:0 3:0 4:0 5:1 6:0 7:1 8:335 9:5480 10:1 11:0 12:0 13:0 14:4 15:12 16:0 17:0.08 18:0 19:0 20:1 21:0 22:0.25 23:85 24:255 25:1 26:0 27:0.01 28:0.02 29:0 30:0 31:0.01 32:0.01 
0.010082744366013186 0:0 1:1 2:0 3:0 4:0 5:1 6:0 7:1 8:253 9:1217 10:1 11:0 12:0 13:0 14:5 15:5 16:0 17:0 18:0 19:0 20:1 21:0 22:0 23:5 24:255 25:1 26:0 27:0.2 28:0.06 29:0 30:0 31:0 32:0.01 
0.011997232557984811 0:0 1:1 2:0 3:0 4:0 5:1 6:0 7:1 8:194 9:8163 10:1 11:0 12:0 13:0 14:24 15:35 16:0 17:0 18:0 19:0 20:1 21:0 22:0.06 23:24 24:255 25:1 26:0 27:0.04 28:0.04 29:0 30:0.01 31:0 32:0.01 
0.011802448266360965 0:0 1:1 2:0 3:0 4:0 5:1 6:0 7:1 8:301 9:3010 10:1 11:0 12:0 13:0 14:4 15:4 16:0 17:0 18:0 19:0 20:1 21:0 22:0 23:126 24:255 25:1 26:0 27:0.01 28:0.01 29:0 30:0 31:0.02 32:0.01 
0.01361845522721742 0:0 1:1 2:0 3:0 4:0 5:1 6:0 7:1 8:234 9:8139 10:1 11:0 12:0 13:0 14:5 15:5 16:0 17:0 18:0 19:0 20:1 21:0 22:0 23:255 24:255 25:1 26:0 27:0 28:0 29:0 30:0 31:0.01 32:0.01 
0.010272332636853499 0:0 1:1 2:0 3:0 4:0 5:1 6:0 7:1 8:197 9:4966 10:1 11:0 12:0 13:0 14:5 15:5 16:0 17:0 18:0 19:0 20:1 21:0 22:0 23:8 24:255 25:1 26:0 27:0.12 28:0.05 29:0 30:0 31:0 32:0.01 
0.013195071273862586 0:0 1:1 2:0 3:0 4:0 5:1 6:0 7:1 8:255 9:6023 10:1 11:0 12:0 13:0 14:4 15:4 16:0 17:0 18:0 19:0 20:1 21:0 22:0 23:53 24:255 25:1 26:0 27:0.02 28:0.03 29:0.02 30:0.01 31:0.02 32:0.01 
0.0028793604376474817 0:0 1:1 2:0 3:0 4:0 5:1 6:0 7:1 8:320 9:379 10:1 11:0 12:0 13:0 14:8 15:9 16:0 17:0 18:0 19:0 20:1 21:0 22:0.22 23:255 24:255 25:1 26:0 27:0 28:0 29:0 30:0 31:0.01 32:0.01 
0.0044106881400460575 0:0 1:1 2:0 3:0 4:0 5:1 6:0 7:1 8:216 9:594 10:1 11:0 12:0 13:0 14:1 15:2 16:0 17:0 18:0 19:0 20:1 21:0 22:1 23:19 24:255 25:1 26:0 27:0.05 28:0.02 29:0 30:0 31:0 32:0.01 
0.0014808803949146682 0:0 1:1 2:0 3:0 4:0 5:1 6:0 7:1 8:338 9:327 10:1 11:0 12:0 13:0 14:2 15:16 16:0 17:0 18:0 19:0.06 20:1 21:0 22:0.19 23:222 24:255 25:1 26:0 27:0 28:0.01 29:0 30:0 31:0.01 32:0.01 
0.0026906068380701895 0:0 1:1 2:0 3:0 4:0 5:1 6:0 7:1 8:335 9:652 10:1 11:0 12:0 13:0 14:2 15:2 16:0 17:0 18:0 19:0 20:1 21:0 22:0 23:10 24:255 25:1 26:0 27:0.1 28:0.02 29:0 30:0 31:0 32:0.01 
0.013406050368584315 0:0 1:1 2:0 3:0 4:0 5:1 6:0 7:1 8:338 9:5759 10:1 11:0 12:0 13:0 14:4 15:4 16:0 17:0 18:0 19:0 20:1 21:0 22:0 23:65 24:115 25:1 26:0 27:0.02 28:0.03 29:0 30:0 31:0 32:0.01 
0.003068164995382182 0:0 1:1 2:0 3:0 4:0 5:1 6:0 7:1 8:240 9:416 10:1 11:0 12:0 13:0 14:1 15:1 16:0 17:0 18:0 19:0 20:1 21:0 22:0 23:5 24:255 25:1 26:0 27:0.2 28:0.03 29:0 30:0 31:0 32:0.01 
0.012298619452898127 0:0 1:1 2:0 3:0 4:0 5:1 6:0 7:1 8:228 9:6860 10:1 11:0 12:0 13:0 14:15 15:15 16:0 17:0 18:0 19:0 20:1 21:0 22:0 23:100 24:255 25:1 26:0 27:0.01 28:0.02 29:0 30:0 31:0.01 32:0.01 
0.013115870450813302 0:0 1:1 2:0 3:0 4:0 5:1 6:0 7:1 8:211 9:2081 10:1 11:0 12:0 13:0 14:5 15:8 16:0 17:0 18:0 19:0 20:1 21:0 22:0.25 23:88 24:255 25:1 26:0 27:0.01 28:0.04 29:0 30:0 31:0 32:0.01 
0.011991166324367241 0:0 1:1 2:0 3:0 4:0 5:1 6:0 7:1 8:199 9:1246 10:1 11:0 12:0 13:0 14:22 15:22 16:0 17:0 18:0 19:0 20:1 21:0 22:0 23:36 24:255 25:1 26:0 27:0.03 28:0.04 29:0 30:0.01 31:0.03 32:0.01 
0.010219357137905911 0:0 1:1 2:0 3:0 4:0 5:1 6:0 7:1 8:193 9:929 10:1 11:0 12:0 13:0 14:6 15:6 16:0 17:0 18:0 19:0 20:1 21:0 22:0 23:6 24:255 25:1 26:0 27:0.17 28:0.03 29:0 30:0.01 31:0 32:0.01 
0.013681078935798147 0:0 1:1 2:0 3:0 4:0 5:1 6:0 7:1 8:312 9:30739 10:1 11:0 12:0 13:0 14:2 15:4 16:0 17:0.25 18:0 19:0 20:1 21:0 22:0.5 23:155 24:255 25:1 26:0 27:0.01 28:0.03 29:0 30:0 31:0.01 32:0.01 
0.005233959778827576 0:0 1:1 2:0 3:0 4:0 5:1 6:0 7:1 8:203 9:454 10:1 11:0 12:0 13:0 14:13 15:25 16:0 17:0 18:0 19:0.04 20:1 21:0 22:0.08 23:13 24:255 25:1 26:0 27:0.08 28:0.05 29:0 30:0 31:0 32:0.01 
0.01267055610611246 0:0 1:1 2:0 3:0 4:0 5:1 6:0 7:1 8:281 9:4768 10:1 11:0 12:0 13:0 14:12 15:12 16:0 17:0 18:0 19:0 20:1 21:0 22:0 23:160 24:255 25:1 26:0 27:0.01 28:0.01 29:0 30:0 31:0.01 32:0.01 
0.0096152976939366148 0:0 1:1 2:0 3:0 4:0 5:1 6:0 7:1 8:312 9:124 10:1 11:0 12:0 13:0 14:3 15:18 16:0 17:0 18:0 19:0 20:1 21:0 22:0.28 23:68 24:255 25:1 26:0 27:0.01 28:0.02 29:0 30:0 31:0.01 32:0.01 
0.0022942612127641628 0:0 1:1 2:0 3:0 4:0 5:1 6:0 7:1 8:318 9:295 10:1 11:0 12:0 13:0 14:17 15:17 16:0 17:0 18:0 19:0 20:1 21:0 22:0 23:47 24:255 25:1 26:0 27:0.02 28:0.02 29:0 30:0 31:0 32:0.01 
0.010000464585174694 0:0 1:1 2:0 3:0 4:1 5:0 6:0 7:1 8:1404 9:331 10:1 11:0 12:0 13:0 14:1 15:1 16:0 17:0 18:0 19:0 20:1 21:0 22:0 23:13 24:175 25:0.54 26:0.23 27:0.08 28:0.01 29:0 30:0 31:0 32:0.01 
0.0080416632134441522 0:0 1:1 2:0 3:0 4:0 5:1 6:0 7:1 8:245 9:188 10:1 11:0 12:0 13:0 14:1 15:36 16:0 17:0 18:0 19:0 20:1 21:0 22:0.17 23:30 24:255 25:1 26:0 27:0.03 28:0.04 29:0.03 30:0.01 31:0 32:0.01 
0.013322850210893258 0:0 1:1 2:0 3:0 4:0 5:1 6:0 7:1 8:236 9:3222 10:1 11:0 12:0 13:0 14:7 15:7 16:0 17:0 18:0 19:0 20:1 21:0 22:0 23:255 24:248 25:0.97 26:0.01 27:0 28:0 29:0 30:0 31:0.01 32:0.01 
0.012929878589652079 0:0 1:1 2:0 3:0 4:1 5:0 6:0 7:1 8:1353 9:330 10:1 11:0 12:0 13:0 14:2 15:1 16:0 17:0 18:0 19:0 20:0.5 21:1 22:0 23:255 24:149 25:0.58 26:0.03 27:0 28:0 29:0.01 30:0.02 31:0 32:0.01 
0.0096273396077305763 0:0 1:1 2:0 3:0 4:0 5:1 6:0 7:1 8:266 9:1646 10:1 11:0 12:0 13:0 14:15 15:17 16:0 17:0 18:0 19:0 20:1 21:0 22:0.12 23:255 24:255 25:1 26:0 27:0 28:0 29:0 30:0 31:0.01 32:0.01 
0.0017655109635419265 0:0 1:1 2:0 3:0 4:0 5:1 6:0 7:1 8:320 9:335 10:1 11:0 12:0 13:0 14:6 15:6 16:0 17:0 18:0 19:0 20:1 21:0 22:0 23:97 24:255 25:1 26:0 27:0.01 28:0.03 29:0 30:0 31:0 32:0.01 
0.012181863940035523 0:0 1:1 2:0 3:0 4:0 5:1 6:0 7:1 8:316 9:912 10:1 11:0 12:0 13:0 14:7 15:7 16:0 17:0 18:0 19:0 20:1 21:0 22:0 23:22 24:255 25:1 26:0 27:0.05 28:0.03 29:0 30:0 31:0 32:0.01 
0.012977573458524275 0:0 1:1 2:0 3:0 4:0 5:1 6:0 7:1 8:231 9:9950 10:1 11:0 12:0 13:0 14:1 15:13 16:0 17:0 18:0 19:0 20:1 21:0 22:0.15 23:7 24:254 25:1 26:0 27:0.14 28:0.03 29:0 30:0 31:0 32:0.01 
0.013489581370580501 0:0 1:1 2:0 3:0 4:0 5:1 6:0 7:1 8:250 9:1215 10:1 11:0 12:0 13:0 14:12 15:12 16:0 17:0 18:0 19:0 20:1 21:0 22:0 23:217 24:255 25:1 26:0 27:0 28:0.01 29:0 30:0 31:0.01 32:0.01 
0.013407724002096364 0:0 1:1 2:0 3:0 4:0 5:1 6:0 7:1 8:303 9:2495 10:1 11:0 12:0 13:0 14:7 15:7 16:0 17:0 18:0 19:0 20:1 21:0 22:0 23:7 24:255 25:1 26:0 27:0.14 28:0.04 29:0 30:0 31:0 32:0.01 
0.012839521148841338 0:0 1:1 2:0 3:0 4:0 5:1 6:0 7:1 8:223 9:1208 10:1 11:0 12:0 13:0 14:50 15:50 16:0 17:0 18:0.02 19:0.02 20:1 21:0 22:0 23:99 24:255 25:1 26:0 27:0.02 28:0.03 29:0 30:0 31:0.01 32:0.01 
0.0068320583234098087 0:0 1:1 2:0 3:0 4:0 5:1 6:0 7:1 8:312 9:839 10:1 11:0 12:0 13:0 14:5 15:7 16:0 17:0 18:0 19:0 20:1 21:0 22:0.29 23:223 24:255 25:1 26:0 27:0 28:0.02 29:0 30:0 31:0.01 32:0.01 
0.0075362594619192208 0:0 1:1 2:0 3:0 4:0 5:1 6:0 7:1 8:244 9:198 10:1 11:0 12:0 13:0 14:5 15:5 16:0 17:0 18:0 19:0 20:1 21:0 22:0 23:255 24:255 25:1 26:0 27:0 28:0 29:0 30:0 31:0.01 32:0.01 
0.0090379950260673341 0:0 1:1 2:0 3:0 4:0 5:1 6:0 7:1 8:361 9:777 10:1 11:0 12:0 13:0 14:18 15:19 16:0 17:0 18:0 19:0 20:1 21:0 22:0.11 23:255 24:255 25:1 26:0 27:0 28:0 29:0 30:0 31:0.01 32:0.01 
0.007845763289004163 0:0 1:1 2:0 3:0 4:0 5:1 6:0 7:1 8:272 9:361 10:1 11:0 12:0 13:0 14:4 15:10 16:0 17:0 18:0 19:0 20:1 21:0 22:0.2 23:94 24:255 25:1 26:0 27:0.01 28:0.02 29:0 30:0 31:0.01 32:0.01 
0.013701375196112652 0:0 1:1 2:0 3:0 4:0 5:1 6:0 7:1 8:357 9:2333 10:1 11:0 12:0 13:0 14:21 15:25 16:0 17:0 18:0 19:0 20:1 21:0 22:0.08 23:68 24:255 25:1 26:0 27:0.01 28:0.02 29:0 30:0.02 31:0 32:0.01 
0.0034601358401823148 0:0 1:1 2:0 3:0 4:0 5:1 6:0 7:1 8:195 9:605 10:1 11:0 12:0 13:0 14:5 15:24 16:0 17:0 18:0 19:0.04 20:1 21:0 22:0.12 23:22 24:255 25:1 26:0 27:0.05 28:0.04 29:0 30:0 31:0 32:0.01 
0.013393542046999579 0:0 1:1 2:0 3:0 4:0 5:1 6:0 7:1 8:293 9:25672 10:1 11:0 12:0 13:0 14:2 15:2 16:0 17:0 18:0 19:0 20:1 21:0 22:0 23:143 24:255 25:1 26:0 27:0.01 28:0.02 29:0 30:0 31:0 32:0.01 
0.011335744071266481 0:0 1:1 2:0 3:0 4:0 5:1 6:0 7:1 8:350 9:3098 10:1 11:0 12:0 13:0 14:28 15:47 16:0 17:0 18:0 19:0 20:1 21:0 22:0.09 23:108 24:255 25:1 26:0 27:0.01 28:0.01 29:0.01 30:0 31:0 32:0.01 
0.0036075782419428435 0:0 1:1 2:0 3:0 4:0 5:1 6:0 7:1 8:235 9:486 10:1 11:0 12:0 13:0 14:9 15:25 16:0 17:0 18:0 19:0 20:1 21:0 22:0.24 23:27 24:255 25:1 26:0 27:0.04 28:0.04 29:0 30:0.01 31:0 32:0.01 
0.013673819351278161 0:0 1:1 2:0 3:0 4:0 5:1 6:0 7:1 8:203 9:11262 10:1 11:0 12:0 13:0 14:6 15:13 16:0 17:0 18:0 19:0.08 20:1 21:0 22:0.23 23:6 24:255 25:1 26:0 27:0.17 28:0.04 29:0 30:0 31:0 32:0.01 
0.011495128291767381 0:0 1:1 2:0 3:0 4:0 5:1 6:0 7:1 8:205 9:4275 10:1 11:0 12:0 13:0 14:12 15:12 16:0 17:0 18:0.08 19:0.08 20:1 21:0 22:0 23:39 24:255 25:1 26:0 27:0.03 28:0.04 29:0 30:0 31:0.05 32:0.01 
0.0054397448715829229 0:0 1:1 2:0 3:0 4:0 5:1 6:0 7:1 8:239 9:392 10:1 11:0 12:0 13:0 14:8 15:8 16:0 17:0 18:0 19:0 20:1 21:0 22:0 23:205 24:255 25:1 26:0 27:0 28:0.02 29:0 30:0.01 31:0 32:0.01 
0.0099602267083335611 0:0 1:1 2:0 3:0 4:0 5:1 6:0 7:1 8:337 9:1949 10:1 11:0 12:0 13:0 14:7 15:9 16:0 17:0 18:0 19:0 20:1 21:0 22:0.33 23:33 24:255 25:1 26:0 27:0.03 28:0.02 29:0 30:0.02 31:0 32:0.01 
0.010598826285048844 0:0 1:1 2:0 3:0 4:0 5:1 6:0 7:1 8:262 9:531 10:1 11:0 12:0 13:0 14:8 15:45 16:0 17:0 18:0 19:0 20:1 21:0 22:0.04 23:255 24:255 25:1 26:0 27:0 28:0 29:0 30:0 31:0.01 32:0.01 
0.01141378693388001 0:0 1:1 2:0 3:0 4:0 5:1 6:0 7:1 8:309 9:3896 10:1 11:0 12:0 13:0 14:8 15:9 16:0 17:0 18:0 19:0 20:1 21:0 22:0.22 23:119 24:255 25:1 26:0 27:0.01 28:0.01 29:0 30:0 31:0.02 32:0.01 
0.012752051808871435 0:2 1:1 2:0 3:0 4:1 5:0 6:0 7:1 8:1289 9:326 10:1 11:0 12:0 13:0 14:1 15:4 16:0 17:0 18:0 19:0 20:1 21:0 22:1 23:129 24:88 25:0.68 26:0.03 27:0.01 28:0 29:0 30:0 31:0.01 32:0.01 
0.013107539443357798 0:0 1:1 2:0 3:0 4:0 5:1 6:0 7:1 8:212 9:2345 10:1 11:0 12:0 13:0 14:3 15:9 16:0 17:0 18:0 19:0 20:1 21:0 22:0.22 23:3 24:215 25:1 26:0 27:0.33 28:0.01 29:0 30:0 31:0 32:0.01 
0.013399244470741235 0:0 1:1 2:0 3:0 4:0 5:1 6:0 7:1 8:314 9:369 10:1 11:0 12:0 13:0 14:3 15:3 16:0 17:0 18:0 19:0 20:1 21:0 22:0 23:3 24:122 25:1 26:0 27:0.33 28:0.07 29:0 30:0 31:0 32:0.01 
0.013426133805238261 0:0 1:1 2:0 3:0 4:0 5:1 6:0 7:1 8:212 9:1090 10:1 11:0 12:0 13:0 14:16 15:16 16:0 17:0 18:0 19:0 20:1 21:0 22:0 23:174 24:255 25:1 26:0 27:0.01 28:0.04 29:0 30:0.01 31:0.01 32:0.01 
0.0042915708594154301 0:0 1:1 2:0 3:0 4:0 5:1 6:0 7:1 8:235 9:406 10:1 11:0 12:0 13:0 14:12 15:12 16:0 17:0 18:0 19:0 20:1 21:0 22:0 23:189 24:255 25:1 26:0 27:0.01 28:0.04 29:0 30:0 31:0.02 32:0.01 
0.0016979789923760895 0:0 1:1 2:0 3:0 4:0 5:1 6:0 7:1 8:204 9:1010 10:1 11:0 12:0 13:0 14:13 15:23 16:0.23 17:0.22 18:0 19:0 20:1 21:0 22:0.17 23:30 24:255 25:1 26:0 27:0.03 28:0.02 29:0.07 30:0.01 31:0 32:0.01 
0.0094210959883453283 0:0 1:1 2:0 3:0 4:0 5:1 6:0 7:1 8:351 9:280 10:1 11:0 12:0 13:0 14:4 15:4 16:0 17:0 18:0 19:0 20:1 21:0 22:0 23:255 24:255 25:1 26:0 27:0 28:0 29:0 30:0 31:0.01 32:0.01 
0.012372075535646794 0:0 1:1 2:0 3:0 4:0 5:1 6:0 7:1 8:308 9:1380 10:1 11:0 12:0 13:0 14:2 15:2 16:0 17:0 18:0 19:0 20:1 21:0 22:0 23:173 24:149 25:0.86 26:0.02 27:0.01 28:0 29:0.01 30:0.01 31:0.01 32:0.01 
0.013408358276477284 0:0 1:1 2:0 3:0 4:0 5:1 6:0 7:1 8:239 9:8317 10:1 11:0 12:0 13:0 14:1 15:5 16:0 17:0 18:0 19:0 20:1 21:0 22:0.4 23:64 24:254 25:1 26:0 27:0.02 28:0.03 29:0 30:0 31:0 32:0.01 
0.0093903055114852273 0:0 1:1 2:0 3:0 4:0 5:1 6:0 7:1 8:279 9:8936 10:1 11:0 12:0 13:0 14:4 15:22 16:0 17:0.05 18:0 19:0 20:1 21:0 22:0.32 23:35 24:255 25:1 26:0 27:0.03 28:0.05 29:0 30:0 31:0.03 32:0.01 
0.0080913239638198513 0:0 1:1 2:0 3:0 4:0 5:1 6:0 7:1 8:323 9:2025 10:1 11:0 12:0 13:0 14:6 15:8 16:0 17:0 18:0 19:0 20:1 21:0 22:0.38 23:6 24:255 25:1 26:0 27:0.17 28:0.02 29:0 30:0.01 31:0 32:0.01 
0.013587359733564014 0:0 1:1 2:0 3:0 4:0 5:1 6:0 7:1 8:141 9:7373 10:1 11:0 12:0 13:0 14:8 15:8 16:0 17:0 18:0 19:0 20:1 21:0 22:0 23:8 24:255 25:1 26:0 27:0.12 28:0.04 29:0 30:0.01 31:0 32:0.01 
0.013040716671611541 0:5 1:1 2:0 3:0 4:1 5:0 6:0 7:1 8:605 9:333 10:1 11:0 12:0 13:0 14:1 15:1 16:0 17:0 18:0 19:0 20:1 21:0 22:0 23:59 24:156 25:0.47 26:0.07 27:0.02 28:0.01 29:0 30:0 31:0 32:0.01 
0.012969992035487675 0:0 1:1 2:0 3:0 4:0 5:1 6:0 7:1 8:194 9:1423 10:1 11:0 12:0 13:0 14:10 15:10 16:0 17:0 18:0 19:0 20:1 21:0 22:0 23:107 24:255 25:1 26:0 27:0.01 28:0.02 29:0 30:0 31:0 32:0.01 
0.012521789370802811 0:0 1:1 2:0 3:0 4:0 5:1 6:0 7:1 8:231 9:2775 10:1 11:0 12:0 13:0 14:15 15:16 16:0 17:0 18:0 19:0 20:1 21:0 22:0.12 23:100 24:255 25:1 26:0 27:0.01 28:0.02 29:0 30:0 31:0.03 32:0.01 
0.0089868475854606965 0:0 1:1 2:0 3:0 4:0 5:1 6:0 7:1 8:154 9:13386 10:1 11:0 12:0 13:0 14:4 15:4 16:0 17:0 18:0 19:0 20:1 21:0 22:0 23:150 24:255 25:1 26:0 27:0.01 28:0.03 29:0 30:0 31:0.01 32:0.01 
0.013753860864717932 0:0 1:1 2:0 3:0 4:0 5:1 6:0 7:1 8:198 9:11607 10:1 11:0 12:0 13:0 14:1 15:1 16:0 17:0 18:0 19:0 20:1 21:0 22:0 23:4 24:255 25:1 26:0 27:0.25 28:0.05 29:0 30:0 31:0 32:0.01 
0.0056443253943765492 0:0 1:1 2:0 3:0 4:0 5:1 6:0 7:1 8:289 9:174 10:1 11:0 12:0 13:0 14:13 15:13 16:0 17:0 18:0 19:0 20:1 21:0 22:0 23:18 24:255 25:1 26:0 27:0.06 28:0.05 29:0 30:0 31:0 32:0.01 
0.0068810428916907798 0:0 1:1 2:0 3:0 4:0 5:1 6:0 7:1 8:329 9:2189 10:1 11:0 12:0 13:0 14:5 15:5 16:0 17:0 18:0 19:0 20:1 21:0 22:0 23:124 24:255 25:1 26:0 27:0.01 28:0.02 29:0 30:0.02 31:0.01 32:0.01 
0.0074819441676723967 0:0 1:1 2:0 3:0 4:0 5:1 6:0 7:1 8:312 9:327 10:1 11:0 12:0 13:0 14:5 15:26 16:0 17:0 18:0 19:0 20:1 21:0 22:0.15 23:244 24:255 25:1 26:0 27:0 28:0.01 29:0 30:0 31:0.01 32:0.01 
0.013385981600186846 0:0 1:1 2:0 3:0 4:0 5:1 6:0 7:1 8:155 9:4187 10:1 11:0 12:0 13:0 14:9 15:9 16:0 17:0 18:0 19:0 20:1 21:0 22:0 23:184 24:184 25:1 26:0 27:0.01 28:0 29:0 30:0 31:0.01 32:0.01 
0.0055610499252884806 0:0 1:1 2:0 3:0 4:0 5:1 6:0 7:1 8:233 9:2213 10:1 11:0 12:0 13:0 14:7 15:7 16:0 17:0 18:0 19:0 20:1 21:0 22:0 23:18 24:255 25:1 26:0 27:0.06 28:0.03 29:0 30:0 31:0 32:0.01 
0.0077781457123169183 0:0 1:1 2:0 3:0 4:0 5:1 6:0 7:1 8:226 9:673 10:1 11:0 12:0 13:0 14:13 15:16 16:0 17:0 18:0 19:0 20:1 21:0 22:0.25 23:255 24:255 25:1 26:0 27:0 28:0 29:0 30:0 31:0.01 32:0.01 
0.00446484240050328 0:0 1:1 2:0 3:0 4:0 5:1 6:0 7:1 8:201 9:468 10:1 11:0 12:0 13:0 14:2 15:3 16:0 17:0 18:0 19:0 20:1 21:0 22:0.67 23:42 24:255 25:1 26:0 27:0.02 28:0.03 29:0 30:0 31:0 32:0.01 
0.0065098198933699484 0:0 1:1 2:0 3:0 4:0 5:1 6:0 7:1 8:193 9:207 10:1 11:0 12:0 13:0 14:2 15:6 16:0 17:0 18:0 19:0 20:1 21:0 22:0.5 23:21 24:255 25:1 26:0 27:0.05 28:0.04 29:0 30:0 31:0 32:0.01 
0.0099467265417181126 0:0 1:1 2:0 3:0 4:0 5:1 6:0 7:1 8:225 9:1364 10:1 11:0 12:0 13:0 14:22 15:22 16:0 17:0 18:0 19:0 20:1 21:0 22:0 23:23 24:255 25:1 26:0 27:0.04 28:0.01 29:0 30:0 31:0.04 32:0.01 
0.007799434522163853 0:0 1:1 2:0 3:0 4:0 5:1 6:0 7:1 8:334 9:634 10:1 11:0 12:0 13:0 14:5 15:5 16:0 17:0 18:0 19:0 20:1 21:0 22:0 23:13 24:255 25:1 26:0 27:0.08 28:0.02 29:0 30:0 31:0 32:0.01 
0.013408400749342519 0:0 1:1 2:0 3:0 4:0 5:1 6:0 7:1 8:309 9:10929 10:1 11:0 12:0 13:0 14:1 15:1 16:0 17:0 18:0 19:0 20:1 21:0 22:0 23:40 24:255 25:1 26:0 27:0.03 28:0.03 29:0 30:0 31:0 32:0.01 
0.0054026086700299288 0:0 1:1 2:0 3:0 4:0 5:1 6:0 7:1 8:373 9:345 10:1 11:0 12:0 13:0 14:21 15:21 16:0 17:0 18:0 19:0 20:1 21:0 22:0 23:255 24:255 25:1 26:0 27:0 28:0 29:0 30:0 31:0.01 32:0.01 
0.013408231022383525 0:0 1:1 2:0 3:0 4:0 5:1 6:0 7:1 8:271 9:10615 10:1 11:0 12:0 13:0 14:1 15:1 16:0 17:0 18:0 19:0 20:1 21:0 22:0 23:31 24:255 25:1 26:0 27:0.03 28:0.03 29:0 30:0 31:0 32:0.01 
0.013525750285583473 0:0 1:1 2:0 3:0 4:0 5:1 6:0 7:1 8:349 9:2578 10:1 11:0 12:0 13:0 14:6 15:6 16:0 17:0 18:0 19:0 20:1 21:0 22:0 23:42 24:255 25:1 26:0 27:0.02 28:0.02 29:0 30:0 31:0 32:0.01 
0.010633772875425612 0:0 1:1 2:0 3:0 4:0 5:1 6:0 7:1 8:225 9:2445 10:1 11:0 12:0 13:0 14:17 15:17 16:0 17:0 18:0 19:0 20:1 21:0 22:0 23:255 24:255 25:1 26:0 27:0 28:0 29:0 30:0 31:0.01 32:0.01 
0.012306775961268428 0:0 1:1 2:0 3:0 4:0 5:1 6:0 7:1 8:294 9:885 10:1 11:0 12:0 13:0 14:14 15:16 16:0 17:0 18:0.07 19:0.06 20:1 21:0 22:0.19 23:255 24:255 25:1 26:0 27:0 28:0 29:0 30:0 31:0.01 32:0.01 
0.0063555567938104887 0:0 1:1 2:0 3:0 4:0 5:1 6:0 7:1 8:219 9:4767 10:1 11:0 12:0 13:0 14:2 15:2 16:0.5 17:0.5 18:0 19:0 20:1 21:0 22:0 23:27 24:255 25:1 26:0 27:0.04 28:0.04 29:0.04 30:0.01 31:0 32:0.01 
0.0049459291624786537 0:0 1:1 2:0 3:0 4:0 5:1 6:0 7:1 8:223 9:1576 10:1 11:0 12:0 13:0 14:12 15:12 16:0 17:0 18:0 19:0 20:1 21:0 22:0 23:255 24:255 25:1 26:0 27:0 28:0 29:0 30:0 31:0.01 32:0.01 
0.01111959156821421 0:0 1:1 2:0 3:0 4:0 5:1 6:0 7:1 8:342 9:2787 10:1 11:0 12:0 13:0 14:4 15:5 16:0 17:0 18:0 19:0 20:1 21:0 22:0.4 23:84 24:255 25:1 26:0 27:0.01 28:0.01 29:0.01 30:0 31:0 32:0.01 
0.013225920834579082 0:0 1:1 2:0 3:0 4:0 5:1 6:0 7:1 8:371 9:327 10:1 11:0 12:0 13:0 14:2 15:29 16:0 17:0 18:0 19:0 20:1 21:0 22:0.14 23:14 24:255 25:1 26:0 27:0.07 28:0.01 29:0 30:0 31:0 32:0.01 
0.0088225687572681573 0:0 1:1 2:0 3:0 4:0 5:1 6:0 7:1 8:261 9:17739 10:1 11:0 12:0 13:0 14:1 15:5 16:0 17:0 18:0 19:0 20:1 21:0 22:0.4 23:92 24:255 25:1 26:0 27:0.01 28:0.05 29:0 30:0 31:0 32:0.01 
0.007348907570852675 0:0 1:1 2:0 3:0 4:0 5:1 6:0 7:1 8:195 9:382 10:1 11:0 12:0 13:0 14:9 15:19 16:0 17:0 18:0 19:0 20:1 21:0 22:0.11 23:9 24:255 25:1 26:0 27:0.11 28:0.04 29:0 30:0.01 31:0 32:0.01 
0.010613125333034927 0:0 1:1 2:0 3:0 4:0 5:1 6:0 7:1 8:241 9:1162 10:1 11:0 12:0 13:0 14:8 15:9 16:0 17:0 18:0 19:0 20:1 21:0 22:0.22 23:109 24:255 25:1 26:0 27:0.01 28:0.02 29:0 30:0 31:0.03 32:0.01 
0.0076240213996664726 0:0 1:1 2:0 3:0 4:0 5:1 6:0 7:1 8:297 9:2006 10:1 11:0 12:0 13:0 14:11 15:13 16:0 17:0 18:0 19:0 20:1 21:0 22:0.15 23:255 24:255 25:1 26:0 27:0 28:0 29:0 30:0 31:0.01 32:0.01 
0.0094354841379694215 0:0 1:1 2:0 3:0 4:0 5:1 6:0 7:1 8:144 9:9567 10:1 11:0 12:0 13:0 14:1 15:9 16:0 17:0 18:0 19:0 20:1 21:0 22:0.56 23:27 24:255 25:1 26:0 27:0.04 28:0.01 29:0 30:0 31:0.07 32:0.01 
0.013521538085560197 0:0 1:1 2:0 3:0 4:0 5:1 6:0 7:1 8:144 9:5086 10:1 11:0 12:0 13:0 14:1 15:1 16:0 17:0 18:0 19:0 20:1 21:0 22:0 23:13 24:255 25:1 26:0 27:0.08 28:0.05 29:0 30:0.01 31:0 32:0.01 
0.010485674008052479 0:0 1:1 2:0 3:0 4:0 5:1 6:0 7:1 8:281 9:9569 10:1 11:0 12:0 13:0 14:7 15:11 16:0 17:0 18:0 19:0 20:1 21:0 22:0.18 23:31 24:255 25:1 26:0 27:0.03 28:0.06 29:0 30:0 31:0 32:0.01 
0.0097285202422317425 0:0 1:1 2:0 3:0 4:1 5:0 6:0 7:1 8:1197 9:332 10:1 11:0 12:0 13:0 14:2 15:1 16:0 17:0 18:0 19:0 20:0.5 21:1 22:0 23:255 24:150 25:0.59 26:0.03 27:0 28:0 29:0.01 30:0.02 31:0 32:0.01 
0.013417497252879843 0:0 1:1 2:0 3:0 4:0 5:1 6:0 7:1 8:258 9:9692 10:1 11:0 12:0 13:0 14:1 15:1 16:0 17:0 18:0 19:0 20:1 21:0 22:0 23:36 24:255 25:1 26:0 27:0.03 28:0.07 29:0 30:0.01 31:0.03 32:0.01 
0.01097254396240069 0:0 1:1 2:0 3:0 4:0 5:1 6:0 7:1 8:230 9:707 10:1 11:0 12:0 13:0 14:8 15:10 16:0 17:0 18:0 19:0 20:1 21:0 22:0.2 23:94 24:255 25:1 26:0 27:0.01 28:0.05 29:0 30:0 31:0 32:0.01 
0.01388284104750085 0:1 1:1 2:0 3:0 4:1 5:0 6:0 7:1 8:2288 9:331 10:1 11:0 12:0 13:0 14:2 15:3 16:0 17:0 18:0 19:0 20:0.5 21:1 22:1 23:255 24:156 25:0.61 26:0.03 27:0 28:0 29:0.01 30:0.02 31:0 32:0.01 
0.011817453408036249 0:0 1:1 2:0 3:0 4:0 5:1 6:0 7:1 8:306 9:3882 10:1 11:0 12:0 13:0 14:4 15:4 16:0 17:0 18:0 19:0 20:1 21:0 22:0 23:4 24:255 25:1 26:0 27:0.25 28:0.02 29:0 30:0 31:0 32:0.01 
0.010220017954450931 0:0 1:1 2:0 3:0 4:0 5:1 6:0 7:1 8:195 9:557 10:1 11:0 12:0 13:0 14:2 15:12 16:0 17:0 18:0 19:0 20:1 21:0 22:0.33 23:255 24:255 25:1 26:0 27:0 28:0 29:0 30:0 31:0.01 32:0.01 
0.012177556966389624 0:0 1:1 2:0 3:0 4:0 5:1 6:0 7:1 8:243 9:7333 10:1 11:0 12:0 13:0 14:11 15:11 16:0 17:0 18:0 19:0 20:1 21:0 22:0 23:132 24:255 25:1 26:0 27:0.01 28:0.04 29:0 30:0 31:0.02 32:0.01 
0.010701612171260463 0:0 1:1 2:0 3:0 4:0 5:1 6:0 7:1 8:205 9:7176 10:1 11:0 12:0 13:0 14:20 15:22 16:0 17:0 18:0 19:0 20:1 21:0 22:0.09 23:42 24:255 25:1 26:0 27:0.02 28:0.06 29:0 30:0.01 31:0 32:0.01 
0.013795144667943153 0:1 1:1 2:0 3:0 4:1 5:0 6:0 7:1 8:1215 9:328 10:1 11:0 12:0 13:0 14:1 15:2 16:0 17:0 18:0 19:0 20:1 21:0 22:1 23:156 24:97 25:0.62 26:0.03 27:0.01 28:0 29:0 30:0 31:0.01 32:0.01 
0.0088934532090526475 0:0 1:1 2:0 3:0 4:0 5:1 6:1 7:0 8:162 9:0 10:1 11:0 12:0 13:0 14:1 15:1 16:1 17:1 18:0 19:0 20:1 21:0 22:0 23:26 24:255 25:1 26:0 27:0.04 28:0.04 29:0.04 30:0.01 31:0 32:0.01 
0.012553427103251366 0:0 1:1 2:0 3:0 4:0 5:1 6:0 7:1 8:206 9:2724 10:1 11:0 12:0 13:0 14:7 15:30 16:0 17:0 18:0 19:0 20:1 21:0 22:0.07 23:255 24:255 25:1 26:0 27:0 28:0 29:0 30:0 31:0.01 32:0.01 
0.011526061245989188 0:0 1:1 2:0 3:0 4:0 5:1 6:0 7:1 8:239 9:1529 10:1 11:0 12:0 13:0 14:3 15:6 16:0 17:0 18:0 19:0.17 20:1 21:0 22:0.5 23:145 24:255 25:1 26:0 27:0.01 28:0.02 29:0 30:0 31:0 32:0.01 
0.0094990901782097022 0:0 1:1 2:0 3:0 4:0 5:1 6:0 7:1 8:241 9:349 10:1 11:0 12:0 13:0 14:18 15:18 16:0 17:0 18:0 19:0 20:1 21:0 22:0 23:166 24:255 25:1 26:0 27:0.01 28:0.03 29:0 30:0 31:0 32:0.01 
0.006622846025471231 0:0 1:1 2:0 3:0 4:0 5:1 6:0 7:1 8:280 9:1037 10:1 11:0 12:0 13:0 14:5 15:5 16:0 17:0 18:0 19:0 20:1 21:0 22:0 23:5 24:255 25:1 26:0 27:0.2 28:0.02 29:0 30:0 31:0 32:0.01 
0.011817826370631768 0:0 1:1 2:0 3:0 4:1 5:0 6:0 7:1 8:1330 9:329 10:1 11:0 12:0 13:0 14:1 15:1 16:0 17:0 18:0 19:0 20:1 21:0 22:0 23:6 24:164 25:0.83 26:0.33 27:0.17 28:0.02 29:0 30:0.02 31:0 32:0.01 
0.012367829276495941 0:0 1:1 2:0 3:0 4:0 5:1 6:0 7:1 8:223 9:1839 10:1 11:0 12:0 13:0 14:8 15:10 16:0 17:0 18:0 19:0 20:1 21:0 22:0.2 23:84 24:255 25:1 26:0 27:0.01 28:0.05 29:0 30:0 31:0 32:0.01 
0.012791898262269527 0:0 1:1 2:0 3:0 4:0 5:1 6:0 7:1 8:222 9:1776 10:1 11:0 12:0 13:0 14:3 15:21 16:0 17:0 18:0 19:0 20:1 21:0 22:0.29 23:54 24:255 25:1 26:0 27:0.02 28:0.04 29:0 30:0 31:0.02 32:0.01 
0.0088135558731157054 0:0 1:1 2:0 3:0 4:0 5:1 6:0 7:1 8:308 9:935 10:1 11:0 12:0 13:0 14:18 15:18 16:0 17:0 18:0 19:0 20:1 21:0 22:0 23:255 24:255 25:1 26:0 27:0 28:0 29:0 30:0 31:0.01 32:0.01 
0.013647280165054204 0:0 1:1 2:0 3:0 4:0 5:1 6:0 7:1 8:378 9:613 10:1 11:0 12:0 13:0 14:37 15:37 16:0 17:0 18:0 19:0 20:1 21:0 22:0 23:255 24:255 25:1 26:0 27:0 28:0 29:0 30:0 31:0.01 32:0.01 
0.013405389968726325 0:0 1:1 2:0 3:0 4:0 5:1 6:0 7:1 8:347 9:12518 10:1 11:0 12:0 13:0 14:11 15:21 16:0 17:0 18:0 19:0 20:1 21:0 22:0.1 23:37 24:255 25:1 26:0 27:0.03 28:0.02 29:0 30:0 31:0 32:0.01 
0.013408683287240146 0:0 1:1 2:0 3:0 4:0 5:1 6:0 7:1 8:459 9:5154 10:1 11:0 12:0 13:0 14:1 15:6 16:0 17:0 18:0 19:0 20:1 21:0 22:0.83 23:4 24:255 25:1 26:0 27:0.25 28:0.05 29:0 30:0 31:0 32:0.01 
0.01074138743005729 0:0 1:1 2:0 3:0 4:0 5:1 6:0 7:1 8:315 9:3413 10:1 11:0 12:0 13:0 14:4 15:4 16:0 17:0 18:0 19:0 20:1 21:0 22:0 23:255 24:255 25:1 26:0 27:0 28:0 29:0 30:0 31:0.01 32:0.01 
0.013770057390067907 0:0 1:1 2:0 3:0 4:0 5:1 6:0 7:1 8:329 9:4556 10:1 11:0 12:0 13:0 14:3 15:10 16:0.33 17:0.2 18:0 19:0 20:1 21:0 22:0.4 23:51 24:255 25:1 26:0 27:0.02 28:0.07 29:0.02 30:0.02 31:0 32:0.01 
0.01229064674890446 0:0 1:1 2:0 3:0 4:0 5:1 6:0 7:1 8:306 9:1162 10:1 11:0 12:0 13:0 14:13 15:13 16:0 17:0 18:0 19:0 20:1 21:0 22:0 23:255 24:255 25:1 26:0 27:0 28:0 29:0 30:0 31:0.01 32:0.01 
0.0094623852898483296 0:0 1:1 2:0 3:0 4:0 5:1 6:0 7:1 8:282 9:124 10:1 11:0 12:0 13:0 14:1 15:2 16:0 17:0 18:0 19:0 20:1 21:0 22:1 23:54 24:255 25:1 26:0 27:0.02 28:0.02 29:0 30:0 31:0.02 32:0.01 
0.012358261575007039 0:0 1:1 2:0 3:0 4:0 5:1 6:0 7:1 8:191 9:2852 10:1 11:0 12:0 13:0 14:20 15:20 16:0 17:0 18:0 19:0 20:1 21:0 22:0 23:20 24:255 25:1 26:0 27:0.05 28:0.03 29:0 30:0.01 31:0 32:0.01 
0.010014515109572096 0:0 1:1 2:0 3:0 4:0 5:1 6:0 7:1 8:296 9:511 10:1 11:0 12:0 13:0 14:19 15:24 16:0 17:0 18:0 19:0 20:1 21:0 22:0.17 23:235 24:255 25:1 26:0 27:0 28:0.01 29:0 30:0 31:0 32:0.01 
0.0050205135483944816 0:0 1:1 2:0 3:0 4:0 5:1 6:0 7:1 8:231 9:334 10:1 11:0 12:0 13:0 14:8 15:8 16:0 17:0 18:0 19:0 20:1 21:0 22:0 23:74 24:255 25:1 26:0 27:0.01 28:0.01 29:0 30:0 31:0 32:0.01 
0.0079349752239446653 0:0 1:1 2:0 3:0 4:0 5:1 6:0 7:1 8:343 9:6731 10:1 11:0 12:0 13:0 14:11 15:11 16:0 17:0 18:0 19:0 20:1 21:0 22:0 23:11 24:255 25:1 26:0 27:0.09 28:0.03 29:0 30:0 31:0 32:0.01 
0.013269334608607486 0:2 1:1 2:0 3:0 4:1 5:0 6:0 7:1 8:1602 9:508 10:1 11:0 12:0 13:0 14:1 15:1 16:0 17:0 18:0 19:0 20:1 21:0 22:0 23:206 24:134 25:0.56 26:0.02 27:0 28:0.01 29:0 30:0 31:0.04 32:0.01 
0.0068566764727292237 0:0 1:1 2:0 3:0 4:0 5:1 6:0 7:1 8:230 9:660 10:1 11:0 12:0 13:0 14:5 15:5 16:0 17:0 18:0 19:0 20:1 21:0 22:0 23:255 24:255 25:1 26:0 27:0 28:0 29:0 30:0 31:0.01 32:0.01 
0.0074209565934304613 0:0 1:1 2:0 3:0 4:0 5:1 6:0 7:1 8:312 9:668 10:1 11:0 12:0 13:0 14:16 15:16 16:0 17:0 18:0 19:0 20:1 21:0 22:0 23:51 24:255 25:1 26:0 27:0.02 28:0.07 29:0 30:0.01 31:0.02 32:0.01 
0.0089279016759013941 0:2 1:1 2:0 3:0 4:1 5:0 6:0 7:1 8:1098 9:328 10:1 11:0 12:0 13:0 14:1 15:3 16:0 17:0 18:0 19:0 20:1 21:0 22:1 23:12 24:142 25:0.92 26:0.17 27:0.08 28:0.02 29:0 30:0.04 31:0 32:0.01 
0.013815791410803545 0:0 1:1 2:0 3:0 4:0 5:1 6:0 7:1 8:149 9:9692 10:1 11:0 12:0 13:0 14:1 15:1 16:0 17:0 18:0 19:0 20:1 21:0 22:0 23:87 24:255 25:1 26:0 27:0.01 28:0.07 29:0 30:0.01 31:0.01 32:0.01 
0.0109802879150303 0:0 1:1 2:0 3:0 4:0 5:1 6:0 7:1 8:189 9:4536 10:1 11:0 12:0 13:0 14:17 15:18 16:0 17:0 18:0 19:0 20:1 21:0 22:0.11 23:52 24:255 25:1 26:0 27:0.02 28:0.01 29:0 30:0 31:0.02 32:0.01 
0.0097047047428563092 0:0 1:1 2:0 3:0 4:0 5:1 6:0 7:1 8:192 9:5408 10:1 11:0 12:0 13:0 14:13 15:14 16:0 17:0 18:0 19:0 20:1 21:0 22:0.14 23:33 24:255 25:1 26:0 27:0.03 28:0.03 29:0.03 30:0.01 31:0.06 32:0.01 
0.013219111179257984 0:0 1:1 2:0 3:0 4:0 5:1 6:0 7:1 8:282 9:2573 10:1 11:0 12:0 13:0 14:9 15:12 16:0 17:0 18:0 19:0 20:1 21:0 22:0.33 23:45 24:122 25:1 26:0 27:0.02 28:0.05 29:0 30:0 31:0 32:0.01 
0.0098309842458989445 0:0 1:1 2:0 3:0 4:0 5:1 6:0 7:1 8:228 9:577 10:1 11:0 12:0 13:0 14:17 15:17 16:0 17:0 18:0 19:0 20:1 21:0 22:0 23:17 24:157 25:1 26:0 27:0.06 28:0.06 29:0 30:0.01 31:0 32:0.01 
0.010635173288480161 0:0 1:1 2:0 3:0 4:0 5:1 6:0 7:1 8:232 9:350 10:1 11:0 12:0 13:0 14:27 15:42 16:0 17:0 18:0 19:0 20:1 21:0 22:0.07 23:109 24:255 25:1 26:0 27:0.01 28:0.02 29:0.01 30:0 31:0 32:0.01 
0.013661206202289899 0:1 1:1 2:0 3:0 4:0 5:1 6:0 7:1 8:275 9:29434 10:1 11:0 12:0 13:0 14:1 15:1 16:0 17:0 18:0 19:0 20:1 21:0 22:0 23:238 24:255 25:1 26:0 27:0.01 28:0.02 29:0 30:0 31:0.01 32:0.01 
0.013060117028516382 0:0 1:1 2:0 3:0 4:0 5:1 6:0 7:1 8:209 9:1999 10:1 11:0 12:0 13:0 14:1 15:1 16:0 17:0 18:0 19:0 20:1 21:0 22:0 23:81 24:255 25:1 26:0 27:0.01 28:0.02 29:0 30:0 31:0.01 32:0.01 
0.007317137641509713 0:0 1:1 2:0 3:0 4:0 5:1 6:0 7:1 8:210 9:178 10:1 11:0 12:0 13:0 14:10 15:10 16:0 17:0 18:0 19:0 20:1 21:0 22:0 23:10 24:255 25:1 26:0 27:0.1 28:0.04 29:0 30:0 31:0 32:0.01 
0.0091079133224091745 0:0 1:1 2:0 3:0 4:0 5:1 6:0 7:1 8:295 9:1214 10:1 11:0 12:0 13:0 14:9 15:10 16:0 17:0 18:0 19:0 20:1 21:0 22:0.2 23:26 24:255 25:1 26:0 27:0.04 28:0.03 29:0 30:0.01 31:0 32:0.01 
0.013244660905658678 0:0 1:1 2:0 3:0 4:0 5:1 6:0 7:1 8:331 9:10355 10:1 11:0 12:0 13:0 14:6 15:11 16:0 17:0 18:0 19:0 20:1 21:0 22:0.27 23:6 24:255 25:1 26:0 27:0.17 28:0.01 29:0 30:0 31:0 32:0.01 
0.013538897043111077 0:0 1:1 2:0 3:0 4:0 5:1 6:0 7:1 8:210 9:2649 10:1 11:0 12:0 13:0 14:18 15:18 16:0 17:0 18:0 19:0 20:1 21:0 22:0 23:19 24:255 25:1 26:0 27:0.05 28:0.06 29:0 30:0 31:0 32:0.01 
0.0073084260123193008 0:0 1:1 2:0 3:0 4:0 5:1 6:0 7:1 8:348 9:342 10:1 11:0 12:0 13:0 14:4 15:11 16:0 17:0.09 18:0 19:0 20:1 21:0 22:0.36 23:198 24:255 25:1 26:0 27:0.01 28:0.02 29:0.01 30:0.01 31:0.01 32:0.01 
0.012561377983272816 0:0 1:1 2:0 3:0 4:0 5:1 6:0 7:1 8:212 9:774 10:1 11:0 12:0 13:0 14:9 15:9 16:0 17:0 18:0 19:0 20:1 21:0 22:0 23:255 24:255 25:1 26:0 27:0 28:0 29:0 30:0 31:0.01 32:0.01 
0.011106284783204551 0:0 1:1 2:0 3:0 4:0 5:1 6:0 7:1 8:216 9:9146 10:1 11:0 12:0 13:0 14:17 15:17 16:0 17:0 18:0 19:0 20:1 21:0 22:0 23:108 24:255 25:1 26:0 27:0.01 28:0.02 29:0 30:0 31:0 32:0.01 
0.013228862808329359 0:0 1:1 2:0 3:0 4:0 5:1 6:0 7:1 8:300 9:5973 10:1 11:0 12:0 13:0 14:1 15:38 16:0 17:0 18:0 19:0 20:1 21:0 22:0.05 23:12 24:255 25:1 26:0 27:0.08 28:0.03 29:0 30:0 31:0.08 32:0.01 
0.0054666951337346932 0:0 1:1 2:0 3:0 4:0 5:1 6:0 7:1 8:337 9:658 10:1 11:0 12:0 13:0 14:9 15:9 16:0 17:0 18:0 19:0 20:1 21:0 22:0 23:17 24:255 25:1 26:0 27:0.06 28:0.02 29:0 30:0 31:0 32:0.01 
0.0067123561197335105 0:0 1:1 2:0 3:0 4:0 5:1 6:0 7:1 8:308 9:1512 10:1 11:0 12:0 13:0 14:5 15:5 16:0 17:0 18:0 19:0 20:1 21:0 22:0 23:255 24:255 25:1 26:0 27:0 28:0 29:0 30:0 31:0.01 32:0.01 
0.0056106534912374294 0:0 1:1 2:0 3:0 4:0 5:1 6:0 7:1 8:228 9:452 10:1 11:0 12:0 13:0 14:7 15:7 16:0 17:0 18:0 19:0 20:1 21:0 22:0 23:215 24:255 25:1 26:0 27:0 28:0.02 29:0 30:0.01 31:0 32:0.01 
0.0063039767725548467 0:0 1:1 2:0 3:0 4:0 5:1 6:0 7:1 8:212 9:1416 10:1 11:0 12:0 13:0 14:1 15:1 16:0 17:0 18:0 19:0 20:1 21:0 22:0 23:36 24:255 25:1 26:0 27:0.03 28:0.08 29:0 30:0.01 31:0 32:0.01 
0.013408294220990116 0:0 1:1 2:0 3:0 4:0 5:1 6:0 7:1 8:298 9:3411 10:1 11:0 12:0 13:0 14:2 15:2 16:0 17:0 18:0 19:0 20:1 21:0 22:0 23:2 24:255 25:1 26:0 27:0.5 28:0.02 29:0 30:0 31:0 32:0.01 
0.013449826407909427 0:0 1:1 2:0 3:0 4:0 5:1 6:1 7:0 8:157 9:0 10:1 11:0 12:0 13:0 14:2 15:2 16:0.5 17:0.5 18:0 19:0 20:1 21:0 22:0 23:101 24:101 25:1 26:0 27:0.02 28:0 29:0.01 30:0.01 31:0.01 32:0.01 
0.011643168910586655 0:0 1:1 2:0 3:0 4:0 5:1 6:0 7:1 8:216 9:9146 10:1 11:0 12:0 13:0 14:23 15:23 16:0 17:0 18:0 19:0 20:1 21:0 22:0 23:65 24:255 25:1 26:0 27:0.02 28:0.02 29:0 30:0 31:0 32:0.01 
0.01015154934523024 0:0 1:1 2:0 3:0 4:0 5:1 6:0 7:1 8:200 9:328 10:1 11:0 12:0 13:0 14:3 15:9 16:0.33 17:0.33 18:0 19:0 20:1 21:0 22:0.44 23:122 24:172 25:1 26:0 27:0.01 28:0.02 29:0.01 30:0.01 31:0 32:0.01 
0.010172625199947483 0:0 1:1 2:0 3:0 4:0 5:1 6:0 7:1 8:206 9:572 10:1 11:0 12:0 13:0 14:15 15:38 16:0 17:0 18:0 19:0 20:1 21:0 22:0.05 23:255 24:255 25:1 26:0 27:0 28:0 29:0 30:0 31:0.01 32:0.01 
0.013060972733658142 0:0 1:1 2:0 3:0 4:0 5:1 6:0 7:1 8:158 9:5479 10:1 11:0 12:0 13:0 14:2 15:2 16:0 17:0 18:0 19:0 20:1 21:0 22:0 23:2 24:251 25:1 26:0 27:0.5 28:0.04 29:0 30:0 31:0 32:0.01 
0.011820954647734276 0:27 1:1 2:0 3:0 4:0 5:1 6:1 7:0 8:209 9:0 10:1 11:0 12:0 13:0 14:1 15:1 16:1 17:1 18:0 19:0 20:1 21:0 22:0 23:7 24:255 25:1 26:0 27:0.14 28:0.04 29:0.14 30:0.01 31:0 32:0.01 
0.01074182864069894 0:0 1:1 2:0 3:0 4:0 5:1 6:0 7:1 8:288 9:958 10:1 11:0 12:0 13:0 14:3 15:13 16:0 17:0 18:0 19:0 20:1 21:0 22:0.15 23:3 24:208 25:1 26:0 27:0.33 28:0.01 29:0 30:0.01 31:0 32:0.01 
0.0079953192826825153 0:0 1:1 2:0 3:0 4:0 5:1 6:0 7:1 8:302 9:185 10:1 11:0 12:0 13:0 14:3 15:15 16:0 17:0 18:0 19:0 20:1 21:0 22:0.27 23:242 24:255 25:1 26:0 27:0 28:0.01 29:0 30:0 31:0.01 32:0.01 
0.010541503259092939 0:0 1:1 2:0 3:0 4:0 5:1 6:0 7:1 8:296 9:3007 10:1 11:0 12:0 13:0 14:5 15:5 16:0 17:0 18:0 19:0 20:1 21:0 22:0 23:62 24:255 25:1 26:0 27:0.02 28:0.03 29:0 30:0 31:0.02 32:0.01 
0.010956069240124686 0:0 1:1 2:0 3:0 4:0 5:1 6:0 7:1 8:165 9:2472 10:1 11:0 12:0 13:0 14:3 15:3 16:0 17:0 18:0 19:0 20:1 21:0 22:0 23:18 24:255 25:1 26:0 27:0.06 28:0.04 29:0 30:0 31:0 32:0.01 
0.01083989529495917 0:0 1:1 2:0 3:0 4:0 5:1 6:0 7:1 8:294 9:685 10:1 11:0 12:0 13:0 14:14 15:54 16:0 17:0 18:0 19:0 20:1 21:0 22:0.07 23:69 24:255 25:1 26:0 27:0.01 28:0.04 29:0 30:0 31:0 32:0.01 
0.010232379233127059 0:0 1:1 2:0 3:0 4:0 5:1 6:0 7:1 8:314 9:1922 10:1 11:0 12:0 13:0 14:14 15:14 16:0 17:0 18:0 19:0 20:1 21:0 22:0 23:14 24:255 25:1 26:0 27:0.07 28:0.04 29:0 30:0.01 31:0 32:0.01 
0.013045766711911766 0:0 1:1 2:0 3:0 4:0 5:1 6:0 7:1 8:230 9:1400 10:1 11:0 12:0 13:0 14:40 15:40 16:0 17:0 18:0 19:0 20:1 21:0 22:0 23:255 24:255 25:1 26:0 27:0 28:0 29:0 30:0 31:0.01 32:0.01 
0.013408921171509198 0:0 1:1 2:0 3:0 4:0 5:1 6:0 7:1 8:223 9:2936 10:1 11:0 12:0 13:0 14:6 15:6 16:0 17:0 18:0 19:0 20:1 21:0 22:0 23:214 24:255 25:1 26:0 27:0 28:0.02 29:0 30:0.01 31:0 32:0.01 
0.013854855319933152 0:0 1:1 2:0 3:0 4:0 5:1 6:0 7:1 8:210 9:11933 10:1 11:0 12:0 13:0 14:1 15:2 16:0 17:0 18:0 19:0 20:1 21:0 22:1 23:84 24:255 25:1 26:0 27:0.01 28:0.04 29:0 30:0 31:0 32:0.01 
0.010654897363204546 0:0 1:1 2:0 3:0 4:0 5:1 6:0 7:1 8:222 9:304 10:1 11:0 12:0 13:0 14:9 15:10 16:0 17:0 18:0 19:0 20:1 21:0 22:0.2 23:115 24:165 25:1 26:0 27:0.01 28:0.02 29:0 30:0 31:0 32:0.01 
0.013679579062341801 0:0 1:1 2:0 3:0 4:0 5:1 6:0 7:1 8:213 9:7669 10:1 11:0 12:0 13:0 14:3 15:3 16:0 17:0 18:0 19:0 20:1 21:0 22:0 23:255 24:255 25:1 26:0 27:0 28:0 29:0 30:0 31:0.01 32:0.01 
0.013379209410620117 0:0 1:1 2:0 3:0 4:0 5:1 6:0 7:1 8:320 9:429 10:1 11:0 12:0 13:0 14:5 15:5 16:0 17:0 18:0 19:0 20:1 21:0 22:0 23:68 24:141 25:1 26:0 27:0.01 28:0.06 29:0 30:0 31:0 32:0.01 
0.010928215622231438 0:0 1:1 2:0 3:0 4:0 5:1 6:0 7:1 8:211 9:7628 10:1 11:0 12:0 13:0 14:3 15:3 16:0 17:0 18:0 19:0 20:1 21:0 22:0 23:41 24:255 25:1 26:0 27:0.02 28:0.05 29:0 30:0.01 31:0.02 32:0.01 
0.013439147080309658 0:0 1:1 2:0 3:0 4:0 5:1 6:0 7:1 8:331 9:10578 10:1 11:0 12:0 13:0 14:2 15:7 16:0 17:0 18:0 19:0 20:1 21:0 22:0.29 23:10 24:255 25:1 26:0 27:0.1 28:0.06 29:0 30:0.01 31:0 32:0.01 
0.013271234620800819 0:0 1:1 2:0 3:0 4:0 5:1 6:0 7:1 8:347 9:3928 10:1 11:0 12:0 13:0 14:7 15:7 16:0 17:0 18:0 19:0 20:1 21:0 22:0 23:175 24:183 25:1 26:0 27:0.01 28:0.01 29:0.01 30:0.01 31:0.01 32:0.01 
0.0081647273551481887 0:0 1:1 2:0 3:0 4:0 5:1 6:0 7:1 8:284 9:406 10:1 11:0 12:0 13:0 14:1 15:24 16:0 17:0 18:0 19:0 20:1 21:0 22:0.08 23:3 24:255 25:1 26:0 27:0.33 28:0.06 29:0.33 30:0.01 31:0 32:0.01 
0.0021751219794983881 0:0 1:1 2:0 3:0 4:0 5:1 6:0 7:1 8:289 9:55 10:1 11:0 12:0 13:0 14:3 15:6 16:0 17:0 18:0 19:0 20:1 21:0 22:0.33 23:130 24:255 25:1 26:0 27:0.01 28:0.01 29:0.02 30:0.01 31:0.02 32:0.01 
0.013393713935919628 0:0 1:1 2:0 3:0 4:0 5:1 6:0 7:1 8:213 9:10194 10:1 11:0 12:0 13:0 14:3 15:3 16:0 17:0 18:0 19:0 20:1 21:0 22:0 23:8 24:255 25:1 26:0 27:0.12 28:0.05 29:0 30:0 31:0 32:0.01 
0.011550357834843299 0:0 1:1 2:0 3:0 4:0 5:1 6:0 7:1 8:238 9:1535 10:1 11:0 12:0 13:0 14:23 15:25 16:0 17:0 18:0 19:0 20:1 21:0 22:0.08 23:181 24:255 25:1 26:0 27:0.01 28:0.02 29:0 30:0 31:0.02 32:0.01 
0.012552501854058231 0:0 1:1 2:0 3:0 4:0 5:1 6:0 7:1 8:316 9:4640 10:1 11:0 12:0 13:0 14:21 15:21 16:0 17:0 18:0 19:0 20:1 21:0 22:0 23:43 24:255 25:1 26:0 27:0.02 28:0.01 29:0 30:0 31:0 32:0.01 
0.010989719258241763 0:0 1:1 2:0 3:0 4:0 5:1 6:0 7:1 8:221 9:2574 10:1 11:0 12:0 13:0 14:3 15:23 16:0 17:0 18:0 19:0 20:1 21:0 22:0.09 23:30 24:255 25:1 26:0 27:0.03 28:0.01 29:0 30:0 31:0.07 32:0.01 
0.010667713478500197 0:0 1:1 2:0 3:0 4:0 5:1 6:0 7:1 8:239 9:1345 10:1 11:0 12:0 13:0 14:2 15:2 16:0 17:0 18:0 19:0 20:1 21:0 22:0 23:77 24:255 25:1 26:0 27:0.01 28:0.03 29:0 30:0 31:0.01 32:0.01 
0.013269740085243351 0:1 1:1 2:0 3:0 4:1 5:0 6:0 7:1 8:968 9:370 10:1 11:0 12:0 13:0 14:1 15:2 16:0 17:0 18:0 19:0 20:1 21:0 22:1 23:36 24:167 25:0.64 26:0.08 27:0.03 28:0.02 29:0 30:0.02 31:0 32:0.01 
0.013084986651274378 0:0 1:1 2:0 3:0 4:0 5:1 6:0 7:1 8:282 9:18884 10:1 11:0 12:0 13:0 14:7 15:21 16:0 17:0 18:0 19:0 20:1 21:0 22:0.1 23:7 24:212 25:1 26:0 27:0.14 28:0.01 29:0 30:0.01 31:0 32:0.01 
0.010589250996962599 0:0 1:1 2:0 3:0 4:1 5:0 6:0 7:1 8:1960 9:366 10:1 11:0 12:0 13:0 14:1 15:1 16:0 17:0 18:0 19:0 20:1 21:0 22:0 23:231 24:182 25:0.75 26:0.02 27:0 28:0.01 29:0 30:0 31:0 32:0.01 
0.0096227388144853772 0:0 1:1 2:0 3:0 4:0 5:1 6:0 7:1 8:304 9:53 10:1 11:0 12:0 13:0 14:1 15:3 16:0 17:0.33 18:0 19:0 20:1 21:0 22:0.67 23:121 24:255 25:1 26:0 27:0.01 28:0.01 29:0.02 30:0.01 31:0.02 32:0.01 
0.013473164324012689 0:0 1:1 2:0 3:0 4:0 5:1 6:0 7:1 8:312 9:581 10:1 11:0 12:0 13:0 14:11 15:12 16:0 17:0 18:0 19:0 20:1 21:0 22:0.17 23:56 24:106 25:1 26:0 27:0.02 28:0.03 29:0 30:0 31:0 32:0.01 
0.010239658057859462 0:0 1:1 2:0 3:0 4:1 5:0 6:0 7:1 8:850 9:332 10:1 11:0 12:0 13:0 14:1 15:4 16:0 17:0 18:0 19:0 20:1 21:0 22:1 23:12 24:174 25:0.5 26:0.25 27:0.08 28:0.01 29:0 30:0 31:0 32:0.01 
0.013145045936854271 0:0 1:1 2:0 3:0 4:0 5:1 6:0 7:1 8:316 9:7853 10:1 11:0 12:0 13:0 14:1 15:4 16:0 17:0 18:0 19:0 20:1 21:0 22:1 23:28 24:255 25:1 26:0 27:0.04 28:0.03 29:0 30:0.01 31:0 32:0.01 
0.0094677473755217859 0:0 1:1 2:0 3:0 4:0 5:1 6:0 7:1 8:192 9:398 10:1 11:0 12:0 13:0 14:19 15:41 16:0 17:0 18:0.05 19:0.02 20:1 21:0 22:0.07 23:54 24:255 25:1 26:0 27:0.02 28:0.04 29:0 30:0.01 31:0.02 32:0.01 
0.013587921534490186 0:0 1:1 2:0 3:0 4:0 5:1 6:0 7:1 8:226 9:18108 10:1 11:0 12:0 13:0 14:51 15:55 16:0 17:0 18:0 19:0 20:1 21:0 22:0.07 23:255 24:255 25:1 26:0 27:0 28:0 29:0 30:0 31:0.01 32:0.01 
0.011042064145507423 0:0 1:1 2:0 3:0 4:0 5:1 6:0 7:1 8:334 9:280 10:1 11:0 12:0 13:0 14:6 15:6 16:0 17:0 18:0 19:0 20:1 21:0 22:0 23:174 24:255 25:1 26:0 27:0.01 28:0.02 29:0.01 30:0 31:0.01 32:0.01 
0.0032613457316270234 0:0 1:1 2:0 3:0 4:0 5:1 6:0 7:1 8:222 9:648 10:1 11:0 12:0 13:0 14:5 15:5 16:0 17:0 18:0 19:0 20:1 21:0 22:0 23:130 24:255 25:1 26:0 27:0.01 28:0.03 29:0 30:0 31:0 32:0.01 
0.01063469192515186 0:0 1:1 2:0 3:0 4:0 5:1 6:0 7:1 8:325 9:870 10:1 11:0 12:0 13:0 14:12 15:12 16:0 17:0 18:0 19:0 20:1 21:0 22:0 23:200 24:255 25:1 26:0 27:0 28:0.01 29:0 30:0 31:0 32:0.01 
0.013403429328853644 0:0 1:1 2:0 3:0 4:0 5:1 6:0 7:1 8:222 9:25804 10:1 11:0 12:0 13:0 14:44 15:44 16:0 17:0 18:0.02 19:0.02 20:1 21:0 22:0 23:93 24:255 25:1 26:0 27:0.02 28:0.03 29:0 30:0 31:0.01 32:0.01 
0.0056306785214914968 0:11 1:1 2:0 3:0 4:1 5:0 6:0 7:1 8:2063 9:334 10:1 11:0 12:0 13:0 14:1 15:5 16:0 17:0 18:0 19:0 20:1 21:0 22:1 23:234 24:144 25:0.62 26:0.02 27:0 28:0 29:0 30:0 31:0.01 32:0.01 
0.013615466169374375 0:0 1:1 2:0 3:0 4:0 5:1 6:0 7:1 8:214 9:10360 10:1 11:0 12:0 13:0 14:2 15:27 16:0 17:0 18:0 19:0 20:1 21:0 22:0.11 23:43 24:254 25:1 26:0 27:0.02 28:0.03 29:0 30:0 31:0 32:0.01 
0.012922338286834964 0:0 1:1 2:0 3:0 4:0 5:1 6:0 7:1 8:243 9:3446 10:1 11:0 12:0 13:0 14:9 15:9 16:0 17:0 18:0 19:0 20:1 21:0 22:0 23:255 24:255 25:1 26:0 27:0 28:0 29:0 30:0 31:0.01 32:0.01 
0.0067369203473494283 0:0 1:1 2:0 3:0 4:0 5:1 6:0 7:1 8:305 9:2507 10:1 11:0 12:0 13:0 14:5 15:5 16:0 17:0 18:0 19:0 20:1 21:0 22:0 23:255 24:238 25:0.93 26:0.01 27:0 28:0 29:0 30:0 31:0.02 32:0.01 
0.013582225205378641 0:0 1:1 2:0 3:0 4:0 5:1 6:0 7:1 8:290 9:2056 10:1 11:0 12:0 13:0 14:20 15:20 16:0 17:0 18:0 19:0 20:1 21:0 22:0 23:168 24:255 25:1 26:0 27:0.01 28:0.01 29:0 30:0 31:0.01 32:0.01 
0.0028515887818193258 0:0 1:1 2:0 3:0 4:0 5:1 6:0 7:1 8:348 9:350 10:1 11:0 12:0 13:0 14:22 15:22 16:0 17:0 18:0 19:0 20:1 21:0 22:0 23:231 24:255 25:1 26:0 27:0 28:0.01 29:0 30:0 31:0 32:0.01 
0.0061419931569780418 0:0 1:1 2:0 3:0 4:0 5:1 6:0 7:1 8:313 9:1553 10:1 11:0 12:0 13:0 14:18 15:18 16:0 17:0 18:0 19:0 20:1 21:0 22:0 23:255 24:255 25:1 26:0 27:0 28:0 29:0 30:0 31:0.01 32:0.01 
0.008800774654452035 0:0 1:1 2:0 3:0 4:0 5:1 6:0 7:1 8:313 9:379 10:1 11:0 12:0 13:0 14:10 15:17 16:0 17:0 18:0 19:0 20:1 21:0 22:0.12 23:255 24:255 25:1 26:0 27:0 28:0 29:0 30:0 31:0.01 32:0.01 
0.013405424974075235 0:0 1:1 2:0 3:0 4:0 5:1 6:0 7:1 8:310 9:3368 10:1 11:0 12:0 13:0 14:22 15:22 16:0 17:0 18:0 19:0 20:1 21:0 22:0 23:87 24:255 25:1 26:0 27:0.01 28:0.01 29:0 30:0 31:0.02 32:0.01 
0.0066863114075417845 0:0 1:1 2:0 3:0 4:0 5:1 6:0 7:1 8:280 9:228 10:1 11:0 12:0 13:0 14:3 15:3 16:0 17:0 18:0 19:0 20:1 21:0 22:0 23:3 24:255 25:1 26:0 27:0.33 28:0.02 29:0 30:0 31:0 32:0.01 
0.010195616836673362 0:0 1:1 2:0 3:0 4:0 5:1 6:0 7:1 8:204 9:255 10:1 11:0 12:0 13:0 14:6 15:6 16:0 17:0 18:0 19:0 20:1 21:0 22:0 23:6 24:255 25:1 26:0 27:0.17 28:0.04 29:0 30:0.01 31:0 32:0.01 
0.012663936717916831 0:0 1:1 2:0 3:0 4:0 5:1 6:0 7:1 8:313 9:17 10:1 11:0 12:0 13:0 14:1 15:1 16:0 17:0 18:0 19:0 20:1 21:0 22:0 23:3 24:255 25:1 26:0 27:0.33 28:0.03 29:0 30:0 31:0 32:0.01 
0.010897392057900052 0:0 1:1 2:0 3:0 4:1 5:0 6:0 7:1 8:750 9:331 10:1 11:0 12:0 13:0 14:1 15:1 16:0 17:0 18:0 19:0 20:1 21:0 22:0 23:93 24:176 25:0.73 26:0.03 27:0.01 28:0.02 29:0 30:0.03 31:0 32:0.01 
0.011814929370785116 0:0 1:1 2:0 3:0 4:0 5:1 6:0 7:1 8:205 9:4317 10:1 11:0 12:0 13:0 14:1 15:3 16:0 17:0 18:0 19:0 20:1 21:0 22:1 23:43 24:255 25:1 26:0 27:0.02 28:0.02 29:0 30:0 31:0 32:0.01 
0.012111486023230044 0:0 1:1 2:0 3:0 4:0 5:1 6:0 7:1 8:265 9:178 10:1 11:0 12:0 13:0 14:1 15:1 16:0 17:0 18:0 19:0 20:1 21:0 22:0 23:139 24:255 25:1 26:0 27:0.01 28:0.03 29:0.01 30:0.01 31:0.01 32:0.01 
0.011689086009129736 0:0 1:1 2:0 3:0 4:0 5:1 6:0 7:1 8:226 9:4368 10:1 11:0 12:0 13:0 14:4 15:4 16:0 17:0 18:0 19:0 20:1 21:0 22:0 23:119 24:255 25:1 26:0 27:0.01 28:0.04 29:0 30:0 31:0 32:0.01 
0.011889491768110848 0:0 1:1 2:0 3:0 4:0 5:1 6:0 7:1 8:211 9:3485 10:1 11:0 12:0 13:0 14:8 15:16 16:0 17:0 18:0 19:0 20:1 21:0 22:0.19 23:78 24:255 25:1 26:0 27:0.01 28:0.02 29:0 30:0 31:0.01 32:0.01 
0.013461677921308949 0:1 1:1 2:0 3:0 4:1 5:0 6:0 7:1 8:1085 9:345 10:1 11:0 12:0 13:0 14:1 15:3 16:0 17:0 18:0 19:0 20:1 21:0 22:1 23:196 24:119 25:0.61 26:0.03 27:0.01 28:0 29:0 30:0 31:0.01 32:0.01 
0.012690987828419115 0:0 1:1 2:0 3:0 4:0 5:1 6:0 7:1 8:305 9:1211 10:1 11:0 12:0 13:0 14:2 15:2 16:0 17:0 18:0 19:0 20:1 21:0 22:0 23:117 24:255 25:1 26:0 27:0.01 28:0.03 29:0 30:0 31:0 32:0.01 
0.013391736389889282 0:0 1:1 2:0 3:0 4:0 5:1 6:0 7:1 8:177 9:14235 10:1 11:0 12:0 13:0 14:1 15:4 16:0 17:0.25 18:0 19:0 20:1 21:0 22:0.75 23:120 24:170 25:1 26:0 27:0.01 28:0.02 29:0 30:0 31:0 32:0.01 
0.011058750299732807 0:0 1:1 2:0 3:0 4:0 5:1 6:0 7:1 8:202 9:4774 10:1 11:0 12:0 13:0 14:4 15:17 16:0 17:0 18:0 19:0 20:1 21:0 22:0.12 23:5 24:255 25:1 26:0 27:0.2 28:0.01 29:0 30:0 31:0.2 32:0.01 
0.010142075230530897 0:0 1:1 2:0 3:0 4:0 5:1 6:0 7:1 8:161 9:481 10:1 11:0 12:0 13:0 14:1 15:4 16:0 17:0 18:0 19:0 20:1 21:0 22:0.5 23:2 24:255 25:1 26:0 27:0.5 28:0.09 29:0 30:0.01 31:0 32:0.01 
0.0035405802144972765 0:0 1:1 2:0 3:0 4:0 5:1 6:0 7:1 8:220 9:457 10:1 11:0 12:0 13:0 14:4 15:8 16:0 17:0 18:0 19:0 20:1 21:0 22:0.25 23:154 24:255 25:1 26:0 27:0.01 28:0.05 29:0 30:0 31:0.01 32:0.01 
0.0064750723553234643 0:0 1:1 2:0 3:0 4:0 5:1 6:0 7:1 8:229 9:1620 10:1 11:0 12:0 13:0 14:5 15:8 16:0 17:0 18:0 19:0 20:1 21:0 22:0.38 23:28 24:255 25:1 26:0 27:0.04 28:0.04 29:0 30:0 31:0 32:0.01 
0.012569171551618245 0:0 1:1 2:0 3:0 4:0 5:1 6:0 7:1 8:312 9:188 10:1 11:0 12:0 13:0 14:1 15:3 16:0 17:0 18:0 19:0 20:1 21:0 22:1 23:82 24:255 25:1 26:0 27:0.01 28:0.03 29:0 30:0.01 31:0.01 32:0.01 
0.0065195164750661023 0:0 1:1 2:0 3:0 4:1 5:0 6:0 7:1 8:797 9:329 10:1 11:0 12:0 13:0 14:2 15:3 16:0 17:0 18:0 19:0 20:0.5 21:1 22:1 23:255 24:138 25:0.54 26:0.03 27:0 28:0 29:0.01 30:0.02 31:0 32:0.01 
0.013004686873947985 0:0 1:1 2:0 3:0 4:0 5:1 6:0 7:1 8:167 9:10912 10:1 11:0 12:0 13:0 14:1 15:2 16:0 17:0 18:0 19:0 20:1 21:0 22:1 23:5 24:255 25:1 26:0 27:0.2 28:0.04 29:0 30:0 31:0 32:0.01 
0.012415945474171982 0:0 1:1 2:0 3:0 4:0 5:1 6:0 7:1 8:229 9:2099 10:1 11:0 12:0 13:0 14:12 15:46 16:0 17:0 18:0 19:0 20:1 21:0 22:0.04 23:50 24:255 25:1 26:0 27:0.02 28:0.04 29:0 30:0 31:0 32:0.01 
0.013035509219468271 0:0 1:1 2:0 3:0 4:1 5:0 6:0 7:1 8:1424 9:329 10:1 11:0 12:0 13:0 14:1 15:1 16:0 17:0 18:0 19:0 20:1 21:0 22:0 23:102 24:136 25:0.45 26:0.04 27:0.01 28:0.01 29:0 30:0 31:0 32:0.01 
0.0089846230603906965 0:0 1:1 2:0 3:0 4:0 5:1 6:0 7:1 8:287 9:473 10:1 11:0 12:0 13:0 14:4 15:23 16:0 17:0 18:0 19:0 20:1 21:0 22:0.17 23:59 24:255 25:1 26:0 27:0.02 28:0.04 29:0 30:0 31:0.02 32:0.01 
0.013407109250121969 0:0 1:1 2:0 3:0 4:0 5:1 6:0 7:1 8:295 9:16850 10:1 11:0 12:0 13:0 14:6 15:6 16:0 17:0 18:0 19:0 20:1 21:0 22:0 23:6 24:255 25:1 26:0 27:0.17 28:0.04 29:0 30:0 31:0 32:0.01 
0.010586399955850433 0:0 1:1 2:0 3:0 4:0 5:1 6:0 7:1 8:214 9:8023 10:1 11:0 12:0 13:0 14:22 15:22 16:0 17:0 18:0 19:0 20:1 21:0 22:0 23:39 24:255 25:1 26:0 27:0.03 28:0.02 29:0 30:0 31:0 32:0.01 
0.0097771311371489429 0:0 1:1 2:0 3:0 4:0 5:1 6:0 7:1 8:248 9:336 10:1 11:0 12:0 13:0 14:13 15:14 16:0 17:0 18:0 19:0 20:1 21:0 22:0.14 23:255 24:255 25:1 26:0 27:0 28:0 29:0 30:0 31:0.01 32:0.01 
0.012100956492190659 0:0 1:1 2:0 3:0 4:0 5:1 6:0 7:1 8:253 9:2912 10:1 11:0 12:0 13:0 14:1 15:1 16:0 17:0 18:0 19:0 20:1 21:0 22:0 23:74 24:255 25:1 26:0 27:0.01 28:0.01 29:0 30:0 31:0 32:0.01 
0.0082605834409728348 0:0 1:1 2:0 3:0 4:0 5:1 6:0 7:1 8:221 9:1585 10:1 11:0 12:0 13:0 14:1 15:11 16:0 17:0 18:0 19:0 20:1 21:0 22:0.36 23:255 24:255 25:1 26:0 27:0 28:0 29:0 30:0 31:0.01 32:0.01 
0.0084052445585239867 0:0 1:1 2:0 3:0 4:0 5:1 6:0 7:1 8:243 9:828 10:1 11:0 12:0 13:0 14:2 15:4 16:0 17:0 18:0 19:0 20:1 21:0 22:0.5 23:31 24:255 25:1 26:0 27:0.03 28:0.05 29:0 30:0 31:0 32:0.01 
0.0038286047692686381 0:0 1:1 2:0 3:0 4:0 5:1 6:0 7:1 8:216 9:342 10:1 11:0 12:0 13:0 14:2 15:12 16:0 17:0 18:0 19:0 20:1 21:0 22:0.33 23:71 24:255 25:1 26:0 27:0.01 28:0.01 29:0 30:0 31:0 32:0.01 
0.0097040507487169241 0:0 1:1 2:0 3:0 4:0 5:1 6:0 7:1 8:210 9:392 10:1 11:0 12:0 13:0 14:5 15:5 16:0 17:0 18:0 19:0 20:1 21:0 22:0 23:137 24:255 25:1 26:0 27:0.01 28:0.04 29:0 30:0 31:0 32:0.01 
0.0084672417935908427 0:0 1:1 2:0 3:0 4:0 5:1 6:0 7:1 8:228 9:1452 10:1 11:0 12:0 13:0 14:10 15:10 16:0 17:0 18:0 19:0 20:1 21:0 22:0 23:148 24:255 25:1 26:0 27:0.01 28:0.04 29:0 30:0 31:0.01 32:0.01 
0.0090036375951058796 0:0 1:1 2:0 3:0 4:1 5:0 6:0 7:1 8:1244 9:331 10:1 11:0 12:0 13:0 14:1 15:1 16:0 17:0 18:0 19:0 20:1 21:0 22:0 23:81 24:168 25:0.46 26:0.04 27:0.01 28:0.02 29:0 30:0.02 31:0 32:0.01 
0.013002974784477457 0:0 1:1 2:0 3:0 4:0 5:1 6:0 7:1 8:219 9:2917 10:1 11:0 12:0 13:0 14:5 15:7 16:0.2 17:0.29 18:0 19:0 20:1 21:0 22:0.29 23:17 24:136 25:1 26:0 27:0.06 28:0.06 29:0.06 30:0.01 31:0 32:0.01 
0.012800166993693287 0:0 1:1 2:0 3:0 4:0 5:1 6:0 7:1 8:314 9:646 10:1 11:0 12:0 13:0 14:22 15:23 16:0 17:0 18:0 19:0 20:1 21:0 22:0.09 23:221 24:255 25:1 26:0 27:0 28:0.01 29:0 30:0 31:0 32:0.01 
0.011089196717856671 0:0 1:1 2:0 3:0 4:0 5:1 6:0 7:1 8:221 9:2251 10:1 11:0 12:0 13:0 14:12 15:12 16:0 17:0 18:0 19:0 20:1 21:0 22:0 23:21 24:255 25:1 26:0 27:0.05 28:0.03 29:0 30:0 31:0.05 32:0.01 
0.011299882738270088 0:0 1:1 2:0 3:0 4:0 5:1 6:0 7:1 8:305 9:594 10:1 11:0 12:0 13:0 14:25 15:46 16:0.04 17:0.07 18:0 19:0 20:1 21:0 22:0.07 23:191 24:255 25:1 26:0 27:0.01 28:0.02 29:0.01 30:0.01 31:0.01 32:0.01 
0.01341463620203974 0:0 1:1 2:0 3:0 4:0 5:1 6:0 7:1 8:292 9:11619 10:1 11:0 12:0 13:0 14:3 15:3 16:0 17:0 18:0 19:0 20:1 21:0 22:0 23:118 24:255 25:1 26:0 27:0.01 28:0.03 29:0 30:0 31:0 32:0.01 
0.010769322126927277 0:0 1:1 2:0 3:0 4:0 5:1 6:0 7:1 8:215 9:775 10:1 11:0 12:0 13:0 14:2 15:7 16:0 17:0 18:0 19:0 20:1 21:0 22:0.29 23:2 24:214 25:1 26:0 27:0.5 28:0.01 29:0 30:0 31:0 32:0.01 
0.0090750807610878309 0:0 1:1 2:0 3:0 4:0 5:1 6:0 7:1 8:198 9:1307 10:1 11:0 12:0 13:0 14:5 15:5 16:0 17:0 18:0 19:0 20:1 21:0 22:0 23:128 24:255 25:1 26:0 27:0.01 28:0.02 29:0 30:0 31:0.02 32:0.01 
0.012745871844285703 0:0 1:1 2:0 3:0 4:0 5:1 6:0 7:1 8:174 9:2175 10:1 11:0 12:0 13:0 14:17 15:17 16:0 17:0 18:0 19:0 20:1 21:0 22:0 23:17 24:255 25:1 26:0 27:0.06 28:0.02 29:0 30:0 31:0 32:0.01 
0.0095479512379002818 0:0 1:1 2:0 3:0 4:0 5:1 6:0 7:1 8:198 9:27266 10:1 11:0 12:0 13:0 14:1 15:1 16:0 17:0 18:0 19:0 20:1 21:0 22:0 23:75 24:255 25:1 26:0 27:0.01 28:0.03 29:0.01 30:0 31:0.01 32:0.01 
0.003982931224404975 0:0 1:1 2:0 3:0 4:0 5:1 6:0 7:1 8:211 9:760 10:1 11:0 12:0 13:0 14:12 15:21 16:0.25 17:0.24 18:0 19:0 20:1 21:0 22:0.19 23:29 24:255 25:1 26:0 27:0.03 28:0.02 29:0.07 30:0.01 31:0 32:0.01 
0.0088176606516174039 0:0 1:1 2:0 3:0 4:0 5:1 6:0 7:1 8:196 9:12954 10:1 11:0 12:0 13:0 14:23 15:23 16:0 17:0 18:0 19:0 20:1 21:0 22:0 23:46 24:255 25:1 26:0 27:0.02 28:0.03 29:0 30:0 31:0 32:0.01 
0.013404957927096298 0:0 1:1 2:0 3:0 4:0 5:1 6:0 7:1 8:228 9:955 10:1 11:0 12:0 13:0 14:15 15:17 16:0 17:0 18:0 19:0 20:1 21:0 22:0.12 23:173 24:255 25:1 26:0 27:0.01 28:0.02 29:0 30:0 31:0.02 32:0.01 
0.0038138266456459909 0:0 1:1 2:0 3:0 4:0 5:1 6:0 7:1 8:303 9:839 10:1 11:0 12:0 13:0 14:9 15:10 16:0 17:0 18:0 19:0 20:1 21:0 22:0.2 23:245 24:255 25:1 26:0 27:0 28:0.01 29:0 30:0 31:0.01 32:0.01 
0.013415837159546876 0:0 1:1 2:0 3:0 4:1 5:0 6:0 7:1 8:605 9:334 10:1 11:0 12:0 13:0 14:1 15:1 16:0 17:0 18:0 19:0 20:1 21:0 22:0 23:252 24:135 25:0.54 26:0.03 27:0 28:0 29:0.01 30:0.02 31:0 32:0.01 
0.013883907967668261 0:0 1:1 2:0 3:0 4:0 5:1 6:0 7:1 8:213 9:4556 10:1 11:0 12:0 13:0 14:10 15:10 16:0 17:0 18:0 19:0 20:1 21:0 22:0 23:255 24:255 25:1 26:0 27:0 28:0 29:0 30:0 31:0.01 32:0.01 
0.013716599222974919 0:0 1:1 2:0 3:0 4:0 5:1 6:0 7:1 8:334 9:13380 10:1 11:0 12:0 13:0 14:1 15:1 16:0 17:0 18:0 19:0 20:1 21:0 22:0 23:82 24:255 25:1 26:0 27:0.01 28:0.01 29:0 30:0 31:0.01 32:0.01 
0.0081314680316101097 0:0 1:1 2:0 3:0 4:0 5:1 6:0 7:1 8:214 9:3041 10:1 11:0 12:0 13:0 14:8 15:8 16:0 17:0 18:0 19:0 20:1 21:0 22:0 23:25 24:251 25:1 26:0 27:0.04 28:0.02 29:0 30:0 31:0 32:0.01 
0.011934263041843571 0:0 1:1 2:0 3:0 4:1 5:0 6:0 7:1 8:1353 9:334 10:1 11:0 12:0 13:0 14:1 15:1 16:0 17:0 18:0 19:0 20:1 21:0 22:0 23:124 24:136 25:0.54 26:0.03 27:0.01 28:0.01 29:0 30:0 31:0 32:0.01 
0.0093066770934410216 0:0 1:1 2:0 3:0 4:0 5:1 6:0 7:1 8:289 9:468 10:1 11:0 12:0 13:0 14:3 15:4 16:0 17:0 18:0 19:0 20:1 21:0 22:0.5 23:99 24:255 25:1 26:0 27:0.01 28:0.02 29:0.01 30:0.01 31:0 32:0.01 
0.0077757433794776358 0:0 1:1 2:0 3:0 4:0 5:1 6:0 7:1 8:375 9:327 10:1 11:0 12:0 13:0 14:2 15:14 16:0 17:0 18:0 19:0 20:1 21:0 22:0.21 23:250 24:255 25:1 26:0 27:0 28:0.01 29:0 30:0 31:0.01 32:0.01 
0.010195225620152399 0:0 1:1 2:0 3:0 4:0 5:1 6:0 7:1 8:241 9:1512 10:1 11:0 12:0 13:0 14:2 15:2 16:0 17:0 18:0 19:0 20:1 21:0 22:0 23:255 24:255 25:1 26:0 27:0 28:0 29:0 30:0 31:0.01 32:0.01 
0.0077690656350070291 0:0 1:1 2:0 3:0 4:0 5:1 6:0 7:1 8:223 9:1190 10:1 11:0 12:0 13:0 14:7 15:11 16:0 17:0.09 18:0.14 19:0.09 20:1 21:0 22:0.36 23:109 24:255 25:1 26:0 27:0.01 28:0.01 29:0 30:0 31:0.02 32:0.01 
0.013408074005001602 0:0 1:1 2:0 3:0 4:0 5:1 6:0 7:1 8:346 9:5790 10:1 11:0 12:0 13:0 14:7 15:10 16:0 17:0 18:0 19:0 20:1 21:0 22:0.2 23:24 24:255 25:1 26:0 27:0.04 28:0.05 29:0 30:0 31:0 32:0.01 
0.013049382616887976 0:0 1:1 2:0 3:0 4:0 5:1 6:0 7:1 8:270 9:2170 10:1 11:0 12:0 13:0 14:1 15:4 16:0 17:0 18:0 19:0 20:1 21:0 22:1 23:123 24:123 25:1 26:0 27:0.01 28:0 29:0 30:0 31:0.01 32:0.01 
0.010800463905981196 0:0 1:1 2:0 3:0 4:0 5:1 6:0 7:1 8:268 9:443 10:1 11:0 12:0 13:0 14:5 15:5 16:0 17:0 18:0 19:0 20:1 21:0 22:0 23:255 24:255 25:1 26:0 27:0 28:0 29:0 30:0 31:0.01 32:0.01 
0.0088564343767079945 0:0 1:1 2:0 3:0 4:0 5:1 6:0 7:1 8:288 9:4768 10:1 11:0 12:0 13:0 14:13 15:13 16:0 17:0 18:0 19:0 20:1 21:0 22:0 23:255 24:255 25:1 26:0 27:0 28:0 29:0 30:0 31:0.01 32:0.01 
0.012090337901577423 0:0 1:1 2:0 3:0 4:0 5:1 6:0 7:1 8:344 9:4438 10:1 11:0 12:0 13:0 14:17 15:27 16:0 17:0 18:0 19:0 20:1 21:0 22:0.07 23:43 24:255 25:1 26:0 27:0.02 28:0.02 29:0 30:0 31:0 32:0.01 
0.01052269026388937 0:0 1:1 2:0 3:0 4:0 5:1 6:0 7:1 8:323 9:310 10:1 11:0 12:0 13:0 14:15 15:16 16:0 17:0 18:0 19:0 20:1 21:0 22:0.12 23:135 24:255 25:1 26:0 27:0.01 28:0.01 29:0 30:0 31:0.01 32:0.01 
0.0053247877389503429 0:0 1:1 2:0 3:0 4:0 5:1 6:0 7:1 8:200 9:759 10:1 11:0 12:0 13:0 14:3 15:7 16:0 17:0 18:0 19:0 20:1 21:0 22:0.29 23:9 24:255 25:1 26:0 27:0.11 28:0.01 29:0 30:0 31:0.11 32:0.01 
0.0136465580529494 0:0 1:1 2:0 3:0 4:1 5:0 6:0 7:1 8:709 9:332 10:1 11:0 12:0 13:0 14:1 15:1 16:0 17:0 18:0 19:0 20:1 21:0 22:0 23:241 24:127 25:0.53 26:0.03 27:0 28:0 29:0.01 30:0.02 31:0 32:0.01 
0.01340683752088706 0:0 1:1 2:0 3:0 4:0 5:1 6:0 7:1 8:252 9:12774 10:1 11:0 12:0 13:0 14:2 15:2 16:0 17:0 18:0 19:0 20:1 21:0 22:0 23:9 24:255 25:1 26:0 27:0.11 28:0.05 29:0 30:0 31:0.11 32:0.01 
0.01342738949472715 0:0 1:1 2:0 3:0 4:1 5:0 6:0 7:1 8:1688 9:335 10:1 11:0 12:0 13:0 14:1 15:3 16:0 17:0 18:0 19:0 20:1 21:0 22:1 23:255 24:153 25:0.6 26:0.03 27:0 28:0 29:0 30:0 31:0.01 32:0.01 
0.0099310520881746474 0:0 1:1 2:0 3:0 4:0 5:1 6:1 7:0 8:211 9:1460 10:1 11:0 12:0 13:0 14:3 15:4 16:0.33 17:0.25 18:0 19:0 20:1 21:0 22:0.5 23:21 24:255 25:1 26:0 27:0.05 28:0.02 29:0.05 30:0 31:0 32:0.01 
0.0064888339932675431 0:0 1:1 2:0 3:0 4:0 5:1 6:0 7:1 8:259 9:396 10:1 11:0 12:0 13:0 14:5 15:5 16:0 17:0 18:0 19:0 20:1 21:0 22:0 23:255 24:255 25:1 26:0 27:0 28:0 29:0 30:0 31:0.01 32:0.01 
0.0056073499045995318 0:0 1:1 2:0 3:0 4:0 5:1 6:0 7:1 8:222 9:1861 10:1 11:0 12:0 13:0 14:9 15:10 16:0 17:0 18:0 19:0 20:1 21:0 22:0.2 23:40 24:255 25:1 26:0 27:0.03 28:0.04 29:0 30:0 31:0 32:0.01 
0.012561837957582546 0:0 1:1 2:0 3:0 4:0 5:1 6:0 7:1 8:207 9:353 10:1 11:0 12:0 13:0 14:44 15:55 16:0 17:0 18:0 19:0 20:1 21:0 22:0.09 23:255 24:255 25:1 26:0 27:0 28:0 29:0 30:0 31:0.01 32:0.01 
0.011090622846455967 0:0 1:1 2:0 3:0 4:0 5:1 6:0 7:1 8:232 9:2022 10:1 11:0 12:0 13:0 14:21 15:21 16:0.05 17:0.05 18:0 19:0 20:1 21:0 22:0 23:21 24:255 25:1 26:0 27:0.05 28:0.05 29:0.05 30:0.01 31:0 32:0.01 
0.0079725407018964994 0:0 1:1 2:0 3:0 4:0 5:1 6:0 7:1 8:306 9:2772 10:1 11:0 12:0 13:0 14:5 15:7 16:0 17:0 18:0 19:0 20:1 21:0 22:0.43 23:221 24:255 25:1 26:0 27:0 28:0.01 29:0 30:0 31:0 32:0.01 
0.007867622004769554 0:0 1:1 2:0 3:0 4:0 5:1 6:0 7:1 8:292 9:1024 10:1 11:0 12:0 13:0 14:22 15:22 16:0 17:0 18:0 19:0 20:1 21:0 22:0 23:22 24:255 25:1 26:0 27:0.05 28:0.02 29:0 30:0 31:0 32:0.01 
0.012795547837767068 0:0 1:1 2:0 3:0 4:0 5:1 6:0 7:1 8:238 9:1587 10:1 11:0 12:0 13:0 14:5 15:5 16:0 17:0 18:0 19:0 20:1 21:0 22:0 23:196 24:255 25:1 26:0 27:0.01 28:0.01 29:0 30:0 31:0.01 32:0.01 
0.0094142620141295132 0:0 1:1 2:0 3:0 4:0 5:1 6:0 7:1 8:293 9:1676 10:1 11:0 12:0 13:0 14:6 15:6 16:0 17:0 18:0 19:0 20:1 21:0 22:0 23:26 24:255 25:1 26:0 27:0.04 28:0.02 29:0 30:0 31:0 32:0.01 
0.0068861907294868723 0:12 1:1 2:0 3:0 4:1 5:0 6:0 7:1 8:805 9:328 10:1 11:0 12:0 13:0 14:1 15:2 16:0 17:0 18:0 19:0 20:1 21:0 22:1 23:15 24:177 25:0.6 26:0.2 27:0.07 28:0.01 29:0 30:0 31:0 32:0.01 
0.0052474885280846669 0:0 1:1 2:0 3:0 4:0 5:1 6:0 7:1 8:314 9:237 10:1 11:0 12:0 13:0 14:5 15:5 16:0 17:0 18:0 19:0 20:1 21:0 22:0 23:33 24:255 25:1 26:0 27:0.03 28:0.02 29:0 30:0 31:0 32:0.01 
0.012602880964648401 0:0 1:1 2:0 3:0 4:0 5:1 6:0 7:1 8:163 9:1558 10:1 11:0 12:0 13:0 14:2 15:2 16:0 17:0 18:0 19:0 20:1 21:0 22:0 23:255 24:255 25:1 26:0 27:0 28:0 29:0 30:0 31:0.01 32:0.01 
0.013114288617183714 0:0 1:1 2:0 3:0 4:0 5:1 6:0 7:1 8:258 9:1887 10:1 11:0 12:0 13:0 14:20 15:35 16:0 17:0 18:0 19:0 20:1 21:0 22:0.09 23:102 24:255 25:1 26:0 27:0.01 28:0.02 29:0.01 30:0 31:0 32:0.01 
0.0017421739106415939 0:0 1:1 2:0 3:0 4:0 5:1 6:0 7:1 8:303 9:1694 10:1 11:0 12:0 13:0 14:5 15:5 16:0 17:0 18:0 19:0 20:1 21:0 22:0 23:255 24:255 25:1 26:0 27:0 28:0 29:0 30:0 31:0.01 32:0.01 
0.012196362265721341 0:0 1:1 2:0 3:0 4:0 5:1 6:0 7:1 8:326 9:633 10:1 11:0 12:0 13:0 14:3 15:3 16:0 17:0 18:0 19:0 20:1 21:0 22:0 23:142 24:255 25:1 26:0 27:0.01 28:0.03 29:0 30:0 31:0 32:0.01 
0.013629284193438146 0:0 1:1 2:0 3:0 4:0 5:1 6:0 7:1 8:297 9:2584 10:1 11:0 12:0 13:0 14:2 15:3 16:0 17:0 18:0 19:0 20:1 21:0 22:0.67 23:98 24:255 25:1 26:0 27:0.01 28:0.03 29:0 30:0 31:0 32:0.01 
0.011963601038274343 0:0 1:1 2:0 3:0 4:0 5:1 6:0 7:1 8:319 9:4385 10:1 11:0 12:0 13:0 14:9 15:9 16:0 17:0 18:0 19:0 20:1 21:0 22:0 23:35 24:255 25:1 26:0 27:0.03 28:0.04 29:0 30:0.01 31:0 32:0.01 
0.012663273122059839 0:0 1:1 2:0 3:0 4:0 5:1 6:0 7:1 8:239 9:607 10:1 11:0 12:0 13:0 14:11 15:11 16:0 17:0 18:0 19:0 20:1 21:0 22:0 23:151 24:255 25:1 26:0 27:0.01 28:0.03 29:0.01 30:0.01 31:0.01 32:0.01 
0.012505965490560165 0:0 1:1 2:0 3:0 4:0 5:1 6:0 7:1 8:247 9:311 10:1 11:0 12:0 13:0 14:42 15:63 16:0 17:0 18:0 19:0 20:1 21:0 22:0.03 23:255 24:255 25:1 26:0 27:0 28:0 29:0 30:0 31:0.01 32:0.01 
0.013385981600176153 0:0 1:1 2:0 3:0 4:0 5:1 6:0 7:1 8:199 9:12616 10:1 11:0 12:0 13:0 14:3 15:3 16:0 17:0 18:0 19:0 20:1 21:0 22:0 23:6 24:255 25:1 26:0 27:0.17 28:0.05 29:0 30:0 31:0 32:0.01 
0.010663489724191675 0:0 1:1 2:0 3:0 4:0 5:1 6:0 7:1 8:165 9:2472 10:1 11:0 12:0 13:0 14:1 15:1 16:0 17:0 18:0 19:0 20:1 21:0 22:0 23:57 24:255 25:1 26:0 27:0.02 28:0.04 29:0 30:0 31:0 32:0.01 
0.0064945233875140194 0:0 1:1 2:0 3:0 4:0 5:1 6:0 7:1 8:265 9:254 10:1 11:0 12:0 13:0 14:1 15:6 16:0 17:0 18:0 19:0 20:1 21:0 22:0.33 23:5 24:255 25:1 26:0 27:0.2 28:0.02 29:0 30:0 31:0 32:0.01 
0.012049621585637528 0:0 1:1 2:0 3:0 4:0 5:1 6:0 7:1 8:269 9:7634 10:1 11:0 12:0 13:0 14:4 15:6 16:0 17:0.17 18:0 19:0 20:1 21:0 22:0.33 23:33 24:255 25:1 26:0 27:0.03 28:0.03 29:0 30:0 31:0 32:0.01 
0.010130454979499305 0:0 1:1 2:0 3:0 4:0 5:1 6:0 7:1 8:324 9:1918 10:1 11:0 12:0 13:0 14:9 15:17 16:0.11 17:0.12 18:0 19:0 20:1 21:0 22:0.29 23:57 24:255 25:1 26:0 27:0.02 28:0.07 29:0.02 30:0.02 31:0 32:0.01 
0.010154367158504953 0:0 1:1 2:0 3:0 4:0 5:1 6:0 7:1 8:282 9:124 10:1 11:0 12:0 13:0 14:3 15:4 16:0 17:0 18:0 19:0 20:1 21:0 22:0.5 23:96 24:255 25:1 26:0 27:0.01 28:0.02 29:0 30:0 31:0.01 32:0.01 
0.013664413391933024 0:0 1:1 2:0 3:0 4:0 5:1 6:0 7:1 8:263 9:6318 10:1 11:0 12:0 13:0 14:3 15:7 16:0 17:0 18:0 19:0 20:1 21:0 22:0.43 23:76 24:255 25:1 26:0 27:0.01 28:0.03 29:0.01 30:0.01 31:0.01 32:0.01 
0.01334182385906665 0:0 1:1 2:0 3:0 4:0 5:1 6:0 7:1 8:284 9:2712 10:1 11:0 12:0 13:0 14:4 15:8 16:0 17:0.12 18:0 19:0 20:1 21:0 22:0.38 23:5 24:82 25:1 26:0 27:0.2 28:0.07 29:0 30:0 31:0 32:0.01 
0.0081494830463224137 0:0 1:1 2:0 3:0 4:0 5:1 6:0 7:1 8:233 9:4721 10:1 11:0 12:0 13:0 14:1 15:1 16:0 17:0 18:0 19:0 20:1 21:0 22:0 23:67 24:254 25:1 26:0 27:0.01 28:0.03 29:0 30:0 31:0 32:0.01 
0.013405626417952371 0:0 1:1 2:0 3:0 4:0 5:1 6:0 7:1 8:187 9:13920 10:1 11:0 12:0 13:0 14:3 15:3 16:0 17:0 18:0 19:0 20:1 21:0 22:0 23:6 24:255 25:1 26:0 27:0.17 28:0.05 29:0 30:0 31:0 32:0.01 
0.0098784150436762152 0:0 1:1 2:0 3:0 4:0 5:1 6:0 7:1 8:316 9:607 10:1 11:0 12:0 13:0 14:12 15:12 16:0 17:0 18:0 19:0 20:1 21:0 22:0 23:180 24:255 25:1 26:0 27:0.01 28:0.03 29:0.01 30:0.01 31:0.01 32:0.01 
0.01340211386559661 0:0 1:1 2:0 3:0 4:0 5:1 6:0 7:1 8:382 9:528 10:1 11:0 12:0 13:0 14:7 15:15 16:0.14 17:0.2 18:0 19:0 20:1 21:0 22:0.2 23:173 24:255 25:1 26:0 27:0.01 28:0.02 29:0.01 30:0.01 31:0.01 32:0.01 
0.0073835404247427593 0:0 1:1 2:0 3:0 4:0 5:1 6:0 7:1 8:235 9:411 10:1 11:0 12:0 13:0 14:22 15:22 16:0 17:0 18:0 19:0 20:1 21:0 22:0 23:25 24:255 25:1 26:0 27:0.04 28:0.04 29:0 30:0 31:0 32:0.01 
0.012524736838089405 0:0 1:1 2:0 3:0 4:0 5:1 6:0 7:1 8:305 9:1380 10:1 11:0 12:0 13:0 14:3 15:3 16:0 17:0 18:0 19:0 20:1 21:0 22:0 23:130 24:110 25:0.85 26:0.03 27:0.01 28:0 29:0.01 30:0.01 31:0.01 32:0.01 
0.0096995709015554772 0:0 1:1 2:0 3:0 4:0 5:1 6:0 7:1 8:323 9:771 10:1 11:0 12:0 13:0 14:12 15:20 16:0.08 17:0.1 18:0 19:0 20:1 21:0 22:0.25 23:60 24:255 25:1 26:0 27:0.02 28:0.07 29:0.02 30:0.02 31:0 32:0.01 
0.006886146757777001 0:0 1:1 2:0 3:0 4:0 5:1 6:0 7:1 8:194 9:616 10:1 11:0 12:0 13:0 14:14 15:15 16:0 17:0 18:0 19:0 20:1 21:0 22:0.13 23:34 24:255 25:1 26:0 27:0.03 28:0.03 29:0.03 30:0.01 31:0.06 32:0.01 
0.0044475484880934051 0:0 1:1 2:0 3:0 4:0 5:1 6:0 7:1 8:309 9:3925 10:1 11:0 12:0 13:0 14:3 15:4 16:0 17:0 18:0 19:0 20:1 21:0 22:0.5 23:134 24:255 25:1 26:0 27:0.01 28:0.03 29:0 30:0 31:0 32:0.01 
0.013413312460345952 0:0 1:1 2:0 3:0 4:0 5:1 6:0 7:1 8:330 9:6880 10:1 11:0 12:0 13:0 14:1 15:4 16:0 17:0 18:0 19:0 20:1 21:0 22:0.75 23:5 24:255 25:1 26:0 27:0.2 28:0.04 29:0 30:0 31:0 32:0.01 
0.012672774217668579 0:0 1:1 2:0 3:0 4:0 5:1 6:0 7:1 8:228 9:774 10:1 11:0 12:0 13:0 14:52 15:56 16:0 17:0 18:0 19:0 20:1 21:0 22:0.07 23:255 24:255 25:1 26:0 27:0 28:0 29:0 30:0 31:0.01 32:0.01 
0.010855004815106069 0:0 1:1 2:0 3:0 4:0 5:1 6:0 7:1 8:285 9:3400 10:1 11:0 12:0 13:0 14:17 15:22 16:0 17:0 18:0 19:0 20:1 21:0 22:0.09 23:255 24:255 25:1 26:0 27:0 28:0 29:0 30:0 31:0.01 32:0.01 
0.007831405403633019 0:0 1:1 2:0 3:0 4:0 5:1 6:0 7:1 8:265 9:558 10:1 11:0 12:0 13:0 14:4 15:4 16:0 17:0 18:0 19:0 20:1 21:0 22:0 23:255 24:255 25:1 26:0 27:0 28:0 29:0 30:0 31:0.01 32:0.01 
0.013330359485721012 0:0 1:1 2:0 3:0 4:0 5:1 6:0 7:1 8:242 9:739 10:1 11:0 12:0 13:0 14:7 15:9 16:0 17:0 18:0 19:0 20:1 21:0 22:0.22 23:165 24:255 25:1 26:0 27:0.01 28:0.02 29:0 30:0 31:0.02 32:0.01 
0.012023733108669566 0:0 1:1 2:0 3:0 4:0 5:1 6:0 7:1 8:311 9:4768 10:1 11:0 12:0 13:0 14:9 15:10 16:0 17:0 18:0 19:0 20:1 21:0 22:0.2 23:201 24:255 25:1 26:0 27:0 28:0.01 29:0 30:0 31:0.01 32:0.01 
0.0097036391735990588 0:0 1:1 2:0 3:0 4:0 5:1 6:0 7:1 8:338 9:5507 10:1 11:0 12:0 13:0 14:10 15:11 16:0 17:0 18:0 19:0 20:1 21:0 22:0.18 23:71 24:255 25:1 26:0 27:0.01 28:0.03 29:0 30:0 31:0 32:0.01 
0.012613586580495179 0:0 1:1 2:0 3:0 4:0 5:1 6:0 7:1 8:242 9:4401 10:1 11:0 12:0 13:0 14:1 15:1 16:0 17:0 18:0 19:0 20:1 21:0 22:0 23:82 24:255 25:1 26:0 27:0.01 28:0.02 29:0 30:0 31:0.01 32:0.01 
0.013587696585481179 0:0 1:1 2:0 3:0 4:0 5:1 6:0 7:1 8:144 9:31220 10:1 11:0 12:0 13:0 14:1 15:1 16:0 17:0 18:0 19:0 20:1 21:0 22:0 23:255 24:255 25:1 26:0 27:0 28:0 29:0 30:0 31:0.01 32:0.01 
0.013406187521036075 0:0 1:1 2:0 3:0 4:0 5:1 6:0 7:1 8:304 9:3227 10:1 11:0 12:0 13:0 14:11 15:35 16:0 17:0 18:0 19:0 20:1 21:0 22:0.06 23:11 24:255 25:1 26:0 27:0.09 28:0.03 29:0 30:0 31:0 32:0.01 
0.013501369384844385 0:0 1:1 2:0 3:0 4:1 5:0 6:0 7:1 8:679 9:329 10:1 11:0 12:0 13:0 14:1 15:2 16:0 17:0 18:0 19:0 20:1 21:0 22:1 23:191 24:198 25:0.81 26:0.02 27:0.01 28:0.01 29:0 30:0 31:0 32:0.01 
0.0097912609014625153 0:0 1:1 2:0 3:0 4:0 5:1 6:0 7:1 8:337 9:2214 10:1 11:0 12:0 13:0 14:3 15:9 16:0 17:0 18:0 19:0 20:1 21:0 22:0.33 23:181 24:255 25:1 26:0 27:0.01 28:0.01 29:0 30:0 31:0.01 32:0.01 
0.011650212472598037 0:0 1:1 2:0 3:0 4:0 5:1 6:0 7:1 8:235 9:1576 10:1 11:0 12:0 13:0 14:7 15:7 16:0 17:0 18:0 19:0 20:1 21:0 22:0 23:19 24:255 25:1 26:0 27:0.05 28:0.03 29:0 30:0 31:0 32:0.01 
0.013166405710075178 0:0 1:1 2:0 3:0 4:0 5:1 6:0 7:1 8:172 9:6219 10:1 11:0 12:0 13:0 14:1 15:37 16:0 17:0 18:0 19:0 20:1 21:0 22:0.08 23:97 24:255 25:1 26:0 27:0.01 28:0.03 29:0 30:0 31:0.01 32:0.01 
0.0086911673593916515 0:0 1:1 2:0 3:0 4:0 5:1 6:0 7:1 8:210 9:286 10:1 11:0 12:0 13:0 14:8 15:12 16:0 17:0 18:0.12 19:0.08 20:1 21:0 22:0.25 23:67 24:255 25:1 26:0 27:0.01 28:0.03 29:0 30:0 31:0.01 32:0.01 
0.0051219321683941719 0:0 1:1 2:0 3:0 4:0 5:1 6:0 7:1 8:306 9:1380 10:1 11:0 12:0 13:0 14:4 15:4 16:0 17:0 18:0 19:0 20:1 21:0 22:0 23:255 24:249 25:0.98 26:0.01 27:0 28:0 29:0 30:0 31:0.01 32:0.01 
0.013387072539839815 0:0 1:1 2:0 3:0 4:0 5:1 6:0 7:1 8:321 9:12615 10:1 11:0 12:0 13:0 14:31 15:31 16:0 17:0 18:0 19:0 20:1 21:0 22:0 23:255 24:255 25:1 26:0 27:0 28:0 29:0 30:0 31:0.01 32:0.01 
0.010048276207554493 0:0 1:1 2:0 3:0 4:0 5:1 6:0 7:1 8:285 9:572 10:1 11:0 12:0 13:0 14:8 15:9 16:0 17:0 18:0 19:0 20:1 21:0 22:0.22 23:49 24:255 25:1 26:0 27:0.02 28:0.05 29:0.02 30:0.01 31:0.02 32:0.01 
0.012398754376709002 0:10 1:1 2:0 3:0 4:1 5:0 6:0 7:1 8:880 9:281 10:1 11:0 12:0 13:0 14:2 15:3 16:0 17:0 18:0 19:0 20:0.5 21:1 22:1 23:247 24:131 25:0.53 26:0.03 27:0 28:0 29:0.01 30:0.02 31:0 32:0.01 
0.013594742413757866 0:0 1:1 2:0 3:0 4:0 5:1 6:0 7:1 8:235 9:12623 10:1 11:0 12:0 13:0 14:5 15:5 16:0 17:0 18:0 19:0 20:1 21:0 22:0 23:255 24:255 25:1 26:0 27:0 28:0 29:0 30:0 31:0.01 32:0.01 
0.013884529316317524 0:0 1:1 2:0 3:0 4:0 5:1 6:0 7:1 8:259 9:15860 10:1 11:0 12:0 13:0 14:4 15:14 16:0 17:0 18:0 19:0 20:1 21:0 22:0.36 23:4 24:255 25:1 26:0 27:0.25 28:0.03 29:0 30:0 31:0 32:0.01 
0.011570860963775419 0:0 1:1 2:0 3:0 4:0 5:1 6:0 7:1 8:190 9:1069 10:1 11:0 12:0 13:0 14:6 15:6 16:0 17:0 18:0 19:0 20:1 21:0 22:0 23:70 24:255 25:1 26:0 27:0.01 28:0.04 29:0 30:0 31:0 32:0.01 
0.0070120346116560352 0:0 1:1 2:0 3:0 4:0 5:1 6:0 7:1 8:283 9:557 10:1 11:0 12:0 13:0 14:16 15:20 16:0 17:0 18:0 19:0 20:1 21:0 22:0.15 23:255 24:255 25:1 26:0 27:0 28:0 29:0 30:0 31:0.01 32:0.01 
0.011308513200576039 0:0 1:1 2:0 3:0 4:0 5:1 6:0 7:1 8:254 9:2005 10:1 11:0 12:0 13:0 14:4 15:26 16:0 17:0 18:0 19:0 20:1 21:0 22:0.08 23:255 24:255 25:1 26:0 27:0 28:0 29:0 30:0 31:0.01 32:0.01 
0.012240468812954219 0:0 1:1 2:0 3:0 4:0 5:1 6:0 7:1 8:214 9:1738 10:1 11:0 12:0 13:0 14:21 15:21 16:0 17:0 18:0 19:0 20:1 21:0 22:0 23:130 24:255 25:1 26:0 27:0.01 28:0.04 29:0 30:0 31:0 32:0.01 
0.0017471997080699755 0:0 1:1 2:0 3:0 4:0 5:1 6:0 7:1 8:210 9:765 10:1 11:0 12:0 13:0 14:1 15:2 16:0 17:0 18:0 19:0 20:1 21:0 22:1 23:33 24:255 25:1 26:0 27:0.03 28:0.01 29:0 30:0 31:0.03 32:0.01 
0.0063614004483153203 0:0 1:1 2:0 3:0 4:0 5:1 6:0 7:1 8:257 9:397 10:1 11:0 12:0 13:0 14:16 15:17 16:0 17:0 18:0 19:0 20:1 21:0 22:0.12 23:65 24:255 25:1 26:0 27:0.02 28:0.02 29:0.02 30:0 31:0 32:0.01 
0.013406875944883042 0:0 1:1 2:0 3:0 4:0 5:1 6:1 7:0 8:193 9:16060 10:1 11:0 12:0 13:0 14:3 15:4 16:0.33 17:0.25 18:0 19:0 20:1 21:0 22:0.5 23:3 24:255 25:1 26:0 27:0.33 28:0.05 29:0.33 30:0 31:0 32:0.01 
0.006495735048761323 0:0 1:1 2:0 3:0 4:0 5:1 6:0 7:1 8:224 9:1329 10:1 11:0 12:0 13:0 14:4 15:4 16:0 17:0 18:0 19:0 20:1 21:0 22:0 23:29 24:255 25:1 26:0 27:0.03 28:0.06 29:0 30:0 31:0 32:0.01 
0.009478000326654263 0:0 1:1 2:0 3:0 4:0 5:1 6:0 7:1 8:219 9:1681 10:1 11:0 12:0 13:0 14:3 15:8 16:0 17:0 18:0 19:0 20:1 21:0 22:0.25 23:3 24:255 25:1 26:0 27:0.33 28:0.04 29:0 30:0 31:0 32:0.01 
0.0043299052539753011 0:0 1:1 2:0 3:0 4:0 5:1 6:0 7:1 8:221 9:482 10:1 11:0 12:0 13:0 14:7 15:9 16:0 17:0 18:0 19:0 20:1 21:0 22:0.22 23:7 24:255 25:1 26:0 27:0.14 28:0.04 29:0 30:0 31:0 32:0.01 
0.0019408479013718839 0:0 1:1 2:0 3:0 4:0 5:1 6:0 7:1 8:220 9:1849 10:1 11:0 12:0 13:0 14:16 15:16 16:0 17:0 18:0 19:0 20:1 21:0 22:0 23:16 24:255 25:1 26:0 27:0.06 28:0.02 29:0 30:0 31:0 32:0.01 
0.010041096120014231 0:0 1:1 2:0 3:0 4:0 5:1 6:0 7:1 8:227 9:8036 10:1 11:0 12:0 13:0 14:4 15:6 16:0 17:0 18:0 19:0 20:1 21:0 22:0.5 23:54 24:255 25:1 26:0 27:0.02 28:0.04 29:0 30:0 31:0 32:0.01 
0.013403524779080578 0:0 1:1 2:0 3:0 4:0 5:1 6:0 7:1 8:232 9:13603 10:1 11:0 12:0 13:0 14:1 15:5 16:0 17:0 18:0 19:0 20:1 21:0 22:1 23:147 24:147 25:1 26:0 27:0.01 28:0 29:0 30:0 31:0.01 32:0.01 
0.0037594195786953008 0:0 1:1 2:0 3:0 4:0 5:1 6:0 7:1 8:194 9:484 10:1 11:0 12:0 13:0 14:17 15:20 16:0 17:0 18:0 19:0 20:1 21:0 22:0.15 23:17 24:255 25:1 26:0 27:0.06 28:0.03 29:0 30:0 31:0 32:0.01 
0.00625210892661283 0:0 1:1 2:0 3:0 4:0 5:1 6:0 7:1 8:277 9:260 10:1 11:0 12:0 13:0 14:15 15:25 16:0 17:0 18:0 19:0 20:1 21:0 22:0.12 23:15 24:255 25:1 26:0 27:0.07 28:0.04 29:0 30:0 31:0 32:0.01 
0.0021746983719904316 0:0 1:1 2:0 3:0 4:0 5:1 6:0 7:1 8:227 9:369 10:1 11:0 12:0 13:0 14:7 15:11 16:0 17:0 18:0 19:0 20:1 21:0 22:0.18 23:163 24:255 25:1 26:0 27:0.01 28:0.04 29:0 30:0 31:0.01 32:0.01 
0.01224452454135466 0:0 1:1 2:0 3:0 4:0 5:1 6:0 7:1 8:307 9:1212 10:1 11:0 12:0 13:0 14:12 15:12 16:0 17:0 18:0 19:0 20:1 21:0 22:0 23:255 24:255 25:1 26:0 27:0 28:0 29:0 30:0 31:0.01 32:0.01 
0.010857380801667003 0:0 1:1 2:0 3:0 4:1 5:0 6:0 7:1 8:786 9:336 10:1 11:0 12:0 13:0 14:1 15:3 16:0 17:0 18:0 19:0 20:1 21:0 22:1 23:233 24:123 25:0.52 26:0.03 27:0 28:0.02 29:0.01 30:0.02 31:0 32:0.01 
0.011288907784736141 0:0 1:1 2:0 3:0 4:0 5:1 6:0 7:1 8:215 9:2746 10:1 11:0 12:0 13:0 14:14 15:14 16:0 17:0 18:0 19:0 20:1 21:0 22:0 23:37 24:255 25:1 26:0 27:0.03 28:0.02 29:0 30:0 31:0 32:0.01 
0.013655648215505203 0:0 1:1 2:0 3:0 4:0 5:1 6:0 7:1 8:276 9:5069 10:1 11:0 12:0 13:0 14:3 15:3 16:0 17:0 18:0 19:0 20:1 21:0 22:0 23:3 24:255 25:1 26:0 27:0.33 28:0.02 29:0 30:0 31:0 32:0.01 
0.009191441022922877 0:0 1:1 2:0 3:0 4:0 5:1 6:0 7:1 8:197 9:4082 10:1 11:0 12:0 13:0 14:20 15:20 16:0 17:0 18:0 19:0 20:1 21:0 22:0 23:20 24:255 25:1 26:0 27:0.05 28:0.04 29:0 30:0 31:0 32:0.01 
0.0075573435718714194 0:0 1:1 2:0 3:0 4:0 5:1 6:0 7:1 8:309 9:1643 10:1 11:0 12:0 13:0 14:2 15:3 16:0 17:0 18:0 19:0 20:1 21:0 22:0.67 23:9 24:254 25:1 26:0 27:0.11 28:0.03 29:0 30:0 31:0 32:0.01 
0.01164964462423607 0:0 1:1 2:0 3:0 4:0 5:1 6:0 7:1 8:278 9:4894 10:1 11:0 12:0 13:0 14:1 15:1 16:0 17:0 18:0 19:0 20:1 21:0 22:0 23:245 24:255 25:1 26:0 27:0.01 28:0.01 29:0 30:0 31:0.01 32:0.01 
0.013911243817077392 0:0 1:1 2:0 3:0 4:0 5:1 6:0 7:1 8:139 9:32424 10:1 11:0 12:0 13:0 14:1 15:15 16:0 17:0 18:0 19:0 20:1 21:0 22:0.13 23:255 24:255 25:1 26:0 27:0 28:0 29:0 30:0 31:0.01 32:0.01 
0.0091510542038660408 0:0 1:1 2:0 3:0 4:0 5:1 6:0 7:1 8:190 9:12948 10:1 11:0 12:0 13:0 14:4 15:4 16:0 17:0 18:0 19:0 20:1 21:0 22:0 23:56 24:255 25:1 26:0 27:0.02 28:0.01 29:0 30:0 31:0.02 32:0.01 
0.013267138255460165 0:0 1:1 2:0 3:0 4:0 5:1 6:0 7:1 8:305 9:2239 10:1 11:0 12:0 13:0 14:1 15:1 16:0 17:0 18:0 19:0 20:1 21:0 22:0 23:255 24:238 25:0.93 26:0.01 27:0 28:0 29:0 30:0 31:0.02 32:0.01 
0.0046962298983488325 0:0 1:1 2:0 3:0 4:0 5:1 6:0 7:1 8:232 9:193 10:1 11:0 12:0 13:0 14:1 15:2 16:0 17:0 18:0 19:0 20:1 21:0 22:1 23:36 24:255 25:1 26:0 27:0.03 28:0.05 29:0.03 30:0.01 31:0.03 32:0.01 
0.013410867651849696 0:0 1:1 2:0 3:0 4:1 5:0 6:0 7:1 8:2377 9:324 10:1 11:0 12:0 13:0 14:1 15:1 16:0 17:0 18:0 19:0 20:1 21:0 22:0 23:22 24:167 25:0.95 26:0.09 27:0.05 28:0.02 29:0 30:0 31:0 32:0.01 
0.010575465539416519 0:0 1:1 2:0 3:0 4:0 5:1 6:0 7:1 8:319 9:2452 10:1 11:0 12:0 13:0 14:23 15:34 16:0 17:0 18:0 19:0 20:1 21:0 22:0.15 23:255 24:255 25:1 26:0 27:0 28:0 29:0 30:0 31:0.01 32:0.01 
0.010168368381819897 0:0 1:1 2:0 3:0 4:0 5:1 6:0 7:1 8:325 9:4898 10:1 11:0 12:0 13:0 14:3 15:3 16:0 17:0 18:0 19:0 20:1 21:0 22:0 23:255 24:255 25:1 26:0 27:0 28:0 29:0 30:0 31:0.01 32:0.01 
0.013546941169047861 0:0 1:1 2:0 3:0 4:0 5:1 6:0 7:1 8:199 9:6979 10:1 11:0 12:0 13:0 14:13 15:13 16:0 17:0 18:0.08 19:0.08 20:1 21:0 22:0 23:106 24:255 25:1 26:0 27:0.01 28:0.01 29:0 30:0 31:0.02 32:0.01 
0.0021008901043039277 0:0 1:1 2:0 3:0 4:0 5:1 6:0 7:1 8:215 9:2138 10:1 11:0 12:0 13:0 14:1 15:2 16:0 17:0 18:0 19:0 20:1 21:0 22:1 23:13 24:255 25:1 26:0 27:0.08 28:0.04 29:0 30:0 31:0 32:0.01 
0.0044003548887644288 0:0 1:1 2:0 3:0 4:0 5:1 6:0 7:1 8:213 9:1217 10:1 11:0 12:0 13:0 14:8 15:8 16:0 17:0 18:0 19:0 20:1 21:0 22:0 23:8 24:255 25:1 26:0 27:0.12 28:0.06 29:0 30:0 31:0 32:0.01 
0.01340752321910807 0:0 1:1 2:0 3:0 4:0 5:1 6:0 7:1 8:177 9:3314 10:1 11:0 12:0 13:0 14:2 15:7 16:0 17:0 18:0 19:0 20:1 21:0 22:0.29 23:40 24:245 25:1 26:0 27:0.03 28:0.01 29:0 30:0.01 31:0.03 32:0.01 
0.013573999355838057 0:0 1:1 2:0 3:0 4:0 5:1 6:0 7:1 8:193 9:58410 10:1 11:0 12:0 13:0 14:2 15:2 16:0 17:0 18:0 19:0 20:1 21:0 22:0 23:10 24:255 25:1 26:0 27:0.1 28:0.04 29:0 30:0 31:0.1 32:0.01 
0.011448640964305326 0:0 1:1 2:0 3:0 4:0 5:1 6:0 7:1 8:296 9:581 10:1 11:0 12:0 13:0 14:15 15:49 16:0 17:0 18:0.07 19:0.02 20:1 21:0 22:0.1 23:45 24:255 25:1 26:0 27:0.02 28:0.01 29:0 30:0 31:0.02 32:0.01 
0.011389418966206188 0:0 1:1 2:0 3:0 4:0 5:1 6:0 7:1 8:345 9:3076 10:1 11:0 12:0 13:0 14:5 15:8 16:0 17:0 18:0 19:0 20:1 21:0 22:0.25 23:22 24:255 25:1 26:0 27:0.05 28:0.05 29:0 30:0 31:0 32:0.01 
0.012258681057590799 0:0 1:1 2:0 3:0 4:0 5:1 6:0 7:1 8:168 9:4483 10:1 11:0 12:0 13:0 14:3 15:3 16:0 17:0 18:0 19:0 20:1 21:0 22:0 23:56 24:255 25:1 26:0 27:0.02 28:0.05 29:0 30:0.01 31:0.02 32:0.01 
0.0029511766079683278 0:0 1:1 2:0 3:0 4:0 5:1 6:0 7:1 8:213 9:350 10:1 11:0 12:0 13:0 14:3 15:3 16:0.33 17:0.33 18:0 19:0 20:1 21:0 22:0 23:28 24:255 25:1 26:0 27:0.04 28:0.04 29:0.04 30:0.01 31:0 32:0.01 
0.012062857571683296 0:0 1:1 2:0 3:0 4:0 5:1 6:0 7:1 8:309 9:4622 10:1 11:0 12:0 13:0 14:25 15:28 16:0 17:0 18:0 19:0 20:1 21:0 22:0.14 23:90 24:255 25:1 26:0 27:0.01 28:0.05 29:0 30:0 31:0 32:0.01 
0.012843515080728479 0:0 1:1 2:0 3:0 4:1 5:0 6:0 7:1 8:1627 9:364 10:1 11:0 12:0 13:0 14:1 15:1 16:0 17:0 18:0 19:0 20:1 21:0 22:0 23:7 24:153 25:1 26:0 27:0.14 28:0.02 29:0 30:0 31:0 32:0.01 
0.0060270624540778141 0:0 1:1 2:0 3:0 4:0 5:1 6:0 7:1 8:227 9:1618 10:1 11:0 12:0 13:0 14:15 15:15 16:0 17:0 18:0 19:0 20:1 21:0 22:0 23:18 24:255 25:1 26:0 27:0.06 28:0.03 29:0 30:0 31:0 32:0.01 
0.011004811306629643 0:0 1:1 2:0 3:0 4:1 5:0 6:0 7:1 8:1947 9:368 10:1 11:0 12:0 13:0 14:1 15:2 16:0 17:0 18:0 19:0 20:1 21:0 22:1 23:238 24:147 25:0.62 26:0.02 27:0 28:0 29:0 30:0 31:0.01 32:0.01 
0.0084943204025788935 0:0 1:1 2:0 3:0 4:0 5:1 6:0 7:1 8:303 9:1600 10:1 11:0 12:0 13:0 14:15 15:15 16:0 17:0 18:0 19:0 20:1 21:0 22:0 23:255 24:255 25:1 26:0 27:0 28:0 29:0 30:0 31:0.01 32:0.01 
0.011281166263338445 0:0 1:1 2:0 3:0 4:0 5:1 6:0 7:1 8:348 9:2784 10:1 11:0 12:0 13:0 14:31 15:45 16:0 17:0 18:0 19:0 20:1 21:0 22:0.11 23:75 24:255 25:1 26:0 27:0.01 28:0.01 29:0 30:0 31:0 32:0.01 
0.0057122984992199937 0:0 1:1 2:0 3:0 4:0 5:1 6:0 7:1 8:221 9:321 10:1 11:0 12:0 13:0 14:2 15:2 16:0 17:0 18:0 19:0 20:1 21:0 22:0 23:2 24:255 25:1 26:0 27:0.5 28:0.04 29:0 30:0.01 31:0 32:0.01 
0.0031654910613165741 0:0 1:1 2:0 3:0 4:0 5:1 6:0 7:1 8:205 9:455 10:1 11:0 12:0 13:0 14:6 15:11 16:0 17:0 18:0 19:0 20:1 21:0 22:0.18 23:38 24:255 25:1 26:0 27:0.03 28:0.05 29:0 30:0 31:0 32:0.01 
0.0046435070605715823 0:0 1:1 2:0 3:0 4:0 5:1 6:0 7:1 8:278 9:486 10:1 11:0 12:0 13:0 14:2 15:2 16:0 17:0 18:0 19:0 20:1 21:0 22:0 23:7 24:255 25:1 26:0 27:0.14 28:0.05 29:0 30:0 31:0 32:0.01 
0.011801947748610106 0:0 1:1 2:0 3:0 4:0 5:1 6:0 7:1 8:262 9:872 10:1 11:0 12:0 13:0 14:9 15:9 16:0 17:0 18:0 19:0 20:1 21:0 22:0 23:139 24:255 25:1 26:0 27:0.01 28:0.04 29:0 30:0 31:0.01 32:0.01 
0.0061561572004441515 0:0 1:1 2:0 3:0 4:0 5:1 6:0 7:1 8:326 9:1528 10:1 11:0 12:0 13:0 14:2 15:32 16:0 17:0 18:0 19:0 20:1 21:0 22:0.06 23:255 24:255 25:1 26:0 27:0 28:0 29:0 30:0 31:0.01 32:0.01 
0.0065435530982262775 0:0 1:1 2:0 3:0 4:0 5:1 6:1 7:0 8:172 9:0 10:1 11:0 12:0 13:0 14:1 15:2 16:1 17:0.5 18:0 19:0 20:1 21:0 22:1 23:5 24:255 25:1 26:0 27:0.2 28:0.02 29:0.2 30:0.01 31:0.2 32:0.01 
0.013637380603477887 0:0 1:1 2:0 3:0 4:0 5:1 6:0 7:1 8:156 9:55 10:1 11:0 12:0 13:0 14:1 15:1 16:0 17:0 18:0 19:0 20:1 21:0 22:0 23:103 24:255 25:1 26:0 27:0.01 28:0.01 29:0 30:0 31:0.02 32:0.01 
0.013408795631126293 0:0 1:1 2:0 3:0 4:0 5:1 6:0 7:1 8:284 9:7405 10:1 11:0 12:0 13:0 14:7 15:7 16:0 17:0 18:0 19:0 20:1 21:0 22:0 23:46 24:255 25:1 26:0 27:0.02 28:0.05 29:0 30:0 31:0 32:0.01 
0.013402882256167543 0:0 1:1 2:0 3:0 4:0 5:1 6:0 7:1 8:319 9:8973 10:1 11:0 12:0 13:0 14:4 15:4 16:0 17:0 18:0 19:0 20:1 21:0 22:0 23:198 24:255 25:1 26:0 27:0.01 28:0.03 29:0 30:0 31:0.01 32:0.01 
0.013659793208619302 0:0 1:1 2:0 3:0 4:0 5:1 6:0 7:1 8:143 9:5894 10:1 11:0 12:0 13:0 14:2 15:2 16:0 17:0 18:0 19:0 20:1 21:0 22:0 23:186 24:255 25:1 26:0 27:0.01 28:0.03 29:0 30:0.01 31:0.01 32:0.01 
0.0071872833268845984 0:0 1:1 2:0 3:0 4:0 5:1 6:0 7:1 8:194 9:1052 10:1 11:0 12:0 13:0 14:10 15:34 16:0 17:0 18:0 19:0 20:1 21:0 22:0.06 23:42 24:255 25:1 26:0 27:0.02 28:0.05 29:0 30:0 31:0 32:0.01 
0.013911756736424155 0:0 1:1 2:0 3:0 4:0 5:1 6:0 7:1 8:328 9:17829 10:1 11:0 12:0 13:0 14:3 15:3 16:0 17:0 18:0 19:0 20:1 21:0 22:0 23:247 24:255 25:1 26:0 27:0.01 28:0.01 29:0 30:0 31:0.01 32:0.01 
0.012101877255183659 0:0 1:1 2:0 3:0 4:0 5:1 6:0 7:1 8:324 9:2912 10:1 11:0 12:0 13:0 14:1 15:14 16:0 17:0 18:0 19:0 20:1 21:0 22:0.21 23:32 24:255 25:1 26:0 27:0.03 28:0.01 29:0 30:0 31:0 32:0.01 
0.0078903862479684679 0:0 1:1 2:0 3:0 4:0 5:1 6:0 7:1 8:305 9:1380 10:1 11:0 12:0 13:0 14:3 15:3 16:0 17:0 18:0 19:0 20:1 21:0 22:0 23:255 24:238 25:0.93 26:0.01 27:0 28:0 29:0 30:0 31:0.02 32:0.01 
0.005243822652280912 0:0 1:1 2:0 3:0 4:0 5:1 6:0 7:1 8:367 9:210 10:1 11:0 12:0 13:0 14:1 15:12 16:0 17:0 18:0 19:0 20:1 21:0 22:0.25 23:7 24:255 25:1 26:0 27:0.14 28:0.07 29:0 30:0 31:0 32:0.01 
0.0075682225500917676 0:0 1:1 2:0 3:0 4:0 5:1 6:0 7:1 8:299 9:1654 10:1 11:0 12:0 13:0 14:11 15:15 16:0 17:0 18:0 19:0 20:1 21:0 22:0.13 23:255 24:255 25:1 26:0 27:0 28:0 29:0 30:0 31:0.01 32:0.01 
0.0051693492486805876 0:0 1:1 2:0 3:0 4:0 5:1 6:0 7:1 8:232 9:1027 10:1 11:0 12:0 13:0 14:6 15:6 16:0 17:0 18:0 19:0 20:1 21:0 22:0 23:9 24:255 25:1 26:0 27:0.11 28:0.01 29:0 30:0 31:0 32:0.01 
0.012213565407525884 0:0 1:1 2:0 3:0 4:0 5:1 6:0 7:1 8:320 9:2056 10:1 11:0 12:0 13:0 14:5 15:5 16:0 17:0 18:0 19:0 20:1 21:0 22:0 23:255 24:255 25:1 26:0 27:0 28:0 29:0 30:0 31:0.01 32:0.01 
0.0014468960810888332 0:0 1:1 2:0 3:0 4:0 5:1 6:0 7:1 8:347 9:310 10:1 11:0 12:0 13:0 14:11 15:11 16:0 17:0 18:0 19:0 20:1 21:0 22:0 23:255 24:255 25:1 26:0 27:0 28:0 29:0 30:0 31:0.01 32:0.01 
0.0057629606802176402 0:0 1:1 2:0 3:0 4:0 5:1 6:0 7:1 8:372 9:402 10:1 11:0 12:0 13:0 14:10 15:10 16:0 17:0 18:0 19:0 20:1 21:0 22:0 23:255 24:255 25:1 26:0 27:0 28:0 29:0 30:0 31:0.01 32:0.01 
0.0065694636867940628 0:0 1:1 2:0 3:0 4:0 5:1 6:0 7:1 8:217 9:2208 10:1 11:0 12:0 13:0 14:12 15:17 16:0 17:0 18:0 19:0 20:1 21:0 22:0.12 23:12 24:255 25:1 26:0 27:0.08 28:0.05 29:0 30:0 31:0 32:0.01 
0.013062656907118268 0:0 1:1 2:0 3:0 4:0 5:1 6:0 7:1 8:317 9:1049 10:1 11:0 12:0 13:0 14:18 15:19 16:0 17:0 18:0 19:0 20:1 21:0 22:0.11 23:83 24:255 25:1 26:0 27:0.01 28:0.05 29:0 30:0 31:0 32:0.01 
0.010075283660543877 0:0 1:1 2:0 3:0 4:0 5:1 6:0 7:1 8:293 9:253 10:1 11:0 12:0 13:0 14:17 15:17 16:0 17:0 18:0 19:0 20:1 21:0 22:0 23:255 24:255 25:1 26:0 27:0 28:0 29:0 30:0 31:0.01 32:0.01 
0.012832922622086879 0:0 1:1 2:0 3:0 4:0 5:1 6:0 7:1 8:304 9:3003 10:1 11:0 12:0 13:0 14:7 15:31 16:0 17:0 18:0 19:0 20:1 21:0 22:0.06 23:7 24:255 25:1 26:0 27:0.14 28:0.03 29:0 30:0 31:0 32:0.01 
0.011582478947910665 0:0 1:1 2:0 3:0 4:0 5:1 6:0 7:1 8:341 9:1352 10:1 11:0 12:0 13:0 14:4 15:6 16:0 17:0 18:0 19:0 20:1 21:0 22:0.5 23:255 24:255 25:1 26:0 27:0 28:0 29:0 30:0 31:0.01 32:0.01 
0.010141483092722314 0:0 1:1 2:0 3:0 4:0 5:1 6:0 7:1 8:313 9:293 10:1 11:0 12:0 13:0 14:18 15:18 16:0 17:0 18:0 19:0 20:1 21:0 22:0 23:206 24:255 25:1 26:0 27:0 28:0.01 29:0 30:0 31:0 32:0.01 
0.0063914075702020314 0:0 1:1 2:0 3:0 4:0 5:1 6:0 7:1 8:301 9:195 10:1 11:0 12:0 13:0 14:1 15:12 16:0 17:0 18:0 19:0 20:1 21:0 22:0.17 23:8 24:255 25:1 26:0 27:0.12 28:0.06 29:0 30:0.01 31:0 32:0.01 
0.0095748741651056311 0:0 1:1 2:0 3:0 4:0 5:1 6:0 7:1 8:321 9:506 10:1 11:0 12:0 13:0 14:2 15:4 16:0 17:0 18:0 19:0 20:1 21:0 22:0.5 23:2 24:255 25:1 26:0 27:0.5 28:0.03 29:0 30:0.01 31:0 32:0.01 
0.010000937628026108 0:0 1:1 2:0 3:0 4:0 5:1 6:0 7:1 8:239 9:2761 10:1 11:0 12:0 13:0 14:3 15:3 16:0 17:0 18:0 19:0 20:1 21:0 22:0 23:255 24:255 25:1 26:0 27:0 28:0 29:0 30:0 31:0.01 32:0.01 
0.012000953914784646 0:0 1:1 2:0 3:0 4:0 5:1 6:0 7:1 8:169 9:1483 10:1 11:0 12:0 13:0 14:1 15:1 16:0 17:0 18:0 19:0 20:1 21:0 22:0 23:255 24:255 25:1 26:0 27:0 28:0 29:0 30:0 31:0.01 32:0.01 
0.012781356382651869 0:0 1:1 2:0 3:0 4:0 5:1 6:0 7:1 8:338 9:1462 10:1 11:0 12:0 13:0 14:7 15:7 16:0 17:0 18:0 19:0 20:1 21:0 22:0 23:255 24:255 25:1 26:0 27:0 28:0 29:0 30:0 31:0.01 32:0.01 
0.0088070889800755878 0:0 1:1 2:0 3:0 4:0 5:1 6:0 7:1 8:196 9:260 10:1 11:0 12:0 13:0 14:16 15:16 16:0 17:0 18:0 19:0 20:1 21:0 22:0 23:102 24:255 25:1 26:0 27:0.01 28:0.07 29:0 30:0.01 31:0.01 32:0.01 
0.011170959836069992 0:0 1:1 2:0 3:0 4:0 5:1 6:0 7:1 8:193 9:3468 10:1 11:0 12:0 13:0 14:18 15:18 16:0 17:0 18:0 19:0 20:1 21:0 22:0 23:18 24:255 25:1 26:0 27:0.06 28:0.03 29:0 30:0.01 31:0 32:0.01 
0.013495430626770857 0:0 1:1 2:0 3:0 4:0 5:1 6:0 7:1 8:285 9:5200 10:1 11:0 12:0 13:0 14:9 15:9 16:0 17:0 18:0 19:0 20:1 21:0 22:0 23:157 24:255 25:1 26:0 27:0.01 28:0.01 29:0 30:0 31:0.01 32:0.01 
0.009185558814290111 0:0 1:1 2:0 3:0 4:0 5:1 6:0 7:1 8:294 9:1719 10:1 11:0 12:0 13:0 14:7 15:19 16:0 17:0 18:0 19:0 20:1 21:0 22:0.11 23:255 24:255 25:1 26:0 27:0 28:0 29:0 30:0 31:0.01 32:0.01 
0.0073358767072205866 0:0 1:1 2:0 3:0 4:0 5:1 6:0 7:1 8:193 9:1303 10:1 11:0 12:0 13:0 14:9 15:9 16:0 17:0 18:0 19:0 20:1 21:0 22:0 23:106 24:255 25:1 26:0 27:0.01 28:0.02 29:0 30:0 31:0 32:0.01 
0.013572321056165872 0:0 1:1 2:0 3:0 4:0 5:1 6:0 7:1 8:196 9:18417 10:1 11:0 12:0 13:0 14:17 15:17 16:0 17:0 18:0 19:0 20:1 21:0 22:0 23:145 24:255 25:1 26:0 27:0.01 28:0.03 29:0 30:0 31:0.01 32:0.01 
0.013569570945688895 0:0 1:1 2:0 3:0 4:0 5:1 6:0 7:1 8:182 9:24043 10:1 11:0 12:0 13:0 14:1 15:1 16:0 17:0 18:0 19:0 20:1 21:0 22:0 23:190 24:255 25:1 26:0 27:0.01 28:0.03 29:0 30:0 31:0.01 32:0.01 
0.012466626340527172 0:0 1:1 2:0 3:0 4:1 5:0 6:0 7:1 8:1113 9:331 10:1 11:0 12:0 13:0 14:1 15:4 16:0 17:0 18:0 19:0 20:1 21:0 22:1 23:49 24:175 25:0.76 26:0.1 27:0.02 28:0.01 29:0 30:0 31:0 32:0.01 
0.012126093659782591 0:0 1:1 2:0 3:0 4:0 5:1 6:0 7:1 8:203 9:5041 10:1 11:0 12:0 13:0 14:4 15:4 16:0 17:0 18:0 19:0 20:1 21:0 22:0 23:17 24:255 25:1 26:0 27:0.06 28:0.05 29:0 30:0.02 31:0.06 32:0.01 
0.013505965832737953 0:1 1:1 2:0 3:0 4:1 5:0 6:0 7:1 8:16438 9:324 10:1 11:0 12:0 13:0 14:1 15:2 16:0 17:0 18:0 19:0 20:1 21:0 22:1 23:14 24:186 25:0.64 26:0.14 27:0.07 28:0.02 29:0 30:0.03 31:0 32:0.01 
0.013282350237579581 0:0 1:1 2:0 3:0 4:0 5:1 6:0 7:1 8:299 9:2330 10:1 11:0 12:0 13:0 14:13 15:13 16:0 17:0 18:0 19:0 20:1 21:0 22:0 23:13 24:255 25:1 26:0 27:0.08 28:0.04 29:0 30:0 31:0 32:0.01 
0.013848740855914133 0:0 1:1 2:0 3:0 4:0 5:1 6:0 7:1 8:191 9:3731 10:1 11:0 12:0 13:0 14:5 15:16 16:0 17:0 18:0 19:0 20:1 21:0 22:0.25 23:111 24:255 25:1 26:0 27:0.01 28:0.03 29:0 30:0 31:0.01 32:0.01 
0.012932417574022775 0:0 1:1 2:0 3:0 4:0 5:1 6:0 7:1 8:347 9:8113 10:1 11:0 12:0 13:0 14:3 15:3 16:0 17:0 18:0 19:0 20:1 21:0 22:0 23:255 24:255 25:1 26:0 27:0 28:0 29:0 30:0 31:0.01 32:0.01 
0.013406057414878412 0:1 1:1 2:0 3:0 4:1 5:0 6:0 7:1 8:1100 9:483 10:1 11:0 12:0 13:0 14:1 15:2 16:0 17:0 18:0 19:0 20:1 21:0 22:1 23:108 24:142 25:0.8 26:0.03 27:0.01 28:0.01 29:0.07 30:0.04 31:0.01 32:0.01 
0.0066915878680462301 0:0 1:1 2:0 3:0 4:0 5:1 6:0 7:1 8:146 9:13603 10:1 11:0 12:0 13:0 14:1 15:1 16:0 17:0 18:0 19:0 20:1 21:0 22:0 23:170 24:170 25:1 26:0 27:0.01 28:0 29:0.01 30:0.01 31:0.01 32:0.01 
0.013002327413470497 0:0 1:1 2:0 3:0 4:0 5:1 6:0 7:1 8:289 9:4743 10:1 11:0 12:0 13:0 14:17 15:17 16:0 17:0 18:0 19:0 20:1 21:0 22:0 23:82 24:255 25:1 26:0 27:0.01 28:0.01 29:0 30:0 31:0.02 32:0.01 
0.011621962311810596 0:0 1:1 2:0 3:0 4:0 5:1 6:0 7:1 8:338 9:200 10:1 11:0 12:0 13:0 14:1 15:2 16:0 17:0 18:0 19:0 20:1 21:0 22:1 23:255 24:255 25:1 26:0 27:0 28:0 29:0 30:0 31:0.01 32:0.01 
0.0025183538935101037 0:0 1:1 2:0 3:0 4:0 5:1 6:0 7:1 8:214 9:383 10:1 11:0 12:0 13:0 14:8 15:8 16:0.12 17:0.12 18:0 19:0 20:1 21:0 22:0 23:33 24:255 25:1 26:0 27:0.03 28:0.04 29:0.03 30:0.01 31:0 32:0.01 
0.0047082439372855157 0:0 1:1 2:0 3:0 4:0 5:1 6:0 7:1 8:317 9:264 10:1 11:0 12:0 13:0 14:12 15:31 16:0 17:0 18:0 19:0 20:1 21:0 22:0.16 23:38 24:255 25:1 26:0 27:0.03 28:0.01 29:0 30:0 31:0.03 32:0.01 
0.013552835179494998 0:0 1:1 2:0 3:0 4:1 5:0 6:0 7:1 8:1710 9:332 10:1 11:0 12:0 13:0 14:1 15:1 16:0 17:0 18:0 19:0 20:1 21:0 22:0 23:120 24:137 25:0.53 26:0.03 27:0.01 28:0.01 29:0 30:0 31:0 32:0.01 
0.012361094270112845 0:0 1:1 2:0 3:0 4:0 5:1 6:0 7:1 8:269 9:9287 10:1 11:0 12:0 13:0 14:3 15:3 16:0 17:0 18:0 19:0 20:1 21:0 22:0 23:94 24:255 25:1 26:0 27:0.01 28:0.07 29:0 30:0 31:0.02 32:0.01 
0.011849187202613267 0:0 1:1 2:0 3:0 4:0 5:1 6:0 7:1 8:193 9:351 10:1 11:0 12:0 13:0 14:26 15:57 16:0 17:0 18:0.04 19:0.02 20:1 21:0 22:0.05 23:61 24:255 25:1 26:0 27:0.02 28:0.04 29:0 30:0.01 31:0.02 32:0.01 
0.01239933592816617 0:0 1:1 2:0 3:0 4:0 5:1 6:0 7:1 8:331 9:480 10:1 11:0 12:0 13:0 14:22 15:25 16:0 17:0 18:0 19:0 20:1 21:0 22:0.08 23:142 24:255 25:1 26:0 27:0.01 28:0.01 29:0 30:0 31:0.01 32:0.01 
0.011646937704712314 0:0 1:1 2:0 3:0 4:0 5:1 6:0 7:1 8:335 9:1211 10:1 11:0 12:0 13:0 14:11 15:11 16:0 17:0 18:0 19:0 20:1 21:0 22:0 23:11 24:255 25:1 26:0 27:0.09 28:0.03 29:0 30:0.01 31:0 32:0.01 
0.01079231098725671 0:0 1:1 2:0 3:0 4:0 5:1 6:0 7:1 8:209 9:2030 10:1 11:0 12:0 13:0 14:3 15:3 16:0 17:0 18:0 19:0 20:1 21:0 22:0 23:3 24:255 25:1 26:0 27:0.33 28:0.07 29:0 30:0.01 31:0 32:0.01 
0.013835418436821033 0:0 1:1 2:0 3:0 4:0 5:1 6:0 7:1 8:242 9:9621 10:1 11:0 12:0 13:0 14:3 15:3 16:0 17:0 18:0 19:0 20:1 21:0 22:0 23:255 24:255 25:1 26:0 27:0 28:0 29:0 30:0 31:0.01 32:0.01 
0.013864416113537736 0:0 1:1 2:0 3:0 4:0 5:1 6:0 7:1 8:295 9:4021 10:1 11:0 12:0 13:0 14:7 15:11 16:0 17:0 18:0 19:0 20:1 21:0 22:0.36 23:56 24:133 25:1 26:0 27:0.02 28:0.05 29:0 30:0 31:0 32:0.01 
0.0062528574122538661 0:0 1:1 2:0 3:0 4:0 5:1 6:0 7:1 8:323 9:306 10:1 11:0 12:0 13:0 14:5 15:6 16:0 17:0 18:0 19:0 20:1 21:0 22:0.33 23:75 24:255 25:1 26:0 27:0.01 28:0.04 29:0 30:0 31:0 32:0.01 
0.0078873332792405472 0:0 1:1 2:0 3:0 4:0 5:1 6:0 7:1 8:226 9:943 10:1 11:0 12:0 13:0 14:8 15:8 16:0 17:0 18:0 19:0 20:1 21:0 22:0 23:42 24:255 25:1 26:0 27:0.02 28:0.02 29:0.07 30:0.01 31:0 32:0.01 
0.010356762148007488 0:0 1:1 2:0 3:0 4:0 5:1 6:0 7:1 8:299 9:3943 10:1 11:0 12:0 13:0 14:1 15:1 16:0 17:0 18:0 19:0 20:1 21:0 22:0 23:116 24:255 25:1 26:0 27:0.01 28:0.05 29:0.01 30:0.01 31:0.01 32:0.01 
0.0075357333033231593 0:0 1:1 2:0 3:0 4:0 5:1 6:0 7:1 8:215 9:1462 10:1 11:0 12:0 13:0 14:9 15:9 16:0 17:0 18:0 19:0 20:1 21:0 22:0 23:255 24:255 25:1 26:0 27:0 28:0 29:0 30:0 31:0.01 32:0.01 
0.0059093274203616264 0:0 1:1 2:0 3:0 4:0 5:1 6:0 7:1 8:242 9:453 10:1 11:0 12:0 13:0 14:14 15:14 16:0 17:0 18:0 19:0 20:1 21:0 22:0 23:208 24:255 25:1 26:0 27:0 28:0.03 29:0 30:0 31:0.01 32:0.01 
0.013299485985111572 0:0 1:1 2:0 3:0 4:0 5:1 6:0 7:1 8:244 9:10329 10:1 11:0 12:0 13:0 14:1 15:4 16:0 17:0 18:0 19:0 20:1 21:0 22:0.75 23:104 24:255 25:1 26:0 27:0.01 28:0.01 29:0 30:0 31:0.02 32:0.01 
0.0077890078805194322 0:0 1:1 2:0 3:0 4:0 5:1 6:0 7:1 8:336 9:3820 10:1 11:0 12:0 13:0 14:15 15:18 16:0 17:0 18:0 19:0 20:1 21:0 22:0.11 23:59 24:255 25:1 26:0 27:0.02 28:0.01 29:0 30:0 31:0 32:0.01 
0.011462933251323193 0:0 1:1 2:0 3:0 4:0 5:1 6:0 7:1 8:149 9:436 10:1 11:0 12:0 13:0 14:1 15:1 16:0 17:0 18:0 19:0 20:1 21:0 22:0 23:2 24:255 25:1 26:0 27:0.5 28:0.03 29:0 30:0.01 31:0 32:0.01 
0.012511128374366638 0:0 1:1 2:0 3:0 4:0 5:1 6:0 7:1 8:202 9:454 10:1 11:0 12:0 13:0 14:7 15:7 16:0 17:0 18:0 19:0 20:1 21:0 22:0 23:255 24:255 25:1 26:0 27:0 28:0 29:0 30:0 31:0.01 32:0.01 
0.011168683499090165 0:0 1:1 2:0 3:0 4:0 5:1 6:0 7:1 8:205 9:528 10:1 11:0 12:0 13:0 14:2 15:3 16:0 17:0 18:0 19:0 20:1 21:0 22:0.67 23:37 24:255 25:1 26:0 27:0.03 28:0.03 29:0 30:0 31:0 32:0.01 
0.013681649178800281 0:0 1:1 2:0 3:0 4:0 5:1 6:0 7:1 8:281 9:9644 10:1 11:0 12:0 13:0 14:23 15:24 16:0 17:0 18:0.04 19:0.04 20:1 21:0 22:0.08 23:81 24:255 25:1 26:0 27:0.01 28:0.02 29:0 30:0 31:0.01 32:0.01 
0.009871287508031068 0:0 1:1 2:0 3:0 4:0 5:1 6:0 7:1 8:397 9:381 10:1 11:0 12:0 13:0 14:21 15:29 16:0 17:0 18:0.05 19:0.03 20:1 21:0 22:0.14 23:142 24:154 25:1 26:0 27:0.01 28:0.03 29:0.01 30:0.01 31:0.01 32:0.01 
0.0084662934710373911 0:0 1:1 2:0 3:0 4:0 5:1 6:0 7:1 8:234 9:1931 10:1 11:0 12:0 13:0 14:8 15:10 16:0 17:0 18:0 19:0 20:1 21:0 22:0.3 23:255 24:255 25:1 26:0 27:0 28:0 29:0 30:0 31:0.01 32:0.01 
0.0017633928034295598 0:0 1:1 2:0 3:0 4:0 5:1 6:0 7:1 8:246 9:301 10:1 11:0 12:0 13:0 14:4 15:4 16:0.25 17:0.25 18:0 19:0 20:1 21:0 22:0 23:255 24:255 25:1 26:0 27:0 28:0 29:0 30:0 31:0.01 32:0.01 
0.012172592532807582 0:0 1:1 2:0 3:0 4:0 5:1 6:0 7:1 8:255 9:3561 10:1 11:0 12:0 13:0 14:5 15:11 16:0 17:0 18:0 19:0 20:1 21:0 22:0.27 23:52 24:255 25:1 26:0 27:0.02 28:0.05 29:0 30:0 31:0 32:0.01 
