svm_type one_class
kernel_type rbf
gamma 0.001
nr_class 2
total_sv 3
rho 0.0099999999999999985
SV
0.010312499999999999 0:0 1:0 2:1 3:0 4:1 5:0 6:0 7:1 8:33 9:95 10:1 11:0 12:0 13:0 14:161 15:161 16:0 17:0 18:0 19:0 20:1 21:0 22:0 23:52 24:20 25:0.38 26:0.04 27:0.02 28:0 29:0 30:0 31:0 32:0 
0.0093749999999999997 0:0 1:1 2:0 3:0 4:0 5:1 6:0 7:1 8:218 9:3097 10:1 11:0 12:0 13:0 14:20 15:20 16:0 17:0 18:0 19:0 20:1 21:0 22:0 23:20 24:20 25:1 26:0 27:0.05 28:0 29:0 30:0 31:0 32:0 
0.010312499999999999 0:0 1:0 2:1 3:0 4:1 5:0 6:0 7:1 8:516 9:0 10:1 11:0 12:0 13:0 14:19 15:19 16:0 17:0 18:0 19:0 20:1 21:0 22:0 23:21 24:19 25:0.9 26:0.1 27:0.05 28:0 29:0 30:0 31:0 32:0 
