svm_type one_class
kernel_type rbf
gamma 0.001
nr_class 2
total_sv 2
rho 0.010000000000000462
SV
0.01 0:0 1:1 2:0 3:0 4:1 5:0 6:1 7:0 8:0 9:0 10:1 11:0 12:0 13:0 14:4 15:2 16:0.25 17:0.5 18:0 19:0 20:0.5 21:0.5 22:0 23:49 24:131 25:0.29 26:0.08 27:0.04 28:0.02 29:0.02 30:0.02 31:0 32:0 
0.01 0:0 1:1 2:0 3:0 4:1 5:0 6:1 7:0 8:0 9:0 10:1 11:0 12:0 13:0 14:5 15:2 16:0.2 17:0.5 18:0 19:0 20:0.4 21:0.4 22:0 23:224 24:122 25:0.5 26:0.03 27:0.01 28:0.02 29:0.01 30:0.02 31:0 32:0.01 
