svm_type one_class
kernel_type rbf
gamma 0.001
nr_class 2
total_sv 8
rho 0.046479001159547367
SV
0.046121832487043213 0:0 1:1 2:0 3:0 4:1 5:0 6:0 7:1 8:12 9:0 10:1 11:0 12:0 13:0 14:1 15:2 16:0 17:0 18:0 19:0 20:1 21:0 22:1 23:75 24:65 25:0.63 26:0.04 27:0.63 28:0.05 29:0.01 30:0.02 31:0 32:0 
0.010274164908635018 0:0 1:1 2:0 3:0 4:0 5:1 6:1 7:0 8:0 9:0 10:1 11:0 12:0 13:0 14:1 15:2 16:0 17:0 18:1 19:1 20:1 21:0 22:1 23:1 24:47 25:1 26:0 27:1 28:0.28 29:0 30:0 31:1 32:1 
0.039961395395441066 0:0 1:1 2:0 3:0 4:0 5:1 6:1 7:0 8:0 9:0 10:1 11:0 12:0 13:0 14:1 15:2 16:0 17:0 18:1 19:1 20:1 21:0 22:1 23:1 24:83 25:1 26:0 27:1 28:0.16 29:0 30:0 31:1 32:1 
0.014681125764436788 0:0 1:1 2:0 3:0 4:0 5:1 6:1 7:0 8:0 9:0 10:1 11:0 12:0 13:0 14:1 15:2 16:0 17:0 18:1 19:1 20:1 21:0 22:1 23:1 24:44 25:1 26:0 27:1 28:0.34 29:0 30:0 31:1 32:1 
0.0051753722095044261 0:0 1:1 2:0 3:0 4:0 5:1 6:1 7:0 8:0 9:0 10:1 11:0 12:0 13:0 14:1 15:2 16:0 17:0 18:1 19:1 20:1 21:0 22:1 23:1 24:9 25:1 26:0 27:1 28:0.44 29:0 30:0 31:1 32:1 
0.0037071614106927719 0:0 1:1 2:0 3:0 4:0 5:1 6:1 7:0 8:0 9:0 10:1 11:0 12:0 13:0 14:1 15:2 16:0 17:0 18:1 19:1 20:1 21:0 22:1 23:1 24:26 25:1 26:0 27:1 28:0.35 29:0 30:0 31:1 32:1 
0.004299877744369498 0:0 1:1 2:0 3:0 4:0 5:1 6:1 7:0 8:0 9:0 10:1 11:0 12:0 13:0 14:1 15:2 16:0 17:0 18:1 19:1 20:1 21:0 22:1 23:1 24:34 25:1 26:0 27:1 28:0.35 29:0 30:0 31:1 32:1 
0.035779070079877219 0:0 1:1 2:0 3:0 4:1 5:0 6:0 7:1 8:12 9:0 10:1 11:0 12:0 13:0 14:1 15:2 16:0 17:0 18:0 19:0 20:1 21:0 22:1 23:1 24:1 25:1 26:0 27:1 28:0 29:0 30:0 31:0 32:0 
