svm_type one_class
kernel_type rbf
gamma 0.001
nr_class 2
total_sv 143
rho 0.041534269664947512
SV
0.024586762335401524 0:0 1:0 2:1 3:0 4:1 5:0 6:0 7:1 8:33 9:93 10:1 11:0 12:0 13:0 14:1 15:1 16:0 17:0 18:0 19:0 20:1 21:0 22:0 23:41 24:52 25:1 26:0 27:1 28:0.04 29:0 30:0 31:0 32:0 
0.041023228862612726 0:0 1:1 2:0 3:0 4:1 5:0 6:0 7:1 8:14052 9:0 10:1 11:0 12:0 13:0 14:8 15:8 16:0 17:0 18:0 19:0 20:1 21:0 22:0 23:14 24:14 25:1 26:0 27:1 28:0 29:0 30:0 31:0 32:0 
0.041615500432220287 0:0 1:1 2:0 3:0 4:1 5:0 6:0 7:1 8:8173 9:0 10:1 11:0 12:0 13:0 14:15 15:15 16:0 17:0 18:0 19:0 20:1 21:0 22:0 23:21 24:21 25:1 26:0 27:1 28:0 29:0 30:0 31:0 32:0 
0.041669679920753454 0:0 1:1 2:0 3:0 4:1 5:0 6:0 7:1 8:8737 9:0 10:1 11:0 12:0 13:0 14:11 15:11 16:0 17:0 18:0 19:0 20:1 21:0 22:0 23:17 24:17 25:1 26:0 27:1 28:0 29:0 30:0 31:0 32:0 
0.013889853537464067 0:0 1:0 2:1 3:0 4:1 5:0 6:0 7:1 8:88 9:0 10:1 11:0 12:0 13:0 14:1 15:2 16:0 17:0 18:0 19:0 20:1 21:0 22:1 23:4 24:4 25:1 26:0 27:1 28:0 29:0 30:0 31:0 32:0 
0.029210132791230924 0:0 1:1 2:0 3:0 4:1 5:0 6:0 7:1 8:383 9:0 10:1 11:0 12:0 13:0 14:1 15:1 16:0 17:0 18:0 19:0 20:1 21:0 22:0 23:3 24:3 25:1 26:0 27:1 28:0 29:0 30:0 31:0 32:0 
0.012250569588415441 0:0 1:0 2:1 3:0 4:1 5:0 6:0 7:1 8:147 9:0 10:1 11:0 12:0 13:0 14:5 15:1 16:0 17:0 18:0 19:0 20:0.2 21:0.6 22:0 23:82 24:2 25:0.02 26:0.71 27:0.95 28:0 29:0 30:0 31:0 32:0 
0.035430633447039131 0:0 1:1 2:0 3:0 4:1 5:0 6:0 7:1 8:6062 9:0 10:1 11:0 12:0 13:0 14:4 15:4 16:0 17:0 18:0 19:0 20:1 21:0 22:0 23:11 24:52 25:0.91 26:0.18 27:0.91 28:0.04 29:0 30:0 31:0 32:0 
0.041448233339009807 0:0 1:1 2:0 3:0 4:1 5:0 6:0 7:1 8:3888 9:0 10:1 11:0 12:0 13:0 14:3 15:3 16:0 17:0 18:0 19:0 20:1 21:0 22:0 23:3 24:69 25:1 26:0 27:1 28:0.03 29:0 30:0.01 31:0 32:0 
0.022743010593280811 0:0 1:1 2:0 3:0 4:1 5:0 6:0 7:1 8:4753 9:0 10:1 11:0 12:0 13:0 14:13 15:14 16:0 17:0 18:0 19:0 20:1 21:0 22:0.14 23:21 24:19 25:0.9 26:0.1 27:0.9 28:0 29:0 30:0 31:0 32:0 
0.025629105350367158 0:0 1:1 2:0 3:0 4:1 5:0 6:0 7:1 8:567 9:0 10:1 11:0 12:0 13:0 14:1 15:1 16:0 17:0 18:0 19:0 20:1 21:0 22:0 23:28 24:43 25:0.89 26:0.07 27:0.89 28:0.05 29:0 30:0 31:0 32:0 
0.030760612789769923 0:0 1:1 2:0 3:0 4:1 5:0 6:0 7:1 8:854 9:0 10:1 11:0 12:0 13:0 14:4 15:4 16:0 17:0 18:0 19:0 20:1 21:0 22:0 23:11 24:10 25:0.91 26:0.18 27:0.91 28:0 29:0 30:0 31:0 32:0 
0.021812286681280501 0:0 1:1 2:0 3:0 4:1 5:0 6:0 7:1 8:12983 9:0 10:1 11:0 12:0 13:0 14:2 15:2 16:0 17:0 18:0 19:0 20:1 21:0 22:0 23:3 24:55 25:1 26:0 27:1 28:0.04 29:0 30:0 31:0 32:0 
0.041784351550106485 0:0 1:1 2:0 3:0 4:1 5:0 6:0 7:1 8:10261 9:0 10:1 11:0 12:0 13:0 14:8 15:8 16:0 17:0 18:0 19:0 20:1 21:0 22:0 23:14 24:14 25:1 26:0 27:1 28:0 29:0 30:0 31:0 32:0 
0.029412801730964038 0:0 1:1 2:0 3:0 4:1 5:0 6:0 7:1 8:12286 9:0 10:1 11:0 12:0 13:0 14:3 15:4 16:0 17:0 18:0 19:0 20:1 21:0 22:0.5 23:9 24:54 25:1 26:0 27:1 28:0.04 29:0 30:0 31:0 32:0 
0.038366403787138695 0:0 1:0 2:1 3:0 4:1 5:0 6:0 7:1 8:44 9:130 10:1 11:0 12:0 13:0 14:1 15:1 16:0 17:0 18:0 19:0 20:1 21:0 22:0 23:5 24:5 25:1 26:0 27:1 28:0 29:0 30:0 31:0 32:0 
0.023991989215251606 0:0 1:1 2:0 3:0 4:1 5:0 6:0 7:1 8:14189 9:0 10:1 11:0 12:0 13:0 14:12 15:12 16:0 17:0 18:0 19:0 20:1 21:0 22:0 23:20 24:18 25:0.9 26:0.1 27:0.9 28:0 29:0 30:0 31:0 32:0 
0.023325663218604433 0:0 1:1 2:0 3:0 4:1 5:0 6:0 7:1 8:12983 9:0 10:1 11:0 12:0 13:0 14:2 15:2 16:0 17:0 18:0 19:0 20:1 21:0 22:0 23:3 24:68 25:1 26:0 27:1 28:0.03 29:0 30:0 31:0 32:0 
0.019647527843742629 0:0 1:0 2:1 3:0 4:1 5:0 6:0 7:1 8:145 9:0 10:1 11:0 12:0 13:0 14:3 15:1 16:0 17:0 18:0 19:0 20:0.33 21:0.67 22:0 23:3 24:1 25:0.33 26:0.67 27:1 28:0 29:0 30:0 31:0 32:0 
0.039080439832944902 0:0 1:1 2:0 3:0 4:1 5:0 6:0 7:1 8:1874 9:0 10:1 11:0 12:0 13:0 14:1 15:1 16:0 17:0 18:0 19:0 20:1 21:0 22:0 23:7 24:7 25:1 26:0 27:1 28:0 29:0 30:0 31:0 32:0 
0.0079939258581697495 0:0 1:0 2:1 3:0 4:1 5:0 6:0 7:1 8:147 9:0 10:1 11:0 12:0 13:0 14:5 15:1 16:0 17:0 18:0 19:0 20:0.2 21:0.6 22:0 23:35 24:1 25:0.03 26:0.69 27:0.94 28:0 29:0 30:0 31:0 32:0 
0.041622984359407256 0:0 1:1 2:0 3:0 4:1 5:0 6:0 7:1 8:4316 9:0 10:1 11:0 12:0 13:0 14:11 15:11 16:0 17:0 18:0 19:0 20:1 21:0 22:0 23:17 24:17 25:1 26:0 27:1 28:0 29:0 30:0 31:0 32:0 
0.015177811337545248 0:0 1:1 2:0 3:0 4:1 5:0 6:0 7:1 8:373 9:0 10:1 11:0 12:0 13:0 14:1 15:2 16:0 17:0 18:0 19:0 20:1 21:0 22:1 23:8 24:69 25:0.88 26:0.25 27:0.88 28:0.03 29:0 30:0 31:0 32:0 
0.008123898585434268 0:0 1:1 2:0 3:0 4:1 5:0 6:0 7:1 8:172 9:0 10:1 11:0 12:0 13:0 14:1 15:1 16:0 17:0 18:0 19:0 20:1 21:0 22:0 23:7 24:7 25:1 26:0 27:1 28:0 29:0 30:0 31:0 32:0 
0.033876242145054629 0:0 1:0 2:1 3:0 4:1 5:0 6:0 7:1 8:48 9:48 10:1 11:0 12:0 13:0 14:1 15:1 16:0 17:0 18:0 19:0 20:1 21:0 22:0 23:65 24:57 25:0.88 26:0.05 27:0.88 28:0 29:0 30:0 31:0 32:0 
0.040362121649487645 0:0 1:0 2:1 3:0 4:1 5:0 6:0 7:1 8:516 9:4 10:1 11:0 12:0 13:0 14:12 15:12 16:0 17:0 18:0 19:0 20:1 21:0 22:0 23:12 24:12 25:1 26:0 27:1 28:0 29:0 30:0 31:0 32:0 
0.037476468289925416 0:0 1:1 2:0 3:0 4:1 5:0 6:0 7:1 8:10044 9:0 10:1 11:0 12:0 13:0 14:12 15:12 16:0 17:0 18:0 19:0 20:1 21:0 22:0 23:18 24:18 25:1 26:0 27:1 28:0 29:0 30:0 31:0 32:0 
0.037050574464251536 0:0 1:1 2:0 3:0 4:1 5:0 6:0 7:1 8:5319 9:0 10:1 11:0 12:0 13:0 14:4 15:4 16:0 17:0 18:0 19:0 20:1 21:0 22:0 23:10 24:10 25:1 26:0 27:1 28:0 29:0 30:0 31:0 32:0 
0.028110581405647518 0:0 1:0 2:1 3:0 4:1 5:0 6:0 7:1 8:146 9:0 10:1 11:0 12:0 13:0 14:3 15:1 16:0 17:0 18:0 19:0 20:0.33 21:0.67 22:0 23:111 24:1 25:0.01 26:0.69 27:0.95 28:0 29:0 30:0 31:0 32:0 
0.041841780398562373 0:0 1:1 2:0 3:0 4:1 5:0 6:0 7:1 8:16115 9:0 10:1 11:0 12:0 13:0 14:12 15:12 16:0 17:0 18:0 19:0 20:1 21:0 22:0 23:18 24:18 25:1 26:0 27:1 28:0 29:0 30:0 31:0 32:0 
0.024260817566918828 0:0 1:1 2:0 3:0 4:1 5:0 6:0 7:1 8:854 9:0 10:1 11:0 12:0 13:0 14:2 15:3 16:0 17:0 18:0 19:0 20:1 21:0 22:0.67 23:8 24:54 25:1 26:0 27:1 28:0.04 29:0 30:0 31:0 32:0 
0.029539948544423999 0:0 1:1 2:0 3:0 4:1 5:0 6:0 7:1 8:884 9:0 10:1 11:0 12:0 13:0 14:2 15:2 16:0 17:0 18:0 19:0 20:1 21:0 22:0 23:6 24:54 25:1 26:0 27:1 28:0.04 29:0 30:0 31:0 32:0 
0.0024094872235285573 0:0 1:0 2:1 3:0 4:1 5:0 6:0 7:1 8:37 9:118 10:1 11:0 12:0 13:0 14:1 15:1 16:0 17:0 18:0 19:0 20:1 21:0 22:0 23:56 24:56 25:1 26:0 27:1 28:0 29:0 30:0 31:0 32:0 
0.018737919269737328 0:0 1:0 2:1 3:0 4:1 5:0 6:0 7:1 8:145 9:0 10:1 11:0 12:0 13:0 14:3 15:1 16:0 17:0 18:0 19:0 20:0.33 21:0.67 22:0 23:64 24:1 25:0.02 26:0.69 27:0.89 28:0 29:0 30:0 31:0 32:0 
0.02014787944567293 0:0 1:1 2:0 3:0 4:1 5:0 6:0 7:1 8:383 9:0 10:1 11:0 12:0 13:0 14:2 15:2 16:0 17:0 18:0 19:0 20:1 21:0 22:0 23:3 24:68 25:1 26:0 27:1 28:0.03 29:0 30:0 31:0 32:0 
0.00097358521298885334 0:0 1:0 2:1 3:0 4:1 5:0 6:0 7:1 8:102 9:0 10:1 11:0 12:0 13:0 14:1 15:2 16:0 17:0 18:0 19:0 20:1 21:0 22:1 23:28 24:28 25:1 26:0 27:1 28:0 29:0 30:0 31:0 32:0 
0.034928199025939168 0:0 1:0 2:1 3:0 4:1 5:0 6:0 7:1 8:91 9:0 10:1 11:0 12:0 13:0 14:2 15:4 16:0 17:0 18:0 19:0 20:1 21:0 22:0.5 23:68 24:68 25:1 26:0 27:1 28:0 29:0 30:0 31:0 32:0 
0.024814209195616971 0:0 1:1 2:0 3:0 4:1 5:0 6:0 7:1 8:14189 9:0 10:1 11:0 12:0 13:0 14:3 15:3 16:0 17:0 18:0 19:0 20:1 21:0 22:0 23:9 24:9 25:1 26:0 27:1 28:0 29:0 30:0 31:0 32:0 
0.013194419880811166 0:0 1:1 2:0 3:0 4:1 5:0 6:0 7:1 8:641 9:0 10:1 11:0 12:0 13:0 14:2 15:2 16:0 17:0 18:0 19:0 20:1 21:0 22:0 23:5 24:34 25:1 26:0 27:1 28:0.09 29:0 30:0 31:0 32:0 
0.0024797245998078726 0:0 1:1 2:0 3:0 4:1 5:0 6:0 7:1 8:5929 9:0 10:1 11:0 12:0 13:0 14:14 15:14 16:0 17:0 18:0 19:0 20:1 21:0 22:0 23:20 24:20 25:1 26:0 27:1 28:0 29:0 30:0 31:0 32:0 
0.023796834240605007 0:0 1:1 2:0 3:0 4:1 5:0 6:0 7:1 8:1199 9:0 10:1 11:0 12:0 13:0 14:2 15:2 16:0 17:0 18:0 19:0 20:1 21:0 22:0 23:8 24:8 25:1 26:0 27:1 28:0 29:0 30:0 31:0 32:0 
0.020625890086767129 0:0 1:0 2:1 3:0 4:1 5:0 6:0 7:1 8:147 9:147 10:1 11:0 12:0 13:0 14:7 15:1 16:0 17:0 18:0 19:0 20:0.14 21:0.57 22:0 23:255 24:1 25:0 26:0.56 27:0.95 28:0 29:0 30:0 31:0 32:0 
0.03668644238699572 0:0 1:1 2:0 3:0 4:1 5:0 6:0 7:1 8:1699 9:0 10:1 11:0 12:0 13:0 14:4 15:5 16:0 17:0 18:0 19:0 20:1 21:0 22:0.4 23:10 24:55 25:1 26:0 27:1 28:0.04 29:0 30:0 31:0 32:0 
0.038309057164159138 0:0 1:1 2:0 3:0 4:1 5:0 6:0 7:1 8:1153 9:0 10:1 11:0 12:0 13:0 14:2 15:2 16:0 17:0 18:0 19:0 20:1 21:0 22:0 23:6 24:6 25:1 26:0 27:1 28:0 29:0 30:0 31:0 32:0 
0.020801034102178009 0:0 1:1 2:0 3:0 4:1 5:0 6:0 7:1 8:567 9:0 10:1 11:0 12:0 13:0 14:2 15:1 16:0 17:0 18:0 19:0 20:0.5 21:1 22:0 23:27 24:25 25:0.93 26:0.11 27:0.93 28:0 29:0 30:0 31:0 32:0 
0.0057938041029143156 0:0 1:1 2:0 3:0 4:1 5:0 6:0 7:1 8:852 9:0 10:1 11:0 12:0 13:0 14:7 15:7 16:0 17:0 18:0 19:0 20:1 21:0 22:0 23:13 24:13 25:1 26:0 27:1 28:0 29:0 30:0 31:0 32:0 
0.027598699472823462 0:0 1:1 2:0 3:0 4:1 5:0 6:0 7:1 8:12286 9:0 10:1 11:0 12:0 13:0 14:5 15:5 16:0 17:0 18:0 19:0 20:1 21:0 22:0 23:12 24:11 25:0.92 26:0.17 27:0.92 28:0 29:0 30:0 31:0 32:0 
0.034559337931227507 0:0 1:1 2:0 3:0 4:1 5:0 6:0 7:1 8:1339 9:0 10:1 11:0 12:0 13:0 14:3 15:2 16:0 17:0 18:0 19:0 20:0.67 21:0.67 22:0 23:6 24:6 25:1 26:0 27:1 28:0 29:0 30:0 31:0 32:0 
0.0040458342274948414 0:0 1:1 2:0 3:0 4:1 5:0 6:0 7:1 8:192 9:0 10:1 11:0 12:0 13:0 14:2 15:2 16:0 17:0 18:0 19:0 20:1 21:0 22:0 23:4 24:4 25:1 26:0 27:1 28:0 29:0 30:0 31:0 32:0 
0.030579673616889052 0:0 1:0 2:1 3:0 4:1 5:0 6:0 7:1 8:48 9:48 10:1 11:0 12:0 13:0 14:1 15:1 16:0 17:0 18:0 19:0 20:1 21:0 22:0 23:5 24:5 25:1 26:0 27:1 28:0 29:0 30:0 31:0 32:0 
0.031526227251588629 0:0 1:1 2:0 3:0 4:1 5:0 6:0 7:1 8:1214 9:0 10:1 11:0 12:0 13:0 14:15 15:15 16:0 17:0 18:0 19:0 20:1 21:0 22:0 23:21 24:21 25:1 26:0 27:1 28:0 29:0 30:0 31:0 32:0 
0.0006580920479825926 0:0 1:1 2:0 3:0 4:1 5:0 6:0 7:1 8:203 9:0 10:1 11:0 12:0 13:0 14:2 15:2 16:0 17:0 18:0 19:0 20:1 21:0 22:0 23:4 24:28 25:1 26:0 27:1 28:0.07 29:0 30:0 31:0 32:0 
0.0080926439900694709 0:0 1:0 2:1 3:0 4:1 5:0 6:0 7:1 8:86 9:0 10:1 11:0 12:0 13:0 14:1 15:1 16:0 17:0 18:0 19:0 20:1 21:0 22:0 23:36 24:36 25:1 26:0 27:1 28:0 29:0 30:0 31:0 32:0 
0.041404726204627137 0:0 1:1 2:0 3:0 4:1 5:0 6:0 7:1 8:40494 9:0 10:1 11:0 12:0 13:0 14:10 15:10 16:0 17:0 18:0 19:0 20:1 21:0 22:0 23:16 24:16 25:1 26:0 27:1 28:0 29:0 30:0 31:0 32:0 
0.028097313211284492 0:0 1:1 2:0 3:0 4:1 5:0 6:0 7:1 8:245 9:0 10:1 11:0 12:0 13:0 14:2 15:2 16:0 17:0 18:0 19:0 20:1 21:0 22:0 23:29 24:44 25:0.9 26:0.07 27:0.9 28:0.05 29:0 30:0 31:0 32:0 
0.041414738155092098 0:0 1:1 2:0 3:0 4:1 5:0 6:0 7:1 8:15377 9:0 10:1 11:0 12:0 13:0 14:4 15:4 16:0 17:0 18:0 19:0 20:1 21:0 22:0 23:10 24:39 25:1 26:0 27:1 28:0.08 29:0 30:0 31:0 32:0 
0.032773762849424071 0:0 1:1 2:0 3:0 4:1 5:0 6:0 7:1 8:641 9:0 10:1 11:0 12:0 13:0 14:1 15:1 16:0 17:0 18:0 19:0 20:1 21:0 22:0 23:33 24:47 25:0.88 26:0.06 27:0.88 28:0.04 29:0 30:0 31:0 32:0 
0.0095403892209195099 0:0 1:1 2:0 3:0 4:1 5:0 6:0 7:1 8:59 9:0 10:1 11:0 12:0 13:0 14:16 15:16 16:0 17:0 18:0 19:0 20:1 21:0 22:0 23:22 24:22 25:1 26:0 27:1 28:0 29:0 30:0 31:0 32:0 
0.016266585208999821 0:0 1:0 2:1 3:0 4:1 5:0 6:0 7:1 8:97 9:0 10:1 11:0 12:0 13:0 14:1 15:2 16:0 17:0 18:0 19:0 20:1 21:0 22:1 23:4 24:4 25:1 26:0 27:1 28:0 29:0 30:0 31:0 32:0 
0.037627841122857594 0:0 1:1 2:0 3:0 4:1 5:0 6:0 7:1 8:5319 9:0 10:1 11:0 12:0 13:0 14:10 15:10 16:0 17:0 18:0 19:0 20:1 21:0 22:0 23:4 24:56 25:1 26:0 27:1 28:0.04 29:0 30:0 31:0 32:0 
0.020818737507375819 0:0 1:1 2:0 3:0 4:1 5:0 6:0 7:1 8:12324 9:0 10:1 11:0 12:0 13:0 14:1 15:1 16:0 17:0 18:0 19:0 20:1 21:0 22:0 23:5 24:48 25:1 26:0 27:1 28:0.04 29:0 30:0.02 31:0 32:0 
0.036882601996108794 0:0 1:0 2:1 3:0 4:1 5:0 6:0 7:1 8:45 9:131 10:1 11:0 12:0 13:0 14:1 15:1 16:0 17:0 18:0 19:0 20:1 21:0 22:0 23:63 24:63 25:1 26:0 27:1 28:0 29:0 30:0 31:0 32:0 
0.02721650735195931 0:0 1:1 2:0 3:0 4:1 5:0 6:0 7:1 8:26408 9:0 10:1 11:0 12:0 13:0 14:12 15:12 16:0 17:0 18:0 19:0 20:1 21:0 22:0 23:19 24:41 25:0.95 26:0.11 27:0.95 28:0.07 29:0 30:0 31:0 32:0 
0.020815770946373116 0:0 1:1 2:0 3:0 4:1 5:0 6:0 7:1 8:7196 9:0 10:1 11:0 12:0 13:0 14:8 15:8 16:0 17:0 18:0 19:0 20:1 21:0 22:0 23:15 24:56 25:0.93 26:0.13 27:0.93 28:0.04 29:0 30:0 31:0 32:0 
0.029198539125802312 0:0 1:0 2:1 3:0 4:1 5:0 6:0 7:1 8:132 9:34 10:1 11:0 12:0 13:0 14:2 15:2 16:0 17:0 18:0 19:0 20:1 21:0 22:0 23:8 24:8 25:1 26:0 27:1 28:0 29:0 30:0 31:0 32:0 
0.0019690253493797895 0:0 1:0 2:1 3:0 4:1 5:0 6:0 7:1 8:146 9:0 10:1 11:0 12:0 13:0 14:1 15:1 16:0 17:0 18:0 19:0 20:1 21:0 22:0 23:41 24:1 25:0.02 26:0.71 27:0.9 28:0 29:0 30:0 31:0 32:0 
0.017223263157701691 0:0 1:0 2:1 3:0 4:1 5:0 6:0 7:1 8:48 9:48 10:1 11:0 12:0 13:0 14:0 15:0 16:0 17:0 18:0 19:0 20:0 21:0 22:0 23:30 24:28 25:0.93 26:0.07 27:0.93 28:0 29:0 30:0 31:0 32:0 
0.021226230165543907 0:0 1:1 2:0 3:0 4:1 5:0 6:0 7:1 8:12324 9:0 10:1 11:0 12:0 13:0 14:1 15:1 16:0 17:0 18:0 19:0 20:1 21:0 22:0 23:5 24:25 25:1 26:0 27:1 28:0.08 29:0 30:0 31:0 32:0 
0.037704783603832871 0:0 1:1 2:0 3:0 4:1 5:0 6:0 7:1 8:319 9:0 10:1 11:0 12:0 13:0 14:3 15:2 16:0 17:0 18:0 19:0 20:0.67 21:0.67 22:0 23:28 24:26 25:0.93 26:0.11 27:0.93 28:0 29:0 30:0 31:0 32:0 
0.0028092367535006019 0:0 1:1 2:0 3:0 4:1 5:0 6:0 7:1 8:383 9:0 10:1 11:0 12:0 13:0 14:2 15:2 16:0 17:0 18:0 19:0 20:1 21:0 22:0 23:3 24:32 25:1 26:0 27:1 28:0.09 29:0 30:0 31:0 32:0 
0.041444677643489053 0:0 1:1 2:0 3:0 4:1 5:0 6:0 7:1 8:1470 9:0 10:1 11:0 12:0 13:0 14:2 15:2 16:0 17:0 18:0 19:0 20:1 21:0 22:0 23:8 24:37 25:1 26:0 27:1 28:0.08 29:0 30:0 31:0 32:0 
0.0013862562269939677 0:0 1:1 2:0 3:0 4:1 5:0 6:0 7:1 8:768 9:0 10:1 11:0 12:0 13:0 14:9 15:9 16:0 17:0 18:0 19:0 20:1 21:0 22:0 23:15 24:15 25:1 26:0 27:1 28:0 29:0 30:0 31:0 32:0 
0.020996488500287291 0:0 1:1 2:0 3:0 4:1 5:0 6:0 7:1 8:192 9:0 10:1 11:0 12:0 13:0 14:1 15:1 16:0 17:0 18:0 19:0 20:1 21:0 22:0 23:4 24:69 25:1 26:0 27:1 28:0.03 29:0 30:0 31:0 32:0 
0.021605417197345305 0:0 1:0 2:1 3:0 4:1 5:0 6:0 7:1 8:146 9:0 10:1 11:0 12:0 13:0 14:15 15:1 16:0 17:0 18:0 19:0 20:0.07 21:0.2 22:0 23:255 24:1 25:0 26:0.6 27:0.88 28:0 29:0 30:0 31:0 32:0 
0.032350533666630814 0:0 1:1 2:0 3:0 4:1 5:0 6:0 7:1 8:151 9:0 10:1 11:0 12:0 13:0 14:1 15:2 16:0 17:0 18:0 19:0 20:1 21:0 22:1 23:7 24:54 25:1 26:0 27:1 28:0.04 29:0 30:0 31:0 32:0 
0.017523842131151466 0:0 1:1 2:0 3:0 4:1 5:0 6:0 7:1 8:252 9:0 10:1 11:0 12:0 13:0 14:2 15:2 16:0 17:0 18:0 19:0 20:1 21:0 22:0 23:3 24:27 25:1 26:0 27:1 28:0.07 29:0 30:0 31:0 32:0 
0.041123141092089852 0:0 1:1 2:0 3:0 4:1 5:0 6:0 7:1 8:960 9:0 10:1 11:0 12:0 13:0 14:2 15:2 16:0 17:0 18:0 19:0 20:1 21:0 22:0 23:6 24:6 25:1 26:0 27:1 28:0 29:0 30:0 31:0 32:0 
0.034111181401643619 0:0 1:1 2:0 3:0 4:1 5:0 6:0 7:1 8:5558 9:0 10:1 11:0 12:0 13:0 14:9 15:9 16:0 17:0 18:0 19:0 20:1 21:0 22:0 23:3 24:55 25:1 26:0 27:1 28:0.04 29:0 30:0 31:0 32:0 
0.014141513782495509 0:0 1:1 2:0 3:0 4:1 5:0 6:0 7:1 8:373 9:0 10:1 11:0 12:0 13:0 14:9 15:9 16:0 17:0 18:0 19:0 20:1 21:0 22:0 23:16 24:15 25:0.94 26:0.12 27:0.94 28:0 29:0 30:0 31:0 32:0 
0.014153376177505381 0:0 1:1 2:0 3:0 4:1 5:0 6:0 7:1 8:212 9:0 10:1 11:0 12:0 13:0 14:2 15:2 16:0 17:0 18:0 19:0 20:1 21:0 22:0 23:9 24:62 25:0.89 26:0.22 27:0.89 28:0.03 29:0 30:0 31:0 32:0 
0.041198741071549916 0:0 1:1 2:0 3:0 4:1 5:0 6:0 7:1 8:1030 9:0 10:1 11:0 12:0 13:0 14:2 15:2 16:0 17:0 18:0 19:0 20:1 21:0 22:0 23:8 24:8 25:1 26:0 27:1 28:0 29:0 30:0 31:0 32:0 
0.041481619956780215 0:0 1:1 2:0 3:0 4:1 5:0 6:0 7:1 8:4539 9:0 10:1 11:0 12:0 13:0 14:5 15:5 16:0 17:0 18:0 19:0 20:1 21:0 22:0 23:11 24:40 25:1 26:0 27:1 28:0.08 29:0 30:0 31:0 32:0 
0.028755478587902759 0:0 1:1 2:0 3:0 4:1 5:0 6:0 7:1 8:641 9:0 10:1 11:0 12:0 13:0 14:1 15:1 16:0 17:0 18:0 19:0 20:1 21:0 22:0 23:5 24:5 25:1 26:0 27:1 28:0 29:0 30:0 31:0 32:0 
0.041833621864831132 0:0 1:1 2:0 3:0 4:1 5:0 6:0 7:1 8:4892 9:0 10:1 11:0 12:0 13:0 14:14 15:14 16:0 17:0 18:0 19:0 20:1 21:0 22:0 23:20 24:20 25:1 26:0 27:1 28:0 29:0 30:0 31:0 32:0 
0.021211772789386261 0:0 1:1 2:0 3:0 4:1 5:0 6:0 7:1 8:192 9:0 10:1 11:0 12:0 13:0 14:2 15:2 16:0 17:0 18:0 19:0 20:1 21:0 22:0 23:31 24:46 25:0.9 26:0.06 27:0.9 28:0.04 29:0 30:0 31:0 32:0 
0.037132299903506888 0:0 1:1 2:0 3:0 4:1 5:0 6:0 7:1 8:10073 9:0 10:1 11:0 12:0 13:0 14:2 15:2 16:0 17:0 18:0 19:0 20:1 21:0 22:0 23:9 24:50 25:0.89 26:0.22 27:0.89 28:0.04 29:0 30:0 31:0 32:0 
0.026383602577623479 0:0 1:1 2:0 3:0 4:1 5:0 6:0 7:1 8:7280 9:0 10:1 11:0 12:0 13:0 14:5 15:5 16:0 17:0 18:0 19:0 20:1 21:0 22:0 23:12 24:53 25:0.92 26:0.17 27:0.92 28:0.04 29:0 30:0 31:0 32:0 
0.0011819404714394389 0:0 1:0 2:1 3:0 4:1 5:0 6:0 7:1 8:147 9:147 10:1 11:0 12:0 13:0 14:1 15:1 16:0 17:0 18:0 19:0 20:1 21:0 22:0 23:255 24:1 25:0 26:0.62 27:0.99 28:0 29:0 30:0 31:0 32:0 
0.010916549352845041 0:0 1:0 2:1 3:0 4:1 5:0 6:0 7:1 8:147 9:0 10:1 11:0 12:0 13:0 14:5 15:1 16:0 17:0 18:0 19:0 20:0.2 21:0.6 22:0 23:181 24:1 25:0.01 26:0.57 27:0.88 28:0 29:0 30:0 31:0 32:0 
0.021551511897795257 0:0 1:1 2:0 3:0 4:1 5:0 6:0 7:1 8:4763 9:0 10:1 11:0 12:0 13:0 14:11 15:11 16:0 17:0 18:0 19:0 20:1 21:0 22:0 23:17 24:17 25:1 26:0 27:1 28:0 29:0 30:0 31:0 32:0 
0.025623654985418076 0:0 1:0 2:1 3:0 4:1 5:0 6:0 7:1 8:146 9:0 10:1 11:0 12:0 13:0 14:3 15:1 16:0 17:0 18:0 19:0 20:0.33 21:0.67 22:0 23:151 24:1 25:0.01 26:0.66 27:0.96 28:0 29:0 30:0 31:0 32:0 
0.041385119312150678 0:0 1:1 2:0 3:0 4:1 5:0 6:0 7:1 8:2191 9:0 10:1 11:0 12:0 13:0 14:13 15:13 16:0 17:0 18:0 19:0 20:1 21:0 22:0 23:19 24:19 25:1 26:0 27:1 28:0 29:0 30:0 31:0 32:0 
0.020625890104390567 0:0 1:0 2:1 3:0 4:1 5:0 6:0 7:1 8:147 9:147 10:1 11:0 12:0 13:0 14:1 15:1 16:0 17:0 18:0 19:0 20:1 21:0 22:0 23:255 24:3 25:0.01 26:0.47 27:0.93 28:0 29:0 30:0 31:0 32:0 
0.041231829389091978 0:0 1:1 2:0 3:0 4:1 5:0 6:0 7:1 8:16787 9:0 10:1 11:0 12:0 13:0 14:11 15:13 16:0 17:0 18:0 19:0 20:1 21:0 22:0.15 23:17 24:60 25:1 26:0 27:1 28:0.03 29:0 30:0 31:0 32:0 
0.041595536018627241 0:0 1:1 2:0 3:0 4:1 5:0 6:0 7:1 8:15722 9:0 10:1 11:0 12:0 13:0 14:6 15:7 16:0 17:0 18:0 19:0 20:1 21:0 22:0.29 23:12 24:55 25:1 26:0 27:1 28:0.04 29:0 30:0 31:0 32:0 
0.017211871403404844 0:0 1:0 2:1 3:0 4:1 5:0 6:0 7:1 8:147 9:0 10:1 11:0 12:0 13:0 14:1 15:1 16:0 17:0 18:0 19:0 20:1 21:0 22:0 23:255 24:5 25:0.02 26:0.63 27:0.97 28:0 29:0 30:0 31:0 32:0 
0.041108884310026142 0:0 1:1 2:0 3:0 4:1 5:0 6:0 7:1 8:1766 9:0 10:1 11:0 12:0 13:0 14:1 15:1 16:0 17:0 18:0 19:0 20:1 21:0 22:0 23:6 24:35 25:1 26:0 27:1 28:0.09 29:0 30:0 31:0 32:0 
0.029286823660517918 0:0 1:1 2:0 3:0 4:1 5:0 6:0 7:1 8:276 9:0 10:1 11:0 12:0 13:0 14:3 15:3 16:0 17:0 18:0 19:0 20:1 21:0 22:0 23:9 24:9 25:1 26:0 27:1 28:0 29:0 30:0 31:0 32:0 
0.037046100176616539 0:0 1:1 2:0 3:0 4:1 5:0 6:0 7:1 8:1690 9:0 10:1 11:0 12:0 13:0 14:4 15:4 16:0 17:0 18:0 19:0 20:1 21:0 22:0 23:10 24:10 25:1 26:0 27:1 28:0 29:0 30:0 31:0 32:0 
0.0074794353343476949 0:0 1:0 2:1 3:0 4:1 5:0 6:0 7:1 8:146 9:0 10:1 11:0 12:0 13:0 14:1 15:1 16:0 17:0 18:0 19:0 20:1 21:0 22:0 23:44 24:1 25:0.02 26:0.7 27:0.91 28:0 29:0 30:0 31:0 32:0 
0.041669679128361337 0:0 1:1 2:0 3:0 4:1 5:0 6:0 7:1 8:9178 9:0 10:1 11:0 12:0 13:0 14:2 15:2 16:0 17:0 18:0 19:0 20:1 21:0 22:0 23:9 24:8 25:0.89 26:0.22 27:0.89 28:0 29:0 30:0 31:0 32:0 
0.024355107464578814 0:0 1:0 2:1 3:0 4:1 5:0 6:0 7:1 8:42 9:92 10:1 11:0 12:0 13:0 14:4 15:4 16:0 17:0 18:0 19:0 20:1 21:0 22:0 23:19 24:30 25:1 26:0 27:1 28:0.07 29:0 30:0 31:0 32:0 
0.041841780371431506 0:0 1:1 2:0 3:0 4:1 5:0 6:0 7:1 8:7422 9:0 10:1 11:0 12:0 13:0 14:6 15:6 16:0 17:0 18:0 19:0 20:1 21:0 22:0 23:12 24:12 25:1 26:0 27:1 28:0 29:0 30:0 31:0 32:0 
0.019759633657789537 0:0 1:0 2:1 3:0 4:1 5:0 6:0 7:1 8:103 9:0 10:1 11:0 12:0 13:0 14:1 15:2 16:0 17:0 18:0 19:0 20:1 21:0 22:1 23:40 24:40 25:1 26:0 27:1 28:0 29:0 30:0 31:0 32:0 
0.03467466614525231 0:0 1:1 2:0 3:0 4:1 5:0 6:0 7:1 8:5558 9:0 10:1 11:0 12:0 13:0 14:16 15:16 16:0 17:0 18:0 19:0 20:1 21:0 22:0 23:22 24:22 25:1 26:0 27:1 28:0 29:0 30:0 31:0 32:0 
0.026977287241978693 0:0 1:1 2:0 3:0 4:1 5:0 6:0 7:1 8:2890 9:0 10:1 11:0 12:0 13:0 14:10 15:10 16:0 17:0 18:0 19:0 20:1 21:0 22:0 23:16 24:16 25:1 26:0 27:1 28:0 29:0 30:0 31:0 32:0 
0.039448552784808653 0:0 1:1 2:0 3:0 4:1 5:0 6:0 7:1 8:5929 9:0 10:1 11:0 12:0 13:0 14:15 15:15 16:0 17:0 18:0 19:0 20:1 21:0 22:0 23:23 24:21 25:0.91 26:0.09 27:0.91 28:0 29:0 30:0 31:0 32:0 
0.024796456001255917 0:0 1:0 2:1 3:0 4:1 5:0 6:0 7:1 8:147 9:0 10:1 11:0 12:0 13:0 14:3 15:1 16:0.33 17:0 18:0 19:0 20:0.33 21:0.67 22:0 23:199 24:1 25:0.01 26:0.58 27:0.88 28:0 29:0.01 30:0 31:0 32:0 
0.033364577915786064 0:15 1:0 2:1 3:0 4:1 5:0 6:0 7:1 8:96 9:44 10:1 11:0 12:0 13:0 14:2 15:3 16:0 17:0 18:0 19:0 20:1 21:0 22:0.67 23:36 24:34 25:0.94 26:0.06 27:0.94 28:0 29:0 30:0 31:0 32:0 
0.041251380739837293 0:0 1:1 2:0 3:0 4:1 5:0 6:0 7:1 8:7077 9:0 10:1 11:0 12:0 13:0 14:5 15:5 16:0 17:0 18:0 19:0 20:1 21:0 22:0 23:11 24:11 25:1 26:0 27:1 28:0 29:0 30:0 31:0 32:0 
0.036123981682590553 0:0 1:1 2:0 3:0 4:1 5:0 6:0 7:1 8:1830 9:0 10:1 11:0 12:0 13:0 14:5 15:6 16:0 17:0 18:0 19:0 20:1 21:0 22:0.33 23:11 24:55 25:1 26:0 27:1 28:0.04 29:0 30:0 31:0 32:0 
0.041723697629895376 0:0 1:1 2:0 3:0 4:1 5:0 6:0 7:1 8:5198 9:0 10:1 11:0 12:0 13:0 14:1 15:1 16:0 17:0 18:0 19:0 20:1 21:0 22:0 23:5 24:29 25:1 26:0 27:1 28:0.07 29:0 30:0 31:0 32:0 
0.034998129043345053 0:0 1:1 2:0 3:0 4:1 5:0 6:0 7:1 8:1376 9:0 10:1 11:0 12:0 13:0 14:9 15:9 16:0 17:0 18:0 19:0 20:1 21:0 22:0 23:15 24:15 25:1 26:0 27:1 28:0 29:0 30:0 31:0 32:0 
0.03677787778624983 0:0 1:1 2:0 3:0 4:1 5:0 6:0 7:1 8:12241 9:0 10:1 11:0 12:0 13:0 14:7 15:7 16:0 17:0 18:0 19:0 20:1 21:0 22:0 23:13 24:13 25:1 26:0 27:1 28:0 29:0 30:0 31:0 32:0 
0.037860988599865558 0:0 1:1 2:0 3:0 4:1 5:0 6:0 7:1 8:7233 9:0 10:1 11:0 12:0 13:0 14:10 15:10 16:0 17:0 18:0 19:0 20:1 21:0 22:0 23:16 24:16 25:1 26:0 27:1 28:0 29:0 30:0 31:0 32:0 
0.0082736670922129701 0:0 1:1 2:0 3:0 4:1 5:0 6:0 7:1 8:59 9:0 10:1 11:0 12:0 13:0 14:1 15:1 16:0 17:0 18:0 19:0 20:1 21:0 22:0 23:8 24:7 25:0.88 26:0.25 27:0.88 28:0 29:0 30:0 31:0 32:0 
0.028139103272039088 0:0 1:1 2:0 3:0 4:1 5:0 6:0 7:1 8:26408 9:0 10:1 11:0 12:0 13:0 14:9 15:9 16:0 17:0 18:0 19:0 20:1 21:0 22:0 23:15 24:15 25:1 26:0 27:1 28:0 29:0 30:0 31:0 32:0 
0.040480429695450022 0:0 1:1 2:0 3:0 4:1 5:0 6:0 7:1 8:768 9:0 10:1 11:0 12:0 13:0 14:8 15:8 16:0 17:0 18:0 19:0 20:1 21:0 22:0 23:16 24:14 25:0.88 26:0.12 27:0.88 28:0 29:0 30:0 31:0 32:0 
0.034106963483796091 0:0 1:1 2:0 3:0 4:1 5:0 6:0 7:1 8:1874 9:0 10:1 11:0 12:0 13:0 14:11 15:11 16:0 17:0 18:0 19:0 20:1 21:0 22:0 23:5 24:57 25:1 26:0 27:1 28:0.04 29:0 30:0 31:0 32:0 
0.020337640823611919 0:0 1:1 2:0 3:0 4:1 5:0 6:0 7:1 8:7280 9:0 10:1 11:0 12:0 13:0 14:1 15:1 16:0 17:0 18:0 19:0 20:1 21:0 22:0 23:7 24:36 25:1 26:0 27:1 28:0.08 29:0 30:0 31:0 32:0 
0.025842852305266249 0:0 1:1 2:0 3:0 4:1 5:0 6:0 7:1 8:7196 9:0 10:1 11:0 12:0 13:0 14:4 15:4 16:0 17:0 18:0 19:0 20:1 21:0 22:0 23:4 24:69 25:1 26:0 27:1 28:0.03 29:0 30:0.01 31:0 32:0 
0.010685048737584588 0:0 1:0 2:1 3:0 4:1 5:0 6:0 7:1 8:36 9:0 10:1 11:0 12:0 13:0 14:1 15:1 16:0 17:0 18:0 19:0 20:1 21:0 22:0 23:14 24:14 25:1 26:0 27:1 28:0 29:0 30:0 31:0 32:0 
0.006311692551550719 0:0 1:1 2:0 3:0 4:1 5:0 6:0 7:1 8:637 9:0 10:1 11:0 12:0 13:0 14:8 15:9 16:0 17:0 18:0 19:0 20:1 21:0 22:0.22 23:16 24:14 25:0.88 26:0.12 27:0.88 28:0 29:0 30:0 31:0 32:0 
0.035425829348830561 0:0 1:1 2:0 3:0 4:1 5:0 6:0 7:1 8:6062 9:0 10:1 11:0 12:0 13:0 14:4 15:4 16:0 17:0 18:0 19:0 20:1 21:0 22:0 23:11 24:10 25:0.91 26:0.18 27:0.91 28:0 29:0 30:0 31:0 32:0 
0.041487629154153625 0:0 1:1 2:0 3:0 4:1 5:0 6:0 7:1 8:3676 9:0 10:1 11:0 12:0 13:0 14:8 15:8 16:0 17:0 18:0 19:0 20:1 21:0 22:0 23:14 24:14 25:1 26:0 27:1 28:0 29:0 30:0 31:0 32:0 
0.04173373441488995 0:0 1:1 2:0 3:0 4:1 5:0 6:0 7:1 8:13239 9:0 10:1 11:0 12:0 13:0 14:3 15:3 16:0 17:0 18:0 19:0 20:1 21:0 22:0 23:9 24:9 25:1 26:0 27:1 28:0 29:0 30:0 31:0 32:0 
0.023123352313523762 0:0 1:1 2:0 3:0 4:1 5:0 6:0 7:1 8:383 9:0 10:1 11:0 12:0 13:0 14:2 15:2 16:0 17:0 18:0 19:0 20:1 21:0 22:0 23:30 24:45 25:0.9 26:0.07 27:0.9 28:0.04 29:0 30:0 31:0 32:0 
0.041143714075532717 0:0 1:1 2:0 3:0 4:1 5:0 6:0 7:1 8:7012 9:0 10:1 11:0 12:0 13:0 14:5 15:5 16:0 17:0 18:0 19:0 20:1 21:0 22:0 23:11 24:11 25:1 26:0 27:1 28:0 29:0 30:0 31:0 32:0 
0.04145355190294344 0:0 1:1 2:0 3:0 4:1 5:0 6:0 7:1 8:2056 9:0 10:1 11:0 12:0 13:0 14:6 15:6 16:0 17:0 18:0 19:0 20:1 21:0 22:0 23:12 24:12 25:1 26:0 27:1 28:0 29:0 30:0 31:0 32:0 
0.026977287241978693 0:0 1:1 2:0 3:0 4:1 5:0 6:0 7:1 8:2878 9:0 10:1 11:0 12:0 13:0 14:2 15:1 16:0 17:0 18:0 19:0 20:0.5 21:1 22:0 23:30 24:28 25:0.93 26:0.1 27:0.93 28:0 29:0 30:0 31:0 32:0 
0.041613745569425015 0:0 1:1 2:0 3:0 4:1 5:0 6:0 7:1 8:11376 9:0 10:1 11:0 12:0 13:0 14:2 15:2 16:0 17:0 18:0 19:0 20:1 21:0 22:0 23:8 24:8 25:1 26:0 27:1 28:0 29:0 30:0 31:0 32:0 
0.003314809542341049 0:0 1:0 2:1 3:0 4:1 5:0 6:0 7:1 8:147 9:0 10:1 11:0 12:0 13:0 14:5 15:1 16:0 17:0 18:0 19:0 20:0.2 21:0.6 22:0 23:143 24:1 25:0.01 26:0.69 27:0.94 28:0 29:0 30:0 31:0 32:0 
0.011578250827447994 0:0 1:0 2:1 3:0 4:1 5:0 6:0 7:1 8:145 9:0 10:1 11:0 12:0 13:0 14:3 15:1 16:0 17:0 18:0 19:0 20:0.33 21:0.67 22:0 23:230 24:1 25:0 26:0.6 27:0.92 28:0 29:0 30:0 31:0 32:0 
0.027804913030774359 0:0 1:1 2:0 3:0 4:1 5:0 6:0 7:1 8:201 9:0 10:1 11:0 12:0 13:0 14:1 15:1 16:0 17:0 18:0 19:0 20:1 21:0 22:0 23:7 24:7 25:1 26:0 27:1 28:0 29:0 30:0 31:0 32:0 
0.041756833324455532 0:0 1:1 2:0 3:0 4:1 5:0 6:0 7:1 8:9311 9:0 10:1 11:0 12:0 13:0 14:7 15:7 16:0 17:0 18:0 19:0 20:1 21:0 22:0 23:13 24:13 25:1 26:0 27:1 28:0 29:0 30:0 31:0 32:0 
0.024164527645789774 0:0 1:0 2:1 3:0 4:1 5:0 6:0 7:1 8:36 9:0 10:1 11:0 12:0 13:0 14:2 15:2 16:0 17:0 18:0 19:0 20:1 21:0 22:0 23:15 24:67 25:1 26:0 27:1 28:0.04 29:0 30:0 31:0 32:0 
0.011201578053080519 0:0 1:0 2:1 3:0 4:1 5:0 6:0 7:1 8:36 9:0 10:1 11:0 12:0 13:0 14:3 15:5 16:0 17:0 18:0 19:0 20:1 21:0 22:0.6 23:42 24:42 25:1 26:0 27:1 28:0 29:0 30:0 31:0 32:0 
0.032715328031719865 0:0 1:0 2:1 3:0 4:1 5:0 6:0 7:1 8:36 9:0 10:1 11:0 12:0 13:0 14:13 15:13 16:0 17:0 18:0 19:0 20:1 21:0 22:0 23:65 24:65 25:1 26:0 27:1 28:0 29:0 30:0 31:0 32:0 
0.0046951712553489379 0:0 1:0 2:1 3:0 4:1 5:0 6:0 7:1 8:36 9:0 10:1 11:0 12:0 13:0 14:3 15:24 16:0 17:0 18:0 19:0 20:1 21:0 22:0.25 23:16 24:52 25:1 26:0 27:1 28:0.04 29:0 30:0 31:0 32:0 
0.024002172203705801 0:0 1:0 2:1 3:0 4:1 5:0 6:0 7:1 8:36 9:0 10:1 11:0 12:0 13:0 14:10 15:26 16:0 17:0 18:0 19:0 20:1 21:0 22:0.19 23:10 24:10 25:1 26:0 27:1 28:0 29:0 30:0 31:0 32:0 
0.013165272099317598 0:0 1:0 2:1 3:0 4:1 5:0 6:0 7:1 8:36 9:0 10:1 11:0 12:0 13:0 14:4 15:17 16:0 17:0 18:0 19:0 20:1 21:0 22:0.12 23:4 24:52 25:1 26:0 27:1 28:0.04 29:0 30:0 31:0 32:0 
0.041445808608521574 0:22 1:1 2:0 3:0 4:1 5:0 6:0 7:1 8:6932 9:0 10:1 11:0 12:0 13:0 14:1 15:1 16:0 17:0 18:0 19:0 20:1 21:0 22:0 23:4 24:4 25:1 26:0 27:1 28:0 29:0 30:0 31:0 32:0 
0.041451598354788975 0:0 1:0 2:1 3:0 4:1 5:0 6:0 7:1 8:146 9:146 10:1 11:0 12:0 13:0 14:1 15:1 16:0 17:0 18:0 19:0 20:1 21:0 22:0 23:35 24:1 25:0.03 26:0.17 27:0.97 28:0 29:0 30:0 31:0 32:0 
