svm_type one_class
kernel_type rbf
gamma 0.001
nr_class 2
total_sv 644
rho 0.018308589420858119
SV
0.0086604322951113599 0:26 1:1 2:0 3:0 4:1 5:0 6:0 7:1 8:273 9:903 10:1 11:0 12:0 13:0 14:1 15:1 16:0 17:0 18:0 19:0 20:1 21:0 22:0 23:176 24:49 25:0.28 26:0.02 27:0.01 28:0 29:0.01 30:0.02 31:0 32:0 
0.013536670458356341 0:20 1:1 2:0 3:0 4:1 5:0 6:0 7:1 8:2310 9:328 10:1 11:0 12:0 13:0 14:1 15:3 16:0 17:0 18:0 19:0 20:1 21:0 22:1 23:255 24:157 25:0.62 26:0.02 27:0 28:0 29:0 30:0 31:0 32:0 
0.0058316036860713589 0:30 1:1 2:0 3:0 4:1 5:0 6:0 7:1 8:1458 9:4152 10:1 11:0 12:0 13:0 14:1 15:1 16:0 17:0 18:0 19:0 20:1 21:0 22:0 23:158 24:40 25:0.25 26:0.03 27:0.01 28:0 29:0 30:0 31:0 32:0 
0.017761453492319727 0:8 1:1 2:0 3:0 4:1 5:0 6:0 7:1 8:525 9:335 10:1 11:0 12:0 13:0 14:1 15:2 16:0 17:0 18:0 19:0 20:1 21:0 22:1 23:67 24:178 25:0.99 26:0.03 27:0.01 28:0.01 29:0 30:0 31:0 32:0 
0.0016130961187853978 0:27 1:1 2:0 3:0 4:1 5:0 6:0 7:1 8:1067 9:3081 10:1 11:0 12:0 13:0 14:1 15:1 16:0 17:0 18:0 19:0 20:1 21:0 22:0 23:254 24:70 25:0.28 26:0.02 27:0 28:0 29:0 30:0 31:0 32:0 
0.010288313271800261 0:8 1:1 2:0 3:0 4:1 5:0 6:0 7:1 8:2544 9:333 10:1 11:0 12:0 13:0 14:1 15:1 16:0 17:0 18:0 19:0 20:1 21:0 22:0 23:152 24:189 25:0.65 26:0.02 27:0.01 28:0.01 29:0 30:0 31:0 32:0 
0.014463757931520703 0:10 1:1 2:0 3:0 4:1 5:0 6:0 7:1 8:2376 9:329 10:1 11:0 12:0 13:0 14:1 15:1 16:0 17:0 18:0 19:0 20:1 21:0 22:0 23:149 24:166 25:0.55 26:0.03 27:0.01 28:0.01 29:0 30:0 31:0 32:0 
0.018540073892409002 0:27 1:1 2:0 3:0 4:1 5:0 6:0 7:1 8:704 9:2070 10:1 11:0 12:0 13:0 14:1 15:1 16:0 17:0 18:0 19:0 20:1 21:0 22:0 23:100 24:31 25:0.31 26:0.07 27:0.01 28:0 29:0 30:0 31:0 32:0 
0.01159587570495864 0:6 1:1 2:0 3:0 4:1 5:0 6:1 7:0 8:1493 9:365 10:1 11:0 12:0 13:0 14:1 15:1 16:1 17:1 18:0 19:0 20:1 21:0 22:0 23:132 24:145 25:0.32 26:0.05 27:0.01 28:0.01 29:0.02 30:0.01 31:0 32:0 
0.010064401824400548 0:24 1:1 2:0 3:0 4:1 5:0 6:0 7:1 8:847 9:334 10:1 11:0 12:0 13:0 14:1 15:1 16:0 17:0 18:0 19:0 20:1 21:0 22:0 23:71 24:129 25:0.58 26:0.06 27:0.01 28:0.02 29:0 30:0.09 31:0 32:0 
0.016799765391196674 0:19 1:1 2:0 3:0 4:1 5:0 6:0 7:1 8:955 9:281 10:1 11:0 12:0 13:0 14:1 15:1 16:0 17:0 18:0 19:0 20:1 21:0 22:0 23:212 24:156 25:0.56 26:0.07 27:0 28:0.01 29:0 30:0 31:0 32:0 
0.0086981866218054094 0:20 1:1 2:0 3:0 4:1 5:0 6:0 7:1 8:1205 9:333 10:1 11:0 12:0 13:0 14:1 15:1 16:0 17:0 18:0 19:0 20:1 21:0 22:0 23:104 24:178 25:0.7 26:0.03 27:0.01 28:0.01 29:0 30:0 31:0 32:0 
0.013200517088217432 0:6 1:1 2:0 3:0 4:1 5:0 6:0 7:1 8:1580 9:333 10:1 11:0 12:0 13:0 14:1 15:1 16:0 17:0 18:0 19:0 20:1 21:0 22:0 23:89 24:59 25:0.66 26:0.04 27:0.01 28:0 29:0 30:0 31:0 32:0 
0.014465744039138705 0:20 1:1 2:0 3:0 4:1 5:0 6:0 7:1 8:904 9:330 10:1 11:0 12:0 13:0 14:1 15:4 16:0 17:0 18:0 19:0 20:1 21:0 22:1 23:2 24:184 25:1 26:0 27:0.5 28:0.01 29:0 30:0 31:0 32:0 
0.018213743778979576 0:7 1:1 2:0 3:0 4:1 5:0 6:0 7:1 8:1030 9:331 10:1 11:0 12:0 13:0 14:1 15:1 16:0 17:0 18:0 19:0 20:1 21:0 22:0 23:10 24:201 25:0.9 26:0.2 27:0.1 28:0.01 29:0 30:0 31:0 32:0 
0.018536591779579913 0:17 1:1 2:0 3:0 4:1 5:0 6:0 7:1 8:1933 9:411 10:1 11:0 12:0 13:0 14:1 15:1 16:0 17:0 18:0 19:0 20:1 21:0 22:0 23:84 24:57 25:0.68 26:0.04 27:0.01 28:0 29:0 30:0 31:0 32:0 
0.016321412819309405 0:29 1:1 2:0 3:0 4:1 5:0 6:0 7:1 8:1179 9:328 10:1 11:0 12:0 13:0 14:1 15:1 16:0 17:0 18:0 19:0 20:1 21:0 22:0 23:136 24:71 25:0.52 26:0.02 27:0.01 28:0 29:0 30:0 31:0 32:0 
0.0055777671081527758 0:27 1:1 2:0 3:0 4:1 5:0 6:0 7:1 8:1216 9:3380 10:1 11:0 12:0 13:0 14:1 15:1 16:0 17:0 18:0 19:0 20:1 21:0 22:0 23:255 24:70 25:0.27 26:0.03 27:0 28:0 29:0 30:0 31:0 32:0 
0.017810852800576836 0:6 1:1 2:0 3:0 4:1 5:0 6:0 7:1 8:2846 9:370 10:1 11:0 12:0 13:0 14:1 15:1 16:0 17:0 18:0 19:0 20:1 21:0 22:0 23:255 24:141 25:0.55 26:0.02 27:0 28:0 29:0 30:0 31:0 32:0 
0.0025849016116269814 0:6 1:1 2:0 3:0 4:1 5:0 6:0 7:1 8:1109 9:330 10:1 11:0 12:0 13:0 14:1 15:1 16:0 17:0 18:0 19:0 20:1 21:0 22:0 23:90 24:86 25:0.77 26:0.06 27:0.01 28:0.02 29:0 30:0 31:0 32:0 
0.0081711432503190611 0:12 1:1 2:0 3:0 4:1 5:0 6:0 7:1 8:1203 9:333 10:1 11:0 12:0 13:0 14:1 15:1 16:0 17:0 18:0 19:0 20:1 21:0 22:0 23:137 24:167 25:0.56 26:0.03 27:0.01 28:0.01 29:0 30:0 31:0 32:0 
0.014098573472048532 0:6 1:1 2:0 3:0 4:1 5:0 6:0 7:1 8:1413 9:368 10:1 11:0 12:0 13:0 14:1 15:2 16:0 17:0 18:0 19:0 20:1 21:0 22:1 23:20 24:158 25:0.95 26:0.1 27:0.05 28:0.01 29:0 30:0 31:0 32:0 
0.010818300286034402 0:12 1:1 2:0 3:0 4:1 5:0 6:0 7:1 8:632 9:329 10:1 11:0 12:0 13:0 14:1 15:1 16:0 17:0 18:0 19:0 20:1 21:0 22:0 23:62 24:104 25:0.94 26:0.03 27:0.02 28:0.02 29:0 30:0 31:0 32:0 
0.0053880725297937131 0:28 1:1 2:0 3:0 4:1 5:0 6:0 7:1 8:1453 9:4152 10:1 11:0 12:0 13:0 14:1 15:1 16:0 17:0 18:0 19:0 20:1 21:0 22:0 23:43 24:10 25:0.23 26:0.14 27:0.02 28:0 29:0 30:0 31:0 32:0 
0.017664415758661227 0:8 1:1 2:0 3:0 4:1 5:0 6:0 7:1 8:889 9:363 10:1 11:0 12:0 13:0 14:1 15:1 16:0 17:0 18:0 19:0 20:1 21:0 22:0 23:255 24:114 25:0.45 26:0.03 27:0 28:0 29:0 30:0 31:0 32:0 
0.018290840739858618 0:7 1:1 2:0 3:0 4:1 5:0 6:0 7:1 8:11998 9:1383 10:1 11:0 12:0 13:0 14:1 15:3 16:0 17:0 18:0 19:0 20:1 21:0 22:1 23:255 24:140 25:0.55 26:0.02 27:0 28:0 29:0 30:0.01 31:0 32:0 
0.017647533220864139 0:23 1:1 2:0 3:0 4:0 5:1 6:0 7:1 8:221 9:296 10:1 11:0 12:0 13:0 14:12 15:12 16:0 17:0 18:0 19:0 20:1 21:0 22:0 23:33 24:255 25:1 26:0 27:0.03 28:0.03 29:0 30:0.01 31:0 32:0 
0.011103953524554615 0:12 1:1 2:0 3:0 4:1 5:0 6:0 7:1 8:1100 9:330 10:1 11:0 12:0 13:0 14:1 15:1 16:0 17:0 18:0 19:0 20:1 21:0 22:0 23:123 24:95 25:0.77 26:0.03 27:0.01 28:0 29:0 30:0 31:0 32:0 
0.018159923629627348 0:28 1:1 2:0 3:0 4:1 5:0 6:0 7:1 8:701 9:2070 10:1 11:0 12:0 13:0 14:1 15:1 16:0 17:0 18:0 19:0 20:1 21:0 22:0 23:169 24:44 25:0.26 26:0.04 27:0.01 28:0 29:0.01 30:0 31:0 32:0 
0.0123803921561712 0:6 1:1 2:0 3:0 4:1 5:0 6:0 7:1 8:1376 9:333 10:1 11:0 12:0 13:0 14:2 15:2 16:0 17:0 18:0 19:0 20:1 21:0 22:0 23:157 24:187 25:0.69 26:0.02 27:0.01 28:0.01 29:0.01 30:0.01 31:0 32:0 
0.018147646465537355 0:6 1:1 2:0 3:0 4:1 5:0 6:0 7:1 8:1470 9:414 10:1 11:0 12:0 13:0 14:1 15:1 16:0 17:0 18:0 19:0 20:1 21:0 22:0 23:93 24:73 25:0.78 26:0.04 27:0.01 28:0 29:0 30:0 31:0 32:0 
0.0091297360769467279 0:13 1:1 2:0 3:0 4:1 5:0 6:0 7:1 8:1676 9:366 10:1 11:0 12:0 13:0 14:1 15:1 16:0 17:0 18:0 19:0 20:1 21:0 22:0 23:179 24:110 25:0.61 26:0.02 27:0.01 28:0 29:0 30:0 31:0 32:0 
0.0055086590473452414 0:23 1:1 2:0 3:0 4:1 5:0 6:0 7:1 8:227 9:765 10:1 11:0 12:0 13:0 14:1 15:1 16:0 17:0 18:0 19:0 20:1 21:0 22:0 23:255 24:61 25:0.24 26:0.02 27:0 28:0 29:0 30:0 31:0 32:0 
0.0079804529625721807 0:26 1:1 2:0 3:0 4:1 5:0 6:0 7:1 8:874 9:2586 10:1 11:0 12:0 13:0 14:1 15:1 16:0 17:0 18:0 19:0 20:1 21:0 22:0 23:240 24:52 25:0.22 26:0.02 27:0 28:0 29:0 30:0 31:0 32:0 
0.016755560786543167 0:8 1:1 2:0 3:0 4:1 5:0 6:0 7:1 8:1630 9:335 10:1 11:0 12:0 13:0 14:1 15:2 16:0 17:0 18:0 19:0 20:1 21:0 22:1 23:27 24:187 25:1 26:0 27:0.04 28:0.02 29:0 30:0 31:0 32:0 
0.0035711111911983129 0:21 1:1 2:0 3:0 4:1 5:0 6:0 7:1 8:238 9:772 10:1 11:0 12:0 13:0 14:1 15:1 16:0 17:0 18:0 19:0 20:1 21:0 22:0 23:79 24:29 25:0.37 26:0.04 27:0.01 28:0 29:0 30:0 31:0 32:0 
0.010921503387551854 0:27 1:1 2:0 3:0 4:1 5:0 6:0 7:1 8:944 9:2720 10:1 11:0 12:0 13:0 14:1 15:1 16:0 17:0 18:0 19:0 20:1 21:0 22:0 23:58 24:21 25:0.36 26:0.09 27:0.02 28:0 29:0 30:0 31:0 32:0 
0.0091423561297561788 0:15 1:1 2:0 3:0 4:1 5:0 6:0 7:1 8:992 9:329 10:1 11:0 12:0 13:0 14:1 15:1 16:0 17:0 18:0 19:0 20:1 21:0 22:0 23:74 24:120 25:0.74 26:0.05 27:0.01 28:0.02 29:0 30:0 31:0 32:0 
0.011813416730351261 0:14 1:1 2:0 3:0 4:1 5:0 6:0 7:1 8:1119 9:330 10:1 11:0 12:0 13:0 14:1 15:2 16:0 17:0 18:0 19:0 20:1 21:0 22:1 23:71 24:172 25:0.59 26:0.04 27:0.01 28:0.02 29:0 30:0 31:0 32:0 
0.018293799424592833 0:9 1:1 2:0 3:0 4:1 5:0 6:0 7:1 8:8845 9:332 10:1 11:0 12:0 13:0 14:1 15:2 16:0 17:0 18:0 19:0 20:1 21:0 22:1 23:156 24:171 25:0.76 26:0.02 27:0.01 28:0.01 29:0 30:0 31:0 32:0 
0.013073621369568224 0:22 1:1 2:0 3:0 4:1 5:0 6:0 7:1 8:335 9:1054 10:1 11:0 12:0 13:0 14:1 15:1 16:0 17:0 18:0 19:0 20:1 21:0 22:0 23:190 24:76 25:0.4 26:0.03 27:0.01 28:0 29:0 30:0 31:0 32:0 
0.012876336635713638 0:8 1:1 2:0 3:0 4:1 5:0 6:0 7:1 8:670 9:330 10:1 11:0 12:0 13:0 14:1 15:1 16:0 17:0 18:0 19:0 20:1 21:0 22:0 23:141 24:170 25:0.74 26:0.04 27:0.01 28:0.01 29:0 30:0 31:0 32:0 
0.0025212420025356023 0:13 1:1 2:0 3:0 4:1 5:0 6:0 7:1 8:991 9:330 10:1 11:0 12:0 13:0 14:1 15:1 16:0 17:0 18:0 19:0 20:1 21:0 22:0 23:201 24:149 25:0.74 26:0.01 27:0 28:0 29:0 30:0 31:0 32:0 
0.0066106311037061926 0:7 1:1 2:0 3:0 4:1 5:0 6:0 7:1 8:882 9:338 10:1 11:0 12:0 13:0 14:1 15:2 16:0 17:0 18:0 19:0 20:1 21:0 22:1 23:157 24:144 25:0.51 26:0.03 27:0.01 28:0.01 29:0 30:0 31:0 32:0 
0.015256605061349612 0:6 1:1 2:0 3:0 4:1 5:0 6:0 7:1 8:789 9:334 10:1 11:0 12:0 13:0 14:1 15:1 16:0 17:0 18:0 19:0 20:1 21:0 22:0 23:97 24:75 25:0.77 26:0.03 27:0.01 28:0 29:0 30:0 31:0 32:0 
0.017104764960523582 0:15 1:1 2:0 3:0 4:1 5:0 6:0 7:1 8:864 9:280 10:1 11:0 12:0 13:0 14:1 15:1 16:0 17:0 18:0 19:0 20:1 21:0 22:0 23:164 24:119 25:0.54 26:0.04 27:0.01 28:0.02 29:0 30:0 31:0 32:0 
0.0055000616039852304 0:15 1:1 2:0 3:0 4:1 5:0 6:0 7:1 8:898 9:331 10:1 11:0 12:0 13:0 14:2 15:1 16:0 17:0 18:0 19:0 20:0.5 21:1 22:0 23:114 24:73 25:0.64 26:0.05 27:0.01 28:0 29:0.01 30:0 31:0 32:0 
0.013659540339872685 0:16 1:1 2:0 3:0 4:1 5:0 6:0 7:1 8:1429 9:364 10:1 11:0 12:0 13:0 14:1 15:1 16:0 17:0 18:0 19:0 20:1 21:0 22:0 23:111 24:89 25:0.8 26:0.03 27:0.01 28:0 29:0 30:0 31:0 32:0 
0.018487230457093447 0:11 1:1 2:0 3:0 4:1 5:0 6:0 7:1 8:2119 9:332 10:1 11:0 12:0 13:0 14:1 15:1 16:0 17:0 18:0 19:0 20:1 21:0 22:0 23:8 24:6 25:0.75 26:0.25 27:0.12 28:0 29:0 30:0 31:0 32:0 
0.013285544025291956 0:7 1:1 2:0 3:0 4:0 5:1 6:0 7:1 8:284 9:148 10:1 11:0 12:0 13:0 14:3 15:3 16:0 17:0 18:0 19:0 20:1 21:0 22:0 23:20 24:255 25:1 26:0 27:0.05 28:0.01 29:0 30:0 31:0 32:0 
0.012738230618545475 0:28 1:1 2:0 3:0 4:1 5:0 6:0 7:1 8:855 9:2586 10:1 11:0 12:0 13:0 14:1 15:1 16:0 17:0 18:0 19:0 20:1 21:0 22:0 23:8 24:8 25:1 26:0 27:0.12 28:0 29:0 30:0 31:0 32:0 
0.004022319597442028 0:28 1:1 2:0 3:0 4:1 5:0 6:0 7:1 8:942 9:2713 10:1 11:0 12:0 13:0 14:1 15:1 16:0 17:0 18:0 19:0 20:1 21:0 22:0 23:245 24:66 25:0.27 26:0.03 27:0 28:0 29:0 30:0 31:0 32:0 
0.0081563351476848841 0:20 1:1 2:0 3:0 4:1 5:0 6:0 7:1 8:245 9:774 10:1 11:0 12:0 13:0 14:1 15:1 16:0 17:0 18:0 19:0 20:1 21:0 22:0 23:201 24:53 25:0.26 26:0.07 27:0 28:0 29:0.01 30:0.04 31:0 32:0 
0.018408466434077904 0:11 1:1 2:0 3:0 4:1 5:0 6:0 7:1 8:5235 9:329 10:1 11:0 12:0 13:0 14:1 15:3 16:0 17:0 18:0 19:0 20:1 21:0 22:1 23:129 24:100 25:0.78 26:0.03 27:0.01 28:0 29:0 30:0 31:0 32:0 
0.0029492466230564007 0:27 1:1 2:0 3:0 4:1 5:0 6:0 7:1 8:1491 9:4152 10:1 11:0 12:0 13:0 14:1 15:1 16:0 17:0 18:0 19:0 20:1 21:0 22:0 23:8 24:4 25:0.5 26:0.25 27:0.12 28:0 29:0 30:0 31:0 32:0 
0.015137807280513864 0:12 1:1 2:0 3:0 4:1 5:0 6:0 7:1 8:1313 9:336 10:1 11:0 12:0 13:0 14:1 15:1 16:0 17:0 18:0 19:0 20:1 21:0 22:0 23:195 24:187 25:0.68 26:0.02 27:0.01 28:0.01 29:0 30:0 31:0 32:0 
0.01161449595826587 0:22 1:1 2:0 3:0 4:1 5:0 6:0 7:1 8:288 9:903 10:1 11:0 12:0 13:0 14:1 15:1 16:0 17:0 18:0 19:0 20:1 21:0 22:0 23:3 24:2 25:0.67 26:0.67 27:0.33 28:0 29:0 30:0 31:0 32:0 
0.018284223444292081 0:8 1:1 2:0 3:0 4:1 5:0 6:0 7:1 8:3370 9:330 10:1 11:0 12:0 13:0 14:1 15:2 16:0 17:0 18:0 19:0 20:1 21:0 22:1 23:190 24:176 25:0.68 26:0.02 27:0.01 28:0.01 29:0 30:0 31:0 32:0 
0.0056543319930466599 0:27 1:1 2:0 3:0 4:1 5:0 6:0 7:1 8:1484 9:4152 10:1 11:0 12:0 13:0 14:1 15:1 16:0 17:0 18:0 19:0 20:1 21:0 22:0 23:130 24:30 25:0.23 26:0.05 27:0.01 28:0 29:0 30:0 31:0 32:0 
0.0057179839296883205 0:30 1:1 2:0 3:0 4:1 5:0 6:0 7:1 8:1227 9:3380 10:1 11:0 12:0 13:0 14:1 15:1 16:0 17:0 18:0 19:0 20:1 21:0 22:0 23:243 24:60 25:0.25 26:0.02 27:0 28:0 29:0 30:0 31:0 32:0 
0.014474069448578503 0:18 1:1 2:0 3:0 4:1 5:0 6:0 7:1 8:12614 9:1391 10:1 11:0 12:0 13:0 14:1 15:1 16:0 17:0 18:0 19:0 20:1 21:0 22:0 23:49 24:173 25:0.98 26:0.04 27:0.02 28:0.02 29:0 30:0 31:0 32:0 
0.0084623196846125674 0:26 1:1 2:0 3:0 4:1 5:0 6:0 7:1 8:284 9:903 10:1 11:0 12:0 13:0 14:1 15:1 16:0 17:0 18:0 19:0 20:1 21:0 22:0 23:131 24:37 25:0.28 26:0.03 27:0.01 28:0 29:0 30:0 31:0 32:0 
0.0099241516524648347 0:20 1:1 2:0 3:0 4:1 5:0 6:0 7:1 8:2063 9:334 10:1 11:0 12:0 13:0 14:3 15:1 16:0 17:0 18:0 19:0 20:0.33 21:0.67 22:0 23:126 24:130 25:0.44 26:0.06 27:0.01 28:0.02 29:0 30:0 31:0 32:0 
0.016350481628417554 0:9 1:1 2:0 3:0 4:1 5:0 6:0 7:1 8:1293 9:325 10:1 11:0 12:0 13:0 14:1 15:2 16:0 17:0 18:0 19:0 20:1 21:0 22:1 23:172 24:93 25:0.54 26:0.03 27:0.01 28:0 29:0 30:0 31:0 32:0 
0.018458201594594811 0:15 1:1 2:0 3:0 4:1 5:0 6:0 7:1 8:12191 9:1409 10:1 11:0 12:0 13:0 14:1 15:1 16:0 17:0 18:0 19:0 20:1 21:0 22:0 23:103 24:90 25:0.87 26:0.04 27:0.01 28:0 29:0 30:0 31:0 32:0 
0.012382573064045995 0:13 1:1 2:0 3:0 4:1 5:0 6:0 7:1 8:1181 9:324 10:1 11:0 12:0 13:0 14:1 15:1 16:0 17:0 18:0 19:0 20:1 21:0 22:0 23:239 24:143 25:0.59 26:0.03 27:0 28:0.01 29:0 30:0 31:0 32:0 
0.018425814897341332 0:6 1:1 2:0 3:0 4:1 5:0 6:0 7:1 8:2536 9:406 10:1 11:0 12:0 13:0 14:1 15:1 16:0 17:0 18:0 19:0 20:1 21:0 22:0 23:100 24:87 25:0.87 26:0.04 27:0.01 28:0 29:0 30:0 31:0 32:0 
0.015470992493207799 0:6 1:1 2:0 3:0 4:1 5:0 6:0 7:1 8:1543 9:325 10:1 11:0 12:0 13:0 14:1 15:1 16:0 17:0 18:0 19:0 20:1 21:0 22:0 23:103 24:81 25:0.79 26:0.03 27:0.01 28:0 29:0 30:0 31:0 32:0 
0.0024840670784531445 0:22 1:1 2:0 3:0 4:1 5:0 6:0 7:1 8:318 9:1054 10:1 11:0 12:0 13:0 14:1 15:1 16:0 17:0 18:0 19:0 20:1 21:0 22:0 23:114 24:35 25:0.31 26:0.03 27:0.01 28:0 29:0 30:0 31:0 32:0 
0.0028130635178958852 0:17 1:1 2:0 3:0 4:1 5:0 6:0 7:1 8:876 9:332 10:1 11:0 12:0 13:0 14:1 15:2 16:0 17:0 18:0 19:0 20:1 21:0 22:1 23:138 24:186 25:0.62 26:0.03 27:0.01 28:0.01 29:0 30:0 31:0 32:0 
0.016081161147644501 0:8 1:1 2:0 3:0 4:1 5:0 6:0 7:1 8:1750 9:367 10:1 11:0 12:0 13:0 14:1 15:1 16:0 17:0 18:0 19:0 20:1 21:0 22:0 23:4 24:198 25:1 26:0 27:0.25 28:0.02 29:0 30:0 31:0 32:0 
0.013109739032013155 0:6 1:1 2:0 3:0 4:1 5:0 6:0 7:1 8:1447 9:328 10:1 11:0 12:0 13:0 14:1 15:4 16:0 17:0 18:0 19:0 20:1 21:0 22:1 23:47 24:138 25:0.3 26:0.04 27:0.02 28:0.01 29:0 30:0 31:0 32:0 
0.018285842192810084 0:15 1:1 2:0 3:0 4:1 5:0 6:0 7:1 8:3572 9:329 10:1 11:0 12:0 13:0 14:1 15:3 16:0 17:0 18:0 19:0 20:1 21:0 22:1 23:238 24:170 25:0.71 26:0.02 27:0 28:0 29:0 30:0 31:0 32:0 
0.018298525932266468 0:19 1:1 2:0 3:0 4:1 5:0 6:0 7:1 8:1264 9:411 10:1 11:0 12:0 13:0 14:1 15:2 16:0 17:0 18:0 19:0 20:1 21:0 22:1 23:198 24:166 25:0.57 26:0.02 27:0.01 28:0.01 29:0.01 30:0 31:0 32:0 
0.018631060598425377 0:25 1:1 2:0 3:0 4:1 5:0 6:0 7:1 8:1716 9:367 10:1 11:0 12:0 13:0 14:1 15:1 16:0 17:0 18:0 19:0 20:1 21:0 22:0 23:255 24:128 25:0.5 26:0.02 27:0 28:0 29:0 30:0 31:0 32:0 
0.0094344694812864734 0:11 1:1 2:0 3:0 4:1 5:0 6:0 7:1 8:1637 9:328 10:1 11:0 12:0 13:0 14:1 15:4 16:0 17:0.25 18:0 19:0 20:1 21:0 22:0.75 23:148 24:97 25:0.66 26:0.03 27:0.01 28:0 29:0 30:0 31:0 32:0 
0.018127266822718712 0:6 1:1 2:0 3:0 4:1 5:0 6:0 7:1 8:1490 9:407 10:1 11:0 12:0 13:0 14:1 15:1 16:0 17:0 18:0 19:0 20:1 21:0 22:0 23:64 24:171 25:0.8 26:0.08 27:0.02 28:0.02 29:0 30:0 31:0 32:0 
0.0016720317217350121 0:15 1:1 2:0 3:0 4:0 5:1 6:0 7:1 8:293 9:128 10:1 11:0 12:0 13:0 14:3 15:3 16:0 17:0 18:0 19:0 20:1 21:0 22:0 23:3 24:255 25:1 26:0 27:0.33 28:0.05 29:0 30:0 31:0 32:0 
0.013707740667223842 0:9 1:1 2:0 3:0 4:1 5:0 6:0 7:1 8:848 9:342 10:1 11:0 12:0 13:0 14:1 15:2 16:0 17:0 18:0 19:0 20:1 21:0 22:1 23:4 24:125 25:1 26:0 27:0.25 28:0.02 29:0 30:0 31:0 32:0 
0.0078518664431233721 0:26 1:1 2:0 3:0 4:1 5:0 6:0 7:1 8:320 9:1054 10:1 11:0 12:0 13:0 14:1 15:1 16:0 17:0 18:0 19:0 20:1 21:0 22:0 23:228 24:47 25:0.21 26:0.02 27:0 28:0 29:0 30:0 31:0 32:0 
0.0088434492957423644 0:12 1:1 2:0 3:0 4:1 5:0 6:0 7:1 8:926 9:330 10:1 11:0 12:0 13:0 14:1 15:1 16:0 17:0 18:0 19:0 20:1 21:0 22:0 23:57 24:36 25:0.58 26:0.04 27:0.02 28:0.06 29:0 30:0 31:0 32:0 
0.018294830221717323 0:10 1:1 2:0 3:0 4:0 5:1 6:0 7:1 8:266 9:2424 10:1 11:0 12:0 13:0 14:1 15:1 16:0 17:0 18:0 19:0 20:1 21:0 22:0 23:255 24:253 25:0.99 26:0.01 27:0 28:0 29:0 30:0 31:0 32:0 
0.011495505725801224 0:15 1:1 2:0 3:0 4:1 5:0 6:0 7:1 8:848 9:334 10:1 11:0 12:0 13:0 14:1 15:1 16:0 17:0 18:0 19:0 20:1 21:0 22:0 23:217 24:168 25:0.67 26:0.02 27:0 28:0.01 29:0 30:0 31:0 32:0 
0.009012968419813517 0:6 1:1 2:0 3:0 4:1 5:0 6:0 7:1 8:1322 9:334 10:1 11:0 12:0 13:0 14:1 15:1 16:0 17:0 18:0 19:0 20:1 21:0 22:0 23:71 24:54 25:0.76 26:0.04 27:0.01 28:0 29:0 30:0 31:0 32:0 
0.012023704715743421 0:19 1:1 2:0 3:0 4:1 5:0 6:0 7:1 8:726 9:334 10:1 11:0 12:0 13:0 14:2 15:2 16:0 17:0 18:0 19:0 20:1 21:0 22:0 23:200 24:178 25:0.69 26:0.08 27:0 28:0.01 29:0 30:0 31:0 32:0 
0.016932632799317952 0:9 1:1 2:0 3:0 4:1 5:0 6:0 7:1 8:744 9:282 10:1 11:0 12:0 13:0 14:1 15:1 16:0 17:0 18:0 19:0 20:1 21:0 22:0 23:166 24:98 25:0.57 26:0.05 27:0.01 28:0.02 29:0.01 30:0.01 31:0 32:0 
0.0086063966185423377 0:22 1:1 2:0 3:0 4:1 5:0 6:0 7:1 8:329 9:1054 10:1 11:0 12:0 13:0 14:1 15:1 16:0 17:0 18:0 19:0 20:1 21:0 22:0 23:99 24:48 25:0.48 26:0.05 27:0.01 28:0 29:0 30:0 31:0 32:0 
0.018426576308573583 0:6 1:1 2:0 3:0 4:1 5:0 6:0 7:1 8:3077 9:337 10:1 11:0 12:0 13:0 14:1 15:1 16:0 17:0 18:0 19:0 20:1 21:0 22:0 23:224 24:172 25:0.64 26:0.02 27:0 28:0.01 29:0 30:0 31:0 32:0 
0.015734059485436772 0:28 1:1 2:0 3:0 4:1 5:0 6:0 7:1 8:1538 9:4152 10:1 11:0 12:0 13:0 14:1 15:1 16:0 17:0 18:0 19:0 20:1 21:0 22:0 23:240 24:53 25:0.22 26:0.03 27:0 28:0 29:0 30:0 31:0 32:0 
0.0016526109129830152 0:25 1:1 2:0 3:0 4:1 5:0 6:0 7:1 8:287 9:903 10:1 11:0 12:0 13:0 14:1 15:1 16:0 17:0 18:0 19:0 20:1 21:0 22:0 23:251 24:56 25:0.22 26:0.02 27:0 28:0 29:0 30:0 31:0 32:0 
0.007940204202301451 0:6 1:1 2:0 3:0 4:1 5:0 6:0 7:1 8:1123 9:329 10:1 11:0 12:0 13:0 14:1 15:2 16:0 17:0 18:0 19:0 20:1 21:0 22:1 23:44 24:32 25:0.73 26:0.07 27:0.02 28:0 29:0 30:0 31:0 32:0 
0.018272795587596664 0:10 1:1 2:0 3:0 4:0 5:1 6:0 7:1 8:243 9:191 10:1 11:0 12:0 13:0 14:2 15:2 16:0.5 17:0.5 18:0 19:0 20:1 21:0 22:0 23:255 24:255 25:1 26:0 27:0 28:0 29:0 30:0 31:0 32:0 
0.018316424460821205 0:8 1:1 2:0 3:0 4:1 5:0 6:0 7:1 8:2450 9:332 10:1 11:0 12:0 13:0 14:1 15:1 16:0 17:0 18:0 19:0 20:1 21:0 22:0 23:208 24:153 25:0.55 26:0.07 27:0 28:0.01 29:0 30:0 31:0 32:0 
0.011061425095857603 0:23 1:1 2:0 3:0 4:1 5:0 6:0 7:1 8:11935 9:1384 10:1 11:0 12:0 13:0 14:1 15:2 16:0 17:0 18:0 19:0 20:1 21:0 22:1 23:14 24:160 25:1 26:0 27:0.07 28:0.02 29:0 30:0 31:0 32:0 
0.011005080229671409 0:9 1:1 2:0 3:0 4:1 5:0 6:0 7:1 8:1435 9:333 10:1 11:0 12:0 13:0 14:1 15:5 16:0 17:0 18:0 19:0 20:1 21:0 22:1 23:122 24:146 25:0.48 26:0.03 27:0.01 28:0.01 29:0.01 30:0.01 31:0 32:0 
0.009395462295618013 0:25 1:1 2:0 3:0 4:1 5:0 6:0 7:1 8:939 9:325 10:1 11:0 12:0 13:0 14:1 15:1 16:0 17:0 18:0 19:0 20:1 21:0 22:0 23:94 24:89 25:0.48 26:0.05 27:0.01 28:0.02 29:0 30:0 31:0 32:0 
0.017970865881005819 0:16 1:1 2:0 3:0 4:1 5:0 6:0 7:1 8:2635 9:328 10:1 11:0 12:0 13:0 14:1 15:1 16:0 17:0 18:0 19:0 20:1 21:0 22:0 23:117 24:97 25:0.83 26:0.03 27:0.01 28:0 29:0 30:0 31:0 32:0 
0.018135140339673533 0:15 1:1 2:0 3:0 4:1 5:0 6:0 7:1 8:11430 9:1383 10:1 11:0 12:0 13:0 14:1 15:2 16:0 17:0 18:0 19:0 20:1 21:0 22:1 23:6 24:125 25:0.83 26:0.33 27:0.17 28:0.02 29:0 30:0 31:0 32:0 
0.014722410248674973 0:13 1:1 2:0 3:0 4:1 5:0 6:0 7:1 8:954 9:328 10:1 11:0 12:0 13:0 14:1 15:2 16:0 17:0 18:0 19:0 20:1 21:0 22:1 23:40 24:28 25:0.7 26:0.05 27:0.03 28:0 29:0 30:0 31:0 32:0 
0.0058472548270395112 0:6 1:1 2:0 3:0 4:1 5:0 6:0 7:1 8:1687 9:366 10:1 11:0 12:0 13:0 14:1 15:1 16:0 17:0 18:0 19:0 20:1 21:0 22:0 23:170 24:122 25:0.72 26:0.02 27:0.01 28:0 29:0 30:0 31:0 32:0 
0.0081386857530098035 0:9 1:1 2:0 3:0 4:1 5:0 6:0 7:1 8:1044 9:331 10:1 11:0 12:0 13:0 14:1 15:1 16:0 17:0 18:0 19:0 20:1 21:0 22:0 23:162 24:122 25:0.75 26:0.02 27:0.01 28:0 29:0 30:0 31:0 32:0 
0.017664368289662107 0:15 1:1 2:0 3:0 4:1 5:0 6:0 7:1 8:1376 9:332 10:1 11:0 12:0 13:0 14:1 15:2 16:0 17:0 18:0 19:0 20:1 21:0 22:1 23:24 24:212 25:0.96 26:0.08 27:0.04 28:0.01 29:0 30:0 31:0 32:0 
0.0037948053837680582 0:10 1:1 2:0 3:0 4:1 5:0 6:0 7:1 8:836 9:332 10:1 11:0 12:0 13:0 14:2 15:2 16:0 17:0 18:0 19:0 20:1 21:0 22:0 23:176 24:122 25:0.39 26:0.02 27:0.01 28:0.02 29:0 30:0 31:0 32:0 
0.013006437809743837 0:27 1:1 2:0 3:0 4:1 5:0 6:0 7:1 8:910 9:2720 10:1 11:0 12:0 13:0 14:1 15:1 16:0 17:0 18:0 19:0 20:1 21:0 22:0 23:211 24:66 25:0.31 26:0.03 27:0 28:0 29:0 30:0 31:0 32:0 
0.0093477633374908393 0:7 1:1 2:0 3:0 4:1 5:0 6:0 7:1 8:1837 9:330 10:1 11:0 12:0 13:0 14:1 15:1 16:0 17:0 18:0 19:0 20:1 21:0 22:0 23:68 24:51 25:0.75 26:0.04 27:0.01 28:0 29:0 30:0 31:0 32:0 
0.017259015817219857 0:17 1:1 2:0 3:0 4:1 5:0 6:0 7:1 8:1175 9:335 10:1 11:0 12:0 13:0 14:1 15:2 16:0 17:0 18:0 19:0 20:1 21:0 22:1 23:7 24:209 25:1 26:0 27:0.14 28:0.01 29:0 30:0 31:0 32:0 
0.016402220568997969 0:15 1:1 2:0 3:0 4:1 5:0 6:0 7:1 8:1338 9:326 10:1 11:0 12:0 13:0 14:1 15:2 16:0 17:0 18:0 19:0 20:1 21:0 22:1 23:222 24:148 25:0.57 26:0.02 27:0 28:0.01 29:0 30:0 31:0 32:0 
0.015017960151818069 0:11 1:1 2:0 3:0 4:1 5:0 6:0 7:1 8:2710 9:366 10:1 11:0 12:0 13:0 14:1 15:1 16:0 17:0 18:0 19:0 20:1 21:0 22:0 23:232 24:126 25:0.54 26:0.02 27:0 28:0 29:0 30:0 31:0 32:0 
0.017161866036529409 0:7 1:1 2:0 3:0 4:1 5:0 6:0 7:1 8:1585 9:364 10:1 11:0 12:0 13:0 14:1 15:1 16:0 17:0 18:0 19:0 20:1 21:0 22:0 23:153 24:178 25:0.63 26:0.03 27:0.01 28:0.01 29:0.01 30:0.01 31:0 32:0 
0.0073040224972561957 0:27 1:1 2:0 3:0 4:1 5:0 6:0 7:1 8:1503 9:4152 10:1 11:0 12:0 13:0 14:1 15:1 16:0 17:0 18:0 19:0 20:1 21:0 22:0 23:229 24:47 25:0.21 26:0.03 27:0 28:0 29:0 30:0 31:0 32:0 
0.017124471176120641 0:6 1:1 2:0 3:0 4:1 5:0 6:0 7:1 8:1784 9:339 10:1 11:0 12:0 13:0 14:2 15:4 16:0 17:0 18:0 19:0 20:1 21:0 22:0.75 23:44 24:232 25:0.98 26:0.05 27:0.02 28:0.01 29:0 30:0 31:0 32:0 
0.013418520191551131 0:16 1:1 2:0 3:0 4:1 5:0 6:0 7:1 8:2308 9:336 10:1 11:0 12:0 13:0 14:1 15:3 16:0 17:0 18:0 19:0 20:1 21:0 22:1 23:226 24:145 25:0.6 26:0.03 27:0 28:0.01 29:0 30:0 31:0 32:0 
0.014532890239396154 0:13 1:1 2:0 3:0 4:1 5:0 6:0 7:1 8:1555 9:328 10:1 11:0 12:0 13:0 14:1 15:2 16:0 17:0 18:0 19:0 20:1 21:0 22:1 23:255 24:112 25:0.44 26:0.03 27:0 28:0 29:0 30:0 31:0 32:0 
0.018259715855959834 0:15 1:1 2:0 3:0 4:1 5:0 6:0 7:1 8:903 9:388 10:1 11:0 12:0 13:0 14:1 15:1 16:0 17:0 18:0 19:0 20:1 21:0 22:0 23:255 24:59 25:0.23 26:0.58 27:0 28:0 29:0.58 30:0 31:0 32:0 
0.01101832964323031 0:27 1:1 2:0 3:0 4:1 5:0 6:0 7:1 8:905 9:334 10:1 11:0 12:0 13:0 14:2 15:2 16:0 17:0 18:0 19:0 20:1 21:0 22:0 23:149 24:196 25:0.83 26:0.02 27:0.01 28:0.01 29:0 30:0 31:0 32:0 
0.018391793433207876 0:27 1:1 2:0 3:0 4:1 5:0 6:0 7:1 8:12778 9:1396 10:1 11:0 12:0 13:0 14:1 15:3 16:0 17:0 18:0 19:0 20:1 21:0 22:1 23:79 24:166 25:0.9 26:0.06 27:0.01 28:0.02 29:0 30:0.01 31:0 32:0 
0.011455668325496746 0:7 1:1 2:0 3:0 4:1 5:0 6:0 7:1 8:1489 9:332 10:1 11:0 12:0 13:0 14:1 15:1 16:0 17:0 18:0 19:0 20:1 21:0 22:0 23:140 24:138 25:0.59 26:0.02 27:0.01 28:0.01 29:0 30:0 31:0 32:0 
0.010915105014606226 0:10 1:1 2:0 3:0 4:1 5:0 6:0 7:1 8:2039 9:335 10:1 11:0 12:0 13:0 14:2 15:1 16:0 17:0 18:0 19:0 20:0.5 21:1 22:0 23:134 24:146 25:0.71 26:0.04 27:0.01 28:0.01 29:0 30:0 31:0 32:0 
0.010767218400928674 0:11 1:1 2:0 3:0 4:1 5:0 6:0 7:1 8:1477 9:335 10:1 11:0 12:0 13:0 14:1 15:3 16:0 17:0 18:0 19:0 20:1 21:0 22:1 23:126 24:88 25:0.7 26:0.02 27:0.01 28:0 29:0 30:0 31:0 32:0 
0.017705922980995645 0:14 1:1 2:0 3:0 4:1 5:0 6:0 7:1 8:1570 9:332 10:1 11:0 12:0 13:0 14:1 15:1 16:0 17:0 18:0 19:0 20:1 21:0 22:0 23:191 24:83 25:0.39 26:0.02 27:0.01 28:0.02 29:0.01 30:0 31:0 32:0 
0.016644673736524493 0:8 1:1 2:0 3:0 4:1 5:0 6:0 7:1 8:641 9:330 10:1 11:0 12:0 13:0 14:1 15:1 16:0 17:0 18:0 19:0 20:1 21:0 22:0 23:10 24:38 25:1 26:0 27:0.1 28:0.05 29:0 30:0 31:0 32:0 
0.018249455669521734 0:9 1:1 2:0 3:0 4:1 5:0 6:0 7:1 8:11681 9:1371 10:1 11:0 12:0 13:0 14:1 15:1 16:0 17:0 18:0 19:0 20:1 21:0 22:0 23:67 24:169 25:0.57 26:0.04 27:0.01 28:0.02 29:0 30:0 31:0 32:0 
0.018447514900907677 0:15 1:1 2:0 3:0 4:1 5:0 6:0 7:1 8:1896 9:446 10:1 11:0 12:0 13:0 14:1 15:1 16:0 17:0 18:0 19:0 20:1 21:0 22:0 23:151 24:138 25:0.62 26:0.02 27:0.01 28:0.01 29:0 30:0 31:0 32:0 
0.018294980105232568 0:17 1:1 2:0 3:0 4:1 5:0 6:0 7:1 8:9654 9:337 10:1 11:0 12:0 13:0 14:1 15:3 16:0 17:0 18:0 19:0 20:1 21:0 22:1 23:156 24:213 25:0.81 26:0.03 27:0.01 28:0.01 29:0 30:0 31:0 32:0 
0.011278180988545321 0:18 1:1 2:0 3:0 4:1 5:0 6:0 7:1 8:1036 9:337 10:1 11:0 12:0 13:0 14:1 15:1 16:0 17:0 18:0 19:0 20:1 21:0 22:0 23:116 24:199 25:0.8 26:0.03 27:0.01 28:0.01 29:0 30:0 31:0 32:0 
0.018288604542117594 0:15 1:1 2:0 3:0 4:1 5:0 6:0 7:1 8:16711 9:368 10:1 11:0 12:0 13:0 14:1 15:1 16:0 17:0 18:0 19:0 20:1 21:0 22:0 23:82 24:113 25:0.9 26:0.04 27:0.01 28:0.02 29:0 30:0 31:0 32:0 
0.003888036969934376 0:27 1:1 2:0 3:0 4:1 5:0 6:0 7:1 8:1500 9:4152 10:1 11:0 12:0 13:0 14:1 15:1 16:0 17:0 18:0 19:0 20:1 21:0 22:0 23:206 24:49 25:0.24 26:0.02 27:0 28:0 29:0 30:0 31:0 32:0 
0.018255312022684128 0:9 1:1 2:0 3:0 4:1 5:0 6:0 7:1 8:1956 9:335 10:1 11:0 12:0 13:0 14:1 15:3 16:0 17:0 18:0 19:0 20:1 21:0 22:1 23:249 24:126 25:0.51 26:0.01 27:0 28:0 29:0 30:0 31:0 32:0 
0.0085544932658328937 0:6 1:1 2:0 3:0 4:1 5:0 6:0 7:1 8:1234 9:342 10:1 11:0 12:0 13:0 14:1 15:1 16:0 17:0 18:0 19:0 20:1 21:0 22:0 23:49 24:170 25:0.84 26:0.06 27:0.02 28:0.01 29:0 30:0 31:0 32:0 
0.011796376193504708 0:25 1:1 2:0 3:0 4:1 5:0 6:0 7:1 8:241 9:777 10:1 11:0 12:0 13:0 14:2 15:1 16:0 17:0 18:0 19:0 20:0.5 21:1 22:0 23:163 24:34 25:0.21 26:0.04 27:0.01 28:0 29:0.01 30:0 31:0 32:0 
0.0023418224699903942 0:27 1:1 2:0 3:0 4:1 5:0 6:0 7:1 8:1489 9:4152 10:1 11:0 12:0 13:0 14:2 15:1 16:0 17:0 18:0 19:0 20:0.5 21:1 22:0 23:171 24:36 25:0.21 26:0.04 27:0.01 28:0 29:0.01 30:0 31:0 32:0 
0.013468098308625144 0:11 1:1 2:0 3:0 4:1 5:0 6:0 7:1 8:1103 9:336 10:1 11:0 12:0 13:0 14:1 15:1 16:0 17:0 18:0 19:0 20:1 21:0 22:0 23:189 24:82 25:0.39 26:0.03 27:0.01 28:0.02 29:0 30:0 31:0.01 32:0 
0.018296063247930185 0:6 1:1 2:0 3:0 4:1 5:0 6:0 7:1 8:1299 9:389 10:1 11:0 12:0 13:0 14:238 15:4 16:1 17:0 18:0 19:0 20:0 21:0.06 22:1 23:255 24:53 25:0.21 26:0.09 27:0 28:0 29:0.64 30:0 31:0.01 32:0 
0.014958594391992182 0:8 1:1 2:0 3:0 4:1 5:0 6:0 7:1 8:2552 9:330 10:1 11:0 12:0 13:0 14:1 15:1 16:0 17:0 18:0 19:0 20:1 21:0 22:0 23:126 24:84 25:0.67 26:0.03 27:0.01 28:0 29:0 30:0 31:0 32:0 
0.01335437389939864 0:7 1:1 2:0 3:0 4:1 5:0 6:0 7:1 8:1381 9:340 10:1 11:0 12:0 13:0 14:1 15:1 16:0 17:0 18:0 19:0 20:1 21:0 22:0 23:127 24:178 25:0.74 26:0.03 27:0.01 28:0.01 29:0 30:0 31:0 32:0 
0.0057906642051831292 0:28 1:1 2:0 3:0 4:1 5:0 6:0 7:1 8:1495 9:4152 10:1 11:0 12:0 13:0 14:1 15:1 16:0 17:0 18:0 19:0 20:1 21:0 22:0 23:52 24:12 25:0.23 26:0.12 27:0.02 28:0 29:0 30:0 31:0 32:0 
0.018348878465901254 0:15 1:1 2:0 3:0 4:1 5:0 6:0 7:1 8:12715 9:1459 10:1 11:0 12:0 13:0 14:1 15:1 16:0 17:0 18:0 19:0 20:1 21:0 22:0 23:67 24:129 25:0.55 26:0.06 27:0.01 28:0.02 29:0 30:0.12 31:0 32:0 
0.015743890264328046 0:7 1:1 2:0 3:0 4:1 5:0 6:0 7:1 8:1804 9:364 10:1 11:0 12:0 13:0 14:1 15:2 16:0 17:0 18:0 19:0 20:1 21:0 22:1 23:254 24:206 25:0.81 26:0.02 27:0 28:0 29:0 30:0 31:0 32:0 
0.018423439448188087 0:15 1:1 2:0 3:0 4:1 5:0 6:1 7:0 8:12249 9:1400 10:1 11:0 12:0 13:0 14:1 15:2 16:1 17:0.5 18:0 19:0 20:1 21:0 22:1 23:32 24:154 25:0.28 26:0.06 27:0.03 28:0.01 29:0.03 30:0.01 31:0 32:0 
0.014371676810109757 0:6 1:1 2:0 3:0 4:1 5:0 6:0 7:1 8:1349 9:329 10:1 11:0 12:0 13:0 14:1 15:1 16:0 17:0 18:0 19:0 20:1 21:0 22:0 23:89 24:121 25:0.9 26:0.04 27:0.01 28:0.02 29:0 30:0 31:0 32:0 
0.015645205198959747 0:10 1:1 2:0 3:0 4:1 5:0 6:0 7:1 8:637 9:332 10:1 11:0 12:0 13:0 14:1 15:2 16:0 17:0 18:0 19:0 20:1 21:0 22:1 23:142 24:205 25:0.75 26:0.03 27:0.01 28:0.01 29:0 30:0 31:0 32:0 
0.011929768160559531 0:21 1:1 2:0 3:0 4:1 5:0 6:0 7:1 8:724 9:327 10:1 11:0 12:0 13:0 14:1 15:2 16:0 17:0 18:0 19:0 20:1 21:0 22:1 23:53 24:149 25:0.51 26:0.11 27:0.02 28:0.01 29:0 30:0 31:0 32:0 
0.017314867358037903 0:19 1:1 2:0 3:0 4:1 5:0 6:0 7:1 8:1175 9:331 10:1 11:0 12:0 13:0 14:1 15:1 16:0 17:0 18:0 19:0 20:1 21:0 22:0 23:4 24:154 25:1 26:0 27:0.25 28:0.01 29:0 30:0 31:0 32:0 
0.018114699621771042 0:28 1:1 2:0 3:0 4:1 5:0 6:0 7:1 8:13513 9:1371 10:1 11:0 12:0 13:0 14:1 15:1 16:0 17:0 18:0 19:0 20:1 21:0 22:0 23:100 24:204 25:0.75 26:0.03 27:0.01 28:0.01 29:0 30:0 31:0 32:0 
0.016144764016640105 0:6 1:1 2:0 3:0 4:1 5:0 6:0 7:1 8:11941 9:1383 10:1 11:0 12:0 13:0 14:1 15:2 16:0 17:0 18:0 19:0 20:1 21:0 22:1 23:2 24:115 25:0.5 26:1 27:0.5 28:0.02 29:0 30:0 31:0 32:0 
0.010905987633300503 0:6 1:1 2:0 3:0 4:1 5:0 6:0 7:1 8:1430 9:330 10:1 11:0 12:0 13:0 14:1 15:1 16:0 17:0 18:0 19:0 20:1 21:0 22:0 23:62 24:62 25:0.5 26:0.05 27:0.02 28:0.03 29:0 30:0 31:0 32:0 
0.0094802214792040554 0:7 1:1 2:0 3:0 4:1 5:0 6:0 7:1 8:637 9:332 10:1 11:0 12:0 13:0 14:1 15:1 16:0 17:0 18:0 19:0 20:1 21:0 22:0 23:99 24:137 25:0.66 26:0.03 27:0.01 28:0.01 29:0 30:0 31:0 32:0 
0.0091195155332444329 0:20 1:1 2:0 3:0 4:1 5:0 6:0 7:1 8:243 9:774 10:1 11:0 12:0 13:0 14:1 15:1 16:0 17:0 18:0 19:0 20:1 21:0 22:0 23:127 24:46 25:0.36 26:0.05 27:0.01 28:0 29:0 30:0 31:0 32:0 
0.0092497952116438291 0:12 1:1 2:0 3:0 4:1 5:0 6:0 7:1 8:957 9:328 10:1 11:0 12:0 13:0 14:1 15:1 16:0 17:0 18:0 19:0 20:1 21:0 22:0 23:248 24:178 25:0.72 26:0.02 27:0 28:0 29:0 30:0 31:0 32:0 
0.009723438186295022 0:11 1:1 2:0 3:0 4:1 5:0 6:0 7:1 8:738 9:325 10:1 11:0 12:0 13:0 14:2 15:3 16:0 17:0 18:0 19:0 20:1 21:0 22:0.67 23:140 24:102 25:0.73 26:0.03 27:0.01 28:0 29:0 30:0 31:0 32:0 
0.014652408424142995 0:14 1:1 2:0 3:0 4:1 5:0 6:0 7:1 8:1278 9:338 10:1 11:0 12:0 13:0 14:1 15:1 16:0 17:0 18:0 19:0 20:1 21:0 22:0 23:159 24:190 25:0.83 26:0.03 27:0.01 28:0.01 29:0 30:0 31:0 32:0 
0.016079167205783878 0:7 1:1 2:0 3:0 4:1 5:0 6:0 7:1 8:1193 9:370 10:1 11:0 12:0 13:0 14:1 15:1 16:0 17:0 18:0 19:0 20:1 21:0 22:0 23:179 24:167 25:0.61 26:0.03 27:0.01 28:0.01 29:0.01 30:0.01 31:0 32:0 
0.015119593401771424 0:6 1:1 2:0 3:0 4:1 5:0 6:0 7:1 8:1240 9:333 10:1 11:0 12:0 13:0 14:1 15:1 16:0 17:0 18:0 19:0 20:1 21:0 22:0 23:216 24:107 25:0.4 26:0.02 27:0 28:0.02 29:0 30:0.01 31:0 32:0 
0.010608269120147425 0:10 1:1 2:0 3:0 4:1 5:0 6:0 7:1 8:1463 9:334 10:1 11:0 12:0 13:0 14:1 15:2 16:0 17:0 18:0 19:0 20:1 21:0 22:1 23:81 24:112 25:0.9 26:0.04 27:0.01 28:0.02 29:0 30:0 31:0 32:0 
0.015589078377513995 0:17 1:1 2:0 3:0 4:1 5:0 6:0 7:1 8:736 9:330 10:1 11:0 12:0 13:0 14:1 15:1 16:0 17:0 18:0 19:0 20:1 21:0 22:0 23:255 24:172 25:0.67 26:0.02 27:0 28:0 29:0 30:0 31:0 32:0 
0.00027298620706900367 0:6 1:1 2:0 3:0 4:1 5:0 6:0 7:1 8:1458 9:330 10:1 11:0 12:0 13:0 14:1 15:1 16:0 17:0 18:0 19:0 20:1 21:0 22:0 23:121 24:88 25:0.73 26:0.02 27:0.01 28:0 29:0 30:0 31:0 32:0 
0.018317522839403629 0:7 1:1 2:0 3:0 4:1 5:0 6:0 7:1 8:1938 9:329 10:1 11:0 12:0 13:0 14:1 15:2 16:0 17:0 18:0 19:0 20:1 21:0 22:1 23:69 24:65 25:0.55 26:0.04 27:0.01 28:0.03 29:0 30:0 31:0 32:0 
0.0024047825308868322 0:6 1:1 2:0 3:0 4:1 5:0 6:0 7:1 8:1196 9:329 10:1 11:0 12:0 13:0 14:1 15:1 16:0 17:0 18:0 19:0 20:1 21:0 22:0 23:106 24:157 25:0.73 26:0.06 27:0.01 28:0.01 29:0 30:0 31:0 32:0 
0.0048770275544172551 0:28 1:1 2:0 3:0 4:1 5:0 6:0 7:1 8:289 9:903 10:1 11:0 12:0 13:0 14:1 15:1 16:0 17:0 18:0 19:0 20:1 21:0 22:0 23:184 24:41 25:0.22 26:0.02 27:0.01 28:0 29:0 30:0 31:0 32:0 
0.0056768403229650061 0:6 1:1 2:0 3:0 4:1 5:0 6:0 7:1 8:751 9:338 10:1 11:0 12:0 13:0 14:2 15:2 16:0 17:0 18:0 19:0 20:1 21:0 22:0 23:117 24:129 25:0.5 26:0.06 27:0.01 28:0.02 29:0 30:0 31:0 32:0 
0.012010594252192619 0:8 1:1 2:0 3:0 4:1 5:0 6:0 7:1 8:740 9:337 10:1 11:0 12:0 13:0 14:1 15:1 16:0 17:0 18:0 19:0 20:1 21:0 22:0 23:150 24:170 25:0.55 26:0.03 27:0.01 28:0.01 29:0 30:0 31:0 32:0 
0.0126068825317774 0:8 1:1 2:0 3:0 4:1 5:0 6:0 7:1 8:1119 9:325 10:1 11:0 12:0 13:0 14:1 15:1 16:0 17:0 18:0 19:0 20:1 21:0 22:0 23:218 24:73 25:0.33 26:0.03 27:0 28:0 29:0 30:0 31:0 32:0 
0.018451591381315864 0:7 1:1 2:0 3:0 4:1 5:0 6:0 7:1 8:12151 9:1396 10:1 11:0 12:0 13:0 14:1 15:2 16:0 17:0 18:0 19:0 20:1 21:0 22:1 23:255 24:117 25:0.46 26:0.02 27:0 28:0 29:0 30:0 31:0 32:0 
0.013569510860327379 0:10 1:1 2:0 3:0 4:1 5:0 6:0 7:1 8:955 9:337 10:1 11:0 12:0 13:0 14:1 15:4 16:0 17:0 18:0 19:0 20:1 21:0 22:1 23:213 24:123 25:0.53 26:0.02 27:0 28:0.02 29:0 30:0 31:0 32:0 
0.013339389168521247 0:30 1:1 2:0 3:0 4:1 5:0 6:0 7:1 8:1429 9:4152 10:1 11:0 12:0 13:0 14:1 15:1 16:0 17:0 18:0 19:0 20:1 21:0 22:0 23:187 24:51 25:0.27 26:0.02 27:0.01 28:0 29:0 30:0 31:0 32:0 
0.016302545934712843 0:17 1:1 2:0 3:0 4:1 5:0 6:0 7:1 8:977 9:370 10:1 11:0 12:0 13:0 14:1 15:2 16:0 17:0 18:0 19:0 20:1 21:0 22:1 23:103 24:155 25:0.79 26:0.03 27:0.01 28:0.01 29:0 30:0 31:0 32:0 
0.018300304626039345 0:12 1:1 2:0 3:0 4:1 5:0 6:0 7:1 8:3466 9:375 10:1 11:0 12:0 13:0 14:1 15:3 16:0 17:0 18:0 19:0 20:1 21:0 22:1 23:137 24:99 25:0.35 26:0.03 27:0.01 28:0.02 29:0 30:0 31:0 32:0 
0.016318892519790743 0:23 1:1 2:0 3:0 4:1 5:0 6:0 7:1 8:1628 9:334 10:1 11:0 12:0 13:0 14:1 15:1 16:0 17:0 18:0 19:0 20:1 21:0 22:0 23:68 24:129 25:0.56 26:0.06 27:0.01 28:0.02 29:0 30:0.12 31:0 32:0 
0.0177434453835775 0:19 1:1 2:0 3:0 4:1 5:0 6:0 7:1 8:11683 9:1393 10:1 11:0 12:0 13:0 14:1 15:3 16:0 17:0 18:0 19:0 20:1 21:0 22:1 23:118 24:125 25:0.79 26:0.03 27:0.01 28:0.02 29:0 30:0 31:0 32:0 
0.0024627439483397027 0:26 1:1 2:0 3:0 4:1 5:0 6:0 7:1 8:287 9:903 10:1 11:0 12:0 13:0 14:1 15:1 16:0 17:0 18:0 19:0 20:1 21:0 22:0 23:120 24:36 25:0.3 26:0.03 27:0.01 28:0 29:0 30:0 31:0 32:0 
0.017810408554491973 0:11 1:1 2:0 3:0 4:1 5:0 6:0 7:1 8:1196 9:493 10:1 11:0 12:0 13:0 14:1 15:2 16:0 17:0 18:0 19:0 20:1 21:0 22:1 23:10 24:182 25:1 26:0 27:0.1 28:0.01 29:0 30:0 31:0 32:0 
0.018437303728555655 0:6 1:1 2:0 3:0 4:1 5:0 6:0 7:1 8:1122 9:482 10:1 11:0 12:0 13:0 14:1 15:2 16:0 17:0 18:0 19:0 20:1 21:0 22:1 23:171 24:192 25:0.83 26:0.06 27:0.01 28:0.01 29:0.02 30:0.02 31:0 32:0 
0.010138319679699094 0:10 1:1 2:0 3:0 4:0 5:1 6:0 7:1 8:298 9:189 10:1 11:0 12:0 13:0 14:25 15:26 16:0 17:0 18:0 19:0 20:1 21:0 22:0.08 23:255 24:255 25:1 26:0 27:0 28:0 29:0 30:0 31:0 32:0 
0.010015772731085393 0:28 1:1 2:0 3:0 4:1 5:0 6:0 7:1 8:1541 9:4152 10:1 11:0 12:0 13:0 14:1 15:1 16:0 17:0 18:0 19:0 20:1 21:0 22:0 23:59 24:31 25:0.53 26:0.07 27:0.02 28:0 29:0 30:0 31:0 32:0 
0.018265523193524383 0:22 1:1 2:0 3:0 4:0 5:1 6:0 7:1 8:237 9:519 10:1 11:0 12:0 13:0 14:11 15:13 16:0 17:0 18:0 19:0 20:1 21:0 22:0.23 23:255 24:255 25:1 26:0 27:0 28:0 29:0 30:0 31:0 32:0 
0.014697087629515925 0:20 1:1 2:0 3:0 4:1 5:0 6:0 7:1 8:853 9:330 10:1 11:0 12:0 13:0 14:1 15:2 16:0 17:0 18:0 19:0 20:1 21:0 22:1 23:151 24:198 25:0.83 26:0.02 27:0.01 28:0.01 29:0 30:0 31:0 32:0 
0.017423208392913787 0:6 1:1 2:0 3:0 4:1 5:0 6:0 7:1 8:1996 9:335 10:1 11:0 12:0 13:0 14:1 15:1 16:0 17:0 18:0 19:0 20:1 21:0 22:0 23:146 24:205 25:0.72 26:0.12 27:0.01 28:0.01 29:0.01 30:0 31:0 32:0 
0.013876158993389022 0:8 1:1 2:0 3:0 4:1 5:0 6:0 7:1 8:1190 9:372 10:1 11:0 12:0 13:0 14:1 15:1 16:0 17:0 18:0 19:0 20:1 21:0 22:0 23:48 24:186 25:0.94 26:0.04 27:0.04 28:0.01 29:0 30:0 31:0 32:0 
0.010020656143361992 0:7 1:1 2:0 3:0 4:1 5:0 6:0 7:1 8:998 9:331 10:1 11:0 12:0 13:0 14:1 15:1 16:0 17:0 18:0 19:0 20:1 21:0 22:0 23:176 24:126 25:0.47 26:0.02 27:0.01 28:0.02 29:0 30:0 31:0 32:0 
0.0071028575037505003 0:15 1:1 2:0 3:0 4:1 5:0 6:0 7:1 8:772 9:327 10:1 11:0 12:0 13:0 14:1 15:2 16:0 17:0 18:0 19:0 20:1 21:0 22:1 23:87 24:132 25:0.43 26:0.03 27:0.01 28:0.02 29:0 30:0 31:0 32:0 
0.011533316458552656 0:8 1:1 2:0 3:0 4:1 5:0 6:0 7:1 8:1110 9:329 10:1 11:0 12:0 13:0 14:1 15:3 16:0 17:0 18:0 19:0 20:1 21:0 22:1 23:66 24:62 25:0.94 26:0.05 27:0.02 28:0 29:0 30:0 31:0 32:0 
0.013368692092567719 0:8 1:1 2:0 3:0 4:1 5:0 6:0 7:1 8:1531 9:331 10:1 11:0 12:0 13:0 14:1 15:1 16:0 17:0 18:0 19:0 20:1 21:0 22:0 23:182 24:126 25:0.57 26:0.02 27:0.01 28:0.02 29:0 30:0 31:0 32:0 
0.018341765982064648 0:9 1:1 2:0 3:0 4:1 5:0 6:0 7:1 8:11658 9:1394 10:1 11:0 12:0 13:0 14:1 15:2 16:0 17:0 18:0 19:0 20:1 21:0 22:1 23:210 24:145 25:0.52 26:0.02 27:0 28:0.01 29:0 30:0 31:0 32:0 
0.012522538389418879 0:6 1:1 2:0 3:0 4:1 5:0 6:0 7:1 8:847 9:329 10:1 11:0 12:0 13:0 14:1 15:2 16:0 17:0 18:0 19:0 20:1 21:0 22:1 23:15 24:160 25:0.87 26:0.13 27:0.07 28:0.02 29:0 30:0 31:0 32:0 
0.018481592742773147 0:15 1:1 2:0 3:0 4:1 5:0 6:0 7:1 8:2775 9:328 10:1 11:0 12:0 13:0 14:1 15:2 16:0 17:0 18:0 19:0 20:1 21:0 22:1 23:105 24:77 25:0.73 26:0.03 27:0.01 28:0 29:0 30:0 31:0 32:0 
0.0024564892251288401 0:18 1:1 2:0 3:0 4:1 5:0 6:0 7:1 8:765 9:334 10:1 11:0 12:0 13:0 14:2 15:3 16:0 17:0 18:0 19:0 20:1 21:0 22:0.67 23:170 24:132 25:0.78 26:0.02 27:0.01 28:0 29:0 30:0 31:0 32:0 
0.015739694446864298 0:8 1:1 2:0 3:0 4:1 5:0 6:0 7:1 8:2635 9:340 10:1 11:0 12:0 13:0 14:1 15:1 16:0 17:0 18:0 19:0 20:1 21:0 22:0 23:255 24:157 25:0.62 26:0.02 27:0 28:0 29:0 30:0 31:0 32:0 
0.0099931173010312044 0:28 1:1 2:0 3:0 4:1 5:0 6:0 7:1 8:1421 9:4152 10:1 11:0 12:0 13:0 14:1 15:1 16:0 17:0 18:0 19:0 20:1 21:0 22:0 23:100 24:46 25:0.46 26:0.06 27:0.01 28:0 29:0 30:0 31:0 32:0 
0.0059290147207685575 0:15 1:1 2:0 3:0 4:1 5:0 6:0 7:1 8:2710 9:333 10:1 11:0 12:0 13:0 14:1 15:1 16:0 17:0 18:0 19:0 20:1 21:0 22:0 23:255 24:143 25:0.56 26:0.03 27:0 28:0 29:0 30:0 31:0 32:0 
0.0024289552860775414 0:6 1:1 2:0 3:0 4:1 5:0 6:0 7:1 8:948 9:326 10:1 11:0 12:0 13:0 14:1 15:1 16:0 17:0 18:0 19:0 20:1 21:0 22:0 23:24 24:139 25:1 26:0 27:0.04 28:0.02 29:0 30:0 31:0 32:0 
0.008838718500530569 0:9 1:1 2:0 3:0 4:1 5:0 6:0 7:1 8:857 9:338 10:1 11:0 12:0 13:0 14:1 15:1 16:0 17:0 18:0 19:0 20:1 21:0 22:0 23:86 24:108 25:0.36 26:0.06 27:0.01 28:0.02 29:0 30:0 31:0 32:0 
0.018235701477143706 0:6 1:1 2:0 3:0 4:1 5:0 6:0 7:1 8:1290 9:397 10:1 11:0 12:0 13:0 14:1 15:2 16:0 17:0 18:0 19:0 20:1 21:0 22:1 23:156 24:115 25:0.33 26:0.03 27:0.01 28:0.02 29:0 30:0 31:0 32:0 
0.014448467287324115 0:8 1:1 2:0 3:0 4:1 5:0 6:0 7:1 8:1952 9:336 10:1 11:0 12:0 13:0 14:1 15:2 16:0 17:0 18:0 19:0 20:1 21:0 22:1 23:130 24:173 25:0.65 26:0.02 27:0.01 28:0.01 29:0 30:0 31:0 32:0 
0.0065266688688557836 0:9 1:1 2:0 3:0 4:1 5:0 6:0 7:1 8:778 9:330 10:1 11:0 12:0 13:0 14:1 15:2 16:0 17:0 18:0 19:0 20:1 21:0 22:1 23:117 24:127 25:0.69 26:0.03 27:0.01 28:0.02 29:0 30:0 31:0 32:0 
0.0024330695632062559 0:27 1:1 2:0 3:0 4:1 5:0 6:0 7:1 8:1457 9:4152 10:1 11:0 12:0 13:0 14:1 15:1 16:0 17:0 18:0 19:0 20:1 21:0 22:0 23:78 24:23 25:0.29 26:0.05 27:0.01 28:0 29:0 30:0 31:0 32:0 
0.014183829618742221 0:6 1:1 2:0 3:0 4:1 5:0 6:0 7:1 8:933 9:330 10:1 11:0 12:0 13:0 14:1 15:2 16:0 17:0 18:0 19:0 20:1 21:0 22:1 23:94 24:138 25:0.49 26:0.07 27:0.01 28:0.01 29:0 30:0 31:0 32:0 
0.017990686922788074 0:17 1:1 2:0 3:0 4:1 5:0 6:0 7:1 8:11975 9:1384 10:1 11:0 12:0 13:0 14:1 15:2 16:0 17:0 18:0 19:0 20:1 21:0 22:1 23:198 24:177 25:0.69 26:0.08 27:0.01 28:0.01 29:0.01 30:0 31:0 32:0 
0.010705482728411656 0:27 1:1 2:0 3:0 4:1 5:0 6:0 7:1 8:1512 9:4152 10:1 11:0 12:0 13:0 14:1 15:1 16:0 17:0 18:0 19:0 20:1 21:0 22:0 23:172 24:59 25:0.34 26:0.03 27:0.01 28:0 29:0 30:0 31:0 32:0 
0.0092620152147593615 0:10 1:1 2:0 3:0 4:1 5:0 6:0 7:1 8:700 9:337 10:1 11:0 12:0 13:0 14:1 15:1 16:0 17:0 18:0 19:0 20:1 21:0 22:0 23:234 24:142 25:0.56 26:0.03 27:0 28:0.01 29:0 30:0 31:0 32:0 
0.0052332707138089294 0:7 1:1 2:0 3:0 4:1 5:0 6:0 7:1 8:876 9:334 10:1 11:0 12:0 13:0 14:2 15:2 16:0 17:0 18:0 19:0 20:0.5 21:1 22:1 23:138 24:150 25:0.64 26:0.04 27:0.01 28:0.01 29:0 30:0 31:0 32:0 
0.00094628969665212954 0:23 1:1 2:0 3:0 4:1 5:0 6:0 7:1 8:287 9:903 10:1 11:0 12:0 13:0 14:1 15:1 16:0 17:0 18:0 19:0 20:1 21:0 22:0 23:43 24:14 25:0.33 26:0.09 27:0.02 28:0 29:0 30:0 31:0 32:0 
0.011596620125967049 0:15 1:1 2:0 3:0 4:1 5:0 6:0 7:1 8:885 9:335 10:1 11:0 12:0 13:0 14:1 15:1 16:0 17:0 18:0 19:0 20:1 21:0 22:0 23:2 24:146 25:0.5 26:1 27:0.5 28:0.01 29:0 30:0 31:0 32:0 
0.017898838958715475 0:6 1:1 2:0 3:0 4:1 5:0 6:0 7:1 8:1893 9:397 10:1 11:0 12:0 13:0 14:1 15:1 16:0 17:0 18:0 19:0 20:1 21:0 22:0 23:255 24:147 25:0.58 26:0.02 27:0 28:0 29:0 30:0 31:0 32:0 
0.010926357564001503 0:15 1:1 2:0 3:0 4:1 5:0 6:0 7:1 8:1222 9:330 10:1 11:0 12:0 13:0 14:1 15:1 16:0 17:0 18:0 19:0 20:1 21:0 22:0 23:154 24:112 25:0.73 26:0.03 27:0.01 28:0 29:0 30:0 31:0 32:0 
0.0091779618578877731 0:8 1:1 2:0 3:0 4:1 5:0 6:0 7:1 8:1116 9:334 10:1 11:0 12:0 13:0 14:1 15:1 16:0 17:0 18:0 19:0 20:1 21:0 22:0 23:201 24:135 25:0.67 26:0.02 27:0 28:0 29:0 30:0 31:0 32:0 
0.018244453154332544 0:8 1:1 2:0 3:0 4:1 5:0 6:0 7:1 8:1895 9:331 10:1 11:0 12:0 13:0 14:1 15:3 16:0 17:0 18:0 19:0 20:1 21:0 22:1 23:255 24:94 25:0.37 26:0.02 27:0 28:0 29:0 30:0 31:0 32:0 
0.011433682139876816 0:6 1:1 2:0 3:0 4:1 5:0 6:0 7:1 8:714 9:328 10:1 11:0 12:0 13:0 14:1 15:1 16:0 17:0 18:0 19:0 20:1 21:0 22:0 23:128 24:58 25:0.45 26:0.05 27:0.01 28:0 29:0 30:0 31:0 32:0 
0.012914514679412278 0:12 1:1 2:0 3:0 4:1 5:0 6:0 7:1 8:1557 9:330 10:1 11:0 12:0 13:0 14:1 15:1 16:0 17:0 18:0 19:0 20:1 21:0 22:0 23:42 24:114 25:0.48 26:0.12 27:0.02 28:0.02 29:0 30:0 31:0.02 32:0 
0.013250693607679984 0:16 1:1 2:0 3:0 4:1 5:0 6:0 7:1 8:745 9:331 10:1 11:0 12:0 13:0 14:1 15:1 16:0 17:0 18:0 19:0 20:1 21:0 22:0 23:217 24:123 25:0.57 26:0.03 27:0 28:0 29:0 30:0 31:0 32:0 
0.011065739427370238 0:27 1:1 2:0 3:0 4:1 5:0 6:0 7:1 8:953 9:2720 10:1 11:0 12:0 13:0 14:1 15:1 16:0 17:0 18:0 19:0 20:1 21:0 22:0 23:233 24:48 25:0.21 26:0.02 27:0 28:0 29:0 30:0 31:0 32:0 
0.010316827654481936 0:6 1:1 2:0 3:0 4:1 5:0 6:0 7:1 8:1138 9:331 10:1 11:0 12:0 13:0 14:1 15:1 16:0 17:0 18:0 19:0 20:1 21:0 22:0 23:86 24:152 25:0.77 26:0.05 27:0.01 28:0.01 29:0 30:0 31:0 32:0 
0.018489628672928936 0:7 1:1 2:0 3:0 4:1 5:0 6:0 7:1 8:12217 9:1457 10:1 11:0 12:0 13:0 14:1 15:1 16:0 17:0 18:0 19:0 20:1 21:0 22:0 23:189 24:155 25:0.61 26:0.02 27:0.01 28:0.01 29:0 30:0 31:0 32:0 
0.013730986441916008 0:6 1:1 2:0 3:0 4:1 5:0 6:0 7:1 8:1036 9:333 10:1 11:0 12:0 13:0 14:1 15:1 16:0 17:0 18:0 19:0 20:1 21:0 22:0 23:44 24:133 25:0.5 26:0.05 27:0.02 28:0.02 29:0 30:0 31:0 32:0 
0.018008102480485823 0:8 1:1 2:0 3:0 4:1 5:0 6:0 7:1 8:11964 9:1397 10:1 11:0 12:0 13:0 14:1 15:2 16:0 17:0 18:0 19:0 20:1 21:0 22:1 23:146 24:201 25:0.84 26:0.03 27:0.01 28:0.01 29:0 30:0 31:0 32:0 
0.0083797681893286631 0:12 1:1 2:0 3:0 4:1 5:0 6:0 7:1 8:700 9:332 10:1 11:0 12:0 13:0 14:1 15:2 16:0 17:0 18:0 19:0 20:1 21:0 22:1 23:167 24:186 25:0.81 26:0.02 27:0.01 28:0.01 29:0 30:0 31:0 32:0 
0.018461235738108591 0:8 1:1 2:0 3:0 4:1 5:0 6:0 7:1 8:2701 9:397 10:1 11:0 12:0 13:0 14:1 15:1 16:0 17:0 18:0 19:0 20:1 21:0 22:0 23:59 24:172 25:0.73 26:0.1 27:0.02 28:0.01 29:0 30:0.01 31:0 32:0 
0.017962062531538946 0:7 1:1 2:0 3:0 4:1 5:0 6:0 7:1 8:1555 9:337 10:1 11:0 12:0 13:0 14:1 15:3 16:0 17:0 18:0 19:0 20:1 21:0 22:1 23:17 24:198 25:0.47 26:0.24 27:0.06 28:0.01 29:0 30:0 31:0 32:0 
0.010119264035378562 0:28 1:1 2:0 3:0 4:1 5:0 6:0 7:1 8:1034 9:330 10:1 11:0 12:0 13:0 14:1 15:1 16:0 17:0 18:0 19:0 20:1 21:0 22:0 23:106 24:150 25:0.53 26:0.03 27:0.01 28:0.02 29:0 30:0 31:0 32:0 
0.0092013003367173128 0:26 1:1 2:0 3:0 4:1 5:0 6:0 7:1 8:699 9:2077 10:1 11:0 12:0 13:0 14:1 15:1 16:0 17:0 18:0 19:0 20:1 21:0 22:0 23:11 24:6 25:0.55 26:0.27 27:0.09 28:0 29:0 30:0 31:0 32:0 
0.0037983436481067948 0:16 1:1 2:0 3:0 4:1 5:0 6:0 7:1 8:1434 9:327 10:1 11:0 12:0 13:0 14:1 15:1 16:0 17:0 18:0 19:0 20:1 21:0 22:0 23:100 24:139 25:0.57 26:0.06 27:0.01 28:0.01 29:0 30:0 31:0 32:0 
0.018049594953818561 0:12 1:1 2:0 3:0 4:1 5:0 6:0 7:1 8:2019 9:513 10:1 11:0 12:0 13:0 14:1 15:2 16:0 17:0 18:0 19:0 20:1 21:0 22:1 23:195 24:130 25:0.52 26:0.02 27:0.01 28:0.02 29:0 30:0 31:0 32:0 
0.014088579008503448 0:11 1:1 2:0 3:0 4:1 5:0 6:0 7:1 8:1095 9:328 10:1 11:0 12:0 13:0 14:1 15:2 16:0 17:0 18:0 19:0 20:1 21:0 22:1 23:83 24:128 25:0.49 26:0.06 27:0.01 28:0.02 29:0 30:0 31:0 32:0 
0.010075747348485709 0:28 1:1 2:0 3:0 4:1 5:0 6:0 7:1 8:951 9:329 10:1 11:0 12:0 13:0 14:1 15:1 16:0 17:0 18:0 19:0 20:1 21:0 22:0 23:150 24:117 25:0.78 26:0.03 27:0.01 28:0 29:0 30:0 31:0 32:0 
0.017068445540665785 0:27 1:1 2:0 3:0 4:1 5:0 6:0 7:1 8:1201 9:3380 10:1 11:0 12:0 13:0 14:1 15:1 16:0 17:0 18:0 19:0 20:1 21:0 22:0 23:70 24:36 25:0.51 26:0.07 27:0.01 28:0 29:0 30:0 31:0 32:0 
0.01825684993828821 0:6 1:1 2:0 3:0 4:1 5:0 6:0 7:1 8:2121 9:337 10:1 11:0 12:0 13:0 14:1 15:2 16:0 17:0 18:0 19:0 20:1 21:0 22:1 23:236 24:143 25:0.53 26:0.02 27:0 28:0.01 29:0 30:0 31:0 32:0 
0.010995629772839827 0:26 1:1 2:0 3:0 4:1 5:0 6:0 7:1 8:876 9:2586 10:1 11:0 12:0 13:0 14:1 15:1 16:0 17:0 18:0 19:0 20:1 21:0 22:0 23:255 24:70 25:0.27 26:0.02 27:0 28:0 29:0 30:0 31:0 32:0 
0.0057154143209160206 0:15 1:1 2:0 3:0 4:1 5:0 6:0 7:1 8:1287 9:332 10:1 11:0 12:0 13:0 14:1 15:1 16:0 17:0 18:0 19:0 20:1 21:0 22:0 23:133 24:102 25:0.26 26:0.05 27:0.01 28:0.02 29:0 30:0 31:0 32:0 
0.0097439278133121532 0:9 1:1 2:0 3:0 4:1 5:0 6:0 7:1 8:1655 9:325 10:1 11:0 12:0 13:0 14:1 15:1 16:0 17:0 18:0 19:0 20:1 21:0 22:0 23:111 24:93 25:0.84 26:0.04 27:0.01 28:0 29:0 30:0 31:0 32:0 
0.018427213299922883 0:6 1:1 2:0 3:0 4:1 5:0 6:0 7:1 8:2039 9:325 10:1 11:0 12:0 13:0 14:1 15:1 16:0 17:0 18:0 19:0 20:1 21:0 22:0 23:82 24:34 25:0.41 26:0.04 27:0.01 28:0 29:0 30:0 31:0 32:0 
0.014616496932766513 0:27 1:1 2:0 3:0 4:1 5:0 6:0 7:1 8:956 9:2720 10:1 11:0 12:0 13:0 14:1 15:1 16:0 17:0 18:0 19:0 20:1 21:0 22:0 23:6 24:6 25:1 26:0 27:0.17 28:0 29:0 30:0 31:0 32:0 
0.014446890604826242 0:23 1:1 2:0 3:0 4:1 5:0 6:0 7:1 8:306 9:1043 10:1 11:0 12:0 13:0 14:1 15:1 16:0 17:0 18:0 19:0 20:1 21:0 22:0 23:52 24:18 25:0.35 26:0.1 27:0.02 28:0 29:0 30:0 31:0 32:0 
0.016998639356388529 0:20 1:1 2:0 3:0 4:0 5:1 6:0 7:1 8:230 9:241 10:1 11:0 12:0 13:0 14:4 15:17 16:0 17:0 18:0 19:0 20:1 21:0 22:0.12 23:43 24:255 25:1 26:0 27:0.02 28:0.05 29:0 30:0 31:0 32:0 
0.018643421267179359 0:15 1:1 2:0 3:0 4:1 5:0 6:0 7:1 8:2400 9:331 10:1 11:0 12:0 13:0 14:1 15:1 16:0 17:0 18:0 19:0 20:1 21:0 22:0 23:54 24:149 25:0.63 26:0.13 27:0.02 28:0.01 29:0 30:0 31:0 32:0 
0.014598591257203511 0:16 1:1 2:0 3:0 4:1 5:0 6:0 7:1 8:12620 9:1361 10:1 11:0 12:0 13:0 14:1 15:2 16:0 17:0 18:0 19:0 20:1 21:0 22:1 23:67 24:163 25:0.55 26:0.06 27:0.01 28:0.01 29:0.01 30:0 31:0 32:0 
0.0019304645108759663 0:6 1:1 2:0 3:0 4:1 5:0 6:0 7:1 8:1286 9:336 10:1 11:0 12:0 13:0 14:1 15:1 16:0 17:0 18:0 19:0 20:1 21:0 22:0 23:162 24:186 25:0.66 26:0.02 27:0.01 28:0.01 29:0 30:0 31:0 32:0 
0.017993762071569504 0:15 1:1 2:0 3:0 4:1 5:0 6:0 7:1 8:877 9:282 10:1 11:0 12:0 13:0 14:1 15:1 16:0 17:0 18:0 19:0 20:1 21:0 22:0 23:76 24:39 25:0.51 26:0.07 27:0.01 28:0 29:0 30:0 31:0 32:0 
0.015288116488272449 0:10 1:1 2:0 3:0 4:1 5:0 6:0 7:1 8:623 9:328 10:1 11:0 12:0 13:0 14:1 15:4 16:0 17:0 18:0 19:0 20:1 21:0 22:1 23:89 24:73 25:0.82 26:0.04 27:0.01 28:0 29:0 30:0 31:0 32:0 
0.010803648805463056 0:10 1:1 2:0 3:0 4:1 5:0 6:0 7:1 8:914 9:331 10:1 11:0 12:0 13:0 14:1 15:1 16:0 17:0 18:0 19:0 20:1 21:0 22:0 23:85 24:42 25:0.49 26:0.06 27:0.01 28:0 29:0.01 30:0 31:0 32:0 
0.014034888512829554 0:10 1:1 2:0 3:0 4:1 5:0 6:0 7:1 8:2399 9:343 10:1 11:0 12:0 13:0 14:1 15:1 16:0 17:0 18:0 19:0 20:1 21:0 22:0 23:151 24:142 25:0.6 26:0.03 27:0.01 28:0.01 29:0.01 30:0 31:0 32:0 
0.0023680197944429861 0:7 1:1 2:0 3:0 4:1 5:0 6:0 7:1 8:1095 9:327 10:1 11:0 12:0 13:0 14:1 15:1 16:0 17:0 18:0 19:0 20:1 21:0 22:0 23:99 24:90 25:0.51 26:0.05 27:0.01 28:0.02 29:0 30:0 31:0 32:0 
0.015607526761139282 0:29 1:1 2:0 3:0 4:1 5:0 6:0 7:1 8:1193 9:3380 10:1 11:0 12:0 13:0 14:1 15:1 16:0 17:0 18:0 19:0 20:1 21:0 22:0 23:119 24:34 25:0.29 26:0.06 27:0.01 28:0 29:0 30:0 31:0 32:0 
0.013500011092977243 0:7 1:1 2:0 3:0 4:1 5:0 6:0 7:1 8:1699 9:329 10:1 11:0 12:0 13:0 14:1 15:2 16:0 17:0 18:0 19:0 20:1 21:0 22:1 23:130 24:165 25:0.61 26:0.04 27:0.01 28:0.01 29:0 30:0 31:0 32:0 
0.018167770192066592 0:21 1:1 2:0 3:0 4:1 5:0 6:0 7:1 8:2388 9:399 10:1 11:0 12:0 13:0 14:1 15:1 16:0 17:0 18:0 19:0 20:1 21:0 22:0 23:197 24:149 25:0.62 26:0.02 27:0.01 28:0.01 29:0 30:0.01 31:0 32:0 
0.0044962718581099447 0:11 1:1 2:0 3:0 4:1 5:0 6:0 7:1 8:1004 9:330 10:1 11:0 12:0 13:0 14:1 15:1 16:0 17:0 18:0 19:0 20:1 21:0 22:0 23:96 24:83 25:0.86 26:0.03 27:0.01 28:0 29:0 30:0 31:0 32:0 
0.017893259166080991 0:11 1:1 2:0 3:0 4:1 5:0 6:0 7:1 8:652 9:330 10:1 11:0 12:0 13:0 14:1 15:2 16:0 17:0 18:0 19:0 20:1 21:0 22:1 23:38 24:164 25:0.82 26:0.08 27:0.03 28:0.02 29:0 30:0 31:0 32:0 
0.018377382307329611 0:9 1:1 2:0 3:0 4:1 5:0 6:0 7:1 8:13209 9:1398 10:1 11:0 12:0 13:0 14:1 15:2 16:0 17:0 18:0 19:0 20:1 21:0 22:1 23:103 24:242 25:0.95 26:0.02 27:0.01 28:0.01 29:0 30:0 31:0 32:0 
0.0013997070920874263 0:18 1:1 2:0 3:0 4:1 5:0 6:0 7:1 8:925 9:327 10:1 11:0 12:0 13:0 14:1 15:1 16:0 17:0 18:0 19:0 20:1 21:0 22:0 23:90 24:62 25:0.69 26:0.06 27:0.01 28:0 29:0.01 30:0.02 31:0 32:0 
0.0015882112612425319 0:26 1:1 2:0 3:0 4:1 5:0 6:0 7:1 8:918 9:2720 10:1 11:0 12:0 13:0 14:1 15:1 16:0 17:0 18:0 19:0 20:1 21:0 22:0 23:16 24:10 25:0.62 26:0.12 27:0.06 28:0 29:0 30:0 31:0 32:0 
0.0017836748150072655 0:27 1:1 2:0 3:0 4:1 5:0 6:0 7:1 8:1513 9:4152 10:1 11:0 12:0 13:0 14:1 15:1 16:0 17:0 18:0 19:0 20:1 21:0 22:0 23:149 24:58 25:0.39 26:0.03 27:0.01 28:0 29:0 30:0 31:0 32:0 
0.0064115394634839387 0:7 1:1 2:0 3:0 4:1 5:0 6:0 7:1 8:814 9:332 10:1 11:0 12:0 13:0 14:1 15:1 16:0 17:0 18:0 19:0 20:1 21:0 22:0 23:167 24:104 25:0.62 26:0.04 27:0.01 28:0 29:0 30:0 31:0 32:0 
0.017726795253169749 0:30 1:1 2:0 3:0 4:1 5:0 6:0 7:1 8:1036 9:3081 10:1 11:0 12:0 13:0 14:1 15:1 16:0 17:0 18:0 19:0 20:1 21:0 22:0 23:126 24:29 25:0.23 26:0.05 27:0.01 28:0 29:0 30:0 31:0 32:0 
0.018526934683316031 0:12 1:1 2:0 3:0 4:0 5:1 6:0 7:1 8:266 9:649 10:1 11:0 12:0 13:0 14:1 15:2 16:0 17:0 18:0 19:0 20:1 21:0 22:1 23:5 24:255 25:1 26:0 27:0.2 28:0.02 29:0 30:0 31:0 32:0 
0.015849761591795974 0:27 1:1 2:0 3:0 4:1 5:0 6:0 7:1 8:1570 9:332 10:1 11:0 12:0 13:0 14:1 15:1 16:0 17:0 18:0 19:0 20:1 21:0 22:0 23:66 24:33 25:0.5 26:0.08 27:0.02 28:0 29:0 30:0 31:0 32:0 
0.013852832599543561 0:9 1:1 2:0 3:0 4:1 5:0 6:0 7:1 8:1529 9:372 10:1 11:0 12:0 13:0 14:2 15:2 16:0 17:0 18:0 19:0 20:1 21:0 22:0 23:140 24:167 25:0.74 26:0.02 27:0.01 28:0.01 29:0 30:0 31:0 32:0 
0.018602889729499167 0:8 1:1 2:0 3:0 4:1 5:0 6:0 7:1 8:5085 9:371 10:1 11:0 12:0 13:0 14:1 15:2 16:0 17:0 18:0 19:0 20:1 21:0 22:1 23:241 24:179 25:0.69 26:0.02 27:0 28:0.01 29:0 30:0 31:0 32:0 
0.011791743540538054 0:10 1:1 2:0 3:0 4:1 5:0 6:0 7:1 8:2073 9:330 10:1 11:0 12:0 13:0 14:1 15:2 16:0 17:0 18:0 19:0 20:1 21:0 22:1 23:135 24:157 25:0.64 26:0.04 27:0.01 28:0.02 29:0 30:0 31:0.01 32:0 
0.01462605944288687 0:12 1:1 2:0 3:0 4:1 5:0 6:0 7:1 8:2222 9:327 10:1 11:0 12:0 13:0 14:1 15:1 16:0 17:0 18:0 19:0 20:1 21:0 22:0 23:139 24:122 25:0.88 26:0.03 27:0.01 28:0 29:0 30:0 31:0 32:0 
0.0045739818539035325 0:29 1:1 2:0 3:0 4:1 5:0 6:0 7:1 8:938 9:2720 10:1 11:0 12:0 13:0 14:1 15:1 16:0 17:0 18:0 19:0 20:1 21:0 22:0 23:255 24:58 25:0.23 26:0.02 27:0 28:0 29:0 30:0 31:0 32:0 
0.017612648990966068 0:7 1:1 2:0 3:0 4:1 5:0 6:0 7:1 8:1446 9:419 10:1 11:0 12:0 13:0 14:1 15:1 16:0 17:0 18:0 19:0 20:1 21:0 22:0 23:7 24:166 25:1 26:0 27:0.14 28:0.01 29:0 30:0 31:0 32:0 
0.018053515499772653 0:10 1:1 2:0 3:0 4:1 5:0 6:0 7:1 8:5149 9:325 10:1 11:0 12:0 13:0 14:1 15:1 16:0 17:0 18:0 19:0 20:1 21:0 22:0 23:99 24:93 25:0.79 26:0.03 27:0.01 28:0.02 29:0 30:0 31:0 32:0 
0.018439355777423852 0:10 1:1 2:0 3:0 4:1 5:0 6:0 7:1 8:2209 9:340 10:1 11:0 12:0 13:0 14:1 15:1 16:0 17:0 18:0 19:0 20:1 21:0 22:0 23:63 24:197 25:0.75 26:0.06 27:0.02 28:0.01 29:0 30:0 31:0 32:0 
0.017153067961166203 0:17 1:1 2:0 3:0 4:1 5:0 6:0 7:1 8:11765 9:1394 10:1 11:0 12:0 13:0 14:1 15:3 16:0 17:0 18:0 19:0 20:1 21:0 22:1 23:179 24:134 25:0.44 26:0.02 27:0.01 28:0.01 29:0.01 30:0.01 31:0 32:0 
0.018068512903663431 0:20 1:1 2:0 3:0 4:1 5:0 6:0 7:1 8:11711 9:1372 10:1 11:0 12:0 13:0 14:1 15:1 16:0 17:0 18:0 19:0 20:1 21:0 22:0 23:172 24:166 25:0.66 26:0.02 27:0.01 28:0.01 29:0.01 30:0 31:0 32:0 
0.0067300439059956238 0:15 1:1 2:0 3:0 4:1 5:0 6:0 7:1 8:1470 9:335 10:1 11:0 12:0 13:0 14:1 15:1 16:0 17:0 18:0 19:0 20:1 21:0 22:0 23:118 24:169 25:0.77 26:0.04 27:0.01 28:0.01 29:0 30:0 31:0 32:0 
0.008669522539246249 0:6 1:1 2:0 3:0 4:1 5:0 6:0 7:1 8:766 9:323 10:1 11:0 12:0 13:0 14:1 15:1 16:0 17:0 18:0 19:0 20:1 21:0 22:0 23:67 24:150 25:0.54 26:0.06 27:0.01 28:0.01 29:0 30:0 31:0 32:0 
0.017551129101986317 0:29 1:1 2:0 3:0 4:1 5:0 6:0 7:1 8:1084 9:3081 10:1 11:0 12:0 13:0 14:1 15:1 16:0 17:0 18:0 19:0 20:1 21:0 22:0 23:57 24:12 25:0.21 26:0.07 27:0.02 28:0 29:0 30:0 31:0 32:0 
0.0038039944896980024 0:22 1:1 2:0 3:0 4:1 5:0 6:0 7:1 8:283 9:903 10:1 11:0 12:0 13:0 14:1 15:1 16:0 17:0 18:0 19:0 20:1 21:0 22:0 23:30 24:7 25:0.23 26:0.13 27:0.03 28:0 29:0 30:0 31:0 32:0 
0.013970578443295509 0:27 1:1 2:0 3:0 4:1 5:0 6:0 7:1 8:932 9:2720 10:1 11:0 12:0 13:0 14:1 15:1 16:0 17:0 18:0 19:0 20:1 21:0 22:0 23:168 24:46 25:0.27 26:0.04 27:0.01 28:0 29:0 30:0 31:0 32:0 
0.018294473460858399 0:14 1:1 2:0 3:0 4:1 5:0 6:0 7:1 8:11712 9:332 10:1 11:0 12:0 13:0 14:1 15:2 16:0 17:0 18:0 19:0 20:1 21:0 22:1 23:108 24:205 25:0.91 26:0.04 27:0.01 28:0.01 29:0 30:0 31:0 32:0 
0.018376777895249028 0:13 1:1 2:0 3:0 4:1 5:0 6:0 7:1 8:1718 9:477 10:1 11:0 12:0 13:0 14:1 15:1 16:0 17:0 18:0 19:0 20:1 21:0 22:0 23:2 24:194 25:1 26:0 27:0.5 28:0.02 29:0 30:0 31:0 32:0 
0.0068860778526174601 0:27 1:1 2:0 3:0 4:1 5:0 6:0 7:1 8:1535 9:4152 10:1 11:0 12:0 13:0 14:1 15:1 16:0 17:0 18:0 19:0 20:1 21:0 22:0 23:128 24:28 25:0.22 26:0.05 27:0.01 28:0 29:0 30:0 31:0 32:0 
0.018293510880220489 0:9 1:1 2:0 3:0 4:1 5:0 6:0 7:1 8:1163 9:413 10:1 11:0 12:0 13:0 14:1 15:1 16:0 17:0 18:0 19:0 20:1 21:0 22:0 23:163 24:247 25:0.96 26:0.01 27:0.01 28:0.01 29:0 30:0 31:0 32:0 
0.011950449051815309 0:23 1:1 2:0 3:0 4:1 5:0 6:0 7:1 8:293 9:903 10:1 11:0 12:0 13:0 14:1 15:1 16:0 17:0 18:0 19:0 20:1 21:0 22:0 23:59 24:23 25:0.39 26:0.07 27:0.02 28:0 29:0 30:0 31:0 32:0 
0.0099268041737500534 0:15 1:1 2:0 3:0 4:0 5:1 6:0 7:1 8:299 9:181 10:1 11:0 12:0 13:0 14:25 15:26 16:0 17:0 18:0 19:0 20:1 21:0 22:0.08 23:243 24:255 25:1 26:0 27:0 28:0.01 29:0 30:0 31:0 32:0 
0.018727461457573216 0:18 1:1 2:0 3:0 4:1 5:0 6:0 7:1 8:1351 9:372 10:1 11:0 12:0 13:0 14:1 15:1 16:0 17:0 18:0 19:0 20:1 21:0 22:0 23:11 24:21 25:0.45 26:0.27 27:0.09 28:0.1 29:0 30:0 31:0 32:0 
0.016789046353812179 0:10 1:1 2:0 3:0 4:1 5:0 6:0 7:1 8:759 9:335 10:1 11:0 12:0 13:0 14:1 15:7 16:0 17:0 18:0 19:0 20:1 21:0 22:1 23:34 24:199 25:1 26:0 27:0.03 28:0.02 29:0 30:0 31:0 32:0 
0.012188457124573048 0:6 1:1 2:0 3:0 4:1 5:0 6:0 7:1 8:560 9:328 10:1 11:0 12:0 13:0 14:1 15:1 16:0 17:0 18:0 19:0 20:1 21:0 22:0 23:33 24:149 25:0.64 26:0.12 27:0.03 28:0.01 29:0 30:0.01 31:0 32:0 
0.017013300845483744 0:7 1:1 2:0 3:0 4:1 5:0 6:0 7:1 8:1804 9:362 10:1 11:0 12:0 13:0 14:1 15:2 16:0 17:0 18:0 19:0 20:1 21:0 22:1 23:161 24:150 25:0.53 26:0.02 27:0.01 28:0.01 29:0 30:0 31:0 32:0 
0.013120762027620348 0:8 1:1 2:0 3:0 4:1 5:0 6:0 7:1 8:1255 9:329 10:1 11:0 12:0 13:0 14:1 15:3 16:0 17:0 18:0 19:0 20:1 21:0 22:1 23:33 24:158 25:0.3 26:0.09 27:0.03 28:0.01 29:0 30:0 31:0 32:0 
0.018377056285591983 0:25 1:1 2:0 3:0 4:1 5:0 6:0 7:1 8:13240 9:1429 10:1 11:0 12:0 13:0 14:1 15:1 16:0 17:0 18:0 19:0 20:1 21:0 22:0 23:65 24:164 25:0.26 26:0.03 27:0.02 28:0.02 29:0 30:0 31:0 32:0 
0.017505103204703429 0:6 1:1 2:0 3:0 4:1 5:0 6:0 7:1 8:1998 9:331 10:1 11:0 12:0 13:0 14:1 15:1 16:0 17:0 18:0 19:0 20:1 21:0 22:0 23:172 24:145 25:0.53 26:0.03 27:0.01 28:0.01 29:0 30:0 31:0 32:0 
0.0083119885583431679 0:29 1:1 2:0 3:0 4:1 5:0 6:0 7:1 8:647 9:330 10:1 11:0 12:0 13:0 14:1 15:1 16:0 17:0 18:0 19:0 20:1 21:0 22:0 23:79 24:115 25:0.87 26:0.04 27:0.01 28:0.02 29:0 30:0 31:0 32:0 
0.014329834754847091 0:10 1:1 2:0 3:0 4:1 5:0 6:0 7:1 8:885 9:333 10:1 11:0 12:0 13:0 14:1 15:1 16:0 17:0 18:0 19:0 20:1 21:0 22:0 23:62 24:186 25:0.68 26:0.03 27:0.02 28:0.01 29:0 30:0 31:0 32:0 
0.0051954286890868624 0:8 1:1 2:0 3:0 4:1 5:0 6:0 7:1 8:838 9:342 10:1 11:0 12:0 13:0 14:1 15:1 16:0 17:0 18:0 19:0 20:1 21:0 22:0 23:140 24:142 25:0.46 26:0.02 27:0.01 28:0.01 29:0 30:0 31:0 32:0 
0.009254497505201225 0:9 1:1 2:0 3:0 4:1 5:0 6:0 7:1 8:1010 9:325 10:1 11:0 12:0 13:0 14:1 15:3 16:0 17:0 18:0 19:0 20:1 21:0 22:1 23:114 24:142 25:0.75 26:0.04 27:0.01 28:0.01 29:0 30:0 31:0 32:0 
0.018478540887617138 0:6 1:1 2:0 3:0 4:1 5:0 6:0 7:1 8:1133 9:440 10:1 11:0 12:0 13:0 14:1 15:1 16:0 17:0 18:0 19:0 20:1 21:0 22:0 23:255 24:127 25:0.5 26:0.01 27:0 28:0 29:0.76 30:0.79 31:0 32:0 
0.011629457910026024 0:11 1:1 2:0 3:0 4:1 5:0 6:0 7:1 8:1562 9:332 10:1 11:0 12:0 13:0 14:1 15:1 16:0 17:0 18:0 19:0 20:1 21:0 22:0 23:53 24:138 25:0.58 26:0.09 27:0.02 28:0.01 29:0 30:0 31:0 32:0 
0.017340324325708568 0:10 1:1 2:0 3:0 4:1 5:0 6:0 7:1 8:1563 9:372 10:1 11:0 12:0 13:0 14:1 15:2 16:0 17:0 18:0 19:0 20:1 21:0 22:1 23:129 24:122 25:0.53 26:0.03 27:0.01 28:0.02 29:0 30:0 31:0 32:0 
0.017064094268924641 0:13 1:1 2:0 3:0 4:1 5:0 6:0 7:1 8:1973 9:321 10:1 11:0 12:0 13:0 14:1 15:2 16:0 17:0 18:0 19:0 20:1 21:0 22:1 23:67 24:215 25:0.57 26:0.04 27:0.01 28:0.01 29:0 30:0 31:0 32:0 
0.0091975361419482371 0:27 1:1 2:0 3:0 4:1 5:0 6:0 7:1 8:342 9:1069 10:1 11:0 12:0 13:0 14:1 15:1 16:0 17:0 18:0 19:0 20:1 21:0 22:0 23:255 24:70 25:0.27 26:0.02 27:0 28:0 29:0 30:0 31:0 32:0 
0.018194797105926856 0:9 1:1 2:0 3:0 4:1 5:0 6:0 7:1 8:2629 9:401 10:1 11:0 12:0 13:0 14:1 15:3 16:0 17:0 18:0 19:0 20:1 21:0 22:1 23:151 24:169 25:0.76 26:0.02 27:0.01 28:0.01 29:0 30:0 31:0 32:0 
0.011144106545853457 0:21 1:1 2:0 3:0 4:1 5:0 6:0 7:1 8:245 9:777 10:1 11:0 12:0 13:0 14:1 15:1 16:0 17:0 18:0 19:0 20:1 21:0 22:0 23:2 24:2 25:1 26:0 27:0.5 28:0 29:0 30:0 31:0 32:0 
0.014002749587082489 0:7 1:1 2:0 3:0 4:1 5:0 6:0 7:1 8:2240 9:332 10:1 11:0 12:0 13:0 14:1 15:2 16:0 17:0 18:0 19:0 20:1 21:0 22:1 23:163 24:141 25:0.87 26:0.02 27:0.01 28:0 29:0 30:0 31:0 32:0 
0.0031353664630819457 0:21 1:1 2:0 3:0 4:1 5:0 6:0 7:1 8:230 9:767 10:1 11:0 12:0 13:0 14:1 15:1 16:0 17:0 18:0 19:0 20:1 21:0 22:0 23:94 24:28 25:0.3 26:0.07 27:0.01 28:0 29:0 30:0 31:0 32:0 
0.0057004722287214375 0:25 1:1 2:0 3:0 4:1 5:0 6:0 7:1 8:228 9:762 10:1 11:0 12:0 13:0 14:1 15:1 16:0 17:0 18:0 19:0 20:1 21:0 22:0 23:68 24:14 25:0.21 26:0.06 27:0.01 28:0 29:0 30:0 31:0 32:0 
0.018017993370907266 0:8 1:1 2:0 3:0 4:1 5:0 6:0 7:1 8:1716 9:481 10:1 11:0 12:0 13:0 14:1 15:1 16:0 17:0 18:0 19:0 20:1 21:0 22:0 23:171 24:213 25:0.82 26:0.02 27:0.01 28:0.01 29:0 30:0 31:0 32:0 
0.018291744531814404 0:6 1:1 2:0 3:0 4:1 5:0 6:0 7:1 8:1816 9:490 10:1 11:0 12:0 13:0 14:1 15:2 16:0 17:0 18:0 19:0 20:1 21:0 22:1 23:255 24:135 25:0.53 26:0.01 27:0 28:0 29:0.72 30:0.74 31:0 32:0 
0.0065516259570697023 0:8 1:1 2:0 3:0 4:1 5:0 6:0 7:1 8:997 9:333 10:1 11:0 12:0 13:0 14:1 15:1 16:0 17:0 18:0 19:0 20:1 21:0 22:0 23:62 24:129 25:0.53 26:0.05 27:0.02 28:0.02 29:0 30:0.16 31:0 32:0 
0.018145585929175402 0:13 1:1 2:0 3:0 4:1 5:0 6:0 7:1 8:970 9:328 10:1 11:0 12:0 13:0 14:1 15:1 16:0 17:0 18:0 19:0 20:1 21:0 22:0 23:133 24:242 25:0.95 26:0.02 27:0.01 28:0.01 29:0 30:0 31:0 32:0 
0.012852318257679811 0:6 1:1 2:0 3:0 4:1 5:0 6:0 7:1 8:972 9:339 10:1 11:0 12:0 13:0 14:1 15:1 16:0 17:0 18:0 19:0 20:1 21:0 22:0 23:144 24:173 25:0.6 26:0.04 27:0.01 28:0.01 29:0.01 30:0.01 31:0 32:0 
0.018408514012464718 0:26 1:1 2:0 3:0 4:1 5:0 6:0 7:1 8:13510 9:1361 10:1 11:0 12:0 13:0 14:1 15:1 16:0 17:0 18:0 19:0 20:1 21:0 22:0 23:150 24:159 25:0.42 26:0.03 27:0.01 28:0.01 29:0 30:0 31:0 32:0 
0.00056535013690649054 0:22 1:1 2:0 3:0 4:1 5:0 6:0 7:1 8:343 9:1069 10:1 11:0 12:0 13:0 14:1 15:1 16:0 17:0 18:0 19:0 20:1 21:0 22:0 23:118 24:30 25:0.25 26:0.04 27:0.01 28:0 29:0 30:0 31:0 32:0 
0.015042494983569724 0:15 1:1 2:0 3:0 4:1 5:0 6:0 7:1 8:1124 9:330 10:1 11:0 12:0 13:0 14:1 15:2 16:0 17:0 18:0 19:0 20:1 21:0 22:1 23:20 24:12 25:0.6 26:0.15 27:0.05 28:0 29:0 30:0 31:0 32:0 
0.012830567047536115 0:26 1:1 2:0 3:0 4:1 5:0 6:0 7:1 8:924 9:2720 10:1 11:0 12:0 13:0 14:1 15:1 16:0 17:0 18:0 19:0 20:1 21:0 22:0 23:63 24:38 25:0.6 26:0.03 27:0.02 28:0 29:0 30:0 31:0 32:0 
0.0089510125261688216 0:12 1:1 2:0 3:0 4:1 5:0 6:0 7:1 8:893 9:331 10:1 11:0 12:0 13:0 14:1 15:1 16:0 17:0 18:0 19:0 20:1 21:0 22:0 23:93 24:88 25:0.76 26:0.05 27:0.01 28:0.02 29:0 30:0 31:0 32:0 
0.01550885287244223 0:8 1:1 2:0 3:0 4:1 5:0 6:0 7:1 8:1830 9:376 10:1 11:0 12:0 13:0 14:1 15:2 16:0 17:0 18:0 19:0 20:1 21:0 22:1 23:255 24:172 25:0.67 26:0.02 27:0 28:0 29:0 30:0 31:0 32:0 
0.016038899739167476 0:6 1:1 2:0 3:0 4:1 5:0 6:0 7:1 8:1498 9:328 10:1 11:0 12:0 13:0 14:1 15:4 16:0 17:0 18:0 19:0 20:1 21:0 22:1 23:86 24:200 25:0.69 26:0.03 27:0.01 28:0.01 29:0 30:0 31:0 32:0 
0.017752032533316326 0:8 1:1 2:0 3:0 4:1 5:0 6:0 7:1 8:1479 9:482 10:1 11:0 12:0 13:0 14:2 15:2 16:0 17:0 18:0 19:0 20:1 21:0 22:0 23:4 24:143 25:0.75 26:0.5 27:0.25 28:0.01 29:0.25 30:0 31:0 32:0 
0.018589987385878554 0:20 1:1 2:0 3:0 4:0 5:1 6:0 7:1 8:231 9:180 10:1 11:0 12:0 13:0 14:37 15:37 16:0 17:0 18:0 19:0 20:1 21:0 22:0 23:198 24:255 25:1 26:0 27:0.01 28:0.02 29:0 30:0 31:0 32:0 
0.018347641694010073 0:17 1:1 2:0 3:0 4:1 5:0 6:0 7:1 8:11322 9:1362 10:1 11:0 12:0 13:0 14:1 15:1 16:0 17:0 18:0 19:0 20:1 21:0 22:0 23:254 24:93 25:0.37 26:0.03 27:0 28:0 29:0 30:0 31:0 32:0 
0.013357524372121888 0:13 1:1 2:0 3:0 4:1 5:0 6:0 7:1 8:699 9:328 10:1 11:0 12:0 13:0 14:1 15:1 16:0 17:0 18:0 19:0 20:1 21:0 22:0 23:126 24:136 25:0.23 26:0.02 27:0.01 28:0.01 29:0 30:0 31:0 32:0 
0.015022211183748857 0:15 1:1 2:0 3:0 4:1 5:0 6:0 7:1 8:882 9:332 10:1 11:0 12:0 13:0 14:1 15:1 16:0 17:0 18:0 19:0 20:1 21:0 22:0 23:194 24:122 25:0.45 26:0.04 27:0.01 28:0.02 29:0 30:0 31:0.01 32:0 
0.007072785452932143 0:8 1:1 2:0 3:0 4:1 5:0 6:0 7:1 8:927 9:329 10:1 11:0 12:0 13:0 14:1 15:4 16:0 17:0 18:0 19:0 20:1 21:0 22:1 23:255 24:157 25:0.62 26:0.03 27:0 28:0 29:0 30:0 31:0 32:0 
0.017201546363608104 0:9 1:1 2:0 3:0 4:1 5:0 6:0 7:1 8:612 9:335 10:1 11:0 12:0 13:0 14:1 15:1 16:0 17:0 18:0 19:0 20:1 21:0 22:0 23:97 24:211 25:0.82 26:0.04 27:0.01 28:0.01 29:0 30:0 31:0 32:0 
0.012354918425453843 0:20 1:1 2:0 3:0 4:1 5:0 6:0 7:1 8:1825 9:330 10:1 11:0 12:0 13:0 14:1 15:2 16:0 17:0 18:0 19:0 20:1 21:0 22:1 23:111 24:191 25:0.78 26:0.03 27:0.01 28:0.01 29:0 30:0 31:0 32:0 
0.0067626208022956756 0:27 1:1 2:0 3:0 4:1 5:0 6:0 7:1 8:893 9:2586 10:1 11:0 12:0 13:0 14:1 15:1 16:0 17:0 18:0 19:0 20:1 21:0 22:0 23:229 24:65 25:0.28 26:0.03 27:0 28:0 29:0 30:0 31:0 32:0 
0.013740208007042683 0:13 1:1 2:0 3:0 4:1 5:0 6:0 7:1 8:1464 9:345 10:1 11:0 12:0 13:0 14:1 15:1 16:0 17:0 18:0 19:0 20:1 21:0 22:0 23:133 24:197 25:0.75 26:0.03 27:0.01 28:0.01 29:0 30:0 31:0 32:0 
0.003439804633197035 0:22 1:1 2:0 3:0 4:1 5:0 6:0 7:1 8:341 9:1069 10:1 11:0 12:0 13:0 14:1 15:1 16:0 17:0 18:0 19:0 20:1 21:0 22:0 23:150 24:36 25:0.24 26:0.05 27:0.01 28:0 29:0 30:0 31:0 32:0 
0.013203214240117545 0:10 1:1 2:0 3:0 4:1 5:0 6:0 7:1 8:973 9:333 10:1 11:0 12:0 13:0 14:1 15:1 16:0 17:0 18:0 19:0 20:1 21:0 22:0 23:111 24:58 25:0.52 26:0.04 27:0.01 28:0 29:0 30:0 31:0 32:0 
0.013036115187494778 0:10 1:1 2:0 3:0 4:1 5:0 6:0 7:1 8:1209 9:330 10:1 11:0 12:0 13:0 14:1 15:2 16:0 17:0 18:0 19:0 20:1 21:0 22:1 23:248 24:150 25:0.6 26:0.02 27:0 28:0 29:0 30:0 31:0 32:0 
0.0085837518889976348 0:6 1:1 2:0 3:0 4:1 5:0 6:0 7:1 8:1115 9:324 10:1 11:0 12:0 13:0 14:2 15:3 16:0 17:0 18:0 19:0 20:1 21:0 22:0.67 23:149 24:169 25:0.76 26:0.02 27:0.01 28:0.01 29:0 30:0 31:0 32:0 
0.0074337495400330824 0:27 1:1 2:0 3:0 4:1 5:0 6:0 7:1 8:317 9:1063 10:1 11:0 12:0 13:0 14:1 15:1 16:0 17:0 18:0 19:0 20:1 21:0 22:0 23:167 24:47 25:0.28 26:0.02 27:0.01 28:0 29:0 30:0 31:0 32:0 
0.014527465230703532 0:8 1:1 2:0 3:0 4:1 5:0 6:0 7:1 8:1031 9:335 10:1 11:0 12:0 13:0 14:1 15:1 16:0 17:0 18:0 19:0 20:1 21:0 22:0 23:41 24:92 25:0.71 26:0.05 27:0.02 28:0.02 29:0 30:0 31:0 32:0 
0.018409694514672552 0:8 1:1 2:0 3:0 4:1 5:0 6:0 7:1 8:2720 9:372 10:1 11:0 12:0 13:0 14:1 15:1 16:0 17:0 18:0 19:0 20:1 21:0 22:0 23:144 24:240 25:0.99 26:0.01 27:0.01 28:0.01 29:0 30:0 31:0 32:0 
0.0047313965026220036 0:10 1:1 2:0 3:0 4:1 5:0 6:0 7:1 8:1191 9:328 10:1 11:0 12:0 13:0 14:1 15:1 16:0 17:0 18:0 19:0 20:1 21:0 22:0 23:93 24:167 25:0.78 26:0.06 27:0.01 28:0.01 29:0 30:0 31:0 32:0 
0.012390283981418952 0:6 1:1 2:0 3:0 4:1 5:0 6:0 7:1 8:1233 9:335 10:1 11:0 12:0 13:0 14:1 15:1 16:0 17:0 18:0 19:0 20:1 21:0 22:0 23:108 24:125 25:0.78 26:0.03 27:0.01 28:0.02 29:0 30:0 31:0 32:0 
0.012300348747827421 0:10 1:1 2:0 3:0 4:1 5:0 6:0 7:1 8:822 9:334 10:1 11:0 12:0 13:0 14:1 15:1 16:0 17:0 18:0 19:0 20:1 21:0 22:0 23:216 24:158 25:0.61 26:0.02 27:0 28:0.01 29:0 30:0 31:0 32:0 
0.015038029510153412 0:7 1:1 2:0 3:0 4:1 5:0 6:0 7:1 8:1125 9:366 10:1 11:0 12:0 13:0 14:1 15:1 16:0 17:0 18:0 19:0 20:1 21:0 22:0 23:135 24:76 25:0.56 26:0.02 27:0.01 28:0 29:0 30:0 31:0 32:0 
0.0080135003399078794 0:17 1:1 2:0 3:0 4:1 5:0 6:0 7:1 8:892 9:332 10:1 11:0 12:0 13:0 14:1 15:4 16:0 17:0 18:0 19:0 20:1 21:0 22:1 23:132 24:125 25:0.45 26:0.05 27:0.01 28:0.02 29:0 30:0 31:0.02 32:0 
0.012570569632713309 0:8 1:1 2:0 3:0 4:1 5:0 6:0 7:1 8:1744 9:334 10:1 11:0 12:0 13:0 14:2 15:2 16:0 17:0 18:0 19:0 20:1 21:0 22:0 23:133 24:188 25:0.54 26:0.03 27:0.01 28:0.01 29:0.01 30:0 31:0 32:0 
0.0096391384019834415 0:8 1:1 2:0 3:0 4:1 5:0 6:0 7:1 8:2550 9:328 10:1 11:0 12:0 13:0 14:1 15:2 16:0 17:0 18:0 19:0 20:1 21:0 22:1 23:136 24:164 25:0.74 26:0.02 27:0.01 28:0.01 29:0 30:0 31:0 32:0 
0.014973691161296347 0:7 1:1 2:0 3:0 4:1 5:0 6:0 7:1 8:1203 9:336 10:1 11:0 12:0 13:0 14:2 15:2 16:0 17:0 18:0 19:0 20:1 21:0 22:0 23:59 24:134 25:0.81 26:0.08 27:0.02 28:0.01 29:0 30:0 31:0 32:0 
0.017898213295209818 0:8 1:1 2:0 3:0 4:1 5:0 6:0 7:1 8:11915 9:1361 10:1 11:0 12:0 13:0 14:1 15:1 16:0 17:0 18:0 19:0 20:1 21:0 22:0 23:50 24:189 25:0.54 26:0.08 27:0.02 28:0.01 29:0 30:0 31:0 32:0 
0.017062589352933685 0:10 1:1 2:0 3:0 4:1 5:0 6:0 7:1 8:1281 9:287 10:1 11:0 12:0 13:0 14:1 15:2 16:0 17:0 18:0 19:0 20:1 21:0 22:1 23:140 24:175 25:0.74 26:0.04 27:0.01 28:0.01 29:0 30:0 31:0 32:0 
0.013469050602076739 0:6 1:1 2:0 3:0 4:1 5:0 6:0 7:1 8:847 9:328 10:1 11:0 12:0 13:0 14:1 15:1 16:0 17:0 18:0 19:0 20:1 21:0 22:0 23:188 24:80 25:0.38 26:0.02 27:0.01 28:0.03 29:0.01 30:0 31:0 32:0 
0.016435076580886332 0:30 1:1 2:0 3:0 4:1 5:0 6:0 7:1 8:1172 9:3380 10:1 11:0 12:0 13:0 14:2 15:1 16:0 17:0 18:0 19:0 20:0.5 21:1 22:0 23:239 24:65 25:0.27 26:0.03 27:0 28:0 29:0 30:0 31:0 32:0 
0.0078207682839820554 0:27 1:1 2:0 3:0 4:1 5:0 6:0 7:1 8:1488 9:4152 10:1 11:0 12:0 13:0 14:1 15:1 16:0 17:0 18:0 19:0 20:1 21:0 22:0 23:68 24:43 25:0.63 26:0.03 27:0.01 28:0 29:0 30:0 31:0 32:0 
0.011464692901212216 0:22 1:1 2:0 3:0 4:1 5:0 6:1 7:0 8:738 9:332 10:1 11:0 12:0 13:0 14:1 15:2 16:1 17:0.5 18:0 19:0 20:1 21:0 22:1 23:28 24:154 25:0.82 26:0.07 27:0.04 28:0.02 29:0.04 30:0.01 31:0 32:0 
0.018568293210452672 0:17 1:1 2:0 3:0 4:1 5:0 6:0 7:1 8:2488 9:370 10:1 11:0 12:0 13:0 14:1 15:1 16:0 17:0 18:0 19:0 20:1 21:0 22:0 23:178 24:129 25:0.53 26:0.02 27:0.01 28:0.02 29:0 30:0 31:0 32:0 
0.018529917785353851 0:10 1:1 2:0 3:0 4:1 5:0 6:0 7:1 8:5688 9:331 10:1 11:0 12:0 13:0 14:1 15:1 16:0 17:0 18:0 19:0 20:1 21:0 22:0 23:208 24:122 25:0.45 26:0.01 27:0 28:0.02 29:0 30:0 31:0 32:0 
0.0080153910174864864 0:30 1:1 2:0 3:0 4:1 5:0 6:0 7:1 8:1423 9:4152 10:1 11:0 12:0 13:0 14:1 15:1 16:0 17:0 18:0 19:0 20:1 21:0 22:0 23:105 24:23 25:0.22 26:0.04 27:0.01 28:0 29:0 30:0 31:0 32:0 
0.014186340855822741 0:19 1:1 2:0 3:0 4:1 5:0 6:0 7:1 8:1285 9:326 10:1 11:0 12:0 13:0 14:1 15:2 16:0 17:0 18:0 19:0 20:1 21:0 22:1 23:62 24:38 25:0.61 26:0.05 27:0.02 28:0 29:0 30:0 31:0 32:0 
0.012396283834569628 0:7 1:1 2:0 3:0 4:1 5:0 6:0 7:1 8:1287 9:329 10:1 11:0 12:0 13:0 14:1 15:3 16:0 17:0 18:0 19:0 20:1 21:0 22:1 23:119 24:95 25:0.8 26:0.03 27:0.01 28:0 29:0 30:0 31:0 32:0 
0.0071907263882429566 0:10 1:1 2:0 3:0 4:1 5:0 6:0 7:1 8:707 9:343 10:1 11:0 12:0 13:0 14:1 15:1 16:0 17:0 18:0 19:0 20:1 21:0 22:0 23:144 24:194 25:0.83 26:0.02 27:0.01 28:0.01 29:0 30:0 31:0 32:0 
0.012116477217169224 0:12 1:1 2:0 3:0 4:1 5:0 6:0 7:1 8:930 9:335 10:1 11:0 12:0 13:0 14:1 15:2 16:0 17:0 18:0 19:0 20:1 21:0 22:1 23:135 24:72 25:0.39 26:0.04 27:0.01 28:0.03 29:0 30:0 31:0.01 32:0 
0.0085239391598401076 0:21 1:1 2:0 3:0 4:1 5:0 6:0 7:1 8:783 9:331 10:1 11:0 12:0 13:0 14:1 15:1 16:0 17:0 18:0 19:0 20:1 21:0 22:0 23:189 24:143 25:0.67 26:0.03 27:0.01 28:0.01 29:0 30:0 31:0 32:0 
0.016266351351288542 0:30 1:1 2:0 3:0 4:1 5:0 6:0 7:1 8:1064 9:3081 10:1 11:0 12:0 13:0 14:1 15:1 16:0 17:0 18:0 19:0 20:1 21:0 22:0 23:170 24:48 25:0.28 26:0.02 27:0.01 28:0 29:0 30:0 31:0 32:0 
0.016843841092227248 0:21 1:1 2:0 3:0 4:1 5:0 6:0 7:1 8:707 9:287 10:1 11:0 12:0 13:0 14:1 15:1 16:0 17:0 18:0 19:0 20:1 21:0 22:0 23:255 24:165 25:0.65 26:0.02 27:0 28:0 29:0 30:0 31:0 32:0 
0.012773492215491237 0:27 1:1 2:0 3:0 4:1 5:0 6:0 7:1 8:1179 9:3380 10:1 11:0 12:0 13:0 14:1 15:1 16:0 17:0 18:0 19:0 20:1 21:0 22:0 23:174 24:63 25:0.36 26:0.02 27:0.01 28:0 29:0 30:0 31:0 32:0 
0.0177709924142107 0:6 1:1 2:0 3:0 4:1 5:0 6:0 7:1 8:1395 9:366 10:1 11:0 12:0 13:0 14:1 15:2 16:0 17:0 18:0 19:0 20:1 21:0 22:1 23:40 24:91 25:0.7 26:0.05 27:0.03 28:0.02 29:0 30:0 31:0 32:0 
0.0091133001844349963 0:24 1:1 2:0 3:0 4:1 5:0 6:0 7:1 8:341 9:1063 10:1 11:0 12:0 13:0 14:1 15:1 16:0 17:0 18:0 19:0 20:1 21:0 22:0 23:177 24:37 25:0.21 26:0.04 27:0.01 28:0 29:0 30:0 31:0 32:0 
0.018147051805140056 0:7 1:1 2:0 3:0 4:1 5:0 6:0 7:1 8:6327 9:331 10:1 11:0 12:0 13:0 14:1 15:2 16:0 17:0 18:0 19:0 20:1 21:0 22:1 23:78 24:153 25:0.55 26:0.19 27:0.01 28:0.01 29:0.01 30:0 31:0 32:0 
0.0061411983081479157 0:27 1:1 2:0 3:0 4:1 5:0 6:0 7:1 8:1484 9:4152 10:1 11:0 12:0 13:0 14:1 15:1 16:0 17:0 18:0 19:0 20:1 21:0 22:0 23:187 24:42 25:0.22 26:0.04 27:0.01 28:0 29:0.01 30:0 31:0 32:0 
0.0039820840865785311 0:6 1:1 2:0 3:0 4:1 5:0 6:0 7:1 8:1228 9:331 10:1 11:0 12:0 13:0 14:1 15:1 16:0 17:0 18:0 19:0 20:1 21:0 22:0 23:114 24:148 25:0.62 26:0.04 27:0.01 28:0.01 29:0 30:0 31:0 32:0 
0.012354662134526869 0:20 1:1 2:0 3:0 4:1 5:0 6:0 7:1 8:1671 9:331 10:1 11:0 12:0 13:0 14:1 15:2 16:0 17:0 18:0 19:0 20:1 21:0 22:1 23:77 24:102 25:0.36 26:0.03 27:0.01 28:0.02 29:0 30:0 31:0 32:0 
0.018287301083617279 0:26 1:1 2:0 3:0 4:1 5:0 6:0 7:1 8:11412 9:1390 10:1 11:0 12:0 13:0 14:1 15:1 16:0 17:0 18:0 19:0 20:1 21:0 22:0 23:95 24:117 25:0.75 26:0.03 27:0.01 28:0.02 29:0 30:0 31:0 32:0 
0.01439781097950487 0:8 1:1 2:0 3:0 4:1 5:0 6:0 7:1 8:1679 9:330 10:1 11:0 12:0 13:0 14:1 15:1 16:0 17:0 18:0 19:0 20:1 21:0 22:0 23:45 24:56 25:0.8 26:0.07 27:0.02 28:0.04 29:0 30:0 31:0 32:0 
0.01328360211504327 0:6 1:1 2:0 3:0 4:1 5:0 6:0 7:1 8:1149 9:331 10:1 11:0 12:0 13:0 14:1 15:1 16:0 17:0 18:0 19:0 20:1 21:0 22:0 23:157 24:78 25:0.5 26:0.02 27:0.01 28:0 29:0 30:0 31:0 32:0 
0.018410125658779631 0:10 1:1 2:0 3:0 4:1 5:0 6:0 7:1 8:2315 9:333 10:1 11:0 12:0 13:0 14:1 15:1 16:0 17:0 18:0 19:0 20:1 21:0 22:0 23:179 24:243 25:0.96 26:0.01 27:0.01 28:0.01 29:0 30:0 31:0 32:0 
0.018364807528274945 0:6 1:1 2:0 3:0 4:1 5:0 6:0 7:1 8:11562 9:1399 10:1 11:0 12:0 13:0 14:1 15:2 16:0 17:0 18:0 19:0 20:1 21:0 22:1 23:241 24:143 25:0.54 26:0.02 27:0 28:0.01 29:0 30:0 31:0 32:0 
0.014893875329282331 0:6 1:1 2:0 3:0 4:1 5:0 6:0 7:1 8:1127 9:326 10:1 11:0 12:0 13:0 14:1 15:2 16:0 17:0 18:0 19:0 20:1 21:0 22:1 23:234 24:174 25:0.71 26:0.03 27:0 28:0.01 29:0 30:0 31:0 32:0 
0.018488893641366889 0:29 1:1 2:0 3:0 4:0 5:1 6:0 7:1 8:347 9:273 10:1 11:0 12:0 13:0 14:1 15:4 16:0 17:0 18:0 19:0 20:1 21:0 22:0.5 23:132 24:255 25:1 26:0 27:0.01 28:0.02 29:0 30:0 31:0 32:0 
0.017511505092938535 0:6 1:1 2:0 3:0 4:1 5:0 6:0 7:1 8:1672 9:334 10:1 11:0 12:0 13:0 14:1 15:1 16:0 17:0 18:0 19:0 20:1 21:0 22:0 23:65 24:205 25:0.92 26:0.05 27:0.02 28:0.01 29:0 30:0 31:0 32:0 
0.01557666763433012 0:16 1:1 2:0 3:0 4:1 5:0 6:0 7:1 8:827 9:330 10:1 11:0 12:0 13:0 14:1 15:1 16:0 17:0 18:0 19:0 20:1 21:0 22:0 23:106 24:197 25:0.88 26:0.04 27:0.01 28:0.01 29:0 30:0 31:0 32:0 
0.0062378558956656402 0:27 1:1 2:0 3:0 4:1 5:0 6:0 7:1 8:1439 9:4152 10:1 11:0 12:0 13:0 14:1 15:1 16:0 17:0 18:0 19:0 20:1 21:0 22:0 23:136 24:53 25:0.39 26:0.02 27:0.01 28:0 29:0 30:0 31:0 32:0 
0.018199845517376669 0:7 1:1 2:0 3:0 4:1 5:0 6:0 7:1 8:1012 9:329 10:1 11:0 12:0 13:0 14:1 15:1 16:0 17:0 18:0 19:0 20:1 21:0 22:0 23:11 24:19 25:1 26:0 27:0.09 28:0.11 29:0 30:0 31:0 32:0 
0.01864800675739111 0:28 1:1 2:0 3:0 4:1 5:0 6:0 7:1 8:549 9:325 10:1 11:0 12:0 13:0 14:1 15:1 16:0 17:0 18:0 19:0 20:1 21:0 22:0 23:211 24:139 25:0.54 26:0.02 27:0 28:0.01 29:0 30:0 31:0 32:0 
0.012663987399652056 0:27 1:1 2:0 3:0 4:1 5:0 6:0 7:1 8:1443 9:4152 10:1 11:0 12:0 13:0 14:1 15:1 16:0 17:0 18:0 19:0 20:1 21:0 22:0 23:2 24:2 25:1 26:0 27:0.5 28:0 29:0 30:0 31:0 32:0 
0.017612941177494807 0:12 1:1 2:0 3:0 4:1 5:0 6:0 7:1 8:1174 9:409 10:1 11:0 12:0 13:0 14:1 15:1 16:0 17:0 18:0 19:0 20:1 21:0 22:0 23:154 24:145 25:0.61 26:0.03 27:0.01 28:0.01 29:0.01 30:0 31:0 32:0 
0.014702645277207525 0:7 1:1 2:0 3:0 4:1 5:0 6:0 7:1 8:1759 9:335 10:1 11:0 12:0 13:0 14:1 15:3 16:0 17:0 18:0 19:0 20:1 21:0 22:1 23:150 24:215 25:0.85 26:0.03 27:0.01 28:0.01 29:0 30:0 31:0 32:0 
0.0082908324659937936 0:29 1:1 2:0 3:0 4:1 5:0 6:0 7:1 8:1223 9:3380 10:1 11:0 12:0 13:0 14:1 15:1 16:0 17:0 18:0 19:0 20:1 21:0 22:0 23:255 24:54 25:0.21 26:0.02 27:0 28:0 29:0 30:0 31:0 32:0 
0.006196244846402096 0:10 1:1 2:0 3:0 4:1 5:0 6:0 7:1 8:716 9:327 10:1 11:0 12:0 13:0 14:1 15:1 16:0 17:0 18:0 19:0 20:1 21:0 22:0 23:136 24:71 25:0.52 26:0.09 27:0.01 28:0 29:0.01 30:0.01 31:0 32:0 
0.018620748393988092 0:17 1:1 2:0 3:0 4:1 5:0 6:0 7:1 8:12385 9:1393 10:1 11:0 12:0 13:0 14:1 15:1 16:0 17:0 18:0 19:0 20:1 21:0 22:0 23:228 24:111 25:0.49 26:0.01 27:0 28:0 29:0 30:0 31:0 32:0 
0.017629229229969151 0:7 1:1 2:0 3:0 4:1 5:0 6:0 7:1 8:1625 9:371 10:1 11:0 12:0 13:0 14:1 15:1 16:0 17:0 18:0 19:0 20:1 21:0 22:0 23:41 24:96 25:0.95 26:0.05 27:0.02 28:0.02 29:0 30:0 31:0 32:0 
0.0086426209413135585 0:22 1:1 2:0 3:0 4:1 5:0 6:0 7:1 8:1114 9:328 10:1 11:0 12:0 13:0 14:1 15:1 16:0 17:0 18:0 19:0 20:1 21:0 22:0 23:153 24:171 25:0.71 26:0.03 27:0.01 28:0.01 29:0 30:0 31:0 32:0 
0.016582111190897614 0:12 1:1 2:0 3:0 4:1 5:0 6:0 7:1 8:11438 9:1391 10:1 11:0 12:0 13:0 14:1 15:1 16:0 17:0 18:0 19:0 20:1 21:0 22:0 23:4 24:34 25:1 26:0 27:0.25 28:0.06 29:0 30:0 31:0 32:0 
0.018583652327087381 0:10 1:1 2:0 3:0 4:0 5:1 6:0 7:1 8:271 9:715 10:1 11:0 12:0 13:0 14:1 15:1 16:0 17:0 18:0 19:0 20:1 21:0 22:0 23:255 24:251 25:0.98 26:0.01 27:0 28:0 29:0 30:0 31:0 32:0 
0.0037321569540917088 0:19 1:1 2:0 3:0 4:1 5:0 6:0 7:1 8:953 9:331 10:1 11:0 12:0 13:0 14:1 15:3 16:0 17:0 18:0 19:0 20:1 21:0 22:1 23:119 24:91 25:0.76 26:0.03 27:0.01 28:0 29:0 30:0 31:0 32:0 
0.0132834391162511 0:27 1:1 2:0 3:0 4:1 5:0 6:0 7:1 8:1457 9:4152 10:1 11:0 12:0 13:0 14:1 15:1 16:0 17:0 18:0 19:0 20:1 21:0 22:0 23:193 24:78 25:0.4 26:0.03 27:0.01 28:0 29:0 30:0 31:0 32:0 
0.01699943102855991 0:11 1:1 2:0 3:0 4:1 5:0 6:0 7:1 8:1663 9:371 10:1 11:0 12:0 13:0 14:1 15:1 16:0 17:0 18:0 19:0 20:1 21:0 22:0 23:24 24:168 25:0.75 26:0.12 27:0.04 28:0.01 29:0 30:0.01 31:0 32:0 
0.018366862082588836 0:10 1:1 2:0 3:0 4:1 5:0 6:0 7:1 8:2127 9:586 10:1 11:0 12:0 13:0 14:1 15:1 16:0 17:0 18:0 19:0 20:1 21:0 22:0 23:14 24:151 25:0.5 26:0.21 27:0.07 28:0.02 29:0 30:0 31:0.07 32:0 
0.01750643328194465 0:8 1:1 2:0 3:0 4:1 5:0 6:0 7:1 8:634 9:328 10:1 11:0 12:0 13:0 14:1 15:1 16:0 17:0 18:0 19:0 20:1 21:0 22:0 23:216 24:136 25:0.58 26:0.02 27:0 28:0.01 29:0 30:0 31:0 32:0 
0.0041649777843738873 0:29 1:1 2:0 3:0 4:1 5:0 6:0 7:1 8:336 9:1063 10:1 11:0 12:0 13:0 14:1 15:1 16:0 17:0 18:0 19:0 20:1 21:0 22:0 23:213 24:58 25:0.27 26:0.02 27:0.01 28:0 29:0 30:0 31:0 32:0 
0.0084399188059215407 0:15 1:1 2:0 3:0 4:1 5:0 6:0 7:1 8:803 9:330 10:1 11:0 12:0 13:0 14:1 15:1 16:0 17:0 18:0 19:0 20:1 21:0 22:0 23:139 24:129 25:0.63 26:0.03 27:0.01 28:0.02 29:0 30:0 31:0 32:0 
0.0078613883814035741 0:14 1:1 2:0 3:0 4:1 5:0 6:0 7:1 8:734 9:332 10:1 11:0 12:0 13:0 14:1 15:1 16:0 17:0 18:0 19:0 20:1 21:0 22:0 23:105 24:149 25:0.52 26:0.03 27:0.01 28:0.02 29:0 30:0 31:0 32:0 
0.01640795422347037 0:9 1:1 2:0 3:0 4:1 5:0 6:0 7:1 8:601 9:332 10:1 11:0 12:0 13:0 14:1 15:1 16:0 17:0 18:0 19:0 20:1 21:0 22:0 23:132 24:144 25:0.7 26:0.04 27:0.01 28:0.01 29:0 30:0 31:0 32:0 
0.0083063297884107042 0:16 1:1 2:0 3:0 4:1 5:0 6:0 7:1 8:1674 9:326 10:1 11:0 12:0 13:0 14:1 15:2 16:0 17:0 18:0 19:0 20:1 21:0 22:1 23:131 24:108 25:0.82 26:0.02 27:0.01 28:0 29:0 30:0 31:0 32:0 
0.01470888370312259 0:6 1:1 2:0 3:0 4:1 5:0 6:0 7:1 8:2582 9:331 10:1 11:0 12:0 13:0 14:1 15:1 16:0 17:0 18:0 19:0 20:1 21:0 22:0 23:116 24:128 25:0.49 26:0.06 27:0.01 28:0.02 29:0 30:0 31:0 32:0 
0.015608520573354072 0:6 1:1 2:0 3:0 4:1 5:0 6:0 7:1 8:722 9:329 10:1 11:0 12:0 13:0 14:1 15:2 16:0 17:0 18:0 19:0 20:1 21:0 22:1 23:121 24:220 25:0.78 26:0.02 27:0.01 28:0.01 29:0 30:0 31:0 32:0 
0.014766473387051395 0:7 1:1 2:0 3:0 4:1 5:0 6:0 7:1 8:1525 9:338 10:1 11:0 12:0 13:0 14:1 15:1 16:0 17:0 18:0 19:0 20:1 21:0 22:0 23:175 24:176 25:0.66 26:0.02 27:0.01 28:0.01 29:0 30:0 31:0 32:0 
0.017656171060595756 0:16 1:1 2:0 3:0 4:1 5:0 6:0 7:1 8:1291 9:289 10:1 11:0 12:0 13:0 14:1 15:2 16:0 17:0 18:0 19:0 20:1 21:0 22:1 23:32 24:169 25:0.78 26:0.09 27:0.03 28:0.01 29:0 30:0 31:0 32:0 
0.015921369672699352 0:17 1:1 2:0 3:0 4:1 5:0 6:0 7:1 8:1596 9:339 10:1 11:0 12:0 13:0 14:1 15:1 16:0 17:0 18:0 19:0 20:1 21:0 22:0 23:255 24:145 25:0.57 26:0.02 27:0 28:0 29:0 30:0 31:0 32:0 
0.0052959501390601651 0:19 1:1 2:0 3:0 4:1 5:0 6:0 7:1 8:1125 9:326 10:1 11:0 12:0 13:0 14:1 15:2 16:0 17:0 18:0 19:0 20:1 21:0 22:1 23:199 24:150 25:0.59 26:0.02 27:0.01 28:0.01 29:0 30:0 31:0 32:0 
0.0093982281264585275 0:29 1:1 2:0 3:0 4:1 5:0 6:0 7:1 8:821 9:333 10:1 11:0 12:0 13:0 14:1 15:1 16:0 17:0 18:0 19:0 20:1 21:0 22:0 23:178 24:102 25:0.57 26:0.02 27:0.01 28:0 29:0 30:0 31:0 32:0 
0.000828500325997409 0:28 1:1 2:0 3:0 4:1 5:0 6:0 7:1 8:1457 9:4152 10:1 11:0 12:0 13:0 14:1 15:1 16:0 17:0 18:0 19:0 20:1 21:0 22:0 23:89 24:22 25:0.25 26:0.03 27:0.01 28:0 29:0 30:0 31:0 32:0 
0.018250405141776956 0:9 1:1 2:0 3:0 4:1 5:0 6:0 7:1 8:1635 9:329 10:1 11:0 12:0 13:0 14:1 15:1 16:0 17:0 18:0 19:0 20:1 21:0 22:0 23:99 24:245 25:0.95 26:0.02 27:0.01 28:0.01 29:0 30:0 31:0 32:0 
0.012160676167230948 0:30 1:1 2:0 3:0 4:1 5:0 6:0 7:1 8:906 9:333 10:1 11:0 12:0 13:0 14:1 15:1 16:0 17:0 18:0 19:0 20:1 21:0 22:0 23:91 24:192 25:0.9 26:0.04 27:0.01 28:0.01 29:0 30:0 31:0 32:0 
0.01842112712313336 0:10 1:1 2:0 3:0 4:1 5:0 6:0 7:1 8:2868 9:334 10:1 11:0 12:0 13:0 14:1 15:1 16:0 17:0 18:0 19:0 20:1 21:0 22:0 23:3 24:176 25:1 26:0 27:0.33 28:0.02 29:0 30:0 31:0 32:0 
0.018142119590275108 0:11 1:1 2:0 3:0 4:1 5:0 6:0 7:1 8:13035 9:1358 10:1 11:0 12:0 13:0 14:1 15:2 16:0 17:0 18:0 19:0 20:1 21:0 22:1 23:193 24:144 25:0.49 26:0.02 27:0.01 28:0.01 29:0.01 30:0 31:0 32:0 
0.01086123452470732 0:30 1:1 2:0 3:0 4:1 5:0 6:0 7:1 8:1208 9:3380 10:1 11:0 12:0 13:0 14:1 15:1 16:0 17:0 18:0 19:0 20:1 21:0 22:0 23:167 24:38 25:0.23 26:0.02 27:0.01 28:0 29:0 30:0 31:0 32:0 
0.008487074173938321 0:15 1:1 2:0 3:0 4:1 5:0 6:0 7:1 8:1695 9:337 10:1 11:0 12:0 13:0 14:1 15:1 16:0 17:0 18:0 19:0 20:1 21:0 22:0 23:135 24:129 25:0.53 26:0.04 27:0.01 28:0.02 29:0 30:0 31:0 32:0 
0.018003927185970603 0:29 1:1 2:0 3:0 4:1 5:0 6:0 7:1 8:883 9:2713 10:1 11:0 12:0 13:0 14:1 15:1 16:0 17:0 18:0 19:0 20:1 21:0 22:0 23:137 24:34 25:0.25 26:0.04 27:0.01 28:0 29:0 30:0 31:0 32:0 
0.0049375127709918153 0:23 1:1 2:0 3:0 4:1 5:0 6:0 7:1 8:249 9:774 10:1 11:0 12:0 13:0 14:1 15:1 16:0 17:0 18:0 19:0 20:1 21:0 22:0 23:215 24:53 25:0.25 26:0.02 27:0 28:0 29:0 30:0 31:0 32:0 
0.018241828089545439 0:11 1:1 2:0 3:0 4:1 5:0 6:0 7:1 8:1161 9:281 10:1 11:0 12:0 13:0 14:1 15:1 16:0 17:0 18:0 19:0 20:1 21:0 22:0 23:39 24:113 25:0.44 26:0.13 27:0.03 28:0.02 29:0 30:0 31:0.03 32:0 
0.0071324695614095558 0:26 1:1 2:0 3:0 4:1 5:0 6:0 7:1 8:282 9:903 10:1 11:0 12:0 13:0 14:1 15:1 16:0 17:0 18:0 19:0 20:1 21:0 22:0 23:95 24:20 25:0.21 26:0.04 27:0.01 28:0 29:0.04 30:0.1 31:0.01 32:0 
0.012002278221352291 0:28 1:1 2:0 3:0 4:1 5:0 6:0 7:1 8:1514 9:4152 10:1 11:0 12:0 13:0 14:1 15:1 16:0 17:0 18:0 19:0 20:1 21:0 22:0 23:8 24:3 25:0.38 26:0.25 27:0.12 28:0 29:0 30:0 31:0 32:0 
0.0036822290779431437 0:16 1:1 2:0 3:0 4:1 5:0 6:0 7:1 8:1530 9:330 10:1 11:0 12:0 13:0 14:1 15:2 16:0 17:0 18:0 19:0 20:1 21:0 22:1 23:183 24:143 25:0.78 26:0.02 27:0.01 28:0 29:0 30:0 31:0 32:0 
0.0058608074432034522 0:10 1:1 2:0 3:0 4:1 5:0 6:0 7:1 8:1022 9:331 10:1 11:0 12:0 13:0 14:1 15:1 16:0 17:0 18:0 19:0 20:1 21:0 22:0 23:126 24:116 25:0.62 26:0.02 27:0.01 28:0.02 29:0 30:0 31:0 32:0 
0.015112696771842384 0:20 1:1 2:0 3:0 4:1 5:0 6:0 7:1 8:222 9:753 10:1 11:0 12:0 13:0 14:1 15:1 16:0 17:0 18:0 19:0 20:1 21:0 22:0 23:164 24:67 25:0.41 26:0.04 27:0.01 28:0 29:0.01 30:0 31:0 32:0 
0.014304238935445362 0:28 1:1 2:0 3:0 4:1 5:0 6:0 7:1 8:1083 9:3081 10:1 11:0 12:0 13:0 14:1 15:1 16:0 17:0 18:0 19:0 20:1 21:0 22:0 23:255 24:60 25:0.24 26:0.02 27:0 28:0 29:0 30:0 31:0 32:0 
0.0062854165070003734 0:27 1:1 2:0 3:0 4:1 5:0 6:0 7:1 8:1498 9:4152 10:1 11:0 12:0 13:0 14:1 15:1 16:0 17:0 18:0 19:0 20:1 21:0 22:0 23:94 24:20 25:0.21 26:0.07 27:0.01 28:0 29:0.01 30:0 31:0 32:0 
0.0044604061228804637 0:6 1:1 2:0 3:0 4:1 5:0 6:0 7:1 8:1293 9:327 10:1 11:0 12:0 13:0 14:4 15:4 16:0 17:0 18:0 19:0 20:0.5 21:0.5 22:0.75 23:80 24:61 25:0.76 26:0.08 27:0.01 28:0 29:0 30:0 31:0 32:0 
0.014029392361252004 0:9 1:1 2:0 3:0 4:1 5:0 6:0 7:1 8:811 9:331 10:1 11:0 12:0 13:0 14:1 15:2 16:0 17:0 18:0 19:0 20:1 21:0 22:1 23:70 24:167 25:0.24 26:0.04 27:0.01 28:0.01 29:0 30:0 31:0 32:0 
0.018294529820226998 0:9 1:1 2:0 3:0 4:1 5:0 6:0 7:1 8:2912 9:447 10:1 11:0 12:0 13:0 14:1 15:2 16:0 17:0 18:0 19:0 20:1 21:0 22:1 23:139 24:179 25:0.76 26:0.03 27:0.01 28:0.01 29:0 30:0 31:0 32:0 
0.015364630634065124 0:26 1:1 2:0 3:0 4:1 5:0 6:0 7:1 8:1733 9:330 10:1 11:0 12:0 13:0 14:1 15:2 16:0 17:0 18:0 19:0 20:1 21:0 22:1 23:110 24:142 25:0.58 26:0.04 27:0.01 28:0.01 29:0 30:0 31:0 32:0 
0.011298699907908161 0:29 1:1 2:0 3:0 4:1 5:0 6:0 7:1 8:311 9:1052 10:1 11:0 12:0 13:0 14:1 15:1 16:0 17:0 18:0 19:0 20:1 21:0 22:0 23:255 24:53 25:0.21 26:0.03 27:0 28:0 29:0 30:0 31:0 32:0 
0.012701451474605219 0:15 1:1 2:0 3:0 4:1 5:0 6:0 7:1 8:1103 9:331 10:1 11:0 12:0 13:0 14:1 15:1 16:0 17:0 18:0 19:0 20:1 21:0 22:0 23:255 24:91 25:0.36 26:0.03 27:0 28:0 29:0 30:0 31:0 32:0 
0.017733158976822573 0:6 1:1 2:0 3:0 4:1 5:0 6:0 7:1 8:2806 9:331 10:1 11:0 12:0 13:0 14:1 15:1 16:0 17:0 18:0 19:0 20:1 21:0 22:0 23:255 24:131 25:0.51 26:0.01 27:0 28:0 29:0 30:0 31:0 32:0 
0.0081963913014891365 0:6 1:1 2:0 3:0 4:1 5:0 6:0 7:1 8:742 9:332 10:1 11:0 12:0 13:0 14:1 15:1 16:0 17:0 18:0 19:0 20:1 21:0 22:0 23:170 24:121 25:0.54 26:0.02 27:0.01 28:0.02 29:0 30:0 31:0 32:0 
0.0055077561891393916 0:29 1:1 2:0 3:0 4:1 5:0 6:0 7:1 8:1482 9:4152 10:1 11:0 12:0 13:0 14:2 15:1 16:0 17:0 18:0 19:0 20:0.5 21:1 22:0 23:142 24:59 25:0.42 26:0.04 27:0.01 28:0 29:0.01 30:0 31:0 32:0 
0.003381363962691797 0:26 1:1 2:0 3:0 4:1 5:0 6:0 7:1 8:322 9:1054 10:1 11:0 12:0 13:0 14:1 15:1 16:0 17:0 18:0 19:0 20:1 21:0 22:0 23:130 24:42 25:0.32 26:0.03 27:0.01 28:0 29:0 30:0 31:0 32:0 
0.0056471771869723349 0:10 1:1 2:0 3:0 4:1 5:0 6:0 7:1 8:777 9:324 10:1 11:0 12:0 13:0 14:1 15:1 16:0 17:0 18:0 19:0 20:1 21:0 22:0 23:184 24:142 25:0.52 26:0.02 27:0.01 28:0.01 29:0 30:0 31:0 32:0 
0.014845564798274495 0:6 1:1 2:0 3:0 4:1 5:0 6:0 7:1 8:1746 9:328 10:1 11:0 12:0 13:0 14:1 15:2 16:0 17:0 18:0 19:0 20:1 21:0 22:1 23:23 24:207 25:1 26:0 27:0.04 28:0.01 29:0 30:0 31:0 32:0 
0.006427881025268492 0:21 1:1 2:0 3:0 4:1 5:0 6:0 7:1 8:248 9:774 10:1 11:0 12:0 13:0 14:1 15:1 16:0 17:0 18:0 19:0 20:1 21:0 22:0 23:255 24:60 25:0.24 26:0.02 27:0 28:0 29:0 30:0 31:0 32:0 
0.015206380798914985 0:17 1:1 2:0 3:0 4:0 5:1 6:0 7:1 8:337 9:453 10:1 11:0 12:0 13:0 14:5 15:31 16:0 17:0 18:0 19:0 20:1 21:0 22:0.13 23:24 24:255 25:1 26:0 27:0.04 28:0.02 29:0 30:0 31:0 32:0 
0.014884639354585812 0:7 1:1 2:0 3:0 4:1 5:0 6:0 7:1 8:867 9:371 10:1 11:0 12:0 13:0 14:1 15:2 16:0 17:0 18:0 19:0 20:1 21:0 22:1 23:137 24:112 25:0.82 26:0.03 27:0.01 28:0 29:0 30:0 31:0 32:0 
0.0093233730965323908 0:11 1:1 2:0 3:0 4:1 5:0 6:0 7:1 8:1064 9:332 10:1 11:0 12:0 13:0 14:1 15:4 16:0 17:0 18:0 19:0 20:1 21:0 22:1 23:109 24:170 25:0.79 26:0.05 27:0.01 28:0.02 29:0 30:0 31:0 32:0 
0.016540796791963769 0:26 1:1 2:0 3:0 4:1 5:0 6:0 7:1 8:891 9:2586 10:1 11:0 12:0 13:0 14:1 15:1 16:0 17:0 18:0 19:0 20:1 21:0 22:0 23:189 24:75 25:0.4 26:0.03 27:0.01 28:0 29:0 30:0 31:0 32:0 
0.0094741385027021369 0:9 1:1 2:0 3:0 4:1 5:0 6:0 7:1 8:694 9:330 10:1 11:0 12:0 13:0 14:1 15:1 16:0 17:0 18:0 19:0 20:1 21:0 22:0 23:204 24:128 25:0.63 26:0.06 27:0 28:0 29:0 30:0 31:0 32:0 
0.0034562249616712018 0:20 1:1 2:0 3:0 4:1 5:0 6:0 7:1 8:224 9:769 10:1 11:0 12:0 13:0 14:1 15:1 16:0 17:0 18:0 19:0 20:1 21:0 22:0 23:64 24:27 25:0.42 26:0.05 27:0.02 28:0 29:0 30:0 31:0 32:0 
0.013792517393806578 0:30 1:1 2:0 3:0 4:1 5:0 6:0 7:1 8:1461 9:4152 10:1 11:0 12:0 13:0 14:1 15:1 16:0 17:0 18:0 19:0 20:1 21:0 22:0 23:255 24:59 25:0.23 26:0.02 27:0 28:0 29:0 30:0 31:0 32:0 
0.017950887068889629 0:7 1:1 2:0 3:0 4:1 5:0 6:0 7:1 8:2206 9:328 10:1 11:0 12:0 13:0 14:1 15:1 16:0 17:0 18:0 19:0 20:1 21:0 22:0 23:255 24:149 25:0.58 26:0.02 27:0 28:0 29:0 30:0 31:0 32:0 
0.018529372826111706 0:7 1:1 2:0 3:0 4:1 5:0 6:0 7:1 8:11509 9:1399 10:1 11:0 12:0 13:0 14:1 15:2 16:0 17:0 18:0 19:0 20:1 21:0 22:1 23:23 24:134 25:0.7 26:0.13 27:0.04 28:0.01 29:0 30:0 31:0 32:0 
0.013668808792053757 0:10 1:1 2:0 3:0 4:1 5:0 6:0 7:1 8:1085 9:337 10:1 11:0 12:0 13:0 14:1 15:2 16:0 17:0 18:0 19:0 20:1 21:0 22:1 23:215 24:167 25:0.61 26:0.02 27:0 28:0.01 29:0 30:0 31:0 32:0 
0.016889483774287492 0:15 1:1 2:0 3:0 4:1 5:0 6:0 7:1 8:1364 9:366 10:1 11:0 12:0 13:0 14:1 15:1 16:0 17:0 18:0 19:0 20:1 21:0 22:0 23:29 24:157 25:0.83 26:0.07 27:0.03 28:0.02 29:0 30:0 31:0 32:0 
0.0061590711233578547 0:12 1:1 2:0 3:0 4:1 5:0 6:0 7:1 8:961 9:326 10:1 11:0 12:0 13:0 14:1 15:1 16:0 17:0 18:0 19:0 20:1 21:0 22:0 23:208 24:170 25:0.67 26:0.03 27:0.01 28:0.01 29:0 30:0 31:0 32:0 
0.018386445348896933 0:6 1:1 2:0 3:0 4:1 5:0 6:0 7:1 8:3170 9:328 10:1 11:0 12:0 13:0 14:1 15:3 16:0 17:0 18:0 19:0 20:1 21:0 22:1 23:254 24:187 25:0.74 26:0.02 27:0 28:0 29:0 30:0 31:0 32:0 
0.018179466932861231 0:9 1:1 2:0 3:0 4:1 5:0 6:0 7:1 8:1864 9:330 10:1 11:0 12:0 13:0 14:1 15:1 16:0 17:0 18:0 19:0 20:1 21:0 22:0 23:199 24:94 25:0.47 26:0.02 27:0.01 28:0 29:0 30:0 31:0 32:0 
0.005215086542795456 0:14 1:1 2:0 3:0 4:1 5:0 6:0 7:1 8:966 9:327 10:1 11:0 12:0 13:0 14:1 15:2 16:0 17:0 18:0 19:0 20:1 21:0 22:1 23:170 24:120 25:0.71 26:0.02 27:0.01 28:0 29:0 30:0 31:0 32:0 
0.010901568214923107 0:30 1:1 2:0 3:0 4:1 5:0 6:0 7:1 8:891 9:2586 10:1 11:0 12:0 13:0 14:1 15:1 16:0 17:0 18:0 19:0 20:1 21:0 22:0 23:10 24:3 25:0.3 26:0.2 27:0.1 28:0 29:0 30:0 31:0 32:0 
0.0061553465912729411 0:27 1:1 2:0 3:0 4:1 5:0 6:0 7:1 8:1458 9:4152 10:1 11:0 12:0 13:0 14:1 15:1 16:0 17:0 18:0 19:0 20:1 21:0 22:0 23:45 24:29 25:0.64 26:0.04 27:0.02 28:0 29:0 30:0 31:0 32:0 
0.018595387281282953 0:24 1:1 2:0 3:0 4:1 5:0 6:0 7:1 8:11757 9:1395 10:1 11:0 12:0 13:0 14:1 15:2 16:0 17:0 18:0 19:0 20:1 21:0 22:1 23:87 24:190 25:0.86 26:0.05 27:0.01 28:0.01 29:0 30:0 31:0 32:0 
0.016050316563691696 0:15 1:1 2:0 3:0 4:1 5:0 6:0 7:1 8:2623 9:329 10:1 11:0 12:0 13:0 14:1 15:1 16:0 17:0 18:0 19:0 20:1 21:0 22:0 23:212 24:110 25:0.38 26:0.03 27:0 28:0.02 29:0 30:0 31:0 32:0 
0.013123721966604393 0:15 1:1 2:0 3:0 4:1 5:0 6:0 7:1 8:1961 9:327 10:1 11:0 12:0 13:0 14:1 15:1 16:0 17:0 18:0 19:0 20:1 21:0 22:0 23:94 24:176 25:0.68 26:0.04 27:0.01 28:0.02 29:0 30:0.01 31:0 32:0 
0.0079111200432659956 0:20 1:1 2:0 3:0 4:1 5:0 6:0 7:1 8:246 9:773 10:1 11:0 12:0 13:0 14:1 15:1 16:0 17:0 18:0 19:0 20:1 21:0 22:0 23:48 24:21 25:0.44 26:0.1 27:0.02 28:0 29:0 30:0 31:0 32:0 
0.018367756957174533 0:10 1:1 2:0 3:0 4:0 5:1 6:0 7:1 8:330 9:273 10:1 11:0 12:0 13:0 14:15 15:15 16:0 17:0 18:0 19:0 20:1 21:0 22:0 23:255 24:247 25:0.97 26:0.01 27:0 28:0 29:0 30:0 31:0 32:0 
0.011983972150609923 0:6 1:1 2:0 3:0 4:1 5:0 6:0 7:1 8:1036 9:331 10:1 11:0 12:0 13:0 14:1 15:2 16:0 17:0 18:0 19:0 20:1 21:0 22:1 23:102 24:83 25:0.81 26:0.04 27:0.01 28:0 29:0 30:0 31:0 32:0 
0.0094574673019410544 0:10 1:1 2:0 3:0 4:1 5:0 6:0 7:1 8:1613 9:326 10:1 11:0 12:0 13:0 14:1 15:2 16:0 17:0 18:0 19:0 20:1 21:0 22:1 23:147 24:111 25:0.76 26:0.03 27:0.01 28:0 29:0 30:0 31:0 32:0 
0.0033573509456030761 0:23 1:1 2:0 3:0 4:1 5:0 6:0 7:1 8:240 9:771 10:1 11:0 12:0 13:0 14:1 15:1 16:0 17:0 18:0 19:0 20:1 21:0 22:0 23:110 24:24 25:0.22 26:0.04 27:0.01 28:0 29:0.04 30:0.08 31:0.01 32:0 
0.018424589700308042 0:24 1:1 2:0 3:0 4:1 5:0 6:0 7:1 8:12295 9:1397 10:1 11:0 12:0 13:0 14:1 15:1 16:0 17:0 18:0 19:0 20:1 21:0 22:0 23:154 24:145 25:0.57 26:0.03 27:0.01 28:0.01 29:0.01 30:0.01 31:0 32:0 
0.014478842233344315 0:10 1:1 2:0 3:0 4:1 5:0 6:0 7:1 8:1039 9:333 10:1 11:0 12:0 13:0 14:1 15:1 16:0 17:0 18:0 19:0 20:1 21:0 22:0 23:255 24:167 25:0.65 26:0.06 27:0 28:0 29:0 30:0 31:0 32:0 
0.015257409292234649 0:15 1:1 2:0 3:0 4:1 5:0 6:0 7:1 8:967 9:335 10:1 11:0 12:0 13:0 14:2 15:1 16:0 17:0 18:0 19:0 20:0.5 21:1 22:0 23:19 24:109 25:0.58 26:0.26 27:0.05 28:0.03 29:0 30:0 31:0 32:0 
0.0095439136065164267 0:10 1:1 2:0 3:0 4:1 5:0 6:0 7:1 8:1116 9:331 10:1 11:0 12:0 13:0 14:1 15:1 16:0 17:0 18:0 19:0 20:1 21:0 22:0 23:99 24:61 25:0.62 26:0.03 27:0.01 28:0 29:0 30:0 31:0 32:0 
0.018384771533571577 0:13 1:1 2:0 3:0 4:1 5:0 6:0 7:1 8:3109 9:406 10:1 11:0 12:0 13:0 14:1 15:2 16:0 17:0 18:0 19:0 20:1 21:0 22:1 23:162 24:244 25:0.96 26:0.01 27:0.01 28:0.01 29:0 30:0 31:0 32:0 
0.014920225997101785 0:10 1:1 2:0 3:0 4:1 5:0 6:0 7:1 8:1614 9:325 10:1 11:0 12:0 13:0 14:1 15:1 16:0 17:0 18:0 19:0 20:1 21:0 22:0 23:137 24:148 25:0.5 26:0.05 27:0.01 28:0.01 29:0 30:0 31:0 32:0 
0.016597592945164559 0:6 1:1 2:0 3:0 4:1 5:0 6:0 7:1 8:1320 9:371 10:1 11:0 12:0 13:0 14:1 15:1 16:0 17:0 18:0 19:0 20:1 21:0 22:0 23:255 24:132 25:0.52 26:0.01 27:0 28:0 29:0 30:0 31:0 32:0 
0.0054134600085873757 0:25 1:1 2:0 3:0 4:1 5:0 6:0 7:1 8:343 9:1072 10:1 11:0 12:0 13:0 14:1 15:1 16:0 17:0 18:0 19:0 20:1 21:0 22:0 23:255 24:60 25:0.24 26:0.02 27:0 28:0 29:0 30:0 31:0 32:0 
0.018245169052387409 0:11 1:1 2:0 3:0 4:1 5:0 6:0 7:1 8:11425 9:1372 10:1 11:0 12:0 13:0 14:1 15:1 16:0 17:0 18:0 19:0 20:1 21:0 22:0 23:47 24:171 25:0.57 26:0.04 27:0.02 28:0.01 29:0 30:0 31:0 32:0 
0.017874084207396092 0:10 1:1 2:0 3:0 4:1 5:0 6:0 7:1 8:1660 9:332 10:1 11:0 12:0 13:0 14:1 15:3 16:0 17:0 18:0 19:0 20:1 21:0 22:1 23:255 24:103 25:0.4 26:0.03 27:0 28:0 29:0 30:0 31:0 32:0 
0.017649458013081307 0:8 1:1 2:0 3:0 4:1 5:0 6:0 7:1 8:992 9:332 10:1 11:0 12:0 13:0 14:1 15:2 16:0 17:0 18:0 19:0 20:1 21:0 22:1 23:78 24:205 25:0.78 26:0.05 27:0.01 28:0.01 29:0 30:0 31:0 32:0 
0.01745913296645938 0:12 1:1 2:0 3:0 4:1 5:0 6:0 7:1 8:1779 9:326 10:1 11:0 12:0 13:0 14:1 15:1 16:0 17:0 18:0 19:0 20:1 21:0 22:0 23:155 24:115 25:0.74 26:0.02 27:0.01 28:0 29:0 30:0 31:0 32:0 
0.01496905329047225 0:6 1:1 2:0 3:0 4:1 5:0 6:0 7:1 8:1296 9:357 10:1 11:0 12:0 13:0 14:1 15:3 16:0 17:0 18:0 19:0 20:1 21:0 22:1 23:255 24:175 25:0.69 26:0.02 27:0 28:0 29:0 30:0 31:0 32:0 
0.0089529081009549986 0:13 1:1 2:0 3:0 4:1 5:0 6:0 7:1 8:910 9:334 10:1 11:0 12:0 13:0 14:1 15:1 16:0 17:0 18:0 19:0 20:1 21:0 22:0 23:126 24:198 25:0.8 26:0.03 27:0.01 28:0.01 29:0 30:0 31:0 32:0 
0.018724689997853237 0:9 1:1 2:0 3:0 4:1 5:0 6:0 7:1 8:2553 9:335 10:1 11:0 12:0 13:0 14:1 15:1 16:0 17:0 18:0 19:0 20:1 21:0 22:0 23:255 24:151 25:0.59 26:0.02 27:0 28:0 29:0 30:0 31:0 32:0 
0.017051871170382961 0:28 1:1 2:0 3:0 4:1 5:0 6:0 7:1 8:878 9:2586 10:1 11:0 12:0 13:0 14:1 15:1 16:0 17:0 18:0 19:0 20:1 21:0 22:0 23:141 24:31 25:0.22 26:0.04 27:0.01 28:0 29:0 30:0 31:0 32:0 
0.018121589290751437 0:7 1:1 2:0 3:0 4:1 5:0 6:0 7:1 8:11676 9:1405 10:1 11:0 12:0 13:0 14:2 15:2 16:0 17:0 18:0 19:0 20:1 21:0 22:0 23:159 24:80 25:0.5 26:0.02 27:0.01 28:0 29:0 30:0 31:0 32:0 
0.01827232987411697 0:15 1:1 2:0 3:0 4:1 5:0 6:0 7:1 8:2036 9:328 10:1 11:0 12:0 13:0 14:1 15:2 16:0 17:0 18:0 19:0 20:1 21:0 22:1 23:43 24:160 25:0.88 26:0.07 27:0.02 28:0.01 29:0 30:0 31:0 32:0 
0.0019685093207979926 0:23 1:1 2:0 3:0 4:1 5:0 6:0 7:1 8:277 9:903 10:1 11:0 12:0 13:0 14:1 15:1 16:0 17:0 18:0 19:0 20:1 21:0 22:0 23:246 24:52 25:0.21 26:0.02 27:0 28:0 29:0 30:0 31:0 32:0 
0.016006774676000535 0:15 1:1 2:0 3:0 4:0 5:1 6:0 7:1 8:262 9:287 10:1 11:0 12:0 13:0 14:3 15:2 16:0 17:0 18:0 19:0 20:0.67 21:0.67 22:0 23:255 24:248 25:0.97 26:0.01 27:0 28:0 29:0 30:0 31:0 32:0 
0.018581021579622277 0:6 1:1 2:0 3:0 4:1 5:0 6:0 7:1 8:2378 9:329 10:1 11:0 12:0 13:0 14:1 15:1 16:0 17:0 18:0 19:0 20:1 21:0 22:0 23:255 24:162 25:0.64 26:0.01 27:0 28:0 29:0 30:0 31:0 32:0 
0.014299236738434517 0:7 1:1 2:0 3:0 4:1 5:0 6:0 7:1 8:1293 9:331 10:1 11:0 12:0 13:0 14:1 15:1 16:0 17:0 18:0 19:0 20:1 21:0 22:0 23:58 24:89 25:0.88 26:0.05 27:0.02 28:0.02 29:0 30:0 31:0 32:0 
0.0094263722049591665 0:9 1:1 2:0 3:0 4:1 5:0 6:0 7:1 8:1217 9:328 10:1 11:0 12:0 13:0 14:1 15:1 16:0 17:0 18:0 19:0 20:1 21:0 22:0 23:177 24:127 25:0.72 26:0.02 27:0.01 28:0 29:0 30:0 31:0 32:0 
0.01782453396596052 0:29 1:1 2:0 3:0 4:1 5:0 6:0 7:1 8:1398 9:409 10:1 11:0 12:0 13:0 14:1 15:2 16:0 17:0 18:0 19:0 20:1 21:0 22:1 23:128 24:96 25:0.75 26:0.03 27:0.01 28:0 29:0 30:0 31:0 32:0 
0.016719644221220586 0:12 1:1 2:0 3:0 4:0 5:1 6:0 7:1 8:321 9:181 10:1 11:0 12:0 13:0 14:2 15:3 16:0 17:0 18:0 19:0 20:1 21:0 22:0.67 23:21 24:255 25:1 26:0 27:0.05 28:0.04 29:0 30:0 31:0 32:0 
0.0099901614391818931 0:21 1:1 2:0 3:0 4:1 5:0 6:0 7:1 8:221 9:766 10:1 11:0 12:0 13:0 14:1 15:1 16:0 17:0 18:0 19:0 20:1 21:0 22:0 23:2 24:2 25:1 26:0 27:0.5 28:0 29:0 30:0 31:0 32:0 
0.0047358631856289331 0:28 1:1 2:0 3:0 4:1 5:0 6:0 7:1 8:1479 9:4152 10:1 11:0 12:0 13:0 14:1 15:1 16:0 17:0 18:0 19:0 20:1 21:0 22:0 23:255 24:59 25:0.23 26:0.02 27:0 28:0 29:0 30:0 31:0 32:0 
0.01792978890768139 0:9 1:1 2:0 3:0 4:1 5:0 6:0 7:1 8:655 9:326 10:1 11:0 12:0 13:0 14:1 15:1 16:0 17:0 18:0 19:0 20:1 21:0 22:0 23:165 24:91 25:0.55 26:0.04 27:0.01 28:0 29:0 30:0 31:0 32:0 
0.010454569253559254 0:28 1:1 2:0 3:0 4:1 5:0 6:0 7:1 8:887 9:2586 10:1 11:0 12:0 13:0 14:1 15:1 16:0 17:0 18:0 19:0 20:1 21:0 22:0 23:94 24:43 25:0.46 26:0.06 27:0.01 28:0 29:0 30:0 31:0 32:0 
0.00033193798597617313 0:30 1:1 2:0 3:0 4:1 5:0 6:0 7:1 8:1226 9:3380 10:1 11:0 12:0 13:0 14:1 15:1 16:0 17:0 18:0 19:0 20:1 21:0 22:0 23:255 24:62 25:0.24 26:0.03 27:0 28:0 29:0 30:0 31:0 32:0 
0.0058471293108375523 0:28 1:1 2:0 3:0 4:1 5:0 6:0 7:1 8:1494 9:4152 10:1 11:0 12:0 13:0 14:1 15:1 16:0 17:0 18:0 19:0 20:1 21:0 22:0 23:119 24:52 25:0.44 26:0.04 27:0.01 28:0 29:0 30:0 31:0 32:0 
0.017450911891276857 0:10 1:1 2:0 3:0 4:1 5:0 6:0 7:1 8:1086 9:277 10:1 11:0 12:0 13:0 14:2 15:2 16:0 17:0 18:0 19:0 20:1 21:0 22:0 23:122 24:94 25:0.77 26:0.03 27:0.01 28:0 29:0 30:0 31:0 32:0 
0.01850929283567029 0:27 1:1 2:0 3:0 4:1 5:0 6:0 7:1 8:12035 9:1458 10:1 11:0 12:0 13:0 14:1 15:1 16:0 17:0 18:0 19:0 20:1 21:0 22:0 23:142 24:110 25:0.77 26:0.03 27:0.01 28:0 29:0 30:0 31:0 32:0 
0.002151955804673162 0:27 1:1 2:0 3:0 4:1 5:0 6:0 7:1 8:862 9:2586 10:1 11:0 12:0 13:0 14:1 15:1 16:0 17:0 18:0 19:0 20:1 21:0 22:0 23:2 24:2 25:1 26:0 27:0.5 28:0 29:0 30:0 31:0 32:0 
0.0076804863668271392 0:9 1:1 2:0 3:0 4:1 5:0 6:0 7:1 8:1199 9:331 10:1 11:0 12:0 13:0 14:1 15:1 16:0 17:0 18:0 19:0 20:1 21:0 22:0 23:157 24:150 25:0.64 26:0.03 27:0.01 28:0.01 29:0 30:0 31:0 32:0 
0.0080798453198480356 0:10 1:1 2:0 3:0 4:1 5:0 6:0 7:1 8:648 9:333 10:1 11:0 12:0 13:0 14:1 15:2 16:0 17:0 18:0 19:0 20:1 21:0 22:1 23:109 24:115 25:0.59 26:0.06 27:0.01 28:0.02 29:0 30:0 31:0 32:0 
0.013280808267694164 0:25 1:1 2:0 3:0 4:0 5:1 6:0 7:1 8:306 9:128 10:1 11:0 12:0 13:0 14:2 15:3 16:0 17:0 18:0 19:0 20:1 21:0 22:0.67 23:2 24:255 25:1 26:0 27:0.5 28:0.02 29:0 30:0 31:0 32:0 
0.0091298644187438466 0:28 1:1 2:0 3:0 4:1 5:0 6:0 7:1 8:695 9:2077 10:1 11:0 12:0 13:0 14:1 15:1 16:0 17:0 18:0 19:0 20:1 21:0 22:0 23:16 24:4 25:0.25 26:0.25 27:0.06 28:0 29:0 30:0 31:0 32:0 
0.0075535746977978234 0:28 1:1 2:0 3:0 4:1 5:0 6:0 7:1 8:335 9:1063 10:1 11:0 12:0 13:0 14:1 15:1 16:0 17:0 18:0 19:0 20:1 21:0 22:0 23:47 24:22 25:0.47 26:0.04 27:0.02 28:0 29:0 30:0 31:0 32:0 
0.010232712565269791 0:23 1:1 2:0 3:0 4:1 5:0 6:0 7:1 8:270 9:909 10:1 11:0 12:0 13:0 14:1 15:1 16:0 17:0 18:0 19:0 20:1 21:0 22:0 23:90 24:39 25:0.43 26:0.07 27:0.01 28:0 29:0 30:0 31:0 32:0 
0.018179983515190096 0:7 1:1 2:0 3:0 4:1 5:0 6:0 7:1 8:1738 9:333 10:1 11:0 12:0 13:0 14:1 15:1 16:0 17:0 18:0 19:0 20:1 21:0 22:0 23:60 24:44 25:0.73 26:0.07 27:0.02 28:0 29:0 30:0 31:0 32:0 
0.01818037644381151 0:6 1:1 2:0 3:0 4:1 5:0 6:0 7:1 8:11707 9:1434 10:1 11:0 12:0 13:0 14:1 15:1 16:0 17:0 18:0 19:0 20:1 21:0 22:0 23:79 24:143 25:0.38 26:0.05 27:0.01 28:0.01 29:0 30:0 31:0 32:0 
0.007575133068332204 0:6 1:1 2:0 3:0 4:1 5:0 6:0 7:1 8:1040 9:336 10:1 11:0 12:0 13:0 14:1 15:3 16:0 17:0 18:0 19:0 20:1 21:0 22:1 23:148 24:108 25:0.73 26:0.02 27:0.01 28:0 29:0 30:0 31:0 32:0 
0.011641262090603925 0:12 1:1 2:0 3:0 4:1 5:0 6:0 7:1 8:942 9:324 10:1 11:0 12:0 13:0 14:1 15:2 16:0 17:0 18:0 19:0 20:1 21:0 22:1 23:3 24:140 25:1 26:0 27:0.33 28:0.01 29:0 30:0 31:0 32:0 
0.015145731329281112 0:11 1:1 2:0 3:0 4:1 5:0 6:0 7:1 8:1058 9:376 10:1 11:0 12:0 13:0 14:1 15:3 16:0 17:0 18:0 19:0 20:1 21:0 22:1 23:114 24:170 25:0.8 26:0.04 27:0.01 28:0.02 29:0 30:0 31:0 32:0 
0.010178448874445365 0:27 1:1 2:0 3:0 4:1 5:0 6:0 7:1 8:365 9:1181 10:1 11:0 12:0 13:0 14:1 15:1 16:0 17:0 18:0 19:0 20:1 21:0 22:0 23:39 24:18 25:0.46 26:0.13 27:0.03 28:0 29:0 30:0 31:0 32:0 
0.0090859663997617385 0:6 1:1 2:0 3:0 4:1 5:0 6:0 7:1 8:1832 9:331 10:1 11:0 12:0 13:0 14:1 15:2 16:0 17:0 18:0 19:0 20:1 21:0 22:1 23:62 24:52 25:0.44 26:0.03 27:0.02 28:0.04 29:0 30:0 31:0 32:0 
0.018294205157808281 0:6 1:1 2:0 3:0 4:1 5:0 6:0 7:1 8:16551 9:372 10:1 11:0 12:0 13:0 14:1 15:1 16:0 17:0 18:0 19:0 20:1 21:0 22:0 23:69 24:174 25:0.93 26:0.04 27:0.01 28:0.02 29:0 30:0 31:0 32:0 
0.017403492323985692 0:14 1:1 2:0 3:0 4:0 5:1 6:0 7:1 8:225 9:188 10:1 11:0 12:0 13:0 14:1 15:22 16:0 17:0 18:0 19:0 20:1 21:0 22:0.14 23:36 24:255 25:1 26:0 27:0.03 28:0.05 29:0 30:0 31:0 32:0 
0.016465861308544036 0:6 1:1 2:0 3:0 4:1 5:0 6:0 7:1 8:11406 9:1358 10:1 11:0 12:0 13:0 14:1 15:3 16:0 17:0 18:0 19:0 20:1 21:0 22:1 23:3 24:42 25:1 26:0 27:0.33 28:0.05 29:0 30:0 31:0 32:0 
0.014382981206643355 0:6 1:1 2:0 3:0 4:1 5:0 6:0 7:1 8:1265 9:337 10:1 11:0 12:0 13:0 14:1 15:5 16:0 17:0 18:0 19:0 20:1 21:0 22:0.8 23:81 24:155 25:0.64 26:0.05 27:0.01 28:0.01 29:0 30:0 31:0 32:0 
0.01016998387193326 0:29 1:1 2:0 3:0 4:1 5:0 6:0 7:1 8:376 9:1181 10:1 11:0 12:0 13:0 14:1 15:1 16:0 17:0 18:0 19:0 20:1 21:0 22:0 23:51 24:22 25:0.43 26:0.1 27:0.02 28:0 29:0 30:0 31:0 32:0 
0.01514547812356027 0:11 1:1 2:0 3:0 4:1 5:0 6:0 7:1 8:1367 9:326 10:1 11:0 12:0 13:0 14:1 15:1 16:0 17:0 18:0 19:0 20:1 21:0 22:0 23:109 24:92 25:0.84 26:0.04 27:0.01 28:0 29:0 30:0 31:0 32:0 
0.010271375682446366 0:16 1:1 2:0 3:0 4:1 5:0 6:0 7:1 8:1155 9:331 10:1 11:0 12:0 13:0 14:1 15:1 16:0 17:0 18:0 19:0 20:1 21:0 22:0 23:120 24:195 25:0.78 26:0.03 27:0.01 28:0.01 29:0 30:0 31:0 32:0 
0.018226904288507338 0:6 1:1 2:0 3:0 4:1 5:0 6:0 7:1 8:637 9:279 10:1 11:0 12:0 13:0 14:1 15:2 16:0 17:0 18:0 19:0 20:1 21:0 22:1 23:54 24:207 25:0.87 26:0.07 27:0.02 28:0.01 29:0 30:0 31:0 32:0 
0.013081725651740483 0:16 1:1 2:0 3:0 4:1 5:0 6:0 7:1 8:584 9:329 10:1 11:0 12:0 13:0 14:1 15:2 16:0 17:0 18:0 19:0 20:1 21:0 22:1 23:48 24:150 25:0.85 26:0.06 27:0.02 28:0.01 29:0 30:0 31:0 32:0 
0.018358879584758608 0:10 1:1 2:0 3:0 4:0 5:1 6:0 7:1 8:258 9:7770 10:1 11:0 12:0 13:0 14:1 15:1 16:0 17:0 18:0 19:0 20:1 21:0 22:0 23:255 24:220 25:0.86 26:0.01 27:0 28:0 29:0 30:0 31:0 32:0 
0.018271560045847297 0:7 1:1 2:0 3:0 4:1 5:0 6:1 7:0 8:11803 9:1461 10:1 11:0 12:0 13:0 14:1 15:1 16:1 17:1 18:0 19:0 20:1 21:0 22:0 23:152 24:100 25:0.66 26:0.05 27:0.01 28:0 29:0.02 30:0.01 31:0 32:0 
0.010502335700861301 0:8 1:1 2:0 3:0 4:1 5:0 6:0 7:1 8:1485 9:329 10:1 11:0 12:0 13:0 14:1 15:2 16:0 17:0 18:0 19:0 20:1 21:0 22:1 23:96 24:84 25:0.72 26:0.03 27:0.01 28:0.02 29:0 30:0 31:0 32:0 
0.013291081280179917 0:13 1:1 2:0 3:0 4:1 5:0 6:0 7:1 8:1430 9:327 10:1 11:0 12:0 13:0 14:1 15:5 16:0 17:0 18:0 19:0 20:1 21:0 22:0.8 23:119 24:76 25:0.64 26:0.05 27:0.01 28:0 29:0 30:0 31:0 32:0 
