svm_type one_class
kernel_type rbf
gamma 0.001
nr_class 2
total_sv 9
rho 0.039018739686173025
SV
0.024380583905846402 0:0 1:1 2:0 3:0 4:1 5:0 6:1 7:0 8:0 9:0 10:1 11:0 12:0 13:0 14:1 15:1 16:1 17:1 18:0 19:0 20:1 21:0 22:0 23:126 24:1 25:0.01 26:0.05 27:0.01 28:0 29:0.01 30:1 31:0 32:0 
0.010269255408405824 0:0 1:1 2:0 3:0 4:1 5:0 6:1 7:0 8:0 9:0 10:1 11:0 12:0 13:0 14:1 15:1 16:1 17:1 18:0 19:0 20:1 21:0 22:0 23:42 24:1 25:0.02 26:0.1 27:0.02 28:0 29:0.02 30:1 31:0 32:0 
0.032230747100932267 0:0 1:1 2:0 3:0 4:1 5:0 6:1 7:0 8:0 9:0 10:1 11:0 12:0 13:0 14:1 15:1 16:1 17:1 18:0 19:0 20:1 21:0 22:0 23:16 24:2 25:0.06 26:0.25 27:0.06 28:1 29:0.06 30:0.5 31:0 32:0 
0.030530346727269477 0:0 1:1 2:0 3:0 4:1 5:0 6:1 7:0 8:0 9:0 10:1 11:0 12:0 13:0 14:1 15:1 16:1 17:1 18:0 19:0 20:1 21:0 22:0 23:77 24:1 25:0.01 26:0.06 27:0.01 28:0 29:0.01 30:1 31:0 32:0 
0.001311282780828745 0:0 1:1 2:0 3:0 4:1 5:0 6:1 7:0 8:0 9:0 10:1 11:0 12:0 13:0 14:1 15:1 16:1 17:1 18:0 19:0 20:1 21:0 22:0 23:255 24:1 25:0 26:0.01 27:0 28:0 29:0 30:1 31:0 32:0 
0.004068285928931872 0:0 1:1 2:0 3:0 4:1 5:0 6:1 7:0 8:0 9:0 10:1 11:0 12:0 13:0 14:1 15:1 16:1 17:1 18:0 19:0 20:1 21:0 22:0 23:53 24:2 25:0.02 26:0.09 27:0.02 28:1 29:0.02 30:0.5 31:0 32:0 
0.029528025220016255 0:0 1:1 2:0 3:0 4:1 5:0 6:1 7:0 8:0 9:0 10:1 11:0 12:0 13:0 14:1 15:1 16:1 17:1 18:0 19:0 20:1 21:0 22:0 23:156 24:1 25:0.01 26:0.04 27:0.01 28:0 29:0.01 30:1 31:0 32:0 
0.019170578277587769 0:0 1:1 2:0 3:0 4:1 5:0 6:1 7:0 8:0 9:0 10:1 11:0 12:0 13:0 14:2 15:2 16:1 17:1 18:0 19:0 20:1 21:0 22:0 23:255 24:2 25:0.01 26:0.08 27:0 28:0 29:1 30:1 31:0 32:0 
0.018510894650181402 0:0 1:1 2:0 3:0 4:1 5:0 6:1 7:0 8:0 9:0 10:0 11:1 12:0 13:0 14:1 15:2 16:1 17:1 18:0 19:0 20:1 21:0 22:1 23:255 24:1 25:0 26:0.02 27:0 28:0 29:0 30:1 31:0 32:0 
