svm_type one_class
kernel_type rbf
gamma 0.001
nr_class 2
total_sv 4
rho 0.059814023671944203
SV
0.034752055866352299 0:0 1:1 2:0 3:0 4:0 5:1 6:1 7:0 8:0 9:0 10:1 11:0 12:0 13:0 14:1 15:1 16:0 17:0 18:1 19:1 20:1 21:0 22:0 23:1 24:37 25:1 26:0 27:1 28:0.16 29:0 30:0 31:1 32:1 
0.024203986834643976 0:0 1:1 2:0 3:0 4:0 5:1 6:1 7:0 8:0 9:0 10:1 11:0 12:0 13:0 14:1 15:21 16:0 17:0.95 18:1 19:0.05 20:1 21:0 22:0.1 23:1 24:24 25:1 26:0 27:1 28:0.25 29:0 30:0 31:1 32:1 
0.0042079280126936158 0:0 1:1 2:0 3:0 4:0 5:1 6:0 7:1 8:0 9:0 10:1 11:0 12:0 13:0 14:1 15:1 16:0 17:0 18:0 19:0 20:1 21:0 22:0 23:1 24:1 25:1 26:0 27:1 28:0 29:0 30:0 31:0 32:0 
0.036836029286310114 0:0 1:1 2:0 3:0 4:0 5:1 6:1 7:0 8:0 9:0 10:1 11:0 12:0 13:0 14:1 15:1 16:1 17:1 18:0 19:0 20:1 21:0 22:0 23:1 24:1 25:1 26:0 27:1 28:0 29:1 30:1 31:0 32:0 
