svm_type one_class
kernel_type rbf
gamma 0.001
nr_class 2
total_sv 2
rho 0.029271830320358273
SV
0.014999999999999994 0:0 1:1 2:0 3:0 4:0 5:1 6:1 7:0 8:0 9:0 10:1 11:0 12:0 13:0 14:1 15:2 16:0 17:0 18:1 19:1 20:1 21:0 22:1 23:0 24:0 25:0 26:0 27:0 28:0 29:0 30:0 31:0 32:0 
0.015000000000000005 0:0 1:1 2:0 3:0 4:0 5:1 6:1 7:0 8:0 9:0 10:1 11:0 12:0 13:0 14:1 15:9 16:0 17:0 18:1 19:0.33 20:1 21:0 22:0.44 23:0 24:0 25:0 26:0 27:0 28:0 29:0 30:0 31:0 32:0 
