svm_type one_class
kernel_type rbf
gamma 0.001
nr_class 2
total_sv 404
rho 0.18914140579835734
SV
0.048448836946589399 0:0 1:0 2:0 3:1 4:1 5:0 6:0 7:1 8:181 9:0 10:1 11:0 12:0 13:0 14:3 15:2 16:0 17:0 18:0 19:0 20:0.67 21:0.67 22:0 23:255 24:93 25:0.36 26:0.01 27:0.46 28:0 29:0 30:0 31:0 32:0 
0.065455944517902806 0:0 1:0 2:0 3:1 4:1 5:0 6:0 7:1 8:30 9:0 10:1 11:0 12:0 13:0 14:12 15:1 16:0 17:0 18:0 19:0 20:0.08 21:0.25 22:0 23:255 24:3 25:0.01 26:0.01 27:0.09 28:0 29:0 30:0 31:0 32:0 
0.04206884648070329 0:0 1:0 2:0 3:1 4:0 5:1 6:0 7:1 8:30 9:0 10:1 11:0 12:0 13:0 14:2 15:2 16:0 17:0 18:0 19:0 20:1 21:0 22:0 23:48 24:48 25:1 26:0 27:1 28:0 29:0 30:0 31:0 32:0 
0.083965156957695242 0:0 1:0 2:0 3:1 4:1 5:0 6:0 7:1 8:30 9:0 10:1 11:0 12:0 13:0 14:1 15:1 16:0 17:0 18:0 19:0 20:1 21:0 22:0 23:44 24:90 25:0.98 26:0.05 27:0.98 28:0.28 29:0 30:0 31:0 32:0 
0.071578665687452317 0:0 1:0 2:0 3:1 4:1 5:0 6:0 7:1 8:78 9:0 10:1 11:0 12:0 13:0 14:2 15:1 16:0 17:0 18:0 19:0 20:0.5 21:1 22:0 23:255 24:29 25:0.11 26:0.01 27:0.11 28:0 29:0 30:0 31:0 32:0 
0.016348894349707987 0:0 1:0 2:0 3:1 4:1 5:0 6:0 7:1 8:30 9:0 10:1 11:0 12:0 13:0 14:1 15:1 16:0 17:0 18:0 19:0 20:1 21:0 22:0 23:59 24:131 25:1 26:0 27:1 28:0.28 29:0 30:0 31:0 32:0 
0.10549665128114188 0:0 1:0 2:0 3:1 4:1 5:0 6:0 7:1 8:78 9:0 10:1 11:0 12:0 13:0 14:52 15:12 16:0 17:0 18:0 19:0 20:0.23 21:0.04 22:0 23:255 24:28 25:0.11 26:0.01 27:0.11 28:0 29:0 30:0 31:0 32:0 
0.014516741948484126 0:0 1:0 2:0 3:1 4:1 5:0 6:0 7:1 8:64 9:0 10:1 11:0 12:0 13:0 14:2 15:1 16:0 17:0 18:0 19:0 20:0.5 21:1 22:0 23:213 24:1 25:0 26:0.07 27:0 28:0 29:0 30:0 31:0 32:0 
0.15673914410203771 0:0 1:0 2:0 3:1 4:1 5:0 6:0 7:1 8:36 9:0 10:1 11:0 12:0 13:0 14:2 15:1 16:0 17:0 18:0 19:0 20:0.5 21:1 22:0 23:195 24:81 25:0.25 26:0.04 27:0.25 28:0.02 29:0 30:0 31:0 32:0 
0.044782798191744105 0:0 1:0 2:0 3:1 4:1 5:0 6:0 7:1 8:91 9:0 10:1 11:0 12:0 13:0 14:1 15:1 16:0 17:0 18:0 19:0 20:1 21:0 22:0 23:126 24:1 25:0.01 26:0.02 27:0.01 28:0 29:0 30:0 31:0.11 32:0 
0.014081225788614912 0:0 1:0 2:0 3:1 4:1 5:0 6:0 7:1 8:30 9:0 10:1 11:0 12:0 13:0 14:1 15:1 16:0 17:0 18:0 19:0 20:1 21:0 22:0 23:188 24:188 25:1 26:0 27:1 28:0 29:0 30:0 31:0 32:0 
0.065906559883511559 0:0 1:0 2:0 3:1 4:1 5:0 6:0 7:1 8:87 9:0 10:1 11:0 12:0 13:0 14:20 15:18 16:0 17:0 18:0 19:0 20:0.05 21:0.1 22:0.11 23:255 24:1 25:0 26:0.01 27:0 28:0 29:0 30:0 31:0 32:0 
0.034084696777745144 0:0 1:0 2:0 3:1 4:1 5:0 6:0 7:1 8:30 9:0 10:1 11:0 12:0 13:0 14:2 15:2 16:0 17:0 18:0 19:0 20:1 21:0 22:0 23:207 24:207 25:1 26:0 27:1 28:0 29:0 30:0 31:0 32:0 
0.06510937251854293 0:0 1:0 2:0 3:1 4:1 5:0 6:0 7:1 8:127 9:0 10:1 11:0 12:0 13:0 14:2 15:2 16:0 17:0 18:0 19:0 20:1 21:0 22:0 23:20 24:2 25:0.1 26:0.15 27:0.1 28:0 29:0 30:0 31:0 32:0 
0.00087924019334704659 0:0 1:0 2:0 3:1 4:1 5:0 6:0 7:1 8:78 9:0 10:1 11:0 12:0 13:0 14:11 15:2 16:0 17:0 18:0 19:0 20:0.18 21:0.18 22:0 23:140 24:2 25:0.01 26:0.01 27:0.01 28:0 29:0 30:0 31:0 32:0 
0.053502484648623574 0:0 1:0 2:0 3:1 4:0 5:1 6:0 7:1 8:64 9:0 10:1 11:0 12:0 13:0 14:1 15:1 16:0 17:0 18:0 19:0 20:1 21:0 22:0 23:43 24:1 25:0.02 26:0.09 27:0.02 28:0 29:0 30:0 31:0 32:0 
0.070024925513035838 0:0 1:0 2:0 3:1 4:1 5:0 6:0 7:1 8:36 9:0 10:1 11:0 12:0 13:0 14:1 15:1 16:0 17:0 18:0 19:0 20:1 21:0 22:0 23:67 24:4 25:0.06 26:0.07 27:0.06 28:0 29:0 30:0 31:0 32:0 
0.18935606465909291 0:0 1:0 2:0 3:1 4:0 5:1 6:0 7:1 8:64 9:0 10:1 11:0 12:0 13:0 14:151 15:1 16:0.99 17:0 18:0 19:0 20:0.01 21:0.06 22:0 23:255 24:1 25:0 26:0.09 27:0 28:0 29:0.66 30:0 31:0.01 32:0 
0.025807388070524882 0:0 1:0 2:0 3:1 4:1 5:0 6:0 7:1 8:30 9:0 10:1 11:0 12:0 13:0 14:1 15:1 16:0 17:0 18:0 19:0 20:1 21:0 22:0 23:60 24:131 25:1 26:0 27:1 28:0.28 29:0 30:0 31:0 32:0 
0.11573390894831473 0:0 1:0 2:0 3:1 4:1 5:0 6:0 7:1 8:181 9:0 10:1 11:0 12:0 13:0 14:2 15:1 16:0 17:0 18:0 19:0 20:0.5 21:1 22:0 23:2 24:1 25:0.5 26:1 27:1 28:0 29:0 30:0 31:0 32:0 
0.025556099561911585 0:0 1:0 2:0 3:1 4:1 5:0 6:0 7:1 8:181 9:0 10:1 11:0 12:0 13:0 14:5 15:3 16:0 17:0 18:0 19:0 20:0.6 21:0.4 22:0 23:255 24:77 25:0.3 26:0.01 27:0.38 28:0 29:0 30:0 31:0 32:0 
0.0094241875356558674 0:0 1:0 2:0 3:1 4:1 5:0 6:0 7:1 8:30 9:0 10:1 11:0 12:0 13:0 14:1 15:1 16:0 17:0 18:0 19:0 20:1 21:0 22:0 23:189 24:189 25:1 26:0 27:1 28:0 29:0 30:0 31:0 32:0 
0.02654859081870635 0:0 1:0 2:0 3:1 4:1 5:0 6:0 7:1 8:181 9:0 10:1 11:0 12:0 13:0 14:2 15:1 16:0 17:0 18:0 19:0 20:0.5 21:1 22:0 23:255 24:65 25:0.25 26:0.01 27:0.32 28:0 29:0 30:0 31:0 32:0 
0.028848428167297678 0:0 1:0 2:0 3:1 4:0 5:1 6:0 7:1 8:30 9:0 10:1 11:0 12:0 13:0 14:2 15:2 16:0 17:0 18:0 19:0 20:1 21:0 22:0 23:228 24:228 25:1 26:0 27:1 28:0 29:0 30:0 31:0 32:0 
0.015432045484096104 0:0 1:0 2:0 3:1 4:0 5:1 6:0 7:1 8:30 9:0 10:1 11:0 12:0 13:0 14:2 15:2 16:0 17:0 18:0 19:0 20:1 21:0 22:0 23:225 24:225 25:1 26:0 27:1 28:0 29:0 30:0 31:0 32:0 
0.025080836223671389 0:0 1:0 2:0 3:1 4:1 5:0 6:0 7:1 8:30 9:0 10:1 11:0 12:0 13:0 14:2 15:2 16:0 17:0 18:0 19:0 20:1 21:0 22:0 23:227 24:227 25:1 26:0 27:1 28:0 29:0 30:0 31:0 32:0 
0.13117119253501935 0:0 1:0 2:0 3:1 4:1 5:0 6:0 7:1 8:123 9:0 10:1 11:0 12:0 13:0 14:6 15:2 16:0 17:0 18:0 19:0 20:0.33 21:0.33 22:0 23:204 24:31 25:0.15 26:0.01 27:0.15 28:0 29:0 30:0 31:0 32:0 
0.0056130130714417276 0:0 1:0 2:0 3:1 4:1 5:0 6:0 7:1 8:30 9:0 10:1 11:0 12:0 13:0 14:2 15:2 16:0 17:0 18:0 19:0 20:1 21:0 22:0 23:226 24:226 25:1 26:0 27:1 28:0 29:0 30:0 31:0 32:0 
0.045379409373788648 0:0 1:0 2:0 3:1 4:0 5:1 6:0 7:1 8:30 9:0 10:1 11:0 12:0 13:0 14:2 15:2 16:0 17:0 18:0 19:0 20:1 21:0 22:0 23:150 24:150 25:1 26:0 27:1 28:0 29:0 30:0 31:0 32:0 
0.085539094578304428 0:0 1:0 2:0 3:1 4:1 5:0 6:0 7:1 8:146 9:0 10:1 11:0 12:0 13:0 14:6 15:2 16:0 17:0 18:0 19:0 20:0.33 21:0.33 22:0 23:178 24:29 25:0.16 26:0.02 27:0.16 28:0 29:0 30:0 31:0 32:0 
0.016941294052296982 0:0 1:0 2:0 3:1 4:1 5:0 6:0 7:1 8:181 9:0 10:1 11:0 12:0 13:0 14:2 15:1 16:0 17:0 18:0 19:0 20:0.5 21:1 22:0 23:255 24:72 25:0.28 26:0.01 27:0.36 28:0 29:0 30:0 31:0 32:0 
0.042167658458536414 0:0 1:0 2:0 3:1 4:1 5:0 6:0 7:1 8:183 9:0 10:1 11:0 12:0 13:0 14:2 15:1 16:0 17:0 18:0 19:0 20:0.5 21:1 22:0 23:255 24:47 25:0.18 26:0.01 27:0.2 28:0 29:0 30:0 31:0 32:0 
0.14359245294464953 0:0 1:0 2:0 3:1 4:1 5:0 6:0 7:1 8:564 9:0 10:1 11:0 12:0 13:0 14:1 15:1 16:0 17:0 18:0 19:0 20:1 21:0 22:0 23:1 24:1 25:1 26:0 27:1 28:0 29:0 30:0 31:0 32:0 
0.028079706878208145 0:0 1:0 2:0 3:1 4:1 5:0 6:0 7:1 8:30 9:0 10:1 11:0 12:0 13:0 14:1 15:1 16:0 17:0 18:0 19:0 20:1 21:0 22:0 23:64 24:131 25:1 26:0 27:1 28:0.27 29:0 30:0 31:0 32:0 
0.0061937683348597949 0:0 1:0 2:0 3:1 4:1 5:0 6:0 7:1 8:30 9:0 10:1 11:0 12:0 13:0 14:1 15:1 16:0 17:0 18:0 19:0 20:1 21:0 22:0 23:255 24:255 25:1 26:0 27:1 28:0 29:0 30:0 31:0 32:0 
0.071856631672257892 0:0 1:0 2:0 3:1 4:1 5:0 6:0 7:1 8:30 9:0 10:1 11:0 12:0 13:0 14:2 15:2 16:0 17:0 18:0 19:0 20:1 21:0 22:0 23:255 24:255 25:1 26:0 27:1 28:0 29:0 30:0 31:0 32:0 
0.01148905907911945 0:0 1:0 2:0 3:1 4:1 5:0 6:0 7:1 8:30 9:0 10:1 11:0 12:0 13:0 14:1 15:1 16:0 17:0 18:0 19:0 20:1 21:0 22:0 23:62 24:131 25:1 26:0 27:1 28:0.27 29:0 30:0 31:0 32:0 
0.08919703336314741 0:0 1:0 2:0 3:1 4:1 5:0 6:0 7:1 8:30 9:0 10:1 11:0 12:0 13:0 14:2 15:1 16:0 17:0 18:0 19:0 20:0.5 21:1 22:0 23:213 24:2 25:0.01 26:0.01 27:0.06 28:0 29:0 30:0 31:0 32:0 
0.056580059305542253 0:0 1:0 2:0 3:1 4:1 5:0 6:0 7:1 8:91 9:0 10:1 11:0 12:0 13:0 14:9 15:9 16:0 17:0 18:0 19:0 20:1 21:0 22:0 23:134 24:9 25:0.07 26:0.02 27:0.07 28:0 29:0 30:0 31:0.1 32:0 
0.072754744662337945 0:0 1:0 2:0 3:1 4:1 5:0 6:0 7:1 8:30 9:0 10:1 11:0 12:0 13:0 14:1 15:1 16:0 17:0 18:0 19:0 20:1 21:0 22:0 23:255 24:82 25:0.32 26:0.01 27:0.32 28:0 29:0 30:0 31:0 32:0 
0.0086217895124418957 0:0 1:0 2:0 3:1 4:1 5:0 6:0 7:1 8:30 9:0 10:1 11:0 12:0 13:0 14:1 15:1 16:0 17:0 18:0 19:0 20:1 21:0 22:0 23:122 24:122 25:1 26:0 27:1 28:0 29:0 30:0 31:0 32:0 
0.027476053815798353 0:0 1:0 2:0 3:1 4:0 5:1 6:0 7:1 8:30 9:0 10:1 11:0 12:0 13:0 14:1 15:1 16:0 17:0 18:0 19:0 20:1 21:0 22:0 23:52 24:53 25:1 26:0 27:1 28:0.04 29:0 30:0 31:0 32:0 
0.00083749587018723537 0:0 1:0 2:0 3:1 4:1 5:0 6:0 7:1 8:30 9:0 10:1 11:0 12:0 13:0 14:1 15:1 16:0 17:0 18:0 19:0 20:1 21:0 22:0 23:155 24:155 25:1 26:0 27:1 28:0 29:0 30:0 31:0 32:0 
0.0040134341014635222 0:0 1:0 2:0 3:1 4:1 5:0 6:0 7:1 8:30 9:0 10:1 11:0 12:0 13:0 14:1 15:1 16:0 17:0 18:0 19:0 20:1 21:0 22:0 23:180 24:180 25:1 26:0 27:1 28:0 29:0 30:0 31:0 32:0 
0.16710667810483096 0:0 1:0 2:0 3:1 4:1 5:0 6:0 7:1 8:564 9:0 10:1 11:0 12:0 13:0 14:2 15:2 16:0 17:0 18:0 19:0 20:1 21:0 22:0 23:46 24:3 25:0.07 26:0.09 27:0.07 28:0 29:0 30:0 31:0 32:0 
0.039359363437942732 0:0 1:0 2:0 3:1 4:1 5:0 6:0 7:1 8:181 9:0 10:1 11:0 12:0 13:0 14:4 15:3 16:0 17:0 18:0 19:0 20:0.75 21:0.5 22:0 23:255 24:104 25:0.41 26:0.01 27:0.51 28:0 29:0 30:0 31:0 32:0 
0.059531950179504883 0:0 1:0 2:0 3:1 4:0 5:1 6:0 7:1 8:64 9:0 10:1 11:0 12:0 13:0 14:1 15:1 16:0 17:0 18:0 19:0 20:1 21:0 22:0 23:66 24:1 25:0.02 26:0.05 27:0.02 28:0 29:0 30:0 31:0 32:0 
0.0079587463280973159 0:0 1:0 2:0 3:1 4:0 5:1 6:0 7:1 8:30 9:0 10:1 11:0 12:0 13:0 14:1 15:1 16:0 17:0 18:0 19:0 20:1 21:0 22:0 23:203 24:203 25:1 26:0 27:1 28:0 29:0 30:0 31:0 32:0 
0.11142733706371885 0:0 1:0 2:0 3:1 4:0 5:1 6:0 7:1 8:64 9:0 10:1 11:0 12:0 13:0 14:1 15:1 16:0 17:0 18:0 19:0 20:1 21:0 22:0 23:13 24:1 25:0.08 26:0.15 27:0.08 28:0 29:0 30:0 31:0 32:0 
0.016903368760969387 0:0 1:0 2:0 3:1 4:1 5:0 6:0 7:1 8:181 9:0 10:1 11:0 12:0 13:0 14:2 15:1 16:0 17:0 18:0 19:0 20:0.5 21:1 22:0 23:255 24:100 25:0.39 26:0.01 27:0.49 28:0 29:0 30:0 31:0 32:0 
0.088185818870101074 0:0 1:0 2:0 3:1 4:1 5:0 6:0 7:1 8:136 9:0 10:1 11:0 12:0 13:0 14:1 15:2 16:0 17:0 18:0 19:0 20:1 21:0 22:1 23:47 24:15 25:0.04 26:0.09 27:0.04 28:0.13 29:0 30:0 31:0 32:0 
0.0029457024780870766 0:0 1:0 2:0 3:1 4:1 5:0 6:0 7:1 8:30 9:0 10:1 11:0 12:0 13:0 14:1 15:1 16:0 17:0 18:0 19:0 20:1 21:0 22:0 23:198 24:198 25:1 26:0 27:1 28:0 29:0 30:0 31:0 32:0 
0.05865215164878617 0:0 1:0 2:0 3:1 4:1 5:0 6:0 7:1 8:182 9:0 10:1 11:0 12:0 13:0 14:1 15:1 16:0 17:0 18:0 19:0 20:1 21:0 22:0 23:16 24:2 25:0.12 26:0.19 27:0.19 28:0 29:0 30:0 31:0 32:0 
0.018294159765736305 0:0 1:0 2:0 3:1 4:1 5:0 6:0 7:1 8:86 9:0 10:1 11:0 12:0 13:0 14:8 15:14 16:0 17:0 18:0 19:0 20:0.38 21:0.25 22:0.14 23:255 24:29 25:0.11 26:0.01 27:0.11 28:0 29:0 30:0 31:0 32:0 
0.034961539142398815 0:0 1:0 2:0 3:1 4:1 5:0 6:0 7:1 8:182 9:0 10:1 11:0 12:0 13:0 14:2 15:1 16:0 17:0 18:0 19:0 20:0.5 21:1 22:0 23:212 24:13 25:0.06 26:0.01 27:0.08 28:0 29:0 30:0 31:0 32:0 
0.05535373825195538 0:0 1:0 2:0 3:1 4:1 5:0 6:0 7:1 8:64 9:0 10:1 11:0 12:0 13:0 14:1 15:1 16:0 17:0 18:0 19:0 20:1 21:0 22:0 23:208 24:1 25:0 26:0.1 27:0 28:0 29:0.01 30:0 31:0 32:0 
0.038739580561694964 0:0 1:0 2:0 3:1 4:1 5:0 6:0 7:1 8:183 9:0 10:1 11:0 12:0 13:0 14:9 15:8 16:0 17:0 18:0 19:0 20:0.89 21:0.22 22:0 23:255 24:29 25:0.11 26:0.01 27:0.12 28:0 29:0 30:0 31:0 32:0 
0.087467405749662192 0:0 1:0 2:0 3:1 4:0 5:1 6:0 7:1 8:30 9:0 10:1 11:0 12:0 13:0 14:1 15:1 16:0 17:0 18:0 19:0 20:1 21:0 22:0 23:255 24:255 25:1 26:0 27:1 28:0 29:0 30:0 31:0 32:0 
0.12905864150918861 0:0 1:0 2:0 3:1 4:1 5:0 6:0 7:1 8:30 9:0 10:1 11:0 12:0 13:0 14:1 15:1 16:0 17:0 18:0 19:0 20:1 21:0 22:0 23:1 24:91 25:1 26:0 27:1 28:0.51 29:0 30:0 31:0 32:0 
0.026014218456997525 0:0 1:0 2:0 3:1 4:1 5:0 6:0 7:1 8:30 9:0 10:1 11:0 12:0 13:0 14:1 15:1 16:0 17:0 18:0 19:0 20:1 21:0 22:0 23:34 24:6 25:0.18 26:0.06 27:0.18 28:0 29:0 30:0 31:0 32:0 
0.016215736226584409 0:0 1:0 2:0 3:1 4:1 5:0 6:0 7:1 8:36 9:0 10:1 11:0 12:0 13:0 14:1 15:1 16:0 17:0 18:0 19:0 20:1 21:0 22:0 23:255 24:57 25:0.22 26:0.03 27:0.22 28:0 29:0 30:0 31:0 32:0 
0.11669146092437332 0:0 1:0 2:0 3:1 4:1 5:0 6:0 7:1 8:111 9:0 10:1 11:0 12:0 13:0 14:2 15:1 16:0 17:0 18:0 19:0 20:0.5 21:1 22:0 23:72 24:4 25:0.06 26:0.03 27:0.06 28:0 29:0 30:0 31:0 32:0 
0.042350653647245891 0:0 1:0 2:0 3:1 4:0 5:1 6:0 7:1 8:30 9:0 10:1 11:0 12:0 13:0 14:2 15:2 16:0 17:0 18:0 19:0 20:1 21:0 22:0 23:185 24:185 25:1 26:0 27:1 28:0 29:0 30:0 31:0 32:0 
0.0022646819622663822 0:0 1:0 2:0 3:1 4:1 5:0 6:0 7:1 8:30 9:0 10:1 11:0 12:0 13:0 14:1 15:1 16:0 17:0 18:0 19:0 20:1 21:0 22:0 23:41 24:90 25:0.98 26:0.05 27:0.98 28:0.29 29:0 30:0 31:0 32:0 
0.0011767861458330704 0:0 1:0 2:0 3:1 4:1 5:0 6:0 7:1 8:30 9:0 10:1 11:0 12:0 13:0 14:2 15:2 16:0 17:0 18:0 19:0 20:1 21:0 22:0 23:223 24:223 25:1 26:0 27:1 28:0 29:0 30:0 31:0 32:0 
0.039181602400843688 0:0 1:0 2:0 3:1 4:1 5:0 6:0 7:1 8:151 9:0 10:1 11:0 12:0 13:0 14:3 15:1 16:0 17:0 18:0 19:0 20:0.33 21:0.67 22:0 23:83 24:5 25:0.06 26:0.05 27:0.06 28:0 29:0 30:0 31:0 32:0 
0.034444639752235773 0:0 1:0 2:0 3:1 4:1 5:0 6:0 7:1 8:140 9:0 10:1 11:0 12:0 13:0 14:12 15:10 16:0 17:0 18:0 19:0 20:0.33 21:0.17 22:0.2 23:255 24:20 25:0.08 26:0.01 27:0.08 28:0 29:0 30:0 31:0 32:0 
0.007227598606746025 0:0 1:0 2:0 3:1 4:1 5:0 6:0 7:1 8:30 9:0 10:1 11:0 12:0 13:0 14:1 15:1 16:0 17:0 18:0 19:0 20:1 21:0 22:0 23:67 24:67 25:1 26:0 27:1 28:0 29:0 30:0 31:0 32:0 
0.011863863398642099 0:0 1:0 2:0 3:1 4:0 5:1 6:0 7:1 8:30 9:0 10:1 11:0 12:0 13:0 14:2 15:2 16:0 17:0 18:0 19:0 20:1 21:0 22:0 23:224 24:224 25:1 26:0 27:1 28:0 29:0 30:0 31:0 32:0 
0.052395755606818077 0:0 1:0 2:0 3:1 4:1 5:0 6:0 7:1 8:36 9:0 10:1 11:0 12:0 13:0 14:1 15:1 16:0 17:0 18:0 19:0 20:1 21:0 22:0 23:124 24:39 25:0.31 26:0.06 27:0.31 28:0 29:0 30:0 31:0 32:0 
0.13373832634233634 0:0 1:0 2:0 3:1 4:1 5:0 6:0 7:1 8:30 9:0 10:1 11:0 12:0 13:0 14:1 15:1 16:0 17:0 18:0 19:0 20:1 21:0 22:0 23:1 24:1 25:1 26:0 27:1 28:0 29:0 30:0 31:0 32:0 
0.037475317126801855 0:0 1:0 2:0 3:1 4:1 5:0 6:0 7:1 8:30 9:0 10:1 11:0 12:0 13:0 14:1 15:1 16:0 17:0 18:0 19:0 20:1 21:0 22:0 23:1 24:107 25:1 26:0 27:1 28:0.5 29:0 30:0 31:0 32:0 
0.077241329949636173 0:0 1:0 2:0 3:1 4:1 5:0 6:0 7:1 8:30 9:0 10:1 11:0 12:0 13:0 14:1 15:2 16:0 17:0 18:0 19:0 20:1 21:0 22:1 23:83 24:32 25:0.01 26:0.02 27:0.01 28:1 29:0 30:0 31:0 32:0 
0.1014576530088825 0:0 1:0 2:0 3:1 4:1 5:0 6:0 7:1 8:30 9:0 10:1 11:0 12:0 13:0 14:5 15:1 16:0 17:0 18:0 19:0 20:0.2 21:0.6 22:0 23:171 24:3 25:0.02 26:0.02 27:0.07 28:0 29:0 30:0 31:0 32:0 
0.0030931712595148667 0:0 1:0 2:0 3:1 4:1 5:0 6:0 7:1 8:64 9:0 10:1 11:0 12:0 13:0 14:1 15:1 16:0 17:0 18:0 19:0 20:1 21:0 22:0 23:94 24:1 25:0.01 26:0.13 27:0.01 28:0 29:0.01 30:0 31:0 32:0 
0.0023129964342377268 0:0 1:0 2:0 3:1 4:0 5:1 6:0 7:1 8:30 9:0 10:1 11:0 12:0 13:0 14:1 15:1 16:0 17:0 18:0 19:0 20:1 21:0 22:0 23:70 24:70 25:1 26:0 27:1 28:0 29:0 30:0 31:0 32:0 
0.012630176908026024 0:0 1:0 2:0 3:1 4:1 5:0 6:0 7:1 8:181 9:0 10:1 11:0 12:0 13:0 14:2 15:1 16:0 17:0 18:0 19:0 20:0.5 21:1 22:0 23:255 24:99 25:0.39 26:0.01 27:0.49 28:0 29:0 30:0 31:0 32:0 
0.017795277060171838 0:0 1:0 2:0 3:1 4:1 5:0 6:0 7:1 8:30 9:0 10:1 11:0 12:0 13:0 14:1 15:1 16:0 17:0 18:0 19:0 20:1 21:0 22:0 23:80 24:131 25:1 26:0 27:1 28:0.21 29:0 30:0 31:0 32:0 
0.0052330678198343515 0:0 1:0 2:0 3:1 4:0 5:1 6:0 7:1 8:64 9:0 10:1 11:0 12:0 13:0 14:1 15:1 16:0 17:0 18:0 19:0 20:1 21:0 22:0 23:88 24:1 25:0.01 26:0.05 27:0.01 28:0 29:0 30:0 31:0 32:0 
0.052753675695492407 0:0 1:0 2:0 3:1 4:1 5:0 6:0 7:1 8:30 9:0 10:1 11:0 12:0 13:0 14:0 15:0 16:0 17:0 18:0 19:0 20:0 21:0 22:0 23:73 24:73 25:1 26:0 27:1 28:0 29:0 30:0 31:0 32:0 
0.037914589446695408 0:0 1:0 2:0 3:1 4:1 5:0 6:0 7:1 8:135 9:0 10:1 11:0 12:0 13:0 14:1 15:1 16:0 17:0 18:0 19:0 20:1 21:0 22:0 23:85 24:10 25:0.05 26:0.04 27:0.05 28:0.2 29:0 30:0 31:0 32:0 
0.032383321784756634 0:0 1:0 2:0 3:1 4:0 5:1 6:0 7:1 8:64 9:0 10:1 11:0 12:0 13:0 14:1 15:1 16:0 17:0 18:0 19:0 20:1 21:0 22:0 23:255 24:1 25:0 26:0.06 27:0 28:0 29:0.76 30:0 31:0.01 32:0 
0.042500652055311852 0:0 1:0 2:0 3:1 4:1 5:0 6:0 7:1 8:183 9:0 10:1 11:0 12:0 13:0 14:7 15:6 16:0 17:0 18:0 19:0 20:0.86 21:0.29 22:0 23:255 24:46 25:0.18 26:0.01 27:0.2 28:0 29:0 30:0 31:0 32:0 
0.028415230680474021 0:0 1:0 2:0 3:1 4:1 5:0 6:0 7:1 8:64 9:0 10:1 11:0 12:0 13:0 14:2 15:2 16:0 17:0 18:0 19:0 20:1 21:0 22:0 23:182 24:2 25:0.01 26:0.04 27:0.01 28:0 29:0 30:0 31:0 32:0 
0.067754764242270324 0:0 1:0 2:0 3:1 4:1 5:0 6:0 7:1 8:64 9:0 10:1 11:0 12:0 13:0 14:2 15:2 16:0 17:0 18:0 19:0 20:1 21:0 22:0 23:151 24:2 25:0.01 26:0.06 27:0.01 28:0 29:0 30:0 31:0 32:0 
0.18887088917603312 0:0 1:0 2:0 3:1 4:0 5:1 6:0 7:1 8:30 9:0 10:1 11:0 12:0 13:0 14:1 15:511 16:0 17:0 18:0 19:0 20:1 21:0 22:0 23:62 24:62 25:1 26:0 27:1 28:0 29:0 30:0 31:0 32:0 
0.057558732662758794 0:0 1:0 2:0 3:1 4:1 5:0 6:0 7:1 8:128 9:0 10:1 11:0 12:0 13:0 14:6 15:1 16:0 17:0 18:0 19:0 20:0.17 21:0.33 22:0 23:157 24:19 25:0.11 26:0.03 27:0.11 28:0.11 29:0 30:0 31:0 32:0 
0.058160967139761967 0:0 1:0 2:0 3:1 4:1 5:0 6:0 7:1 8:30 9:0 10:1 11:0 12:0 13:0 14:1 15:1 16:0 17:0 18:0 19:0 20:1 21:0 22:0 23:91 24:131 25:1 26:0 27:1 28:0.16 29:0 30:0 31:0 32:0 
0.0051917575624959725 0:0 1:0 2:0 3:1 4:0 5:1 6:0 7:1 8:30 9:0 10:1 11:0 12:0 13:0 14:2 15:2 16:0 17:0 18:0 19:0 20:1 21:0 22:0 23:226 24:226 25:1 26:0 27:1 28:0 29:0 30:0 31:0 32:0 
0.0099727155362708125 0:0 1:0 2:0 3:1 4:1 5:0 6:0 7:1 8:78 9:0 10:1 11:0 12:0 13:0 14:38 15:1 16:0 17:0 18:0 19:0 20:0.03 21:0.05 22:0 23:255 24:6 25:0.02 26:0.01 27:0.02 28:0 29:0 30:0 31:0 32:0 
0.12014341971907841 0:0 1:0 2:0 3:1 4:1 5:0 6:0 7:1 8:136 9:0 10:1 11:0 12:0 13:0 14:6 15:2 16:0 17:0 18:0 19:0 20:0.33 21:0.33 22:0 23:123 24:20 25:0.16 26:0.02 27:0.16 28:0 29:0 30:0 31:0 32:0 
0.073328343046743599 0:0 1:0 2:0 3:1 4:1 5:0 6:0 7:1 8:30 9:0 10:1 11:0 12:0 13:0 14:2 15:2 16:0 17:0 18:0 19:0 20:1 21:0 22:0 23:139 24:139 25:1 26:0 27:1 28:0 29:0 30:0 31:0 32:0 
0.0014835638982654625 0:0 1:0 2:0 3:1 4:1 5:0 6:0 7:1 8:30 9:0 10:1 11:0 12:0 13:0 14:1 15:1 16:0 17:0 18:0 19:0 20:1 21:0 22:0 23:206 24:206 25:1 26:0 27:1 28:0 29:0 30:0 31:0 32:0 
0.11278625301691846 0:0 1:0 2:0 3:1 4:1 5:0 6:0 7:1 8:78 9:0 10:1 11:0 12:0 13:0 14:46 15:1 16:0 17:0 18:0 19:0 20:0.02 21:0.04 22:0 23:218 24:1 25:0 26:0.02 27:0.01 28:0 29:0 30:0 31:0 32:0 
0.051922392304573378 0:0 1:0 2:0 3:1 4:1 5:0 6:0 7:1 8:78 9:0 10:1 11:0 12:0 13:0 14:56 15:11 16:0 17:0 18:0 19:0 20:0.2 21:0.04 22:0 23:228 24:11 25:0.05 26:0.02 27:0.06 28:0 29:0 30:0 31:0 32:0 
0.0093336124507648784 0:0 1:0 2:0 3:1 4:1 5:0 6:0 7:1 8:181 9:0 10:1 11:0 12:0 13:0 14:2 15:1 16:0 17:0 18:0 19:0 20:0.5 21:1 22:0 23:255 24:68 25:0.27 26:0.01 27:0.33 28:0 29:0 30:0 31:0 32:0 
0.11933687130198228 0:0 1:0 2:0 3:1 4:1 5:0 6:0 7:1 8:126 9:0 10:1 11:0 12:0 13:0 14:5 15:1 16:0 17:0 18:0 19:0 20:0.2 21:0.4 22:0 23:255 24:41 25:0.16 26:0.01 27:0.16 28:0 29:0 30:0 31:0 32:0 
0.14145982941467619 0:0 1:0 2:0 3:1 4:1 5:0 6:0 7:1 8:183 9:0 10:1 11:0 12:0 13:0 14:2 15:1 16:0 17:0 18:0 19:0 20:0.5 21:1 22:0 23:255 24:1 25:0 26:0.01 27:0.01 28:0 29:0 30:0 31:0 32:0 
0.14051426335058198 0:0 1:0 2:0 3:1 4:1 5:0 6:0 7:1 8:183 9:0 10:1 11:0 12:0 13:0 14:2 15:1 16:0 17:0 18:0 19:0 20:0.5 21:1 22:0 23:199 24:8 25:0.04 26:0.02 27:0.23 28:0 29:0 30:0 31:0 32:0 
0.015815168167843313 0:0 1:0 2:0 3:1 4:1 5:0 6:0 7:1 8:30 9:0 10:1 11:0 12:0 13:0 14:2 15:1 16:0 17:0 18:0 19:0 20:0.5 21:1 22:0 23:255 24:48 25:0.19 26:0.01 27:0.2 28:0 29:0 30:0 31:0 32:0 
0.11638494977914367 0:0 1:0 2:0 3:1 4:1 5:0 6:0 7:1 8:128 9:0 10:1 11:0 12:0 13:0 14:3 15:1 16:0 17:0 18:0 19:0 20:0.33 21:1 22:0 23:255 24:1 25:0 26:0.01 27:0 28:0 29:0 30:0 31:0 32:0 
0.0022367931438935151 0:0 1:0 2:0 3:1 4:1 5:0 6:0 7:1 8:30 9:0 10:1 11:0 12:0 13:0 14:1 15:1 16:0 17:0 18:0 19:0 20:1 21:0 22:0 23:191 24:191 25:1 26:0 27:1 28:0 29:0 30:0 31:0 32:0 
0.12453934732336935 0:0 1:0 2:0 3:1 4:1 5:0 6:0 7:1 8:30 9:0 10:1 11:0 12:0 13:0 14:1 15:1 16:0 17:0 18:0 19:0 20:1 21:0 22:0 23:25 24:131 25:1 26:0 27:1 28:0.41 29:0 30:0 31:0 32:0 
0.049276437833685752 0:0 1:0 2:0 3:1 4:1 5:0 6:0 7:1 8:64 9:0 10:1 11:0 12:0 13:0 14:8 15:8 16:0 17:0 18:0 19:0 20:1 21:0 22:0 23:188 24:8 25:0.04 26:0.04 27:0.04 28:0 29:0 30:0 31:0 32:0 
0.0019436292589312125 0:0 1:0 2:0 3:1 4:0 5:1 6:0 7:1 8:30 9:0 10:1 11:0 12:0 13:0 14:2 15:2 16:0 17:0 18:0 19:0 20:1 21:0 22:0 23:227 24:227 25:1 26:0 27:1 28:0 29:0 30:0 31:0 32:0 
0.07344479065355887 0:0 1:0 2:0 3:1 4:1 5:0 6:0 7:1 8:30 9:0 10:1 11:0 12:0 13:0 14:2 15:1 16:0 17:0 18:0 19:0 20:0.5 21:1 22:0 23:255 24:1 25:0 26:0.01 27:0.06 28:0 29:0 30:0 31:0 32:0 
0.16498903337548082 0:0 1:0 2:0 3:1 4:1 5:0 6:0 7:1 8:181 9:0 10:1 11:0 12:0 13:0 14:2 15:1 16:0 17:0 18:0 19:0 20:0.5 21:1 22:0 23:255 24:139 25:0.55 26:0.01 27:0.71 28:0 29:0 30:0 31:0 32:0 
0.041461568779829011 0:0 1:0 2:0 3:1 4:0 5:1 6:0 7:1 8:30 9:0 10:1 11:0 12:0 13:0 14:1 15:1 16:0 17:0 18:0 19:0 20:1 21:0 22:0 23:207 24:207 25:1 26:0 27:1 28:0 29:0 30:0 31:0 32:0 
0.17597371108244256 0:0 1:0 2:0 3:1 4:1 5:0 6:0 7:1 8:30 9:0 10:1 11:0 12:0 13:0 14:2 15:52 16:0 17:0 18:0 19:0 20:0.5 21:1 22:1 23:109 24:108 25:0.02 26:0.03 27:0.16 28:0.5 29:0 30:0 31:0 32:0 
0.020642819472749159 0:0 1:0 2:0 3:1 4:0 5:1 6:0 7:1 8:30 9:0 10:1 11:0 12:0 13:0 14:1 15:1 16:0 17:0 18:0 19:0 20:1 21:0 22:0 23:110 24:110 25:1 26:0 27:1 28:0 29:0 30:0 31:0 32:0 
0.080337249491586146 0:0 1:0 2:0 3:1 4:1 5:0 6:0 7:1 8:30 9:0 10:1 11:0 12:0 13:0 14:1 15:1 16:0 17:0 18:0 19:0 20:1 21:0 22:0 23:215 24:42 25:0.2 26:0.01 27:0.2 28:0 29:0 30:0 31:0 32:0 
0.11340978005564999 0:0 1:0 2:0 3:1 4:1 5:0 6:0 7:1 8:138 9:0 10:1 11:0 12:0 13:0 14:1 15:1 16:0 17:0 18:0 19:0 20:1 21:0 22:0 23:1 24:1 25:1 26:0 27:1 28:0 29:0 30:0 31:0 32:0 
0.077701105017146194 0:0 1:0 2:0 3:1 4:1 5:0 6:0 7:1 8:30 9:0 10:1 11:0 12:0 13:0 14:1 15:1 16:0 17:0 18:0 19:0 20:1 21:0 22:0 23:32 24:32 25:1 26:0 27:1 28:0 29:0 30:0 31:0 32:0 
0.010791389903308328 0:0 1:0 2:0 3:1 4:1 5:0 6:0 7:1 8:30 9:0 10:1 11:0 12:0 13:0 14:1 15:1 16:0 17:0 18:0 19:0 20:1 21:0 22:0 23:63 24:131 25:1 26:0 27:1 28:0.27 29:0 30:0 31:0 32:0 
0.010974517225973231 0:0 1:0 2:0 3:1 4:1 5:0 6:0 7:1 8:30 9:0 10:1 11:0 12:0 13:0 14:1 15:1 16:0 17:0 18:0 19:0 20:1 21:0 22:0 23:255 24:34 25:0.13 26:0.01 27:0.64 28:0 29:0 30:0 31:0 32:0 
0.010041597326602567 0:0 1:0 2:0 3:1 4:1 5:0 6:0 7:1 8:30 9:0 10:1 11:0 12:0 13:0 14:1 15:1 16:0 17:0 18:0 19:0 20:1 21:0 22:0 23:105 24:131 25:1 26:0 27:1 28:0.11 29:0 30:0 31:0 32:0 
0.038759222828690307 0:0 1:0 2:0 3:1 4:1 5:0 6:0 7:1 8:30 9:0 10:1 11:0 12:0 13:0 14:1 15:1 16:0 17:0 18:0 19:0 20:1 21:0 22:0 23:154 24:22 25:0.14 26:0.01 27:0.14 28:0 29:0 30:0 31:0 32:0 
0.18946967739327522 0:0 1:0 2:0 3:1 4:0 5:1 6:0 7:1 8:30 9:0 10:1 11:0 12:0 13:0 14:1 15:510 16:0 17:0 18:0 19:0 20:1 21:0 22:0 23:229 24:229 25:1 26:0 27:1 28:0 29:0 30:0 31:0 32:0 
0.0043607021060403503 0:0 1:0 2:0 3:1 4:1 5:0 6:0 7:1 8:132 9:0 10:1 11:0 12:0 13:0 14:6 15:2 16:0 17:0 18:0 19:0 20:0.33 21:0.33 22:0 23:35 24:4 25:0.11 26:0.09 27:0.11 28:0 29:0 30:0 31:0 32:0 
0.18948918492240713 0:0 1:0 2:0 3:1 4:0 5:1 6:0 7:1 8:30 9:0 10:1 11:0 12:0 13:0 14:1 15:510 16:0 17:0 18:0 19:0 20:1 21:0 22:0 23:132 24:132 25:1 26:0 27:1 28:0 29:0 30:0 31:0 32:0 
0.088235485898180685 0:0 1:0 2:0 3:1 4:0 5:1 6:0 7:1 8:64 9:0 10:1 11:0 12:0 13:0 14:1 15:1 16:0 17:0 18:0 19:0 20:1 21:0 22:0 23:102 24:1 25:0.01 26:0.03 27:0.01 28:0 29:0 30:0 31:0 32:0 
0.024926749574877102 0:0 1:0 2:0 3:1 4:1 5:0 6:0 7:1 8:127 9:0 10:1 11:0 12:0 13:0 14:3 15:1 16:0 17:0 18:0 19:0 20:0.33 21:0.67 22:0 23:166 24:21 25:0.12 26:0.02 27:0.12 28:0.1 29:0 30:0 31:0 32:0 
0.067977502895408159 0:0 1:0 2:0 3:1 4:1 5:0 6:0 7:1 8:30 9:0 10:1 11:0 12:0 13:0 14:1 15:1 16:0 17:0 18:0 19:0 20:1 21:0 22:0 23:112 24:16 25:0.14 26:0.02 27:0.14 28:0 29:0 30:0 31:0 32:0 
0.045668161546152525 0:0 1:0 2:0 3:1 4:1 5:0 6:0 7:1 8:83 9:0 10:1 11:0 12:0 13:0 14:1 15:1 16:0 17:0 18:0 19:0 20:1 21:0 22:0 23:255 24:1 25:0 26:0.48 27:0 28:0 29:0 30:0 31:0 32:0 
0.13473653427325852 0:0 1:0 2:0 3:1 4:1 5:0 6:0 7:1 8:183 9:0 10:1 11:0 12:0 13:0 14:5 15:4 16:0 17:0 18:0 19:0 20:0.8 21:0.4 22:0 23:62 24:5 25:0.08 26:0.03 27:0.08 28:0 29:0 30:0 31:0 32:0 
0.008002226252635105 0:0 1:0 2:0 3:1 4:1 5:0 6:0 7:1 8:30 9:0 10:1 11:0 12:0 13:0 14:1 15:1 16:0 17:0 18:0 19:0 20:1 21:0 22:0 23:194 24:194 25:1 26:0 27:1 28:0 29:0 30:0 31:0 32:0 
0.0082032502549932752 0:0 1:0 2:0 3:1 4:1 5:0 6:0 7:1 8:130 9:0 10:1 11:0 12:0 13:0 14:6 15:2 16:0 17:0 18:0 19:0 20:0.33 21:0.33 22:0 23:152 24:24 25:0.16 26:0.02 27:0.16 28:0 29:0 30:0 31:0 32:0 
0.016882221896587522 0:0 1:0 2:0 3:1 4:1 5:0 6:0 7:1 8:30 9:0 10:1 11:0 12:0 13:0 14:2 15:2 16:0 17:0 18:0 19:0 20:1 21:0 22:0 23:230 24:230 25:1 26:0 27:1 28:0 29:0 30:0 31:0 32:0 
0.029121953519009557 0:0 1:0 2:0 3:1 4:1 5:0 6:0 7:1 8:78 9:0 10:1 11:0 12:0 13:0 14:41 15:11 16:0 17:0 18:0 19:0 20:0.24 21:0.05 22:0.18 23:255 24:34 25:0.13 26:0.01 27:0.13 28:0 29:0 30:0 31:0 32:0 
0.088847651516020962 0:0 1:0 2:0 3:1 4:1 5:0 6:0 7:1 8:30 9:0 10:1 11:0 12:0 13:0 14:1 15:1 16:0 17:0 18:0 19:0 20:1 21:0 22:0 23:91 24:90 25:0.99 26:0.02 27:0.99 28:0 29:0 30:0 31:0 32:0 
0.036446351342548443 0:0 1:0 2:0 3:1 4:1 5:0 6:0 7:1 8:91 9:0 10:1 11:0 12:0 13:0 14:10 15:1 16:0 17:0 18:0 19:0 20:0.1 21:0.2 22:0 23:135 24:1 25:0.01 26:0.03 27:0.07 28:0 29:0 30:0 31:0.1 32:0 
0.14171236587469982 0:0 1:0 2:0 3:1 4:1 5:0 6:0 7:1 8:181 9:0 10:1 11:0 12:0 13:0 14:6 15:6 16:0 17:0 18:0 19:0 20:1 21:0 22:0 23:103 24:12 25:0.12 26:0.03 27:0.15 28:0 29:0 30:0 31:0 32:0 
0.068328474623554306 0:0 1:0 2:0 3:1 4:1 5:0 6:0 7:1 8:30 9:0 10:1 11:0 12:0 13:0 14:5 15:1 16:0 17:0 18:0 19:0 20:0.2 21:0.6 22:0 23:255 24:45 25:0.18 26:0.01 27:0.76 28:0 29:0 30:0 31:0 32:0 
0.025240431294222411 0:0 1:0 2:0 3:1 4:0 5:1 6:0 7:1 8:30 9:0 10:1 11:0 12:0 13:0 14:2 15:2 16:0 17:0 18:0 19:0 20:1 21:0 22:0 23:184 24:184 25:1 26:0 27:1 28:0 29:0 30:0 31:0 32:0 
0.092098796030863767 0:0 1:0 2:0 3:1 4:0 5:1 6:0 7:1 8:30 9:0 10:1 11:0 12:0 13:0 14:1 15:1 16:0 17:0 18:0 19:0 20:1 21:0 22:0 23:165 24:165 25:1 26:0 27:1 28:0 29:0 30:0 31:0 32:0 
0.071024414426298463 0:0 1:0 2:0 3:1 4:1 5:0 6:0 7:1 8:36 9:0 10:1 11:0 12:0 13:0 14:1 15:1 16:0 17:0 18:0 19:0 20:1 21:0 22:0 23:138 24:37 25:0.27 26:0.06 27:0.27 28:0 29:0.01 30:0 31:0 32:0 
0.14076047458967428 0:0 1:0 2:0 3:1 4:1 5:0 6:0 7:1 8:40008 9:0 10:1 11:0 12:0 13:0 14:3 15:3 16:0 17:0 18:0 19:0 20:1 21:0 22:0 23:117 24:145 25:0.06 26:0.04 27:0.06 28:0.48 29:0 30:0 31:0.03 32:0 
0.033291929555388476 0:0 1:0 2:0 3:1 4:1 5:0 6:0 7:1 8:36 9:0 10:1 11:0 12:0 13:0 14:1 15:1 16:0 17:0 18:0 19:0 20:1 21:0 22:0 23:204 24:54 25:0.26 26:0.04 27:0.26 28:0 29:0.01 30:0 31:0 32:0 
0.16240967249328986 0:0 1:0 2:0 3:1 4:0 5:1 6:0 7:1 8:40008 9:0 10:1 11:0 12:0 13:0 14:3 15:3 16:0 17:0 18:0 19:0 20:1 21:0 22:0 23:48 24:48 25:1 26:0 27:1 28:0 29:0 30:0 31:0 32:0 
0.1484676838865428 0:0 1:0 2:0 3:1 4:1 5:0 6:0 7:1 8:564 9:0 10:1 11:0 12:0 13:0 14:1 15:1 16:0 17:0 18:0 19:0 20:1 21:0 22:0 23:221 24:1 25:0 26:0.03 27:0.5 28:0 29:0 30:0 31:0.01 32:0 
0.13585356453912462 0:0 1:0 2:0 3:1 4:0 5:1 6:0 7:1 8:40008 9:0 10:1 11:0 12:0 13:0 14:3 15:3 16:0 17:0 18:0 19:0 20:1 21:0 22:0 23:102 24:102 25:1 26:0 27:1 28:0 29:0 30:0 31:0 32:0 
0.16453199093738191 0:0 1:0 2:0 3:1 4:1 5:0 6:0 7:1 8:36 9:0 10:1 11:0 12:0 13:0 14:1 15:1 16:0 17:0 18:0 19:0 20:1 21:0 22:0 23:255 24:165 25:0.65 26:0.02 27:0.65 28:0 29:0 30:0 31:0 32:0 
0.099425588008418345 0:0 1:0 2:0 3:1 4:1 5:0 6:0 7:1 8:10008 9:0 10:1 11:0 12:0 13:0 14:3 15:3 16:0 17:0 18:0 19:0 20:1 21:0 22:0 23:255 24:36 25:0.14 26:0.02 27:0.22 28:0 29:0 30:0 31:0 32:0 
0.094840286018900197 0:0 1:0 2:0 3:1 4:0 5:1 6:0 7:1 8:6408 9:0 10:1 11:0 12:0 13:0 14:3 15:3 16:0 17:0 18:0 19:0 20:1 21:0 22:0 23:172 24:24 25:0.14 26:0.05 27:0.22 28:0 29:0 30:0 31:0 32:0 
0.18906742914487779 0:0 1:0 2:0 3:1 4:0 5:1 6:0 7:1 8:20008 9:0 10:1 11:0 12:0 13:0 14:3 15:3 16:0 17:0 18:0 19:0 20:1 21:0 22:0 23:192 24:44 25:0.23 26:0.05 27:0.3 28:0 29:0 30:0 31:0 32:0 
0.0047854937576131441 0:0 1:0 2:0 3:1 4:0 5:1 6:0 7:1 8:30 9:0 10:1 11:0 12:0 13:0 14:1 15:1 16:0 17:0 18:0 19:0 20:1 21:0 22:0 23:101 24:101 25:1 26:0 27:1 28:0 29:0 30:0 31:0 32:0 
0.096150099651287471 0:0 1:0 2:0 3:1 4:1 5:0 6:0 7:1 8:10008 9:0 10:1 11:0 12:0 13:0 14:2 15:2 16:0 17:0 18:0 19:0 20:1 21:0 22:0 23:255 24:28 25:0.11 26:0.02 27:0.19 28:0 29:0 30:0 31:0 32:0 
0.049960999361015668 0:0 1:0 2:0 3:1 4:1 5:0 6:0 7:1 8:36 9:0 10:1 11:0 12:0 13:0 14:1 15:1 16:0 17:0 18:0 19:0 20:1 21:0 22:0 23:255 24:85 25:0.33 26:0.02 27:0.33 28:0 29:0 30:0 31:0 32:0 
0.0025348088408498736 0:0 1:0 2:0 3:1 4:0 5:1 6:0 7:1 8:30 9:0 10:1 11:0 12:0 13:0 14:1 15:1 16:0 17:0 18:0 19:0 20:1 21:0 22:0 23:30 24:30 25:1 26:0 27:1 28:0 29:0 30:0 31:0 32:0 
0.13528535481323062 0:0 1:0 2:0 3:1 4:1 5:0 6:0 7:1 8:36 9:0 10:1 11:0 12:0 13:0 14:1 15:1 16:0 17:0 18:0 19:0 20:1 21:0 22:0 23:255 24:122 25:0.48 26:0.03 27:0.48 28:0 29:0 30:0 31:0 32:0 
0.055769256055348118 0:0 1:0 2:0 3:1 4:0 5:1 6:0 7:1 8:30 9:0 10:1 11:0 12:0 13:0 14:1 15:1 16:0 17:0 18:0 19:0 20:1 21:0 22:0 23:123 24:123 25:1 26:0 27:1 28:0 29:0 30:0 31:0 32:0 
0.1604272740207151 0:0 1:0 2:0 3:1 4:1 5:0 6:0 7:1 8:40008 9:0 10:1 11:0 12:0 13:0 14:3 15:3 16:0 17:0 18:0 19:0 20:1 21:0 22:0 23:176 24:145 25:0.38 26:0.03 27:0.38 28:0.28 29:0 30:0 31:0.02 32:0 
0.0053015363772174109 0:0 1:0 2:0 3:1 4:0 5:1 6:0 7:1 8:40008 9:0 10:1 11:0 12:0 13:0 14:3 15:3 16:0 17:0 18:0 19:0 20:1 21:0 22:0 23:68 24:68 25:1 26:0 27:1 28:0 29:0 30:0 31:0 32:0 
0.11481245648884732 0:0 1:0 2:0 3:1 4:0 5:1 6:0 7:1 8:40008 9:0 10:1 11:0 12:0 13:0 14:3 15:3 16:0 17:0 18:0 19:0 20:1 21:0 22:0 23:77 24:77 25:1 26:0 27:1 28:0 29:0 30:0 31:0 32:0 
0.0019655750301900924 0:0 1:0 2:0 3:1 4:1 5:0 6:0 7:1 8:36 9:0 10:1 11:0 12:0 13:0 14:1 15:1 16:0 17:0 18:0 19:0 20:1 21:0 22:0 23:255 24:64 25:0.25 26:0.04 27:0.25 28:0 29:0.01 30:0 31:0 32:0 
0.060132935810972517 0:0 1:0 2:0 3:1 4:1 5:0 6:0 7:1 8:40008 9:0 10:1 11:0 12:0 13:0 14:3 15:3 16:0 17:0 18:0 19:0 20:1 21:0 22:0 23:146 24:145 25:0.25 26:0.03 27:0.25 28:0.39 29:0 30:0 31:0.02 32:0 
0.097411268812503699 0:0 1:0 2:0 3:1 4:0 5:1 6:0 7:1 8:6408 9:0 10:1 11:0 12:0 13:0 14:3 15:3 16:0 17:0 18:0 19:0 20:1 21:0 22:0 23:168 24:20 25:0.12 26:0.05 27:0.2 28:0 29:0 30:0 31:0 32:0 
0.18761738517078025 0:0 1:0 2:0 3:1 4:0 5:1 6:0 7:1 8:40008 9:0 10:1 11:0 12:0 13:0 14:1 15:1 16:0 17:0 18:0 19:0 20:1 21:0 22:0 23:1 24:1 25:1 26:0 27:1 28:0 29:0 30:0 31:0 32:0 
0.01395923921410637 0:0 1:0 2:0 3:1 4:0 5:1 6:0 7:1 8:520 9:0 10:1 11:0 12:0 13:0 14:139 15:139 16:0 17:0 18:0 19:0 20:1 21:0 22:0 23:255 24:255 25:1 26:0 27:1 28:0 29:0 30:0 31:0 32:0 
0.018507116795254755 0:0 1:0 2:0 3:1 4:0 5:1 6:0 7:1 8:520 9:0 10:1 11:0 12:0 13:0 14:261 15:261 16:0 17:0 18:0 19:0 20:1 21:0 22:0 23:255 24:255 25:1 26:0 27:1 28:0 29:0 30:0 31:0 32:0 
0.013978990652939045 0:0 1:0 2:0 3:1 4:0 5:1 6:0 7:1 8:520 9:0 10:1 11:0 12:0 13:0 14:127 15:127 16:0 17:0 18:0 19:0 20:1 21:0 22:0 23:255 24:255 25:1 26:0 27:1 28:0 29:0 30:0 31:0 32:0 
0.12746777265605777 0:0 1:0 2:0 3:1 4:0 5:1 6:0 7:1 8:1032 9:0 10:1 11:0 12:0 13:0 14:305 15:305 16:0 17:0 18:0 19:0 20:1 21:0 22:0 23:147 24:53 25:0.36 26:0.05 27:0.36 28:0 29:0.01 30:0 31:0.43 32:0 
0.15402619341238738 0:0 1:0 2:0 3:1 4:0 5:1 6:0 7:1 8:1032 9:0 10:1 11:0 12:0 13:0 14:187 15:187 16:0 17:0 18:0 19:0 20:1 21:0 22:0 23:222 24:128 25:0.58 26:0.03 27:0.58 28:0 29:0.01 30:0 31:0.28 32:0 
0.0094627415827290215 0:0 1:0 2:0 3:1 4:0 5:1 6:0 7:1 8:1032 9:0 10:1 11:0 12:0 13:0 14:178 15:178 16:0 17:0 18:0 19:0 20:1 21:0 22:0 23:255 24:178 25:0.7 26:0.01 27:0.7 28:0 29:0 30:0 31:0 32:0 
0.0089354927538757897 0:0 1:0 2:0 3:1 4:0 5:1 6:0 7:1 8:520 9:0 10:1 11:0 12:0 13:0 14:187 15:187 16:0 17:0 18:0 19:0 20:1 21:0 22:0 23:255 24:255 25:1 26:0 27:1 28:0 29:0 30:0 31:0 32:0 
0.0099577966677457091 0:0 1:0 2:0 3:1 4:0 5:1 6:0 7:1 8:1032 9:0 10:1 11:0 12:0 13:0 14:22 15:22 16:0 17:0 18:0 19:0 20:1 21:0 22:0 23:255 24:22 25:0.09 26:0.02 27:0.09 28:0 29:0 30:0 31:0 32:0 
0.0028465656817286329 0:0 1:0 2:0 3:1 4:0 5:1 6:0 7:1 8:1032 9:0 10:1 11:0 12:0 13:0 14:88 15:88 16:0 17:0 18:0 19:0 20:1 21:0 22:0 23:255 24:88 25:0.35 26:0.02 27:0.35 28:0 29:0 30:0 31:0 32:0 
0.010401167597961196 0:0 1:0 2:0 3:1 4:0 5:1 6:0 7:1 8:1032 9:0 10:1 11:0 12:0 13:0 14:154 15:154 16:0 17:0 18:0 19:0 20:1 21:0 22:0 23:255 24:154 25:0.6 26:0.01 27:0.6 28:0 29:0 30:0 31:0 32:0 
0.010034447302386153 0:0 1:0 2:0 3:1 4:0 5:1 6:0 7:1 8:1032 9:0 10:1 11:0 12:0 13:0 14:47 15:47 16:0 17:0 18:0 19:0 20:1 21:0 22:0 23:240 24:146 25:0.61 26:0.03 27:0.61 28:0 29:0.01 30:0 31:0.26 32:0 
0.083794084720659759 0:0 1:0 2:0 3:1 4:0 5:1 6:0 7:1 8:1032 9:0 10:1 11:0 12:0 13:0 14:1 15:1 16:0 17:0 18:0 19:0 20:1 21:0 22:0 23:255 24:255 25:1 26:0 27:1 28:0 29:0 30:0 31:0 32:0 
0.18283971132747812 0:0 1:0 2:0 3:1 4:0 5:1 6:0 7:1 8:1032 9:0 10:1 11:0 12:0 13:0 14:318 15:318 16:0 17:0 18:0 19:0 20:1 21:0 22:0 23:221 24:76 25:0.34 26:0.01 27:0.34 28:0 29:0 30:0 31:0 32:0 
0.10264681555954119 0:0 1:0 2:0 3:1 4:0 5:1 6:0 7:1 8:1032 9:0 10:1 11:0 12:0 13:0 14:184 15:184 16:0 17:0 18:0 19:0 20:1 21:0 22:0 23:101 24:7 25:0.07 26:0.07 27:0.07 28:0 29:0.02 30:0 31:0.62 32:0 
0.010402232529313224 0:0 1:0 2:0 3:1 4:0 5:1 6:0 7:1 8:520 9:0 10:1 11:0 12:0 13:0 14:129 15:129 16:0 17:0 18:0 19:0 20:1 21:0 22:0 23:255 24:255 25:1 26:0 27:1 28:0 29:0 30:0 31:0 32:0 
0.11825907293220649 0:0 1:0 2:0 3:1 4:0 5:1 6:0 7:1 8:1032 9:0 10:1 11:0 12:0 13:0 14:270 15:270 16:0 17:0 18:0 19:0 20:1 21:0 22:0 23:123 24:29 25:0.24 26:0.06 27:0.24 28:0 29:0.02 30:0 31:0.51 32:0 
0.021140351089969332 0:0 1:0 2:0 3:1 4:0 5:1 6:0 7:1 8:1032 9:0 10:1 11:0 12:0 13:0 14:43 15:43 16:0 17:0 18:0 19:0 20:1 21:0 22:0 23:255 24:43 25:0.17 26:0.02 27:0.17 28:0 29:0 30:0 31:0 32:0 
0.13181791531617956 0:0 1:0 2:0 3:1 4:0 5:1 6:0 7:1 8:520 9:0 10:1 11:0 12:0 13:0 14:326 15:326 16:0 17:0 18:0 19:0 20:1 21:0 22:0 23:255 24:255 25:1 26:0 27:1 28:0 29:0 30:0 31:0 32:0 
0.0010986304433526003 0:0 1:0 2:0 3:1 4:0 5:1 6:0 7:1 8:1032 9:0 10:1 11:0 12:0 13:0 14:200 15:200 16:0 17:0 18:0 19:0 20:1 21:0 22:0 23:255 24:255 25:1 26:0 27:1 28:0 29:0 30:0 31:0 32:0 
0.15622776826648416 0:0 1:0 2:0 3:1 4:0 5:1 6:0 7:1 8:1032 9:0 10:1 11:0 12:0 13:0 14:98 15:98 16:0 17:0 18:0 19:0 20:1 21:0 22:0 23:152 24:58 25:0.38 26:0.05 27:0.38 28:0 29:0.01 30:0 31:0.41 32:0 
0.043987511962831551 0:0 1:0 2:0 3:1 4:0 5:1 6:0 7:1 8:1032 9:0 10:1 11:0 12:0 13:0 14:221 15:221 16:0 17:0 18:0 19:0 20:1 21:0 22:0 23:218 24:124 25:0.57 26:0.03 27:0.57 28:0 29:0.01 30:0 31:0.29 32:0 
0.040859090611614496 0:0 1:0 2:0 3:1 4:0 5:1 6:0 7:1 8:520 9:0 10:1 11:0 12:0 13:0 14:180 15:180 16:0 17:0 18:0 19:0 20:1 21:0 22:0 23:255 24:255 25:1 26:0 27:1 28:0 29:0 30:0 31:0 32:0 
0.031076897125338294 0:0 1:0 2:0 3:1 4:0 5:1 6:0 7:1 8:1032 9:0 10:1 11:0 12:0 13:0 14:277 15:277 16:0 17:0 18:0 19:0 20:1 21:0 22:0 23:255 24:255 25:1 26:0 27:1 28:0 29:0 30:0 31:0 32:0 
0.12724883538169113 0:0 1:0 2:0 3:1 4:0 5:1 6:0 7:1 8:1032 9:0 10:1 11:0 12:0 13:0 14:301 15:301 16:0 17:0 18:0 19:0 20:1 21:0 22:0 23:169 24:75 25:0.44 26:0.04 27:0.44 28:0 29:0.01 30:0 31:0.37 32:0 
0.0030190438163009139 0:0 1:0 2:0 3:1 4:0 5:1 6:0 7:1 8:1032 9:0 10:1 11:0 12:0 13:0 14:54 15:54 16:0 17:0 18:0 19:0 20:1 21:0 22:0 23:255 24:255 25:1 26:0 27:1 28:0 29:0 30:0 31:0 32:0 
0.0025639001539993767 0:0 1:0 2:0 3:1 4:0 5:1 6:0 7:1 8:1032 9:0 10:1 11:0 12:0 13:0 14:175 15:175 16:0 17:0 18:0 19:0 20:1 21:0 22:0 23:255 24:175 25:0.69 26:0.01 27:0.69 28:0 29:0 30:0 31:0 32:0 
0.0028650719653973184 0:0 1:0 2:0 3:1 4:0 5:1 6:0 7:1 8:1032 9:0 10:1 11:0 12:0 13:0 14:65 15:65 16:0 17:0 18:0 19:0 20:1 21:0 22:0 23:255 24:65 25:0.25 26:0.02 27:0.25 28:0 29:0 30:0 31:0 32:0 
0.056463316305037155 0:0 1:0 2:0 3:1 4:0 5:1 6:0 7:1 8:1032 9:0 10:1 11:0 12:0 13:0 14:231 15:231 16:0 17:0 18:0 19:0 20:1 21:0 22:0 23:255 24:2 25:0.01 26:0.26 27:0.01 28:0 29:0 30:0 31:0 32:0 
0.049393509969823828 0:0 1:0 2:0 3:1 4:0 5:1 6:0 7:1 8:1032 9:0 10:1 11:0 12:0 13:0 14:218 15:218 16:0 17:0 18:0 19:0 20:1 21:0 22:0 23:215 24:121 25:0.56 26:0.03 27:0.56 28:0 29:0.01 30:0 31:0.29 32:0 
0.0050891938101202136 0:0 1:0 2:0 3:1 4:0 5:1 6:0 7:1 8:1032 9:0 10:1 11:0 12:0 13:0 14:180 15:180 16:0 17:0 18:0 19:0 20:1 21:0 22:0 23:255 24:180 25:0.71 26:0.01 27:0.71 28:0 29:0 30:0 31:0 32:0 
0.10993867531634546 0:0 1:0 2:0 3:1 4:0 5:1 6:0 7:1 8:1032 9:0 10:1 11:0 12:0 13:0 14:52 15:52 16:0 17:0 18:0 19:0 20:1 21:0 22:0 23:170 24:76 25:0.45 26:0.04 27:0.45 28:0 29:0.01 30:0 31:0.37 32:0 
0.022226685090301498 0:0 1:0 2:0 3:1 4:0 5:1 6:0 7:1 8:1032 9:0 10:1 11:0 12:0 13:0 14:296 15:296 16:0 17:0 18:0 19:0 20:1 21:0 22:0 23:255 24:255 25:1 26:0 27:1 28:0 29:0 30:0 31:0 32:0 
0.1171744216161998 0:0 1:0 2:0 3:1 4:0 5:1 6:0 7:1 8:1032 9:0 10:1 11:0 12:0 13:0 14:4 15:4 16:0 17:0 18:0 19:0 20:1 21:0 22:0 23:255 24:217 25:0.85 26:0.01 27:0.85 28:0 29:0 30:0 31:0 32:0 
0.16535598620906902 0:0 1:0 2:0 3:1 4:0 5:1 6:0 7:1 8:520 9:0 10:1 11:0 12:0 13:0 14:1 15:1 16:0 17:0 18:0 19:0 20:1 21:0 22:0 23:1 24:1 25:1 26:0 27:1 28:0 29:0 30:0 31:0 32:0 
0.082390663665298361 0:0 1:0 2:0 3:1 4:0 5:1 6:0 7:1 8:1032 9:0 10:1 11:0 12:0 13:0 14:327 15:327 16:0 17:0 18:0 19:0 20:1 21:0 22:0 23:255 24:255 25:1 26:0 27:1 28:0 29:0 30:0 31:0 32:0 
0.12613804863246819 0:0 1:0 2:0 3:1 4:0 5:1 6:0 7:1 8:1032 9:0 10:1 11:0 12:0 13:0 14:109 15:109 16:0 17:0 18:0 19:0 20:1 21:0 22:0 23:255 24:161 25:0.63 26:0.03 27:0.63 28:0 29:0.01 30:0 31:0.25 32:0 
0.0069141396592252713 0:0 1:0 2:0 3:1 4:0 5:1 6:0 7:1 8:520 9:0 10:1 11:0 12:0 13:0 14:71 15:71 16:0 17:0 18:0 19:0 20:1 21:0 22:0 23:255 24:255 25:1 26:0 27:1 28:0 29:0 30:0 31:0 32:0 
0.12709597035454084 0:0 1:0 2:0 3:1 4:0 5:1 6:0 7:1 8:1032 9:0 10:1 11:0 12:0 13:0 14:264 15:264 16:0 17:0 18:0 19:0 20:1 21:0 22:0 23:106 24:12 25:0.11 26:0.07 27:0.11 28:0 29:0.02 30:0 31:0.59 32:0 
0.042677880600534145 0:0 1:0 2:0 3:1 4:0 5:1 6:0 7:1 8:1032 9:0 10:1 11:0 12:0 13:0 14:44 15:44 16:0 17:0 18:0 19:0 20:1 21:0 22:0 23:255 24:44 25:0.17 26:0.02 27:0.17 28:0 29:0 30:0 31:0 32:0 
0.036856498693085445 0:0 1:0 2:0 3:1 4:0 5:1 6:0 7:1 8:520 9:0 10:1 11:0 12:0 13:0 14:211 15:211 16:0 17:0 18:0 19:0 20:1 21:0 22:0 23:255 24:255 25:1 26:0 27:1 28:0 29:0 30:0 31:0 32:0 
0.18826416196976714 0:0 1:0 2:0 3:1 4:0 5:1 6:0 7:1 8:1032 9:0 10:1 11:0 12:0 13:0 14:1 15:1 16:0 17:0 18:0 19:0 20:1 21:0 22:0 23:146 24:1 25:0.01 26:0.02 27:0.01 28:0 29:0 30:0 31:0 32:0 
0.052081731314260471 0:0 1:0 2:0 3:1 4:0 5:1 6:0 7:1 8:1032 9:0 10:1 11:0 12:0 13:0 14:217 15:217 16:0 17:0 18:0 19:0 20:1 21:0 22:0 23:255 24:255 25:1 26:0 27:1 28:0 29:0 30:0 31:0 32:0 
0.008242472705212521 0:0 1:0 2:0 3:1 4:0 5:1 6:0 7:1 8:1032 9:0 10:1 11:0 12:0 13:0 14:40 15:40 16:0 17:0 18:0 19:0 20:1 21:0 22:0 23:255 24:40 25:0.16 26:0.02 27:0.16 28:0 29:0 30:0 31:0 32:0 
0.0040736911003199476 0:0 1:0 2:0 3:1 4:0 5:1 6:0 7:1 8:1032 9:0 10:1 11:0 12:0 13:0 14:90 15:90 16:0 17:0 18:0 19:0 20:1 21:0 22:0 23:255 24:90 25:0.35 26:0.02 27:0.35 28:0 29:0 30:0 31:0 32:0 
0.01581936055032214 0:0 1:0 2:0 3:1 4:0 5:1 6:0 7:1 8:1032 9:0 10:1 11:0 12:0 13:0 14:68 15:68 16:0 17:0 18:0 19:0 20:1 21:0 22:0 23:255 24:68 25:0.27 26:0.02 27:0.27 28:0 29:0 30:0 31:0 32:0 
0.010319680905364328 0:0 1:0 2:0 3:1 4:0 5:1 6:0 7:1 8:1032 9:0 10:1 11:0 12:0 13:0 14:249 15:249 16:0 17:0 18:0 19:0 20:1 21:0 22:0 23:255 24:255 25:1 26:0 27:1 28:0 29:0 30:0 31:0 32:0 
0.0506779839946205 0:0 1:0 2:0 3:1 4:0 5:1 6:0 7:1 8:1032 9:0 10:1 11:0 12:0 13:0 14:198 15:198 16:0 17:0 18:0 19:0 20:1 21:0 22:0 23:255 24:255 25:1 26:0 27:1 28:0 29:0 30:0 31:0 32:0 
0.0061588928556068484 0:0 1:0 2:0 3:1 4:0 5:1 6:0 7:1 8:1032 9:0 10:1 11:0 12:0 13:0 14:63 15:63 16:0 17:0 18:0 19:0 20:1 21:0 22:0 23:255 24:255 25:1 26:0 27:1 28:0 29:0 30:0 31:0 32:0 
0.15906875505304618 0:0 1:0 2:0 3:1 4:0 5:1 6:0 7:1 8:1032 9:0 10:1 11:0 12:0 13:0 14:159 15:159 16:0 17:0 18:0 19:0 20:1 21:0 22:0 23:145 24:51 25:0.35 26:0.05 27:0.35 28:0 29:0.01 30:0 31:0.43 32:0 
0.030382659395790011 0:0 1:0 2:0 3:1 4:0 5:1 6:0 7:1 8:1032 9:0 10:1 11:0 12:0 13:0 14:237 15:237 16:0 17:0 18:0 19:0 20:1 21:0 22:0 23:255 24:255 25:1 26:0 27:1 28:0 29:0 30:0 31:0 32:0 
0.011912285284527275 0:0 1:0 2:0 3:1 4:0 5:1 6:0 7:1 8:1032 9:0 10:1 11:0 12:0 13:0 14:68 15:68 16:0 17:0 18:0 19:0 20:1 21:0 22:0 23:255 24:255 25:1 26:0 27:1 28:0 29:0 30:0 31:0 32:0 
0.0063397163355614333 0:0 1:0 2:0 3:1 4:0 5:1 6:0 7:1 8:1032 9:0 10:1 11:0 12:0 13:0 14:273 15:273 16:0 17:0 18:0 19:0 20:1 21:0 22:0 23:255 24:255 25:1 26:0 27:1 28:0 29:0 30:0 31:0 32:0 
0.0086678011446311917 0:0 1:0 2:0 3:1 4:0 5:1 6:0 7:1 8:1032 9:0 10:1 11:0 12:0 13:0 14:288 15:288 16:0 17:0 18:0 19:0 20:1 21:0 22:0 23:255 24:255 25:1 26:0 27:1 28:0 29:0 30:0 31:0 32:0 
0.14347097943566539 0:0 1:0 2:0 3:1 4:0 5:1 6:0 7:1 8:520 9:0 10:1 11:0 12:0 13:0 14:3 15:3 16:0 17:0 18:0 19:0 20:1 21:0 22:0 23:255 24:255 25:1 26:0 27:1 28:0 29:0 30:0 31:0 32:0 
0.0081340122181518502 0:0 1:0 2:0 3:1 4:0 5:1 6:0 7:1 8:1032 9:0 10:1 11:0 12:0 13:0 14:242 15:242 16:0 17:0 18:0 19:0 20:1 21:0 22:0 23:255 24:255 25:1 26:0 27:1 28:0 29:0 30:0 31:0 32:0 
0.010357597885825395 0:0 1:0 2:0 3:1 4:0 5:1 6:0 7:1 8:520 9:0 10:1 11:0 12:0 13:0 14:182 15:182 16:0 17:0 18:0 19:0 20:1 21:0 22:0 23:255 24:255 25:1 26:0 27:1 28:0 29:0 30:0 31:0 32:0 
0.0075542214391093356 0:0 1:0 2:0 3:1 4:0 5:1 6:0 7:1 8:1032 9:0 10:1 11:0 12:0 13:0 14:64 15:64 16:0 17:0 18:0 19:0 20:1 21:0 22:0 23:255 24:64 25:0.25 26:0.02 27:0.25 28:0 29:0 30:0 31:0 32:0 
0.0059297237978020835 0:0 1:0 2:0 3:1 4:0 5:1 6:0 7:1 8:1032 9:0 10:1 11:0 12:0 13:0 14:250 15:250 16:0 17:0 18:0 19:0 20:1 21:0 22:0 23:255 24:255 25:1 26:0 27:1 28:0 29:0 30:0 31:0 32:0 
0.12243451101923331 0:0 1:0 2:0 3:1 4:0 5:1 6:0 7:1 8:1032 9:0 10:1 11:0 12:0 13:0 14:67 15:67 16:0 17:0 18:0 19:0 20:1 21:0 22:0 23:179 24:85 25:0.47 26:0.04 27:0.47 28:0 29:0.01 30:0 31:0.35 32:0 
0.1089473025759012 0:0 1:0 2:0 3:1 4:0 5:1 6:0 7:1 8:1032 9:0 10:1 11:0 12:0 13:0 14:231 15:231 16:0 17:0 18:0 19:0 20:1 21:0 22:0 23:207 24:113 25:0.55 26:0.03 27:0.55 28:0 29:0.01 30:0 31:0.3 32:0 
0.15446970299584492 0:0 1:0 2:0 3:1 4:0 5:1 6:0 7:1 8:1032 9:0 10:1 11:0 12:0 13:0 14:45 15:45 16:0 17:0 18:0 19:0 20:1 21:0 22:0 23:238 24:144 25:0.61 26:0.03 27:0.61 28:0 29:0.01 30:0 31:0.26 32:0 
0.082489318369708076 0:0 1:0 2:0 3:1 4:0 5:1 6:0 7:1 8:520 9:0 10:1 11:0 12:0 13:0 14:85 15:85 16:0 17:0 18:0 19:0 20:1 21:0 22:0 23:255 24:255 25:1 26:0 27:1 28:0 29:0 30:0 31:0 32:0 
0.0072310197406552984 0:0 1:0 2:0 3:1 4:0 5:1 6:0 7:1 8:520 9:0 10:1 11:0 12:0 13:0 14:74 15:74 16:0 17:0 18:0 19:0 20:1 21:0 22:0 23:255 24:255 25:1 26:0 27:1 28:0 29:0 30:0 31:0 32:0 
0.047099068792092996 0:0 1:0 2:0 3:1 4:0 5:1 6:0 7:1 8:1032 9:0 10:1 11:0 12:0 13:0 14:117 15:117 16:0 17:0 18:0 19:0 20:1 21:0 22:0 23:255 24:117 25:0.46 26:0.02 27:0.46 28:0 29:0 30:0 31:0 32:0 
0.035464947837176491 0:0 1:0 2:0 3:1 4:0 5:1 6:0 7:1 8:1032 9:0 10:1 11:0 12:0 13:0 14:21 15:21 16:0 17:0 18:0 19:0 20:1 21:0 22:0 23:255 24:21 25:0.08 26:0.02 27:0.08 28:0 29:0 30:0 31:0 32:0 
0.016067820413167108 0:0 1:0 2:0 3:1 4:0 5:1 6:0 7:1 8:1032 9:0 10:1 11:0 12:0 13:0 14:298 15:298 16:0 17:0 18:0 19:0 20:1 21:0 22:0 23:255 24:255 25:1 26:0 27:1 28:0 29:0 30:0 31:0 32:0 
0.17857767020407425 0:0 1:0 2:0 3:1 4:0 5:1 6:0 7:1 8:1032 9:0 10:1 11:0 12:0 13:0 14:199 15:199 16:0 17:0 18:0 19:0 20:1 21:0 22:0 23:255 24:2 25:0.01 26:0.18 27:0.01 28:0 29:0 30:0 31:0 32:0 
0.13594596631128691 0:0 1:0 2:0 3:1 4:0 5:1 6:0 7:1 8:1032 9:0 10:1 11:0 12:0 13:0 14:116 15:116 16:0 17:0 18:0 19:0 20:1 21:0 22:0 23:124 24:30 25:0.24 26:0.06 27:0.24 28:0 29:0.02 30:0 31:0.51 32:0 
0.0036289565605467518 0:0 1:0 2:0 3:1 4:0 5:1 6:0 7:1 8:520 9:0 10:1 11:0 12:0 13:0 14:198 15:198 16:0 17:0 18:0 19:0 20:1 21:0 22:0 23:255 24:255 25:1 26:0 27:1 28:0 29:0 30:0 31:0 32:0 
0.14122790193644125 0:0 1:0 2:0 3:1 4:0 5:1 6:0 7:1 8:1032 9:0 10:1 11:0 12:0 13:0 14:229 15:229 16:0 17:0 18:0 19:0 20:1 21:0 22:0 23:255 24:210 25:0.82 26:0.02 27:0.82 28:0 29:0 30:0 31:0.12 32:0 
0.0024535636495397043 0:0 1:0 2:0 3:1 4:0 5:1 6:0 7:1 8:520 9:0 10:1 11:0 12:0 13:0 14:254 15:254 16:0 17:0 18:0 19:0 20:1 21:0 22:0 23:255 24:255 25:1 26:0 27:1 28:0 29:0 30:0 31:0 32:0 
0.037341957622967811 0:0 1:0 2:0 3:1 4:0 5:1 6:0 7:1 8:1032 9:0 10:1 11:0 12:0 13:0 14:125 15:125 16:0 17:0 18:0 19:0 20:1 21:0 22:0 23:255 24:211 25:0.83 26:0.02 27:0.83 28:0 29:0 30:0 31:0.12 32:0 
0.0026940796827574914 0:0 1:0 2:0 3:1 4:0 5:1 6:0 7:1 8:1032 9:0 10:1 11:0 12:0 13:0 14:152 15:152 16:0 17:0 18:0 19:0 20:1 21:0 22:0 23:255 24:152 25:0.6 26:0.01 27:0.6 28:0 29:0 30:0 31:0 32:0 
0.0047598703584482288 0:0 1:0 2:0 3:1 4:0 5:1 6:0 7:1 8:1032 9:0 10:1 11:0 12:0 13:0 14:177 15:177 16:0 17:0 18:0 19:0 20:1 21:0 22:0 23:255 24:177 25:0.69 26:0.01 27:0.69 28:0 29:0 30:0 31:0 32:0 
0.0048771563523020752 0:0 1:0 2:0 3:1 4:0 5:1 6:0 7:1 8:520 9:0 10:1 11:0 12:0 13:0 14:165 15:165 16:0 17:0 18:0 19:0 20:1 21:0 22:0 23:255 24:255 25:1 26:0 27:1 28:0 29:0 30:0 31:0 32:0 
0.02273828861915729 0:0 1:0 2:0 3:1 4:0 5:1 6:0 7:1 8:520 9:0 10:1 11:0 12:0 13:0 14:263 15:263 16:0 17:0 18:0 19:0 20:1 21:0 22:0 23:255 24:255 25:1 26:0 27:1 28:0 29:0 30:0 31:0 32:0 
0.073212308452553665 0:0 1:0 2:0 3:1 4:0 5:1 6:0 7:1 8:1032 9:0 10:1 11:0 12:0 13:0 14:188 15:188 16:0 17:0 18:0 19:0 20:1 21:0 22:0 23:255 24:188 25:0.74 26:0.01 27:0.74 28:0 29:0 30:0 31:0 32:0 
0.18185059430237666 0:0 1:0 2:0 3:1 4:0 5:1 6:0 7:1 8:1032 9:0 10:1 11:0 12:0 13:0 14:151 15:151 16:0 17:0 18:0 19:0 20:1 21:0 22:0 23:185 24:91 25:0.49 26:0.04 27:0.49 28:0 29:0.01 30:0 31:0.34 32:0 
0.14382093703878679 0:0 1:0 2:0 3:1 4:0 5:1 6:0 7:1 8:1032 9:0 10:1 11:0 12:0 13:0 14:2 15:2 16:0 17:0 18:0 19:0 20:1 21:0 22:0 23:219 24:74 25:0.34 26:0.01 27:0.34 28:0 29:0 30:0 31:0 32:0 
0.0657389635126195 0:0 1:0 2:0 3:1 4:0 5:1 6:0 7:1 8:1032 9:0 10:1 11:0 12:0 13:0 14:295 15:295 16:0 17:0 18:0 19:0 20:1 21:0 22:0 23:255 24:227 25:0.89 26:0.02 27:0.89 28:0 29:0 30:0 31:0.06 32:0 
0.0097314539748008886 0:0 1:0 2:0 3:1 4:0 5:1 6:0 7:1 8:1032 9:0 10:1 11:0 12:0 13:0 14:200 15:200 16:0 17:0 18:0 19:0 20:1 21:0 22:0 23:255 24:200 25:0.78 26:0.01 27:0.78 28:0 29:0 30:0 31:0 32:0 
0.003041404839276072 0:0 1:0 2:0 3:1 4:0 5:1 6:0 7:1 8:520 9:0 10:1 11:0 12:0 13:0 14:194 15:194 16:0 17:0 18:0 19:0 20:1 21:0 22:0 23:255 24:255 25:1 26:0 27:1 28:0 29:0 30:0 31:0 32:0 
0.03868739053731747 0:0 1:0 2:0 3:1 4:0 5:1 6:0 7:1 8:520 9:0 10:1 11:0 12:0 13:0 14:140 15:140 16:0 17:0 18:0 19:0 20:1 21:0 22:0 23:255 24:255 25:1 26:0 27:1 28:0 29:0 30:0 31:0 32:0 
0.031748960712670742 0:0 1:0 2:0 3:1 4:0 5:1 6:0 7:1 8:520 9:0 10:1 11:0 12:0 13:0 14:272 15:272 16:0 17:0 18:0 19:0 20:1 21:0 22:0 23:255 24:255 25:1 26:0 27:1 28:0 29:0 30:0 31:0 32:0 
0.14412925444734842 0:0 1:0 2:0 3:1 4:0 5:1 6:0 7:1 8:1032 9:0 10:1 11:0 12:0 13:0 14:2 15:2 16:0 17:0 18:0 19:0 20:1 21:0 22:0 23:255 24:77 25:0.3 26:0.04 27:0.3 28:0 29:0.12 30:0 31:0.02 32:0 
0.0084783101100632339 0:0 1:0 2:0 3:1 4:0 5:1 6:0 7:1 8:520 9:0 10:1 11:0 12:0 13:0 14:215 15:215 16:0 17:0 18:0 19:0 20:1 21:0 22:0 23:255 24:255 25:1 26:0 27:1 28:0 29:0 30:0 31:0 32:0 
0.047161998603684981 0:0 1:0 2:0 3:1 4:0 5:1 6:0 7:1 8:1032 9:0 10:1 11:0 12:0 13:0 14:40 15:40 16:0 17:0 18:0 19:0 20:1 21:0 22:0 23:255 24:255 25:1 26:0 27:1 28:0 29:0 30:0 31:0 32:0 
0.0022197419965150279 0:0 1:0 2:0 3:1 4:0 5:1 6:0 7:1 8:520 9:0 10:1 11:0 12:0 13:0 14:122 15:122 16:0 17:0 18:0 19:0 20:1 21:0 22:0 23:255 24:255 25:1 26:0 27:1 28:0 29:0 30:0 31:0 32:0 
0.065432055355153465 0:0 1:0 2:0 3:1 4:0 5:1 6:0 7:1 8:520 9:0 10:1 11:0 12:0 13:0 14:297 15:297 16:0 17:0 18:0 19:0 20:1 21:0 22:0 23:255 24:255 25:1 26:0 27:1 28:0 29:0 30:0 31:0 32:0 
0.0010480208330072172 0:0 1:0 2:0 3:1 4:0 5:1 6:0 7:1 8:1032 9:0 10:1 11:0 12:0 13:0 14:1 15:1 16:0 17:0 18:0 19:0 20:1 21:0 22:0 23:255 24:1 25:0 26:0.02 27:0 28:0 29:0 30:0 31:0 32:0 
0.16423567687996843 0:0 1:0 2:0 3:1 4:0 5:1 6:0 7:1 8:1032 9:0 10:1 11:0 12:0 13:0 14:1 15:1 16:0 17:0 18:0 19:0 20:1 21:0 22:0 23:255 24:1 25:0 26:0.26 27:0 28:0 29:0 30:0 31:0 32:0 
0.0074362316406623025 0:0 1:0 2:0 3:1 4:0 5:1 6:0 7:1 8:520 9:0 10:1 11:0 12:0 13:0 14:65 15:65 16:0 17:0 18:0 19:0 20:1 21:0 22:0 23:255 24:255 25:1 26:0 27:1 28:0 29:0 30:0 31:0 32:0 
0.013744902855116588 0:0 1:0 2:0 3:1 4:0 5:1 6:0 7:1 8:520 9:0 10:1 11:0 12:0 13:0 14:32 15:32 16:0 17:0 18:0 19:0 20:1 21:0 22:0 23:255 24:255 25:1 26:0 27:1 28:0 29:0 30:0 31:0 32:0 
0.0092055845262689479 0:0 1:0 2:0 3:1 4:0 5:1 6:0 7:1 8:1032 9:0 10:1 11:0 12:0 13:0 14:60 15:60 16:0 17:0 18:0 19:0 20:1 21:0 22:0 23:255 24:255 25:1 26:0 27:1 28:0 29:0 30:0 31:0 32:0 
0.0027462566560849111 0:0 1:0 2:0 3:1 4:0 5:1 6:0 7:1 8:520 9:0 10:1 11:0 12:0 13:0 14:33 15:33 16:0 17:0 18:0 19:0 20:1 21:0 22:0 23:255 24:255 25:1 26:0 27:1 28:0 29:0 30:0 31:0 32:0 
0.0028510618503722546 0:0 1:0 2:0 3:1 4:0 5:1 6:0 7:1 8:1032 9:0 10:1 11:0 12:0 13:0 14:244 15:244 16:0 17:0 18:0 19:0 20:1 21:0 22:0 23:255 24:244 25:0.96 26:0.01 27:0.96 28:0 29:0 30:0 31:0 32:0 
0.096060525156931448 0:0 1:0 2:0 3:1 4:0 5:1 6:0 7:1 8:1032 9:0 10:1 11:0 12:0 13:0 14:82 15:82 16:0 17:0 18:0 19:0 20:1 21:0 22:0 23:255 24:82 25:0.32 26:0.02 27:0.32 28:0 29:0 30:0 31:0 32:0 
0.0079612510286943688 0:0 1:0 2:0 3:1 4:0 5:1 6:0 7:1 8:1032 9:0 10:1 11:0 12:0 13:0 14:153 15:153 16:0 17:0 18:0 19:0 20:1 21:0 22:0 23:255 24:153 25:0.6 26:0.01 27:0.6 28:0 29:0 30:0 31:0 32:0 
0.026695920872654298 0:0 1:0 2:0 3:1 4:0 5:1 6:0 7:1 8:1032 9:0 10:1 11:0 12:0 13:0 14:203 15:203 16:0 17:0 18:0 19:0 20:1 21:0 22:0 23:255 24:203 25:0.8 26:0.01 27:0.8 28:0 29:0 30:0 31:0 32:0 
0.0042302422402597994 0:0 1:0 2:0 3:1 4:0 5:1 6:0 7:1 8:520 9:0 10:1 11:0 12:0 13:0 14:75 15:75 16:0 17:0 18:0 19:0 20:1 21:0 22:0 23:255 24:255 25:1 26:0 27:1 28:0 29:0 30:0 31:0 32:0 
0.020962254898542716 0:0 1:0 2:0 3:1 4:0 5:1 6:0 7:1 8:1032 9:0 10:1 11:0 12:0 13:0 14:143 15:143 16:0 17:0 18:0 19:0 20:1 21:0 22:0 23:255 24:226 25:0.89 26:0.02 27:0.89 28:0 29:0 30:0 31:0.06 32:0 
0.0019164007715441467 0:0 1:0 2:0 3:1 4:0 5:1 6:0 7:1 8:1032 9:0 10:1 11:0 12:0 13:0 14:42 15:42 16:0 17:0 18:0 19:0 20:1 21:0 22:0 23:255 24:42 25:0.16 26:0.02 27:0.16 28:0 29:0 30:0 31:0 32:0 
0.006494492033225727 0:0 1:0 2:0 3:1 4:0 5:1 6:0 7:1 8:1032 9:0 10:1 11:0 12:0 13:0 14:55 15:55 16:0 17:0 18:0 19:0 20:1 21:0 22:0 23:255 24:255 25:1 26:0 27:1 28:0 29:0 30:0 31:0 32:0 
0.0056274299773540889 0:0 1:0 2:0 3:1 4:0 5:1 6:0 7:1 8:520 9:0 10:1 11:0 12:0 13:0 14:265 15:265 16:0 17:0 18:0 19:0 20:1 21:0 22:0 23:255 24:255 25:1 26:0 27:1 28:0 29:0 30:0 31:0 32:0 
0.00085854819554356809 0:0 1:0 2:0 3:1 4:0 5:1 6:0 7:1 8:1032 9:0 10:1 11:0 12:0 13:0 14:155 15:155 16:0 17:0 18:0 19:0 20:1 21:0 22:0 23:255 24:155 25:0.61 26:0.01 27:0.61 28:0 29:0 30:0 31:0 32:0 
0.17747833640661193 0:0 1:0 2:0 3:1 4:0 5:1 6:0 7:1 8:1032 9:0 10:1 11:0 12:0 13:0 14:16 15:16 16:0 17:0 18:0 19:0 20:1 21:0 22:0 23:161 24:67 25:0.42 26:0.04 27:0.42 28:0 29:0.01 30:0 31:0.39 32:0 
0.0017829275216744637 0:0 1:0 2:0 3:1 4:0 5:1 6:0 7:1 8:520 9:0 10:1 11:0 12:0 13:0 14:131 15:131 16:0 17:0 18:0 19:0 20:1 21:0 22:0 23:255 24:255 25:1 26:0 27:1 28:0 29:0 30:0 31:0 32:0 
0.027234977153009148 0:0 1:0 2:0 3:1 4:0 5:1 6:0 7:1 8:1032 9:0 10:1 11:0 12:0 13:0 14:28 15:28 16:0 17:0 18:0 19:0 20:1 21:0 22:0 23:255 24:255 25:1 26:0 27:1 28:0 29:0 30:0 31:0 32:0 
0.0038319629481375797 0:0 1:0 2:0 3:1 4:0 5:1 6:0 7:1 8:520 9:0 10:1 11:0 12:0 13:0 14:166 15:166 16:0 17:0 18:0 19:0 20:1 21:0 22:0 23:255 24:255 25:1 26:0 27:1 28:0 29:0 30:0 31:0 32:0 
0.03421077033411625 0:0 1:0 2:0 3:1 4:0 5:1 6:0 7:1 8:520 9:0 10:1 11:0 12:0 13:0 14:258 15:258 16:0 17:0 18:0 19:0 20:1 21:0 22:0 23:255 24:255 25:1 26:0 27:1 28:0 29:0 30:0 31:0 32:0 
0.018258985882589271 0:0 1:0 2:0 3:1 4:0 5:1 6:0 7:1 8:1032 9:0 10:1 11:0 12:0 13:0 14:67 15:67 16:0 17:0 18:0 19:0 20:1 21:0 22:0 23:255 24:67 25:0.26 26:0.02 27:0.26 28:0 29:0 30:0 31:0 32:0 
0.0025164878354064437 0:0 1:0 2:0 3:1 4:0 5:1 6:0 7:1 8:520 9:0 10:1 11:0 12:0 13:0 14:169 15:169 16:0 17:0 18:0 19:0 20:1 21:0 22:0 23:255 24:255 25:1 26:0 27:1 28:0 29:0 30:0 31:0 32:0 
0.012263241091283753 0:0 1:0 2:0 3:1 4:0 5:1 6:0 7:1 8:520 9:0 10:1 11:0 12:0 13:0 14:67 15:67 16:0 17:0 18:0 19:0 20:1 21:0 22:0 23:255 24:255 25:1 26:0 27:1 28:0 29:0 30:0 31:0 32:0 
0.072073362340067199 0:0 1:0 2:0 3:1 4:0 5:1 6:0 7:1 8:1032 9:0 10:1 11:0 12:0 13:0 14:274 15:274 16:0 17:0 18:0 19:0 20:1 21:0 22:0 23:198 24:104 25:0.53 26:0.04 27:0.53 28:0 29:0.01 30:0 31:0.32 32:0 
0.010643332362856889 0:0 1:0 2:0 3:1 4:0 5:1 6:0 7:1 8:520 9:0 10:1 11:0 12:0 13:0 14:124 15:124 16:0 17:0 18:0 19:0 20:1 21:0 22:0 23:255 24:255 25:1 26:0 27:1 28:0 29:0 30:0 31:0 32:0 
0.0034255504173992747 0:0 1:0 2:0 3:1 4:0 5:1 6:0 7:1 8:1032 9:0 10:1 11:0 12:0 13:0 14:52 15:52 16:0 17:0 18:0 19:0 20:1 21:0 22:0 23:255 24:255 25:1 26:0 27:1 28:0 29:0 30:0 31:0 32:0 
0.0085538781074097625 0:0 1:0 2:0 3:1 4:0 5:1 6:0 7:1 8:1032 9:0 10:1 11:0 12:0 13:0 14:204 15:204 16:0 17:0 18:0 19:0 20:1 21:0 22:0 23:255 24:204 25:0.8 26:0.01 27:0.8 28:0 29:0 30:0 31:0 32:0 
0.0026334995987428861 0:0 1:0 2:0 3:1 4:0 5:1 6:0 7:1 8:520 9:0 10:1 11:0 12:0 13:0 14:225 15:225 16:0 17:0 18:0 19:0 20:1 21:0 22:0 23:255 24:255 25:1 26:0 27:1 28:0 29:0 30:0 31:0 32:0 
0.0031916002511582992 0:0 1:0 2:0 3:1 4:0 5:1 6:0 7:1 8:1032 9:0 10:1 11:0 12:0 13:0 14:66 15:66 16:0 17:0 18:0 19:0 20:1 21:0 22:0 23:255 24:66 25:0.26 26:0.02 27:0.26 28:0 29:0 30:0 31:0 32:0 
0.0032577887018738353 0:0 1:0 2:0 3:1 4:0 5:1 6:0 7:1 8:1032 9:0 10:1 11:0 12:0 13:0 14:168 15:168 16:0 17:0 18:0 19:0 20:1 21:0 22:0 23:255 24:168 25:0.66 26:0.01 27:0.66 28:0 29:0 30:0 31:0 32:0 
0.15687367804927754 0:0 1:0 2:0 3:1 4:0 5:1 6:0 7:1 8:1032 9:0 10:1 11:0 12:0 13:0 14:3 15:3 16:0 17:0 18:0 19:0 20:1 21:0 22:0 23:255 24:146 25:0.57 26:0.01 27:0.57 28:0 29:0 30:0 31:0 32:0 
0.0051328928799100372 0:0 1:0 2:0 3:1 4:0 5:1 6:0 7:1 8:520 9:0 10:1 11:0 12:0 13:0 14:223 15:223 16:0 17:0 18:0 19:0 20:1 21:0 22:0 23:255 24:255 25:1 26:0 27:1 28:0 29:0 30:0 31:0 32:0 
0.034237874282081679 0:0 1:0 2:0 3:1 4:0 5:1 6:0 7:1 8:520 9:0 10:1 11:0 12:0 13:0 14:160 15:160 16:0 17:0 18:0 19:0 20:1 21:0 22:0 23:255 24:255 25:1 26:0 27:1 28:0 29:0 30:0 31:0 32:0 
0.010674390308470158 0:0 1:0 2:0 3:1 4:0 5:1 6:0 7:1 8:1032 9:0 10:1 11:0 12:0 13:0 14:243 15:243 16:0 17:0 18:0 19:0 20:1 21:0 22:0 23:255 24:243 25:0.95 26:0.01 27:0.95 28:0 29:0 30:0 31:0 32:0 
0.023537119631385908 0:0 1:0 2:0 3:1 4:0 5:1 6:0 7:1 8:1032 9:0 10:1 11:0 12:0 13:0 14:201 15:201 16:0 17:0 18:0 19:0 20:1 21:0 22:0 23:255 24:201 25:0.79 26:0.01 27:0.79 28:0 29:0 30:0 31:0 32:0 
0.0036871246872424279 0:0 1:0 2:0 3:1 4:0 5:1 6:0 7:1 8:520 9:0 10:1 11:0 12:0 13:0 14:227 15:227 16:0 17:0 18:0 19:0 20:1 21:0 22:0 23:255 24:255 25:1 26:0 27:1 28:0 29:0 30:0 31:0 32:0 
0.17069317072420009 0:0 1:0 2:0 3:1 4:0 5:1 6:0 7:1 8:1032 9:0 10:1 11:0 12:0 13:0 14:284 15:284 16:0 17:0 18:0 19:0 20:1 21:0 22:0 23:255 24:186 25:0.73 26:0.02 27:0.73 28:0 29:0 30:0 31:0.21 32:0 
0.045617510319546521 0:0 1:0 2:0 3:1 4:0 5:1 6:0 7:1 8:520 9:0 10:1 11:0 12:0 13:0 14:36 15:36 16:0 17:0 18:0 19:0 20:1 21:0 22:0 23:255 24:255 25:1 26:0 27:1 28:0 29:0 30:0 31:0 32:0 
0.098201142170145916 0:0 1:0 2:0 3:1 4:0 5:1 6:0 7:1 8:1032 9:0 10:1 11:0 12:0 13:0 14:149 15:149 16:0 17:0 18:0 19:0 20:1 21:0 22:0 23:255 24:164 25:0.64 26:0.03 27:0.64 28:0 29:0 30:0 31:0.25 32:0 
0.0029996285473587341 0:0 1:0 2:0 3:1 4:0 5:1 6:0 7:1 8:520 9:0 10:1 11:0 12:0 13:0 14:121 15:121 16:0 17:0 18:0 19:0 20:1 21:0 22:0 23:255 24:255 25:1 26:0 27:1 28:0 29:0 30:0 31:0 32:0 
0.0028245902002058077 0:0 1:0 2:0 3:1 4:0 5:1 6:0 7:1 8:520 9:0 10:1 11:0 12:0 13:0 14:126 15:126 16:0 17:0 18:0 19:0 20:1 21:0 22:0 23:255 24:255 25:1 26:0 27:1 28:0 29:0 30:0 31:0 32:0 
0.032669176837718444 0:0 1:0 2:0 3:1 4:0 5:1 6:0 7:1 8:520 9:0 10:1 11:0 12:0 13:0 14:62 15:62 16:0 17:0 18:0 19:0 20:1 21:0 22:0 23:255 24:255 25:1 26:0 27:1 28:0 29:0 30:0 31:0 32:0 
0.017641817689245994 0:0 1:0 2:0 3:1 4:0 5:1 6:0 7:1 8:1032 9:0 10:1 11:0 12:0 13:0 14:190 15:190 16:0 17:0 18:0 19:0 20:1 21:0 22:0 23:225 24:131 25:0.58 26:0.03 27:0.58 28:0 29:0.01 30:0 31:0.28 32:0 
0.0045931287753584737 0:0 1:0 2:0 3:1 4:0 5:1 6:0 7:1 8:520 9:0 10:1 11:0 12:0 13:0 14:69 15:69 16:0 17:0 18:0 19:0 20:1 21:0 22:0 23:255 24:255 25:1 26:0 27:1 28:0 29:0 30:0 31:0 32:0 
0.0040502382650863533 0:0 1:0 2:0 3:1 4:0 5:1 6:0 7:1 8:520 9:0 10:1 11:0 12:0 13:0 14:128 15:128 16:0 17:0 18:0 19:0 20:1 21:0 22:0 23:255 24:255 25:1 26:0 27:1 28:0 29:0 30:0 31:0 32:0 
0.019385057324378542 0:0 1:0 2:0 3:1 4:0 5:1 6:0 7:1 8:1032 9:0 10:1 11:0 12:0 13:0 14:29 15:29 16:0 17:0 18:0 19:0 20:1 21:0 22:0 23:255 24:255 25:1 26:0 27:1 28:0 29:0 30:0 31:0 32:0 
0.012868033803429119 0:0 1:0 2:0 3:1 4:0 5:1 6:0 7:1 8:1032 9:0 10:1 11:0 12:0 13:0 14:82 15:82 16:0 17:0 18:0 19:0 20:1 21:0 22:0 23:255 24:255 25:1 26:0 27:1 28:0 29:0 30:0 31:0 32:0 
0.10096147728701499 0:0 1:0 2:0 3:1 4:0 5:1 6:0 7:1 8:1032 9:0 10:1 11:0 12:0 13:0 14:319 15:319 16:0 17:0 18:0 19:0 20:1 21:0 22:0 23:255 24:147 25:0.58 26:0.01 27:0.58 28:0 29:0 30:0 31:0 32:0 
0.0046147196098387478 0:0 1:0 2:0 3:1 4:0 5:1 6:0 7:1 8:520 9:0 10:1 11:0 12:0 13:0 14:73 15:73 16:0 17:0 18:0 19:0 20:1 21:0 22:0 23:255 24:255 25:1 26:0 27:1 28:0 29:0 30:0 31:0 32:0 
0.0036668578887343534 0:0 1:0 2:0 3:1 4:0 5:1 6:0 7:1 8:1032 9:0 10:1 11:0 12:0 13:0 14:23 15:23 16:0 17:0 18:0 19:0 20:1 21:0 22:0 23:255 24:23 25:0.09 26:0.02 27:0.09 28:0 29:0 30:0 31:0 32:0 
0.10312058264554662 0:0 1:0 2:0 3:1 4:0 5:1 6:0 7:1 8:1032 9:0 10:1 11:0 12:0 13:0 14:271 15:271 16:0 17:0 18:0 19:0 20:1 21:0 22:0 23:195 24:101 25:0.52 26:0.04 27:0.52 28:0 29:0.01 30:0 31:0.32 32:0 
0.053732451104785882 0:0 1:0 2:0 3:1 4:0 5:1 6:0 7:1 8:1032 9:0 10:1 11:0 12:0 13:0 14:262 15:262 16:0 17:0 18:0 19:0 20:1 21:0 22:0 23:255 24:255 25:1 26:0 27:1 28:0 29:0 30:0 31:0 32:0 
0.0065054911612014571 0:0 1:0 2:0 3:1 4:0 5:1 6:0 7:1 8:1032 9:0 10:1 11:0 12:0 13:0 14:56 15:56 16:0 17:0 18:0 19:0 20:1 21:0 22:0 23:255 24:255 25:1 26:0 27:1 28:0 29:0 30:0 31:0 32:0 
0.0095848247307054601 0:0 1:0 2:0 3:1 4:0 5:1 6:0 7:1 8:520 9:0 10:1 11:0 12:0 13:0 14:107 15:107 16:0 17:0 18:0 19:0 20:1 21:0 22:0 23:255 24:255 25:1 26:0 27:1 28:0 29:0 30:0 31:0 32:0 
0.0010007607969532845 0:0 1:0 2:0 3:1 4:0 5:1 6:0 7:1 8:1032 9:0 10:1 11:0 12:0 13:0 14:87 15:87 16:0 17:0 18:0 19:0 20:1 21:0 22:0 23:255 24:87 25:0.34 26:0.02 27:0.34 28:0 29:0 30:0 31:0 32:0 
0.007432088073994962 0:0 1:0 2:0 3:1 4:0 5:1 6:0 7:1 8:520 9:0 10:1 11:0 12:0 13:0 14:213 15:213 16:0 17:0 18:0 19:0 20:1 21:0 22:0 23:255 24:255 25:1 26:0 27:1 28:0 29:0 30:0 31:0 32:0 
0.04442275767533934 0:0 1:0 2:0 3:1 4:0 5:1 6:0 7:1 8:1032 9:0 10:1 11:0 12:0 13:0 14:70 15:70 16:0 17:0 18:0 19:0 20:1 21:0 22:0 23:255 24:255 25:1 26:0 27:1 28:0 29:0 30:0 31:0 32:0 
0.020104727474572103 0:0 1:0 2:0 3:1 4:0 5:1 6:0 7:1 8:520 9:0 10:1 11:0 12:0 13:0 14:110 15:110 16:0 17:0 18:0 19:0 20:1 21:0 22:0 23:255 24:255 25:1 26:0 27:1 28:0 29:0 30:0 31:0 32:0 
0.00058381868148614513 0:0 1:0 2:0 3:1 4:0 5:1 6:0 7:1 8:520 9:0 10:1 11:0 12:0 13:0 14:34 15:34 16:0 17:0 18:0 19:0 20:1 21:0 22:0 23:255 24:255 25:1 26:0 27:1 28:0 29:0 30:0 31:0 32:0 
0.041238912846954967 0:0 1:0 2:0 3:1 4:0 5:1 6:0 7:1 8:520 9:0 10:1 11:0 12:0 13:0 14:235 15:235 16:0 17:0 18:0 19:0 20:1 21:0 22:0 23:255 24:255 25:1 26:0 27:1 28:0 29:0 30:0 31:0 32:0 
0.13808431483598516 0:0 1:0 2:0 3:1 4:0 5:1 6:0 7:1 8:1032 9:0 10:1 11:0 12:0 13:0 14:315 15:315 16:0 17:0 18:0 19:0 20:1 21:0 22:0 23:147 24:2 25:0.01 26:0.02 27:0.01 28:0 29:0 30:0 31:0 32:0 
0.13933567768331911 0:0 1:0 2:0 3:1 4:0 5:1 6:0 7:1 8:1032 9:0 10:1 11:0 12:0 13:0 14:34 15:34 16:0 17:0 18:0 19:0 20:1 21:0 22:0 23:255 24:184 25:0.72 26:0.02 27:0.72 28:0 29:0 30:0 31:0.22 32:0 
0.076560629647919209 0:0 1:0 2:0 3:1 4:0 5:1 6:0 7:1 8:1032 9:0 10:1 11:0 12:0 13:0 14:141 15:141 16:0 17:0 18:0 19:0 20:1 21:0 22:0 23:255 24:224 25:0.88 26:0.02 27:0.88 28:0 29:0 30:0 31:0.07 32:0 
0.0042873041709377002 0:0 1:0 2:0 3:1 4:0 5:1 6:0 7:1 8:520 9:0 10:1 11:0 12:0 13:0 14:35 15:35 16:0 17:0 18:0 19:0 20:1 21:0 22:0 23:255 24:255 25:1 26:0 27:1 28:0 29:0 30:0 31:0 32:0 
0.0040068126027013474 0:0 1:0 2:0 3:1 4:0 5:1 6:0 7:1 8:1032 9:0 10:1 11:0 12:0 13:0 14:179 15:179 16:0 17:0 18:0 19:0 20:1 21:0 22:0 23:255 24:179 25:0.7 26:0.01 27:0.7 28:0 29:0 30:0 31:0 32:0 
0.0014780460893533537 0:0 1:0 2:0 3:1 4:0 5:1 6:0 7:1 8:1032 9:0 10:1 11:0 12:0 13:0 14:88 15:88 16:0 17:0 18:0 19:0 20:1 21:0 22:0 23:255 24:255 25:1 26:0 27:1 28:0 29:0 30:0 31:0 32:0 
0.0077045385883935669 0:0 1:0 2:0 3:1 4:0 5:1 6:0 7:1 8:1032 9:0 10:1 11:0 12:0 13:0 14:97 15:97 16:0 17:0 18:0 19:0 20:1 21:0 22:0 23:151 24:57 25:0.38 26:0.05 27:0.38 28:0 29:0.01 30:0 31:0.42 32:0 
0.14099857593200951 0:0 1:0 2:0 3:1 4:0 5:1 6:0 7:1 8:1032 9:0 10:1 11:0 12:0 13:0 14:87 15:87 16:0 17:0 18:0 19:0 20:1 21:0 22:0 23:229 24:135 25:0.59 26:0.03 27:0.59 28:0 29:0.01 30:0 31:0.28 32:0 
0.0053453195160254171 0:0 1:0 2:0 3:1 4:0 5:1 6:0 7:1 8:520 9:0 10:1 11:0 12:0 13:0 14:72 15:72 16:0 17:0 18:0 19:0 20:1 21:0 22:0 23:255 24:255 25:1 26:0 27:1 28:0 29:0 30:0 31:0 32:0 
0.089450530229375658 0:0 1:0 2:0 3:1 4:0 5:1 6:0 7:1 8:1032 9:0 10:1 11:0 12:0 13:0 14:133 15:133 16:0 17:0 18:0 19:0 20:1 21:0 22:0 23:138 24:44 25:0.32 26:0.05 27:0.32 28:0 29:0.01 30:0 31:0.46 32:0 
0.029375783015865152 0:0 1:0 2:0 3:1 4:0 5:1 6:0 7:1 8:1032 9:0 10:1 11:0 12:0 13:0 14:202 15:202 16:0 17:0 18:0 19:0 20:1 21:0 22:0 23:255 24:202 25:0.79 26:0.01 27:0.79 28:0 29:0 30:0 31:0 32:0 
0.01988797680022034 0:0 1:0 2:0 3:1 4:0 5:1 6:0 7:1 8:1032 9:0 10:1 11:0 12:0 13:0 14:69 15:69 16:0 17:0 18:0 19:0 20:1 21:0 22:0 23:255 24:69 25:0.27 26:0.02 27:0.27 28:0 29:0 30:0 31:0 32:0 
0.0051549900840819132 0:0 1:0 2:0 3:1 4:0 5:1 6:0 7:1 8:520 9:0 10:1 11:0 12:0 13:0 14:197 15:197 16:0 17:0 18:0 19:0 20:1 21:0 22:0 23:255 24:255 25:1 26:0 27:1 28:0 29:0 30:0 31:0 32:0 
0.042622451872539185 0:0 1:0 2:0 3:1 4:0 5:1 6:0 7:1 8:1032 9:0 10:1 11:0 12:0 13:0 14:316 15:316 16:0 17:0 18:0 19:0 20:1 21:0 22:0 23:148 24:3 25:0.02 26:0.02 27:0.02 28:0 29:0 30:0 31:0 32:0 
0.0040618748985260175 0:0 1:0 2:0 3:1 4:0 5:1 6:0 7:1 8:520 9:0 10:1 11:0 12:0 13:0 14:220 15:220 16:0 17:0 18:0 19:0 20:1 21:0 22:0 23:255 24:255 25:1 26:0 27:1 28:0 29:0 30:0 31:0 32:0 
0.07391850441247351 0:0 1:0 2:0 3:1 4:0 5:1 6:0 7:1 8:1032 9:0 10:1 11:0 12:0 13:0 14:55 15:55 16:0 17:0 18:0 19:0 20:1 21:0 22:0 23:255 24:55 25:0.22 26:0.02 27:0.22 28:0 29:0 30:0 31:0 32:0 
0.11000551584052948 0:0 1:0 2:0 3:1 4:0 5:1 6:0 7:1 8:1032 9:0 10:1 11:0 12:0 13:0 14:327 15:327 16:0 17:0 18:0 19:0 20:1 21:0 22:0 23:243 24:149 25:0.61 26:0.03 27:0.61 28:0 29:0.01 30:0 31:0.26 32:0 
0.16591236603847276 0:0 1:0 2:0 3:1 4:0 5:1 6:0 7:1 8:1032 9:0 10:1 11:0 12:0 13:0 14:256 15:256 16:0 17:0 18:0 19:0 20:1 21:0 22:0 23:232 24:138 25:0.59 26:0.03 27:0.59 28:0 29:0.01 30:0 31:0.27 32:0 
0.12727838666453928 0:0 1:0 2:0 3:1 4:0 5:1 6:0 7:1 8:1032 9:0 10:1 11:0 12:0 13:0 14:321 15:321 16:0 17:0 18:0 19:0 20:1 21:0 22:0 23:255 24:218 25:0.85 26:0.01 27:0.85 28:0 29:0 30:0 31:0 32:0 
0.074303521585215124 0:0 1:0 2:0 3:1 4:0 5:1 6:0 7:1 8:1032 9:0 10:1 11:0 12:0 13:0 14:171 15:171 16:0 17:0 18:0 19:0 20:1 21:0 22:0 23:255 24:171 25:0.67 26:0.01 27:0.67 28:0 29:0 30:0 31:0 32:0 
0.085525948846673194 0:0 1:0 2:0 3:1 4:0 5:1 6:0 7:1 8:1032 9:0 10:1 11:0 12:0 13:0 14:185 15:185 16:0 17:0 18:0 19:0 20:1 21:0 22:0 23:102 24:8 25:0.08 26:0.07 27:0.08 28:0 29:0.02 30:0 31:0.62 32:0 
0.07745669822998226 0:0 1:0 2:0 3:1 4:0 5:1 6:0 7:1 8:1032 9:0 10:1 11:0 12:0 13:0 14:28 15:28 16:0 17:0 18:0 19:0 20:1 21:0 22:0 23:255 24:28 25:0.11 26:0.02 27:0.11 28:0 29:0 30:0 31:0 32:0 
0.0082571978411057016 0:0 1:0 2:0 3:1 4:0 5:1 6:0 7:1 8:520 9:0 10:1 11:0 12:0 13:0 14:196 15:196 16:0 17:0 18:0 19:0 20:1 21:0 22:0 23:255 24:255 25:1 26:0 27:1 28:0 29:0 30:0 31:0 32:0 
0.040084737976618892 0:0 1:0 2:0 3:1 4:0 5:1 6:0 7:1 8:508 9:0 10:1 11:0 12:0 13:0 14:321 15:321 16:0 17:0 18:0 19:0 20:1 21:0 22:0 23:255 24:255 25:1 26:0 27:1 28:0 29:0 30:0 31:0 32:0 
0.02012520101891991 0:0 1:0 2:0 3:1 4:0 5:1 6:0 7:1 8:1032 9:0 10:1 11:0 12:0 13:0 14:174 15:174 16:0 17:0 18:0 19:0 20:1 21:0 22:0 23:255 24:254 25:1 26:0.01 27:1 28:0 29:0 30:0 31:0 32:0 
0.0092231785921464537 0:0 1:0 2:0 3:1 4:0 5:1 6:0 7:1 8:1008 9:0 10:1 11:0 12:0 13:0 14:35 15:35 16:0 17:0 18:0 19:0 20:1 21:0 22:0 23:255 24:255 25:1 26:0 27:1 28:0 29:0 30:0 31:0 32:0 
0.02753788443200951 0:0 1:0 2:0 3:1 4:0 5:1 6:0 7:1 8:508 9:0 10:1 11:0 12:0 13:0 14:182 15:182 16:0 17:0 18:0 19:0 20:1 21:0 22:0 23:255 24:255 25:1 26:0 27:1 28:0 29:0 30:0 31:0 32:0 
0.054657843687508 0:0 1:0 2:0 3:1 4:0 5:1 6:0 7:1 8:508 9:0 10:1 11:0 12:0 13:0 14:119 15:119 16:0 17:0 18:0 19:0 20:1 21:0 22:0 23:255 24:255 25:1 26:0 27:1 28:0 29:0 30:0 31:0 32:0 
0.0062217574867490816 0:0 1:0 2:0 3:1 4:0 5:1 6:0 7:1 8:1008 9:0 10:1 11:0 12:0 13:0 14:303 15:303 16:0 17:0 18:0 19:0 20:1 21:0 22:0 23:255 24:255 25:1 26:0 27:1 28:0 29:0 30:0 31:0 32:0 
0.066047468389171443 0:0 1:0 2:0 3:1 4:0 5:1 6:0 7:1 8:1008 9:0 10:1 11:0 12:0 13:0 14:80 15:80 16:0 17:0 18:0 19:0 20:1 21:0 22:0 23:255 24:255 25:1 26:0 27:1 28:0 29:0 30:0 31:0 32:0 
0.044861926960508787 0:0 1:0 2:0 3:1 4:0 5:1 6:0 7:1 8:1008 9:0 10:1 11:0 12:0 13:0 14:185 15:185 16:0 17:0 18:0 19:0 20:1 21:0 22:0 23:255 24:255 25:1 26:0 27:1 28:0 29:0 30:0 31:0 32:0 
0.067955627128183815 0:0 1:0 2:0 3:1 4:0 5:1 6:0 7:1 8:1008 9:0 10:1 11:0 12:0 13:0 14:115 15:115 16:0 17:0 18:0 19:0 20:1 21:0 22:0 23:255 24:255 25:1 26:0 27:1 28:0 29:0 30:0 31:0 32:0 
0.014029935830618699 0:0 1:0 2:0 3:1 4:0 5:1 6:0 7:1 8:1008 9:0 10:1 11:0 12:0 13:0 14:248 15:248 16:0 17:0 18:0 19:0 20:1 21:0 22:0 23:255 24:255 25:1 26:0 27:1 28:0 29:0 30:0 31:0 32:0 
0.010580805855259119 0:0 1:0 2:0 3:1 4:0 5:1 6:0 7:1 8:1008 9:0 10:1 11:0 12:0 13:0 14:275 15:275 16:0 17:0 18:0 19:0 20:1 21:0 22:0 23:255 24:255 25:1 26:0 27:1 28:0 29:0 30:0 31:0 32:0 
0.030273654841377558 0:0 1:0 2:0 3:1 4:0 5:1 6:0 7:1 8:1008 9:0 10:1 11:0 12:0 13:0 14:220 15:220 16:0 17:0 18:0 19:0 20:1 21:0 22:0 23:255 24:255 25:1 26:0 27:1 28:0 29:0 30:0 31:0 32:0 
0.0099386272167140358 0:0 1:0 2:0 3:1 4:0 5:1 6:0 7:1 8:1032 9:0 10:1 11:0 12:0 13:0 14:123 15:123 16:0 17:0 18:0 19:0 20:1 21:0 22:0 23:255 24:255 25:1 26:0 27:1 28:0 29:0 30:0 31:0 32:0 
0.14890535607619812 0:0 1:0 2:0 3:1 4:1 5:0 6:0 7:1 8:552 9:0 10:1 11:0 12:0 13:0 14:1 15:1 16:0 17:0 18:0 19:0 20:1 21:0 22:0 23:255 24:1 25:0 26:0.02 27:0 28:0 29:0 30:0 31:0.03 32:0 
0.025895667662418697 0:0 1:0 2:0 3:1 4:0 5:1 6:0 7:1 8:1008 9:0 10:1 11:0 12:0 13:0 14:218 15:218 16:0 17:0 18:0 19:0 20:1 21:0 22:0 23:255 24:255 25:1 26:0 27:1 28:0 29:0 30:0 31:0 32:0 
0.07728076658510756 0:0 1:0 2:0 3:1 4:0 5:1 6:0 7:1 8:1032 9:0 10:1 11:0 12:0 13:0 14:110 15:110 16:0 17:0 18:0 19:0 20:1 21:0 22:0 23:255 24:91 25:0.36 26:0.61 27:0.36 28:0 29:0.11 30:0 31:0.53 32:0 
0.02615469034028799 0:0 1:0 2:0 3:1 4:0 5:1 6:0 7:1 8:1032 9:0 10:1 11:0 12:0 13:0 14:100 15:100 16:0 17:0 18:0 19:0 20:1 21:0 22:0 23:255 24:108 25:0.42 26:0.55 27:0.42 28:0 29:0.1 30:0 31:0.47 32:0 
0.0006880635896015639 0:0 1:0 2:0 3:1 4:0 5:1 6:0 7:1 8:1008 9:0 10:1 11:0 12:0 13:0 14:245 15:245 16:0 17:0 18:0 19:0 20:1 21:0 22:0 23:255 24:255 25:1 26:0 27:1 28:0 29:0 30:0 31:0 32:0 
0.10466383591422691 0:0 1:0 2:0 3:1 4:0 5:1 6:0 7:1 8:1008 9:0 10:1 11:0 12:0 13:0 14:326 15:326 16:0 17:0 18:0 19:0 20:1 21:0 22:0 23:255 24:255 25:1 26:0 27:1 28:0 29:0 30:0 31:0 32:0 
0.056661526760583961 0:0 1:0 2:0 3:1 4:0 5:1 6:0 7:1 8:508 9:0 10:1 11:0 12:0 13:0 14:198 15:198 16:0 17:0 18:0 19:0 20:1 21:0 22:0 23:255 24:255 25:1 26:0 27:1 28:0 29:0 30:0 31:0 32:0 
0.013923767945568294 0:0 1:0 2:0 3:1 4:0 5:1 6:0 7:1 8:1008 9:0 10:1 11:0 12:0 13:0 14:139 15:139 16:0 17:0 18:0 19:0 20:1 21:0 22:0 23:255 24:255 25:1 26:0 27:1 28:0 29:0 30:0 31:0 32:0 
0.0027903452614090564 0:0 1:0 2:0 3:1 4:0 5:1 6:0 7:1 8:1032 9:0 10:1 11:0 12:0 13:0 14:50 15:50 16:0 17:0 18:0 19:0 20:1 21:0 22:0 23:255 24:255 25:1 26:0 27:1 28:0 29:0 30:0 31:0 32:0 
0.006047196341939471 0:0 1:0 2:0 3:1 4:0 5:1 6:0 7:1 8:1008 9:0 10:1 11:0 12:0 13:0 14:214 15:214 16:0 17:0 18:0 19:0 20:1 21:0 22:0 23:255 24:255 25:1 26:0 27:1 28:0 29:0 30:0 31:0 32:0 
0.040347139166050081 0:0 1:0 2:0 3:1 4:0 5:1 6:0 7:1 8:1032 9:0 10:1 11:0 12:0 13:0 14:95 15:95 16:0 17:0 18:0 19:0 20:1 21:0 22:0 23:255 24:137 25:0.54 26:0.44 27:0.54 28:0 29:0.1 30:0 31:0.36 32:0 
0.076225745032104553 0:0 1:0 2:0 3:1 4:0 5:1 6:0 7:1 8:1008 9:0 10:1 11:0 12:0 13:0 14:295 15:295 16:0 17:0 18:0 19:0 20:1 21:0 22:0 23:255 24:255 25:1 26:0 27:1 28:0 29:0 30:0 31:0 32:0 
0.0070850568819475655 0:0 1:0 2:0 3:1 4:0 5:1 6:0 7:1 8:1008 9:0 10:1 11:0 12:0 13:0 14:179 15:179 16:0 17:0 18:0 19:0 20:1 21:0 22:0 23:255 24:255 25:1 26:0 27:1 28:0 29:0 30:0 31:0 32:0 
0.018402307794557732 0:0 1:0 2:0 3:1 4:0 5:1 6:0 7:1 8:1008 9:0 10:1 11:0 12:0 13:0 14:148 15:148 16:0 17:0 18:0 19:0 20:1 21:0 22:0 23:255 24:255 25:1 26:0 27:1 28:0 29:0 30:0 31:0 32:0 
0.013295849758460803 0:0 1:0 2:0 3:1 4:0 5:1 6:0 7:1 8:1008 9:0 10:1 11:0 12:0 13:0 14:254 15:254 16:0 17:0 18:0 19:0 20:1 21:0 22:0 23:255 24:255 25:1 26:0 27:1 28:0 29:0 30:0 31:0 32:0 
0.00074791820705226442 0:0 1:0 2:0 3:1 4:0 5:1 6:0 7:1 8:1008 9:0 10:1 11:0 12:0 13:0 14:53 15:53 16:0 17:0 18:0 19:0 20:1 21:0 22:0 23:255 24:255 25:1 26:0 27:1 28:0 29:0 30:0 31:0 32:0 
0.0014392575963152964 0:0 1:0 2:0 3:1 4:0 5:1 6:0 7:1 8:1008 9:0 10:1 11:0 12:0 13:0 14:100 15:100 16:0 17:0 18:0 19:0 20:1 21:0 22:0 23:255 24:255 25:1 26:0 27:1 28:0 29:0 30:0 31:0 32:0 
0.071535951735019268 0:0 1:0 2:0 3:1 4:0 5:1 6:0 7:1 8:1008 9:0 10:1 11:0 12:0 13:0 14:30 15:30 16:0 17:0 18:0 19:0 20:1 21:0 22:0 23:255 24:255 25:1 26:0 27:1 28:0 29:0 30:0 31:0 32:0 
0.051217658287676868 0:0 1:0 2:0 3:1 4:0 5:1 6:0 7:1 8:508 9:0 10:1 11:0 12:0 13:0 14:31 15:31 16:0 17:0 18:0 19:0 20:1 21:0 22:0 23:255 24:255 25:1 26:0 27:1 28:0 29:0 30:0 31:0 32:0 
0.075127814720532052 0:0 1:0 2:0 3:1 4:0 5:1 6:0 7:1 8:1008 9:0 10:1 11:0 12:0 13:0 14:56 15:56 16:0 17:0 18:0 19:0 20:1 21:0 22:0 23:255 24:255 25:1 26:0 27:1 28:0 29:0 30:0 31:0 32:0 
0.018212548736645403 0:0 1:0 2:0 3:1 4:0 5:1 6:0 7:1 8:508 9:0 10:1 11:0 12:0 13:0 14:308 15:308 16:0 17:0 18:0 19:0 20:1 21:0 22:0 23:255 24:255 25:1 26:0 27:1 28:0 29:0 30:0 31:0 32:0 
0.094269416021183078 0:0 1:0 2:0 3:1 4:0 5:1 6:0 7:1 8:1032 9:0 10:1 11:0 12:0 13:0 14:97 15:97 16:0 17:0 18:0 19:0 20:1 21:0 22:0 23:255 24:33 25:0.13 26:0.84 27:0.13 28:0 29:0.15 30:0 31:0.71 32:0 
0.03324044753155634 0:0 1:0 2:0 3:1 4:0 5:1 6:0 7:1 8:1032 9:0 10:1 11:0 12:0 13:0 14:183 15:183 16:0 17:0 18:0 19:0 20:1 21:0 22:0 23:255 24:255 25:1 26:0 27:1 28:0 29:0 30:0 31:0 32:0 
0.059522610100733925 0:0 1:0 2:0 3:1 4:0 5:1 6:0 7:1 8:508 9:0 10:1 11:0 12:0 13:0 14:281 15:281 16:0 17:0 18:0 19:0 20:1 21:0 22:0 23:255 24:255 25:1 26:0 27:1 28:0 29:0 30:0 31:0 32:0 
0.12011537258048668 0:0 1:0 2:0 3:1 4:0 5:1 6:0 7:1 8:1032 9:0 10:1 11:0 12:0 13:0 14:136 15:136 16:0 17:0 18:0 19:0 20:1 21:0 22:0 23:255 24:130 25:0.51 26:0.46 27:0.51 28:0 29:0.1 30:0 31:0.39 32:0 
0.077771439535257128 0:0 1:0 2:0 3:1 4:0 5:1 6:0 7:1 8:508 9:0 10:1 11:0 12:0 13:0 14:243 15:243 16:0 17:0 18:0 19:0 20:1 21:0 22:0 23:255 24:255 25:1 26:0 27:1 28:0 29:0 30:0 31:0 32:0 
0.0031245183804025595 0:0 1:0 2:0 3:1 4:0 5:1 6:0 7:1 8:1008 9:0 10:1 11:0 12:0 13:0 14:92 15:92 16:0 17:0 18:0 19:0 20:1 21:0 22:0 23:255 24:255 25:1 26:0 27:1 28:0 29:0 30:0 31:0 32:0 
0.071019214612161749 0:0 1:0 2:0 3:1 4:0 5:1 6:0 7:1 8:508 9:0 10:1 11:0 12:0 13:0 14:101 15:101 16:0 17:0 18:0 19:0 20:1 21:0 22:0 23:255 24:255 25:1 26:0 27:1 28:0 29:0 30:0 31:0 32:0 
0.035885336138626669 0:0 1:0 2:0 3:1 4:0 5:1 6:0 7:1 8:508 9:0 10:1 11:0 12:0 13:0 14:292 15:292 16:0 17:0 18:0 19:0 20:1 21:0 22:0 23:255 24:255 25:1 26:0 27:1 28:0 29:0 30:0 31:0 32:0 
0.0015336595580979356 0:0 1:0 2:0 3:1 4:0 5:1 6:0 7:1 8:1008 9:0 10:1 11:0 12:0 13:0 14:130 15:130 16:0 17:0 18:0 19:0 20:1 21:0 22:0 23:255 24:255 25:1 26:0 27:1 28:0 29:0 30:0 31:0 32:0 
0.10195556965746498 0:0 1:0 2:0 3:1 4:0 5:1 6:0 7:1 8:1008 9:0 10:1 11:0 12:0 13:0 14:2 15:2 16:0 17:0 18:0 19:0 20:1 21:0 22:0 23:255 24:255 25:1 26:0 27:1 28:0 29:0 30:0 31:0 32:0 
0.017813260176987356 0:0 1:0 2:0 3:1 4:0 5:1 6:0 7:1 8:1032 9:0 10:1 11:0 12:0 13:0 14:128 15:129 16:0 17:0 18:0 19:0 20:1 21:0 22:0.02 23:255 24:255 25:1 26:0 27:1 28:0 29:0 30:0 31:0 32:0 
0.0058537335683131533 0:0 1:0 2:0 3:1 4:0 5:1 6:0 7:1 8:1008 9:0 10:1 11:0 12:0 13:0 14:281 15:281 16:0 17:0 18:0 19:0 20:1 21:0 22:0 23:255 24:255 25:1 26:0 27:1 28:0 29:0 30:0 31:0 32:0 
0.084186005377229575 0:0 1:0 2:0 3:1 4:0 5:1 6:0 7:1 8:1032 9:0 10:1 11:0 12:0 13:0 14:114 15:114 16:0 17:0 18:0 19:0 20:1 21:0 22:0 23:255 24:61 25:0.24 26:0.73 27:0.24 28:0 29:0.12 30:0 31:0.63 32:0 
0.017927018730822007 0:0 1:0 2:0 3:1 4:0 5:1 6:0 7:1 8:1032 9:0 10:1 11:0 12:0 13:0 14:115 15:115 16:0 17:0 18:0 19:0 20:1 21:0 22:0 23:255 24:255 25:1 26:0 27:1 28:0 29:0 30:0 31:0 32:0 
0.046622936667417132 0:0 1:0 2:0 3:1 4:0 5:1 6:0 7:1 8:1008 9:0 10:1 11:0 12:0 13:0 14:137 15:137 16:0 17:0 18:0 19:0 20:1 21:0 22:0 23:255 24:255 25:1 26:0 27:1 28:0 29:0 30:0 31:0 32:0 
0.016567789846906697 0:0 1:0 2:0 3:1 4:0 5:1 6:0 7:1 8:508 9:0 10:1 11:0 12:0 13:0 14:223 15:223 16:0 17:0 18:0 19:0 20:1 21:0 22:0 23:255 24:255 25:1 26:0 27:1 28:0 29:0 30:0 31:0 32:0 
0.0087142803912900885 0:0 1:0 2:0 3:1 4:0 5:1 6:0 7:1 8:508 9:0 10:1 11:0 12:0 13:0 14:23 15:23 16:0 17:0 18:0 19:0 20:1 21:0 22:0 23:255 24:255 25:1 26:0 27:1 28:0 29:0 30:0 31:0 32:0 
0.016471509547006311 0:0 1:0 2:0 3:1 4:0 5:1 6:0 7:1 8:1008 9:0 10:1 11:0 12:0 13:0 14:99 15:99 16:0 17:0 18:0 19:0 20:1 21:0 22:0 23:255 24:255 25:1 26:0 27:1 28:0 29:0 30:0 31:0 32:0 
0.015495319848828955 0:0 1:0 2:0 3:1 4:0 5:1 6:0 7:1 8:1032 9:0 10:1 11:0 12:0 13:0 14:119 15:120 16:0 17:0 18:0 19:0 20:1 21:0 22:0.02 23:255 24:255 25:1 26:0 27:1 28:0 29:0 30:0 31:0 32:0 
0.076694389866228327 0:0 1:0 2:0 3:1 4:0 5:1 6:0 7:1 8:508 9:0 10:1 11:0 12:0 13:0 14:53 15:53 16:0 17:0 18:0 19:0 20:1 21:0 22:0 23:255 24:255 25:1 26:0 27:1 28:0 29:0 30:0 31:0 32:0 
0.14046602319659546 0:0 1:0 2:0 3:1 4:0 5:1 6:0 7:1 8:1032 9:0 10:1 11:0 12:0 13:0 14:242 15:242 16:0 17:0 18:0 19:0 20:1 21:0 22:0 23:255 24:5 25:0.02 26:0.01 27:0.02 28:0 29:0 30:0 31:0 32:0 
0.062990358557200449 0:0 1:0 2:0 3:1 4:0 5:1 6:0 7:1 8:508 9:0 10:1 11:0 12:0 13:0 14:149 15:149 16:0 17:0 18:0 19:0 20:1 21:0 22:0 23:255 24:255 25:1 26:0 27:1 28:0 29:0 30:0 31:0 32:0 
0.081610642008554182 0:0 1:0 2:0 3:1 4:0 5:1 6:0 7:1 8:1032 9:0 10:1 11:0 12:0 13:0 14:6 15:6 16:0 17:0 18:0 19:0 20:1 21:0 22:0 23:255 24:182 25:0.71 26:0.02 27:0.72 28:0 29:0 30:0 31:0 32:0 
0.10581896083844687 0:0 1:0 2:0 3:1 4:0 5:1 6:0 7:1 8:1032 9:0 10:1 11:0 12:0 13:0 14:125 15:125 16:0 17:0 18:0 19:0 20:1 21:0 22:0 23:255 24:28 25:0.11 26:0.85 27:0.11 28:0 29:0.15 30:0 31:0.73 32:0 
0.008832526318228999 0:0 1:0 2:0 3:1 4:0 5:1 6:0 7:1 8:1008 9:0 10:1 11:0 12:0 13:0 14:96 15:96 16:0 17:0 18:0 19:0 20:1 21:0 22:0 23:255 24:255 25:1 26:0 27:1 28:0 29:0 30:0 31:0 32:0 
0.048201419404223934 0:0 1:0 2:0 3:1 4:0 5:1 6:0 7:1 8:1032 9:0 10:1 11:0 12:0 13:0 14:165 15:165 16:0 17:0 18:0 19:0 20:1 21:0 22:0 23:255 24:255 25:1 26:0 27:1 28:0 29:0 30:0 31:0 32:0 
0.035530434985420037 0:0 1:0 2:0 3:1 4:0 5:1 6:0 7:1 8:508 9:0 10:1 11:0 12:0 13:0 14:218 15:218 16:0 17:0 18:0 19:0 20:1 21:0 22:0 23:255 24:255 25:1 26:0 27:1 28:0 29:0 30:0 31:0 32:0 
0.056263272406056879 0:0 1:0 2:0 3:1 4:0 5:1 6:0 7:1 8:1008 9:0 10:1 11:0 12:0 13:0 14:239 15:239 16:0 17:0 18:0 19:0 20:1 21:0 22:0 23:255 24:255 25:1 26:0 27:1 28:0 29:0 30:0 31:0 32:0 
0.031183411691455748 0:0 1:0 2:0 3:1 4:0 5:1 6:0 7:1 8:1032 9:0 10:1 11:0 12:0 13:0 14:146 15:147 16:0 17:0 18:0 19:0 20:1 21:0 22:0.01 23:255 24:255 25:1 26:0 27:1 28:0 29:0 30:0 31:0 32:0 
0.04265964464619381 0:0 1:0 2:0 3:1 4:0 5:1 6:0 7:1 8:508 9:0 10:1 11:0 12:0 13:0 14:167 15:167 16:0 17:0 18:0 19:0 20:1 21:0 22:0 23:255 24:255 25:1 26:0 27:1 28:0 29:0 30:0 31:0 32:0 
0.068532955422851052 0:0 1:0 2:0 3:1 4:0 5:1 6:0 7:1 8:1008 9:0 10:1 11:0 12:0 13:0 14:164 15:164 16:0 17:0 18:0 19:0 20:1 21:0 22:0 23:255 24:255 25:1 26:0 27:1 28:0 29:0 30:0 31:0 32:0 
0.06160779298534607 0:0 1:0 2:0 3:1 4:0 5:1 6:0 7:1 8:1032 9:0 10:1 11:0 12:0 13:0 14:95 15:95 16:0 17:0 18:0 19:0 20:1 21:0 22:0 23:255 24:255 25:1 26:0 27:1 28:0 29:0 30:0 31:0 32:0 
0.029766647706559849 0:0 1:0 2:0 3:1 4:0 5:1 6:0 7:1 8:508 9:0 10:1 11:0 12:0 13:0 14:10 15:10 16:0 17:0 18:0 19:0 20:1 21:0 22:0 23:255 24:255 25:1 26:0 27:1 28:0 29:0 30:0 31:0 32:0 
0.12102689433421375 0:0 1:0 2:0 3:1 4:0 5:1 6:0 7:1 8:1032 9:0 10:1 11:0 12:0 13:0 14:109 15:109 16:0 17:0 18:0 19:0 20:1 21:0 22:0 23:255 24:212 25:0.83 26:0.16 27:0.83 28:0 29:0.05 30:0 31:0.12 32:0 
0.0016773771576532601 0:0 1:0 2:0 3:1 4:0 5:1 6:0 7:1 8:1008 9:0 10:1 11:0 12:0 13:0 14:301 15:301 16:0 17:0 18:0 19:0 20:1 21:0 22:0 23:255 24:255 25:1 26:0 27:1 28:0 29:0 30:0 31:0 32:0 
0.062656307809351774 0:0 1:0 2:0 3:1 4:0 5:1 6:0 7:1 8:1008 9:0 10:1 11:0 12:0 13:0 14:267 15:267 16:0 17:0 18:0 19:0 20:1 21:0 22:0 23:255 24:255 25:1 26:0 27:1 28:0 29:0 30:0 31:0 32:0 
0.077556721962431657 0:0 1:0 2:0 3:1 4:0 5:1 6:0 7:1 8:1032 9:0 10:1 11:0 12:0 13:0 14:110 15:110 16:0 17:0 18:0 19:0 20:1 21:0 22:0 23:255 24:14 25:0.05 26:0.91 27:0.05 28:0 29:0.15 30:0 31:0.79 32:0 
0.013678518743651981 0:0 1:0 2:0 3:1 4:0 5:1 6:0 7:1 8:1008 9:0 10:1 11:0 12:0 13:0 14:95 15:95 16:0 17:0 18:0 19:0 20:1 21:0 22:0 23:255 24:255 25:1 26:0 27:1 28:0 29:0 30:0 31:0 32:0 
0.050454708893213608 0:0 1:0 2:0 3:1 4:0 5:1 6:0 7:1 8:1008 9:0 10:1 11:0 12:0 13:0 14:200 15:200 16:0 17:0 18:0 19:0 20:1 21:0 22:0 23:255 24:255 25:1 26:0 27:1 28:0 29:0 30:0 31:0 32:0 
